/* Organism #8 Fitness: 300.000000 Time: 0 */
/* Position #8*/
#1 x: 37 y: 34
#2 x: 63 y: 24
#3 x: 77 y: 29
#4 x: 63 y: 68
#5 x: 85 y: 70
#6 x: 70 y: 84
genomestart 8
trait 1 1.000000 0.000000 0.000000 0.000000 0.000000 0.000000 0.000000 0.000000 trait 2 51558.000000 0.000000 0.000000 18452.000000 78989.000000 0.000000 41404.000000 0.000000 trait 3 3.000000 0.000000 0.000000 0.000000 0.000000 0.000000 0.000000 0.000000 trait 4 4.000000 0.000000 0.000000 0.000000 0.000000 0.000000 0.000000 0.000000 node 1 4 1 3
node 2 2 1 1
node 3 4 1 1
node 4 2 1 1
node 5 4 1 1
node 6 3 1 1
node 7 2 1 1
node 8 1 1 1
node 9 4 1 1
node 10 1 1 1
node 11 1 1 1
node 12 1 1 1
node 13 3 0 2
node 14 1 0 2
node 15 4 0 2
node 71 1 0 0
node 289 1 0 0
node 317 1 0 0
node 368 1 0 0
node 381 1 0 0
node 394 1 0 0
node 473 1 0 0
node 490 1 0 0
node 568 1 0 0
node 647 4 0 0
node 686 1 0 0
node 704 1 0 0
node 760 1 0 0
node 834 1 0 0
node 877 1 0 0
node 886 1 0 0
node 948 1 0 0
node 996 1 0 0
node 1018 1 0 0
node 1030 1 0 0
node 1107 1 0 0
node 1283 1 0 0
node 1318 1 0 0
node 1334 1 0 0
node 1348 1 0 0
node 1396 1 0 0
node 1501 1 0 0
node 1604 1 0 0
node 1683 1 0 0
node 1699 1 0 0
node 1811 1 0 0
node 1862 1 0 0
node 1886 1 0 0
node 1902 1 0 0
gene 4 1 13 -647091 0 1 -647091 1
gene 3 2 13 142116 0 2 142116 1
gene 2 3 13 -800000 0 3 -800000 0
gene 4 4 13 -800000 0 4 -800000 1
gene 2 5 13 800000 0 5 800000 0
gene 3 6 13 -391818 0 6 -391818 0
gene 1 7 13 -599511 0 7 -599511 0
gene 1 8 13 -142176 0 8 -142176 1
gene 1 9 13 -197103 0 9 -197103 1
gene 2 10 13 -800000 0 10 -800000 1
gene 3 11 13 233802 0 11 233802 1
gene 3 12 13 614165 0 12 614165 0
gene 1 1 14 -337259 0 13 -337259 1
gene 1 2 14 -177255 0 14 -177255 0
gene 3 3 14 -92298 0 15 -92298 0
gene 1 4 14 144585 0 16 144585 0
gene 1 5 14 118074 0 17 118074 1
gene 1 6 14 -206427 0 18 -206427 1
gene 1 7 14 -350574 0 19 -350574 1
gene 2 8 14 -744780 0 20 -744780 1
gene 2 9 14 251742 0 21 251742 1
gene 1 10 14 -777618 0 22 -777618 0
gene 3 11 14 233151 0 23 233151 1
gene 2 12 14 -43776 0 24 -43776 0
gene 3 1 15 21210 0 25 21210 1
gene 2 2 15 -69789 0 26 -69789 1
gene 4 3 15 -750255 0 27 -750255 0
gene 2 4 15 -119256 0 28 -119256 0
gene 2 5 15 -133377 0 29 -133377 1
gene 1 6 15 -686381 0 30 -686381 1
gene 4 7 15 100056 0 31 100056 0
gene 2 8 15 297561 0 32 297561 0
gene 2 9 15 -286866 0 33 -286866 1
gene 1 10 15 -150183 0 34 -150183 1
gene 3 11 15 622164 0 35 622164 0
gene 1 12 15 -336267 0 36 -336267 1
gene 4 3 71 -338162 0 201 -338162 0
gene 3 71 14 -271659 0 202 -271659 0
gene 1 13 13 177000 1 248 177000 1
gene 2 13 15 -194451 0 413 -194451 1
gene 4 10 71 293874 0 454 293874 1
gene 1 7 71 315633 0 542 315633 0
gene 4 8 71 170483 0 717 170483 1
gene 4 71 71 491088 1 769 491088 0
gene 4 3 289 -450590 0 858 -450590 0
gene 4 289 15 121743 0 859 121743 1
gene 3 289 14 -199200 0 897 -199200 1
gene 4 3 317 800000 0 942 800000 0
gene 4 317 289 251406 0 943 251406 1
gene 2 8 368 -146289 0 1081 -146289 0
gene 2 368 15 -420117 0 1082 -420117 0
gene 1 2 381 301131 0 1117 301131 1
gene 2 381 14 -78762 0 1118 -78762 1
gene 4 3 394 25278 0 1159 25278 0
gene 4 394 71 85272 0 1160 85272 1
gene 4 1 394 -465651 0 1362 -465651 1
gene 2 3 473 291621 0 1405 291621 1
gene 2 473 13 -350886 0 1406 -350886 1
gene 1 10 490 -208500 0 1456 -208500 1
gene 1 490 14 800000 0 1457 800000 1
gene 3 13 289 219366 0 1591 219366 1
gene 4 71 568 -298323 1 1699 -298323 1
gene 4 568 71 -285515 0 1700 -285515 0
gene 3 568 15 -672651 0 1754 -672651 1
gene 3 289 394 -582216 0 1809 -582216 0
gene 4 568 647 305586 0 1948 305586 1
gene 4 647 71 300813 0 1949 300813 1
gene 1 7 686 208059 0 2069 208059 1
gene 1 686 71 -786461 0 2070 -786461 1
gene 3 71 704 223731 0 2122 223731 1
gene 3 704 14 674337 0 2123 674337 1
gene 3 289 760 652566 0 2296 652566 1
gene 3 760 394 -80190 0 2297 -80190 1
gene 4 368 394 -212100 0 2326 -212100 0
gene 2 10 289 142154 0 2376 142154 1
gene 4 3 834 -45393 0 2518 -45393 1
gene 4 834 317 -630618 0 2519 -630618 1
gene 2 12 877 493428 0 2634 493428 1
gene 2 877 14 359430 0 2635 359430 1
gene 2 4 886 44193 0 2665 44193 1
gene 2 886 15 197829 0 2666 197829 0
gene 2 5 948 -206553 0 2855 -206553 0
gene 2 948 13 -422259 0 2856 -422259 0
gene 2 877 877 -800000 1 2903 -800000 1
gene 4 7 996 680070 0 2996 680070 1
gene 1 996 13 -271545 0 2997 -271545 1
gene 3 7 1018 -398400 0 3054 -398400 1
gene 4 1018 15 -131268 0 3055 -131268 1
gene 1 4 1030 721890 0 3100 721890 1
gene 1 1030 14 84411 0 3101 84411 1
gene 3 568 568 140247 1 3154 140247 1
gene 2 5 1107 -69567 0 3308 -69567 1
gene 2 1107 948 574622 0 3309 574622 1
gene 4 686 686 182856 1 3352 182856 1
gene 3 996 490 -61629 0 3408 -61629 1
gene 3 996 996 -87543 1 3624 -87543 0
gene 3 381 381 148863 1 3767 148863 1
gene 4 3 1283 -280926 0 3832 -280926 0
gene 4 1283 394 -39273 0 3833 -39273 1
gene 2 8 1318 173181 0 3932 173181 1
gene 2 1318 368 800000 0 3933 800000 1
gene 4 3 1334 -39288 0 3987 -39288 1
gene 4 1334 1283 -115608 0 3988 -115608 1
gene 3 6 1348 150579 0 4030 150579 1
gene 3 1348 13 355860 0 4031 355860 1
gene 3 11 1396 424038 0 4170 424038 1
gene 3 1396 15 -148107 0 4171 -148107 1
gene 2 948 1501 266244 0 4488 266244 0
gene 2 1501 13 -227331 0 4489 -227331 1
gene 2 948 1604 186117 0 4780 186117 1
gene 2 1604 1501 -101970 0 4781 -101970 1
gene 4 490 317 242628 0 4926 242628 0
gene 3 996 1683 233269 1 5017 233269 1
gene 3 1683 996 -420864 0 5018 -420864 1
gene 2 368 1699 -250644 0 5067 -250644 1
gene 2 1699 15 -288153 0 5068 -288153 1
gene 4 8 1396 198870 0 5249 198870 1
gene 2 886 1811 -88994 0 5389 -88994 1
gene 2 1811 15 528177 0 5390 528177 1
gene 3 12 1862 1 0 5541 1 1
gene 3 1862 13 535049 0 5542 535049 1
gene 3 2 1862 -91271 0 5583 -91271 1
gene 4 490 1886 270159 0 5624 270159 1
gene 4 1886 317 -101718 0 5625 -101718 1
gene 4 368 1902 1 0 5673 1 1
gene 4 1902 394 296589 0 5674 296589 1
gene 3 1501 686 208554 0 5725 208554 1
genomeend 8


/* Organism #12 Fitness: 360.000000 Time: 0 */
/* Position #12*/
#1 x: 24 y: 15
#2 x: 41 y: 15
#3 x: 39 y: 35
#4 x: 78 y: 68
#5 x: 42 y: 68
#6 x: 60 y: 60
genomestart 12
trait 1 100000.000000 0.000000 0.000000 0.000000 0.000000 0.000000 0.000000 0.000000 trait 2 52534.000000 91990.000000 0.000000 100000.000000 0.000000 0.000000 0.000000 0.000000 trait 3 21555.000000 0.000000 74217.000000 0.000000 72769.000000 0.000000 0.000000 0.000000 trait 4 4.000000 0.000000 0.000000 0.000000 0.000000 0.000000 0.000000 0.000000 node 1 1 1 3
node 2 2 1 1
node 3 4 1 1
node 4 4 1 1
node 5 1 1 1
node 6 4 1 1
node 7 3 1 1
node 8 3 1 1
node 9 3 1 1
node 10 4 1 1
node 11 4 1 1
node 12 1 1 1
node 13 1 0 2
node 14 2 0 2
node 15 4 0 2
node 24 1 0 0
node 188 3 0 0
node 222 1 0 0
node 272 1 0 0
node 301 1 0 0
node 380 1 0 0
node 393 1 0 0
node 453 4 0 0
node 469 1 0 0
node 557 1 0 0
node 729 1 0 0
node 875 1 0 0
node 927 1 0 0
node 1021 1 0 0
node 1084 1 0 0
node 1116 1 0 0
node 1234 1 0 0
node 1295 1 0 0
node 1374 1 0 0
node 1496 1 0 0
node 1522 1 0 0
node 1622 1 0 0
node 1712 1 0 0
node 1847 1 0 0
node 1890 1 0 0
gene 1 1 13 -626570 0 1 -626570 1
gene 2 2 13 -800000 0 2 -800000 1
gene 2 3 13 549486 0 3 549486 1
gene 4 4 13 59196 0 4 59196 0
gene 3 5 13 -310175 0 5 -310175 1
gene 1 6 13 -764306 0 6 -764306 1
gene 3 7 13 -400347 0 7 -400347 1
gene 1 8 13 202422 0 8 202422 0
gene 4 9 13 714803 0 9 714803 1
gene 2 10 13 -521810 0 10 -521810 1
gene 3 11 13 299751 0 11 299751 1
gene 4 12 13 402381 0 12 402381 1
gene 1 1 14 132099 0 13 132099 1
gene 1 2 14 -800000 0 14 -800000 1
gene 2 3 14 -800000 0 15 -800000 1
gene 2 4 14 174474 0 16 174474 1
gene 1 5 14 -475794 0 17 -475794 1
gene 2 6 14 118485 0 18 118485 0
gene 3 7 14 -40425 0 19 -40425 0
gene 3 8 14 490713 0 20 490713 1
gene 3 9 14 -320288 0 21 -320288 0
gene 2 10 14 65457 0 22 65457 1
gene 3 11 14 -673191 0 23 -673191 1
gene 2 12 14 390141 0 24 390141 1
gene 2 1 15 -146203 0 25 -146203 1
gene 3 2 15 549563 0 26 549563 1
gene 4 3 15 281370 0 27 281370 0
gene 1 4 15 382827 0 28 382827 0
gene 4 5 15 602108 0 29 602108 1
gene 2 6 15 800000 0 30 800000 1
gene 4 7 15 -452565 0 31 -452565 1
gene 2 8 15 88587 0 32 88587 0
gene 2 9 15 -154398 0 33 -154398 0
gene 2 10 15 -586047 0 34 -586047 1
gene 3 11 15 -646860 0 35 -646860 1
gene 2 12 15 -118604 0 36 -118604 0
gene 4 4 24 -800000 0 62 -800000 1
gene 4 24 13 -372260 0 63 -372260 1
gene 1 24 24 -516264 1 127 -516264 0
gene 3 15 13 20187 0 293 20187 1
gene 2 7 24 755777 0 408 755777 0
gene 3 7 188 800000 0 526 800000 1
gene 3 188 14 -356463 0 527 -356463 1
gene 2 9 222 -175455 0 645 -175455 0
gene 2 222 15 -351933 0 646 -351933 1
gene 3 3 272 -800000 0 798 -800000 1
gene 3 272 15 -152217 0 799 -152217 0
gene 2 3 24 -610032 0 850 -610032 1
gene 1 24 301 -466233 1 893 -466233 0
gene 1 301 24 88119 0 894 88119 0
gene 1 188 188 304281 1 934 304281 1
gene 3 4 188 699270 0 1080 699270 1
gene 2 6 380 -282049 0 1115 -282049 1
gene 2 380 14 65829 0 1116 65829 1
gene 1 4 393 -113409 0 1157 -113409 1
gene 1 393 15 -584318 0 1158 -584318 1
gene 1 15 380 -715050 0 1196 -715050 1
gene 2 12 188 -305859 0 1302 -305859 0
gene 2 9 453 -761621 0 1346 -761621 1
gene 2 453 222 106984 0 1347 106984 1
gene 1 24 469 160017 1 1394 160017 1
gene 1 469 301 672120 0 1395 672120 0
gene 3 222 24 -193230 0 1576 -193230 1
gene 4 3 188 -800000 0 1616 -800000 1
gene 3 272 557 431274 0 1666 431274 1
gene 1 557 15 549173 0 1667 549173 0
gene 1 6 272 238716 0 1830 238716 0
gene 4 12 380 -418590 0 1879 -418590 0
gene 1 469 729 234927 0 2197 234927 1
gene 1 729 301 320475 0 2198 320475 1
gene 2 14 301 -64414 0 2244 -64414 1
gene 1 188 380 -120876 0 2284 -120876 1
gene 3 8 875 -321510 0 2630 -321510 0
gene 1 875 13 702885 0 2631 702885 1
gene 4 12 927 -409857 0 2791 -409857 1
gene 4 927 380 -314745 0 2792 -314745 1
gene 2 393 380 87858 0 3014 87858 1
gene 2 7 1021 -99984 0 3066 -99984 1
gene 2 1021 24 -583632 0 3067 -583632 1
gene 1 8 1084 -320790 0 3243 -320790 0
gene 1 1084 875 -800000 0 3244 -800000 0
gene 4 188 927 -301494 0 3297 -301494 1
gene 1 1084 1116 126108 0 3335 126108 1
gene 1 1116 875 -460161 0 3336 -460161 0
gene 1 222 469 241182 0 3394 241182 1
gene 1 8 1234 -74856 0 3693 -74856 1
gene 1 1234 1084 208803 0 3694 208803 1
gene 1 301 1295 -450936 0 3863 -450936 1
gene 1 1295 24 21552 0 3864 21552 1
gene 1 2 393 -55308 0 3943 -55308 1
gene 4 1084 1084 309945 1 4053 309945 1
gene 3 1295 1084 -202146 0 4076 -202146 1
gene 1 1116 1374 800000 0 4119 800000 1
gene 1 1374 875 -38136 0 4120 -38136 1
gene 2 272 1084 -16758 0 4218 -16758 1
gene 2 12 1496 429015 0 4474 429015 1
gene 2 1496 15 403509 0 4475 403509 1
gene 1 557 1522 -310083 0 4546 -310083 1
gene 1 1522 15 200103 0 4547 200103 1
gene 3 1116 1021 256611 0 4657 256611 1
gene 3 9 380 794978 0 4725 794978 1
gene 2 12 1622 548655 0 4831 548655 1
gene 2 1622 188 -346491 0 4832 -346491 1
gene 4 453 453 -27255 1 4965 -27255 1
gene 2 8 1712 -243834 0 5099 -243834 1
gene 2 1712 15 -168405 0 5100 -168405 1
gene 1 6 1847 28278 0 5495 28278 1
gene 1 1847 272 135339 0 5496 135339 1
gene 3 9 1890 58266 0 5636 58266 1
gene 3 1890 14 -785453 0 5637 -785453 1
gene 2 13 13 -39081 1 5772 -39081 1
genomeend 12


/* Organism #34 Fitness: 380.000000 Time: 0 */
/* Position #34*/
#1 x: 36 y: 27
#2 x: 55 y: 21
#3 x: 83 y: 18
#4 x: 64 y: 73
#5 x: 22 y: 63
#6 x: 83 y: 63
genomestart 34
trait 1 1.000000 0.000000 0.000000 0.000000 0.000000 0.000000 0.000000 0.000000 trait 2 2.000000 0.000000 0.000000 0.000000 0.000000 0.000000 0.000000 0.000000 trait 3 86734.000000 0.000000 22288.000000 0.000000 0.000000 0.000000 0.000000 0.000000 trait 4 4.000000 0.000000 0.000000 0.000000 0.000000 0.000000 0.000000 0.000000 node 1 4 1 3
node 2 2 1 1
node 3 4 1 1
node 4 2 1 1
node 5 4 1 1
node 6 3 1 1
node 7 2 1 1
node 8 1 1 1
node 9 4 1 1
node 10 1 1 1
node 11 1 1 1
node 12 4 1 1
node 13 3 0 2
node 14 1 0 2
node 15 4 0 2
node 71 4 0 0
node 289 1 0 0
node 317 1 0 0
node 368 1 0 0
node 381 1 0 0
node 394 1 0 0
node 473 1 0 0
node 490 1 0 0
node 568 1 0 0
node 647 1 0 0
node 686 1 0 0
node 704 1 0 0
node 760 1 0 0
node 834 1 0 0
node 877 1 0 0
node 886 1 0 0
node 948 1 0 0
node 996 1 0 0
node 1018 1 0 0
node 1030 1 0 0
node 1107 1 0 0
node 1283 1 0 0
node 1318 1 0 0
node 1334 1 0 0
node 1348 1 0 0
node 1396 1 0 0
node 1780 1 0 0
node 1950 1 0 0
gene 4 1 13 -137577 0 1 -137577 1
gene 3 2 13 -527298 0 2 -527298 1
gene 2 3 13 -122607 0 3 -122607 0
gene 4 4 13 -543030 0 4 -543030 1
gene 2 5 13 181665 0 5 181665 0
gene 3 6 13 530520 0 6 530520 0
gene 1 7 13 -79968 0 7 -79968 0
gene 1 8 13 66882 0 8 66882 1
gene 1 9 13 -146097 0 9 -146097 1
gene 2 10 13 -755180 0 10 -755180 1
gene 3 11 13 402465 0 11 402465 1
gene 3 12 13 226179 0 12 226179 1
gene 1 1 14 -378015 0 13 -378015 1
gene 1 2 14 34407 0 14 34407 0
gene 3 3 14 -12780 0 15 -12780 0
gene 1 4 14 2358 0 16 2358 0
gene 1 5 14 735716 0 17 735716 1
gene 1 6 14 453629 0 18 453629 1
gene 1 7 14 135156 0 19 135156 1
gene 2 8 14 748868 0 20 748868 1
gene 2 9 14 -290403 0 21 -290403 1
gene 1 10 14 -605444 0 22 -605444 0
gene 3 11 14 121833 0 23 121833 1
gene 2 12 14 699315 0 24 699315 0
gene 3 1 15 646707 0 25 646707 1
gene 2 2 15 289293 0 26 289293 1
gene 4 3 15 -639579 0 27 -639579 0
gene 2 4 15 431328 0 28 431328 0
gene 2 5 15 78015 0 29 78015 1
gene 1 6 15 580026 0 30 580026 1
gene 4 7 15 -54717 0 31 -54717 0
gene 2 8 15 289389 0 32 289389 0
gene 2 9 15 463322 0 33 463322 1
gene 1 10 15 -608273 0 34 -608273 1
gene 3 11 15 240435 0 35 240435 0
gene 1 12 15 -328653 0 36 -328653 1
gene 4 3 71 175362 0 201 175362 0
gene 3 71 14 114276 0 202 114276 0
gene 1 13 13 76470 1 248 76470 1
gene 2 13 15 -60600 0 413 -60600 1
gene 4 10 71 192132 0 454 192132 1
gene 1 7 71 -164055 0 542 -164055 0
gene 4 8 71 -93729 0 717 -93729 1
gene 4 71 71 30528 1 769 30528 0
gene 4 3 289 344787 0 858 344787 0
gene 4 289 15 9567 0 859 9567 1
gene 3 289 14 -362742 0 897 -362742 0
gene 4 3 317 -690615 0 942 -690615 0
gene 4 317 289 -214806 0 943 -214806 1
gene 2 8 368 -202206 0 1081 -202206 0
gene 2 368 15 -400332 0 1082 -400332 1
gene 1 2 381 283686 0 1117 283686 1
gene 2 381 14 -743682 0 1118 -743682 1
gene 4 3 394 -18093 0 1159 -18093 0
gene 4 394 71 393921 0 1160 393921 1
gene 4 1 394 400599 0 1362 400599 1
gene 2 3 473 -89055 0 1405 -89055 1
gene 2 473 13 44541 0 1406 44541 1
gene 1 10 490 800000 0 1456 800000 1
gene 1 490 14 -542871 0 1457 -542871 1
gene 3 13 289 110271 0 1591 110271 1
gene 4 71 568 -388935 1 1699 -388935 1
gene 4 568 71 302199 0 1700 302199 0
gene 3 568 15 43593 0 1754 43593 1
gene 1 289 394 -46638 0 1809 -46638 0
gene 4 568 647 -237693 0 1948 -237693 1
gene 1 647 71 350955 0 1949 350955 1
gene 1 7 686 21813 0 2069 21813 1
gene 1 686 71 187995 0 2070 187995 1
gene 3 71 704 103233 0 2122 103233 1
gene 3 704 14 63057 0 2123 63057 1
gene 3 289 760 17046 0 2296 17046 1
gene 3 760 394 109431 0 2297 109431 1
gene 4 368 394 -226161 0 2326 -226161 1
gene 2 10 289 82560 0 2376 82560 1
gene 4 3 834 -181884 0 2518 -181884 1
gene 4 834 317 -262884 0 2519 -262884 1
gene 2 12 877 167481 0 2634 167481 1
gene 2 877 14 654579 0 2635 654579 1
gene 2 4 886 279186 0 2665 279186 1
gene 2 886 15 388935 0 2666 388935 1
gene 2 5 948 -800000 0 2855 -800000 0
gene 2 948 13 25695 0 2856 25695 1
gene 2 877 877 73851 1 2903 73851 1
gene 1 7 996 800000 0 2996 800000 1
gene 1 996 13 -18885 0 2997 -18885 1
gene 3 7 1018 -236907 0 3054 -236907 0
gene 4 1018 15 -21864 0 3055 -21864 1
gene 1 4 1030 -398193 0 3100 -398193 1
gene 1 1030 14 -396426 0 3101 -396426 1
gene 3 568 568 692834 1 3154 692834 1
gene 2 5 1107 -800000 0 3308 -800000 1
gene 2 1107 948 -800000 0 3309 -800000 1
gene 4 686 686 -530304 1 3352 -530304 1
gene 3 996 490 217323 0 3408 217323 1
gene 3 996 996 275769 1 3624 275769 1
gene 3 381 381 641760 1 3767 641760 1
gene 4 3 1283 -489000 0 3832 -489000 0
gene 4 1283 394 15783 0 3833 15783 1
gene 2 8 1318 -323607 0 3932 -323607 1
gene 2 1318 368 -96234 0 3933 -96234 1
gene 4 3 1334 -422211 0 3987 -422211 1
gene 4 1334 1283 -44418 0 3988 -44418 1
gene 3 6 1348 576747 0 4030 576747 1
gene 3 1348 13 20673 0 4031 20673 1
gene 3 11 1396 56868 0 4170 56868 1
gene 3 1396 15 -216036 0 4171 -216036 1
gene 1 381 473 48483 0 4434 48483 1
gene 2 71 1318 -171417 1 4509 -171417 1
gene 4 15 647 -37740 0 4543 -37740 1
gene 3 5 490 50631 0 4602 50631 1
gene 1 1107 568 -472128 0 4656 -472128 1
gene 1 1018 473 -161319 0 5043 -161319 1
gene 3 7 1780 18429 0 5298 18429 1
gene 3 1780 1018 -215415 0 5299 -215415 1
gene 2 568 1018 176274 0 5447 176274 1
gene 2 948 996 -85398 0 5558 -85398 1
gene 3 289 1950 1 0 5795 0 1
gene 3 1950 14 -362742 0 5796 0 1
genomeend 34


/* Organism #40 Fitness: 400.000000 Time: 0 */
/* Position #40*/
#1 x: 18 y: 16
#2 x: 49 y: 30
#3 x: 66 y: 35
#4 x: 57 y: 72
#5 x: 48 y: 85
#6 x: 61 y: 80
genomestart 40
trait 1 1.000000 0.000000 0.000000 0.000000 0.000000 0.000000 0.000000 0.000000 trait 2 2.000000 0.000000 0.000000 0.000000 0.000000 0.000000 0.000000 0.000000 trait 3 3.000000 0.000000 0.000000 0.000000 0.000000 0.000000 0.000000 0.000000 trait 4 4.000000 0.000000 0.000000 0.000000 0.000000 0.000000 0.000000 0.000000 node 1 4 1 3
node 2 2 1 1
node 3 4 1 1
node 4 2 1 1
node 5 4 1 1
node 6 3 1 1
node 7 2 1 1
node 8 1 1 1
node 9 4 1 1
node 10 1 1 1
node 11 1 1 1
node 12 4 1 1
node 13 3 0 2
node 14 1 0 2
node 15 4 0 2
node 71 1 0 0
node 289 1 0 0
node 317 1 0 0
node 368 1 0 0
node 381 1 0 0
node 394 1 0 0
node 473 1 0 0
node 490 1 0 0
node 568 1 0 0
node 647 1 0 0
node 686 1 0 0
node 704 1 0 0
node 760 1 0 0
node 834 1 0 0
node 877 1 0 0
node 886 1 0 0
node 948 1 0 0
node 996 1 0 0
node 1018 1 0 0
node 1030 1 0 0
node 1107 1 0 0
node 1188 1 0 0
node 1240 1 0 0
node 1316 1 0 0
node 1373 1 0 0
node 1445 1 0 0
node 1459 1 0 0
node 1474 1 0 0
node 1504 1 0 0
node 1656 1 0 0
node 1801 1 0 0
node 1814 1 0 0
node 1849 1 0 0
gene 4 1 13 437358 0 1 437358 1
gene 3 2 13 -391296 0 2 -391296 1
gene 2 3 13 261849 0 3 261849 0
gene 4 4 13 -529049 0 4 -529049 1
gene 2 5 13 242457 0 5 242457 0
gene 3 6 13 -740388 0 6 -740388 1
gene 1 7 13 22836 0 7 22836 0
gene 1 8 13 -314421 0 8 -314421 1
gene 1 9 13 -366777 0 9 -366777 1
gene 2 10 13 -674949 0 10 -674949 1
gene 3 11 13 259821 0 11 259821 1
gene 3 12 13 618743 0 12 618743 1
gene 1 1 14 -444024 0 13 -444024 1
gene 1 2 14 -287138 0 14 -287138 0
gene 3 3 14 467985 0 15 467985 0
gene 1 4 14 -413943 0 16 -413943 0
gene 1 5 14 501204 0 17 501204 1
gene 1 6 14 -588450 0 18 -588450 1
gene 1 7 14 -530478 0 19 -530478 1
gene 2 8 14 -214251 0 20 -214251 0
gene 2 9 14 629784 0 21 629784 0
gene 1 10 14 -12552 0 22 -12552 0
gene 3 11 14 532458 0 23 532458 1
gene 2 12 14 -293241 0 24 -293241 0
gene 3 1 15 663644 0 25 663644 1
gene 2 2 15 438252 0 26 438252 1
gene 4 3 15 -88728 0 27 -88728 0
gene 2 4 15 -521781 0 28 -521781 0
gene 2 5 15 343695 0 29 343695 0
gene 1 6 15 -174051 0 30 -174051 0
gene 4 7 15 -368562 0 31 -368562 0
gene 2 8 15 -569547 0 32 -569547 0
gene 2 9 15 357051 0 33 357051 1
gene 1 10 15 -42414 0 34 -42414 1
gene 3 11 15 -271257 0 35 -271257 1
gene 1 12 15 284067 0 36 284067 0
gene 4 3 71 -675699 0 201 -675699 0
gene 3 71 14 561081 0 202 561081 0
gene 1 13 13 -800000 1 248 -800000 1
gene 2 13 15 292869 0 413 292869 1
gene 4 10 71 -345780 0 454 -345780 1
gene 2 7 71 -800000 0 542 -800000 0
gene 4 8 71 -730974 0 717 -730974 1
gene 4 71 71 -65721 1 769 -65721 0
gene 4 3 289 317589 0 858 317589 0
gene 4 289 15 -35091 0 859 -35091 1
gene 2 289 14 218544 0 897 218544 0
gene 4 3 317 -431013 0 942 -431013 0
gene 4 317 289 690173 0 943 690173 1
gene 2 8 368 605037 0 1081 605037 1
gene 2 368 15 489936 0 1082 489936 1
gene 1 2 381 -721059 0 1117 -721059 1
gene 2 381 14 625130 0 1118 625130 1
gene 4 3 394 -241145 0 1159 -241145 1
gene 4 394 71 322014 0 1160 322014 1
gene 4 1 394 -58179 0 1362 -58179 1
gene 2 3 473 470832 0 1405 470832 1
gene 2 473 13 437450 0 1406 437450 1
gene 1 10 490 491664 0 1456 491664 0
gene 1 490 14 241719 0 1457 241719 1
gene 3 13 289 800000 0 1591 800000 0
gene 4 71 568 464487 1 1699 464487 1
gene 4 568 71 570362 0 1700 570362 0
gene 3 568 15 -530504 0 1754 -530504 1
gene 3 289 394 -59760 0 1809 -59760 0
gene 4 568 647 -689031 0 1948 -689031 1
gene 4 647 71 -274071 0 1949 -274071 1
gene 1 7 686 -729239 0 2069 -729239 1
gene 1 686 71 -800000 0 2070 -800000 1
gene 3 71 704 -702630 0 2122 -702630 1
gene 3 704 14 107899 0 2123 107899 1
gene 3 289 760 394443 0 2296 394443 1
gene 3 760 394 324912 0 2297 324912 1
gene 4 368 394 314499 0 2326 314499 1
gene 2 10 289 428303 0 2376 428303 1
gene 4 3 834 423273 0 2518 423273 1
gene 4 834 317 503493 0 2519 503493 0
gene 2 12 877 252501 0 2634 252501 1
gene 2 877 14 386763 0 2635 386763 1
gene 2 4 886 138345 0 2665 138345 1
gene 2 886 15 -338067 0 2666 -338067 1
gene 2 5 948 212787 0 2855 212787 0
gene 2 948 13 -519708 0 2856 -519708 0
gene 2 877 877 -102335 1 2903 -102335 1
gene 1 7 996 -335361 0 2996 -335361 1
gene 1 996 13 -447495 0 2997 -447495 1
gene 3 7 1018 -565869 0 3054 -565869 1
gene 4 1018 15 484401 0 3055 484401 1
gene 1 4 1030 35775 0 3100 35775 1
gene 1 1030 14 204474 0 3101 204474 1
gene 3 568 568 -15474 1 3154 -15474 1
gene 2 5 1107 586620 0 3308 586620 1
gene 2 1107 948 -71076 0 3309 -71076 1
gene 4 686 686 345390 1 3352 345390 1
gene 3 996 490 -461352 0 3408 -461352 1
gene 2 9 1188 -124863 0 3558 -124863 0
gene 2 1188 14 -23607 0 3559 -23607 1
gene 4 381 71 -95106 0 3665 -95106 0
gene 1 10 1240 546627 0 3707 546627 1
gene 1 1240 490 131514 0 3708 131514 1
gene 3 1107 1030 136023 0 3763 136023 1
gene 2 9 1316 -119982 0 3922 -119982 1
gene 2 1316 1188 -282432 0 3923 -282432 1
gene 1 12 1373 255912 0 4116 255912 1
gene 1 1373 15 -216114 0 4117 -216114 1
gene 1 3 1316 -279099 0 4180 -279099 1
gene 4 834 1445 382669 0 4313 382669 1
gene 4 1445 317 -264042 0 4314 -264042 1
gene 4 381 1459 -224868 0 4355 -224868 1
gene 4 1459 71 124425 0 4356 124425 1
gene 3 289 1474 -339075 0 4406 -339075 1
gene 3 1474 14 -49812 0 4407 -49812 1
gene 2 394 1373 271209 0 4457 271209 1
gene 2 5 1504 -18699 0 4497 -18699 1
gene 2 1504 15 39213 0 4498 39213 1
gene 1 368 368 106723 1 4857 106723 1
gene 3 368 760 70690 0 4894 70690 1
gene 3 13 1656 -25968 0 4939 -25968 1
gene 3 1656 289 -281688 0 4940 -281688 1
gene 4 704 1030 -260463 0 5148 -260463 1
gene 1 6 1801 271246 0 5357 271246 1
gene 1 1801 15 -130506 0 5358 -130506 1
gene 2 948 1814 82359 0 5397 82359 1
gene 2 1814 13 -349287 0 5398 -349287 1
gene 4 1240 996 29177 0 5444 29177 1
gene 2 8 1849 1 0 5500 1 1
gene 2 1849 14 -54570 0 5501 -54570 1
gene 1 1030 1030 -18276 1 5658 -18276 1
gene 2 15 14 -4084 0 5800 -4084 1
genomeend 40


/* Organism #46 Fitness: 320.000000 Time: 0 */
/* Position #46*/
#1 x: 71 y: 38
#2 x: 36 y: 24
#3 x: 82 y: 21
#4 x: 49 y: 81
#5 x: 54 y: 70
#6 x: 22 y: 68
genomestart 46
trait 1 100000.000000 0.000000 0.000000 0.000000 0.000000 0.000000 0.000000 0.000000 trait 2 52534.000000 91990.000000 0.000000 100000.000000 0.000000 0.000000 0.000000 0.000000 trait 3 21555.000000 0.000000 74217.000000 0.000000 72769.000000 0.000000 0.000000 0.000000 trait 4 4.000000 0.000000 0.000000 0.000000 0.000000 0.000000 0.000000 0.000000 node 1 1 1 3
node 2 2 1 1
node 3 4 1 1
node 4 4 1 1
node 5 1 1 1
node 6 4 1 1
node 7 3 1 1
node 8 3 1 1
node 9 3 1 1
node 10 4 1 1
node 11 4 1 1
node 12 1 1 1
node 13 1 0 2
node 14 2 0 2
node 15 4 0 2
node 24 1 0 0
node 188 3 0 0
node 222 1 0 0
node 272 1 0 0
node 301 1 0 0
node 380 1 0 0
node 393 1 0 0
node 453 4 0 0
node 469 1 0 0
node 557 1 0 0
node 729 1 0 0
node 875 1 0 0
node 927 1 0 0
node 1021 1 0 0
node 1084 1 0 0
node 1116 1 0 0
node 1234 1 0 0
node 1295 1 0 0
node 1374 1 0 0
node 1496 1 0 0
node 1522 1 0 0
node 1622 1 0 0
node 1712 1 0 0
node 1847 1 0 0
node 1890 1 0 0
gene 1 1 13 211548 0 1 211548 1
gene 2 2 13 -800000 0 2 -800000 1
gene 2 3 13 489573 0 3 489573 1
gene 4 4 13 298923 0 4 298923 0
gene 3 5 13 -649253 0 5 -649253 1
gene 1 6 13 -800000 0 6 -800000 1
gene 3 7 13 -291579 0 7 -291579 1
gene 1 8 13 665175 0 8 665175 0
gene 4 9 13 615617 0 9 615617 1
gene 2 10 13 -709100 0 10 -709100 1
gene 3 11 13 750722 0 11 750722 1
gene 4 12 13 725640 0 12 725640 1
gene 1 1 14 328011 0 13 328011 1
gene 1 2 14 -800000 0 14 -800000 1
gene 2 3 14 -146472 0 15 -146472 1
gene 2 4 14 702960 0 16 702960 1
gene 1 5 14 -631539 0 17 -631539 1
gene 2 6 14 230967 0 18 230967 0
gene 3 7 14 -272856 0 19 -272856 0
gene 3 8 14 -82425 0 20 -82425 1
gene 3 9 14 -677144 0 21 -677144 0
gene 2 10 14 -301002 0 22 -301002 1
gene 3 11 14 208443 0 23 208443 1
gene 2 12 14 -32025 0 24 -32025 1
gene 2 1 15 244697 0 25 244697 1
gene 3 2 15 241029 0 26 241029 1
gene 4 3 15 -75312 0 27 -75312 0
gene 1 4 15 610203 0 28 610203 0
gene 4 5 15 53121 0 29 53121 1
gene 2 6 15 709820 0 30 709820 1
gene 4 7 15 -181314 0 31 -181314 1
gene 2 8 15 124428 0 32 124428 0
gene 2 9 15 1980 0 33 1980 0
gene 2 10 15 -366663 0 34 -366663 1
gene 3 11 15 -464100 0 35 -464100 1
gene 2 12 15 -2166 0 36 -2166 0
gene 4 4 24 -404738 0 62 -404738 1
gene 4 24 13 -232095 0 63 -232095 1
gene 1 24 24 -480717 1 127 -480717 0
gene 3 15 13 -370923 0 293 -370923 1
gene 2 7 24 800000 0 408 800000 0
gene 3 7 188 681360 0 526 681360 1
gene 3 188 14 -242412 0 527 -242412 1
gene 2 9 222 -129210 0 645 -129210 0
gene 2 222 15 -33495 0 646 -33495 1
gene 3 3 272 -501632 0 798 -501632 1
gene 3 272 15 -36921 0 799 -36921 0
gene 2 3 24 -363204 0 850 -363204 1
gene 1 24 301 -697518 1 893 -697518 0
gene 1 301 24 -445245 0 894 -445245 0
gene 1 188 188 60054 1 934 60054 1
gene 3 4 188 707490 0 1080 707490 1
gene 2 6 380 260808 0 1115 260808 1
gene 2 380 14 -126834 0 1116 -126834 1
gene 1 4 393 86520 0 1157 86520 1
gene 1 393 15 -706448 0 1158 -706448 1
gene 1 15 380 -800000 0 1196 -800000 1
gene 2 12 188 -344142 0 1302 -344142 0
gene 2 9 453 -800000 0 1346 -800000 1
gene 2 453 222 8479 0 1347 8479 1
gene 1 24 469 -36555 1 1394 -36555 1
gene 1 469 301 237267 0 1395 237267 0
gene 3 222 24 55005 0 1576 55005 1
gene 4 3 188 -270750 0 1616 -270750 1
gene 3 272 557 222372 0 1666 222372 1
gene 1 557 15 800000 0 1667 800000 0
gene 1 6 272 291501 0 1830 291501 0
gene 4 12 380 -254628 0 1879 -254628 0
gene 1 469 729 124590 0 2197 124590 1
gene 1 729 301 671250 0 2198 671250 1
gene 2 14 301 -397603 0 2244 -397603 1
gene 1 188 380 95133 0 2284 95133 1
gene 3 8 875 -37014 0 2630 -37014 0
gene 1 875 13 175980 0 2631 175980 1
gene 4 12 927 -105927 0 2791 -105927 1
gene 4 927 380 -283029 0 2792 -283029 1
gene 2 393 380 257712 0 3014 257712 1
gene 2 7 1021 -476574 0 3066 -476574 1
gene 2 1021 24 -84147 0 3067 -84147 1
gene 1 8 1084 -523602 0 3243 -523602 0
gene 1 1084 875 -800000 0 3244 -800000 0
gene 4 188 927 -130269 0 3297 -130269 1
gene 1 1084 1116 77562 0 3335 77562 1
gene 1 1116 875 -280941 0 3336 -280941 0
gene 1 222 469 313692 0 3394 313692 1
gene 1 8 1234 -68613 0 3693 -68613 1
gene 1 1234 1084 -273774 0 3694 -273774 1
gene 1 301 1295 -6414 0 3863 -6414 1
gene 1 1295 24 30948 0 3864 30948 1
gene 1 2 393 78384 0 3943 78384 1
gene 4 1084 1084 -249738 1 4053 -249738 1
gene 3 1295 1084 -282333 0 4076 -282333 1
gene 1 1116 1374 681215 0 4119 681215 1
gene 1 1374 875 147753 0 4120 147753 1
gene 2 272 1084 -2007 0 4218 -2007 1
gene 2 12 1496 60522 0 4474 60522 1
gene 2 1496 15 14118 0 4475 14118 1
gene 1 557 1522 -273156 0 4546 -273156 1
gene 1 1522 15 217524 0 4547 217524 1
gene 3 1116 1021 -138774 0 4657 -138774 1
gene 3 9 380 -15102 0 4725 -15102 1
gene 2 12 1622 447423 0 4831 447423 1
gene 2 1622 188 159621 0 4832 159621 1
gene 4 453 453 272157 1 4965 272157 1
gene 2 8 1712 -90852 0 5099 -90852 1
gene 2 1712 15 -174165 0 5100 -174165 1
gene 1 6 1847 -63144 0 5495 -63144 1
gene 1 1847 272 -23517 0 5496 -23517 1
gene 3 9 1890 -236642 0 5636 -236642 1
gene 3 1890 14 -232431 0 5637 -232431 1
genomeend 46


/* Organism #54 Fitness: 420.000000 Time: 0 */
/* Position #54*/
#1 x: 74 y: 30
#2 x: 72 y: 40
#3 x: 79 y: 26
#4 x: 25 y: 83
#5 x: 60 y: 78
#6 x: 60 y: 67
genomestart 54
trait 1 100000.000000 0.000000 0.000000 0.000000 0.000000 0.000000 0.000000 0.000000 trait 2 0.000000 0.000000 0.000000 100000.000000 0.000000 0.000000 54286.000000 0.000000 trait 3 21555.000000 0.000000 100000.000000 20727.000000 0.000000 43502.000000 0.000000 16673.000000 trait 4 4.000000 0.000000 0.000000 0.000000 63702.000000 0.000000 0.000000 0.000000 node 1 1 1 3
node 2 2 1 1
node 3 4 1 1
node 4 4 1 1
node 5 1 1 1
node 6 4 1 1
node 7 3 1 1
node 8 3 1 1
node 9 3 1 1
node 10 4 1 1
node 11 4 1 1
node 12 1 1 1
node 13 1 0 2
node 14 2 0 2
node 15 4 0 2
node 24 1 0 0
node 188 3 0 0
node 222 1 0 0
node 272 1 0 0
node 301 1 0 0
node 380 1 0 0
node 393 1 0 0
node 453 2 0 0
node 469 1 0 0
node 557 1 0 0
node 729 1 0 0
node 875 1 0 0
node 927 1 0 0
node 1021 1 0 0
node 1084 1 0 0
node 1116 1 0 0
node 1234 1 0 0
node 1295 1 0 0
node 1374 1 0 0
node 1496 1 0 0
node 1522 1 0 0
node 1622 1 0 0
node 1737 1 0 0
node 1790 1 0 0
gene 1 1 13 46716 0 1 46716 1
gene 2 2 13 115404 0 2 115404 1
gene 2 3 13 -352767 0 3 -352767 1
gene 4 4 13 713091 0 4 713091 0
gene 3 5 13 -35715 0 5 -35715 1
gene 1 6 13 -681473 0 6 -681473 1
gene 3 7 13 -41541 0 7 -41541 1
gene 1 8 13 197331 0 8 197331 0
gene 4 9 13 -179064 0 9 -179064 1
gene 2 10 13 351975 0 10 351975 1
gene 3 11 13 500195 0 11 500195 1
gene 4 12 13 -617654 0 12 -617654 1
gene 1 1 14 235380 0 13 235380 1
gene 1 2 14 148680 0 14 148680 1
gene 2 3 14 -414267 0 15 -414267 1
gene 2 4 14 28974 0 16 28974 1
gene 1 5 14 1536 0 17 1536 1
gene 2 6 14 129912 0 18 129912 0
gene 3 7 14 -120957 0 19 -120957 0
gene 3 8 14 22317 0 20 22317 1
gene 3 9 14 -127878 0 21 -127878 1
gene 2 10 14 -93123 0 22 -93123 1
gene 1 11 14 -333333 0 23 -333333 1
gene 2 12 14 -62508 0 24 -62508 1
gene 2 1 15 142905 0 25 142905 1
gene 3 2 15 273018 0 26 273018 1
gene 4 3 15 -3837 0 27 -3837 0
gene 1 4 15 -489099 0 28 -489099 0
gene 4 5 15 500999 0 29 500999 1
gene 2 6 15 44840 0 30 44840 1
gene 4 7 15 -443316 0 31 -443316 1
gene 2 8 15 103539 0 32 103539 1
gene 2 9 15 106647 0 33 106647 0
gene 2 10 15 -405237 0 34 -405237 1
gene 3 11 15 -239604 0 35 -239604 1
gene 2 12 15 -313389 0 36 -313389 0
gene 4 4 24 414714 0 62 414714 1
gene 4 24 13 -723782 0 63 -723782 1
gene 1 24 24 644916 1 127 644916 0
gene 3 15 13 775937 0 293 775937 1
gene 2 7 24 88680 0 408 88680 0
gene 3 7 188 -463059 0 526 -463059 1
gene 3 188 14 -184575 0 527 -184575 1
gene 2 9 222 133638 0 645 133638 0
gene 2 222 15 -203394 0 646 -203394 1
gene 3 3 272 453735 0 798 453735 0
gene 3 272 15 -194538 0 799 -194538 0
gene 2 3 24 -197892 0 850 -197892 1
gene 1 24 301 -577479 1 893 -577479 0
gene 1 301 24 378656 0 894 378656 0
gene 1 188 188 -225375 1 934 -225375 1
gene 3 4 188 122130 0 1080 122130 1
gene 2 6 380 -41817 0 1115 -41817 1
gene 2 380 14 -173748 0 1116 -173748 1
gene 1 4 393 106911 0 1157 106911 1
gene 1 393 15 -515460 0 1158 -515460 1
gene 1 15 380 120366 0 1196 120366 1
gene 2 12 188 668685 0 1302 668685 0
gene 2 9 453 -228680 0 1346 -228680 1
gene 2 453 222 -87840 0 1347 -87840 1
gene 1 24 469 -200889 1 1394 -200889 1
gene 1 469 301 439293 0 1395 439293 0
gene 3 222 24 379911 0 1576 379911 1
gene 4 3 188 399582 0 1616 399582 1
gene 3 272 557 330732 0 1666 330732 1
gene 1 557 15 104796 0 1667 104796 0
gene 1 6 272 800000 0 1830 800000 1
gene 4 12 380 -7197 0 1879 -7197 0
gene 1 469 729 126843 0 2197 126843 1
gene 1 729 301 -371685 0 2198 -371685 1
gene 2 14 301 -68439 0 2244 -68439 1
gene 1 188 380 -678033 0 2284 -678033 1
gene 1 8 875 191721 0 2630 191721 0
gene 1 875 13 142530 0 2631 142530 1
gene 4 12 927 473928 0 2791 473928 1
gene 4 927 380 162837 0 2792 162837 1
gene 2 393 380 -565782 0 3014 -565782 1
gene 2 7 1021 -270453 0 3066 -270453 1
gene 2 1021 24 311013 0 3067 311013 1
gene 1 8 1084 18711 0 3243 18711 0
gene 1 1084 875 -34392 0 3244 -34392 0
gene 4 188 927 -488703 0 3297 -488703 1
gene 1 1084 1116 364407 0 3335 364407 1
gene 1 1116 875 -597600 0 3336 -597600 0
gene 1 222 469 -800000 0 3394 -800000 1
gene 1 8 1234 556959 0 3693 556959 0
gene 1 1234 1084 147708 0 3694 147708 1
gene 1 301 1295 96885 0 3863 96885 1
gene 1 1295 24 119652 0 3864 119652 1
gene 1 2 393 55710 0 3943 55710 1
gene 4 1084 1084 222519 1 4053 222519 1
gene 3 1295 1084 226422 0 4076 226422 1
gene 1 1116 1374 -90189 0 4119 -90189 1
gene 1 1374 875 264039 0 4120 264039 1
gene 2 272 1084 202947 0 4218 202947 1
gene 2 12 1496 -10875 0 4474 -10875 1
gene 2 1496 15 169941 0 4475 169941 1
gene 1 557 1522 125925 0 4546 125925 1
gene 1 1522 15 -146301 0 4547 -146301 1
gene 3 1116 1021 -253668 0 4657 -253668 1
gene 3 9 380 -94803 0 4725 -94803 1
gene 2 12 1622 -800000 0 4831 -800000 1
gene 2 1622 188 54816 0 4832 54816 1
gene 4 453 453 273162 1 4965 273162 1
gene 3 3 1737 -21681 0 5163 -21681 1
gene 3 1737 272 -81780 0 5164 -81780 1
gene 4 222 729 -645468 0 5192 -645468 1
gene 1 8 1790 21189 0 5323 21189 1
gene 1 1790 1234 -208122 0 5324 -208122 1
genomeend 54


/* Organism #64 Fitness: 420.000000 Time: 0 */
/* Position #64*/
#1 x: 61 y: 35
#2 x: 47 y: 19
#3 x: 26 y: 21
#4 x: 83 y: 76
#5 x: 77 y: 80
#6 x: 51 y: 65
genomestart 64
trait 1 1.000000 0.000000 0.000000 0.000000 0.000000 0.000000 0.000000 0.000000 trait 2 2.000000 0.000000 0.000000 0.000000 0.000000 0.000000 0.000000 0.000000 trait 3 3.000000 0.000000 0.000000 0.000000 0.000000 0.000000 0.000000 0.000000 trait 4 4.000000 0.000000 0.000000 0.000000 0.000000 0.000000 0.000000 0.000000 node 1 4 1 3
node 2 2 1 1
node 3 4 1 1
node 4 2 1 1
node 5 4 1 1
node 6 3 1 1
node 7 2 1 1
node 8 1 1 1
node 9 4 1 1
node 10 1 1 1
node 11 1 1 1
node 12 4 1 1
node 13 3 0 2
node 14 1 0 2
node 15 4 0 2
node 71 1 0 0
node 289 1 0 0
node 317 1 0 0
node 368 1 0 0
node 381 1 0 0
node 394 1 0 0
node 473 1 0 0
node 490 1 0 0
node 568 1 0 0
node 647 1 0 0
node 686 1 0 0
node 704 1 0 0
node 760 1 0 0
node 834 1 0 0
node 877 1 0 0
node 886 1 0 0
node 948 1 0 0
node 996 1 0 0
node 1018 1 0 0
node 1030 1 0 0
node 1107 1 0 0
node 1188 1 0 0
node 1240 1 0 0
node 1316 1 0 0
node 1373 1 0 0
node 1445 1 0 0
node 1459 1 0 0
node 1474 1 0 0
node 1504 1 0 0
node 1656 1 0 0
node 1801 1 0 0
node 1814 1 0 0
node 1849 1 0 0
node 1925 1 0 0
gene 4 1 13 546258 0 1 546258 1
gene 3 2 13 -27393 0 2 -27393 1
gene 2 3 13 1704 0 3 1704 0
gene 4 4 13 -399267 0 4 -399267 1
gene 2 5 13 206433 0 5 206433 0
gene 3 6 13 -602583 0 6 -602583 1
gene 1 7 13 208683 0 7 208683 0
gene 1 8 13 -116484 0 8 -116484 1
gene 1 9 13 -36789 0 9 -36789 1
gene 2 10 13 -781689 0 10 -781689 1
gene 3 11 13 51318 0 11 51318 1
gene 3 12 13 611591 0 12 611591 1
gene 1 1 14 79806 0 13 79806 1
gene 1 2 14 109113 0 14 109113 0
gene 3 3 14 292020 0 15 292020 0
gene 1 4 14 71454 0 16 71454 0
gene 1 5 14 202005 0 17 202005 1
gene 1 6 14 -407562 0 18 -407562 1
gene 1 7 14 -616368 0 19 -616368 1
gene 2 8 14 67005 0 20 67005 0
gene 2 9 14 -232215 0 21 -232215 0
gene 1 10 14 22719 0 22 22719 0
gene 3 11 14 770670 0 23 770670 1
gene 2 12 14 -31482 0 24 -31482 0
gene 3 1 15 -122970 0 25 -122970 1
gene 2 2 15 216894 0 26 216894 1
gene 4 3 15 -349284 0 27 -349284 0
gene 2 4 15 -102354 0 28 -102354 0
gene 2 5 15 63549 0 29 63549 0
gene 1 6 15 371637 0 30 371637 0
gene 4 7 15 -90054 0 31 -90054 0
gene 2 8 15 -195795 0 32 -195795 0
gene 2 9 15 117807 0 33 117807 1
gene 1 10 15 345621 0 34 345621 1
gene 3 11 15 -300237 0 35 -300237 1
gene 1 12 15 -298467 0 36 -298467 0
gene 4 3 71 -197742 0 201 -197742 0
gene 3 71 14 627675 0 202 627675 0
gene 1 13 13 -650174 1 248 -650174 1
gene 2 13 15 -19341 0 413 -19341 1
gene 4 10 71 -226041 0 454 -226041 1
gene 2 7 71 -351429 0 542 -351429 0
gene 4 8 71 40857 0 717 40857 1
gene 4 71 71 -362310 1 769 -362310 0
gene 4 3 289 -7746 0 858 -7746 0
gene 4 289 15 -366969 0 859 -366969 1
gene 2 289 14 -149352 0 897 -149352 0
gene 4 3 317 78234 0 942 78234 0
gene 4 317 289 145899 0 943 145899 1
gene 2 8 368 89841 0 1081 89841 1
gene 2 368 15 -206361 0 1082 -206361 1
gene 1 2 381 -36201 0 1117 -36201 1
gene 2 381 14 -204450 0 1118 -204450 1
gene 4 3 394 -577358 0 1159 -577358 1
gene 4 394 71 453864 0 1160 453864 1
gene 4 1 394 -463335 0 1362 -463335 1
gene 2 3 473 272754 0 1405 272754 1
gene 2 473 13 750554 0 1406 750554 1
gene 1 10 490 -63408 0 1456 -63408 0
gene 1 490 14 -58461 0 1457 -58461 1
gene 3 13 289 404724 0 1591 404724 0
gene 4 71 568 -135402 1 1699 -135402 1
gene 4 568 71 800000 0 1700 800000 0
gene 3 568 15 -520262 0 1754 -520262 1
gene 3 289 394 21489 0 1809 21489 0
gene 4 568 647 -770457 0 1948 -770457 1
gene 4 647 71 -159666 0 1949 -159666 1
gene 1 7 686 -754220 0 2069 -754220 1
gene 1 686 71 -800000 0 2070 -800000 1
gene 3 71 704 -690360 0 2122 -690360 1
gene 3 704 14 -200591 0 2123 -200591 1
gene 3 289 760 -101970 0 2296 -101970 1
gene 3 760 394 48801 0 2297 48801 1
gene 4 368 394 -133887 0 2326 -133887 1
gene 2 10 289 -148059 0 2376 -148059 1
gene 4 3 834 -131103 0 2518 -131103 1
gene 4 834 317 -231639 0 2519 -231639 0
gene 2 12 877 163509 0 2634 163509 1
gene 2 877 14 275577 0 2635 275577 1
gene 2 4 886 -192807 0 2665 -192807 1
gene 2 886 15 -361875 0 2666 -361875 1
gene 2 5 948 242985 0 2855 242985 0
gene 2 948 13 -17604 0 2856 -17604 0
gene 2 877 877 -23447 1 2903 -23447 1
gene 1 7 996 216513 0 2996 216513 1
gene 1 996 13 -140916 0 2997 -140916 1
gene 3 7 1018 -353346 0 3054 -353346 1
gene 4 1018 15 463392 0 3055 463392 1
gene 1 4 1030 -88509 0 3100 -88509 1
gene 1 1030 14 -247434 0 3101 -247434 1
gene 3 568 568 -57504 1 3154 -57504 1
gene 2 5 1107 301788 0 3308 301788 1
gene 2 1107 948 117372 0 3309 117372 1
gene 4 686 686 253008 1 3352 253008 1
gene 3 996 490 -282672 0 3408 -282672 1
gene 2 9 1188 121404 0 3558 121404 0
gene 2 1188 14 266835 0 3559 266835 1
gene 4 381 71 76329 0 3665 76329 0
gene 1 10 1240 262665 0 3707 262665 0
gene 1 1240 490 -52548 0 3708 -52548 1
gene 3 1107 1030 449505 0 3763 449505 1
gene 2 9 1316 6960 0 3922 6960 1
gene 2 1316 1188 -256773 0 3923 -256773 1
gene 1 12 1373 46215 0 4116 46215 1
gene 1 1373 15 -465477 0 4117 -465477 1
gene 1 3 1316 -560187 0 4180 -560187 1
gene 4 834 1445 760954 0 4313 760954 1
gene 4 1445 317 377925 0 4314 377925 1
gene 4 381 1459 103863 0 4355 103863 1
gene 4 1459 71 189783 0 4356 189783 1
gene 3 289 1474 -172407 0 4406 -172407 1
gene 3 1474 14 -589964 0 4407 -589964 1
gene 2 394 1373 -38328 0 4457 -38328 1
gene 2 5 1504 -29700 0 4497 -29700 1
gene 2 1504 15 317940 0 4498 317940 1
gene 1 368 368 348538 1 4857 348538 1
gene 3 368 760 -329385 0 4894 -329385 1
gene 3 13 1656 89281 0 4939 89281 1
gene 3 1656 289 -81495 0 4940 -81495 1
gene 4 704 1030 35673 0 5148 35673 1
gene 1 6 1801 -366812 0 5357 -366812 1
gene 1 1801 15 -9321 0 5358 -9321 1
gene 2 948 1814 -126854 0 5397 -126854 1
gene 2 1814 13 -336144 0 5398 -336144 1
gene 4 1240 996 134784 0 5444 134784 1
gene 2 8 1849 295635 0 5500 295635 1
gene 2 1849 14 -37455 0 5501 -37455 1
gene 1 10 1925 176526 0 5735 176526 1
gene 1 1925 1240 262665 0 5736 262665 1
genomeend 64


/* Organism #70 Fitness: 320.000000 Time: 0 */
/* Position #70*/
#1 x: 37 y: 16
#2 x: 75 y: 29
#3 x: 64 y: 29
#4 x: 19 y: 85
#5 x: 36 y: 63
#6 x: 73 y: 62
genomestart 70
trait 1 0.000000 0.000000 0.000000 0.000000 73112.000000 0.000000 8969.000000 0.000000 trait 2 60633.000000 0.000000 0.000000 0.000000 0.000000 0.000000 41404.000000 0.000000 trait 3 3.000000 0.000000 0.000000 0.000000 0.000000 0.000000 0.000000 0.000000 trait 4 4.000000 0.000000 0.000000 0.000000 0.000000 0.000000 0.000000 0.000000 node 1 4 1 3
node 2 2 1 1
node 3 4 1 1
node 4 2 1 1
node 5 4 1 1
node 6 3 1 1
node 7 2 1 1
node 8 1 1 1
node 9 4 1 1
node 10 1 1 1
node 11 1 1 1
node 12 1 1 1
node 13 3 0 2
node 14 1 0 2
node 15 4 0 2
node 71 1 0 0
node 289 1 0 0
node 317 1 0 0
node 368 1 0 0
node 381 1 0 0
node 394 1 0 0
node 473 1 0 0
node 490 1 0 0
node 568 1 0 0
node 647 1 0 0
node 686 2 0 0
node 704 1 0 0
node 760 1 0 0
node 834 1 0 0
node 877 1 0 0
node 886 1 0 0
node 948 1 0 0
node 996 1 0 0
node 1018 1 0 0
node 1030 1 0 0
node 1107 1 0 0
node 1283 1 0 0
node 1318 1 0 0
node 1334 1 0 0
node 1348 1 0 0
node 1396 1 0 0
node 1501 1 0 0
node 1585 1 0 0
node 1597 1 0 0
node 1640 1 0 0
node 1671 1 0 0
node 1752 1 0 0
node 1761 1 0 0
node 1816 1 0 0
gene 4 1 13 -320310 0 1 -320310 1
gene 3 2 13 -235044 0 2 -235044 1
gene 2 3 13 -343010 0 3 -343010 0
gene 4 4 13 120369 0 4 120369 1
gene 2 5 13 166401 0 5 166401 0
gene 3 6 13 -82671 0 6 -82671 0
gene 1 7 13 624533 0 7 624533 0
gene 1 8 13 128007 0 8 128007 1
gene 1 9 13 205218 0 9 205218 1
gene 2 10 13 257334 0 10 257334 1
gene 3 11 13 256479 0 11 256479 1
gene 3 12 13 -135093 0 12 -135093 0
gene 1 1 14 -152808 0 13 -152808 1
gene 1 2 14 48963 0 14 48963 0
gene 3 3 14 -401955 0 15 -401955 0
gene 1 4 14 -93111 0 16 -93111 0
gene 1 5 14 -228426 0 17 -228426 1
gene 1 6 14 29481 0 18 29481 1
gene 1 7 14 394290 0 19 394290 1
gene 2 8 14 70767 0 20 70767 1
gene 2 9 14 477696 0 21 477696 1
gene 1 10 14 293139 0 22 293139 0
gene 3 11 14 -236583 0 23 -236583 1
gene 2 12 14 141810 0 24 141810 0
gene 3 1 15 -254727 0 25 -254727 1
gene 2 2 15 290778 0 26 290778 1
gene 4 3 15 -332652 0 27 -332652 0
gene 2 4 15 174960 0 28 174960 0
gene 2 5 15 225027 0 29 225027 1
gene 1 6 15 -302841 0 30 -302841 1
gene 4 7 15 531867 0 31 531867 0
gene 2 8 15 11229 0 32 11229 0
gene 2 9 15 64242 0 33 64242 1
gene 1 10 15 21759 0 34 21759 1
gene 3 11 15 113517 0 35 113517 0
gene 1 12 15 563999 0 36 563999 1
gene 4 3 71 440688 0 201 440688 0
gene 3 71 14 323835 0 202 323835 0
gene 1 13 13 -435633 1 248 -435633 1
gene 2 13 15 -178082 0 413 -178082 1
gene 4 10 71 310713 0 454 310713 1
gene 1 7 71 215277 0 542 215277 0
gene 4 8 71 -49962 0 717 -49962 0
gene 4 71 71 24599 1 769 24599 0
gene 4 3 289 152265 0 858 152265 0
gene 4 289 15 219852 0 859 219852 0
gene 3 289 14 -198819 0 897 -198819 1
gene 4 3 317 -800000 0 942 -800000 0
gene 4 317 289 -444483 0 943 -444483 1
gene 2 8 368 800000 0 1081 800000 0
gene 2 368 15 -409380 0 1082 -409380 1
gene 1 2 381 -95193 0 1117 -95193 1
gene 2 381 14 -465342 0 1118 -465342 1
gene 4 3 394 256458 0 1159 256458 0
gene 4 394 71 601575 0 1160 601575 1
gene 4 1 394 97314 0 1362 97314 1
gene 2 3 473 273354 0 1405 273354 1
gene 2 473 13 -713355 0 1406 -713355 1
gene 1 10 490 45687 0 1456 45687 1
gene 1 490 14 521615 0 1457 521615 1
gene 3 13 289 504696 0 1591 504696 1
gene 4 71 568 256623 1 1699 256623 1
gene 4 568 71 16518 0 1700 16518 0
gene 3 568 15 186861 0 1754 186861 1
gene 3 289 394 -208146 0 1809 -208146 0
gene 4 568 647 -88020 0 1948 -88020 1
gene 4 647 71 800000 0 1949 800000 1
gene 1 7 686 148857 0 2069 148857 1
gene 1 686 71 -36444 0 2070 -36444 1
gene 3 71 704 800000 0 2122 800000 1
gene 3 704 14 152436 0 2123 152436 1
gene 3 289 760 65379 0 2296 65379 1
gene 3 760 394 -288351 0 2297 -288351 1
gene 4 368 394 -800000 0 2326 -800000 1
gene 2 10 289 -152859 0 2376 -152859 1
gene 4 3 834 197181 0 2518 197181 1
gene 4 834 317 9129 0 2519 9129 1
gene 2 12 877 -124431 0 2634 -124431 1
gene 2 877 14 230868 0 2635 230868 1
gene 2 4 886 -407058 0 2665 -407058 1
gene 2 886 15 484743 0 2666 484743 1
gene 2 5 948 96885 0 2855 96885 0
gene 2 948 13 531108 0 2856 531108 0
gene 2 877 877 182877 1 2903 182877 1
gene 1 7 996 -234309 0 2996 -234309 1
gene 1 996 13 -100818 0 2997 -100818 1
gene 3 7 1018 161931 0 3054 161931 1
gene 4 1018 15 -497792 0 3055 -497792 1
gene 1 4 1030 128640 0 3100 128640 1
gene 1 1030 14 -247125 0 3101 -247125 1
gene 3 568 568 663875 1 3154 663875 1
gene 2 5 1107 -419721 0 3308 -419721 0
gene 2 1107 948 663740 0 3309 663740 1
gene 4 686 686 -591465 1 3352 -591465 0
gene 3 996 490 242064 0 3408 242064 1
gene 3 996 996 -220356 1 3624 -220356 1
gene 3 381 381 -126828 1 3767 -126828 1
gene 4 3 1283 106506 0 3832 106506 0
gene 4 1283 394 -212424 0 3833 -212424 0
gene 2 8 1318 -259254 0 3932 -259254 1
gene 2 1318 368 -173193 0 3933 -173193 1
gene 4 3 1334 -185391 0 3987 -185391 0
gene 4 1334 1283 288453 0 3988 288453 1
gene 3 6 1348 196776 0 4030 196776 1
gene 3 1348 13 -655400 0 4031 -655400 1
gene 3 11 1396 -376434 0 4170 -376434 1
gene 3 1396 15 -412716 0 4171 -412716 1
gene 2 948 1501 59952 0 4488 59952 1
gene 2 1501 13 -140745 0 4489 -140745 1
gene 4 8 1585 205482 0 4719 205482 1
gene 4 1585 71 413751 0 4720 413751 1
gene 4 686 1597 564723 1 4760 564723 1
gene 4 1597 686 -88896 0 4761 -88896 1
gene 4 289 1640 247392 0 4886 247392 1
gene 4 1640 15 -151704 0 4887 -151704 1
gene 4 3 1671 -634377 0 4986 -634377 1
gene 4 1671 1334 725729 0 4987 725729 1
gene 4 1283 1752 -523032 0 5210 -523032 1
gene 4 1752 394 -114561 0 5211 -114561 1
gene 2 5 1761 -87651 0 5241 -87651 1
gene 2 1761 1107 188949 0 5242 188949 1
gene 3 12 1816 -178784 0 5407 -178784 1
gene 3 1816 13 12621 0 5408 12621 1
gene 4 1396 886 90861 0 5545 90861 1
genomeend 70


/* Organism #72 Fitness: 400.000000 Time: 0 */
/* Position #72*/
#1 x: 62 y: 35
#2 x: 49 y: 39
#3 x: 64 y: 25
#4 x: 15 y: 67
#5 x: 60 y: 67
#6 x: 67 y: 81
genomestart 72
trait 1 100000.000000 0.000000 0.000000 0.000000 0.000000 0.000000 0.000000 0.000000 trait 2 0.000000 0.000000 0.000000 100000.000000 0.000000 73312.000000 54286.000000 22147.000000 trait 3 21555.000000 0.000000 74217.000000 0.000000 72769.000000 0.000000 0.000000 0.000000 trait 4 4.000000 0.000000 0.000000 0.000000 63702.000000 0.000000 0.000000 0.000000 node 1 1 1 3
node 2 2 1 1
node 3 4 1 1
node 4 4 1 1
node 5 1 1 1
node 6 4 1 1
node 7 3 1 1
node 8 3 1 1
node 9 3 1 1
node 10 4 1 1
node 11 4 1 1
node 12 1 1 1
node 13 1 0 2
node 14 2 0 2
node 15 4 0 2
node 24 1 0 0
node 188 3 0 0
node 222 1 0 0
node 272 1 0 0
node 301 1 0 0
node 380 1 0 0
node 393 1 0 0
node 453 2 0 0
node 469 1 0 0
node 557 1 0 0
node 729 1 0 0
node 875 1 0 0
node 927 1 0 0
node 1021 1 0 0
node 1084 1 0 0
node 1116 1 0 0
node 1234 1 0 0
node 1295 1 0 0
node 1374 1 0 0
node 1496 1 0 0
node 1522 1 0 0
node 1622 3 0 0
node 1737 1 0 0
node 1790 1 0 0
node 1934 1 0 0
gene 1 1 13 -7278 0 1 -7278 1
gene 2 2 13 158334 0 2 158334 1
gene 2 3 13 200376 0 3 200376 1
gene 4 4 13 232686 0 4 232686 0
gene 3 5 13 77793 0 5 77793 1
gene 1 6 13 -273426 0 6 -273426 1
gene 3 7 13 41328 0 7 41328 1
gene 1 8 13 -199125 0 8 -199125 0
gene 4 9 13 -258867 0 9 -258867 1
gene 2 10 13 -25263 0 10 -25263 1
gene 3 11 13 150006 0 11 150006 1
gene 4 12 13 -546515 0 12 -546515 1
gene 1 1 14 -57702 0 13 -57702 1
gene 1 2 14 137229 0 14 137229 1
gene 2 3 14 -613104 0 15 -613104 1
gene 2 4 14 68919 0 16 68919 1
gene 1 5 14 262668 0 17 262668 1
gene 2 6 14 -281037 0 18 -281037 0
gene 3 7 14 326694 0 19 326694 0
gene 3 8 14 532833 0 20 532833 1
gene 3 9 14 -82218 0 21 -82218 1
gene 2 10 14 -66087 0 22 -66087 1
gene 1 11 14 -20304 0 23 -20304 1
gene 2 12 14 -10125 0 24 -10125 1
gene 2 1 15 284532 0 25 284532 1
gene 3 2 15 331128 0 26 331128 1
gene 4 3 15 -366636 0 27 -366636 0
gene 1 4 15 -79533 0 28 -79533 0
gene 4 5 15 800000 0 29 800000 1
gene 2 6 15 152696 0 30 152696 1
gene 4 7 15 -43494 0 31 -43494 1
gene 2 8 15 44046 0 32 44046 1
gene 2 9 15 53829 0 33 53829 0
gene 2 10 15 65028 0 34 65028 1
gene 3 11 15 273723 0 35 273723 1
gene 2 12 15 257283 0 36 257283 0
gene 4 4 24 277284 0 62 277284 1
gene 4 24 13 47061 0 63 47061 1
gene 1 24 24 47913 1 127 47913 0
gene 3 15 13 283041 0 293 283041 1
gene 2 7 24 -64653 0 408 -64653 0
gene 3 7 188 207153 0 526 207153 1
gene 3 188 14 194616 0 527 194616 1
gene 2 9 222 -480312 0 645 -480312 0
gene 2 222 15 -24714 0 646 -24714 1
gene 3 3 272 -52527 0 798 -52527 0
gene 3 272 15 177690 0 799 177690 0
gene 2 3 24 81381 0 850 81381 1
gene 1 24 301 -52617 1 893 -52617 0
gene 1 301 24 -22959 0 894 -22959 0
gene 1 188 188 248292 1 934 248292 1
gene 3 4 188 -332937 0 1080 -332937 1
gene 2 6 380 283791 0 1115 283791 1
gene 2 380 14 261627 0 1116 261627 1
gene 1 4 393 51543 0 1157 51543 1
gene 1 393 15 -800000 0 1158 -800000 1
gene 1 15 380 -246072 0 1196 -246072 1
gene 2 12 188 -64329 0 1302 -64329 0
gene 2 9 453 -800000 0 1346 -800000 1
gene 2 453 222 -136263 0 1347 -136263 1
gene 1 24 469 -132609 1 1394 -132609 1
gene 1 469 301 336465 0 1395 336465 0
gene 3 222 24 -356241 0 1576 -356241 1
gene 4 3 188 800000 0 1616 800000 1
gene 3 272 557 -160551 0 1666 -160551 1
gene 1 557 15 584487 0 1667 584487 0
gene 1 6 272 -121611 0 1830 -121611 1
gene 4 12 380 150849 0 1879 150849 0
gene 1 469 729 -294609 0 2197 -294609 1
gene 1 729 301 100110 0 2198 100110 1
gene 2 14 301 -78684 0 2244 -78684 1
gene 1 188 380 -357687 0 2284 -357687 1
gene 1 8 875 274158 0 2630 274158 0
gene 1 875 13 410184 0 2631 410184 1
gene 4 12 927 213912 0 2791 213912 1
gene 4 927 380 271635 0 2792 271635 1
gene 2 393 380 -469182 0 3014 -469182 1
gene 2 7 1021 -95826 0 3066 -95826 1
gene 2 1021 24 -58635 0 3067 -58635 1
gene 1 8 1084 118488 0 3243 118488 0
gene 1 1084 875 91371 0 3244 91371 0
gene 4 188 927 -55491 0 3297 -55491 1
gene 1 1084 1116 -210162 0 3335 -210162 1
gene 1 1116 875 -206376 0 3336 -206376 0
gene 1 222 469 -170487 0 3394 -170487 1
gene 1 8 1234 261330 0 3693 261330 0
gene 1 1234 1084 38811 0 3694 38811 1
gene 1 301 1295 -184374 0 3863 -184374 1
gene 1 1295 24 -110361 0 3864 -110361 1
gene 1 2 393 203562 0 3943 203562 1
gene 4 1084 1084 110343 1 4053 110343 1
gene 3 1295 1084 308130 0 4076 308130 1
gene 1 1116 1374 -340146 0 4119 -340146 1
gene 1 1374 875 -132534 0 4120 -132534 1
gene 2 272 1084 -259383 0 4218 -259383 1
gene 2 12 1496 -34599 0 4474 -34599 1
gene 2 1496 15 -359115 0 4475 -359115 1
gene 1 557 1522 -83499 0 4546 -83499 1
gene 1 1522 15 -156336 0 4547 -156336 1
gene 3 1116 1021 108357 0 4657 108357 1
gene 3 9 380 235188 0 4725 235188 1
gene 2 12 1622 -428370 0 4831 -428370 1
gene 2 1622 188 -168801 0 4832 -168801 0
gene 4 453 453 106704 1 4965 106704 1
gene 3 3 1737 1821 0 5163 1821 1
gene 3 1737 272 112956 0 5164 112956 1
gene 4 222 729 102087 0 5192 102087 1
gene 1 8 1790 -107961 0 5323 -107961 1
gene 1 1790 1234 274785 0 5324 274785 1
gene 2 1622 1934 -201936 0 5757 -201936 1
gene 2 1934 188 -324648 0 5758 -324648 1
genomeend 72


/* Organism #76 Fitness: 360.000000 Time: 0 */
/* Position #76*/
#1 x: 67 y: 36
#2 x: 19 y: 26
#3 x: 63 y: 32
#4 x: 22 y: 71
#5 x: 64 y: 66
#6 x: 80 y: 62
genomestart 76
trait 1 1.000000 0.000000 0.000000 0.000000 0.000000 0.000000 0.000000 0.000000 trait 2 51558.000000 0.000000 0.000000 18452.000000 78989.000000 0.000000 41404.000000 0.000000 trait 3 3.000000 0.000000 0.000000 0.000000 0.000000 0.000000 0.000000 0.000000 trait 4 4.000000 0.000000 0.000000 0.000000 0.000000 0.000000 0.000000 0.000000 node 1 4 1 3
node 2 2 1 1
node 3 4 1 1
node 4 2 1 1
node 5 4 1 1
node 6 3 1 1
node 7 2 1 1
node 8 1 1 1
node 9 4 1 1
node 10 1 1 1
node 11 1 1 1
node 12 1 1 1
node 13 3 0 2
node 14 1 0 2
node 15 4 0 2
node 71 1 0 0
node 289 1 0 0
node 317 1 0 0
node 368 1 0 0
node 381 1 0 0
node 394 1 0 0
node 473 1 0 0
node 490 1 0 0
node 568 1 0 0
node 647 4 0 0
node 686 1 0 0
node 704 1 0 0
node 760 1 0 0
node 834 1 0 0
node 877 1 0 0
node 886 1 0 0
node 948 1 0 0
node 996 1 0 0
node 1018 1 0 0
node 1030 1 0 0
node 1107 1 0 0
node 1283 1 0 0
node 1318 1 0 0
node 1334 1 0 0
node 1348 1 0 0
node 1396 1 0 0
node 1501 1 0 0
node 1604 1 0 0
node 1711 1 0 0
node 1823 1 0 0
gene 4 1 13 -112395 0 1 -112395 1
gene 3 2 13 -304626 0 2 -304626 1
gene 2 3 13 -28422 0 3 -28422 0
gene 4 4 13 37776 0 4 37776 1
gene 2 5 13 800000 0 5 800000 0
gene 3 6 13 257487 0 6 257487 0
gene 4 7 13 -186789 0 7 -186789 0
gene 1 8 13 -741764 0 8 -741764 1
gene 1 9 13 323067 0 9 323067 1
gene 2 10 13 287607 0 10 287607 1
gene 3 11 13 -165537 0 11 -165537 1
gene 3 12 13 -164721 0 12 -164721 1
gene 1 1 14 101031 0 13 101031 1
gene 1 2 14 470391 0 14 470391 0
gene 3 3 14 54930 0 15 54930 0
gene 1 4 14 -606441 0 16 -606441 0
gene 1 5 14 -707820 0 17 -707820 1
gene 1 6 14 -297855 0 18 -297855 1
gene 1 7 14 518493 0 19 518493 1
gene 2 8 14 232146 0 20 232146 1
gene 2 9 14 784989 0 21 784989 1
gene 1 10 14 564225 0 22 564225 0
gene 3 11 14 124320 0 23 124320 1
gene 2 12 14 -282204 0 24 -282204 0
gene 3 1 15 -307203 0 25 -307203 1
gene 2 2 15 80637 0 26 80637 1
gene 4 3 15 305491 0 27 305491 0
gene 2 4 15 -12207 0 28 -12207 0
gene 2 5 15 104808 0 29 104808 1
gene 1 6 15 -654002 0 30 -654002 1
gene 4 7 15 -405369 0 31 -405369 0
gene 2 8 15 358524 0 32 358524 0
gene 2 9 15 278445 0 33 278445 1
gene 1 10 15 -501735 0 34 -501735 1
gene 3 11 15 89484 0 35 89484 0
gene 1 12 15 -81759 0 36 -81759 1
gene 4 3 71 -713091 0 201 -713091 0
gene 3 71 14 -730886 0 202 -730886 0
gene 1 13 13 290724 1 248 290724 1
gene 2 13 15 -140736 0 413 -140736 1
gene 4 10 71 286214 0 454 286214 1
gene 1 7 71 -24567 0 542 -24567 0
gene 4 8 71 -118579 0 717 -118579 1
gene 4 71 71 574797 1 769 574797 0
gene 4 3 289 -57821 0 858 -57821 0
gene 4 289 15 591368 0 859 591368 1
gene 3 289 14 -280149 0 897 -280149 1
gene 4 3 317 -287415 0 942 -287415 0
gene 4 317 289 348936 0 943 348936 1
gene 2 8 368 -193440 0 1081 -193440 0
gene 2 368 15 363858 0 1082 363858 1
gene 1 2 381 -328800 0 1117 -328800 1
gene 2 381 14 82413 0 1118 82413 1
gene 4 3 394 73844 0 1159 73844 0
gene 4 394 71 463029 0 1160 463029 1
gene 4 1 394 293124 0 1362 293124 1
gene 2 3 473 90687 0 1405 90687 1
gene 2 473 13 -170070 0 1406 -170070 1
gene 1 10 490 361392 0 1456 361392 1
gene 1 490 14 -307773 0 1457 -307773 1
gene 3 13 289 126228 0 1591 126228 1
gene 4 71 568 304461 1 1699 304461 1
gene 4 568 71 -641660 0 1700 -641660 0
gene 3 568 15 285228 0 1754 285228 1
gene 3 289 394 1281 0 1809 1281 0
gene 4 568 647 -431298 0 1948 -431298 0
gene 4 647 71 -412875 0 1949 -412875 1
gene 1 7 686 385023 0 2069 385023 1
gene 1 686 71 -227343 0 2070 -227343 1
gene 3 71 704 -513984 0 2122 -513984 1
gene 3 704 14 -95943 0 2123 -95943 1
gene 3 289 760 22548 0 2296 22548 1
gene 3 760 394 584454 0 2297 584454 1
gene 4 368 394 141255 0 2326 141255 1
gene 2 10 289 -600365 0 2376 -600365 1
gene 4 3 834 -489270 0 2518 -489270 1
gene 4 834 317 -614085 0 2519 -614085 1
gene 2 12 877 351627 0 2634 351627 1
gene 2 877 14 -416678 0 2635 -416678 1
gene 2 4 886 156249 0 2665 156249 1
gene 2 886 15 173175 0 2666 173175 1
gene 2 5 948 99204 0 2855 99204 0
gene 2 948 13 800000 0 2856 800000 0
gene 2 877 877 341130 1 2903 341130 1
gene 4 7 996 26085 0 2996 26085 1
gene 1 996 13 161451 0 2997 161451 1
gene 3 7 1018 30539 0 3054 30539 1
gene 4 1018 15 -6675 0 3055 -6675 1
gene 1 4 1030 -235815 0 3100 -235815 1
gene 1 1030 14 40968 0 3101 40968 1
gene 3 568 568 -69639 1 3154 -69639 1
gene 2 5 1107 -46869 0 3308 -46869 1
gene 2 1107 948 -225669 0 3309 -225669 1
gene 4 686 686 -174762 1 3352 -174762 1
gene 3 996 490 55410 0 3408 55410 1
gene 3 996 996 200070 1 3624 200070 1
gene 3 381 381 -274023 1 3767 -274023 1
gene 4 3 1283 -173625 0 3832 -173625 0
gene 4 1283 394 -184581 0 3833 -184581 1
gene 2 8 1318 166374 0 3932 166374 1
gene 2 1318 368 367257 0 3933 367257 1
gene 4 3 1334 -185280 0 3987 -185280 1
gene 4 1334 1283 -150981 0 3988 -150981 1
gene 3 6 1348 196821 0 4030 196821 1
gene 3 1348 13 198198 0 4031 198198 1
gene 3 11 1396 -187566 0 4170 -187566 1
gene 3 1396 15 361212 0 4171 361212 1
gene 2 948 1501 6216 0 4488 6216 0
gene 2 1501 13 -216780 0 4489 -216780 1
gene 2 948 1604 138759 0 4780 138759 1
gene 2 1604 1501 385047 0 4781 385047 1
gene 4 490 317 284142 0 4926 284142 1
gene 4 568 1711 28569 0 5097 28569 1
gene 4 1711 647 191577 0 5098 191577 0
gene 2 1501 1501 -246294 1 5285 -246294 1
gene 4 1711 1823 -99222 0 5422 -99222 1
gene 4 1823 647 57885 0 5423 57885 1
gene 4 289 289 -203001 1 5693 -203001 1
genomeend 76


