/* Organism #6 Fitness: 154.000000 Time: 0 */
/* Position #6*/
#1 x: 30 y: 38
#2 x: 38 y: 31
#3 x: 26 y: 20
#4 x: 39 y: 84
#5 x: 85 y: 72
#6 x: 72 y: 67
genomestart 6
node 1 1 1 3
node 2 2 1 1
node 3 1 1 1
node 4 3 1 1
node 5 1 1 1
node 6 2 1 1
node 7 3 1 1
node 8 4 1 1
node 9 2 1 1
node 10 4 1 1
node 11 3 1 1
node 12 1 1 1
node 13 1 0 2
node 14 4 0 2
node 15 1 0 2
node 16 4 0 2
gene 1 1 13 517117 0 1 517117 1
gene 3 2 13 -503147 0 2 -503147 1
gene 1 3 13 -16086 0 3 -16086 1
gene 4 4 13 170938 0 4 170938 1
gene 2 5 13 -110969 0 5 -110969 1
gene 1 6 13 -21432 0 6 -21432 1
gene 3 7 13 183394 0 7 183394 1
gene 1 8 13 719081 0 8 719081 1
gene 2 9 13 159097 0 9 159097 1
gene 4 10 13 383963 0 10 383963 1
gene 1 11 13 -540124 0 11 -540124 1
gene 2 12 13 46586 0 12 46586 1
gene 2 1 14 374880 0 13 374880 1
gene 1 2 14 -394778 0 14 -394778 1
gene 3 3 14 -395620 0 15 -395620 1
gene 3 4 14 -212777 0 16 -212777 1
gene 1 5 14 217869 0 17 217869 1
gene 4 6 14 -68604 0 18 -68604 1
gene 3 7 14 -800000 0 19 -800000 1
gene 4 8 14 237235 0 20 237235 1
gene 3 9 14 -653059 0 21 -653059 1
gene 4 10 14 -500079 0 22 -500079 1
gene 2 11 14 -333114 0 23 -333114 1
gene 3 12 14 32816 0 24 32816 1
gene 3 1 15 205383 0 25 205383 1
gene 2 2 15 436235 0 26 436235 1
gene 1 3 15 343006 0 27 343006 1
gene 3 4 15 -96305 0 28 -96305 1
gene 2 5 15 146454 0 29 146454 1
gene 4 6 15 -40405 0 30 -40405 1
gene 4 7 15 -488688 0 31 -488688 1
gene 4 8 15 59539 0 32 59539 1
gene 1 9 15 56667 0 33 56667 1
gene 3 10 15 -507147 0 34 -507147 1
gene 4 11 15 -262600 0 35 -262600 1
gene 1 12 15 -689192 0 36 -689192 1
gene 3 1 16 455291 0 37 455291 1
gene 4 2 16 237036 0 38 237036 1
gene 4 3 16 800000 0 39 800000 1
gene 4 4 16 -261501 0 40 -261501 1
gene 4 5 16 241329 0 41 241329 1
gene 2 6 16 -518514 0 42 -518514 1
gene 4 7 16 -220068 0 43 -220068 1
gene 2 8 16 -152084 0 44 -152084 1
gene 3 9 16 -276429 0 45 -276429 1
gene 1 10 16 -335058 0 46 -335058 1
gene 4 11 16 -102754 0 47 -102754 1
gene 2 12 16 264297 0 48 264297 1
genomeend 6


/* Organism #7 Fitness: 166.000000 Time: 0 */
/* Position #7*/
#1 x: 30 y: 38
#2 x: 38 y: 31
#3 x: 26 y: 20
#4 x: 39 y: 84
#5 x: 85 y: 72
#6 x: 72 y: 67
genomestart 7
node 1 1 1 3
node 2 3 1 1
node 3 3 1 1
node 4 1 1 1
node 5 4 1 1
node 6 1 1 1
node 7 3 1 1
node 8 1 1 1
node 9 4 1 1
node 10 3 1 1
node 11 1 1 1
node 12 1 1 1
node 13 2 0 2
node 14 1 0 2
node 15 4 0 2
node 16 1 0 2
node 18 1 0 0
gene 3 1 13 -702456 0 1 -702456 1
gene 3 2 13 -126707 0 2 -126707 1
gene 3 3 13 800000 0 3 800000 1
gene 3 4 13 337712 0 4 337712 1
gene 1 5 13 -445991 0 5 -445991 1
gene 4 6 13 436422 0 6 436422 1
gene 1 7 13 800000 0 7 800000 1
gene 3 8 13 151944 0 8 151944 1
gene 1 9 13 393507 0 9 393507 1
gene 2 10 13 788225 0 10 788225 1
gene 4 11 13 487270 0 11 487270 1
gene 2 12 13 -475374 0 12 -475374 1
gene 1 1 14 -157146 0 13 -157146 1
gene 2 2 14 -545457 0 14 -545457 1
gene 3 3 14 800000 0 15 800000 1
gene 3 4 14 -78316 0 16 -78316 1
gene 2 5 14 536753 0 17 536753 1
gene 4 6 14 -127980 0 18 -127980 1
gene 3 7 14 -127767 0 19 -127767 1
gene 4 8 14 66219 0 20 66219 1
gene 3 9 14 -197797 0 21 -197797 1
gene 1 10 14 310288 0 22 310288 1
gene 4 11 14 55381 0 23 55381 1
gene 1 12 14 -656214 0 24 -656214 1
gene 1 1 15 -99288 0 25 -99288 1
gene 4 2 15 571226 0 26 571226 1
gene 4 3 15 -260655 0 27 -260655 1
gene 1 4 15 156604 0 28 156604 1
gene 1 5 15 150549 0 29 150549 1
gene 1 6 15 411942 0 30 411942 1
gene 4 7 15 -266323 0 31 -266323 0
gene 4 8 15 -208180 0 32 -208180 1
gene 2 9 15 373367 0 33 373367 1
gene 3 10 15 319329 0 34 319329 1
gene 2 11 15 78594 0 35 78594 1
gene 3 12 15 77480 0 36 77480 1
gene 2 1 16 -169316 0 37 -169316 1
gene 1 2 16 373203 0 38 373203 1
gene 3 3 16 -543836 0 39 -543836 1
gene 1 4 16 171220 0 40 171220 1
gene 2 5 16 -170031 0 41 -170031 1
gene 1 6 16 252540 0 42 252540 1
gene 2 7 16 -145158 0 43 -145158 1
gene 2 8 16 58086 0 44 58086 1
gene 3 9 16 182013 0 45 182013 1
gene 2 10 16 -221697 0 46 -221697 1
gene 1 11 16 -250251 0 47 -250251 1
gene 1 12 16 -480717 0 48 -480717 1
gene 4 7 18 162606 0 72 162606 1
gene 4 18 15 -108561 0 73 -108561 1
genomeend 7


/* Organism #10 Fitness: 152.000000 Time: 0 */
/* Position #10*/
#1 x: 67 y: 15
#2 x: 48 y: 24
#3 x: 15 y: 24
#4 x: 35 y: 83
#5 x: 39 y: 60
#6 x: 67 y: 66
genomestart 10
node 1 1 1 3
node 2 3 1 1
node 3 3 1 1
node 4 1 1 1
node 5 4 1 1
node 6 1 1 1
node 7 3 1 1
node 8 1 1 1
node 9 4 1 1
node 10 3 1 1
node 11 1 1 1
node 12 1 1 1
node 13 2 0 2
node 14 1 0 2
node 15 1 0 2
node 16 1 0 2
gene 3 1 13 -137238 0 1 -137238 1
gene 3 2 13 -558752 0 2 -558752 1
gene 3 3 13 -329997 0 3 -329997 1
gene 3 4 13 -176526 0 4 -176526 1
gene 1 5 13 20574 0 5 20574 1
gene 4 6 13 -455706 0 6 -455706 1
gene 1 7 13 -383205 0 7 -383205 1
gene 1 8 13 761235 0 8 761235 1
gene 1 9 13 486414 0 9 486414 1
gene 2 10 13 -264622 0 10 -264622 1
gene 4 11 13 -289728 0 11 -289728 1
gene 2 12 13 -119608 0 12 -119608 1
gene 1 1 14 254946 0 13 254946 1
gene 2 2 14 76980 0 14 76980 1
gene 3 3 14 672956 0 15 672956 1
gene 3 4 14 67241 0 16 67241 1
gene 2 5 14 800000 0 17 800000 1
gene 4 6 14 350298 0 18 350298 1
gene 3 7 14 49257 0 19 49257 1
gene 4 8 14 -319170 0 20 -319170 1
gene 3 9 14 -37941 0 21 -37941 1
gene 1 10 14 -124017 0 22 -124017 1
gene 4 11 14 800000 0 23 800000 1
gene 1 12 14 146922 0 24 146922 1
gene 1 1 15 361503 0 25 361503 1
gene 4 2 15 54474 0 26 54474 1
gene 4 3 15 -264861 0 27 -264861 1
gene 1 4 15 619150 0 28 619150 1
gene 1 5 15 -89730 0 29 -89730 1
gene 1 6 15 429738 0 30 429738 1
gene 4 7 15 39377 0 31 39377 1
gene 4 8 15 62576 0 32 62576 1
gene 2 9 15 206183 0 33 206183 1
gene 3 10 15 -559137 0 34 -559137 1
gene 2 11 15 -295398 0 35 -295398 1
gene 3 12 15 143325 0 36 143325 1
gene 2 1 16 -653432 0 37 -653432 1
gene 1 2 16 125856 0 38 125856 1
gene 3 3 16 549064 0 39 549064 1
gene 1 4 16 -328661 0 40 -328661 1
gene 2 5 16 -196716 0 41 -196716 1
gene 1 6 16 -60411 0 42 -60411 1
gene 2 7 16 125875 0 43 125875 1
gene 2 8 16 -122661 0 44 -122661 1
gene 3 9 16 -800000 0 45 -800000 1
gene 2 10 16 -219363 0 46 -219363 1
gene 1 11 16 -168039 0 47 -168039 1
gene 1 12 16 10752 0 48 10752 1
gene 2 13 16 53158 0 96 53158 1
genomeend 10


/* Organism #22 Fitness: 163.000000 Time: 0 */
/* Position #22*/
#1 x: 26 y: 35
#2 x: 21 y: 38
#3 x: 62 y: 23
#4 x: 71 y: 75
#5 x: 26 y: 62
#6 x: 43 y: 67
genomestart 22
node 1 1 1 3
node 2 1 1 1
node 3 3 1 1
node 4 3 1 1
node 5 4 1 1
node 6 2 1 1
node 7 2 1 1
node 8 4 1 1
node 9 4 1 1
node 10 4 1 1
node 11 2 1 1
node 12 3 1 1
node 13 1 0 2
node 14 1 0 2
node 15 1 0 2
node 16 3 0 2
gene 3 1 13 -392011 0 1 -392011 1
gene 1 2 13 723873 0 2 723873 1
gene 1 3 13 -111870 0 3 -111870 1
gene 2 4 13 -98805 0 4 -98805 1
gene 4 5 13 -759489 0 5 -759489 1
gene 4 6 13 -152017 0 6 -152017 1
gene 3 7 13 -298331 0 7 -298331 1
gene 2 8 13 -57408 0 8 -57408 1
gene 3 9 13 -109503 0 9 -109503 1
gene 2 10 13 -364089 0 10 -364089 1
gene 2 11 13 178842 0 11 178842 1
gene 1 12 13 -274440 0 12 -274440 1
gene 2 1 14 313863 0 13 313863 1
gene 1 2 14 -578587 0 14 -578587 1
gene 1 3 14 69209 0 15 69209 1
gene 1 4 14 170112 0 16 170112 1
gene 3 5 14 184893 0 17 184893 1
gene 2 6 14 38238 0 18 38238 1
gene 1 7 14 87524 0 19 87524 1
gene 1 8 14 -328083 0 20 -328083 1
gene 2 9 14 -745284 0 21 -745284 1
gene 2 10 14 -147135 0 22 -147135 1
gene 2 11 14 -428166 0 23 -428166 1
gene 3 12 14 143421 0 24 143421 1
gene 1 1 15 -705162 0 25 -705162 1
gene 3 2 15 -212961 0 26 -212961 1
gene 1 3 15 104823 0 27 104823 1
gene 4 4 15 740168 0 28 740168 1
gene 2 5 15 -717873 0 29 -717873 1
gene 4 6 15 77012 0 30 77012 1
gene 3 7 15 -255 0 31 -255 1
gene 1 8 15 456657 0 32 456657 1
gene 2 9 15 12672 0 33 12672 1
gene 3 10 15 -63942 0 34 -63942 1
gene 1 11 15 -149409 0 35 -149409 1
gene 3 12 15 -437250 0 36 -437250 1
gene 3 1 16 145416 0 37 145416 1
gene 3 2 16 -216650 0 38 -216650 1
gene 2 3 16 -526149 0 39 -526149 1
gene 1 4 16 -563252 0 40 -563252 1
gene 3 5 16 202407 0 41 202407 1
gene 1 6 16 217935 0 42 217935 1
gene 4 7 16 272205 0 43 272205 1
gene 4 8 16 247734 0 44 247734 1
gene 2 9 16 59892 0 45 59892 1
gene 2 10 16 -447831 0 46 -447831 1
gene 3 11 16 102687 0 47 102687 1
gene 4 12 16 -65025 0 48 -65025 1
gene 1 14 13 578313 0 59 578313 1
genomeend 22


/* Organism #23 Fitness: 178.000000 Time: 0 */
/* Position #23*/
#1 x: 26 y: 35
#2 x: 21 y: 38
#3 x: 62 y: 23
#4 x: 71 y: 75
#5 x: 26 y: 62
#6 x: 43 y: 67
genomestart 23
node 1 2 1 3
node 2 4 1 1
node 3 1 1 1
node 4 3 1 1
node 5 1 1 1
node 6 2 1 1
node 7 1 1 1
node 8 3 1 1
node 9 1 1 1
node 10 2 1 1
node 11 3 1 1
node 12 3 1 1
node 13 3 0 2
node 14 2 0 2
node 15 2 0 2
node 16 1 0 2
gene 2 1 13 452427 0 1 452427 1
gene 3 2 13 178047 0 2 178047 1
gene 3 3 13 -115996 0 3 -115996 1
gene 3 4 13 14397 0 4 14397 1
gene 3 5 13 497739 0 5 497739 1
gene 2 6 13 -94045 0 6 -94045 1
gene 2 7 13 -51678 0 7 -51678 1
gene 1 8 13 -122898 0 8 -122898 1
gene 2 9 13 -86964 0 9 -86964 1
gene 4 10 13 -237225 0 10 -237225 1
gene 1 11 13 108606 0 11 108606 1
gene 2 12 13 -117276 0 12 -117276 1
gene 1 1 14 -289278 0 13 -289278 1
gene 1 2 14 410968 0 14 410968 1
gene 4 3 14 -800000 0 15 -800000 1
gene 3 4 14 245928 0 16 245928 1
gene 1 5 14 270381 0 17 270381 1
gene 4 6 14 250503 0 18 250503 1
gene 1 7 14 531708 0 19 531708 1
gene 3 8 14 334269 0 20 334269 1
gene 4 9 14 230076 0 21 230076 1
gene 1 10 14 482610 0 22 482610 1
gene 4 11 14 597657 0 23 597657 1
gene 3 12 14 228135 0 24 228135 1
gene 1 1 15 138812 0 25 138812 1
gene 4 2 15 185946 0 26 185946 1
gene 4 3 15 72570 0 27 72570 1
gene 3 4 15 119349 0 28 119349 1
gene 2 5 15 -317979 0 29 -317979 1
gene 4 6 15 24159 0 30 24159 1
gene 3 7 15 347215 0 31 347215 1
gene 2 8 15 -11448 0 32 -11448 1
gene 3 9 15 195629 0 33 195629 1
gene 2 10 15 331150 0 34 331150 1
gene 4 11 15 -58035 0 35 -58035 1
gene 2 12 15 -235932 0 36 -235932 1
gene 4 1 16 477651 0 37 477651 1
gene 2 2 16 -397050 0 38 -397050 1
gene 2 3 16 -156102 0 39 -156102 1
gene 2 4 16 -81678 0 40 -81678 1
gene 1 5 16 133080 0 41 133080 1
gene 4 6 16 29070 0 42 29070 1
gene 1 7 16 -121014 0 43 -121014 1
gene 4 8 16 -179118 0 44 -179118 1
gene 2 9 16 261492 0 45 261492 1
gene 1 10 16 93192 0 46 93192 1
gene 3 11 16 -90786 0 47 -90786 1
gene 1 12 16 -164046 0 48 -164046 1
genomeend 23


/* Organism #24 Fitness: 162.000000 Time: 0 */
/* Position #24*/
#1 x: 33 y: 21
#2 x: 16 y: 39
#3 x: 79 y: 20
#4 x: 77 y: 69
#5 x: 77 y: 66
#6 x: 49 y: 66
genomestart 24
node 1 4 1 3
node 2 2 1 1
node 3 4 1 1
node 4 1 1 1
node 5 4 1 1
node 6 3 1 1
node 7 3 1 1
node 8 2 1 1
node 9 1 1 1
node 10 3 1 1
node 11 2 1 1
node 12 3 1 1
node 13 3 0 2
node 14 3 0 2
node 15 1 0 2
node 16 1 0 2
gene 1 1 13 -139251 0 1 -139251 1
gene 2 2 13 -305349 0 2 -305349 1
gene 4 3 13 -726189 0 3 -726189 1
gene 4 4 13 -168572 0 4 -168572 1
gene 3 5 13 -305861 0 5 -305861 1
gene 4 6 13 311487 0 6 311487 1
gene 4 7 13 90366 0 7 90366 1
gene 3 8 13 752503 0 8 752503 1
gene 2 9 13 232056 0 9 232056 1
gene 2 10 13 -122528 0 10 -122528 1
gene 2 11 13 -445622 0 11 -445622 1
gene 1 12 13 38921 0 12 38921 1
gene 2 1 14 -800000 0 13 -800000 1
gene 4 2 14 439102 0 14 439102 1
gene 2 3 14 610206 0 15 610206 1
gene 4 4 14 -224618 0 16 -224618 1
gene 3 5 14 -114318 0 17 -114318 1
gene 1 6 14 261220 0 18 261220 1
gene 4 7 14 114603 0 19 114603 1
gene 4 8 14 -141090 0 20 -141090 1
gene 3 9 14 -344562 0 21 -344562 1
gene 2 10 14 -747894 0 22 -747894 1
gene 2 11 14 -268102 0 23 -268102 1
gene 3 12 14 157541 0 24 157541 1
gene 2 1 15 620762 0 25 620762 1
gene 3 2 15 553830 0 26 553830 1
gene 2 3 15 -385793 0 27 -385793 1
gene 4 4 15 117252 0 28 117252 1
gene 1 5 15 -292177 0 29 -292177 1
gene 2 6 15 41215 0 30 41215 1
gene 2 7 15 -33408 0 31 -33408 1
gene 3 8 15 -221706 0 32 -221706 1
gene 1 9 15 -83766 0 33 -83766 1
gene 1 10 15 -242586 0 34 -242586 1
gene 1 11 15 -50031 0 35 -50031 1
gene 4 12 15 -62007 0 36 -62007 1
gene 2 1 16 -8582 0 37 -8582 1
gene 4 2 16 -35447 0 38 -35447 1
gene 3 3 16 -96465 0 39 -96465 1
gene 2 4 16 278484 0 40 278484 1
gene 4 5 16 -380874 0 41 -380874 1
gene 2 6 16 -75119 0 42 -75119 1
gene 1 7 16 -9723 0 43 -9723 1
gene 3 8 16 110217 0 44 110217 1
gene 2 9 16 -129442 0 45 -129442 1
gene 3 10 16 -231564 0 46 -231564 1
gene 2 11 16 238356 0 47 238356 1
gene 3 12 16 35745 0 48 35745 1
gene 2 15 13 218715 0 71 218715 1
genomeend 24


/* Organism #26 Fitness: 152.000000 Time: 0 */
/* Position #26*/
#1 x: 60 y: 26
#2 x: 68 y: 34
#3 x: 37 y: 32
#4 x: 49 y: 77
#5 x: 77 y: 61
#6 x: 28 y: 77
genomestart 26
node 1 4 1 3
node 2 3 1 1
node 3 2 1 1
node 4 1 1 1
node 5 1 1 1
node 6 2 1 1
node 7 2 1 1
node 8 3 1 1
node 9 3 1 1
node 10 2 1 1
node 11 3 1 1
node 12 3 1 1
node 13 4 0 2
node 14 2 0 2
node 15 2 0 2
node 16 4 0 2
gene 4 1 13 -512198 0 1 -512198 1
gene 3 2 13 35682 0 2 35682 1
gene 3 3 13 -329993 0 3 -329993 1
gene 2 4 13 280022 0 4 280022 1
gene 1 5 13 -2065 0 5 -2065 1
gene 2 6 13 -599628 0 6 -599628 1
gene 3 7 13 190425 0 7 190425 1
gene 1 8 13 20064 0 8 20064 1
gene 2 9 13 -243645 0 9 -243645 1
gene 2 10 13 -701629 0 10 -701629 1
gene 1 11 13 -508272 0 11 -508272 1
gene 4 12 13 -713487 0 12 -713487 1
gene 2 1 14 -533646 0 13 -533646 1
gene 2 2 14 -424641 0 14 -424641 1
gene 1 3 14 -610674 0 15 -610674 1
gene 4 4 14 502100 0 16 502100 1
gene 1 5 14 -390658 0 17 -390658 1
gene 3 6 14 160175 0 18 160175 1
gene 2 7 14 645893 0 19 645893 1
gene 1 8 14 88784 0 20 88784 1
gene 1 9 14 245906 0 21 245906 1
gene 3 10 14 580110 0 22 580110 1
gene 1 11 14 800000 0 23 800000 1
gene 2 12 14 -42552 0 24 -42552 1
gene 4 1 15 -581778 0 25 -581778 1
gene 4 2 15 29346 0 26 29346 1
gene 3 3 15 -189441 0 27 -189441 1
gene 2 4 15 24384 0 28 24384 1
gene 2 5 15 196933 0 29 196933 1
gene 1 6 15 -449400 0 30 -449400 1
gene 1 7 15 -475746 0 31 -475746 1
gene 1 8 15 381522 0 32 381522 1
gene 2 9 15 -6635 0 33 -6635 1
gene 4 10 15 49807 0 34 49807 1
gene 4 11 15 405983 0 35 405983 1
gene 1 12 15 -800000 0 36 -800000 1
gene 3 1 16 263487 0 37 263487 1
gene 1 2 16 -156672 0 38 -156672 1
gene 2 3 16 -229458 0 39 -229458 1
gene 3 4 16 186914 0 40 186914 1
gene 4 5 16 -169605 0 41 -169605 1
gene 3 6 16 362685 0 42 362685 1
gene 2 7 16 297662 0 43 297662 1
gene 1 8 16 -240696 0 44 -240696 1
gene 1 9 16 -255075 0 45 -255075 1
gene 3 10 16 38079 0 46 38079 1
gene 1 11 16 -87198 0 47 -87198 1
gene 1 12 16 -177414 0 48 -177414 1
gene 4 16 16 -65588 1 99 -65588 1
genomeend 26


/* Organism #30 Fitness: 152.000000 Time: 0 */
/* Position #30*/
#1 x: 65 y: 15
#2 x: 61 y: 35
#3 x: 39 y: 33
#4 x: 56 y: 60
#5 x: 62 y: 80
#6 x: 44 y: 70
genomestart 30
node 1 1 1 3
node 2 2 1 1
node 3 2 1 1
node 4 1 1 1
node 5 1 1 1
node 6 3 1 1
node 7 4 1 1
node 8 4 1 1
node 9 4 1 1
node 10 2 1 1
node 11 3 1 1
node 12 4 1 1
node 13 2 0 2
node 14 3 0 2
node 15 1 0 2
node 16 2 0 2
gene 3 1 13 -260202 0 1 -260202 1
gene 3 2 13 60234 0 2 60234 1
gene 2 3 13 -143355 0 3 -143355 1
gene 2 4 13 23265 0 4 23265 1
gene 4 5 13 -525108 0 5 -525108 1
gene 1 6 13 -248592 0 6 -248592 1
gene 4 7 13 -112134 0 7 -112134 1
gene 4 8 13 291831 0 8 291831 1
gene 1 9 13 -132393 0 9 -132393 1
gene 4 10 13 247293 0 10 247293 1
gene 1 11 13 153414 0 11 153414 1
gene 1 12 13 309321 0 12 309321 1
gene 4 1 14 78225 0 13 78225 1
gene 2 2 14 180969 0 14 180969 1
gene 4 3 14 557918 0 15 557918 1
gene 2 4 14 449643 0 16 449643 1
gene 2 5 14 -55548 0 17 -55548 1
gene 1 6 14 105780 0 18 105780 1
gene 4 7 14 5232 0 19 5232 1
gene 3 8 14 214431 0 20 214431 1
gene 3 9 14 -484452 0 21 -484452 1
gene 2 10 14 -99021 0 22 -99021 1
gene 3 11 14 -173731 0 23 -173731 1
gene 4 12 14 78854 0 24 78854 1
gene 2 1 15 -240216 0 25 -240216 1
gene 4 2 15 -246534 0 26 -246534 1
gene 4 3 15 -311919 0 27 -311919 1
gene 2 4 15 800000 0 28 800000 1
gene 4 5 15 114520 0 29 114520 1
gene 2 6 15 659736 0 30 659736 1
gene 1 7 15 -234000 0 31 -234000 1
gene 2 8 15 185853 0 32 185853 1
gene 4 9 15 663787 0 33 663787 1
gene 4 10 15 -590691 0 34 -590691 1
gene 4 11 15 -85992 0 35 -85992 1
gene 1 12 15 -434885 0 36 -434885 1
gene 3 1 16 8000 0 37 8000 1
gene 3 2 16 76110 0 38 76110 1
gene 2 3 16 -54705 0 39 -54705 1
gene 4 4 16 220441 0 40 220441 1
gene 3 5 16 -4716 0 41 -4716 1
gene 1 6 16 272358 0 42 272358 1
gene 4 7 16 316241 0 43 316241 1
gene 2 8 16 117387 0 44 117387 1
gene 4 9 16 199401 0 45 199401 1
gene 4 10 16 -16392 0 46 -16392 1
gene 4 11 16 -271170 0 47 -271170 1
gene 3 12 16 -38358 0 48 -38358 1
genomeend 30


/* Organism #32 Fitness: 203.000000 Time: 0 */
/* Position #32*/
#1 x: 47 y: 36
#2 x: 16 y: 39
#3 x: 51 y: 29
#4 x: 72 y: 62
#5 x: 79 y: 69
#6 x: 36 y: 67
genomestart 32
node 1 4 1 3
node 2 2 1 1
node 3 4 1 1
node 4 1 1 1
node 5 4 1 1
node 6 3 1 1
node 7 3 1 1
node 8 2 1 1
node 9 1 1 1
node 10 3 1 1
node 11 2 1 1
node 12 1 1 1
node 13 3 0 2
node 14 3 0 2
node 15 1 0 2
node 16 1 0 2
gene 1 1 13 -41889 0 1 -41889 1
gene 2 2 13 353160 0 2 353160 1
gene 4 3 13 106926 0 3 106926 1
gene 4 4 13 448123 0 4 448123 1
gene 3 5 13 -510419 0 5 -510419 1
gene 4 6 13 -133659 0 6 -133659 1
gene 4 7 13 -338808 0 7 -338808 1
gene 3 8 13 200401 0 8 200401 1
gene 2 9 13 -240075 0 9 -240075 1
gene 2 10 13 394612 0 10 394612 1
gene 2 11 13 -290399 0 11 -290399 1
gene 1 12 13 596384 0 12 596384 1
gene 2 1 14 -62286 0 13 -62286 1
gene 4 2 14 -298149 0 14 -298149 1
gene 2 3 14 114666 0 15 114666 1
gene 4 4 14 294313 0 16 294313 1
gene 3 5 14 -17823 0 17 -17823 1
gene 1 6 14 141000 0 18 141000 1
gene 4 7 14 65940 0 19 65940 1
gene 4 8 14 3945 0 20 3945 1
gene 3 9 14 -640095 0 21 -640095 1
gene 2 10 14 -46353 0 22 -46353 1
gene 2 11 14 -14746 0 23 -14746 1
gene 3 12 14 342023 0 24 342023 1
gene 2 1 15 713602 0 25 713602 1
gene 3 2 15 -69798 0 26 -69798 1
gene 2 3 15 -423377 0 27 -423377 1
gene 4 4 15 -437238 0 28 -437238 1
gene 1 5 15 127626 0 29 127626 1
gene 2 6 15 403303 0 30 403303 1
gene 2 7 15 180126 0 31 180126 1
gene 3 8 15 -411588 0 32 -411588 1
gene 1 9 15 -237324 0 33 -237324 1
gene 1 10 15 -392748 0 34 -392748 1
gene 1 11 15 800000 0 35 800000 1
gene 4 12 15 -341496 0 36 -341496 1
gene 2 1 16 261145 0 37 261145 1
gene 4 2 16 -522683 0 38 -522683 1
gene 3 3 16 114276 0 39 114276 1
gene 2 4 16 -52533 0 40 -52533 1
gene 4 5 16 756504 0 41 756504 1
gene 2 6 16 -147816 0 42 -147816 1
gene 1 7 16 12198 0 43 12198 1
gene 3 8 16 84966 0 44 84966 1
gene 2 9 16 -38551 0 45 -38551 1
gene 3 10 16 -766104 0 46 -766104 1
gene 2 11 16 17109 0 47 17109 1
gene 3 12 16 -51236 0 48 -51236 1
gene 2 15 13 127222 0 71 127222 1
gene 1 14 16 -74930 0 85 -74930 1
genomeend 32


/* Organism #40 Fitness: 152.000000 Time: 0 */
/* Position #40*/
#1 x: 35 y: 25
#2 x: 85 y: 15
#3 x: 32 y: 19
#4 x: 23 y: 82
#5 x: 41 y: 80
#6 x: 43 y: 81
genomestart 40
node 1 1 1 3
node 2 2 1 1
node 3 2 1 1
node 4 4 1 1
node 5 4 1 1
node 6 2 1 1
node 7 1 1 1
node 8 1 1 1
node 9 1 1 1
node 10 2 1 1
node 11 2 1 1
node 12 2 1 1
node 13 1 0 2
node 14 4 0 2
node 15 2 0 2
node 16 4 0 2
gene 1 1 13 -334367 0 1 -334367 1
gene 3 2 13 125343 0 2 125343 1
gene 1 3 13 81920 0 3 81920 1
gene 3 4 13 294311 0 4 294311 1
gene 1 5 13 -84213 0 5 -84213 1
gene 1 6 13 -247317 0 6 -247317 1
gene 1 7 13 -115227 0 7 -115227 1
gene 3 8 13 747894 0 8 747894 1
gene 1 9 13 106875 0 9 106875 1
gene 2 10 13 -273552 0 10 -273552 1
gene 4 11 13 -285042 0 11 -285042 1
gene 2 12 13 534688 0 12 534688 1
gene 1 1 14 146922 0 13 146922 1
gene 2 2 14 14610 0 14 14610 1
gene 1 3 14 -285825 0 15 -285825 1
gene 3 4 14 -46335 0 16 -46335 1
gene 3 5 14 457751 0 17 457751 1
gene 4 6 14 -800000 0 18 -800000 1
gene 3 7 14 42087 0 19 42087 1
gene 4 8 14 -152598 0 20 -152598 1
gene 3 9 14 -98385 0 21 -98385 1
gene 1 10 14 -167169 0 22 -167169 1
gene 4 11 14 660562 0 23 660562 1
gene 1 12 14 27696 0 24 27696 1
gene 1 1 15 215517 0 25 215517 1
gene 4 2 15 418902 0 26 418902 1
gene 3 3 15 -306597 0 27 -306597 1
gene 1 4 15 -443212 0 28 -443212 1
gene 1 5 15 -542685 0 29 -542685 1
gene 4 6 15 -93258 0 30 -93258 1
gene 4 7 15 -48178 0 31 -48178 1
gene 2 8 15 71148 0 32 71148 1
gene 1 9 15 -138180 0 33 -138180 1
gene 3 10 15 -640755 0 34 -640755 1
gene 2 11 15 1977 0 35 1977 1
gene 1 12 15 -279240 0 36 -279240 1
gene 2 1 16 353627 0 37 353627 1
gene 1 2 16 -788490 0 38 -788490 1
gene 4 3 16 -146431 0 39 -146431 1
gene 1 4 16 -155442 0 40 -155442 1
gene 3 5 16 -101892 0 41 -101892 1
gene 1 6 16 -170928 0 42 -170928 1
gene 3 7 16 271482 0 43 271482 1
gene 2 8 16 168141 0 44 168141 1
gene 3 9 16 206037 0 45 206037 1
gene 2 10 16 117960 0 46 117960 1
gene 4 11 16 -255393 0 47 -255393 1
gene 1 12 16 -14235 0 48 -14235 1
gene 2 16 13 114831 0 79 114831 1
genomeend 40


/* Organism #49 Fitness: 205.000000 Time: 0 */
/* Position #49*/
#1 x: 37 y: 31
#2 x: 28 y: 38
#3 x: 82 y: 32
#4 x: 25 y: 63
#5 x: 69 y: 66
#6 x: 37 y: 80
genomestart 49
node 1 1 1 3
node 2 2 1 1
node 3 2 1 1
node 4 4 1 1
node 5 4 1 1
node 6 2 1 1
node 7 1 1 1
node 8 1 1 1
node 9 3 1 1
node 10 2 1 1
node 11 2 1 1
node 12 2 1 1
node 13 1 0 2
node 14 4 0 2
node 15 2 0 2
node 16 4 0 2
gene 1 1 13 -515834 0 1 -515834 1
gene 2 2 13 233250 0 2 233250 1
gene 4 3 13 -302585 0 3 -302585 1
gene 3 4 13 -296798 0 4 -296798 1
gene 1 5 13 46101 0 5 46101 1
gene 4 6 13 255684 0 6 255684 1
gene 2 7 13 -42174 0 7 -42174 1
gene 3 8 13 659636 0 8 659636 1
gene 4 9 13 25056 0 9 25056 1
gene 1 10 13 -184873 0 10 -184873 1
gene 4 11 13 267003 0 11 267003 1
gene 2 12 13 246277 0 12 246277 1
gene 2 1 14 -437994 0 13 -437994 1
gene 4 2 14 360005 0 14 360005 1
gene 2 3 14 -494419 0 15 -494419 1
gene 4 4 14 -622745 0 16 -622745 1
gene 3 5 14 -170604 0 17 -170604 1
gene 1 6 14 -105987 0 18 -105987 1
gene 3 7 14 -195627 0 19 -195627 1
gene 4 8 14 -179490 0 20 -179490 1
gene 3 9 14 170361 0 21 170361 1
gene 3 10 14 145944 0 22 145944 1
gene 2 11 14 189448 0 23 189448 1
gene 1 12 14 -618745 0 24 -618745 1
gene 1 1 15 439210 0 25 439210 1
gene 4 2 15 -412582 0 26 -412582 1
gene 4 3 15 -40525 0 27 -40525 1
gene 1 4 15 125999 0 28 125999 1
gene 1 5 15 206282 0 29 206282 1
gene 4 6 15 -603518 0 30 -603518 1
gene 4 7 15 -652723 0 31 -652723 1
gene 2 8 15 2193 0 32 2193 1
gene 2 9 15 289044 0 33 289044 1
gene 3 10 15 683316 0 34 683316 1
gene 4 11 15 -265257 0 35 -265257 1
gene 3 12 15 -158673 0 36 -158673 1
gene 3 1 16 561245 0 37 561245 1
gene 4 2 16 267846 0 38 267846 1
gene 1 3 16 102292 0 39 102292 1
gene 1 4 16 259266 0 40 259266 1
gene 1 5 16 120354 0 41 120354 1
gene 1 6 16 -354899 0 42 -354899 1
gene 4 7 16 -257343 0 43 -257343 1
gene 2 8 16 -66918 0 44 -66918 1
gene 3 9 16 203565 0 45 203565 1
gene 2 10 16 -239808 0 46 -239808 1
gene 1 11 16 92712 0 47 92712 1
gene 1 12 16 161408 0 48 161408 1
gene 3 15 14 -44514 0 74 -44514 1
genomeend 49


/* Organism #70 Fitness: 166.000000 Time: 0 */
/* Position #70*/
#1 x: 70 y: 35
#2 x: 32 y: 18
#3 x: 34 y: 19
#4 x: 16 y: 64
#5 x: 71 y: 60
#6 x: 64 y: 64
genomestart 70
node 1 4 1 3
node 2 3 1 1
node 3 2 1 1
node 4 1 1 1
node 5 1 1 1
node 6 1 1 1
node 7 2 1 1
node 8 3 1 1
node 9 3 1 1
node 10 2 1 1
node 11 3 1 1
node 12 3 1 1
node 13 4 0 2
node 14 2 0 2
node 15 2 0 2
node 16 4 0 2
gene 4 1 13 615415 0 1 615415 1
gene 3 2 13 263520 0 2 263520 1
gene 3 3 13 -2223 0 3 -2223 1
gene 2 4 13 800000 0 4 800000 1
gene 1 5 13 -629026 0 5 -629026 1
gene 2 6 13 -306471 0 6 -306471 1
gene 2 7 13 -149298 0 7 -149298 1
gene 1 8 13 -476811 0 8 -476811 1
gene 2 9 13 -16368 0 9 -16368 1
gene 2 10 13 501863 0 10 501863 1
gene 2 11 13 126307 0 11 126307 1
gene 4 12 13 -595893 0 12 -595893 1
gene 3 1 14 -182529 0 13 -182529 1
gene 2 2 14 -32490 0 14 -32490 1
gene 1 3 14 -509438 0 15 -509438 1
gene 4 4 14 -418915 0 16 -418915 1
gene 1 5 14 -177867 0 17 -177867 1
gene 3 6 14 232846 0 18 232846 1
gene 2 7 14 89445 0 19 89445 1
gene 2 8 14 -687934 0 20 -687934 1
gene 1 9 14 -286728 0 21 -286728 1
gene 2 10 14 -192360 0 22 -192360 1
gene 1 11 14 -322098 0 23 -322098 1
gene 4 12 14 144651 0 24 144651 1
gene 4 1 15 -196182 0 25 -196182 1
gene 1 2 15 168666 0 26 168666 1
gene 3 3 15 -115740 0 27 -115740 1
gene 2 4 15 147797 0 28 147797 1
gene 2 5 15 59484 0 29 59484 1
gene 1 6 15 -159054 0 30 -159054 1
gene 1 7 15 480263 0 31 480263 1
gene 1 8 15 744762 0 32 744762 1
gene 3 9 15 -173430 0 33 -173430 1
gene 4 10 15 -2669 0 34 -2669 1
gene 2 11 15 156414 0 35 156414 1
gene 3 12 15 212382 0 36 212382 1
gene 3 1 16 -790736 0 37 -790736 1
gene 1 2 16 535804 0 38 535804 1
gene 1 3 16 412484 0 39 412484 1
gene 3 4 16 -434758 0 40 -434758 1
gene 4 5 16 50406 0 41 50406 1
gene 2 6 16 73083 0 42 73083 1
gene 2 7 16 191346 0 43 191346 1
gene 1 8 16 470427 0 44 470427 1
gene 1 9 16 17004 0 45 17004 1
gene 2 10 16 338022 0 46 338022 1
gene 1 11 16 38805 0 47 38805 1
gene 1 12 16 -321222 0 48 -321222 1
gene 4 13 14 -189702 0 64 -189702 1
genomeend 70


/* Organism #71 Fitness: 202.000000 Time: 0 */
/* Position #71*/
#1 x: 70 y: 35
#2 x: 32 y: 18
#3 x: 34 y: 19
#4 x: 16 y: 64
#5 x: 71 y: 60
#6 x: 64 y: 64
genomestart 71
node 1 1 1 3
node 2 2 1 1
node 3 1 1 1
node 4 3 1 1
node 5 1 1 1
node 6 2 1 1
node 7 4 1 1
node 8 4 1 1
node 9 4 1 1
node 10 4 1 1
node 11 3 1 1
node 12 1 1 1
node 13 1 0 2
node 14 4 0 2
node 15 1 0 2
node 16 4 0 2
gene 4 1 13 -42299 0 1 -42299 1
gene 3 2 13 177399 0 2 177399 1
gene 3 3 13 278515 0 3 278515 1
gene 4 4 13 -284613 0 4 -284613 1
gene 1 5 13 -203067 0 5 -203067 1
gene 2 6 13 88938 0 6 88938 1
gene 3 7 13 278250 0 7 278250 1
gene 1 8 13 -70782 0 8 -70782 1
gene 3 9 13 261744 0 9 261744 1
gene 2 10 13 -100849 0 10 -100849 1
gene 1 11 13 -193821 0 11 -193821 1
gene 2 12 13 -659397 0 12 -659397 1
gene 2 1 14 -124248 0 13 -124248 1
gene 2 2 14 61905 0 14 61905 1
gene 1 3 14 -90138 0 15 -90138 1
gene 4 4 14 -109500 0 16 -109500 1
gene 1 5 14 -137553 0 17 -137553 1
gene 4 6 14 247529 0 18 247529 1
gene 2 7 14 -149901 0 19 -149901 1
gene 1 8 14 -115099 0 20 -115099 1
gene 1 9 14 157827 0 21 157827 1
gene 4 10 14 -17265 0 22 -17265 1
gene 1 11 14 80478 0 23 80478 1
gene 2 12 14 -11331 0 24 -11331 1
gene 4 1 15 -250746 0 25 -250746 1
gene 4 2 15 139040 0 26 139040 1
gene 3 3 15 -95340 0 27 -95340 1
gene 2 4 15 -363858 0 28 -363858 1
gene 2 5 15 -75741 0 29 -75741 1
gene 3 6 15 224223 0 30 224223 1
gene 1 7 15 96642 0 31 96642 1
gene 1 8 15 -177813 0 32 -177813 1
gene 2 9 15 599869 0 33 599869 1
gene 4 10 15 12150 0 34 12150 1
gene 4 11 15 -48672 0 35 -48672 1
gene 2 12 15 -472311 0 36 -472311 1
gene 2 1 16 368247 0 37 368247 1
gene 4 2 16 66924 0 38 66924 1
gene 2 3 16 128832 0 39 128832 1
gene 4 4 16 -188051 0 40 -188051 1
gene 4 5 16 -110370 0 41 -110370 1
gene 3 6 16 36702 0 42 36702 1
gene 2 7 16 -213855 0 43 -213855 1
gene 1 8 16 -146124 0 44 -146124 1
gene 3 9 16 -266803 0 45 -266803 1
gene 4 10 16 222765 0 46 222765 1
gene 1 11 16 262494 0 47 262494 1
gene 1 12 16 548145 0 48 548145 1
genomeend 71


