/* Organism #10 Fitness: 440.000000 Time: 0 */
/* Position #10*/
#1 x: 48 y: 37
#2 x: 40 y: 21
#3 x: 65 y: 31
#4 x: 37 y: 67
#5 x: 62 y: 80
#6 x: 61 y: 75
genomestart 10
trait 1 16780.000000 0.000000 0.000000 88582.000000 88737.000000 0.000000 0.000000 32087.000000 trait 2 2.000000 0.000000 0.000000 0.000000 0.000000 0.000000 0.000000 0.000000 trait 3 3.000000 0.000000 0.000000 0.000000 0.000000 0.000000 0.000000 0.000000 trait 4 0.000000 57040.000000 0.000000 57778.000000 13389.000000 0.000000 0.000000 0.000000 node 1 4 1 3
node 2 2 1 1
node 3 4 1 1
node 4 2 1 1
node 5 3 1 1
node 6 3 1 1
node 7 2 1 1
node 8 2 1 1
node 9 4 1 1
node 10 1 1 1
node 11 1 1 1
node 12 4 1 1
node 13 3 0 2
node 14 1 0 2
node 15 4 0 2
node 95 1 0 0
node 283 1 0 0
node 296 1 0 0
node 505 1 0 0
node 523 4 0 0
node 536 1 0 0
node 629 1 0 0
node 659 1 0 0
node 673 1 0 0
node 683 1 0 0
node 722 1 0 0
node 824 1 0 0
node 866 1 0 0
node 923 1 0 0
node 1022 1 0 0
node 1085 1 0 0
gene 4 1 13 -406794 0 1 -406794 1
gene 4 2 13 -76899 0 2 -76899 1
gene 4 3 13 -800000 0 3 -800000 1
gene 1 4 13 -199386 0 4 -199386 1
gene 1 5 13 153750 0 5 153750 1
gene 4 6 13 -53175 0 6 -53175 0
gene 1 7 13 -54825 0 7 -54825 1
gene 3 8 13 20016 0 8 20016 1
gene 2 9 13 -11427 0 9 -11427 0
gene 2 10 13 152275 0 10 152275 0
gene 1 11 13 4404 0 11 4404 1
gene 4 12 13 -170721 0 12 -170721 1
gene 1 1 14 -158745 0 13 -158745 1
gene 1 2 14 -280023 0 14 -280023 1
gene 3 3 14 -480329 0 15 -480329 1
gene 4 4 14 -477675 0 16 -477675 1
gene 4 5 14 55806 0 17 55806 1
gene 1 6 14 -800000 0 18 -800000 1
gene 1 7 14 -230553 0 19 -230553 1
gene 2 8 14 -101730 0 20 -101730 1
gene 3 9 14 -350004 0 21 -350004 0
gene 2 10 14 152211 0 22 152211 0
gene 1 11 14 -198372 0 23 -198372 1
gene 4 12 14 -170325 0 24 -170325 0
gene 1 1 15 516447 0 25 516447 1
gene 2 2 15 -249686 0 26 -249686 1
gene 2 3 15 -322029 0 27 -322029 0
gene 3 4 15 572205 0 28 572205 1
gene 3 5 15 -40413 0 29 -40413 1
gene 1 6 15 -362889 0 30 -362889 1
gene 4 7 15 147261 0 31 147261 1
gene 2 8 15 -270846 0 32 -270846 1
gene 3 9 15 582119 0 33 582119 0
gene 1 10 15 -22185 0 34 -22185 1
gene 3 11 15 160181 0 35 160181 0
gene 1 12 15 -596379 0 36 -596379 1
gene 4 15 14 -134022 0 73 -134022 1
gene 3 11 95 278052 0 260 278052 1
gene 3 95 15 -161634 0 261 -161634 1
gene 3 15 13 161577 0 599 161577 1
gene 2 13 14 -248664 0 640 -248664 0
gene 4 3 95 -80934 0 741 -80934 1
gene 4 12 283 96348 0 841 96348 1
gene 4 283 14 -313086 0 842 -313086 0
gene 4 6 296 -326949 0 883 -326949 1
gene 4 296 13 239457 0 884 239457 1
gene 1 2 296 344007 0 1225 344007 1
gene 3 283 283 -105559 1 1313 -105559 1
gene 2 9 505 -226905 0 1500 -226905 1
gene 2 505 13 -142596 0 1501 -142596 1
gene 1 296 296 266899 1 1535 266899 1
gene 1 10 523 131026 0 1567 131026 1
gene 1 523 14 -800000 0 1568 -800000 1
gene 2 9 536 261055 0 1608 261055 1
gene 2 536 505 -365805 0 1609 -365805 0
gene 3 523 523 -102537 1 1659 -102537 0
gene 2 4 283 -523671 0 1763 -523671 1
gene 2 3 629 -40230 0 1894 -40230 1
gene 2 629 15 -307224 0 1895 -307224 1
gene 4 536 14 -276219 0 1940 -276219 1
gene 3 523 659 800000 1 1984 800000 1
gene 3 659 523 -187389 0 1985 -187389 1
gene 3 9 673 -201170 0 2027 -201170 1
gene 3 673 14 282468 0 2028 282468 1
gene 2 13 683 -152172 0 2061 -152172 0
gene 2 683 14 294246 0 2062 294246 1
gene 1 95 95 22881 1 2116 22881 1
gene 4 283 722 76248 0 2174 76248 1
gene 4 722 14 68850 0 2175 68850 1
gene 2 10 824 -69186 0 2475 -69186 1
gene 2 824 13 254205 0 2476 254205 1
gene 3 296 722 -598254 0 2512 -598254 1
gene 1 8 659 -99273 0 2556 -99273 1
gene 2 536 866 225723 0 2604 225723 1
gene 2 866 505 -36027 0 2605 -36027 1
gene 4 12 505 419525 0 2740 419525 1
gene 3 9 923 -46211 0 2782 -46211 0
gene 3 923 15 800000 0 2783 800000 1
gene 1 673 673 202146 1 2976 202146 1
gene 3 11 866 -100441 0 3015 -100441 1
gene 2 13 1022 -1757 0 3068 -1757 1
gene 2 1022 683 62376 0 3069 62376 1
gene 4 4 296 -155808 0 3114 -155808 1
gene 3 9 1085 1 0 3245 0 1
gene 3 1085 923 -46211 0 3246 0 1
gene 1 505 536 -97505 1 3339 -97505 1
gene 4 923 1022 -93946 0 3396 -93946 1
genomeend 10


/* Organism #11 Fitness: 320.000000 Time: 0 */
/* Position #11*/
#1 x: 48 y: 37
#2 x: 40 y: 21
#3 x: 65 y: 31
#4 x: 37 y: 67
#5 x: 62 y: 80
#6 x: 61 y: 75
genomestart 11
trait 1 16780.000000 0.000000 0.000000 88582.000000 88737.000000 0.000000 0.000000 32087.000000 trait 2 2.000000 0.000000 0.000000 0.000000 0.000000 0.000000 0.000000 0.000000 trait 3 3.000000 0.000000 0.000000 0.000000 0.000000 0.000000 0.000000 0.000000 trait 4 0.000000 57040.000000 0.000000 57778.000000 13389.000000 0.000000 0.000000 0.000000 node 1 4 1 3
node 2 2 1 1
node 3 4 1 1
node 4 2 1 1
node 5 3 1 1
node 6 3 1 1
node 7 2 1 1
node 8 2 1 1
node 9 4 1 1
node 10 1 1 1
node 11 1 1 1
node 12 4 1 1
node 13 3 0 2
node 14 1 0 2
node 15 4 0 2
node 95 1 0 0
node 283 1 0 0
node 296 1 0 0
node 505 1 0 0
node 523 4 0 0
node 536 1 0 0
node 629 1 0 0
node 659 1 0 0
node 673 1 0 0
node 683 1 0 0
node 722 1 0 0
node 824 1 0 0
node 866 1 0 0
node 923 1 0 0
node 1022 1 0 0
node 1085 1 0 0
gene 4 1 13 -123060 0 1 -123060 1
gene 4 2 13 51924 0 2 51924 1
gene 4 3 13 -800000 0 3 -800000 1
gene 1 4 13 -473523 0 4 -473523 1
gene 1 5 13 43461 0 5 43461 1
gene 4 6 13 227649 0 6 227649 0
gene 1 7 13 58596 0 7 58596 1
gene 3 8 13 -220452 0 8 -220452 1
gene 2 9 13 -11427 0 9 -11427 0
gene 2 10 13 -57368 0 10 -57368 0
gene 1 11 13 4404 0 11 4404 1
gene 4 12 13 124788 0 12 124788 1
gene 1 1 14 77148 0 13 77148 1
gene 1 2 14 -508530 0 14 -508530 1
gene 3 3 14 -419894 0 15 -419894 1
gene 4 4 14 -285687 0 16 -285687 1
gene 4 5 14 -247818 0 17 -247818 1
gene 1 6 14 -686828 0 18 -686828 1
gene 1 7 14 -90000 0 19 -90000 1
gene 2 8 14 -272886 0 20 -272886 1
gene 3 9 14 -350004 0 21 -350004 0
gene 2 10 14 144936 0 22 144936 0
gene 1 11 14 -177417 0 23 -177417 1
gene 4 12 14 90186 0 24 90186 0
gene 1 1 15 516447 0 25 516447 1
gene 2 2 15 -516266 0 26 -516266 1
gene 2 3 15 -170658 0 27 -170658 0
gene 3 4 15 406449 0 28 406449 1
gene 3 5 15 -171882 0 29 -171882 1
gene 1 6 15 -297624 0 30 -297624 1
gene 4 7 15 -123633 0 31 -123633 1
gene 2 8 15 -63051 0 32 -63051 1
gene 3 9 15 292517 0 33 292517 0
gene 1 10 15 -251298 0 34 -251298 1
gene 3 11 15 12563 0 35 12563 0
gene 1 12 15 -800000 0 36 -800000 1
gene 4 15 14 -245616 0 73 -245616 1
gene 3 11 95 278052 0 260 278052 1
gene 3 95 15 -305826 0 261 -305826 1
gene 3 15 13 222282 0 599 222282 1
gene 2 13 14 -361692 0 640 -361692 0
gene 4 3 95 -112044 0 741 -112044 1
gene 4 12 283 363582 0 841 363582 1
gene 4 283 14 -313086 0 842 -313086 0
gene 4 6 296 -175944 0 883 -175944 1
gene 4 296 13 306093 0 884 306093 1
gene 1 2 296 183906 0 1225 183906 1
gene 3 283 283 -32511 1 1313 -32511 1
gene 2 9 505 -263757 0 1500 -263757 1
gene 2 505 13 70248 0 1501 70248 1
gene 1 296 296 231211 1 1535 231211 1
gene 1 10 523 343480 0 1567 343480 1
gene 1 523 14 -800000 0 1568 -800000 1
gene 2 9 536 261055 0 1608 261055 1
gene 2 536 505 -117651 0 1609 -117651 0
gene 3 523 523 -269415 1 1659 -269415 0
gene 2 4 283 -462702 0 1763 -462702 1
gene 2 3 629 125598 0 1894 125598 1
gene 2 629 15 -307224 0 1895 -307224 1
gene 4 536 14 -63285 0 1940 -63285 1
gene 3 523 659 800000 1 1984 800000 1
gene 3 659 523 229755 0 1985 229755 1
gene 3 9 673 -337919 0 2027 -337919 1
gene 3 673 14 112872 0 2028 112872 1
gene 2 13 683 40362 0 2061 40362 0
gene 2 683 14 230739 0 2062 230739 1
gene 1 95 95 104595 1 2116 104595 1
gene 4 283 722 172494 0 2174 172494 1
gene 4 722 14 8487 0 2175 8487 1
gene 2 10 824 -336873 0 2475 -336873 1
gene 2 824 13 180306 0 2476 180306 1
gene 3 296 722 -717945 0 2512 -717945 1
gene 1 8 659 -193146 0 2556 -193146 1
gene 2 536 866 -29490 0 2604 -29490 1
gene 2 866 505 -36027 0 2605 -36027 1
gene 4 12 505 419525 0 2740 419525 1
gene 3 9 923 -261932 0 2782 -261932 0
gene 3 923 15 565574 0 2783 565574 1
gene 1 673 673 116214 1 2976 116214 1
gene 3 11 866 137604 0 3015 137604 1
gene 2 13 1022 139425 0 3068 139425 1
gene 2 1022 683 -39666 0 3069 -39666 1
gene 4 4 296 -137274 0 3114 -137274 1
gene 3 9 1085 -129629 0 3245 -129629 1
gene 3 1085 923 126843 0 3246 126843 1
gene 1 505 536 -97505 1 3339 -97505 1
genomeend 11


/* Organism #14 Fitness: 280.000000 Time: 0 */
/* Position #14*/
#1 x: 75 y: 31
#2 x: 37 y: 38
#3 x: 41 y: 28
#4 x: 21 y: 63
#5 x: 45 y: 84
#6 x: 47 y: 79
genomestart 14
trait 1 1.000000 0.000000 0.000000 0.000000 0.000000 0.000000 0.000000 0.000000 trait 2 2.000000 0.000000 0.000000 0.000000 0.000000 0.000000 0.000000 0.000000 trait 3 3.000000 0.000000 0.000000 0.000000 0.000000 0.000000 0.000000 0.000000 trait 4 87559.000000 0.000000 0.000000 0.000000 0.000000 0.000000 48508.000000 17450.000000 node 1 4 1 3
node 2 2 1 1
node 3 2 1 1
node 4 2 1 1
node 5 1 1 1
node 6 1 1 1
node 7 3 1 1
node 8 3 1 1
node 9 1 1 1
node 10 4 1 1
node 11 4 1 1
node 12 1 1 1
node 13 3 0 2
node 14 1 0 2
node 15 2 0 2
node 92 1 0 0
node 121 1 0 0
node 183 1 0 0
node 238 1 0 0
node 293 1 0 0
node 409 2 0 0
node 471 1 0 0
node 524 1 0 0
node 617 1 0 0
node 634 4 0 0
node 652 1 0 0
node 701 1 0 0
node 762 1 0 0
node 840 1 0 0
node 853 1 0 0
node 988 1 0 0
node 1137 1 0 0
gene 4 1 13 62841 0 1 62841 1
gene 1 2 13 -388103 0 2 -388103 0
gene 2 3 13 -96615 0 3 -96615 1
gene 1 4 13 498435 0 4 498435 0
gene 1 5 13 -128577 0 5 -128577 0
gene 2 6 13 646730 0 6 646730 0
gene 3 7 13 72807 0 7 72807 1
gene 4 8 13 -471030 0 8 -471030 1
gene 3 9 13 -548097 0 9 -548097 1
gene 3 10 13 -219633 0 10 -219633 1
gene 1 11 13 624870 0 11 624870 1
gene 2 12 13 -295071 0 12 -295071 1
gene 1 1 14 661602 0 13 661602 1
gene 2 2 14 482553 0 14 482553 1
gene 1 3 14 688317 0 15 688317 1
gene 3 4 14 800000 0 16 800000 1
gene 4 5 14 -209163 0 17 -209163 1
gene 4 6 14 -418773 0 18 -418773 1
gene 2 7 14 794600 0 19 794600 1
gene 3 8 14 307125 0 20 307125 0
gene 2 9 14 553386 0 21 553386 0
gene 1 10 14 731436 0 22 731436 1
gene 3 11 14 492234 0 23 492234 0
gene 2 12 14 9348 0 24 9348 1
gene 3 1 15 -121338 0 25 -121338 1
gene 4 2 15 -496920 0 26 -496920 1
gene 3 3 15 -461154 0 27 -461154 1
gene 4 4 15 309486 0 28 309486 1
gene 1 5 15 -153912 0 29 -153912 0
gene 1 6 15 -57516 0 30 -57516 1
gene 2 7 15 -140994 0 31 -140994 0
gene 1 8 15 334995 0 32 334995 1
gene 4 9 15 -738981 0 33 -738981 1
gene 2 10 15 -788495 0 34 -788495 0
gene 4 11 15 288807 0 35 288807 0
gene 1 12 15 407118 0 36 407118 0
gene 3 14 15 -103304 0 66 -103304 1
gene 3 14 13 679334 0 95 679334 1
gene 3 8 92 -800000 0 253 -800000 1
gene 3 92 14 277071 0 254 277071 1
gene 2 92 92 -617283 1 305 -617283 1
gene 1 4 121 8325 0 333 8325 0
gene 1 121 13 134523 0 334 134523 1
gene 1 5 183 -323405 0 512 -323405 1
gene 1 183 13 74328 0 513 74328 1
gene 1 2 238 -207990 0 693 -207990 0
gene 1 238 13 229752 0 694 229752 1
gene 1 13 13 800000 1 827 800000 1
gene 2 7 293 732456 0 869 732456 1
gene 2 293 15 113586 0 870 113586 1
gene 3 15 13 -14490 0 1133 -14490 1
gene 2 9 409 598800 0 1210 598800 1
gene 2 409 14 -800000 0 1211 -800000 1
gene 2 92 121 236601 0 1278 236601 0
gene 2 409 293 257352 0 1355 257352 1
gene 1 12 471 800000 0 1399 800000 0
gene 1 471 15 -163332 0 1400 -163332 1
gene 3 11 524 -120663 0 1569 -120663 1
gene 3 524 14 -475935 0 1570 -475935 0
gene 4 6 471 -446457 0 1663 -446457 1
gene 4 409 15 -64071 0 1765 -64071 1
gene 1 5 617 -733995 0 1859 -733995 1
gene 1 617 15 -119286 0 1860 -119286 1
gene 1 2 634 -453030 0 1910 -453030 1
gene 1 634 238 128736 0 1911 128736 1
gene 2 92 652 800000 0 1968 800000 1
gene 2 652 121 -134811 0 1969 -134811 1
gene 2 6 701 -148314 0 2113 -148314 1
gene 2 701 13 -140457 0 2114 -140457 1
gene 1 12 762 226725 0 2301 226725 1
gene 1 762 471 283185 0 2302 283185 1
gene 2 10 840 -297978 0 2532 -297978 1
gene 2 840 15 -238854 0 2533 -238854 1
gene 1 4 853 -296277 0 2569 -296277 1
gene 1 853 121 -187842 0 2570 -187842 1
gene 3 652 238 -273210 0 2755 -273210 1
gene 4 11 988 -128243 0 2970 -128243 1
gene 4 988 15 -424299 0 2971 -424299 1
gene 3 238 634 247811 1 3088 247811 1
gene 3 9 92 -77703 0 3343 -77703 1
gene 3 524 1137 1 0 3401 0 1
gene 3 1137 14 -475935 0 3402 0 1
genomeend 14


/* Organism #16 Fitness: 380.000000 Time: 0 */
/* Position #16*/
#1 x: 77 y: 40
#2 x: 28 y: 25
#3 x: 75 y: 15
#4 x: 52 y: 63
#5 x: 19 y: 72
#6 x: 30 y: 63
genomestart 16
trait 1 1.000000 0.000000 0.000000 0.000000 0.000000 0.000000 0.000000 0.000000 trait 2 2.000000 0.000000 0.000000 0.000000 0.000000 0.000000 0.000000 0.000000 trait 3 3.000000 0.000000 0.000000 0.000000 0.000000 0.000000 0.000000 0.000000 trait 4 87559.000000 0.000000 0.000000 0.000000 0.000000 0.000000 48508.000000 17450.000000 node 1 4 1 3
node 2 2 1 1
node 3 2 1 1
node 4 2 1 1
node 5 1 1 1
node 6 1 1 1
node 7 3 1 1
node 8 1 1 1
node 9 1 1 1
node 10 4 1 1
node 11 4 1 1
node 12 1 1 1
node 13 3 0 2
node 14 1 0 2
node 15 2 0 2
node 92 1 0 0
node 121 1 0 0
node 183 1 0 0
node 238 1 0 0
node 293 1 0 0
node 409 2 0 0
node 471 1 0 0
node 524 1 0 0
node 617 1 0 0
node 634 1 0 0
node 652 1 0 0
node 701 1 0 0
node 737 1 0 0
node 839 1 0 0
node 868 1 0 0
node 995 1 0 0
node 1041 1 0 0
node 1113 1 0 0
node 1132 1 0 0
gene 4 1 13 -271275 0 1 -271275 1
gene 1 2 13 -50496 0 2 -50496 0
gene 2 3 13 371862 0 3 371862 1
gene 1 4 13 -695069 0 4 -695069 0
gene 1 5 13 -465972 0 5 -465972 0
gene 2 6 13 -800000 0 6 -800000 0
gene 3 7 13 -752438 0 7 -752438 1
gene 4 8 13 -432660 0 8 -432660 1
gene 3 9 13 208746 0 9 208746 1
gene 3 10 13 -363174 0 10 -363174 1
gene 1 11 13 23046 0 11 23046 1
gene 2 12 13 12963 0 12 12963 1
gene 1 1 14 216093 0 13 216093 1
gene 2 2 14 -285897 0 14 -285897 1
gene 1 3 14 85101 0 15 85101 1
gene 3 4 14 -343199 0 16 -343199 1
gene 4 5 14 365844 0 17 365844 1
gene 2 6 14 116886 0 18 116886 0
gene 2 7 14 -374412 0 19 -374412 0
gene 3 8 14 -262008 0 20 -262008 0
gene 2 9 14 -101301 0 21 -101301 0
gene 1 10 14 -99192 0 22 -99192 1
gene 3 11 14 -198975 0 23 -198975 0
gene 2 12 14 -19938 0 24 -19938 1
gene 3 1 15 301398 0 25 301398 1
gene 4 2 15 89817 0 26 89817 1
gene 3 3 15 -197921 0 27 -197921 1
gene 4 4 15 310296 0 28 310296 1
gene 1 5 15 -342717 0 29 -342717 0
gene 1 6 15 -378756 0 30 -378756 1
gene 2 7 15 -999 0 31 -999 0
gene 1 8 15 -338676 0 32 -338676 1
gene 4 9 15 226281 0 33 226281 1
gene 2 10 15 245592 0 34 245592 1
gene 4 11 15 2433 0 35 2433 1
gene 1 12 15 172605 0 36 172605 0
gene 3 14 15 120606 0 66 120606 1
gene 3 14 13 465867 0 95 465867 0
gene 3 8 92 122712 0 253 122712 1
gene 3 92 14 -357777 0 254 -357777 0
gene 2 92 92 800000 1 305 800000 1
gene 1 4 121 278244 0 333 278244 1
gene 1 121 13 196344 0 334 196344 1
gene 1 5 183 -666761 0 512 -666761 1
gene 1 183 13 800000 0 513 800000 1
gene 1 2 238 -116418 0 693 -116418 0
gene 1 238 13 29514 0 694 29514 1
gene 1 13 13 747169 1 827 747169 1
gene 2 7 293 190761 0 869 190761 1
gene 2 293 15 -800000 0 870 -800000 0
gene 3 15 13 748070 0 1133 748070 1
gene 2 9 409 94389 0 1210 94389 0
gene 2 409 14 110781 0 1211 110781 0
gene 2 92 121 -509774 0 1278 -509774 0
gene 2 409 293 443013 0 1355 443013 1
gene 1 12 471 696472 0 1399 696472 1
gene 1 471 15 -162567 0 1400 -162567 1
gene 3 11 524 347601 0 1569 347601 1
gene 3 524 14 800000 0 1570 800000 1
gene 4 6 471 -39702 0 1663 -39702 1
gene 4 409 15 294213 0 1765 294213 1
gene 1 5 617 245178 0 1859 245178 1
gene 1 617 15 800000 0 1860 800000 1
gene 1 2 634 -61512 0 1910 -61512 1
gene 1 634 238 681285 0 1911 681285 1
gene 2 92 652 -187437 0 1968 -187437 1
gene 2 652 121 93783 0 1969 93783 1
gene 2 6 701 -38049 0 2113 -38049 1
gene 2 701 13 -49248 0 2114 -49248 1
gene 3 92 737 4641 0 2224 4641 1
gene 3 737 14 -60426 0 2225 -60426 1
gene 3 14 839 18285 0 2530 18285 1
gene 3 839 13 -267225 0 2531 -267225 1
gene 2 293 868 117190 0 2610 117190 1
gene 2 868 15 -6822 0 2611 -6822 1
gene 4 11 238 -220582 0 2902 -220582 1
gene 2 11 701 -240847 0 2952 -240847 1
gene 2 9 995 502993 0 2994 502993 1
gene 2 995 409 -266373 0 2995 -266373 1
gene 2 409 1041 -156465 0 3129 -156465 1
gene 2 1041 14 -39141 0 3130 -39141 1
gene 3 471 409 -90762 0 3254 -90762 1
gene 4 701 1041 47698 0 3304 47698 1
gene 2 6 1113 1 0 3327 0 1
gene 2 1113 14 116886 0 3328 0 1
gene 2 7 1132 1 0 3387 0 1
gene 2 1132 14 -374412 0 3388 0 1
genomeend 16


/* Organism #21 Fitness: 300.000000 Time: 0 */
/* Position #21*/
#1 x: 32 y: 39
#2 x: 60 y: 20
#3 x: 32 y: 34
#4 x: 16 y: 76
#5 x: 71 y: 84
#6 x: 63 y: 80
genomestart 21
trait 1 1.000000 0.000000 0.000000 0.000000 0.000000 0.000000 0.000000 0.000000 trait 2 2.000000 0.000000 86530.000000 0.000000 0.000000 0.000000 40839.000000 0.000000 trait 3 3.000000 0.000000 0.000000 0.000000 0.000000 0.000000 0.000000 0.000000 trait 4 87559.000000 0.000000 0.000000 0.000000 0.000000 0.000000 48508.000000 17450.000000 node 1 4 1 3
node 2 2 1 1
node 3 2 1 1
node 4 2 1 1
node 5 1 1 1
node 6 1 1 1
node 7 3 1 1
node 8 1 1 1
node 9 1 1 1
node 10 4 1 1
node 11 4 1 1
node 12 1 1 1
node 13 3 0 2
node 14 1 0 2
node 15 2 0 2
node 92 1 0 0
node 121 1 0 0
node 183 1 0 0
node 238 1 0 0
node 293 1 0 0
node 409 2 0 0
node 471 1 0 0
node 524 1 0 0
node 617 1 0 0
node 634 1 0 0
node 652 1 0 0
node 701 1 0 0
node 737 4 0 0
node 851 1 0 0
node 917 1 0 0
node 1047 1 0 0
node 1120 1 0 0
node 1132 1 0 0
gene 4 1 13 332373 0 1 332373 1
gene 1 2 13 -407700 0 2 -407700 0
gene 2 3 13 4041 0 3 4041 1
gene 1 4 13 208017 0 4 208017 0
gene 1 5 13 70098 0 5 70098 0
gene 2 6 13 97746 0 6 97746 0
gene 3 7 13 -262262 0 7 -262262 1
gene 4 8 13 -792773 0 8 -792773 1
gene 3 9 13 -800000 0 9 -800000 1
gene 3 10 13 -389826 0 10 -389826 1
gene 1 11 13 603156 0 11 603156 1
gene 2 12 13 -59838 0 12 -59838 1
gene 1 1 14 -112761 0 13 -112761 1
gene 2 2 14 174411 0 14 174411 1
gene 1 3 14 -63747 0 15 -63747 1
gene 3 4 14 -96425 0 16 -96425 0
gene 4 5 14 -271503 0 17 -271503 1
gene 4 6 14 95655 0 18 95655 1
gene 2 7 14 -311157 0 19 -311157 0
gene 3 8 14 -184247 0 20 -184247 0
gene 2 9 14 -294423 0 21 -294423 0
gene 1 10 14 354486 0 22 354486 1
gene 3 11 14 593846 0 23 593846 0
gene 2 12 14 406128 0 24 406128 1
gene 3 1 15 -443790 0 25 -443790 1
gene 4 2 15 281226 0 26 281226 0
gene 3 3 15 -119118 0 27 -119118 1
gene 4 4 15 325770 0 28 325770 1
gene 1 5 15 -219750 0 29 -219750 0
gene 1 6 15 663677 0 30 663677 1
gene 2 7 15 387750 0 31 387750 0
gene 1 8 15 -509618 0 32 -509618 0
gene 4 9 15 362915 0 33 362915 1
gene 2 10 15 462654 0 34 462654 1
gene 4 11 15 678008 0 35 678008 1
gene 1 12 15 290988 0 36 290988 0
gene 3 14 15 -52326 0 66 -52326 1
gene 3 14 13 702140 0 95 702140 1
gene 3 8 92 -800000 0 253 -800000 1
gene 3 92 14 744078 0 254 744078 0
gene 2 92 92 481691 1 305 481691 1
gene 1 4 121 190074 0 333 190074 1
gene 1 121 13 731217 0 334 731217 1
gene 1 5 183 -529070 0 512 -529070 1
gene 1 183 13 -492723 0 513 -492723 1
gene 1 2 238 -170070 0 693 -170070 0
gene 1 238 13 -43830 0 694 -43830 1
gene 1 13 13 565849 1 827 565849 1
gene 2 7 293 -175680 0 869 -175680 1
gene 2 293 15 90918 0 870 90918 1
gene 3 15 13 14802 0 1133 14802 1
gene 2 9 409 -91805 0 1210 -91805 1
gene 2 409 14 -153864 0 1211 -153864 1
gene 2 92 121 -458852 0 1278 -458852 0
gene 2 409 293 -465438 0 1355 -465438 1
gene 1 12 471 570154 0 1399 570154 1
gene 1 471 15 -750180 0 1400 -750180 1
gene 3 11 524 10017 0 1569 10017 1
gene 3 524 14 47214 0 1570 47214 1
gene 4 6 471 -758313 0 1663 -758313 1
gene 4 409 15 115398 0 1765 115398 1
gene 1 5 617 -181470 0 1859 -181470 1
gene 1 617 15 76668 0 1860 76668 1
gene 1 2 634 -800000 0 1910 -800000 1
gene 1 634 238 -728688 0 1911 -728688 1
gene 2 92 652 -255939 0 1968 -255939 1
gene 2 652 121 -39780 0 1969 -39780 1
gene 2 6 701 -231627 0 2113 -231627 1
gene 2 701 13 23562 0 2114 23562 1
gene 3 92 737 -214655 0 2224 -214655 1
gene 3 737 14 -140562 0 2225 -140562 1
gene 2 121 617 -169386 0 2527 -169386 0
gene 4 2 851 290202 0 2565 290202 1
gene 4 851 15 92280 0 2566 92280 1
gene 3 15 183 -79546 0 2710 -79546 1
gene 1 8 917 -218025 0 2764 -218025 1
gene 1 917 15 -765269 0 2765 -765269 1
gene 2 15 15 -148475 1 2930 -148475 1
gene 4 5 121 -248934 0 3095 -248934 1
gene 3 4 1047 -160463 0 3145 -160463 1
gene 3 1047 14 -89438 0 3146 -89438 1
gene 2 121 1120 1 0 3348 0 1
gene 2 1120 617 -169386 0 3349 0 1
gene 2 7 1132 1 0 3387 0 1
gene 2 1132 14 -311157 0 3388 0 1
genomeend 21


/* Organism #26 Fitness: 360.000000 Time: 0 */
/* Position #26*/
#1 x: 17 y: 34
#2 x: 35 y: 34
#3 x: 41 y: 36
#4 x: 37 y: 83
#5 x: 54 y: 77
#6 x: 41 y: 70
genomestart 26
trait 1 100000.000000 0.000000 0.000000 0.000000 100000.000000 81386.000000 0.000000 19672.000000 trait 2 42946.000000 0.000000 87493.000000 0.000000 0.000000 62825.000000 67637.000000 0.000000 trait 3 3.000000 0.000000 0.000000 0.000000 0.000000 0.000000 0.000000 0.000000 trait 4 0.000000 0.000000 0.000000 36459.000000 0.000000 31890.000000 0.000000 46915.000000 node 1 4 1 3
node 2 2 1 1
node 3 3 1 1
node 4 2 1 1
node 5 1 1 1
node 6 1 1 1
node 7 2 1 1
node 8 1 1 1
node 9 1 1 1
node 10 4 1 1
node 11 2 1 1
node 12 1 1 1
node 13 3 0 2
node 14 1 0 2
node 15 2 0 2
node 92 1 0 0
node 121 1 0 0
node 224 1 0 0
node 239 1 0 0
node 330 1 0 0
node 346 1 0 0
node 392 1 0 0
node 403 1 0 0
node 421 1 0 0
node 436 1 0 0
node 495 1 0 0
node 714 1 0 0
node 820 1 0 0
node 1103 1 0 0
node 1141 1 0 0
gene 4 1 13 21201 0 1 21201 1
gene 1 2 13 -7434 0 2 -7434 1
gene 4 3 13 -497193 0 3 -497193 1
gene 1 4 13 -13692 0 4 -13692 0
gene 1 5 13 -751821 0 5 -751821 0
gene 2 6 13 -401865 0 6 -401865 0
gene 3 7 13 -66615 0 7 -66615 0
gene 4 8 13 -72270 0 8 -72270 1
gene 3 9 13 -38838 0 9 -38838 0
gene 3 10 13 -594651 0 10 -594651 1
gene 1 11 13 -126474 0 11 -126474 1
gene 2 12 13 -337053 0 12 -337053 1
gene 1 1 14 104793 0 13 104793 1
gene 2 2 14 -693674 0 14 -693674 0
gene 1 3 14 38472 0 15 38472 1
gene 3 4 14 215598 0 16 215598 1
gene 4 5 14 329337 0 17 329337 1
gene 4 6 14 -197446 0 18 -197446 0
gene 2 7 14 -8859 0 19 -8859 1
gene 3 8 14 -241782 0 20 -241782 0
gene 2 9 14 181404 0 21 181404 1
gene 1 10 14 -800000 0 22 -800000 0
gene 3 11 14 -792510 0 23 -792510 1
gene 2 12 14 -113331 0 24 -113331 1
gene 3 1 15 194382 0 25 194382 1
gene 4 2 15 550560 0 26 550560 1
gene 3 3 15 -98511 0 27 -98511 1
gene 4 4 15 425565 0 28 425565 1
gene 1 5 15 426429 0 29 426429 1
gene 1 6 15 -109086 0 30 -109086 1
gene 2 7 15 -369444 0 31 -369444 0
gene 1 8 15 -711923 0 32 -711923 1
gene 4 9 15 -472086 0 33 -472086 1
gene 2 10 15 -800000 0 34 -800000 1
gene 4 11 15 756215 0 35 756215 1
gene 1 12 15 -800000 0 36 -800000 1
gene 3 14 15 -121023 0 66 -121023 1
gene 3 14 13 119589 0 95 119589 1
gene 3 8 92 -104076 0 253 -104076 1
gene 3 92 14 -127209 0 254 -127209 0
gene 2 92 92 -498053 1 305 -498053 1
gene 1 4 121 105816 0 333 105816 1
gene 1 121 13 453660 0 334 453660 1
gene 3 11 121 221448 0 561 221448 1
gene 2 6 224 -183777 0 649 -183777 0
gene 2 224 13 -10653 0 650 -10653 1
gene 2 7 239 162891 0 695 162891 0
gene 2 239 15 -148611 0 696 -148611 1
gene 2 6 330 155952 0 984 155952 0
gene 2 330 224 -77388 0 985 -77388 1
gene 3 7 346 4842 0 1022 4842 1
gene 3 346 13 123049 0 1023 123049 1
gene 2 3 239 -93801 0 1108 -93801 1
gene 4 6 392 -396855 0 1154 -396855 1
gene 4 392 14 -175470 0 1155 -175470 1
gene 3 9 403 373026 0 1190 373026 1
gene 3 403 13 -130608 0 1191 -130608 1
gene 3 92 421 -170730 0 1250 -170730 1
gene 3 421 14 -13254 0 1251 -13254 1
gene 1 10 436 -86112 0 1296 -86112 1
gene 1 436 14 16668 0 1297 16668 1
gene 2 7 495 -243380 0 1472 -243380 1
gene 2 495 239 -247938 0 1473 -247938 1
gene 1 92 239 -128952 0 1557 -128952 1
gene 4 392 121 262374 0 1749 262374 1
gene 1 330 421 76767 0 1790 76767 0
gene 4 11 346 -149088 0 1824 -149088 1
gene 2 1 239 -123570 0 1958 -123570 1
gene 1 330 714 -132660 0 2150 -132660 1
gene 1 714 421 7782 0 2151 7782 1
gene 2 714 14 -449127 0 2331 -449127 1
gene 1 5 820 -132606 0 2467 -132606 1
gene 1 820 13 -173457 0 2468 -173457 1
gene 4 8 239 174465 0 2508 174465 1
gene 1 15 346 166416 0 2550 166416 1
gene 1 330 15 -120675 0 2600 -120675 1
gene 2 9 224 309922 0 2703 309922 1
gene 2 121 495 -561648 0 2806 -561648 1
gene 2 10 346 174934 0 3144 174934 1
gene 2 2 1103 1 0 3294 0 1
gene 2 1103 14 -693674 0 3295 0 1
gene 4 224 224 -24162 1 3358 -24162 1
gene 2 6 1141 1 0 3411 0 1
gene 2 1141 330 155952 0 3412 0 1
genomeend 26


/* Organism #42 Fitness: 280.000000 Time: 0 */
/* Position #42*/
#1 x: 81 y: 18
#2 x: 37 y: 37
#3 x: 45 y: 37
#4 x: 63 y: 66
#5 x: 52 y: 78
#6 x: 81 y: 82
genomestart 42
trait 1 1.000000 0.000000 0.000000 0.000000 0.000000 0.000000 0.000000 0.000000 trait 2 2.000000 0.000000 0.000000 0.000000 0.000000 0.000000 0.000000 0.000000 trait 3 3.000000 0.000000 0.000000 0.000000 0.000000 0.000000 0.000000 0.000000 trait 4 73910.000000 58593.000000 0.000000 0.000000 0.000000 0.000000 0.000000 0.000000 node 1 4 1 3
node 2 2 1 1
node 3 4 1 1
node 4 2 1 1
node 5 4 1 1
node 6 3 1 1
node 7 2 1 1
node 8 1 1 1
node 9 4 1 1
node 10 1 1 1
node 11 1 1 1
node 12 4 1 1
node 13 3 0 2
node 14 1 0 2
node 15 4 0 2
node 71 1 0 0
node 289 1 0 0
node 317 1 0 0
node 368 1 0 0
node 381 3 0 0
node 394 1 0 0
node 405 1 0 0
node 439 2 0 0
node 665 1 0 0
node 706 1 0 0
node 739 1 0 0
node 804 1 0 0
node 984 1 0 0
node 1001 1 0 0
node 1097 1 0 0
gene 4 1 13 -800000 0 1 -800000 1
gene 3 2 13 -328518 0 2 -328518 1
gene 2 3 13 19668 0 3 19668 1
gene 4 4 13 304029 0 4 304029 1
gene 2 5 13 -390234 0 5 -390234 1
gene 3 6 13 380151 0 6 380151 1
gene 1 7 13 -342660 0 7 -342660 1
gene 1 8 13 -44703 0 8 -44703 1
gene 1 9 13 77817 0 9 77817 1
gene 2 10 13 -800000 0 10 -800000 0
gene 3 11 13 -602484 0 11 -602484 1
gene 3 12 13 -304674 0 12 -304674 1
gene 1 1 14 316146 0 13 316146 1
gene 1 2 14 267144 0 14 267144 0
gene 3 3 14 -726636 0 15 -726636 0
gene 1 4 14 143946 0 16 143946 1
gene 1 5 14 72555 0 17 72555 1
gene 1 6 14 -127956 0 18 -127956 1
gene 1 7 14 -52647 0 19 -52647 1
gene 2 8 14 108741 0 20 108741 1
gene 2 9 14 314298 0 21 314298 1
gene 1 10 14 187170 0 22 187170 1
gene 3 11 14 -493656 0 23 -493656 0
gene 2 12 14 -384978 0 24 -384978 1
gene 3 1 15 -800000 0 25 -800000 1
gene 2 2 15 -655677 0 26 -655677 1
gene 4 3 15 430788 0 27 430788 0
gene 2 4 15 375729 0 28 375729 1
gene 2 5 15 -353325 0 29 -353325 1
gene 1 6 15 -539499 0 30 -539499 1
gene 4 7 15 -563642 0 31 -563642 0
gene 2 8 15 30339 0 32 30339 0
gene 2 9 15 -454371 0 33 -454371 1
gene 1 10 15 216657 0 34 216657 1
gene 3 11 15 -800000 0 35 -800000 1
gene 1 12 15 -603660 0 36 -603660 1
gene 4 3 71 103242 0 201 103242 0
gene 3 71 14 560286 0 202 560286 1
gene 1 13 13 -382113 1 248 -382113 1
gene 2 13 15 498486 0 413 498486 1
gene 4 10 71 -501873 0 454 -501873 1
gene 1 7 71 -784584 0 542 -784584 1
gene 4 8 71 235869 0 717 235869 1
gene 4 71 71 414393 1 769 414393 1
gene 4 3 289 207396 0 858 207396 0
gene 4 289 15 -455280 0 859 -455280 1
gene 3 289 14 800000 0 897 800000 1
gene 4 3 317 159993 0 942 159993 1
gene 4 317 289 -97170 0 943 -97170 1
gene 2 8 368 -800000 0 1081 -800000 1
gene 2 368 15 473672 0 1082 473672 1
gene 1 2 381 384705 0 1117 384705 1
gene 1 381 14 82422 0 1118 82422 1
gene 4 3 394 -436164 0 1159 -436164 0
gene 4 394 71 -670422 0 1160 -670422 1
gene 3 11 405 256560 0 1197 256560 0
gene 3 405 14 -323112 0 1198 -323112 1
gene 4 14 405 -470613 1 1256 -470613 0
gene 4 3 439 -84324 0 1305 -84324 1
gene 4 439 394 15921 0 1306 15921 1
gene 4 14 381 -412404 1 1807 -412404 0
gene 4 6 381 184833 0 1838 184833 0
gene 4 6 665 -241500 0 2003 -241500 1
gene 4 665 381 80244 0 2004 80244 1
gene 4 14 706 531795 1 2128 531795 1
gene 4 706 381 134310 0 2129 134310 1
gene 1 12 289 -9885 0 2180 -9885 1
gene 2 10 739 290145 0 2229 290145 1
gene 2 739 13 -468105 0 2230 -468105 1
gene 4 405 381 167571 0 2321 167571 1
gene 3 665 665 -131523 1 2364 -131523 1
gene 4 14 804 -347726 1 2425 -347726 1
gene 4 804 405 -724554 0 2426 -724554 1
gene 3 3 706 119739 0 2537 119739 1
gene 4 7 984 27433 0 2961 27433 1
gene 4 984 15 108825 0 2962 108825 0
gene 3 11 1001 1 0 3007 1 1
gene 3 1001 405 478653 0 3008 478653 1
gene 2 10 804 -34868 0 3059 -34868 1
gene 4 71 665 64182 0 3104 64182 1
gene 3 2 394 -106410 0 3159 -106410 1
gene 2 6 368 -22611 0 3207 -22611 1
gene 4 984 1097 179319 0 3275 179319 1
gene 4 1097 15 -640820 0 3276 -640820 1
genomeend 42


/* Organism #48 Fitness: 300.000000 Time: 0 */
/* Position #48*/
#1 x: 27 y: 19
#2 x: 74 y: 26
#3 x: 58 y: 17
#4 x: 78 y: 78
#5 x: 25 y: 82
#6 x: 67 y: 76
genomestart 48
trait 1 1.000000 0.000000 0.000000 0.000000 0.000000 0.000000 0.000000 0.000000 trait 2 2.000000 0.000000 0.000000 0.000000 0.000000 0.000000 0.000000 0.000000 trait 3 3.000000 0.000000 0.000000 0.000000 0.000000 0.000000 0.000000 0.000000 trait 4 73910.000000 58593.000000 0.000000 0.000000 0.000000 0.000000 0.000000 0.000000 node 1 4 1 3
node 2 2 1 1
node 3 4 1 1
node 4 2 1 1
node 5 4 1 1
node 6 3 1 1
node 7 2 1 1
node 8 1 1 1
node 9 4 1 1
node 10 1 1 1
node 11 1 1 1
node 12 4 1 1
node 13 3 0 2
node 14 1 0 2
node 15 4 0 2
node 71 1 0 0
node 289 1 0 0
node 317 1 0 0
node 368 1 0 0
node 381 3 0 0
node 394 1 0 0
node 405 3 0 0
node 439 1 0 0
node 640 1 0 0
node 671 1 0 0
node 680 1 0 0
node 924 1 0 0
node 1133 1 0 0
gene 4 1 13 32082 0 1 32082 1
gene 3 2 13 -108090 0 2 -108090 1
gene 2 3 13 -428460 0 3 -428460 1
gene 4 4 13 -128160 0 4 -128160 1
gene 2 5 13 -311256 0 5 -311256 1
gene 3 6 13 -362931 0 6 -362931 1
gene 1 7 13 117513 0 7 117513 1
gene 1 8 13 -325248 0 8 -325248 0
gene 1 9 13 800000 0 9 800000 1
gene 2 10 13 332301 0 10 332301 1
gene 3 11 13 -183192 0 11 -183192 1
gene 3 12 13 -260253 0 12 -260253 0
gene 1 1 14 282174 0 13 282174 1
gene 1 2 14 778076 0 14 778076 0
gene 1 3 14 562572 0 15 562572 0
gene 1 4 14 -553656 0 16 -553656 1
gene 1 5 14 478505 0 17 478505 1
gene 1 6 14 -50151 0 18 -50151 1
gene 1 7 14 -221511 0 19 -221511 1
gene 2 8 14 376785 0 20 376785 1
gene 2 9 14 289902 0 21 289902 1
gene 1 10 14 23448 0 22 23448 1
gene 3 11 14 67572 0 23 67572 0
gene 2 12 14 -10689 0 24 -10689 1
gene 3 1 15 279744 0 25 279744 1
gene 2 2 15 223719 0 26 223719 0
gene 4 3 15 -800000 0 27 -800000 0
gene 2 4 15 -273081 0 28 -273081 1
gene 2 5 15 590579 0 29 590579 1
gene 1 6 15 168678 0 30 168678 1
gene 4 7 15 -59211 0 31 -59211 1
gene 2 8 15 78270 0 32 78270 0
gene 2 9 15 -192408 0 33 -192408 1
gene 1 10 15 -25128 0 34 -25128 1
gene 3 11 15 239001 0 35 239001 0
gene 1 12 15 139629 0 36 139629 1
gene 4 3 71 -260181 0 201 -260181 0
gene 3 71 14 84789 0 202 84789 1
gene 1 13 13 -232254 1 248 -232254 1
gene 2 13 15 -800000 0 413 -800000 1
gene 4 10 71 -287028 0 454 -287028 1
gene 1 7 71 311631 0 542 311631 1
gene 4 8 71 -5201 0 717 -5201 1
gene 4 71 71 -791739 1 769 -791739 1
gene 4 3 289 800000 0 858 800000 0
gene 4 289 15 -693761 0 859 -693761 1
gene 3 289 14 -113289 0 897 -113289 1
gene 4 3 317 -97833 0 942 -97833 1
gene 4 317 289 -120192 0 943 -120192 1
gene 2 8 368 -410154 0 1081 -410154 1
gene 2 368 15 -146907 0 1082 -146907 1
gene 1 2 381 393978 0 1117 393978 1
gene 1 381 14 459969 0 1118 459969 1
gene 4 3 394 800000 0 1159 800000 0
gene 2 394 71 17178 0 1160 17178 1
gene 3 11 405 -229047 0 1197 -229047 1
gene 3 405 14 -266394 0 1198 -266394 0
gene 4 14 405 -10860 1 1256 -10860 1
gene 4 3 439 800000 0 1305 800000 1
gene 4 439 394 144174 0 1306 144174 1
gene 4 14 381 -307824 1 1807 -307824 1
gene 4 6 381 -73998 0 1838 -73998 1
gene 3 11 640 324282 0 1930 324282 1
gene 3 640 15 -582039 0 1931 -582039 1
gene 2 2 671 -169374 0 2020 -169374 1
gene 2 671 15 -256386 0 2021 -256386 1
gene 3 12 680 263001 0 2055 263001 1
gene 3 680 13 -270045 0 2056 -270045 1
gene 2 317 317 -171258 1 2557 -171258 1
gene 4 11 680 234777 0 2743 234777 1
gene 3 405 924 87774 0 2784 87774 1
gene 3 924 14 -69579 0 2785 -69579 1
gene 3 289 289 -132981 1 2988 -132981 1
gene 2 368 368 603649 1 3048 603649 1
gene 1 6 680 -301925 0 3240 -301925 1
gene 1 8 1133 1 0 3390 0 1
gene 1 1133 13 -325248 0 3391 0 1
genomeend 48


/* Organism #60 Fitness: 340.000000 Time: 0 */
/* Position #60*/
#1 x: 31 y: 31
#2 x: 45 y: 28
#3 x: 38 y: 34
#4 x: 79 y: 64
#5 x: 33 y: 81
#6 x: 44 y: 66
genomestart 60
trait 1 1.000000 0.000000 0.000000 0.000000 0.000000 0.000000 0.000000 0.000000 trait 2 2.000000 4005.000000 5202.000000 73121.000000 0.000000 0.000000 0.000000 18250.000000 trait 3 3.000000 22377.000000 0.000000 0.000000 0.000000 22916.000000 36245.000000 0.000000 trait 4 73910.000000 58593.000000 0.000000 0.000000 0.000000 0.000000 0.000000 0.000000 node 1 4 1 3
node 2 2 1 1
node 3 4 1 1
node 4 1 1 1
node 5 4 1 1
node 6 3 1 1
node 7 2 1 1
node 8 1 1 1
node 9 4 1 1
node 10 1 1 1
node 11 1 1 1
node 12 4 1 1
node 13 3 0 2
node 14 1 0 2
node 15 4 0 2
node 71 1 0 0
node 289 1 0 0
node 317 1 0 0
node 368 1 0 0
node 381 3 0 0
node 394 1 0 0
node 405 1 0 0
node 439 1 0 0
node 640 4 0 0
node 671 1 0 0
node 680 1 0 0
node 756 1 0 0
node 879 1 0 0
node 968 1 0 0
node 1000 1 0 0
gene 4 1 13 68010 0 1 68010 1
gene 3 2 13 -194976 0 2 -194976 1
gene 2 3 13 117318 0 3 117318 1
gene 4 4 13 591162 0 4 591162 1
gene 2 5 13 343665 0 5 343665 1
gene 3 6 13 -780665 0 6 -780665 1
gene 1 7 13 228636 0 7 228636 1
gene 1 8 13 477846 0 8 477846 1
gene 1 9 13 -98142 0 9 -98142 1
gene 2 10 13 107235 0 10 107235 1
gene 3 11 13 -54096 0 11 -54096 1
gene 3 12 13 -3621 0 12 -3621 0
gene 1 1 14 -269001 0 13 -269001 1
gene 1 2 14 -220626 0 14 -220626 0
gene 3 3 14 421257 0 15 421257 0
gene 1 4 14 -554805 0 16 -554805 1
gene 1 5 14 406911 0 17 406911 1
gene 1 6 14 257070 0 18 257070 1
gene 1 7 14 230352 0 19 230352 1
gene 2 8 14 -234405 0 20 -234405 1
gene 2 9 14 565588 0 21 565588 1
gene 1 10 14 332253 0 22 332253 1
gene 3 11 14 -615543 0 23 -615543 0
gene 2 12 14 -550119 0 24 -550119 1
gene 3 1 15 -157149 0 25 -157149 1
gene 2 2 15 494072 0 26 494072 0
gene 4 3 15 758900 0 27 758900 0
gene 2 4 15 338901 0 28 338901 1
gene 2 5 15 130476 0 29 130476 1
gene 1 6 15 -2868 0 30 -2868 1
gene 4 7 15 -345120 0 31 -345120 1
gene 2 8 15 84978 0 32 84978 0
gene 2 9 15 -158817 0 33 -158817 1
gene 1 10 15 -219972 0 34 -219972 1
gene 3 11 15 -25938 0 35 -25938 0
gene 1 12 15 -487917 0 36 -487917 1
gene 4 3 71 -800000 0 201 -800000 0
gene 3 71 14 -133650 0 202 -133650 0
gene 1 13 13 -322452 1 248 -322452 1
gene 2 13 15 -516740 0 413 -516740 1
gene 4 10 71 457449 0 454 457449 1
gene 1 7 71 154551 0 542 154551 1
gene 4 8 71 -429093 0 717 -429093 0
gene 4 71 71 318363 1 769 318363 1
gene 4 3 289 800000 0 858 800000 0
gene 4 289 15 332187 0 859 332187 1
gene 3 289 14 73245 0 897 73245 1
gene 4 3 317 258702 0 942 258702 0
gene 4 317 289 387186 0 943 387186 1
gene 2 8 368 489504 0 1081 489504 1
gene 2 368 15 -691274 0 1082 -691274 1
gene 1 2 381 250308 0 1117 250308 1
gene 1 381 14 -800000 0 1118 -800000 1
gene 4 3 394 214167 0 1159 214167 0
gene 4 394 71 147468 0 1160 147468 1
gene 3 11 405 -158121 0 1197 -158121 1
gene 3 405 14 -266838 0 1198 -266838 1
gene 4 14 405 142113 1 1256 142113 1
gene 4 3 439 -1578 0 1305 -1578 0
gene 4 439 394 474654 0 1306 474654 1
gene 4 14 381 -457724 1 1807 -457724 1
gene 4 6 381 -378471 0 1838 -378471 1
gene 3 11 640 411 0 1930 411 1
gene 3 640 15 535904 0 1931 535904 1
gene 2 2 671 -246642 0 2020 -246642 1
gene 2 671 15 234714 0 2021 234714 1
gene 3 12 680 -245199 0 2055 -245199 1
gene 3 680 13 31401 0 2056 31401 1
gene 3 71 756 198363 0 2286 198363 1
gene 3 756 14 97563 0 2287 97563 1
gene 3 317 439 -201792 0 2324 -201792 1
gene 3 11 680 -631479 0 2431 -631479 1
gene 4 8 879 -469707 0 2644 -469707 1
gene 4 879 71 86916 0 2645 86916 1
gene 2 405 13 -479523 0 2803 -479523 1
gene 4 3 968 230955 0 2918 230955 1
gene 4 968 317 -800000 0 2919 -800000 1
gene 4 3 1000 239931 0 3004 239931 1
gene 4 1000 439 181851 0 3005 181851 1
gene 4 289 289 -222987 1 3264 -222987 1
genomeend 60


/* Organism #62 Fitness: 300.000000 Time: 0 */
/* Position #62*/
#1 x: 35 y: 22
#2 x: 71 y: 33
#3 x: 78 y: 38
#4 x: 18 y: 77
#5 x: 42 y: 85
#6 x: 42 y: 64
genomestart 62
trait 1 1.000000 0.000000 0.000000 0.000000 0.000000 0.000000 0.000000 0.000000 trait 2 2.000000 0.000000 0.000000 0.000000 0.000000 0.000000 0.000000 0.000000 trait 3 3.000000 0.000000 0.000000 0.000000 0.000000 0.000000 0.000000 0.000000 trait 4 73910.000000 58593.000000 0.000000 0.000000 0.000000 0.000000 0.000000 0.000000 node 1 4 1 3
node 2 2 1 1
node 3 4 1 1
node 4 2 1 1
node 5 4 1 1
node 6 3 1 1
node 7 2 1 1
node 8 1 1 1
node 9 4 1 1
node 10 1 1 1
node 11 1 1 1
node 12 4 1 1
node 13 3 0 2
node 14 1 0 2
node 15 4 0 2
node 71 1 0 0
node 289 1 0 0
node 317 1 0 0
node 368 1 0 0
node 381 3 0 0
node 394 1 0 0
node 405 1 0 0
node 439 1 0 0
node 640 1 0 0
node 671 1 0 0
node 680 1 0 0
node 924 1 0 0
node 1050 1 0 0
node 1094 1 0 0
gene 4 1 13 322680 0 1 322680 1
gene 3 2 13 -208269 0 2 -208269 1
gene 2 3 13 -449001 0 3 -449001 1
gene 4 4 13 -611795 0 4 -611795 1
gene 2 5 13 -396 0 5 -396 1
gene 3 6 13 -23997 0 6 -23997 1
gene 1 7 13 -118260 0 7 -118260 1
gene 1 8 13 -800000 0 8 -800000 1
gene 1 9 13 278510 0 9 278510 1
gene 2 10 13 136026 0 10 136026 1
gene 3 11 13 -129729 0 11 -129729 1
gene 3 12 13 463197 0 12 463197 0
gene 1 1 14 325652 0 13 325652 1
gene 1 2 14 603543 0 14 603543 0
gene 1 3 14 280704 0 15 280704 0
gene 1 4 14 -699618 0 16 -699618 1
gene 1 5 14 750923 0 17 750923 1
gene 1 6 14 -101408 0 18 -101408 1
gene 1 7 14 147687 0 19 147687 1
gene 2 8 14 -800000 0 20 -800000 1
gene 2 9 14 174585 0 21 174585 1
gene 1 10 14 -2106 0 22 -2106 1
gene 3 11 14 373217 0 23 373217 0
gene 2 12 14 -193971 0 24 -193971 1
gene 3 1 15 118491 0 25 118491 1
gene 2 2 15 55524 0 26 55524 0
gene 4 3 15 -495561 0 27 -495561 0
gene 2 4 15 -800000 0 28 -800000 1
gene 2 5 15 796797 0 29 796797 1
gene 1 6 15 -70233 0 30 -70233 1
gene 4 7 15 -45558 0 31 -45558 0
gene 2 8 15 123063 0 32 123063 0
gene 2 9 15 35115 0 33 35115 1
gene 1 10 15 508158 0 34 508158 1
gene 3 11 15 -563678 0 35 -563678 0
gene 1 12 15 201939 0 36 201939 1
gene 4 3 71 -366543 0 201 -366543 0
gene 3 71 14 361109 0 202 361109 1
gene 1 13 13 11958 1 248 11958 1
gene 2 13 15 -451976 0 413 -451976 1
gene 4 10 71 -287028 0 454 -287028 1
gene 1 7 71 199803 0 542 199803 1
gene 4 8 71 -120803 0 717 -120803 1
gene 4 71 71 299976 1 769 299976 1
gene 4 3 289 800000 0 858 800000 0
gene 4 289 15 -633380 0 859 -633380 1
gene 3 289 14 30537 0 897 30537 1
gene 4 3 317 -208884 0 942 -208884 1
gene 4 317 289 459678 0 943 459678 1
gene 2 8 368 -460968 0 1081 -460968 1
gene 2 368 15 471090 0 1082 471090 1
gene 1 2 381 -48996 0 1117 -48996 1
gene 1 381 14 169053 0 1118 169053 1
gene 4 3 394 702813 0 1159 702813 0
gene 2 394 71 249627 0 1160 249627 1
gene 3 11 405 147276 0 1197 147276 1
gene 3 405 14 -167385 0 1198 -167385 0
gene 4 14 405 -37116 1 1256 -37116 1
gene 4 3 439 -25959 0 1305 -25959 1
gene 4 439 394 62592 0 1306 62592 1
gene 4 14 381 64209 1 1807 64209 1
gene 4 6 381 122745 0 1838 122745 1
gene 3 11 640 159636 0 1930 159636 1
gene 3 640 15 -524703 0 1931 -524703 1
gene 2 2 671 -169944 0 2020 -169944 1
gene 2 671 15 37506 0 2021 37506 1
gene 3 12 680 -33711 0 2055 -33711 0
gene 3 680 13 465771 0 2056 465771 1
gene 2 317 317 -254607 1 2557 -254607 1
gene 4 11 680 90828 0 2743 90828 1
gene 3 405 924 -311132 0 2784 -311132 1
gene 3 924 14 -100449 0 2785 -100449 1
gene 3 289 289 315709 1 2988 315709 1
gene 2 368 368 161338 1 3048 161338 1
gene 4 7 1050 182080 0 3151 182080 1
gene 4 1050 15 1656 0 3152 1656 1
gene 2 368 680 86826 0 3204 86826 1
gene 3 12 1094 179941 0 3268 179941 1
gene 3 1094 680 536070 0 3269 536070 1
gene 2 317 394 114606 0 3321 114606 1
genomeend 62


/* Organism #63 Fitness: 320.000000 Time: 0 */
/* Position #63*/
#1 x: 35 y: 22
#2 x: 71 y: 33
#3 x: 78 y: 38
#4 x: 18 y: 77
#5 x: 42 y: 85
#6 x: 42 y: 64
genomestart 63
trait 1 1.000000 0.000000 0.000000 0.000000 0.000000 0.000000 0.000000 0.000000 trait 2 2.000000 0.000000 0.000000 0.000000 0.000000 0.000000 0.000000 0.000000 trait 3 3.000000 0.000000 0.000000 0.000000 0.000000 0.000000 0.000000 0.000000 trait 4 73910.000000 58593.000000 0.000000 0.000000 0.000000 0.000000 0.000000 0.000000 node 1 4 1 3
node 2 2 1 1
node 3 4 1 1
node 4 2 1 1
node 5 4 1 1
node 6 3 1 1
node 7 2 1 1
node 8 1 1 1
node 9 4 1 1
node 10 1 1 1
node 11 1 1 1
node 12 4 1 1
node 13 3 0 2
node 14 1 0 2
node 15 4 0 2
node 71 1 0 0
node 289 1 0 0
node 317 1 0 0
node 368 1 0 0
node 381 3 0 0
node 394 1 0 0
node 405 1 0 0
node 439 1 0 0
node 640 1 0 0
node 671 1 0 0
node 680 1 0 0
node 924 1 0 0
node 1050 1 0 0
node 1094 1 0 0
gene 4 1 13 178446 0 1 178446 1
gene 3 2 13 -65688 0 2 -65688 1
gene 2 3 13 -251199 0 3 -251199 1
gene 4 4 13 -800000 0 4 -800000 1
gene 2 5 13 -245100 0 5 -245100 1
gene 3 6 13 -163008 0 6 -163008 1
gene 1 7 13 -725426 0 7 -725426 1
gene 1 8 13 -800000 0 8 -800000 1
gene 1 9 13 388847 0 9 388847 1
gene 2 10 13 -56433 0 10 -56433 1
gene 3 11 13 -129729 0 11 -129729 1
gene 3 12 13 392598 0 12 392598 0
gene 1 1 14 188705 0 13 188705 1
gene 1 2 14 603543 0 14 603543 0
gene 1 3 14 306345 0 15 306345 0
gene 1 4 14 -197502 0 16 -197502 1
gene 1 5 14 800000 0 17 800000 1
gene 1 6 14 -526844 0 18 -526844 1
gene 1 7 14 756230 0 19 756230 1
gene 2 8 14 267843 0 20 267843 1
gene 2 9 14 207201 0 21 207201 1
gene 1 10 14 -199842 0 22 -199842 1
gene 3 11 14 373217 0 23 373217 0
gene 2 12 14 102048 0 24 102048 1
gene 3 1 15 53991 0 25 53991 1
gene 2 2 15 -38949 0 26 -38949 0
gene 4 3 15 -271479 0 27 -271479 0
gene 2 4 15 -800000 0 28 -800000 1
gene 2 5 15 -193341 0 29 -193341 1
gene 1 6 15 -525222 0 30 -525222 1
gene 4 7 15 -161532 0 31 -161532 0
gene 2 8 15 350915 0 32 350915 0
gene 2 9 15 -278487 0 33 -278487 1
gene 1 10 15 272844 0 34 272844 1
gene 3 11 15 -800000 0 35 -800000 0
gene 1 12 15 249600 0 36 249600 1
gene 4 3 71 -51849 0 201 -51849 0
gene 3 71 14 681872 0 202 681872 1
gene 1 13 13 -43974 1 248 -43974 1
gene 2 13 15 -593948 0 413 -593948 1
gene 4 10 71 -34788 0 454 -34788 1
gene 1 7 71 464352 0 542 464352 1
gene 4 8 71 288721 0 717 288721 1
gene 4 71 71 -228438 1 769 -228438 1
gene 4 3 289 676196 0 858 676196 0
gene 4 289 15 -766634 0 859 -766634 1
gene 3 289 14 238542 0 897 238542 1
gene 4 3 317 58350 0 942 58350 1
gene 4 317 289 601470 0 943 601470 1
gene 2 8 368 -541749 0 1081 -541749 1
gene 2 368 15 -99738 0 1082 -99738 1
gene 1 2 381 345840 0 1117 345840 1
gene 1 381 14 -281628 0 1118 -281628 1
gene 4 3 394 729903 0 1159 729903 0
gene 2 394 71 431988 0 1160 431988 1
gene 3 11 405 237801 0 1197 237801 1
gene 3 405 14 41139 0 1198 41139 0
gene 4 14 405 439293 1 1256 439293 1
gene 4 3 439 209781 0 1305 209781 1
gene 4 439 394 -237891 0 1306 -237891 1
gene 4 14 381 -98067 1 1807 -98067 1
gene 4 6 381 75039 0 1838 75039 1
gene 3 11 640 251430 0 1930 251430 1
gene 3 640 15 -559491 0 1931 -559491 1
gene 2 2 671 -55461 0 2020 -55461 1
gene 2 671 15 297270 0 2021 297270 1
gene 2 12 680 70209 0 2055 70209 0
gene 3 680 13 208545 0 2056 208545 1
gene 2 317 317 26337 1 2557 26337 1
gene 4 11 680 353832 0 2743 353832 1
gene 3 405 924 -392108 0 2784 -392108 1
gene 3 924 14 -213213 0 2785 -213213 1
gene 3 289 289 43453 1 2988 43453 1
gene 2 368 368 218731 1 3048 218731 1
gene 4 7 1050 -69485 0 3151 -69485 1
gene 4 1050 15 -218508 0 3152 -218508 1
gene 2 368 680 99674 0 3204 99674 1
gene 3 12 1094 202081 0 3268 202081 1
gene 3 1094 680 86301 0 3269 86301 1
gene 2 317 394 18456 0 3321 18456 1
genomeend 63


/* Organism #64 Fitness: 380.000000 Time: 0 */
/* Position #64*/
#1 x: 74 y: 38
#2 x: 66 y: 26
#3 x: 81 y: 17
#4 x: 80 y: 63
#5 x: 57 y: 63
#6 x: 64 y: 77
genomestart 64
trait 1 1.000000 0.000000 0.000000 0.000000 0.000000 0.000000 0.000000 0.000000 trait 2 2.000000 0.000000 86530.000000 0.000000 0.000000 0.000000 40839.000000 0.000000 trait 3 3.000000 0.000000 0.000000 0.000000 87214.000000 0.000000 0.000000 43873.000000 trait 4 87559.000000 0.000000 0.000000 0.000000 0.000000 0.000000 48508.000000 17450.000000 node 1 4 1 3
node 2 2 1 1
node 3 2 1 1
node 4 2 1 1
node 5 1 1 1
node 6 1 1 1
node 7 3 1 1
node 8 1 1 1
node 9 1 1 1
node 10 4 1 1
node 11 4 1 1
node 12 1 1 1
node 13 3 0 2
node 14 1 0 2
node 15 2 0 2
node 92 1 0 0
node 121 1 0 0
node 183 1 0 0
node 238 1 0 0
node 293 1 0 0
node 409 2 0 0
node 471 1 0 0
node 524 1 0 0
node 617 1 0 0
node 634 1 0 0
node 652 1 0 0
node 701 1 0 0
node 737 1 0 0
node 851 1 0 0
node 1038 1 0 0
gene 4 1 13 -35247 0 1 -35247 1
gene 1 2 13 -162033 0 2 -162033 0
gene 2 3 13 97482 0 3 97482 1
gene 1 4 13 638334 0 4 638334 0
gene 1 5 13 -192180 0 5 -192180 0
gene 2 6 13 123789 0 6 123789 0
gene 3 7 13 -717365 0 7 -717365 1
gene 4 8 13 -380990 0 8 -380990 1
gene 3 9 13 -185907 0 9 -185907 1
gene 3 10 13 -412320 0 10 -412320 1
gene 1 11 13 484836 0 11 484836 1
gene 2 12 13 161433 0 12 161433 1
gene 1 1 14 392256 0 13 392256 1
gene 2 2 14 421077 0 14 421077 1
gene 1 3 14 137664 0 15 137664 1
gene 3 4 14 559995 0 16 559995 1
gene 4 5 14 -800000 0 17 -800000 1
gene 4 6 14 800000 0 18 800000 1
gene 2 7 14 -603330 0 19 -603330 1
gene 3 8 14 -212294 0 20 -212294 0
gene 2 9 14 -650574 0 21 -650574 0
gene 1 10 14 -396582 0 22 -396582 1
gene 3 11 14 335225 0 23 335225 0
gene 2 12 14 533753 0 24 533753 1
gene 3 1 15 321894 0 25 321894 1
gene 4 2 15 489449 0 26 489449 0
gene 3 3 15 -583314 0 27 -583314 1
gene 4 4 15 580874 0 28 580874 1
gene 1 5 15 -186483 0 29 -186483 0
gene 1 6 15 -51111 0 30 -51111 1
gene 2 7 15 171528 0 31 171528 0
gene 1 8 15 -64404 0 32 -64404 1
gene 4 9 15 34620 0 33 34620 1
gene 2 10 15 -289785 0 34 -289785 1
gene 4 11 15 258170 0 35 258170 1
gene 1 12 15 128388 0 36 128388 0
gene 3 14 15 38829 0 66 38829 1
gene 3 14 13 703766 0 95 703766 1
gene 3 8 92 -367356 0 253 -367356 1
gene 3 92 14 473253 0 254 473253 0
gene 2 92 92 -58623 1 305 -58623 1
gene 1 4 121 -613296 0 333 -613296 1
gene 1 121 13 121056 0 334 121056 1
gene 1 5 183 328831 0 512 328831 1
gene 1 183 13 800000 0 513 800000 1
gene 1 2 238 562380 0 693 562380 0
gene 1 238 13 304608 0 694 304608 1
gene 1 13 13 343213 1 827 343213 1
gene 2 7 293 -100266 0 869 -100266 1
gene 2 293 15 -519533 0 870 -519533 1
gene 3 15 13 772235 0 1133 772235 1
gene 2 9 409 -275409 0 1210 -275409 1
gene 2 409 14 130305 0 1211 130305 1
gene 2 92 121 790796 0 1278 790796 0
gene 2 409 293 -117597 0 1355 -117597 1
gene 1 12 471 611351 0 1399 611351 1
gene 1 471 15 -164199 0 1400 -164199 1
gene 3 11 524 578652 0 1569 578652 1
gene 3 524 14 95406 0 1570 95406 0
gene 4 6 471 -563067 0 1663 -563067 1
gene 4 409 15 795693 0 1765 795693 1
gene 1 5 617 111456 0 1859 111456 1
gene 1 617 15 445152 0 1860 445152 1
gene 1 2 634 514584 0 1910 514584 1
gene 1 634 238 -800000 0 1911 -800000 1
gene 2 92 652 -36510 0 1968 -36510 1
gene 2 652 121 -589298 0 1969 -589298 1
gene 2 6 701 203607 0 2113 203607 1
gene 2 701 13 -454083 0 2114 -454083 1
gene 3 92 737 -51600 0 2224 -51600 1
gene 3 737 14 102618 0 2225 102618 1
gene 2 121 617 -40245 0 2527 -40245 1
gene 4 2 851 260616 0 2565 260616 1
gene 4 851 15 -404220 0 2566 -404220 1
gene 3 15 183 -1614 0 2710 -1614 1
gene 4 9 701 214568 0 3030 214568 1
gene 3 524 1038 26596 0 3120 26596 1
gene 3 1038 14 238071 0 3121 238071 1
gene 3 9 851 181599 0 3208 181599 1
gene 1 121 701 259755 0 3279 259755 1
gene 2 12 92 -145230 0 3322 -145230 1
genomeend 64


