/* Organism #11 Fitness: 210.000000 Time: 0 */
/* Position #11*/
#1 x: 81 y: 21
#2 x: 45 y: 33
#3 x: 20 y: 16
#4 x: 30 y: 68
#5 x: 36 y: 76
#6 x: 29 y: 61
genomestart 11
trait 1 22756.000000 0.000000 33653.000000 31142.000000 25781.000000 9278.000000 71977.000000 52132.000000 trait 2 7634.000000 6053.000000 17717.000000 0.000000 20896.000000 0.000000 19006.000000 11523.000000 trait 3 0.000000 20854.000000 20227.000000 42116.000000 0.000000 10153.000000 78226.000000 37136.000000 trait 4 4352.000000 0.000000 2860.000000 52007.000000 0.000000 0.000000 61551.000000 68978.000000 node 1 4 1 3
node 2 4 1 1
node 3 3 1 1
node 4 1 1 1
node 5 1 1 1
node 6 2 1 1
node 7 4 1 1
node 8 4 1 1
node 9 2 1 1
node 10 1 1 1
node 11 2 1 1
node 12 4 1 1
node 13 2 0 2
node 14 1 0 2
node 15 3 0 2
node 121 1 0 0
node 235 1 0 0
node 384 1 0 0
node 420 1 0 0
node 433 2 0 0
node 461 1 0 0
node 500 1 0 0
node 516 1 0 0
node 697 1 0 0
node 1018 2 0 0
node 1130 1 0 0
node 1323 3 0 0
node 1393 1 0 0
node 1479 1 0 0
node 1531 3 0 0
node 1683 1 0 0
node 1735 1 0 0
node 1875 1 0 0
node 1975 1 0 0
node 2022 1 0 0
node 2179 1 0 0
node 2295 1 0 0
node 2730 1 0 0
node 2767 1 0 0
node 2826 1 0 0
node 2977 1 0 0
node 3105 1 0 0
node 3118 1 0 0
gene 2 1 13 114984 0 1 114984 1
gene 3 2 13 331998 0 2 331998 1
gene 2 3 13 474126 0 3 474126 1
gene 3 4 13 625325 0 4 625325 1
gene 2 5 13 132585 0 5 132585 0
gene 4 6 13 -371397 0 6 -371397 0
gene 3 7 13 -399156 0 7 -399156 1
gene 2 8 13 -608534 0 8 -608534 0
gene 3 9 13 55563 0 9 55563 1
gene 2 10 13 764811 0 10 764811 0
gene 2 11 13 238263 0 11 238263 0
gene 4 12 13 112411 0 12 112411 1
gene 4 1 14 -297 0 13 -297 1
gene 2 2 14 514833 0 14 514833 0
gene 4 3 14 -441168 0 15 -441168 1
gene 4 4 14 -179943 0 16 -179943 0
gene 4 5 14 -24477 0 17 -24477 1
gene 3 6 14 72336 0 18 72336 0
gene 2 7 14 -470196 0 19 -470196 1
gene 1 8 14 -164610 0 20 -164610 0
gene 3 9 14 -98070 0 21 -98070 1
gene 1 10 14 412077 0 22 412077 0
gene 1 11 14 -491622 0 23 -491622 0
gene 4 12 14 -148818 0 24 -148818 0
gene 3 1 15 -722010 0 25 -722010 1
gene 3 2 15 351915 0 26 351915 1
gene 3 3 15 -335835 0 27 -335835 0
gene 3 4 15 267075 0 28 267075 1
gene 4 5 15 -287820 0 29 -287820 1
gene 1 6 15 -800000 0 30 -800000 0
gene 3 7 15 -47547 0 31 -47547 0
gene 3 8 15 -84867 0 32 -84867 1
gene 3 9 15 -709406 0 33 -709406 1
gene 3 10 15 174723 0 34 174723 0
gene 2 11 15 205026 0 35 205026 1
gene 4 12 15 176349 0 36 176349 0
gene 4 15 15 -277305 1 174 -277305 0
gene 3 8 121 412422 0 329 412422 0
gene 3 121 15 359856 0 330 359856 1
gene 2 5 121 158523 0 438 158523 1
gene 2 7 121 105591 0 483 105591 0
gene 4 4 235 -228459 0 666 -228459 1
gene 4 235 14 -533156 0 667 -533156 1
gene 1 1 235 395247 0 753 395247 1
gene 3 9 235 -16161 0 1108 -16161 1
gene 3 10 384 -21681 0 1126 -21681 1
gene 3 384 15 98742 0 1127 98742 0
gene 2 14 14 179658 1 1197 179658 0
gene 3 7 420 -800000 0 1239 -800000 0
gene 3 420 15 -800000 0 1240 -800000 1
gene 3 2 433 86301 0 1284 86301 1
gene 3 433 13 -354648 0 1285 -354648 1
gene 4 3 461 -643959 0 1352 -643959 1
gene 4 461 14 636390 0 1353 636390 1
gene 4 15 500 -136719 1 1453 -136719 0
gene 4 500 15 -275813 0 1454 -275813 0
gene 1 8 516 181365 0 1500 181365 1
gene 1 516 14 692093 0 1501 692093 1
gene 1 384 121 594446 0 1548 594446 0
gene 2 8 461 90761 0 1965 90761 1
gene 3 3 697 -316869 0 2038 -316869 0
gene 3 697 15 586961 0 2039 586961 1
gene 2 1 500 -210336 0 2133 -210336 1
gene 1 3 433 155256 0 2628 155256 1
gene 1 516 516 191859 1 2664 191859 1
gene 3 8 1018 -316224 0 2997 -316224 0
gene 3 1018 121 632687 0 2998 632687 0
gene 3 15 433 375291 0 3156 375291 1
gene 1 10 1130 -306036 0 3329 -306036 1
gene 1 1130 14 420591 0 3330 420591 0
gene 3 500 697 -246561 0 3371 -246561 1
gene 2 3 516 -32721 0 3603 -32721 1
gene 2 9 1323 19752 0 3885 19752 0
gene 2 1323 14 -42174 0 3886 -42174 0
gene 2 121 420 -800000 0 3959 -800000 1
gene 2 8 1393 -228627 0 4093 -228627 1
gene 2 1393 13 389667 0 4094 389667 0
gene 1 11 1479 -176616 0 4325 -176616 1
gene 1 1479 14 -68880 0 4326 -68880 0
gene 4 12 1531 254379 0 4477 254379 1
gene 4 1531 15 58650 0 4478 58650 0
gene 3 1393 433 -4551 0 4734 -4551 1
gene 2 1323 1683 125310 0 4950 125310 1
gene 2 1683 14 -325463 0 4951 -325463 1
gene 3 6 1735 84249 0 5103 84249 1
gene 3 1735 14 -157434 0 5104 -157434 0
gene 1 5 516 -20844 0 5346 -20844 1
gene 1 516 433 226002 0 5443 226002 1
gene 3 2 1875 -312693 0 5505 -312693 1
gene 3 1875 433 798895 0 5506 798895 1
gene 1 1683 461 -140688 0 5687 -140688 1
gene 1 6 1975 48951 0 5780 48951 1
gene 1 1975 15 -33186 0 5781 -33186 1
gene 4 1531 2022 28296 0 5905 28296 1
gene 4 2022 15 -212874 0 5906 -212874 1
gene 3 121 1875 78633 0 5987 78633 1
gene 1 1683 1393 161727 0 6232 161727 1
gene 4 500 2179 313404 0 6351 313404 1
gene 4 2179 15 -423498 0 6352 -423498 1
gene 3 12 2179 259755 0 6539 259755 1
gene 1 1975 1975 183240 1 6578 183240 1
gene 2 14 2295 20355 1 6699 20355 1
gene 2 2295 14 163113 0 6700 163113 1
gene 4 4 433 -9198 0 7064 -9198 1
gene 3 12 235 19458 0 7098 19458 1
gene 1 384 384 609329 1 7242 609329 1
gene 2 500 500 116712 1 7740 116712 1
gene 3 8 2730 315750 0 7969 315750 1
gene 3 2730 1018 33375 0 7970 33375 1
gene 2 2730 516 -18054 0 8040 -18054 1
gene 4 6 2767 -232470 0 8075 -232470 1
gene 4 2767 13 -200760 0 8076 -200760 1
gene 3 13 15 284214 1 8122 284214 1
gene 4 12 2826 177834 0 8243 177834 1
gene 4 2826 14 -288888 0 8244 -288888 1
gene 3 384 1975 -429122 0 8469 -429122 1
gene 3 3 2977 -116052 0 8686 -116052 1
gene 3 2977 697 -142911 0 8687 -142911 1
gene 1 1130 3105 -572082 0 9092 -572082 1
gene 1 3105 14 82092 0 9093 82092 1
gene 4 15 3118 213372 1 9132 213372 1
gene 4 3118 500 74955 0 9133 74955 1
gene 4 3118 2295 -558126 0 9282 -558126 1
gene 3 10 121 37368 0 9403 37368 1
gene 4 500 2767 309984 0 9643 309984 1
gene 2 3 235 -107617 0 9855 -107617 1
gene 4 2 1323 -191893 0 9974 -191893 1
gene 4 1683 1975 -87764 0 10129 -87764 1
genomeend 11


/* Organism #18 Fitness: 210.000000 Time: 0 */
/* Position #18*/
#1 x: 52 y: 31
#2 x: 44 y: 36
#3 x: 21 y: 37
#4 x: 17 y: 76
#5 x: 28 y: 63
#6 x: 22 y: 81
genomestart 18
trait 1 71503.000000 52572.000000 0.000000 48265.000000 0.000000 0.000000 100000.000000 393.000000 trait 2 2.000000 0.000000 0.000000 0.000000 0.000000 0.000000 0.000000 0.000000 trait 3 0.000000 0.000000 0.000000 51304.000000 0.000000 13538.000000 70969.000000 30146.000000 trait 4 88267.000000 0.000000 0.000000 73381.000000 0.000000 28166.000000 100000.000000 100000.000000 node 1 4 1 3
node 2 4 1 1
node 3 1 1 1
node 4 1 1 1
node 5 1 1 1
node 6 2 1 1
node 7 4 1 1
node 8 4 1 1
node 9 2 1 1
node 10 1 1 1
node 11 2 1 1
node 12 4 1 1
node 13 2 0 2
node 14 1 0 2
node 15 3 0 2
node 121 1 0 0
node 235 1 0 0
node 384 1 0 0
node 420 1 0 0
node 433 1 0 0
node 461 1 0 0
node 500 1 0 0
node 516 1 0 0
node 697 1 0 0
node 1018 1 0 0
node 1130 1 0 0
node 1323 3 0 0
node 1393 1 0 0
node 1479 1 0 0
node 1531 4 0 0
node 1683 1 0 0
node 1735 1 0 0
node 1875 1 0 0
node 1975 1 0 0
node 2022 1 0 0
node 2179 1 0 0
node 2295 1 0 0
node 2730 2 0 0
node 2767 1 0 0
node 2826 1 0 0
node 2977 1 0 0
node 3105 1 0 0
node 3118 1 0 0
gene 2 1 13 444060 0 1 444060 1
gene 3 2 13 470175 0 2 470175 1
gene 2 3 13 141546 0 3 141546 1
gene 3 4 13 -201327 0 4 -201327 1
gene 2 5 13 215403 0 5 215403 1
gene 4 6 13 -782846 0 6 -782846 0
gene 3 7 13 244113 0 7 244113 1
gene 2 8 13 284469 0 8 284469 0
gene 3 9 13 710985 0 9 710985 1
gene 2 10 13 -5094 0 10 -5094 1
gene 2 11 13 -800000 0 11 -800000 1
gene 4 12 13 -48825 0 12 -48825 1
gene 2 1 14 -195210 0 13 -195210 1
gene 2 2 14 -205188 0 14 -205188 1
gene 4 3 14 -771320 0 15 -771320 1
gene 4 4 14 -800000 0 16 -800000 0
gene 4 5 14 220407 0 17 220407 1
gene 3 6 14 473172 0 18 473172 0
gene 2 7 14 -23343 0 19 -23343 1
gene 1 8 14 -19455 0 20 -19455 0
gene 3 9 14 -215379 0 21 -215379 1
gene 1 10 14 -331217 0 22 -331217 1
gene 1 11 14 -24684 0 23 -24684 1
gene 4 12 14 -664320 0 24 -664320 0
gene 3 1 15 675462 0 25 675462 1
gene 3 2 15 532116 0 26 532116 1
gene 3 3 15 191304 0 27 191304 0
gene 3 4 15 458033 0 28 458033 1
gene 3 5 15 -151143 0 29 -151143 1
gene 1 6 15 -376919 0 30 -376919 0
gene 3 7 15 -384903 0 31 -384903 0
gene 3 8 15 -78678 0 32 -78678 1
gene 3 9 15 41649 0 33 41649 1
gene 3 10 15 800000 0 34 800000 0
gene 2 11 15 -226797 0 35 -226797 1
gene 4 12 15 -227619 0 36 -227619 0
gene 4 15 15 -731990 1 174 -731990 0
gene 3 8 121 429504 0 329 429504 0
gene 3 121 15 574388 0 330 574388 1
gene 2 5 121 19920 0 438 19920 1
gene 2 7 121 -78579 0 483 -78579 1
gene 4 4 235 -534633 0 666 -534633 1
gene 4 235 14 109719 0 667 109719 1
gene 1 1 235 -178599 0 753 -178599 1
gene 1 9 235 36738 0 1108 36738 1
gene 3 10 384 800000 0 1126 800000 1
gene 3 384 15 262965 0 1127 262965 0
gene 2 14 14 675981 1 1197 675981 0
gene 3 7 420 -270954 0 1239 -270954 1
gene 3 420 15 789483 0 1240 789483 1
gene 3 2 433 -421796 0 1284 -421796 0
gene 3 433 13 -662687 0 1285 -662687 1
gene 4 3 461 25239 0 1352 25239 1
gene 4 461 14 -525330 0 1353 -525330 1
gene 4 15 500 -640917 1 1453 -640917 0
gene 4 500 15 356607 0 1454 356607 0
gene 1 8 516 384417 0 1500 384417 1
gene 1 516 14 -204798 0 1501 -204798 1
gene 1 384 121 441822 0 1548 441822 1
gene 2 8 461 177965 0 1965 177965 1
gene 3 3 697 -234819 0 2038 -234819 0
gene 2 697 15 -81087 0 2039 -81087 1
gene 2 1 500 445896 0 2133 445896 1
gene 1 3 433 -393584 0 2628 -393584 1
gene 1 516 516 -247362 1 2664 -247362 1
gene 3 8 1018 122217 0 2997 122217 0
gene 3 1018 121 800000 0 2998 800000 0
gene 3 15 433 312723 0 3156 312723 1
gene 1 10 1130 389466 0 3329 389466 1
gene 1 1130 14 -529797 0 3330 -529797 0
gene 3 500 697 -96156 0 3371 -96156 1
gene 2 3 516 394251 0 3603 394251 1
gene 2 9 1323 433347 0 3885 433347 1
gene 2 1323 14 -671010 0 3886 -671010 0
gene 2 121 420 -42054 0 3959 -42054 1
gene 2 8 1393 -319407 0 4093 -319407 1
gene 2 1393 13 -90075 0 4094 -90075 1
gene 1 11 1479 653307 0 4325 653307 1
gene 1 1479 14 -367911 0 4326 -367911 1
gene 4 12 1531 -279246 0 4477 -279246 1
gene 4 1531 15 651035 0 4478 651035 0
gene 3 1393 433 -720797 0 4734 -720797 1
gene 2 1323 1683 754101 0 4950 754101 1
gene 2 1683 14 -45671 0 4951 -45671 1
gene 3 6 1735 77550 0 5103 77550 1
gene 3 1735 14 -719895 0 5104 -719895 0
gene 1 5 516 800000 0 5346 800000 1
gene 1 516 433 271143 0 5443 271143 1
gene 3 2 1875 358341 0 5505 358341 1
gene 3 1875 433 -401102 0 5506 -401102 1
gene 1 1683 461 650303 0 5687 650303 1
gene 1 6 1975 146829 0 5780 146829 1
gene 1 1975 15 66069 0 5781 66069 1
gene 4 1531 2022 -800000 0 5905 -800000 1
gene 4 2022 15 15261 0 5906 15261 1
gene 3 121 1875 177348 0 5987 177348 1
gene 1 1683 1393 109599 0 6232 109599 1
gene 4 500 2179 -371019 0 6351 -371019 1
gene 4 2179 15 130116 0 6352 130116 1
gene 3 12 2179 -176079 0 6539 -176079 1
gene 1 1975 1975 -150999 1 6578 -150999 1
gene 2 14 2295 -221022 1 6699 -221022 1
gene 2 2295 14 663501 0 6700 663501 1
gene 4 4 433 287175 0 7064 287175 1
gene 3 12 235 -290373 0 7098 -290373 1
gene 1 384 384 -116622 1 7242 -116622 1
gene 2 500 500 206844 1 7740 206844 1
gene 3 8 2730 181332 0 7969 181332 1
gene 3 2730 1018 -414273 0 7970 -414273 1
gene 2 2730 516 11961 0 8040 11961 1
gene 4 6 2767 -181884 0 8075 -181884 1
gene 4 2767 13 13776 0 8076 13776 1
gene 3 13 15 -174000 1 8122 -174000 1
gene 4 12 2826 192249 0 8243 192249 1
gene 4 2826 14 -678039 0 8244 -678039 1
gene 3 384 1975 -193812 0 8469 -193812 1
gene 3 3 2977 282291 0 8686 282291 1
gene 3 2977 697 7932 0 8687 7932 1
gene 1 1130 3105 179028 0 9092 179028 1
gene 1 3105 14 -127221 0 9093 -127221 1
gene 4 15 3118 -236895 1 9132 -236895 1
gene 4 3118 500 58995 0 9133 58995 1
gene 4 3118 2295 -283482 0 9282 -283482 1
gene 3 10 121 -200964 0 9403 -200964 1
gene 4 500 2767 -149145 0 9643 -149145 1
gene 2 1393 1130 25085 0 10080 25085 1
genomeend 18


/* Organism #26 Fitness: 270.000000 Time: 0 */
/* Position #26*/
#1 x: 78 y: 33
#2 x: 15 y: 27
#3 x: 70 y: 31
#4 x: 34 y: 73
#5 x: 53 y: 84
#6 x: 80 y: 82
genomestart 26
trait 1 43007.000000 16300.000000 6994.000000 28041.000000 57524.000000 37112.000000 87908.000000 80535.000000 trait 2 30533.000000 0.000000 70868.000000 0.000000 0.000000 95828.000000 0.000000 78455.000000 trait 3 0.000000 0.000000 44883.000000 65858.000000 41337.000000 0.000000 100000.000000 41343.000000 trait 4 4.000000 0.000000 0.000000 36940.000000 0.000000 0.000000 43316.000000 37957.000000 node 1 4 1 3
node 2 4 1 1
node 3 1 1 1
node 4 1 1 1
node 5 1 1 1
node 6 2 1 1
node 7 4 1 1
node 8 4 1 1
node 9 2 1 1
node 10 1 1 1
node 11 2 1 1
node 12 4 1 1
node 13 2 0 2
node 14 1 0 2
node 15 3 0 2
node 121 1 0 0
node 235 1 0 0
node 384 1 0 0
node 420 1 0 0
node 433 1 0 0
node 461 1 0 0
node 500 1 0 0
node 516 1 0 0
node 697 3 0 0
node 1018 1 0 0
node 1130 1 0 0
node 1323 3 0 0
node 1393 3 0 0
node 1479 1 0 0
node 1531 3 0 0
node 1683 1 0 0
node 1735 1 0 0
node 1875 1 0 0
node 2034 1 0 0
node 2142 1 0 0
node 2172 1 0 0
node 2206 1 0 0
node 2313 1 0 0
node 2332 1 0 0
node 2368 1 0 0
node 2491 1 0 0
node 2512 1 0 0
node 2530 1 0 0
node 2547 1 0 0
node 2692 1 0 0
node 2786 1 0 0
node 2912 1 0 0
node 3009 1 0 0
node 3108 1 0 0
node 3213 1 0 0
node 3249 1 0 0
gene 2 1 13 -90774 0 1 -90774 1
gene 3 2 13 -90410 0 2 -90410 1
gene 2 3 13 -4125 0 3 -4125 1
gene 3 4 13 741254 0 4 741254 1
gene 2 5 13 40989 0 5 40989 0
gene 4 6 13 -142332 0 6 -142332 1
gene 3 7 13 559194 0 7 559194 1
gene 2 8 13 -19215 0 8 -19215 0
gene 3 9 13 216195 0 9 216195 1
gene 2 10 13 92688 0 10 92688 0
gene 2 11 13 800000 0 11 800000 1
gene 4 12 13 54738 0 12 54738 1
gene 2 1 14 499254 0 13 499254 1
gene 2 2 14 35298 0 14 35298 1
gene 4 3 14 -746301 0 15 -746301 0
gene 4 4 14 -270744 0 16 -270744 0
gene 4 5 14 770043 0 17 770043 1
gene 3 6 14 537225 0 18 537225 0
gene 2 7 14 -444306 0 19 -444306 1
gene 1 8 14 91263 0 20 91263 0
gene 3 9 14 -360813 0 21 -360813 1
gene 1 10 14 344511 0 22 344511 1
gene 1 11 14 693603 0 23 693603 1
gene 4 12 14 636843 0 24 636843 1
gene 3 1 15 -619983 0 25 -619983 1
gene 3 2 15 -25986 0 26 -25986 1
gene 3 3 15 -308397 0 27 -308397 0
gene 3 4 15 683757 0 28 683757 1
gene 3 5 15 -221154 0 29 -221154 1
gene 1 6 15 -61629 0 30 -61629 1
gene 3 7 15 400980 0 31 400980 1
gene 3 8 15 -44607 0 32 -44607 1
gene 3 9 15 -477597 0 33 -477597 1
gene 3 10 15 -342594 0 34 -342594 0
gene 2 11 15 -216123 0 35 -216123 1
gene 4 12 15 -268050 0 36 -268050 0
gene 4 15 15 114900 1 174 114900 0
gene 3 8 121 560337 0 329 560337 0
gene 3 121 15 25332 0 330 25332 1
gene 2 5 121 510129 0 438 510129 1
gene 2 7 121 151251 0 483 151251 0
gene 4 4 235 23697 0 666 23697 1
gene 4 235 14 270705 0 667 270705 1
gene 1 1 235 -194331 0 753 -194331 1
gene 3 9 235 -206655 0 1108 -206655 1
gene 3 10 384 29478 0 1126 29478 1
gene 3 384 15 329679 0 1127 329679 1
gene 2 14 14 -68667 1 1197 -68667 1
gene 3 7 420 -432426 0 1239 -432426 0
gene 3 420 15 -32502 0 1240 -32502 0
gene 3 2 433 -317592 0 1284 -317592 1
gene 3 433 13 -551364 0 1285 -551364 1
gene 4 3 461 -640343 0 1352 -640343 1
gene 4 461 14 -421761 0 1353 -421761 1
gene 4 15 500 -177120 1 1453 -177120 1
gene 4 500 15 -157806 0 1454 -157806 0
gene 1 8 516 -367473 0 1500 -367473 1
gene 1 516 14 476490 0 1501 476490 0
gene 1 384 121 -108921 0 1548 -108921 1
gene 2 8 461 439233 0 1965 439233 1
gene 3 3 697 76557 0 2038 76557 1
gene 3 697 15 206181 0 2039 206181 1
gene 2 1 500 -211875 0 2133 -211875 1
gene 1 3 433 165501 0 2628 165501 1
gene 1 516 516 331632 1 2664 331632 1
gene 3 8 1018 107496 0 2997 107496 1
gene 3 1018 121 577115 0 2998 577115 0
gene 3 15 433 -64389 0 3156 -64389 1
gene 1 10 1130 141861 0 3329 141861 1
gene 1 1130 14 39666 0 3330 39666 1
gene 3 500 697 125226 0 3371 125226 1
gene 2 3 516 -220062 0 3603 -220062 1
gene 2 9 1323 -184689 0 3885 -184689 0
gene 2 1323 14 677922 0 3886 677922 0
gene 2 121 420 -727256 0 3959 -727256 1
gene 2 8 1393 -184293 0 4093 -184293 1
gene 2 1393 13 -167190 0 4094 -167190 1
gene 1 11 1479 -56991 0 4325 -56991 1
gene 1 1479 14 103185 0 4326 103185 1
gene 4 12 1531 232965 0 4477 232965 1
gene 4 1531 15 -46353 0 4478 -46353 1
gene 3 1393 433 -441861 0 4734 -441861 1
gene 2 1323 1683 31281 0 4950 31281 1
gene 2 1683 14 16458 0 4951 16458 1
gene 3 6 1735 74580 0 5103 74580 1
gene 3 1735 14 157839 0 5104 157839 1
gene 1 5 516 -339219 0 5346 -339219 1
gene 1 516 433 494208 0 5443 494208 1
gene 3 2 1875 -304059 0 5505 -304059 1
gene 3 1875 433 249891 0 5506 249891 1
gene 1 1683 461 -199674 0 5687 -199674 1
gene 1 516 121 -116145 0 5877 -116145 1
gene 3 3 2034 37047 0 5939 37047 1
gene 3 2034 697 -597387 0 5940 -597387 1
gene 3 5 1479 -442854 0 6157 -442854 1
gene 3 7 2142 16047 0 6248 16047 1
gene 3 2142 420 392658 0 6249 392658 1
gene 3 420 2172 -318491 0 6332 -318491 1
gene 3 2172 15 245256 0 6333 245256 1
gene 2 1735 1735 75852 1 6388 75852 1
gene 2 8 2206 68604 0 6436 68604 1
gene 2 2206 1393 368715 0 6437 368715 1
gene 2 121 2313 691623 0 6747 691623 1
gene 2 2313 420 -271371 0 6748 -271371 1
gene 2 9 2332 15597 0 6797 15597 0
gene 2 2332 1323 -97257 0 6798 -97257 1
gene 4 1323 2034 -655101 0 6848 -655101 1
gene 2 7 2368 -33834 0 6897 -33834 1
gene 2 2368 121 -552522 0 6898 -552522 1
gene 2 384 1531 274395 0 7018 274395 1
gene 2 2142 1018 -707664 0 7205 -707664 0
gene 3 2206 2034 -260112 0 7245 -260112 1
gene 2 7 2491 362187 0 7283 362187 1
gene 2 2491 2368 347808 0 7284 347808 1
gene 2 5 2512 -159387 0 7337 -159387 1
gene 2 2512 13 672957 0 7338 672957 0
gene 2 10 2530 119367 0 7387 119367 1
gene 2 2530 13 -401493 0 7388 -401493 1
gene 3 9 2547 -140898 0 7440 -140898 1
gene 3 2547 13 -156270 0 7441 -156270 1
gene 2 2530 1479 148146 0 7594 148146 1
gene 1 1479 2692 39579 0 7856 39579 1
gene 1 2692 14 -160974 0 7857 -160974 1
gene 3 4 1130 -197214 0 7980 -197214 1
gene 4 3 2786 371094 0 8132 371094 1
gene 4 2786 14 152769 0 8133 152769 1
gene 4 2547 1735 -191340 0 8311 -191340 1
gene 3 2692 461 192768 0 8358 192768 1
gene 4 500 2912 -346554 0 8507 -346554 1
gene 1 2912 15 74649 0 8508 74649 1
gene 1 2912 1130 -85191 0 8750 -85191 1
gene 2 2142 3009 295227 0 8799 295227 1
gene 2 3009 1018 91881 0 8800 91881 1
gene 3 2034 2034 265191 1 8851 265191 1
gene 2 2512 3108 476796 0 9104 476796 1
gene 2 3108 13 -441720 0 9105 -441720 1
gene 1 2491 235 69621 0 9236 69621 1
gene 2 9 3213 403812 0 9416 403812 1
gene 2 3213 2332 -182688 0 9417 -182688 1
gene 1 516 3249 -133470 0 9516 -133470 1
gene 1 3249 14 -6189 0 9517 -6189 1
gene 4 3 1393 -282303 0 9617 -282303 1
gene 2 3108 2912 105828 0 9658 105828 1
gene 3 1 1531 51117 0 9877 51117 1
gene 1 2912 2912 -15473 1 10136 -15473 1
genomeend 26


/* Organism #34 Fitness: 530.000000 Time: 0 */
/* Position #34*/
#1 x: 60 y: 26
#2 x: 40 y: 26
#3 x: 28 y: 40
#4 x: 35 y: 74
#5 x: 85 y: 78
#6 x: 77 y: 71
genomestart 34
trait 1 43007.000000 16300.000000 6994.000000 28041.000000 57524.000000 37112.000000 87908.000000 80535.000000 trait 2 30533.000000 24215.000000 70868.000000 0.000000 0.000000 0.000000 0.000000 18399.000000 trait 3 0.000000 0.000000 44883.000000 65858.000000 41337.000000 0.000000 100000.000000 41343.000000 trait 4 4.000000 0.000000 0.000000 36940.000000 0.000000 0.000000 0.000000 37957.000000 node 1 4 1 3
node 2 4 1 1
node 3 1 1 1
node 4 1 1 1
node 5 1 1 1
node 6 2 1 1
node 7 4 1 1
node 8 4 1 1
node 9 2 1 1
node 10 1 1 1
node 11 2 1 1
node 12 4 1 1
node 13 2 0 2
node 14 1 0 2
node 15 3 0 2
node 121 1 0 0
node 235 1 0 0
node 384 2 0 0
node 420 1 0 0
node 433 1 0 0
node 461 1 0 0
node 500 1 0 0
node 516 1 0 0
node 697 3 0 0
node 1018 1 0 0
node 1130 1 0 0
node 1323 3 0 0
node 1393 1 0 0
node 1479 1 0 0
node 1531 3 0 0
node 1683 1 0 0
node 1735 1 0 0
node 1875 1 0 0
node 2034 1 0 0
node 2142 1 0 0
node 2172 1 0 0
node 2206 1 0 0
node 2313 1 0 0
node 2332 1 0 0
node 2368 1 0 0
node 2491 1 0 0
node 2512 1 0 0
node 2530 1 0 0
node 2547 1 0 0
node 2692 1 0 0
node 2786 1 0 0
node 2912 1 0 0
node 3009 1 0 0
node 3108 1 0 0
node 3213 1 0 0
node 3249 1 0 0
node 3336 1 0 0
node 3356 1 0 0
node 3443 1 0 0
gene 2 1 13 -422253 0 1 -422253 1
gene 3 2 13 -62637 0 2 -62637 1
gene 2 3 13 -560154 0 3 -560154 1
gene 3 4 13 122874 0 4 122874 1
gene 2 5 13 800000 0 5 800000 0
gene 4 6 13 -800000 0 6 -800000 1
gene 3 7 13 592808 0 7 592808 1
gene 2 8 13 -132966 0 8 -132966 0
gene 3 9 13 37143 0 9 37143 1
gene 2 10 13 -393207 0 10 -393207 0
gene 2 11 13 46944 0 11 46944 1
gene 4 12 13 -422670 0 12 -422670 1
gene 2 1 14 -800000 0 13 -800000 1
gene 2 2 14 16023 0 14 16023 1
gene 4 3 14 484917 0 15 484917 0
gene 4 4 14 41226 0 16 41226 0
gene 4 5 14 -413220 0 17 -413220 1
gene 3 6 14 -5718 0 18 -5718 0
gene 2 7 14 699584 0 19 699584 1
gene 1 8 14 -262062 0 20 -262062 0
gene 3 9 14 243051 0 21 243051 1
gene 1 10 14 601815 0 22 601815 1
gene 1 11 14 455159 0 23 455159 1
gene 4 12 14 -147999 0 24 -147999 1
gene 3 1 15 293103 0 25 293103 1
gene 3 2 15 -68622 0 26 -68622 1
gene 3 3 15 731000 0 27 731000 0
gene 3 4 15 -107337 0 28 -107337 1
gene 3 5 15 389139 0 29 389139 1
gene 1 6 15 273453 0 30 273453 1
gene 3 7 15 348678 0 31 348678 1
gene 3 8 15 135228 0 32 135228 1
gene 3 9 15 205572 0 33 205572 1
gene 3 10 15 519156 0 34 519156 0
gene 2 11 15 -187635 0 35 -187635 1
gene 4 12 15 800000 0 36 800000 0
gene 4 15 15 354078 1 174 354078 0
gene 3 8 121 -95334 0 329 -95334 0
gene 3 121 15 -234960 0 330 -234960 1
gene 2 5 121 -279909 0 438 -279909 1
gene 2 7 121 -431577 0 483 -431577 0
gene 4 4 235 452745 0 666 452745 1
gene 4 235 14 253209 0 667 253209 1
gene 1 1 235 78462 0 753 78462 1
gene 3 9 235 -220293 0 1108 -220293 1
gene 3 10 384 273723 0 1126 273723 1
gene 3 384 15 604578 0 1127 604578 1
gene 2 14 14 154923 1 1197 154923 1
gene 3 7 420 -57213 0 1239 -57213 0
gene 3 420 15 -53640 0 1240 -53640 0
gene 3 2 433 -498936 0 1284 -498936 1
gene 3 433 13 199476 0 1285 199476 1
gene 4 3 461 -151592 0 1352 -151592 1
gene 4 461 14 -255822 0 1353 -255822 1
gene 4 15 500 -425694 1 1453 -425694 1
gene 4 500 15 441933 0 1454 441933 0
gene 1 8 516 800000 0 1500 800000 1
gene 1 516 14 42558 0 1501 42558 0
gene 1 384 121 180201 0 1548 180201 1
gene 2 8 461 89652 0 1965 89652 1
gene 3 3 697 713676 0 2038 713676 1
gene 3 697 15 714746 0 2039 714746 1
gene 2 1 500 60471 0 2133 60471 1
gene 1 3 433 3207 0 2628 3207 1
gene 1 516 516 -155865 1 2664 -155865 1
gene 3 8 1018 800000 0 2997 800000 1
gene 3 1018 121 717221 0 2998 717221 0
gene 3 15 433 582222 0 3156 582222 1
gene 2 10 1130 265863 0 3329 265863 1
gene 1 1130 14 -67902 0 3330 -67902 1
gene 3 500 697 574215 0 3371 574215 1
gene 2 3 516 251082 0 3603 251082 1
gene 2 9 1323 -160287 0 3885 -160287 0
gene 2 1323 14 502182 0 3886 502182 0
gene 2 121 420 -427032 0 3959 -427032 1
gene 2 8 1393 506133 0 4093 506133 1
gene 2 1393 13 42333 0 4094 42333 0
gene 1 11 1479 -352146 0 4325 -352146 1
gene 1 1479 14 -455088 0 4326 -455088 1
gene 4 12 1531 -175245 0 4477 -175245 1
gene 4 1531 15 67746 0 4478 67746 1
gene 3 1393 433 -797538 0 4734 -797538 1
gene 2 1323 1683 613838 0 4950 613838 1
gene 2 1683 14 800000 0 4951 800000 1
gene 3 6 1735 -353394 0 5103 -353394 1
gene 3 1735 14 596009 0 5104 596009 1
gene 1 5 516 271911 0 5346 271911 1
gene 1 516 433 43695 0 5443 43695 1
gene 3 2 1875 800000 0 5505 800000 1
gene 3 1875 433 -329052 0 5506 -329052 1
gene 1 1683 461 -736319 0 5687 -736319 1
gene 1 516 121 -297876 0 5877 -297876 1
gene 3 3 2034 636039 0 5939 636039 1
gene 3 2034 697 543225 0 5940 543225 1
gene 3 5 1479 340470 0 6157 340470 1
gene 3 7 2142 -800000 0 6248 -800000 1
gene 3 2142 420 368988 0 6249 368988 1
gene 3 420 2172 -614154 0 6332 -614154 1
gene 3 2172 15 -296370 0 6333 -296370 1
gene 2 1735 1735 -756983 1 6388 -756983 1
gene 2 8 2206 -707499 0 6436 -707499 1
gene 2 2206 1393 118659 0 6437 118659 1
gene 2 121 2313 -216099 0 6747 -216099 1
gene 2 2313 420 122424 0 6748 122424 1
gene 2 9 2332 -312294 0 6797 -312294 0
gene 2 2332 1323 313785 0 6798 313785 1
gene 4 1323 2034 -406131 0 6848 -406131 1
gene 2 7 2368 -38417 0 6897 -38417 1
gene 2 2368 121 283698 0 6898 283698 1
gene 2 384 1531 -155985 0 7018 -155985 1
gene 2 2142 1018 -241149 0 7205 -241149 0
gene 3 2206 2034 -147708 0 7245 -147708 1
gene 2 7 2491 -477459 0 7283 -477459 1
gene 2 2491 2368 -39882 0 7284 -39882 1
gene 2 5 2512 316566 0 7337 316566 1
gene 2 2512 13 747756 0 7338 747756 0
gene 2 10 2530 -800000 0 7387 -800000 1
gene 2 2530 13 365019 0 7388 365019 1
gene 3 9 2547 613179 0 7440 613179 1
gene 3 2547 13 -173250 0 7441 -173250 1
gene 2 2530 1479 -37458 0 7594 -37458 0
gene 1 1479 2692 -158283 0 7856 -158283 1
gene 1 2692 14 163011 0 7857 163011 1
gene 3 4 1130 -299451 0 7980 -299451 1
gene 4 3 2786 202092 0 8132 202092 1
gene 4 2786 14 431889 0 8133 431889 1
gene 4 2547 1735 131460 0 8311 131460 1
gene 3 2692 461 -253029 0 8358 -253029 1
gene 4 500 2912 -22236 0 8507 -22236 1
gene 1 2912 15 362880 0 8508 362880 1
gene 1 2912 1130 -71871 0 8750 -71871 1
gene 2 2142 3009 155286 0 8799 155286 1
gene 2 3009 1018 -60492 0 8800 -60492 1
gene 3 2034 2034 144450 1 8851 144450 0
gene 2 2512 3108 -69345 0 9104 -69345 1
gene 2 3108 13 51483 0 9105 51483 1
gene 1 2491 235 -519576 0 9236 -519576 1
gene 2 9 3213 -52824 0 9416 -52824 1
gene 2 3213 2332 46413 0 9417 46413 1
gene 1 516 3249 -148476 0 9516 -148476 1
gene 1 3249 14 -327105 0 9517 -327105 1
gene 2 1393 3336 151803 0 9780 151803 1
gene 2 3336 13 12597 0 9781 12597 1
gene 2 2530 3356 -249963 0 9835 -249963 1
gene 2 3356 1479 42282 0 9836 42282 1
gene 3 2034 3443 58681 1 10105 58681 1
gene 3 3443 2034 413511 0 10106 413511 1
genomeend 34


/* Organism #38 Fitness: 460.000000 Time: 0 */
/* Position #38*/
#1 x: 22 y: 39
#2 x: 84 y: 33
#3 x: 66 y: 36
#4 x: 19 y: 80
#5 x: 24 y: 80
#6 x: 84 y: 64
genomestart 38
trait 1 43007.000000 16300.000000 6994.000000 28041.000000 57524.000000 37112.000000 87908.000000 80535.000000 trait 2 30533.000000 24215.000000 70868.000000 0.000000 0.000000 0.000000 0.000000 18399.000000 trait 3 0.000000 0.000000 44883.000000 65858.000000 41337.000000 0.000000 100000.000000 41343.000000 trait 4 4.000000 0.000000 0.000000 36940.000000 0.000000 0.000000 0.000000 37957.000000 node 1 4 1 3
node 2 4 1 1
node 3 1 1 1
node 4 1 1 1
node 5 1 1 1
node 6 2 1 1
node 7 4 1 1
node 8 4 1 1
node 9 2 1 1
node 10 1 1 1
node 11 2 1 1
node 12 4 1 1
node 13 2 0 2
node 14 1 0 2
node 15 3 0 2
node 121 1 0 0
node 235 1 0 0
node 384 2 0 0
node 420 1 0 0
node 433 1 0 0
node 461 1 0 0
node 500 1 0 0
node 516 1 0 0
node 697 3 0 0
node 1018 1 0 0
node 1130 1 0 0
node 1323 3 0 0
node 1393 1 0 0
node 1479 1 0 0
node 1531 3 0 0
node 1683 1 0 0
node 1735 1 0 0
node 1875 1 0 0
node 2034 1 0 0
node 2142 1 0 0
node 2172 1 0 0
node 2206 1 0 0
node 2313 1 0 0
node 2332 1 0 0
node 2368 1 0 0
node 2491 1 0 0
node 2512 1 0 0
node 2530 1 0 0
node 2547 1 0 0
node 2692 1 0 0
node 2786 1 0 0
node 2912 1 0 0
node 3009 1 0 0
node 3108 1 0 0
node 3213 1 0 0
node 3249 1 0 0
node 3336 1 0 0
node 3356 1 0 0
gene 2 1 13 -113067 0 1 -113067 1
gene 3 2 13 -289539 0 2 -289539 1
gene 2 3 13 -345234 0 3 -345234 1
gene 3 4 13 138543 0 4 138543 1
gene 2 5 13 420440 0 5 420440 0
gene 4 6 13 80964 0 6 80964 1
gene 3 7 13 800000 0 7 800000 1
gene 2 8 13 -459477 0 8 -459477 0
gene 3 9 13 -36081 0 9 -36081 1
gene 2 10 13 -303 0 10 -303 0
gene 2 11 13 80742 0 11 80742 1
gene 4 12 13 -242796 0 12 -242796 1
gene 2 1 14 -742011 0 13 -742011 1
gene 2 2 14 227955 0 14 227955 1
gene 4 3 14 410580 0 15 410580 0
gene 4 4 14 280914 0 16 280914 0
gene 4 5 14 217593 0 17 217593 1
gene 3 6 14 -190812 0 18 -190812 0
gene 2 7 14 581873 0 19 581873 1
gene 1 8 14 -514128 0 20 -514128 0
gene 3 9 14 -27099 0 21 -27099 1
gene 1 10 14 647889 0 22 647889 1
gene 1 11 14 750176 0 23 750176 1
gene 4 12 14 296250 0 24 296250 1
gene 3 1 15 -173550 0 25 -173550 1
gene 3 2 15 57816 0 26 57816 1
gene 3 3 15 -210495 0 27 -210495 0
gene 3 4 15 -96306 0 28 -96306 1
gene 3 5 15 621963 0 29 621963 1
gene 1 6 15 165222 0 30 165222 1
gene 3 7 15 37833 0 31 37833 1
gene 3 8 15 293871 0 32 293871 1
gene 3 9 15 475142 0 33 475142 1
gene 3 10 15 85530 0 34 85530 0
gene 2 11 15 -338901 0 35 -338901 1
gene 4 12 15 575945 0 36 575945 0
gene 4 15 15 142530 1 174 142530 0
gene 3 8 121 -424767 0 329 -424767 0
gene 3 121 15 -395370 0 330 -395370 1
gene 2 5 121 -628080 0 438 -628080 1
gene 2 7 121 -206577 0 483 -206577 0
gene 4 4 235 -286539 0 666 -286539 1
gene 4 235 14 373968 0 667 373968 1
gene 1 1 235 451995 0 753 451995 1
gene 3 9 235 134973 0 1108 134973 1
gene 3 10 384 -513213 0 1126 -513213 1
gene 3 384 15 327258 0 1127 327258 1
gene 2 14 14 241677 1 1197 241677 1
gene 3 7 420 462018 0 1239 462018 0
gene 3 420 15 516837 0 1240 516837 0
gene 3 2 433 -731451 0 1284 -731451 1
gene 3 433 13 59277 0 1285 59277 1
gene 4 3 461 -178826 0 1352 -178826 1
gene 4 461 14 -207309 0 1353 -207309 1
gene 4 15 500 -350529 1 1453 -350529 1
gene 4 500 15 382242 0 1454 382242 0
gene 1 8 516 549618 0 1500 549618 1
gene 1 516 14 82893 0 1501 82893 0
gene 1 384 121 -122247 0 1548 -122247 1
gene 2 8 461 -195831 0 1965 -195831 1
gene 3 3 697 800000 0 2038 800000 1
gene 3 697 15 800000 0 2039 800000 1
gene 2 1 500 -465813 0 2133 -465813 1
gene 1 3 433 -202638 0 2628 -202638 1
gene 1 516 516 -181629 1 2664 -181629 1
gene 3 8 1018 800000 0 2997 800000 1
gene 3 1018 121 764837 0 2998 764837 0
gene 3 15 433 -219825 0 3156 -219825 1
gene 1 10 1130 326991 0 3329 326991 1
gene 1 1130 14 -240783 0 3330 -240783 1
gene 3 500 697 800000 0 3371 800000 1
gene 2 3 516 56418 0 3603 56418 1
gene 2 9 1323 37803 0 3885 37803 0
gene 2 1323 14 28311 0 3886 28311 0
gene 2 121 420 85479 0 3959 85479 1
gene 2 8 1393 47361 0 4093 47361 1
gene 2 1393 13 -377340 0 4094 -377340 0
gene 1 11 1479 52242 0 4325 52242 1
gene 1 1479 14 -30651 0 4326 -30651 1
gene 4 12 1531 284079 0 4477 284079 1
gene 4 1531 15 -235173 0 4478 -235173 1
gene 3 1393 433 -664137 0 4734 -664137 1
gene 2 1323 1683 424613 0 4950 424613 1
gene 2 1683 14 638856 0 4951 638856 1
gene 3 6 1735 98337 0 5103 98337 1
gene 3 1735 14 695111 0 5104 695111 1
gene 1 5 516 -175659 0 5346 -175659 1
gene 1 516 433 -271650 0 5443 -271650 1
gene 3 2 1875 730745 0 5505 730745 1
gene 3 1875 433 64827 0 5506 64827 1
gene 1 1683 461 -471863 0 5687 -471863 1
gene 1 516 121 -120696 0 5877 -120696 1
gene 3 3 2034 189663 0 5939 189663 1
gene 3 2034 697 -639 0 5940 -639 1
gene 3 5 1479 88326 0 6157 88326 1
gene 3 7 2142 -784598 0 6248 -784598 1
gene 3 2142 420 -265143 0 6249 -265143 1
gene 3 420 2172 -22320 0 6332 -22320 1
gene 3 2172 15 -426366 0 6333 -426366 1
gene 2 1735 1735 -548369 1 6388 -548369 1
gene 2 8 2206 -404574 0 6436 -404574 1
gene 2 2206 1393 318426 0 6437 318426 1
gene 2 121 2313 -424236 0 6747 -424236 1
gene 2 2313 420 300774 0 6748 300774 1
gene 2 9 2332 -219582 0 6797 -219582 0
gene 2 2332 1323 -4890 0 6798 -4890 1
gene 4 1323 2034 -299568 0 6848 -299568 1
gene 2 7 2368 -436727 0 6897 -436727 1
gene 2 2368 121 62559 0 6898 62559 1
gene 2 384 1531 -593220 0 7018 -593220 1
gene 2 2142 1018 -67017 0 7205 -67017 0
gene 3 2206 2034 292806 0 7245 292806 1
gene 2 7 2491 139932 0 7283 139932 1
gene 2 2491 2368 170553 0 7284 170553 1
gene 2 5 2512 78477 0 7337 78477 1
gene 2 2512 13 496848 0 7338 496848 0
gene 2 10 2530 -800000 0 7387 -800000 1
gene 2 2530 13 356085 0 7388 356085 1
gene 3 9 2547 175965 0 7440 175965 1
gene 3 2547 13 -334815 0 7441 -334815 1
gene 2 2530 1479 -257052 0 7594 -257052 0
gene 1 1479 2692 -17340 0 7856 -17340 1
gene 1 2692 14 219651 0 7857 219651 1
gene 3 4 1130 -112830 0 7980 -112830 1
gene 4 3 2786 -281139 0 8132 -281139 1
gene 4 2786 14 -162798 0 8133 -162798 1
gene 4 2547 1735 -219030 0 8311 -219030 1
gene 3 2692 461 -235224 0 8358 -235224 1
gene 4 500 2912 -300255 0 8507 -300255 1
gene 1 2912 15 94032 0 8508 94032 1
gene 1 2912 1130 -259656 0 8750 -259656 1
gene 2 2142 3009 -573926 0 8799 -573926 1
gene 2 3009 1018 199425 0 8800 199425 1
gene 3 2034 2034 -286833 1 8851 -286833 1
gene 2 2512 3108 305523 0 9104 305523 1
gene 2 3108 13 224439 0 9105 224439 1
gene 1 2491 235 -174879 0 9236 -174879 1
gene 2 9 3213 81279 0 9416 81279 1
gene 2 3213 2332 66732 0 9417 66732 1
gene 1 516 3249 318504 0 9516 318504 1
gene 1 3249 14 113733 0 9517 113733 1
gene 2 1393 3336 106389 0 9780 106389 1
gene 2 3336 13 248166 0 9781 248166 1
gene 2 2530 3356 600412 0 9835 600412 1
gene 2 3356 1479 6840 0 9836 6840 1
gene 1 2 1323 10568 0 10107 10568 1
gene 3 2142 697 64900 0 10149 64900 1
genomeend 38


/* Organism #42 Fitness: 220.000000 Time: 0 */
/* Position #42*/
#1 x: 43 y: 25
#2 x: 63 y: 18
#3 x: 80 y: 31
#4 x: 38 y: 64
#5 x: 29 y: 76
#6 x: 74 y: 75
genomestart 42
trait 1 96513.000000 100000.000000 0.000000 48265.000000 0.000000 0.000000 100000.000000 393.000000 trait 2 2.000000 0.000000 0.000000 0.000000 0.000000 0.000000 0.000000 0.000000 trait 3 0.000000 0.000000 0.000000 51304.000000 0.000000 13538.000000 70969.000000 30146.000000 trait 4 4.000000 0.000000 0.000000 36940.000000 0.000000 0.000000 100000.000000 100000.000000 node 1 4 1 3
node 2 4 1 1
node 3 1 1 1
node 4 1 1 1
node 5 1 1 1
node 6 2 1 1
node 7 4 1 1
node 8 4 1 1
node 9 2 1 1
node 10 1 1 1
node 11 2 1 1
node 12 4 1 1
node 13 2 0 2
node 14 1 0 2
node 15 3 0 2
node 121 1 0 0
node 235 1 0 0
node 384 1 0 0
node 420 1 0 0
node 433 1 0 0
node 461 1 0 0
node 500 1 0 0
node 516 1 0 0
node 697 1 0 0
node 1018 1 0 0
node 1130 1 0 0
node 1323 3 0 0
node 1393 1 0 0
node 1479 1 0 0
node 1531 4 0 0
node 1683 1 0 0
node 1735 1 0 0
node 1875 1 0 0
node 1975 1 0 0
node 2022 1 0 0
node 2179 1 0 0
node 2295 1 0 0
node 2730 1 0 0
node 2767 1 0 0
node 2826 1 0 0
node 2977 1 0 0
node 3203 1 0 0
node 3406 1 0 0
node 3457 1 0 0
gene 2 1 13 10245 0 1 10245 1
gene 3 2 13 -486402 0 2 -486402 1
gene 2 3 13 -240789 0 3 -240789 1
gene 3 4 13 -416445 0 4 -416445 1
gene 2 5 13 -495900 0 5 -495900 1
gene 4 6 13 581906 0 6 581906 0
gene 3 7 13 231033 0 7 231033 1
gene 2 8 13 108264 0 8 108264 0
gene 3 9 13 714213 0 9 714213 1
gene 2 10 13 673761 0 10 673761 1
gene 2 11 13 337021 0 11 337021 1
gene 4 12 13 14996 0 12 14996 1
gene 2 1 14 -453159 0 13 -453159 1
gene 2 2 14 -7212 0 14 -7212 1
gene 4 3 14 293091 0 15 293091 1
gene 4 4 14 -284598 0 16 -284598 0
gene 4 5 14 573387 0 17 573387 1
gene 3 6 14 409524 0 18 409524 0
gene 2 7 14 138195 0 19 138195 1
gene 1 8 14 219195 0 20 219195 0
gene 3 9 14 12522 0 21 12522 1
gene 1 10 14 -419901 0 22 -419901 1
gene 1 11 14 -768182 0 23 -768182 1
gene 4 12 14 -709685 0 24 -709685 0
gene 3 1 15 800000 0 25 800000 1
gene 3 2 15 -183132 0 26 -183132 1
gene 3 3 15 -52479 0 27 -52479 0
gene 3 4 15 -212736 0 28 -212736 1
gene 3 5 15 144948 0 29 144948 1
gene 1 6 15 -274029 0 30 -274029 0
gene 3 7 15 -288201 0 31 -288201 0
gene 3 8 15 -749931 0 32 -749931 1
gene 3 9 15 412440 0 33 412440 1
gene 3 10 15 32859 0 34 32859 0
gene 2 11 15 -202089 0 35 -202089 1
gene 4 12 15 -204684 0 36 -204684 0
gene 4 15 15 132960 1 174 132960 0
gene 3 8 121 654351 0 329 654351 0
gene 3 121 15 -672777 0 330 -672777 1
gene 2 5 121 770507 0 438 770507 1
gene 2 7 121 -403208 0 483 -403208 1
gene 4 4 235 176256 0 666 176256 1
gene 4 235 14 -371829 0 667 -371829 1
gene 1 1 235 233400 0 753 233400 1
gene 1 9 235 -800000 0 1108 -800000 1
gene 3 10 384 342389 0 1126 342389 1
gene 3 384 15 -122118 0 1127 -122118 0
gene 2 14 14 -407784 1 1197 -407784 0
gene 3 7 420 44346 0 1239 44346 1
gene 3 420 15 -51639 0 1240 -51639 1
gene 3 2 433 49479 0 1284 49479 0
gene 3 433 13 800000 0 1285 800000 1
gene 4 3 461 -127605 0 1352 -127605 1
gene 4 461 14 -34669 0 1353 -34669 1
gene 4 15 500 -187253 1 1453 -187253 1
gene 4 500 15 -42171 0 1454 -42171 0
gene 1 8 516 -34161 0 1500 -34161 1
gene 1 516 14 -228162 0 1501 -228162 1
gene 1 384 121 -298662 0 1548 -298662 1
gene 2 8 461 336693 0 1965 336693 1
gene 3 3 697 257412 0 2038 257412 0
gene 2 697 15 -148497 0 2039 -148497 1
gene 2 1 500 224739 0 2133 224739 1
gene 1 3 433 -37188 0 2628 -37188 1
gene 1 516 516 -741122 1 2664 -741122 1
gene 3 8 1018 -800000 0 2997 -800000 0
gene 3 1018 121 -333021 0 2998 -333021 0
gene 3 15 433 309471 0 3156 309471 1
gene 1 10 1130 800000 0 3329 800000 1
gene 1 1130 14 -371376 0 3330 -371376 1
gene 3 500 697 142653 0 3371 142653 0
gene 2 3 516 -659525 0 3603 -659525 1
gene 2 9 1323 -369846 0 3885 -369846 1
gene 2 1323 14 -800000 0 3886 -800000 0
gene 4 121 420 -228648 0 3959 -228648 1
gene 2 8 1393 120315 0 4093 120315 1
gene 2 1393 13 -448374 0 4094 -448374 1
gene 1 11 1479 182370 0 4325 182370 1
gene 1 1479 14 -65868 0 4326 -65868 1
gene 4 12 1531 53442 0 4477 53442 1
gene 4 1531 15 800000 0 4478 800000 0
gene 3 1393 433 494532 0 4734 494532 1
gene 2 1323 1683 -500279 0 4950 -500279 1
gene 2 1683 14 -559092 0 4951 -559092 1
gene 3 6 1735 -55578 0 5103 -55578 1
gene 3 1735 14 49227 0 5104 49227 0
gene 1 5 516 338477 0 5346 338477 1
gene 1 516 433 800000 0 5443 800000 1
gene 3 2 1875 -395570 0 5505 -395570 1
gene 3 1875 433 -59427 0 5506 -59427 1
gene 1 1683 461 10890 0 5687 10890 1
gene 1 6 1975 9870 0 5780 9870 1
gene 1 1975 15 134301 0 5781 134301 1
gene 4 1531 2022 230268 0 5905 230268 1
gene 4 2022 15 466578 0 5906 466578 1
gene 3 121 1875 -138756 0 5987 -138756 1
gene 1 1683 1393 -447332 0 6232 -447332 1
gene 4 500 2179 405873 0 6351 405873 1
gene 4 2179 15 185088 0 6352 185088 1
gene 3 12 2179 -170112 0 6539 -170112 1
gene 1 1975 1975 313305 1 6578 313305 1
gene 2 14 2295 -287484 1 6699 -287484 1
gene 2 2295 14 -2961 0 6700 -2961 1
gene 4 4 433 603932 0 7064 603932 1
gene 3 12 235 193809 0 7098 193809 1
gene 1 384 384 120432 1 7242 120432 1
gene 2 500 500 -207450 1 7740 -207450 1
gene 3 8 2730 -61551 0 7969 -61551 1
gene 3 2730 1018 178179 0 7970 178179 1
gene 2 2730 516 -384504 0 8040 -384504 1
gene 4 6 2767 -13179 0 8075 -13179 1
gene 4 2767 13 -218364 0 8076 -218364 1
gene 3 13 15 466362 1 8122 466362 1
gene 4 12 2826 -50517 0 8243 -50517 1
gene 4 2826 14 -800000 0 8244 -800000 1
gene 3 384 1975 -83283 0 8469 -83283 1
gene 3 3 2977 251109 0 8686 251109 1
gene 3 2977 697 134223 0 8687 134223 0
gene 2 2179 2179 281250 1 9153 281250 1
gene 3 2977 3203 38115 0 9390 38115 1
gene 3 3203 697 -226116 0 9391 -226116 1
gene 1 697 697 158996 1 9937 158996 0
gene 1 697 3406 142866 1 9998 142866 1
gene 1 3406 697 -313540 0 9999 -313540 1
gene 3 500 3457 1 0 10151 0 1
gene 3 3457 697 142653 0 10152 0 1
genomeend 42


/* Organism #54 Fitness: 340.000000 Time: 0 */
/* Position #54*/
#1 x: 26 y: 35
#2 x: 42 y: 25
#3 x: 17 y: 30
#4 x: 20 y: 77
#5 x: 23 y: 63
#6 x: 68 y: 79
genomestart 54
trait 1 71503.000000 52572.000000 0.000000 48265.000000 0.000000 0.000000 100000.000000 393.000000 trait 2 0.000000 0.000000 0.000000 0.000000 0.000000 0.000000 17319.000000 0.000000 trait 3 0.000000 0.000000 97785.000000 100000.000000 7504.000000 13538.000000 40566.000000 6371.000000 trait 4 100000.000000 19256.000000 0.000000 100000.000000 19327.000000 74834.000000 35631.000000 100000.000000 node 1 4 1 3
node 2 4 1 1
node 3 1 1 1
node 4 1 1 1
node 5 1 1 1
node 6 2 1 1
node 7 4 1 1
node 8 4 1 1
node 9 2 1 1
node 10 1 1 1
node 11 2 1 1
node 12 4 1 1
node 13 2 0 2
node 14 1 0 2
node 15 3 0 2
node 121 1 0 0
node 235 1 0 0
node 384 1 0 0
node 420 1 0 0
node 433 1 0 0
node 461 1 0 0
node 500 1 0 0
node 516 1 0 0
node 697 1 0 0
node 1018 2 0 0
node 1130 1 0 0
node 1323 3 0 0
node 1393 1 0 0
node 1479 1 0 0
node 1531 4 0 0
node 1683 1 0 0
node 1735 1 0 0
node 1875 1 0 0
node 1975 1 0 0
node 2022 1 0 0
node 2179 1 0 0
node 2295 1 0 0
node 2730 1 0 0
node 2767 1 0 0
node 2826 1 0 0
node 2977 1 0 0
node 3362 1 0 0
gene 2 1 13 -131964 0 1 -131964 1
gene 3 2 13 183612 0 2 183612 1
gene 2 3 13 -507123 0 3 -507123 1
gene 3 4 13 -800000 0 4 -800000 1
gene 2 5 13 -139866 0 5 -139866 1
gene 4 6 13 243017 0 6 243017 0
gene 3 7 13 -415809 0 7 -415809 1
gene 2 8 13 302220 0 8 302220 0
gene 3 9 13 482469 0 9 482469 1
gene 2 10 13 -729516 0 10 -729516 1
gene 2 11 13 647259 0 11 647259 1
gene 4 12 13 800000 0 12 800000 1
gene 2 1 14 215145 0 13 215145 1
gene 2 2 14 787890 0 14 787890 1
gene 4 3 14 101028 0 15 101028 1
gene 4 4 14 -415893 0 16 -415893 0
gene 4 5 14 135354 0 17 135354 1
gene 3 6 14 156258 0 18 156258 0
gene 2 7 14 305844 0 19 305844 1
gene 1 8 14 76866 0 20 76866 0
gene 3 9 14 -418896 0 21 -418896 1
gene 1 10 14 -800000 0 22 -800000 1
gene 1 11 14 415239 0 23 415239 1
gene 4 12 14 335682 0 24 335682 0
gene 3 1 15 -444003 0 25 -444003 1
gene 3 2 15 -132051 0 26 -132051 1
gene 3 3 15 244194 0 27 244194 0
gene 3 4 15 -564888 0 28 -564888 1
gene 3 5 15 800000 0 29 800000 1
gene 1 6 15 54210 0 30 54210 0
gene 3 7 15 800000 0 31 800000 0
gene 3 8 15 303750 0 32 303750 1
gene 3 9 15 565271 0 33 565271 1
gene 3 10 15 -260574 0 34 -260574 0
gene 2 11 15 253623 0 35 253623 1
gene 4 12 15 383202 0 36 383202 0
gene 4 15 15 -314457 1 174 -314457 0
gene 3 8 121 -800000 0 329 -800000 0
gene 3 121 15 214122 0 330 214122 1
gene 2 5 121 679848 0 438 679848 1
gene 2 7 121 195888 0 483 195888 1
gene 4 4 235 315210 0 666 315210 1
gene 4 235 14 -48696 0 667 -48696 1
gene 1 1 235 32448 0 753 32448 1
gene 1 9 235 -282837 0 1108 -282837 1
gene 3 10 384 -109503 0 1126 -109503 1
gene 3 384 15 427119 0 1127 427119 0
gene 2 14 14 -370713 1 1197 -370713 0
gene 3 7 420 -104394 0 1239 -104394 1
gene 3 420 15 -800000 0 1240 -800000 1
gene 3 2 433 -262506 0 1284 -262506 0
gene 3 433 13 422145 0 1285 422145 1
gene 4 3 461 -282732 0 1352 -282732 1
gene 4 461 14 187305 0 1353 187305 1
gene 4 15 500 201447 1 1453 201447 1
gene 4 500 15 -181890 0 1454 -181890 0
gene 1 8 516 -454235 0 1500 -454235 1
gene 1 516 14 60627 0 1501 60627 1
gene 1 384 121 571119 0 1548 571119 1
gene 2 8 461 269973 0 1965 269973 1
gene 3 3 697 -323394 0 2038 -323394 0
gene 2 697 15 -141429 0 2039 -141429 1
gene 2 1 500 800000 0 2133 800000 1
gene 1 3 433 241522 0 2628 241522 1
gene 1 516 516 42567 1 2664 42567 1
gene 3 8 1018 -82359 0 2997 -82359 0
gene 3 1018 121 -182418 0 2998 -182418 0
gene 3 15 433 -23499 0 3156 -23499 1
gene 1 10 1130 -102996 0 3329 -102996 1
gene 1 1130 14 -82248 0 3330 -82248 1
gene 3 500 697 16500 0 3371 16500 1
gene 2 3 516 -780743 0 3603 -780743 0
gene 2 9 1323 -800000 0 3885 -800000 1
gene 2 1323 14 800000 0 3886 800000 0
gene 2 121 420 -800000 0 3959 -800000 1
gene 2 8 1393 -326562 0 4093 -326562 1
gene 2 1393 13 683496 0 4094 683496 1
gene 1 11 1479 -212190 0 4325 -212190 1
gene 1 1479 14 -252415 0 4326 -252415 1
gene 4 12 1531 -30111 0 4477 -30111 1
gene 4 1531 15 -800000 0 4478 -800000 0
gene 3 1393 433 91878 0 4734 91878 1
gene 2 1323 1683 520079 0 4950 520079 1
gene 2 1683 14 248358 0 4951 248358 1
gene 3 6 1735 314765 0 5103 314765 1
gene 3 1735 14 -800000 0 5104 -800000 0
gene 1 5 516 311415 0 5346 311415 1
gene 1 516 433 34128 0 5443 34128 1
gene 3 2 1875 -157068 0 5505 -157068 1
gene 3 1875 433 -85992 0 5506 -85992 1
gene 1 1683 461 -28431 0 5687 -28431 1
gene 1 6 1975 740360 0 5780 740360 1
gene 1 1975 15 -237612 0 5781 -237612 1
gene 4 1531 2022 -275331 0 5905 -275331 1
gene 4 2022 15 24933 0 5906 24933 1
gene 3 121 1875 -729027 0 5987 -729027 1
gene 1 1683 1393 177219 0 6232 177219 1
gene 4 500 2179 -3414 0 6351 -3414 1
gene 4 2179 15 25923 0 6352 25923 1
gene 3 12 2179 179838 0 6539 179838 1
gene 1 1975 1975 71937 1 6578 71937 1
gene 2 14 2295 -585312 1 6699 -585312 1
gene 2 2295 14 680202 0 6700 680202 1
gene 4 4 433 181902 0 7064 181902 1
gene 3 12 235 -223857 0 7098 -223857 1
gene 1 384 384 327414 1 7242 327414 1
gene 2 500 500 84012 1 7740 84012 1
gene 3 8 2730 6990 0 7969 6990 1
gene 3 2730 1018 65025 0 7970 65025 1
gene 2 2730 516 134979 0 8040 134979 1
gene 4 6 2767 101877 0 8075 101877 1
gene 4 2767 13 4470 0 8076 4470 1
gene 3 13 15 -169581 1 8122 -169581 1
gene 4 12 2826 116667 0 8243 116667 1
gene 4 2826 14 60090 0 8244 60090 1
gene 3 384 1975 -271230 0 8469 -271230 1
gene 3 3 2977 -94482 0 8686 -94482 1
gene 3 2977 697 -105759 0 8687 -105759 1
gene 2 1479 1683 -94008 0 9102 -94008 1
gene 2 2179 2179 53463 1 9183 53463 1
gene 3 1531 1531 -87609 1 9535 -87609 1
gene 2 3 3362 354108 0 9863 354108 1
gene 2 3362 516 185868 0 9864 185868 1
genomeend 54


/* Organism #59 Fitness: 250.000000 Time: 0 */
/* Position #59*/
#1 x: 43 y: 30
#2 x: 63 y: 40
#3 x: 24 y: 27
#4 x: 67 y: 74
#5 x: 46 y: 74
#6 x: 51 y: 80
genomestart 59
trait 1 71503.000000 16300.000000 3497.000000 14020.000000 51562.000000 18556.000000 43954.000000 40267.000000 trait 2 15267.000000 12107.000000 35434.000000 0.000000 41793.000000 0.000000 38012.000000 23046.000000 trait 3 0.000000 41709.000000 40455.000000 32929.000000 0.000000 6769.000000 85484.000000 44127.000000 trait 4 8701.000000 0.000000 5720.000000 67075.000000 0.000000 0.000000 23102.000000 37957.000000 node 1 4 1 3
node 2 4 1 1
node 3 1 1 1
node 4 1 1 1
node 5 1 1 1
node 6 2 1 1
node 7 4 1 1
node 8 4 1 1
node 9 2 1 1
node 10 1 1 1
node 11 2 1 1
node 12 4 1 1
node 13 2 0 2
node 14 1 0 2
node 15 3 0 2
node 121 1 0 0
node 235 1 0 0
node 384 1 0 0
node 420 1 0 0
node 433 2 0 0
node 461 1 0 0
node 500 1 0 0
node 516 1 0 0
node 697 1 0 0
node 1018 4 0 0
node 1130 1 0 0
node 1323 3 0 0
node 1393 1 0 0
node 1479 1 0 0
node 1531 3 0 0
node 1732 1 0 0
node 1844 1 0 0
node 2023 1 0 0
node 2035 1 0 0
node 2054 1 0 0
node 2076 1 0 0
node 2174 1 0 0
node 2292 1 0 0
node 2306 1 0 0
node 2374 1 0 0
node 2502 1 0 0
node 2593 1 0 0
node 2610 1 0 0
node 2865 1 0 0
node 3031 1 0 0
node 3067 1 0 0
node 3150 1 0 0
node 3216 1 0 0
node 3290 1 0 0
gene 2 1 13 -621468 0 1 -621468 1
gene 3 2 13 234270 0 2 234270 1
gene 2 3 13 -103725 0 3 -103725 1
gene 3 4 13 800000 0 4 800000 1
gene 2 5 13 383420 0 5 383420 0
gene 4 6 13 -507015 0 6 -507015 1
gene 3 7 13 -437178 0 7 -437178 1
gene 2 8 13 175104 0 8 175104 0
gene 3 9 13 19488 0 9 19488 1
gene 2 10 13 478239 0 10 478239 0
gene 2 11 13 -240573 0 11 -240573 0
gene 4 12 13 -718973 0 12 -718973 1
gene 4 1 14 -762086 0 13 -762086 1
gene 2 2 14 511262 0 14 511262 0
gene 4 3 14 80091 0 15 80091 1
gene 4 4 14 -113610 0 16 -113610 0
gene 4 5 14 -22008 0 17 -22008 1
gene 3 6 14 438063 0 18 438063 0
gene 2 7 14 201426 0 19 201426 1
gene 1 8 14 -26370 0 20 -26370 0
gene 3 9 14 -196590 0 21 -196590 1
gene 1 10 14 -79170 0 22 -79170 0
gene 1 11 14 -297003 0 23 -297003 0
gene 4 12 14 -95283 0 24 -95283 1
gene 3 1 15 -684065 0 25 -684065 1
gene 3 2 15 130878 0 26 130878 1
gene 3 3 15 -516060 0 27 -516060 0
gene 3 4 15 359406 0 28 359406 1
gene 4 5 15 218490 0 29 218490 1
gene 1 6 15 -324339 0 30 -324339 1
gene 3 7 15 -191241 0 31 -191241 0
gene 3 8 15 800000 0 32 800000 1
gene 3 9 15 -451943 0 33 -451943 1
gene 3 10 15 624332 0 34 624332 0
gene 2 11 15 149652 0 35 149652 1
gene 4 12 15 253698 0 36 253698 0
gene 4 15 15 241377 1 174 241377 0
gene 3 8 121 594525 0 329 594525 0
gene 3 121 15 -412203 0 330 -412203 1
gene 2 5 121 800000 0 438 800000 1
gene 2 7 121 11367 0 483 11367 0
gene 4 4 235 186822 0 666 186822 1
gene 4 235 14 -385646 0 667 -385646 1
gene 1 1 235 92919 0 753 92919 1
gene 3 9 235 -408885 0 1108 -408885 1
gene 3 10 384 123267 0 1126 123267 1
gene 3 384 15 680192 0 1127 680192 0
gene 2 14 14 -650664 1 1197 -650664 0
gene 3 7 420 3268 0 1239 3268 0
gene 3 420 15 -307794 0 1240 -307794 0
gene 3 2 433 72234 0 1284 72234 1
gene 3 433 13 -224835 0 1285 -224835 1
gene 4 3 461 147657 0 1352 147657 1
gene 4 461 14 298010 0 1353 298010 0
gene 4 15 500 -397539 1 1453 -397539 1
gene 4 500 15 -342257 0 1454 -342257 0
gene 1 8 516 -40176 0 1500 -40176 1
gene 1 516 14 62201 0 1501 62201 1
gene 1 384 121 485198 0 1548 485198 0
gene 2 8 461 273246 0 1965 273246 1
gene 3 3 697 118710 0 2038 118710 0
gene 3 697 15 519746 0 2039 519746 1
gene 2 1 500 -800000 0 2133 -800000 1
gene 1 3 433 473238 0 2628 473238 1
gene 1 516 516 -178113 1 2664 -178113 1
gene 3 8 1018 -309708 0 2997 -309708 0
gene 3 1018 121 390678 0 2998 390678 0
gene 3 15 433 173961 0 3156 173961 1
gene 1 10 1130 234993 0 3329 234993 1
gene 1 1130 14 144417 0 3330 144417 1
gene 3 500 697 604971 0 3371 604971 1
gene 2 3 516 503907 0 3603 503907 1
gene 2 9 1323 605768 0 3885 605768 0
gene 2 1323 14 -188187 0 3886 -188187 0
gene 2 121 420 337170 0 3959 337170 1
gene 2 8 1393 255819 0 4093 255819 1
gene 2 1393 13 -497055 0 4094 -497055 0
gene 1 11 1479 249954 0 4325 249954 1
gene 1 1479 14 366089 0 4326 366089 0
gene 4 12 1531 -58635 0 4477 -58635 1
gene 4 1531 15 -41568 0 4478 -41568 1
gene 2 1323 420 -191652 0 4676 -191652 0
gene 3 500 1479 -87093 0 4897 -87093 1
gene 4 461 461 800000 1 4980 800000 1
gene 2 121 1732 -384309 0 5095 -384309 1
gene 1 1732 420 377085 0 5096 377085 1
gene 1 384 500 -38541 0 5133 -38541 1
gene 2 15 14 740478 0 5180 740478 0
gene 4 6 1130 -113085 0 5368 -113085 1
gene 3 10 1844 235113 0 5409 235113 1
gene 3 1844 384 125298 0 5410 125298 1
gene 2 2 2023 612363 0 5908 612363 1
gene 1 2023 14 776799 0 5909 776799 1
gene 2 1393 2035 103788 0 5942 103788 1
gene 2 2035 13 -661902 0 5943 -661902 1
gene 4 461 2054 266577 0 5995 266577 1
gene 4 2054 14 342135 0 5996 342135 1
gene 4 461 2076 170328 0 6055 170328 1
gene 4 2076 2054 698300 0 6056 698300 0
gene 2 11 2174 -289770 0 6336 -289770 1
gene 2 2174 13 217719 0 6337 217719 1
gene 2 1393 2292 -110325 0 6690 -110325 1
gene 2 2292 2035 714408 0 6691 714408 1
gene 4 12 2306 -14760 0 6730 -14760 1
gene 4 2306 13 330126 0 6731 330126 1
gene 2 15 2374 452355 0 6914 452355 1
gene 2 2374 14 708350 0 6915 708350 1
gene 4 500 2502 -667013 0 7309 -667013 1
gene 4 2502 15 -77160 0 7310 -77160 1
gene 4 15 461 89925 0 7483 89925 1
gene 3 433 433 -102063 1 7529 -102063 1
gene 1 384 2593 -426066 0 7577 -426066 1
gene 1 2593 121 800000 0 7578 800000 1
gene 2 14 2610 237150 1 7624 237150 1
gene 2 2610 14 -202485 0 7625 -202485 1
gene 4 1844 2306 694170 0 7943 694170 1
gene 1 420 1531 -306327 0 8141 -306327 1
gene 4 1130 2502 279702 0 8221 279702 1
gene 2 1323 2865 488004 0 8359 488004 1
gene 2 2865 420 -103845 0 8360 -103845 1
gene 4 420 2054 -57753 0 8445 -57753 1
gene 1 13 1844 -458496 1 8573 -458496 1
gene 3 2865 2865 -257265 1 8606 -257265 1
gene 3 6 420 -141510 0 8646 -141510 1
gene 4 1844 697 -224991 0 8772 -224991 1
gene 4 235 235 -107973 1 8813 -107973 1
gene 3 8 3031 -235671 0 8863 -235671 1
gene 3 3031 1018 -156684 0 8864 -156684 1
gene 4 2 461 -20946 0 8903 -20946 1
gene 4 1479 3067 447957 0 8963 447957 1
gene 4 3067 14 265047 0 8964 265047 1
gene 1 384 3150 170988 0 9228 170988 1
gene 1 3150 121 409875 0 9229 409875 1
gene 4 9 1479 248792 0 9321 248792 1
gene 2 1393 461 -407064 0 9371 -407064 1
gene 3 3 3216 244365 0 9423 244365 1
gene 3 3216 697 596279 0 9424 596279 1
gene 1 13 235 45771 0 9562 45771 1
gene 4 2076 3290 568245 0 9639 568245 1
gene 4 3290 2054 -391245 0 9640 -391245 1
gene 4 3031 2023 127422 0 9866 127422 1
gene 1 500 13 -150036 0 9904 -150036 1
genomeend 59


/* Organism #60 Fitness: 470.000000 Time: 0 */
/* Position #60*/
#1 x: 43 y: 16
#2 x: 72 y: 25
#3 x: 49 y: 38
#4 x: 60 y: 83
#5 x: 78 y: 73
#6 x: 41 y: 68
genomestart 60
trait 1 71503.000000 16300.000000 3497.000000 14020.000000 51562.000000 18556.000000 43954.000000 40267.000000 trait 2 15267.000000 12107.000000 35434.000000 0.000000 41793.000000 0.000000 38012.000000 23046.000000 trait 3 0.000000 41709.000000 40455.000000 32929.000000 0.000000 6769.000000 85484.000000 44127.000000 trait 4 8701.000000 0.000000 5720.000000 67075.000000 0.000000 0.000000 23102.000000 37957.000000 node 1 4 1 3
node 2 4 1 1
node 3 1 1 1
node 4 1 1 1
node 5 1 1 1
node 6 2 1 1
node 7 4 1 1
node 8 4 1 1
node 9 2 1 1
node 10 1 1 1
node 11 2 1 1
node 12 4 1 1
node 13 2 0 2
node 14 1 0 2
node 15 3 0 2
node 121 1 0 0
node 235 1 0 0
node 384 1 0 0
node 420 1 0 0
node 433 2 0 0
node 461 1 0 0
node 500 1 0 0
node 516 1 0 0
node 697 1 0 0
node 1018 2 0 0
node 1130 1 0 0
node 1323 3 0 0
node 1393 1 0 0
node 1479 1 0 0
node 1531 3 0 0
node 1732 1 0 0
node 1844 1 0 0
node 2023 1 0 0
node 2035 1 0 0
node 2054 1 0 0
node 2076 1 0 0
node 2174 1 0 0
node 2292 1 0 0
node 2306 1 0 0
node 2374 1 0 0
node 2502 1 0 0
node 2593 1 0 0
node 2610 1 0 0
node 2865 1 0 0
node 3031 1 0 0
node 3067 1 0 0
node 3150 1 0 0
node 3216 1 0 0
node 3290 1 0 0
gene 2 1 13 -740319 0 1 -740319 1
gene 3 2 13 55734 0 2 55734 1
gene 2 3 13 111849 0 3 111849 1
gene 3 4 13 756770 0 4 756770 1
gene 2 5 13 382286 0 5 382286 0
gene 4 6 13 -285285 0 6 -285285 1
gene 3 7 13 -330312 0 7 -330312 1
gene 2 8 13 471054 0 8 471054 0
gene 3 9 13 -39816 0 9 -39816 1
gene 2 10 13 430437 0 10 430437 0
gene 2 11 13 -161436 0 11 -161436 0
gene 4 12 13 -586385 0 12 -586385 1
gene 4 1 14 -667562 0 13 -667562 1
gene 2 2 14 800000 0 14 800000 0
gene 4 3 14 -173694 0 15 -173694 1
gene 4 4 14 -39834 0 16 -39834 0
gene 4 5 14 70755 0 17 70755 1
gene 3 6 14 257184 0 18 257184 0
gene 2 7 14 464436 0 19 464436 1
gene 1 8 14 -35901 0 20 -35901 0
gene 3 9 14 -107505 0 21 -107505 1
gene 1 10 14 -37614 0 22 -37614 0
gene 1 11 14 -59331 0 23 -59331 0
gene 4 12 14 -356679 0 24 -356679 1
gene 3 1 15 -799538 0 25 -799538 1
gene 3 2 15 -130719 0 26 -130719 1
gene 3 3 15 -619920 0 27 -619920 0
gene 3 4 15 460641 0 28 460641 1
gene 4 5 15 69318 0 29 69318 1
gene 1 6 15 -56019 0 30 -56019 1
gene 3 7 15 49914 0 31 49914 0
gene 3 8 15 800000 0 32 800000 1
gene 3 9 15 -683312 0 33 -683312 1
gene 3 10 15 800000 0 34 800000 0
gene 2 11 15 227556 0 35 227556 1
gene 4 12 15 -35871 0 36 -35871 0
gene 4 15 15 -10962 1 174 -10962 0
gene 3 8 121 589020 0 329 589020 0
gene 3 121 15 -703632 0 330 -703632 1
gene 2 5 121 800000 0 438 800000 1
gene 2 7 121 -196821 0 483 -196821 0
gene 4 4 235 472785 0 666 472785 1
gene 4 235 14 -526142 0 667 -526142 1
gene 1 1 235 294288 0 753 294288 1
gene 3 9 235 -319965 0 1108 -319965 1
gene 3 10 384 243822 0 1126 243822 1
gene 3 384 15 469220 0 1127 469220 0
gene 2 14 14 -523662 1 1197 -523662 0
gene 3 7 420 67861 0 1239 67861 0
gene 3 420 15 -228279 0 1240 -228279 0
gene 3 2 433 339147 0 1284 339147 1
gene 3 433 13 64476 0 1285 64476 1
gene 4 3 461 -88617 0 1352 -88617 1
gene 4 461 14 324554 0 1353 324554 0
gene 4 15 500 -437688 1 1453 -437688 1
gene 4 500 15 -633536 0 1454 -633536 0
gene 1 8 516 -114297 0 1500 -114297 1
gene 1 516 14 207878 0 1501 207878 1
gene 1 384 121 380006 0 1548 380006 0
gene 2 8 461 369144 0 1965 369144 1
gene 3 3 697 -3669 0 2038 -3669 0
gene 3 697 15 800000 0 2039 800000 1
gene 2 1 500 -800000 0 2133 -800000 1
gene 1 3 433 676053 0 2628 676053 1
gene 1 516 516 -115848 1 2664 -115848 1
gene 3 8 1018 -351609 0 2997 -351609 0
gene 3 1018 121 224808 0 2998 224808 0
gene 3 15 433 38385 0 3156 38385 1
gene 1 10 1130 469875 0 3329 469875 1
gene 2 1130 14 413052 0 3330 413052 1
gene 3 500 697 362904 0 3371 362904 1
gene 2 3 516 608193 0 3603 608193 1
gene 2 9 1323 800000 0 3885 800000 0
gene 2 1323 14 -150114 0 3886 -150114 0
gene 2 121 420 540450 0 3959 540450 1
gene 2 8 1393 471471 0 4093 471471 1
gene 2 1393 13 -328758 0 4094 -328758 0
gene 1 11 1479 452565 0 4325 452565 1
gene 1 1479 14 660416 0 4326 660416 0
gene 4 12 1531 50094 0 4477 50094 1
gene 4 1531 15 25224 0 4478 25224 1
gene 2 1323 420 -111006 0 4676 -111006 0
gene 3 500 1479 -28155 0 4897 -28155 1
gene 4 461 461 643134 1 4980 643134 1
gene 2 121 1732 -368841 0 5095 -368841 1
gene 1 1732 420 396540 0 5096 396540 1
gene 1 384 500 -163854 0 5133 -163854 1
gene 2 15 14 510708 0 5180 510708 0
gene 4 6 1130 165498 0 5368 165498 1
gene 3 10 1844 21852 0 5409 21852 1
gene 3 1844 384 -50085 0 5410 -50085 1
gene 2 2 2023 579525 0 5908 579525 1
gene 1 2023 14 683289 0 5909 683289 1
gene 2 1393 2035 152883 0 5942 152883 1
gene 2 2035 13 -474414 0 5943 -474414 1
gene 4 461 2054 32916 0 5995 32916 1
gene 4 2054 14 67998 0 5996 67998 1
gene 4 461 2076 470316 0 6055 470316 1
gene 4 2076 2054 502091 0 6056 502091 0
gene 2 11 2174 -445113 0 6336 -445113 1
gene 2 2174 13 218241 0 6337 218241 1
gene 2 1393 2292 -78627 0 6690 -78627 1
gene 2 2292 2035 709548 0 6691 709548 1
gene 4 12 2306 44169 0 6730 44169 1
gene 4 2306 13 287526 0 6731 287526 1
gene 2 15 2374 263190 0 6914 263190 1
gene 2 2374 14 800000 0 6915 800000 1
gene 4 500 2502 -685277 0 7309 -685277 1
gene 4 2502 15 -234792 0 7310 -234792 1
gene 4 15 461 250683 0 7483 250683 1
gene 3 433 433 178353 1 7529 178353 1
gene 1 384 2593 -224880 0 7577 -224880 1
gene 1 2593 121 800000 0 7578 800000 1
gene 2 14 2610 355473 1 7624 355473 1
gene 2 2610 14 -202485 0 7625 -202485 1
gene 4 1844 2306 636111 0 7943 636111 1
gene 1 420 1531 -306327 0 8141 -306327 1
gene 4 1130 2502 279702 0 8221 279702 1
gene 2 1323 2865 376809 0 8359 376809 1
gene 2 2865 420 -103845 0 8360 -103845 1
gene 4 420 2054 -153513 0 8445 -153513 1
gene 1 13 1844 -458496 1 8573 -458496 1
gene 3 2865 2865 -257265 1 8606 -257265 1
gene 3 6 420 -247290 0 8646 -247290 1
gene 4 1844 697 536141 0 8772 536141 1
gene 4 235 235 -107973 1 8813 -107973 1
gene 3 8 3031 -235671 0 8863 -235671 1
gene 3 3031 1018 36849 0 8864 36849 1
gene 4 2 461 240873 0 8903 240873 1
gene 4 1479 3067 415782 0 8963 415782 1
gene 4 3067 14 291564 0 8964 291564 1
gene 1 384 3150 -36888 0 9228 -36888 1
gene 1 3150 121 416751 0 9229 416751 1
gene 4 9 1479 248792 0 9321 248792 1
gene 2 1393 461 -407064 0 9371 -407064 1
gene 3 3 3216 217980 0 9423 217980 1
gene 3 3216 697 583454 0 9424 583454 1
gene 1 13 235 44448 0 9562 44448 1
gene 4 2076 3290 776481 0 9639 776481 1
gene 4 3290 2054 -547587 0 9640 -547587 1
gene 4 3031 2023 326124 0 9866 326124 1
gene 1 500 13 -346675 0 9904 -346675 1
genomeend 60


/* Organism #70 Fitness: 340.000000 Time: 0 */
/* Position #70*/
#1 x: 76 y: 22
#2 x: 32 y: 29
#3 x: 27 y: 37
#4 x: 26 y: 70
#5 x: 47 y: 77
#6 x: 65 y: 73
genomestart 70
trait 1 71503.000000 52572.000000 0.000000 48265.000000 0.000000 0.000000 100000.000000 393.000000 trait 2 0.000000 0.000000 0.000000 0.000000 0.000000 0.000000 17319.000000 0.000000 trait 3 0.000000 0.000000 97785.000000 100000.000000 7504.000000 13538.000000 40566.000000 6371.000000 trait 4 100000.000000 19256.000000 0.000000 100000.000000 19327.000000 74834.000000 35631.000000 100000.000000 node 1 4 1 3
node 2 4 1 1
node 3 1 1 1
node 4 1 1 1
node 5 1 1 1
node 6 2 1 1
node 7 4 1 1
node 8 4 1 1
node 9 2 1 1
node 10 1 1 1
node 11 2 1 1
node 12 4 1 1
node 13 2 0 2
node 14 1 0 2
node 15 3 0 2
node 121 1 0 0
node 235 1 0 0
node 384 1 0 0
node 420 1 0 0
node 433 1 0 0
node 461 1 0 0
node 500 1 0 0
node 516 1 0 0
node 697 1 0 0
node 1018 2 0 0
node 1130 1 0 0
node 1323 3 0 0
node 1393 1 0 0
node 1479 1 0 0
node 1531 4 0 0
node 1683 1 0 0
node 1735 1 0 0
node 1875 1 0 0
node 1975 1 0 0
node 2022 1 0 0
node 2179 1 0 0
node 2295 1 0 0
node 2730 1 0 0
node 2767 1 0 0
node 2826 1 0 0
node 2977 1 0 0
node 3362 1 0 0
node 3424 1 0 0
gene 2 1 13 164400 0 1 164400 1
gene 3 2 13 274962 0 2 274962 1
gene 2 3 13 299403 0 3 299403 1
gene 3 4 13 52215 0 4 52215 1
gene 2 5 13 -137730 0 5 -137730 1
gene 4 6 13 -259431 0 6 -259431 0
gene 3 7 13 -55059 0 7 -55059 1
gene 2 8 13 112077 0 8 112077 0
gene 3 9 13 378003 0 9 378003 1
gene 2 10 13 -255666 0 10 -255666 1
gene 2 11 13 569822 0 11 569822 1
gene 4 12 13 689129 0 12 689129 1
gene 2 1 14 294513 0 13 294513 1
gene 2 2 14 -201627 0 14 -201627 1
gene 4 3 14 -238179 0 15 -238179 1
gene 4 4 14 46524 0 16 46524 0
gene 4 5 14 410915 0 17 410915 1
gene 3 6 14 77979 0 18 77979 0
gene 2 7 14 311148 0 19 311148 1
gene 1 8 14 -800000 0 20 -800000 0
gene 3 9 14 67062 0 21 67062 1
gene 1 10 14 -81033 0 22 -81033 1
gene 1 11 14 -126447 0 23 -126447 1
gene 4 12 14 -160704 0 24 -160704 0
gene 3 1 15 351207 0 25 351207 1
gene 3 2 15 -396036 0 26 -396036 1
gene 3 3 15 800000 0 27 800000 0
gene 3 4 15 264021 0 28 264021 0
gene 3 5 15 800000 0 29 800000 1
gene 1 6 15 -34659 0 30 -34659 0
gene 3 7 15 800000 0 31 800000 0
gene 3 8 15 59880 0 32 59880 1
gene 3 9 15 508961 0 33 508961 1
gene 3 10 15 448581 0 34 448581 0
gene 2 11 15 -319983 0 35 -319983 1
gene 4 12 15 262809 0 36 262809 0
gene 4 15 15 -290871 1 174 -290871 0
gene 3 8 121 -539295 0 329 -539295 0
gene 3 121 15 7854 0 330 7854 1
gene 2 5 121 451698 0 438 451698 1
gene 2 7 121 -262746 0 483 -262746 1
gene 4 4 235 800000 0 666 800000 1
gene 4 235 14 616881 0 667 616881 1
gene 1 1 235 68892 0 753 68892 1
gene 1 9 235 207609 0 1108 207609 1
gene 3 10 384 -196389 0 1126 -196389 1
gene 3 384 15 5754 0 1127 5754 0
gene 2 14 14 479079 1 1197 479079 0
gene 3 7 420 -156219 0 1239 -156219 1
gene 3 420 15 198480 0 1240 198480 1
gene 3 2 433 54789 0 1284 54789 0
gene 3 433 13 614739 0 1285 614739 1
gene 4 3 461 -37842 0 1352 -37842 1
gene 4 461 14 -214524 0 1353 -214524 1
gene 4 15 500 445302 1 1453 445302 1
gene 4 500 15 332541 0 1454 332541 0
gene 1 8 516 -800000 0 1500 -800000 1
gene 1 516 14 -13875 0 1501 -13875 1
gene 1 384 121 -51111 0 1548 -51111 1
gene 2 8 461 -536442 0 1965 -536442 1
gene 3 3 697 -27303 0 2038 -27303 0
gene 2 697 15 -607392 0 2039 -607392 1
gene 2 1 500 150243 0 2133 150243 1
gene 1 3 433 80511 0 2628 80511 1
gene 1 516 516 336315 1 2664 336315 1
gene 3 8 1018 89949 0 2997 89949 0
gene 3 1018 121 434082 0 2998 434082 0
gene 3 15 433 -281883 0 3156 -281883 1
gene 1 10 1130 129618 0 3329 129618 1
gene 1 1130 14 204951 0 3330 204951 1
gene 3 500 697 103767 0 3371 103767 1
gene 2 3 516 -19974 0 3603 -19974 0
gene 2 9 1323 210921 0 3885 210921 1
gene 2 1323 14 499958 0 3886 499958 0
gene 2 121 420 -123657 0 3959 -123657 1
gene 2 8 1393 -25494 0 4093 -25494 1
gene 2 1393 13 35511 0 4094 35511 1
gene 1 11 1479 -72531 0 4325 -72531 1
gene 1 1479 14 105665 0 4326 105665 1
gene 4 12 1531 -438291 0 4477 -438291 1
gene 4 1531 15 -109560 0 4478 -109560 0
gene 3 1393 433 61164 0 4734 61164 1
gene 2 1323 1683 506363 0 4950 506363 1
gene 2 1683 14 720747 0 4951 720747 1
gene 3 6 1735 -116760 0 5103 -116760 1
gene 3 1735 14 47961 0 5104 47961 0
gene 1 5 516 628605 0 5346 628605 1
gene 1 516 433 -530754 0 5443 -530754 1
gene 3 2 1875 -174420 0 5505 -174420 1
gene 3 1875 433 577463 0 5506 577463 1
gene 1 1683 461 -181035 0 5687 -181035 1
gene 1 6 1975 -83796 0 5780 -83796 1
gene 1 1975 15 280353 0 5781 280353 1
gene 4 1531 2022 -488367 0 5905 -488367 1
gene 4 2022 15 -209214 0 5906 -209214 1
gene 3 121 1875 -385599 0 5987 -385599 1
gene 1 1683 1393 -398298 0 6232 -398298 1
gene 4 500 2179 -50142 0 6351 -50142 1
gene 4 2179 15 36948 0 6352 36948 1
gene 3 12 2179 320295 0 6539 320295 1
gene 1 1975 1975 166845 1 6578 166845 1
gene 2 14 2295 -119577 1 6699 -119577 1
gene 2 2295 14 -800000 0 6700 -800000 1
gene 4 4 433 602619 0 7064 602619 1
gene 3 12 235 301140 0 7098 301140 1
gene 1 384 384 280941 1 7242 280941 1
gene 2 500 500 380382 1 7740 380382 1
gene 3 8 2730 107718 0 7969 107718 1
gene 3 2730 1018 293925 0 7970 293925 1
gene 2 2730 516 800000 0 8040 800000 1
gene 4 6 2767 629445 0 8075 629445 1
gene 4 2767 13 181170 0 8076 181170 1
gene 3 13 15 -356217 1 8122 -356217 1
gene 4 12 2826 2622 0 8243 2622 1
gene 4 2826 14 -216066 0 8244 -216066 1
gene 3 384 1975 -10908 0 8469 -10908 1
gene 3 3 2977 -163575 0 8686 -163575 1
gene 3 2977 697 526305 0 8687 526305 1
gene 2 1479 1683 284160 0 9102 284160 1
gene 2 2179 2179 316017 1 9183 316017 1
gene 3 1531 1531 -214983 1 9535 -214983 1
gene 2 3 3362 148374 0 9863 148374 1
gene 2 3362 516 -256047 0 9864 -256047 1
gene 3 4 3424 245947 0 10051 245947 1
gene 3 3424 15 -301509 0 10052 -301509 1
gene 1 1479 1975 -66245 0 10083 -66245 1
genomeend 70


