/* Organism #5 Fitness: 310.000000 Time: 0 */
/* Position #5*/
#1 x: 68 y: 40
#2 x: 71 y: 26
#3 x: 17 y: 29
#4 x: 18 y: 60
#5 x: 68 y: 72
#6 x: 23 y: 72
genomestart 5
trait 1 1.000000 0.000000 0.000000 0.000000 0.000000 0.000000 0.000000 0.000000 trait 2 2.000000 0.000000 0.000000 0.000000 0.000000 0.000000 0.000000 0.000000 trait 3 0.000000 0.000000 0.000000 0.000000 0.000000 0.000000 0.000000 0.000000 trait 4 70160.000000 0.000000 0.000000 0.000000 44317.000000 0.000000 0.000000 0.000000 node 1 4 1 3
node 2 2 1 1
node 3 3 1 1
node 4 3 1 1
node 5 2 1 1
node 6 4 1 1
node 7 3 1 1
node 8 3 1 1
node 9 1 1 1
node 10 1 1 1
node 11 3 1 1
node 12 3 1 1
node 13 1 0 2
node 14 3 0 2
node 15 2 0 2
node 45 1 0 0
node 113 1 0 0
node 189 1 0 0
node 430 1 0 0
node 487 1 0 0
node 511 1 0 0
node 625 1 0 0
node 663 1 0 0
node 719 1 0 0
node 755 1 0 0
node 874 1 0 0
node 910 1 0 0
node 943 1 0 0
node 1029 1 0 0
node 1053 1 0 0
node 1138 1 0 0
node 1403 1 0 0
node 1559 1 0 0
node 1593 4 0 0
node 1646 1 0 0
node 1679 1 0 0
node 1717 1 0 0
gene 1 1 13 -265206 0 1 -265206 1
gene 3 2 13 150168 0 2 150168 1
gene 1 3 13 315942 0 3 315942 0
gene 3 4 13 -800000 0 4 -800000 1
gene 2 5 13 734553 0 5 734553 1
gene 2 6 13 80865 0 6 80865 1
gene 2 7 13 91233 0 7 91233 1
gene 2 8 13 257958 0 8 257958 0
gene 4 9 13 48321 0 9 48321 0
gene 2 10 13 -17118 0 10 -17118 0
gene 2 11 13 496032 0 11 496032 1
gene 4 12 13 298776 0 12 298776 1
gene 4 1 14 -13845 0 13 -13845 1
gene 1 2 14 355662 0 14 355662 0
gene 1 3 14 -332133 0 15 -332133 1
gene 2 4 14 -734040 0 16 -734040 1
gene 1 5 14 417405 0 17 417405 0
gene 1 6 14 299112 0 18 299112 1
gene 2 7 14 -482487 0 19 -482487 0
gene 1 8 14 -139305 0 20 -139305 0
gene 1 9 14 390546 0 21 390546 1
gene 3 10 14 -421134 0 22 -421134 1
gene 2 11 14 115212 0 23 115212 0
gene 3 12 14 39183 0 24 39183 1
gene 3 1 15 441000 0 25 441000 1
gene 2 2 15 14058 0 26 14058 0
gene 1 3 15 160347 0 27 160347 0
gene 1 4 15 800000 0 28 800000 1
gene 3 5 15 420698 0 29 420698 1
gene 3 6 15 -10878 0 30 -10878 1
gene 1 7 15 -73487 0 31 -73487 1
gene 3 8 15 -241320 0 32 -241320 0
gene 3 9 15 -83598 0 33 -83598 0
gene 1 10 15 209418 0 34 209418 0
gene 1 11 15 -70908 0 35 -70908 0
gene 3 12 15 73290 0 36 73290 0
gene 4 9 45 242676 0 104 242676 0
gene 3 45 13 -419646 0 105 -419646 0
gene 1 3 113 383841 0 275 383841 1
gene 1 113 13 302124 0 276 302124 1
gene 2 2 189 -168675 0 464 -168675 1
gene 2 189 15 -157578 0 465 -157578 0
gene 2 5 189 425402 0 566 425402 1
gene 4 13 13 -209331 1 644 -209331 1
gene 2 7 430 -133419 0 1115 -133419 1
gene 2 430 14 -197001 0 1116 -197001 0
gene 2 11 487 -98292 0 1275 -98292 1
gene 2 487 14 -71691 0 1276 -71691 1
gene 2 189 511 -520011 0 1333 -520011 1
gene 2 511 15 542793 0 1334 542793 1
gene 4 1 113 546909 0 1479 546909 1
gene 3 12 625 57726 0 1638 57726 0
gene 4 625 15 62772 0 1639 62772 1
gene 3 45 663 124236 0 1732 124236 1
gene 3 663 13 134340 0 1733 134340 1
gene 2 113 14 158502 0 1807 158502 0
gene 2 113 719 -43617 0 1884 -43617 1
gene 2 719 14 469083 0 1885 469083 1
gene 3 8 755 -43788 0 1975 -43788 1
gene 3 755 15 98778 0 1976 98778 1
gene 1 8 874 241479 0 2276 241479 1
gene 1 874 14 -299568 0 2277 -299568 1
gene 1 3 910 25608 0 2369 25608 1
gene 1 910 15 -272046 0 2370 -272046 1
gene 3 12 943 -35553 0 2451 -35553 1
gene 3 943 625 -335085 0 2452 -335085 1
gene 2 8 1029 -124742 0 2673 -124742 1
gene 2 1029 13 -29886 0 2674 -29886 1
gene 4 9 1053 -336693 0 2737 -336693 1
gene 4 1053 45 242088 0 2738 242088 1
gene 1 10 1138 50619 0 2960 50619 1
gene 1 1138 15 -55548 0 2961 -55548 1
gene 3 9 1403 -32937 0 3622 -32937 1
gene 3 1403 15 -62268 0 3623 -62268 1
gene 2 663 1029 365963 0 3778 365963 0
gene 2 10 1559 1 0 4002 1 1
gene 2 1559 13 231306 0 4003 231306 1
gene 2 430 1593 -84009 0 4082 -84009 1
gene 2 1593 14 33822 0 4083 33822 1
gene 4 1053 1053 61810 1 4140 61810 1
gene 1 2 1646 1 0 4217 1 1
gene 1 1646 14 76452 0 4218 76452 1
gene 2 663 1679 40731 0 4298 40731 1
gene 2 1679 1029 404180 0 4299 404180 1
gene 1 5 1717 2476 0 4392 2476 1
gene 1 1717 14 293961 0 4393 293961 1
gene 3 910 189 202934 0 4482 202934 1
gene 2 14 1138 133311 0 4557 133311 1
genomeend 5


/* Organism #8 Fitness: 240.000000 Time: 0 */
/* Position #8*/
#1 x: 49 y: 26
#2 x: 73 y: 21
#3 x: 43 y: 38
#4 x: 66 y: 71
#5 x: 82 y: 81
#6 x: 28 y: 80
genomestart 8
trait 1 1.000000 0.000000 0.000000 0.000000 0.000000 0.000000 0.000000 0.000000 trait 2 2.000000 0.000000 0.000000 0.000000 0.000000 0.000000 0.000000 0.000000 trait 3 0.000000 0.000000 0.000000 32826.000000 90980.000000 0.000000 0.000000 35111.000000 trait 4 0.000000 0.000000 0.000000 0.000000 60204.000000 0.000000 0.000000 0.000000 node 1 4 1 3
node 2 2 1 1
node 3 3 1 1
node 4 4 1 1
node 5 4 1 1
node 6 4 1 1
node 7 4 1 1
node 8 3 1 1
node 9 1 1 1
node 10 1 1 1
node 11 3 1 1
node 12 3 1 1
node 13 1 0 2
node 14 3 0 2
node 15 4 0 2
node 45 1 0 0
node 113 1 0 0
node 230 1 0 0
node 308 3 0 0
node 430 1 0 0
node 456 1 0 0
node 472 1 0 0
node 502 1 0 0
node 535 1 0 0
node 562 1 0 0
node 774 1 0 0
node 802 1 0 0
node 856 1 0 0
node 891 1 0 0
node 923 1 0 0
node 1013 1 0 0
node 1042 1 0 0
node 1438 1 0 0
node 1523 1 0 0
node 1670 1 0 0
node 1692 1 0 0
node 1725 1 0 0
node 1761 1 0 0
node 1786 1 0 0
gene 1 1 13 -527519 0 1 -527519 1
gene 3 2 13 92424 0 2 92424 1
gene 1 3 13 252609 0 3 252609 1
gene 3 4 13 220401 0 4 220401 0
gene 2 5 13 -301277 0 5 -301277 1
gene 2 6 13 -223746 0 6 -223746 1
gene 1 7 13 672417 0 7 672417 1
gene 2 8 13 -219201 0 8 -219201 0
gene 4 9 13 -99351 0 9 -99351 0
gene 2 10 13 7785 0 10 7785 1
gene 2 11 13 97416 0 11 97416 1
gene 4 12 13 -71715 0 12 -71715 1
gene 4 1 14 -395148 0 13 -395148 1
gene 1 2 14 338715 0 14 338715 1
gene 1 3 14 110187 0 15 110187 1
gene 2 4 14 8526 0 16 8526 1
gene 1 5 14 800000 0 17 800000 1
gene 1 6 14 131661 0 18 131661 1
gene 2 7 14 -512253 0 19 -512253 0
gene 1 8 14 39003 0 20 39003 1
gene 1 9 14 496344 0 21 496344 0
gene 3 10 14 498494 0 22 498494 1
gene 2 11 14 -245262 0 23 -245262 1
gene 3 12 14 -59634 0 24 -59634 1
gene 3 1 15 -497201 0 25 -497201 1
gene 2 2 15 212355 0 26 212355 1
gene 1 3 15 622514 0 27 622514 0
gene 1 4 15 -714861 0 28 -714861 1
gene 3 5 15 -238083 0 29 -238083 0
gene 3 6 15 -86400 0 30 -86400 1
gene 1 7 15 -46236 0 31 -46236 1
gene 3 8 15 -352839 0 32 -352839 0
gene 3 9 15 422220 0 33 422220 0
gene 1 10 15 482904 0 34 482904 1
gene 1 11 15 216900 0 35 216900 0
gene 3 12 15 -306444 0 36 -306444 1
gene 4 9 45 450450 0 104 450450 0
gene 4 45 13 784647 0 105 784647 1
gene 1 3 113 461754 0 275 461754 0
gene 1 113 13 -243765 0 276 -243765 0
gene 4 15 45 -418203 0 403 -418203 1
gene 1 113 230 -289032 0 574 -289032 1
gene 1 230 13 626586 0 575 626586 1
gene 3 9 308 512397 0 790 512397 1
gene 4 308 15 -46386 0 791 -46386 1
gene 2 7 430 384906 0 1115 384906 0
gene 2 430 14 -800000 0 1116 -800000 1
gene 3 12 456 -521867 0 1183 -521867 1
gene 3 456 14 114357 0 1184 114357 0
gene 2 7 472 800000 0 1235 800000 1
gene 2 472 430 -590880 0 1236 -590880 1
gene 3 6 502 110103 0 1309 110103 1
gene 3 502 15 414912 0 1310 414912 1
gene 1 11 535 183834 0 1395 183834 1
gene 1 535 15 88254 0 1396 88254 0
gene 3 456 562 -6216 0 1467 -6216 1
gene 3 562 14 -306201 0 1468 -306201 1
gene 3 8 562 -455565 0 1537 -455565 1
gene 4 13 14 -388107 0 1778 -388107 1
gene 3 308 13 -194514 0 1961 -194514 0
gene 1 3 774 250563 0 2025 250563 1
gene 1 774 113 -245994 0 2026 -245994 0
gene 2 8 802 789402 0 2095 789402 1
gene 2 802 13 -340584 0 2096 -340584 0
gene 1 3 856 -485433 0 2230 -485433 1
gene 1 856 15 418851 0 2231 418851 1
gene 1 774 891 537942 0 2324 537942 0
gene 1 891 113 167646 0 2325 167646 1
gene 1 535 923 483762 0 2399 483762 0
gene 1 923 15 -273756 0 2400 -273756 1
gene 1 774 1013 -319962 0 2634 -319962 1
gene 1 1013 891 -736911 0 2635 -736911 1
gene 1 9 1042 -800000 0 2712 -800000 0
gene 1 1042 14 -6066 0 2713 -6066 1
gene 2 1042 891 431952 0 3564 431952 1
gene 4 535 856 -323898 0 3618 -323898 1
gene 3 8 1438 -70304 0 3708 -70304 1
gene 3 1438 15 -37248 0 3709 -37248 1
gene 4 9 1523 -132677 0 3918 -132677 1
gene 4 1523 45 243000 0 3919 243000 1
gene 3 5 1670 1 0 4276 0 1
gene 3 1670 15 -238083 0 4277 0 1
gene 1 535 1692 1 0 4330 0 1
gene 1 1692 923 483762 0 4331 0 1
gene 2 802 1725 1 0 4412 0 1
gene 2 1725 13 -340584 0 4413 0 1
gene 1 9 1761 1 0 4500 0 1
gene 1 1761 1042 -800000 0 4501 0 1
gene 3 4 1786 1 0 4566 0 1
gene 3 1786 13 220401 0 4567 0 1
gene 1 1786 456 -19694 0 4644 -19694 1
genomeend 8


/* Organism #11 Fitness: 220.000000 Time: 0 */
/* Position #11*/
#1 x: 31 y: 28
#2 x: 74 y: 17
#3 x: 84 y: 22
#4 x: 16 y: 85
#5 x: 43 y: 83
#6 x: 49 y: 79
genomestart 11
trait 1 1.000000 0.000000 0.000000 0.000000 0.000000 0.000000 0.000000 0.000000 trait 2 2.000000 0.000000 0.000000 0.000000 0.000000 0.000000 0.000000 0.000000 trait 3 3.000000 0.000000 0.000000 0.000000 0.000000 0.000000 0.000000 0.000000 trait 4 70160.000000 0.000000 0.000000 0.000000 44317.000000 0.000000 0.000000 0.000000 node 1 4 1 3
node 2 2 1 1
node 3 3 1 1
node 4 3 1 1
node 5 2 1 1
node 6 4 1 1
node 7 3 1 1
node 8 3 1 1
node 9 1 1 1
node 10 1 1 1
node 11 3 1 1
node 12 3 1 1
node 13 1 0 2
node 14 3 0 2
node 15 2 0 2
node 45 1 0 0
node 113 1 0 0
node 189 1 0 0
node 430 1 0 0
node 487 1 0 0
node 511 1 0 0
node 625 1 0 0
node 663 1 0 0
node 719 1 0 0
node 755 1 0 0
node 874 1 0 0
node 910 1 0 0
node 943 1 0 0
node 1029 1 0 0
node 1053 1 0 0
node 1138 1 0 0
node 1403 1 0 0
node 1559 1 0 0
node 1593 1 0 0
node 1646 1 0 0
node 1738 1 0 0
node 1770 1 0 0
node 1793 1 0 0
gene 1 1 13 -24921 0 1 -24921 1
gene 3 2 13 379725 0 2 379725 1
gene 1 3 13 290514 0 3 290514 0
gene 3 4 13 225618 0 4 225618 1
gene 2 5 13 800000 0 5 800000 1
gene 2 6 13 307173 0 6 307173 1
gene 2 7 13 -266571 0 7 -266571 1
gene 2 8 13 -97959 0 8 -97959 0
gene 4 9 13 258054 0 9 258054 0
gene 2 10 13 512094 0 10 512094 0
gene 2 11 13 557409 0 11 557409 1
gene 4 12 13 507468 0 12 507468 1
gene 4 1 14 -113166 0 13 -113166 1
gene 1 2 14 -121098 0 14 -121098 0
gene 1 3 14 -103821 0 15 -103821 1
gene 2 4 14 -800000 0 16 -800000 1
gene 1 5 14 546822 0 17 546822 1
gene 1 6 14 129837 0 18 129837 1
gene 2 7 14 -227457 0 19 -227457 0
gene 1 8 14 -177429 0 20 -177429 0
gene 1 9 14 254958 0 21 254958 1
gene 3 10 14 -117975 0 22 -117975 1
gene 2 11 14 -65673 0 23 -65673 0
gene 3 12 14 210606 0 24 210606 1
gene 3 1 15 -117141 0 25 -117141 1
gene 2 2 15 -367257 0 26 -367257 0
gene 1 3 15 55578 0 27 55578 0
gene 1 4 15 619650 0 28 619650 1
gene 3 5 15 601358 0 29 601358 1
gene 3 6 15 71754 0 30 71754 1
gene 1 7 15 158493 0 31 158493 1
gene 3 8 15 -109674 0 32 -109674 0
gene 3 9 15 -144072 0 33 -144072 0
gene 1 10 15 -296499 0 34 -296499 0
gene 1 11 15 -449730 0 35 -449730 0
gene 3 12 15 50424 0 36 50424 0
gene 4 9 45 564153 0 104 564153 0
gene 3 45 13 -243327 0 105 -243327 0
gene 1 3 113 173730 0 275 173730 1
gene 1 113 13 507756 0 276 507756 1
gene 2 2 189 -620970 0 464 -620970 1
gene 2 189 15 -293352 0 465 -293352 0
gene 2 5 189 601472 0 566 601472 1
gene 4 13 13 -179445 1 644 -179445 1
gene 2 7 430 -60576 0 1115 -60576 1
gene 2 430 14 95379 0 1116 95379 0
gene 2 11 487 -114375 0 1275 -114375 1
gene 2 487 14 -34863 0 1276 -34863 1
gene 2 189 511 -800000 0 1333 -800000 1
gene 2 511 15 547005 0 1334 547005 1
gene 4 1 113 702522 0 1479 702522 1
gene 3 12 625 209901 0 1638 209901 0
gene 4 625 15 -29700 0 1639 -29700 1
gene 3 45 663 135792 0 1732 135792 1
gene 3 663 13 -111258 0 1733 -111258 1
gene 2 113 14 237891 0 1807 237891 0
gene 2 113 719 331212 0 1884 331212 1
gene 2 719 14 -123465 0 1885 -123465 1
gene 3 8 755 -236499 0 1975 -236499 0
gene 3 755 15 -172491 0 1976 -172491 1
gene 1 8 874 14568 0 2276 14568 1
gene 1 874 14 -277956 0 2277 -277956 1
gene 1 3 910 253836 0 2369 253836 1
gene 1 910 15 50667 0 2370 50667 1
gene 3 12 943 -331677 0 2451 -331677 1
gene 3 943 625 -123510 0 2452 -123510 1
gene 2 8 1029 -322190 0 2673 -322190 1
gene 2 1029 13 156477 0 2674 156477 1
gene 4 9 1053 -275808 0 2737 -275808 1
gene 4 1053 45 -29829 0 2738 -29829 1
gene 1 10 1138 160305 0 2960 160305 1
gene 1 1138 15 492309 0 2961 492309 1
gene 3 9 1403 353343 0 3622 353343 0
gene 3 1403 15 25809 0 3623 25809 1
gene 2 663 1029 124130 0 3778 124130 0
gene 2 10 1559 55117 0 4002 55117 1
gene 2 1559 13 270885 0 4003 270885 1
gene 2 430 1593 110782 0 4082 110782 1
gene 2 1593 14 -172755 0 4083 -172755 1
gene 4 1053 1053 -5201 1 4140 -5201 1
gene 1 2 1646 1 0 4217 1 1
gene 1 1646 14 296847 0 4218 296847 1
gene 3 8 1738 1 0 4439 0 1
gene 3 1738 755 -236499 0 4440 0 1
gene 2 663 1770 1 0 4521 0 1
gene 2 1770 1029 124130 0 4522 0 1
gene 3 9 1793 1 0 4583 0 1
gene 3 1793 1403 353343 0 4584 0 1
genomeend 11


/* Organism #14 Fitness: 220.000000 Time: 0 */
/* Position #14*/
#1 x: 57 y: 34
#2 x: 39 y: 22
#3 x: 40 y: 25
#4 x: 70 y: 82
#5 x: 19 y: 71
#6 x: 57 y: 77
genomestart 14
trait 1 1.000000 0.000000 0.000000 0.000000 0.000000 0.000000 0.000000 0.000000 trait 2 2.000000 0.000000 0.000000 0.000000 0.000000 0.000000 0.000000 0.000000 trait 3 3.000000 0.000000 0.000000 0.000000 0.000000 0.000000 0.000000 0.000000 trait 4 70160.000000 0.000000 0.000000 0.000000 44317.000000 0.000000 0.000000 0.000000 node 1 4 1 3
node 2 2 1 1
node 3 3 1 1
node 4 3 1 1
node 5 2 1 1
node 6 4 1 1
node 7 3 1 1
node 8 3 1 1
node 9 1 1 1
node 10 1 1 1
node 11 3 1 1
node 12 3 1 1
node 13 1 0 2
node 14 3 0 2
node 15 2 0 2
node 45 1 0 0
node 113 1 0 0
node 189 1 0 0
node 430 1 0 0
node 487 1 0 0
node 511 1 0 0
node 625 1 0 0
node 663 1 0 0
node 719 1 0 0
node 755 1 0 0
node 874 1 0 0
node 910 1 0 0
node 943 1 0 0
node 1029 1 0 0
node 1053 1 0 0
node 1138 1 0 0
node 1403 1 0 0
node 1559 1 0 0
node 1593 1 0 0
node 1646 1 0 0
node 1738 1 0 0
node 1770 1 0 0
node 1793 1 0 0
gene 1 1 13 -24921 0 1 -24921 1
gene 3 2 13 379725 0 2 379725 1
gene 1 3 13 290514 0 3 290514 0
gene 3 4 13 225618 0 4 225618 1
gene 2 5 13 800000 0 5 800000 1
gene 2 6 13 307173 0 6 307173 1
gene 2 7 13 -266571 0 7 -266571 1
gene 2 8 13 -97959 0 8 -97959 0
gene 4 9 13 258054 0 9 258054 0
gene 2 10 13 512094 0 10 512094 0
gene 2 11 13 557409 0 11 557409 1
gene 4 12 13 507468 0 12 507468 1
gene 4 1 14 -113166 0 13 -113166 1
gene 1 2 14 -121098 0 14 -121098 0
gene 1 3 14 -103821 0 15 -103821 1
gene 2 4 14 -800000 0 16 -800000 1
gene 1 5 14 546822 0 17 546822 1
gene 1 6 14 129837 0 18 129837 1
gene 2 7 14 -227457 0 19 -227457 0
gene 1 8 14 -177429 0 20 -177429 0
gene 1 9 14 254958 0 21 254958 1
gene 3 10 14 -117975 0 22 -117975 1
gene 2 11 14 -65673 0 23 -65673 0
gene 3 12 14 210606 0 24 210606 1
gene 3 1 15 -117141 0 25 -117141 1
gene 2 2 15 -367257 0 26 -367257 0
gene 1 3 15 55578 0 27 55578 0
gene 1 4 15 619650 0 28 619650 1
gene 3 5 15 601358 0 29 601358 1
gene 3 6 15 71754 0 30 71754 1
gene 1 7 15 158493 0 31 158493 1
gene 3 8 15 -109674 0 32 -109674 0
gene 3 9 15 -144072 0 33 -144072 0
gene 1 10 15 -296499 0 34 -296499 0
gene 1 11 15 -449730 0 35 -449730 0
gene 3 12 15 50424 0 36 50424 0
gene 4 9 45 564153 0 104 564153 0
gene 3 45 13 -243327 0 105 -243327 0
gene 1 3 113 173730 0 275 173730 1
gene 1 113 13 507756 0 276 507756 1
gene 2 2 189 -620970 0 464 -620970 1
gene 2 189 15 -293352 0 465 -293352 0
gene 2 5 189 601472 0 566 601472 1
gene 4 13 13 -179445 1 644 -179445 1
gene 2 7 430 -60576 0 1115 -60576 1
gene 2 430 14 95379 0 1116 95379 0
gene 2 11 487 -114375 0 1275 -114375 1
gene 2 487 14 -34863 0 1276 -34863 1
gene 2 189 511 -800000 0 1333 -800000 1
gene 2 511 15 547005 0 1334 547005 1
gene 4 1 113 702522 0 1479 702522 1
gene 3 12 625 209901 0 1638 209901 0
gene 4 625 15 -29700 0 1639 -29700 1
gene 3 45 663 135792 0 1732 135792 1
gene 3 663 13 -111258 0 1733 -111258 1
gene 2 113 14 237891 0 1807 237891 0
gene 2 113 719 331212 0 1884 331212 1
gene 2 719 14 -123465 0 1885 -123465 1
gene 3 8 755 -236499 0 1975 -236499 0
gene 3 755 15 -172491 0 1976 -172491 1
gene 1 8 874 14568 0 2276 14568 1
gene 1 874 14 -277956 0 2277 -277956 1
gene 1 3 910 253836 0 2369 253836 1
gene 1 910 15 50667 0 2370 50667 1
gene 3 12 943 -331677 0 2451 -331677 1
gene 3 943 625 -123510 0 2452 -123510 1
gene 2 8 1029 -322190 0 2673 -322190 1
gene 2 1029 13 156477 0 2674 156477 1
gene 4 9 1053 -275808 0 2737 -275808 1
gene 4 1053 45 -29829 0 2738 -29829 1
gene 1 10 1138 160305 0 2960 160305 1
gene 1 1138 15 492309 0 2961 492309 1
gene 3 9 1403 353343 0 3622 353343 0
gene 3 1403 15 25809 0 3623 25809 1
gene 2 663 1029 124130 0 3778 124130 0
gene 2 10 1559 55117 0 4002 55117 1
gene 2 1559 13 270885 0 4003 270885 1
gene 2 430 1593 110782 0 4082 110782 1
gene 2 1593 14 -172755 0 4083 -172755 1
gene 4 1053 1053 -5201 1 4140 -5201 1
gene 1 2 1646 1 0 4217 1 1
gene 1 1646 14 296847 0 4218 296847 1
gene 3 8 1738 1 0 4439 0 1
gene 3 1738 755 -236499 0 4440 0 1
gene 2 663 1770 1 0 4521 0 1
gene 2 1770 1029 124130 0 4522 0 1
gene 3 9 1793 1 0 4583 0 1
gene 3 1793 1403 353343 0 4584 0 1
gene 3 625 910 22958 0 4653 22958 1
genomeend 14


/* Organism #24 Fitness: 250.000000 Time: 0 */
/* Position #24*/
#1 x: 80 y: 33
#2 x: 60 y: 38
#3 x: 37 y: 35
#4 x: 21 y: 68
#5 x: 58 y: 82
#6 x: 41 y: 73
genomestart 24
trait 1 0.000000 0.000000 0.000000 0.000000 27535.000000 0.000000 66341.000000 0.000000 trait 2 29988.000000 0.000000 0.000000 0.000000 0.000000 0.000000 76970.000000 0.000000 trait 3 11681.000000 0.000000 42417.000000 0.000000 0.000000 0.000000 0.000000 0.000000 trait 4 0.000000 0.000000 0.000000 0.000000 60204.000000 0.000000 0.000000 0.000000 node 1 4 1 3
node 2 2 1 1
node 3 3 1 1
node 4 3 1 1
node 5 4 1 1
node 6 4 1 1
node 7 3 1 1
node 8 3 1 1
node 9 1 1 1
node 10 1 1 1
node 11 3 1 1
node 12 3 1 1
node 13 1 0 2
node 14 3 0 2
node 15 2 0 2
node 45 1 0 0
node 113 1 0 0
node 189 1 0 0
node 430 1 0 0
node 487 1 0 0
node 511 1 0 0
node 638 1 0 0
node 676 1 0 0
node 755 1 0 0
node 911 1 0 0
node 979 1 0 0
node 1063 1 0 0
node 1087 1 0 0
node 1137 1 0 0
node 1264 1 0 0
node 1302 1 0 0
node 1425 1 0 0
node 1600 1 0 0
gene 1 1 13 -322356 0 1 -322356 1
gene 3 2 13 -570314 0 2 -570314 1
gene 1 3 13 347004 0 3 347004 0
gene 3 4 13 -172212 0 4 -172212 0
gene 2 5 13 -386271 0 5 -386271 1
gene 2 6 13 246273 0 6 246273 1
gene 2 7 13 203352 0 7 203352 1
gene 2 8 13 -141504 0 8 -141504 0
gene 4 9 13 -273087 0 9 -273087 0
gene 2 10 13 800000 0 10 800000 1
gene 2 11 13 140487 0 11 140487 1
gene 4 12 13 54543 0 12 54543 1
gene 4 1 14 -641964 0 13 -641964 1
gene 1 2 14 -392315 0 14 -392315 0
gene 1 3 14 463992 0 15 463992 1
gene 2 4 14 758748 0 16 758748 0
gene 1 5 14 -472200 0 17 -472200 1
gene 1 6 14 -2748 0 18 -2748 1
gene 2 7 14 -283560 0 19 -283560 0
gene 1 8 14 -22074 0 20 -22074 1
gene 1 9 14 -540858 0 21 -540858 1
gene 3 10 14 -65538 0 22 -65538 1
gene 2 11 14 -286122 0 23 -286122 0
gene 3 12 14 614769 0 24 614769 1
gene 3 1 15 588552 0 25 588552 1
gene 2 2 15 -178578 0 26 -178578 0
gene 1 3 15 -188529 0 27 -188529 1
gene 1 4 15 471981 0 28 471981 1
gene 3 5 15 114315 0 29 114315 0
gene 3 6 15 -25461 0 30 -25461 1
gene 4 7 15 -229674 0 31 -229674 1
gene 3 8 15 -317490 0 32 -317490 0
gene 3 9 15 249825 0 33 249825 1
gene 1 10 15 105321 0 34 105321 1
gene 1 11 15 73914 0 35 73914 1
gene 3 12 15 261015 0 36 261015 0
gene 4 9 45 -209814 0 104 -209814 1
gene 4 45 13 -596883 0 105 -596883 1
gene 1 3 113 269388 0 275 269388 1
gene 1 113 13 226731 0 276 226731 1
gene 2 2 189 -231398 0 464 -231398 1
gene 2 189 15 -555033 0 465 -555033 0
gene 2 5 189 -31782 0 566 -31782 0
gene 4 13 13 -368766 1 644 -368766 1
gene 2 7 430 653115 0 1115 653115 1
gene 2 430 14 581474 0 1116 581474 0
gene 2 11 487 -485007 0 1275 -485007 1
gene 2 487 14 741153 0 1276 741153 1
gene 2 189 511 -287511 0 1333 -287511 1
gene 2 511 15 -428286 0 1334 -428286 1
gene 4 45 487 -5112 0 1616 -5112 0
gene 1 2 638 -560789 0 1671 -560789 1
gene 1 638 14 -54975 0 1672 -54975 1
gene 3 4 676 -130128 0 1767 -130128 1
gene 3 676 13 -56735 0 1768 -56735 1
gene 4 10 511 -83193 0 1849 -83193 0
gene 2 45 676 505616 0 1906 505616 1
gene 3 8 755 -278877 0 1975 -278877 1
gene 3 755 15 22608 0 1976 22608 1
gene 2 5 911 -160821 0 2371 -160821 1
gene 2 911 189 58053 0 2372 58053 1
gene 2 638 755 -283002 0 2455 -283002 1
gene 4 10 979 679280 0 2534 679280 1
gene 4 979 511 -40584 0 2535 -40584 1
gene 2 8 911 218643 0 2695 218643 1
gene 4 45 1063 289440 0 2762 289440 1
gene 4 1063 487 -42849 0 2763 -42849 1
gene 2 430 1087 -800000 0 2828 -800000 1
gene 2 1087 14 -7611 0 2829 -7611 0
gene 3 12 1137 -45357 0 2958 -45357 1
gene 3 1137 15 59538 0 2959 59538 1
gene 2 1087 1087 -272994 1 3030 -272994 1
gene 2 7 979 623382 0 3212 623382 1
gene 2 4 1264 -524120 0 3272 -524120 1
gene 2 1264 14 11328 0 3273 11328 1
gene 3 5 1302 -589856 0 3361 -589856 1
gene 3 1302 15 -21126 0 3362 -21126 1
gene 2 511 487 -317232 0 3429 -317232 1
gene 3 487 638 570246 0 3597 570246 1
gene 2 8 1425 96129 0 3679 96129 1
gene 2 1425 13 800000 0 3680 800000 1
gene 3 1087 1600 326565 0 4100 326565 1
gene 2 1600 14 246351 0 4101 246351 1
gene 2 1302 113 -153561 0 4334 -153561 1
gene 4 676 755 -62928 0 4541 -62928 1
gene 2 11 979 69291 0 4603 69291 1
genomeend 24


/* Organism #25 Fitness: 250.000000 Time: 0 */
/* Position #25*/
#1 x: 80 y: 33
#2 x: 60 y: 38
#3 x: 37 y: 35
#4 x: 21 y: 68
#5 x: 58 y: 82
#6 x: 41 y: 73
genomestart 25
trait 1 1.000000 0.000000 0.000000 0.000000 0.000000 0.000000 0.000000 0.000000 trait 2 2.000000 0.000000 0.000000 0.000000 0.000000 0.000000 0.000000 0.000000 trait 3 0.000000 905.000000 0.000000 50570.000000 100000.000000 0.000000 0.000000 49645.000000 trait 4 0.000000 0.000000 0.000000 0.000000 60204.000000 0.000000 0.000000 0.000000 node 1 4 1 3
node 2 2 1 1
node 3 3 1 1
node 4 4 1 1
node 5 4 1 1
node 6 4 1 1
node 7 4 1 1
node 8 3 1 1
node 9 1 1 1
node 10 1 1 1
node 11 3 1 1
node 12 3 1 1
node 13 1 0 2
node 14 3 0 2
node 15 2 0 2
node 45 1 0 0
node 113 1 0 0
node 230 1 0 0
node 308 3 0 0
node 430 1 0 0
node 456 1 0 0
node 472 1 0 0
node 502 1 0 0
node 535 1 0 0
node 562 1 0 0
node 774 1 0 0
node 802 1 0 0
node 856 1 0 0
node 891 1 0 0
node 923 1 0 0
node 1013 1 0 0
node 1042 1 0 0
node 1438 1 0 0
node 1523 1 0 0
node 1779 1 0 0
node 1802 1 0 0
node 1823 1 0 0
gene 1 1 13 86788 0 1 86788 1
gene 3 2 13 44778 0 2 44778 1
gene 1 3 13 231825 0 3 231825 1
gene 3 4 13 337155 0 4 337155 1
gene 2 5 13 307863 0 5 307863 1
gene 2 6 13 -64977 0 6 -64977 1
gene 1 7 13 607446 0 7 607446 1
gene 2 8 13 201264 0 8 201264 0
gene 4 9 13 -168396 0 9 -168396 0
gene 2 10 13 -61086 0 10 -61086 1
gene 2 11 13 -169428 0 11 -169428 1
gene 4 12 13 -33279 0 12 -33279 1
gene 4 1 14 -307062 0 13 -307062 1
gene 1 2 14 182994 0 14 182994 1
gene 1 3 14 357393 0 15 357393 1
gene 2 4 14 -451818 0 16 -451818 1
gene 1 5 14 391010 0 17 391010 1
gene 1 6 14 -147087 0 18 -147087 1
gene 2 7 14 -379194 0 19 -379194 0
gene 1 8 14 299133 0 20 299133 0
gene 1 9 14 793083 0 21 793083 0
gene 3 10 14 86247 0 22 86247 1
gene 2 11 14 -685008 0 23 -685008 1
gene 3 12 14 -5556 0 24 -5556 1
gene 3 1 15 -59133 0 25 -59133 1
gene 2 2 15 455238 0 26 455238 1
gene 1 3 15 409436 0 27 409436 0
gene 1 4 15 56583 0 28 56583 1
gene 3 5 15 -445182 0 29 -445182 1
gene 3 6 15 94317 0 30 94317 1
gene 1 7 15 163887 0 31 163887 1
gene 3 8 15 -533355 0 32 -533355 0
gene 3 9 15 786462 0 33 786462 0
gene 1 10 15 313308 0 34 313308 1
gene 1 11 15 -181974 0 35 -181974 0
gene 3 12 15 -543585 0 36 -543585 1
gene 4 9 45 277467 0 104 277467 0
gene 4 45 13 455169 0 105 455169 1
gene 1 3 113 211257 0 275 211257 0
gene 1 113 13 194406 0 276 194406 0
gene 4 15 45 -86094 0 403 -86094 1
gene 1 113 230 -310926 0 574 -310926 1
gene 1 230 13 -7197 0 575 -7197 1
gene 3 9 308 -70059 0 790 -70059 1
gene 4 308 15 269655 0 791 269655 0
gene 2 7 430 140694 0 1115 140694 0
gene 2 430 14 -344537 0 1116 -344537 1
gene 3 12 456 -800000 0 1183 -800000 1
gene 3 456 14 -543153 0 1184 -543153 0
gene 2 7 472 -45915 0 1235 -45915 1
gene 2 472 430 30477 0 1236 30477 1
gene 3 6 502 172329 0 1309 172329 1
gene 3 502 15 610584 0 1310 610584 1
gene 1 11 535 243261 0 1395 243261 1
gene 1 535 15 282684 0 1396 282684 0
gene 3 456 562 -3888 0 1467 -3888 1
gene 3 562 14 394641 0 1468 394641 1
gene 3 8 562 -321597 0 1537 -321597 1
gene 4 13 14 -800000 0 1778 -800000 1
gene 3 308 13 65118 0 1961 65118 0
gene 1 3 774 265029 0 2025 265029 1
gene 1 774 113 -166890 0 2026 -166890 0
gene 2 8 802 563282 0 2095 563282 1
gene 2 802 13 -244803 0 2096 -244803 0
gene 1 3 856 149895 0 2230 149895 1
gene 1 856 15 197328 0 2231 197328 1
gene 1 774 891 -37404 0 2324 -37404 0
gene 1 891 113 454323 0 2325 454323 1
gene 1 535 923 -580473 0 2399 -580473 1
gene 1 923 15 -38799 0 2400 -38799 1
gene 1 774 1013 53055 0 2634 53055 1
gene 1 1013 891 -430569 0 2635 -430569 1
gene 1 9 1042 252510 0 2712 252510 1
gene 1 1042 14 182295 0 2713 182295 1
gene 2 1042 891 -377172 0 3564 -377172 1
gene 4 535 856 -54786 0 3618 -54786 1
gene 3 8 1438 266784 0 3708 266784 1
gene 3 1438 15 95553 0 3709 95553 1
gene 4 9 1523 55215 0 3918 55215 1
gene 4 1523 45 383451 0 3919 383451 1
gene 4 308 1779 1 0 4547 0 1
gene 4 1779 15 269655 0 4548 0 1
gene 2 802 1802 1 0 4605 0 1
gene 2 1802 13 -244803 0 4606 0 1
gene 1 8 1823 1 0 4667 0 1
gene 1 1823 14 299133 0 4668 0 1
genomeend 25


/* Organism #26 Fitness: 250.000000 Time: 0 */
/* Position #26*/
#1 x: 52 y: 21
#2 x: 62 y: 32
#3 x: 82 y: 37
#4 x: 85 y: 67
#5 x: 69 y: 77
#6 x: 19 y: 65
genomestart 26
trait 1 1.000000 0.000000 0.000000 0.000000 0.000000 0.000000 0.000000 0.000000 trait 2 2.000000 0.000000 0.000000 0.000000 0.000000 0.000000 0.000000 0.000000 trait 3 0.000000 905.000000 0.000000 50570.000000 100000.000000 0.000000 0.000000 49645.000000 trait 4 0.000000 0.000000 0.000000 0.000000 60204.000000 0.000000 0.000000 0.000000 node 1 4 1 3
node 2 2 1 1
node 3 3 1 1
node 4 4 1 1
node 5 4 1 1
node 6 4 1 1
node 7 4 1 1
node 8 3 1 1
node 9 1 1 1
node 10 1 1 1
node 11 3 1 1
node 12 3 1 1
node 13 1 0 2
node 14 3 0 2
node 15 2 0 2
node 45 1 0 0
node 113 1 0 0
node 230 1 0 0
node 308 3 0 0
node 430 1 0 0
node 456 1 0 0
node 472 1 0 0
node 502 1 0 0
node 535 1 0 0
node 562 1 0 0
node 774 1 0 0
node 802 1 0 0
node 856 1 0 0
node 891 1 0 0
node 923 1 0 0
node 1013 1 0 0
node 1042 1 0 0
node 1438 1 0 0
node 1523 1 0 0
node 1779 1 0 0
node 1802 1 0 0
gene 1 1 13 86788 0 1 86788 1
gene 3 2 13 44778 0 2 44778 1
gene 1 3 13 231825 0 3 231825 1
gene 3 4 13 337155 0 4 337155 1
gene 2 5 13 307863 0 5 307863 1
gene 2 6 13 -64977 0 6 -64977 1
gene 1 7 13 607446 0 7 607446 1
gene 2 8 13 201264 0 8 201264 0
gene 4 9 13 -168396 0 9 -168396 0
gene 2 10 13 -61086 0 10 -61086 1
gene 2 11 13 -169428 0 11 -169428 1
gene 4 12 13 -33279 0 12 -33279 1
gene 4 1 14 -307062 0 13 -307062 1
gene 1 2 14 182994 0 14 182994 1
gene 1 3 14 357393 0 15 357393 1
gene 2 4 14 -451818 0 16 -451818 1
gene 1 5 14 391010 0 17 391010 1
gene 1 6 14 -147087 0 18 -147087 1
gene 2 7 14 -379194 0 19 -379194 0
gene 1 8 14 299133 0 20 299133 1
gene 1 9 14 793083 0 21 793083 0
gene 3 10 14 86247 0 22 86247 1
gene 2 11 14 -685008 0 23 -685008 1
gene 3 12 14 -5556 0 24 -5556 1
gene 3 1 15 -59133 0 25 -59133 1
gene 2 2 15 455238 0 26 455238 1
gene 1 3 15 409436 0 27 409436 0
gene 1 4 15 56583 0 28 56583 1
gene 3 5 15 -445182 0 29 -445182 1
gene 3 6 15 94317 0 30 94317 1
gene 1 7 15 163887 0 31 163887 1
gene 3 8 15 -533355 0 32 -533355 0
gene 3 9 15 786462 0 33 786462 0
gene 1 10 15 313308 0 34 313308 1
gene 1 11 15 -181974 0 35 -181974 0
gene 3 12 15 -543585 0 36 -543585 1
gene 4 9 45 277467 0 104 277467 0
gene 4 45 13 455169 0 105 455169 1
gene 1 3 113 211257 0 275 211257 0
gene 1 113 13 194406 0 276 194406 0
gene 4 15 45 -86094 0 403 -86094 1
gene 1 113 230 -310926 0 574 -310926 1
gene 1 230 13 -7197 0 575 -7197 1
gene 3 9 308 -70059 0 790 -70059 1
gene 4 308 15 269655 0 791 269655 0
gene 2 7 430 140694 0 1115 140694 0
gene 2 430 14 -344537 0 1116 -344537 1
gene 3 12 456 -800000 0 1183 -800000 1
gene 3 456 14 -543153 0 1184 -543153 0
gene 2 7 472 -45915 0 1235 -45915 1
gene 2 472 430 30477 0 1236 30477 1
gene 3 6 502 172329 0 1309 172329 1
gene 3 502 15 610584 0 1310 610584 1
gene 1 11 535 243261 0 1395 243261 1
gene 1 535 15 282684 0 1396 282684 0
gene 3 456 562 -3888 0 1467 -3888 1
gene 3 562 14 394641 0 1468 394641 1
gene 3 8 562 -321597 0 1537 -321597 1
gene 4 13 14 -800000 0 1778 -800000 1
gene 3 308 13 65118 0 1961 65118 0
gene 1 3 774 265029 0 2025 265029 1
gene 1 774 113 -166890 0 2026 -166890 0
gene 2 8 802 563282 0 2095 563282 1
gene 2 802 13 -244803 0 2096 -244803 0
gene 1 3 856 149895 0 2230 149895 1
gene 1 856 15 197328 0 2231 197328 1
gene 1 774 891 -37404 0 2324 -37404 0
gene 1 891 113 454323 0 2325 454323 1
gene 1 535 923 -580473 0 2399 -580473 1
gene 1 923 15 -38799 0 2400 -38799 1
gene 1 774 1013 53055 0 2634 53055 1
gene 1 1013 891 -430569 0 2635 -430569 1
gene 1 9 1042 252510 0 2712 252510 1
gene 1 1042 14 182295 0 2713 182295 1
gene 2 1042 891 -377172 0 3564 -377172 1
gene 4 535 856 -54786 0 3618 -54786 1
gene 3 8 1438 266784 0 3708 266784 1
gene 3 1438 15 95553 0 3709 95553 1
gene 4 9 1523 55215 0 3918 55215 1
gene 4 1523 45 383451 0 3919 383451 1
gene 4 308 1779 1 0 4547 0 1
gene 4 1779 15 269655 0 4548 0 1
gene 2 802 1802 1 0 4605 0 1
gene 2 1802 13 -244803 0 4606 0 1
gene 1 856 774 -60792 0 4669 -60792 1
genomeend 26


/* Organism #37 Fitness: 220.000000 Time: 0 */
/* Position #37*/
#1 x: 51 y: 29
#2 x: 41 y: 30
#3 x: 66 y: 26
#4 x: 42 y: 69
#5 x: 15 y: 83
#6 x: 20 y: 85
genomestart 37
trait 1 1.000000 0.000000 0.000000 0.000000 0.000000 0.000000 0.000000 0.000000 trait 2 2.000000 0.000000 0.000000 0.000000 0.000000 0.000000 0.000000 0.000000 trait 3 0.000000 0.000000 9546.000000 0.000000 90425.000000 0.000000 0.000000 0.000000 trait 4 0.000000 0.000000 0.000000 0.000000 100000.000000 0.000000 81611.000000 0.000000 node 1 4 1 3
node 2 2 1 1
node 3 3 1 1
node 4 3 1 1
node 5 4 1 1
node 6 4 1 1
node 7 4 1 1
node 8 3 1 1
node 9 1 1 1
node 10 1 1 1
node 11 3 1 1
node 12 3 1 1
node 13 1 0 2
node 14 3 0 2
node 15 4 0 2
node 45 1 0 0
node 113 1 0 0
node 230 1 0 0
node 308 1 0 0
node 430 1 0 0
node 456 1 0 0
node 472 1 0 0
node 502 1 0 0
node 535 1 0 0
node 562 1 0 0
node 774 1 0 0
node 802 1 0 0
node 856 1 0 0
node 891 1 0 0
node 923 1 0 0
node 1013 1 0 0
node 1209 1 0 0
node 1262 2 0 0
node 1422 1 0 0
node 1806 1 0 0
gene 1 1 13 -186859 0 1 -186859 1
gene 3 2 13 158649 0 2 158649 1
gene 1 3 13 594017 0 3 594017 1
gene 3 4 13 800000 0 4 800000 1
gene 2 5 13 -47097 0 5 -47097 1
gene 2 6 13 -283029 0 6 -283029 1
gene 1 7 13 485796 0 7 485796 1
gene 2 8 13 -29337 0 8 -29337 0
gene 4 9 13 -447364 0 9 -447364 0
gene 2 10 13 -601419 0 10 -601419 1
gene 2 11 13 218496 0 11 218496 1
gene 4 12 13 666355 0 12 666355 1
gene 4 1 14 313779 0 13 313779 1
gene 1 2 14 -248316 0 14 -248316 1
gene 1 3 14 136977 0 15 136977 1
gene 2 4 14 756859 0 16 756859 1
gene 1 5 14 22761 0 17 22761 1
gene 1 6 14 660429 0 18 660429 1
gene 2 7 14 241893 0 19 241893 0
gene 1 8 14 -633051 0 20 -633051 1
gene 1 9 14 122541 0 21 122541 1
gene 3 10 14 -191712 0 22 -191712 1
gene 2 11 14 200970 0 23 200970 1
gene 3 12 14 -557369 0 24 -557369 0
gene 3 1 15 10437 0 25 10437 1
gene 2 2 15 160126 0 26 160126 1
gene 1 3 15 -371725 0 27 -371725 0
gene 1 4 15 -497964 0 28 -497964 1
gene 3 5 15 100557 0 29 100557 1
gene 3 6 15 614448 0 30 614448 1
gene 1 7 15 -31545 0 31 -31545 1
gene 3 8 15 42333 0 32 42333 1
gene 3 9 15 420279 0 33 420279 0
gene 1 10 15 -536560 0 34 -536560 1
gene 1 11 15 638803 0 35 638803 0
gene 3 12 15 177924 0 36 177924 1
gene 4 9 45 -800000 0 104 -800000 1
gene 4 45 13 -157371 0 105 -157371 1
gene 1 3 113 -90306 0 275 -90306 0
gene 1 113 13 -406011 0 276 -406011 0
gene 4 15 45 -83618 0 403 -83618 1
gene 1 113 230 161134 0 574 161134 1
gene 1 230 13 269860 0 575 269860 0
gene 3 9 308 263468 0 790 263468 1
gene 3 308 15 529330 0 791 529330 1
gene 2 7 430 -264822 0 1115 -264822 0
gene 2 430 14 -28835 0 1116 -28835 1
gene 3 12 456 -55491 0 1183 -55491 1
gene 3 456 14 -414447 0 1184 -414447 0
gene 2 7 472 -80913 0 1235 -80913 1
gene 2 472 430 432132 0 1236 432132 0
gene 3 6 502 -449754 0 1309 -449754 1
gene 3 502 15 341916 0 1310 341916 1
gene 1 11 535 161151 0 1395 161151 1
gene 1 535 15 -142680 0 1396 -142680 1
gene 3 456 562 8049 0 1467 8049 1
gene 4 562 14 155817 0 1468 155817 1
gene 3 8 562 133422 0 1537 133422 1
gene 4 13 14 90573 0 1778 90573 1
gene 3 308 13 268623 0 1961 268623 1
gene 1 3 774 -39426 0 2025 -39426 1
gene 1 774 113 736235 0 2026 736235 0
gene 2 8 802 696332 0 2095 696332 1
gene 2 802 13 158382 0 2096 158382 1
gene 1 3 856 56053 0 2230 56053 1
gene 1 856 15 -671320 0 2231 -671320 1
gene 1 774 891 -195891 0 2324 -195891 0
gene 1 891 113 92817 0 2325 92817 1
gene 1 535 923 -356517 0 2399 -356517 1
gene 1 923 15 -53885 0 2400 -53885 1
gene 1 774 1013 -82875 0 2634 -82875 1
gene 1 1013 891 291540 0 2635 291540 1
gene 2 308 14 283929 0 2853 283929 1
gene 1 113 1209 800000 0 3137 800000 1
gene 1 1209 230 79263 0 3138 79263 1
gene 4 1013 856 -758148 0 3205 -758148 1
gene 2 472 1262 -302071 0 3266 -302071 1
gene 2 1262 430 -221701 0 3267 -221701 1
gene 1 1262 891 33828 0 3360 33828 1
gene 4 9 456 -66363 0 3421 -66363 1
gene 2 113 562 -368978 0 3518 -368978 1
gene 1 456 456 39446 1 3595 39446 1
gene 3 12 1422 200766 0 3673 200766 1
gene 3 1422 14 -800000 0 3674 -800000 1
gene 3 1262 923 -189935 0 3745 -189935 1
gene 1 1422 1422 33315 1 4181 33315 1
gene 1 856 856 -214581 1 4256 -214581 1
gene 1 230 1806 1 0 4614 0 1
gene 1 1806 13 269860 0 4615 0 1
genomeend 37


/* Organism #60 Fitness: 270.000000 Time: 0 */
/* Position #60*/
#1 x: 17 y: 27
#2 x: 39 y: 30
#3 x: 68 y: 21
#4 x: 85 y: 65
#5 x: 39 y: 60
#6 x: 25 y: 82
genomestart 60
trait 1 1.000000 0.000000 0.000000 0.000000 0.000000 0.000000 0.000000 0.000000 trait 2 2.000000 0.000000 0.000000 0.000000 0.000000 0.000000 0.000000 0.000000 trait 3 0.000000 905.000000 0.000000 50570.000000 100000.000000 0.000000 0.000000 49645.000000 trait 4 0.000000 0.000000 0.000000 0.000000 60204.000000 0.000000 0.000000 0.000000 node 1 4 1 3
node 2 2 1 1
node 3 3 1 1
node 4 4 1 1
node 5 4 1 1
node 6 4 1 1
node 7 4 1 1
node 8 3 1 1
node 9 1 1 1
node 10 1 1 1
node 11 3 1 1
node 12 3 1 1
node 13 1 0 2
node 14 3 0 2
node 15 2 0 2
node 45 1 0 0
node 113 1 0 0
node 230 1 0 0
node 308 3 0 0
node 430 1 0 0
node 456 1 0 0
node 472 1 0 0
node 502 1 0 0
node 535 1 0 0
node 562 1 0 0
node 774 1 0 0
node 802 1 0 0
node 856 1 0 0
node 891 1 0 0
node 923 1 0 0
node 1013 1 0 0
node 1042 1 0 0
node 1438 1 0 0
node 1523 1 0 0
node 1750 1 0 0
gene 1 1 13 -159977 0 1 -159977 1
gene 3 2 13 109764 0 2 109764 1
gene 1 3 13 69531 0 3 69531 1
gene 3 4 13 495066 0 4 495066 1
gene 2 5 13 29946 0 5 29946 1
gene 2 6 13 -227451 0 6 -227451 1
gene 1 7 13 615702 0 7 615702 1
gene 2 8 13 329862 0 8 329862 0
gene 4 9 13 -413574 0 9 -413574 0
gene 2 10 13 341355 0 10 341355 1
gene 2 11 13 -62025 0 11 -62025 1
gene 4 12 13 142065 0 12 142065 1
gene 4 1 14 21825 0 13 21825 1
gene 1 2 14 -98301 0 14 -98301 1
gene 1 3 14 38655 0 15 38655 1
gene 2 4 14 14202 0 16 14202 1
gene 1 5 14 553178 0 17 553178 1
gene 1 6 14 -195720 0 18 -195720 1
gene 2 7 14 -190806 0 19 -190806 0
gene 1 8 14 563676 0 20 563676 1
gene 1 9 14 800000 0 21 800000 0
gene 3 10 14 30762 0 22 30762 1
gene 2 11 14 -417483 0 23 -417483 1
gene 3 12 14 42498 0 24 42498 1
gene 3 1 15 -336909 0 25 -336909 1
gene 2 2 15 187740 0 26 187740 0
gene 1 3 15 202040 0 27 202040 0
gene 1 4 15 225234 0 28 225234 1
gene 3 5 15 -275184 0 29 -275184 1
gene 3 6 15 -419151 0 30 -419151 1
gene 1 7 15 -179214 0 31 -179214 1
gene 3 8 15 -431607 0 32 -431607 0
gene 3 9 15 800000 0 33 800000 0
gene 1 10 15 139509 0 34 139509 1
gene 1 11 15 -165363 0 35 -165363 0
gene 3 12 15 -226884 0 36 -226884 1
gene 4 9 45 443616 0 104 443616 0
gene 4 45 13 490017 0 105 490017 1
gene 1 3 113 249831 0 275 249831 0
gene 1 113 13 -173808 0 276 -173808 0
gene 4 15 45 -59649 0 403 -59649 1
gene 1 113 230 -268260 0 574 -268260 1
gene 1 230 13 800000 0 575 800000 1
gene 3 9 308 421056 0 790 421056 1
gene 4 308 15 350040 0 791 350040 1
gene 2 7 430 84288 0 1115 84288 0
gene 2 430 14 -495545 0 1116 -495545 1
gene 3 12 456 -800000 0 1183 -800000 1
gene 3 456 14 -417369 0 1184 -417369 0
gene 2 7 472 793556 0 1235 793556 1
gene 2 472 430 -2490 0 1236 -2490 1
gene 3 6 502 441441 0 1309 441441 1
gene 3 502 15 344073 0 1310 344073 1
gene 1 11 535 252810 0 1395 252810 1
gene 1 535 15 441174 0 1396 441174 0
gene 3 456 562 -244431 0 1467 -244431 1
gene 3 562 14 107649 0 1468 107649 1
gene 3 8 562 -210120 0 1537 -210120 1
gene 4 13 14 -800000 0 1778 -800000 1
gene 3 308 13 487701 0 1961 487701 0
gene 1 3 774 -94005 0 2025 -94005 1
gene 1 774 113 7971 0 2026 7971 0
gene 2 8 802 656762 0 2095 656762 1
gene 2 802 13 -538401 0 2096 -538401 1
gene 1 3 856 46896 0 2230 46896 1
gene 1 856 15 10035 0 2231 10035 1
gene 1 774 891 280839 0 2324 280839 0
gene 1 891 113 -273879 0 2325 -273879 1
gene 1 535 923 -35151 0 2399 -35151 1
gene 1 923 15 193932 0 2400 193932 1
gene 1 774 1013 18294 0 2634 18294 1
gene 1 1013 891 -424716 0 2635 -424716 1
gene 1 9 1042 -265311 0 2712 -265311 1
gene 1 1042 14 -392469 0 2713 -392469 1
gene 2 1042 891 24336 0 3564 24336 1
gene 4 535 856 -461019 0 3618 -461019 1
gene 3 8 1438 457917 0 3708 457917 1
gene 3 1438 15 95553 0 3709 95553 1
gene 4 9 1523 77530 0 3918 77530 1
gene 4 1523 45 800000 0 3919 800000 1
gene 2 2 1750 108268 0 4469 108268 1
gene 2 1750 15 455238 0 4470 455238 1
gene 3 535 502 -46235 0 4531 -46235 1
gene 2 10 308 57850 0 4705 57850 1
genomeend 60


/* Organism #62 Fitness: 240.000000 Time: 0 */
/* Position #62*/
#1 x: 17 y: 27
#2 x: 62 y: 37
#3 x: 28 y: 22
#4 x: 79 y: 83
#5 x: 66 y: 63
#6 x: 30 y: 66
genomestart 62
trait 1 1.000000 0.000000 0.000000 0.000000 0.000000 0.000000 0.000000 0.000000 trait 2 2.000000 0.000000 0.000000 0.000000 0.000000 0.000000 0.000000 0.000000 trait 3 0.000000 905.000000 0.000000 50570.000000 100000.000000 0.000000 0.000000 49645.000000 trait 4 0.000000 0.000000 0.000000 0.000000 60204.000000 0.000000 0.000000 0.000000 node 1 4 1 3
node 2 2 1 1
node 3 3 1 1
node 4 4 1 1
node 5 4 1 1
node 6 4 1 1
node 7 4 1 1
node 8 3 1 1
node 9 1 1 1
node 10 1 1 1
node 11 3 1 1
node 12 3 1 1
node 13 1 0 2
node 14 3 0 2
node 15 2 0 2
node 45 1 0 0
node 113 1 0 0
node 230 1 0 0
node 308 3 0 0
node 430 1 0 0
node 456 1 0 0
node 472 1 0 0
node 502 1 0 0
node 535 1 0 0
node 562 1 0 0
node 774 1 0 0
node 802 1 0 0
node 856 1 0 0
node 891 1 0 0
node 923 1 0 0
node 1013 1 0 0
node 1042 1 0 0
node 1438 1 0 0
node 1523 1 0 0
node 1750 1 0 0
node 1837 1 0 0
gene 1 1 13 -159977 0 1 -159977 1
gene 3 2 13 109764 0 2 109764 1
gene 1 3 13 69531 0 3 69531 1
gene 3 4 13 495066 0 4 495066 1
gene 2 5 13 29946 0 5 29946 1
gene 2 6 13 -227451 0 6 -227451 1
gene 1 7 13 615702 0 7 615702 1
gene 2 8 13 329862 0 8 329862 0
gene 4 9 13 -413574 0 9 -413574 0
gene 2 10 13 341355 0 10 341355 1
gene 2 11 13 -62025 0 11 -62025 1
gene 4 12 13 142065 0 12 142065 1
gene 4 1 14 21825 0 13 21825 1
gene 1 2 14 -98301 0 14 -98301 1
gene 1 3 14 38655 0 15 38655 1
gene 2 4 14 14202 0 16 14202 1
gene 1 5 14 553178 0 17 553178 1
gene 1 6 14 -195720 0 18 -195720 1
gene 2 7 14 -190806 0 19 -190806 0
gene 1 8 14 563676 0 20 563676 1
gene 1 9 14 800000 0 21 800000 0
gene 3 10 14 30762 0 22 30762 1
gene 2 11 14 -417483 0 23 -417483 1
gene 3 12 14 42498 0 24 42498 1
gene 3 1 15 -336909 0 25 -336909 1
gene 2 2 15 187740 0 26 187740 0
gene 1 3 15 202040 0 27 202040 0
gene 1 4 15 225234 0 28 225234 1
gene 3 5 15 -275184 0 29 -275184 1
gene 3 6 15 -419151 0 30 -419151 1
gene 1 7 15 -179214 0 31 -179214 1
gene 3 8 15 -431607 0 32 -431607 0
gene 3 9 15 800000 0 33 800000 0
gene 1 10 15 139509 0 34 139509 1
gene 1 11 15 -165363 0 35 -165363 0
gene 3 12 15 -226884 0 36 -226884 1
gene 4 9 45 443616 0 104 443616 0
gene 4 45 13 490017 0 105 490017 1
gene 1 3 113 249831 0 275 249831 0
gene 1 113 13 -173808 0 276 -173808 0
gene 4 15 45 -59649 0 403 -59649 1
gene 1 113 230 -268260 0 574 -268260 1
gene 1 230 13 800000 0 575 800000 1
gene 3 9 308 421056 0 790 421056 1
gene 4 308 15 350040 0 791 350040 1
gene 2 7 430 84288 0 1115 84288 0
gene 2 430 14 -495545 0 1116 -495545 0
gene 3 12 456 -800000 0 1183 -800000 1
gene 3 456 14 -417369 0 1184 -417369 0
gene 2 7 472 793556 0 1235 793556 1
gene 2 472 430 -2490 0 1236 -2490 1
gene 3 6 502 441441 0 1309 441441 1
gene 3 502 15 344073 0 1310 344073 1
gene 1 11 535 252810 0 1395 252810 1
gene 1 535 15 441174 0 1396 441174 0
gene 3 456 562 -244431 0 1467 -244431 1
gene 3 562 14 107649 0 1468 107649 1
gene 3 8 562 -210120 0 1537 -210120 1
gene 4 13 14 -800000 0 1778 -800000 1
gene 3 308 13 487701 0 1961 487701 0
gene 1 3 774 -94005 0 2025 -94005 1
gene 1 774 113 7971 0 2026 7971 0
gene 2 8 802 656762 0 2095 656762 1
gene 2 802 13 -538401 0 2096 -538401 1
gene 1 3 856 46896 0 2230 46896 1
gene 1 856 15 10035 0 2231 10035 1
gene 1 774 891 280839 0 2324 280839 0
gene 1 891 113 -273879 0 2325 -273879 1
gene 1 535 923 -35151 0 2399 -35151 1
gene 1 923 15 193932 0 2400 193932 1
gene 1 774 1013 18294 0 2634 18294 1
gene 1 1013 891 -424716 0 2635 -424716 1
gene 1 9 1042 -265311 0 2712 -265311 1
gene 1 1042 14 -392469 0 2713 -392469 1
gene 2 1042 891 24336 0 3564 24336 1
gene 4 535 856 -461019 0 3618 -461019 1
gene 3 8 1438 457917 0 3708 457917 1
gene 3 1438 15 95553 0 3709 95553 1
gene 4 9 1523 77530 0 3918 77530 1
gene 4 1523 45 800000 0 3919 800000 1
gene 2 2 1750 108268 0 4469 108268 1
gene 2 1750 15 455238 0 4470 455238 1
gene 3 535 502 -46235 0 4531 -46235 1
gene 2 430 1837 1 0 4708 0 1
gene 2 1837 14 -495545 0 4709 0 1
genomeend 62


/* Organism #74 Fitness: 280.000000 Time: 0 */
/* Position #74*/
#1 x: 73 y: 21
#2 x: 78 y: 35
#3 x: 68 y: 18
#4 x: 77 y: 66
#5 x: 85 y: 61
#6 x: 25 y: 76
genomestart 74
trait 1 0.000000 0.000000 0.000000 0.000000 27535.000000 0.000000 66341.000000 0.000000 trait 2 29988.000000 0.000000 0.000000 0.000000 0.000000 0.000000 76970.000000 0.000000 trait 3 11681.000000 0.000000 42417.000000 0.000000 0.000000 0.000000 0.000000 0.000000 trait 4 0.000000 0.000000 0.000000 0.000000 60204.000000 0.000000 0.000000 0.000000 node 1 4 1 3
node 2 2 1 1
node 3 3 1 1
node 4 3 1 1
node 5 4 1 1
node 6 4 1 1
node 7 3 1 1
node 8 3 1 1
node 9 1 1 1
node 10 1 1 1
node 11 3 1 1
node 12 3 1 1
node 13 1 0 2
node 14 3 0 2
node 15 2 0 2
node 45 1 0 0
node 113 1 0 0
node 189 1 0 0
node 430 1 0 0
node 487 1 0 0
node 511 1 0 0
node 638 1 0 0
node 676 1 0 0
node 755 1 0 0
node 911 1 0 0
node 979 1 0 0
node 1063 1 0 0
node 1087 1 0 0
node 1137 1 0 0
node 1264 1 0 0
node 1302 1 0 0
node 1425 1 0 0
node 1600 1 0 0
gene 1 1 13 -35052 0 1 -35052 1
gene 3 2 13 -800000 0 2 -800000 1
gene 1 3 13 -83049 0 3 -83049 0
gene 3 4 13 123537 0 4 123537 0
gene 2 5 13 -179412 0 5 -179412 1
gene 2 6 13 -520287 0 6 -520287 1
gene 2 7 13 -12108 0 7 -12108 1
gene 2 8 13 438282 0 8 438282 0
gene 4 9 13 -119766 0 9 -119766 0
gene 2 10 13 800000 0 10 800000 1
gene 2 11 13 -127578 0 11 -127578 1
gene 4 12 13 251805 0 12 251805 1
gene 4 1 14 29808 0 13 29808 1
gene 1 2 14 -465311 0 14 -465311 0
gene 1 3 14 191385 0 15 191385 1
gene 2 4 14 711057 0 16 711057 0
gene 1 5 14 209661 0 17 209661 1
gene 1 6 14 -135233 0 18 -135233 1
gene 2 7 14 488436 0 19 488436 0
gene 1 8 14 -169206 0 20 -169206 1
gene 1 9 14 225957 0 21 225957 1
gene 3 10 14 -583980 0 22 -583980 1
gene 2 11 14 -461007 0 23 -461007 0
gene 3 12 14 668856 0 24 668856 1
gene 3 1 15 800000 0 25 800000 1
gene 2 2 15 -427419 0 26 -427419 0
gene 1 3 15 -67401 0 27 -67401 1
gene 1 4 15 309054 0 28 309054 1
gene 3 5 15 -62451 0 29 -62451 0
gene 3 6 15 -85722 0 30 -85722 1
gene 4 7 15 -390033 0 31 -390033 1
gene 3 8 15 -58965 0 32 -58965 0
gene 3 9 15 -242553 0 33 -242553 1
gene 1 10 15 314682 0 34 314682 1
gene 1 11 15 118380 0 35 118380 1
gene 3 12 15 695252 0 36 695252 0
gene 4 9 45 -358941 0 104 -358941 1
gene 4 45 13 -708600 0 105 -708600 1
gene 1 3 113 -434664 0 275 -434664 1
gene 1 113 13 519756 0 276 519756 1
gene 2 2 189 -224540 0 464 -224540 1
gene 2 189 15 -337989 0 465 -337989 0
gene 2 5 189 166008 0 566 166008 0
gene 4 13 13 255897 1 644 255897 1
gene 2 7 430 426219 0 1115 426219 1
gene 2 430 14 -61053 0 1116 -61053 0
gene 2 11 487 -266568 0 1275 -266568 1
gene 2 487 14 569778 0 1276 569778 1
gene 2 189 511 -272748 0 1333 -272748 1
gene 2 511 15 -50295 0 1334 -50295 1
gene 4 45 487 229656 0 1616 229656 0
gene 1 2 638 -682196 0 1671 -682196 1
gene 1 638 14 77283 0 1672 77283 1
gene 3 4 676 239547 0 1767 239547 1
gene 3 676 13 120645 0 1768 120645 1
gene 4 10 511 -162501 0 1849 -162501 0
gene 2 45 676 800000 0 1906 800000 1
gene 3 8 755 -385113 0 1975 -385113 1
gene 3 755 15 -135519 0 1976 -135519 1
gene 2 5 911 -264186 0 2371 -264186 1
gene 2 911 189 56496 0 2372 56496 1
gene 2 638 755 -393579 0 2455 -393579 1
gene 4 10 979 644705 0 2534 644705 1
gene 4 979 511 77919 0 2535 77919 1
gene 2 8 911 59754 0 2695 59754 1
gene 4 45 1063 119322 0 2762 119322 1
gene 4 1063 487 -90987 0 2763 -90987 1
gene 2 430 1087 -800000 0 2828 -800000 1
gene 2 1087 14 243186 0 2829 243186 0
gene 3 12 1137 127494 0 2958 127494 1
gene 3 1137 15 238059 0 2959 238059 1
gene 2 1087 1087 -56604 1 3030 -56604 1
gene 2 7 979 478077 0 3212 478077 1
gene 2 4 1264 -218318 0 3272 -218318 1
gene 2 1264 14 243600 0 3273 243600 1
gene 3 5 1302 -259955 0 3361 -259955 1
gene 3 1302 15 -171138 0 3362 -171138 1
gene 2 511 487 110700 0 3429 110700 1
gene 3 487 638 130737 0 3597 130737 1
gene 2 8 1425 -276650 0 3679 -276650 1
gene 2 1425 13 800000 0 3680 800000 1
gene 2 1087 1600 407886 0 4100 407886 1
gene 2 1600 14 40011 0 4101 40011 1
gene 2 1302 113 -66093 0 4334 -66093 1
gene 4 676 755 -331131 0 4541 -331131 1
gene 2 11 979 127944 0 4603 127944 1
genomeend 74


/* Organism #75 Fitness: 240.000000 Time: 0 */
/* Position #75*/
#1 x: 73 y: 21
#2 x: 78 y: 35
#3 x: 68 y: 18
#4 x: 77 y: 66
#5 x: 85 y: 61
#6 x: 25 y: 76
genomestart 75
trait 1 1.000000 0.000000 0.000000 0.000000 0.000000 0.000000 0.000000 0.000000 trait 2 2.000000 0.000000 0.000000 0.000000 63196.000000 0.000000 0.000000 0.000000 trait 3 0.000000 0.000000 0.000000 100000.000000 90980.000000 75031.000000 0.000000 35111.000000 trait 4 0.000000 0.000000 0.000000 0.000000 60204.000000 0.000000 0.000000 0.000000 node 1 4 1 3
node 2 2 1 1
node 3 3 1 1
node 4 4 1 1
node 5 4 1 1
node 6 4 1 1
node 7 4 1 1
node 8 3 1 1
node 9 1 1 1
node 10 1 1 1
node 11 3 1 1
node 12 3 1 1
node 13 1 0 2
node 14 3 0 2
node 15 4 0 2
node 45 1 0 0
node 113 1 0 0
node 230 1 0 0
node 308 3 0 0
node 430 1 0 0
node 456 1 0 0
node 472 1 0 0
node 502 1 0 0
node 535 1 0 0
node 562 1 0 0
node 774 1 0 0
node 802 1 0 0
node 856 1 0 0
node 891 1 0 0
node 923 1 0 0
node 1013 1 0 0
node 1042 1 0 0
node 1438 1 0 0
node 1523 1 0 0
node 1670 1 0 0
node 1692 1 0 0
node 1725 1 0 0
node 1805 1 0 0
gene 1 1 13 -320900 0 1 -320900 1
gene 3 2 13 350487 0 2 350487 1
gene 1 3 13 142599 0 3 142599 1
gene 3 4 13 -341193 0 4 -341193 1
gene 2 5 13 -371126 0 5 -371126 1
gene 2 6 13 -239829 0 6 -239829 1
gene 1 7 13 521775 0 7 521775 1
gene 2 8 13 148998 0 8 148998 0
gene 4 9 13 -238176 0 9 -238176 0
gene 2 10 13 -163065 0 10 -163065 1
gene 2 11 13 526593 0 11 526593 1
gene 4 12 13 7284 0 12 7284 1
gene 4 1 14 -173847 0 13 -173847 1
gene 1 2 14 155535 0 14 155535 1
gene 1 3 14 -252087 0 15 -252087 1
gene 2 4 14 171207 0 16 171207 1
gene 1 5 14 800000 0 17 800000 1
gene 1 6 14 -267288 0 18 -267288 1
gene 2 7 14 -228342 0 19 -228342 0
gene 1 8 14 288867 0 20 288867 1
gene 1 9 14 96954 0 21 96954 0
gene 3 10 14 342926 0 22 342926 1
gene 2 11 14 138405 0 23 138405 1
gene 3 12 14 -271425 0 24 -271425 1
gene 3 1 15 -541424 0 25 -541424 1
gene 2 2 15 68352 0 26 68352 1
gene 1 3 15 800000 0 27 800000 0
gene 1 4 15 -800000 0 28 -800000 1
gene 3 5 15 -375 0 29 -375 0
gene 3 6 15 36591 0 30 36591 1
gene 1 7 15 49095 0 31 49095 1
gene 3 8 15 -21318 0 32 -21318 0
gene 3 9 15 409287 0 33 409287 0
gene 1 10 15 25353 0 34 25353 1
gene 1 11 15 -190554 0 35 -190554 0
gene 3 12 15 100593 0 36 100593 1
gene 4 9 45 800000 0 104 800000 0
gene 4 45 13 631521 0 105 631521 0
gene 1 3 113 663690 0 275 663690 0
gene 1 113 13 -182922 0 276 -182922 0
gene 4 15 45 -291222 0 403 -291222 1
gene 1 113 230 -263217 0 574 -263217 1
gene 1 230 13 77217 0 575 77217 1
gene 3 9 308 258465 0 790 258465 1
gene 4 308 15 -292398 0 791 -292398 1
gene 2 7 430 -171066 0 1115 -171066 0
gene 2 430 14 -451838 0 1116 -451838 1
gene 3 12 456 -800000 0 1183 -800000 1
gene 3 456 14 167601 0 1184 167601 0
gene 2 7 472 800000 0 1235 800000 1
gene 2 472 430 225300 0 1236 225300 1
gene 3 6 502 -47883 0 1309 -47883 1
gene 3 502 15 157578 0 1310 157578 1
gene 1 11 535 274182 0 1395 274182 1
gene 1 535 15 -42249 0 1396 -42249 0
gene 3 456 562 32013 0 1467 32013 1
gene 3 562 14 -84273 0 1468 -84273 1
gene 3 8 562 -38697 0 1537 -38697 1
gene 4 13 14 125172 0 1778 125172 1
gene 3 308 13 -27171 0 1961 -27171 0
gene 1 3 774 540819 0 2025 540819 1
gene 1 774 113 -570573 0 2026 -570573 0
gene 2 8 802 800000 0 2095 800000 1
gene 2 802 13 -470016 0 2096 -470016 0
gene 1 3 856 -93900 0 2230 -93900 1
gene 1 856 15 300363 0 2231 300363 1
gene 1 774 891 -11985 0 2324 -11985 0
gene 1 891 113 132477 0 2325 132477 1
gene 1 535 923 651900 0 2399 651900 0
gene 1 923 15 -445896 0 2400 -445896 1
gene 1 774 1013 -763215 0 2634 -763215 1
gene 1 1013 891 -233943 0 2635 -233943 1
gene 1 9 1042 168501 0 2712 168501 1
gene 1 1042 14 -95547 0 2713 -95547 1
gene 2 1042 891 373911 0 3564 373911 1
gene 4 535 856 -622980 0 3618 -622980 1
gene 3 8 1438 208425 0 3708 208425 1
gene 3 1438 15 466260 0 3709 466260 1
gene 4 9 1523 -276771 0 3918 -276771 1
gene 4 1523 45 248334 0 3919 248334 1
gene 3 5 1670 47035 0 4276 47035 1
gene 3 1670 15 -281835 0 4277 -281835 1
gene 1 535 1692 -133115 0 4330 -133115 1
gene 1 1692 923 194121 0 4331 194121 1
gene 2 802 1725 -70799 0 4412 -70799 1
gene 2 1725 13 -521424 0 4413 -521424 1
gene 4 45 1805 61027 0 4611 61027 1
gene 4 1805 13 423093 0 4612 423093 1
genomeend 75


/* Organism #79 Fitness: 270.000000 Time: 0 */
/* Position #79*/
#1 x: 75 y: 39
#2 x: 58 y: 17
#3 x: 47 y: 22
#4 x: 51 y: 83
#5 x: 30 y: 63
#6 x: 18 y: 61
genomestart 79
trait 1 0.000000 0.000000 0.000000 0.000000 27535.000000 0.000000 66341.000000 0.000000 trait 2 29988.000000 0.000000 0.000000 0.000000 0.000000 0.000000 76970.000000 0.000000 trait 3 11681.000000 0.000000 42417.000000 0.000000 0.000000 0.000000 0.000000 0.000000 trait 4 0.000000 0.000000 0.000000 0.000000 60204.000000 0.000000 0.000000 0.000000 node 1 4 1 3
node 2 2 1 1
node 3 3 1 1
node 4 3 1 1
node 5 4 1 1
node 6 4 1 1
node 7 3 1 1
node 8 3 1 1
node 9 1 1 1
node 10 1 1 1
node 11 3 1 1
node 12 3 1 1
node 13 1 0 2
node 14 3 0 2
node 15 2 0 2
node 45 1 0 0
node 113 1 0 0
node 189 1 0 0
node 430 1 0 0
node 487 1 0 0
node 511 1 0 0
node 638 1 0 0
node 676 1 0 0
node 755 1 0 0
node 911 1 0 0
node 979 1 0 0
node 1063 1 0 0
node 1087 1 0 0
node 1137 1 0 0
node 1264 1 0 0
node 1302 1 0 0
node 1425 1 0 0
node 1600 1 0 0
gene 1 1 13 10953 0 1 10953 1
gene 3 2 13 -667628 0 2 -667628 1
gene 1 3 13 166149 0 3 166149 0
gene 3 4 13 -395007 0 4 -395007 0
gene 2 5 13 -213780 0 5 -213780 1
gene 2 6 13 -577395 0 6 -577395 1
gene 2 7 13 -110274 0 7 -110274 1
gene 2 8 13 63639 0 8 63639 0
gene 4 9 13 -283374 0 9 -283374 0
gene 2 10 13 800000 0 10 800000 1
gene 2 11 13 -3237 0 11 -3237 1
gene 4 12 13 -249582 0 12 -249582 1
gene 4 1 14 -416814 0 13 -416814 1
gene 1 2 14 -656018 0 14 -656018 0
gene 1 3 14 -90813 0 15 -90813 1
gene 2 4 14 445659 0 16 445659 0
gene 1 5 14 -504050 0 17 -504050 1
gene 1 6 14 13239 0 18 13239 1
gene 2 7 14 188265 0 19 188265 0
gene 1 8 14 -248211 0 20 -248211 1
gene 1 9 14 89808 0 21 89808 1
gene 3 10 14 -457389 0 22 -457389 1
gene 2 11 14 451173 0 23 451173 0
gene 3 12 14 -46974 0 24 -46974 1
gene 3 1 15 601218 0 25 601218 1
gene 2 2 15 -481437 0 26 -481437 0
gene 1 3 15 71388 0 27 71388 1
gene 1 4 15 349410 0 28 349410 1
gene 3 5 15 -56427 0 29 -56427 0
gene 3 6 15 181629 0 30 181629 1
gene 4 7 15 198765 0 31 198765 1
gene 3 8 15 -403821 0 32 -403821 0
gene 3 9 15 -129228 0 33 -129228 1
gene 1 10 15 -90069 0 34 -90069 1
gene 1 11 15 49659 0 35 49659 1
gene 3 12 15 508139 0 36 508139 0
gene 4 9 45 -5928 0 104 -5928 1
gene 4 45 13 -246894 0 105 -246894 1
gene 1 3 113 270897 0 275 270897 1
gene 1 113 13 106917 0 276 106917 1
gene 2 2 189 -366551 0 464 -366551 1
gene 2 189 15 -800000 0 465 -800000 0
gene 2 5 189 -150615 0 566 -150615 0
gene 4 13 13 -277158 1 644 -277158 1
gene 2 7 430 -1131 0 1115 -1131 1
gene 2 430 14 669701 0 1116 669701 0
gene 2 11 487 -183624 0 1275 -183624 1
gene 2 487 14 377991 0 1276 377991 1
gene 2 189 511 -341253 0 1333 -341253 1
gene 2 511 15 -643008 0 1334 -643008 1
gene 4 45 487 169884 0 1616 169884 0
gene 1 2 638 -51447 0 1671 -51447 1
gene 1 638 14 -232080 0 1672 -232080 1
gene 3 4 676 476517 0 1767 476517 1
gene 3 676 13 -333479 0 1768 -333479 1
gene 4 10 511 -3009 0 1849 -3009 0
gene 2 45 676 157512 0 1906 157512 1
gene 3 8 755 133329 0 1975 133329 1
gene 3 755 15 208965 0 1976 208965 1
gene 2 5 911 372642 0 2371 372642 1
gene 2 911 189 611673 0 2372 611673 1
gene 2 638 755 -423210 0 2455 -423210 1
gene 4 10 979 727568 0 2534 727568 1
gene 4 979 511 -112578 0 2535 -112578 1
gene 2 8 911 106716 0 2695 106716 1
gene 4 45 1063 47751 0 2762 47751 1
gene 4 1063 487 -428526 0 2763 -428526 1
gene 2 430 1087 -277980 0 2828 -277980 1
gene 2 1087 14 -476085 0 2829 -476085 0
gene 3 12 1137 -3741 0 2958 -3741 1
gene 3 1137 15 3894 0 2959 3894 1
gene 2 1087 1087 48756 1 3030 48756 1
gene 2 7 979 107553 0 3212 107553 1
gene 2 4 1264 4632 0 3272 4632 1
gene 2 1264 14 345555 0 3273 345555 1
gene 3 5 1302 -800000 0 3361 -800000 1
gene 3 1302 15 316137 0 3362 316137 1
gene 2 511 487 122337 0 3429 122337 1
gene 3 487 638 -203535 0 3597 -203535 1
gene 2 8 1425 -378746 0 3679 -378746 1
gene 2 1425 13 800000 0 3680 800000 1
gene 2 1087 1600 374106 0 4100 374106 1
gene 2 1600 14 -128613 0 4101 -128613 1
gene 2 1302 113 278496 0 4334 278496 1
gene 3 8 45 -38357 0 4633 -38357 1
genomeend 79


