/* Organism #14 Fitness: 400.000000 Time: 0 */
/* Position #14*/
#1 x: 55 y: 25
#2 x: 62 y: 23
#3 x: 30 y: 16
#4 x: 18 y: 74
#5 x: 37 y: 75
#6 x: 85 y: 83
genomestart 14
trait 1 0.000000 32719.000000 42187.000000 0.000000 0.000000 0.000000 0.000000 100000.000000 trait 2 2.000000 0.000000 0.000000 0.000000 0.000000 0.000000 0.000000 0.000000 trait 3 0.000000 0.000000 0.000000 0.000000 52930.000000 0.000000 0.000000 0.000000 trait 4 0.000000 0.000000 0.000000 97763.000000 11778.000000 0.000000 0.000000 0.000000 node 1 2 1 3
node 2 3 1 1
node 3 1 1 1
node 4 2 1 1
node 5 4 1 1
node 6 3 1 1
node 7 2 1 1
node 8 3 1 1
node 9 1 1 1
node 10 1 1 1
node 11 1 1 1
node 12 1 1 1
node 13 3 0 2
node 14 3 0 2
node 15 2 0 2
node 30 1 0 0
node 156 1 0 0
node 183 1 0 0
node 207 1 0 0
node 238 1 0 0
node 310 1 0 0
node 388 4 0 0
node 419 1 0 0
node 455 1 0 0
node 591 1 0 0
node 612 1 0 0
node 646 1 0 0
node 695 1 0 0
node 758 1 0 0
node 873 1 0 0
node 934 1 0 0
node 1136 1 0 0
node 1191 1 0 0
node 1225 1 0 0
node 1350 1 0 0
node 1420 1 0 0
node 1454 1 0 0
node 1488 1 0 0
node 1550 1 0 0
node 1591 1 0 0
node 1626 2 0 0
node 1821 1 0 0
node 1868 2 0 0
node 1975 1 0 0
node 2010 1 0 0
node 2051 1 0 0
node 2192 1 0 0
node 2223 1 0 0
node 2280 1 0 0
node 2365 1 0 0
node 2390 4 0 0
node 2447 1 0 0
node 2570 1 0 0
node 2753 1 0 0
node 2783 1 0 0
node 2922 1 0 0
node 3065 1 0 0
node 3096 1 0 0
node 3185 1 0 0
node 3206 2 0 0
node 3236 1 0 0
node 3278 1 0 0
node 3303 1 0 0
node 3403 1 0 0
node 3528 1 0 0
node 3611 1 0 0
node 3652 1 0 0
node 3816 3 0 0
node 3850 1 0 0
node 4020 1 0 0
node 4056 1 0 0
node 4084 1 0 0
node 4114 1 0 0
node 4165 1 0 0
node 4273 1 0 0
node 4305 1 0 0
node 4345 1 0 0
node 4471 1 0 0
node 4502 1 0 0
node 4531 1 0 0
node 4609 1 0 0
node 4649 1 0 0
node 4684 1 0 0
node 4718 1 0 0
node 4752 1 0 0
node 4789 1 0 0
node 4889 1 0 0
node 4923 1 0 0
node 4959 1 0 0
node 5182 1 0 0
node 5213 1 0 0
node 5249 1 0 0
node 5388 1 0 0
node 5421 1 0 0
node 5451 1 0 0
node 5495 1 0 0
node 5620 1 0 0
node 5653 1 0 0
node 5685 1 0 0
node 5721 1 0 0
node 5757 1 0 0
node 5951 1 0 0
node 6039 1 0 0
node 6197 1 0 0
node 6231 1 0 0
node 6301 1 0 0
node 6339 1 0 0
node 6380 1 0 0
node 6404 1 0 0
node 6460 1 0 0
node 6497 1 0 0
node 6528 1 0 0
node 6560 1 0 0
node 6687 1 0 0
node 6781 1 0 0
node 6860 1 0 0
node 6969 1 0 0
node 7006 1 0 0
node 7064 1 0 0
node 7147 1 0 0
node 7214 1 0 0
node 7249 1 0 0
node 7309 1 0 0
node 7383 1 0 0
node 7644 1 0 0
node 7711 1 0 0
node 7781 1 0 0
node 7815 1 0 0
node 8033 1 0 0
node 8072 1 0 0
node 8145 1 0 0
node 8183 1 0 0
node 8215 1 0 0
node 8238 1 0 0
node 8339 1 0 0
node 8403 1 0 0
node 8501 1 0 0
node 8542 1 0 0
node 8573 1 0 0
node 8609 1 0 0
node 8643 1 0 0
node 8680 1 0 0
node 8833 1 0 0
node 8877 1 0 0
node 8915 1 0 0
node 8982 1 0 0
node 9215 1 0 0
node 9351 1 0 0
node 9396 1 0 0
node 9433 1 0 0
node 9525 1 0 0
node 9636 1 0 0
node 9681 1 0 0
gene 2 1 13 154530 0 1 154530 1
gene 2 2 13 749987 0 2 749987 1
gene 2 3 13 800000 0 3 800000 1
gene 2 4 13 -103731 0 4 -103731 0
gene 1 5 13 -63957 0 5 -63957 1
gene 3 6 13 -738587 0 6 -738587 1
gene 4 7 13 697731 0 7 697731 1
gene 1 8 13 259326 0 8 259326 1
gene 3 9 13 627584 0 9 627584 0
gene 4 10 13 -508416 0 10 -508416 1
gene 4 11 13 -800000 0 11 -800000 1
gene 3 12 13 209133 0 12 209133 1
gene 1 1 14 519632 0 13 519632 1
gene 2 2 14 -10182 0 14 -10182 0
gene 1 3 14 -513645 0 15 -513645 1
gene 3 4 14 -531528 0 16 -531528 1
gene 2 5 14 89337 0 17 89337 1
gene 4 6 14 166446 0 18 166446 1
gene 3 7 14 -191073 0 19 -191073 1
gene 3 8 14 83265 0 20 83265 1
gene 1 9 14 367752 0 21 367752 1
gene 1 10 14 -244095 0 22 -244095 1
gene 3 11 14 161127 0 23 161127 0
gene 4 12 14 -94701 0 24 -94701 0
gene 1 1 15 346252 0 25 346252 1
gene 2 2 15 -435063 0 26 -435063 1
gene 2 3 15 -532692 0 27 -532692 1
gene 3 4 15 -304563 0 28 -304563 1
gene 2 5 15 -398277 0 29 -398277 1
gene 2 6 15 -339759 0 30 -339759 1
gene 3 7 15 263220 0 31 263220 1
gene 4 8 15 -358278 0 32 -358278 0
gene 3 9 15 -232371 0 33 -232371 1
gene 1 10 15 131337 0 34 131337 1
gene 2 11 15 -409635 0 35 -409635 1
gene 2 12 15 174927 0 36 174927 1
gene 2 2 30 86394 0 68 86394 1
gene 2 30 14 50108 0 69 50108 1
gene 4 12 30 -243513 0 128 -243513 0
gene 4 13 14 553614 0 154 553614 1
gene 1 5 156 -220125 0 401 -220125 1
gene 1 156 13 -216738 0 402 -216738 1
gene 2 11 183 -87558 0 483 -87558 1
gene 2 183 15 474132 0 484 474132 1
gene 2 3 207 -398139 0 547 -398139 1
gene 2 207 13 83064 0 548 83064 0
gene 2 5 238 800000 0 628 800000 1
gene 2 238 15 -57249 0 629 -57249 0
gene 3 10 183 360363 0 685 360363 0
gene 3 9 207 98373 0 756 98373 1
gene 4 12 310 640283 0 820 640283 1
gene 4 310 30 561522 0 821 561522 0
gene 3 10 388 148611 0 1034 148611 0
gene 3 388 183 -1440 0 1035 -1440 1
gene 3 7 419 180720 0 1104 180720 0
gene 3 419 15 477702 0 1105 477702 1
gene 1 9 455 457161 0 1202 457161 1
gene 1 455 14 341544 0 1203 341544 1
gene 1 455 455 -800000 1 1275 -800000 1
gene 3 419 591 173232 0 1555 173232 1
gene 3 591 15 502968 0 1556 502968 0
gene 3 7 612 303567 0 1605 303567 1
gene 3 612 14 -186216 0 1606 -186216 0
gene 3 4 646 -560744 0 1691 -560744 1
gene 3 646 14 -580305 0 1692 -580305 0
gene 1 6 388 574325 0 1763 574325 1
gene 1 455 695 -442523 1 1828 -442523 1
gene 1 695 455 -61347 0 1829 -61347 1
gene 1 695 758 714686 0 1982 714686 1
gene 1 758 455 -5565 0 1983 -5565 1
gene 2 183 873 17061 0 2264 17061 1
gene 2 873 15 4740 0 2265 4740 1
gene 1 310 388 730703 0 2353 730703 1
gene 1 10 934 154989 0 2417 154989 0
gene 1 934 14 -159699 0 2418 -159699 1
gene 2 9 388 180957 0 2756 180957 1
gene 2 9 1136 -364272 0 2936 -364272 0
gene 2 1136 388 384741 0 2937 384741 1
gene 1 934 1191 800000 0 3070 800000 1
gene 1 1191 14 100413 0 3071 100413 1
gene 2 3 1225 247242 0 3155 247242 1
gene 2 1225 207 -366351 0 3156 -366351 1
gene 1 873 873 -635652 1 3296 -635652 1
gene 1 591 455 84954 0 3392 84954 0
gene 2 1136 1350 -23274 0 3472 -23274 1
gene 2 1350 388 19011 0 3473 19011 1
gene 2 238 238 -203988 1 3569 -203988 1
gene 3 10 1420 -280908 0 3648 -280908 1
gene 4 1420 388 -544673 0 3649 -544673 1
gene 3 4 1454 341277 0 3731 341277 1
gene 3 1454 15 187443 0 3732 187443 1
gene 3 612 1488 -391332 0 3812 -391332 1
gene 3 1488 14 69372 0 3813 69372 1
gene 3 388 1550 -800000 0 3976 -800000 1
gene 3 1550 183 627009 0 3977 627009 1
gene 3 1420 1591 -80922 0 4076 -80922 1
gene 3 1591 388 447498 0 4077 447498 1
gene 4 310 1626 235584 0 4165 235584 1
gene 4 1626 30 -800000 0 4166 -800000 0
gene 4 1550 419 185793 0 4260 185793 1
gene 1 455 1821 444210 0 4650 444210 1
gene 1 1821 14 -607248 0 4651 -607248 1
gene 1 5 1868 -264906 0 4778 -264906 1
gene 1 1868 156 268914 0 4779 268914 1
gene 1 183 183 -169602 1 4880 -169602 1
gene 4 1550 1550 -45081 1 4949 -45081 1
gene 3 1454 1975 545298 0 5033 545298 1
gene 3 1975 15 -727259 0 5034 -727259 1
gene 1 156 2010 269321 0 5118 269321 1
gene 1 2010 13 -276480 0 5119 -276480 1
gene 3 1550 2051 535431 0 5219 535431 1
gene 3 2051 183 -678164 0 5220 -678164 1
gene 3 612 612 -274706 1 5310 -274706 1
gene 1 183 2192 395355 1 5568 395355 1
gene 1 2192 183 -640415 0 5569 -640415 1
gene 1 310 2223 -536448 0 5641 -536448 1
gene 1 2223 388 -145719 0 5642 -145719 1
gene 3 419 2280 130062 0 5793 130062 1
gene 3 2280 591 -73374 0 5794 -73374 1
gene 3 591 2365 -12006 0 6011 -12006 1
gene 3 2365 15 -272442 0 6012 -272442 0
gene 4 1626 2390 397170 0 6075 397170 1
gene 4 2390 30 -22665 0 6076 -22665 1
gene 2 1136 2447 -800000 0 6225 -800000 1
gene 2 2447 1350 -330477 0 6226 -330477 0
gene 4 11 2570 323517 0 6534 323517 0
gene 4 2570 13 -191970 0 6535 -191970 0
gene 3 7 2753 690423 0 6991 690423 1
gene 3 2753 612 -3189 0 6992 -3189 0
gene 1 183 2783 370113 1 7072 370113 1
gene 1 2783 183 325887 0 7073 325887 1
gene 1 758 1591 459003 0 7387 459003 1
gene 1 2192 2922 -193053 0 7438 -193053 0
gene 1 2922 183 159846 0 7439 159846 1
gene 2 1454 1454 -625020 1 7652 -625020 1
gene 4 7 2192 -505719 0 7731 -505719 1
gene 1 2223 3065 217326 0 7809 217326 1
gene 1 3065 388 -15225 0 7810 -15225 0
gene 3 9 3096 684918 0 7884 684918 0
gene 3 3096 15 554673 0 7885 554673 0
gene 3 1136 1821 387027 0 7970 387027 0
gene 1 10 3185 110568 0 8106 110568 1
gene 1 3185 934 31947 0 8107 31947 0
gene 3 3096 3206 706367 0 8161 706367 0
gene 3 3206 15 -148380 0 8162 -148380 1
gene 4 6 3236 -402543 0 8245 -402543 1
gene 4 3236 14 790179 0 8246 790179 1
gene 2 1136 3278 115740 0 8347 115740 1
gene 2 3278 388 -800000 0 8348 -800000 1
gene 1 758 3303 533811 0 8414 533811 1
gene 1 3303 455 -335820 0 8415 -335820 1
gene 3 8 2447 308268 0 8513 308268 0
gene 1 591 591 -294900 1 8588 -294900 1
gene 3 12 3403 252036 0 8670 252036 1
gene 1 3403 13 111 0 8671 111 1
gene 4 7 3528 762752 0 8979 762752 1
gene 4 3528 2192 -464445 0 8980 -464445 1
gene 3 3096 612 428685 0 9082 428685 1
gene 3 612 3611 360525 1 9204 360525 1
gene 3 3611 612 -543504 0 9205 -543504 1
gene 4 1550 3652 -87006 1 9292 -87006 1
gene 4 3652 1550 299790 0 9293 299790 1
gene 1 2280 1454 467172 0 9594 467172 1
gene 1 183 3816 -64809 1 9727 -64809 1
gene 1 3816 2783 450444 0 9728 450444 0
gene 2 238 3850 -800000 1 9814 -800000 1
gene 2 3850 238 800000 0 9815 800000 1
gene 3 646 2365 -532308 0 9895 -532308 1
gene 4 2922 2922 435045 1 10151 435045 1
gene 4 11 4020 800000 0 10235 800000 1
gene 4 4020 2570 43518 0 10236 43518 1
gene 2 5 4056 -800000 0 10320 -800000 0
gene 2 4056 238 173562 0 10321 173562 1
gene 2 2 4084 -742356 0 10394 -742356 1
gene 2 4084 13 -34972 0 10395 -34972 1
gene 3 1975 4114 269781 0 10472 269781 1
gene 3 4114 15 277044 0 10473 277044 1
gene 4 7 4165 462365 0 10605 462365 1
gene 4 4165 13 -280404 0 10606 -280404 1
gene 1 2783 2570 -91350 0 10685 -91350 1
gene 1 2783 4273 562445 0 10874 562445 1
gene 1 4273 183 -488967 0 10875 -488967 1
gene 2 2447 4305 -234948 0 10952 -234948 1
gene 2 4305 1350 -663921 0 10953 -663921 1
gene 4 2570 4345 194640 0 11049 194640 1
gene 4 4345 13 -102702 0 11050 -102702 0
gene 4 156 15 -50970 0 11135 -50970 1
gene 1 3065 4471 -800000 0 11369 -800000 1
gene 1 4471 388 704672 0 11370 704672 1
gene 3 2365 4502 47955 0 11439 47955 0
gene 3 4502 15 443382 0 11440 443382 1
gene 1 591 4531 -660792 0 11513 -660792 1
gene 1 4531 455 -103782 0 11514 -103782 0
gene 2 238 4609 -569262 0 11693 -569262 1
gene 2 4609 15 -22206 0 11694 -22206 1
gene 2 2 4649 -243894 0 11787 -243894 1
gene 2 4649 15 -352961 0 11788 -352961 1
gene 3 7 4684 -121422 0 11871 -121422 1
gene 3 4684 419 66696 0 11872 66696 1
gene 2 873 4718 -153015 0 11956 -153015 1
gene 2 4718 15 -79308 0 11957 -79308 0
gene 2 183 4752 207369 0 12043 207369 1
gene 2 4752 873 292668 0 12044 292668 1
gene 2 3 4789 -86511 0 12139 -86511 1
gene 2 4789 207 -800000 0 12140 -800000 1
gene 1 455 4889 -141651 1 12394 -141651 1
gene 1 4889 695 20625 0 12395 20625 1
gene 3 9 4923 28767 0 12475 28767 0
gene 3 4923 3096 408582 0 12476 408582 1
gene 4 2390 4959 515406 0 12563 515406 0
gene 4 4959 30 -482490 0 12564 -482490 1
gene 2 646 4114 800000 0 12746 800000 0
gene 1 873 1975 287325 0 13072 287325 1
gene 1 2783 5182 187659 0 13143 187659 1
gene 1 5182 2570 -326463 0 13144 -326463 1
gene 4 3528 5213 222861 0 13231 222861 0
gene 4 5213 2192 318834 0 13232 318834 1
gene 3 8 5249 324084 0 13323 324084 1
gene 3 5249 14 108294 0 13324 108294 1
gene 2 310 183 268056 0 13578 268056 1
gene 2 3 5388 -526665 0 13649 -526665 0
gene 2 5388 1225 -183447 0 13650 -183447 0
gene 4 2390 5421 324585 0 13728 324585 1
gene 4 5421 30 -82211 0 13729 -82211 1
gene 3 1454 5451 -295290 0 13805 -295290 1
gene 3 5451 15 -531150 0 13806 -531150 1
gene 1 5 5495 -387249 0 13911 -387249 0
gene 1 5495 1868 -61188 0 13912 -61188 0
gene 2 5 2390 -687759 0 13988 -687759 1
gene 1 873 5620 -21357 1 14222 -21357 1
gene 1 5620 873 -421995 0 14223 -421995 1
gene 3 1136 5653 350904 0 14306 350904 0
gene 3 5653 1821 570138 0 14307 570138 1
gene 2 5 5685 -30348 0 14376 -30348 1
gene 2 5685 2390 247779 0 14377 247779 1
gene 2 3 5721 90477 0 14466 90477 1
gene 2 5721 5388 -167388 0 14467 -167388 1
gene 4 12 5757 102888 0 14550 102888 1
gene 4 5757 14 -523136 0 14551 -523136 1
gene 2 3236 1591 -110115 0 14870 -110115 1
gene 2 183 4305 355392 1 14958 355392 1
gene 3 3206 5951 26406 0 15049 26406 1
gene 3 5951 15 190374 0 15050 190374 0
gene 3 4502 6039 -765321 0 15254 -765321 1
gene 3 6039 15 -276216 0 15255 -276216 1
gene 1 5495 6197 -602541 0 15639 -602541 1
gene 1 6197 1868 -107922 0 15640 -107922 0
gene 3 591 6231 -165924 0 15728 -165924 1
gene 3 6231 15 -252756 0 15729 -252756 0
gene 2 3 6301 -27882 0 15898 -27882 1
gene 2 6301 4789 -787590 0 15899 -787590 1
gene 2 2 6339 -215832 0 15986 -215832 0
gene 2 6339 4649 -181833 0 15987 -181833 1
gene 4 7 6380 209904 0 16093 209904 1
gene 4 6380 2192 89718 0 16094 89718 1
gene 1 5 6404 608196 0 16156 608196 1
gene 1 6404 5495 800000 0 16157 800000 1
gene 4 12 4345 -181425 0 16229 -181425 1
gene 2 2 6460 -232293 0 16302 -232293 1
gene 2 6460 6339 548694 0 16303 548694 1
gene 3 1136 6497 -189030 0 16393 -189030 1
gene 3 6497 5653 -544004 0 16394 -544004 1
gene 4 8 6528 -219666 0 16468 -219666 0
gene 4 6528 15 -754034 0 16469 -754034 1
gene 3 9 6560 -257841 0 16550 -257841 1
gene 3 6560 15 136509 0 16551 136509 0
gene 2 5951 4959 428574 0 16811 428574 1
gene 2 2 6687 800000 0 16868 800000 1
gene 2 6687 14 466719 0 16869 466719 1
gene 1 1821 6781 266757 0 17101 266757 1
gene 1 6781 14 800000 0 17102 800000 1
gene 1 6197 6860 560088 0 17299 560088 1
gene 1 6860 1868 -163545 0 17300 -163545 1
gene 1 3816 6969 55383 0 17575 55383 1
gene 1 6969 2783 74661 0 17576 74661 0
gene 2 5 7006 581865 0 17662 581865 1
gene 2 7006 4056 -147867 0 17663 -147867 1
gene 4 2051 2365 -56358 0 17737 -56358 1
gene 3 9 7064 -130170 0 17812 -130170 0
gene 3 7064 6560 -363624 0 17813 -363624 1
gene 3 2922 3403 -258147 0 17895 -258147 1
gene 1 5620 7147 -104028 0 18035 -104028 1
gene 1 7147 873 431748 0 18036 431748 1
gene 4 12 7214 -293682 0 18210 -293682 1
gene 4 7214 4345 467355 0 18211 467355 1
gene 2 5388 7249 330189 0 18295 330189 0
gene 2 7249 1225 -76038 0 18296 -76038 1
gene 2 9 7309 -83190 0 18452 -83190 1
gene 2 7309 1136 -49584 0 18453 -49584 1
gene 3 2051 7383 64665 0 18629 64665 1
gene 3 7383 183 -117264 0 18630 -117264 1
gene 4 5757 7644 -87525 0 19306 -87525 1
gene 4 7644 14 135729 0 19307 135729 1
gene 3 3096 7711 -280278 0 19484 -280278 1
gene 3 7711 3206 59256 0 19485 59256 1
gene 3 11 7781 -349800 0 19652 -349800 1
gene 3 7781 14 165519 0 19653 165519 1
gene 4 4345 7815 291987 0 19737 291987 1
gene 4 7815 13 87366 0 19738 87366 1
gene 4 4923 7147 -800000 0 20021 -800000 1
gene 2 207 8033 -97251 0 20299 -97251 1
gene 2 8033 13 426201 0 20300 426201 1
gene 1 3185 8072 -166419 0 20398 -166419 1
gene 1 8072 934 -173130 0 20399 -173130 1
gene 3 1136 8145 189894 0 20574 189894 1
gene 3 8145 1821 451158 0 20575 451158 0
gene 4 12 8183 422181 0 20667 422181 1
gene 4 8183 30 547311 0 20668 547311 1
gene 3 9 8215 -145272 0 20750 -145272 1
gene 3 8215 7064 589467 0 20751 589467 1
gene 3 646 8238 -800000 0 20821 -800000 1
gene 3 8238 14 52002 0 20822 52002 1
gene 3 6231 8339 199614 0 21066 199614 1
gene 3 8339 15 294051 0 21067 294051 1
gene 4 2390 8403 -126165 0 21242 -126165 1
gene 4 8403 4959 -800000 0 21243 -800000 1
gene 2 5388 8501 -248972 0 21487 -248972 1
gene 2 8501 1225 -181305 0 21488 -181305 1
gene 2 2 8542 -131589 0 21587 -131589 1
gene 2 8542 14 460014 0 21588 460014 1
gene 3 2365 8573 548958 0 21666 548958 1
gene 3 8573 4502 -800000 0 21667 -800000 1
gene 1 4531 8609 -77021 0 21755 -77021 1
gene 1 8609 455 101190 0 21756 101190 1
gene 2 5388 8643 521502 0 21843 521502 1
gene 2 8643 7249 702030 0 21844 702030 1
gene 3 9 8680 -390534 0 21930 -390534 1
gene 3 8680 4923 44967 0 21931 44967 1
gene 4 6301 6301 431409 1 22039 431409 1
gene 4 419 8643 209157 0 22120 209157 1
gene 1 7006 5182 254616 0 22220 254616 1
gene 3 5951 8833 -383988 0 22305 -383988 1
gene 3 8833 15 -84309 0 22306 -84309 1
gene 4 2570 8877 -189714 0 22406 -189714 1
gene 4 8877 13 206688 0 22407 206688 1
gene 2 4 8915 -17898 0 22500 -17898 1
gene 2 8915 13 -186009 0 22501 -186009 1
gene 1 6969 8982 -119700 0 22676 -119700 1
gene 1 8982 2783 -144783 0 22677 -144783 1
gene 1 873 5757 -113766 0 22882 -113766 1
gene 1 1191 1191 148314 1 23110 148314 1
gene 3 3528 5653 -47736 0 23193 -47736 1
gene 3 8145 9215 -425423 0 23282 -425423 1
gene 3 9215 1821 -693765 0 23283 -693765 1
gene 2 388 419 -336168 0 23500 -336168 1
gene 3 7147 8915 -129816 0 23559 -129816 1
gene 3 2753 9351 168951 0 23639 168951 1
gene 3 9351 612 -364695 0 23640 -364695 1
gene 1 8982 8033 291249 0 23712 291249 1
gene 3 8 9396 -60492 0 23770 -60492 1
gene 3 9396 2447 757496 0 23771 757496 1
gene 2 646 9433 -97116 0 23859 -97116 1
gene 2 9433 4114 298023 0 23860 298023 1
gene 4 3528 9525 -176621 0 24082 -176621 1
gene 4 9525 5213 480543 0 24083 480543 1
gene 1 591 9636 17638 0 24363 17638 1
gene 1 9636 455 152166 0 24364 152166 1
gene 3 6560 9681 1 0 24482 1 1
gene 3 9681 15 30129 0 24483 30129 1
gene 3 455 4165 -70730 0 24679 -70730 1
gene 4 6039 9636 -68140 0 24754 -68140 1
genomeend 14


/* Organism #15 Fitness: 190.000000 Time: 0 */
/* Position #15*/
#1 x: 55 y: 25
#2 x: 62 y: 23
#3 x: 30 y: 16
#4 x: 18 y: 74
#5 x: 37 y: 75
#6 x: 85 y: 83
genomestart 15
trait 1 0.000000 32719.000000 42187.000000 0.000000 0.000000 0.000000 0.000000 100000.000000 trait 2 2.000000 0.000000 0.000000 0.000000 0.000000 0.000000 0.000000 0.000000 trait 3 0.000000 0.000000 0.000000 0.000000 52930.000000 0.000000 0.000000 0.000000 trait 4 0.000000 0.000000 0.000000 97763.000000 11778.000000 0.000000 0.000000 0.000000 node 1 2 1 3
node 2 3 1 1
node 3 1 1 1
node 4 2 1 1
node 5 4 1 1
node 6 3 1 1
node 7 2 1 1
node 8 3 1 1
node 9 1 1 1
node 10 1 1 1
node 11 1 1 1
node 12 1 1 1
node 13 3 0 2
node 14 3 0 2
node 15 2 0 2
node 30 1 0 0
node 156 1 0 0
node 183 1 0 0
node 207 1 0 0
node 238 1 0 0
node 310 1 0 0
node 388 4 0 0
node 419 1 0 0
node 455 1 0 0
node 591 1 0 0
node 612 1 0 0
node 646 1 0 0
node 695 1 0 0
node 758 1 0 0
node 873 1 0 0
node 934 1 0 0
node 1136 1 0 0
node 1191 1 0 0
node 1225 1 0 0
node 1350 1 0 0
node 1420 1 0 0
node 1454 1 0 0
node 1488 1 0 0
node 1550 1 0 0
node 1591 1 0 0
node 1626 2 0 0
node 1821 1 0 0
node 1868 2 0 0
node 1975 1 0 0
node 2010 1 0 0
node 2051 1 0 0
node 2192 1 0 0
node 2223 1 0 0
node 2280 1 0 0
node 2365 1 0 0
node 2390 4 0 0
node 2447 1 0 0
node 2570 1 0 0
node 2753 1 0 0
node 2783 1 0 0
node 2922 1 0 0
node 3065 1 0 0
node 3096 1 0 0
node 3185 1 0 0
node 3206 2 0 0
node 3236 1 0 0
node 3278 1 0 0
node 3303 1 0 0
node 3403 1 0 0
node 3528 1 0 0
node 3611 1 0 0
node 3652 1 0 0
node 3816 3 0 0
node 3850 1 0 0
node 4020 1 0 0
node 4056 1 0 0
node 4084 1 0 0
node 4114 1 0 0
node 4165 1 0 0
node 4273 1 0 0
node 4305 1 0 0
node 4345 1 0 0
node 4471 1 0 0
node 4502 1 0 0
node 4531 1 0 0
node 4609 1 0 0
node 4649 1 0 0
node 4684 1 0 0
node 4718 1 0 0
node 4752 1 0 0
node 4789 1 0 0
node 4889 1 0 0
node 4923 1 0 0
node 4959 1 0 0
node 5182 1 0 0
node 5213 1 0 0
node 5249 1 0 0
node 5388 1 0 0
node 5421 1 0 0
node 5451 1 0 0
node 5495 1 0 0
node 5620 1 0 0
node 5653 1 0 0
node 5685 1 0 0
node 5721 1 0 0
node 5757 1 0 0
node 5951 1 0 0
node 6039 1 0 0
node 6197 1 0 0
node 6231 1 0 0
node 6301 1 0 0
node 6339 1 0 0
node 6380 1 0 0
node 6404 1 0 0
node 6460 1 0 0
node 6497 1 0 0
node 6528 1 0 0
node 6560 1 0 0
node 6687 1 0 0
node 6781 1 0 0
node 6860 1 0 0
node 6969 1 0 0
node 7006 1 0 0
node 7064 1 0 0
node 7147 1 0 0
node 7214 1 0 0
node 7249 1 0 0
node 7309 1 0 0
node 7383 1 0 0
node 7644 1 0 0
node 7711 1 0 0
node 7781 1 0 0
node 7815 1 0 0
node 8033 1 0 0
node 8072 1 0 0
node 8145 1 0 0
node 8183 1 0 0
node 8215 1 0 0
node 8238 1 0 0
node 8339 1 0 0
node 8403 1 0 0
node 8501 1 0 0
node 8542 1 0 0
node 8573 1 0 0
node 8609 1 0 0
node 8643 1 0 0
node 8680 1 0 0
node 8833 1 0 0
node 8877 1 0 0
node 8915 1 0 0
node 8982 1 0 0
node 9215 1 0 0
node 9351 1 0 0
node 9396 1 0 0
node 9433 1 0 0
node 9525 1 0 0
node 9636 1 0 0
node 9681 1 0 0
gene 2 1 13 154530 0 1 154530 1
gene 2 2 13 749987 0 2 749987 1
gene 2 3 13 800000 0 3 800000 1
gene 2 4 13 -103731 0 4 -103731 0
gene 1 5 13 -63957 0 5 -63957 1
gene 3 6 13 -738587 0 6 -738587 1
gene 4 7 13 697731 0 7 697731 1
gene 1 8 13 259326 0 8 259326 1
gene 3 9 13 627584 0 9 627584 0
gene 4 10 13 -508416 0 10 -508416 1
gene 4 11 13 -800000 0 11 -800000 1
gene 3 12 13 209133 0 12 209133 1
gene 1 1 14 519632 0 13 519632 1
gene 2 2 14 -10182 0 14 -10182 0
gene 1 3 14 -513645 0 15 -513645 1
gene 3 4 14 -531528 0 16 -531528 1
gene 2 5 14 89337 0 17 89337 1
gene 4 6 14 166446 0 18 166446 1
gene 3 7 14 -191073 0 19 -191073 1
gene 3 8 14 83265 0 20 83265 1
gene 1 9 14 367752 0 21 367752 1
gene 1 10 14 -244095 0 22 -244095 1
gene 3 11 14 161127 0 23 161127 0
gene 4 12 14 -94701 0 24 -94701 0
gene 1 1 15 346252 0 25 346252 1
gene 2 2 15 -435063 0 26 -435063 1
gene 2 3 15 -532692 0 27 -532692 1
gene 3 4 15 -304563 0 28 -304563 1
gene 2 5 15 -398277 0 29 -398277 1
gene 2 6 15 -339759 0 30 -339759 1
gene 3 7 15 263220 0 31 263220 1
gene 4 8 15 -358278 0 32 -358278 0
gene 3 9 15 -232371 0 33 -232371 1
gene 1 10 15 131337 0 34 131337 1
gene 2 11 15 -409635 0 35 -409635 1
gene 2 12 15 174927 0 36 174927 1
gene 2 2 30 86394 0 68 86394 1
gene 2 30 14 50108 0 69 50108 1
gene 4 12 30 -243513 0 128 -243513 0
gene 4 13 14 553614 0 154 553614 1
gene 1 5 156 -220125 0 401 -220125 1
gene 1 156 13 -216738 0 402 -216738 1
gene 2 11 183 -87558 0 483 -87558 1
gene 2 183 15 474132 0 484 474132 1
gene 2 3 207 -398139 0 547 -398139 1
gene 2 207 13 83064 0 548 83064 0
gene 2 5 238 800000 0 628 800000 1
gene 2 238 15 -57249 0 629 -57249 0
gene 3 10 183 360363 0 685 360363 0
gene 3 9 207 98373 0 756 98373 1
gene 4 12 310 640283 0 820 640283 1
gene 4 310 30 561522 0 821 561522 0
gene 3 10 388 148611 0 1034 148611 0
gene 3 388 183 -1440 0 1035 -1440 1
gene 3 7 419 180720 0 1104 180720 0
gene 3 419 15 477702 0 1105 477702 1
gene 1 9 455 457161 0 1202 457161 1
gene 1 455 14 341544 0 1203 341544 1
gene 1 455 455 -800000 1 1275 -800000 1
gene 3 419 591 173232 0 1555 173232 1
gene 3 591 15 502968 0 1556 502968 0
gene 3 7 612 303567 0 1605 303567 1
gene 3 612 14 -186216 0 1606 -186216 0
gene 3 4 646 -560744 0 1691 -560744 1
gene 3 646 14 -580305 0 1692 -580305 0
gene 1 6 388 574325 0 1763 574325 1
gene 1 455 695 -442523 1 1828 -442523 1
gene 1 695 455 -61347 0 1829 -61347 1
gene 1 695 758 714686 0 1982 714686 1
gene 1 758 455 -5565 0 1983 -5565 1
gene 2 183 873 17061 0 2264 17061 1
gene 2 873 15 4740 0 2265 4740 1
gene 1 310 388 730703 0 2353 730703 1
gene 1 10 934 154989 0 2417 154989 0
gene 1 934 14 -159699 0 2418 -159699 1
gene 2 9 388 180957 0 2756 180957 1
gene 2 9 1136 -364272 0 2936 -364272 0
gene 2 1136 388 384741 0 2937 384741 1
gene 1 934 1191 800000 0 3070 800000 1
gene 1 1191 14 100413 0 3071 100413 1
gene 2 3 1225 247242 0 3155 247242 1
gene 2 1225 207 -366351 0 3156 -366351 1
gene 1 873 873 -635652 1 3296 -635652 1
gene 1 591 455 84954 0 3392 84954 0
gene 2 1136 1350 -23274 0 3472 -23274 1
gene 2 1350 388 19011 0 3473 19011 1
gene 2 238 238 -203988 1 3569 -203988 1
gene 3 10 1420 -280908 0 3648 -280908 1
gene 4 1420 388 -544673 0 3649 -544673 1
gene 3 4 1454 341277 0 3731 341277 1
gene 3 1454 15 187443 0 3732 187443 1
gene 3 612 1488 -391332 0 3812 -391332 1
gene 3 1488 14 69372 0 3813 69372 1
gene 3 388 1550 -800000 0 3976 -800000 1
gene 3 1550 183 627009 0 3977 627009 1
gene 3 1420 1591 -80922 0 4076 -80922 1
gene 3 1591 388 447498 0 4077 447498 1
gene 4 310 1626 235584 0 4165 235584 1
gene 4 1626 30 -800000 0 4166 -800000 0
gene 4 1550 419 185793 0 4260 185793 1
gene 1 455 1821 444210 0 4650 444210 1
gene 1 1821 14 -607248 0 4651 -607248 1
gene 1 5 1868 -264906 0 4778 -264906 1
gene 1 1868 156 268914 0 4779 268914 1
gene 1 183 183 -169602 1 4880 -169602 1
gene 4 1550 1550 -45081 1 4949 -45081 1
gene 3 1454 1975 545298 0 5033 545298 1
gene 3 1975 15 -727259 0 5034 -727259 1
gene 1 156 2010 269321 0 5118 269321 1
gene 1 2010 13 -276480 0 5119 -276480 1
gene 3 1550 2051 535431 0 5219 535431 1
gene 3 2051 183 -678164 0 5220 -678164 1
gene 3 612 612 -274706 1 5310 -274706 1
gene 1 183 2192 395355 1 5568 395355 1
gene 1 2192 183 -640415 0 5569 -640415 1
gene 1 310 2223 -536448 0 5641 -536448 1
gene 1 2223 388 -145719 0 5642 -145719 1
gene 3 419 2280 130062 0 5793 130062 1
gene 3 2280 591 -73374 0 5794 -73374 1
gene 3 591 2365 -12006 0 6011 -12006 1
gene 3 2365 15 -272442 0 6012 -272442 0
gene 4 1626 2390 397170 0 6075 397170 1
gene 4 2390 30 -22665 0 6076 -22665 1
gene 2 1136 2447 -800000 0 6225 -800000 1
gene 2 2447 1350 -330477 0 6226 -330477 0
gene 4 11 2570 323517 0 6534 323517 0
gene 4 2570 13 -191970 0 6535 -191970 0
gene 3 7 2753 690423 0 6991 690423 1
gene 3 2753 612 -3189 0 6992 -3189 0
gene 1 183 2783 370113 1 7072 370113 1
gene 1 2783 183 325887 0 7073 325887 1
gene 1 758 1591 459003 0 7387 459003 1
gene 1 2192 2922 -193053 0 7438 -193053 0
gene 1 2922 183 159846 0 7439 159846 1
gene 2 1454 1454 -625020 1 7652 -625020 1
gene 4 7 2192 -505719 0 7731 -505719 1
gene 1 2223 3065 217326 0 7809 217326 1
gene 1 3065 388 -15225 0 7810 -15225 0
gene 3 9 3096 684918 0 7884 684918 0
gene 3 3096 15 554673 0 7885 554673 0
gene 3 1136 1821 387027 0 7970 387027 0
gene 1 10 3185 110568 0 8106 110568 1
gene 1 3185 934 31947 0 8107 31947 0
gene 3 3096 3206 706367 0 8161 706367 0
gene 3 3206 15 -148380 0 8162 -148380 1
gene 4 6 3236 -402543 0 8245 -402543 1
gene 4 3236 14 790179 0 8246 790179 1
gene 2 1136 3278 115740 0 8347 115740 1
gene 2 3278 388 -800000 0 8348 -800000 1
gene 1 758 3303 533811 0 8414 533811 1
gene 1 3303 455 -335820 0 8415 -335820 1
gene 3 8 2447 308268 0 8513 308268 0
gene 1 591 591 -294900 1 8588 -294900 1
gene 3 12 3403 252036 0 8670 252036 1
gene 1 3403 13 111 0 8671 111 1
gene 4 7 3528 762752 0 8979 762752 1
gene 4 3528 2192 -464445 0 8980 -464445 1
gene 3 3096 612 428685 0 9082 428685 1
gene 3 612 3611 360525 1 9204 360525 1
gene 3 3611 612 -543504 0 9205 -543504 1
gene 4 1550 3652 -87006 1 9292 -87006 1
gene 4 3652 1550 299790 0 9293 299790 1
gene 1 2280 1454 467172 0 9594 467172 1
gene 1 183 3816 -64809 1 9727 -64809 1
gene 1 3816 2783 450444 0 9728 450444 0
gene 2 238 3850 -800000 1 9814 -800000 1
gene 2 3850 238 800000 0 9815 800000 1
gene 3 646 2365 -532308 0 9895 -532308 1
gene 4 2922 2922 435045 1 10151 435045 1
gene 4 11 4020 800000 0 10235 800000 1
gene 4 4020 2570 43518 0 10236 43518 1
gene 2 5 4056 -800000 0 10320 -800000 0
gene 2 4056 238 173562 0 10321 173562 1
gene 2 2 4084 -742356 0 10394 -742356 1
gene 2 4084 13 -34972 0 10395 -34972 1
gene 3 1975 4114 269781 0 10472 269781 1
gene 3 4114 15 277044 0 10473 277044 1
gene 4 7 4165 462365 0 10605 462365 1
gene 4 4165 13 -280404 0 10606 -280404 1
gene 1 2783 2570 -91350 0 10685 -91350 1
gene 1 2783 4273 562445 0 10874 562445 1
gene 1 4273 183 -488967 0 10875 -488967 1
gene 2 2447 4305 -234948 0 10952 -234948 1
gene 2 4305 1350 -663921 0 10953 -663921 1
gene 4 2570 4345 194640 0 11049 194640 1
gene 4 4345 13 -102702 0 11050 -102702 0
gene 4 156 15 -50970 0 11135 -50970 1
gene 1 3065 4471 -800000 0 11369 -800000 1
gene 1 4471 388 704672 0 11370 704672 1
gene 3 2365 4502 47955 0 11439 47955 0
gene 3 4502 15 443382 0 11440 443382 1
gene 1 591 4531 -660792 0 11513 -660792 1
gene 1 4531 455 -103782 0 11514 -103782 0
gene 2 238 4609 -569262 0 11693 -569262 1
gene 2 4609 15 -22206 0 11694 -22206 1
gene 2 2 4649 -243894 0 11787 -243894 1
gene 2 4649 15 -352961 0 11788 -352961 1
gene 3 7 4684 -121422 0 11871 -121422 1
gene 3 4684 419 66696 0 11872 66696 1
gene 2 873 4718 -153015 0 11956 -153015 1
gene 2 4718 15 -79308 0 11957 -79308 0
gene 2 183 4752 207369 0 12043 207369 1
gene 2 4752 873 292668 0 12044 292668 1
gene 2 3 4789 -86511 0 12139 -86511 1
gene 2 4789 207 -800000 0 12140 -800000 1
gene 1 455 4889 -141651 1 12394 -141651 1
gene 1 4889 695 20625 0 12395 20625 1
gene 3 9 4923 28767 0 12475 28767 0
gene 3 4923 3096 408582 0 12476 408582 1
gene 4 2390 4959 515406 0 12563 515406 0
gene 4 4959 30 -482490 0 12564 -482490 1
gene 2 646 4114 800000 0 12746 800000 0
gene 1 873 1975 287325 0 13072 287325 1
gene 1 2783 5182 187659 0 13143 187659 1
gene 1 5182 2570 -326463 0 13144 -326463 1
gene 4 3528 5213 222861 0 13231 222861 0
gene 4 5213 2192 318834 0 13232 318834 1
gene 3 8 5249 324084 0 13323 324084 1
gene 3 5249 14 108294 0 13324 108294 1
gene 2 310 183 268056 0 13578 268056 1
gene 2 3 5388 -526665 0 13649 -526665 0
gene 2 5388 1225 -183447 0 13650 -183447 0
gene 4 2390 5421 324585 0 13728 324585 1
gene 4 5421 30 -82211 0 13729 -82211 1
gene 3 1454 5451 -295290 0 13805 -295290 1
gene 3 5451 15 -531150 0 13806 -531150 1
gene 1 5 5495 -387249 0 13911 -387249 0
gene 1 5495 1868 -61188 0 13912 -61188 0
gene 2 5 2390 -687759 0 13988 -687759 1
gene 1 873 5620 -21357 1 14222 -21357 1
gene 1 5620 873 -421995 0 14223 -421995 1
gene 3 1136 5653 350904 0 14306 350904 0
gene 3 5653 1821 570138 0 14307 570138 1
gene 2 5 5685 -30348 0 14376 -30348 1
gene 2 5685 2390 247779 0 14377 247779 1
gene 2 3 5721 90477 0 14466 90477 1
gene 2 5721 5388 -167388 0 14467 -167388 1
gene 4 12 5757 102888 0 14550 102888 1
gene 4 5757 14 -523136 0 14551 -523136 1
gene 2 3236 1591 -110115 0 14870 -110115 1
gene 2 183 4305 355392 1 14958 355392 1
gene 3 3206 5951 26406 0 15049 26406 1
gene 3 5951 15 190374 0 15050 190374 0
gene 3 4502 6039 -765321 0 15254 -765321 1
gene 3 6039 15 -276216 0 15255 -276216 1
gene 1 5495 6197 -602541 0 15639 -602541 1
gene 1 6197 1868 -107922 0 15640 -107922 0
gene 3 591 6231 -165924 0 15728 -165924 1
gene 3 6231 15 -252756 0 15729 -252756 0
gene 2 3 6301 -27882 0 15898 -27882 1
gene 2 6301 4789 -787590 0 15899 -787590 1
gene 2 2 6339 -215832 0 15986 -215832 0
gene 2 6339 4649 -181833 0 15987 -181833 1
gene 4 7 6380 209904 0 16093 209904 1
gene 4 6380 2192 89718 0 16094 89718 1
gene 1 5 6404 608196 0 16156 608196 1
gene 1 6404 5495 800000 0 16157 800000 1
gene 4 12 4345 -181425 0 16229 -181425 1
gene 2 2 6460 -232293 0 16302 -232293 1
gene 2 6460 6339 548694 0 16303 548694 1
gene 3 1136 6497 -189030 0 16393 -189030 1
gene 3 6497 5653 -544004 0 16394 -544004 1
gene 4 8 6528 -219666 0 16468 -219666 0
gene 4 6528 15 -754034 0 16469 -754034 1
gene 3 9 6560 -257841 0 16550 -257841 1
gene 3 6560 15 136509 0 16551 136509 0
gene 2 5951 4959 428574 0 16811 428574 1
gene 2 2 6687 800000 0 16868 800000 1
gene 2 6687 14 466719 0 16869 466719 1
gene 1 1821 6781 266757 0 17101 266757 1
gene 1 6781 14 800000 0 17102 800000 1
gene 1 6197 6860 560088 0 17299 560088 1
gene 1 6860 1868 -163545 0 17300 -163545 1
gene 1 3816 6969 55383 0 17575 55383 1
gene 1 6969 2783 74661 0 17576 74661 0
gene 2 5 7006 581865 0 17662 581865 1
gene 2 7006 4056 -147867 0 17663 -147867 1
gene 4 2051 2365 -56358 0 17737 -56358 1
gene 3 9 7064 -130170 0 17812 -130170 0
gene 3 7064 6560 -363624 0 17813 -363624 1
gene 3 2922 3403 -258147 0 17895 -258147 1
gene 1 5620 7147 -104028 0 18035 -104028 1
gene 1 7147 873 431748 0 18036 431748 1
gene 4 12 7214 -293682 0 18210 -293682 1
gene 4 7214 4345 467355 0 18211 467355 1
gene 2 5388 7249 330189 0 18295 330189 0
gene 2 7249 1225 -76038 0 18296 -76038 1
gene 2 9 7309 -83190 0 18452 -83190 1
gene 2 7309 1136 -49584 0 18453 -49584 1
gene 3 2051 7383 64665 0 18629 64665 1
gene 3 7383 183 -117264 0 18630 -117264 1
gene 4 5757 7644 -87525 0 19306 -87525 1
gene 4 7644 14 135729 0 19307 135729 1
gene 3 3096 7711 -280278 0 19484 -280278 1
gene 3 7711 3206 59256 0 19485 59256 1
gene 3 11 7781 -349800 0 19652 -349800 1
gene 3 7781 14 165519 0 19653 165519 1
gene 4 4345 7815 291987 0 19737 291987 1
gene 4 7815 13 87366 0 19738 87366 1
gene 4 4923 7147 -800000 0 20021 -800000 1
gene 2 207 8033 -97251 0 20299 -97251 1
gene 2 8033 13 426201 0 20300 426201 1
gene 1 3185 8072 -166419 0 20398 -166419 1
gene 1 8072 934 -173130 0 20399 -173130 1
gene 3 1136 8145 189894 0 20574 189894 1
gene 3 8145 1821 451158 0 20575 451158 0
gene 4 12 8183 422181 0 20667 422181 1
gene 4 8183 30 547311 0 20668 547311 1
gene 3 9 8215 -145272 0 20750 -145272 1
gene 3 8215 7064 589467 0 20751 589467 1
gene 3 646 8238 -800000 0 20821 -800000 1
gene 3 8238 14 52002 0 20822 52002 1
gene 3 6231 8339 199614 0 21066 199614 1
gene 3 8339 15 294051 0 21067 294051 1
gene 4 2390 8403 -126165 0 21242 -126165 1
gene 4 8403 4959 -800000 0 21243 -800000 1
gene 2 5388 8501 -248972 0 21487 -248972 1
gene 2 8501 1225 -181305 0 21488 -181305 1
gene 2 2 8542 -131589 0 21587 -131589 1
gene 2 8542 14 460014 0 21588 460014 1
gene 3 2365 8573 548958 0 21666 548958 1
gene 3 8573 4502 -800000 0 21667 -800000 1
gene 1 4531 8609 -77021 0 21755 -77021 1
gene 1 8609 455 101190 0 21756 101190 1
gene 2 5388 8643 521502 0 21843 521502 1
gene 2 8643 7249 702030 0 21844 702030 1
gene 3 9 8680 -390534 0 21930 -390534 1
gene 3 8680 4923 44967 0 21931 44967 1
gene 4 6301 6301 431409 1 22039 431409 1
gene 4 419 8643 209157 0 22120 209157 1
gene 1 7006 5182 254616 0 22220 254616 1
gene 3 5951 8833 -383988 0 22305 -383988 1
gene 3 8833 15 -84309 0 22306 -84309 1
gene 4 2570 8877 -189714 0 22406 -189714 1
gene 4 8877 13 206688 0 22407 206688 1
gene 2 4 8915 -17898 0 22500 -17898 1
gene 2 8915 13 -186009 0 22501 -186009 1
gene 1 6969 8982 -119700 0 22676 -119700 1
gene 1 8982 2783 -144783 0 22677 -144783 1
gene 1 873 5757 -113766 0 22882 -113766 1
gene 1 1191 1191 148314 1 23110 148314 1
gene 3 3528 5653 -47736 0 23193 -47736 1
gene 3 8145 9215 -425423 0 23282 -425423 1
gene 3 9215 1821 -693765 0 23283 -693765 1
gene 2 388 419 -336168 0 23500 -336168 1
gene 3 7147 8915 -129816 0 23559 -129816 1
gene 3 2753 9351 168951 0 23639 168951 1
gene 3 9351 612 -364695 0 23640 -364695 1
gene 1 8982 8033 291249 0 23712 291249 1
gene 3 8 9396 -60492 0 23770 -60492 1
gene 3 9396 2447 757496 0 23771 757496 1
gene 2 646 9433 -97116 0 23859 -97116 1
gene 2 9433 4114 298023 0 23860 298023 1
gene 4 3528 9525 -176621 0 24082 -176621 1
gene 4 9525 5213 480543 0 24083 480543 1
gene 1 591 9636 17638 0 24363 17638 1
gene 1 9636 455 152166 0 24364 152166 1
gene 3 6560 9681 1 0 24482 1 1
gene 3 9681 15 30129 0 24483 30129 1
gene 3 455 4165 -70730 0 24679 -70730 1
gene 2 934 8877 66408 0 24755 66408 1
genomeend 15


/* Organism #18 Fitness: 210.000000 Time: 0 */
/* Position #18*/
#1 x: 43 y: 20
#2 x: 36 y: 31
#3 x: 59 y: 18
#4 x: 77 y: 80
#5 x: 33 y: 68
#6 x: 23 y: 82
genomestart 18
trait 1 0.000000 32719.000000 42187.000000 0.000000 0.000000 0.000000 0.000000 100000.000000 trait 2 2.000000 0.000000 0.000000 0.000000 0.000000 0.000000 0.000000 0.000000 trait 3 0.000000 0.000000 0.000000 0.000000 52930.000000 0.000000 0.000000 0.000000 trait 4 2.000000 22224.000000 0.000000 97763.000000 0.000000 0.000000 43000.000000 0.000000 node 1 2 1 3
node 2 3 1 1
node 3 1 1 1
node 4 2 1 1
node 5 4 1 1
node 6 3 1 1
node 7 2 1 1
node 8 3 1 1
node 9 1 1 1
node 10 1 1 1
node 11 1 1 1
node 12 1 1 1
node 13 3 0 2
node 14 3 0 2
node 15 2 0 2
node 30 1 0 0
node 156 1 0 0
node 183 1 0 0
node 207 1 0 0
node 238 1 0 0
node 310 1 0 0
node 388 1 0 0
node 419 1 0 0
node 455 1 0 0
node 591 1 0 0
node 612 1 0 0
node 646 1 0 0
node 695 1 0 0
node 758 1 0 0
node 873 1 0 0
node 934 1 0 0
node 1136 1 0 0
node 1191 1 0 0
node 1225 1 0 0
node 1350 1 0 0
node 1420 4 0 0
node 1454 1 0 0
node 1488 1 0 0
node 1550 1 0 0
node 1591 1 0 0
node 1626 2 0 0
node 1821 4 0 0
node 1868 2 0 0
node 1975 1 0 0
node 2010 1 0 0
node 2051 1 0 0
node 2192 1 0 0
node 2223 1 0 0
node 2280 1 0 0
node 2365 1 0 0
node 2390 4 0 0
node 2447 1 0 0
node 2570 1 0 0
node 2753 1 0 0
node 2783 1 0 0
node 2922 1 0 0
node 3065 1 0 0
node 3096 1 0 0
node 3185 1 0 0
node 3206 1 0 0
node 3236 1 0 0
node 3278 1 0 0
node 3303 1 0 0
node 3403 1 0 0
node 3528 1 0 0
node 3611 1 0 0
node 3652 1 0 0
node 3816 3 0 0
node 3850 1 0 0
node 4020 1 0 0
node 4056 1 0 0
node 4084 1 0 0
node 4114 1 0 0
node 4165 1 0 0
node 4273 1 0 0
node 4305 1 0 0
node 4345 1 0 0
node 4471 1 0 0
node 4502 1 0 0
node 4531 1 0 0
node 4609 1 0 0
node 4649 1 0 0
node 4684 1 0 0
node 4718 1 0 0
node 4752 1 0 0
node 4789 1 0 0
node 4889 1 0 0
node 4923 1 0 0
node 4959 1 0 0
node 5182 1 0 0
node 5213 1 0 0
node 5249 1 0 0
node 5388 1 0 0
node 5421 1 0 0
node 5451 1 0 0
node 5495 1 0 0
node 5620 1 0 0
node 5653 1 0 0
node 5685 1 0 0
node 5721 1 0 0
node 5757 1 0 0
node 5951 1 0 0
node 6039 1 0 0
node 6197 1 0 0
node 6231 1 0 0
node 6301 1 0 0
node 6339 1 0 0
node 6380 1 0 0
node 6404 1 0 0
node 6460 1 0 0
node 6497 1 0 0
node 6528 1 0 0
node 6560 1 0 0
node 6687 1 0 0
node 6781 1 0 0
node 6860 1 0 0
node 6969 1 0 0
node 7006 1 0 0
node 7064 1 0 0
node 7147 1 0 0
node 7214 1 0 0
node 7249 1 0 0
node 7309 1 0 0
node 7383 1 0 0
node 7644 1 0 0
node 7711 1 0 0
node 7781 1 0 0
node 7815 1 0 0
node 8033 1 0 0
node 8072 1 0 0
node 8145 1 0 0
node 8183 1 0 0
node 8215 1 0 0
node 8238 1 0 0
node 8339 1 0 0
node 8403 1 0 0
node 8433 1 0 0
node 8514 1 0 0
node 8963 1 0 0
node 8995 1 0 0
node 9033 1 0 0
node 9074 1 0 0
node 9161 1 0 0
node 9234 1 0 0
node 9412 1 0 0
node 9443 1 0 0
node 9685 1 0 0
node 9716 1 0 0
node 9795 1 0 0
gene 2 1 13 -226815 0 1 -226815 1
gene 2 2 13 -800000 0 2 -800000 1
gene 2 3 13 800000 0 3 800000 1
gene 2 4 13 -314820 0 4 -314820 1
gene 1 5 13 106455 0 5 106455 1
gene 3 6 13 -101055 0 6 -101055 1
gene 4 7 13 -714234 0 7 -714234 1
gene 1 8 13 247434 0 8 247434 1
gene 3 9 13 -592826 0 9 -592826 0
gene 4 10 13 -85924 0 10 -85924 1
gene 4 11 13 200799 0 11 200799 1
gene 3 12 13 425316 0 12 425316 1
gene 1 1 14 -512828 0 13 -512828 1
gene 2 2 14 -186090 0 14 -186090 1
gene 1 3 14 -658653 0 15 -658653 0
gene 3 4 14 -58266 0 16 -58266 1
gene 2 5 14 495573 0 17 495573 1
gene 4 6 14 246081 0 18 246081 1
gene 3 7 14 54342 0 19 54342 1
gene 3 8 14 -433926 0 20 -433926 1
gene 1 9 14 225957 0 21 225957 1
gene 1 10 14 170604 0 22 170604 1
gene 3 11 14 -800000 0 23 -800000 0
gene 4 12 14 435513 0 24 435513 0
gene 1 1 15 684769 0 25 684769 1
gene 2 2 15 -367239 0 26 -367239 1
gene 2 3 15 -437724 0 27 -437724 1
gene 3 4 15 622311 0 28 622311 1
gene 2 5 15 -61578 0 29 -61578 1
gene 2 6 15 296865 0 30 296865 1
gene 3 7 15 -54639 0 31 -54639 1
gene 4 8 15 -800000 0 32 -800000 0
gene 3 9 15 -18642 0 33 -18642 1
gene 1 10 15 104694 0 34 104694 1
gene 2 11 15 768842 0 35 768842 1
gene 2 12 15 735895 0 36 735895 1
gene 2 2 30 303336 0 68 303336 1
gene 2 30 14 -694470 0 69 -694470 0
gene 4 12 30 -346275 0 128 -346275 0
gene 4 13 14 -773283 0 154 -773283 1
gene 1 5 156 729371 0 401 729371 1
gene 1 156 13 366114 0 402 366114 1
gene 2 11 183 389862 0 483 389862 1
gene 2 183 15 -596832 0 484 -596832 1
gene 2 3 207 162978 0 547 162978 1
gene 2 207 13 -43134 0 548 -43134 0
gene 2 5 238 -392700 0 628 -392700 1
gene 2 238 15 -62478 0 629 -62478 0
gene 3 10 183 232551 0 685 232551 0
gene 3 9 207 598082 0 756 598082 1
gene 4 12 310 -300915 0 820 -300915 1
gene 4 310 30 66438 0 821 66438 0
gene 3 10 388 128184 0 1034 128184 0
gene 3 388 183 479001 0 1035 479001 1
gene 3 7 419 -569481 0 1104 -569481 0
gene 3 419 15 65700 0 1105 65700 1
gene 1 9 455 221895 0 1202 221895 1
gene 1 455 14 327309 0 1203 327309 1
gene 1 455 455 267423 1 1275 267423 1
gene 3 419 591 -640265 0 1555 -640265 1
gene 3 591 15 800000 0 1556 800000 0
gene 3 7 612 -373581 0 1605 -373581 1
gene 3 612 14 -643059 0 1606 -643059 0
gene 3 4 646 -96924 0 1691 -96924 0
gene 3 646 14 -158166 0 1692 -158166 0
gene 1 6 388 116874 0 1763 116874 1
gene 1 455 695 239556 1 1828 239556 1
gene 1 695 455 15249 0 1829 15249 1
gene 1 695 758 169140 0 1982 169140 1
gene 1 758 455 519488 0 1983 519488 1
gene 2 183 873 -63330 0 2264 -63330 1
gene 2 873 15 -800000 0 2265 -800000 1
gene 1 310 388 800000 0 2353 800000 1
gene 1 10 934 25554 0 2417 25554 0
gene 1 934 14 800000 0 2418 800000 1
gene 2 9 388 591579 0 2756 591579 1
gene 2 9 1136 -386141 0 2936 -386141 0
gene 2 1136 388 496485 0 2937 496485 1
gene 1 934 1191 400346 0 3070 400346 1
gene 1 1191 14 634560 0 3071 634560 1
gene 2 3 1225 -200598 0 3155 -200598 1
gene 2 1225 207 800000 0 3156 800000 1
gene 1 873 873 267555 1 3296 267555 1
gene 1 591 455 177888 0 3392 177888 1
gene 2 1136 1350 329123 0 3472 329123 1
gene 2 1350 388 -116472 0 3473 -116472 1
gene 2 238 238 -303885 1 3569 -303885 1
gene 3 10 1420 -84144 0 3648 -84144 1
gene 4 1420 388 256896 0 3649 256896 1
gene 3 4 1454 -541689 0 3731 -541689 1
gene 3 1454 15 61626 0 3732 61626 1
gene 3 612 1488 -282054 0 3812 -282054 1
gene 3 1488 14 514068 0 3813 514068 1
gene 3 388 1550 -423348 0 3976 -423348 1
gene 3 1550 183 -800000 0 3977 -800000 1
gene 3 1420 1591 272982 0 4076 272982 1
gene 3 1591 388 325128 0 4077 325128 1
gene 4 310 1626 260388 0 4165 260388 1
gene 4 1626 30 434817 0 4166 434817 0
gene 4 1550 419 -376155 0 4260 -376155 1
gene 1 455 1821 526500 0 4650 526500 1
gene 1 1821 14 -116883 0 4651 -116883 1
gene 1 5 1868 -180498 0 4778 -180498 1
gene 1 1868 156 171906 0 4779 171906 1
gene 1 183 183 -380592 1 4880 -380592 1
gene 4 1550 1550 -596631 1 4949 -596631 1
gene 3 1454 1975 -38163 0 5033 -38163 1
gene 3 1975 15 -620142 0 5034 -620142 1
gene 1 156 2010 459885 0 5118 459885 1
gene 1 2010 13 335493 0 5119 335493 1
gene 3 1550 2051 14529 0 5219 14529 1
gene 3 2051 183 450873 0 5220 450873 1
gene 2 612 612 1122 1 5310 1122 1
gene 1 183 2192 -450450 1 5568 -450450 1
gene 1 2192 183 -120255 0 5569 -120255 1
gene 1 310 2223 396816 0 5641 396816 1
gene 1 2223 388 226959 0 5642 226959 1
gene 3 419 2280 195507 0 5793 195507 1
gene 3 2280 591 -200979 0 5794 -200979 1
gene 3 591 2365 232047 0 6011 232047 1
gene 3 2365 15 430320 0 6012 430320 0
gene 4 1626 2390 92661 0 6075 92661 1
gene 4 2390 30 324138 0 6076 324138 1
gene 2 1136 2447 546048 0 6225 546048 1
gene 2 2447 1350 -638537 0 6226 -638537 0
gene 3 11 2570 299451 0 6534 299451 0
gene 4 2570 13 -251295 0 6535 -251295 1
gene 3 7 2753 -209676 0 6991 -209676 1
gene 3 2753 612 -219429 0 6992 -219429 1
gene 1 183 2783 50151 1 7072 50151 1
gene 1 2783 183 -522645 0 7073 -522645 1
gene 1 758 1591 -314721 0 7387 -314721 1
gene 1 2192 2922 176541 0 7438 176541 0
gene 1 2922 183 430767 0 7439 430767 1
gene 2 1454 1454 103857 1 7652 103857 1
gene 4 7 2192 -375120 0 7731 -375120 1
gene 1 2223 3065 -668225 0 7809 -668225 1
gene 1 3065 388 -413013 0 7810 -413013 0
gene 3 9 3096 -302145 0 7884 -302145 0
gene 3 3096 15 249396 0 7885 249396 0
gene 3 1136 1821 -227748 0 7970 -227748 0
gene 1 10 3185 195042 0 8106 195042 1
gene 1 3185 934 172896 0 8107 172896 0
gene 3 3096 3206 71751 0 8161 71751 0
gene 3 3206 15 -553391 0 8162 -553391 1
gene 4 6 3236 312189 0 8245 312189 1
gene 4 3236 14 -51141 0 8246 -51141 1
gene 2 1136 3278 -495399 0 8347 -495399 1
gene 2 3278 388 -172382 0 8348 -172382 1
gene 1 758 3303 122067 0 8414 122067 1
gene 1 3303 455 -341817 0 8415 -341817 0
gene 3 8 2447 14418 0 8513 14418 1
gene 1 591 591 -172923 1 8588 -172923 1
gene 3 12 3403 -259173 0 8670 -259173 1
gene 1 3403 13 -82959 0 8671 -82959 1
gene 4 7 3528 225990 0 8979 225990 1
gene 4 3528 2192 152832 0 8980 152832 1
gene 3 3096 612 -28098 0 9082 -28098 1
gene 3 612 3611 -31164 1 9204 -31164 1
gene 3 3611 612 125898 0 9205 125898 1
gene 4 1550 3652 -190980 1 9292 -190980 1
gene 4 3652 1550 -21642 0 9293 -21642 1
gene 1 2280 1454 -536196 0 9594 -536196 1
gene 1 183 3816 400713 1 9727 400713 1
gene 1 3816 2783 374727 0 9728 374727 0
gene 2 238 3850 462174 1 9814 462174 1
gene 2 3850 238 698145 0 9815 698145 1
gene 3 646 2365 95784 0 9895 95784 1
gene 4 2922 2922 -430434 1 10151 -430434 1
gene 4 11 4020 -232353 0 10235 -232353 1
gene 4 4020 2570 -27621 0 10236 -27621 0
gene 2 5 4056 -800000 0 10320 -800000 0
gene 2 4056 238 94524 0 10321 94524 1
gene 2 2 4084 -248718 0 10394 -248718 0
gene 2 4084 13 355659 0 10395 355659 1
gene 3 1975 4114 714165 0 10472 714165 1
gene 3 4114 15 -222123 0 10473 -222123 1
gene 4 7 4165 301575 0 10605 301575 1
gene 4 4165 13 -467163 0 10606 -467163 1
gene 1 2783 2570 -242262 0 10685 -242262 1
gene 1 2783 4273 -335904 0 10874 -335904 1
gene 1 4273 183 103119 0 10875 103119 1
gene 2 2447 4305 -14094 0 10952 -14094 1
gene 2 4305 1350 218643 0 10953 218643 1
gene 4 2570 4345 337086 0 11049 337086 1
gene 4 4345 13 380856 0 11050 380856 0
gene 4 156 15 -196269 0 11135 -196269 1
gene 1 3065 4471 13146 0 11369 13146 1
gene 1 4471 388 84834 0 11370 84834 1
gene 3 2365 4502 -177807 0 11439 -177807 1
gene 3 4502 15 -605148 0 11440 -605148 1
gene 1 591 4531 -550380 0 11513 -550380 1
gene 1 4531 455 800000 0 11514 800000 1
gene 2 238 4609 -106485 0 11693 -106485 1
gene 2 4609 15 -479922 0 11694 -479922 1
gene 2 2 4649 116442 0 11787 116442 1
gene 2 4649 15 -281877 0 11788 -281877 1
gene 3 7 4684 800000 0 11871 800000 1
gene 3 4684 419 645240 0 11872 645240 1
gene 2 873 4718 -142899 0 11956 -142899 1
gene 2 4718 15 689837 0 11957 689837 0
gene 2 183 4752 -541950 0 12043 -541950 1
gene 2 4752 873 88527 0 12044 88527 0
gene 2 3 4789 -653358 0 12139 -653358 1
gene 2 4789 207 -414708 0 12140 -414708 1
gene 1 455 4889 -461271 1 12394 -461271 1
gene 1 4889 695 154632 0 12395 154632 0
gene 3 9 4923 351528 0 12475 351528 1
gene 3 4923 3096 -155589 0 12476 -155589 1
gene 4 2390 4959 -150195 0 12563 -150195 0
gene 4 4959 30 570060 0 12564 570060 1
gene 2 646 4114 -72189 0 12746 -72189 1
gene 1 873 1975 -343248 0 13072 -343248 1
gene 1 2783 5182 287571 0 13143 287571 1
gene 1 5182 2570 332169 0 13144 332169 1
gene 4 3528 5213 -720821 0 13231 -720821 0
gene 4 5213 2192 -84723 0 13232 -84723 1
gene 3 8 5249 527535 0 13323 527535 1
gene 3 5249 14 201987 0 13324 201987 1
gene 2 310 183 556047 0 13578 556047 1
gene 2 3 5388 348297 0 13649 348297 0
gene 2 5388 1225 -196512 0 13650 -196512 1
gene 4 2390 5421 -800000 0 13728 -800000 1
gene 4 5421 30 44304 0 13729 44304 1
gene 3 1454 5451 -248664 0 13805 -248664 1
gene 3 5451 15 508815 0 13806 508815 1
gene 1 5 5495 -12024 0 13911 -12024 0
gene 1 5495 1868 633543 0 13912 633543 0
gene 2 5 2390 90021 0 13988 90021 1
gene 1 873 5620 269610 1 14222 269610 1
gene 1 5620 873 -685464 0 14223 -685464 1
gene 3 1136 5653 -393438 0 14306 -393438 0
gene 3 5653 1821 -169344 0 14307 -169344 1
gene 2 5 5685 372993 0 14376 372993 1
gene 2 5685 2390 350121 0 14377 350121 1
gene 2 3 5721 280437 0 14466 280437 1
gene 2 5721 5388 -175314 0 14467 -175314 1
gene 4 12 5757 208356 0 14550 208356 1
gene 4 5757 14 -402861 0 14551 -402861 1
gene 2 3236 1591 -99549 0 14870 -99549 1
gene 2 183 4305 156663 1 14958 156663 1
gene 3 3206 5951 -24933 0 15049 -24933 1
gene 3 5951 15 63885 0 15050 63885 1
gene 3 4502 6039 -536166 0 15254 -536166 1
gene 3 6039 15 216348 0 15255 216348 1
gene 1 5495 6197 -602346 0 15639 -602346 1
gene 1 6197 1868 -100569 0 15640 -100569 0
gene 3 591 6231 -536016 0 15728 -536016 1
gene 3 6231 15 -301992 0 15729 -301992 0
gene 2 3 6301 61872 0 15898 61872 1
gene 2 6301 4789 294471 0 15899 294471 1
gene 2 2 6339 -408438 0 15986 -408438 0
gene 2 6339 4649 -646767 0 15987 -646767 1
gene 4 7 6380 -401796 0 16093 -401796 1
gene 4 6380 2192 800000 0 16094 800000 1
gene 1 5 6404 -413097 0 16156 -413097 1
gene 1 6404 5495 -207579 0 16157 -207579 1
gene 4 12 4345 582087 0 16229 582087 1
gene 2 2 6460 -83421 0 16302 -83421 1
gene 2 6460 6339 483 0 16303 483 1
gene 3 1136 6497 -503844 0 16393 -503844 1
gene 3 6497 5653 -363642 0 16394 -363642 1
gene 4 8 6528 -29046 0 16468 -29046 0
gene 4 6528 15 -286214 0 16469 -286214 1
gene 3 9 6560 -91890 0 16550 -91890 1
gene 3 6560 15 -26607 0 16551 -26607 1
gene 2 5951 4959 251676 0 16811 251676 1
gene 2 2 6687 -190056 0 16868 -190056 1
gene 2 6687 14 68964 0 16869 68964 1
gene 1 1821 6781 -217863 0 17101 -217863 1
gene 1 6781 14 483096 0 17102 483096 1
gene 1 6197 6860 -593646 0 17299 -593646 1
gene 1 6860 1868 -541650 0 17300 -541650 1
gene 1 3816 6969 169089 0 17575 169089 1
gene 1 6969 2783 458370 0 17576 458370 1
gene 2 5 7006 539556 0 17662 539556 1
gene 2 7006 4056 295694 0 17663 295694 1
gene 4 2051 2365 38577 0 17737 38577 1
gene 3 9 7064 191310 0 17812 191310 0
gene 3 7064 6560 -411969 0 17813 -411969 1
gene 3 2922 3403 197991 0 17895 197991 1
gene 1 5620 7147 121878 0 18035 121878 1
gene 1 7147 873 479859 0 18036 479859 1
gene 4 12 7214 -105000 0 18210 -105000 1
gene 4 7214 4345 -219495 0 18211 -219495 1
gene 2 5388 7249 -429111 0 18295 -429111 1
gene 2 7249 1225 109392 0 18296 109392 1
gene 2 9 7309 152850 0 18452 152850 1
gene 2 7309 1136 72252 0 18453 72252 1
gene 3 2051 7383 19566 0 18629 19566 1
gene 3 7383 183 289884 0 18630 289884 1
gene 4 5757 7644 603075 0 19306 603075 1
gene 4 7644 14 255672 0 19307 255672 0
gene 3 3096 7711 -96591 0 19484 -96591 1
gene 3 7711 3206 -9303 0 19485 -9303 1
gene 3 11 7781 -166434 0 19652 -166434 1
gene 3 7781 14 311376 0 19653 311376 1
gene 4 4345 7815 -207429 0 19737 -207429 0
gene 4 7815 13 197382 0 19738 197382 1
gene 4 4923 7147 -191406 0 20021 -191406 1
gene 2 207 8033 -412068 0 20299 -412068 0
gene 2 8033 13 -328458 0 20300 -328458 1
gene 1 3185 8072 -168042 0 20398 -168042 1
gene 1 8072 934 -138822 0 20399 -138822 1
gene 3 1136 8145 -199431 0 20574 -199431 1
gene 3 8145 1821 290865 0 20575 290865 0
gene 4 12 8183 136047 0 20667 136047 1
gene 4 8183 30 -520701 0 20668 -520701 1
gene 3 9 8215 123708 0 20750 123708 1
gene 3 8215 7064 -147804 0 20751 -147804 1
gene 3 646 8238 -121032 0 20821 -121032 1
gene 3 8238 14 59643 0 20822 59643 1
gene 3 6231 8339 -326544 0 21066 -326544 1
gene 3 8339 15 492903 0 21067 492903 1
gene 4 2390 8403 -179715 0 21242 -179715 1
gene 4 8403 4959 -390780 0 21243 -390780 1
gene 2 30 8433 18780 0 21320 18780 1
gene 2 8433 14 -49455 0 21321 -49455 1
gene 4 4020 8514 -556005 0 21518 -556005 1
gene 4 8514 2570 14166 0 21519 14166 1
gene 3 612 1821 254922 0 21680 254922 1
gene 3 156 156 247617 1 21772 247617 1
gene 1 5951 1975 -328434 0 21851 -328434 1
gene 2 3185 3185 209061 1 21938 209061 1
gene 1 3236 1550 65670 0 22259 65670 1
gene 1 8183 3236 123840 0 22555 123840 1
gene 2 2 8963 107913 0 22627 107913 1
gene 2 8963 4084 40644 0 22628 40644 1
gene 2 207 8995 -119316 0 22713 -119316 1
gene 2 8995 8033 -55119 0 22714 -55119 1
gene 4 3528 9033 99762 0 22808 99762 1
gene 4 9033 5213 24591 0 22809 24591 1
gene 3 8145 9074 -59985 0 22908 -59985 1
gene 3 9074 1821 -445788 0 22909 -445788 1
gene 4 4345 9161 -506526 0 23143 -506526 1
gene 4 9161 7815 274740 0 23144 274740 1
gene 3 4 9234 431424 0 23332 431424 1
gene 3 9234 646 111711 0 23333 111711 1
gene 2 4718 4718 -25724 1 23747 -25724 1
gene 1 4889 9412 -6089 0 23809 -6089 1
gene 1 9412 695 -108678 0 23810 -108678 1
gene 4 7644 9443 95341 0 23883 95341 1
gene 4 9443 14 192729 0 23884 192729 1
gene 3 5721 7309 279552 0 23956 279552 1
gene 3 5249 758 -347673 0 24165 -347673 1
gene 1 3 9685 1 0 24490 1 1
gene 1 9685 14 -457374 0 24491 -457374 1
gene 1 3303 9716 179781 0 24567 179781 1
gene 1 9716 455 -151167 0 24568 -151167 1
gene 2 4752 9795 1 0 24759 0 1
gene 2 9795 873 88527 0 24760 0 1
genomeend 18


/* Organism #22 Fitness: 260.000000 Time: 0 */
/* Position #22*/
#1 x: 33 y: 23
#2 x: 56 y: 34
#3 x: 28 y: 22
#4 x: 31 y: 75
#5 x: 47 y: 67
#6 x: 17 y: 75
genomestart 22
trait 1 89827.000000 0.000000 42187.000000 42938.000000 33682.000000 12502.000000 16161.000000 100000.000000 trait 2 2.000000 0.000000 0.000000 0.000000 0.000000 0.000000 0.000000 0.000000 trait 3 0.000000 0.000000 38579.000000 0.000000 52930.000000 0.000000 0.000000 0.000000 trait 4 2.000000 22224.000000 0.000000 97763.000000 0.000000 0.000000 43000.000000 0.000000 node 1 2 1 3
node 2 3 1 1
node 3 1 1 1
node 4 2 1 1
node 5 1 1 1
node 6 3 1 1
node 7 2 1 1
node 8 3 1 1
node 9 1 1 1
node 10 1 1 1
node 11 1 1 1
node 12 1 1 1
node 13 3 0 2
node 14 3 0 2
node 15 2 0 2
node 30 1 0 0
node 156 1 0 0
node 183 1 0 0
node 207 1 0 0
node 238 1 0 0
node 310 1 0 0
node 388 1 0 0
node 419 1 0 0
node 455 1 0 0
node 591 4 0 0
node 612 1 0 0
node 646 1 0 0
node 695 1 0 0
node 758 1 0 0
node 873 1 0 0
node 934 1 0 0
node 1136 1 0 0
node 1191 1 0 0
node 1225 1 0 0
node 1350 1 0 0
node 1420 1 0 0
node 1454 1 0 0
node 1488 1 0 0
node 1550 1 0 0
node 1591 1 0 0
node 1626 2 0 0
node 1821 1 0 0
node 1868 2 0 0
node 1975 1 0 0
node 2010 1 0 0
node 2051 1 0 0
node 2192 1 0 0
node 2223 1 0 0
node 2280 1 0 0
node 2365 2 0 0
node 2390 4 0 0
node 2447 1 0 0
node 2570 1 0 0
node 2753 1 0 0
node 2783 1 0 0
node 2922 1 0 0
node 3065 1 0 0
node 3096 1 0 0
node 3185 1 0 0
node 3206 2 0 0
node 3236 1 0 0
node 3278 1 0 0
node 3303 1 0 0
node 3403 1 0 0
node 3528 1 0 0
node 3611 1 0 0
node 3652 1 0 0
node 3816 3 0 0
node 3850 1 0 0
node 4020 1 0 0
node 4056 1 0 0
node 4084 1 0 0
node 4114 1 0 0
node 4165 1 0 0
node 4273 1 0 0
node 4305 1 0 0
node 4345 1 0 0
node 4471 1 0 0
node 4502 1 0 0
node 4531 1 0 0
node 4609 1 0 0
node 4649 1 0 0
node 4684 1 0 0
node 4718 1 0 0
node 4752 1 0 0
node 4789 1 0 0
node 4889 1 0 0
node 4923 1 0 0
node 4959 1 0 0
node 5182 1 0 0
node 5213 1 0 0
node 5249 1 0 0
node 5388 1 0 0
node 5421 1 0 0
node 5451 1 0 0
node 5495 1 0 0
node 5620 1 0 0
node 5653 1 0 0
node 5685 1 0 0
node 5721 1 0 0
node 5757 1 0 0
node 5951 1 0 0
node 6039 1 0 0
node 6197 1 0 0
node 6231 1 0 0
node 6301 1 0 0
node 6339 1 0 0
node 6380 1 0 0
node 6404 1 0 0
node 6460 1 0 0
node 6497 1 0 0
node 6528 1 0 0
node 6560 1 0 0
node 6687 1 0 0
node 6781 1 0 0
node 6860 1 0 0
node 6969 1 0 0
node 7006 1 0 0
node 7064 1 0 0
node 7147 1 0 0
node 7214 1 0 0
node 7249 1 0 0
node 7309 1 0 0
node 7383 1 0 0
node 7644 1 0 0
node 7711 1 0 0
node 7781 1 0 0
node 7815 1 0 0
node 8033 1 0 0
node 8072 1 0 0
node 8145 1 0 0
node 8183 1 0 0
node 8215 1 0 0
node 8238 1 0 0
node 8339 1 0 0
node 8403 1 0 0
node 8562 1 0 0
node 8821 1 0 0
node 8846 1 0 0
node 8895 1 0 0
node 8931 1 0 0
node 8986 1 0 0
node 9045 1 0 0
node 9077 1 0 0
node 9458 1 0 0
node 9480 1 0 0
node 9629 1 0 0
node 9664 1 0 0
node 9765 1 0 0
node 9798 1 0 0
gene 2 1 13 -72861 0 1 -72861 1
gene 2 2 13 -156906 0 2 -156906 0
gene 2 3 13 141066 0 3 141066 1
gene 2 4 13 -102759 0 4 -102759 1
gene 1 5 13 -276384 0 5 -276384 1
gene 3 6 13 -297828 0 6 -297828 1
gene 4 7 13 112449 0 7 112449 1
gene 1 8 13 -215088 0 8 -215088 1
gene 3 9 13 63984 0 9 63984 0
gene 4 10 13 190017 0 10 190017 1
gene 4 11 13 306141 0 11 306141 1
gene 3 12 13 -269103 0 12 -269103 1
gene 1 1 14 39066 0 13 39066 1
gene 2 2 14 768420 0 14 768420 1
gene 1 3 14 -458850 0 15 -458850 1
gene 3 4 14 280950 0 16 280950 1
gene 2 5 14 229161 0 17 229161 1
gene 4 6 14 386874 0 18 386874 1
gene 3 7 14 -242721 0 19 -242721 1
gene 3 8 14 62025 0 20 62025 1
gene 1 9 14 2262 0 21 2262 1
gene 1 10 14 223734 0 22 223734 1
gene 3 11 14 28452 0 23 28452 0
gene 4 12 14 -121725 0 24 -121725 0
gene 1 1 15 272427 0 25 272427 1
gene 2 2 15 13119 0 26 13119 1
gene 2 3 15 94383 0 27 94383 1
gene 3 4 15 170235 0 28 170235 1
gene 2 5 15 238449 0 29 238449 1
gene 2 6 15 -236061 0 30 -236061 1
gene 3 7 15 241728 0 31 241728 1
gene 4 8 15 214737 0 32 214737 0
gene 3 9 15 -208413 0 33 -208413 1
gene 1 10 15 146214 0 34 146214 1
gene 2 11 15 234399 0 35 234399 1
gene 2 12 15 -103832 0 36 -103832 1
gene 2 2 30 -144567 0 68 -144567 1
gene 2 30 14 -406631 0 69 -406631 1
gene 4 12 30 232827 0 128 232827 0
gene 4 13 14 258411 0 154 258411 1
gene 1 5 156 -222789 0 401 -222789 1
gene 1 156 13 -800000 0 402 -800000 1
gene 2 11 183 -443268 0 483 -443268 1
gene 2 183 15 42174 0 484 42174 1
gene 2 3 207 -58818 0 547 -58818 1
gene 2 207 13 239616 0 548 239616 0
gene 2 5 238 10497 0 628 10497 1
gene 2 238 15 53970 0 629 53970 0
gene 3 10 183 118923 0 685 118923 0
gene 3 9 207 800000 0 756 800000 1
gene 4 12 310 98895 0 820 98895 1
gene 4 310 30 -44337 0 821 -44337 0
gene 3 10 388 -243342 0 1034 -243342 0
gene 3 388 183 -77415 0 1035 -77415 1
gene 3 7 419 -58416 0 1104 -58416 0
gene 3 419 15 -5985 0 1105 -5985 1
gene 1 9 455 167799 0 1202 167799 1
gene 1 455 14 -183435 0 1203 -183435 1
gene 1 455 455 -147605 1 1275 -147605 1
gene 3 419 591 17469 0 1555 17469 1
gene 3 591 15 585809 0 1556 585809 0
gene 3 7 612 114984 0 1605 114984 1
gene 3 612 14 238731 0 1606 238731 0
gene 3 4 646 48990 0 1691 48990 1
gene 3 646 14 353073 0 1692 353073 0
gene 1 6 388 87789 0 1763 87789 1
gene 1 455 695 590709 1 1828 590709 1
gene 1 695 455 207174 0 1829 207174 1
gene 1 695 758 -230571 0 1982 -230571 1
gene 1 758 455 668757 0 1983 668757 1
gene 2 183 873 -800000 0 2264 -800000 1
gene 2 873 15 -133170 0 2265 -133170 1
gene 1 310 388 251097 0 2353 251097 1
gene 1 10 934 468645 0 2417 468645 0
gene 1 934 14 161382 0 2418 161382 1
gene 2 9 388 -165240 0 2756 -165240 1
gene 2 9 1136 -151383 0 2936 -151383 0
gene 2 1136 388 -158484 0 2937 -158484 1
gene 1 934 1191 111594 0 3070 111594 1
gene 1 1191 14 22929 0 3071 22929 1
gene 2 3 1225 -246108 0 3155 -246108 1
gene 2 1225 207 -88167 0 3156 -88167 1
gene 1 873 873 278184 1 3296 278184 1
gene 1 591 455 85881 0 3392 85881 1
gene 2 1136 1350 21366 0 3472 21366 1
gene 2 1350 388 -412581 0 3473 -412581 1
gene 2 238 238 200781 1 3569 200781 1
gene 3 10 1420 150741 0 3648 150741 1
gene 4 1420 388 286875 0 3649 286875 1
gene 3 4 1454 108966 0 3731 108966 1
gene 3 1454 15 64770 0 3732 64770 1
gene 3 612 1488 -351663 0 3812 -351663 1
gene 3 1488 14 -257946 0 3813 -257946 0
gene 3 388 1550 -113511 0 3976 -113511 1
gene 3 1550 183 -267231 0 3977 -267231 1
gene 3 1420 1591 174030 0 4076 174030 1
gene 3 1591 388 -388263 0 4077 -388263 1
gene 4 310 1626 -228021 0 4165 -228021 1
gene 4 1626 30 309089 0 4166 309089 0
gene 4 1550 419 104307 0 4260 104307 1
gene 1 455 1821 592206 0 4650 592206 1
gene 1 1821 14 -20928 0 4651 -20928 1
gene 1 5 1868 147150 0 4778 147150 1
gene 1 1868 156 88431 0 4779 88431 1
gene 1 183 183 22218 1 4880 22218 1
gene 4 1550 1550 -478322 1 4949 -478322 1
gene 3 1454 1975 -38136 0 5033 -38136 1
gene 3 1975 15 150684 0 5034 150684 1
gene 1 156 2010 487353 0 5118 487353 1
gene 1 2010 13 -25359 0 5119 -25359 1
gene 3 1550 2051 497220 0 5219 497220 1
gene 3 2051 183 -354021 0 5220 -354021 1
gene 3 612 612 487725 1 5310 487725 1
gene 1 183 2192 305190 1 5568 305190 1
gene 1 2192 183 109908 0 5569 109908 1
gene 1 310 2223 232590 0 5641 232590 1
gene 1 2223 388 -16281 0 5642 -16281 1
gene 3 419 2280 -97284 0 5793 -97284 1
gene 3 2280 591 -717464 0 5794 -717464 0
gene 3 591 2365 -75204 0 6011 -75204 1
gene 3 2365 15 -223038 0 6012 -223038 0
gene 4 1626 2390 -25152 0 6075 -25152 1
gene 4 2390 30 271902 0 6076 271902 1
gene 2 1136 2447 -108168 0 6225 -108168 1
gene 2 2447 1350 -29040 0 6226 -29040 0
gene 4 11 2570 -289638 0 6534 -289638 0
gene 4 2570 13 395700 0 6535 395700 1
gene 3 7 2753 -461334 0 6991 -461334 1
gene 3 2753 612 200880 0 6992 200880 1
gene 1 183 2783 117642 1 7072 117642 1
gene 1 2783 183 -221424 0 7073 -221424 1
gene 1 758 1591 675288 0 7387 675288 1
gene 1 2192 2922 243840 0 7438 243840 0
gene 1 2922 183 -29475 0 7439 -29475 1
gene 2 1454 1454 628671 1 7652 628671 1
gene 4 7 2192 152931 0 7731 152931 1
gene 1 2223 3065 -800000 0 7809 -800000 1
gene 1 3065 388 -193800 0 7810 -193800 0
gene 3 9 3096 -676824 0 7884 -676824 0
gene 3 3096 15 296823 0 7885 296823 0
gene 3 1136 1821 66801 0 7970 66801 0
gene 1 10 3185 -239547 0 8106 -239547 1
gene 1 3185 934 -49380 0 8107 -49380 0
gene 3 3096 3206 -496650 0 8161 -496650 0
gene 3 3206 15 -102519 0 8162 -102519 1
gene 4 6 3236 -467382 0 8245 -467382 1
gene 4 3236 14 105594 0 8246 105594 1
gene 2 1136 3278 123183 0 8347 123183 1
gene 2 3278 388 -434480 0 8348 -434480 1
gene 1 758 3303 277860 0 8414 277860 1
gene 1 3303 455 264948 0 8415 264948 1
gene 3 8 2447 566972 0 8513 566972 1
gene 1 591 591 -1434 1 8588 -1434 1
gene 3 12 3403 -663017 0 8670 -663017 1
gene 1 3403 13 49662 0 8671 49662 1
gene 4 7 3528 414537 0 8979 414537 1
gene 4 3528 2192 473364 0 8980 473364 0
gene 3 3096 612 525174 0 9082 525174 1
gene 3 612 3611 385221 1 9204 385221 1
gene 3 3611 612 171816 0 9205 171816 0
gene 4 1550 3652 310164 1 9292 310164 1
gene 4 3652 1550 800000 0 9293 800000 1
gene 1 2280 1454 -800000 0 9594 -800000 1
gene 1 183 3816 202911 1 9727 202911 1
gene 1 3816 2783 -122481 0 9728 -122481 0
gene 2 238 3850 -426200 1 9814 -426200 1
gene 2 3850 238 -72972 0 9815 -72972 1
gene 3 646 2365 583572 0 9895 583572 1
gene 4 2922 2922 -153720 1 10151 -153720 1
gene 4 11 4020 -265749 0 10235 -265749 1
gene 4 4020 2570 -69702 0 10236 -69702 1
gene 2 5 4056 178323 0 10320 178323 0
gene 2 4056 238 4215 0 10321 4215 1
gene 2 2 4084 484179 0 10394 484179 1
gene 2 4084 13 277713 0 10395 277713 1
gene 3 1975 4114 547256 0 10472 547256 1
gene 3 4114 15 3604 0 10473 3604 1
gene 4 7 4165 -377160 0 10605 -377160 1
gene 4 4165 13 37623 0 10606 37623 1
gene 1 2783 2570 133374 0 10685 133374 1
gene 1 2783 4273 707561 0 10874 707561 1
gene 1 4273 183 -522609 0 10875 -522609 1
gene 2 2447 4305 -593277 0 10952 -593277 1
gene 2 4305 1350 37539 0 10953 37539 1
gene 4 2570 4345 158451 0 11049 158451 1
gene 4 4345 13 800000 0 11050 800000 0
gene 4 156 15 -144531 0 11135 -144531 1
gene 1 3065 4471 -95907 0 11369 -95907 1
gene 1 4471 388 -157008 0 11370 -157008 1
gene 3 2365 4502 439820 0 11439 439820 1
gene 3 4502 15 -433380 0 11440 -433380 1
gene 1 591 4531 65469 0 11513 65469 1
gene 1 4531 455 70110 0 11514 70110 1
gene 2 238 4609 -163473 0 11693 -163473 1
gene 2 4609 15 -168684 0 11694 -168684 1
gene 2 2 4649 -207012 0 11787 -207012 1
gene 2 4649 15 -22284 0 11788 -22284 1
gene 3 7 4684 -585414 0 11871 -585414 1
gene 3 4684 419 -34851 0 11872 -34851 1
gene 2 873 4718 326799 0 11956 326799 1
gene 2 4718 15 -283104 0 11957 -283104 0
gene 2 183 4752 -277944 0 12043 -277944 1
gene 2 4752 873 -800000 0 12044 -800000 1
gene 2 3 4789 76593 0 12139 76593 1
gene 2 4789 207 126705 0 12140 126705 1
gene 1 455 4889 -11925 1 12394 -11925 1
gene 1 4889 695 -147309 0 12395 -147309 0
gene 3 9 4923 291549 0 12475 291549 1
gene 3 4923 3096 -366777 0 12476 -366777 1
gene 4 2390 4959 51522 0 12563 51522 0
gene 4 4959 30 143628 0 12564 143628 1
gene 2 646 4114 -418506 0 12746 -418506 1
gene 1 873 1975 676401 0 13072 676401 1
gene 1 2783 5182 -157467 0 13143 -157467 1
gene 1 5182 2570 88725 0 13144 88725 1
gene 4 3528 5213 -158397 0 13231 -158397 1
gene 4 5213 2192 259056 0 13232 259056 1
gene 3 8 5249 616242 0 13323 616242 1
gene 3 5249 14 -336837 0 13324 -336837 1
gene 2 310 183 -678657 0 13578 -678657 1
gene 2 3 5388 -110676 0 13649 -110676 0
gene 2 5388 1225 51117 0 13650 51117 1
gene 4 2390 5421 -173610 0 13728 -173610 1
gene 4 5421 30 42285 0 13729 42285 1
gene 3 1454 5451 -63078 0 13805 -63078 1
gene 3 5451 15 4350 0 13806 4350 1
gene 1 5 5495 -246633 0 13911 -246633 0
gene 1 5495 1868 -25614 0 13912 -25614 0
gene 2 5 2390 298526 0 13988 298526 1
gene 1 873 5620 -83475 1 14222 -83475 1
gene 1 5620 873 800000 0 14223 800000 1
gene 3 1136 5653 -248703 0 14306 -248703 0
gene 3 5653 1821 120417 0 14307 120417 1
gene 2 5 5685 -736071 0 14376 -736071 1
gene 2 5685 2390 223443 0 14377 223443 1
gene 2 3 5721 209916 0 14466 209916 1
gene 2 5721 5388 -71337 0 14467 -71337 1
gene 4 12 5757 -278928 0 14550 -278928 1
gene 4 5757 14 -55143 0 14551 -55143 1
gene 2 3236 1591 -29646 0 14870 -29646 1
gene 2 183 4305 -397644 1 14958 -397644 1
gene 3 3206 5951 -608745 0 15049 -608745 1
gene 3 5951 15 -800000 0 15050 -800000 1
gene 3 4502 6039 21684 0 15254 21684 1
gene 3 6039 15 288234 0 15255 288234 1
gene 1 5495 6197 -58422 0 15639 -58422 1
gene 1 6197 1868 71787 0 15640 71787 0
gene 3 591 6231 -48402 0 15728 -48402 1
gene 3 6231 15 -6261 0 15729 -6261 0
gene 2 3 6301 598811 0 15898 598811 1
gene 2 6301 4789 432036 0 15899 432036 1
gene 2 2 6339 -439839 0 15986 -439839 0
gene 2 6339 4649 583416 0 15987 583416 0
gene 4 7 6380 -641162 0 16093 -641162 1
gene 4 6380 2192 499416 0 16094 499416 1
gene 1 5 6404 269508 0 16156 269508 1
gene 1 6404 5495 10092 0 16157 10092 1
gene 4 12 4345 -11274 0 16229 -11274 1
gene 2 2 6460 285453 0 16302 285453 1
gene 2 6460 6339 -390693 0 16303 -390693 1
gene 3 1136 6497 -405931 0 16393 -405931 1
gene 3 6497 5653 -287730 0 16394 -287730 1
gene 4 8 6528 -760125 0 16468 -760125 0
gene 4 6528 15 127467 0 16469 127467 1
gene 3 9 6560 -17823 0 16550 -17823 0
gene 3 6560 15 -63045 0 16551 -63045 1
gene 2 5951 4959 17061 0 16811 17061 1
gene 2 2 6687 184512 0 16868 184512 1
gene 2 6687 14 -367185 0 16869 -367185 0
gene 1 1821 6781 262272 0 17101 262272 1
gene 1 6781 14 -159861 0 17102 -159861 0
gene 1 6197 6860 272901 0 17299 272901 1
gene 1 6860 1868 375492 0 17300 375492 1
gene 1 3816 6969 -246642 0 17575 -246642 1
gene 1 6969 2783 -23682 0 17576 -23682 1
gene 2 5 7006 -76410 0 17662 -76410 0
gene 2 7006 4056 54687 0 17663 54687 1
gene 4 2051 2365 -30312 0 17737 -30312 1
gene 3 9 7064 484158 0 17812 484158 0
gene 3 7064 6560 213081 0 17813 213081 1
gene 3 2922 3403 -78087 0 17895 -78087 1
gene 1 5620 7147 -331905 0 18035 -331905 1
gene 1 7147 873 12306 0 18036 12306 0
gene 4 12 7214 27573 0 18210 27573 1
gene 4 7214 4345 121860 0 18211 121860 1
gene 2 5388 7249 250875 0 18295 250875 1
gene 2 7249 1225 284727 0 18296 284727 1
gene 2 9 7309 -285372 0 18452 -285372 1
gene 2 7309 1136 208800 0 18453 208800 1
gene 3 2051 7383 -34026 0 18629 -34026 1
gene 3 7383 183 -124284 0 18630 -124284 1
gene 4 5757 7644 793227 0 19306 793227 1
gene 4 7644 14 306393 0 19307 306393 1
gene 3 3096 7711 -116742 0 19484 -116742 1
gene 3 7711 3206 -412965 0 19485 -412965 1
gene 3 11 7781 464658 0 19652 464658 1
gene 3 7781 14 -708666 0 19653 -708666 0
gene 4 4345 7815 -45735 0 19737 -45735 1
gene 4 7815 13 115182 0 19738 115182 1
gene 4 4923 7147 -85707 0 20021 -85707 1
gene 2 207 8033 220167 0 20299 220167 1
gene 2 8033 13 -207519 0 20300 -207519 1
gene 1 3185 8072 -146007 0 20398 -146007 1
gene 1 8072 934 119814 0 20399 119814 1
gene 3 1136 8145 -171420 0 20574 -171420 1
gene 3 8145 1821 -484887 0 20575 -484887 1
gene 4 12 8183 -432063 0 20667 -432063 1
gene 4 8183 30 -251409 0 20668 -251409 1
gene 3 9 8215 -47376 0 20750 -47376 1
gene 3 8215 7064 -465471 0 20751 -465471 1
gene 3 646 8238 -21912 0 20821 -21912 1
gene 3 8238 14 274959 0 20822 274959 1
gene 3 6231 8339 522854 0 21066 522854 1
gene 3 8339 15 -76227 0 21067 -76227 1
gene 4 2390 8403 800000 0 21242 800000 1
gene 4 8403 4959 441882 0 21243 441882 1
gene 1 7147 8562 -104751 0 21637 -104751 1
gene 1 8562 873 -64290 0 21638 -64290 1
gene 2 3528 4056 -253395 0 21698 -253395 0
gene 1 5757 7309 -485628 0 22026 -485628 1
gene 2 2 8821 767427 0 22279 767427 1
gene 2 8821 13 -137484 0 22280 -137484 1
gene 3 2280 8846 160989 0 22334 160989 1
gene 3 8846 591 195036 0 22335 195036 1
gene 1 6781 8895 -196527 0 22452 -196527 1
gene 1 8895 14 42252 0 22453 42252 1
gene 3 9 8931 -149208 0 22541 -149208 1
gene 3 8931 6560 247041 0 22542 247041 1
gene 1 4889 8986 -178926 0 22688 -178926 1
gene 1 8986 695 539283 0 22689 539283 1
gene 3 3 6497 549573 0 22756 549573 1
gene 2 6339 9045 714660 0 22838 714660 1
gene 2 9045 4649 193023 0 22839 193023 1
gene 3 3611 9077 78105 0 22915 78105 1
gene 3 9077 612 -115854 0 22916 -115854 1
gene 2 7815 8403 -258048 0 23084 -258048 1
gene 1 2280 4789 291936 0 23492 291936 1
gene 3 7781 9458 10294 0 23923 10294 1
gene 3 9458 14 -309453 0 23924 -309453 1
gene 2 3528 9480 -293028 0 23983 -293028 1
gene 2 9480 4056 -526026 0 23984 -526026 1
gene 1 2783 3528 -146499 0 24053 -146499 1
gene 2 5 9629 -7271 0 24341 -7271 1
gene 2 9629 7006 -18360 0 24342 -18360 1
gene 4 3528 9664 -6486 0 24437 -6486 1
gene 4 9664 2192 447729 0 24438 447729 1
gene 4 5495 4471 31333 0 24573 31333 1
gene 3 1488 9765 1 0 24682 0 1
gene 3 9765 14 -257946 0 24683 0 1
gene 2 6687 9798 1 0 24766 0 1
gene 2 9798 14 -367185 0 24767 0 1
genomeend 22


/* Organism #30 Fitness: 290.000000 Time: 0 */
/* Position #30*/
#1 x: 81 y: 20
#2 x: 40 y: 15
#3 x: 39 y: 40
#4 x: 40 y: 69
#5 x: 42 y: 65
#6 x: 23 y: 63
genomestart 30
trait 1 43577.000000 32719.000000 42187.000000 0.000000 0.000000 84620.000000 0.000000 100000.000000 trait 2 29662.000000 0.000000 0.000000 0.000000 0.000000 0.000000 0.000000 0.000000 trait 3 0.000000 99378.000000 0.000000 0.000000 100000.000000 56368.000000 0.000000 0.000000 trait 4 2.000000 22224.000000 0.000000 97763.000000 0.000000 0.000000 43000.000000 0.000000 node 1 2 1 3
node 2 3 1 1
node 3 1 1 1
node 4 2 1 1
node 5 4 1 1
node 6 3 1 1
node 7 2 1 1
node 8 3 1 1
node 9 1 1 1
node 10 1 1 1
node 11 1 1 1
node 12 1 1 1
node 13 3 0 2
node 14 3 0 2
node 15 2 0 2
node 30 1 0 0
node 156 1 0 0
node 183 1 0 0
node 207 1 0 0
node 238 1 0 0
node 310 1 0 0
node 388 1 0 0
node 419 1 0 0
node 455 1 0 0
node 591 1 0 0
node 612 1 0 0
node 646 1 0 0
node 695 1 0 0
node 758 1 0 0
node 873 1 0 0
node 934 1 0 0
node 1136 1 0 0
node 1191 1 0 0
node 1225 1 0 0
node 1350 1 0 0
node 1420 1 0 0
node 1454 1 0 0
node 1488 1 0 0
node 1550 1 0 0
node 1591 1 0 0
node 1626 2 0 0
node 1821 1 0 0
node 1868 2 0 0
node 1975 1 0 0
node 2010 1 0 0
node 2051 1 0 0
node 2192 1 0 0
node 2223 1 0 0
node 2280 1 0 0
node 2365 1 0 0
node 2390 4 0 0
node 2447 1 0 0
node 2570 1 0 0
node 2753 1 0 0
node 2783 1 0 0
node 2922 1 0 0
node 3065 1 0 0
node 3096 1 0 0
node 3185 1 0 0
node 3206 2 0 0
node 3236 1 0 0
node 3278 1 0 0
node 3303 1 0 0
node 3403 1 0 0
node 3528 1 0 0
node 3611 1 0 0
node 3652 1 0 0
node 3816 3 0 0
node 3850 1 0 0
node 4020 1 0 0
node 4056 1 0 0
node 4084 1 0 0
node 4114 1 0 0
node 4165 1 0 0
node 4273 1 0 0
node 4305 1 0 0
node 4345 1 0 0
node 4471 1 0 0
node 4502 1 0 0
node 4531 1 0 0
node 4609 1 0 0
node 4649 1 0 0
node 4684 1 0 0
node 4718 1 0 0
node 4752 1 0 0
node 4789 1 0 0
node 4889 1 0 0
node 4923 1 0 0
node 4959 1 0 0
node 5182 1 0 0
node 5213 1 0 0
node 5249 1 0 0
node 5388 1 0 0
node 5421 1 0 0
node 5451 1 0 0
node 5495 1 0 0
node 5620 1 0 0
node 5653 1 0 0
node 5685 1 0 0
node 5721 1 0 0
node 5757 1 0 0
node 5951 1 0 0
node 6039 1 0 0
node 6197 1 0 0
node 6231 1 0 0
node 6301 1 0 0
node 6339 1 0 0
node 6380 1 0 0
node 6404 1 0 0
node 6460 1 0 0
node 6497 1 0 0
node 6528 1 0 0
node 6560 1 0 0
node 6687 1 0 0
node 6781 2 0 0
node 6860 1 0 0
node 6969 1 0 0
node 7006 1 0 0
node 7064 1 0 0
node 7147 1 0 0
node 7214 1 0 0
node 7249 1 0 0
node 7309 1 0 0
node 7383 1 0 0
node 7644 1 0 0
node 7711 1 0 0
node 7781 1 0 0
node 7815 1 0 0
node 8033 1 0 0
node 8072 1 0 0
node 8145 1 0 0
node 8183 1 0 0
node 8215 1 0 0
node 8238 1 0 0
node 8339 1 0 0
node 8403 1 0 0
node 8501 1 0 0
node 8542 1 0 0
node 8573 1 0 0
node 8609 1 0 0
node 8643 1 0 0
node 8680 1 0 0
node 8833 1 0 0
node 8938 1 0 0
node 8966 1 0 0
node 9016 1 0 0
node 9292 1 0 0
node 9390 1 0 0
node 9474 1 0 0
node 9599 1 0 0
node 9696 1 0 0
node 9769 1 0 0
node 9802 1 0 0
gene 2 1 13 -169032 0 1 -169032 1
gene 2 2 13 733265 0 2 733265 1
gene 2 3 13 274134 0 3 274134 1
gene 2 4 13 7812 0 4 7812 1
gene 1 5 13 647940 0 5 647940 1
gene 3 6 13 -305613 0 6 -305613 1
gene 4 7 13 -800000 0 7 -800000 1
gene 1 8 13 -593252 0 8 -593252 0
gene 3 9 13 -67992 0 9 -67992 0
gene 4 10 13 370888 0 10 370888 1
gene 4 11 13 75411 0 11 75411 1
gene 3 12 13 366141 0 12 366141 1
gene 1 1 14 159951 0 13 159951 1
gene 2 2 14 -52983 0 14 -52983 0
gene 1 3 14 270453 0 15 270453 1
gene 3 4 14 -407613 0 16 -407613 1
gene 2 5 14 -102360 0 17 -102360 1
gene 4 6 14 -432765 0 18 -432765 1
gene 3 7 14 -223635 0 19 -223635 1
gene 3 8 14 -106674 0 20 -106674 1
gene 1 9 14 -334458 0 21 -334458 1
gene 1 10 14 20640 0 22 20640 1
gene 3 11 14 554430 0 23 554430 0
gene 4 12 14 46941 0 24 46941 0
gene 1 1 15 643817 0 25 643817 1
gene 2 2 15 -21288 0 26 -21288 1
gene 2 3 15 -26130 0 27 -26130 1
gene 3 4 15 -37338 0 28 -37338 1
gene 2 5 15 -32667 0 29 -32667 1
gene 2 6 15 -445236 0 30 -445236 1
gene 3 7 15 339845 0 31 339845 1
gene 4 8 15 698532 0 32 698532 0
gene 3 9 15 -594377 0 33 -594377 1
gene 1 10 15 474934 0 34 474934 1
gene 2 11 15 210795 0 35 210795 1
gene 2 12 15 103231 0 36 103231 1
gene 2 2 30 309756 0 68 309756 1
gene 2 30 14 -107505 0 69 -107505 1
gene 4 12 30 -199662 0 128 -199662 0
gene 4 13 14 752838 0 154 752838 1
gene 1 5 156 -30975 0 401 -30975 1
gene 1 156 13 -89340 0 402 -89340 1
gene 2 11 183 261459 0 483 261459 1
gene 2 183 15 -228333 0 484 -228333 1
gene 2 3 207 -142821 0 547 -142821 1
gene 2 207 13 -76889 0 548 -76889 0
gene 2 5 238 -5997 0 628 -5997 1
gene 2 238 15 -26541 0 629 -26541 0
gene 3 10 183 263571 0 685 263571 1
gene 3 9 207 -59718 0 756 -59718 1
gene 4 12 310 -800000 0 820 -800000 1
gene 4 310 30 192174 0 821 192174 1
gene 3 10 388 -405030 0 1034 -405030 1
gene 3 388 183 413376 0 1035 413376 1
gene 3 7 419 248112 0 1104 248112 0
gene 3 419 15 -365304 0 1105 -365304 1
gene 1 9 455 -22637 0 1202 -22637 1
gene 1 455 14 -459924 0 1203 -459924 1
gene 1 455 455 -266571 1 1275 -266571 1
gene 3 419 591 -185862 0 1555 -185862 1
gene 3 591 15 350460 0 1556 350460 0
gene 3 7 612 -542925 0 1605 -542925 1
gene 3 612 14 -486603 0 1606 -486603 0
gene 3 4 646 67050 0 1691 67050 1
gene 3 646 14 77790 0 1692 77790 1
gene 1 6 388 134472 0 1763 134472 1
gene 1 455 695 162717 1 1828 162717 1
gene 1 695 455 -158778 0 1829 -158778 1
gene 1 695 758 158961 0 1982 158961 1
gene 1 758 455 -142320 0 1983 -142320 1
gene 2 183 873 -439941 0 2264 -439941 1
gene 2 873 15 -200148 0 2265 -200148 1
gene 1 310 388 -212796 0 2353 -212796 1
gene 1 10 934 670361 0 2417 670361 0
gene 1 934 14 60936 0 2418 60936 1
gene 2 9 388 207291 0 2756 207291 1
gene 2 9 1136 221274 0 2936 221274 0
gene 3 1136 388 -40296 0 2937 -40296 1
gene 1 934 1191 675626 0 3070 675626 1
gene 1 1191 14 -217116 0 3071 -217116 1
gene 2 3 1225 -228864 0 3155 -228864 1
gene 2 1225 207 -197664 0 3156 -197664 1
gene 1 873 873 -325680 1 3296 -325680 1
gene 1 591 455 147243 0 3392 147243 1
gene 2 1136 1350 303690 0 3472 303690 1
gene 2 1350 388 -753142 0 3473 -753142 1
gene 2 238 238 -95298 1 3569 -95298 1
gene 3 10 1420 169719 0 3648 169719 1
gene 4 1420 388 169416 0 3649 169416 1
gene 3 4 1454 505128 0 3731 505128 1
gene 3 1454 15 -800000 0 3732 -800000 1
gene 3 612 1488 -66210 0 3812 -66210 1
gene 3 1488 14 348875 0 3813 348875 1
gene 3 388 1550 191712 0 3976 191712 1
gene 3 1550 183 -499908 0 3977 -499908 1
gene 3 1420 1591 304246 0 4076 304246 1
gene 3 1591 388 226650 0 4077 226650 1
gene 4 310 1626 195858 0 4165 195858 1
gene 4 1626 30 386487 0 4166 386487 0
gene 4 1550 419 526331 0 4260 526331 1
gene 1 455 1821 -574473 0 4650 -574473 1
gene 1 1821 14 -339243 0 4651 -339243 1
gene 1 5 1868 285801 0 4778 285801 1
gene 1 1868 156 -800000 0 4779 -800000 1
gene 1 183 183 -220581 1 4880 -220581 1
gene 4 1550 1550 471729 1 4949 471729 1
gene 3 1454 1975 230778 0 5033 230778 1
gene 3 1975 15 -659237 0 5034 -659237 1
gene 1 156 2010 800000 0 5118 800000 1
gene 1 2010 13 -199600 0 5119 -199600 1
gene 3 1550 2051 -32682 0 5219 -32682 1
gene 3 2051 183 164211 0 5220 164211 1
gene 3 612 612 -353673 1 5310 -353673 1
gene 1 183 2192 49326 1 5568 49326 1
gene 1 2192 183 13314 0 5569 13314 1
gene 1 310 2223 800000 0 5641 800000 1
gene 1 2223 388 -309513 0 5642 -309513 1
gene 3 419 2280 -255513 0 5793 -255513 1
gene 3 2280 591 41253 0 5794 41253 1
gene 3 591 2365 376050 0 6011 376050 1
gene 3 2365 15 70857 0 6012 70857 0
gene 4 1626 2390 -297354 0 6075 -297354 1
gene 4 2390 30 -365937 0 6076 -365937 1
gene 2 1136 2447 16887 0 6225 16887 1
gene 2 2447 1350 123480 0 6226 123480 0
gene 4 11 2570 364335 0 6534 364335 0
gene 4 2570 13 445351 0 6535 445351 1
gene 3 7 2753 -384185 0 6991 -384185 1
gene 3 2753 612 -73440 0 6992 -73440 1
gene 1 183 2783 -129393 1 7072 -129393 1
gene 1 2783 183 52881 0 7073 52881 1
gene 1 758 1591 -219480 0 7387 -219480 1
gene 1 2192 2922 -240480 0 7438 -240480 0
gene 1 2922 183 -28089 0 7439 -28089 1
gene 2 1454 1454 -133749 1 7652 -133749 1
gene 4 7 2192 87459 0 7731 87459 1
gene 1 2223 3065 381342 0 7809 381342 0
gene 1 3065 388 12708 0 7810 12708 0
gene 3 9 3096 -407379 0 7884 -407379 1
gene 3 3096 15 721764 0 7885 721764 0
gene 3 1136 1821 -95349 0 7970 -95349 1
gene 1 10 3185 -360224 0 8106 -360224 1
gene 1 3185 934 -55560 0 8107 -55560 0
gene 3 3096 3206 -292116 0 8161 -292116 1
gene 3 3206 15 -11001 0 8162 -11001 1
gene 4 6 3236 170165 0 8245 170165 1
gene 4 3236 14 571275 0 8246 571275 1
gene 2 1136 3278 -203961 0 8347 -203961 1
gene 2 3278 388 -223305 0 8348 -223305 1
gene 1 758 3303 112821 0 8414 112821 1
gene 1 3303 455 83835 0 8415 83835 1
gene 3 8 2447 -331914 0 8513 -331914 1
gene 1 591 591 -510125 1 8588 -510125 1
gene 3 12 3403 580284 0 8670 580284 1
gene 1 3403 13 -176343 0 8671 -176343 0
gene 4 7 3528 284556 0 8979 284556 1
gene 4 3528 2192 -95415 0 8980 -95415 1
gene 3 3096 612 -153033 0 9082 -153033 1
gene 3 612 3611 -412914 1 9204 -412914 1
gene 3 3611 612 -24462 0 9205 -24462 1
gene 4 1550 3652 -800000 1 9292 -800000 1
gene 4 3652 1550 -144513 0 9293 -144513 1
gene 1 2280 1454 209751 0 9594 209751 1
gene 1 183 3816 -16168 1 9727 -16168 1
gene 1 3816 2783 -219342 0 9728 -219342 0
gene 2 238 3850 -37215 1 9814 -37215 1
gene 2 3850 238 -221424 0 9815 -221424 1
gene 3 646 2365 -800000 0 9895 -800000 1
gene 4 2922 2922 -101181 1 10151 -101181 1
gene 4 11 4020 76434 0 10235 76434 1
gene 4 4020 2570 -535053 0 10236 -535053 1
gene 2 5 4056 -79215 0 10320 -79215 0
gene 2 4056 238 -603906 0 10321 -603906 1
gene 2 2 4084 4824 0 10394 4824 1
gene 2 4084 13 58512 0 10395 58512 1
gene 3 1975 4114 -216180 0 10472 -216180 1
gene 3 4114 15 -6381 0 10473 -6381 0
gene 4 7 4165 -55059 0 10605 -55059 1
gene 4 4165 13 -153741 0 10606 -153741 1
gene 1 2783 2570 -300951 0 10685 -300951 1
gene 1 2783 4273 126387 0 10874 126387 1
gene 1 4273 183 -86676 0 10875 -86676 1
gene 2 2447 4305 -368739 0 10952 -368739 1
gene 2 4305 1350 -245379 0 10953 -245379 0
gene 4 2570 4345 -255360 0 11049 -255360 1
gene 4 4345 13 -99780 0 11050 -99780 0
gene 4 156 15 -553332 0 11135 -553332 1
gene 1 3065 4471 -177273 0 11369 -177273 1
gene 1 4471 388 -56925 0 11370 -56925 1
gene 3 2365 4502 114357 0 11439 114357 0
gene 3 4502 15 127308 0 11440 127308 1
gene 1 591 4531 75900 0 11513 75900 1
gene 1 4531 455 138331 0 11514 138331 1
gene 2 238 4609 -344673 0 11693 -344673 1
gene 2 4609 15 35790 0 11694 35790 1
gene 2 2 4649 -156279 0 11787 -156279 1
gene 2 4649 15 271302 0 11788 271302 1
gene 3 7 4684 -528462 0 11871 -528462 1
gene 3 4684 419 -97386 0 11872 -97386 1
gene 2 873 4718 62775 0 11956 62775 1
gene 2 4718 15 533145 0 11957 533145 0
gene 2 183 4752 -466554 0 12043 -466554 1
gene 2 4752 873 -456186 0 12044 -456186 1
gene 2 3 4789 340311 0 12139 340311 1
gene 2 4789 207 -789770 0 12140 -789770 1
gene 1 455 4889 233469 1 12394 233469 1
gene 1 4889 695 666561 0 12395 666561 1
gene 3 9 4923 14526 0 12475 14526 1
gene 3 4923 3096 -423207 0 12476 -423207 1
gene 4 2390 4959 -520263 0 12563 -520263 0
gene 4 4959 30 213465 0 12564 213465 1
gene 2 646 4114 -404337 0 12746 -404337 1
gene 1 873 1975 -189159 0 13072 -189159 1
gene 1 2783 5182 -786140 0 13143 -786140 1
gene 1 5182 2570 138168 0 13144 138168 1
gene 4 3528 5213 503231 0 13231 503231 1
gene 4 5213 2192 -425448 0 13232 -425448 1
gene 3 8 5249 417840 0 13323 417840 1
gene 3 5249 14 -800000 0 13324 -800000 1
gene 2 310 183 -169365 0 13578 -169365 1
gene 2 3 5388 83043 0 13649 83043 1
gene 2 5388 1225 -143496 0 13650 -143496 0
gene 4 2390 5421 -526473 0 13728 -526473 1
gene 4 5421 30 12522 0 13729 12522 1
gene 3 1454 5451 -305880 0 13805 -305880 1
gene 3 5451 15 -551685 0 13806 -551685 1
gene 1 5 5495 201102 0 13911 201102 0
gene 1 5495 1868 126927 0 13912 126927 0
gene 2 5 2390 205515 0 13988 205515 1
gene 1 873 5620 428538 1 14222 428538 1
gene 1 5620 873 -152502 0 14223 -152502 1
gene 3 1136 5653 -203352 0 14306 -203352 1
gene 3 5653 1821 112926 0 14307 112926 1
gene 2 5 5685 -266388 0 14376 -266388 1
gene 2 5685 2390 48882 0 14377 48882 1
gene 2 3 5721 17631 0 14466 17631 1
gene 2 5721 5388 122967 0 14467 122967 1
gene 4 12 5757 163203 0 14550 163203 1
gene 4 5757 14 334392 0 14551 334392 1
gene 2 3236 1591 -28107 0 14870 -28107 0
gene 2 183 4305 139929 1 14958 139929 1
gene 3 3206 5951 -737874 0 15049 -737874 1
gene 3 5951 15 197640 0 15050 197640 0
gene 3 4502 6039 -324339 0 15254 -324339 1
gene 3 6039 15 -154530 0 15255 -154530 1
gene 1 5495 6197 264192 0 15639 264192 1
gene 1 6197 1868 -18141 0 15640 -18141 1
gene 3 591 6231 189384 0 15728 189384 1
gene 3 6231 15 -139218 0 15729 -139218 1
gene 2 3 6301 -228699 0 15898 -228699 1
gene 2 6301 4789 28527 0 15899 28527 1
gene 2 2 6339 568869 0 15986 568869 0
gene 2 6339 4649 -192639 0 15987 -192639 1
gene 4 7 6380 158781 0 16093 158781 1
gene 4 6380 2192 -800000 0 16094 -800000 1
gene 1 5 6404 299220 0 16156 299220 1
gene 1 6404 5495 172314 0 16157 172314 1
gene 4 12 4345 -60741 0 16229 -60741 1
gene 2 2 6460 528981 0 16302 528981 1
gene 2 6460 6339 -37137 0 16303 -37137 1
gene 3 1136 6497 526164 0 16393 526164 1
gene 3 6497 5653 421206 0 16394 421206 1
gene 4 8 6528 -215721 0 16468 -215721 0
gene 4 6528 15 -175878 0 16469 -175878 1
gene 3 9 6560 -626280 0 16550 -626280 0
gene 3 6560 15 -210654 0 16551 -210654 1
gene 2 5951 4959 417561 0 16811 417561 1
gene 2 2 6687 262814 0 16868 262814 1
gene 2 6687 14 29622 0 16869 29622 1
gene 1 1821 6781 230592 0 17101 230592 1
gene 1 6781 14 253101 0 17102 253101 1
gene 1 6197 6860 605774 0 17299 605774 1
gene 1 6860 1868 -133572 0 17300 -133572 1
gene 1 3816 6969 800000 0 17575 800000 1
gene 1 6969 2783 592815 0 17576 592815 1
gene 2 5 7006 800000 0 17662 800000 1
gene 2 7006 4056 -396561 0 17663 -396561 1
gene 4 2051 2365 65220 0 17737 65220 0
gene 3 9 7064 285507 0 17812 285507 0
gene 3 7064 6560 532488 0 17813 532488 1
gene 3 2922 3403 -81828 0 17895 -81828 1
gene 1 5620 7147 291768 0 18035 291768 1
gene 1 7147 873 2472 0 18036 2472 1
gene 4 12 7214 280266 0 18210 280266 1
gene 4 7214 4345 240360 0 18211 240360 1
gene 2 5388 7249 -325059 0 18295 -325059 0
gene 2 7249 1225 215586 0 18296 215586 1
gene 2 9 7309 -161295 0 18452 -161295 1
gene 2 7309 1136 -355152 0 18453 -355152 1
gene 3 2051 7383 -84942 0 18629 -84942 1
gene 3 7383 183 14829 0 18630 14829 1
gene 4 5757 7644 -533772 0 19306 -533772 1
gene 4 7644 14 252498 0 19307 252498 1
gene 3 3096 7711 339618 0 19484 339618 1
gene 3 7711 3206 211068 0 19485 211068 1
gene 3 11 7781 104517 0 19652 104517 1
gene 3 7781 14 -37743 0 19653 -37743 1
gene 4 4345 7815 328407 0 19737 328407 1
gene 4 7815 13 -103050 0 19738 -103050 1
gene 4 4923 7147 256995 0 20021 256995 1
gene 2 207 8033 117678 0 20299 117678 1
gene 2 8033 13 -3033 0 20300 -3033 1
gene 1 3185 8072 55044 0 20398 55044 1
gene 1 8072 934 154317 0 20399 154317 1
gene 3 1136 8145 288852 0 20574 288852 1
gene 3 8145 1821 454833 0 20575 454833 1
gene 4 12 8183 -591524 0 20667 -591524 1
gene 4 8183 30 103068 0 20668 103068 1
gene 3 9 8215 -8265 0 20750 -8265 1
gene 3 8215 7064 246363 0 20751 246363 1
gene 3 646 8238 -800000 0 20821 -800000 1
gene 3 8238 14 -541263 0 20822 -541263 0
gene 3 6231 8339 -174078 0 21066 -174078 1
gene 3 8339 15 -133365 0 21067 -133365 1
gene 4 2390 8403 -91347 0 21242 -91347 1
gene 4 8403 4959 393603 0 21243 393603 1
gene 2 5388 8501 -705272 0 21487 -705272 1
gene 2 8501 1225 -152043 0 21488 -152043 1
gene 2 2 8542 151011 0 21587 151011 1
gene 2 8542 14 29376 0 21588 29376 1
gene 3 2365 8573 -87780 0 21666 -87780 1
gene 3 8573 4502 281375 0 21667 281375 1
gene 1 4531 8609 567167 0 21755 567167 1
gene 1 8609 455 -800000 0 21756 -800000 1
gene 2 5388 8643 305724 0 21843 305724 1
gene 2 8643 7249 106458 0 21844 106458 1
gene 3 9 8680 62322 0 21930 62322 1
gene 3 8680 4923 -153426 0 21931 -153426 1
gene 4 6301 6301 42186 1 22039 42186 1
gene 4 419 8643 290085 0 22120 290085 1
gene 1 7006 5182 58956 0 22220 58956 1
gene 3 5951 8833 -224514 0 22305 -224514 1
gene 3 8833 15 244575 0 22306 244575 1
gene 1 8 8938 -422724 0 22561 -422724 1
gene 1 8938 13 -198738 0 22562 -198738 1
gene 3 9 8966 -144552 0 22636 -144552 1
gene 3 8966 6560 -106203 0 22637 -106203 1
gene 2 3236 9016 -639464 0 22766 -639464 1
gene 2 9016 1591 463017 0 22767 463017 1
gene 4 183 419 -31575 0 23056 -31575 1
gene 1 5182 5182 540729 1 23247 540729 1
gene 3 4114 9292 -73899 0 23495 -73899 1
gene 3 9292 15 145452 0 23496 145452 1
gene 1 2223 9390 107917 0 23756 107917 0
gene 1 9390 3065 -721578 0 23757 -721578 1
gene 2 4305 9474 -100976 0 23965 -100976 1
gene 2 9474 1350 -16209 0 23966 -16209 1
gene 4 2051 9599 -12813 0 24267 -12813 1
gene 4 9599 2365 94467 0 24268 94467 1
gene 1 2390 758 99735 0 24347 99735 1
gene 3 8238 9696 1 0 24517 0 1
gene 3 9696 14 -541263 0 24518 0 1
gene 2 2010 4020 42392 0 24589 42392 1
gene 1 2223 9769 1 0 24693 0 1
gene 1 9769 9390 107917 0 24694 0 1
gene 1 3403 9802 1 0 24777 0 1
gene 1 9802 13 -176343 0 24778 0 1
genomeend 30


/* Organism #42 Fitness: 220.000000 Time: 0 */
/* Position #42*/
#1 x: 26 y: 31
#2 x: 80 y: 36
#3 x: 71 y: 18
#4 x: 48 y: 60
#5 x: 25 y: 77
#6 x: 77 y: 73
genomestart 42
trait 1 0.000000 29508.000000 0.000000 0.000000 13437.000000 0.000000 0.000000 14385.000000 trait 2 0.000000 2069.000000 40645.000000 63982.000000 60212.000000 39453.000000 6093.000000 81032.000000 trait 3 0.000000 0.000000 0.000000 0.000000 52930.000000 0.000000 0.000000 0.000000 trait 4 4.000000 0.000000 0.000000 100000.000000 0.000000 0.000000 44904.000000 0.000000 node 1 1 1 3
node 2 3 1 1
node 3 1 1 1
node 4 2 1 1
node 5 4 1 1
node 6 3 1 1
node 7 2 1 1
node 8 3 1 1
node 9 1 1 1
node 10 1 1 1
node 11 1 1 1
node 12 1 1 1
node 13 3 0 2
node 14 3 0 2
node 15 2 0 2
node 30 1 0 0
node 156 1 0 0
node 183 1 0 0
node 207 1 0 0
node 238 1 0 0
node 310 1 0 0
node 388 1 0 0
node 419 1 0 0
node 455 1 0 0
node 591 1 0 0
node 612 1 0 0
node 646 1 0 0
node 695 1 0 0
node 758 1 0 0
node 873 1 0 0
node 934 1 0 0
node 1136 1 0 0
node 1191 1 0 0
node 1225 1 0 0
node 1350 1 0 0
node 1420 1 0 0
node 1454 1 0 0
node 1488 1 0 0
node 1550 1 0 0
node 1591 1 0 0
node 1626 2 0 0
node 1821 1 0 0
node 1868 2 0 0
node 1975 1 0 0
node 2010 1 0 0
node 2051 1 0 0
node 2192 1 0 0
node 2223 1 0 0
node 2280 1 0 0
node 2365 1 0 0
node 2390 1 0 0
node 2447 1 0 0
node 2570 1 0 0
node 2753 1 0 0
node 2783 1 0 0
node 2922 1 0 0
node 3065 1 0 0
node 3096 1 0 0
node 3185 1 0 0
node 3206 1 0 0
node 3236 1 0 0
node 3278 1 0 0
node 3303 1 0 0
node 3403 1 0 0
node 3528 1 0 0
node 3611 1 0 0
node 3652 1 0 0
node 3816 3 0 0
node 3850 1 0 0
node 4020 1 0 0
node 4056 1 0 0
node 4084 1 0 0
node 4114 1 0 0
node 4165 1 0 0
node 4273 1 0 0
node 4305 1 0 0
node 4345 1 0 0
node 4471 1 0 0
node 4502 1 0 0
node 4531 1 0 0
node 4609 4 0 0
node 4649 1 0 0
node 4684 1 0 0
node 4718 1 0 0
node 4752 1 0 0
node 4789 1 0 0
node 4889 1 0 0
node 4923 1 0 0
node 4959 1 0 0
node 5182 1 0 0
node 5213 1 0 0
node 5249 1 0 0
node 5388 1 0 0
node 5421 1 0 0
node 5451 1 0 0
node 5495 1 0 0
node 5620 1 0 0
node 5653 1 0 0
node 5685 1 0 0
node 5721 1 0 0
node 5757 1 0 0
node 6001 1 0 0
node 6034 1 0 0
node 6064 1 0 0
node 6096 1 0 0
node 6131 1 0 0
node 6348 1 0 0
node 6580 4 0 0
node 6617 1 0 0
node 6748 1 0 0
node 6858 1 0 0
node 6944 1 0 0
node 7066 1 0 0
node 7243 1 0 0
node 7294 1 0 0
node 7413 1 0 0
node 7498 1 0 0
node 7552 1 0 0
node 7717 1 0 0
node 7771 1 0 0
node 7912 1 0 0
node 7941 1 0 0
node 8034 1 0 0
node 8061 1 0 0
node 8224 1 0 0
node 8245 1 0 0
node 8285 1 0 0
node 8367 1 0 0
node 8395 1 0 0
node 8426 1 0 0
node 8509 1 0 0
node 8675 1 0 0
node 8770 1 0 0
node 8811 1 0 0
node 8841 1 0 0
node 8920 1 0 0
node 9018 1 0 0
node 9047 1 0 0
node 9167 1 0 0
node 9197 1 0 0
node 9275 1 0 0
node 9310 1 0 0
node 9339 1 0 0
node 9430 1 0 0
node 9459 1 0 0
node 9493 1 0 0
node 9537 1 0 0
node 9737 1 0 0
node 9778 1 0 0
node 9810 1 0 0
gene 2 1 13 279672 0 1 279672 1
gene 2 2 13 -450837 0 2 -450837 0
gene 2 3 13 -266403 0 3 -266403 1
gene 2 4 13 -42933 0 4 -42933 1
gene 1 5 13 -117513 0 5 -117513 0
gene 3 6 13 280557 0 6 280557 1
gene 4 7 13 742935 0 7 742935 1
gene 1 8 13 -135627 0 8 -135627 1
gene 3 9 13 800000 0 9 800000 1
gene 4 10 13 174438 0 10 174438 1
gene 4 11 13 -681080 0 11 -681080 0
gene 3 12 13 -30603 0 12 -30603 0
gene 1 1 14 30480 0 13 30480 1
gene 2 2 14 -22827 0 14 -22827 1
gene 1 3 14 193545 0 15 193545 0
gene 3 4 14 -639983 0 16 -639983 1
gene 2 5 14 23601 0 17 23601 1
gene 4 6 14 -35895 0 18 -35895 0
gene 3 7 14 213114 0 19 213114 0
gene 3 8 14 -483420 0 20 -483420 1
gene 1 9 14 442989 0 21 442989 1
gene 1 10 14 -106266 0 22 -106266 1
gene 3 11 14 231282 0 23 231282 1
gene 4 12 14 228888 0 24 228888 0
gene 1 1 15 17886 0 25 17886 1
gene 2 2 15 266622 0 26 266622 1
gene 2 3 15 -596639 0 27 -596639 1
gene 3 4 15 -84771 0 28 -84771 1
gene 2 5 15 130563 0 29 130563 0
gene 2 6 15 -800000 0 30 -800000 0
gene 3 7 15 -259419 0 31 -259419 1
gene 4 8 15 -659342 0 32 -659342 1
gene 3 9 15 -169080 0 33 -169080 1
gene 1 10 15 800000 0 34 800000 1
gene 2 11 15 -351516 0 35 -351516 1
gene 2 12 15 46761 0 36 46761 1
gene 2 2 30 206067 0 68 206067 1
gene 2 30 14 -393027 0 69 -393027 1
gene 4 12 30 212226 0 128 212226 1
gene 4 13 14 -200181 0 154 -200181 1
gene 1 5 156 -166974 0 401 -166974 1
gene 1 156 13 -485847 0 402 -485847 1
gene 2 11 183 -233259 0 483 -233259 0
gene 2 183 15 490647 0 484 490647 0
gene 2 3 207 -506139 0 547 -506139 1
gene 2 207 13 -348591 0 548 -348591 0
gene 2 5 238 800000 0 628 800000 1
gene 2 238 15 -528786 0 629 -528786 0
gene 3 10 183 653364 0 685 653364 1
gene 3 9 207 752468 0 756 752468 1
gene 4 12 310 690117 0 820 690117 1
gene 4 310 30 225582 0 821 225582 0
gene 3 10 388 -98193 0 1034 -98193 0
gene 3 388 183 -259794 0 1035 -259794 1
gene 3 7 419 -234069 0 1104 -234069 0
gene 3 419 15 -240873 0 1105 -240873 1
gene 1 9 455 109026 0 1202 109026 1
gene 1 455 14 -567816 0 1203 -567816 0
gene 1 455 455 -301869 1 1275 -301869 1
gene 3 419 591 -152832 0 1555 -152832 1
gene 3 591 15 -282276 0 1556 -282276 1
gene 3 7 612 -173016 0 1605 -173016 1
gene 3 612 14 217671 0 1606 217671 0
gene 3 4 646 41907 0 1691 41907 1
gene 3 646 14 -245934 0 1692 -245934 1
gene 4 6 388 -6297 0 1763 -6297 1
gene 1 455 695 213882 1 1828 213882 1
gene 1 695 455 -230376 0 1829 -230376 0
gene 1 695 758 491514 0 1982 491514 1
gene 1 758 455 -34611 0 1983 -34611 1
gene 2 183 873 -642831 0 2264 -642831 0
gene 2 873 15 268374 0 2265 268374 1
gene 1 310 388 -481176 0 2353 -481176 1
gene 1 10 934 -401154 0 2417 -401154 1
gene 1 934 14 222684 0 2418 222684 1
gene 2 9 388 173985 0 2756 173985 1
gene 2 9 1136 -193347 0 2936 -193347 1
gene 2 1136 388 -232542 0 2937 -232542 0
gene 1 934 1191 364095 0 3070 364095 1
gene 1 1191 14 -410466 0 3071 -410466 1
gene 2 3 1225 800000 0 3155 800000 0
gene 2 1225 207 -207582 0 3156 -207582 1
gene 1 873 873 631538 1 3296 631538 1
gene 1 591 455 340545 0 3392 340545 1
gene 2 1136 1350 -10152 0 3472 -10152 1
gene 2 1350 388 -165813 0 3473 -165813 1
gene 2 238 238 270993 1 3569 270993 1
gene 3 10 1420 54366 0 3648 54366 1
gene 3 1420 388 -241095 0 3649 -241095 1
gene 3 4 1454 146622 0 3731 146622 1
gene 3 1454 15 -70899 0 3732 -70899 1
gene 3 612 1488 -728169 0 3812 -728169 1
gene 3 1488 14 393615 0 3813 393615 1
gene 3 388 1550 580757 0 3976 580757 1
gene 3 1550 183 -138795 0 3977 -138795 1
gene 3 1420 1591 -98808 0 4076 -98808 0
gene 3 1591 388 -84705 0 4077 -84705 1
gene 4 310 1626 327888 0 4165 327888 1
gene 4 1626 30 -176772 0 4166 -176772 1
gene 4 1550 419 -712920 0 4260 -712920 1
gene 1 455 1821 -108054 0 4650 -108054 1
gene 1 1821 14 579377 0 4651 579377 0
gene 1 5 1868 -321576 0 4778 -321576 0
gene 1 1868 156 92817 0 4779 92817 1
gene 1 183 183 364875 1 4880 364875 1
gene 4 1550 1550 124041 1 4949 124041 1
gene 3 1454 1975 -190302 0 5033 -190302 1
gene 3 1975 15 645237 0 5034 645237 1
gene 1 156 2010 -9189 0 5118 -9189 1
gene 1 2010 13 193236 0 5119 193236 1
gene 3 1550 2051 26979 0 5219 26979 1
gene 3 2051 183 -213687 0 5220 -213687 1
gene 3 612 612 734670 1 5310 734670 0
gene 1 183 2192 705558 1 5568 705558 1
gene 1 2192 183 252580 0 5569 252580 1
gene 1 310 2223 -208617 0 5641 -208617 1
gene 1 2223 388 -53190 0 5642 -53190 0
gene 3 419 2280 -376604 0 5793 -376604 0
gene 3 2280 591 68901 0 5794 68901 1
gene 3 591 2365 115308 0 6011 115308 1
gene 3 2365 15 -262428 0 6012 -262428 0
gene 4 1626 2390 195519 0 6075 195519 0
gene 4 2390 30 -262785 0 6076 -262785 0
gene 2 1136 2447 800000 0 6225 800000 1
gene 2 2447 1350 -162078 0 6226 -162078 0
gene 4 11 2570 188733 0 6534 188733 1
gene 4 2570 13 457056 0 6535 457056 1
gene 3 7 2753 -469608 0 6991 -469608 1
gene 3 2753 612 622199 0 6992 622199 1
gene 1 183 2783 -76443 1 7072 -76443 0
gene 1 2783 183 -758435 0 7073 -758435 1
gene 1 758 1591 333915 0 7387 333915 1
gene 1 2192 2922 -56070 0 7438 -56070 1
gene 1 2922 183 109158 0 7439 109158 1
gene 2 1454 1454 209496 1 7652 209496 1
gene 4 7 2192 509430 0 7731 509430 0
gene 1 2223 3065 -134733 0 7809 -134733 1
gene 1 3065 388 157080 0 7810 157080 1
gene 3 9 3096 37953 0 7884 37953 1
gene 4 3096 15 33201 0 7885 33201 0
gene 3 1136 1821 109275 0 7970 109275 1
gene 1 10 3185 -197067 0 8106 -197067 0
gene 1 3185 934 -198492 0 8107 -198492 1
gene 3 3096 3206 169662 0 8161 169662 1
gene 3 3206 15 305625 0 8162 305625 1
gene 4 6 3236 247395 0 8245 247395 1
gene 4 3236 14 488144 0 8246 488144 1
gene 2 1136 3278 -22857 0 8347 -22857 1
gene 2 3278 388 -293388 0 8348 -293388 1
gene 1 758 3303 -264366 0 8414 -264366 1
gene 1 3303 455 593982 0 8415 593982 1
gene 3 8 2447 39225 0 8513 39225 1
gene 1 591 591 368700 1 8588 368700 1
gene 3 12 3403 743361 0 8670 743361 0
gene 1 3403 13 -99738 0 8671 -99738 1
gene 4 7 3528 -127542 0 8979 -127542 1
gene 4 3528 2192 -124662 0 8980 -124662 1
gene 3 3096 612 -419079 0 9082 -419079 1
gene 3 612 3611 28509 1 9204 28509 1
gene 3 3611 612 -234477 0 9205 -234477 1
gene 4 1550 3652 508317 1 9292 508317 1
gene 4 3652 1550 -417585 0 9293 -417585 1
gene 1 2280 1454 324885 0 9594 324885 1
gene 1 183 3816 299214 1 9727 299214 1
gene 1 3816 2783 -119178 0 9728 -119178 1
gene 2 238 3850 435495 1 9814 435495 1
gene 2 3850 238 -255644 0 9815 -255644 1
gene 3 646 2365 20049 0 9895 20049 1
gene 4 2922 2922 390465 1 10151 390465 1
gene 4 11 4020 -22431 0 10235 -22431 1
gene 4 4020 2570 277935 0 10236 277935 1
gene 2 5 4056 175515 0 10320 175515 0
gene 2 4056 238 129263 0 10321 129263 0
gene 2 2 4084 21411 0 10394 21411 1
gene 2 4084 13 -326883 0 10395 -326883 0
gene 3 1975 4114 741813 0 10472 741813 1
gene 3 4114 15 -59446 0 10473 -59446 1
gene 4 7 4165 -541833 0 10605 -541833 1
gene 4 4165 13 203457 0 10606 203457 1
gene 1 2783 2570 80991 0 10685 80991 1
gene 1 2783 4273 -800000 0 10874 -800000 1
gene 1 4273 183 227775 0 10875 227775 0
gene 2 2447 4305 -73551 0 10952 -73551 0
gene 2 4305 1350 15585 0 10953 15585 1
gene 4 2570 4345 -532262 0 11049 -532262 1
gene 4 4345 13 -296835 0 11050 -296835 1
gene 4 156 15 -447555 0 11135 -447555 1
gene 1 3065 4471 -28506 0 11369 -28506 1
gene 1 4471 388 -589481 0 11370 -589481 1
gene 3 2365 4502 -396855 0 11439 -396855 1
gene 3 4502 15 798824 0 11440 798824 0
gene 1 591 4531 -203373 0 11513 -203373 1
gene 1 4531 455 -247839 0 11514 -247839 1
gene 2 238 4609 -221706 0 11693 -221706 1
gene 2 4609 15 704394 0 11694 704394 0
gene 2 2 4649 -234393 0 11787 -234393 0
gene 2 4649 15 -7443 0 11788 -7443 1
gene 3 7 4684 -186531 0 11871 -186531 1
gene 3 4684 419 40911 0 11872 40911 1
gene 2 873 4718 255690 0 11956 255690 1
gene 2 4718 15 116256 0 11957 116256 1
gene 2 183 4752 -34887 0 12043 -34887 1
gene 2 4752 873 136434 0 12044 136434 1
gene 2 3 4789 -81495 0 12139 -81495 1
gene 2 4789 207 556089 0 12140 556089 1
gene 1 455 4889 130527 1 12394 130527 0
gene 1 4889 695 604173 0 12395 604173 1
gene 3 9 4923 209358 0 12475 209358 1
gene 3 4923 3096 -267324 0 12476 -267324 1
gene 4 2390 4959 -231342 0 12563 -231342 1
gene 4 4959 30 278748 0 12564 278748 1
gene 2 646 4114 145074 0 12746 145074 1
gene 1 873 1975 231036 0 13072 231036 1
gene 1 2783 5182 -629700 0 13143 -629700 1
gene 1 5182 2570 -40698 0 13144 -40698 1
gene 4 3528 5213 -305112 0 13231 -305112 1
gene 4 5213 2192 -277635 0 13232 -277635 1
gene 3 8 5249 -121275 0 13323 -121275 1
gene 3 5249 14 149022 0 13324 149022 1
gene 2 310 183 -194643 0 13578 -194643 1
gene 2 3 5388 291687 0 13649 291687 0
gene 2 5388 1225 107210 0 13650 107210 1
gene 4 2390 5421 -291024 0 13728 -291024 1
gene 4 5421 30 -161823 0 13729 -161823 1
gene 3 1454 5451 219018 0 13805 219018 1
gene 3 5451 15 470760 0 13806 470760 1
gene 1 5 5495 -204054 0 13911 -204054 0
gene 1 5495 1868 153543 0 13912 153543 1
gene 2 5 2390 -468453 0 13988 -468453 1
gene 1 873 5620 30516 1 14222 30516 1
gene 1 5620 873 603030 0 14223 603030 1
gene 3 1136 5653 204240 0 14306 204240 0
gene 3 5653 1821 397119 0 14307 397119 1
gene 2 5 5685 417834 0 14376 417834 1
gene 2 5685 2390 184884 0 14377 184884 1
gene 2 3 5721 -352389 0 14466 -352389 1
gene 2 5721 5388 -17682 0 14467 -17682 1
gene 4 12 5757 -75234 0 14550 -75234 1
gene 4 5757 14 297090 0 14551 297090 1
gene 4 2192 2192 -92019 1 14644 -92019 1
gene 2 4471 3611 -800000 0 14731 -800000 1
gene 2 3652 183 67779 0 14980 67779 0
gene 3 3611 1550 468771 0 15006 468771 1
gene 2 3652 6001 249912 0 15168 249912 1
gene 2 6001 183 800000 0 15169 800000 1
gene 4 7 6034 -108996 0 15242 -108996 0
gene 4 6034 2192 696735 0 15243 696735 0
gene 1 873 6064 -284361 1 15310 -284361 1
gene 1 6064 5620 52761 0 15311 52761 1
gene 1 455 6096 -546033 0 15387 -546033 1
gene 1 6096 14 -800000 0 15388 -800000 1
gene 2 207 6131 -15471 0 15472 -15471 1
gene 2 6131 13 93798 0 15473 93798 1
gene 1 5620 238 278808 0 15552 278808 1
gene 1 6 3096 79497 0 15654 79497 1
gene 4 2192 1454 171507 0 15745 171507 1
gene 3 1420 6348 357339 0 16013 357339 1
gene 3 6348 1591 -41892 0 16014 -41892 1
gene 2 4020 4889 478395 0 16278 478395 1
gene 2 934 4084 -174960 0 16345 -174960 1
gene 1 4609 2390 181650 0 16538 181650 1
gene 1 310 6580 800000 0 16600 800000 1
gene 1 6580 2223 -175311 0 16601 -175311 0
gene 3 419 6617 151479 0 16690 151479 0
gene 3 6617 2280 -386550 0 16691 -386550 1
gene 4 11 5653 529086 0 16783 529086 1
gene 2 4056 6748 286473 0 17017 286473 1
gene 2 6748 238 -183383 0 17018 -183383 1
gene 2 4889 4889 310920 1 17091 310920 1
gene 4 2192 6858 800000 0 17295 800000 1
gene 4 6858 1454 209586 0 17296 209586 1
gene 1 5 6944 669354 0 17513 669354 1
gene 1 6944 5495 -24192 0 17514 -24192 1
gene 2 3206 5685 97122 0 17669 97122 1
gene 2 2447 6617 373274 0 17743 373274 1
gene 3 1420 7066 134613 0 17816 134613 0
gene 3 7066 1591 50268 0 17817 50268 1
gene 1 2192 7243 -107553 0 18279 -107553 0
gene 1 7243 2922 26088 0 18280 26088 1
gene 1 591 7294 -311703 1 18415 -311703 1
gene 1 7294 591 157182 0 18416 157182 1
gene 2 4684 695 436503 0 18611 436503 1
gene 4 8 7413 -358002 0 18705 -358002 1
gene 4 7413 15 238293 0 18706 238293 1
gene 4 3278 1350 176112 0 18800 176112 1
gene 2 1225 7498 -329871 0 18915 -329871 1
gene 2 7498 207 322362 0 18916 322362 1
gene 4 5 4684 6846 0 18983 6846 0
gene 1 3 7552 170103 0 19068 170103 1
gene 1 7552 14 -673011 0 19069 -673011 1
gene 4 646 646 186366 1 19295 186366 1
gene 4 4923 4165 -214941 0 19365 -214941 1
gene 1 6064 6064 229701 1 19446 229701 1
gene 1 1821 7717 -482883 0 19502 -482883 1
gene 1 7717 14 -178401 0 19503 -178401 1
gene 4 7 7771 47634 0 19629 47634 1
gene 4 7771 6034 800000 0 19630 800000 1
gene 3 5757 5757 -35862 1 19721 -35862 1
gene 4 1868 4789 800000 0 19809 800000 1
gene 1 4649 4165 165246 0 19884 165246 1
gene 2 1350 7912 480201 0 19980 480201 1
gene 2 7912 388 69114 0 19981 69114 1
gene 2 4609 7941 144717 0 20058 144717 1
gene 2 7941 15 -47928 0 20059 -47928 1
gene 3 1136 8034 -800000 0 20301 -800000 1
gene 3 8034 5653 515697 0 20302 515697 1
gene 2 2447 8061 543075 0 20370 543075 1
gene 2 8061 1350 452781 0 20371 452781 1
gene 4 5653 5653 -81768 1 20710 -81768 1
gene 4 3236 8224 -37458 0 20778 -37458 1
gene 4 8224 14 168906 0 20779 168906 1
gene 3 12 8245 -760884 0 20836 -760884 1
gene 3 8245 3403 43848 0 20837 43848 1
gene 2 2447 8285 -255408 0 20935 -255408 1
gene 2 8285 4305 99060 0 20936 99060 1
gene 4 6034 8367 -643479 0 21149 -643479 1
gene 4 8367 2192 -6459 0 21150 -6459 1
gene 3 1420 8395 62586 0 21225 62586 1
gene 3 8395 7066 -197760 0 21226 -197760 1
gene 4 3528 8426 358704 0 21302 358704 1
gene 4 8426 5213 -580497 0 21303 -580497 1
gene 2 2 8509 316636 0 21506 316636 1
gene 2 8509 4649 -81606 0 21507 -81606 1
gene 1 8509 4020 -72183 0 21605 -72183 0
gene 3 5620 4649 -236041 0 21793 -236041 1
gene 1 8509 8675 156237 0 21916 156237 1
gene 1 8675 4020 -683943 0 21917 -683943 1
gene 2 1868 6748 -791802 0 21988 -791802 1
gene 1 10 8770 189201 0 22146 189201 1
gene 1 8770 3185 -278919 0 22147 -278919 1
gene 1 4273 8811 38077 0 22245 38077 1
gene 1 8811 183 344196 0 22246 344196 1
gene 2 11 8841 -77030 0 22321 -77030 1
gene 2 8841 183 488607 0 22322 488607 1
gene 4 5 8920 58045 0 22511 58045 1
gene 4 8920 4684 -269034 0 22512 -269034 1
gene 4 2390 9018 316633 0 22770 316633 1
