/* Organism #99 Fitness: 300.000000 Time: 0 */
/* Position #99*/
#1 x: 57 y: 16
#2 x: 25 y: 24
#3 x: 40 y: 22
#4 x: 46 y: 79
#5 x: 82 y: 68
#6 x: 69 y: 61
genomestart 99
node 1 3 1 3
node 2 3 1 1
node 3 3 1 1
node 4 4 1 1
node 5 2 1 1
node 6 2 1 1
node 7 1 1 1
node 8 2 1 1
node 9 4 1 1
node 10 3 1 1
node 11 3 1 1
node 12 2 1 1
node 13 3 1 1
node 14 4 1 1
node 15 2 0 2
node 16 2 0 2
node 17 2 0 2
node 18 2 0 2
gene 2 1 15 55017 0 1 55017 1
gene 1 2 15 -439245 0 2 -439245 1
gene 4 3 15 -43629 0 3 -43629 1
gene 3 4 15 -157395 0 4 -157395 1
gene 2 5 15 401670 0 5 401670 1
gene 4 6 15 -499629 0 6 -499629 1
gene 4 7 15 -223821 0 7 -223821 1
gene 4 8 15 191235 0 8 191235 1
gene 4 9 15 -211108 0 9 -211108 1
gene 3 10 15 -667838 0 10 -667838 1
gene 4 11 15 91220 0 11 91220 1
gene 2 12 15 -236040 0 12 -236040 1
gene 1 13 15 -156849 0 13 -156849 1
gene 1 14 15 683391 0 14 683391 1
gene 3 1 16 -253787 0 15 -253787 1
gene 3 2 16 374349 0 16 374349 1
gene 3 3 16 -62277 0 17 -62277 1
gene 2 4 16 22728 0 18 22728 1
gene 4 5 16 -195819 0 19 -195819 1
gene 2 6 16 61740 0 20 61740 1
gene 3 7 16 -638725 0 21 -638725 1
gene 2 8 16 -71457 0 22 -71457 1
gene 2 9 16 -230916 0 23 -230916 1
gene 4 10 16 -57777 0 24 -57777 1
gene 3 11 16 -12738 0 25 -12738 1
gene 1 12 16 -423315 0 26 -423315 1
gene 2 13 16 -11934 0 27 -11934 1
gene 2 14 16 -73338 0 28 -73338 1
gene 3 1 17 394407 0 29 394407 1
gene 4 2 17 99195 0 30 99195 1
gene 2 3 17 -800000 0 31 -800000 1
gene 1 4 17 -104994 0 32 -104994 1
gene 3 5 17 485316 0 33 485316 1
gene 1 6 17 144610 0 34 144610 1
gene 2 7 17 235356 0 35 235356 1
gene 1 8 17 205000 0 36 205000 1
gene 1 9 17 164404 0 37 164404 1
gene 3 10 17 -528530 0 38 -528530 1
gene 3 11 17 -516306 0 39 -516306 1
gene 3 12 17 188619 0 40 188619 1
gene 1 13 17 234513 0 41 234513 1
gene 4 14 17 32115 0 42 32115 1
gene 1 1 18 513747 0 43 513747 1
gene 1 2 18 -234963 0 44 -234963 1
gene 3 3 18 -162936 0 45 -162936 1
gene 2 4 18 -230136 0 46 -230136 1
gene 2 5 18 295143 0 47 295143 1
gene 3 6 18 178596 0 48 178596 1
gene 2 7 18 162522 0 49 162522 1
gene 3 8 18 63951 0 50 63951 1
gene 4 9 18 615797 0 51 615797 1
gene 1 10 18 -129093 0 52 -129093 1
gene 2 11 18 8442 0 53 8442 1
gene 2 12 18 278989 0 54 278989 1
gene 1 13 18 113838 0 55 113838 1
gene 3 14 18 -302667 0 56 -302667 1
genomeend 99


