/* Organism #0 Fitness: 340.000000 Time: 0 */
/* Position #0*/
#1 x: 69 y: 40
#2 x: 22 y: 40
#3 x: 69 y: 21
#4 x: 60 y: 84
#5 x: 19 y: 68
#6 x: 49 y: 69
genomestart 0
trait 1 1.000000 0.000000 0.000000 0.000000 0.000000 0.000000 0.000000 0.000000 trait 2 2.000000 0.000000 0.000000 0.000000 0.000000 0.000000 0.000000 0.000000 trait 3 3.000000 0.000000 0.000000 0.000000 0.000000 0.000000 0.000000 0.000000 trait 4 87559.000000 0.000000 0.000000 0.000000 0.000000 0.000000 48508.000000 17450.000000 node 1 4 1 3
node 2 2 1 1
node 3 2 1 1
node 4 2 1 1
node 5 1 1 1
node 6 1 1 1
node 7 3 1 1
node 8 1 1 1
node 9 1 1 1
node 10 4 1 1
node 11 4 1 1
node 12 1 1 1
node 13 3 0 2
node 14 1 0 2
node 15 2 0 2
node 92 1 0 0
node 121 1 0 0
node 183 1 0 0
node 238 1 0 0
node 293 1 0 0
node 409 2 0 0
node 471 1 0 0
node 524 1 0 0
node 617 1 0 0
node 634 1 0 0
node 652 1 0 0
node 701 1 0 0
node 737 1 0 0
gene 4 1 13 576852 0 1 576852 1
gene 1 2 13 -196794 0 2 -196794 0
gene 2 3 13 184050 0 3 184050 1
gene 1 4 13 522108 0 4 522108 0
gene 1 5 13 -469992 0 5 -469992 0
gene 2 6 13 -773298 0 6 -773298 0
gene 3 7 13 -752684 0 7 -752684 1
gene 4 8 13 -800000 0 8 -800000 1
gene 3 9 13 -304557 0 9 -304557 1
gene 3 10 13 -431835 0 10 -431835 1
gene 1 11 13 -13014 0 11 -13014 1
gene 2 12 13 -262824 0 12 -262824 1
gene 1 1 14 3843 0 13 3843 1
gene 2 2 14 -118777 0 14 -118777 1
gene 1 3 14 -161727 0 15 -161727 1
gene 3 4 14 -6386 0 16 -6386 1
gene 4 5 14 156033 0 17 156033 1
gene 4 6 14 125067 0 18 125067 1
gene 2 7 14 368760 0 19 368760 1
gene 3 8 14 -704762 0 20 -704762 0
gene 2 9 14 -76066 0 21 -76066 0
gene 1 10 14 -347514 0 22 -347514 1
gene 3 11 14 683367 0 23 683367 0
gene 2 12 14 740792 0 24 740792 1
gene 3 1 15 -216051 0 25 -216051 1
gene 4 2 15 -800000 0 26 -800000 1
gene 3 3 15 -545823 0 27 -545823 1
gene 4 4 15 234033 0 28 234033 1
gene 1 5 15 403797 0 29 403797 0
gene 1 6 15 707793 0 30 707793 1
gene 2 7 15 -309389 0 31 -309389 0
gene 1 8 15 -705492 0 32 -705492 1
gene 4 9 15 529100 0 33 529100 1
gene 2 10 15 114821 0 34 114821 1
gene 4 11 15 703590 0 35 703590 1
gene 1 12 15 -170178 0 36 -170178 0
gene 3 14 15 29605 0 66 29605 1
gene 3 14 13 419892 0 95 419892 1
gene 3 8 92 -545735 0 253 -545735 1
gene 3 92 14 23949 0 254 23949 0
gene 2 92 92 543599 1 305 543599 1
gene 1 4 121 50895 0 333 50895 1
gene 1 121 13 157644 0 334 157644 1
gene 1 5 183 -350063 0 512 -350063 1
gene 1 183 13 196737 0 513 196737 1
gene 1 2 238 -800000 0 693 -800000 0
gene 1 238 13 -496089 0 694 -496089 1
gene 1 13 13 -237725 1 827 -237725 1
gene 2 7 293 -519117 0 869 -519117 1
gene 2 293 15 16389 0 870 16389 1
gene 3 15 13 243036 0 1133 243036 1
gene 2 9 409 -382469 0 1210 -382469 1
gene 2 409 14 -158250 0 1211 -158250 1
gene 2 92 121 -319445 0 1278 -319445 0
gene 2 409 293 315441 0 1355 315441 1
gene 1 12 471 590887 0 1399 590887 1
gene 1 471 15 462219 0 1400 462219 1
gene 3 11 524 214665 0 1569 214665 1
gene 3 524 14 -16593 0 1570 -16593 1
gene 4 6 471 -256920 0 1663 -256920 1
gene 4 409 15 210519 0 1765 210519 1
gene 1 5 617 -256110 0 1859 -256110 1
gene 1 617 15 192621 0 1860 192621 1
gene 1 2 634 -638148 0 1910 -638148 1
gene 1 634 238 -510825 0 1911 -510825 1
gene 2 92 652 142767 0 1968 142767 1
gene 2 652 121 -480527 0 1969 -480527 1
gene 2 6 701 -188238 0 2113 -188238 1
gene 2 701 13 -800000 0 2114 -800000 1
gene 3 92 737 -148649 0 2224 -148649 1
gene 3 737 14 -256740 0 2225 -256740 1
genomeend 0


/* Organism #2 Fitness: 320.000000 Time: 0 */
/* Position #2*/
#1 x: 36 y: 25
#2 x: 50 y: 29
#3 x: 36 y: 28
#4 x: 79 y: 77
#5 x: 28 y: 84
#6 x: 34 y: 77
genomestart 2
trait 1 31567.000000 0.000000 0.000000 0.000000 0.000000 0.000000 18973.000000 0.000000 trait 2 0.000000 0.000000 0.000000 100000.000000 0.000000 0.000000 39143.000000 0.000000 trait 3 3.000000 0.000000 0.000000 0.000000 0.000000 0.000000 0.000000 0.000000 trait 4 4.000000 0.000000 0.000000 0.000000 0.000000 0.000000 0.000000 0.000000 node 1 1 1 3
node 2 2 1 1
node 3 4 1 1
node 4 4 1 1
node 5 1 1 1
node 6 4 1 1
node 7 3 1 1
node 8 2 1 1
node 9 3 1 1
node 10 4 1 1
node 11 4 1 1
node 12 1 1 1
node 13 1 0 2
node 14 2 0 2
node 15 4 0 2
node 24 1 0 0
node 188 1 0 0
node 222 1 0 0
node 272 1 0 0
node 301 1 0 0
node 380 1 0 0
node 393 1 0 0
node 453 1 0 0
node 469 1 0 0
node 557 1 0 0
node 664 1 0 0
node 723 1 0 0
node 740 1 0 0
gene 1 1 13 80280 0 1 80280 1
gene 2 2 13 342081 0 2 342081 1
gene 2 3 13 800000 0 3 800000 1
gene 4 4 13 -89700 0 4 -89700 0
gene 3 5 13 -52236 0 5 -52236 1
gene 1 6 13 -127377 0 6 -127377 1
gene 1 7 13 326304 0 7 326304 1
gene 1 8 13 -784526 0 8 -784526 1
gene 4 9 13 711428 0 9 711428 1
gene 2 10 13 -695240 0 10 -695240 1
gene 3 11 13 -292188 0 11 -292188 1
gene 4 12 13 -537174 0 12 -537174 1
gene 1 1 14 -183624 0 13 -183624 1
gene 1 2 14 357333 0 14 357333 1
gene 2 3 14 -633057 0 15 -633057 1
gene 2 4 14 579258 0 16 579258 1
gene 1 5 14 -617054 0 17 -617054 1
gene 2 6 14 -321114 0 18 -321114 0
gene 3 7 14 51822 0 19 51822 0
gene 3 8 14 -68183 0 20 -68183 1
gene 3 9 14 349641 0 21 349641 1
gene 2 10 14 -449532 0 22 -449532 1
gene 3 11 14 159234 0 23 159234 1
gene 2 12 14 519 0 24 519 1
gene 2 1 15 -267644 0 25 -267644 1
gene 3 2 15 -99264 0 26 -99264 1
gene 4 3 15 -800000 0 27 -800000 0
gene 1 4 15 771032 0 28 771032 0
gene 4 5 15 516255 0 29 516255 0
gene 2 6 15 230409 0 30 230409 1
gene 4 7 15 535053 0 31 535053 1
gene 2 8 15 -609144 0 32 -609144 1
gene 2 9 15 -203688 0 33 -203688 0
gene 2 10 15 -207369 0 34 -207369 1
gene 3 11 15 -754946 0 35 -754946 1
gene 2 12 15 191457 0 36 191457 1
gene 4 4 24 800000 0 62 800000 1
gene 4 24 13 643572 0 63 643572 1
gene 1 24 24 -800000 1 127 -800000 0
gene 3 15 13 250928 0 293 250928 0
gene 2 7 24 230907 0 408 230907 1
gene 3 7 188 -166635 0 526 -166635 1
gene 3 188 14 800000 0 527 800000 1
gene 2 9 222 -398759 0 645 -398759 0
gene 2 222 15 -369138 0 646 -369138 0
gene 3 3 272 534050 0 798 534050 1
gene 3 272 15 -245795 0 799 -245795 0
gene 2 3 24 409326 0 850 409326 1
gene 1 24 301 500727 1 893 500727 0
gene 1 301 24 -380211 0 894 -380211 1
gene 1 188 188 389379 1 934 389379 1
gene 3 4 188 -299364 0 1080 -299364 1
gene 2 6 380 -670115 0 1115 -670115 1
gene 2 380 14 50430 0 1116 50430 1
gene 1 4 393 228006 0 1157 228006 1
gene 1 393 15 401049 0 1158 401049 1
gene 1 15 380 -400920 0 1196 -400920 1
gene 2 12 188 -167601 0 1302 -167601 1
gene 2 9 453 -77712 0 1346 -77712 1
gene 2 453 222 -270888 0 1347 -270888 1
gene 1 24 469 211506 1 1394 211506 1
gene 1 469 301 36324 0 1395 36324 1
gene 3 222 24 -178749 0 1576 -178749 1
gene 4 3 188 19734 0 1616 19734 1
gene 3 272 557 -149985 0 1666 -149985 1
gene 3 557 15 2046 0 1667 2046 1
gene 1 6 272 -127146 0 1830 -127146 1
gene 4 12 380 159417 0 1879 159417 1
gene 4 5 664 -25172 0 1999 -25172 1
gene 4 664 15 37809 0 2000 37809 1
gene 2 15 15 68638 1 2036 68638 1
gene 2 222 723 -147882 0 2178 -147882 1
gene 2 723 15 38352 0 2179 38352 1
gene 3 15 740 100908 0 2233 100908 1
gene 3 740 13 -68097 0 2234 -68097 1
genomeend 2


/* Organism #5 Fitness: 280.000000 Time: 0 */
/* Position #5*/
#1 x: 72 y: 37
#2 x: 33 y: 19
#3 x: 43 y: 29
#4 x: 39 y: 83
#5 x: 52 y: 85
#6 x: 42 y: 61
genomestart 5
trait 1 1.000000 0.000000 0.000000 0.000000 0.000000 0.000000 0.000000 0.000000 trait 2 2.000000 42160.000000 0.000000 0.000000 0.000000 0.000000 0.000000 0.000000 trait 3 3.000000 0.000000 0.000000 0.000000 0.000000 0.000000 0.000000 0.000000 trait 4 4.000000 0.000000 0.000000 0.000000 0.000000 0.000000 0.000000 0.000000 node 1 4 1 3
node 2 2 1 1
node 3 4 1 1
node 4 2 1 1
node 5 4 1 1
node 6 3 1 1
node 7 2 1 1
node 8 1 1 1
node 9 4 1 1
node 10 1 1 1
node 11 1 1 1
node 12 4 1 1
node 13 3 0 2
node 14 4 0 2
node 15 4 0 2
node 71 1 0 0
node 289 1 0 0
node 317 1 0 0
node 368 1 0 0
node 389 1 0 0
node 467 1 0 0
node 555 1 0 0
node 573 1 0 0
node 587 1 0 0
gene 4 1 13 400923 0 1 400923 1
gene 3 2 13 -757388 0 2 -757388 1
gene 2 3 13 -83865 0 3 -83865 0
gene 4 4 13 95795 0 4 95795 1
gene 2 5 13 587058 0 5 587058 0
gene 3 6 13 -522638 0 6 -522638 1
gene 1 7 13 -800000 0 7 -800000 1
gene 1 8 13 -800000 0 8 -800000 1
gene 1 9 13 -14520 0 9 -14520 1
gene 2 10 13 -800000 0 10 -800000 1
gene 3 11 13 -184467 0 11 -184467 1
gene 3 12 13 -87951 0 12 -87951 1
gene 1 1 14 139998 0 13 139998 1
gene 1 2 14 573128 0 14 573128 1
gene 3 3 14 800000 0 15 800000 0
gene 1 4 14 -495930 0 16 -495930 1
gene 1 5 14 -304677 0 17 -304677 1
gene 1 6 14 41682 0 18 41682 1
gene 1 7 14 445182 0 19 445182 0
gene 2 8 14 -5057 0 20 -5057 1
gene 2 9 14 556100 0 21 556100 0
gene 1 10 14 -794385 0 22 -794385 1
gene 3 11 14 -372789 0 23 -372789 1
gene 2 12 14 -729946 0 24 -729946 1
gene 3 1 15 -179502 0 25 -179502 1
gene 2 2 15 38553 0 26 38553 1
gene 4 3 15 192216 0 27 192216 0
gene 2 4 15 728610 0 28 728610 1
gene 2 5 15 200139 0 29 200139 1
gene 1 6 15 281397 0 30 281397 1
gene 4 7 15 -352788 0 31 -352788 1
gene 2 8 15 -19074 0 32 -19074 0
gene 2 9 15 223713 0 33 223713 1
gene 1 10 15 -136419 0 34 -136419 1
gene 3 11 15 -269505 0 35 -269505 1
gene 1 12 15 -379428 0 36 -379428 1
gene 4 3 71 -113436 0 201 -113436 1
gene 3 71 14 176514 0 202 176514 0
gene 1 13 13 346428 1 248 346428 1
gene 2 13 15 -603261 0 413 -603261 1
gene 4 10 71 -137142 0 454 -137142 1
gene 1 7 71 -287292 0 542 -287292 1
gene 4 8 71 -52296 0 717 -52296 1
gene 4 71 71 306357 1 769 306357 1
gene 4 3 289 -192636 0 858 -192636 0
gene 4 289 15 29427 0 859 29427 1
gene 3 289 14 -6603 0 897 -6603 1
gene 4 3 317 119298 0 942 119298 1
gene 4 317 289 104375 0 943 104375 1
gene 2 8 368 163050 0 1081 163050 1
gene 1 368 15 140508 0 1082 140508 1
gene 2 5 389 -668868 0 1147 -668868 1
gene 2 389 13 -8979 0 1148 -8979 1
gene 2 3 467 -436253 0 1387 -436253 1
gene 2 467 13 99351 0 1388 99351 1
gene 3 467 14 15348 0 1499 15348 1
gene 1 8 467 116022 0 1566 116022 1
gene 1 7 555 -194055 0 1657 -194055 1
gene 1 555 14 699438 0 1658 699438 1
gene 2 9 573 113865 0 1712 113865 1
gene 2 573 14 -447141 0 1713 -447141 1
gene 3 71 587 167074 0 1761 167074 1
gene 3 587 14 244656 0 1762 244656 1
gene 1 467 467 -75582 1 1858 -75582 1
gene 2 467 15 360198 0 1909 360198 1
gene 2 4 289 294891 0 2103 294891 1
gene 2 389 389 -47490 1 2243 -47490 1
gene 2 573 289 -173385 0 2282 -173385 1
genomeend 5


/* Organism #6 Fitness: 440.000000 Time: 0 */
/* Position #6*/
#1 x: 63 y: 35
#2 x: 31 y: 36
#3 x: 20 y: 23
#4 x: 67 y: 79
#5 x: 32 y: 72
#6 x: 78 y: 62
genomestart 6
trait 1 31567.000000 0.000000 0.000000 0.000000 0.000000 0.000000 18973.000000 0.000000 trait 2 0.000000 0.000000 0.000000 100000.000000 0.000000 0.000000 39143.000000 0.000000 trait 3 3.000000 0.000000 0.000000 0.000000 0.000000 0.000000 0.000000 0.000000 trait 4 4.000000 0.000000 0.000000 0.000000 0.000000 0.000000 0.000000 0.000000 node 1 1 1 3
node 2 2 1 1
node 3 4 1 1
node 4 4 1 1
node 5 1 1 1
node 6 4 1 1
node 7 3 1 1
node 8 2 1 1
node 9 3 1 1
node 10 4 1 1
node 11 4 1 1
node 12 1 1 1
node 13 1 0 2
node 14 2 0 2
node 15 4 0 2
node 24 1 0 0
node 188 3 0 0
node 222 1 0 0
node 272 1 0 0
node 301 1 0 0
node 380 1 0 0
node 393 1 0 0
node 453 2 0 0
node 469 1 0 0
node 557 1 0 0
node 729 1 0 0
gene 1 1 13 427299 0 1 427299 1
gene 2 2 13 -517446 0 2 -517446 1
gene 2 3 13 -224694 0 3 -224694 1
gene 4 4 13 -202212 0 4 -202212 0
gene 3 5 13 457257 0 5 457257 1
gene 1 6 13 -59175 0 6 -59175 1
gene 3 7 13 800000 0 7 800000 1
gene 1 8 13 -800000 0 8 -800000 1
gene 4 9 13 -102741 0 9 -102741 1
gene 2 10 13 -635030 0 10 -635030 1
gene 3 11 13 -800000 0 11 -800000 1
gene 4 12 13 -791939 0 12 -791939 1
gene 1 1 14 -428202 0 13 -428202 1
gene 1 2 14 160107 0 14 160107 1
gene 2 3 14 800000 0 15 800000 1
gene 2 4 14 169035 0 16 169035 1
gene 1 5 14 -395135 0 17 -395135 1
gene 2 6 14 81336 0 18 81336 0
gene 3 7 14 316284 0 19 316284 0
gene 3 8 14 314601 0 20 314601 1
gene 3 9 14 -457794 0 21 -457794 1
gene 2 10 14 -182772 0 22 -182772 1
gene 3 11 14 385374 0 23 385374 1
gene 2 12 14 -310809 0 24 -310809 1
gene 2 1 15 -125595 0 25 -125595 1
gene 3 2 15 -573456 0 26 -573456 1
gene 4 3 15 86460 0 27 86460 0
gene 1 4 15 385035 0 28 385035 0
gene 4 5 15 800000 0 29 800000 1
gene 2 6 15 541080 0 30 541080 1
gene 4 7 15 -306849 0 31 -306849 1
gene 2 8 15 -229614 0 32 -229614 1
gene 2 9 15 -548282 0 33 -548282 0
gene 2 10 15 -315075 0 34 -315075 1
gene 3 11 15 59907 0 35 59907 1
gene 2 12 15 168309 0 36 168309 1
gene 4 4 24 -252105 0 62 -252105 1
gene 4 24 13 151659 0 63 151659 1
gene 1 24 24 -117243 1 127 -117243 0
gene 3 15 13 695627 0 293 695627 1
gene 2 7 24 742172 0 408 742172 1
gene 3 7 188 -482121 0 526 -482121 1
gene 3 188 14 -318906 0 527 -318906 1
gene 2 9 222 -448043 0 645 -448043 0
gene 2 222 15 -382212 0 646 -382212 1
gene 3 3 272 -317340 0 798 -317340 1
gene 3 272 15 218865 0 799 218865 0
gene 2 3 24 -156558 0 850 -156558 1
gene 1 24 301 -479946 1 893 -479946 0
gene 1 301 24 -6660 0 894 -6660 1
gene 1 188 188 5691 1 934 5691 1
gene 3 4 188 194028 0 1080 194028 1
gene 2 6 380 -537392 0 1115 -537392 1
gene 2 380 14 625581 0 1116 625581 1
gene 1 4 393 184743 0 1157 184743 1
gene 1 393 15 -456894 0 1158 -456894 1
gene 1 15 380 340893 0 1196 340893 1
gene 2 12 188 -61641 0 1302 -61641 1
gene 2 9 453 -77874 0 1346 -77874 1
gene 2 453 222 216063 0 1347 216063 1
gene 1 24 469 -89397 1 1394 -89397 1
gene 1 469 301 -478073 0 1395 -478073 0
gene 3 222 24 41790 0 1576 41790 1
gene 4 3 188 48420 0 1616 48420 1
gene 3 272 557 36030 0 1666 36030 1
gene 3 557 15 161259 0 1667 161259 1
gene 1 6 272 166272 0 1830 166272 1
gene 4 12 380 569170 0 1879 569170 1
gene 1 469 729 268441 0 2197 268441 1
gene 1 729 301 -516530 0 2198 -516530 1
gene 2 14 301 47530 0 2244 47530 1
gene 1 188 380 233166 0 2284 233166 1
genomeend 6


/* Organism #8 Fitness: 280.000000 Time: 0 */
/* Position #8*/
#1 x: 25 y: 33
#2 x: 72 y: 29
#3 x: 63 y: 15
#4 x: 72 y: 77
#5 x: 51 y: 75
#6 x: 36 y: 60
genomestart 8
trait 1 1.000000 0.000000 0.000000 0.000000 0.000000 0.000000 0.000000 0.000000 trait 2 2.000000 0.000000 0.000000 0.000000 0.000000 0.000000 0.000000 0.000000 trait 3 3.000000 0.000000 0.000000 0.000000 0.000000 0.000000 0.000000 0.000000 trait 4 4.000000 0.000000 0.000000 0.000000 0.000000 0.000000 0.000000 0.000000 node 1 4 1 3
node 2 2 1 1
node 3 4 1 1
node 4 2 1 1
node 5 4 1 1
node 6 3 1 1
node 7 2 1 1
node 8 1 1 1
node 9 4 1 1
node 10 3 1 1
node 11 1 1 1
node 12 4 1 1
node 13 3 0 2
node 14 1 0 2
node 15 4 0 2
node 71 1 0 0
node 289 1 0 0
node 317 1 0 0
node 368 1 0 0
node 381 1 0 0
node 394 1 0 0
node 405 1 0 0
node 439 1 0 0
node 584 1 0 0
node 598 1 0 0
node 718 1 0 0
gene 4 1 13 157287 0 1 157287 1
gene 3 2 13 800000 0 2 800000 1
gene 2 3 13 -191661 0 3 -191661 1
gene 4 4 13 259972 0 4 259972 1
gene 2 5 13 198372 0 5 198372 1
gene 3 6 13 343599 0 6 343599 1
gene 1 7 13 69171 0 7 69171 1
gene 1 8 13 229740 0 8 229740 1
gene 1 9 13 227115 0 9 227115 0
gene 2 10 13 -104067 0 10 -104067 1
gene 3 11 13 546201 0 11 546201 1
gene 3 12 13 723267 0 12 723267 1
gene 1 1 14 383310 0 13 383310 1
gene 1 2 14 83103 0 14 83103 0
gene 3 3 14 206394 0 15 206394 0
gene 1 4 14 417684 0 16 417684 1
gene 1 5 14 549789 0 17 549789 1
gene 1 6 14 -800000 0 18 -800000 1
gene 1 7 14 7707 0 19 7707 1
gene 2 8 14 206212 0 20 206212 1
gene 2 9 14 -344346 0 21 -344346 1
gene 1 10 14 -328395 0 22 -328395 1
gene 3 11 14 139842 0 23 139842 0
gene 2 12 14 388853 0 24 388853 1
gene 3 1 15 -10878 0 25 -10878 1
gene 2 2 15 660164 0 26 660164 1
gene 4 3 15 145962 0 27 145962 0
gene 2 4 15 -452400 0 28 -452400 1
gene 2 5 15 -104844 0 29 -104844 1
gene 1 6 15 -202260 0 30 -202260 1
gene 4 7 15 -309234 0 31 -309234 1
gene 2 8 15 451695 0 32 451695 0
gene 2 9 15 115206 0 33 115206 1
gene 1 10 15 -477828 0 34 -477828 1
gene 3 11 15 426099 0 35 426099 1
gene 1 12 15 -510671 0 36 -510671 1
gene 4 3 71 -648108 0 201 -648108 0
gene 3 71 14 -52110 0 202 -52110 1
gene 1 13 13 -800000 1 248 -800000 1
gene 2 13 15 -213180 0 413 -213180 1
gene 4 10 71 743546 0 454 743546 1
gene 1 7 71 552621 0 542 552621 1
gene 4 8 71 -336267 0 717 -336267 1
gene 4 71 71 -800000 1 769 -800000 1
gene 4 3 289 495831 0 858 495831 0
gene 4 289 15 -781518 0 859 -781518 1
gene 3 289 14 383478 0 897 383478 0
gene 4 3 317 410938 0 942 410938 1
gene 4 317 289 -64101 0 943 -64101 1
gene 2 8 368 -464499 0 1081 -464499 1
gene 2 368 15 -148893 0 1082 -148893 1
gene 1 2 381 40128 0 1117 40128 1
gene 1 381 14 654548 0 1118 654548 1
gene 4 3 394 -204486 0 1159 -204486 0
gene 4 394 71 -567372 0 1160 -567372 1
gene 3 11 405 -453368 0 1197 -453368 1
gene 3 405 14 -275679 0 1198 -275679 1
gene 4 14 405 -287385 1 1256 -287385 1
gene 4 3 439 373815 0 1305 373815 1
gene 4 439 394 131283 0 1306 131283 1
gene 2 6 381 -602892 0 1524 -602892 1
gene 3 289 584 -284510 0 1750 -284510 0
gene 3 584 14 124098 0 1751 124098 1
gene 3 289 598 -623784 0 1795 -623784 1
gene 3 598 584 -755217 0 1796 -755217 1
gene 2 7 381 71211 0 1963 71211 1
gene 4 15 15 -231849 1 2035 -231849 1
gene 1 9 718 115414 0 2163 115414 1
gene 1 718 13 204924 0 2164 204924 1
genomeend 8


/* Organism #14 Fitness: 280.000000 Time: 0 */
/* Position #14*/
#1 x: 68 y: 30
#2 x: 39 y: 31
#3 x: 33 y: 40
#4 x: 37 y: 77
#5 x: 35 y: 78
#6 x: 51 y: 62
genomestart 14
trait 1 1.000000 2785.000000 0.000000 0.000000 0.000000 0.000000 0.000000 0.000000 trait 2 2.000000 0.000000 0.000000 0.000000 0.000000 0.000000 0.000000 0.000000 trait 3 3.000000 0.000000 41384.000000 0.000000 0.000000 20992.000000 0.000000 0.000000 trait 4 4.000000 0.000000 0.000000 0.000000 0.000000 0.000000 0.000000 0.000000 node 1 4 1 3
node 2 2 1 1
node 3 3 1 1
node 4 2 1 1
node 5 1 1 1
node 6 1 1 1
node 7 3 1 1
node 8 2 1 1
node 9 3 1 1
node 10 4 1 1
node 11 4 1 1
node 12 1 1 1
node 13 3 0 2
node 14 1 0 2
node 15 2 0 2
node 92 1 0 0
node 121 1 0 0
node 183 1 0 0
node 238 1 0 0
node 293 1 0 0
node 441 4 0 0
node 494 1 0 0
node 695 1 0 0
gene 4 1 13 253449 0 1 253449 1
gene 1 2 13 -139970 0 2 -139970 0
gene 4 3 13 -330600 0 3 -330600 1
gene 1 4 13 -494238 0 4 -494238 0
gene 1 5 13 337356 0 5 337356 0
gene 2 6 13 393573 0 6 393573 1
gene 3 7 13 -640299 0 7 -640299 1
gene 4 8 13 -546536 0 8 -546536 1
gene 3 9 13 800000 0 9 800000 1
gene 3 10 13 -762207 0 10 -762207 1
gene 1 11 13 419412 0 11 419412 1
gene 2 12 13 800000 0 12 800000 1
gene 1 1 14 296472 0 13 296472 1
gene 2 2 14 -88523 0 14 -88523 1
gene 1 3 14 12297 0 15 12297 1
gene 3 4 14 -504249 0 16 -504249 1
gene 4 5 14 370396 0 17 370396 1
gene 4 6 14 64293 0 18 64293 1
gene 2 7 14 -5859 0 19 -5859 1
gene 3 8 14 -243365 0 20 -243365 0
gene 2 9 14 629019 0 21 629019 1
gene 1 10 14 -144501 0 22 -144501 1
gene 3 11 14 324315 0 23 324315 1
gene 2 12 14 362400 0 24 362400 1
gene 3 1 15 227352 0 25 227352 1
gene 4 2 15 511970 0 26 511970 1
gene 3 3 15 207288 0 27 207288 1
gene 4 4 15 -465558 0 28 -465558 1
gene 1 5 15 -373842 0 29 -373842 1
gene 1 6 15 -169935 0 30 -169935 1
gene 2 7 15 -88125 0 31 -88125 0
gene 4 8 15 343539 0 32 343539 1
gene 4 9 15 -13524 0 33 -13524 1
gene 2 10 15 191165 0 34 191165 1
gene 4 11 15 -764906 0 35 -764906 1
gene 1 12 15 -31431 0 36 -31431 1
gene 3 14 15 -258663 0 66 -258663 1
gene 3 14 13 -470604 0 95 -470604 1
gene 3 8 92 -255294 0 253 -255294 1
gene 3 92 14 76746 0 254 76746 1
gene 2 92 92 337389 1 305 337389 0
gene 1 4 121 -123411 0 333 -123411 1
gene 1 121 13 -664835 0 334 -664835 1
gene 1 5 183 256110 0 512 256110 0
gene 1 183 13 144105 0 513 144105 1
gene 1 2 238 -251916 0 693 -251916 1
gene 1 238 13 -594210 0 694 -594210 1
gene 1 13 13 -53709 1 827 -53709 1
gene 2 7 293 78673 0 869 78673 1
gene 2 293 15 55716 0 870 55716 1
gene 1 5 441 76881 0 1311 76881 0
gene 1 441 183 116028 0 1312 116028 1
gene 2 92 494 -637697 1 1469 -637697 1
gene 2 494 92 -643704 0 1470 -643704 1
gene 3 494 238 253379 0 1628 253379 1
gene 3 10 494 171642 0 1680 171642 1
gene 4 7 494 -358566 0 1776 -358566 1
gene 1 5 695 568519 0 2093 568519 1
gene 1 695 441 333852 0 2094 333852 1
gene 1 4 441 -13910 0 2325 -13910 1
genomeend 14


/* Organism #18 Fitness: 280.000000 Time: 0 */
/* Position #18*/
#1 x: 30 y: 39
#2 x: 37 y: 28
#3 x: 51 y: 33
#4 x: 85 y: 84
#5 x: 35 y: 62
#6 x: 67 y: 63
genomestart 18
trait 1 1.000000 0.000000 0.000000 0.000000 0.000000 0.000000 0.000000 0.000000 trait 2 2.000000 0.000000 0.000000 0.000000 0.000000 0.000000 0.000000 0.000000 trait 3 3.000000 0.000000 0.000000 0.000000 0.000000 0.000000 0.000000 0.000000 trait 4 4.000000 0.000000 0.000000 0.000000 0.000000 0.000000 0.000000 0.000000 node 1 4 1 3
node 2 2 1 1
node 3 4 1 1
node 4 2 1 1
node 5 4 1 1
node 6 3 1 1
node 7 2 1 1
node 8 1 1 1
node 9 4 1 1
node 10 1 1 1
node 11 1 1 1
node 12 4 1 1
node 13 3 0 2
node 14 1 0 2
node 15 4 0 2
node 71 1 0 0
node 289 1 0 0
node 317 1 0 0
node 368 1 0 0
node 381 1 0 0
node 394 1 0 0
node 473 1 0 0
node 490 1 0 0
node 568 1 0 0
node 647 1 0 0
node 686 1 0 0
node 704 1 0 0
node 760 1 0 0
gene 4 1 13 -615204 0 1 -615204 1
gene 3 2 13 741053 0 2 741053 1
gene 2 3 13 -455667 0 3 -455667 0
gene 4 4 13 -553121 0 4 -553121 1
gene 2 5 13 -436854 0 5 -436854 1
gene 3 6 13 -404666 0 6 -404666 1
gene 1 7 13 -521831 0 7 -521831 1
gene 1 8 13 500202 0 8 500202 1
gene 1 9 13 -458256 0 9 -458256 1
gene 2 10 13 -239262 0 10 -239262 1
gene 3 11 13 -432195 0 11 -432195 1
gene 3 12 13 -602372 0 12 -602372 1
gene 1 1 14 330273 0 13 330273 1
gene 1 2 14 800000 0 14 800000 0
gene 3 3 14 413286 0 15 413286 0
gene 1 4 14 503454 0 16 503454 1
gene 1 5 14 -91314 0 17 -91314 1
gene 1 6 14 244000 0 18 244000 1
gene 1 7 14 -9240 0 19 -9240 1
gene 2 8 14 -107018 0 20 -107018 1
gene 2 9 14 422560 0 21 422560 1
gene 1 10 14 -64953 0 22 -64953 0
gene 3 11 14 -499638 0 23 -499638 1
gene 2 12 14 -228670 0 24 -228670 1
gene 3 1 15 -89316 0 25 -89316 1
gene 2 2 15 -745920 0 26 -745920 1
gene 4 3 15 -690941 0 27 -690941 0
gene 2 4 15 800000 0 28 800000 1
gene 2 5 15 446148 0 29 446148 1
gene 1 6 15 260676 0 30 260676 1
gene 4 7 15 800000 0 31 800000 1
gene 2 8 15 87081 0 32 87081 0
gene 2 9 15 -621344 0 33 -621344 1
gene 1 10 15 -768675 0 34 -768675 1
gene 3 11 15 72468 0 35 72468 1
gene 1 12 15 -232371 0 36 -232371 1
gene 4 3 71 427395 0 201 427395 0
gene 3 71 14 -399653 0 202 -399653 0
gene 1 13 13 -11069 1 248 -11069 1
gene 2 13 15 301587 0 413 301587 1
gene 4 10 71 509793 0 454 509793 1
gene 1 7 71 -92242 0 542 -92242 0
gene 4 8 71 800000 0 717 800000 1
gene 4 71 71 -550302 1 769 -550302 0
gene 4 3 289 -177477 0 858 -177477 0
gene 4 289 15 404733 0 859 404733 1
gene 3 289 14 52244 0 897 52244 1
gene 4 3 317 -290723 0 942 -290723 1
gene 4 317 289 366369 0 943 366369 1
gene 2 8 368 193653 0 1081 193653 1
gene 2 368 15 76113 0 1082 76113 1
gene 1 2 381 -5130 0 1117 -5130 1
gene 2 381 14 286404 0 1118 286404 1
gene 4 3 394 -123956 0 1159 -123956 1
gene 4 394 71 -90732 0 1160 -90732 1
gene 4 1 394 -297870 0 1362 -297870 1
gene 2 3 473 105400 0 1405 105400 1
gene 2 473 13 -180588 0 1406 -180588 1
gene 1 10 490 -115614 0 1456 -115614 1
gene 1 490 14 349014 0 1457 349014 1
gene 3 13 289 -135684 0 1591 -135684 1
gene 4 71 568 44853 1 1699 44853 1
gene 4 568 71 205497 0 1700 205497 0
gene 3 568 15 -71746 0 1754 -71746 1
gene 3 289 394 -5223 0 1809 -5223 0
gene 4 568 647 239151 0 1948 239151 1
gene 4 647 71 -643268 0 1949 -643268 1
gene 1 7 686 230173 0 2069 230173 1
gene 1 686 71 101433 0 2070 101433 1
gene 3 71 704 169282 0 2122 169282 1
gene 3 704 14 -116070 0 2123 -116070 1
gene 3 289 760 1 0 2296 0 1
gene 3 760 394 -5223 0 2297 0 1
gene 4 368 394 -25228 0 2326 -25228 1
genomeend 18


/* Organism #21 Fitness: 320.000000 Time: 0 */
/* Position #21*/
#1 x: 20 y: 37
#2 x: 38 y: 16
#3 x: 71 y: 25
#4 x: 59 y: 76
#5 x: 74 y: 85
#6 x: 21 y: 76
genomestart 21
trait 1 7831.000000 0.000000 0.000000 0.000000 76227.000000 0.000000 0.000000 0.000000 trait 2 42946.000000 0.000000 87493.000000 0.000000 0.000000 62825.000000 67637.000000 0.000000 trait 3 3.000000 0.000000 0.000000 0.000000 0.000000 0.000000 0.000000 0.000000 trait 4 0.000000 0.000000 0.000000 36459.000000 0.000000 31890.000000 0.000000 46915.000000 node 1 4 1 3
node 2 2 1 1
node 3 3 1 1
node 4 2 1 1
node 5 1 1 1
node 6 1 1 1
node 7 2 1 1
node 8 1 1 1
node 9 1 1 1
node 10 4 1 1
node 11 2 1 1
node 12 1 1 1
node 13 3 0 2
node 14 1 0 2
node 15 2 0 2
node 92 1 0 0
node 121 1 0 0
node 224 1 0 0
node 239 1 0 0
node 330 1 0 0
node 346 1 0 0
node 392 1 0 0
node 403 1 0 0
node 421 1 0 0
node 436 1 0 0
node 495 1 0 0
node 714 1 0 0
gene 4 1 13 515008 0 1 515008 1
gene 1 2 13 -492831 0 2 -492831 1
gene 4 3 13 225573 0 3 225573 1
gene 1 4 13 -130500 0 4 -130500 0
gene 1 5 13 146397 0 5 146397 1
gene 2 6 13 129756 0 6 129756 0
gene 3 7 13 -367236 0 7 -367236 0
gene 4 8 13 -642413 0 8 -642413 1
gene 3 9 13 255759 0 9 255759 0
gene 3 10 13 -192026 0 10 -192026 1
gene 1 11 13 508533 0 11 508533 1
gene 2 12 13 188223 0 12 188223 1
gene 1 1 14 -223956 0 13 -223956 1
gene 2 2 14 -800000 0 14 -800000 1
gene 1 3 14 395316 0 15 395316 1
gene 3 4 14 -165969 0 16 -165969 1
gene 4 5 14 -226904 0 17 -226904 1
gene 4 6 14 54494 0 18 54494 0
gene 2 7 14 -263721 0 19 -263721 1
gene 3 8 14 384312 0 20 384312 0
gene 2 9 14 440394 0 21 440394 1
gene 1 10 14 -353000 0 22 -353000 0
gene 3 11 14 -201174 0 23 -201174 1
gene 2 12 14 -191577 0 24 -191577 1
gene 3 1 15 509502 0 25 509502 1
gene 4 2 15 92436 0 26 92436 1
gene 3 3 15 269766 0 27 269766 1
gene 4 4 15 -172626 0 28 -172626 1
gene 1 5 15 800000 0 29 800000 1
gene 1 6 15 -784049 0 30 -784049 1
gene 2 7 15 -91140 0 31 -91140 0
gene 1 8 15 -563834 0 32 -563834 1
gene 4 9 15 264819 0 33 264819 1
gene 2 10 15 713213 0 34 713213 1
gene 4 11 15 350739 0 35 350739 1
gene 1 12 15 -800000 0 36 -800000 1
gene 3 14 15 343864 0 66 343864 1
gene 3 14 13 -336963 0 95 -336963 1
gene 3 8 92 -336867 0 253 -336867 1
gene 3 92 14 299718 0 254 299718 0
gene 2 92 92 -415997 1 305 -415997 1
gene 1 4 121 524024 0 333 524024 1
gene 1 121 13 141420 0 334 141420 1
gene 3 11 121 -189762 0 561 -189762 1
gene 2 6 224 583094 0 649 583094 0
gene 2 224 13 -800000 0 650 -800000 1
gene 2 7 239 84399 0 695 84399 0
gene 2 239 15 -458226 0 696 -458226 1
gene 2 6 330 90243 0 984 90243 1
gene 2 330 224 -212247 0 985 -212247 1
gene 3 7 346 299685 0 1022 299685 1
gene 3 346 13 262597 0 1023 262597 1
gene 2 3 239 154284 0 1108 154284 1
gene 4 6 392 -800000 0 1154 -800000 1
gene 4 392 14 -153561 0 1155 -153561 1
gene 3 9 403 -356979 0 1190 -356979 1
gene 3 403 13 -578232 0 1191 -578232 1
gene 3 92 421 -627924 0 1250 -627924 1
gene 3 421 14 -205797 0 1251 -205797 1
gene 1 10 436 246279 0 1296 246279 1
gene 1 436 14 441327 0 1297 441327 1
gene 2 7 495 -346350 0 1472 -346350 1
gene 2 495 239 558348 0 1473 558348 1
gene 1 92 239 -42033 0 1557 -42033 1
gene 4 392 121 337245 0 1749 337245 1
gene 1 330 421 -10716 0 1790 -10716 0
gene 4 11 346 39297 0 1824 39297 1
gene 2 1 239 -392433 0 1958 -392433 1
gene 1 330 714 -347040 0 2150 -347040 1
gene 1 714 421 141321 0 2151 141321 1
gene 2 714 14 81063 0 2331 81063 1
genomeend 21


/* Organism #26 Fitness: 380.000000 Time: 0 */
/* Position #26*/
#1 x: 51 y: 28
#2 x: 56 y: 17
#3 x: 63 y: 29
#4 x: 84 y: 63
#5 x: 62 y: 71
#6 x: 74 y: 61
genomestart 26
trait 1 1.000000 0.000000 0.000000 0.000000 0.000000 0.000000 0.000000 0.000000 trait 2 2.000000 0.000000 0.000000 0.000000 0.000000 0.000000 0.000000 0.000000 trait 3 3.000000 0.000000 0.000000 0.000000 0.000000 0.000000 0.000000 0.000000 trait 4 4.000000 0.000000 0.000000 0.000000 0.000000 0.000000 0.000000 0.000000 node 1 4 1 3
node 2 2 1 1
node 3 4 1 1
node 4 2 1 1
node 5 4 1 1
node 6 3 1 1
node 7 2 1 1
node 8 1 1 1
node 9 4 1 1
node 10 1 1 1
node 11 1 1 1
node 12 4 1 1
node 13 3 0 2
node 14 1 0 2
node 15 4 0 2
node 71 1 0 0
node 289 1 0 0
node 317 1 0 0
node 368 1 0 0
node 381 1 0 0
node 394 1 0 0
node 473 1 0 0
node 490 1 0 0
node 568 1 0 0
node 647 1 0 0
node 773 1 0 0
gene 4 1 13 -326289 0 1 -326289 1
gene 3 2 13 50571 0 2 50571 1
gene 2 3 13 -48207 0 3 -48207 0
gene 4 4 13 -533867 0 4 -533867 0
gene 2 5 13 -269022 0 5 -269022 1
gene 3 6 13 -114477 0 6 -114477 1
gene 1 7 13 -475959 0 7 -475959 1
gene 1 8 13 -19302 0 8 -19302 1
gene 1 9 13 212199 0 9 212199 1
gene 2 10 13 -458259 0 10 -458259 1
gene 3 11 13 272226 0 11 272226 1
gene 3 12 13 -209523 0 12 -209523 1
gene 1 1 14 -251895 0 13 -251895 1
gene 1 2 14 594263 0 14 594263 0
gene 3 3 14 554073 0 15 554073 0
gene 1 4 14 302571 0 16 302571 1
gene 2 5 14 -281970 0 17 -281970 1
gene 1 6 14 132369 0 18 132369 1
gene 1 7 14 -47751 0 19 -47751 1
gene 2 8 14 626127 0 20 626127 1
gene 2 9 14 82851 0 21 82851 1
gene 1 10 14 -51165 0 22 -51165 0
gene 3 11 14 -447837 0 23 -447837 1
gene 2 12 14 558498 0 24 558498 1
gene 3 1 15 691995 0 25 691995 1
gene 2 2 15 -686601 0 26 -686601 1
gene 4 3 15 -800000 0 27 -800000 0
gene 2 4 15 524330 0 28 524330 1
gene 2 5 15 -69003 0 29 -69003 1
gene 1 6 15 800000 0 30 800000 1
gene 4 7 15 345287 0 31 345287 1
gene 2 8 15 -217650 0 32 -217650 0
gene 2 9 15 47361 0 33 47361 1
gene 1 10 15 -566778 0 34 -566778 1
gene 3 11 15 -149421 0 35 -149421 1
gene 1 12 15 -614537 0 36 -614537 1
gene 4 3 71 723041 0 201 723041 0
gene 3 71 14 -800000 0 202 -800000 1
gene 1 13 13 53700 1 248 53700 1
gene 2 13 15 -92805 0 413 -92805 1
gene 4 10 71 800000 0 454 800000 1
gene 1 7 71 195738 0 542 195738 1
gene 4 8 71 -32904 0 717 -32904 1
gene 4 71 71 86997 1 769 86997 0
gene 4 3 289 -567852 0 858 -567852 0
gene 4 289 15 -139125 0 859 -139125 1
gene 3 289 14 398391 0 897 398391 1
gene 4 3 317 -361727 0 942 -361727 1
gene 4 317 289 463236 0 943 463236 1
gene 2 8 368 325740 0 1081 325740 1
gene 2 368 15 -220212 0 1082 -220212 1
gene 1 2 381 -242781 0 1117 -242781 1
gene 2 381 14 -610353 0 1118 -610353 1
gene 4 3 394 -293834 0 1159 -293834 1
gene 4 394 71 404283 0 1160 404283 1
gene 4 1 394 86937 0 1362 86937 1
gene 2 3 473 545629 0 1405 545629 1
gene 2 473 13 -70530 0 1406 -70530 1
gene 1 10 490 -588357 0 1456 -588357 1
gene 1 490 14 -199257 0 1457 -199257 1
gene 3 13 289 189189 0 1591 189189 1
gene 4 71 568 405264 1 1699 405264 1
gene 4 568 71 23868 0 1700 23868 0
gene 3 568 15 -157254 0 1754 -157254 1
gene 3 289 394 -405015 0 1809 -405015 1
gene 4 568 647 -142617 0 1948 -142617 1
gene 4 647 71 343050 0 1949 343050 1
gene 3 394 394 99109 1 2308 99109 1
gene 4 4 773 1 0 2336 0 1
gene 4 773 13 -533867 0 2337 0 1
genomeend 26


/* Organism #38 Fitness: 300.000000 Time: 0 */
/* Position #38*/
#1 x: 35 y: 36
#2 x: 20 y: 21
#3 x: 79 y: 17
#4 x: 32 y: 74
#5 x: 48 y: 85
#6 x: 79 y: 62
genomestart 38
trait 1 1.000000 0.000000 0.000000 0.000000 0.000000 0.000000 0.000000 0.000000 trait 2 0.000000 42160.000000 0.000000 76371.000000 69270.000000 0.000000 0.000000 12049.000000 trait 3 3.000000 0.000000 0.000000 0.000000 0.000000 0.000000 0.000000 0.000000 trait 4 4.000000 0.000000 0.000000 0.000000 0.000000 0.000000 0.000000 0.000000 node 1 4 1 3
node 2 2 1 1
node 3 4 1 1
node 4 2 1 1
node 5 4 1 1
node 6 3 1 1
node 7 2 1 1
node 8 1 1 1
node 9 4 1 1
node 10 1 1 1
node 11 1 1 1
node 12 4 1 1
node 13 3 0 2
node 14 1 0 2
node 15 4 0 2
node 71 1 0 0
node 289 1 0 0
node 317 1 0 0
node 368 1 0 0
node 389 1 0 0
node 467 1 0 0
node 555 1 0 0
node 573 1 0 0
node 587 1 0 0
node 651 1 0 0
node 775 1 0 0
gene 4 1 13 385536 0 1 385536 1
gene 3 2 13 180522 0 2 180522 1
gene 2 3 13 156747 0 3 156747 0
gene 4 4 13 800000 0 4 800000 1
gene 2 5 13 -70596 0 5 -70596 0
gene 3 6 13 251767 0 6 251767 1
gene 1 7 13 -597782 0 7 -597782 1
gene 1 8 13 -407117 0 8 -407117 1
gene 1 9 13 -224394 0 9 -224394 1
gene 2 10 13 -598758 0 10 -598758 1
gene 3 11 13 -730758 0 11 -730758 1
gene 3 12 13 440418 0 12 440418 1
gene 1 1 14 11190 0 13 11190 1
gene 1 2 14 695069 0 14 695069 1
gene 3 3 14 56790 0 15 56790 0
gene 1 4 14 -157869 0 16 -157869 1
gene 1 5 14 -6378 0 17 -6378 1
gene 1 6 14 65493 0 18 65493 1
gene 1 7 14 459795 0 19 459795 0
gene 2 8 14 9196 0 20 9196 1
gene 2 9 14 517778 0 21 517778 0
gene 1 10 14 10617 0 22 10617 1
gene 3 11 14 28497 0 23 28497 1
gene 2 12 14 127908 0 24 127908 1
gene 3 1 15 -737048 0 25 -737048 1
gene 2 2 15 672264 0 26 672264 1
gene 4 3 15 670410 0 27 670410 0
gene 2 4 15 -307953 0 28 -307953 1
gene 2 5 15 193686 0 29 193686 1
gene 1 6 15 -58743 0 30 -58743 1
gene 4 7 15 488541 0 31 488541 0
gene 2 8 15 -800000 0 32 -800000 0
gene 2 9 15 29142 0 33 29142 1
gene 1 10 15 206226 0 34 206226 1
gene 3 11 15 50871 0 35 50871 1
gene 1 12 15 -13590 0 36 -13590 1
gene 4 3 71 800000 0 201 800000 1
gene 3 71 14 -533124 0 202 -533124 0
gene 1 13 13 88860 1 248 88860 1
gene 2 13 15 -190875 0 413 -190875 1
gene 4 10 71 403143 0 454 403143 1
gene 1 7 71 -2463 0 542 -2463 1
gene 4 8 71 -127245 0 717 -127245 1
gene 4 71 71 -370620 1 769 -370620 1
gene 4 3 289 -237936 0 858 -237936 0
gene 4 289 15 161220 0 859 161220 1
gene 3 289 14 80757 0 897 80757 1
gene 4 3 317 434229 0 942 434229 1
gene 4 317 289 149655 0 943 149655 1
gene 2 8 368 521127 0 1081 521127 1
gene 2 368 15 166377 0 1082 166377 1
gene 2 5 389 -72231 0 1147 -72231 1
gene 2 389 13 47064 0 1148 47064 1
gene 2 3 467 145153 0 1387 145153 1
gene 2 467 13 800000 0 1388 800000 1
gene 3 467 14 -58128 0 1499 -58128 1
gene 1 8 467 34158 0 1566 34158 1
gene 1 7 555 -150819 0 1657 -150819 1
gene 1 555 14 676056 0 1658 676056 1
gene 2 9 573 -212739 0 1712 -212739 1
gene 2 573 14 95385 0 1713 95385 1
gene 3 71 587 -129684 0 1761 -129684 1
gene 3 587 14 33057 0 1762 33057 1
gene 1 467 467 53997 1 1858 53997 1
gene 2 467 15 511085 0 1909 511085 1
gene 4 7 651 218373 0 1966 218373 1
gene 4 651 15 -403494 0 1967 -403494 0
gene 4 8 573 26682 0 2012 26682 1
gene 2 587 555 54475 0 2171 54475 1
gene 4 651 775 1 0 2346 0 1
gene 4 775 15 -403494 0 2347 0 1
genomeend 38


/* Organism #56 Fitness: 460.000000 Time: 0 */
/* Position #56*/
#1 x: 50 y: 16
#2 x: 57 y: 35
#3 x: 84 y: 36
#4 x: 53 y: 63
#5 x: 26 y: 76
#6 x: 57 y: 84
genomestart 56
trait 1 16780.000000 0.000000 0.000000 88582.000000 88737.000000 0.000000 0.000000 32087.000000 trait 2 2.000000 0.000000 0.000000 0.000000 0.000000 0.000000 0.000000 0.000000 trait 3 3.000000 0.000000 0.000000 0.000000 0.000000 0.000000 0.000000 0.000000 trait 4 4.000000 0.000000 0.000000 0.000000 0.000000 0.000000 0.000000 0.000000 node 1 4 1 3
node 2 2 1 1
node 3 4 1 1
node 4 2 1 1
node 5 4 1 1
node 6 3 1 1
node 7 2 1 1
node 8 2 1 1
node 9 2 1 1
node 10 1 1 1
node 11 1 1 1
node 12 4 1 1
node 13 3 0 2
node 14 1 0 2
node 15 4 0 2
node 95 1 0 0
node 283 1 0 0
node 296 1 0 0
node 505 1 0 0
node 523 1 0 0
node 536 1 0 0
node 629 1 0 0
node 659 1 0 0
node 673 1 0 0
node 683 1 0 0
node 722 1 0 0
node 751 1 0 0
gene 4 1 13 229914 0 1 229914 1
gene 4 2 13 -167427 0 2 -167427 1
gene 4 3 13 -122622 0 3 -122622 1
gene 1 4 13 -116037 0 4 -116037 1
gene 1 5 13 -61110 0 5 -61110 1
gene 4 6 13 106365 0 6 106365 0
gene 1 7 13 311181 0 7 311181 1
gene 3 8 13 -671840 0 8 -671840 1
gene 2 9 13 555096 0 9 555096 0
gene 2 10 13 -1533 0 10 -1533 1
gene 1 11 13 433049 0 11 433049 1
gene 4 12 13 -663785 0 12 -663785 1
gene 1 1 14 -120642 0 13 -120642 1
gene 1 2 14 29040 0 14 29040 1
gene 3 3 14 -488346 0 15 -488346 1
gene 4 4 14 241305 0 16 241305 1
gene 4 5 14 169989 0 17 169989 0
gene 1 6 14 -274653 0 18 -274653 1
gene 1 7 14 106053 0 19 106053 1
gene 2 8 14 475011 0 20 475011 1
gene 3 9 14 617175 0 21 617175 0
gene 1 10 14 -64698 0 22 -64698 0
gene 1 11 14 -16086 0 23 -16086 1
gene 4 12 14 537279 0 24 537279 0
gene 1 1 15 102438 0 25 102438 1
gene 2 2 15 229155 0 26 229155 1
gene 2 3 15 -258291 0 27 -258291 0
gene 3 4 15 505134 0 28 505134 1
gene 3 5 15 488232 0 29 488232 1
gene 1 6 15 -205467 0 30 -205467 1
gene 4 7 15 -616260 0 31 -616260 1
gene 2 8 15 245772 0 32 245772 1
gene 3 9 15 800000 0 33 800000 1
gene 1 10 15 241521 0 34 241521 1
gene 3 11 15 131942 0 35 131942 0
gene 1 12 15 173544 0 36 173544 1
gene 4 15 14 259374 0 73 259374 1
gene 3 11 95 202824 0 260 202824 1
gene 3 95 15 -546263 0 261 -546263 1
gene 3 15 13 -611559 0 599 -611559 1
gene 2 13 14 -494322 0 640 -494322 0
gene 4 3 95 -183984 0 741 -183984 1
gene 4 12 283 -300258 0 841 -300258 1
gene 4 283 14 449409 0 842 449409 0
gene 4 6 296 451804 0 883 451804 1
gene 4 296 13 -277977 0 884 -277977 1
gene 1 2 296 -51015 0 1225 -51015 1
gene 3 283 283 241004 1 1313 241004 1
gene 2 9 505 604549 0 1500 604549 1
gene 2 505 13 -264651 0 1501 -264651 1
gene 1 296 296 100252 1 1535 100252 1
gene 1 10 523 232291 0 1567 232291 1
gene 1 523 14 -56766 0 1568 -56766 1
gene 2 9 536 68563 0 1608 68563 1
gene 2 536 505 67852 0 1609 67852 1
gene 3 523 523 347405 1 1659 347405 0
gene 2 4 283 96155 0 1763 96155 1
gene 2 3 629 -311603 0 1894 -311603 1
gene 2 629 15 180207 0 1895 180207 1
gene 4 536 14 353865 0 1940 353865 1
gene 3 523 659 1 1 1984 1 1
gene 3 659 523 -168969 0 1985 -168969 1
gene 3 9 673 -216599 0 2027 -216599 1
gene 3 673 14 97668 0 2028 97668 1
gene 2 13 683 138997 0 2061 138997 1
gene 2 683 14 339426 0 2062 339426 1
gene 1 95 95 114762 1 2116 114762 1
gene 4 283 722 357175 0 2174 357175 1
gene 4 722 14 100002 0 2175 100002 1
gene 4 5 751 80713 0 2271 80713 1
gene 4 751 14 198036 0 2272 198036 1
genomeend 56


/* Organism #60 Fitness: 300.000000 Time: 0 */
/* Position #60*/
#1 x: 16 y: 29
#2 x: 49 y: 30
#3 x: 60 y: 28
#4 x: 45 y: 61
#5 x: 33 y: 80
#6 x: 22 y: 70
genomestart 60
trait 1 1.000000 0.000000 0.000000 0.000000 0.000000 0.000000 0.000000 0.000000 trait 2 2.000000 42160.000000 0.000000 0.000000 0.000000 0.000000 0.000000 0.000000 trait 3 3.000000 0.000000 0.000000 0.000000 38724.000000 0.000000 0.000000 0.000000 trait 4 4.000000 0.000000 0.000000 0.000000 0.000000 0.000000 0.000000 0.000000 node 1 4 1 3
node 2 2 1 1
node 3 4 1 1
node 4 2 1 1
node 5 4 1 1
node 6 3 1 1
node 7 2 1 1
node 8 1 1 1
node 9 4 1 1
node 10 1 1 1
node 11 1 1 1
node 12 4 1 1
node 13 3 0 2
node 14 1 0 2
node 15 4 0 2
node 71 1 0 0
node 289 1 0 0
node 317 1 0 0
node 368 1 0 0
node 389 1 0 0
node 467 1 0 0
node 694 1 0 0
node 709 1 0 0
node 741 1 0 0
node 755 1 0 0
gene 4 1 13 158979 0 1 158979 1
gene 3 2 13 -253656 0 2 -253656 1
gene 2 3 13 70260 0 3 70260 0
gene 4 4 13 -692868 0 4 -692868 1
gene 2 5 13 -9387 0 5 -9387 0
gene 3 6 13 -599306 0 6 -599306 1
gene 1 7 13 430707 0 7 430707 1
gene 1 8 13 -1620 0 8 -1620 1
gene 1 9 13 40920 0 9 40920 1
gene 2 10 13 -418788 0 10 -418788 1
gene 3 11 13 -236922 0 11 -236922 1
gene 3 12 13 114138 0 12 114138 1
gene 1 1 14 177201 0 13 177201 1
gene 1 2 14 264585 0 14 264585 1
gene 3 3 14 -64428 0 15 -64428 0
gene 1 4 14 -244029 0 16 -244029 1
gene 1 5 14 18237 0 17 18237 1
gene 1 6 14 -576051 0 18 -576051 1
gene 1 7 14 -349680 0 19 -349680 1
gene 2 8 14 120930 0 20 120930 1
gene 2 9 14 268266 0 21 268266 1
gene 1 10 14 -31521 0 22 -31521 0
gene 3 11 14 -240198 0 23 -240198 0
gene 2 12 14 147699 0 24 147699 1
gene 3 1 15 209100 0 25 209100 1
gene 2 2 15 119451 0 26 119451 1
gene 4 3 15 330921 0 27 330921 0
gene 2 4 15 -443724 0 28 -443724 1
gene 2 5 15 497919 0 29 497919 1
gene 4 6 15 291174 0 30 291174 1
gene 4 7 15 -499734 0 31 -499734 1
gene 2 8 15 -226104 0 32 -226104 0
gene 2 9 15 -744185 0 33 -744185 1
gene 1 10 15 162219 0 34 162219 1
gene 3 11 15 -178053 0 35 -178053 1
gene 1 12 15 31968 0 36 31968 1
gene 4 3 71 238401 0 201 238401 1
gene 1 71 14 -486594 0 202 -486594 1
gene 1 13 13 -365751 1 248 -365751 1
gene 2 13 15 120765 0 413 120765 1
gene 4 10 71 800000 0 454 800000 1
gene 1 7 71 -193623 0 542 -193623 1
gene 4 8 71 89361 0 717 89361 1
gene 4 71 71 215157 1 769 215157 1
gene 4 3 289 -145017 0 858 -145017 0
gene 4 289 15 342594 0 859 342594 0
gene 3 289 14 30216 0 897 30216 1
gene 4 3 317 206371 0 942 206371 1
gene 4 317 289 -78912 0 943 -78912 1
gene 2 8 368 -161211 0 1081 -161211 1
gene 2 368 15 49407 0 1082 49407 1
gene 2 5 389 47943 0 1147 47943 1
gene 2 389 13 150717 0 1148 150717 1
gene 2 3 467 -714552 0 1387 -714552 1
gene 2 467 13 -252669 0 1388 -252669 1
gene 1 368 71 251193 0 1534 251193 0
gene 3 289 71 320880 0 1786 320880 1
gene 4 6 368 287838 0 2050 287838 1
gene 4 289 694 -177365 0 2090 -177365 1
gene 4 694 15 272115 0 2091 272115 1
gene 1 368 709 145548 0 2136 145548 1
gene 1 709 71 15132 0 2137 15132 1
gene 3 11 741 -75278 0 2235 -75278 1
gene 3 741 14 -372036 0 2236 -372036 1
gene 1 10 755 14485 0 2280 14485 1
gene 1 755 14 152754 0 2281 152754 1
genomeend 60


/* Organism #66 Fitness: 340.000000 Time: 0 */
/* Position #66*/
#1 x: 26 y: 33
#2 x: 47 y: 36
#3 x: 82 y: 30
#4 x: 53 y: 60
#5 x: 45 y: 69
#6 x: 57 y: 77
genomestart 66
trait 1 1.000000 0.000000 0.000000 0.000000 0.000000 0.000000 0.000000 0.000000 trait 2 2.000000 0.000000 0.000000 0.000000 0.000000 0.000000 0.000000 0.000000 trait 3 3.000000 0.000000 0.000000 0.000000 0.000000 0.000000 0.000000 0.000000 trait 4 73910.000000 58593.000000 0.000000 0.000000 0.000000 0.000000 0.000000 0.000000 node 1 4 1 3
node 2 2 1 1
node 3 4 1 1
node 4 2 1 1
node 5 4 1 1
node 6 3 1 1
node 7 2 1 1
node 8 1 1 1
node 9 4 1 1
node 10 1 1 1
node 11 1 1 1
node 12 4 1 1
node 13 3 0 2
node 14 1 0 2
node 15 4 0 2
node 71 1 0 0
node 289 1 0 0
node 317 1 0 0
node 368 1 0 0
node 381 3 0 0
node 394 1 0 0
node 405 1 0 0
node 439 1 0 0
node 682 1 0 0
node 733 1 0 0
gene 4 1 13 163635 0 1 163635 1
gene 3 2 13 39420 0 2 39420 1
gene 2 3 13 -366393 0 3 -366393 1
gene 4 4 13 -63251 0 4 -63251 1
gene 2 5 13 -403713 0 5 -403713 1
gene 3 6 13 -251160 0 6 -251160 1
gene 1 7 13 -149406 0 7 -149406 1
gene 1 8 13 -728126 0 8 -728126 1
gene 1 9 13 228705 0 9 228705 1
gene 2 10 13 12201 0 10 12201 1
gene 3 11 13 -440532 0 11 -440532 1
gene 3 12 13 183222 0 12 183222 1
gene 1 1 14 800000 0 13 800000 1
gene 1 2 14 -603645 0 14 -603645 0
gene 3 3 14 -198519 0 15 -198519 0
gene 1 4 14 15801 0 16 15801 1
gene 1 5 14 -728280 0 17 -728280 1
gene 1 6 14 -133802 0 18 -133802 1
gene 1 7 14 328656 0 19 328656 1
gene 2 8 14 -479559 0 20 -479559 1
gene 4 9 14 722596 0 21 722596 0
gene 1 10 14 72915 0 22 72915 1
gene 3 11 14 -800000 0 23 -800000 0
gene 2 12 14 -396792 0 24 -396792 1
gene 3 1 15 -800000 0 25 -800000 1
gene 2 2 15 166182 0 26 166182 1
gene 4 3 15 609780 0 27 609780 0
gene 2 4 15 -134505 0 28 -134505 1
gene 2 5 15 -642609 0 29 -642609 1
gene 1 6 15 175623 0 30 175623 1
gene 4 7 15 292533 0 31 292533 1
gene 2 8 15 322401 0 32 322401 0
gene 2 9 15 264327 0 33 264327 1
gene 1 10 15 -659559 0 34 -659559 1
gene 3 11 15 -246930 0 35 -246930 1
gene 1 12 15 107841 0 36 107841 1
gene 4 3 71 191063 0 201 191063 0
gene 3 71 14 -159099 0 202 -159099 1
gene 1 13 13 453468 1 248 453468 1
gene 2 13 15 -2496 0 413 -2496 1
gene 4 10 71 571685 0 454 571685 1
gene 1 7 71 -121164 0 542 -121164 1
gene 4 8 71 531789 0 717 531789 1
gene 4 71 71 -245748 1 769 -245748 1
gene 4 3 289 753642 0 858 753642 0
gene 4 289 15 -414330 0 859 -414330 1
gene 3 289 14 54930 0 897 54930 1
gene 4 3 317 -469047 0 942 -469047 1
gene 4 317 289 58797 0 943 58797 1
gene 3 8 368 357228 0 1081 357228 1
gene 2 368 15 650861 0 1082 650861 1
gene 1 2 381 -543347 0 1117 -543347 1
gene 1 381 14 -753006 0 1118 -753006 1
gene 4 3 394 800000 0 1159 800000 0
gene 4 394 71 471408 0 1160 471408 1
gene 3 11 405 169164 0 1197 169164 1
gene 3 405 14 -209277 0 1198 -209277 1
gene 4 14 405 741318 1 1256 741318 1
gene 4 3 439 -175335 0 1305 -175335 1
gene 4 439 394 -595167 0 1306 -595167 1
gene 4 14 381 -204363 1 1807 -204363 1
gene 4 6 381 220863 0 1838 220863 1
gene 2 9 682 125332 0 2059 125332 1
gene 2 682 14 -37374 0 2060 -37374 0
gene 2 682 733 94293 0 2215 94293 1
gene 2 733 14 316432 0 2216 316432 1
gene 3 394 682 -231329 0 2257 -231329 1
gene 3 317 317 -93864 1 2295 -93864 1
genomeend 66


