/* Organism #0 Fitness: 130.000000 Time: 0 */
/* Position #0*/
#1 x: 20 y: 20
#2 x: 47 y: 35
#3 x: 83 y: 34
#4 x: 56 y: 68
#5 x: 75 y: 62
#6 x: 72 y: 73
genomestart 0
node 1 2 1 3
node 2 3 1 1
node 3 1 1 1
node 4 3 1 1
node 5 4 1 1
node 6 1 1 1
node 7 3 1 1
node 8 1 1 1
node 9 1 1 1
node 10 3 1 1
node 11 2 1 1
node 12 4 1 1
node 13 2 0 2
node 14 1 0 2
node 15 3 0 2
node 25 1 0 0
gene 3 1 13 187074 0 1 187074 1
gene 3 2 13 502851 0 2 502851 1
gene 2 3 13 -800000 0 3 -800000 1
gene 3 4 13 394821 0 4 394821 1
gene 2 5 13 165815 0 5 165815 1
gene 3 6 13 -528336 0 6 -528336 1
gene 3 7 13 96440 0 7 96440 1
gene 3 8 13 280008 0 8 280008 1
gene 1 9 13 -678042 0 9 -678042 0
gene 1 10 13 -375111 0 10 -375111 1
gene 1 11 13 64971 0 11 64971 1
gene 1 12 13 -213768 0 12 -213768 1
gene 1 1 14 -156813 0 13 -156813 1
gene 3 2 14 478119 0 14 478119 1
gene 2 3 14 -688818 0 15 -688818 1
gene 1 4 14 -59152 0 16 -59152 1
gene 2 5 14 628209 0 17 628209 1
gene 3 6 14 -800000 0 18 -800000 1
gene 3 7 14 -157212 0 19 -157212 1
gene 1 8 14 -348681 0 20 -348681 1
gene 1 9 14 271839 0 21 271839 1
gene 4 10 14 258603 0 22 258603 1
gene 2 11 14 83925 0 23 83925 1
gene 3 12 14 -38997 0 24 -38997 1
gene 2 1 15 -602259 0 25 -602259 1
gene 1 2 15 719118 0 26 719118 1
gene 1 3 15 -737087 0 27 -737087 1
gene 4 4 15 -258603 0 28 -258603 1
gene 2 5 15 -800000 0 29 -800000 1
gene 2 6 15 35049 0 30 35049 1
gene 2 7 15 138951 0 31 138951 1
gene 1 8 15 425295 0 32 425295 1
gene 1 9 15 -302100 0 33 -302100 1
gene 2 10 15 259233 0 34 259233 1
gene 1 11 15 -131007 0 35 -131007 1
gene 3 12 15 469215 0 36 469215 1
gene 1 9 25 -672879 0 171 -672879 1
gene 1 25 13 473823 0 172 473823 1
gene 3 14 14 140976 1 178 140976 1
gene 4 5 25 95289 0 587 95289 1
gene 2 25 14 208143 0 607 208143 1
genomeend 0


/* Organism #24 Fitness: 130.000000 Time: 0 */
/* Position #24*/
#1 x: 82 y: 15
#2 x: 28 y: 40
#3 x: 28 y: 34
#4 x: 37 y: 85
#5 x: 27 y: 64
#6 x: 24 y: 64
genomestart 24
node 1 3 1 3
node 2 4 1 1
node 3 1 1 1
node 4 4 1 1
node 5 3 1 1
node 6 1 1 1
node 7 3 1 1
node 8 4 1 1
node 9 2 1 1
node 10 3 1 1
node 11 3 1 1
node 12 4 1 1
node 13 2 0 2
node 14 3 0 2
node 15 3 0 2
gene 3 1 13 381546 0 1 381546 1
gene 3 2 13 -46443 0 2 -46443 1
gene 2 3 13 -487485 0 3 -487485 1
gene 3 4 13 -266592 0 4 -266592 1
gene 2 5 13 300078 0 5 300078 1
gene 3 6 13 335839 0 6 335839 1
gene 3 7 13 -233139 0 7 -233139 1
gene 3 8 13 -43881 0 8 -43881 1
gene 4 9 13 -161703 0 9 -161703 1
gene 1 10 13 49731 0 10 49731 1
gene 1 11 13 -739950 0 11 -739950 1
gene 2 12 13 -36354 0 12 -36354 1
gene 1 1 14 -364647 0 13 -364647 1
gene 3 2 14 608646 0 14 608646 1
gene 4 3 14 -138870 0 15 -138870 1
gene 1 4 14 -325428 0 16 -325428 1
gene 2 5 14 -800000 0 17 -800000 1
gene 3 6 14 -342066 0 18 -342066 1
gene 3 7 14 609078 0 19 609078 1
gene 1 8 14 -800000 0 20 -800000 1
gene 1 9 14 225312 0 21 225312 1
gene 3 10 14 537513 0 22 537513 1
gene 2 11 14 4968 0 23 4968 1
gene 3 12 14 -10896 0 24 -10896 1
gene 2 1 15 264372 0 25 264372 1
gene 1 2 15 734802 0 26 734802 1
gene 1 3 15 10131 0 27 10131 1
gene 4 4 15 186438 0 28 186438 1
gene 2 5 15 -691860 0 29 -691860 1
gene 2 6 15 -132462 0 30 -132462 1
gene 2 7 15 -176793 0 31 -176793 1
gene 1 8 15 647303 0 32 647303 1
gene 1 9 15 -792012 0 33 -792012 1
gene 2 10 15 -204201 0 34 -204201 1
gene 1 11 15 455985 0 35 455985 1
gene 1 12 15 -279726 0 36 -279726 1
gene 1 14 13 -42072 0 218 -42072 1
gene 3 14 15 -377013 0 315 -377013 1
gene 2 13 15 -280629 0 326 -280629 1
gene 1 15 15 129177 1 419 129177 1
genomeend 24


/* Organism #33 Fitness: 150.000000 Time: 0 */
/* Position #33*/
#1 x: 63 y: 24
#2 x: 54 y: 17
#3 x: 78 y: 24
#4 x: 78 y: 83
#5 x: 75 y: 67
#6 x: 43 y: 83
genomestart 33
node 1 3 1 3
node 2 4 1 1
node 3 1 1 1
node 4 2 1 1
node 5 3 1 1
node 6 1 1 1
node 7 3 1 1
node 8 1 1 1
node 9 1 1 1
node 10 3 1 1
node 11 3 1 1
node 12 4 1 1
node 13 4 0 2
node 14 3 0 2
node 15 3 0 2
gene 3 1 13 520019 0 1 520019 1
gene 3 2 13 93210 0 2 93210 1
gene 2 3 13 800000 0 3 800000 1
gene 3 4 13 155418 0 4 155418 1
gene 2 5 13 5259 0 5 5259 1
gene 3 6 13 -92991 0 6 -92991 1
gene 3 7 13 -245166 0 7 -245166 1
gene 3 8 13 -128634 0 8 -128634 1
gene 1 9 13 49425 0 9 49425 1
gene 1 10 13 -665490 0 10 -665490 1
gene 1 11 13 478233 0 11 478233 1
gene 2 12 13 25335 0 12 25335 1
gene 2 1 14 -697485 0 13 -697485 1
gene 3 2 14 239040 0 14 239040 1
gene 4 3 14 -75318 0 15 -75318 1
gene 1 4 14 293034 0 16 293034 1
gene 2 5 14 -119833 0 17 -119833 1
gene 3 6 14 -133937 0 18 -133937 1
gene 3 7 14 290976 0 19 290976 1
gene 1 8 14 726423 0 20 726423 1
gene 1 9 14 288699 0 21 288699 1
gene 3 10 14 -557424 0 22 -557424 1
gene 2 11 14 8928 0 23 8928 1
gene 3 12 14 665153 0 24 665153 1
gene 2 1 15 396783 0 25 396783 1
gene 1 2 15 -582084 0 26 -582084 1
gene 1 3 15 800000 0 27 800000 1
gene 4 4 15 139395 0 28 139395 1
gene 2 5 15 219635 0 29 219635 1
gene 2 6 15 158361 0 30 158361 1
gene 2 7 15 -411006 0 31 -411006 1
gene 1 8 15 294720 0 32 294720 1
gene 1 9 15 -637487 0 33 -637487 1
gene 2 10 15 -169869 0 34 -169869 1
gene 1 11 15 -4176 0 35 -4176 1
gene 3 12 15 395715 0 36 395715 1
gene 3 14 13 -12969 0 218 -12969 1
gene 3 14 15 184587 0 315 184587 1
gene 2 13 15 107283 0 326 107283 1
gene 1 15 15 434805 1 419 434805 1
gene 1 13 13 -15083 1 628 -15083 1
gene 4 14 14 71484 1 649 71484 1
genomeend 33


/* Organism #41 Fitness: 130.000000 Time: 0 */
/* Position #41*/
#1 x: 83 y: 24
#2 x: 24 y: 32
#3 x: 23 y: 38
#4 x: 81 y: 80
#5 x: 80 y: 69
#6 x: 36 y: 82
genomestart 41
node 1 2 1 3
node 2 4 1 1
node 3 3 1 1
node 4 4 1 1
node 5 1 1 1
node 6 2 1 1
node 7 3 1 1
node 8 2 1 1
node 9 2 1 1
node 10 2 1 1
node 11 4 1 1
node 12 1 1 1
node 13 1 0 2
node 14 3 0 2
node 15 4 0 2
gene 1 1 13 589113 0 1 589113 1
gene 4 2 13 136155 0 2 136155 1
gene 2 3 13 -571804 0 3 -571804 1
gene 2 4 13 -181245 0 4 -181245 1
gene 2 5 13 322398 0 5 322398 1
gene 1 6 13 295485 0 6 295485 1
gene 2 7 13 125433 0 7 125433 1
gene 2 8 13 360681 0 8 360681 1
gene 2 9 13 395107 0 9 395107 1
gene 2 10 13 278887 0 10 278887 1
gene 2 11 13 109932 0 11 109932 1
gene 1 12 13 348237 0 12 348237 1
gene 1 1 14 556862 0 13 556862 1
gene 1 2 14 -337088 0 14 -337088 1
gene 1 3 14 -126885 0 15 -126885 1
gene 4 4 14 -179808 0 16 -179808 1
gene 3 5 14 297621 0 17 297621 1
gene 1 6 14 378319 0 18 378319 1
gene 2 7 14 -774369 0 19 -774369 1
gene 4 8 14 258616 0 20 258616 1
gene 1 9 14 85725 0 21 85725 1
gene 3 10 14 -119421 0 22 -119421 1
gene 4 11 14 -70761 0 23 -70761 1
gene 3 12 14 -731795 0 24 -731795 1
gene 1 1 15 -226938 0 25 -226938 1
gene 3 2 15 -371158 0 26 -371158 1
gene 2 3 15 43968 0 27 43968 1
gene 2 4 15 -245799 0 28 -245799 1
gene 4 5 15 13087 0 29 13087 1
gene 2 6 15 250920 0 30 250920 1
gene 1 7 15 -195879 0 31 -195879 1
gene 3 8 15 357938 0 32 357938 1
gene 2 9 15 100482 0 33 100482 1
gene 2 10 15 -360283 0 34 -360283 1
gene 1 11 15 137212 0 35 137212 1
gene 2 12 15 305415 0 36 305415 1
gene 2 13 15 33381 0 137 33381 1
gene 4 13 13 166839 1 179 166839 1
gene 2 14 15 280439 0 223 280439 1
gene 2 14 14 46836 1 247 46836 1
gene 3 13 14 -632043 0 303 -632043 1
genomeend 41


/* Organism #42 Fitness: 150.000000 Time: 0 */
/* Position #42*/
#1 x: 37 y: 17
#2 x: 44 y: 26
#3 x: 39 y: 30
#4 x: 37 y: 74
#5 x: 27 y: 84
#6 x: 53 y: 74
genomestart 42
node 1 2 1 3
node 2 4 1 1
node 3 3 1 1
node 4 4 1 1
node 5 1 1 1
node 6 2 1 1
node 7 3 1 1
node 8 2 1 1
node 9 2 1 1
node 10 2 1 1
node 11 4 1 1
node 12 1 1 1
node 13 1 0 2
node 14 3 0 2
node 15 4 0 2
gene 1 1 13 552921 0 1 552921 1
gene 4 2 13 157941 0 2 157941 1
gene 2 3 13 -269113 0 3 -269113 1
gene 2 4 13 622531 0 4 622531 1
gene 2 5 13 218457 0 5 218457 1
gene 1 6 13 519807 0 6 519807 1
gene 2 7 13 400977 0 7 400977 1
gene 2 8 13 256620 0 8 256620 1
gene 2 9 13 299146 0 9 299146 1
gene 2 10 13 213370 0 10 213370 1
gene 2 11 13 490186 0 11 490186 1
gene 1 12 13 294600 0 12 294600 1
gene 1 1 14 568508 0 13 568508 1
gene 1 2 14 -488429 0 14 -488429 1
gene 1 3 14 -44745 0 15 -44745 1
gene 4 4 14 -146784 0 16 -146784 1
gene 3 5 14 375843 0 17 375843 1
gene 1 6 14 506062 0 18 506062 1
gene 2 7 14 -683691 0 19 -683691 1
gene 4 8 14 279151 0 20 279151 1
gene 1 9 14 150300 0 21 150300 1
gene 3 10 14 -39902 0 22 -39902 1
gene 4 11 14 -245844 0 23 -245844 1
gene 3 12 14 -217445 0 24 -217445 1
gene 1 1 15 163845 0 25 163845 1
gene 3 2 15 -632989 0 26 -632989 1
gene 2 3 15 -106170 0 27 -106170 1
gene 2 4 15 -397404 0 28 -397404 1
gene 4 5 15 -52874 0 29 -52874 1
gene 2 6 15 389871 0 30 389871 1
gene 1 7 15 -284892 0 31 -284892 1
gene 3 8 15 579362 0 32 579362 1
gene 2 9 15 -124848 0 33 -124848 1
gene 2 10 15 -602839 0 34 -602839 1
gene 1 11 15 355831 0 35 355831 1
gene 2 12 15 246606 0 36 246606 1
gene 2 13 15 -249582 0 137 -249582 1
gene 4 13 13 265485 1 179 265485 1
gene 2 14 15 -246588 0 223 -246588 1
gene 2 14 14 -17214 1 247 -17214 1
gene 3 13 14 -284955 0 303 -284955 1
genomeend 42


/* Organism #46 Fitness: 140.000000 Time: 0 */
/* Position #46*/
#1 x: 20 y: 35
#2 x: 59 y: 32
#3 x: 38 y: 16
#4 x: 57 y: 65
#5 x: 34 y: 83
#6 x: 20 y: 76
genomestart 46
node 1 3 1 3
node 2 4 1 1
node 3 1 1 1
node 4 1 1 1
node 5 1 1 1
node 6 4 1 1
node 7 3 1 1
node 8 1 1 1
node 9 2 1 1
node 10 3 1 1
node 11 3 1 1
node 12 4 1 1
node 13 2 0 2
node 14 3 0 2
node 15 3 0 2
gene 3 1 13 -353106 0 1 -353106 1
gene 3 2 13 143511 0 2 143511 1
gene 2 3 13 277680 0 3 277680 1
gene 3 4 13 -328917 0 4 -328917 1
gene 2 5 13 86265 0 5 86265 1
gene 3 6 13 -17022 0 6 -17022 1
gene 3 7 13 -290661 0 7 -290661 1
gene 3 8 13 -506805 0 8 -506805 1
gene 1 9 13 -105372 0 9 -105372 1
gene 1 10 13 23856 0 10 23856 1
gene 1 11 13 263709 0 11 263709 1
gene 2 12 13 -474540 0 12 -474540 1
gene 1 1 14 367359 0 13 367359 1
gene 3 2 14 800000 0 14 800000 1
gene 4 3 14 298125 0 15 298125 1
gene 1 4 14 760509 0 16 760509 1
gene 2 5 14 348302 0 17 348302 1
gene 3 6 14 -374382 0 18 -374382 1
gene 3 7 14 -210625 0 19 -210625 1
gene 1 8 14 -33417 0 20 -33417 1
gene 1 9 14 377703 0 21 377703 1
gene 3 10 14 -328427 0 22 -328427 1
gene 2 11 14 800000 0 23 800000 1
gene 3 12 14 800000 0 24 800000 1
gene 2 1 15 279144 0 25 279144 1
gene 1 2 15 -501096 0 26 -501096 1
gene 1 3 15 99261 0 27 99261 1
gene 4 4 15 -796847 0 28 -796847 1
gene 2 5 15 -800000 0 29 -800000 1
gene 2 6 15 179211 0 30 179211 1
gene 2 7 15 -758624 0 31 -758624 1
gene 1 8 15 49608 0 32 49608 1
gene 1 9 15 -136617 0 33 -136617 1
gene 2 10 15 -800000 0 34 -800000 1
gene 1 11 15 120666 0 35 120666 1
gene 3 12 15 -110691 0 36 -110691 1
gene 1 14 13 264129 0 218 264129 1
gene 3 14 15 -12069 0 315 -12069 1
gene 2 13 15 86625 0 326 86625 1
gene 1 15 15 102543 1 419 102543 1
gene 3 13 13 -339411 1 588 -339411 1
genomeend 46


/* Organism #49 Fitness: 180.000000 Time: 0 */
/* Position #49*/
#1 x: 32 y: 25
#2 x: 26 y: 23
#3 x: 25 y: 34
#4 x: 77 y: 83
#5 x: 66 y: 75
#6 x: 26 y: 76
genomestart 49
node 1 4 1 3
node 2 1 1 1
node 3 1 1 1
node 4 2 1 1
node 5 4 1 1
node 6 2 1 1
node 7 3 1 1
node 8 4 1 1
node 9 3 1 1
node 10 2 1 1
node 11 4 1 1
node 12 2 1 1
node 13 4 0 2
node 14 3 0 2
node 15 2 0 2
gene 1 1 13 -500130 0 1 -500130 1
gene 1 2 13 71856 0 2 71856 1
gene 3 3 13 -305907 0 3 -305907 1
gene 3 4 13 -23994 0 4 -23994 1
gene 2 5 13 186900 0 5 186900 1
gene 1 6 13 213864 0 6 213864 1
gene 3 7 13 -209042 0 7 -209042 1
gene 2 8 13 136514 0 8 136514 1
gene 3 9 13 766629 0 9 766629 1
gene 2 10 13 -337869 0 10 -337869 1
gene 1 11 13 -642996 0 11 -642996 1
gene 3 12 13 322935 0 12 322935 1
gene 1 1 14 83427 0 13 83427 1
gene 3 2 14 229890 0 14 229890 1
gene 1 3 14 -309013 0 15 -309013 1
gene 1 4 14 298674 0 16 298674 1
gene 3 5 14 585319 0 17 585319 1
gene 1 6 14 324622 0 18 324622 1
gene 4 7 14 359073 0 19 359073 1
gene 1 8 14 -439383 0 20 -439383 1
gene 3 9 14 -788574 0 21 -788574 1
gene 2 10 14 56349 0 22 56349 1
gene 2 11 14 457041 0 23 457041 1
gene 3 12 14 -43371 0 24 -43371 1
gene 1 1 15 92709 0 25 92709 1
gene 3 2 15 93429 0 26 93429 1
gene 3 3 15 241077 0 27 241077 1
gene 4 4 15 -800000 0 28 -800000 1
gene 4 5 15 208410 0 29 208410 1
gene 3 6 15 303858 0 30 303858 1
gene 1 7 15 -443523 0 31 -443523 1
gene 4 8 15 236310 0 32 236310 1
gene 1 9 15 -575301 0 33 -575301 1
gene 4 10 15 69879 0 34 69879 1
gene 1 11 15 -195624 0 35 -195624 1
gene 4 12 15 -355095 0 36 -355095 1
gene 3 15 13 283752 0 388 283752 1
gene 3 13 14 153315 0 452 153315 1
gene 3 15 14 -393350 0 477 -393350 1
gene 2 13 13 -78069 1 650 -78069 1
genomeend 49


/* Organism #81 Fitness: 140.000000 Time: 0 */
/* Position #81*/
#1 x: 70 y: 24
#2 x: 42 y: 17
#3 x: 15 y: 31
#4 x: 58 y: 72
#5 x: 29 y: 80
#6 x: 58 y: 81
genomestart 81
node 1 3 1 3
node 2 4 1 1
node 3 1 1 1
node 4 4 1 1
node 5 3 1 1
node 6 1 1 1
node 7 3 1 1
node 8 4 1 1
node 9 2 1 1
node 10 3 1 1
node 11 3 1 1
node 12 4 1 1
node 13 2 0 2
node 14 3 0 2
node 15 3 0 2
gene 3 1 13 -19833 0 1 -19833 1
gene 3 2 13 36474 0 2 36474 1
gene 2 3 13 32826 0 3 32826 1
gene 3 4 13 129228 0 4 129228 1
gene 2 5 13 -255456 0 5 -255456 1
gene 3 6 13 103855 0 6 103855 1
gene 3 7 13 -237816 0 7 -237816 1
gene 3 8 13 -107322 0 8 -107322 1
gene 4 9 13 -405213 0 9 -405213 1
gene 1 10 13 161931 0 10 161931 1
gene 1 11 13 -800000 0 11 -800000 1
gene 2 12 13 202680 0 12 202680 1
gene 1 1 14 284487 0 13 284487 1
gene 3 2 14 -38742 0 14 -38742 1
gene 4 3 14 30933 0 15 30933 1
gene 1 4 14 -206586 0 16 -206586 1
gene 2 5 14 -242355 0 17 -242355 1
gene 3 6 14 -370809 0 18 -370809 1
gene 3 7 14 270513 0 19 270513 1
gene 1 8 14 -638637 0 20 -638637 1
gene 1 9 14 -86991 0 21 -86991 1
gene 3 10 14 573894 0 22 573894 1
gene 2 11 14 141957 0 23 141957 1
gene 3 12 14 -48963 0 24 -48963 1
gene 2 1 15 164469 0 25 164469 1
gene 1 2 15 453591 0 26 453591 1
gene 1 3 15 157635 0 27 157635 1
gene 4 4 15 493200 0 28 493200 1
gene 2 5 15 108858 0 29 108858 1
gene 2 6 15 -464829 0 30 -464829 1
gene 2 7 15 -162549 0 31 -162549 1
gene 1 8 15 389336 0 32 389336 1
gene 1 9 15 -800000 0 33 -800000 1
gene 2 10 15 -269015 0 34 -269015 1
gene 1 11 15 89418 0 35 89418 1
gene 1 12 15 -258459 0 36 -258459 1
gene 1 14 13 -196152 0 218 -196152 1
gene 3 14 15 -85647 0 315 -85647 1
gene 2 13 15 149793 0 326 149793 1
gene 1 15 15 416547 1 419 416547 1
genomeend 81


/* Organism #85 Fitness: 140.000000 Time: 0 */
/* Position #85*/
#1 x: 62 y: 32
#2 x: 75 y: 38
#3 x: 47 y: 30
#4 x: 16 y: 78
#5 x: 36 y: 69
#6 x: 70 y: 80
genomestart 85
node 1 3 1 3
node 2 4 1 1
node 3 3 1 1
node 4 4 1 1
node 5 3 1 1
node 6 1 1 1
node 7 3 1 1
node 8 4 1 1
node 9 2 1 1
node 10 3 1 1
node 11 3 1 1
node 12 4 1 1
node 13 2 0 2
node 14 3 0 2
node 15 3 0 2
gene 3 1 13 37308 0 1 37308 1
gene 3 2 13 -219831 0 2 -219831 1
gene 2 3 13 -156303 0 3 -156303 1
gene 3 4 13 -431292 0 4 -431292 1
gene 2 5 13 283071 0 5 283071 1
gene 3 6 13 -392937 0 6 -392937 1
gene 3 7 13 -288654 0 7 -288654 1
gene 3 8 13 -389625 0 8 -389625 1
gene 4 9 13 -403614 0 9 -403614 1
gene 3 10 13 -177243 0 10 -177243 1
gene 1 11 13 170793 0 11 170793 1
gene 2 12 13 424800 0 12 424800 1
gene 1 1 14 197745 0 13 197745 1
gene 3 2 14 416256 0 14 416256 1
gene 4 3 14 -94383 0 15 -94383 1
gene 1 4 14 -672147 0 16 -672147 1
gene 2 5 14 -615800 0 17 -615800 1
gene 3 6 14 -45018 0 18 -45018 1
gene 3 7 14 520380 0 19 520380 1
gene 1 8 14 183618 0 20 183618 1
gene 1 9 14 389184 0 21 389184 1
gene 3 10 14 -306138 0 22 -306138 1
gene 2 11 14 -188064 0 23 -188064 1
gene 3 12 14 -704037 0 24 -704037 1
gene 2 1 15 -285861 0 25 -285861 1
gene 1 2 15 -394719 0 26 -394719 1
gene 1 3 15 210918 0 27 210918 1
gene 4 4 15 154464 0 28 154464 1
gene 2 5 15 -245406 0 29 -245406 1
gene 2 6 15 -503175 0 30 -503175 1
gene 2 7 15 -706506 0 31 -706506 1
gene 1 8 15 250271 0 32 250271 1
gene 1 9 15 -617847 0 33 -617847 1
gene 2 10 15 -84879 0 34 -84879 1
gene 1 11 15 48438 0 35 48438 1
gene 1 12 15 -118716 0 36 -118716 1
gene 1 14 13 -187941 0 218 -187941 1
gene 3 14 15 -458355 0 315 -458355 1
gene 2 13 15 489042 0 326 489042 1
gene 1 15 15 -172473 1 419 -172473 1
genomeend 85


/* Organism #89 Fitness: 150.000000 Time: 0 */
/* Position #89*/
#1 x: 66 y: 31
#2 x: 70 y: 26
#3 x: 16 y: 28
#4 x: 16 y: 61
#5 x: 85 y: 61
#6 x: 38 y: 78
genomestart 89
node 1 3 1 3
node 2 4 1 1
node 3 1 1 1
node 4 4 1 1
node 5 3 1 1
node 6 1 1 1
node 7 3 1 1
node 8 4 1 1
node 9 2 1 1
node 10 3 1 1
node 11 3 1 1
node 12 4 1 1
node 13 2 0 2
node 14 3 0 2
node 15 3 0 2
gene 3 1 13 -197592 0 1 -197592 1
gene 3 2 13 -226437 0 2 -226437 1
gene 2 3 13 -96612 0 3 -96612 1
gene 3 4 13 168537 0 4 168537 1
gene 2 5 13 567942 0 5 567942 1
gene 3 6 13 -201012 0 6 -201012 1
gene 3 7 13 -768345 0 7 -768345 1
gene 3 8 13 474270 0 8 474270 1
gene 4 9 13 311829 0 9 311829 1
gene 1 10 13 800000 0 10 800000 1
gene 1 11 13 692871 0 11 692871 1
gene 2 12 13 -800000 0 12 -800000 1
gene 1 1 14 -109941 0 13 -109941 1
gene 3 2 14 126198 0 14 126198 1
gene 4 3 14 -285177 0 15 -285177 1
gene 1 4 14 389823 0 16 389823 1
gene 2 5 14 -755132 0 17 -755132 1
gene 3 6 14 -92094 0 18 -92094 1
gene 3 7 14 -503211 0 19 -503211 1
gene 1 8 14 592920 0 20 592920 1
gene 1 9 14 -275016 0 21 -275016 1
gene 3 10 14 369785 0 22 369785 1
gene 2 11 14 -541329 0 23 -541329 1
gene 3 12 14 379521 0 24 379521 1
gene 2 1 15 450813 0 25 450813 1
gene 1 2 15 -201681 0 26 -201681 1
gene 1 3 15 -191316 0 27 -191316 1
gene 4 4 15 -382293 0 28 -382293 1
gene 2 5 15 83661 0 29 83661 1
gene 2 6 15 -336306 0 30 -336306 1
gene 2 7 15 -208614 0 31 -208614 1
gene 1 8 15 561756 0 32 561756 1
gene 1 9 15 -54108 0 33 -54108 1
gene 2 10 15 -277476 0 34 -277476 1
gene 1 11 15 732708 0 35 732708 1
gene 1 12 15 -7317 0 36 -7317 1
gene 1 14 13 -282531 0 218 -282531 1
gene 3 14 15 743802 0 315 743802 1
gene 2 13 15 238083 0 326 238083 1
gene 1 15 15 -92616 1 419 -92616 1
genomeend 89


/* Organism #112 Fitness: 130.000000 Time: 0 */
/* Position #112*/
#1 x: 46 y: 30
#2 x: 79 y: 16
#3 x: 84 y: 31
#4 x: 27 y: 85
#5 x: 17 y: 68
#6 x: 72 y: 75
genomestart 112
node 1 2 1 3
node 2 1 1 1
node 3 1 1 1
node 4 1 1 1
node 5 4 1 1
node 6 2 1 1
node 7 3 1 1
node 8 4 1 1
node 9 3 1 1
node 10 1 1 1
node 11 4 1 1
node 12 1 1 1
node 13 4 0 2
node 14 3 0 2
node 15 2 0 2
gene 1 1 13 800000 0 1 800000 1
gene 1 2 13 215814 0 2 215814 1
gene 3 3 13 610122 0 3 610122 1
gene 3 4 13 -234282 0 4 -234282 1
gene 2 5 13 9405 0 5 9405 1
gene 1 6 13 -60141 0 6 -60141 1
gene 3 7 13 -758267 0 7 -758267 1
gene 2 8 13 800000 0 8 800000 1
gene 4 9 13 -696054 0 9 -696054 1
gene 2 10 13 -502436 0 10 -502436 1
gene 1 11 13 -126840 0 11 -126840 1
gene 3 12 13 -92694 0 12 -92694 1
gene 1 1 14 -252855 0 13 -252855 1
gene 3 2 14 -47403 0 14 -47403 1
gene 1 3 14 763682 0 15 763682 1
gene 1 4 14 136577 0 16 136577 1
gene 3 5 14 371193 0 17 371193 1
gene 1 6 14 -800000 0 18 -800000 1
gene 4 7 14 60711 0 19 60711 1
gene 1 8 14 -217578 0 20 -217578 1
gene 3 9 14 -800000 0 21 -800000 1
gene 2 10 14 190146 0 22 190146 1
gene 2 11 14 452709 0 23 452709 1
gene 3 12 14 -368124 0 24 -368124 1
gene 1 1 15 -129390 0 25 -129390 1
gene 3 2 15 -673284 0 26 -673284 1
gene 3 3 15 -885 0 27 -885 1
gene 4 4 15 -109962 0 28 -109962 1
gene 3 5 15 -596732 0 29 -596732 1
gene 3 6 15 800000 0 30 800000 1
gene 1 7 15 409542 0 31 409542 1
gene 1 8 15 -531402 0 32 -531402 1
gene 2 9 15 -204243 0 33 -204243 1
gene 4 10 15 214188 0 34 214188 1
gene 1 11 15 -368523 0 35 -368523 1
gene 4 12 15 -210741 0 36 -210741 1
gene 3 15 13 -172107 0 388 -172107 1
gene 3 13 14 16152 0 452 16152 1
gene 3 15 14 57864 0 477 57864 1
genomeend 112


/* Organism #114 Fitness: 140.000000 Time: 0 */
/* Position #114*/
#1 x: 46 y: 30
#2 x: 68 y: 27
#3 x: 44 y: 33
#4 x: 75 y: 63
#5 x: 32 y: 83
#6 x: 29 y: 72
genomestart 114
node 1 2 1 3
node 2 4 1 1
node 3 2 1 1
node 4 1 1 1
node 5 2 1 1
node 6 2 1 1
node 7 3 1 1
node 8 2 1 1
node 9 2 1 1
node 10 3 1 1
node 11 4 1 1
node 12 1 1 1
node 13 1 0 2
node 14 1 0 2
node 15 4 0 2
gene 1 1 13 89019 0 1 89019 1
gene 4 2 13 -205581 0 2 -205581 1
gene 2 3 13 -124251 0 3 -124251 1
gene 2 4 13 -114633 0 4 -114633 1
gene 2 5 13 -178518 0 5 -178518 1
gene 1 6 13 -331479 0 6 -331479 1
gene 3 7 13 -800000 0 7 -800000 1
gene 2 8 13 482613 0 8 482613 1
gene 2 9 13 483177 0 9 483177 1
gene 2 10 13 -87222 0 10 -87222 1
gene 2 11 13 500094 0 11 500094 1
gene 1 12 13 -35757 0 12 -35757 1
gene 1 1 14 -56952 0 13 -56952 1
gene 2 2 14 -240846 0 14 -240846 1
gene 1 3 14 -199857 0 15 -199857 1
gene 4 4 14 -5850 0 16 -5850 1
gene 3 5 14 224526 0 17 224526 1
gene 1 6 14 -537483 0 18 -537483 1
gene 2 7 14 476688 0 19 476688 1
gene 3 8 14 325053 0 20 325053 1
gene 1 9 14 66438 0 21 66438 1
gene 3 10 14 -327657 0 22 -327657 1
gene 4 11 14 143121 0 23 143121 1
gene 3 12 14 -252021 0 24 -252021 1
gene 1 1 15 296877 0 25 296877 1
gene 3 2 15 -109071 0 26 -109071 1
gene 2 3 15 158399 0 27 158399 1
gene 2 4 15 -26307 0 28 -26307 1
gene 4 5 15 -62442 0 29 -62442 1
gene 2 6 15 105540 0 30 105540 1
gene 1 7 15 122337 0 31 122337 1
gene 3 8 15 -421935 0 32 -421935 1
gene 2 9 15 -800000 0 33 -800000 1
gene 2 10 15 6516 0 34 6516 1
gene 1 11 15 111456 0 35 111456 1
gene 2 12 15 -272958 0 36 -272958 1
gene 4 13 15 -106923 0 137 -106923 1
gene 4 13 13 -181626 1 179 -181626 1
gene 2 14 15 275049 0 223 275049 1
gene 2 14 14 -288087 1 247 -288087 1
gene 3 13 14 570624 0 303 570624 1
genomeend 114


/* Organism #128 Fitness: 360.000000 Time: 0 */
/* Position #128*/
#1 x: 67 y: 29
#2 x: 16 y: 25
#3 x: 60 y: 30
#4 x: 64 y: 82
#5 x: 15 y: 65
#6 x: 65 y: 70
genomestart 128
node 1 3 1 3
node 2 4 1 1
node 3 1 1 1
node 4 3 1 1
node 5 3 1 1
node 6 1 1 1
node 7 3 1 1
node 8 1 1 1
node 9 1 1 1
node 10 3 1 1
node 11 3 1 1
node 12 4 1 1
node 13 4 0 2
node 14 3 0 2
node 15 3 0 2
gene 3 1 13 688166 0 1 688166 1
gene 3 2 13 352041 0 2 352041 1
gene 2 3 13 696189 0 3 696189 1
gene 3 4 13 -120717 0 4 -120717 1
gene 2 5 13 -447443 0 5 -447443 1
gene 3 6 13 73392 0 6 73392 1
gene 3 7 13 -564681 0 7 -564681 1
gene 3 8 13 -555588 0 8 -555588 1
gene 1 9 13 392879 0 9 392879 1
gene 1 10 13 -165543 0 10 -165543 1
gene 1 11 13 -57711 0 11 -57711 1
gene 2 12 13 119247 0 12 119247 1
gene 2 1 14 -432693 0 13 -432693 1
gene 3 2 14 386613 0 14 386613 1
gene 4 3 14 -291684 0 15 -291684 1
gene 1 4 14 128286 0 16 128286 1
gene 2 5 14 697259 0 17 697259 1
gene 3 6 14 116664 0 18 116664 1
gene 3 7 14 651059 0 19 651059 1
gene 1 8 14 603405 0 20 603405 1
gene 1 9 14 -183411 0 21 -183411 1
gene 3 10 14 -20172 0 22 -20172 1
gene 2 11 14 -35904 0 23 -35904 1
gene 3 12 14 -432456 0 24 -432456 1
gene 2 1 15 -282165 0 25 -282165 1
gene 1 2 15 -607377 0 26 -607377 1
gene 1 3 15 400155 0 27 400155 1
gene 4 4 15 399414 0 28 399414 1
gene 2 5 15 441821 0 29 441821 1
gene 2 6 15 -800000 0 30 -800000 1
gene 2 7 15 -349434 0 31 -349434 1
gene 1 8 15 800000 0 32 800000 1
gene 1 9 15 -702714 0 33 -702714 1
gene 2 10 15 304029 0 34 304029 1
gene 1 11 15 164412 0 35 164412 1
gene 3 12 15 605249 0 36 605249 1
gene 3 14 13 -386679 0 218 -386679 1
gene 3 14 15 460353 0 315 460353 1
gene 2 13 15 474981 0 326 474981 1
gene 1 15 15 -284829 1 419 -284829 1
genomeend 128


/* Organism #129 Fitness: 260.000000 Time: 0 */
/* Position #129*/
#1 x: 67 y: 29
#2 x: 16 y: 25
#3 x: 60 y: 30
#4 x: 64 y: 82
#5 x: 15 y: 65
#6 x: 65 y: 70
genomestart 129
node 1 2 1 3
node 2 4 1 1
node 3 3 1 1
node 4 4 1 1
node 5 1 1 1
node 6 2 1 1
node 7 4 1 1
node 8 2 1 1
node 9 2 1 1
node 10 2 1 1
node 11 4 1 1
node 12 1 1 1
node 13 1 0 2
node 14 1 0 2
node 15 4 0 2
gene 1 1 13 -800000 0 1 -800000 1
gene 4 2 13 -4734 0 2 -4734 1
gene 2 3 13 -526994 0 3 -526994 1
gene 2 4 13 66705 0 4 66705 1
gene 2 5 13 -113634 0 5 -113634 1
gene 1 6 13 33819 0 6 33819 1
gene 2 7 13 230470 0 7 230470 1
gene 2 8 13 -282579 0 8 -282579 1
gene 2 9 13 112260 0 9 112260 1
gene 2 10 13 656025 0 10 656025 1
gene 2 11 13 -264615 0 11 -264615 1
gene 1 12 13 -515411 0 12 -515411 1
gene 1 1 14 400113 0 13 400113 1
gene 1 2 14 -661527 0 14 -661527 1
gene 1 3 14 259473 0 15 259473 1
gene 4 4 14 146850 0 16 146850 1
gene 3 5 14 -435885 0 17 -435885 1
gene 1 6 14 -394890 0 18 -394890 1
gene 2 7 14 -267675 0 19 -267675 1
gene 4 8 14 -43683 0 20 -43683 1
gene 1 9 14 287352 0 21 287352 1
gene 3 10 14 -209226 0 22 -209226 1
gene 4 11 14 411810 0 23 411810 1
gene 3 12 14 -58617 0 24 -58617 1
gene 1 1 15 132048 0 25 132048 1
gene 3 2 15 142665 0 26 142665 1
gene 2 3 15 557997 0 27 557997 1
gene 2 4 15 26634 0 28 26634 1
gene 2 5 15 -435888 0 29 -435888 1
gene 2 6 15 -397029 0 30 -397029 1
gene 1 7 15 -516381 0 31 -516381 1
gene 3 8 15 800000 0 32 800000 1
gene 2 9 15 358541 0 33 358541 1
gene 2 10 15 -10968 0 34 -10968 1
gene 1 11 15 -566646 0 35 -566646 1
gene 2 12 15 -417267 0 36 -417267 1
gene 2 13 15 -394728 0 137 -394728 1
gene 4 13 13 40644 1 179 40644 1
gene 2 14 15 -435225 0 223 -435225 1
gene 2 14 14 313914 1 247 313914 1
gene 3 13 14 49167 0 303 49167 1
genomeend 129


