/* Organism #71 Fitness: 153.000000 Time: 0 */
/* Position #71*/
#1 x: 17 y: 18
#2 x: 79 y: 23
#3 x: 53 y: 33
#4 x: 51 y: 80
#5 x: 23 y: 83
#6 x: 49 y: 80
genomestart 71
node 1 4 1 3
node 2 3 1 1
node 3 4 1 1
node 4 4 1 1
node 5 1 1 1
node 6 2 1 1
node 7 3 1 1
node 8 2 1 1
node 9 1 1 1
node 10 1 1 1
node 11 1 1 1
node 12 4 1 1
node 13 3 0 2
node 14 1 0 2
node 15 3 0 2
node 16 4 0 2
gene 2 1 13 -577815 0 1 -577815 1
gene 1 2 13 -97845 0 2 -97845 1
gene 4 3 13 -36135 0 3 -36135 1
gene 3 4 13 -309359 0 4 -309359 1
gene 2 5 13 285269 0 5 285269 1
gene 4 6 13 -431205 0 6 -431205 1
gene 2 7 13 -96738 0 7 -96738 1
gene 3 8 13 -178839 0 8 -178839 1
gene 4 9 13 166422 0 9 166422 1
gene 1 10 13 -604553 0 10 -604553 1
gene 1 11 13 12150 0 11 12150 1
gene 1 12 13 -212304 0 12 -212304 1
gene 2 1 14 -563012 0 13 -563012 1
gene 4 2 14 -286581 0 14 -286581 1
gene 4 3 14 91260 0 15 91260 1
gene 2 4 14 -399747 0 16 -399747 1
gene 4 5 14 210687 0 17 210687 1
gene 1 6 14 -157890 0 18 -157890 1
gene 2 7 14 290964 0 19 290964 1
gene 2 8 14 -187326 0 20 -187326 1
gene 3 9 14 -183909 0 21 -183909 1
gene 3 10 14 -351230 0 22 -351230 1
gene 4 11 14 739713 0 23 739713 1
gene 3 12 14 254790 0 24 254790 1
gene 3 1 15 103692 0 25 103692 1
gene 3 2 15 -269619 0 26 -269619 1
gene 4 3 15 131616 0 27 131616 1
gene 3 4 15 -189663 0 28 -189663 1
gene 1 5 15 800000 0 29 800000 1
gene 1 6 15 421386 0 30 421386 1
gene 3 7 15 -252678 0 31 -252678 1
gene 2 8 15 109635 0 32 109635 1
gene 3 9 15 292521 0 33 292521 1
gene 4 10 15 -195363 0 34 -195363 1
gene 3 11 15 800000 0 35 800000 1
gene 2 12 15 638483 0 36 638483 1
gene 3 1 16 -121062 0 37 -121062 1
gene 3 2 16 153819 0 38 153819 1
gene 1 3 16 73449 0 39 73449 1
gene 4 4 16 609519 0 40 609519 1
gene 3 5 16 -152202 0 41 -152202 1
gene 3 6 16 260871 0 42 260871 1
gene 4 7 16 -199437 0 43 -199437 1
gene 2 8 16 -660726 0 44 -660726 1
gene 3 9 16 270738 0 45 270738 1
gene 4 10 16 -2970 0 46 -2970 1
gene 2 11 16 -171924 0 47 -171924 1
gene 3 12 16 409479 0 48 409479 1
gene 1 15 14 -88773 0 71 -88773 1
gene 1 13 16 -373098 0 113 -373098 1
gene 4 15 15 -454041 1 211 -454041 1
gene 1 15 16 429105 0 253 429105 1
genomeend 71


