/* Organism #74 Fitness: 160.000000 Time: 0 */
/* Position #74*/
#1 x: 28 y: 21
#2 x: 80 y: 17
#3 x: 37 y: 26
#4 x: 53 y: 72
#5 x: 34 y: 71
#6 x: 79 y: 79
genomestart 74
node 1 4 1 3
node 2 3 1 1
node 3 4 1 1
node 4 1 1 1
node 5 4 1 1
node 6 4 1 1
node 7 2 1 1
node 8 3 1 1
node 9 4 1 1
node 10 1 1 1
node 11 4 1 1
node 12 2 1 1
node 13 4 0 2
node 14 1 0 2
node 15 4 0 2
node 16 4 0 2
gene 1 1 13 -457698 0 1 -457698 1
gene 2 2 13 -13662 0 2 -13662 1
gene 2 3 13 -26139 0 3 -26139 1
gene 3 4 13 -180480 0 4 -180480 1
gene 2 5 13 703614 0 5 703614 1
gene 2 6 13 49329 0 6 49329 1
gene 1 7 13 404478 0 7 404478 1
gene 2 8 13 -85281 0 8 -85281 1
gene 2 9 13 459666 0 9 459666 1
gene 1 10 13 -426699 0 10 -426699 1
gene 3 11 13 -535715 0 11 -535715 1
gene 1 12 13 226170 0 12 226170 1
gene 4 1 14 -800000 0 13 -800000 1
gene 2 2 14 69813 0 14 69813 1
gene 4 3 14 -199782 0 15 -199782 1
gene 4 4 14 339915 0 16 339915 1
gene 4 5 14 -478023 0 17 -478023 1
gene 3 6 14 50353 0 18 50353 1
gene 3 7 14 800000 0 19 800000 1
gene 3 8 14 -220881 0 20 -220881 1
gene 3 9 14 52890 0 21 52890 1
gene 3 10 14 220521 0 22 220521 1
gene 1 11 14 -31083 0 23 -31083 1
gene 1 12 14 652194 0 24 652194 1
gene 1 1 15 -793272 0 25 -793272 1
gene 4 2 15 224049 0 26 224049 1
gene 3 3 15 725132 0 27 725132 1
gene 1 4 15 -535667 0 28 -535667 1
gene 4 5 15 487029 0 29 487029 1
gene 3 6 15 -568341 0 30 -568341 1
gene 2 7 15 230988 0 31 230988 1
gene 3 8 15 -43983 0 32 -43983 1
gene 4 9 15 380931 0 33 380931 1
gene 3 10 15 625464 0 34 625464 1
gene 1 11 15 930 0 35 930 1
gene 1 12 15 385725 0 36 385725 1
gene 2 1 16 -354522 0 37 -354522 1
gene 3 2 16 -167298 0 38 -167298 1
gene 1 3 16 -305604 0 39 -305604 1
gene 4 4 16 171606 0 40 171606 1
gene 3 5 16 203223 0 41 203223 1
gene 3 6 16 -741738 0 42 -741738 1
gene 4 7 16 245337 0 43 245337 1
gene 4 8 16 -135768 0 44 -135768 1
gene 1 9 16 580208 0 45 580208 1
gene 3 10 16 -255324 0 46 -255324 1
gene 1 11 16 71727 0 47 71727 1
gene 3 12 16 43782 0 48 43782 1
gene 1 14 15 -408318 0 55 -408318 1
gene 4 16 13 -800000 0 76 -800000 1
gene 4 13 13 8721 1 103 8721 1
gene 3 16 16 144627 1 169 144627 1
gene 3 14 14 -182985 1 347 -182985 1
genomeend 74


