
/* Species #1 : (Size 6) (AF 66.6667) (Age 5)  */


/* Organism #0 Fitness: 80 Error: 0 */

/* Position #0*/
#1 x: 54 y: 80
#2 x: 70 y: 69
#3 x: 56 y: 82
#4 x: 65 y: 31
#5 x: 25 y: 16
#6 x: 22 y: 33
genomestart 0
trait 1 1 0 0 0 0 0 0 0 
trait 2 2 0 0 0 0 0 0 0 
trait 3 3 0 0 0 0 0 0 0 
trait 4 4 0 0 0 0 0 0 0 
node 1 3 1 3
node 2 3 1 1
node 3 3 1 1
node 4 3 1 1
node 5 3 1 1
node 6 3 1 1
node 7 2 1 1
node 8 2 1 1
node 9 1 1 1
node 10 1 1 1
node 11 4 1 1
node 12 3 1 1
node 13 3 1 1
node 14 3 1 1
node 15 2 1 1
node 16 4 1 1
node 17 4 1 1
node 18 1 0 2
node 19 3 0 2
node 20 2 0 2
node 69 1 0 0
gene 1 1 18 2.54686 0 1 2.54686 1
gene 3 2 18 -1.61585 0 2 -1.61585 1
gene 4 3 18 -0.855579 0 3 -0.855579 1
gene 1 4 18 1.62305 0 4 1.62305 1
gene 1 5 18 2.94058 0 5 2.94058 1
gene 1 6 18 -1.86031 0 6 -1.86031 1
gene 4 7 18 0.635835 0 7 0.635835 1
gene 3 8 8 0.0454895 0 8 0.0454895 1
gene 3 9 18 -3.85119 0 9 -3.85119 1
gene 1 10 18 -3.21891 0 10 -3.21891 1
gene 3 11 18 2.47222 0 11 2.47222 1
gene 2 12 18 1.94608 0 12 1.94608 1
gene 2 13 18 -1.3481 0 13 -1.3481 1
gene 2 14 18 -0.147903 0 14 -0.147903 1
gene 1 15 18 2.98395 0 15 2.98395 1
gene 3 16 18 -0.862252 0 16 -0.862252 1
gene 3 17 18 -1.46265 0 17 -1.46265 1
gene 4 1 19 1.93226 0 18 1.93226 1
gene 4 2 19 -2.05805 0 19 -2.05805 0
gene 3 3 19 1.15556 0 20 1.15556 1
gene 4 4 19 1.8914 0 21 1.8914 1
gene 3 5 19 -2.18989 0 22 -2.18989 1
gene 1 6 19 1.62565 0 23 1.62565 1
gene 1 7 19 -1.15512 0 24 -1.15512 1
gene 2 8 19 -0.611098 0 25 -0.611098 1
gene 3 9 19 -1.65045 0 26 -1.65045 1
gene 3 10 19 0.406977 0 27 0.406977 1
gene 2 11 19 -1.65274 0 28 -1.65274 1
gene 3 12 19 -1.16097 0 29 -1.16097 1
gene 2 13 19 2.96316 0 30 2.96316 1
gene 1 14 19 -2.48127 0 31 -2.48127 1
gene 1 15 19 -1.47026 0 32 -1.47026 1
gene 3 16 19 2.27064 0 33 2.27064 1
gene 4 17 19 1.95481 0 34 1.95481 1
gene 2 1 20 -2.63196 0 35 -2.63196 1
gene 3 2 20 -0.628347 0 36 -0.628347 1
gene 3 3 20 -1.63396 0 37 -1.63396 1
gene 1 4 20 0.999123 0 38 0.999123 1
gene 2 5 20 0.914528 0 39 0.914528 1
gene 1 6 20 2.6785 0 40 2.6785 1
gene 2 7 20 -2.36649 0 41 -2.36649 1
gene 2 8 20 -0.219591 0 42 -0.219591 1
gene 1 9 20 0.243753 0 43 0.243753 1
gene 1 10 20 -0.999102 0 44 -0.999102 1
gene 1 11 20 2.41066 0 45 2.41066 1
gene 2 12 20 -1.35912 0 46 -1.35912 1
gene 1 13 20 2.30525 0 47 2.30525 1
gene 4 14 20 0.156525 0 48 0.156525 1
gene 1 15 20 -2.44673 0 49 -2.44673 1
gene 3 16 20 -0.486604 0 50 -0.486604 1
gene 2 17 20 -1.1803 0 51 -1.1803 1
gene 4 2 69 1 0 167 0 1
gene 4 69 19 -2.05805 0 168 0 1
genomeend 0

/* Organism #1 Fitness: 20 Error: 0 */

/* Position #1*/
#1 x: 54 y: 80
#2 x: 70 y: 69
#3 x: 56 y: 82
#4 x: 65 y: 31
#5 x: 25 y: 16
#6 x: 22 y: 33
genomestart 1
trait 1 1 0 0 0 0 0 0 0 
trait 2 2 0 0 0 0 0 0 0 
trait 3 3 0 0 0 0 0 0 0 
trait 4 4 0 0 0 0 0 0 0 
node 1 3 1 3
node 2 3 1 1
node 3 3 1 1
node 4 3 1 1
node 5 3 1 1
node 6 3 1 1
node 7 2 1 1
node 8 2 1 1
node 9 1 1 1
node 10 1 1 1
node 11 4 1 1
node 12 3 1 1
node 13 3 1 1
node 14 3 1 1
node 15 2 1 1
node 16 4 1 1
node 17 4 1 1
node 18 1 0 2
node 19 3 0 2
node 20 2 0 2
node 69 1 0 0
node 95 1 0 0
gene 1 1 18 2.54686 0 1 2.54686 1
gene 3 2 18 -1.61585 0 2 -1.61585 1
gene 4 3 18 -0.855579 0 3 -0.855579 1
gene 1 4 18 1.62305 0 4 1.62305 1
gene 1 5 18 2.94058 0 5 2.94058 1
gene 1 6 18 -1.86031 0 6 -1.86031 1
gene 4 7 18 0.635835 0 7 0.635835 1
gene 3 8 8 0.0454895 0 8 0.0454895 1
gene 3 9 18 -3.85119 0 9 -3.85119 1
gene 1 10 18 -3.21891 0 10 -3.21891 1
gene 3 11 18 2.47222 0 11 2.47222 0
gene 2 12 18 1.94608 0 12 1.94608 1
gene 2 13 18 -1.3481 0 13 -1.3481 1
gene 2 14 18 -0.147903 0 14 -0.147903 1
gene 1 15 18 2.98395 0 15 2.98395 1
gene 3 16 18 -0.862252 0 16 -0.862252 1
gene 3 17 18 -1.46265 0 17 -1.46265 1
gene 4 1 19 1.93226 0 18 1.93226 1
gene 4 2 19 -2.05805 0 19 -2.05805 0
gene 3 3 19 1.15556 0 20 1.15556 1
gene 4 4 19 1.8914 0 21 1.8914 1
gene 3 5 19 -2.18989 0 22 -2.18989 1
gene 1 6 19 1.62565 0 23 1.62565 1
gene 1 7 19 -1.15512 0 24 -1.15512 1
gene 2 8 19 -0.611098 0 25 -0.611098 1
gene 3 9 19 -1.65045 0 26 -1.65045 1
gene 3 10 19 0.406977 0 27 0.406977 1
gene 2 11 19 -1.65274 0 28 -1.65274 1
gene 3 12 19 -1.16097 0 29 -1.16097 1
gene 2 13 19 2.96316 0 30 2.96316 1
gene 1 14 19 -2.48127 0 31 -2.48127 1
gene 1 15 19 -1.47026 0 32 -1.47026 1
gene 3 16 19 2.27064 0 33 2.27064 1
gene 4 17 19 1.95481 0 34 1.95481 1
gene 2 1 20 -2.63196 0 35 -2.63196 1
gene 3 2 20 -0.628347 0 36 -0.628347 1
gene 3 3 20 -1.63396 0 37 -1.63396 1
gene 1 4 20 0.999123 0 38 0.999123 1
gene 2 5 20 0.914528 0 39 0.914528 1
gene 1 6 20 2.6785 0 40 2.6785 1
gene 2 7 20 -2.36649 0 41 -2.36649 1
gene 2 8 20 -0.219591 0 42 -0.219591 1
gene 1 9 20 0.243753 0 43 0.243753 1
gene 1 10 20 -0.999102 0 44 -0.999102 1
gene 1 11 20 2.41066 0 45 2.41066 1
gene 2 12 20 -1.35912 0 46 -1.35912 1
gene 1 13 20 2.30525 0 47 2.30525 1
gene 4 14 20 0.156525 0 48 0.156525 1
gene 1 15 20 -2.44673 0 49 -2.44673 1
gene 3 16 20 -0.486604 0 50 -0.486604 1
gene 2 17 20 -1.1803 0 51 -1.1803 1
gene 4 2 69 1 0 167 0 1
gene 4 69 19 -2.05805 0 168 0 1
gene 3 11 95 1 0 234 0 1
gene 3 95 18 2.47222 0 235 0 1
genomeend 1

/* Organism #2 Fitness: 60 Error: 0 */

/* Position #2*/
#1 x: 78 y: 49
#2 x: 70 y: 81
#3 x: 30 y: 43
#4 x: 56 y: 68
#5 x: 56 y: 42
#6 x: 34 y: 70
genomestart 2
trait 1 1 0 0 0 0 0 0 0 
trait 2 2 0 0 0 0 0 0 0 
trait 3 3 0 0 0 0 0 0 0 
trait 4 4 0 0 0 0 0 0 0 
node 1 3 1 3
node 2 3 1 1
node 3 3 1 1
node 4 3 1 1
node 5 3 1 1
node 6 3 1 1
node 7 2 1 1
node 8 2 1 1
node 9 1 1 1
node 10 1 1 1
node 11 4 1 1
node 12 3 1 1
node 13 3 1 1
node 14 3 1 1
node 15 2 1 1
node 16 4 1 1
node 17 4 1 1
node 18 1 0 2
node 19 3 0 2
node 20 2 0 2
node 69 1 0 0
node 96 1 0 0
gene 1 1 18 2.54686 0 1 2.54686 1
gene 3 2 18 -1.61585 0 2 -1.61585 1
gene 4 3 18 -0.855579 0 3 -0.855579 1
gene 1 4 18 1.62305 0 4 1.62305 1
gene 1 5 18 2.94058 0 5 2.94058 1
gene 1 6 18 -1.86031 0 6 -1.86031 1
gene 4 7 18 0.635835 0 7 0.635835 1
gene 3 8 8 0.0454895 0 8 0.0454895 1
gene 3 9 18 -3.85119 0 9 -3.85119 1
gene 1 10 18 -3.21891 0 10 -3.21891 1
gene 3 11 18 2.47222 0 11 2.47222 1
gene 2 12 18 1.94608 0 12 1.94608 1
gene 2 13 18 -1.3481 0 13 -1.3481 1
gene 2 14 18 -0.147903 0 14 -0.147903 1
gene 1 15 18 2.98395 0 15 2.98395 1
gene 3 16 18 -0.862252 0 16 -0.862252 1
gene 3 17 18 -1.46265 0 17 -1.46265 1
gene 4 1 19 1.93226 0 18 1.93226 1
gene 4 2 19 -2.05805 0 19 -2.05805 0
gene 3 3 19 1.15556 0 20 1.15556 1
gene 4 4 19 1.8914 0 21 1.8914 1
gene 3 5 19 -2.18989 0 22 -2.18989 1
gene 1 6 19 1.62565 0 23 1.62565 1
gene 1 7 19 -1.15512 0 24 -1.15512 1
gene 2 8 19 -0.611098 0 25 -0.611098 1
gene 3 9 19 -1.65045 0 26 -1.65045 1
gene 3 10 19 0.406977 0 27 0.406977 1
gene 2 11 19 -1.65274 0 28 -1.65274 1
gene 3 12 19 -1.16097 0 29 -1.16097 1
gene 2 13 19 2.96316 0 30 2.96316 1
gene 1 14 19 -2.48127 0 31 -2.48127 1
gene 1 15 19 -1.47026 0 32 -1.47026 1
gene 3 16 19 2.27064 0 33 2.27064 1
gene 4 17 19 1.95481 0 34 1.95481 1
gene 2 1 20 -2.63196 0 35 -2.63196 1
gene 3 2 20 -0.628347 0 36 -0.628347 1
gene 3 3 20 -1.63396 0 37 -1.63396 1
gene 1 4 20 0.999123 0 38 0.999123 0
gene 2 5 20 0.914528 0 39 0.914528 1
gene 1 6 20 2.6785 0 40 2.6785 1
gene 2 7 20 -2.36649 0 41 -2.36649 1
gene 2 8 20 -0.219591 0 42 -0.219591 1
gene 1 9 20 0.243753 0 43 0.243753 1
gene 1 10 20 -0.999102 0 44 -0.999102 1
gene 1 11 20 2.41066 0 45 2.41066 1
gene 2 12 20 -1.35912 0 46 -1.35912 1
gene 1 13 20 2.30525 0 47 2.30525 1
gene 4 14 20 0.156525 0 48 0.156525 1
gene 1 15 20 -2.44673 0 49 -2.44673 1
gene 3 16 20 -0.486604 0 50 -0.486604 1
gene 2 17 20 -1.1803 0 51 -1.1803 1
gene 4 2 69 1 0 167 0 1
gene 4 69 19 -2.05805 0 168 0 1
gene 1 4 96 1 0 236 0 1
gene 1 96 20 0.999123 0 237 0 1
genomeend 2

/* Organism #3 Fitness: 40 Error: 0 */

/* Position #3*/
#1 x: 78 y: 49
#2 x: 70 y: 81
#3 x: 30 y: 43
#4 x: 56 y: 68
#5 x: 56 y: 42
#6 x: 34 y: 70
genomestart 3
trait 1 1 0 0 0 0 0 0 0 
trait 2 2 0 0 0 0 0 0 0 
trait 3 3 0 0 0 0 0 0 0 
trait 4 4 0 0 0 0 0 0 0 
node 1 3 1 3
node 2 3 1 1
node 3 3 1 1
node 4 3 1 1
node 5 3 1 1
node 6 3 1 1
node 7 2 1 1
node 8 2 1 1
node 9 1 1 1
node 10 1 1 1
node 11 4 1 1
node 12 3 1 1
node 13 3 1 1
node 14 3 1 1
node 15 2 1 1
node 16 4 1 1
node 17 4 1 1
node 18 1 0 2
node 19 3 0 2
node 20 2 0 2
node 69 1 0 0
node 97 1 0 0
gene 1 1 18 2.54686 0 1 2.54686 1
gene 3 2 18 -1.61585 0 2 -1.61585 1
gene 4 3 18 -0.855579 0 3 -0.855579 1
gene 1 4 18 1.62305 0 4 1.62305 1
gene 1 5 18 2.94058 0 5 2.94058 1
gene 1 6 18 -1.86031 0 6 -1.86031 1
gene 4 7 18 0.635835 0 7 0.635835 1
gene 3 8 8 0.0454895 0 8 0.0454895 1
gene 3 9 18 -3.85119 0 9 -3.85119 1
gene 1 10 18 -3.21891 0 10 -3.21891 1
gene 3 11 18 2.47222 0 11 2.47222 1
gene 2 12 18 1.94608 0 12 1.94608 1
gene 2 13 18 -1.3481 0 13 -1.3481 1
gene 2 14 18 -0.147903 0 14 -0.147903 1
gene 1 15 18 2.98395 0 15 2.98395 1
gene 3 16 18 -0.862252 0 16 -0.862252 1
gene 3 17 18 -1.46265 0 17 -1.46265 1
gene 4 1 19 1.93226 0 18 1.93226 1
gene 4 2 19 -2.05805 0 19 -2.05805 0
gene 3 3 19 1.15556 0 20 1.15556 1
gene 4 4 19 1.8914 0 21 1.8914 1
gene 3 5 19 -2.18989 0 22 -2.18989 1
gene 1 6 19 1.62565 0 23 1.62565 1
gene 1 7 19 -1.15512 0 24 -1.15512 1
gene 2 8 19 -0.611098 0 25 -0.611098 1
gene 3 9 19 -1.65045 0 26 -1.65045 1
gene 3 10 19 0.406977 0 27 0.406977 1
gene 2 11 19 -1.65274 0 28 -1.65274 1
gene 3 12 19 -1.16097 0 29 -1.16097 1
gene 2 13 19 2.96316 0 30 2.96316 1
gene 1 14 19 -2.48127 0 31 -2.48127 1
gene 1 15 19 -1.47026 0 32 -1.47026 1
gene 3 16 19 2.27064 0 33 2.27064 1
gene 4 17 19 1.95481 0 34 1.95481 1
gene 2 1 20 -2.63196 0 35 -2.63196 1
gene 3 2 20 -0.628347 0 36 -0.628347 1
gene 3 3 20 -1.63396 0 37 -1.63396 1
gene 1 4 20 0.999123 0 38 0.999123 1
gene 2 5 20 0.914528 0 39 0.914528 1
gene 1 6 20 2.6785 0 40 2.6785 1
gene 2 7 20 -2.36649 0 41 -2.36649 1
gene 2 8 20 -0.219591 0 42 -0.219591 1
gene 1 9 20 0.243753 0 43 0.243753 1
gene 1 10 20 -0.999102 0 44 -0.999102 1
gene 1 11 20 2.41066 0 45 2.41066 0
gene 2 12 20 -1.35912 0 46 -1.35912 1
gene 1 13 20 2.30525 0 47 2.30525 1
gene 4 14 20 0.156525 0 48 0.156525 1
gene 1 15 20 -2.44673 0 49 -2.44673 1
gene 3 16 20 -0.486604 0 50 -0.486604 1
gene 2 17 20 -1.1803 0 51 -1.1803 1
gene 4 2 69 1 0 167 0 1
gene 4 69 19 -2.05805 0 168 0 1
gene 1 11 97 1 0 238 0 1
gene 1 97 20 2.41066 0 239 0 1
genomeend 3

/* Organism #4 Fitness: 40 Error: 0 */

/* Position #4*/
#1 x: 78 y: 82
#2 x: 83 y: 27
#3 x: 59 y: 31
#4 x: 18 y: 31
#5 x: 33 y: 24
#6 x: 59 y: 40
genomestart 4
trait 1 1 0 0 0 0 0 0 0 
trait 2 2 0 0 0 0 0 0 0 
trait 3 3 0 0 0 0 0 0 0 
trait 4 4 0 0 0 0 0 0 0 
node 1 3 1 3
node 2 3 1 1
node 3 3 1 1
node 4 3 1 1
node 5 3 1 1
node 6 3 1 1
node 7 2 1 1
node 8 2 1 1
node 9 1 1 1
node 10 3 1 1
node 11 4 1 1
node 12 3 1 1
node 13 3 1 1
node 14 3 1 1
node 15 2 1 1
node 16 4 1 1
node 17 4 1 1
node 18 1 0 2
node 19 3 0 2
node 20 2 0 2
node 69 1 0 0
gene 1 1 18 4.70537 0 1 4.70537 1
gene 3 2 18 -2.61074 0 2 -2.61074 1
gene 4 3 18 -3.24585 0 3 -3.24585 1
gene 1 4 18 0.437105 0 4 0.437105 1
gene 1 5 18 1.33405 0 5 1.33405 1
gene 1 6 18 0.0887385 0 6 0.0887385 1
gene 4 7 18 1.95455 0 7 1.95455 1
gene 3 8 8 -2.60612 0 8 -2.60612 1
gene 3 9 18 -6.13326 0 9 -6.13326 1
gene 1 10 18 -5.1547 0 10 -5.1547 1
gene 3 11 18 -0.190521 0 11 -0.190521 1
gene 2 12 18 4.587 0 12 4.587 1
gene 2 13 18 1.03286 0 13 1.03286 1
gene 2 14 18 0.171663 0 14 0.171663 1
gene 1 15 18 2.62718 0 15 2.62718 1
gene 3 16 18 -1.90453 0 16 -1.90453 1
gene 3 17 18 1.44807 0 17 1.44807 1
gene 4 1 19 -0.767784 0 18 -0.767784 1
gene 4 2 19 -1.00243 0 19 -1.00243 0
gene 3 3 19 2.36317 0 20 2.36317 1
gene 4 4 19 2.85034 0 21 2.85034 1
gene 3 5 19 -4.88233 0 22 -4.88233 1
gene 1 6 19 2.23521 0 23 2.23521 1
gene 1 7 19 1.4164 0 24 1.4164 1
gene 2 8 19 -3.46961 0 25 -3.46961 1
gene 3 9 19 -3.45257 0 26 -3.45257 1
gene 3 10 19 -0.553376 0 27 -0.553376 1
gene 2 11 19 -0.919701 0 28 -0.919701 1
gene 3 12 19 -0.85125 0 29 -0.85125 1
gene 2 13 19 0.788621 0 30 0.788621 1
gene 1 14 19 -1.8696 0 31 -1.8696 1
gene 1 15 19 -2.6157 0 32 -2.6157 1
gene 3 16 19 3.46877 0 33 3.46877 1
gene 4 17 19 4.38846 0 34 4.38846 1
gene 2 1 20 -4.44472 0 35 -4.44472 1
gene 3 2 20 -1.35095 0 36 -1.35095 1
gene 3 3 20 -3.29022 0 37 -3.29022 1
gene 1 4 20 -1.4631 0 38 -1.4631 1
gene 2 5 20 1.74109 0 39 1.74109 1
gene 1 6 20 1.72847 0 40 1.72847 1
gene 2 7 20 -3.04764 0 41 -3.04764 1
gene 2 8 20 -2.69579 0 42 -2.69579 1
gene 1 9 20 0.175383 0 43 0.175383 1
gene 1 10 20 -2.45966 0 44 -2.45966 1
gene 1 11 20 0.737776 0 45 0.737776 1
gene 2 12 20 -1.35912 0 46 -1.35912 1
gene 1 13 20 0.558358 0 47 0.558358 1
gene 4 14 20 0.156525 0 48 0.156525 1
gene 1 15 20 -2.0413 0 49 -2.0413 1
gene 3 16 20 2.38356 0 50 2.38356 1
gene 2 17 20 -3.89507 0 51 -3.89507 1
gene 4 2 69 1 0 167 1 1
gene 4 69 19 1.331 0 168 1.331 1
genomeend 4

/* Organism #5 Fitness: 160 Error: 0 */

/* Position #5*/
#1 x: 78 y: 82
#2 x: 83 y: 27
#3 x: 59 y: 31
#4 x: 18 y: 31
#5 x: 33 y: 24
#6 x: 59 y: 40
genomestart 5
trait 1 1 0 0 0 0 0 0 0 
trait 2 2 0 0 0 0 0 0 0 
trait 3 3 0 0 0 0 0 0 0 
trait 4 4 0 0 0 0 0 0 0 
node 1 3 1 3
node 2 3 1 1
node 3 3 1 1
node 4 3 1 1
node 5 3 1 1
node 6 3 1 1
node 7 2 1 1
node 8 2 1 1
node 9 1 1 1
node 10 1 1 1
node 11 4 1 1
node 12 3 1 1
node 13 3 1 1
node 14 3 1 1
node 15 2 1 1
node 16 4 1 1
node 17 4 1 1
node 18 1 0 2
node 19 3 0 2
node 20 2 0 2
node 69 1 0 0
gene 1 1 18 2.54686 0 1 2.54686 1
gene 3 2 18 -1.61585 0 2 -1.61585 1
gene 4 3 18 -0.855579 0 3 -0.855579 1
gene 1 4 18 1.62305 0 4 1.62305 1
gene 1 5 18 2.94058 0 5 2.94058 1
gene 1 6 18 -1.86031 0 6 -1.86031 1
gene 4 7 18 0.635835 0 7 0.635835 1
gene 3 8 8 0.0454895 0 8 0.0454895 1
gene 3 9 18 -3.85119 0 9 -3.85119 1
gene 1 10 18 -3.21891 0 10 -3.21891 1
gene 3 11 18 2.47222 0 11 2.47222 1
gene 2 12 18 1.94608 0 12 1.94608 1
gene 2 13 18 -1.3481 0 13 -1.3481 1
gene 2 14 18 -0.147903 0 14 -0.147903 1
gene 1 15 18 2.98395 0 15 2.98395 1
gene 3 16 18 -0.862252 0 16 -0.862252 1
gene 3 17 18 -1.46265 0 17 -1.46265 1
gene 4 1 19 1.93226 0 18 1.93226 1
gene 4 2 19 -2.05805 0 19 -2.05805 0
gene 3 3 19 1.15556 0 20 1.15556 1
gene 4 4 19 1.8914 0 21 1.8914 1
gene 3 5 19 -2.18989 0 22 -2.18989 1
gene 1 6 19 1.62565 0 23 1.62565 1
gene 1 7 19 -1.15512 0 24 -1.15512 1
gene 2 8 19 -0.611098 0 25 -0.611098 1
gene 3 9 19 -1.65045 0 26 -1.65045 1
gene 3 10 19 0.406977 0 27 0.406977 1
gene 2 11 19 -1.65274 0 28 -1.65274 1
gene 3 12 19 -1.16097 0 29 -1.16097 1
gene 2 13 19 2.96316 0 30 2.96316 1
gene 1 14 19 -2.48127 0 31 -2.48127 1
gene 1 15 19 -1.47026 0 32 -1.47026 1
gene 3 16 19 2.27064 0 33 2.27064 1
gene 4 17 19 1.95481 0 34 1.95481 1
gene 2 1 20 -2.63196 0 35 -2.63196 1
gene 3 2 20 -0.628347 0 36 -0.628347 1
gene 3 3 20 -1.63396 0 37 -1.63396 1
gene 1 4 20 0.999123 0 38 0.999123 1
gene 2 5 20 0.914528 0 39 0.914528 1
gene 1 6 20 2.6785 0 40 2.6785 1
gene 2 7 20 -2.36649 0 41 -2.36649 1
gene 2 8 20 -0.219591 0 42 -0.219591 1
gene 1 9 20 0.243753 0 43 0.243753 1
gene 1 10 20 -0.999102 0 44 -0.999102 1
gene 1 11 20 2.41066 0 45 2.41066 1
gene 2 12 20 -1.35912 0 46 -1.35912 1
gene 1 13 20 2.30525 0 47 2.30525 1
gene 4 14 20 0.156525 0 48 0.156525 1
gene 1 15 20 -2.44673 0 49 -2.44673 1
gene 3 16 20 -0.486604 0 50 -0.486604 1
gene 2 17 20 -1.1803 0 51 -1.1803 1
gene 4 2 69 1 0 167 0 1
gene 4 69 19 -2.05805 0 168 0 1
gene 3 13 69 46344 0 240 46344 1
genomeend 5

/* Species #3 : (Size 6) (AF 56.6667) (Age 3)  */


/* Organism #6 Fitness: 60 Error: 0 */

/* Position #6*/
#1 x: 78 y: 49
#2 x: 45 y: 76
#3 x: 71 y: 32
#4 x: 57 y: 53
#5 x: 44 y: 26
#6 x: 27 y: 66
genomestart 6
trait 1 1 0 0 0 0 0 0 0 
trait 2 2 0 0 0 0 0 0 0 
trait 3 3 0 0 0 0 0 0 0 
trait 4 4 0 0 0 0 0 0 0 
node 1 3 1 3
node 2 2 1 1
node 3 3 1 1
node 4 2 1 1
node 5 4 1 1
node 6 2 1 1
node 7 2 1 1
node 8 1 1 1
node 9 4 1 1
node 10 1 1 1
node 11 4 1 1
node 12 4 1 1
node 13 3 1 1
node 14 4 1 1
node 15 2 1 1
node 16 4 1 1
node 17 3 1 1
node 18 1 0 2
node 19 1 0 2
node 20 4 0 2
node 47 1 0 0
node 70 1 0 0
gene 1 1 18 -0.996056 0 1 -0.996056 1
gene 3 2 18 0.380143 0 2 0.380143 1
gene 3 3 18 0 0 3 0 1
gene 1 4 18 0 0 4 0 1
gene 3 5 18 -0.892018 0 5 -0.892018 1
gene 1 6 18 0 0 6 0 1
gene 3 7 18 0 0 7 0 1
gene 2 8 8 0 0 8 0 1
gene 1 9 18 0 0 9 0 1
gene 2 10 18 -0.901368 0 10 -0.901368 1
gene 4 11 18 0 0 11 0 1
gene 1 12 18 0.735417 0 12 0.735417 1
gene 2 13 18 0 0 13 0 1
gene 1 14 18 0 0 14 0 1
gene 2 15 18 0 0 15 0 1
gene 3 16 18 0 0 16 0 1
gene 1 17 18 0 0 17 0 1
gene 2 1 19 0 0 18 0 1
gene 1 2 19 0.112478 0 19 0.112478 1
gene 1 3 19 0.233162 0 20 0.233162 1
gene 1 4 19 0.359181 0 21 0.359181 1
gene 2 5 19 0.300954 0 22 0.300954 1
gene 4 6 19 0 0 23 0 1
gene 2 7 19 0 0 24 0 1
gene 1 8 19 -0.401657 0 25 -0.401657 1
gene 4 9 19 0 0 26 0 1
gene 3 10 19 -0.0476648 0 27 -0.0476648 1
gene 4 11 19 0 0 28 0 1
gene 1 12 19 0 0 29 0 1
gene 4 13 19 0 0 30 0 1
gene 3 14 19 0 0 31 0 1
gene 2 15 19 -0.810384 0 32 -0.810384 0
gene 2 16 19 -0.569778 0 33 -0.569778 1
gene 2 17 19 0 0 34 0 1
gene 2 1 20 -0.498088 0 35 -0.498088 1
gene 2 2 20 -0.173935 0 36 -0.173935 1
gene 2 3 20 0.22185 0 37 0.22185 1
gene 3 4 20 0.581787 0 38 0.581787 1
gene 4 5 20 0 0 39 0 1
gene 3 6 20 0 0 40 0 1
gene 1 7 20 -0.137438 0 41 -0.137438 1
gene 4 8 20 0 0 42 0 0
gene 3 9 20 -0.108468 0 43 -0.108468 1
gene 4 10 20 -0.862506 0 44 -0.862506 1
gene 3 11 20 -0.989717 0 45 -0.989717 1
gene 2 12 20 0 0 46 0 1
gene 1 13 20 0 0 47 0 1
gene 1 14 20 -0.090188 0 48 -0.090188 1
gene 1 15 20 0.714836 0 49 0.714836 0
gene 4 16 20 0 0 50 0 1
gene 4 17 20 -0.46717 0 51 -0.46717 1
gene 2 8 18 74241 0 70 0 1
gene 1 15 47 1 0 112 0 1
gene 1 47 20 0.714836 0 113 0 1
gene 2 15 70 1 0 169 0 1
gene 2 70 19 -0.810384 0 170 0 1
genomeend 6

/* Organism #7 Fitness: 0 Error: 0 */

/* Position #7*/
#1 x: 78 y: 49
#2 x: 45 y: 76
#3 x: 71 y: 32
#4 x: 57 y: 53
#5 x: 44 y: 26
#6 x: 27 y: 66
genomestart 7
trait 1 1 0 0 0 0 0 0 0 
trait 2 2 0 0 0 0 0 0 0 
trait 3 3 0 0 0 0 0 0 0 
trait 4 4 0 0 0 0 0 0 0 
node 1 3 1 3
node 2 2 1 1
node 3 3 1 1
node 4 2 1 1
node 5 4 1 1
node 6 2 1 1
node 7 2 1 1
node 8 1 1 1
node 9 4 1 1
node 10 1 1 1
node 11 4 1 1
node 12 4 1 1
node 13 3 1 1
node 14 4 1 1
node 15 2 1 1
node 16 4 1 1
node 17 3 1 1
node 18 1 0 2
node 19 1 0 2
node 20 4 0 2
node 47 1 0 0
node 70 1 0 0
gene 1 1 18 -1.31804 0 1 -1.31804 1
gene 3 2 18 -1.03113 0 2 -1.03113 1
gene 3 3 18 -1.35718 0 3 -1.35718 1
gene 1 4 18 -0.0279152 0 4 -0.0279152 1
gene 3 5 18 -1.56489 0 5 -1.56489 1
gene 1 6 18 -1.72546 0 6 -1.72546 1
gene 3 7 18 -0.520743 0 7 -0.520743 1
gene 2 8 8 2.34696 0 8 2.34696 1
gene 1 9 18 1.60334 0 9 1.60334 1
gene 2 10 18 -1.14049 0 10 -1.14049 1
gene 4 11 18 1.74884 0 11 1.74884 1
gene 1 12 18 3.40318 0 12 3.40318 1
gene 2 13 18 -0.235037 0 13 -0.235037 1
gene 1 14 18 0.820367 0 14 0.820367 1
gene 2 15 18 1.31402 0 15 1.31402 1
gene 3 16 18 2.18866 0 16 2.18866 1
gene 1 17 18 -2.06306 0 17 -2.06306 1
gene 2 1 19 0.714685 0 18 0.714685 1
gene 1 2 19 -0.950911 0 19 -0.950911 1
gene 1 3 19 -2.75889 0 20 -2.75889 1
gene 1 4 19 -2.06114 0 21 -2.06114 1
gene 2 5 19 1.65729 0 22 1.65729 1
gene 4 6 19 1.91414 0 23 1.91414 1
gene 2 7 19 0.949502 0 24 0.949502 1
gene 1 8 19 1.04239 0 25 1.04239 1
gene 4 9 19 -1.4917 0 26 -1.4917 1
gene 3 10 19 -0.472564 0 27 -0.472564 1
gene 4 11 19 -2.35603 0 28 -2.35603 1
gene 1 12 19 -2.7631 0 29 -2.7631 1
gene 4 13 19 2.3236 0 30 2.3236 1
gene 3 14 19 1.03738 0 31 1.03738 1
gene 2 15 19 -1.94712 0 32 -1.94712 0
gene 2 16 19 -3.28215 0 33 -3.28215 1
gene 2 17 19 2.84843 0 34 2.84843 1
gene 2 1 20 -0.966473 0 35 -0.966473 1
gene 2 2 20 -0.365438 0 36 -0.365438 1
gene 2 3 20 -2.03898 0 37 -2.03898 1
gene 3 4 20 0.677445 0 38 0.677445 1
gene 4 5 20 -2.00682 0 39 -2.00682 1
gene 3 6 20 0.614799 0 40 0.614799 1
gene 1 7 20 -1.43351 0 41 -1.43351 1
gene 4 8 20 -1.90444 0 42 -1.90444 0
gene 3 9 20 2.13954 0 43 2.13954 1
gene 4 10 20 0.600716 0 44 0.600716 1
gene 3 11 20 0.963814 0 45 0.963814 1
gene 2 12 20 1.80702 0 46 1.80702 1
gene 1 13 20 2.12529 0 47 2.12529 1
gene 1 14 20 -0.090188 0 48 -0.090188 1
gene 1 15 20 1.10252 0 49 1.10252 0
gene 4 16 20 2.52765 0 50 2.52765 1
gene 4 17 20 -0.46717 0 51 -0.46717 1
gene 2 8 18 8 0 70 8 1
gene 1 15 47 0.756742 0 112 0.756742 1
gene 1 47 20 2.60247 0 113 2.60247 1
gene 2 15 70 2.75473 0 169 2.75473 1
gene 2 70 19 0.259067 0 170 0.259067 1
genomeend 7

/* Organism #8 Fitness: 40 Error: 0 */

/* Position #8*/
#1 x: 38 y: 59
#2 x: 17 y: 20
#3 x: 39 y: 46
#4 x: 85 y: 64
#5 x: 24 y: 34
#6 x: 67 y: 49
genomestart 8
trait 1 1 0 0 0 0 0 0 0 
trait 2 2 0 0 0 0 0 0 0 
trait 3 3 0 0 0 0 0 0 0 
trait 4 4 0 0 0 0 0 0 0 
node 1 3 1 3
node 2 2 1 1
node 3 3 1 1
node 4 2 1 1
node 5 4 1 1
node 6 2 1 1
node 7 2 1 1
node 8 1 1 1
node 9 4 1 1
node 10 1 1 1
node 11 4 1 1
node 12 4 1 1
node 13 3 1 1
node 14 4 1 1
node 15 2 1 1
node 16 4 1 1
node 17 3 1 1
node 18 1 0 2
node 19 1 0 2
node 20 4 0 2
node 47 1 0 0
node 70 1 0 0
node 98 1 0 0
gene 1 1 18 -0.996056 0 1 -0.996056 1
gene 3 2 18 0.380143 0 2 0.380143 1
gene 3 3 18 0 0 3 0 1
gene 1 4 18 0 0 4 0 1
gene 3 5 18 -0.892018 0 5 -0.892018 1
gene 1 6 18 0 0 6 0 1
gene 3 7 18 0 0 7 0 1
gene 2 8 8 0 0 8 0 1
gene 1 9 18 0 0 9 0 1
gene 2 10 18 -0.901368 0 10 -0.901368 1
gene 4 11 18 0 0 11 0 1
gene 1 12 18 0.735417 0 12 0.735417 1
gene 2 13 18 0 0 13 0 1
gene 1 14 18 0 0 14 0 1
gene 2 15 18 0 0 15 0 1
gene 3 16 18 0 0 16 0 1
gene 1 17 18 0 0 17 0 1
gene 2 1 19 0 0 18 0 1
gene 1 2 19 0.112478 0 19 0.112478 1
gene 1 3 19 0.233162 0 20 0.233162 1
gene 1 4 19 0.359181 0 21 0.359181 1
gene 2 5 19 0.300954 0 22 0.300954 1
gene 4 6 19 0 0 23 0 1
gene 2 7 19 0 0 24 0 1
gene 1 8 19 -0.401657 0 25 -0.401657 1
gene 4 9 19 0 0 26 0 1
gene 3 10 19 -0.0476648 0 27 -0.0476648 1
gene 4 11 19 0 0 28 0 1
gene 1 12 19 0 0 29 0 1
gene 4 13 19 0 0 30 0 1
gene 3 14 19 0 0 31 0 1
gene 2 15 19 -0.810384 0 32 -0.810384 0
gene 2 16 19 -0.569778 0 33 -0.569778 1
gene 2 17 19 0 0 34 0 1
gene 2 1 20 -0.498088 0 35 -0.498088 1
gene 2 2 20 -0.173935 0 36 -0.173935 1
gene 2 3 20 0.22185 0 37 0.22185 1
gene 3 4 20 0.581787 0 38 0.581787 1
gene 4 5 20 0 0 39 0 1
gene 3 6 20 0 0 40 0 1
gene 1 7 20 -0.137438 0 41 -0.137438 1
gene 4 8 20 0 0 42 0 0
gene 3 9 20 -0.108468 0 43 -0.108468 1
gene 4 10 20 -0.862506 0 44 -0.862506 1
gene 3 11 20 -0.989717 0 45 -0.989717 1
gene 2 12 20 0 0 46 0 1
gene 1 13 20 0 0 47 0 1
gene 1 14 20 -0.090188 0 48 -0.090188 1
gene 1 15 20 0.714836 0 49 0.714836 0
gene 4 16 20 0 0 50 0 1
gene 4 17 20 -0.46717 0 51 -0.46717 1
gene 2 8 18 74241 0 70 0 1
gene 1 15 47 1 0 112 0 1
gene 1 47 20 0.714836 0 113 0 1
gene 2 15 70 1 0 169 0 0
gene 2 70 19 -0.810384 0 170 0 1
gene 2 15 98 1 0 241 0 1
gene 2 98 70 1 0 242 0 1
genomeend 8

/* Organism #9 Fitness: 100 Error: 0 */

/* Position #9*/
#1 x: 38 y: 59
#2 x: 17 y: 20
#3 x: 39 y: 46
#4 x: 85 y: 64
#5 x: 24 y: 34
#6 x: 67 y: 49
genomestart 9
trait 1 1 0 0 0 0 0 0 0 
trait 2 2 0 0 0 0 0 0 0 
trait 3 3 0 0 0 0 0 0 0 
trait 4 4 0 0 0 0 0 0 0 
node 1 3 1 3
node 2 2 1 1
node 3 3 1 1
node 4 2 1 1
node 5 4 1 1
node 6 2 1 1
node 7 2 1 1
node 8 1 1 1
node 9 4 1 1
node 10 1 1 1
node 11 4 1 1
node 12 4 1 1
node 13 3 1 1
node 14 4 1 1
node 15 2 1 1
node 16 4 1 1
node 17 3 1 1
node 18 1 0 2
node 19 1 0 2
node 20 4 0 2
node 47 1 0 0
node 70 1 0 0
node 99 1 0 0
gene 1 1 18 -0.996056 0 1 -0.996056 1
gene 3 2 18 0.380143 0 2 0.380143 1
gene 3 3 18 0 0 3 0 1
gene 1 4 18 0 0 4 0 1
gene 3 5 18 -0.892018 0 5 -0.892018 1
gene 1 6 18 0 0 6 0 1
gene 3 7 18 0 0 7 0 1
gene 2 8 8 0 0 8 0 1
gene 1 9 18 0 0 9 0 1
gene 2 10 18 -0.901368 0 10 -0.901368 0
gene 4 11 18 0 0 11 0 1
gene 1 12 18 0.735417 0 12 0.735417 1
gene 2 13 18 0 0 13 0 1
gene 1 14 18 0 0 14 0 1
gene 2 15 18 0 0 15 0 1
gene 3 16 18 0 0 16 0 1
gene 1 17 18 0 0 17 0 1
gene 2 1 19 0 0 18 0 1
gene 1 2 19 0.112478 0 19 0.112478 1
gene 1 3 19 0.233162 0 20 0.233162 1
gene 1 4 19 0.359181 0 21 0.359181 1
gene 2 5 19 0.300954 0 22 0.300954 1
gene 4 6 19 0 0 23 0 1
gene 2 7 19 0 0 24 0 1
gene 1 8 19 -0.401657 0 25 -0.401657 1
gene 4 9 19 0 0 26 0 1
gene 3 10 19 -0.0476648 0 27 -0.0476648 1
gene 4 11 19 0 0 28 0 1
gene 1 12 19 0 0 29 0 1
gene 4 13 19 0 0 30 0 1
gene 3 14 19 0 0 31 0 1
gene 2 15 19 -0.810384 0 32 -0.810384 0
gene 2 16 19 -0.569778 0 33 -0.569778 1
gene 2 17 19 0 0 34 0 1
gene 2 1 20 -0.498088 0 35 -0.498088 1
gene 2 2 20 -0.173935 0 36 -0.173935 1
gene 2 3 20 0.22185 0 37 0.22185 1
gene 3 4 20 0.581787 0 38 0.581787 1
gene 4 5 20 0 0 39 0 1
gene 3 6 20 0 0 40 0 1
gene 1 7 20 -0.137438 0 41 -0.137438 1
gene 4 8 20 0 0 42 0 0
gene 3 9 20 -0.108468 0 43 -0.108468 1
gene 4 10 20 -0.862506 0 44 -0.862506 1
gene 3 11 20 -0.989717 0 45 -0.989717 1
gene 2 12 20 0 0 46 0 1
gene 1 13 20 0 0 47 0 1
gene 1 14 20 -0.090188 0 48 -0.090188 1
gene 1 15 20 0.714836 0 49 0.714836 0
gene 4 16 20 0 0 50 0 1
gene 4 17 20 -0.46717 0 51 -0.46717 1
gene 2 8 18 74241 0 70 0 1
gene 1 15 47 1 0 112 0 1
gene 1 47 20 0.714836 0 113 0 1
gene 2 15 70 1 0 169 0 1
gene 2 70 19 -0.810384 0 170 0 1
gene 2 10 99 1 0 243 0 1
gene 2 99 18 -0.901368 0 244 0 1
genomeend 9

/* Organism #10 Fitness: 80 Error: 0 */

/* Position #10*/
#1 x: 49 y: 51
#2 x: 53 y: 63
#3 x: 73 y: 16
#4 x: 40 y: 35
#5 x: 27 y: 58
#6 x: 45 y: 42
genomestart 10
trait 1 1 0 0 0 0 0 0 0 
trait 2 2 0 0 0 0 0 0 0 
trait 3 3 0 0 0 0 0 0 0 
trait 4 4 0 0 0 0 0 0 0 
node 1 3 1 3
node 2 2 1 1
node 3 3 1 1
node 4 2 1 1
node 5 4 1 1
node 6 2 1 1
node 7 2 1 1
node 8 1 1 1
node 9 4 1 1
node 10 1 1 1
node 11 4 1 1
node 12 4 1 1
node 13 3 1 1
node 14 4 1 1
node 15 2 1 1
node 16 4 1 1
node 17 3 1 1
node 18 1 0 2
node 19 1 0 2
node 20 4 0 2
node 47 1 0 0
node 70 1 0 0
node 100 1 0 0
gene 1 1 18 -0.996056 0 1 -0.996056 1
gene 3 2 18 0.380143 0 2 0.380143 1
gene 3 3 18 0 0 3 0 1
gene 1 4 18 0 0 4 0 1
gene 3 5 18 -0.892018 0 5 -0.892018 1
gene 1 6 18 0 0 6 0 1
gene 3 7 18 0 0 7 0 1
gene 2 8 8 0 0 8 0 1
gene 1 9 18 0 0 9 0 1
gene 2 10 18 -0.901368 0 10 -0.901368 1
gene 4 11 18 0 0 11 0 1
gene 1 12 18 0.735417 0 12 0.735417 1
gene 2 13 18 0 0 13 0 0
gene 1 14 18 0 0 14 0 1
gene 2 15 18 0 0 15 0 1
gene 3 16 18 0 0 16 0 1
gene 1 17 18 0 0 17 0 1
gene 2 1 19 0 0 18 0 1
gene 1 2 19 0.112478 0 19 0.112478 1
gene 1 3 19 0.233162 0 20 0.233162 1
gene 1 4 19 0.359181 0 21 0.359181 1
gene 2 5 19 0.300954 0 22 0.300954 1
gene 4 6 19 0 0 23 0 1
gene 2 7 19 0 0 24 0 1
gene 1 8 19 -0.401657 0 25 -0.401657 1
gene 4 9 19 0 0 26 0 1
gene 3 10 19 -0.0476648 0 27 -0.0476648 1
gene 4 11 19 0 0 28 0 1
gene 1 12 19 0 0 29 0 1
gene 4 13 19 0 0 30 0 1
gene 3 14 19 0 0 31 0 1
gene 2 15 19 -0.810384 0 32 -0.810384 0
gene 2 16 19 -0.569778 0 33 -0.569778 1
gene 2 17 19 0 0 34 0 1
gene 2 1 20 -0.498088 0 35 -0.498088 1
gene 2 2 20 -0.173935 0 36 -0.173935 1
gene 2 3 20 0.22185 0 37 0.22185 1
gene 3 4 20 0.581787 0 38 0.581787 1
gene 4 5 20 0 0 39 0 1
gene 3 6 20 0 0 40 0 1
gene 1 7 20 -0.137438 0 41 -0.137438 1
gene 4 8 20 0 0 42 0 0
gene 3 9 20 -0.108468 0 43 -0.108468 1
gene 4 10 20 -0.862506 0 44 -0.862506 1
gene 3 11 20 -0.989717 0 45 -0.989717 1
gene 2 12 20 0 0 46 0 1
gene 1 13 20 0 0 47 0 1
gene 1 14 20 -0.090188 0 48 -0.090188 1
gene 1 15 20 0.714836 0 49 0.714836 0
gene 4 16 20 0 0 50 0 1
gene 4 17 20 -0.46717 0 51 -0.46717 1
gene 2 8 18 74241 0 70 0 1
gene 1 15 47 1 0 112 0 1
gene 1 47 20 0.714836 0 113 0 1
gene 2 15 70 1 0 169 0 1
gene 2 70 19 -0.810384 0 170 0 1
gene 2 13 100 1 0 245 0 1
gene 2 100 18 0 0 246 0 1
genomeend 10

/* Organism #11 Fitness: 60 Error: 0 */

/* Position #11*/
#1 x: 49 y: 51
#2 x: 53 y: 63
#3 x: 73 y: 16
#4 x: 40 y: 35
#5 x: 27 y: 58
#6 x: 45 y: 42
genomestart 11
trait 1 1 0 0 0 0 0 0 0 
trait 2 2 0 0 0 0 0 0 0 
trait 3 3 0 0 0 0 0 0 0 
trait 4 4 0 0 0 0 0 0 0 
node 1 3 1 3
node 2 2 1 1
node 3 3 1 1
node 4 2 1 1
node 5 4 1 1
node 6 2 1 1
node 7 2 1 1
node 8 1 1 1
node 9 4 1 1
node 10 1 1 1
node 11 4 1 1
node 12 4 1 1
node 13 3 1 1
node 14 4 1 1
node 15 2 1 1
node 16 4 1 1
node 17 3 1 1
node 18 1 0 2
node 19 1 0 2
node 20 4 0 2
node 47 1 0 0
node 70 1 0 0
gene 1 1 18 -0.996056 0 1 -0.996056 1
gene 3 2 18 0.380143 0 2 0.380143 1
gene 3 3 18 0 0 3 0 1
gene 1 4 18 0 0 4 0 1
gene 3 5 18 -0.892018 0 5 -0.892018 1
gene 1 6 18 0 0 6 0 1
gene 3 7 18 0 0 7 0 1
gene 2 8 8 0 0 8 0 1
gene 1 9 18 0 0 9 0 1
gene 2 10 18 -0.901368 0 10 -0.901368 1
gene 4 11 18 0 0 11 0 1
gene 1 12 18 0.735417 0 12 0.735417 1
gene 2 13 18 0 0 13 0 1
gene 1 14 18 0 0 14 0 1
gene 2 15 18 0 0 15 0 1
gene 3 16 18 0 0 16 0 1
gene 1 17 18 0 0 17 0 1
gene 2 1 19 0 0 18 0 1
gene 1 2 19 0.112478 0 19 0.112478 1
gene 1 3 19 0.233162 0 20 0.233162 1
gene 1 4 19 0.359181 0 21 0.359181 1
gene 2 5 19 0.300954 0 22 0.300954 1
gene 4 6 19 0 0 23 0 1
gene 2 7 19 0 0 24 0 1
gene 1 8 19 -0.401657 0 25 -0.401657 1
gene 4 9 19 0 0 26 0 1
gene 3 10 19 -0.0476648 0 27 -0.0476648 1
gene 4 11 19 0 0 28 0 1
gene 1 12 19 0 0 29 0 1
gene 4 13 19 0 0 30 0 1
gene 3 14 19 0 0 31 0 1
gene 2 15 19 -0.810384 0 32 -0.810384 0
gene 2 16 19 -0.569778 0 33 -0.569778 1
gene 2 17 19 0 0 34 0 1
gene 2 1 20 -0.498088 0 35 -0.498088 1
gene 2 2 20 -0.173935 0 36 -0.173935 1
gene 2 3 20 0.22185 0 37 0.22185 1
gene 3 4 20 0.581787 0 38 0.581787 1
gene 4 5 20 0 0 39 0 1
gene 3 6 20 0 0 40 0 1
gene 1 7 20 -0.137438 0 41 -0.137438 1
gene 4 8 20 0 0 42 0 0
gene 3 9 20 -0.108468 0 43 -0.108468 1
gene 4 10 20 -0.862506 0 44 -0.862506 1
gene 3 11 20 -0.989717 0 45 -0.989717 1
gene 2 12 20 0 0 46 0 1
gene 1 13 20 0 0 47 0 1
gene 1 14 20 -0.090188 0 48 -0.090188 1
gene 1 15 20 0.714836 0 49 0.714836 0
gene 4 16 20 0 0 50 0 1
gene 4 17 20 -0.46717 0 51 -0.46717 1
gene 2 8 18 74241 0 70 0 1
gene 1 15 47 1 0 112 0 1
gene 1 47 20 0.714836 0 113 0 1
gene 2 15 70 1 0 169 0 1
gene 2 70 19 -0.810384 0 170 0 1
gene 1 4 47 66980 0 247 66980 1
genomeend 11

/* Species #4 : (Size 6) (AF 100) (Age 3)  */


/* Organism #12 Fitness: 40 Error: 0 */

/* Position #12*/
#1 x: 75 y: 35
#2 x: 46 y: 17
#3 x: 69 y: 39
#4 x: 52 y: 57
#5 x: 15 y: 24
#6 x: 19 y: 29
genomestart 12
trait 1 1 0 0 0 0 0 0 0 
trait 2 2 0 0 0 0 0 0 0 
trait 3 3 0 0 0 0 0 0 0 
trait 4 4 0 0 0 0 0 0 0 
node 1 4 1 3
node 2 3 1 1
node 3 2 1 1
node 4 1 1 1
node 5 3 1 1
node 6 3 1 1
node 7 3 1 1
node 8 4 1 1
node 9 1 1 1
node 10 4 1 1
node 11 3 1 1
node 12 1 1 1
node 13 3 1 1
node 14 3 1 1
node 15 4 1 1
node 16 3 1 1
node 17 2 1 1
node 18 3 0 2
node 19 4 0 2
node 20 4 0 2
node 22 1 0 0
node 48 1 0 0
gene 1 1 18 -0.755493 0 1 -0.755493 1
gene 4 2 18 0.970678 0 2 0.970678 1
gene 4 3 18 0.544289 0 3 0.544289 0
gene 1 4 18 -0.655929 0 4 -0.655929 1
gene 1 5 18 -0.403248 0 5 -0.403248 1
gene 1 6 18 -0.80952 0 6 -0.80952 1
gene 1 7 18 -0.306035 0 7 -0.306035 1
gene 1 8 8 0.535734 0 8 0.535734 1
gene 1 9 18 0.150267 0 9 0.150267 1
gene 2 10 18 0.193267 0 10 0.193267 1
gene 3 11 18 -0.0626968 0 11 -0.0626968 1
gene 4 12 18 -0.950831 0 12 -0.950831 1
gene 2 13 18 0.871957 0 13 0.871957 1
gene 1 14 18 -0.194836 0 14 -0.194836 1
gene 3 15 18 -0.749617 0 15 -0.749617 1
gene 4 16 18 0.446998 0 16 0.446998 1
gene 1 17 18 -0.426041 0 17 -0.426041 1
gene 2 1 19 -0.678229 0 18 -0.678229 1
gene 1 2 19 0.854098 0 19 0.854098 1
gene 4 3 19 -0.79407 0 20 -0.79407 1
gene 2 4 19 -0.440441 0 21 -0.440441 1
gene 2 5 19 0.760497 0 22 0.760497 1
gene 1 6 19 -0.795041 0 23 -0.795041 1
gene 3 7 19 0.786683 0 24 0.786683 1
gene 3 8 19 -0.710073 0 25 -0.710073 0
gene 2 9 19 -0.890852 0 26 -0.890852 1
gene 2 10 19 -0.701017 0 27 -0.701017 1
gene 4 11 19 -0.834286 0 28 -0.834286 1
gene 4 12 19 0.355669 0 29 0.355669 1
gene 3 13 19 0.621076 0 30 0.621076 1
gene 4 14 19 0.972254 0 31 0.972254 1
gene 2 15 19 -0.906118 0 32 -0.906118 1
gene 1 16 19 0.21563 0 33 0.21563 1
gene 3 17 19 0.854775 0 34 0.854775 1
gene 1 1 20 0.841471 0 35 0.841471 1
gene 1 2 20 0.31543 0 36 0.31543 1
gene 2 3 20 0.616815 0 37 0.616815 1
gene 2 4 20 0.0814973 0 38 0.0814973 1
gene 4 5 20 0.0215158 0 39 0.0215158 1
gene 1 6 20 0.879448 0 40 0.879448 1
gene 3 7 20 -0.102602 0 41 -0.102602 1
gene 2 8 20 -0.686695 0 42 -0.686695 0
gene 3 9 20 0.292821 0 43 0.292821 1
gene 1 10 20 -0.379107 0 44 -0.379107 1
gene 2 11 20 0.569046 0 45 0.569046 1
gene 3 12 20 -0.841546 0 46 -0.841546 1
gene 1 13 20 0.165858 0 47 0.165858 1
gene 2 14 20 0.480292 0 48 0.480292 1
gene 2 15 20 0.76196 0 49 0.76196 1
gene 1 16 20 0.0964208 0 50 0.0964208 1
gene 4 17 20 0.259031 0 51 0.259031 1
gene 1 3 22 1 0 54 0 1
gene 1 22 18 -0.198879 0 55 0 1
gene 2 8 48 1 0 114 0 1
gene 2 48 20 -0.686695 0 115 0 1
gene 2 9 22 -13457 0 175 -13457 1
genomeend 12

/* Organism #13 Fitness: 40 Error: 0 */

/* Position #13*/
#1 x: 75 y: 35
#2 x: 46 y: 17
#3 x: 69 y: 39
#4 x: 52 y: 57
#5 x: 15 y: 24
#6 x: 19 y: 29
genomestart 13
trait 1 1 0 0 0 0 0 0 0 
trait 2 2 0 0 0 0 0 0 0 
trait 3 3 0 0 0 0 0 0 0 
trait 4 4 0 0 0 0 0 0 0 
node 1 4 1 3
node 2 3 1 1
node 3 2 1 1
node 4 1 1 1
node 5 3 1 1
node 6 3 1 1
node 7 3 1 1
node 8 4 1 1
node 9 1 1 1
node 10 4 1 1
node 11 3 1 1
node 12 1 1 1
node 13 3 1 1
node 14 3 1 1
node 15 4 1 1
node 16 3 1 1
node 17 2 1 1
node 18 3 0 2
node 19 4 0 2
node 20 4 0 2
node 22 1 0 0
node 48 1 0 0
node 101 1 0 0
gene 1 1 18 -0.755493 0 1 -0.755493 1
gene 4 2 18 0.970678 0 2 0.970678 1
gene 4 3 18 0.544289 0 3 0.544289 0
gene 1 4 18 -0.655929 0 4 -0.655929 1
gene 1 5 18 -0.403248 0 5 -0.403248 1
gene 1 6 18 -0.80952 0 6 -0.80952 1
gene 1 7 18 -0.306035 0 7 -0.306035 1
gene 1 8 8 0.535734 0 8 0.535734 1
gene 1 9 18 0.150267 0 9 0.150267 1
gene 2 10 18 0.193267 0 10 0.193267 1
gene 3 11 18 -0.0626968 0 11 -0.0626968 1
gene 4 12 18 -0.950831 0 12 -0.950831 1
gene 2 13 18 0.871957 0 13 0.871957 1
gene 1 14 18 -0.194836 0 14 -0.194836 1
gene 3 15 18 -0.749617 0 15 -0.749617 1
gene 4 16 18 0.446998 0 16 0.446998 1
gene 1 17 18 -0.426041 0 17 -0.426041 1
gene 2 1 19 -0.678229 0 18 -0.678229 1
gene 1 2 19 0.854098 0 19 0.854098 1
gene 4 3 19 -0.79407 0 20 -0.79407 1
gene 2 4 19 -0.440441 0 21 -0.440441 1
gene 2 5 19 0.760497 0 22 0.760497 1
gene 1 6 19 -0.795041 0 23 -0.795041 1
gene 3 7 19 0.786683 0 24 0.786683 1
gene 3 8 19 -0.710073 0 25 -0.710073 0
gene 2 9 19 -0.890852 0 26 -0.890852 1
gene 2 10 19 -0.701017 0 27 -0.701017 1
gene 4 11 19 -0.834286 0 28 -0.834286 1
gene 4 12 19 0.355669 0 29 0.355669 1
gene 3 13 19 0.621076 0 30 0.621076 1
gene 4 14 19 0.972254 0 31 0.972254 1
gene 2 15 19 -0.906118 0 32 -0.906118 1
gene 1 16 19 0.21563 0 33 0.21563 0
gene 3 17 19 0.854775 0 34 0.854775 1
gene 1 1 20 0.841471 0 35 0.841471 1
gene 1 2 20 0.31543 0 36 0.31543 1
gene 2 3 20 0.616815 0 37 0.616815 1
gene 2 4 20 0.0814973 0 38 0.0814973 1
gene 4 5 20 0.0215158 0 39 0.0215158 1
gene 1 6 20 0.879448 0 40 0.879448 1
gene 3 7 20 -0.102602 0 41 -0.102602 1
gene 2 8 20 -0.686695 0 42 -0.686695 0
gene 3 9 20 0.292821 0 43 0.292821 1
gene 1 10 20 -0.379107 0 44 -0.379107 1
gene 2 11 20 0.569046 0 45 0.569046 1
gene 3 12 20 -0.841546 0 46 -0.841546 1
gene 1 13 20 0.165858 0 47 0.165858 1
gene 2 14 20 0.480292 0 48 0.480292 1
gene 2 15 20 0.76196 0 49 0.76196 1
gene 1 16 20 0.0964208 0 50 0.0964208 1
gene 4 17 20 0.259031 0 51 0.259031 1
gene 1 3 22 1 0 54 0 1
gene 1 22 18 -0.198879 0 55 0 1
gene 2 8 48 1 0 114 0 1
gene 2 48 20 -0.686695 0 115 0 1
gene 2 9 22 -13457 0 175 -13457 1
gene 1 16 101 1 0 248 0 1
gene 1 101 19 0.21563 0 249 0 1
genomeend 13

/* Organism #14 Fitness: 60 Error: 0 */

/* Position #14*/
#1 x: 47 y: 72
#2 x: 28 y: 27
#3 x: 34 y: 53
#4 x: 72 y: 66
#5 x: 39 y: 74
#6 x: 46 y: 52
genomestart 14
trait 1 1 0 0 0 0 0 0 0 
trait 2 2 0 0 0 0 0 0 0 
trait 3 3 0 0 0 0 0 0 0 
trait 4 4 0 0 0 0 0 0 0 
node 1 4 1 3
node 2 3 1 1
node 3 2 1 1
node 4 1 1 1
node 5 3 1 1
node 6 3 1 1
node 7 3 1 1
node 8 4 1 1
node 9 1 1 1
node 10 4 1 1
node 11 3 1 1
node 12 1 1 1
node 13 3 1 1
node 14 3 1 1
node 15 4 1 1
node 16 3 1 1
node 17 2 1 1
node 18 3 0 2
node 19 4 0 2
node 20 4 0 2
node 22 1 0 0
node 48 1 0 0
node 102 1 0 0
gene 1 1 18 -0.755493 0 1 -0.755493 1
gene 4 2 18 0.970678 0 2 0.970678 1
gene 4 3 18 0.544289 0 3 0.544289 0
gene 1 4 18 -0.655929 0 4 -0.655929 1
gene 1 5 18 -0.403248 0 5 -0.403248 1
gene 1 6 18 -0.80952 0 6 -0.80952 1
gene 1 7 18 -0.306035 0 7 -0.306035 1
gene 1 8 8 0.535734 0 8 0.535734 1
gene 1 9 18 0.150267 0 9 0.150267 1
gene 2 10 18 0.193267 0 10 0.193267 1
gene 3 11 18 -0.0626968 0 11 -0.0626968 1
gene 4 12 18 -0.950831 0 12 -0.950831 1
gene 2 13 18 0.871957 0 13 0.871957 1
gene 1 14 18 -0.194836 0 14 -0.194836 1
gene 3 15 18 -0.749617 0 15 -0.749617 1
gene 4 16 18 0.446998 0 16 0.446998 1
gene 1 17 18 -0.426041 0 17 -0.426041 1
gene 2 1 19 -0.678229 0 18 -0.678229 1
gene 1 2 19 0.854098 0 19 0.854098 1
gene 4 3 19 -0.79407 0 20 -0.79407 1
gene 2 4 19 -0.440441 0 21 -0.440441 1
gene 2 5 19 0.760497 0 22 0.760497 1
gene 1 6 19 -0.795041 0 23 -0.795041 1
gene 3 7 19 0.786683 0 24 0.786683 1
gene 3 8 19 -0.710073 0 25 -0.710073 0
gene 2 9 19 -0.890852 0 26 -0.890852 1
gene 2 10 19 -0.701017 0 27 -0.701017 1
gene 4 11 19 -0.834286 0 28 -0.834286 1
gene 4 12 19 0.355669 0 29 0.355669 1
gene 3 13 19 0.621076 0 30 0.621076 1
gene 4 14 19 0.972254 0 31 0.972254 1
gene 2 15 19 -0.906118 0 32 -0.906118 1
gene 1 16 19 0.21563 0 33 0.21563 1
gene 3 17 19 0.854775 0 34 0.854775 1
gene 1 1 20 0.841471 0 35 0.841471 1
gene 1 2 20 0.31543 0 36 0.31543 1
gene 2 3 20 0.616815 0 37 0.616815 1
gene 2 4 20 0.0814973 0 38 0.0814973 1
gene 4 5 20 0.0215158 0 39 0.0215158 1
gene 1 6 20 0.879448 0 40 0.879448 1
gene 3 7 20 -0.102602 0 41 -0.102602 1
gene 2 8 20 -0.686695 0 42 -0.686695 0
gene 3 9 20 0.292821 0 43 0.292821 1
gene 1 10 20 -0.379107 0 44 -0.379107 1
gene 2 11 20 0.569046 0 45 0.569046 1
gene 3 12 20 -0.841546 0 46 -0.841546 1
gene 1 13 20 0.165858 0 47 0.165858 1
gene 2 14 20 0.480292 0 48 0.480292 1
gene 2 15 20 0.76196 0 49 0.76196 1
gene 1 16 20 0.0964208 0 50 0.0964208 1
gene 4 17 20 0.259031 0 51 0.259031 1
gene 1 3 22 1 0 54 0 1
gene 1 22 18 -0.198879 0 55 0 0
gene 2 8 48 1 0 114 0 1
gene 2 48 20 -0.686695 0 115 0 1
gene 2 9 22 -13457 0 175 -13457 1
gene 1 22 102 1 0 250 0 1
gene 1 102 18 -0.198879 0 251 0 1
genomeend 14

/* Organism #15 Fitness: 100 Error: 0 */

/* Position #15*/
#1 x: 47 y: 72
#2 x: 28 y: 27
#3 x: 34 y: 53
#4 x: 72 y: 66
#5 x: 39 y: 74
#6 x: 46 y: 52
genomestart 15
trait 1 1 0 0 0 0 0 0 0 
trait 2 2 0 0 0 0 0 0 0 
trait 3 3 0 0 0 0 0 0 0 
trait 4 4 0 0 0 0 0 0 0 
node 1 4 1 3
node 2 3 1 1
node 3 2 1 1
node 4 1 1 1
node 5 3 1 1
node 6 3 1 1
node 7 3 1 1
node 8 4 1 1
node 9 1 1 1
node 10 4 1 1
node 11 3 1 1
node 12 1 1 1
node 13 3 1 1
node 14 3 1 1
node 15 4 1 1
node 16 3 1 1
node 17 2 1 1
node 18 3 0 2
node 19 4 0 2
node 20 4 0 2
node 22 1 0 0
node 48 1 0 0
gene 1 1 18 -3.3936 0 1 -3.3936 1
gene 4 2 18 1.23334 0 2 1.23334 1
gene 4 3 18 1.78931 0 3 1.78931 0
gene 1 4 18 1.10778 0 4 1.10778 1
gene 1 5 18 -2.85429 0 5 -2.85429 1
gene 1 6 18 0.0748233 0 6 0.0748233 1
gene 1 7 18 1.01296 0 7 1.01296 1
gene 1 8 8 1.73296 0 8 1.73296 1
gene 1 9 18 -0.590683 0 9 -0.590683 1
gene 2 10 18 0.193267 0 10 0.193267 1
gene 3 11 18 -3.03715 0 11 -3.03715 1
gene 4 12 18 1.12852 0 12 1.12852 1
gene 2 13 18 0.619952 0 13 0.619952 1
gene 1 14 18 -1.88385 0 14 -1.88385 1
gene 3 15 18 -0.711364 0 15 -0.711364 1
gene 4 16 18 -0.514566 0 16 -0.514566 1
gene 1 17 18 0.213303 0 17 0.213303 1
gene 2 1 19 -0.454064 0 18 -0.454064 1
gene 1 2 19 1.8341 0 19 1.8341 1
gene 4 3 19 -2.54709 0 20 -2.54709 1
gene 2 4 19 -0.440441 0 21 -0.440441 1
gene 2 5 19 0.153069 0 22 0.153069 1
gene 1 6 19 -1.27 0 23 -1.27 1
gene 3 7 19 3.29392 0 24 3.29392 1
gene 3 8 19 -0.710073 0 25 -0.710073 0
gene 2 9 19 -0.311163 0 26 -0.311163 1
gene 2 10 19 1.20388 0 27 1.20388 1
gene 4 11 19 -2.55447 0 28 -2.55447 1
gene 4 12 19 -1.19911 0 29 -1.19911 1
gene 3 13 19 1.43752 0 30 1.43752 1
gene 4 14 19 -1.93459 0 31 -1.93459 1
gene 2 15 19 1.86742 0 32 1.86742 1
gene 1 16 19 2.8941 0 33 2.8941 1
gene 3 17 19 -1.06708 0 34 -1.06708 1
gene 1 1 20 1.86089 0 35 1.86089 1
gene 1 2 20 2.02694 0 36 2.02694 1
gene 2 3 20 2.5413 0 37 2.5413 1
gene 2 4 20 2.27587 0 38 2.27587 1
gene 4 5 20 0.418237 0 39 0.418237 1
gene 1 6 20 -0.399181 0 40 -0.399181 1
gene 3 7 20 1.50649 0 41 1.50649 1
gene 2 8 20 -0.207692 0 42 -0.207692 0
gene 3 9 20 1.51534 0 43 1.51534 1
gene 1 10 20 1.27798 0 44 1.27798 1
gene 2 11 20 2.10926 0 45 2.10926 1
gene 3 12 20 2.5585 0 46 2.5585 1
gene 1 13 20 0.868639 0 47 0.868639 1
gene 2 14 20 -2.20207 0 48 -2.20207 1
gene 2 15 20 1.10734 0 49 1.10734 1
gene 1 16 20 0.269188 0 50 0.269188 1
gene 4 17 20 0.769137 0 51 0.769137 1
gene 1 3 22 2.29171 0 54 2.29171 1
gene 1 22 18 1.98857 0 55 1.98857 1
gene 2 8 48 -1.08759 0 114 -1.08759 1
gene 2 48 20 0.623946 0 115 0.623946 1
gene 2 9 22 -8 0 175 -8 1
genomeend 15

/* Organism #16 Fitness: 260 Error: 0 */

/* Position #16*/
#1 x: 27 y: 62
#2 x: 83 y: 37
#3 x: 84 y: 27
#4 x: 64 y: 51
#5 x: 78 y: 35
#6 x: 19 y: 23
genomestart 16
trait 1 1 0 0 0 0 0 0 0 
trait 2 2 0 0 0 0 0 0 0 
trait 3 3 0 0 0 0 0 0 0 
trait 4 4 0 0 0 0 0 0 0 
node 1 4 1 3
node 2 3 1 1
node 3 2 1 1
node 4 1 1 1
node 5 3 1 1
node 6 3 1 1
node 7 3 1 1
node 8 4 1 1
node 9 1 1 1
node 10 4 1 1
node 11 3 1 1
node 12 1 1 1
node 13 3 1 1
node 14 3 1 1
node 15 4 1 1
node 16 3 1 1
node 17 2 1 1
node 18 3 0 2
node 19 4 0 2
node 20 4 0 2
node 22 1 0 0
node 48 1 0 0
node 103 1 0 0
gene 1 1 18 -0.755493 0 1 -0.755493 1
gene 4 2 18 0.970678 0 2 0.970678 1
gene 4 3 18 0.544289 0 3 0.544289 0
gene 1 4 18 -0.655929 0 4 -0.655929 1
gene 1 5 18 -0.403248 0 5 -0.403248 1
gene 1 6 18 -0.80952 0 6 -0.80952 1
gene 1 7 18 -0.306035 0 7 -0.306035 1
gene 1 8 8 0.535734 0 8 0.535734 1
gene 1 9 18 0.150267 0 9 0.150267 1
gene 2 10 18 0.193267 0 10 0.193267 1
gene 3 11 18 -0.0626968 0 11 -0.0626968 1
gene 4 12 18 -0.950831 0 12 -0.950831 1
gene 2 13 18 0.871957 0 13 0.871957 1
gene 1 14 18 -0.194836 0 14 -0.194836 1
gene 3 15 18 -0.749617 0 15 -0.749617 1
gene 4 16 18 0.446998 0 16 0.446998 1
gene 1 17 18 -0.426041 0 17 -0.426041 1
gene 2 1 19 -0.678229 0 18 -0.678229 1
gene 1 2 19 0.854098 0 19 0.854098 1
gene 4 3 19 -0.79407 0 20 -0.79407 0
gene 2 4 19 -0.440441 0 21 -0.440441 1
gene 2 5 19 0.760497 0 22 0.760497 1
gene 1 6 19 -0.795041 0 23 -0.795041 1
gene 3 7 19 0.786683 0 24 0.786683 1
gene 3 8 19 -0.710073 0 25 -0.710073 0
gene 2 9 19 -0.890852 0 26 -0.890852 1
gene 2 10 19 -0.701017 0 27 -0.701017 1
gene 4 11 19 -0.834286 0 28 -0.834286 1
gene 4 12 19 0.355669 0 29 0.355669 1
gene 3 13 19 0.621076 0 30 0.621076 1
gene 4 14 19 0.972254 0 31 0.972254 1
gene 2 15 19 -0.906118 0 32 -0.906118 1
gene 1 16 19 0.21563 0 33 0.21563 1
gene 3 17 19 0.854775 0 34 0.854775 1
gene 1 1 20 0.841471 0 35 0.841471 1
gene 1 2 20 0.31543 0 36 0.31543 1
gene 2 3 20 0.616815 0 37 0.616815 1
gene 2 4 20 0.0814973 0 38 0.0814973 1
gene 4 5 20 0.0215158 0 39 0.0215158 1
gene 1 6 20 0.879448 0 40 0.879448 1
gene 3 7 20 -0.102602 0 41 -0.102602 1
gene 2 8 20 -0.686695 0 42 -0.686695 0
gene 3 9 20 0.292821 0 43 0.292821 1
gene 1 10 20 -0.379107 0 44 -0.379107 1
gene 2 11 20 0.569046 0 45 0.569046 1
gene 3 12 20 -0.841546 0 46 -0.841546 1
gene 1 13 20 0.165858 0 47 0.165858 1
gene 2 14 20 0.480292 0 48 0.480292 1
gene 2 15 20 0.76196 0 49 0.76196 1
gene 1 16 20 0.0964208 0 50 0.0964208 1
gene 4 17 20 0.259031 0 51 0.259031 1
gene 1 3 22 1 0 54 0 1
gene 1 22 18 -0.198879 0 55 0 1
gene 2 8 48 1 0 114 0 1
gene 2 48 20 -0.686695 0 115 0 1
gene 2 9 22 -13457 0 175 -13457 1
gene 4 3 103 1 0 252 0 1
gene 4 103 19 -0.79407 0 253 0 1
genomeend 16

/* Organism #17 Fitness: 100 Error: 0 */

/* Position #17*/
#1 x: 27 y: 62
#2 x: 83 y: 37
#3 x: 84 y: 27
#4 x: 64 y: 51
#5 x: 78 y: 35
#6 x: 19 y: 23
genomestart 17
trait 1 1 0 0 0 0 0 0 0 
trait 2 2 0 0 0 0 0 0 0 
trait 3 3 0 0 0 0 0 0 0 
trait 4 4 0 0 0 0 0 0 0 
node 1 4 1 3
node 2 3 1 1
node 3 2 1 1
node 4 1 1 1
node 5 3 1 1
node 6 3 1 1
node 7 3 1 1
node 8 4 1 1
node 9 1 1 1
node 10 4 1 1
node 11 3 1 1
node 12 1 1 1
node 13 3 1 1
node 14 3 1 1
node 15 4 1 1
node 16 3 1 1
node 17 2 1 1
node 18 3 0 2
node 19 4 0 2
node 20 4 0 2
node 22 1 0 0
node 48 1 0 0
node 104 1 0 0
gene 1 1 18 -0.755493 0 1 -0.755493 1
gene 4 2 18 0.970678 0 2 0.970678 1
gene 4 3 18 0.544289 0 3 0.544289 0
gene 1 4 18 -0.655929 0 4 -0.655929 1
gene 1 5 18 -0.403248 0 5 -0.403248 1
gene 1 6 18 -0.80952 0 6 -0.80952 1
gene 1 7 18 -0.306035 0 7 -0.306035 1
gene 1 8 8 0.535734 0 8 0.535734 1
gene 1 9 18 0.150267 0 9 0.150267 1
gene 2 10 18 0.193267 0 10 0.193267 1
gene 3 11 18 -0.0626968 0 11 -0.0626968 1
gene 4 12 18 -0.950831 0 12 -0.950831 1
gene 2 13 18 0.871957 0 13 0.871957 1
gene 1 14 18 -0.194836 0 14 -0.194836 1
gene 3 15 18 -0.749617 0 15 -0.749617 1
gene 4 16 18 0.446998 0 16 0.446998 1
gene 1 17 18 -0.426041 0 17 -0.426041 0
gene 2 1 19 -0.678229 0 18 -0.678229 1
gene 1 2 19 0.854098 0 19 0.854098 1
gene 4 3 19 -0.79407 0 20 -0.79407 1
gene 2 4 19 -0.440441 0 21 -0.440441 1
gene 2 5 19 0.760497 0 22 0.760497 1
gene 1 6 19 -0.795041 0 23 -0.795041 1
gene 3 7 19 0.786683 0 24 0.786683 1
gene 3 8 19 -0.710073 0 25 -0.710073 0
gene 2 9 19 -0.890852 0 26 -0.890852 1
gene 2 10 19 -0.701017 0 27 -0.701017 1
gene 4 11 19 -0.834286 0 28 -0.834286 1
gene 4 12 19 0.355669 0 29 0.355669 1
gene 3 13 19 0.621076 0 30 0.621076 1
gene 4 14 19 0.972254 0 31 0.972254 1
gene 2 15 19 -0.906118 0 32 -0.906118 1
gene 1 16 19 0.21563 0 33 0.21563 1
gene 3 17 19 0.854775 0 34 0.854775 1
gene 1 1 20 0.841471 0 35 0.841471 1
gene 1 2 20 0.31543 0 36 0.31543 1
gene 2 3 20 0.616815 0 37 0.616815 1
gene 2 4 20 0.0814973 0 38 0.0814973 1
gene 4 5 20 0.0215158 0 39 0.0215158 1
gene 1 6 20 0.879448 0 40 0.879448 1
gene 3 7 20 -0.102602 0 41 -0.102602 1
gene 2 8 20 -0.686695 0 42 -0.686695 0
gene 3 9 20 0.292821 0 43 0.292821 1
gene 1 10 20 -0.379107 0 44 -0.379107 1
gene 2 11 20 0.569046 0 45 0.569046 1
gene 3 12 20 -0.841546 0 46 -0.841546 1
gene 1 13 20 0.165858 0 47 0.165858 1
gene 2 14 20 0.480292 0 48 0.480292 1
gene 2 15 20 0.76196 0 49 0.76196 1
gene 1 16 20 0.0964208 0 50 0.0964208 1
gene 4 17 20 0.259031 0 51 0.259031 1
gene 1 3 22 1 0 54 0 1
gene 1 22 18 -0.198879 0 55 0 1
gene 2 8 48 1 0 114 0 1
gene 2 48 20 -0.686695 0 115 0 1
gene 2 9 22 -13457 0 175 -13457 1
gene 1 17 104 1 0 254 0 1
gene 1 104 18 -0.426041 0 255 0 1
genomeend 17

/* Species #5 : (Size 2) (AF 70) (Age 3)  */


/* Organism #18 Fitness: 60 Error: 0 */

/* Position #18*/
#1 x: 62 y: 81
#2 x: 51 y: 73
#3 x: 63 y: 67
#4 x: 35 y: 81
#5 x: 58 y: 78
#6 x: 45 y: 78
genomestart 18
trait 1 1 0 0 0 0 0 0 0 
trait 2 2 0 0 0 0 0 0 0 
trait 3 3 0 0 0 0 0 0 0 
trait 4 4 0 0 0 0 0 0 0 
node 1 2 1 3
node 2 1 1 1
node 3 2 1 1
node 4 3 1 1
node 5 1 1 1
node 6 3 1 1
node 7 2 1 1
node 8 2 1 1
node 9 4 1 1
node 10 4 1 1
node 11 2 1 1
node 12 4 1 1
node 13 3 1 1
node 14 4 1 1
node 15 2 1 1
node 16 4 1 1
node 17 4 1 1
node 18 1 0 2
node 19 2 0 2
node 20 1 0 2
node 22 1 0 0
gene 4 1 18 0.332087 0 1 0.332087 1
gene 1 2 18 0.830128 0 2 0.830128 1
gene 4 3 18 1.45939 0 3 1.45939 0
gene 3 4 18 0.761185 0 4 0.761185 1
gene 4 5 18 -0.732892 0 5 -0.732892 1
gene 1 6 18 2.13787 0 6 2.13787 1
gene 4 7 18 1.65979 0 7 1.65979 1
gene 2 8 8 -3.46393 0 8 -3.46393 1
gene 2 9 18 0.880367 0 9 0.880367 1
gene 3 10 18 -4.72607 0 10 -4.72607 1
gene 3 11 18 -0.880448 0 11 -0.880448 1
gene 2 12 18 -2.62069 0 12 -2.62069 1
gene 1 13 18 0.61932 0 13 0.61932 1
gene 2 14 18 1.45835 0 14 1.45835 1
gene 2 15 18 3.89184 0 15 3.89184 1
gene 1 16 18 -1.4075 0 16 -1.4075 1
gene 1 17 18 -3.21059 0 17 -3.21059 1
gene 1 1 19 -0.415709 0 18 -0.415709 1
gene 4 2 19 0.696222 0 19 0.696222 1
gene 2 3 19 -0.0413419 0 20 -0.0413419 1
gene 4 4 19 1.98034 0 21 1.98034 1
gene 4 5 19 -3.03554 0 22 -3.03554 1
gene 1 6 19 -0.99851 0 23 -0.99851 1
gene 4 7 19 1.04859 0 24 1.04859 1
gene 1 8 19 -3.2982 0 25 -3.2982 1
gene 4 9 19 -0.119137 0 26 -0.119137 1
gene 3 10 19 -0.852118 0 27 -0.852118 1
gene 4 11 19 2.42188 0 28 2.42188 1
gene 3 12 19 -0.847762 0 29 -0.847762 1
gene 4 13 19 -1.23952 0 30 -1.23952 1
gene 1 14 19 0.638392 0 31 0.638392 1
gene 4 15 19 2.30373 0 32 2.30373 1
gene 2 16 19 -2.35577 0 33 -2.35577 1
gene 3 17 19 -3.51601 0 34 -3.51601 1
gene 4 1 20 -0.934779 0 35 -0.934779 1
gene 3 2 20 1.5398 0 36 1.5398 1
gene 3 3 20 -3.41228 0 37 -3.41228 1
gene 1 4 20 0.651024 0 38 0.651024 1
gene 3 5 20 -0.496979 0 39 -0.496979 1
gene 4 6 20 -0.0310304 0 40 -0.0310304 1
gene 4 7 20 -0.555466 0 41 -0.555466 1
gene 4 8 20 1.05816 0 42 1.05816 1
gene 1 9 20 0.994277 0 43 0.994277 1
gene 2 10 20 -2.23489 0 44 -2.23489 1
gene 1 11 20 1.30841 0 45 1.30841 1
gene 2 12 20 1.967 0 46 1.967 1
gene 4 13 20 -3.54549 0 47 -3.54549 1
gene 4 14 20 -2.81104 0 48 -2.81104 1
gene 1 15 20 0.793696 0 49 0.793696 1
gene 3 16 20 -0.0302172 0 50 -0.0302172 1
gene 2 17 20 -4.80446 0 51 -4.80446 1
gene 4 3 22 2.11467 0 54 2.11467 1
gene 4 22 18 -1.60845 0 55 -1.60845 1
gene 3 19 19 -1.64262 1 133 -1.64262 1
gene 2 20 20 -1274 1 256 -1274 1
genomeend 18

/* Organism #19 Fitness: 80 Error: 0 */

/* Position #19*/
#1 x: 62 y: 81
#2 x: 51 y: 73
#3 x: 63 y: 67
#4 x: 35 y: 81
#5 x: 58 y: 78
#6 x: 45 y: 78
genomestart 19
trait 1 1 0 0 0 0 0 0 0 
trait 2 2 0 0 0 0 0 0 0 
trait 3 3 0 0 0 0 0 0 0 
trait 4 4 0 0 0 0 0 0 0 
node 1 2 1 3
node 2 1 1 1
node 3 2 1 1
node 4 3 1 1
node 5 1 1 1
node 6 3 1 1
node 7 2 1 1
node 8 2 1 1
node 9 4 1 1
node 10 4 1 1
node 11 2 1 1
node 12 4 1 1
node 13 3 1 1
node 14 4 1 1
node 15 2 1 1
node 16 4 1 1
node 17 4 1 1
node 18 1 0 2
node 19 2 0 2
node 20 1 0 2
node 22 1 0 0
node 105 1 0 0
gene 4 1 18 0.332087 0 1 0.332087 1
gene 1 2 18 0.830128 0 2 0.830128 1
gene 4 3 18 1.45939 0 3 1.45939 0
gene 3 4 18 0.761185 0 4 0.761185 1
gene 4 5 18 -0.732892 0 5 -0.732892 1
gene 1 6 18 2.13787 0 6 2.13787 1
gene 4 7 18 1.65979 0 7 1.65979 1
gene 2 8 8 -3.46393 0 8 -3.46393 1
gene 2 9 18 0.880367 0 9 0.880367 1
gene 3 10 18 -4.72607 0 10 -4.72607 1
gene 3 11 18 -0.880448 0 11 -0.880448 1
gene 2 12 18 -2.62069 0 12 -2.62069 1
gene 1 13 18 0.61932 0 13 0.61932 1
gene 2 14 18 1.45835 0 14 1.45835 1
gene 2 15 18 3.89184 0 15 3.89184 1
gene 1 16 18 -1.4075 0 16 -1.4075 1
gene 1 17 18 -3.21059 0 17 -3.21059 1
gene 1 1 19 -0.415709 0 18 -0.415709 1
gene 4 2 19 0.696222 0 19 0.696222 1
gene 2 3 19 -0.0413419 0 20 -0.0413419 1
gene 4 4 19 1.98034 0 21 1.98034 1
gene 4 5 19 -3.03554 0 22 -3.03554 1
gene 1 6 19 -0.99851 0 23 -0.99851 1
gene 4 7 19 1.04859 0 24 1.04859 1
gene 1 8 19 -3.2982 0 25 -3.2982 1
gene 4 9 19 -0.119137 0 26 -0.119137 1
gene 3 10 19 -0.852118 0 27 -0.852118 1
gene 4 11 19 2.42188 0 28 2.42188 1
gene 3 12 19 -0.847762 0 29 -0.847762 1
gene 4 13 19 -1.23952 0 30 -1.23952 1
gene 1 14 19 0.638392 0 31 0.638392 1
gene 4 15 19 2.30373 0 32 2.30373 1
gene 2 16 19 -2.35577 0 33 -2.35577 1
gene 3 17 19 -3.51601 0 34 -3.51601 1
gene 4 1 20 -0.934779 0 35 -0.934779 1
gene 3 2 20 1.5398 0 36 1.5398 1
gene 3 3 20 -3.41228 0 37 -3.41228 1
gene 1 4 20 0.651024 0 38 0.651024 1
gene 3 5 20 -0.496979 0 39 -0.496979 1
gene 4 6 20 -0.0310304 0 40 -0.0310304 1
gene 4 7 20 -0.555466 0 41 -0.555466 1
gene 4 8 20 1.05816 0 42 1.05816 1
gene 1 9 20 0.994277 0 43 0.994277 1
gene 2 10 20 -2.23489 0 44 -2.23489 1
gene 1 11 20 1.30841 0 45 1.30841 1
gene 2 12 20 1.967 0 46 1.967 1
gene 4 13 20 -3.54549 0 47 -3.54549 1
gene 4 14 20 -2.81104 0 48 -2.81104 1
gene 1 15 20 0.793696 0 49 0.793696 1
gene 3 16 20 -0.0302172 0 50 -0.0302172 1
gene 2 17 20 -4.80446 0 51 -4.80446 1
gene 4 3 22 2.11467 0 54 2.11467 0
gene 4 22 18 -1.60845 0 55 -1.60845 1
gene 3 19 19 -1.64262 1 133 -1.64262 1
gene 4 3 105 1 0 257 0 1
gene 4 105 22 2.11467 0 258 0 1
genomeend 19

/* Species #7 : (Size 3) (AF 26.6667) (Age 3)  */


/* Organism #20 Fitness: 20 Error: 0 */

/* Position #20*/
#1 x: 62 y: 44
#2 x: 73 y: 19
#3 x: 36 y: 42
#4 x: 84 y: 47
#5 x: 60 y: 63
#6 x: 40 y: 61
genomestart 20
trait 1 47878 0 0 0 0 17911 70700 48894 
trait 2 2 0 0 0 0 0 0 0 
trait 3 3 0 0 0 0 0 0 0 
trait 4 4 0 0 0 0 0 0 0 
node 1 4 1 3
node 2 3 1 1
node 3 2 1 1
node 4 1 1 1
node 5 4 1 1
node 6 2 1 1
node 7 4 1 1
node 8 3 1 1
node 9 2 1 1
node 10 4 1 1
node 11 2 1 1
node 12 1 1 1
node 13 2 1 1
node 14 2 1 1
node 15 1 1 1
node 16 1 1 1
node 17 3 1 1
node 18 1 0 2
node 19 4 0 2
node 20 1 0 2
node 23 1 0 0
node 76 1 0 0
gene 1 1 18 -4.49369 0 1 -4.49369 1
gene 3 2 18 -4.63978 0 2 -4.63978 1
gene 1 3 18 -0.67817 0 3 -0.67817 0
gene 2 4 18 -1.21621 0 4 -1.21621 1
gene 1 5 18 0.79238 0 5 0.79238 1
gene 1 6 18 -1.41533 0 6 -1.41533 1
gene 4 7 18 3.9789 0 7 3.9789 1
gene 1 8 8 1.6644 0 8 1.6644 1
gene 2 9 18 -0.565631 0 9 -0.565631 1
gene 1 10 18 -1.72692 0 10 -1.72692 1
gene 3 11 18 -1.91044 0 11 -1.91044 1
gene 3 12 18 1.92066 0 12 1.92066 0
gene 2 13 18 -0.793361 0 13 -0.793361 1
gene 3 14 18 -1.25699 0 14 -1.25699 1
gene 1 15 18 1.94143 0 15 1.94143 1
gene 3 16 18 -1.72134 0 16 -1.72134 1
gene 3 17 18 1.71405 0 17 1.71405 1
gene 2 1 19 -0.591011 0 18 -0.591011 1
gene 1 2 19 2.884 0 19 2.884 1
gene 3 3 19 1.36058 0 20 1.36058 1
gene 2 4 19 -1.74757 0 21 -1.74757 1
gene 3 5 19 0.405836 0 22 0.405836 1
gene 1 6 19 -0.67852 0 23 -0.67852 1
gene 3 7 19 2.75177 0 24 2.75177 1
gene 4 8 19 1.42371 0 25 1.42371 1
gene 1 9 19 1.92344 0 26 1.92344 1
gene 4 10 19 1.97403 0 27 1.97403 1
gene 2 11 19 1.75389 0 28 1.75389 1
gene 2 12 19 -1.46926 0 29 -1.46926 1
gene 3 13 19 1.90711 0 30 1.90711 1
gene 2 14 19 1.54003 0 31 1.54003 1
gene 2 15 19 -1.8015 0 32 -1.8015 1
gene 3 16 19 -1.59011 0 33 -1.59011 1
gene 4 17 19 -1.83941 0 34 -1.83941 1
gene 1 1 20 -1.09799 0 35 -1.09799 1
gene 1 2 20 -1.46399 0 36 -1.46399 1
gene 4 3 20 2.05821 0 37 2.05821 1
gene 3 4 20 2.47378 0 38 2.47378 1
gene 1 5 20 1.78859 0 39 1.78859 1
gene 3 6 20 1.6184 0 40 1.6184 1
gene 2 7 20 1.29462 0 41 1.29462 1
gene 4 8 20 -2.09556 0 42 -2.09556 1
gene 2 9 20 0.538704 0 43 0.538704 1
gene 3 10 20 -1.12501 0 44 -1.12501 1
gene 3 11 20 1.39208 0 45 1.39208 1
gene 3 12 20 3.5427 0 46 3.5427 1
gene 1 13 20 5.51303 0 47 5.51303 1
gene 1 14 20 1.43437 0 48 1.43437 1
gene 2 15 20 -1.13233 0 49 -1.13233 1
gene 4 16 20 1.58499 0 50 1.58499 1
gene 4 17 20 -1.02351 0 51 -1.02351 1
gene 3 12 23 -1.61481 0 56 -1.61481 1
gene 3 23 18 -0.320928 0 57 -0.320928 1
gene 4 17 23 8 0 121 8 1
gene 3 23 76 1 0 184 1 1
gene 3 76 18 -3.27248 0 185 -3.27248 1
genomeend 20

/* Organism #21 Fitness: 60 Error: 0 */

/* Position #21*/
#1 x: 62 y: 44
#2 x: 73 y: 19
#3 x: 36 y: 42
#4 x: 84 y: 47
#5 x: 60 y: 63
#6 x: 40 y: 61
genomestart 21
trait 1 1 0 0 0 0 0 0 0 
trait 2 2 0 0 0 0 0 0 0 
trait 3 3 0 0 0 0 0 0 0 
trait 4 4 0 0 0 0 0 0 0 
node 1 4 1 3
node 2 3 1 1
node 3 2 1 1
node 4 1 1 1
node 5 4 1 1
node 6 2 1 1
node 7 4 1 1
node 8 3 1 1
node 9 2 1 1
node 10 4 1 1
node 11 2 1 1
node 12 1 1 1
node 13 2 1 1
node 14 2 1 1
node 15 1 1 1
node 16 1 1 1
node 17 3 1 1
node 18 1 0 2
node 19 4 0 2
node 20 1 0 2
node 23 1 0 0
node 76 1 0 0
node 106 1 0 0
gene 1 1 18 -0.755493 0 1 -0.755493 1
gene 3 2 18 -0.661526 0 2 -0.661526 1
gene 1 3 18 -0.198879 0 3 -0.198879 0
gene 2 4 18 0.471966 0 4 0.471966 1
gene 1 5 18 0.602458 0 5 0.602458 1
gene 1 6 18 -0.80952 0 6 -0.80952 1
gene 4 7 18 -0.508604 0 7 -0.508604 1
gene 1 8 8 0.535734 0 8 0.535734 1
gene 2 9 18 -0.146089 0 9 -0.146089 1
gene 1 10 18 -0.789844 0 10 -0.789844 1
gene 3 11 18 0.317901 0 11 0.317901 1
gene 3 12 18 -0.781241 0 12 -0.781241 0
gene 2 13 18 -0.760881 0 13 -0.760881 1
gene 3 14 18 -0.834791 0 14 -0.834791 1
gene 1 15 18 0.551821 0 15 0.551821 1
gene 3 16 18 0.625138 0 16 0.625138 1
gene 3 17 18 0.871678 0 17 0.871678 1
gene 2 1 19 0.68225 0 18 0.68225 1
gene 1 2 19 0.928815 0 19 0.928815 1
gene 3 3 19 0.772208 0 20 0.772208 1
gene 2 4 19 -0.0908483 0 21 -0.0908483 1
gene 3 5 19 -0.462095 0 22 -0.462095 1
gene 1 6 19 -0.18176 0 23 -0.18176 1
gene 3 7 19 0.786683 0 24 0.786683 1
gene 4 8 19 -0.550634 0 25 -0.550634 1
gene 1 9 19 -0.664109 0 26 -0.664109 1
gene 4 10 19 0.824916 0 27 0.824916 1
gene 2 11 19 0.136093 0 28 0.136093 1
gene 2 12 19 -0.926923 0 29 -0.926923 0
gene 3 13 19 0.621076 0 30 0.621076 1
gene 2 14 19 0.372389 0 31 0.372389 1
gene 2 15 19 -0.906118 0 32 -0.906118 1
gene 3 16 19 -0.360581 0 33 -0.360581 1
gene 4 17 19 -0.848176 0 34 -0.848176 1
gene 1 1 20 -0.454851 0 35 -0.454851 1
gene 1 2 20 0.31543 0 36 0.31543 1
gene 4 3 20 -0.478807 0 37 -0.478807 1
gene 3 4 20 -0.991085 0 38 -0.991085 1
gene 1 5 20 -0.188321 0 39 -0.188321 1
gene 3 6 20 -0.195913 0 40 -0.195913 1
gene 2 7 20 -0.0133223 0 41 -0.0133223 1
gene 4 8 20 0.682886 0 42 0.682886 1
gene 2 9 20 0.927719 0 43 0.927719 1
gene 3 10 20 -0.0986048 0 44 -0.0986048 1
gene 3 11 20 0.775712 0 45 0.775712 1
gene 3 12 20 0.911547 0 46 0.911547 1
gene 1 13 20 0.165858 0 47 0.165858 1
gene 1 14 20 0.398009 0 48 0.398009 1
gene 2 15 20 0.76196 0 49 0.76196 1
gene 4 16 20 0.106478 0 50 0.106478 1
gene 4 17 20 0.259031 0 51 0.259031 1
gene 3 12 23 1 0 56 0 1
gene 3 23 18 -0.781241 0 57 0 0
gene 4 17 23 94842 0 121 94842 1
gene 3 23 76 1 0 184 0 1
gene 3 76 18 -0.781241 0 185 0 1
gene 2 12 106 1 0 259 0 1
gene 2 106 19 -0.926923 0 260 0 1
genomeend 21

/* Organism #22 Fitness: 0 Error: 0 */

/* Position #22*/
#1 x: 84 y: 33
#2 x: 77 y: 58
#3 x: 22 y: 72
#4 x: 48 y: 63
#5 x: 54 y: 39
#6 x: 73 y: 80
genomestart 22
trait 1 1 0 0 0 0 0 0 0 
trait 2 2 0 0 0 0 0 0 0 
trait 3 3 0 0 0 0 0 0 0 
trait 4 4 0 0 0 0 0 0 0 
node 1 4 1 3
node 2 3 1 1
node 3 2 1 1
node 4 1 1 1
node 5 4 1 1
node 6 2 1 1
node 7 4 1 1
node 8 3 1 1
node 9 2 1 1
node 10 4 1 1
node 11 2 1 1
node 12 1 1 1
node 13 2 1 1
node 14 2 1 1
node 15 1 1 1
node 16 1 1 1
node 17 3 1 1
node 18 1 0 2
node 19 4 0 2
node 20 1 0 2
node 23 1 0 0
node 76 1 0 0
node 107 1 0 0
gene 1 1 18 0 0 1 0 1
gene 3 2 18 0 0 2 0 1
gene 1 3 18 0 0 3 0 1
gene 2 4 18 0 0 4 0 1
gene 1 5 18 0 0 5 0 1
gene 1 6 18 0 0 6 0 1
gene 4 7 18 0 0 7 0 1
gene 1 8 8 0 0 8 0 1
gene 2 9 18 0 0 9 0 1
gene 1 10 18 0 0 10 0 1
gene 3 11 18 0 0 11 0 1
gene 3 12 18 0 0 12 0 0
gene 2 13 18 0 0 13 0 1
gene 3 14 18 0 0 14 0 1
gene 1 15 18 0 0 15 0 1
gene 3 16 18 0 0 16 0 1
gene 3 17 18 0 0 17 0 1
gene 2 1 19 0 0 18 0 1
gene 1 2 19 0 0 19 0 1
gene 3 3 19 0 0 20 0 1
gene 2 4 19 0 0 21 0 1
gene 3 5 19 0 0 22 0 1
gene 1 6 19 0 0 23 0 1
gene 3 7 19 0 0 24 0 1
gene 4 8 19 0 0 25 0 1
gene 1 9 19 0 0 26 0 1
gene 4 10 19 0 0 27 0 1
gene 2 11 19 0 0 28 0 1
gene 2 12 19 0 0 29 0 1
gene 3 13 19 0 0 30 0 1
gene 2 14 19 0 0 31 0 0
gene 2 15 19 0 0 32 0 1
gene 3 16 19 0 0 33 0 1
gene 4 17 19 0 0 34 0 1
gene 1 1 20 0 0 35 0 1
gene 1 2 20 0 0 36 0 1
gene 4 3 20 0 0 37 0 1
gene 3 4 20 0 0 38 0 1
gene 1 5 20 0 0 39 0 1
gene 3 6 20 0 0 40 0 1
gene 2 7 20 0 0 41 0 1
gene 4 8 20 0 0 42 0 1
gene 2 9 20 0 0 43 0 1
gene 3 10 20 0 0 44 0 1
gene 3 11 20 0 0 45 0 1
gene 3 12 20 0 0 46 0 1
gene 1 13 20 0 0 47 0 1
gene 1 14 20 0 0 48 0 1
gene 2 15 20 0 0 49 0 1
gene 4 16 20 0 0 50 0 1
gene 4 17 20 0 0 51 0 1
gene 3 12 23 1 0 56 0 1
gene 3 23 18 0 0 57 0 0
gene 4 17 23 94842 0 121 94842 1
gene 3 23 76 1 0 184 0 1
gene 3 76 18 0 0 185 0 1
gene 2 14 107 1 0 262 0 1
gene 2 107 19 0 0 263 0 1
genomeend 22

/* Species #8 : (Size 3) (AF 80) (Age 3)  */


/* Organism #23 Fitness: 0 Error: 0 */

/* Position #23*/
#1 x: 84 y: 33
#2 x: 77 y: 58
#3 x: 22 y: 72
#4 x: 48 y: 63
#5 x: 54 y: 39
#6 x: 73 y: 80
genomestart 23
trait 1 1 0 0 0 0 0 0 0 
trait 2 2 0 0 0 0 0 0 0 
trait 3 3 0 0 0 0 0 0 0 
trait 4 4 0 0 0 0 0 0 0 
node 1 1 1 3
node 2 2 1 1
node 3 3 1 1
node 4 3 1 1
node 5 3 1 1
node 6 3 1 1
node 7 4 1 1
node 8 2 1 1
node 9 1 1 1
node 10 3 1 1
node 11 3 1 1
node 12 3 1 1
node 13 1 1 1
node 14 4 1 1
node 15 4 1 1
node 16 3 1 1
node 17 4 1 1
node 18 3 0 2
node 19 3 0 2
node 20 4 0 2
node 51 1 0 0
node 77 1 0 0
gene 1 1 18 0 0 1 0 1
gene 2 2 18 0 0 2 0 1
gene 2 3 18 0 0 3 0 1
gene 1 4 18 0 0 4 0 1
gene 3 5 18 0 0 5 0 1
gene 1 6 18 0 0 6 0 1
gene 2 7 18 0 0 7 0 1
gene 2 8 8 0 0 8 0 1
gene 1 9 18 0 0 9 0 1
gene 3 10 18 0 0 10 0 1
gene 2 11 18 0 0 11 0 1
gene 3 12 18 0 0 12 0 1
gene 2 13 18 0 0 13 0 1
gene 2 14 18 0 0 14 0 1
gene 2 15 18 0 0 15 0 1
gene 1 16 18 0 0 16 0 1
gene 1 17 18 0 0 17 0 1
gene 4 1 19 0 0 18 0 1
gene 4 2 19 0 0 19 0 1
gene 4 3 19 0 0 20 0 1
gene 4 4 19 0 0 21 0 1
gene 2 5 19 0 0 22 0 0
gene 4 6 19 0 0 23 0 1
gene 2 7 19 0 0 24 0 1
gene 2 8 19 0 0 25 0 1
gene 2 9 19 0 0 26 0 1
gene 2 10 19 0 0 27 0 1
gene 2 11 19 0 0 28 0 1
gene 2 12 19 0 0 29 0 1
gene 2 13 19 0 0 30 0 1
gene 3 14 19 0 0 31 0 1
gene 1 15 19 0 0 32 0 1
gene 4 16 19 0 0 33 0 1
gene 1 17 19 0 0 34 0 1
gene 2 1 20 0 0 35 0 1
gene 1 2 20 0 0 36 0 1
gene 4 3 20 0 0 37 0 1
gene 2 4 20 0 0 38 0 1
gene 4 5 20 0 0 39 0 1
gene 4 6 20 0 0 40 0 1
gene 3 7 20 0 0 41 0 1
gene 3 8 20 0 0 42 0 1
gene 3 9 20 0 0 43 0 0
gene 3 10 20 0 0 44 0 0
gene 3 11 20 0 0 45 0 1
gene 2 12 20 0 0 46 0 1
gene 1 13 20 0 0 47 0 1
gene 4 14 20 0 0 48 0 1
gene 4 15 20 0 0 49 0 1
gene 2 16 20 0 0 50 0 1
gene 3 17 20 0 0 51 0 1
gene 2 19 18 -23788 0 76 -23788 1
gene 3 9 51 1 0 123 0 1
gene 3 51 20 0 0 124 0 1
gene 2 5 77 1 0 187 0 1
gene 2 77 19 0 0 188 0 1
gene 4 19 77 -61502 0 264 -61502 1
genomeend 23

/* Organism #24 Fitness: 80 Error: 0 */

/* Position #24*/
#1 x: 47 y: 49
#2 x: 82 y: 61
#3 x: 41 y: 24
#4 x: 18 y: 72
#5 x: 43 y: 17
#6 x: 50 y: 24
genomestart 24
trait 1 1 0 0 0 0 0 0 0 
trait 2 2 0 0 0 0 0 0 0 
trait 3 3 0 0 0 0 0 0 0 
trait 4 4 0 0 0 0 0 0 0 
node 1 1 1 3
node 2 2 1 1
node 3 3 1 1
node 4 3 1 1
node 5 3 1 1
node 6 3 1 1
node 7 4 1 1
node 8 2 1 1
node 9 1 1 1
node 10 3 1 1
node 11 3 1 1
node 12 3 1 1
node 13 1 1 1
node 14 4 1 1
node 15 4 1 1
node 16 3 1 1
node 17 4 1 1
node 18 3 0 2
node 19 3 0 2
node 20 4 0 2
node 51 1 0 0
node 77 1 0 0
gene 1 1 18 0 0 1 0 1
gene 2 2 18 0 0 2 0 1
gene 2 3 18 0 0 3 0 1
gene 1 4 18 0 0 4 0 1
gene 3 5 18 0 0 5 0 1
gene 1 6 18 0 0 6 0 1
gene 2 7 18 0 0 7 0 1
gene 2 8 8 0 0 8 0 1
gene 1 9 18 0 0 9 0 1
gene 3 10 18 0 0 10 0 1
gene 2 11 18 0 0 11 0 1
gene 3 12 18 0 0 12 0 1
gene 2 13 18 0 0 13 0 1
gene 2 14 18 0 0 14 0 1
gene 2 15 18 0 0 15 0 1
gene 1 16 18 0 0 16 0 1
gene 1 17 18 0 0 17 0 1
gene 4 1 19 0 0 18 0 1
gene 4 2 19 0 0 19 0 1
gene 4 3 19 0 0 20 0 1
gene 4 4 19 0 0 21 0 1
gene 2 5 19 0 0 22 0 0
gene 4 6 19 0 0 23 0 1
gene 2 7 19 0 0 24 0 1
gene 2 8 19 0 0 25 0 1
gene 2 9 19 0 0 26 0 1
gene 2 10 19 0 0 27 0 1
gene 2 11 19 0 0 28 0 1
gene 2 12 19 0 0 29 0 1
gene 2 13 19 0 0 30 0 1
gene 3 14 19 0 0 31 0 1
gene 1 15 19 0 0 32 0 1
gene 4 16 19 0 0 33 0 1
gene 1 17 19 0 0 34 0 1
gene 2 1 20 0 0 35 0 1
gene 1 2 20 0 0 36 0 1
gene 4 3 20 0 0 37 0 1
gene 2 4 20 0 0 38 0 1
gene 4 5 20 0 0 39 0 1
gene 4 6 20 0 0 40 0 1
gene 3 7 20 0 0 41 0 1
gene 3 8 20 0 0 42 0 1
gene 3 9 20 0 0 43 0 0
gene 3 10 20 0 0 44 0 0
gene 3 11 20 0 0 45 0 1
gene 2 12 20 0 0 46 0 1
gene 1 13 20 0 0 47 0 1
gene 4 14 20 0 0 48 0 1
gene 3 15 20 0 0 49 0 1
gene 2 16 20 0 0 50 0 1
gene 3 17 20 0 0 51 0 1
gene 2 19 18 -23788 0 76 -23788 1
gene 3 9 51 1 0 123 0 1
gene 3 51 20 0 0 124 0 1
gene 2 5 77 1 0 187 0 1
gene 2 77 19 0 0 188 0 1
genomeend 24

/* Organism #25 Fitness: 160 Error: 0 */

/* Position #25*/
#1 x: 47 y: 49
#2 x: 82 y: 61
#3 x: 41 y: 24
#4 x: 18 y: 72
#5 x: 43 y: 17
#6 x: 50 y: 24
genomestart 25
trait 1 1 0 0 0 0 0 0 0 
trait 2 2 0 0 0 0 0 0 0 
trait 3 3 0 0 0 0 0 0 0 
trait 4 4 0 0 0 0 0 0 0 
node 1 1 1 3
node 2 2 1 1
node 3 3 1 1
node 4 3 1 1
node 5 3 1 1
node 6 3 1 1
node 7 4 1 1
node 8 2 1 1
node 9 1 1 1
node 10 3 1 1
node 11 3 1 1
node 12 3 1 1
node 13 1 1 1
node 14 4 1 1
node 15 4 1 1
node 16 3 1 1
node 17 4 1 1
node 18 3 0 2
node 19 3 0 2
node 20 4 0 2
node 51 1 0 0
node 77 1 0 0
gene 1 1 18 -0.0215499 0 1 -0.0215499 1
gene 2 2 18 -1.57446 0 2 -1.57446 1
gene 2 3 18 -0.229608 0 3 -0.229608 1
gene 1 4 18 -2.50532 0 4 -2.50532 1
gene 3 5 18 -2.96084 0 5 -2.96084 1
gene 1 6 18 -0.66582 0 6 -0.66582 1
gene 2 7 18 2.73098 0 7 2.73098 1
gene 2 8 8 -2.62312 0 8 -2.62312 1
gene 1 9 18 0.816514 0 9 0.816514 1
gene 3 10 18 0.21793 0 10 0.21793 1
gene 2 11 18 -2.952 0 11 -2.952 1
gene 3 12 18 0.0527064 0 12 0.0527064 1
gene 2 13 18 0.733361 0 13 0.733361 1
gene 2 14 18 -1.30169 0 14 -1.30169 1
gene 2 15 18 -0.77935 0 15 -0.77935 1
gene 1 16 18 -1.71337 0 16 -1.71337 1
gene 1 17 18 -1.93616 0 17 -1.93616 1
gene 4 1 19 -1.12384 0 18 -1.12384 1
gene 4 2 19 -0.333231 0 19 -0.333231 1
gene 4 3 19 -1.72393 0 20 -1.72393 1
gene 4 4 19 0.61388 0 21 0.61388 1
gene 2 5 19 -2.02547 0 22 -2.02547 0
gene 4 6 19 1.30564 0 23 1.30564 1
gene 2 7 19 -2.53401 0 24 -2.53401 1
gene 2 8 19 1.7879 0 25 1.7879 1
gene 2 9 19 2.30933 0 26 2.30933 1
gene 2 10 19 -1.92846 0 27 -1.92846 1
gene 2 11 19 2.83481 0 28 2.83481 1
gene 2 12 19 -0.383205 0 29 -0.383205 1
gene 2 13 19 -1.34248 0 30 -1.34248 1
gene 3 14 19 -2.97693 0 31 -2.97693 1
gene 1 15 19 -1.9455 0 32 -1.9455 1
gene 4 16 19 2.38549 0 33 2.38549 1
gene 1 17 19 2.82895 0 34 2.82895 1
gene 2 1 20 0.628042 0 35 0.628042 1
gene 1 2 20 -2.00695 0 36 -2.00695 1
gene 4 3 20 -1.99051 0 37 -1.99051 1
gene 2 4 20 -0.773767 0 38 -0.773767 1
gene 4 5 20 -0.465026 0 39 -0.465026 1
gene 4 6 20 -0.269761 0 40 -0.269761 1
gene 3 7 20 1.98457 0 41 1.98457 1
gene 3 8 20 2.90766 0 42 2.90766 1
gene 3 9 20 2.15991 0 43 2.15991 0
gene 3 10 20 -0.670193 0 44 -0.670193 0
gene 3 11 20 2.62147 0 45 2.62147 1
gene 2 12 20 1.49031 0 46 1.49031 1
gene 1 13 20 2.08856 0 47 2.08856 1
gene 4 14 20 -2.4074 0 48 -2.4074 1
gene 4 15 20 0.631576 0 49 0.631576 1
gene 2 16 20 0.538317 0 50 0.538317 1
gene 3 17 20 -1.20548 0 51 -1.20548 1
gene 2 19 18 0.300177 0 76 0.300177 1
gene 3 9 51 -1.83508 0 123 -1.83508 1
gene 3 51 20 0.0381799 0 124 0.0381799 1
gene 2 5 77 1 0 187 1 1
gene 2 77 19 2.2689 0 188 2.2689 1
genomeend 25

/* Species #9 : (Size 2) (AF 130) (Age 3)  */


/* Organism #26 Fitness: 160 Error: 0 */

/* Position #26*/
#1 x: 61 y: 24
#2 x: 76 y: 64
#3 x: 17 y: 24
#4 x: 28 y: 39
#5 x: 29 y: 21
#6 x: 74 y: 31
genomestart 26
trait 1 1 0 0 0 0 0 0 0 
trait 2 2 0 0 0 0 0 0 0 
trait 3 3 0 0 0 0 0 0 0 
trait 4 4 0 0 0 0 0 0 0 
node 1 4 1 3
node 2 3 1 1
node 3 2 1 1
node 4 1 1 1
node 5 4 1 1
node 6 2 1 1
node 7 4 1 1
node 8 3 1 1
node 9 2 1 1
node 10 4 1 1
node 11 2 1 1
node 12 1 1 1
node 13 2 1 1
node 14 2 1 1
node 15 1 1 1
node 16 1 1 1
node 17 3 1 1
node 18 1 0 2
node 19 4 0 2
node 20 1 0 2
node 42 1 0 0
node 80 1 0 0
gene 3 1 18 2.19598 0 1 2.19598 1
gene 2 2 18 0 0 2 0 1
gene 3 3 18 -1.03759 0 3 -1.03759 1
gene 1 4 18 0.733099 0 4 0.733099 1
gene 3 5 18 -0.010409 0 5 -0.010409 1
gene 1 6 18 1.86982 0 6 1.86982 1
gene 3 7 18 -2.62138 0 7 -2.62138 1
gene 2 8 8 -2.72279 0 8 -2.72279 1
gene 1 9 18 0 0 9 0 1
gene 1 10 18 -2.27789 0 10 -2.27789 1
gene 4 11 18 -1.52461 0 11 -1.52461 1
gene 3 12 18 -2.54227 0 12 -2.54227 1
gene 2 13 18 0.961699 0 13 0.961699 1
gene 3 14 18 0.254842 0 14 0.254842 1
gene 1 15 18 -1.94844 0 15 -1.94844 1
gene 3 16 18 2.62434 0 16 2.62434 1
gene 1 17 18 -1.71416 0 17 -1.71416 1
gene 2 1 19 0 0 18 0 1
gene 1 2 19 -0.95846 0 19 -0.95846 1
gene 3 3 19 0.701205 0 20 0.701205 1
gene 1 4 19 -1.19287 0 21 -1.19287 1
gene 3 5 19 -2.65363 0 22 -2.65363 1
gene 1 6 19 0.806966 0 23 0.806966 1
gene 2 7 19 0.560941 0 24 0.560941 1
gene 2 8 19 -0.774614 0 25 -0.774614 1
gene 3 9 19 -2.03851 0 26 -2.03851 1
gene 4 10 19 -1.24062 0 27 -1.24062 1
gene 2 11 19 2.19858 0 28 2.19858 1
gene 3 12 19 0.0400859 0 29 0.0400859 1
gene 2 13 19 2.19412 0 30 2.19412 1
gene 2 14 19 -1.06118 0 31 -1.06118 1
gene 1 15 19 2.90429 0 32 2.90429 1
gene 3 16 19 -2.27805 0 33 -2.27805 1
gene 2 17 19 0 0 34 0 1
gene 1 1 20 -1.6906 0 35 -1.6906 1
gene 3 2 20 -1.37203 0 36 -1.37203 0
gene 4 3 20 -0.206515 0 37 -0.206515 1
gene 2 4 20 -2.73616 0 38 -2.73616 1
gene 2 5 20 -1.43288 0 39 -1.43288 1
gene 3 6 20 1.26861 0 40 1.26861 1
gene 1 7 20 0.0949986 0 41 0.0949986 1
gene 4 8 20 -0.980183 0 42 -0.980183 0
gene 2 9 20 1.93177 0 43 1.93177 1
gene 1 10 20 -0.674346 0 44 -0.674346 1
gene 2 11 20 -1.95213 0 45 -1.95213 1
gene 2 12 20 -0.89592 0 46 -0.89592 1
gene 1 13 20 -2.72066 0 47 -2.72066 1
gene 3 14 20 1.47437 0 48 1.47437 1
gene 4 15 20 1.64682 0 49 1.64682 1
gene 4 16 20 2.45849 0 50 2.45849 1
gene 4 17 20 -0.231661 0 51 -0.231661 1
gene 4 8 42 3.87786 0 101 3.87786 1
gene 4 42 20 2.79325 0 102 2.79325 1
gene 3 18 18 8 1 154 8 1
gene 3 2 80 -2.77949 0 195 -2.77949 1
gene 3 80 20 1.60518 0 196 1.60518 1
genomeend 26

/* Organism #27 Fitness: 100 Error: 0 */

/* Position #27*/
#1 x: 61 y: 24
#2 x: 76 y: 64
#3 x: 17 y: 24
#4 x: 28 y: 39
#5 x: 29 y: 21
#6 x: 74 y: 31
genomestart 27
trait 1 1 0 0 0 0 0 0 0 
trait 2 2 0 0 0 0 0 0 0 
trait 3 3 0 0 0 0 0 0 0 
trait 4 4 0 0 0 0 0 0 0 
node 1 4 1 3
node 2 3 1 1
node 3 2 1 1
node 4 1 1 1
node 5 4 1 1
node 6 2 1 1
node 7 4 1 1
node 8 3 1 1
node 9 2 1 1
node 10 4 1 1
node 11 2 1 1
node 12 1 1 1
node 13 2 1 1
node 14 2 1 1
node 15 1 1 1
node 16 1 1 1
node 17 3 1 1
node 18 1 0 2
node 19 4 0 2
node 20 1 0 2
node 42 1 0 0
gene 3 1 18 -0.00353244 0 1 -0.00353244 1
gene 2 2 18 0 0 2 0 1
gene 3 3 18 0 0 3 0 1
gene 1 4 18 0 0 4 0 1
gene 3 5 18 0 0 5 0 1
gene 1 6 18 0.263895 0 6 0.263895 1
gene 3 7 18 0 0 7 0 1
gene 2 8 8 0 0 8 0 1
gene 1 9 18 0 0 9 0 1
gene 1 10 18 0 0 10 0 1
gene 4 11 18 0 0 11 0 1
gene 3 12 18 0 0 12 0 1
gene 2 13 18 0.210811 0 13 0.210811 1
gene 3 14 18 1.35132 0 14 1.35132 1
gene 1 15 18 0.0959758 0 15 0.0959758 1
gene 3 16 18 0 0 16 0 1
gene 1 17 18 0 0 17 0 1
gene 2 1 19 -0.681753 0 18 -0.681753 1
gene 1 2 19 0 0 19 0 1
gene 3 3 19 -1.17912 0 20 -1.17912 1
gene 1 4 19 2.75587 0 21 2.75587 1
gene 3 5 19 -0.529039 0 22 -0.529039 1
gene 1 6 19 2.73903 0 23 2.73903 1
gene 2 7 19 0 0 24 0 1
gene 2 8 19 0 0 25 0 1
gene 3 9 19 -2.26496 0 26 -2.26496 1
gene 4 10 19 0.351456 0 27 0.351456 1
gene 2 11 19 -2.31627 0 28 -2.31627 1
gene 3 12 19 0 0 29 0 1
gene 2 13 19 2.86162 0 30 2.86162 1
gene 2 14 19 -1.45984 0 31 -1.45984 1
gene 1 15 19 0 0 32 0 1
gene 3 16 19 0 0 33 0 1
gene 2 17 19 0 0 34 0 1
gene 1 1 20 0 0 35 0 1
gene 3 2 20 2.52018 0 36 2.52018 0
gene 4 3 20 0 0 37 0 1
gene 2 4 20 0 0 38 0 1
gene 2 5 20 0 0 39 0 1
gene 3 6 20 -2.54461 0 40 -2.54461 1
gene 1 7 20 0 0 41 0 1
gene 4 8 20 1.09731 0 42 1.09731 0
gene 2 9 20 -1.61016 0 43 -1.61016 1
gene 1 10 20 0.752349 0 44 0.752349 1
gene 2 11 20 1.84565 0 45 1.84565 1
gene 2 12 20 0 0 46 0 1
gene 1 13 20 0 0 47 0 1
gene 3 14 20 0 0 48 0 1
gene 4 15 20 0 0 49 0 1
gene 4 16 20 -0.359251 0 50 -0.359251 1
gene 4 17 20 0 0 51 0 1
gene 4 8 42 1.22199 0 101 1.22199 1
gene 4 42 20 -2.47468 0 102 -2.47468 1
gene 3 18 18 77214 1 154 77214 1
gene 4 6 42 -95063 0 265 -95063 1
genomeend 27

/* Species #10 : (Size 2) (AF 20) (Age 3)  */


/* Organism #28 Fitness: 20 Error: 0 */

/* Position #28*/
#1 x: 20 y: 59
#2 x: 18 y: 31
#3 x: 69 y: 63
#4 x: 72 y: 81
#5 x: 25 y: 42
#6 x: 40 y: 66
genomestart 28
trait 1 1 0 0 0 0 0 0 0 
trait 2 2 0 0 0 0 0 0 0 
trait 3 3 0 0 0 0 0 0 0 
trait 4 4 0 0 0 0 0 0 0 
node 1 2 1 3
node 2 4 1 1
node 3 3 1 1
node 4 2 1 1
node 5 1 1 1
node 6 4 1 1
node 7 4 1 1
node 8 1 1 1
node 9 3 1 1
node 10 2 1 1
node 11 1 1 1
node 12 1 1 1
node 13 1 1 1
node 14 2 1 1
node 15 1 1 1
node 16 4 1 1
node 17 3 1 1
node 18 3 0 2
node 19 2 0 2
node 20 3 0 2
node 49 1 0 0
node 109 1 0 0
gene 2 1 18 -0.117305 0 1 -0.117305 1
gene 2 2 18 -0.55873 0 2 -0.55873 1
gene 2 3 18 0.0653423 0 3 0.0653423 1
gene 1 4 18 -0.398103 0 4 -0.398103 1
gene 3 5 18 -0.255491 0 5 -0.255491 1
gene 1 6 18 -0.062001 0 6 -0.062001 1
gene 3 7 18 0.934754 0 7 0.934754 1
gene 2 8 8 -0.901202 0 8 -0.901202 1
gene 1 9 18 0.159987 0 9 0.159987 1
gene 4 10 18 0.94617 0 10 0.94617 1
gene 2 11 18 0.0160813 0 11 0.0160813 1
gene 3 12 18 0.88961 0 12 0.88961 1
gene 2 13 18 -0.410726 0 13 -0.410726 1
gene 2 14 18 -0.411907 0 14 -0.411907 1
gene 2 15 18 0.376717 0 15 0.376717 1
gene 1 16 18 -0.00755349 0 16 -0.00755349 1
gene 1 17 18 0.420093 0 17 0.420093 1
gene 4 1 19 -0.0301774 0 18 -0.0301774 1
gene 1 2 19 -0.407945 0 19 -0.407945 1
gene 4 3 19 0.213529 0 20 0.213529 1
gene 3 4 19 0.612677 0 21 0.612677 1
gene 2 5 19 0.594065 0 22 0.594065 1
gene 4 6 19 0.950772 0 23 0.950772 1
gene 3 7 19 0.0372822 0 24 0.0372822 0
gene 2 8 19 0.499125 0 25 0.499125 1
gene 2 9 19 0.696972 0 26 0.696972 1
gene 2 10 19 0.794643 0 27 0.794643 1
gene 2 11 19 0.95539 0 28 0.95539 1
gene 1 12 19 -0.538053 0 29 -0.538053 1
gene 2 13 19 0.847535 0 30 0.847535 1
gene 3 14 19 -0.523908 0 31 -0.523908 1
gene 1 15 19 -0.0993939 0 32 -0.0993939 1
gene 4 16 19 0.57227 0 33 0.57227 1
gene 1 17 19 -0.944916 0 34 -0.944916 1
gene 2 1 20 -0.225929 0 35 -0.225929 1
gene 2 2 20 0.891711 0 36 0.891711 1
gene 4 3 20 -0.969779 0 37 -0.969779 1
gene 2 4 20 0.807635 0 38 0.807635 1
gene 4 5 20 -0.553951 0 39 -0.553951 1
gene 4 6 20 0.768766 0 40 0.768766 1
gene 3 7 20 -0.585922 0 41 -0.585922 1
gene 3 8 20 0.83066 0 42 0.83066 1
gene 1 9 20 -0.547516 0 43 -0.547516 0
gene 3 10 20 0.00285885 0 44 0.00285885 0
gene 3 11 20 -0.166185 0 45 -0.166185 1
gene 2 12 20 -0.469972 0 46 -0.469972 1
gene 3 13 20 -0.370552 0 47 -0.370552 1
gene 3 14 20 -0.571864 0 48 -0.571864 1
gene 4 15 20 -0.154047 0 49 -0.154047 1
gene 4 16 20 -0.280247 0 50 -0.280247 1
gene 3 17 20 0.265614 0 51 0.265614 1
gene 2 19 18 -23788 0 76 -23788 1
gene 3 7 49 1 0 117 0 1
gene 3 49 19 0.0372822 0 118 0 1
gene 2 19 19 -57871 1 206 -57871 1
gene 1 9 109 1 0 268 0 1
gene 1 109 20 -0.547516 0 269 0 1
genomeend 28

/* Organism #29 Fitness: 20 Error: 0 */

/* Position #29*/
#1 x: 20 y: 59
#2 x: 18 y: 31
#3 x: 69 y: 63
#4 x: 72 y: 81
#5 x: 25 y: 42
#6 x: 40 y: 66
genomestart 29
trait 1 1 0 0 0 0 0 0 0 
trait 2 2 0 0 0 0 0 0 0 
trait 3 3 0 0 0 0 0 0 0 
trait 4 4 0 0 0 0 0 0 0 
node 1 2 1 3
node 2 4 1 1
node 3 3 1 1
node 4 2 1 1
node 5 1 1 1
node 6 4 1 1
node 7 4 1 1
node 8 1 1 1
node 9 3 1 1
node 10 2 1 1
node 11 1 1 1
node 12 1 1 1
node 13 1 1 1
node 14 2 1 1
node 15 1 1 1
node 16 4 1 1
node 17 3 1 1
node 18 3 0 2
node 19 2 0 2
node 20 3 0 2
node 49 1 0 0
node 110 1 0 0
gene 2 1 18 -0.117305 0 1 -0.117305 1
gene 2 2 18 -0.55873 0 2 -0.55873 1
gene 2 3 18 0.0653423 0 3 0.0653423 1
gene 1 4 18 -0.398103 0 4 -0.398103 1
gene 3 5 18 -0.255491 0 5 -0.255491 1
gene 1 6 18 -0.062001 0 6 -0.062001 1
gene 3 7 18 0.934754 0 7 0.934754 1
gene 2 8 8 -0.901202 0 8 -0.901202 1
gene 1 9 18 0.159987 0 9 0.159987 1
gene 4 10 18 0.94617 0 10 0.94617 1
gene 2 11 18 0.0160813 0 11 0.0160813 1
gene 3 12 18 0.88961 0 12 0.88961 1
gene 2 13 18 -0.410726 0 13 -0.410726 1
gene 2 14 18 -0.411907 0 14 -0.411907 1
gene 2 15 18 0.376717 0 15 0.376717 1
gene 1 16 18 -0.00755349 0 16 -0.00755349 1
gene 1 17 18 0.420093 0 17 0.420093 1
gene 4 1 19 -0.0301774 0 18 -0.0301774 1
gene 1 2 19 -0.407945 0 19 -0.407945 1
gene 4 3 19 0.213529 0 20 0.213529 1
gene 3 4 19 0.612677 0 21 0.612677 1
gene 2 5 19 0.594065 0 22 0.594065 1
gene 4 6 19 0.950772 0 23 0.950772 1
gene 3 7 19 0.0372822 0 24 0.0372822 0
gene 2 8 19 0.499125 0 25 0.499125 1
gene 2 9 19 0.696972 0 26 0.696972 1
gene 2 10 19 0.794643 0 27 0.794643 1
gene 2 11 19 0.95539 0 28 0.95539 1
gene 1 12 19 -0.538053 0 29 -0.538053 1
gene 2 13 19 0.847535 0 30 0.847535 1
gene 3 14 19 -0.523908 0 31 -0.523908 1
gene 1 15 19 -0.0993939 0 32 -0.0993939 1
gene 4 16 19 0.57227 0 33 0.57227 1
gene 1 17 19 -0.944916 0 34 -0.944916 1
gene 2 1 20 -0.225929 0 35 -0.225929 1
gene 2 2 20 0.891711 0 36 0.891711 1
gene 4 3 20 -0.969779 0 37 -0.969779 1
gene 2 4 20 0.807635 0 38 0.807635 1
gene 4 5 20 -0.553951 0 39 -0.553951 1
gene 4 6 20 0.768766 0 40 0.768766 1
gene 3 7 20 -0.585922 0 41 -0.585922 1
gene 3 8 20 0.83066 0 42 0.83066 1
gene 1 9 20 -0.547516 0 43 -0.547516 1
gene 3 10 20 0.00285885 0 44 0.00285885 0
gene 3 11 20 -0.166185 0 45 -0.166185 1
gene 2 12 20 -0.469972 0 46 -0.469972 1
gene 3 13 20 -0.370552 0 47 -0.370552 0
gene 3 14 20 -0.571864 0 48 -0.571864 1
gene 4 15 20 -0.154047 0 49 -0.154047 1
gene 4 16 20 -0.280247 0 50 -0.280247 1
gene 3 17 20 0.265614 0 51 0.265614 1
gene 2 19 18 -23788 0 76 -23788 1
gene 3 7 49 1 0 117 0 1
gene 3 49 19 0.0372822 0 118 0 1
gene 2 19 19 -57871 1 206 -57871 1
gene 3 13 110 1 0 270 0 1
gene 3 110 20 -0.370552 0 271 0 1
genomeend 29

/* Species #11 : (Size 4) (AF 160) (Age 3)  */


/* Organism #30 Fitness: 200 Error: 0 */

/* Position #30*/
#1 x: 73 y: 56
#2 x: 19 y: 43
#3 x: 36 y: 66
#4 x: 72 y: 16
#5 x: 20 y: 65
#6 x: 25 y: 39
genomestart 30
trait 1 1 0 0 0 0 0 0 0 
trait 2 2 0 0 0 0 0 0 0 
trait 3 3 0 0 0 0 0 0 0 
trait 4 4 0 0 0 0 0 0 0 
node 1 1 1 3
node 2 1 1 1
node 3 4 1 1
node 4 4 1 1
node 5 1 1 1
node 6 2 1 1
node 7 3 1 1
node 8 2 1 1
node 9 2 1 1
node 10 1 1 1
node 11 3 1 1
node 12 2 1 1
node 13 4 1 1
node 14 4 1 1
node 15 2 1 1
node 16 1 1 1
node 17 4 1 1
node 18 2 0 2
node 19 1 0 2
node 20 4 0 2
node 52 1 0 0
node 73 1 0 0
node 100 1 0 0
gene 2 1 18 0.302797 0 1 0.302797 1
gene 4 2 18 -0.358214 0 2 -0.358214 1
gene 4 3 18 -0.549832 0 3 -0.549832 1
gene 1 4 18 0 0 4 0 1
gene 1 5 18 0 0 5 0 0
gene 3 6 18 0 0 6 0 1
gene 3 7 18 0 0 7 0 1
gene 2 8 8 0 0 8 0 1
gene 1 9 18 0.385186 0 9 0.385186 1
gene 1 10 18 0 0 10 0 1
gene 4 11 18 0.513992 0 11 0.513992 1
gene 2 12 18 0 0 12 0 1
gene 1 13 18 0.615706 0 13 0.615706 0
gene 3 14 18 0 0 14 0 1
gene 1 15 18 -0.686716 0 15 -0.686716 1
gene 1 16 18 0.90863 0 16 0.90863 1
gene 4 17 18 -0.0972592 0 17 -0.0972592 1
gene 1 1 19 -0.251053 0 18 -0.251053 1
gene 1 2 19 0 0 19 0 1
gene 2 3 19 0.67571 0 20 0.67571 1
gene 4 4 19 -0.323052 0 21 -0.323052 1
gene 2 5 19 -0.264013 0 22 -0.264013 1
gene 4 6 19 0.643997 0 23 0.643997 1
gene 2 7 19 0.821348 0 24 0.821348 1
gene 2 8 19 0.0514961 0 25 0.0514961 1
gene 2 9 19 -0.890852 0 26 -0.890852 1
gene 1 10 19 0 0 27 0 1
gene 4 11 19 0 0 28 0 1
gene 3 12 19 0 0 29 0 1
gene 2 13 19 -0.91348 0 30 -0.91348 1
gene 2 14 19 0 0 31 0 1
gene 2 15 19 0 0 32 0 1
gene 3 16 19 0 0 33 0 1
gene 3 17 19 -0.236419 0 34 -0.236419 1
gene 4 1 20 0.663777 0 35 0.663777 1
gene 3 2 20 0.653779 0 36 0.653779 1
gene 4 3 20 0 0 37 0 1
gene 1 4 20 -0.934365 0 38 -0.934365 1
gene 2 5 20 -0.890417 0 39 -0.890417 1
gene 3 6 20 0 0 40 0 1
gene 3 7 20 -0.503825 0 41 -0.503825 1
gene 4 8 20 0.486098 0 42 0.486098 0
gene 2 9 20 0 0 43 0 1
gene 3 10 20 0.340198 0 44 0.340198 1
gene 2 11 20 -0.669331 0 45 -0.669331 1
gene 3 12 20 -0.841546 0 46 -0.841546 1
gene 3 13 20 0 0 47 0 0
gene 3 14 20 -0.106019 0 48 -0.106019 1
gene 2 15 20 0 0 49 0 1
gene 4 16 20 0 0 50 0 1
gene 4 17 20 -0.0512553 0 51 -0.0512553 1
gene 2 20 18 57849 0 71 57849 1
gene 1 5 52 1 0 127 0 1
gene 1 52 18 0 0 128 0 1
gene 3 13 73 1 0 178 0 1
gene 3 73 20 0 0 179 0 1
gene 1 13 100 1 0 245 0 1
gene 1 100 18 0.615706 0 246 0 1
genomeend 30

/* Organism #31 Fitness: 240 Error: 0 */

/* Position #31*/
#1 x: 73 y: 56
#2 x: 19 y: 43
#3 x: 36 y: 66
#4 x: 72 y: 16
#5 x: 20 y: 65
#6 x: 25 y: 39
genomestart 31
trait 1 1 0 0 0 0 0 0 0 
trait 2 2 0 0 0 0 0 0 0 
trait 3 3 0 0 0 0 0 0 0 
trait 4 4 0 0 0 0 0 0 0 
node 1 1 1 3
node 2 1 1 1
node 3 4 1 1
node 4 4 1 1
node 5 1 1 1
node 6 2 1 1
node 7 3 1 1
node 8 2 1 1
node 9 2 1 1
node 10 1 1 1
node 11 3 1 1
node 12 2 1 1
node 13 4 1 1
node 14 4 1 1
node 15 2 1 1
node 16 1 1 1
node 17 4 1 1
node 18 2 0 2
node 19 1 0 2
node 20 4 0 2
node 52 1 0 0
node 73 1 0 0
node 111 1 0 0
gene 2 1 18 0.302797 0 1 0.302797 1
gene 4 2 18 -0.358214 0 2 -0.358214 1
gene 4 3 18 -0.549832 0 3 -0.549832 1
gene 1 4 18 0 0 4 0 1
gene 1 5 18 0 0 5 0 0
gene 3 6 18 0 0 6 0 1
gene 3 7 18 0 0 7 0 1
gene 2 8 8 0 0 8 0 1
gene 1 9 18 0.385186 0 9 0.385186 1
gene 1 10 18 0 0 10 0 1
gene 4 11 18 0.513992 0 11 0.513992 1
gene 2 12 18 0 0 12 0 1
gene 1 13 18 0.615706 0 13 0.615706 1
gene 3 14 18 0 0 14 0 1
gene 1 15 18 -0.686716 0 15 -0.686716 1
gene 1 16 18 0.90863 0 16 0.90863 1
gene 4 17 18 -0.0972592 0 17 -0.0972592 1
gene 1 1 19 -0.251053 0 18 -0.251053 1
gene 1 2 19 0 0 19 0 1
gene 2 3 19 0.67571 0 20 0.67571 1
gene 4 4 19 -0.323052 0 21 -0.323052 1
gene 2 5 19 -0.264013 0 22 -0.264013 1
gene 4 6 19 0.643997 0 23 0.643997 1
gene 2 7 19 0.821348 0 24 0.821348 1
gene 2 8 19 0.0514961 0 25 0.0514961 1
gene 2 9 19 -0.890852 0 26 -0.890852 1
gene 1 10 19 0 0 27 0 1
gene 4 11 19 0 0 28 0 1
gene 3 12 19 0 0 29 0 1
gene 2 13 19 -0.91348 0 30 -0.91348 1
gene 2 14 19 0 0 31 0 1
gene 2 15 19 0 0 32 0 1
gene 3 16 19 0 0 33 0 1
gene 3 17 19 -0.236419 0 34 -0.236419 1
gene 4 1 20 0.663777 0 35 0.663777 1
gene 3 2 20 0.653779 0 36 0.653779 1
gene 4 3 20 0 0 37 0 1
gene 1 4 20 -0.934365 0 38 -0.934365 1
gene 2 5 20 -0.890417 0 39 -0.890417 1
gene 3 6 20 0 0 40 0 1
gene 3 7 20 -0.503825 0 41 -0.503825 1
gene 4 8 20 0.486098 0 42 0.486098 0
gene 2 9 20 0 0 43 0 1
gene 3 10 20 0.340198 0 44 0.340198 1
gene 2 11 20 -0.669331 0 45 -0.669331 1
gene 3 12 20 -0.841546 0 46 -0.841546 0
gene 3 13 20 0 0 47 0 0
gene 3 14 20 -0.106019 0 48 -0.106019 1
gene 2 15 20 0 0 49 0 1
gene 4 16 20 0 0 50 0 1
gene 4 17 20 -0.0512553 0 51 -0.0512553 1
gene 2 20 18 57849 0 71 57849 1
gene 1 5 52 1 0 127 0 1
gene 1 52 18 0 0 128 0 1
gene 3 13 73 1 0 178 0 1
gene 3 73 20 0 0 179 0 1
gene 3 12 111 1 0 272 0 1
gene 3 111 20 -0.841546 0 273 0 1
genomeend 31

/* Organism #32 Fitness: 180 Error: 0 */

/* Position #32*/
#1 x: 76 y: 33
#2 x: 68 y: 55
#3 x: 47 y: 39
#4 x: 76 y: 22
#5 x: 83 y: 51
#6 x: 60 y: 15
genomestart 32
trait 1 1 0 0 0 0 0 0 0 
trait 2 2 0 0 0 0 0 0 0 
trait 3 3 0 0 0 0 0 0 0 
trait 4 4 0 0 0 0 0 0 0 
node 1 1 1 3
node 2 1 1 1
node 3 4 1 1
node 4 4 1 1
node 5 1 1 1
node 6 2 1 1
node 7 3 1 1
node 8 2 1 1
node 9 2 1 1
node 10 1 1 1
node 11 3 1 1
node 12 2 1 1
node 13 4 1 1
node 14 4 1 1
node 15 2 1 1
node 16 1 1 1
node 17 4 1 1
node 18 2 0 2
node 19 1 0 2
node 20 4 0 2
node 52 1 0 0
node 73 1 0 0
node 112 1 0 0
gene 2 1 18 0.302797 0 1 0.302797 1
gene 4 2 18 -0.358214 0 2 -0.358214 1
gene 4 3 18 -0.549832 0 3 -0.549832 1
gene 1 4 18 0 0 4 0 1
gene 1 5 18 0 0 5 0 0
gene 3 6 18 0 0 6 0 1
gene 3 7 18 0 0 7 0 1
gene 2 8 8 0 0 8 0 1
gene 1 9 18 0.385186 0 9 0.385186 1
gene 1 10 18 0 0 10 0 1
gene 4 11 18 0.513992 0 11 0.513992 1
gene 2 12 18 0 0 12 0 1
gene 1 13 18 0.615706 0 13 0.615706 1
gene 3 14 18 0 0 14 0 1
gene 1 15 18 -0.686716 0 15 -0.686716 1
gene 1 16 18 0.90863 0 16 0.90863 1
gene 4 17 18 -0.0972592 0 17 -0.0972592 1
gene 1 1 19 -0.251053 0 18 -0.251053 1
gene 1 2 19 0 0 19 0 1
gene 2 3 19 0.67571 0 20 0.67571 1
gene 4 4 19 -0.323052 0 21 -0.323052 0
gene 2 5 19 -0.264013 0 22 -0.264013 1
gene 4 6 19 0.643997 0 23 0.643997 1
gene 2 7 19 0.821348 0 24 0.821348 1
gene 2 8 19 0.0514961 0 25 0.0514961 1
gene 2 9 19 -0.890852 0 26 -0.890852 1
gene 1 10 19 0 0 27 0 1
gene 4 11 19 0 0 28 0 1
gene 3 12 19 0 0 29 0 1
gene 2 13 19 -0.91348 0 30 -0.91348 1
gene 2 14 19 0 0 31 0 1
gene 2 15 19 0 0 32 0 1
gene 3 16 19 0 0 33 0 1
gene 3 17 19 -0.236419 0 34 -0.236419 1
gene 4 1 20 0.663777 0 35 0.663777 1
gene 3 2 20 0.653779 0 36 0.653779 1
gene 4 3 20 0 0 37 0 1
gene 1 4 20 -0.934365 0 38 -0.934365 1
gene 2 5 20 -0.890417 0 39 -0.890417 1
gene 3 6 20 0 0 40 0 1
gene 3 7 20 -0.503825 0 41 -0.503825 1
gene 4 8 20 0.486098 0 42 0.486098 0
gene 2 9 20 0 0 43 0 1
gene 3 10 20 0.340198 0 44 0.340198 1
gene 2 11 20 -0.669331 0 45 -0.669331 1
gene 3 12 20 -0.841546 0 46 -0.841546 1
gene 3 13 20 0 0 47 0 0
gene 3 14 20 -0.106019 0 48 -0.106019 1
gene 2 15 20 0 0 49 0 1
gene 4 16 20 0 0 50 0 1
gene 4 17 20 -0.0512553 0 51 -0.0512553 1
gene 2 20 18 57849 0 71 57849 1
gene 1 5 52 1 0 127 0 1
gene 1 52 18 0 0 128 0 1
gene 3 13 73 1 0 178 0 1
gene 3 73 20 0 0 179 0 1
gene 4 4 112 1 0 274 0 1
gene 4 112 19 -0.323052 0 275 0 1
genomeend 32

/* Organism #33 Fitness: 20 Error: 0 */

/* Position #33*/
#1 x: 76 y: 33
#2 x: 68 y: 55
#3 x: 47 y: 39
#4 x: 76 y: 22
#5 x: 83 y: 51
#6 x: 60 y: 15
genomestart 33
trait 1 1 0 0 0 0 0 0 0 
trait 2 2 0 0 0 0 0 0 0 
trait 3 3 0 0 0 0 0 0 0 
trait 4 4 0 0 0 0 0 0 0 
node 1 1 1 3
node 2 1 1 1
node 3 4 1 1
node 4 4 1 1
node 5 1 1 1
node 6 2 1 1
node 7 3 1 1
node 8 2 1 1
node 9 2 1 1
node 10 1 1 1
node 11 3 1 1
node 12 2 1 1
node 13 4 1 1
node 14 4 1 1
node 15 2 1 1
node 16 1 1 1
node 17 4 1 1
node 18 2 0 2
node 19 1 0 2
node 20 4 0 2
node 52 1 0 0
node 73 1 0 0
node 113 1 0 0
gene 2 1 18 0.302797 0 1 0.302797 1
gene 4 2 18 -0.358214 0 2 -0.358214 1
gene 4 3 18 -0.549832 0 3 -0.549832 1
gene 1 4 18 0 0 4 0 1
gene 1 5 18 0 0 5 0 0
gene 3 6 18 0 0 6 0 1
gene 3 7 18 0 0 7 0 1
gene 2 8 8 0 0 8 0 1
gene 1 9 18 0.385186 0 9 0.385186 1
gene 1 10 18 0 0 10 0 1
gene 4 11 18 0.513992 0 11 0.513992 1
gene 2 12 18 0 0 12 0 1
gene 1 13 18 0.615706 0 13 0.615706 1
gene 3 14 18 0 0 14 0 1
gene 1 15 18 -0.686716 0 15 -0.686716 1
gene 1 16 18 0.90863 0 16 0.90863 1
gene 4 17 18 -0.0972592 0 17 -0.0972592 1
gene 1 1 19 -0.251053 0 18 -0.251053 1
gene 1 2 19 0 0 19 0 1
gene 2 3 19 0.67571 0 20 0.67571 1
gene 4 4 19 -0.323052 0 21 -0.323052 1
gene 2 5 19 -0.264013 0 22 -0.264013 1
gene 4 6 19 0.643997 0 23 0.643997 1
gene 2 7 19 0.821348 0 24 0.821348 1
gene 2 8 19 0.0514961 0 25 0.0514961 1
gene 2 9 19 -0.890852 0 26 -0.890852 1
gene 1 10 19 0 0 27 0 1
gene 4 11 19 0 0 28 0 1
gene 3 12 19 0 0 29 0 1
gene 2 13 19 -0.91348 0 30 -0.91348 1
gene 2 14 19 0 0 31 0 1
gene 2 15 19 0 0 32 0 1
gene 3 16 19 0 0 33 0 1
gene 3 17 19 -0.236419 0 34 -0.236419 0
gene 4 1 20 0.663777 0 35 0.663777 1
gene 3 2 20 0.653779 0 36 0.653779 1
gene 4 3 20 0 0 37 0 1
gene 1 4 20 -0.934365 0 38 -0.934365 1
gene 2 5 20 -0.890417 0 39 -0.890417 1
gene 3 6 20 0 0 40 0 1
gene 3 7 20 -0.503825 0 41 -0.503825 1
gene 4 8 20 0.486098 0 42 0.486098 0
gene 2 9 20 0 0 43 0 1
gene 3 10 20 0.340198 0 44 0.340198 1
gene 2 11 20 -0.669331 0 45 -0.669331 1
gene 3 12 20 -0.841546 0 46 -0.841546 1
gene 3 13 20 0 0 47 0 0
gene 3 14 20 -0.106019 0 48 -0.106019 1
gene 2 15 20 0 0 49 0 1
gene 4 16 20 0 0 50 0 1
gene 4 17 20 -0.0512553 0 51 -0.0512553 1
gene 2 20 18 57849 0 71 57849 1
gene 1 5 52 1 0 127 0 1
gene 1 52 18 0 0 128 0 1
gene 3 13 73 1 0 178 0 1
gene 3 73 20 0 0 179 0 1
gene 3 17 113 1 0 276 0 1
gene 3 113 19 -0.236419 0 277 0 1
genomeend 33

/* Species #12 : (Size 7) (AF 74.2857) (Age 3)  */


/* Organism #34 Fitness: 160 Error: 0 */

/* Position #34*/
#1 x: 85 y: 33
#2 x: 74 y: 60
#3 x: 63 y: 40
#4 x: 81 y: 77
#5 x: 30 y: 37
#6 x: 82 y: 16
genomestart 34
trait 1 1 0 0 0 0 0 0 0 
trait 2 2 0 0 0 0 0 0 0 
trait 3 3 0 0 0 0 0 0 0 
trait 4 4 0 0 0 0 0 0 0 
node 1 4 1 3
node 2 4 1 1
node 3 1 1 1
node 4 1 1 1
node 5 1 1 1
node 6 3 1 1
node 7 2 1 1
node 8 4 1 1
node 9 1 1 1
node 10 2 1 1
node 11 4 1 1
node 12 1 1 1
node 13 4 1 1
node 14 4 1 1
node 15 2 1 1
node 16 1 1 1
node 17 1 1 1
node 18 3 0 2
node 19 4 0 2
node 20 4 0 2
node 53 1 0 0
node 72 1 0 0
gene 1 1 18 -0.770891 0 1 -0.770891 1
gene 2 2 18 -0.197183 0 2 -0.197183 1
gene 4 3 18 -0.414338 0 3 -0.414338 1
gene 2 4 18 -0.641862 0 4 -0.641862 1
gene 1 5 18 -0.519 0 5 -0.519 1
gene 4 6 18 -0.787898 0 6 -0.787898 1
gene 2 7 18 -0.179982 0 7 -0.179982 1
gene 3 8 8 0.673111 0 8 0.673111 1
gene 1 9 18 -0.749368 0 9 -0.749368 0
gene 3 10 18 -0.784989 0 10 -0.784989 1
gene 4 11 18 0.25337 0 11 0.25337 1
gene 4 12 18 -0.307518 0 12 -0.307518 1
gene 3 13 18 -0.210781 0 13 -0.210781 1
gene 1 14 18 0.838551 0 14 0.838551 1
gene 4 15 18 -0.0928313 0 15 -0.0928313 1
gene 3 16 18 -0.279436 0 16 -0.279436 1
gene 3 17 18 -0.769879 0 17 -0.769879 1
gene 3 1 19 0.625908 0 18 0.625908 1
gene 4 2 19 0.719818 0 19 0.719818 1
gene 2 3 19 0.473289 0 20 0.473289 1
gene 1 4 19 0.622822 0 21 0.622822 1
gene 2 5 19 0.760497 0 22 0.760497 1
gene 4 6 19 0.697026 0 23 0.697026 1
gene 4 7 19 0.666881 0 24 0.666881 1
gene 3 8 19 -0.488809 0 25 -0.488809 1
gene 4 9 19 0.517546 0 26 0.517546 1
gene 2 10 19 0.0310389 0 27 0.0310389 1
gene 3 11 19 0.541054 0 28 0.541054 1
gene 4 12 19 0.355669 0 29 0.355669 1
gene 2 13 19 0.800168 0 30 0.800168 1
gene 2 14 19 0.043498 0 31 0.043498 1
gene 3 15 19 -0.603204 0 32 -0.603204 1
gene 3 16 19 -0.240985 0 33 -0.240985 1
gene 4 17 19 0.213708 0 34 0.213708 1
gene 2 1 20 0.761529 0 35 0.761529 1
gene 1 2 20 0.0489209 0 36 0.0489209 1
gene 3 3 20 0.13435 0 37 0.13435 1
gene 3 4 20 -0.168953 0 38 -0.168953 1
gene 4 5 20 0.0215158 0 39 0.0215158 1
gene 1 6 20 0.879448 0 40 0.879448 1
gene 3 7 20 0.232404 0 41 0.232404 1
gene 4 8 20 -0.853325 0 42 -0.853325 1
gene 3 9 20 0.100415 0 43 0.100415 1
gene 1 10 20 -0.379107 0 44 -0.379107 1
gene 2 11 20 0.0751387 0 45 0.0751387 1
gene 3 12 20 0.460202 0 46 0.460202 1
gene 1 13 20 -0.560183 0 47 -0.560183 1
gene 2 14 20 0.00362548 0 48 0.00362548 1
gene 1 15 20 0.284189 0 49 0.284189 1
gene 3 16 20 -0.843332 0 50 -0.843332 1
gene 2 17 20 0.119111 0 51 0.119111 1
gene 1 19 20 86131 0 80 0 0
gene 1 19 53 1 0 129 0 1
gene 1 53 20 86131 0 130 0 1
gene 1 9 72 1 0 173 0 1
gene 1 72 18 -0.749368 0 174 0 1
genomeend 34

/* Organism #35 Fitness: 140 Error: 0 */

/* Position #35*/
#1 x: 85 y: 33
#2 x: 74 y: 60
#3 x: 63 y: 40
#4 x: 81 y: 77
#5 x: 30 y: 37
#6 x: 82 y: 16
genomestart 35
trait 1 1 0 0 0 0 0 0 0 
trait 2 2 0 0 0 0 0 0 0 
trait 3 3 0 0 0 0 0 0 0 
trait 4 4 0 0 0 0 0 0 0 
node 1 4 1 3
node 2 4 1 1
node 3 1 1 1
node 4 1 1 1
node 5 1 1 1
node 6 3 1 1
node 7 2 1 1
node 8 4 1 1
node 9 1 1 1
node 10 2 1 1
node 11 4 1 1
node 12 1 1 1
node 13 4 1 1
node 14 4 1 1
node 15 2 1 1
node 16 1 1 1
node 17 1 1 1
node 18 3 0 2
node 19 4 0 2
node 20 4 0 2
node 53 1 0 0
node 72 1 0 0
node 114 1 0 0
gene 1 1 18 -0.770891 0 1 -0.770891 1
gene 2 2 18 -0.197183 0 2 -0.197183 1
gene 4 3 18 -0.414338 0 3 -0.414338 1
gene 2 4 18 -0.641862 0 4 -0.641862 1
gene 1 5 18 -0.519 0 5 -0.519 1
gene 4 6 18 -0.787898 0 6 -0.787898 1
gene 2 7 18 -0.179982 0 7 -0.179982 1
gene 3 8 8 0.673111 0 8 0.673111 1
gene 1 9 18 -0.749368 0 9 -0.749368 0
gene 3 10 18 -0.784989 0 10 -0.784989 1
gene 4 11 18 0.25337 0 11 0.25337 1
gene 4 12 18 -0.307518 0 12 -0.307518 1
gene 3 13 18 -0.210781 0 13 -0.210781 1
gene 1 14 18 0.838551 0 14 0.838551 1
gene 4 15 18 -0.0928313 0 15 -0.0928313 1
gene 3 16 18 -0.279436 0 16 -0.279436 1
gene 3 17 18 -0.769879 0 17 -0.769879 1
gene 3 1 19 0.625908 0 18 0.625908 1
gene 4 2 19 0.719818 0 19 0.719818 1
gene 2 3 19 0.473289 0 20 0.473289 1
gene 1 4 19 0.622822 0 21 0.622822 1
gene 2 5 19 0.760497 0 22 0.760497 1
gene 4 6 19 0.697026 0 23 0.697026 1
gene 4 7 19 0.666881 0 24 0.666881 1
gene 3 8 19 -0.488809 0 25 -0.488809 1
gene 4 9 19 0.517546 0 26 0.517546 1
gene 2 10 19 0.0310389 0 27 0.0310389 1
gene 3 11 19 0.541054 0 28 0.541054 1
gene 4 12 19 0.355669 0 29 0.355669 1
gene 2 13 19 0.800168 0 30 0.800168 1
gene 2 14 19 0.043498 0 31 0.043498 1
gene 3 15 19 -0.603204 0 32 -0.603204 1
gene 3 16 19 -0.240985 0 33 -0.240985 1
gene 4 17 19 0.213708 0 34 0.213708 1
gene 2 1 20 0.761529 0 35 0.761529 1
gene 1 2 20 0.0489209 0 36 0.0489209 1
gene 3 3 20 0.13435 0 37 0.13435 1
gene 3 4 20 -0.168953 0 38 -0.168953 1
gene 4 5 20 0.0215158 0 39 0.0215158 1
gene 1 6 20 0.879448 0 40 0.879448 0
gene 3 7 20 0.232404 0 41 0.232404 1
gene 4 8 20 -0.853325 0 42 -0.853325 1
gene 3 9 20 0.100415 0 43 0.100415 1
gene 1 10 20 -0.379107 0 44 -0.379107 1
gene 2 11 20 0.0751387 0 45 0.0751387 1
gene 3 12 20 0.460202 0 46 0.460202 1
gene 1 13 20 -0.560183 0 47 -0.560183 1
gene 2 14 20 0.00362548 0 48 0.00362548 1
gene 1 15 20 0.284189 0 49 0.284189 1
gene 3 16 20 -0.843332 0 50 -0.843332 1
gene 2 17 20 0.119111 0 51 0.119111 1
gene 1 19 20 86131 0 80 0 0
gene 1 19 53 1 0 129 0 1
gene 1 53 20 86131 0 130 0 1
gene 1 9 72 1 0 173 0 1
gene 1 72 18 -0.749368 0 174 0 1
gene 1 6 114 1 0 278 0 1
gene 1 114 20 0.879448 0 279 0 1
genomeend 35

/* Organism #36 Fitness: 0 Error: 0 */

/* Position #36*/
#1 x: 69 y: 39
#2 x: 32 y: 68
#3 x: 31 y: 23
#4 x: 57 y: 63
#5 x: 83 y: 49
#6 x: 50 y: 35
genomestart 36
trait 1 1 0 0 0 0 0 0 0 
trait 2 2 0 0 0 0 0 0 0 
trait 3 3 0 0 0 0 0 0 0 
trait 4 4 0 0 0 0 0 0 0 
node 1 4 1 3
node 2 4 1 1
node 3 1 1 1
node 4 1 1 1
node 5 1 1 1
node 6 3 1 1
node 7 2 1 1
node 8 4 1 1
node 9 1 1 1
node 10 2 1 1
node 11 4 1 1
node 12 1 1 1
node 13 4 1 1
node 14 4 1 1
node 15 2 1 1
node 16 1 1 1
node 17 1 1 1
node 18 3 0 2
node 19 4 0 2
node 20 4 0 2
node 53 1 0 0
node 72 1 0 0
gene 1 1 18 -0.770891 0 1 -0.770891 1
gene 2 2 18 -0.197183 0 2 -0.197183 1
gene 4 3 18 -0.414338 0 3 -0.414338 1
gene 2 4 18 -0.641862 0 4 -0.641862 1
gene 1 5 18 -0.519 0 5 -0.519 1
gene 4 6 18 -0.787898 0 6 -0.787898 1
gene 2 7 18 -0.179982 0 7 -0.179982 1
gene 3 8 8 0.673111 0 8 0.673111 1
gene 1 9 18 -0.749368 0 9 -0.749368 0
gene 3 10 18 -0.784989 0 10 -0.784989 1
gene 4 11 18 0.25337 0 11 0.25337 1
gene 4 12 18 -0.307518 0 12 -0.307518 1
gene 3 13 18 -0.210781 0 13 -0.210781 1
gene 1 14 18 0.838551 0 14 0.838551 1
gene 4 15 18 -0.0928313 0 15 -0.0928313 1
gene 3 16 18 -0.279436 0 16 -0.279436 1
gene 3 17 18 -0.769879 0 17 -0.769879 1
gene 3 1 19 0.625908 0 18 0.625908 1
gene 4 2 19 0.719818 0 19 0.719818 1
gene 2 3 19 0.473289 0 20 0.473289 1
gene 1 4 19 0.622822 0 21 0.622822 1
gene 2 5 19 0.760497 0 22 0.760497 1
gene 4 6 19 0.697026 0 23 0.697026 1
gene 4 7 19 0.666881 0 24 0.666881 1
gene 3 8 19 -0.488809 0 25 -0.488809 1
gene 4 9 19 0.517546 0 26 0.517546 1
gene 2 10 19 0.0310389 0 27 0.0310389 1
gene 3 11 19 0.541054 0 28 0.541054 1
gene 4 12 19 0.355669 0 29 0.355669 1
gene 2 13 19 0.800168 0 30 0.800168 1
gene 2 14 19 0.043498 0 31 0.043498 1
gene 3 15 19 -0.603204 0 32 -0.603204 1
gene 3 16 19 -0.240985 0 33 -0.240985 1
gene 4 17 19 0.213708 0 34 0.213708 1
gene 2 1 20 0.761529 0 35 0.761529 1
gene 1 2 20 0.0489209 0 36 0.0489209 1
gene 3 3 20 0.13435 0 37 0.13435 1
gene 3 4 20 -0.168953 0 38 -0.168953 1
gene 4 5 20 0.0215158 0 39 0.0215158 1
gene 1 6 20 0.879448 0 40 0.879448 1
gene 3 7 20 0.232404 0 41 0.232404 1
gene 4 8 20 -0.853325 0 42 -0.853325 1
gene 3 9 20 0.100415 0 43 0.100415 1
gene 1 10 20 -0.379107 0 44 -0.379107 1
gene 2 11 20 0.0751387 0 45 0.0751387 1
gene 3 12 20 0.460202 0 46 0.460202 1
gene 1 13 20 -0.560183 0 47 -0.560183 1
gene 2 14 20 0.00362548 0 48 0.00362548 1
gene 1 15 20 0.284189 0 49 0.284189 1
gene 3 16 20 -0.843332 0 50 -0.843332 1
gene 2 17 20 0.119111 0 51 0.119111 1
gene 1 19 20 86131 0 80 0 0
gene 1 19 53 1 0 129 0 1
gene 1 53 20 86131 0 130 0 1
gene 1 9 72 1 0 173 0 1
gene 1 72 18 -0.749368 0 174 0 1
gene 3 18 18 -67781 1 280 -67781 1
genomeend 36

/* Organism #37 Fitness: 100 Error: 0 */

/* Position #37*/
#1 x: 69 y: 39
#2 x: 32 y: 68
#3 x: 31 y: 23
#4 x: 57 y: 63
#5 x: 83 y: 49
#6 x: 50 y: 35
genomestart 37
trait 1 1 0 0 0 0 0 0 0 
trait 2 2 0 0 0 0 0 0 0 
trait 3 3 0 0 0 0 0 0 0 
trait 4 4 0 0 0 0 0 0 0 
node 1 4 1 3
node 2 4 1 1
node 3 1 1 1
node 4 1 1 1
node 5 1 1 1
node 6 3 1 1
node 7 2 1 1
node 8 4 1 1
node 9 1 1 1
node 10 2 1 1
node 11 4 1 1
node 12 1 1 1
node 13 4 1 1
node 14 4 1 1
node 15 2 1 1
node 16 1 1 1
node 17 1 1 1
node 18 3 0 2
node 19 4 0 2
node 20 4 0 2
node 53 1 0 0
node 72 1 0 0
gene 1 1 18 -0.770891 0 1 -0.770891 1
gene 2 2 18 -0.197183 0 2 -0.197183 1
gene 4 3 18 -0.414338 0 3 -0.414338 1
gene 2 4 18 -0.641862 0 4 -0.641862 1
gene 1 5 18 -0.519 0 5 -0.519 1
gene 4 6 18 -0.787898 0 6 -0.787898 1
gene 2 7 18 -0.179982 0 7 -0.179982 1
gene 3 8 8 0.673111 0 8 0.673111 1
gene 1 9 18 -0.749368 0 9 -0.749368 0
gene 3 10 18 -0.784989 0 10 -0.784989 1
gene 4 11 18 0.25337 0 11 0.25337 1
gene 4 12 18 -0.307518 0 12 -0.307518 1
gene 3 13 18 -0.210781 0 13 -0.210781 1
gene 1 14 18 0.838551 0 14 0.838551 1
gene 4 15 18 -0.0928313 0 15 -0.0928313 1
gene 3 16 18 -0.279436 0 16 -0.279436 1
gene 3 17 18 -0.769879 0 17 -0.769879 1
gene 3 1 19 0.625908 0 18 0.625908 1
gene 4 2 19 0.719818 0 19 0.719818 1
gene 2 3 19 0.473289 0 20 0.473289 1
gene 1 4 19 0.622822 0 21 0.622822 1
gene 2 5 19 0.760497 0 22 0.760497 1
gene 4 6 19 0.697026 0 23 0.697026 1
gene 4 7 19 0.666881 0 24 0.666881 1
gene 3 8 19 -0.488809 0 25 -0.488809 1
gene 4 9 19 0.517546 0 26 0.517546 1
gene 2 10 19 0.0310389 0 27 0.0310389 1
gene 3 11 19 0.541054 0 28 0.541054 1
gene 4 12 19 0.355669 0 29 0.355669 1
gene 2 13 19 0.800168 0 30 0.800168 1
gene 2 14 19 0.043498 0 31 0.043498 1
gene 3 15 19 -0.603204 0 32 -0.603204 1
gene 3 16 19 -0.240985 0 33 -0.240985 1
gene 4 17 19 0.213708 0 34 0.213708 1
gene 2 1 20 0.761529 0 35 0.761529 1
gene 1 2 20 0.0489209 0 36 0.0489209 1
gene 3 3 20 0.13435 0 37 0.13435 1
gene 3 4 20 -0.168953 0 38 -0.168953 1
gene 4 5 20 0.0215158 0 39 0.0215158 1
gene 1 6 20 0.879448 0 40 0.879448 1
gene 3 7 20 0.232404 0 41 0.232404 1
gene 4 8 20 -0.853325 0 42 -0.853325 1
gene 3 9 20 0.100415 0 43 0.100415 1
gene 1 10 20 -0.379107 0 44 -0.379107 1
gene 2 11 20 0.0751387 0 45 0.0751387 1
gene 3 12 20 0.460202 0 46 0.460202 1
gene 1 13 20 -0.560183 0 47 -0.560183 1
gene 2 14 20 0.00362548 0 48 0.00362548 1
gene 1 15 20 0.284189 0 49 0.284189 1
gene 3 16 20 -0.843332 0 50 -0.843332 1
gene 2 17 20 0.119111 0 51 0.119111 1
gene 1 19 20 86131 0 80 0 0
gene 1 19 53 1 0 129 0 1
gene 1 53 20 86131 0 130 0 1
gene 1 9 72 1 0 173 0 1
gene 1 72 18 -0.749368 0 174 0 1
gene 1 14 53 5626 0 281 5626 1
genomeend 37

/* Organism #38 Fitness: 20 Error: 0 */

/* Position #38*/
#1 x: 16 y: 45
#2 x: 64 y: 29
#3 x: 71 y: 26
#4 x: 72 y: 46
#5 x: 25 y: 55
#6 x: 39 y: 73
genomestart 38
trait 1 1 0 0 0 0 0 0 0 
trait 2 2 0 0 0 0 0 0 0 
trait 3 3 0 0 0 0 0 0 0 
trait 4 4 0 0 0 0 0 0 0 
node 1 4 1 3
node 2 4 1 1
node 3 1 1 1
node 4 1 1 1
node 5 1 1 1
node 6 3 1 1
node 7 2 1 1
node 8 4 1 1
node 9 1 1 1
node 10 2 1 1
node 11 4 1 1
node 12 1 1 1
node 13 4 1 1
node 14 4 1 1
node 15 2 1 1
node 16 1 1 1
node 17 1 1 1
node 18 3 0 2
node 19 4 0 2
node 20 4 0 2
node 53 1 0 0
node 72 1 0 0
gene 1 1 18 -0.770891 0 1 -0.770891 1
gene 2 2 18 -0.197183 0 2 -0.197183 1
gene 4 3 18 -0.414338 0 3 -0.414338 1
gene 2 4 18 -0.641862 0 4 -0.641862 1
gene 1 5 18 -0.519 0 5 -0.519 1
gene 4 6 18 -0.787898 0 6 -0.787898 1
gene 2 7 18 -0.179982 0 7 -0.179982 1
gene 3 8 8 0.673111 0 8 0.673111 1
gene 1 9 18 -0.749368 0 9 -0.749368 0
gene 3 10 18 -0.784989 0 10 -0.784989 1
gene 4 11 18 0.25337 0 11 0.25337 1
gene 4 12 18 -0.307518 0 12 -0.307518 1
gene 3 13 18 -0.210781 0 13 -0.210781 1
gene 1 14 18 0.838551 0 14 0.838551 1
gene 4 15 18 -0.0928313 0 15 -0.0928313 1
gene 3 16 18 -0.279436 0 16 -0.279436 1
gene 3 17 18 -0.769879 0 17 -0.769879 1
gene 3 1 19 0.625908 0 18 0.625908 1
gene 4 2 19 0.719818 0 19 0.719818 1
gene 2 3 19 0.473289 0 20 0.473289 1
gene 1 4 19 0.622822 0 21 0.622822 1
gene 2 5 19 0.760497 0 22 0.760497 1
gene 4 6 19 0.697026 0 23 0.697026 1
gene 4 7 19 0.666881 0 24 0.666881 1
gene 3 8 19 -0.488809 0 25 -0.488809 1
gene 4 9 19 0.517546 0 26 0.517546 1
gene 2 10 19 0.0310389 0 27 0.0310389 1
gene 3 11 19 0.541054 0 28 0.541054 1
gene 4 12 19 0.355669 0 29 0.355669 1
gene 2 13 19 0.800168 0 30 0.800168 1
gene 2 14 19 0.043498 0 31 0.043498 1
gene 3 15 19 -0.603204 0 32 -0.603204 1
gene 3 16 19 -0.240985 0 33 -0.240985 1
gene 4 17 19 0.213708 0 34 0.213708 1
gene 2 1 20 0.761529 0 35 0.761529 1
gene 1 2 20 0.0489209 0 36 0.0489209 1
gene 3 3 20 0.13435 0 37 0.13435 1
gene 3 4 20 -0.168953 0 38 -0.168953 1
gene 4 5 20 0.0215158 0 39 0.0215158 1
gene 1 6 20 0.879448 0 40 0.879448 1
gene 3 7 20 0.232404 0 41 0.232404 1
gene 4 8 20 -0.853325 0 42 -0.853325 1
gene 3 9 20 0.100415 0 43 0.100415 1
gene 1 10 20 -0.379107 0 44 -0.379107 1
gene 2 11 20 0.0751387 0 45 0.0751387 1
gene 3 12 20 0.460202 0 46 0.460202 1
gene 1 13 20 -0.560183 0 47 -0.560183 1
gene 2 14 20 0.00362548 0 48 0.00362548 1
gene 1 15 20 0.284189 0 49 0.284189 1
gene 3 16 20 -0.843332 0 50 -0.843332 1
gene 2 17 20 0.119111 0 51 0.119111 1
gene 1 19 20 86131 0 80 0 0
gene 1 19 53 1 0 129 0 1
gene 1 53 20 86131 0 130 0 1
gene 1 9 72 1 0 173 0 1
gene 1 72 18 -0.749368 0 174 0 1
gene 3 12 53 -6083 0 282 -6083 1
genomeend 38

/* Organism #39 Fitness: 20 Error: 0 */

/* Position #39*/
#1 x: 16 y: 45
#2 x: 64 y: 29
#3 x: 71 y: 26
#4 x: 72 y: 46
#5 x: 25 y: 55
#6 x: 39 y: 73
genomestart 39
trait 1 1 0 0 0 0 0 0 0 
trait 2 2 0 0 0 0 0 0 0 
trait 3 3 0 0 0 0 0 0 0 
trait 4 4 0 0 0 0 0 0 0 
node 1 4 1 3
node 2 4 1 1
node 3 1 1 1
node 4 1 1 1
node 5 1 1 1
node 6 3 1 1
node 7 2 1 1
node 8 4 1 1
node 9 1 1 1
node 10 2 1 1
node 11 4 1 1
node 12 1 1 1
node 13 4 1 1
node 14 4 1 1
node 15 2 1 1
node 16 1 1 1
node 17 1 1 1
node 18 3 0 2
node 19 4 0 2
node 20 4 0 2
node 53 1 0 0
node 72 1 0 0
node 115 1 0 0
gene 1 1 18 -0.770891 0 1 -0.770891 1
gene 2 2 18 -0.197183 0 2 -0.197183 1
gene 4 3 18 -0.414338 0 3 -0.414338 1
gene 2 4 18 -0.641862 0 4 -0.641862 1
gene 1 5 18 -0.519 0 5 -0.519 1
gene 4 6 18 -0.787898 0 6 -0.787898 1
gene 2 7 18 -0.179982 0 7 -0.179982 1
gene 3 8 8 0.673111 0 8 0.673111 1
gene 1 9 18 -0.749368 0 9 -0.749368 0
gene 3 10 18 -0.784989 0 10 -0.784989 1
gene 4 11 18 0.25337 0 11 0.25337 1
gene 4 12 18 -0.307518 0 12 -0.307518 1
gene 3 13 18 -0.210781 0 13 -0.210781 1
gene 1 14 18 0.838551 0 14 0.838551 1
gene 4 15 18 -0.0928313 0 15 -0.0928313 1
gene 3 16 18 -0.279436 0 16 -0.279436 1
gene 3 17 18 -0.769879 0 17 -0.769879 1
gene 3 1 19 0.625908 0 18 0.625908 1
gene 4 2 19 0.719818 0 19 0.719818 1
gene 2 3 19 0.473289 0 20 0.473289 1
gene 1 4 19 0.622822 0 21 0.622822 1
gene 2 5 19 0.760497 0 22 0.760497 1
