/* Organism #0 Fitness: 340.000000 Time: 0 */
/* Position #0*/
#1 x: 67 y: 30
#2 x: 62 y: 40
#3 x: 24 y: 40
#4 x: 80 y: 62
#5 x: 15 y: 67
#6 x: 65 y: 60
genomestart 0
node 1 1 1 3
node 2 4 1 1
node 3 4 1 1
node 4 1 1 1
node 5 4 1 1
node 6 4 1 1
node 7 4 1 1
node 8 3 1 1
node 9 4 1 1
node 10 4 1 1
node 11 3 1 1
node 12 2 1 1
node 13 4 0 2
node 14 3 0 2
node 15 3 0 2
gene 4 1 13 -237435 0 1 -237435 1
gene 1 2 13 -463222 0 2 -463222 1
gene 4 3 13 -800000 0 3 -800000 1
gene 3 4 13 178754 0 4 178754 1
gene 3 5 13 233629 0 5 233629 1
gene 1 6 13 -505426 0 6 -505426 1
gene 2 7 13 556685 0 7 556685 1
gene 1 8 13 -800000 0 8 -800000 1
gene 1 9 13 -718463 0 9 -718463 1
gene 1 10 13 -511466 0 10 -511466 1
gene 4 11 13 214937 0 11 214937 1
gene 1 12 13 313833 0 12 313833 1
gene 2 1 14 -687441 0 13 -687441 1
gene 1 2 14 -224952 0 14 -224952 1
gene 2 3 14 -800000 0 15 -800000 1
gene 1 4 14 288510 0 16 288510 1
gene 4 5 14 -263544 0 17 -263544 1
gene 3 6 14 -560876 0 18 -560876 1
gene 1 7 14 569098 0 19 569098 1
gene 4 8 14 -638181 0 20 -638181 1
gene 4 9 14 530972 0 21 530972 1
gene 3 10 14 178968 0 22 178968 1
gene 3 11 14 -220597 0 23 -220597 1
gene 4 12 14 634388 0 24 634388 1
gene 3 1 15 -707447 0 25 -707447 1
gene 2 2 15 -126584 0 26 -126584 1
gene 3 3 15 -596333 0 27 -596333 1
gene 4 4 15 81315 0 28 81315 1
gene 1 5 15 -336749 0 29 -336749 1
gene 2 6 15 -542496 0 30 -542496 1
gene 4 7 15 -5304 0 31 -5304 1
gene 3 8 15 571803 0 32 571803 1
gene 2 9 15 -167451 0 33 -167451 1
gene 4 10 15 -43656 0 34 -43656 1
gene 4 11 15 170532 0 35 170532 1
gene 4 12 15 -391374 0 36 -391374 1
gene 2 15 15 -231396 1 85 -231396 1
gene 1 15 13 287349 0 110 287349 1
gene 3 13 14 321152 0 122 321152 1
genomeend 0


/* Organism #16 Fitness: 440.000000 Time: 0 */
/* Position #16*/
#1 x: 52 y: 21
#2 x: 73 y: 38
#3 x: 78 y: 17
#4 x: 61 y: 68
#5 x: 59 y: 73
#6 x: 51 y: 60
genomestart 16
node 1 3 1 3
node 2 1 1 1
node 3 2 1 1
node 4 2 1 1
node 5 3 1 1
node 6 1 1 1
node 7 3 1 1
node 8 3 1 1
node 9 2 1 1
node 10 2 1 1
node 11 4 1 1
node 12 1 1 1
node 13 4 0 2
node 14 1 0 2
node 15 1 0 2
gene 3 1 13 -343164 0 1 -343164 1
gene 2 2 13 -791174 0 2 -791174 1
gene 1 3 13 453387 0 3 453387 1
gene 1 4 13 -38040 0 4 -38040 1
gene 4 5 13 391041 0 5 391041 1
gene 3 6 13 -749262 0 6 -749262 1
gene 1 7 13 -3651 0 7 -3651 1
gene 1 8 13 -48000 0 8 -48000 1
gene 3 9 13 774144 0 9 774144 1
gene 2 10 13 -609498 0 10 -609498 1
gene 1 11 13 155406 0 11 155406 1
gene 1 12 13 455616 0 12 455616 1
gene 1 1 14 621144 0 13 621144 1
gene 4 2 14 187134 0 14 187134 1
gene 4 3 14 123399 0 15 123399 1
gene 4 4 14 -295862 0 16 -295862 1
gene 1 5 14 800000 0 17 800000 1
gene 4 6 14 38224 0 18 38224 1
gene 2 7 14 -389379 0 19 -389379 1
gene 2 8 14 800000 0 20 800000 1
gene 4 9 14 89982 0 21 89982 1
gene 1 10 14 281637 0 22 281637 1
gene 4 11 14 -119196 0 23 -119196 1
gene 4 12 14 336981 0 24 336981 1
gene 3 1 15 -341776 0 25 -341776 1
gene 2 2 15 671543 0 26 671543 1
gene 4 3 15 -437184 0 27 -437184 1
gene 4 4 15 532527 0 28 532527 1
gene 2 5 15 -440073 0 29 -440073 1
gene 2 6 15 -283149 0 30 -283149 1
gene 3 7 15 -123222 0 31 -123222 1
gene 4 8 15 156852 0 32 156852 1
gene 3 9 15 -20700 0 33 -20700 1
gene 3 10 15 451650 0 34 451650 1
gene 3 11 15 -108672 0 35 -108672 1
gene 2 12 15 -169275 0 36 -169275 1
gene 1 14 15 336201 0 62 336201 1
genomeend 16


/* Organism #17 Fitness: 320.000000 Time: 0 */
/* Position #17*/
#1 x: 52 y: 21
#2 x: 73 y: 38
#3 x: 78 y: 17
#4 x: 61 y: 68
#5 x: 59 y: 73
#6 x: 51 y: 60
genomestart 17
node 1 3 1 3
node 2 1 1 1
node 3 2 1 1
node 4 2 1 1
node 5 3 1 1
node 6 1 1 1
node 7 3 1 1
node 8 3 1 1
node 9 2 1 1
node 10 2 1 1
node 11 4 1 1
node 12 1 1 1
node 13 4 0 2
node 14 1 0 2
node 15 3 0 2
gene 3 1 13 -396723 0 1 -396723 1
gene 2 2 13 69051 0 2 69051 1
gene 1 3 13 -507963 0 3 -507963 1
gene 4 4 13 113041 0 4 113041 1
gene 4 5 13 -788490 0 5 -788490 1
gene 3 6 13 -465533 0 6 -465533 1
gene 1 7 13 483279 0 7 483279 1
gene 1 8 13 357906 0 8 357906 1
gene 3 9 13 48588 0 9 48588 1
gene 2 10 13 -800000 0 10 -800000 1
gene 1 11 13 -58731 0 11 -58731 1
gene 2 12 13 -800000 0 12 -800000 1
gene 1 1 14 -131886 0 13 -131886 1
gene 4 2 14 -158577 0 14 -158577 1
gene 4 3 14 -252147 0 15 -252147 1
gene 4 4 14 -310530 0 16 -310530 1
gene 2 5 14 384003 0 17 384003 1
gene 4 6 14 -104937 0 18 -104937 1
gene 2 7 14 -251829 0 19 -251829 1
gene 2 8 14 -94530 0 20 -94530 1
gene 4 9 14 -425199 0 21 -425199 1
gene 2 10 14 -232689 0 22 -232689 1
gene 4 11 14 188571 0 23 188571 1
gene 3 12 14 524787 0 24 524787 1
gene 3 1 15 104280 0 25 104280 1
gene 2 2 15 -730367 0 26 -730367 1
gene 4 3 15 212595 0 27 212595 1
gene 4 4 15 219585 0 28 219585 1
gene 2 5 15 497490 0 29 497490 1
gene 2 6 15 -595652 0 30 -595652 1
gene 3 7 15 -679563 0 31 -679563 1
gene 3 8 15 390228 0 32 390228 1
gene 4 9 15 7974 0 33 7974 1
gene 3 10 15 84024 0 34 84024 1
gene 2 11 15 66422 0 35 66422 1
gene 3 12 15 -79041 0 36 -79041 1
gene 3 15 14 202527 0 54 202527 1
gene 4 13 15 205526 0 109 205526 1
gene 4 13 14 -47347 0 135 -47347 1
genomeend 17


/* Organism #32 Fitness: 380.000000 Time: 0 */
/* Position #32*/
#1 x: 47 y: 18
#2 x: 78 y: 24
#3 x: 35 y: 38
#4 x: 68 y: 68
#5 x: 51 y: 74
#6 x: 36 y: 72
genomestart 32
node 1 1 1 3
node 2 4 1 1
node 3 4 1 1
node 4 1 1 1
node 5 4 1 1
node 6 4 1 1
node 7 3 1 1
node 8 3 1 1
node 9 4 1 1
node 10 3 1 1
node 11 3 1 1
node 12 2 1 1
node 13 4 0 2
node 14 3 0 2
node 15 4 0 2
gene 4 1 13 653139 0 1 653139 1
gene 1 2 13 -218481 0 2 -218481 1
gene 4 3 13 -259599 0 3 -259599 1
gene 3 4 13 326181 0 4 326181 1
gene 3 5 13 102072 0 5 102072 1
gene 2 6 13 -576584 0 6 -576584 1
gene 2 7 13 451052 0 7 451052 1
gene 1 8 13 -74973 0 8 -74973 1
gene 1 9 13 -517335 0 9 -517335 1
gene 1 10 13 -569627 0 10 -569627 1
gene 4 11 13 8757 0 11 8757 1
gene 1 12 13 -27777 0 12 -27777 1
gene 2 1 14 -326727 0 13 -326727 1
gene 3 2 14 -526623 0 14 -526623 1
gene 2 3 14 92721 0 15 92721 1
gene 1 4 14 -273048 0 16 -273048 1
gene 4 5 14 428277 0 17 428277 1
gene 3 6 14 800000 0 18 800000 1
gene 1 7 14 800000 0 19 800000 1
gene 4 8 14 -451373 0 20 -451373 1
gene 4 9 14 -677561 0 21 -677561 1
gene 3 10 14 -292748 0 22 -292748 1
gene 3 11 14 -340917 0 23 -340917 1
gene 4 12 14 800000 0 24 800000 1
gene 3 1 15 -666053 0 25 -666053 1
gene 2 2 15 68475 0 26 68475 1
gene 3 3 15 26743 0 27 26743 1
gene 3 4 15 316086 0 28 316086 1
gene 2 5 15 -282876 0 29 -282876 1
gene 2 6 15 227556 0 30 227556 1
gene 4 7 15 287826 0 31 287826 1
gene 3 8 15 -118764 0 32 -118764 1
gene 2 9 15 8229 0 33 8229 1
gene 4 10 15 157131 0 34 157131 1
gene 4 11 15 -214014 0 35 -214014 1
gene 4 12 15 189486 0 36 189486 1
gene 4 13 14 -29838 0 71 -29838 1
gene 2 14 15 87564 0 84 87564 1
gene 4 13 15 70890 0 129 0 1
genomeend 32


/* Organism #45 Fitness: 280.000000 Time: 0 */
/* Position #45*/
#1 x: 33 y: 17
#2 x: 58 y: 34
#3 x: 55 y: 16
#4 x: 18 y: 61
#5 x: 42 y: 65
#6 x: 78 y: 74
genomestart 45
node 1 4 1 3
node 2 3 1 1
node 3 4 1 1
node 4 3 1 1
node 5 4 1 1
node 6 3 1 1
node 7 4 1 1
node 8 1 1 1
node 9 3 1 1
node 10 2 1 1
node 11 4 1 1
node 12 2 1 1
node 13 3 0 2
node 14 3 0 2
node 15 1 0 2
gene 1 1 13 -339192 0 1 -339192 1
gene 3 2 13 -797021 0 2 -797021 1
gene 3 3 13 -140520 0 3 -140520 1
gene 1 4 13 140049 0 4 140049 1
gene 1 5 13 119016 0 5 119016 1
gene 1 6 13 590768 0 6 590768 1
gene 2 7 13 492558 0 7 492558 1
gene 1 8 13 101487 0 8 101487 1
gene 3 9 13 514175 0 9 514175 1
gene 3 10 13 -30279 0 10 -30279 1
gene 1 11 13 -77055 0 11 -77055 1
gene 4 12 13 -679179 0 12 -679179 1
gene 2 1 14 273612 0 13 273612 1
gene 1 2 14 25752 0 14 25752 1
gene 1 3 14 -169962 0 15 -169962 1
gene 2 4 14 -61137 0 16 -61137 1
gene 1 5 14 -560682 0 17 -560682 1
gene 1 6 14 -5559 0 18 -5559 1
gene 4 7 14 -181109 0 19 -181109 1
gene 3 8 14 179874 0 20 179874 1
gene 2 9 14 81934 0 21 81934 1
gene 1 10 14 800000 0 22 800000 1
gene 4 11 14 256485 0 23 256485 1
gene 1 12 14 242448 0 24 242448 1
gene 2 1 15 -156138 0 25 -156138 1
gene 3 2 15 59565 0 26 59565 1
gene 2 3 15 -332211 0 27 -332211 1
gene 3 4 15 405735 0 28 405735 1
gene 4 5 15 413115 0 29 413115 1
gene 1 6 15 -362985 0 30 -362985 1
gene 2 7 15 73404 0 31 73404 1
gene 3 8 15 -800000 0 32 -800000 1
gene 3 9 15 -96975 0 33 -96975 1
gene 3 10 15 33204 0 34 33204 1
gene 1 11 15 -53709 0 35 -53709 1
gene 3 12 15 -433836 0 36 -433836 1
genomeend 45


/* Organism #46 Fitness: 360.000000 Time: 0 */
/* Position #46*/
#1 x: 31 y: 21
#2 x: 16 y: 15
#3 x: 25 y: 24
#4 x: 82 y: 79
#5 x: 34 y: 70
#6 x: 49 y: 70
genomestart 46
node 1 1 1 3
node 2 4 1 1
node 3 4 1 1
node 4 1 1 1
node 5 4 1 1
node 6 4 1 1
node 7 3 1 1
node 8 3 1 1
node 9 4 1 1
node 10 3 1 1
node 11 3 1 1
node 12 2 1 1
node 13 4 0 2
node 14 3 0 2
node 15 4 0 2
gene 4 1 13 -66180 0 1 -66180 1
gene 1 2 13 -210024 0 2 -210024 1
gene 4 3 13 -558306 0 3 -558306 1
gene 3 4 13 554766 0 4 554766 1
gene 3 5 13 253950 0 5 253950 1
gene 2 6 13 -488327 0 6 -488327 1
gene 2 7 13 219432 0 7 219432 1
gene 1 8 13 -294864 0 8 -294864 1
gene 1 9 13 123735 0 9 123735 1
gene 1 10 13 -466097 0 10 -466097 1
gene 4 11 13 120546 0 11 120546 1
gene 1 12 13 -262770 0 12 -262770 1
gene 2 1 14 149715 0 13 149715 1
gene 3 2 14 -526623 0 14 -526623 1
gene 2 3 14 -271614 0 15 -271614 1
gene 1 4 14 749142 0 16 749142 1
gene 4 5 14 469977 0 17 469977 1
gene 3 6 14 800000 0 18 800000 1
gene 1 7 14 800000 0 19 800000 1
gene 4 8 14 -256637 0 20 -256637 1
gene 4 9 14 -184044 0 21 -184044 1
gene 3 10 14 -503081 0 22 -503081 1
gene 3 11 14 -78198 0 23 -78198 1
gene 4 12 14 800000 0 24 800000 1
gene 3 1 15 215298 0 25 215298 1
gene 2 2 15 -88343 0 26 -88343 1
gene 3 3 15 17881 0 27 17881 1
gene 3 4 15 65730 0 28 65730 1
gene 2 5 15 -223482 0 29 -223482 1
gene 2 6 15 -80973 0 30 -80973 1
gene 4 7 15 -433986 0 31 -433986 1
gene 3 8 15 -347784 0 32 -347784 1
gene 2 9 15 8553 0 33 8553 1
gene 4 10 15 657192 0 34 657192 1
gene 4 11 15 -562620 0 35 -562620 1
gene 4 12 15 -54042 0 36 -54042 1
gene 4 13 14 9903 0 71 9903 1
gene 2 14 15 489054 0 84 489054 1
genomeend 46


/* Organism #48 Fitness: 280.000000 Time: 0 */
/* Position #48*/
#1 x: 30 y: 19
#2 x: 19 y: 37
#3 x: 46 y: 19
#4 x: 58 y: 79
#5 x: 69 y: 63
#6 x: 18 y: 70
genomestart 48
node 1 2 1 3
node 2 4 1 1
node 3 4 1 1
node 4 1 1 1
node 5 4 1 1
node 6 4 1 1
node 7 3 1 1
node 8 3 1 1
node 9 4 1 1
node 10 3 1 1
node 11 3 1 1
node 12 2 1 1
node 13 4 0 2
node 14 3 0 2
node 15 4 0 2
gene 4 1 13 -5348 0 1 -5348 1
gene 1 2 13 -108300 0 2 -108300 1
gene 4 3 13 -2541 0 3 -2541 1
gene 3 4 13 -30831 0 4 -30831 1
gene 3 5 13 -226827 0 5 -226827 1
gene 2 6 13 -312684 0 6 -312684 1
gene 2 7 13 298532 0 7 298532 1
gene 1 8 13 491085 0 8 491085 1
gene 1 9 13 268260 0 9 268260 1
gene 1 10 13 204741 0 10 204741 1
gene 4 11 13 83775 0 11 83775 1
gene 1 12 13 800000 0 12 800000 1
gene 2 1 14 721896 0 13 721896 1
gene 3 2 14 -556551 0 14 -556551 1
gene 2 3 14 30636 0 15 30636 1
gene 1 4 14 135615 0 16 135615 1
gene 4 5 14 97194 0 17 97194 1
gene 3 6 14 -572175 0 18 -572175 1
gene 1 7 14 -669354 0 19 -669354 1
gene 4 8 14 -400062 0 20 -400062 1
gene 4 9 14 -340463 0 21 -340463 1
gene 3 10 14 -39591 0 22 -39591 1
gene 3 11 14 -523301 0 23 -523301 1
gene 4 12 14 800000 0 24 800000 1
gene 3 1 15 192753 0 25 192753 1
gene 2 2 15 210066 0 26 210066 1
gene 3 3 15 -195860 0 27 -195860 1
gene 4 4 15 -83913 0 28 -83913 1
gene 2 5 15 -181857 0 29 -181857 1
gene 2 6 15 765924 0 30 765924 1
gene 4 7 15 -668049 0 31 -668049 1
gene 3 8 15 -205848 0 32 -205848 1
gene 2 9 15 694764 0 33 694764 1
gene 4 10 15 663135 0 34 663135 1
gene 4 11 15 76422 0 35 76422 1
gene 4 12 15 44373 0 36 44373 1
gene 4 13 14 -449058 0 71 -449058 1
gene 2 14 15 -3075 0 84 -3075 1
gene 1 13 15 -196521 0 112 -196521 1
genomeend 48


/* Organism #50 Fitness: 320.000000 Time: 0 */
/* Position #50*/
#1 x: 57 y: 31
#2 x: 56 y: 19
#3 x: 77 y: 33
#4 x: 52 y: 62
#5 x: 67 y: 64
#6 x: 20 y: 69
genomestart 50
node 1 1 1 3
node 2 4 1 1
node 3 4 1 1
node 4 1 1 1
node 5 4 1 1
node 6 4 1 1
node 7 3 1 1
node 8 3 1 1
node 9 4 1 1
node 10 3 1 1
node 11 3 1 1
node 12 2 1 1
node 13 4 0 2
node 14 3 0 2
node 15 4 0 2
gene 4 1 13 1362 0 1 1362 1
gene 1 2 13 -324981 0 2 -324981 1
gene 4 3 13 143310 0 3 143310 1
gene 3 4 13 800000 0 4 800000 1
gene 3 5 13 582807 0 5 582807 1
gene 2 6 13 -800000 0 6 -800000 1
gene 2 7 13 65493 0 7 65493 1
gene 1 8 13 87030 0 8 87030 1
gene 1 9 13 -331224 0 9 -331224 1
gene 1 10 13 -33498 0 10 -33498 1
gene 4 11 13 283746 0 11 283746 1
gene 1 12 13 372981 0 12 372981 1
gene 2 1 14 -7407 0 13 -7407 1
gene 3 2 14 31116 0 14 31116 1
gene 2 3 14 174255 0 15 174255 1
gene 1 4 14 447852 0 16 447852 1
gene 4 5 14 -406347 0 17 -406347 1
gene 3 6 14 720641 0 18 720641 1
gene 2 7 14 90882 0 19 90882 1
gene 4 8 14 619247 0 20 619247 1
gene 4 9 14 478020 0 21 478020 1
gene 3 10 14 585766 0 22 585766 1
gene 3 11 14 -794406 0 23 -794406 1
gene 4 12 14 442116 0 24 442116 1
gene 3 1 15 -333387 0 25 -333387 1
gene 2 2 15 -25638 0 26 -25638 1
gene 3 3 15 25098 0 27 25098 1
gene 4 4 15 42417 0 28 42417 1
gene 2 5 15 267282 0 29 267282 1
gene 2 6 15 22872 0 30 22872 1
gene 4 7 15 350997 0 31 350997 1
gene 3 8 15 -45336 0 32 -45336 1
gene 2 9 15 -297933 0 33 -297933 1
gene 4 10 15 140022 0 34 140022 1
gene 4 11 15 -272301 0 35 -272301 1
gene 4 12 15 184194 0 36 184194 1
gene 4 13 14 -800000 0 71 -800000 1
gene 2 14 15 201879 0 84 201879 1
gene 1 14 14 -213561 1 120 -213561 1
genomeend 50


/* Organism #62 Fitness: 340.000000 Time: 0 */
/* Position #62*/
#1 x: 83 y: 28
#2 x: 44 y: 26
#3 x: 26 y: 25
#4 x: 26 y: 74
#5 x: 21 y: 62
#6 x: 26 y: 69
genomestart 62
node 1 3 1 3
node 2 1 1 1
node 3 2 1 1
node 4 2 1 1
node 5 3 1 1
node 6 1 1 1
node 7 3 1 1
node 8 3 1 1
node 9 2 1 1
node 10 2 1 1
node 11 4 1 1
node 12 1 1 1
node 13 4 0 2
node 14 1 0 2
node 15 1 0 2
gene 2 1 13 800000 0 1 800000 1
gene 1 2 13 303876 0 2 303876 1
gene 1 3 13 -278694 0 3 -278694 1
gene 4 4 13 398752 0 4 398752 1
gene 4 5 13 255318 0 5 255318 1
gene 3 6 13 99213 0 6 99213 1
gene 1 7 13 -279031 0 7 -279031 1
gene 1 8 13 337458 0 8 337458 1
gene 3 9 13 358437 0 9 358437 1
gene 2 10 13 -524303 0 10 -524303 1
gene 1 11 13 184197 0 11 184197 1
gene 2 12 13 -302700 0 12 -302700 1
gene 1 1 14 458691 0 13 458691 1
gene 4 2 14 72714 0 14 72714 1
gene 4 3 14 -93903 0 15 -93903 1
gene 4 4 14 -411995 0 16 -411995 1
gene 2 5 14 -552714 0 17 -552714 1
gene 4 6 14 532413 0 18 532413 1
gene 2 7 14 -622548 0 19 -622548 1
gene 2 8 14 196218 0 20 196218 1
gene 4 9 14 137112 0 21 137112 1
gene 2 10 14 -800000 0 22 -800000 1
gene 4 11 14 -800000 0 23 -800000 1
gene 3 12 14 178789 0 24 178789 1
gene 3 1 15 -800000 0 25 -800000 1
gene 2 2 15 135252 0 26 135252 1
gene 4 3 15 -550005 0 27 -550005 1
gene 4 4 15 -717981 0 28 -717981 1
gene 2 5 15 247440 0 29 247440 1
gene 2 6 15 75536 0 30 75536 1
gene 3 7 15 318630 0 31 318630 1
gene 3 8 15 106422 0 32 106422 1
gene 4 9 15 265404 0 33 265404 1
gene 3 10 15 -34683 0 34 -34683 1
gene 2 11 15 -354702 0 35 -354702 1
gene 2 12 15 336117 0 36 336117 1
gene 4 14 15 439404 0 48 439404 1
gene 2 14 13 227634 0 87 227634 1
gene 2 15 13 211571 0 128 211571 1
genomeend 62


/* Organism #70 Fitness: 300.000000 Time: 0 */
/* Position #70*/
#1 x: 30 y: 29
#2 x: 55 y: 20
#3 x: 17 y: 29
#4 x: 75 y: 83
#5 x: 82 y: 73
#6 x: 55 y: 77
genomestart 70
node 1 3 1 3
node 2 4 1 1
node 3 1 1 1
node 4 4 1 1
node 5 3 1 1
node 6 1 1 1
node 7 1 1 1
node 8 2 1 1
node 9 3 1 1
node 10 1 1 1
node 11 2 1 1
node 12 2 1 1
node 13 1 0 2
node 14 3 0 2
node 15 2 0 2
gene 2 1 13 -310560 0 1 -310560 1
gene 4 2 13 502473 0 2 502473 1
gene 3 3 13 13422 0 3 13422 1
gene 3 4 13 -306840 0 4 -306840 1
gene 3 5 13 746105 0 5 746105 1
gene 1 6 13 -523032 0 6 -523032 1
gene 1 7 13 99252 0 7 99252 1
gene 2 8 13 -618075 0 8 -618075 1
gene 4 9 13 196035 0 9 196035 1
gene 3 10 13 538914 0 10 538914 1
gene 1 11 13 -7299 0 11 -7299 1
gene 2 12 13 800000 0 12 800000 1
gene 2 1 14 29421 0 13 29421 1
gene 3 2 14 439796 0 14 439796 1
gene 1 3 14 -800000 0 15 -800000 1
gene 4 4 14 -772728 0 16 -772728 1
gene 4 5 14 -72990 0 17 -72990 1
gene 2 6 14 -182010 0 18 -182010 1
gene 4 7 14 540711 0 19 540711 1
gene 3 8 14 434178 0 20 434178 1
gene 4 9 14 -289956 0 21 -289956 1
gene 2 10 14 -447354 0 22 -447354 1
gene 1 11 14 231135 0 23 231135 1
gene 4 12 14 49761 0 24 49761 1
gene 4 1 15 -111015 0 25 -111015 1
gene 3 2 15 -685613 0 26 -685613 1
gene 4 3 15 -243201 0 27 -243201 1
gene 2 4 15 93822 0 28 93822 1
gene 4 5 15 53368 0 29 53368 1
gene 2 6 15 -107544 0 30 -107544 1
gene 4 7 15 -239535 0 31 -239535 1
gene 4 8 15 324642 0 32 324642 1
gene 2 9 15 -295647 0 33 -295647 1
gene 3 10 15 743588 0 34 743588 1
gene 3 11 15 -721842 0 35 -721842 1
gene 1 12 15 19527 0 36 19527 1
genomeend 70


/* Organism #72 Fitness: 320.000000 Time: 0 */
/* Position #72*/
#1 x: 63 y: 15
#2 x: 39 y: 17
#3 x: 59 y: 28
#4 x: 64 y: 66
#5 x: 16 y: 81
#6 x: 63 y: 75
genomestart 72
node 1 4 1 3
node 2 3 1 1
node 3 4 1 1
node 4 3 1 1
node 5 4 1 1
node 6 3 1 1
node 7 4 1 1
node 8 1 1 1
node 9 3 1 1
node 10 2 1 1
node 11 4 1 1
node 12 2 1 1
node 13 3 0 2
node 14 3 0 2
node 15 1 0 2
gene 1 1 13 -415107 0 1 -415107 1
gene 3 2 13 -682280 0 2 -682280 1
gene 3 3 13 -106101 0 3 -106101 1
gene 1 4 13 -24834 0 4 -24834 1
gene 1 5 13 270363 0 5 270363 1
gene 1 6 13 -41781 0 6 -41781 1
gene 2 7 13 -135777 0 7 -135777 1
gene 1 8 13 328506 0 8 328506 1
gene 3 9 13 701594 0 9 701594 1
gene 3 10 13 -100815 0 10 -100815 1
gene 1 11 13 64734 0 11 64734 1
gene 4 12 13 -277251 0 12 -277251 1
gene 2 1 14 152220 0 13 152220 1
gene 1 2 14 -138762 0 14 -138762 1
gene 1 3 14 -153213 0 15 -153213 1
gene 2 4 14 -59715 0 16 -59715 1
gene 4 5 14 -800000 0 17 -800000 1
gene 1 6 14 -48732 0 18 -48732 1
gene 4 7 14 -17387 0 19 -17387 1
gene 3 8 14 322695 0 20 322695 1
gene 2 9 14 95310 0 21 95310 1
gene 1 10 14 733542 0 22 733542 1
gene 4 11 14 -4866 0 23 -4866 1
gene 1 12 14 402495 0 24 402495 1
gene 2 1 15 366174 0 25 366174 1
gene 3 2 15 98739 0 26 98739 1
gene 2 3 15 94587 0 27 94587 1
gene 3 4 15 604707 0 28 604707 1
gene 4 5 15 484749 0 29 484749 1
gene 1 6 15 -426645 0 30 -426645 1
gene 2 7 15 164496 0 31 164496 1
gene 3 8 15 -800000 0 32 -800000 1
gene 3 9 15 -270867 0 33 -270867 1
gene 3 10 15 31197 0 34 31197 1
gene 1 11 15 -53709 0 35 -53709 1
gene 3 12 15 -433836 0 36 -433836 1
genomeend 72


/* Organism #73 Fitness: 340.000000 Time: 0 */
/* Position #73*/
#1 x: 63 y: 15
#2 x: 39 y: 17
#3 x: 59 y: 28
#4 x: 64 y: 66
#5 x: 16 y: 81
#6 x: 63 y: 75
genomestart 73
node 1 3 1 3
node 2 1 1 1
node 3 2 1 1
node 4 2 1 1
node 5 3 1 1
node 6 1 1 1
node 7 3 1 1
node 8 3 1 1
node 9 2 1 1
node 10 2 1 1
node 11 4 1 1
node 12 1 1 1
node 13 4 0 2
node 14 1 0 2
node 15 1 0 2
gene 3 1 13 205056 0 1 205056 1
gene 2 2 13 -410495 0 2 -410495 1
gene 1 3 13 656019 0 3 656019 1
gene 1 4 13 -35244 0 4 -35244 1
gene 4 5 13 242904 0 5 242904 1
gene 3 6 13 -615771 0 6 -615771 1
gene 1 7 13 -620166 0 7 -620166 1
gene 1 8 13 -103101 0 8 -103101 1
gene 3 9 13 -131430 0 9 -131430 1
gene 2 10 13 -724089 0 10 -724089 1
gene 1 11 13 125712 0 11 125712 1
gene 1 12 13 -178368 0 12 -178368 1
gene 1 1 14 418737 0 13 418737 1
gene 4 2 14 226854 0 14 226854 1
gene 4 3 14 38799 0 15 38799 1
gene 4 4 14 -93194 0 16 -93194 1
gene 1 5 14 701609 0 17 701609 1
gene 4 6 14 -268962 0 18 -268962 1
gene 2 7 14 179151 0 19 179151 1
gene 2 8 14 570830 0 20 570830 1
gene 4 9 14 8013 0 21 8013 1
gene 1 10 14 342570 0 22 342570 1
gene 4 11 14 -70713 0 23 -70713 1
gene 4 12 14 9501 0 24 9501 1
gene 3 1 15 -163737 0 25 -163737 1
gene 2 2 15 -262548 0 26 -262548 1
gene 4 3 15 -800000 0 27 -800000 1
gene 4 4 15 800000 0 28 800000 1
gene 2 5 15 -290433 0 29 -290433 1
gene 2 6 15 -81858 0 30 -81858 1
gene 3 7 15 541857 0 31 541857 1
gene 4 8 15 229956 0 32 229956 1
gene 3 9 15 282696 0 33 282696 1
gene 3 10 15 12150 0 34 12150 1
gene 3 11 15 147516 0 35 147516 1
gene 2 12 15 -308079 0 36 -308079 1
gene 1 14 15 371139 0 62 371139 1
genomeend 73


/* Organism #78 Fitness: 340.000000 Time: 0 */
/* Position #78*/
#1 x: 69 y: 26
#2 x: 74 y: 35
#3 x: 38 y: 32
#4 x: 48 y: 82
#5 x: 75 y: 63
#6 x: 41 y: 61
genomestart 78
node 1 3 1 3
node 2 1 1 1
node 3 2 1 1
node 4 2 1 1
node 5 3 1 1
node 6 1 1 1
node 7 3 1 1
node 8 3 1 1
node 9 2 1 1
node 10 2 1 1
node 11 4 1 1
node 12 1 1 1
node 13 4 0 2
node 14 1 0 2
node 15 1 0 2
gene 2 1 13 18303 0 1 18303 1
gene 2 2 13 -197577 0 2 -197577 1
gene 1 3 13 52653 0 3 52653 1
gene 4 4 13 72387 0 4 72387 1
gene 4 5 13 -126030 0 5 -126030 1
gene 3 6 13 -149832 0 6 -149832 1
gene 1 7 13 212336 0 7 212336 1
gene 1 8 13 -409950 0 8 -409950 1
gene 3 9 13 -266406 0 9 -266406 1
gene 2 10 13 257772 0 10 257772 1
gene 1 11 13 244665 0 11 244665 1
gene 2 12 13 -565095 0 12 -565095 1
gene 1 1 14 256041 0 13 256041 1
gene 4 2 14 -102636 0 14 -102636 1
gene 4 3 14 -593238 0 15 -593238 1
gene 4 4 14 -298694 0 16 -298694 1
gene 2 5 14 63696 0 17 63696 1
gene 4 6 14 -435015 0 18 -435015 1
gene 2 7 14 -496776 0 19 -496776 1
gene 2 8 14 61773 0 20 61773 1
gene 4 9 14 -16914 0 21 -16914 1
gene 2 10 14 -681765 0 22 -681765 1
gene 4 11 14 -343806 0 23 -343806 1
gene 3 12 14 800000 0 24 800000 1
gene 3 1 15 34020 0 25 34020 1
gene 2 2 15 -151908 0 26 -151908 1
gene 4 3 15 61497 0 27 61497 1
gene 4 4 15 -299049 0 28 -299049 1
gene 2 5 15 110085 0 29 110085 1
gene 2 6 15 199041 0 30 199041 1
gene 3 7 15 -398823 0 31 -398823 1
gene 3 8 15 -358614 0 32 -358614 1
gene 4 9 15 -661953 0 33 -661953 1
gene 3 10 15 -160014 0 34 -160014 1
gene 2 11 15 -224691 0 35 -224691 1
gene 2 12 15 -225078 0 36 -225078 1
gene 4 14 15 176355 0 48 176355 1
genomeend 78


