/* Organism #4 Fitness: 176.000000 Time: 0 */
/* Position #4*/
#1 x: 19 y: 15
#2 x: 48 y: 23
#3 x: 69 y: 33
#4 x: 18 y: 73
#5 x: 72 y: 73
#6 x: 66 y: 77
genomestart 4
node 1 4 1 3
node 2 2 1 1
node 3 4 1 1
node 4 1 1 1
node 5 3 1 1
node 6 3 1 1
node 7 1 1 1
node 8 1 1 1
node 9 1 1 1
node 10 3 1 1
node 11 2 1 1
node 12 3 1 1
node 13 3 0 2
node 14 3 0 2
node 15 1 0 2
node 16 1 0 2
gene 1 1 13 -800000 0 1 -800000 1
gene 2 2 13 139428 0 2 139428 1
gene 4 3 13 39906 0 3 39906 1
gene 4 4 13 -674600 0 4 -674600 1
gene 3 5 13 -253035 0 5 -253035 1
gene 4 6 13 412164 0 6 412164 1
gene 4 7 13 52977 0 7 52977 1
gene 3 8 13 617264 0 8 617264 1
gene 2 9 13 403638 0 9 403638 1
gene 2 10 13 -227666 0 10 -227666 1
gene 2 11 13 -223377 0 11 -223377 1
gene 1 12 13 324092 0 12 324092 1
gene 2 1 14 -389709 0 13 -389709 1
gene 4 2 14 -598514 0 14 -598514 1
gene 2 3 14 530126 0 15 530126 1
gene 4 4 14 -147486 0 16 -147486 1
gene 3 5 14 388590 0 17 388590 1
gene 1 6 14 -229121 0 18 -229121 1
gene 4 7 14 147207 0 19 147207 1
gene 4 8 14 -124830 0 20 -124830 1
gene 3 9 14 -424026 0 21 -424026 1
gene 2 10 14 246555 0 22 246555 1
gene 2 11 14 548625 0 23 548625 1
gene 3 12 14 220794 0 24 220794 1
gene 2 1 15 800000 0 25 800000 1
gene 3 2 15 -800000 0 26 -800000 1
gene 2 3 15 464118 0 27 464118 1
gene 4 4 15 -44547 0 28 -44547 1
gene 1 5 15 70536 0 29 70536 1
gene 2 6 15 -196626 0 30 -196626 1
gene 2 7 15 689736 0 31 689736 1
gene 3 8 15 -194313 0 32 -194313 1
gene 1 9 15 800000 0 33 800000 1
gene 1 10 15 124812 0 34 124812 1
gene 1 11 15 -800000 0 35 -800000 1
gene 4 12 15 251898 0 36 251898 1
gene 2 1 16 -515531 0 37 -515531 1
gene 4 2 16 350337 0 38 350337 1
gene 3 3 16 628197 0 39 628197 1
gene 2 4 16 -610845 0 40 -610845 1
gene 4 5 16 -145857 0 41 -145857 1
gene 2 6 16 -51378 0 42 -51378 1
gene 1 7 16 -235827 0 43 -235827 1
gene 3 8 16 42765 0 44 42765 1
gene 2 9 16 675519 0 45 675519 1
gene 3 10 16 -25647 0 46 -25647 1
gene 2 11 16 102234 0 47 102234 1
gene 3 12 16 -582840 0 48 -582840 1
gene 3 16 15 617195 0 69 617195 1
gene 1 13 15 -37505 0 160 -37505 1
genomeend 4


/* Organism #12 Fitness: 152.000000 Time: 0 */
/* Position #12*/
#1 x: 53 y: 19
#2 x: 35 y: 19
#3 x: 42 y: 26
#4 x: 82 y: 78
#5 x: 46 y: 76
#6 x: 82 y: 76
genomestart 12
node 1 2 1 3
node 2 3 1 1
node 3 1 1 1
node 4 3 1 1
node 5 1 1 1
node 6 2 1 1
node 7 1 1 1
node 8 4 1 1
node 9 1 1 1
node 10 4 1 1
node 11 3 1 1
node 12 2 1 1
node 13 3 0 2
node 14 2 0 2
node 15 2 0 2
node 16 4 0 2
gene 2 1 13 800000 0 1 800000 1
gene 3 2 13 800000 0 2 800000 1
gene 2 3 13 -465804 0 3 -465804 1
gene 3 4 13 800000 0 4 800000 1
gene 4 5 13 -254403 0 5 -254403 1
gene 1 6 13 -405447 0 6 -405447 1
gene 4 7 13 354336 0 7 354336 1
gene 1 8 13 -394817 0 8 -394817 1
gene 1 9 13 800000 0 9 800000 1
gene 4 10 13 -122589 0 10 -122589 1
gene 1 11 13 -27426 0 11 -27426 1
gene 1 12 13 -65274 0 12 -65274 1
gene 2 1 14 -797946 0 13 -797946 1
gene 2 2 14 521774 0 14 521774 1
gene 4 3 14 360312 0 15 360312 1
gene 2 4 14 110030 0 16 110030 1
gene 2 5 14 496707 0 17 496707 1
gene 4 6 14 431972 0 18 431972 1
gene 1 7 14 64503 0 19 64503 1
gene 2 8 14 215217 0 20 215217 1
gene 3 9 14 -72447 0 21 -72447 1
gene 1 10 14 -119790 0 22 -119790 1
gene 3 11 14 -800000 0 23 -800000 1
gene 2 12 14 254412 0 24 254412 1
gene 4 1 15 -233633 0 25 -233633 1
gene 4 2 15 -800000 0 26 -800000 1
gene 1 3 15 -29946 0 27 -29946 1
gene 2 4 15 95301 0 28 95301 1
gene 3 5 15 -428916 0 29 -428916 1
gene 2 6 15 -533712 0 30 -533712 1
gene 3 7 15 -14955 0 31 -14955 1
gene 2 8 15 -451680 0 32 -451680 1
gene 4 9 15 -352188 0 33 -352188 1
gene 4 10 15 -368706 0 34 -368706 1
gene 2 11 15 -328266 0 35 -328266 1
gene 1 12 15 -416322 0 36 -416322 1
gene 3 1 16 -800000 0 37 -800000 1
gene 3 2 16 359838 0 38 359838 1
gene 2 3 16 298989 0 39 298989 1
gene 4 4 16 -377400 0 40 -377400 1
gene 3 5 16 -576903 0 41 -576903 1
gene 1 6 16 -400266 0 42 -400266 1
gene 4 7 16 -154350 0 43 -154350 1
gene 4 8 16 -267558 0 44 -267558 1
gene 4 9 16 98424 0 45 98424 1
gene 1 10 16 8970 0 46 8970 1
gene 2 11 16 191271 0 47 191271 1
gene 3 12 16 -282696 0 48 -282696 1
gene 1 16 16 -203457 1 133 -203457 1
gene 1 13 13 -270564 1 182 -270564 1
gene 3 16 15 -97654 0 241 -97654 1
gene 3 15 13 -55086 0 246 -55086 1
genomeend 12


/* Organism #17 Fitness: 188.000000 Time: 0 */
/* Position #17*/
#1 x: 51 y: 40
#2 x: 19 y: 19
#3 x: 60 y: 24
#4 x: 52 y: 79
#5 x: 73 y: 73
#6 x: 54 y: 80
genomestart 17
node 1 2 1 3
node 2 4 1 1
node 3 1 1 1
node 4 3 1 1
node 5 1 1 1
node 6 2 1 1
node 7 4 1 1
node 8 3 1 1
node 9 1 1 1
node 10 3 1 1
node 11 3 1 1
node 12 3 1 1
node 13 3 0 2
node 14 2 0 2
node 15 2 0 2
node 16 1 0 2
gene 2 1 13 -267863 0 1 -267863 1
gene 3 2 13 160134 0 2 160134 1
gene 3 3 13 35514 0 3 35514 1
gene 3 4 13 -96375 0 4 -96375 1
gene 3 5 13 -146754 0 5 -146754 1
gene 2 6 13 219312 0 6 219312 1
gene 2 7 13 -142401 0 7 -142401 1
gene 1 8 13 -198219 0 8 -198219 1
gene 2 9 13 329613 0 9 329613 1
gene 4 10 13 466422 0 10 466422 1
gene 1 11 13 114162 0 11 114162 1
gene 2 12 13 338460 0 12 338460 1
gene 1 1 14 -90420 0 13 -90420 1
gene 1 2 14 503219 0 14 503219 1
gene 4 3 14 544077 0 15 544077 1
gene 3 4 14 764007 0 16 764007 1
gene 1 5 14 776706 0 17 776706 1
gene 4 6 14 198534 0 18 198534 1
gene 1 7 14 704882 0 19 704882 1
gene 3 8 14 208317 0 20 208317 1
gene 4 9 14 -800000 0 21 -800000 1
gene 1 10 14 -331191 0 22 -331191 1
gene 4 11 14 -26136 0 23 -26136 1
gene 3 12 14 228294 0 24 228294 1
gene 1 1 15 -277005 0 25 -277005 1
gene 4 2 15 319323 0 26 319323 1
gene 4 3 15 80772 0 27 80772 1
gene 3 4 15 -293934 0 28 -293934 1
gene 2 5 15 -492966 0 29 -492966 1
gene 4 6 15 -558894 0 30 -558894 1
gene 3 7 15 -169212 0 31 -169212 1
gene 2 8 15 -258516 0 32 -258516 1
gene 3 9 15 -417480 0 33 -417480 1
gene 2 10 15 -769511 0 34 -769511 1
gene 4 11 15 -762954 0 35 -762954 1
gene 2 12 15 159735 0 36 159735 1
gene 4 1 16 -227907 0 37 -227907 1
gene 2 2 16 206013 0 38 206013 1
gene 2 3 16 -754809 0 39 -754809 1
gene 2 4 16 -699900 0 40 -699900 1
gene 1 5 16 -169545 0 41 -169545 1
gene 4 6 16 76773 0 42 76773 1
gene 1 7 16 -438938 0 43 -438938 1
gene 4 8 16 244719 0 44 244719 1
gene 2 9 16 484086 0 45 484086 1
gene 1 10 16 -16713 0 46 -16713 1
gene 3 11 16 -215163 0 47 -215163 1
gene 1 12 16 800000 0 48 800000 1
gene 1 16 13 43206 0 86 43206 1
gene 2 15 16 -149607 0 90 -149607 1
gene 2 13 14 478887 0 117 478887 1
genomeend 17


/* Organism #18 Fitness: 202.000000 Time: 0 */
/* Position #18*/
#1 x: 41 y: 36
#2 x: 24 y: 15
#3 x: 48 y: 27
#4 x: 21 y: 76
#5 x: 27 y: 79
#6 x: 81 y: 66
genomestart 18
node 1 1 1 3
node 2 2 1 1
node 3 2 1 1
node 4 4 1 1
node 5 4 1 1
node 6 2 1 1
node 7 1 1 1
node 8 1 1 1
node 9 3 1 1
node 10 2 1 1
node 11 2 1 1
node 12 2 1 1
node 13 1 0 2
node 14 4 0 2
node 15 2 0 2
node 16 4 0 2
gene 1 1 13 -377661 0 1 -377661 1
gene 2 2 13 -124134 0 2 -124134 1
gene 3 3 13 556476 0 3 556476 1
gene 3 4 13 411156 0 4 411156 1
gene 1 5 13 118941 0 5 118941 1
gene 1 6 13 -6450 0 6 -6450 1
gene 2 7 13 19803 0 7 19803 1
gene 3 8 13 -698988 0 8 -698988 1
gene 1 9 13 354261 0 9 354261 1
gene 2 10 13 367008 0 10 367008 1
gene 4 11 13 239085 0 11 239085 1
gene 2 12 13 738618 0 12 738618 1
gene 1 1 14 398880 0 13 398880 1
gene 2 2 14 36084 0 14 36084 1
gene 1 3 14 -243399 0 15 -243399 1
gene 4 4 14 48378 0 16 48378 1
gene 3 5 14 -697697 0 17 -697697 1
gene 3 6 14 163089 0 18 163089 1
gene 3 7 14 -411579 0 19 -411579 1
gene 4 8 14 280044 0 20 280044 1
gene 1 9 14 -150387 0 21 -150387 1
gene 3 10 14 -270222 0 22 -270222 1
gene 4 11 14 737534 0 23 737534 1
gene 1 12 14 114897 0 24 114897 1
gene 4 1 15 190827 0 25 190827 1
gene 4 2 15 -789254 0 26 -789254 1
gene 3 3 15 -128644 0 27 -128644 1
gene 2 4 15 -716301 0 28 -716301 1
gene 1 5 15 117879 0 29 117879 1
gene 4 6 15 -800000 0 30 -800000 1
gene 1 7 15 -800000 0 31 -800000 1
gene 2 8 15 -71190 0 32 -71190 1
gene 1 9 15 177180 0 33 177180 1
gene 3 10 15 -221187 0 34 -221187 1
gene 2 11 15 84138 0 35 84138 1
gene 1 12 15 -288138 0 36 -288138 1
gene 3 1 16 689795 0 37 689795 1
gene 1 2 16 373509 0 38 373509 1
gene 4 3 16 -687470 0 39 -687470 1
gene 2 4 16 108816 0 40 108816 1
gene 4 5 16 -255252 0 41 -255252 1
gene 4 6 16 -222384 0 42 -222384 1
gene 3 7 16 -800000 0 43 -800000 1
gene 4 8 16 -609306 0 44 -609306 1
gene 4 9 16 26649 0 45 26649 1
gene 3 10 16 -77424 0 46 -77424 1
gene 4 11 16 -111132 0 47 -111132 1
gene 1 12 16 -446070 0 48 -446070 1
gene 4 15 14 -387771 0 159 -387771 1
genomeend 18


/* Organism #21 Fitness: 160.000000 Time: 0 */
/* Position #21*/
#1 x: 62 y: 22
#2 x: 77 y: 30
#3 x: 55 y: 21
#4 x: 33 y: 74
#5 x: 49 y: 61
#6 x: 63 y: 77
genomestart 21
node 1 2 1 3
node 2 4 1 1
node 3 1 1 1
node 4 3 1 1
node 5 1 1 1
node 6 2 1 1
node 7 1 1 1
node 8 3 1 1
node 9 1 1 1
node 10 4 1 1
node 11 3 1 1
node 12 3 1 1
node 13 3 0 2
node 14 2 0 2
node 15 4 0 2
node 16 1 0 2
gene 2 1 13 -800000 0 1 -800000 1
gene 3 2 13 68505 0 2 68505 1
gene 2 3 13 122916 0 3 122916 1
gene 2 4 13 -30849 0 4 -30849 1
gene 4 5 13 104169 0 5 104169 1
gene 3 6 13 276666 0 6 276666 1
gene 4 7 13 195372 0 7 195372 1
gene 1 8 13 -290214 0 8 -290214 1
gene 1 9 13 45366 0 9 45366 1
gene 4 10 13 -216144 0 10 -216144 1
gene 1 11 13 -652473 0 11 -652473 1
gene 1 12 13 -132777 0 12 -132777 1
gene 2 1 14 -299901 0 13 -299901 1
gene 2 2 14 -264570 0 14 -264570 1
gene 4 3 14 356421 0 15 356421 1
gene 2 4 14 -95433 0 16 -95433 1
gene 2 5 14 88071 0 17 88071 1
gene 4 6 14 500718 0 18 500718 1
gene 1 7 14 147294 0 19 147294 1
gene 2 8 14 142344 0 20 142344 1
gene 3 9 14 -238179 0 21 -238179 1
gene 1 10 14 -105213 0 22 -105213 1
gene 3 11 14 -241662 0 23 -241662 1
gene 2 12 14 603680 0 24 603680 1
gene 4 1 15 -168651 0 25 -168651 1
gene 4 2 15 277587 0 26 277587 1
gene 1 3 15 -222729 0 27 -222729 1
gene 2 4 15 68307 0 28 68307 1
gene 3 5 15 -173946 0 29 -173946 1
gene 2 6 15 -243858 0 30 -243858 1
gene 3 7 15 -209781 0 31 -209781 1
gene 2 8 15 -586649 0 32 -586649 1
gene 4 9 15 4527 0 33 4527 1
gene 4 10 15 -295728 0 34 -295728 1
gene 2 11 15 120765 0 35 120765 1
gene 1 12 15 22773 0 36 22773 1
gene 3 1 16 42831 0 37 42831 1
gene 3 2 16 -309948 0 38 -309948 1
gene 2 3 16 186225 0 39 186225 1
gene 4 4 16 -145215 0 40 -145215 1
gene 3 5 16 -607542 0 41 -607542 1
gene 1 6 16 136140 0 42 136140 1
gene 4 7 16 -160575 0 43 -160575 1
gene 4 8 16 -253905 0 44 -253905 1
gene 4 9 16 -334671 0 45 -334671 1
gene 1 10 16 -481365 0 46 -481365 1
gene 2 11 16 144903 0 47 144903 1
gene 3 12 16 -226449 0 48 -226449 1
gene 1 16 15 104889 0 97 104889 1
gene 3 16 14 -421506 0 150 -421506 1
gene 1 14 13 572250 0 154 572250 1
genomeend 21


/* Organism #32 Fitness: 178.000000 Time: 0 */
/* Position #32*/
#1 x: 16 y: 16
#2 x: 53 y: 17
#3 x: 40 y: 37
#4 x: 30 y: 75
#5 x: 75 y: 68
#6 x: 39 y: 81
genomestart 32
node 1 1 1 3
node 2 3 1 1
node 3 3 1 1
node 4 1 1 1
node 5 4 1 1
node 6 1 1 1
node 7 3 1 1
node 8 1 1 1
node 9 4 1 1
node 10 3 1 1
node 11 1 1 1
node 12 1 1 1
node 13 2 0 2
node 14 1 0 2
node 15 1 0 2
node 16 1 0 2
gene 3 1 13 23338 0 1 23338 1
gene 3 2 13 311991 0 2 311991 1
gene 3 3 13 -169074 0 3 -169074 1
gene 3 4 13 22740 0 4 22740 1
gene 1 5 13 -56442 0 5 -56442 1
gene 4 6 13 -43758 0 6 -43758 1
gene 1 7 13 -622373 0 7 -622373 1
gene 1 8 13 -238821 0 8 -238821 1
gene 1 9 13 -373023 0 9 -373023 1
gene 2 10 13 -741770 0 10 -741770 1
gene 4 11 13 -238488 0 11 -238488 1
gene 2 12 13 -117615 0 12 -117615 1
gene 1 1 14 -116670 0 13 -116670 1
gene 2 2 14 186155 0 14 186155 1
gene 3 3 14 675972 0 15 675972 1
gene 3 4 14 595376 0 16 595376 1
gene 2 5 14 -410865 0 17 -410865 1
gene 4 6 14 460398 0 18 460398 1
gene 3 7 14 -84789 0 19 -84789 1
gene 4 8 14 360839 0 20 360839 1
gene 3 9 14 548250 0 21 548250 1
gene 1 10 14 508305 0 22 508305 1
gene 4 11 14 -47229 0 23 -47229 1
gene 1 12 14 -274899 0 24 -274899 1
gene 1 1 15 718902 0 25 718902 1
gene 4 2 15 -215283 0 26 -215283 1
gene 4 3 15 -371177 0 27 -371177 1
gene 1 4 15 312077 0 28 312077 1
gene 1 5 15 229908 0 29 229908 1
gene 1 6 15 231231 0 30 231231 1
gene 4 7 15 -89133 0 31 -89133 1
gene 4 8 15 800000 0 32 800000 1
gene 2 9 15 -800000 0 33 -800000 1
gene 3 10 15 -297978 0 34 -297978 1
gene 2 11 15 36723 0 35 36723 1
gene 3 12 15 131352 0 36 131352 1
gene 2 1 16 368741 0 37 368741 1
gene 1 2 16 294414 0 38 294414 1
gene 3 3 16 -681716 0 39 -681716 1
gene 1 4 16 -629882 0 40 -629882 1
gene 2 5 16 178547 0 41 178547 1
gene 1 6 16 310017 0 42 310017 1
gene 2 7 16 -587357 0 43 -587357 1
gene 2 8 16 365082 0 44 365082 1
gene 3 9 16 -224094 0 45 -224094 1
gene 2 10 16 -69744 0 46 -69744 1
gene 1 11 16 70728 0 47 70728 1
gene 1 12 16 -822 0 48 -822 1
gene 2 13 16 -464511 0 96 -464511 1
gene 1 14 13 -172443 0 125 -172443 1
genomeend 32


/* Organism #50 Fitness: 222.000000 Time: 0 */
/* Position #50*/
#1 x: 39 y: 20
#2 x: 71 y: 20
#3 x: 28 y: 38
#4 x: 67 y: 74
#5 x: 21 y: 84
#6 x: 48 y: 70
genomestart 50
node 1 4 1 3
node 2 2 1 1
node 3 4 1 1
node 4 2 1 1
node 5 4 1 1
node 6 3 1 1
node 7 3 1 1
node 8 2 1 1
node 9 3 1 1
node 10 4 1 1
node 11 2 1 1
node 12 3 1 1
node 13 3 0 2
node 14 3 0 2
node 15 1 0 2
node 16 1 0 2
gene 1 1 13 483 0 1 483 1
gene 2 2 13 355743 0 2 355743 1
gene 4 3 13 -245775 0 3 -245775 1
gene 4 4 13 -134922 0 4 -134922 1
gene 4 5 13 -193581 0 5 -193581 1
gene 4 6 13 -175668 0 6 -175668 1
gene 2 7 13 -273609 0 7 -273609 1
gene 3 8 13 -490179 0 8 -490179 1
gene 2 9 13 21120 0 9 21120 1
gene 2 10 13 71232 0 10 71232 1
gene 2 11 13 -800000 0 11 -800000 1
gene 1 12 13 294111 0 12 294111 1
gene 2 1 14 -507747 0 13 -507747 1
gene 4 2 14 377829 0 14 377829 1
gene 2 3 14 455139 0 15 455139 1
gene 4 4 14 543474 0 16 543474 1
gene 3 5 14 6300 0 17 6300 1
gene 1 6 14 143793 0 18 143793 1
gene 4 7 14 256167 0 19 256167 1
gene 4 8 14 -370461 0 20 -370461 1
gene 3 9 14 339519 0 21 339519 1
gene 2 10 14 -239169 0 22 -239169 1
gene 2 11 14 203145 0 23 203145 1
gene 3 12 14 279960 0 24 279960 1
gene 2 1 15 172670 0 25 172670 1
gene 3 2 15 -800000 0 26 -800000 1
gene 2 3 15 -214467 0 27 -214467 1
gene 4 4 15 -77784 0 28 -77784 1
gene 1 5 15 -257778 0 29 -257778 1
gene 2 6 15 -149070 0 30 -149070 1
gene 2 7 15 -296454 0 31 -296454 1
gene 3 8 15 -175209 0 32 -175209 1
gene 1 9 15 -115053 0 33 -115053 1
gene 1 10 15 -742461 0 34 -742461 1
gene 1 11 15 390972 0 35 390972 1
gene 4 12 15 800000 0 36 800000 1
gene 2 1 16 139934 0 37 139934 1
gene 4 2 16 -800000 0 38 -800000 1
gene 3 3 16 800000 0 39 800000 1
gene 2 4 16 -514763 0 40 -514763 1
gene 4 5 16 56577 0 41 56577 1
gene 2 6 16 -146103 0 42 -146103 1
gene 1 7 16 -719168 0 43 -719168 1
gene 3 8 16 -375240 0 44 -375240 1
gene 3 9 16 120258 0 45 120258 1
gene 3 10 16 -42759 0 46 -42759 1
gene 2 11 16 157086 0 47 157086 1
gene 3 12 16 800000 0 48 800000 1
gene 2 15 13 -247014 0 71 -247014 1
gene 4 16 16 19590 1 126 19590 1
gene 4 13 16 -800000 0 131 -800000 1
gene 2 14 15 -548355 0 165 -548355 1
genomeend 50


/* Organism #51 Fitness: 156.000000 Time: 0 */
/* Position #51*/
#1 x: 39 y: 20
#2 x: 71 y: 20
#3 x: 28 y: 38
#4 x: 67 y: 74
#5 x: 21 y: 84
#6 x: 48 y: 70
genomestart 51
node 1 2 1 3
node 2 4 1 1
node 3 1 1 1
node 4 3 1 1
node 5 1 1 1
node 6 3 1 1
node 7 1 1 1
node 8 3 1 1
node 9 1 1 1
node 10 4 1 1
node 11 3 1 1
node 12 2 1 1
node 13 3 0 2
node 14 2 0 2
node 15 2 0 2
node 16 4 0 2
gene 2 1 13 518379 0 1 518379 1
gene 3 2 13 -292410 0 2 -292410 1
gene 2 3 13 -375168 0 3 -375168 1
gene 3 4 13 -426384 0 4 -426384 1
gene 4 5 13 95709 0 5 95709 1
gene 1 6 13 -73680 0 6 -73680 1
gene 4 7 13 782162 0 7 782162 1
gene 1 8 13 96330 0 8 96330 1
gene 1 9 13 -395253 0 9 -395253 1
gene 4 10 13 426696 0 10 426696 1
gene 1 11 13 243945 0 11 243945 1
gene 1 12 13 275183 0 12 275183 1
gene 2 1 14 -707298 0 13 -707298 1
gene 2 2 14 627257 0 14 627257 1
gene 4 3 14 324285 0 15 324285 1
gene 2 4 14 -27981 0 16 -27981 1
gene 2 5 14 552335 0 17 552335 1
gene 4 6 14 138219 0 18 138219 1
gene 1 7 14 563262 0 19 563262 1
gene 2 8 14 203502 0 20 203502 1
gene 3 9 14 139650 0 21 139650 1
gene 1 10 14 -173088 0 22 -173088 1
gene 3 11 14 29769 0 23 29769 1
gene 2 12 14 -68400 0 24 -68400 1
gene 4 1 15 715848 0 25 715848 1
gene 4 2 15 -291491 0 26 -291491 1
gene 1 3 15 605741 0 27 605741 1
gene 2 4 15 -800000 0 28 -800000 1
gene 3 5 15 -164463 0 29 -164463 1
gene 2 6 15 -87111 0 30 -87111 1
gene 3 7 15 -3165 0 31 -3165 1
gene 2 8 15 319436 0 32 319436 1
gene 4 9 15 -258462 0 33 -258462 1
gene 4 10 15 106602 0 34 106602 1
gene 2 11 15 744954 0 35 744954 1
gene 1 12 15 158547 0 36 158547 1
gene 3 1 16 -647277 0 37 -647277 1
gene 3 2 16 35559 0 38 35559 1
gene 2 3 16 -316098 0 39 -316098 1
gene 4 4 16 -593339 0 40 -593339 1
gene 3 5 16 -668997 0 41 -668997 1
gene 1 6 16 -62886 0 42 -62886 1
gene 4 7 16 -316299 0 43 -316299 1
gene 4 8 16 256917 0 44 256917 1
gene 4 9 16 -110652 0 45 -110652 1
gene 1 10 16 -256035 0 46 -256035 1
gene 2 11 16 199380 0 47 199380 1
gene 3 12 16 -311484 0 48 -311484 1
gene 1 16 16 13524 1 133 13524 1
genomeend 51


/* Organism #65 Fitness: 176.000000 Time: 0 */
/* Position #65*/
#1 x: 77 y: 29
#2 x: 32 y: 29
#3 x: 29 y: 25
#4 x: 25 y: 76
#5 x: 69 y: 66
#6 x: 17 y: 76
genomestart 65
node 1 4 1 3
node 2 3 1 1
node 3 2 1 1
node 4 1 1 1
node 5 1 1 1
node 6 1 1 1
node 7 2 1 1
node 8 3 1 1
node 9 3 1 1
node 10 2 1 1
node 11 3 1 1
node 12 2 1 1
node 13 4 0 2
node 14 2 0 2
node 15 4 0 2
node 16 4 0 2
gene 4 1 13 -225546 0 1 -225546 1
gene 3 2 13 375594 0 2 375594 1
gene 4 3 13 152584 0 3 152584 1
gene 2 4 13 -248013 0 4 -248013 1
gene 1 5 13 -162267 0 5 -162267 1
gene 2 6 13 -359415 0 6 -359415 1
gene 2 7 13 299217 0 7 299217 1
gene 1 8 13 206778 0 8 206778 1
gene 2 9 13 688506 0 9 688506 1
gene 2 10 13 -203019 0 10 -203019 1
gene 2 11 13 665925 0 11 665925 1
gene 1 12 13 231793 0 12 231793 1
gene 3 1 14 -251028 0 13 -251028 1
gene 2 2 14 -178734 0 14 -178734 1
gene 1 3 14 -156285 0 15 -156285 1
gene 4 4 14 -431681 0 16 -431681 1
gene 1 5 14 -437564 0 17 -437564 1
gene 3 6 14 489981 0 18 489981 1
gene 2 7 14 -244764 0 19 -244764 1
gene 1 8 14 -399000 0 20 -399000 1
gene 1 9 14 174081 0 21 174081 1
gene 2 10 14 662520 0 22 662520 1
gene 1 11 14 -319227 0 23 -319227 1
gene 4 12 14 213348 0 24 213348 1
gene 4 1 15 268092 0 25 268092 1
gene 1 2 15 207441 0 26 207441 1
gene 3 3 15 -297963 0 27 -297963 1
gene 2 4 15 128061 0 28 128061 1
gene 2 5 15 55212 0 29 55212 1
gene 1 6 15 110967 0 30 110967 1
gene 1 7 15 12855 0 31 12855 1
gene 1 8 15 142431 0 32 142431 1
gene 3 9 15 17661 0 33 17661 1
gene 4 10 15 -314163 0 34 -314163 1
gene 2 11 15 -120024 0 35 -120024 1
gene 3 12 15 -512526 0 36 -512526 1
gene 3 1 16 285369 0 37 285369 1
gene 1 2 16 -800000 0 38 -800000 1
gene 2 3 16 389562 0 39 389562 1
gene 3 4 16 -113445 0 40 -113445 1
gene 4 5 16 135795 0 41 135795 1
gene 2 6 16 800000 0 42 800000 1
gene 2 7 16 197478 0 43 197478 1
gene 1 8 16 248124 0 44 248124 1
gene 1 9 16 -163425 0 45 -163425 1
gene 2 10 16 -320826 0 46 -320826 1
gene 1 11 16 227907 0 47 227907 1
gene 1 12 16 -171450 0 48 -171450 1
gene 4 15 16 306927 0 147 306927 1
genomeend 65


/* Organism #67 Fitness: 160.000000 Time: 0 */
/* Position #67*/
#1 x: 63 y: 17
#2 x: 54 y: 23
#3 x: 79 y: 24
#4 x: 45 y: 78
#5 x: 67 y: 77
#6 x: 15 y: 72
genomestart 67
node 1 1 1 3
node 2 3 1 1
node 3 2 1 1
node 4 1 1 1
node 5 1 1 1
node 6 1 1 1
node 7 2 1 1
node 8 3 1 1
node 9 3 1 1
node 10 2 1 1
node 11 3 1 1
node 12 3 1 1
node 13 1 0 2
node 14 2 0 2
node 15 2 0 2
node 16 4 0 2
gene 4 1 13 151047 0 1 151047 1
gene 3 2 13 8457 0 2 8457 1
gene 3 3 13 -205137 0 3 -205137 1
gene 2 4 13 -386354 0 4 -386354 1
gene 1 5 13 -115365 0 5 -115365 1
gene 2 6 13 -315582 0 6 -315582 1
gene 3 7 13 -226224 0 7 -226224 1
gene 1 8 13 69660 0 8 69660 1
gene 2 9 13 -401064 0 9 -401064 1
gene 2 10 13 -292362 0 10 -292362 1
gene 1 11 13 -142749 0 11 -142749 1
gene 4 12 13 -395181 0 12 -395181 1
gene 2 1 14 162066 0 13 162066 1
gene 2 2 14 305786 0 14 305786 1
gene 1 3 14 -721863 0 15 -721863 1
gene 2 4 14 375746 0 16 375746 1
gene 4 5 14 569822 0 17 569822 1
gene 3 6 14 -467771 0 18 -467771 1
gene 2 7 14 -48710 0 19 -48710 1
gene 1 8 14 86379 0 20 86379 1
gene 1 9 14 287190 0 21 287190 1
gene 3 10 14 -514554 0 22 -514554 1
gene 1 11 14 -89727 0 23 -89727 1
gene 2 12 14 800000 0 24 800000 1
gene 4 1 15 -487116 0 25 -487116 1
gene 4 2 15 -88543 0 26 -88543 1
gene 3 3 15 -49146 0 27 -49146 1
gene 2 4 15 800000 0 28 800000 1
gene 2 5 15 -215559 0 29 -215559 1
gene 1 6 15 10893 0 30 10893 1
gene 1 7 15 -377508 0 31 -377508 1
gene 1 8 15 286202 0 32 286202 1
gene 2 9 15 186117 0 33 186117 1
gene 4 10 15 -93552 0 34 -93552 1
gene 4 11 15 304866 0 35 304866 1
gene 1 12 15 -706211 0 36 -706211 1
gene 3 1 16 -163194 0 37 -163194 1
gene 1 2 16 -36081 0 38 -36081 1
gene 2 3 16 -323091 0 39 -323091 1
gene 3 4 16 -456888 0 40 -456888 1
gene 4 5 16 -110850 0 41 -110850 1
gene 3 6 16 -345336 0 42 -345336 1
gene 2 7 16 451872 0 43 451872 1
gene 1 8 16 123912 0 44 123912 1
gene 1 9 16 -351807 0 45 -351807 1
gene 3 10 16 -121911 0 46 -121911 1
gene 1 11 16 620160 0 47 620160 1
gene 1 12 16 460284 0 48 460284 1
gene 1 13 15 -228504 0 75 -228504 1
gene 1 16 15 -237885 0 84 -237885 1
gene 3 13 13 168804 1 88 168804 1
gene 2 15 15 -319335 1 155 -319335 1
gene 4 14 13 162654 0 215 162654 1
genomeend 67


/* Organism #68 Fitness: 174.000000 Time: 0 */
/* Position #68*/
#1 x: 74 y: 33
#2 x: 45 y: 26
#3 x: 24 y: 30
#4 x: 30 y: 69
#5 x: 32 y: 80
#6 x: 33 y: 85
genomestart 68
node 1 2 1 3
node 2 4 1 1
node 3 1 1 1
node 4 3 1 1
node 5 1 1 1
node 6 2 1 1
node 7 1 1 1
node 8 3 1 1
node 9 1 1 1
node 10 4 1 1
node 11 3 1 1
node 12 3 1 1
node 13 3 0 2
node 14 2 0 2
node 15 2 0 2
node 16 1 0 2
gene 2 1 13 -269922 0 1 -269922 1
gene 3 2 13 -499581 0 2 -499581 1
gene 2 3 13 -233517 0 3 -233517 1
gene 2 4 13 218943 0 4 218943 1
gene 4 5 13 289749 0 5 289749 1
gene 1 6 13 -765812 0 6 -765812 1
gene 4 7 13 -290403 0 7 -290403 1
gene 1 8 13 292050 0 8 292050 1
gene 1 9 13 -1857 0 9 -1857 1
gene 4 10 13 -162876 0 10 -162876 1
gene 1 11 13 -723603 0 11 -723603 1
gene 1 12 13 679670 0 12 679670 1
gene 2 1 14 201390 0 13 201390 1
gene 2 2 14 25389 0 14 25389 1
gene 4 3 14 345012 0 15 345012 1
gene 2 4 14 -529656 0 16 -529656 1
gene 2 5 14 146514 0 17 146514 1
gene 4 6 14 411198 0 18 411198 1
gene 1 7 14 -324795 0 19 -324795 1
gene 2 8 14 242445 0 20 242445 1
gene 3 9 14 112683 0 21 112683 1
gene 1 10 14 136635 0 22 136635 1
gene 3 11 14 272289 0 23 272289 1
gene 2 12 14 -210015 0 24 -210015 1
gene 4 1 15 215241 0 25 215241 1
gene 4 2 15 800000 0 26 800000 1
gene 1 3 15 179787 0 27 179787 1
gene 2 4 15 -18000 0 28 -18000 1
gene 3 5 15 603510 0 29 603510 1
gene 2 6 15 216648 0 30 216648 1
gene 3 7 15 -49404 0 31 -49404 1
gene 2 8 15 103296 0 32 103296 1
gene 4 9 15 -24336 0 33 -24336 1
gene 4 10 15 -265647 0 34 -265647 1
gene 2 11 15 477282 0 35 477282 1
gene 1 12 15 336462 0 36 336462 1
gene 3 1 16 165843 0 37 165843 1
gene 3 2 16 -649538 0 38 -649538 1
gene 2 3 16 95268 0 39 95268 1
gene 4 4 16 101112 0 40 101112 1
gene 3 5 16 394077 0 41 394077 1
gene 1 6 16 15762 0 42 15762 1
gene 4 7 16 -216498 0 43 -216498 1
gene 4 8 16 238440 0 44 238440 1
gene 4 9 16 -103509 0 45 -103509 1
gene 1 10 16 -797039 0 46 -797039 1
gene 2 11 16 -164115 0 47 -164115 1
gene 3 12 16 11193 0 48 11193 1
gene 1 14 14 638666 1 104 638666 1
gene 2 14 16 120468 0 172 120468 1
gene 2 13 13 242808 1 177 242808 1
genomeend 68


