/* Organism #8 Fitness: 260.000000 Time: 0 */
/* Position #8*/
#1 x: 80 y: 15
#2 x: 43 y: 27
#3 x: 34 y: 19
#4 x: 52 y: 76
#5 x: 41 y: 80
#6 x: 53 y: 65
genomestart 8
trait 1 1.000000 0.000000 0.000000 0.000000 0.000000 0.000000 0.000000 0.000000 trait 2 2.000000 0.000000 0.000000 0.000000 0.000000 0.000000 0.000000 0.000000 trait 3 3.000000 0.000000 0.000000 0.000000 0.000000 0.000000 0.000000 0.000000 trait 4 5062.000000 0.000000 0.000000 0.000000 0.000000 0.000000 36345.000000 0.000000 node 1 4 1 3
node 2 3 1 1
node 3 2 1 1
node 4 1 1 1
node 5 3 1 1
node 6 3 1 1
node 7 1 1 1
node 8 1 1 1
node 9 1 1 1
node 10 3 1 1
node 11 2 1 1
node 12 1 1 1
node 13 4 0 2
node 14 1 0 2
node 15 1 0 2
node 59 1 0 0
node 150 1 0 0
gene 4 1 13 -409112 0 1 -409112 1
gene 2 2 13 261607 0 2 261607 1
gene 2 3 13 178674 0 3 178674 1
gene 2 4 13 -69509 0 4 -69509 1
gene 3 5 13 215283 0 5 215283 1
gene 1 6 13 227238 0 6 227238 1
gene 4 7 13 644203 0 7 644203 1
gene 2 8 13 110291 0 8 110291 1
gene 1 9 13 -263773 0 9 -263773 1
gene 3 10 13 -762114 0 10 -762114 1
gene 1 11 13 251082 0 11 251082 0
gene 1 12 13 27045 0 12 27045 1
gene 2 1 14 -4022 0 13 -4022 1
gene 3 2 14 -50745 0 14 -50745 1
gene 2 3 14 712460 0 15 712460 1
gene 4 4 14 -88440 0 16 -88440 1
gene 3 5 14 -87291 0 17 -87291 1
gene 2 6 14 -644693 0 18 -644693 1
gene 1 7 14 455468 0 19 455468 1
gene 3 8 14 272940 0 20 272940 1
gene 3 9 14 134785 0 21 134785 1
gene 4 10 14 -134678 0 22 -134678 1
gene 4 11 14 -381282 0 23 -381282 1
gene 3 12 14 247378 0 24 247378 1
gene 4 1 15 500337 0 25 500337 1
gene 3 2 15 -1468 0 26 -1468 1
gene 3 3 15 -96486 0 27 -96486 1
gene 2 4 15 468854 0 28 468854 1
gene 2 5 15 -107909 0 29 -107909 1
gene 2 6 15 -97875 0 30 -97875 1
gene 4 7 15 30021 0 31 30021 0
gene 4 8 15 -203781 0 32 -203781 1
gene 1 9 15 -81633 0 33 -81633 1
gene 1 10 15 -241071 0 34 -241071 1
gene 1 11 15 160062 0 35 160062 1
gene 4 12 15 393084 0 36 393084 1
gene 1 11 59 -238023 0 161 -238023 1
gene 1 59 13 -204390 0 162 -204390 1
gene 3 13 13 63807 1 362 63807 1
gene 1 59 15 6113 0 405 6113 1
gene 4 7 150 1 0 444 0 1
gene 4 150 15 30021 0 445 0 1
gene 2 5 150 96730 0 487 96730 1
genomeend 8


/* Organism #12 Fitness: 270.000000 Time: 0 */
/* Position #12*/
#1 x: 43 y: 18
#2 x: 62 y: 22
#3 x: 65 y: 28
#4 x: 40 y: 61
#5 x: 40 y: 69
#6 x: 84 y: 67
genomestart 12
trait 1 1.000000 0.000000 0.000000 0.000000 0.000000 0.000000 0.000000 0.000000 trait 2 2.000000 0.000000 0.000000 0.000000 0.000000 0.000000 0.000000 0.000000 trait 3 3.000000 0.000000 0.000000 27945.000000 93261.000000 17368.000000 0.000000 90343.000000 trait 4 4.000000 0.000000 0.000000 0.000000 0.000000 0.000000 0.000000 0.000000 node 1 2 1 3
node 2 2 1 1
node 3 1 1 1
node 4 4 1 1
node 5 1 1 1
node 6 1 1 1
node 7 2 1 1
node 8 3 1 1
node 9 1 1 1
node 10 4 1 1
node 11 2 1 1
node 12 4 1 1
node 13 3 0 2
node 14 4 0 2
node 15 3 0 2
node 47 1 0 0
node 143 1 0 0
node 152 1 0 0
gene 4 1 13 185511 0 1 185511 1
gene 1 2 13 406284 0 2 406284 0
gene 2 3 13 252223 0 3 252223 0
gene 2 4 13 434289 0 4 434289 1
gene 1 5 13 36426 0 5 36426 1
gene 2 6 13 44283 0 6 44283 1
gene 3 7 13 -139422 0 7 -139422 1
gene 3 8 13 -649206 0 8 -649206 1
gene 1 9 13 -240435 0 9 -240435 1
gene 2 10 13 -113949 0 10 -113949 1
gene 1 11 13 43964 0 11 43964 1
gene 4 12 13 153990 0 12 153990 1
gene 3 1 14 301009 0 13 301009 1
gene 4 2 14 -182670 0 14 -182670 1
gene 4 3 14 141558 0 15 141558 1
gene 3 4 14 -357896 0 16 -357896 1
gene 4 5 14 243861 0 17 243861 0
gene 4 6 14 100233 0 18 100233 1
gene 2 7 14 -591264 0 19 -591264 1
gene 2 8 14 -620746 0 20 -620746 1
gene 4 9 14 577829 0 21 577829 1
gene 4 10 14 -67920 0 22 -67920 1
gene 2 11 14 -466911 0 23 -466911 1
gene 2 12 14 -207474 0 24 -207474 1
gene 4 1 15 -664579 0 25 -664579 1
gene 4 2 15 -313917 0 26 -313917 1
gene 4 3 15 -559073 0 27 -559073 1
gene 2 4 15 132846 0 28 132846 1
gene 1 5 15 242403 0 29 242403 1
gene 1 6 15 -99894 0 30 -99894 1
gene 4 7 15 54531 0 31 54531 1
gene 2 8 15 -411441 0 32 -411441 1
gene 4 9 15 429108 0 33 429108 1
gene 3 10 15 452874 0 34 452874 1
gene 3 11 15 -243474 0 35 -243474 1
gene 4 12 15 135438 0 36 135438 1
gene 2 3 47 168393 0 123 168393 1
gene 2 47 13 -357009 0 124 -357009 1
gene 4 5 143 170365 0 411 170365 1
gene 4 143 14 76566 0 412 76566 1
gene 1 2 152 125809 0 449 125809 1
gene 1 152 13 31446 0 450 31446 1
genomeend 12


/* Organism #22 Fitness: 300.000000 Time: 0 */
/* Position #22*/
#1 x: 58 y: 32
#2 x: 82 y: 18
#3 x: 17 y: 31
#4 x: 60 y: 74
#5 x: 24 y: 76
#6 x: 29 y: 65
genomestart 22
trait 1 1.000000 0.000000 0.000000 0.000000 0.000000 0.000000 0.000000 0.000000 trait 2 2.000000 0.000000 0.000000 0.000000 0.000000 0.000000 0.000000 0.000000 trait 3 3.000000 0.000000 0.000000 0.000000 0.000000 0.000000 0.000000 0.000000 trait 4 4.000000 0.000000 0.000000 0.000000 0.000000 0.000000 0.000000 0.000000 node 1 4 1 3
node 2 3 1 1
node 3 2 1 1
node 4 1 1 1
node 5 3 1 1
node 6 3 1 1
node 7 1 1 1
node 8 1 1 1
node 9 1 1 1
node 10 3 1 1
node 11 2 1 1
node 12 1 1 1
node 13 4 0 2
node 14 1 0 2
node 15 1 0 2
node 59 1 0 0
node 154 1 0 0
gene 4 1 13 -205265 0 1 -205265 1
gene 2 2 13 -254715 0 2 -254715 1
gene 2 3 13 -226587 0 3 -226587 1
gene 2 4 13 -308513 0 4 -308513 1
gene 3 5 13 533229 0 5 533229 1
gene 1 6 13 133938 0 6 133938 1
gene 4 7 13 605266 0 7 605266 1
gene 2 8 13 322895 0 8 322895 1
gene 1 9 13 238872 0 9 238872 1
gene 3 10 13 -26274 0 10 -26274 1
gene 1 11 13 713856 0 11 713856 0
gene 1 12 13 -121992 0 12 -121992 1
gene 2 1 14 354066 0 13 354066 1
gene 3 2 14 -800000 0 14 -800000 1
gene 2 3 14 450581 0 15 450581 1
gene 4 4 14 -61329 0 16 -61329 1
gene 3 5 14 -151472 0 17 -151472 1
gene 2 6 14 -571454 0 18 -571454 1
gene 1 7 14 190248 0 19 190248 1
gene 3 8 14 -60411 0 20 -60411 1
gene 3 9 14 466273 0 21 466273 1
gene 4 10 14 -437924 0 22 -437924 1
gene 4 11 14 128670 0 23 128670 1
gene 3 12 14 94380 0 24 94380 0
gene 4 1 15 268326 0 25 268326 1
gene 3 2 15 -10614 0 26 -10614 1
gene 3 3 15 775872 0 27 775872 1
gene 2 4 15 -147339 0 28 -147339 1
gene 2 5 15 -199365 0 29 -199365 1
gene 2 6 15 180033 0 30 180033 1
gene 4 7 15 57717 0 31 57717 1
gene 4 8 15 -273972 0 32 -273972 1
gene 1 9 15 -396484 0 33 -396484 1
gene 1 10 15 123222 0 34 123222 1
gene 1 11 15 -261105 0 35 -261105 1
gene 4 12 15 -412487 0 36 -412487 1
gene 1 11 59 -195527 0 161 -195527 1
gene 1 59 13 149547 0 162 149547 1
gene 1 12 59 -270921 0 229 -270921 1
gene 4 9 59 18660 0 427 18660 1
gene 3 12 154 1 0 453 0 1
gene 3 154 14 94380 0 454 0 1
gene 4 5 154 7045 0 499 7045 1
genomeend 22


/* Organism #40 Fitness: 260.000000 Time: 0 */
/* Position #40*/
#1 x: 83 y: 36
#2 x: 26 y: 38
#3 x: 25 y: 22
#4 x: 59 y: 75
#5 x: 32 y: 64
#6 x: 39 y: 76
genomestart 40
trait 1 1.000000 0.000000 0.000000 0.000000 0.000000 0.000000 0.000000 0.000000 trait 2 2.000000 0.000000 0.000000 0.000000 0.000000 0.000000 0.000000 0.000000 trait 3 3.000000 0.000000 0.000000 0.000000 0.000000 0.000000 0.000000 0.000000 trait 4 4.000000 0.000000 0.000000 0.000000 0.000000 0.000000 0.000000 0.000000 node 1 1 1 3
node 2 1 1 1
node 3 2 1 1
node 4 3 1 1
node 5 3 1 1
node 6 4 1 1
node 7 2 1 1
node 8 3 1 1
node 9 4 1 1
node 10 1 1 1
node 11 2 1 1
node 12 2 1 1
node 13 2 0 2
node 14 1 0 2
node 15 1 0 2
node 91 1 0 0
node 135 1 0 0
gene 3 1 13 322968 0 1 322968 1
gene 4 2 13 655005 0 2 655005 1
gene 4 3 13 69783 0 3 69783 1
gene 1 4 13 532061 0 4 532061 1
gene 4 5 13 -529446 0 5 -529446 1
gene 2 6 13 16803 0 6 16803 1
gene 4 7 13 -180060 0 7 -180060 1
gene 4 8 13 -188898 0 8 -188898 1
gene 3 9 13 337704 0 9 337704 1
gene 2 10 13 -178464 0 10 -178464 1
gene 1 11 13 53007 0 11 53007 1
gene 2 12 13 -196845 0 12 -196845 1
gene 4 1 14 227922 0 13 227922 1
gene 4 2 14 48459 0 14 48459 1
gene 3 3 14 -27606 0 15 -27606 1
gene 2 4 14 30000 0 16 30000 1
gene 3 5 14 -232647 0 17 -232647 1
gene 4 6 14 268983 0 18 268983 1
gene 3 7 14 201678 0 19 201678 1
gene 4 8 14 -41303 0 20 -41303 1
gene 3 9 14 389364 0 21 389364 1
gene 2 10 14 423288 0 22 423288 1
gene 3 11 14 -626333 0 23 -626333 1
gene 3 12 14 120698 0 24 120698 1
gene 2 1 15 327375 0 25 327375 1
gene 1 2 15 -227373 0 26 -227373 1
gene 3 3 15 -528338 0 27 -528338 1
gene 1 4 15 -225855 0 28 -225855 0
gene 1 5 15 735978 0 29 735978 0
gene 3 6 15 293946 0 30 293946 1
gene 2 7 15 -181485 0 31 -181485 1
gene 4 8 15 -495075 0 32 -495075 1
gene 1 9 15 273663 0 33 273663 1
gene 2 10 15 -753174 0 34 -753174 1
gene 3 11 15 -415872 0 35 -415872 1
gene 2 12 15 207372 0 36 207372 1
gene 1 4 91 -275666 0 251 -275666 1
gene 1 91 15 -284511 0 252 -284511 1
gene 1 5 135 97303 0 382 97303 1
gene 1 135 15 132360 0 383 132360 1
genomeend 40


/* Organism #56 Fitness: 250.000000 Time: 0 */
/* Position #56*/
#1 x: 30 y: 36
#2 x: 63 y: 27
#3 x: 24 y: 27
#4 x: 73 y: 76
#5 x: 36 y: 74
#6 x: 27 y: 78
genomestart 56
trait 1 1.000000 0.000000 0.000000 0.000000 0.000000 0.000000 0.000000 0.000000 trait 2 2.000000 0.000000 0.000000 0.000000 0.000000 0.000000 0.000000 0.000000 trait 3 3.000000 0.000000 0.000000 0.000000 0.000000 0.000000 0.000000 0.000000 trait 4 4.000000 0.000000 0.000000 0.000000 0.000000 0.000000 0.000000 0.000000 node 1 2 1 3
node 2 1 1 1
node 3 2 1 1
node 4 1 1 1
node 5 2 1 1
node 6 4 1 1
node 7 1 1 1
node 8 2 1 1
node 9 4 1 1
node 10 2 1 1
node 11 1 1 1
node 12 4 1 1
node 13 1 0 2
node 14 2 0 2
node 15 3 0 2
node 30 1 0 0
node 88 1 0 0
gene 4 1 13 75003 0 1 75003 1
gene 2 2 13 218355 0 2 218355 1
gene 2 3 13 525888 0 3 525888 1
gene 4 4 13 274224 0 4 274224 1
gene 1 5 13 -705381 0 5 -705381 1
gene 4 6 13 293115 0 6 293115 1
gene 2 7 13 -19344 0 7 -19344 1
gene 4 8 13 161613 0 8 161613 1
gene 2 9 13 -160146 0 9 -160146 1
gene 2 10 13 532463 0 10 532463 1
gene 3 11 13 -89016 0 11 -89016 1
gene 1 12 13 -395136 0 12 -395136 1
gene 4 1 14 254400 0 13 254400 1
gene 2 2 14 -270333 0 14 -270333 1
gene 2 3 14 219010 0 15 219010 1
gene 3 4 14 610218 0 16 610218 1
gene 2 5 14 -304893 0 17 -304893 1
gene 4 6 14 800000 0 18 800000 1
gene 1 7 14 44756 0 19 44756 1
gene 1 8 14 58353 0 20 58353 0
gene 3 9 14 172873 0 21 172873 1
gene 2 10 14 119886 0 22 119886 1
gene 4 11 14 45918 0 23 45918 1
gene 4 12 14 535824 0 24 535824 1
gene 3 1 15 -74207 0 25 -74207 1
gene 2 2 15 589975 0 26 589975 1
gene 3 3 15 -300663 0 27 -300663 1
gene 2 4 15 -368272 0 28 -368272 0
gene 1 5 15 800000 0 29 800000 1
gene 3 6 15 -800000 0 30 -800000 1
gene 1 7 15 -222705 0 31 -222705 1
gene 4 8 15 -479811 0 32 -479811 1
gene 1 9 15 108060 0 33 108060 1
gene 1 10 15 -126663 0 34 -126663 1
gene 2 11 15 -409665 0 35 -409665 1
gene 1 12 15 150951 0 36 150951 1
gene 2 4 30 224571 0 75 224571 1
gene 2 30 15 -453592 0 76 -453592 1
gene 1 1 30 246578 0 149 246578 1
gene 1 8 88 -149348 0 240 -149348 1
gene 1 88 14 -1848 0 241 -1848 1
gene 4 88 15 44400 0 421 44400 1
gene 3 5 30 -37097 0 530 -37097 1
genomeend 56


/* Organism #58 Fitness: 420.000000 Time: 0 */
/* Position #58*/
#1 x: 25 y: 17
#2 x: 54 y: 18
#3 x: 67 y: 33
#4 x: 69 y: 78
#5 x: 74 y: 64
#6 x: 47 y: 84
genomestart 58
trait 1 1.000000 0.000000 0.000000 0.000000 0.000000 0.000000 0.000000 0.000000 trait 2 2.000000 0.000000 0.000000 0.000000 0.000000 0.000000 0.000000 0.000000 trait 3 3.000000 0.000000 0.000000 0.000000 0.000000 0.000000 0.000000 0.000000 trait 4 4.000000 0.000000 0.000000 0.000000 0.000000 0.000000 0.000000 0.000000 node 1 2 1 3
node 2 1 1 1
node 3 2 1 1
node 4 1 1 1
node 5 2 1 1
node 6 4 1 1
node 7 1 1 1
node 8 2 1 1
node 9 4 1 1
node 10 2 1 1
node 11 1 1 1
node 12 4 1 1
node 13 1 0 2
node 14 2 0 2
node 15 3 0 2
node 30 1 0 0
node 88 1 0 0
gene 4 1 13 -92259 0 1 -92259 1
gene 2 2 13 323226 0 2 323226 1
gene 2 3 13 742386 0 3 742386 1
gene 4 4 13 227244 0 4 227244 1
gene 1 5 13 -465666 0 5 -465666 1
gene 4 6 13 505077 0 6 505077 1
gene 2 7 13 138126 0 7 138126 1
gene 4 8 13 144411 0 8 144411 1
gene 2 9 13 125487 0 9 125487 1
gene 2 10 13 294233 0 10 294233 1
gene 3 11 13 -144633 0 11 -144633 1
gene 1 12 13 -384582 0 12 -384582 1
gene 4 1 14 183210 0 13 183210 1
gene 2 2 14 -43368 0 14 -43368 1
gene 2 3 14 460003 0 15 460003 1
gene 3 4 14 800000 0 16 800000 1
gene 2 5 14 -226908 0 17 -226908 1
gene 4 6 14 667100 0 18 667100 1
gene 1 7 14 34532 0 19 34532 1
gene 1 8 14 64923 0 20 64923 0
gene 3 9 14 32347 0 21 32347 1
gene 2 10 14 17277 0 22 17277 1
gene 4 11 14 -80859 0 23 -80859 1
gene 4 12 14 592995 0 24 592995 1
gene 3 1 15 -270662 0 25 -270662 1
gene 2 2 15 603157 0 26 603157 1
gene 3 3 15 -348261 0 27 -348261 1
gene 2 4 15 -86101 0 28 -86101 0
gene 1 5 15 800000 0 29 800000 1
gene 3 6 15 -800000 0 30 -800000 1
gene 1 7 15 -313251 0 31 -313251 1
gene 4 8 15 -328431 0 32 -328431 1
gene 1 9 15 283635 0 33 283635 1
gene 1 10 15 -45795 0 34 -45795 1
gene 2 11 15 -657429 0 35 -657429 1
gene 1 12 15 266895 0 36 266895 1
gene 2 4 30 -116334 0 75 -116334 1
gene 2 30 15 -59658 0 76 -59658 1
gene 1 1 30 303452 0 149 303452 1
gene 1 8 88 -401642 0 240 -401642 1
gene 1 88 14 -1848 0 241 -1848 1
gene 4 88 15 21720 0 421 21720 1
genomeend 58


/* Organism #62 Fitness: 260.000000 Time: 0 */
/* Position #62*/
#1 x: 52 y: 27
#2 x: 30 y: 31
#3 x: 54 y: 33
#4 x: 35 y: 74
#5 x: 33 y: 77
#6 x: 62 y: 71
genomestart 62
trait 1 1.000000 0.000000 0.000000 0.000000 0.000000 0.000000 0.000000 0.000000 trait 2 2.000000 0.000000 0.000000 0.000000 0.000000 0.000000 0.000000 0.000000 trait 3 3.000000 0.000000 0.000000 27945.000000 93261.000000 17368.000000 0.000000 90343.000000 trait 4 4.000000 0.000000 0.000000 0.000000 0.000000 0.000000 0.000000 0.000000 node 1 2 1 3
node 2 2 1 1
node 3 1 1 1
node 4 4 1 1
node 5 1 1 1
node 6 1 1 1
node 7 2 1 1
node 8 3 1 1
node 9 1 1 1
node 10 4 1 1
node 11 2 1 1
node 12 4 1 1
node 13 3 0 2
node 14 4 0 2
node 15 3 0 2
node 47 1 0 0
gene 4 1 13 -310059 0 1 -310059 1
gene 1 2 13 -415740 0 2 -415740 1
gene 2 3 13 232417 0 3 232417 0
gene 2 4 13 -137508 0 4 -137508 1
gene 1 5 13 551991 0 5 551991 1
gene 2 6 13 65889 0 6 65889 1
gene 3 7 13 -99033 0 7 -99033 1
gene 3 8 13 -233181 0 8 -233181 1
gene 1 9 13 -182475 0 9 -182475 1
gene 2 10 13 98508 0 10 98508 1
gene 1 11 13 -46219 0 11 -46219 1
gene 4 12 13 121524 0 12 121524 1
gene 3 1 14 299371 0 13 299371 1
gene 4 2 14 -204081 0 14 -204081 1
gene 4 3 14 637551 0 15 637551 1
gene 3 4 14 -364562 0 16 -364562 1
gene 4 5 14 370164 0 17 370164 1
gene 4 6 14 -151620 0 18 -151620 1
gene 2 7 14 -763866 0 19 -763866 1
gene 2 8 14 -326112 0 20 -326112 1
gene 4 9 14 407120 0 21 407120 1
gene 4 10 14 39651 0 22 39651 1
gene 2 11 14 -423384 0 23 -423384 1
gene 2 12 14 55272 0 24 55272 1
gene 4 1 15 -410077 0 25 -410077 1
gene 4 2 15 288936 0 26 288936 1
gene 4 3 15 -373919 0 27 -373919 1
gene 2 4 15 548445 0 28 548445 1
gene 1 5 15 -233025 0 29 -233025 1
gene 1 6 15 -388032 0 30 -388032 1
gene 4 7 15 127725 0 31 127725 1
gene 2 8 15 35649 0 32 35649 1
gene 4 9 15 -1563 0 33 -1563 1
gene 3 10 15 -204873 0 34 -204873 1
gene 3 11 15 77970 0 35 77970 1
gene 4 12 15 400884 0 36 400884 1
gene 2 3 47 10542 0 123 10542 1
gene 2 47 13 -602835 0 124 -602835 1
gene 2 47 15 -72515 0 532 -72515 1
genomeend 62


/* Organism #72 Fitness: 320.000000 Time: 0 */
/* Position #72*/
#1 x: 35 y: 28
#2 x: 45 y: 39
#3 x: 24 y: 26
#4 x: 28 y: 79
#5 x: 41 y: 74
#6 x: 17 y: 83
genomestart 72
trait 1 1.000000 0.000000 0.000000 0.000000 32970.000000 80236.000000 0.000000 0.000000 trait 2 2.000000 0.000000 0.000000 0.000000 0.000000 0.000000 0.000000 0.000000 trait 3 3.000000 0.000000 0.000000 0.000000 0.000000 0.000000 0.000000 0.000000 trait 4 4.000000 0.000000 0.000000 0.000000 0.000000 0.000000 0.000000 0.000000 node 1 4 1 3
node 2 3 1 1
node 3 2 1 1
node 4 1 1 1
node 5 3 1 1
node 6 3 1 1
node 7 1 1 1
node 8 1 1 1
node 9 1 1 1
node 10 3 1 1
node 11 2 1 1
node 12 1 1 1
node 13 4 0 2
node 14 1 0 2
node 15 1 0 2
node 160 1 0 0
gene 4 1 13 108984 0 1 108984 1
gene 2 2 13 503554 0 2 503554 1
gene 2 3 13 410754 0 3 410754 1
gene 2 4 13 27768 0 4 27768 1
gene 3 5 13 445179 0 5 445179 1
gene 1 6 13 576321 0 6 576321 1
gene 4 7 13 30777 0 7 30777 1
gene 2 8 13 -398464 0 8 -398464 1
gene 1 9 13 -177457 0 9 -177457 1
gene 3 10 13 116688 0 10 116688 1
gene 1 11 13 -392355 0 11 -392355 1
gene 1 12 13 -52485 0 12 -52485 1
gene 2 1 14 -360033 0 13 -360033 1
gene 3 2 14 -647189 0 14 -647189 1
gene 2 3 14 153345 0 15 153345 1
gene 4 4 14 64032 0 16 64032 1
gene 3 5 14 -549609 0 17 -549609 1
gene 2 6 14 132567 0 18 132567 1
gene 1 7 14 500610 0 19 500610 0
gene 3 8 14 225252 0 20 225252 1
gene 3 9 14 -127116 0 21 -127116 1
gene 4 10 14 45019 0 22 45019 1
gene 4 11 14 -22038 0 23 -22038 1
gene 3 12 14 675624 0 24 675624 1
gene 4 1 15 -43191 0 25 -43191 1
gene 3 2 15 21840 0 26 21840 1
gene 3 3 15 -275874 0 27 -275874 1
gene 2 4 15 -227233 0 28 -227233 1
gene 2 5 15 329233 0 29 329233 0
gene 2 6 15 58881 0 30 58881 1
gene 4 7 15 -212463 0 31 -212463 1
gene 4 8 15 722133 0 32 722133 1
gene 1 9 15 203079 0 33 203079 1
gene 1 10 15 -61563 0 34 -61563 1
gene 1 11 15 280023 0 35 280023 1
gene 4 12 15 -180981 0 36 -180981 1
gene 1 13 15 -134292 0 250 -134292 1
gene 2 14 13 34014 0 352 34014 1
gene 1 7 160 -32468 0 471 -32468 1
gene 1 160 14 354546 0 472 354546 1
genomeend 72


/* Organism #76 Fitness: 300.000000 Time: 0 */
/* Position #76*/
#1 x: 59 y: 22
#2 x: 85 y: 39
#3 x: 62 y: 35
#4 x: 46 y: 78
#5 x: 57 y: 72
#6 x: 62 y: 60
genomestart 76
trait 1 1.000000 0.000000 0.000000 0.000000 0.000000 0.000000 0.000000 0.000000 trait 2 2.000000 0.000000 0.000000 0.000000 0.000000 0.000000 0.000000 0.000000 trait 3 3.000000 0.000000 0.000000 0.000000 0.000000 0.000000 0.000000 0.000000 trait 4 4.000000 0.000000 0.000000 0.000000 0.000000 0.000000 0.000000 0.000000 node 1 2 1 3
node 2 1 1 1
node 3 2 1 1
node 4 1 1 1
node 5 2 1 1
node 6 4 1 1
node 7 1 1 1
node 8 2 1 1
node 9 4 1 1
node 10 2 1 1
node 11 1 1 1
node 12 4 1 1
node 13 1 0 2
node 14 2 0 2
node 15 3 0 2
node 30 1 0 0
node 88 1 0 0
gene 4 1 13 -119553 0 1 -119553 1
gene 2 2 13 -47925 0 2 -47925 1
gene 2 3 13 242823 0 3 242823 1
gene 4 4 13 274224 0 4 274224 1
gene 1 5 13 -661077 0 5 -661077 1
gene 4 6 13 51492 0 6 51492 1
gene 2 7 13 94032 0 7 94032 1
gene 4 8 13 190971 0 8 190971 1
gene 2 9 13 -179769 0 9 -179769 1
gene 2 10 13 800000 0 10 800000 1
gene 3 11 13 -86289 0 11 -86289 1
gene 1 12 13 -102576 0 12 -102576 1
gene 4 1 14 418563 0 13 418563 1
gene 2 2 14 -270333 0 14 -270333 1
gene 2 3 14 210480 0 15 210480 1
gene 3 4 14 800000 0 16 800000 1
gene 2 5 14 -401640 0 17 -401640 1
gene 4 6 14 799559 0 18 799559 1
gene 1 7 14 225821 0 19 225821 1
gene 1 8 14 58353 0 20 58353 0
gene 3 9 14 -89570 0 21 -89570 1
gene 2 10 14 -150468 0 22 -150468 1
gene 4 11 14 317631 0 23 317631 1
gene 4 12 14 759588 0 24 759588 1
gene 3 1 15 -73091 0 25 -73091 1
gene 2 2 15 234243 0 26 234243 1
gene 3 3 15 -75750 0 27 -75750 1
gene 2 4 15 -243637 0 28 -243637 0
gene 1 5 15 800000 0 29 800000 1
gene 3 6 15 -25458 0 30 -25458 1
gene 1 7 15 52500 0 31 52500 1
gene 4 8 15 -233250 0 32 -233250 1
gene 1 9 15 -144036 0 33 -144036 1
gene 1 10 15 -126663 0 34 -126663 1
gene 2 11 15 -543906 0 35 -543906 1
gene 1 12 15 23352 0 36 23352 1
gene 2 4 30 -55656 0 75 -55656 1
gene 2 30 15 -235168 0 76 -235168 1
gene 1 1 30 27260 0 149 27260 1
gene 1 8 88 -440987 0 240 -440987 1
gene 1 88 14 -55542 0 241 -55542 1
gene 4 88 15 336951 0 421 336951 1
genomeend 76


/* Organism #78 Fitness: 290.000000 Time: 0 */
/* Position #78*/
#1 x: 18 y: 36
#2 x: 78 y: 25
#3 x: 85 y: 22
#4 x: 58 y: 83
#5 x: 79 y: 60
#6 x: 73 y: 82
genomestart 78
trait 1 1.000000 0.000000 0.000000 0.000000 0.000000 0.000000 0.000000 0.000000 trait 2 2.000000 0.000000 0.000000 0.000000 0.000000 0.000000 0.000000 0.000000 trait 3 3.000000 0.000000 0.000000 0.000000 0.000000 0.000000 0.000000 0.000000 trait 4 30638.000000 0.000000 0.000000 0.000000 0.000000 0.000000 0.000000 78915.000000 node 1 2 1 3
node 2 2 1 1
node 3 1 1 1
node 4 4 1 1
node 5 1 1 1
node 6 1 1 1
node 7 2 1 1
node 8 3 1 1
node 9 1 1 1
node 10 4 1 1
node 11 2 1 1
node 12 4 1 1
node 13 3 0 2
node 14 4 0 2
node 15 3 0 2
node 47 1 0 0
node 107 1 0 0
gene 4 1 13 -371427 0 1 -371427 1
gene 1 2 13 33408 0 2 33408 1
gene 2 3 13 -30969 0 3 -30969 0
gene 2 4 13 350502 0 4 350502 1
gene 1 5 13 800000 0 5 800000 1
gene 2 6 13 73464 0 6 73464 1
gene 3 7 13 32283 0 7 32283 1
gene 3 8 13 88383 0 8 88383 1
gene 1 9 13 -770137 0 9 -770137 1
gene 2 10 13 89076 0 10 89076 1
gene 1 11 13 172079 0 11 172079 1
gene 4 12 13 33847 0 12 33847 1
gene 3 1 14 800000 0 13 800000 1
gene 4 2 14 -291026 0 14 -291026 1
gene 4 3 14 -347204 0 15 -347204 1
gene 3 4 14 -622295 0 16 -622295 0
gene 4 5 14 192735 0 17 192735 1
gene 4 6 14 50469 0 18 50469 1
gene 2 7 14 -367035 0 19 -367035 1
gene 2 8 14 245838 0 20 245838 1
gene 4 9 14 -699882 0 21 -699882 1
gene 4 10 14 -123645 0 22 -123645 1
gene 2 11 14 -448702 0 23 -448702 1
gene 2 12 14 -33879 0 24 -33879 1
gene 4 1 15 -714936 0 25 -714936 1
gene 4 2 15 457398 0 26 457398 1
gene 4 3 15 -800000 0 27 -800000 1
gene 2 4 15 202668 0 28 202668 1
gene 1 5 15 -632448 0 29 -632448 1
gene 1 6 15 477518 0 30 477518 1
gene 4 7 15 217386 0 31 217386 1
gene 2 8 15 -123771 0 32 -123771 1
gene 4 9 15 -66372 0 33 -66372 1
gene 4 10 15 306036 0 34 306036 1
gene 3 11 15 449394 0 35 449394 1
gene 4 12 15 236511 0 36 236511 1
gene 2 3 47 595482 0 123 595482 1
gene 2 47 13 409533 0 124 409533 1
gene 3 4 107 -292994 0 296 -292994 1
gene 3 107 14 223782 0 297 223782 1
gene 3 15 107 84990 0 422 84990 1
genomeend 78


/* Organism #0 Fitness: 240.000000 Time: 0 */
/* Position #0*/
#1 x: 21 y: 40
#2 x: 40 y: 24
#3 x: 73 y: 23
#4 x: 64 y: 72
#5 x: 33 y: 65
#6 x: 74 y: 69
genomestart 0
trait 1 1.000000 0.000000 0.000000 0.000000 0.000000 0.000000 0.000000 0.000000 trait 2 2.000000 0.000000 0.000000 0.000000 0.000000 0.000000 0.000000 0.000000 trait 3 3.000000 0.000000 0.000000 0.000000 0.000000 0.000000 0.000000 0.000000 trait 4 4.000000 0.000000 0.000000 0.000000 0.000000 0.000000 0.000000 0.000000 node 1 3 1 3
node 2 4 1 1
node 3 3 1 1
node 4 1 1 1
node 5 4 1 1
node 6 4 1 1
node 7 2 1 1
node 8 4 1 1
node 9 3 1 1
node 10 1 1 1
node 11 4 1 1
node 12 2 1 1
node 13 3 0 2
node 14 1 0 2
node 15 4 0 2
node 41 1 0 0
node 48 1 0 0
node 107 1 0 0
node 159 1 0 0
gene 1 1 13 438821 0 1 438821 1
gene 4 2 13 -534195 0 2 -534195 1
gene 3 3 13 302056 0 3 302056 1
gene 3 4 13 -65696 0 4 -65696 0
gene 1 5 13 -144246 0 5 -144246 1
gene 4 6 13 639378 0 6 639378 1
gene 4 7 13 -592992 0 7 -592992 1
gene 1 8 13 135030 0 8 135030 1
gene 1 9 13 -419106 0 9 -419106 1
gene 1 10 13 -377568 0 10 -377568 1
gene 2 11 13 -463503 0 11 -463503 1
gene 1 12 13 143313 0 12 143313 1
gene 2 1 14 87426 0 13 87426 1
gene 4 2 14 489375 0 14 489375 1
gene 3 3 14 -352874 0 15 -352874 1
gene 3 4 14 209016 0 16 209016 1
gene 1 5 14 258579 0 17 258579 1
gene 3 6 14 -222107 0 18 -222107 1
gene 2 7 14 263903 0 19 263903 1
gene 1 8 14 -189531 0 20 -189531 1
gene 1 9 14 -72316 0 21 -72316 1
gene 4 10 14 -17850 0 22 -17850 1
gene 1 11 14 699290 0 23 699290 1
gene 2 12 14 -169161 0 24 -169161 1
gene 4 1 15 -428648 0 25 -428648 1
gene 3 2 15 -305514 0 26 -305514 1
gene 4 3 15 160927 0 27 160927 0
gene 1 4 15 361701 0 28 361701 1
gene 3 5 15 -71122 0 29 -71122 1
gene 1 6 15 114240 0 30 114240 0
gene 4 7 15 714369 0 31 714369 1
gene 3 8 15 464691 0 32 464691 1
gene 2 9 15 -3361 0 33 -3361 1
gene 4 10 15 378774 0 34 378774 0
gene 1 11 15 -158884 0 35 -158884 1
gene 4 12 15 54775 0 36 54775 1
gene 4 3 41 178054 0 101 178054 1
gene 4 41 15 89970 0 102 89970 1
gene 4 10 48 4051 0 121 4051 1
gene 4 48 15 104649 0 122 104649 1
gene 3 41 13 -321792 0 207 -321792 1
gene 2 3 48 -293066 0 245 -293066 1
gene 1 6 107 59725 0 290 59725 1
gene 1 107 15 -67884 0 291 -67884 1
gene 1 11 41 250749 0 378 250749 1
gene 3 4 159 1 0 433 1 1
gene 3 159 13 -124982 0 434 -124982 1
genomeend 0


/* Organism #12 Fitness: 330.000000 Time: 0 */
/* Position #12*/
#1 x: 72 y: 35
#2 x: 47 y: 20
#3 x: 31 y: 25
#4 x: 77 y: 68
#5 x: 74 y: 73
#6 x: 20 y: 68
genomestart 12
trait 1 1.000000 0.000000 0.000000 0.000000 0.000000 0.000000 0.000000 0.000000 trait 2 2.000000 0.000000 0.000000 0.000000 0.000000 0.000000 0.000000 0.000000 trait 3 3.000000 0.000000 0.000000 0.000000 0.000000 0.000000 0.000000 0.000000 trait 4 4.000000 0.000000 0.000000 0.000000 0.000000 0.000000 0.000000 0.000000 node 1 2 1 3
node 2 4 1 1
node 3 4 1 1
node 4 2 1 1
node 5 3 1 1
node 6 1 1 1
node 7 4 1 1
node 8 1 1 1
node 9 4 1 1
node 10 3 1 1
node 11 4 1 1
node 12 2 1 1
node 13 4 0 2
node 14 1 0 2
node 15 4 0 2
node 22 1 0 0
gene 3 1 13 728742 0 1 728742 1
gene 4 2 13 800000 0 2 800000 1
gene 3 3 13 36343 0 3 36343 0
gene 3 4 13 -222453 0 4 -222453 1
gene 2 5 13 -576176 0 5 -576176 1
gene 3 6 13 705479 0 6 705479 1
gene 4 7 13 81207 0 7 81207 1
gene 2 8 13 -483186 0 8 -483186 1
gene 3 9 13 41106 0 9 41106 1
gene 4 10 13 1395 0 10 1395 1
gene 2 11 13 -31857 0 11 -31857 1
gene 4 12 13 511677 0 12 511677 1
gene 2 1 14 105093 0 13 105093 1
gene 4 2 14 -196980 0 14 -196980 1
gene 4 3 14 -739251 0 15 -739251 1
gene 4 4 14 -437013 0 16 -437013 1
gene 3 5 14 -518838 0 17 -518838 1
gene 2 6 14 -372330 0 18 -372330 1
gene 2 7 14 -800000 0 19 -800000 1
gene 3 8 14 174321 0 20 174321 1
gene 4 9 14 -44889 0 21 -44889 1
gene 2 10 14 -89781 0 22 -89781 1
gene 1 11 14 81945 0 23 81945 1
gene 4 12 14 -148638 0 24 -148638 1
gene 1 1 15 -27446 0 25 -27446 1
gene 3 2 15 800000 0 26 800000 1
gene 3 3 15 431760 0 27 431760 1
gene 3 4 15 -149757 0 28 -149757 1
gene 3 5 15 649325 0 29 649325 1
gene 1 6 15 126630 0 30 126630 1
gene 3 7 15 -369211 0 31 -369211 1
gene 3 8 15 352242 0 32 352242 1
gene 3 9 15 -1390 0 33 -1390 1
gene 3 10 15 227439 0 34 227439 1
gene 3 11 15 -563451 0 35 -563451 1
gene 2 12 15 37107 0 36 37107 1
gene 3 3 22 25758 0 55 25758 1
gene 3 22 13 -403680 0 56 -403680 1
gene 4 14 15 2979 0 127 2979 1
gene 3 9 22 38523 0 218 38523 1
genomeend 12


/* Organism #23 Fitness: 240.000000 Time: 0 */
/* Position #23*/
#1 x: 24 y: 15
#2 x: 59 y: 39
#3 x: 37 y: 39
#4 x: 66 y: 84
#5 x: 84 y: 60
#6 x: 65 y: 84
genomestart 23
trait 1 1.000000 0.000000 0.000000 0.000000 0.000000 0.000000 0.000000 0.000000 trait 2 0.000000 0.000000 92885.000000 0.000000 0.000000 0.000000 0.000000 0.000000 trait 3 3.000000 0.000000 0.000000 0.000000 0.000000 0.000000 0.000000 0.000000 trait 4 4.000000 0.000000 0.000000 0.000000 0.000000 0.000000 0.000000 0.000000 node 1 4 1 3
node 2 4 1 1
node 3 1 1 1
node 4 1 1 1
node 5 1 1 1
node 6 2 1 1
node 7 4 1 1
node 8 4 1 1
node 9 2 1 1
node 10 1 1 1
node 11 2 1 1
node 12 4 1 1
node 13 2 0 2
node 14 1 0 2
node 15 2 0 2
node 121 1 0 0
gene 2 1 13 -52848 0 1 -52848 1
gene 3 2 13 -124916 0 2 -124916 1
gene 2 3 13 -141729 0 3 -141729 1
gene 3 4 13 278383 0 4 278383 1
gene 2 5 13 -248646 0 5 -248646 1
gene 4 6 13 216177 0 6 216177 1
gene 3 7 13 40142 0 7 40142 1
gene 2 8 13 -120225 0 8 -120225 1
gene 3 9 13 495793 0 9 495793 1
gene 2 10 13 -300834 0 10 -300834 1
gene 2 11 13 256572 0 11 256572 1
gene 4 12 13 795746 0 12 795746 1
gene 2 1 14 166856 0 13 166856 1
gene 2 2 14 6533 0 14 6533 1
gene 4 3 14 543429 0 15 543429 1
gene 4 4 14 -207372 0 16 -207372 1
gene 4 5 14 -182409 0 17 -182409 1
gene 3 6 14 642724 0 18 642724 1
gene 2 7 14 563208 0 19 563208 1
gene 1 8 14 -123051 0 20 -123051 1
gene 2 9 14 85275 0 21 85275 1
gene 1 10 14 800000 0 22 800000 1
gene 1 11 14 -66468 0 23 -66468 1
gene 4 12 14 -315210 0 24 -315210 1
gene 3 1 15 379260 0 25 379260 1
gene 3 2 15 53424 0 26 53424 1
gene 3 3 15 430790 0 27 430790 1
gene 1 4 15 266553 0 28 266553 1
gene 3 5 15 -271038 0 29 -271038 1
gene 1 6 15 265185 0 30 265185 1
gene 3 7 15 331077 0 31 331077 1
gene 3 8 15 -49404 0 32 -49404 0
gene 3 9 15 -45279 0 33 -45279 1
gene 3 10 15 -116079 0 34 -116079 1
gene 2 11 15 762771 0 35 762771 1
gene 4 12 15 222194 0 36 222194 1
gene 4 15 15 -575166 1 174 -575166 1
gene 3 8 121 -57452 0 329 -57452 1
gene 3 121 15 -340500 0 330 -340500 1
gene 4 1 121 -82766 0 497 -82766 1
genomeend 23


/* Organism #26 Fitness: 230.000000 Time: 0 */
/* Position #26*/
#1 x: 83 y: 25
#2 x: 31 y: 17
#3 x: 73 y: 35
#4 x: 56 y: 73
#5 x: 72 y: 62
#6 x: 80 y: 69
genomestart 26
trait 1 1.000000 0.000000 0.000000 0.000000 0.000000 0.000000 0.000000 0.000000 trait 2 2.000000 0.000000 0.000000 0.000000 0.000000 0.000000 0.000000 0.000000 trait 3 3.000000 0.000000 0.000000 0.000000 0.000000 0.000000 0.000000 0.000000 trait 4 4.000000 0.000000 0.000000 0.000000 0.000000 0.000000 0.000000 0.000000 node 1 1 1 3
node 2 3 1 1
node 3 2 1 1
node 4 1 1 1
node 5 4 1 1
node 6 3 1 1
node 7 2 1 1
node 8 1 1 1
node 9 2 1 1
node 10 2 1 1
node 11 4 1 1
node 12 4 1 1
node 13 3 0 2
node 14 4 0 2
node 15 2 0 2
node 63 1 0 0
gene 4 1 13 632759 0 1 632759 1
gene 4 2 13 -249447 0 2 -249447 1
gene 3 3 13 89046 0 3 89046 1
gene 2 4 13 178604 0 4 178604 1
gene 2 5 13 -319686 0 5 -319686 1
gene 4 6 13 -198268 0 6 -198268 1
gene 3 7 13 355138 0 7 355138 1
gene 3 8 13 172682 0 8 172682 1
gene 4 9 13 -800000 0 9 -800000 1
gene 3 10 13 -169029 0 10 -169029 1
gene 4 11 13 -750752 0 11 -750752 1
gene 3 12 13 -94269 0 12 -94269 1
gene 3 1 14 -331813 0 13 -331813 1
gene 2 2 14 -106341 0 14 -106341 1
gene 1 3 14 337605 0 15 337605 1
gene 4 4 14 203547 0 16 203547 1
gene 1 5 14 15530 0 17 15530 1
gene 2 6 14 -260607 0 18 -260607 1
gene 4 7 14 146833 0 19 146833 1
gene 1 8 14 -47160 0 20 -47160 1
gene 2 9 14 -244512 0 21 -244512 1
gene 1 10 14 233588 0 22 233588 1
gene 2 11 14 257648 0 23 257648 1
gene 4 12 14 -1653 0 24 -1653 1
gene 2 1 15 -81169 0 25 -81169 1
gene 4 2 15 -441225 0 26 -441225 1
gene 4 3 15 308488 0 27 308488 1
gene 1 4 15 112849 0 28 112849 1
gene 4 5 15 -75438 0 29 -75438 1
gene 1 6 15 -34974 0 30 -34974 1
gene 1 7 15 -165144 0 31 -165144 1
gene 3 8 15 -274661 0 32 -274661 1
gene 4 9 15 -800000 0 33 -800000 1
gene 1 10 15 -9240 0 34 -9240 1
gene 3 11 15 -143763 0 35 -143763 0
gene 1 12 15 31658 0 36 31658 1
gene 1 14 15 -221152 0 66 -221152 1
gene 3 11 63 201150 0 158 201150 1
gene 3 63 15 -672376 0 159 -672376 1
gene 1 6 63 -13053 0 214 -13053 1
gene 3 9 63 389435 0 370 389435 1
gene 1 1 63 -1203 0 467 -1203 1
genomeend 26


/* Organism #30 Fitness: 210.000000 Time: 0 */
/* Position #30*/
#1 x: 49 y: 23
#2 x: 39 y: 33
#3 x: 65 y: 37
#4 x: 17 y: 77
#5 x: 20 y: 60
#6 x: 57 y: 83
genomestart 30
trait 1 1.000000 0.000000 0.000000 0.000000 0.000000 0.000000 0.000000 0.000000 trait 2 2.000000 0.000000 0.000000 0.000000 0.000000 0.000000 0.000000 0.000000 trait 3 3.000000 0.000000 0.000000 0.000000 0.000000 0.000000 0.000000 0.000000 trait 4 4.000000 0.000000 0.000000 0.000000 0.000000 0.000000 0.000000 0.000000 node 1 3 1 3
node 2 4 1 1
node 3 3 1 1
node 4 1 1 1
node 5 4 1 1
node 6 4 1 1
node 7 2 1 1
node 8 2 1 1
node 9 3 1 1
node 10 1 1 1
node 11 4 1 1
node 12 2 1 1
node 13 3 0 2
node 14 1 0 2
node 15 4 0 2
gene 1 1 13 357669 0 1 357669 1
gene 4 2 13 140304 0 2 140304 1
gene 3 3 13 -602090 0 3 -602090 1
gene 3 4 13 -183531 0 4 -183531 1
gene 2 5 13 -787554 0 5 -787554 1
gene 4 6 13 515514 0 6 515514 1
gene 4 7 13 -55548 0 7 -55548 1
gene 1 8 13 289821 0 8 289821 1
gene 1 9 13 116163 0 9 116163 1
gene 1 10 13 -32368 0 10 -32368 1
gene 2 11 13 192414 0 11 192414 1
gene 1 12 13 -37029 0 12 -37029 1
gene 2 1 14 -151989 0 13 -151989 1
gene 4 2 14 -146199 0 14 -146199 1
gene 3 3 14 139083 0 15 139083 1
gene 3 4 14 449211 0 16 449211 1
gene 1 5 14 -686837 0 17 -686837 1
gene 3 6 14 343056 0 18 343056 1
gene 2 7 14 -107443 0 19 -107443 1
gene 1 8 14 395185 0 20 395185 1
gene 1 9 14 31356 0 21 31356 1
gene 4 10 14 -246753 0 22 -246753 1
gene 1 11 14 567902 0 23 567902 1
gene 2 12 14 608720 0 24 608720 1
gene 4 1 15 -474062 0 25 -474062 1
gene 3 2 15 -95139 0 26 -95139 1
gene 4 3 15 -167514 0 27 -167514 1
gene 1 4 15 106889 0 28 106889 1
gene 3 5 15 -154207 0 29 -154207 1
gene 1 6 15 -647559 0 30 -647559 1
gene 4 7 15 113469 0 31 113469 1
gene 3 8 15 132460 0 32 132460 1
gene 2 9 15 -216490 0 33 -216490 1
gene 4 10 15 545169 0 34 545169 1
gene 1 11 15 -54319 0 35 -54319 1
gene 4 12 15 211815 0 36 211815 1
gene 2 15 15 61683 1 138 61683 1
gene 1 15 13 -257640 0 163 -257640 1
gene 1 14 15 58575 0 252 58575 1
genomeend 30


/* Organism #33 Fitness: 260.000000 Time: 0 */
/* Position #33*/
#1 x: 39 y: 32
#2 x: 29 y: 39
#3 x: 33 y: 23
#4 x: 74 y: 76
#5 x: 37 y: 72
#6 x: 54 y: 64
genomestart 33
trait 1 1.000000 0.000000 0.000000 0.000000 0.000000 0.000000 0.000000 0.000000 trait 2 2.000000 0.000000 0.000000 0.000000 0.000000 0.000000 0.000000 0.000000 trait 3 3.000000 0.000000 0.000000 0.000000 0.000000 0.000000 0.000000 0.000000 trait 4 4.000000 0.000000 0.000000 0.000000 0.000000 0.000000 0.000000 0.000000 node 1 2 1 3
node 2 3 1 1
node 3 2 1 1
node 4 1 1 1
node 5 1 1 1
node 6 1 1 1
node 7 2 1 1
node 8 3 1 1
node 9 1 1 1
node 10 1 1 1
node 11 3 1 1
node 12 4 1 1
node 13 3 0 2
node 14 4 0 2
node 15 2 0 2
node 122 1 0 0
gene 3 1 13 800000 0 1 800000 1
gene 2 2 13 193872 0 2 193872 1
gene 1 3 13 180463 0 3 180463 1
gene 2 4 13 -457683 0 4 -457683 1
gene 4 5 13 -272523 0 5 -272523 0
gene 1 6 13 -800000 0 6 -800000 1
gene 1 7 13 -168093 0 7 -168093 1
gene 4 8 13 240504 0 8 240504 1
gene 3 9 13 132030 0 9 132030 1
gene 2 10 13 -36309 0 10 -36309 1
gene 1 11 13 117960 0 11 117960 1
gene 2 12 13 701600 0 12 701600 1
gene 4 1 14 -775089 0 13 -775089 1
gene 1 2 14 49496 0 14 49496 1
gene 1 3 14 122889 0 15 122889 1
gene 4 4 14 245223 0 16 245223 1
gene 3 5 14 -750343 0 17 -750343 1
gene 3 6 14 256465 0 18 256465 1
gene 1 7 14 175523 0 19 175523 1
gene 4 8 14 -115923 0 20 -115923 1
gene 1 9 14 -236161 0 21 -236161 1
gene 3 10 14 -703607 0 22 -703607 1
gene 4 11 14 90297 0 23 90297 1
gene 3 12 14 283083 0 24 283083 1
gene 2 1 15 -800000 0 25 -800000 1
gene 2 2 15 -202449 0 26 -202449 1
gene 2 3 15 496806 0 27 496806 1
gene 4 4 15 -119889 0 28 -119889 1
gene 4 5 15 -454389 0 29 -454389 1
gene 4 6 15 789788 0 30 789788 1
gene 1 7 15 -653041 0 31 -653041 1
gene 1 8 15 -240117 0 32 -240117 1
gene 3 9 15 330261 0 33 330261 1
gene 3 10 15 265794 0 34 265794 1
gene 2 11 15 -205554 0 35 -205554 1
gene 1 12 15 116316 0 36 116316 1
gene 4 13 15 182475 0 105 182475 1
gene 4 5 122 -156512 0 332 -156512 1
gene 4 122 13 -385569 0 333 -385569 1
genomeend 33


/* Organism #34 Fitness: 230.000000 Time: 0 */
/* Position #34*/
#1 x: 29 y: 26
#2 x: 21 y: 22
#3 x: 74 y: 35
#4 x: 68 y: 81
#5 x: 80 y: 62
#6 x: 32 y: 64
genomestart 34
trait 1 1.000000 0.000000 0.000000 0.000000 0.000000 0.000000 0.000000 0.000000 trait 2 2.000000 0.000000 0.000000 0.000000 0.000000 0.000000 51760.000000 0.000000 trait 3 3.000000 0.000000 0.000000 0.000000 0.000000 0.000000 0.000000 0.000000 trait 4 4.000000 0.000000 0.000000 0.000000 0.000000 0.000000 0.000000 0.000000 node 1 2 1 3
node 2 3 1 1
node 3 2 1 1
node 4 1 1 1
node 5 1 1 1
node 6 1 1 1
node 7 2 1 1
node 8 3 1 1
node 9 1 1 1
node 10 1 1 1
node 11 3 1 1
node 12 4 1 1
node 13 3 0 2
node 14 4 0 2
node 15 2 0 2
node 91 1 0 0
node 114 1 0 0
node 142 1 0 0
gene 3 1 13 273813 0 1 273813 1
gene 2 2 13 -100887 0 2 -100887 1
gene 1 3 13 165747 0 3 165747 1
gene 2 4 13 -510705 0 4 -510705 1
gene 4 5 13 -553992 0 5 -553992 1
gene 1 6 13 -4707 0 6 -4707 1
gene 1 7 13 281613 0 7 281613 1
gene 4 8 13 -22320 0 8 -22320 1
gene 3 9 13 -127866 0 9 -127866 1
gene 2 10 13 -594780 0 10 -594780 1
gene 1 11 13 -663673 0 11 -663673 1
gene 2 12 13 133013 0 12 133013 0
gene 4 1 14 -50442 0 13 -50442 1
gene 1 2 14 -96450 0 14 -96450 1
gene 1 3 14 57680 0 15 57680 1
gene 4 4 14 -800000 0 16 -800000 1
gene 3 5 14 -437064 0 17 -437064 1
gene 3 6 14 -403175 0 18 -403175 1
gene 1 7 14 582992 0 19 582992 1
gene 4 8 14 76500 0 20 76500 0
gene 1 9 14 219756 0 21 219756 0
gene 3 10 14 48237 0 22 48237 1
gene 4 11 14 -411399 0 23 -411399 1
gene 3 12 14 117245 0 24 117245 1
gene 1 1 15 86772 0 25 86772 1
gene 2 2 15 274826 0 26 274826 1
gene 2 3 15 -22689 0 27 -22689 1
gene 4 4 15 -23833 0 28 -23833 1
gene 4 5 15 -435888 0 29 -435888 1
gene 4 6 15 197028 0 30 197028 1
gene 1 7 15 259650 0 31 259650 1
gene 1 8 15 332730 0 32 332730 1
gene 3 9 15 363654 0 33 363654 1
gene 3 10 15 -215796 0 34 -215796 1
gene 2 11 15 192417 0 35 192417 1
gene 1 12 15 -132960 0 36 -132960 1
gene 4 8 91 218215 0 233 218215 1
gene 4 91 14 -322224 0 234 -322224 1
gene 2 15 13 -78347 0 275 -78347 1
gene 2 12 114 -49038 0 310 -49038 1
gene 2 114 13 520799 0 311 520799 1
gene 1 9 142 -233105 0 389 -233105 1
gene 1 142 14 -14970 0 390 -14970 1
gene 4 8 142 -57950 0 505 -57950 1
genomeend 34


/* Organism #39 Fitness: 220.000000 Time: 0 */
/* Position #39*/
#1 x: 29 y: 26
#2 x: 20 y: 27
#3 x: 34 y: 24
#4 x: 47 y: 79
#5 x: 48 y: 70
#6 x: 21 y: 62
genomestart 39
trait 1 1.000000 0.000000 0.000000 0.000000 0.000000 0.000000 0.000000 0.000000 trait 2 2.000000 0.000000 0.000000 0.000000 0.000000 0.000000 0.000000 0.000000 trait 3 3.000000 0.000000 0.000000 0.000000 0.000000 0.000000 0.000000 0.000000 trait 4 4.000000 0.000000 0.000000 0.000000 0.000000 0.000000 0.000000 0.000000 node 1 2 1 3
node 2 3 1 1
node 3 2 1 1
node 4 1 1 1
node 5 1 1 1
node 6 1 1 1
node 7 2 1 1
node 8 3 1 1
node 9 1 1 1
node 10 1 1 1
node 11 3 1 1
node 12 4 1 1
node 13 3 0 2
node 14 4 0 2
node 15 2 0 2
node 122 1 0 0
node 186 1 0 0
gene 3 1 13 -184485 0 1 -184485 1
gene 2 2 13 310419 0 2 310419 1
gene 1 3 13 317158 0 3 317158 1
gene 2 4 13 183024 0 4 183024 1
gene 4 5 13 -234474 0 5 -234474 0
gene 1 6 13 -357057 0 6 -357057 1
gene 1 7 13 -800000 0 7 -800000 1
gene 4 8 13 780768 0 8 780768 1
gene 3 9 13 -73332 0 9 -73332 1
gene 2 10 13 -265017 0 10 -265017 1
gene 1 11 13 432549 0 11 432549 1
gene 2 12 13 395228 0 12 395228 1
gene 4 1 14 -629370 0 13 -629370 1
gene 1 2 14 -637726 0 14 -637726 1
gene 1 3 14 -743141 0 15 -743141 1
gene 4 4 14 -197748 0 16 -197748 1
gene 3 5 14 -142698 0 17 -142698 1
gene 3 6 14 472066 0 18 472066 0
gene 1 7 14 -203713 0 19 -203713 1
gene 4 8 14 734744 0 20 734744 1
gene 1 9 14 126002 0 21 126002 1
gene 3 10 14 -51126 0 22 -51126 1
gene 4 11 14 328422 0 23 328422 1
gene 3 12 14 -800000 0 24 -800000 1
gene 2 1 15 63039 0 25 63039 1
gene 2 2 15 455687 0 26 455687 1
gene 2 3 15 108198 0 27 108198 1
gene 4 4 15 787868 0 28 787868 1
gene 4 5 15 -79128 0 29 -79128 1
gene 4 6 15 646319 0 30 646319 1
gene 1 7 15 454115 0 31 454115 1
gene 1 8 15 -266517 0 32 -266517 1
gene 3 9 15 608667 0 33 608667 1
gene 3 10 15 106173 0 34 106173 1
gene 2 11 15 -495579 0 35 -495579 1
gene 1 12 15 129 0 36 129 1
gene 4 13 15 271356 0 105 271356 1
gene 4 5 122 -202871 0 332 -202871 1
gene 4 122 13 -296688 0 333 -296688 1
gene 2 14 122 120713 0 426 120713 1
gene 3 6 186 1 0 510 0 1
gene 3 186 14 472066 0 511 0 1
genomeend 39


/* Organism #62 Fitness: 230.000000 Time: 0 */
/* Position #62*/
#1 x: 58 y: 33
#2 x: 32 y: 40
#3 x: 19 y: 26
#4 x: 58 y: 65
#5 x: 21 y: 73
#6 x: 34 y: 63
genomestart 62
trait 1 1.000000 0.000000 0.000000 0.000000 0.000000 0.000000 0.000000 0.000000 trait 2 2.000000 0.000000 0.000000 0.000000 0.000000 0.000000 0.000000 0.000000 trait 3 3.000000 0.000000 0.000000 0.000000 0.000000 0.000000 0.000000 0.000000 trait 4 4.000000 0.000000 0.000000 0.000000 0.000000 0.000000 0.000000 0.000000 node 1 1 1 3
node 2 3 1 1
node 3 3 1 1
node 4 2 1 1
node 5 4 1 1
node 6 1 1 1
node 7 1 1 1
node 8 3 1 1
node 9 1 1 1
node 10 2 1 1
node 11 4 1 1
node 12 2 1 1
node 13 2 0 2
node 14 4 0 2
node 15 3 0 2
node 21 1 0 0
node 60 1 0 0
node 78 1 0 0
node 160 1 0 0
gene 4 1 13 657673 0 1 657673 1
gene 1 2 13 -64338 0 2 -64338 1
gene 3 3 13 174329 0 3 174329 1
gene 3 4 13 -103122 0 4 -103122 1
gene 4 5 13 270546 0 5 270546 1
gene 1 6 13 -206106 0 6 -206106 1
gene 1 7 13 329724 0 7 329724 1
gene 2 8 13 -70641 0 8 -70641 0
gene 1 9 13 622656 0 9 622656 0
gene 2 10 13 40702 0 10 40702 1
gene 1 11 13 -271611 0 11 -271611 1
gene 3 12 13 -254103 0 12 -254103 1
gene 3 1 14 -313719 0 13 -313719 1
gene 4 2 14 58365 0 14 58365 1
gene 4 3 14 127572 0 15 127572 1
gene 1 4 14 -139732 0 16 -139732 1
gene 2 5 14 -262740 0 17 -262740 1
gene 4 6 14 146063 0 18 146063 1
gene 2 7 14 -100271 0 19 -100271 1
gene 1 8 14 -422764 0 20 -422764 1
gene 1 9 14 -15879 0 21 -15879 1
gene 4 10 14 -327145 0 22 -327145 1
gene 4 11 14 255297 0 23 255297 1
gene 3 12 14 -543536 0 24 -543536 1
gene 2 1 15 67371 0 25 67371 1
gene 4 2 15 -325585 0 26 -325585 1
gene 1 3 15 -52593 0 27 -52593 1
gene 3 4 15 183076 0 28 183076 1
gene 2 5 15 120102 0 29 120102 1
gene 3 6 15 -267258 0 30 -267258 1
gene 4 7 15 -479153 0 31 -479153 1
gene 4 8 15 39404 0 32 39404 1
gene 4 9 15 -101577 0 33 -101577 1
gene 2 10 15 -243339 0 34 -243339 0
gene 2 11 15 -117366 0 35 -117366 1
gene 2 12 15 175826 0 36 175826 1
gene 1 9 21 -376908 0 49 -376908 0
gene 1 21 13 -492492 0 50 -492492 1
gene 2 8 60 179878 0 150 179878 1
gene 2 60 13 303558 0 151 303558 1
gene 1 9 78 -112827 0 201 -112827 1
gene 1 78 21 359040 0 202 359040 1
gene 4 7 21 26677 0 355 26677 1
gene 2 10 160 -38376 0 436 -38376 1
gene 2 160 15 141768 0 437 141768 1
genomeend 62


/* Organism #74 Fitness: 260.000000 Time: 0 */
/* Position #74*/
#1 x: 25 y: 33
#2 x: 38 y: 31
#3 x: 31 y: 30
#4 x: 32 y: 84
#5 x: 70 y: 61
#6 x: 69 y: 85
genomestart 74
trait 1 1.000000 0.000000 0.000000 0.000000 0.000000 0.000000 0.000000 0.000000 trait 2 2.000000 0.000000 0.000000 0.000000 0.000000 0.000000 0.000000 0.000000 trait 3 3.000000 0.000000 0.000000 0.000000 0.000000 0.000000 0.000000 0.000000 trait 4 4.000000 0.000000 0.000000 0.000000 0.000000 0.000000 0.000000 0.000000 node 1 3 1 3
node 2 4 1 1
node 3 3 1 1
node 4 1 1 1
node 5 4 1 1
node 6 4 1 1
node 7 2 1 1
node 8 2 1 1
node 9 3 1 1
node 10 1 1 1
node 11 4 1 1
node 12 2 1 1
node 13 3 0 2
node 14 1 0 2
node 15 4 0 2
node 160 1 0 0
gene 1 1 13 352992 0 1 352992 1
gene 4 2 13 -800000 0 2 -800000 1
gene 3 3 13 -573737 0 3 -573737 1
gene 3 4 13 7684 0 4 7684 1
gene 2 5 13 -184590 0 5 -184590 1
gene 4 6 13 10665 0 6 10665 1
gene 4 7 13 -318951 0 7 -318951 1
gene 1 8 13 -26643 0 8 -26643 1
gene 1 9 13 139569 0 9 139569 1
gene 1 10 13 268095 0 10 268095 1
gene 2 11 13 169092 0 11 169092 1
gene 1 12 13 42645 0 12 42645 1
gene 2 1 14 -70713 0 13 -70713 1
gene 4 2 14 -209982 0 14 -209982 1
gene 3 3 14 -234279 0 15 -234279 1
gene 3 4 14 -80100 0 16 -80100 1
gene 1 5 14 145413 0 17 145413 1
gene 3 6 14 21921 0 18 21921 1
gene 2 7 14 290334 0 19 290334 1
gene 1 8 14 116317 0 20 116317 1
gene 1 9 14 104442 0 21 104442 1
gene 4 10 14 -130806 0 22 -130806 1
gene 1 11 14 86270 0 23 86270 1
gene 2 12 14 332063 0 24 332063 1
gene 4 1 15 -190953 0 25 -190953 1
gene 3 2 15 -39045 0 26 -39045 1
gene 4 3 15 -255828 0 27 -255828 1
gene 1 4 15 -90324 0 28 -90324 1
gene 3 5 15 145859 0 29 145859 1
gene 1 6 15 -150165 0 30 -150165 1
gene 4 7 15 235626 0 31 235626 1
gene 3 8 15 -90710 0 32 -90710 1
gene 2 9 15 -447441 0 33 -447441 1
gene 4 10 15 85110 0 34 85110 0
gene 1 11 15 -481300 0 35 -481300 1
gene 4 12 15 -15192 0 36 -15192 1
gene 2 15 15 -40170 1 138 -40170 1
gene 1 15 13 103689 0 163 103689 1
gene 1 14 15 83151 0 252 83151 1
gene 4 10 160 -133481 0 436 -133481 1
gene 4 160 15 -168498 0 437 -168498 1
genomeend 74


