/* Organism #0 Fitness: 340.000000 Time: 0 */
/* Position #0*/
#1 x: 64 y: 23
#2 x: 68 y: 36
#3 x: 63 y: 17
#4 x: 42 y: 69
#5 x: 52 y: 75
#6 x: 68 y: 67
genomestart 0
trait 1 1.000000 0.000000 0.000000 0.000000 0.000000 0.000000 0.000000 0.000000 trait 2 2.000000 0.000000 0.000000 0.000000 0.000000 0.000000 0.000000 0.000000 trait 3 3.000000 0.000000 0.000000 0.000000 0.000000 0.000000 0.000000 0.000000 trait 4 4.000000 0.000000 0.000000 0.000000 0.000000 0.000000 0.000000 0.000000 node 1 1 1 3
node 2 4 1 1
node 3 1 1 1
node 4 4 1 1
node 5 3 1 1
node 6 1 1 1
node 7 2 1 1
node 8 2 1 1
node 9 4 1 1
node 10 3 1 1
node 11 4 1 1
node 12 2 1 1
node 13 3 0 2
node 14 3 0 2
node 15 3 0 2
node 54 1 0 0
node 260 1 0 0
node 275 1 0 0
node 362 1 0 0
node 378 1 0 0
gene 1 1 13 240412 0 1 240412 1
gene 2 2 13 142184 0 2 142184 1
gene 1 3 13 800000 0 3 800000 1
gene 3 4 13 -191283 0 4 -191283 1
gene 4 5 13 800000 0 5 800000 1
gene 4 6 13 445983 0 6 445983 1
gene 1 7 13 -245352 0 7 -245352 1
gene 3 8 13 -266223 0 8 -266223 1
gene 4 9 13 197706 0 9 197706 1
gene 1 10 13 -348125 0 10 -348125 1
gene 2 11 13 -657744 0 11 -657744 1
gene 1 12 13 583167 0 12 583167 1
gene 3 1 14 121000 0 13 121000 1
gene 2 2 14 -606638 0 14 -606638 1
gene 1 3 14 -175176 0 15 -175176 1
gene 3 4 14 -433583 0 16 -433583 1
gene 2 5 14 7301 0 17 7301 0
gene 1 6 14 -287346 0 18 -287346 1
gene 1 7 14 386253 0 19 386253 1
gene 4 8 14 -544799 0 20 -544799 1
gene 3 9 14 -137391 0 21 -137391 0
gene 2 10 14 254640 0 22 254640 1
gene 3 11 14 -123267 0 23 -123267 1
gene 3 12 14 231382 0 24 231382 0
gene 2 1 15 125424 0 25 125424 1
gene 4 2 15 55149 0 26 55149 0
gene 4 3 15 635722 0 27 635722 1
gene 3 4 15 800000 0 28 800000 1
gene 4 5 15 188685 0 29 188685 1
gene 3 6 15 -36756 0 30 -36756 1
gene 2 7 15 10285 0 31 10285 1
gene 4 8 15 708243 0 32 708243 1
gene 1 9 15 669107 0 33 669107 1
gene 3 10 15 406911 0 34 406911 1
gene 3 11 15 414801 0 35 414801 1
gene 1 12 15 -724263 0 36 -724263 1
gene 4 2 54 -1721 0 152 -1721 1
gene 4 54 15 -191715 0 153 -191715 1
gene 4 15 15 380227 1 360 380227 0
gene 3 7 54 -128754 0 403 -128754 1
gene 1 1 54 -224763 0 442 -224763 1
gene 4 14 15 469056 0 523 469056 1
gene 4 15 13 -430011 0 561 -430011 1
gene 1 8 54 -166559 0 613 -166559 1
gene 1 54 54 237396 1 654 237396 1
gene 2 5 260 225096 0 806 225096 1
gene 2 260 14 -72748 0 807 -72748 1
gene 3 9 275 229246 0 856 229246 1
gene 3 275 14 -174570 0 857 -174570 1
gene 1 54 275 108191 0 913 108191 1
gene 3 12 362 1 0 1124 0 1
gene 3 362 14 231382 0 1125 0 1
gene 4 15 378 1 1 1170 0 1
gene 4 378 15 380227 0 1171 0 1
genomeend 0


/* Organism #32 Fitness: 440.000000 Time: 0 */
/* Position #32*/
#1 x: 35 y: 19
#2 x: 41 y: 23
#3 x: 69 y: 30
#4 x: 69 y: 70
#5 x: 32 y: 83
#6 x: 76 y: 69
genomestart 32
trait 1 1.000000 0.000000 0.000000 0.000000 0.000000 0.000000 0.000000 0.000000 trait 2 2.000000 0.000000 0.000000 0.000000 0.000000 0.000000 0.000000 0.000000 trait 3 3.000000 0.000000 0.000000 0.000000 66128.000000 0.000000 0.000000 0.000000 trait 4 4.000000 0.000000 0.000000 0.000000 0.000000 0.000000 0.000000 0.000000 node 1 4 1 3
node 2 4 1 1
node 3 2 1 1
node 4 2 1 1
node 5 1 1 1
node 6 4 1 1
node 7 1 1 1
node 8 1 1 1
node 9 3 1 1
node 10 3 1 1
node 11 2 1 1
node 12 4 1 1
node 13 3 0 2
node 14 1 0 2
node 15 4 0 2
node 130 1 0 0
node 149 1 0 0
node 289 1 0 0
node 413 1 0 0
gene 4 1 13 -150330 0 1 -150330 1
gene 3 2 13 536178 0 2 536178 1
gene 1 3 13 480669 0 3 480669 1
gene 3 4 13 -580542 0 4 -580542 1
gene 4 5 13 -4784 0 5 -4784 1
gene 3 6 13 149988 0 6 149988 1
gene 4 7 13 -707879 0 7 -707879 1
gene 3 8 13 -553554 0 8 -553554 1
gene 3 9 13 -549028 0 9 -549028 1
gene 1 10 13 -700499 0 10 -700499 1
gene 1 11 13 -13278 0 11 -13278 1
gene 4 12 13 -560457 0 12 -560457 0
gene 3 1 14 -800000 0 13 -800000 1
gene 3 2 14 -79917 0 14 -79917 0
gene 1 3 14 -72031 0 15 -72031 1
gene 3 4 14 106395 0 16 106395 1
gene 2 5 14 -60156 0 17 -60156 1
gene 1 6 14 -165990 0 18 -165990 1
gene 4 7 14 -633173 0 19 -633173 1
gene 3 8 14 -208782 0 20 -208782 1
gene 4 9 14 428907 0 21 428907 1
gene 4 10 14 -111063 0 22 -111063 1
gene 4 11 14 -327825 0 23 -327825 1
gene 3 12 14 126867 0 24 126867 1
gene 3 1 15 -272079 0 25 -272079 1
gene 4 2 15 -405337 0 26 -405337 1
gene 1 3 15 251751 0 27 251751 1
gene 4 4 15 158224 0 28 158224 1
gene 4 5 15 -119976 0 29 -119976 1
gene 4 6 15 91230 0 30 91230 1
gene 3 7 15 -282279 0 31 -282279 1
gene 2 8 15 -490905 0 32 -490905 1
gene 2 9 15 -441870 0 33 -441870 1
gene 1 10 15 244698 0 34 244698 1
gene 1 11 15 783951 0 35 783951 1
gene 3 12 15 528321 0 36 528321 0
gene 1 15 14 4755 0 120 4755 0
gene 2 14 13 3585 0 199 3585 1
gene 4 12 130 -419370 0 385 -419370 1
gene 4 130 13 -218481 0 386 -218481 1
gene 3 15 149 -582395 0 452 -582395 1
gene 3 149 14 464561 0 453 464561 1
gene 3 12 149 35358 0 490 35358 1
gene 1 11 130 -10799 0 525 -10799 1
gene 1 7 130 -293811 0 564 -293811 1
gene 2 6 149 -87180 0 656 -87180 1
gene 4 13 13 1983 1 756 1983 1
gene 3 2 289 405490 0 899 405490 1
gene 3 289 14 276156 0 900 276156 1
gene 2 10 149 -291403 0 1010 -291403 1
gene 3 12 413 117586 0 1272 117586 1
gene 3 413 15 616203 0 1273 616203 1
genomeend 32


/* Organism #34 Fitness: 540.000000 Time: 0 */
/* Position #34*/
#1 x: 72 y: 40
#2 x: 31 y: 27
#3 x: 36 y: 24
#4 x: 26 y: 65
#5 x: 35 y: 75
#6 x: 44 y: 73
genomestart 34
trait 1 1.000000 0.000000 0.000000 0.000000 0.000000 0.000000 0.000000 0.000000 trait 2 2.000000 0.000000 0.000000 0.000000 0.000000 0.000000 0.000000 0.000000 trait 3 3.000000 0.000000 0.000000 0.000000 0.000000 59713.000000 0.000000 25023.000000 trait 4 4.000000 0.000000 0.000000 22394.000000 98939.000000 0.000000 97381.000000 0.000000 node 1 3 1 3
node 2 2 1 1
node 3 1 1 1
node 4 3 1 1
node 5 1 1 1
node 6 3 1 1
node 7 3 1 1
node 8 3 1 1
node 9 2 1 1
node 10 3 1 1
node 11 4 1 1
node 12 1 1 1
node 13 3 0 2
node 14 2 0 2
node 15 2 0 2
node 19 1 0 0
node 26 1 0 0
node 65 1 0 0
node 218 1 0 0
node 248 1 0 0
node 278 1 0 0
node 345 1 0 0
node 393 1 0 0
gene 2 1 13 229752 0 1 229752 1
gene 1 2 13 -567805 0 2 -567805 0
gene 4 3 13 21174 0 3 21174 1
gene 3 4 13 -688019 0 4 -688019 1
gene 4 5 13 467688 0 5 467688 1
gene 1 6 13 -199398 0 6 -199398 1
gene 2 7 13 113383 0 7 113383 0
gene 2 8 13 264786 0 8 264786 1
gene 1 9 13 236190 0 9 236190 1
gene 4 10 13 -407634 0 10 -407634 1
gene 4 11 13 249271 0 11 249271 1
gene 2 12 13 44515 0 12 44515 1
gene 2 1 14 -167271 0 13 -167271 1
gene 2 2 14 -214530 0 14 -214530 1
gene 1 3 14 -72057 0 15 -72057 1
gene 4 4 14 -46488 0 16 -46488 1
gene 4 5 14 129531 0 17 129531 1
gene 1 6 14 428977 0 18 428977 1
gene 1 7 14 218100 0 19 218100 0
gene 2 8 14 800000 0 20 800000 0
gene 2 9 14 589977 0 21 589977 1
gene 1 10 14 -138405 0 22 -138405 1
gene 1 11 14 212781 0 23 212781 1
gene 2 12 14 -53628 0 24 -53628 1
gene 2 1 15 -38499 0 25 -38499 1
gene 3 2 15 101670 0 26 101670 1
gene 4 3 15 -352356 0 27 -352356 1
gene 1 4 15 -136386 0 28 -136386 1
gene 3 5 15 128949 0 29 128949 1
gene 2 6 15 691680 0 30 691680 1
gene 4 7 15 -336492 0 31 -336492 1
gene 4 8 15 -292379 0 32 -292379 0
gene 4 9 15 728900 0 33 728900 1
gene 1 10 15 -531115 0 34 -531115 1
gene 1 11 15 -225441 0 35 -225441 1
gene 1 12 15 -800000 0 36 -800000 0
gene 4 6 19 -108834 0 47 -108834 0
gene 4 19 15 -735939 0 48 -735939 0
gene 1 12 26 351078 0 69 351078 1
gene 1 26 15 -116463 0 70 -116463 1
gene 2 3 19 38094 0 100 38094 1
gene 4 6 65 -202149 0 192 -202149 1
gene 4 65 19 800000 0 193 800000 1
gene 1 19 26 88935 0 351 88935 1
gene 1 26 14 156854 0 544 156854 1
gene 4 19 218 -75492 0 679 -75492 1
gene 4 218 15 -472482 0 680 -472482 1
gene 1 12 65 32472 0 724 32472 1
gene 4 8 248 -35457 0 768 -35457 1
gene 4 248 15 15318 0 769 15318 1
gene 1 9 19 -238962 0 820 -238962 1
gene 1 2 278 -444140 0 867 -444140 1
gene 1 278 13 -621010 0 868 -621010 1
gene 2 248 19 -245022 0 921 -245022 1
gene 2 8 345 -75837 0 1067 -75837 1
gene 2 345 14 725837 0 1068 725837 1
gene 2 7 393 209577 0 1218 209577 1
gene 2 393 13 -62666 0 1219 -62666 1
genomeend 34


/* Organism #35 Fitness: 380.000000 Time: 0 */
/* Position #35*/
#1 x: 72 y: 40
#2 x: 31 y: 27
#3 x: 36 y: 24
#4 x: 26 y: 65
#5 x: 35 y: 75
#6 x: 44 y: 73
genomestart 35
trait 1 1.000000 0.000000 0.000000 0.000000 0.000000 0.000000 0.000000 0.000000 trait 2 2.000000 0.000000 0.000000 0.000000 0.000000 0.000000 0.000000 0.000000 trait 3 3.000000 0.000000 0.000000 0.000000 0.000000 0.000000 0.000000 0.000000 trait 4 4.000000 0.000000 0.000000 0.000000 0.000000 0.000000 0.000000 0.000000 node 1 4 1 3
node 2 4 1 1
node 3 2 1 1
node 4 2 1 1
node 5 1 1 1
node 6 4 1 1
node 7 1 1 1
node 8 1 1 1
node 9 3 1 1
node 10 3 1 1
node 11 2 1 1
node 12 2 1 1
node 13 3 0 2
node 14 1 0 2
node 15 4 0 2
node 183 1 0 0
node 260 1 0 0
node 276 1 0 0
node 294 1 0 0
node 309 1 0 0
node 363 1 0 0
node 410 1 0 0
gene 4 1 13 -291392 0 1 -291392 1
gene 3 2 13 192756 0 2 192756 1
gene 1 3 13 -754781 0 3 -754781 0
gene 3 4 13 -577599 0 4 -577599 1
gene 4 5 13 7914 0 5 7914 1
gene 3 6 13 43686 0 6 43686 1
gene 4 7 13 -75782 0 7 -75782 1
gene 3 8 13 -800000 0 8 -800000 1
gene 3 9 13 15234 0 9 15234 0
gene 1 10 13 -169794 0 10 -169794 1
gene 1 11 13 405273 0 11 405273 1
gene 4 12 13 -800000 0 12 -800000 1
gene 3 1 14 -400985 0 13 -400985 1
gene 3 2 14 -282989 0 14 -282989 1
gene 1 3 14 66668 0 15 66668 1
gene 3 4 14 186106 0 16 186106 1
gene 2 5 14 -605190 0 17 -605190 0
gene 1 6 14 -210598 0 18 -210598 1
gene 4 7 14 -777136 0 19 -777136 1
gene 3 8 14 -311244 0 20 -311244 1
gene 4 9 14 -1422 0 21 -1422 1
gene 4 10 14 242124 0 22 242124 1
gene 4 11 14 -1644 0 23 -1644 0
gene 3 12 14 156132 0 24 156132 1
gene 3 1 15 355653 0 25 355653 1
gene 4 2 15 -170721 0 26 -170721 1
gene 1 3 15 -200868 0 27 -200868 1
gene 2 4 15 -148044 0 28 -148044 1
gene 4 5 15 611259 0 29 611259 1
gene 4 6 15 453780 0 30 453780 1
gene 3 7 15 423222 0 31 423222 1
gene 2 8 15 -143481 0 32 -143481 0
gene 2 9 15 -623672 0 33 -623672 1
gene 1 10 15 800000 0 34 800000 1
gene 1 11 15 -383327 0 35 -383327 1
gene 3 12 15 -123600 0 36 -123600 1
gene 3 15 14 264313 0 120 264313 0
gene 2 14 13 46992 0 199 46992 0
gene 4 13 13 188087 1 489 188087 1
gene 3 15 183 -298871 0 562 -298871 1
gene 3 183 14 513523 0 563 513523 1
gene 2 3 183 -99200 0 616 -99200 1
gene 4 15 13 -191369 0 655 -191369 1
gene 2 5 260 152572 0 806 152572 1
gene 2 260 14 240792 0 807 240792 1
gene 1 3 276 -223146 0 858 -223146 1
gene 1 276 13 165099 0 859 165099 1
gene 3 9 294 -275444 0 914 -275444 1
gene 3 294 13 80352 0 915 80352 1
gene 4 11 309 -287615 0 963 -287615 1
gene 4 309 14 17655 0 964 17655 1
gene 2 1 309 -7379 0 1020 -7379 1
gene 1 6 309 -187940 0 1081 -187940 1
gene 2 14 363 119307 0 1127 119307 1
gene 2 363 13 323997 0 1128 323997 1
gene 2 8 410 1 0 1263 0 1
gene 2 410 15 -143481 0 1264 0 1
gene 4 410 410 -98221 1 1316 -98221 1
genomeend 35


/* Organism #42 Fitness: 400.000000 Time: 0 */
/* Position #42*/
#1 x: 56 y: 39
#2 x: 69 y: 18
#3 x: 21 y: 24
#4 x: 25 y: 78
#5 x: 71 y: 77
#6 x: 50 y: 85
genomestart 42
trait 1 1.000000 0.000000 0.000000 0.000000 0.000000 0.000000 0.000000 0.000000 trait 2 0.000000 0.000000 0.000000 0.000000 78061.000000 0.000000 0.000000 0.000000 trait 3 0.000000 0.000000 0.000000 0.000000 0.000000 46620.000000 0.000000 10415.000000 trait 4 0.000000 0.000000 0.000000 0.000000 44198.000000 0.000000 0.000000 0.000000 node 1 4 1 3
node 2 3 1 1
node 3 1 1 1
node 4 2 1 1
node 5 2 1 1
node 6 3 1 1
node 7 1 1 1
node 8 3 1 1
node 9 2 1 1
node 10 4 1 1
node 11 4 1 1
node 12 1 1 1
node 13 4 0 2
node 14 1 0 2
node 15 2 0 2
node 89 1 0 0
node 188 1 0 0
node 324 1 0 0
node 342 1 0 0
node 357 1 0 0
node 417 1 0 0
gene 2 1 13 -480690 0 1 -480690 1
gene 1 2 13 24560 0 2 24560 0
gene 1 3 13 7119 0 3 7119 1
gene 2 4 13 477836 0 4 477836 1
gene 4 5 13 459970 0 5 459970 1
gene 4 6 13 -310315 0 6 -310315 1
gene 1 7 13 449558 0 7 449558 1
gene 1 8 13 -52990 0 8 -52990 0
gene 1 9 13 120968 0 9 120968 1
gene 3 10 13 -743960 0 10 -743960 1
gene 4 11 13 -17898 0 11 -17898 1
gene 1 12 13 -190551 0 12 -190551 1
gene 2 1 14 514530 0 13 514530 1
gene 4 2 14 154392 0 14 154392 0
gene 1 3 14 -234006 0 15 -234006 1
gene 4 4 14 113505 0 16 113505 1
gene 4 5 14 -82321 0 17 -82321 1
gene 3 6 14 -19465 0 18 -19465 1
gene 3 7 14 663233 0 19 663233 1
gene 4 8 14 168690 0 20 168690 1
gene 4 9 14 438006 0 21 438006 1
gene 4 10 14 -176163 0 22 -176163 1
gene 1 11 14 -14352 0 23 -14352 1
gene 1 12 14 567155 0 24 567155 0
gene 2 1 15 -290364 0 25 -290364 1
gene 2 2 15 -504242 0 26 -504242 1
gene 1 3 15 119364 0 27 119364 0
gene 1 4 15 -158880 0 28 -158880 1
gene 3 5 15 -579231 0 29 -579231 1
gene 4 6 15 800000 0 30 800000 1
gene 2 7 15 521355 0 31 521355 1
gene 1 8 15 -301785 0 32 -301785 1
gene 4 9 15 280608 0 33 280608 1
gene 3 10 15 -501279 0 34 -501279 1
gene 4 11 15 -800000 0 35 -800000 0
gene 1 12 15 -770508 0 36 -770508 1
gene 2 15 13 800000 0 176 800000 1
gene 1 8 89 -136560 0 259 -136560 1
gene 1 89 13 188400 0 260 188400 1
gene 3 5 89 683250 0 326 683250 1
gene 3 15 15 162168 1 510 162168 1
gene 4 14 15 -591486 0 523 -591486 1
gene 4 2 188 -374276 0 580 -374276 1
gene 4 188 14 17199 0 581 17199 1
gene 3 7 188 66594 0 620 66594 1
gene 1 2 324 -386720 0 1006 -386720 1
gene 1 324 13 31076 0 1007 31076 1
gene 1 12 342 -229997 0 1059 -229997 1
gene 1 342 14 800000 0 1060 800000 1
gene 4 11 357 528100 0 1102 528100 1
gene 4 357 15 -800000 0 1103 -800000 1
gene 1 3 417 -247904 0 1285 -247904 1
gene 1 417 15 -117822 0 1286 -117822 1
genomeend 42


/* Organism #46 Fitness: 480.000000 Time: 0 */
/* Position #46*/
#1 x: 44 y: 35
#2 x: 40 y: 27
#3 x: 78 y: 29
#4 x: 45 y: 77
#5 x: 52 y: 72
#6 x: 67 y: 67
genomestart 46
trait 1 1.000000 0.000000 84.000000 0.000000 51768.000000 0.000000 46508.000000 0.000000 trait 2 2.000000 0.000000 0.000000 0.000000 0.000000 0.000000 0.000000 0.000000 trait 3 3.000000 0.000000 0.000000 0.000000 0.000000 0.000000 45074.000000 0.000000 trait 4 4.000000 0.000000 0.000000 0.000000 0.000000 0.000000 0.000000 0.000000 node 1 4 1 3
node 2 4 1 1
node 3 1 1 1
node 4 4 1 1
node 5 2 1 1
node 6 1 1 1
node 7 2 1 1
node 8 2 1 1
node 9 4 1 1
node 10 3 1 1
node 11 4 1 1
node 12 2 1 1
node 13 3 0 2
node 14 3 0 2
node 15 3 0 2
node 22 1 0 0
node 37 1 0 0
node 120 1 0 0
node 162 1 0 0
node 257 1 0 0
node 285 1 0 0
node 323 1 0 0
node 381 1 0 0
node 430 1 0 0
gene 3 1 13 88844 0 1 88844 1
gene 2 2 13 -401856 0 2 -401856 1
gene 3 3 13 140793 0 3 140793 1
gene 3 4 13 52651 0 4 52651 1
gene 4 5 13 -486348 0 5 -486348 1
gene 4 6 13 29472 0 6 29472 0
gene 1 7 13 481653 0 7 481653 1
gene 3 8 13 -344238 0 8 -344238 1
gene 2 9 13 63240 0 9 63240 1
gene 3 10 13 -13299 0 10 -13299 1
gene 1 11 13 -35397 0 11 -35397 0
gene 1 12 13 11271 0 12 11271 1
gene 3 1 14 26625 0 13 26625 1
gene 1 2 14 -287160 0 14 -287160 1
gene 1 3 14 -56301 0 15 -56301 0
gene 1 4 14 337398 0 16 337398 1
gene 2 5 14 -186366 0 17 -186366 0
gene 1 6 14 692622 0 18 692622 0
gene 2 7 14 165945 0 19 165945 1
gene 4 8 14 800000 0 20 800000 1
gene 1 9 14 666203 0 21 666203 1
gene 2 10 14 131541 0 22 131541 1
gene 3 11 14 120630 0 23 120630 1
gene 1 12 14 143106 0 24 143106 0
gene 2 1 15 157893 0 25 157893 1
gene 4 2 15 -485928 0 26 -485928 1
gene 4 3 15 40521 0 27 40521 1
gene 3 4 15 258444 0 28 258444 1
gene 2 5 15 -151227 0 29 -151227 1
gene 4 6 15 -287465 0 30 -287465 1
gene 2 7 15 -270138 0 31 -270138 1
gene 1 8 15 16140 0 32 16140 1
gene 1 9 15 154083 0 33 154083 0
gene 3 10 15 -384953 0 34 -384953 1
gene 3 11 15 114051 0 35 114051 1
gene 1 12 15 -281058 0 36 -281058 1
gene 2 5 22 -772476 0 55 -772476 0
gene 2 22 14 201033 0 56 201033 1
gene 3 7 22 -362622 0 77 -362622 1
gene 1 11 37 171627 0 106 171627 1
gene 1 37 13 326303 0 107 326303 1
gene 3 8 22 32529 0 144 32529 1
gene 3 2 37 294822 0 214 294822 1
gene 2 5 120 -621165 0 357 -621165 1
gene 2 120 22 -5235 0 358 -5235 1
gene 4 22 15 -117969 0 401 -117969 1
gene 1 3 162 366442 0 482 366442 1
gene 1 162 14 -618300 0 483 -618300 1
gene 1 162 120 -280998 0 558 -280998 1
gene 1 120 120 113392 1 682 113392 1
gene 4 6 257 -135683 0 798 -135683 1
gene 4 257 13 424006 0 799 424006 1
gene 1 22 22 12199 1 845 12199 1
gene 1 12 285 4684 0 890 4684 1
gene 1 285 14 248313 0 891 248313 1
gene 1 9 323 170590 0 1003 170590 1
gene 1 323 15 115701 0 1004 115701 0
gene 3 285 37 255028 0 1101 255028 1
gene 1 22 120 -43191 1 1141 -43191 1
gene 1 6 381 156745 0 1179 156745 1
gene 1 381 14 331563 0 1180 331563 1
gene 1 323 430 1 0 1324 0 1
gene 1 430 15 115701 0 1325 0 1
genomeend 46


/* Organism #56 Fitness: 500.000000 Time: 0 */
/* Position #56*/
#1 x: 78 y: 28
#2 x: 71 y: 16
#3 x: 65 y: 35
#4 x: 64 y: 80
#5 x: 48 y: 83
#6 x: 25 y: 83
genomestart 56
trait 1 1.000000 0.000000 0.000000 0.000000 0.000000 0.000000 0.000000 0.000000 trait 2 2.000000 0.000000 0.000000 0.000000 0.000000 0.000000 0.000000 0.000000 trait 3 3.000000 0.000000 0.000000 0.000000 66128.000000 0.000000 0.000000 0.000000 trait 4 4.000000 0.000000 0.000000 0.000000 0.000000 0.000000 0.000000 0.000000 node 1 4 1 3
node 2 4 1 1
node 3 2 1 1
node 4 2 1 1
node 5 1 1 1
node 6 4 1 1
node 7 1 1 1
node 8 1 1 1
node 9 3 1 1
node 10 3 1 1
node 11 2 1 1
node 12 4 1 1
node 13 3 0 2
node 14 1 0 2
node 15 4 0 2
node 130 1 0 0
node 149 1 0 0
node 316 1 0 0
node 332 1 0 0
node 391 1 0 0
node 427 1 0 0
gene 4 1 13 -65246 0 1 -65246 1
gene 3 2 13 -220536 0 2 -220536 1
gene 1 3 13 -516534 0 3 -516534 1
gene 3 4 13 -173187 0 4 -173187 1
gene 4 5 13 388870 0 5 388870 1
gene 3 6 13 -457290 0 6 -457290 1
gene 4 7 13 -188084 0 7 -188084 1
gene 3 8 13 -480824 0 8 -480824 1
gene 3 9 13 217598 0 9 217598 1
gene 1 10 13 -795326 0 10 -795326 1
gene 1 11 13 409896 0 11 409896 1
gene 4 12 13 -10332 0 12 -10332 0
gene 3 1 14 -524321 0 13 -524321 1
gene 3 2 14 -275786 0 14 -275786 1
gene 1 3 14 313064 0 15 313064 1
gene 3 4 14 109532 0 16 109532 1
gene 2 5 14 -644651 0 17 -644651 0
gene 1 6 14 -288552 0 18 -288552 1
gene 4 7 14 -642842 0 19 -642842 1
gene 3 8 14 -13095 0 20 -13095 0
gene 4 9 14 -573900 0 21 -573900 1
gene 4 10 14 -390618 0 22 -390618 1
gene 4 11 14 -232896 0 23 -232896 1
gene 3 12 14 800000 0 24 800000 1
gene 3 1 15 -502842 0 25 -502842 1
gene 4 2 15 -388771 0 26 -388771 1
gene 1 3 15 -632638 0 27 -632638 1
gene 2 4 15 -256199 0 28 -256199 1
gene 4 5 15 -272940 0 29 -272940 1
gene 4 6 15 -108858 0 30 -108858 1
gene 3 7 15 216831 0 31 216831 0
gene 2 8 15 -608723 0 32 -608723 1
gene 2 9 15 -135654 0 33 -135654 1
gene 1 10 15 529914 0 34 529914 1
gene 1 11 15 -99945 0 35 -99945 1
gene 3 12 15 599451 0 36 599451 1
gene 3 15 14 263929 0 120 263929 0
gene 2 14 13 -18993 0 199 -18993 1
gene 4 12 130 -117258 0 385 -117258 1
gene 4 130 13 -201645 0 386 -201645 1
gene 3 15 149 152922 0 452 152922 1
gene 3 149 14 343169 0 453 343169 1
gene 3 12 149 38819 0 490 38819 1
gene 3 11 130 133309 0 525 133309 1
gene 1 7 130 -386853 0 564 -386853 1
gene 2 6 149 289506 0 656 289506 1
gene 4 13 13 240111 1 756 240111 1
gene 4 2 130 153815 0 939 153815 1
gene 2 5 316 -254303 0 982 -254303 1
gene 2 316 14 -508739 0 983 -508739 0
gene 2 316 332 -120686 0 1033 -120686 1
gene 2 332 14 285930 0 1034 285930 1
gene 2 2 332 176664 0 1090 176664 1
gene 3 8 391 -298941 0 1214 -298941 1
gene 3 391 14 218682 0 1215 218682 1
gene 3 7 427 1 0 1317 0 1
gene 3 427 15 216831 0 1318 0 1
genomeend 56


/* Organism #57 Fitness: 360.000000 Time: 0 */
/* Position #57*/
#1 x: 78 y: 28
#2 x: 71 y: 16
#3 x: 65 y: 35
#4 x: 64 y: 80
#5 x: 48 y: 83
#6 x: 25 y: 83
genomestart 57
trait 1 1.000000 0.000000 0.000000 0.000000 0.000000 0.000000 0.000000 0.000000 trait 2 2.000000 0.000000 0.000000 0.000000 0.000000 0.000000 0.000000 0.000000 trait 3 3.000000 0.000000 0.000000 0.000000 66128.000000 0.000000 0.000000 0.000000 trait 4 4.000000 0.000000 0.000000 0.000000 0.000000 0.000000 0.000000 0.000000 node 1 4 1 3
node 2 4 1 1
node 3 2 1 1
node 4 2 1 1
node 5 1 1 1
node 6 4 1 1
node 7 1 1 1
node 8 1 1 1
node 9 3 1 1
node 10 3 1 1
node 11 2 1 1
node 12 4 1 1
node 13 3 0 2
node 14 1 0 2
node 15 4 0 2
node 130 1 0 0
node 149 1 0 0
node 316 1 0 0
node 332 1 0 0
node 391 1 0 0
node 434 1 0 0
gene 4 1 13 -65246 0 1 -65246 1
gene 3 2 13 -220536 0 2 -220536 1
gene 1 3 13 -516534 0 3 -516534 1
gene 3 4 13 -173187 0 4 -173187 1
gene 4 5 13 388870 0 5 388870 1
gene 3 6 13 -457290 0 6 -457290 1
gene 4 7 13 -188084 0 7 -188084 1
gene 3 8 13 -480824 0 8 -480824 1
gene 3 9 13 217598 0 9 217598 1
gene 1 10 13 -795326 0 10 -795326 1
gene 1 11 13 409896 0 11 409896 1
gene 4 12 13 -10332 0 12 -10332 0
gene 3 1 14 -524321 0 13 -524321 1
gene 3 2 14 -275786 0 14 -275786 1
gene 1 3 14 313064 0 15 313064 1
gene 3 4 14 109532 0 16 109532 1
gene 2 5 14 -644651 0 17 -644651 0
gene 1 6 14 -288552 0 18 -288552 1
gene 4 7 14 -642842 0 19 -642842 1
gene 3 8 14 -13095 0 20 -13095 0
gene 4 9 14 -573900 0 21 -573900 1
gene 4 10 14 -390618 0 22 -390618 1
gene 4 11 14 -232896 0 23 -232896 1
gene 3 12 14 800000 0 24 800000 1
gene 3 1 15 -502842 0 25 -502842 1
gene 4 2 15 -388771 0 26 -388771 1
gene 1 3 15 -632638 0 27 -632638 1
gene 2 4 15 -256199 0 28 -256199 1
gene 4 5 15 -272940 0 29 -272940 1
gene 4 6 15 -108858 0 30 -108858 1
gene 3 7 15 216831 0 31 216831 1
gene 2 8 15 -608723 0 32 -608723 0
gene 2 9 15 -135654 0 33 -135654 1
gene 1 10 15 529914 0 34 529914 1
gene 1 11 15 -99945 0 35 -99945 1
gene 3 12 15 599451 0 36 599451 1
gene 3 15 14 263929 0 120 263929 0
gene 2 14 13 -18993 0 199 -18993 1
gene 4 12 130 -117258 0 385 -117258 1
gene 4 130 13 -201645 0 386 -201645 1
gene 3 15 149 152922 0 452 152922 1
gene 3 149 14 343169 0 453 343169 1
gene 3 12 149 38819 0 490 38819 1
gene 3 11 130 133309 0 525 133309 1
gene 1 7 130 -386853 0 564 -386853 1
gene 2 6 149 289506 0 656 289506 1
gene 4 13 13 240111 1 756 240111 1
gene 4 2 130 153815 0 939 153815 1
gene 2 5 316 -254303 0 982 -254303 1
gene 2 316 14 -508739 0 983 -508739 0
gene 2 316 332 -120686 0 1033 -120686 1
gene 2 332 14 285930 0 1034 285930 1
gene 2 2 332 176664 0 1090 176664 1
gene 3 8 391 -298941 0 1214 -298941 1
gene 3 391 14 218682 0 1215 218682 1
gene 2 8 434 1 0 1336 0 1
gene 2 434 15 -608723 0 1337 0 1
genomeend 57


/* Organism #60 Fitness: 340.000000 Time: 0 */
/* Position #60*/
#1 x: 33 y: 31
#2 x: 27 y: 40
#3 x: 57 y: 26
#4 x: 30 y: 76
#5 x: 33 y: 71
#6 x: 40 y: 74
genomestart 60
trait 1 1.000000 0.000000 0.000000 0.000000 0.000000 0.000000 0.000000 0.000000 trait 2 2.000000 0.000000 0.000000 0.000000 0.000000 0.000000 0.000000 0.000000 trait 3 0.000000 77987.000000 0.000000 93996.000000 0.000000 84641.000000 0.000000 0.000000 trait 4 4.000000 0.000000 0.000000 0.000000 0.000000 0.000000 0.000000 0.000000 node 1 3 1 3
node 2 2 1 1
node 3 1 1 1
node 4 3 1 1
node 5 1 1 1
node 6 3 1 1
node 7 3 1 1
node 8 3 1 1
node 9 2 1 1
node 10 3 1 1
node 11 4 1 1
node 12 1 1 1
node 13 3 0 2
node 14 2 0 2
node 15 2 0 2
node 19 1 0 0
node 26 1 0 0
node 81 1 0 0
gene 2 1 13 800000 0 1 800000 1
gene 1 2 13 -23970 0 2 -23970 1
gene 4 3 13 174915 0 3 174915 1
gene 3 4 13 -223995 0 4 -223995 1
gene 4 5 13 -601497 0 5 -601497 1
gene 1 6 13 -204046 0 6 -204046 1
gene 2 7 13 579233 0 7 579233 1
gene 2 8 13 614520 0 8 614520 1
gene 1 9 13 50553 0 9 50553 1
gene 4 10 13 373643 0 10 373643 1
gene 4 11 13 602679 0 11 602679 0
gene 2 12 13 800000 0 12 800000 1
gene 2 1 14 -141939 0 13 -141939 1
gene 2 2 14 -204237 0 14 -204237 1
gene 1 3 14 211602 0 15 211602 1
gene 4 4 14 462342 0 16 462342 1
gene 4 5 14 -488324 0 17 -488324 1
gene 1 6 14 -86775 0 18 -86775 1
gene 1 7 14 -223053 0 19 -223053 0
gene 2 8 14 97200 0 20 97200 1
gene 2 9 14 -412854 0 21 -412854 1
gene 1 10 14 643515 0 22 643515 1
gene 1 11 14 -156903 0 23 -156903 1
gene 2 12 14 -145974 0 24 -145974 1
gene 2 1 15 -756035 0 25 -756035 1
gene 3 2 15 366120 0 26 366120 1
gene 2 3 15 56091 0 27 56091 1
gene 1 4 15 -297171 0 28 -297171 1
gene 3 5 15 -39381 0 29 -39381 1
gene 2 6 15 504203 0 30 504203 1
gene 4 7 15 503373 0 31 503373 1
gene 4 8 15 22692 0 32 22692 1
gene 4 9 15 268596 0 33 268596 1
gene 1 10 15 446025 0 34 446025 1
gene 1 11 15 458057 0 35 458057 1
gene 1 12 15 501918 0 36 501918 0
gene 4 6 19 634103 0 47 634103 1
gene 4 19 15 -191787 0 48 -191787 1
gene 1 12 26 226881 0 69 226881 1
gene 1 26 15 -424194 0 70 -424194 1
gene 4 11 81 -172632 0 240 -172632 1
gene 4 81 13 35058 0 241 35058 1
gene 4 12 19 458019 0 333 458019 1
gene 2 13 13 -278922 1 749 -278922 1
gene 4 14 26 283515 0 980 283515 1
genomeend 60


/* Organism #62 Fitness: 300.000000 Time: 0 */
/* Position #62*/
#1 x: 70 y: 26
#2 x: 24 y: 34
#3 x: 45 y: 35
#4 x: 50 y: 71
#5 x: 23 y: 74
#6 x: 28 y: 77
genomestart 62
trait 1 1.000000 0.000000 0.000000 0.000000 0.000000 0.000000 0.000000 0.000000 trait 2 2.000000 0.000000 0.000000 0.000000 0.000000 0.000000 0.000000 0.000000 trait 3 3.000000 0.000000 0.000000 0.000000 66128.000000 0.000000 0.000000 0.000000 trait 4 4.000000 0.000000 0.000000 0.000000 0.000000 0.000000 0.000000 0.000000 node 1 4 1 3
node 2 4 1 1
node 3 2 1 1
node 4 2 1 1
node 5 1 1 1
node 6 4 1 1
node 7 1 1 1
node 8 1 1 1
node 9 3 1 1
node 10 3 1 1
node 11 2 1 1
node 12 2 1 1
node 13 3 0 2
node 14 1 0 2
node 15 4 0 2
node 130 1 0 0
node 149 1 0 0
node 337 1 0 0
node 399 1 0 0
gene 4 1 13 483018 0 1 483018 1
gene 3 2 13 565629 0 2 565629 1
gene 1 3 13 -538125 0 3 -538125 1
gene 3 4 13 33153 0 4 33153 1
gene 4 5 13 -435705 0 5 -435705 1
gene 3 6 13 -800000 0 6 -800000 0
gene 4 7 13 -198744 0 7 -198744 1
gene 3 8 13 -407363 0 8 -407363 1
gene 3 9 13 -246163 0 9 -246163 1
gene 1 10 13 130956 0 10 130956 1
gene 1 11 13 -91620 0 11 -91620 1
gene 4 12 13 -800000 0 12 -800000 0
gene 3 1 14 -350549 0 13 -350549 1
gene 3 2 14 -800000 0 14 -800000 1
gene 1 3 14 411117 0 15 411117 1
gene 3 4 14 800000 0 16 800000 1
gene 2 5 14 -179790 0 17 -179790 1
gene 1 6 14 329604 0 18 329604 1
gene 4 7 14 2465 0 19 2465 1
gene 3 8 14 -349779 0 20 -349779 1
gene 4 9 14 -473865 0 21 -473865 1
gene 4 10 14 -373062 0 22 -373062 1
gene 3 11 14 -200214 0 23 -200214 1
gene 3 12 14 688121 0 24 688121 1
gene 3 1 15 138024 0 25 138024 1
gene 4 2 15 -292834 0 26 -292834 1
gene 1 3 15 -362728 0 27 -362728 1
gene 2 4 15 1711 0 28 1711 1
gene 4 5 15 -629400 0 29 -629400 1
gene 4 6 15 -95367 0 30 -95367 1
gene 3 7 15 -166935 0 31 -166935 1
gene 2 8 15 -219078 0 32 -219078 1
gene 2 9 15 222336 0 33 222336 1
gene 1 10 15 605625 0 34 605625 1
gene 1 11 15 -425094 0 35 -425094 1
gene 3 12 15 -182907 0 36 -182907 1
gene 3 15 14 -264645 0 120 -264645 0
gene 2 14 13 46080 0 199 46080 1
gene 4 12 130 -25629 0 385 -25629 1
gene 4 130 13 -800000 0 386 -800000 1
gene 3 15 149 -102413 0 452 -102413 1
gene 3 149 14 531947 0 453 531947 1
gene 3 12 149 114879 0 490 114879 1
gene 3 11 130 456550 0 525 456550 0
gene 1 7 130 -30436 0 564 -30436 1
gene 2 6 149 103998 0 656 103998 1
gene 2 1 130 23054 0 792 23054 1
gene 3 2 149 -287367 0 842 -287367 1
gene 3 10 149 -321486 0 884 -321486 1
gene 2 149 130 -28059 0 1002 -28059 1
gene 3 6 337 157810 0 1046 157810 1
gene 3 337 13 -732708 0 1047 -732708 1
gene 1 149 149 -5194 1 1099 -5194 1
gene 4 15 13 140430 0 1178 140430 1
gene 3 11 399 58708 0 1235 58708 1
gene 3 399 130 115648 0 1236 115648 1
genomeend 62


/* Organism #64 Fitness: 300.000000 Time: 0 */
/* Position #64*/
#1 x: 69 y: 22
#2 x: 18 y: 39
#3 x: 61 y: 15
#4 x: 22 y: 62
#5 x: 68 y: 79
#6 x: 73 y: 74
genomestart 64
trait 1 1.000000 0.000000 0.000000 0.000000 0.000000 0.000000 0.000000 0.000000 trait 2 2.000000 0.000000 0.000000 0.000000 0.000000 0.000000 0.000000 0.000000 trait 3 3.000000 0.000000 0.000000 0.000000 0.000000 0.000000 0.000000 0.000000 trait 4 4.000000 0.000000 0.000000 0.000000 0.000000 0.000000 0.000000 0.000000 node 1 1 1 3
node 2 4 1 1
node 3 1 1 1
node 4 4 1 1
node 5 3 1 1
node 6 1 1 1
node 7 2 1 1
node 8 2 1 1
node 9 4 1 1
node 10 3 1 1
node 11 4 1 1
node 12 2 1 1
node 13 3 0 2
node 14 3 0 2
node 15 3 0 2
node 54 1 0 0
node 260 1 0 0
node 275 1 0 0
gene 1 1 13 215698 0 1 215698 1
gene 2 2 13 625334 0 2 625334 1
gene 1 3 13 336783 0 3 336783 1
gene 3 4 13 -181830 0 4 -181830 1
gene 4 5 13 36729 0 5 36729 1
gene 4 6 13 -61236 0 6 -61236 1
gene 1 7 13 -190917 0 7 -190917 1
gene 3 8 13 -238821 0 8 -238821 1
gene 4 9 13 -91134 0 9 -91134 1
gene 3 10 13 104832 0 10 104832 1
gene 2 11 13 -86721 0 11 -86721 1
gene 1 12 13 49152 0 12 49152 1
gene 3 1 14 495558 0 13 495558 1
gene 2 2 14 142551 0 14 142551 1
gene 1 3 14 -10953 0 15 -10953 1
gene 3 4 14 -691934 0 16 -691934 1
gene 2 5 14 -218526 0 17 -218526 0
gene 1 6 14 490083 0 18 490083 1
gene 1 7 14 655293 0 19 655293 1
gene 4 8 14 -800000 0 20 -800000 1
gene 3 9 14 495678 0 21 495678 0
gene 2 10 14 -148167 0 22 -148167 1
gene 3 11 14 29871 0 23 29871 1
gene 3 12 14 -162777 0 24 -162777 1
gene 2 1 15 532695 0 25 532695 1
gene 4 2 15 644541 0 26 644541 0
gene 4 3 15 457300 0 27 457300 1
gene 3 4 15 669857 0 28 669857 1
gene 4 5 15 -211257 0 29 -211257 1
gene 3 6 15 -525 0 30 -525 1
gene 2 7 15 -272247 0 31 -272247 1
gene 4 8 15 -678 0 32 -678 1
gene 1 9 15 181731 0 33 181731 1
gene 3 10 15 279315 0 34 279315 1
gene 3 11 15 80463 0 35 80463 1
gene 1 12 15 51654 0 36 51654 1
gene 4 2 54 -310859 0 152 -310859 1
gene 4 54 15 -210213 0 153 -210213 1
gene 4 15 15 17922 1 360 17922 1
gene 3 7 54 438015 0 403 438015 1
gene 1 1 54 228435 0 442 228435 1
gene 4 14 15 321135 0 523 321135 1
gene 4 15 13 -195270 0 561 -195270 1
gene 1 8 54 -185283 0 613 -185283 1
gene 1 54 54 -201414 1 654 -201414 1
gene 2 5 260 125796 0 806 125796 1
gene 2 260 14 -85719 0 807 -85719 1
gene 3 9 275 -168546 0 856 -168546 1
gene 3 275 14 -147180 0 857 -147180 1
gene 4 275 275 291506 1 1074 291506 1
gene 1 13 275 258651 1 1117 258651 1
gene 3 9 54 -258152 0 1148 -258152 1
gene 4 4 54 -138583 0 1241 -138583 1
genomeend 64


/* Organism #76 Fitness: 380.000000 Time: 0 */
/* Position #76*/
#1 x: 54 y: 17
#2 x: 15 y: 31
#3 x: 66 y: 26
#4 x: 47 y: 65
#5 x: 83 y: 85
#6 x: 50 y: 81
genomestart 76
trait 1 1.000000 0.000000 0.000000 0.000000 0.000000 0.000000 0.000000 0.000000 trait 2 2.000000 0.000000 0.000000 0.000000 0.000000 0.000000 0.000000 0.000000 trait 3 3.000000 0.000000 0.000000 0.000000 66128.000000 0.000000 0.000000 0.000000 trait 4 4.000000 0.000000 0.000000 0.000000 0.000000 0.000000 0.000000 0.000000 node 1 4 1 3
node 2 4 1 1
node 3 2 1 1
node 4 2 1 1
node 5 1 1 1
node 6 4 1 1
node 7 1 1 1
node 8 1 1 1
node 9 3 1 1
node 10 3 1 1
node 11 2 1 1
node 12 4 1 1
node 13 3 0 2
node 14 1 0 2
node 15 4 0 2
node 130 1 0 0
node 149 1 0 0
node 316 1 0 0
node 332 1 0 0
node 391 1 0 0
gene 4 1 13 -188600 0 1 -188600 1
gene 3 2 13 -282771 0 2 -282771 1
gene 1 3 13 -558228 0 3 -558228 1
gene 3 4 13 -437112 0 4 -437112 1
gene 4 5 13 264784 0 5 264784 1
gene 3 6 13 -700059 0 6 -700059 1
gene 4 7 13 -451724 0 7 -451724 1
gene 3 8 13 -268697 0 8 -268697 1
gene 3 9 13 32924 0 9 32924 1
gene 1 10 13 -800000 0 10 -800000 1
gene 1 11 13 181695 0 11 181695 1
gene 4 12 13 117798 0 12 117798 0
gene 3 1 14 -800000 0 13 -800000 1
gene 3 2 14 -76055 0 14 -76055 1
gene 1 3 14 582653 0 15 582653 1
gene 3 4 14 205325 0 16 205325 1
gene 2 5 14 -637619 0 17 -637619 0
gene 1 6 14 -180354 0 18 -180354 1
gene 4 7 14 -761753 0 19 -761753 1
gene 3 8 14 -100281 0 20 -100281 0
gene 4 9 14 -473892 0 21 -473892 1
gene 4 10 14 -683565 0 22 -683565 1
gene 4 11 14 -319299 0 23 -319299 1
gene 3 12 14 800000 0 24 800000 1
gene 3 1 15 -470040 0 25 -470040 1
gene 4 2 15 -121231 0 26 -121231 1
gene 1 3 15 -397681 0 27 -397681 1
gene 2 4 15 -490703 0 28 -490703 1
gene 4 5 15 -424617 0 29 -424617 1
gene 4 6 15 106515 0 30 106515 1
gene 3 7 15 453480 0 31 453480 1
gene 2 8 15 -675812 0 32 -675812 1
gene 2 9 15 -111153 0 33 -111153 1
gene 1 10 15 292506 0 34 292506 1
gene 1 11 15 145032 0 35 145032 1
gene 3 12 15 305952 0 36 305952 1
gene 3 15 14 348100 0 120 348100 0
gene 2 14 13 -57807 0 199 -57807 1
gene 4 12 130 -129072 0 385 -129072 1
gene 4 130 13 4314 0 386 4314 1
gene 3 15 149 243486 0 452 243486 1
gene 3 149 14 137933 0 453 137933 1
gene 3 12 149 -53044 0 490 -53044 1
gene 3 11 130 62296 0 525 62296 1
gene 1 7 130 -123930 0 564 -123930 1
gene 2 6 149 289506 0 656 289506 1
gene 4 13 13 240111 1 756 240111 1
gene 4 2 130 -153153 0 939 -153153 1
gene 2 5 316 -78417 0 982 -78417 1
gene 2 316 14 -707726 0 983 -707726 0
gene 2 316 332 -120686 0 1033 -120686 1
gene 2 332 14 -263571 0 1034 -263571 1
gene 2 2 332 418830 0 1090 418830 1
gene 3 8 391 -193023 0 1214 -193023 1
gene 3 391 14 175698 0 1215 175698 1
genomeend 76


/* Organism #78 Fitness: 360.000000 Time: 0 */
/* Position #78*/
#1 x: 38 y: 21
#2 x: 51 y: 32
#3 x: 23 y: 30
#4 x: 74 y: 62
#5 x: 64 y: 62
#6 x: 33 y: 82
genomestart 78
trait 1 1.000000 0.000000 0.000000 0.000000 0.000000 0.000000 0.000000 0.000000 trait 2 0.000000 0.000000 63121.000000 0.000000 76870.000000 0.000000 25753.000000 70365.000000 trait 3 3.000000 0.000000 0.000000 0.000000 0.000000 0.000000 0.000000 0.000000 trait 4 68181.000000 67325.000000 0.000000 54681.000000 0.000000 0.000000 0.000000 0.000000 node 1 1 1 3
node 2 2 1 1
node 3 1 1 1
node 4 3 1 1
node 5 4 1 1
node 6 3 1 1
node 7 4 1 1
node 8 3 1 1
node 9 3 1 1
node 10 4 1 1
node 11 3 1 1
node 12 3 1 1
node 13 2 0 2
node 14 1 0 2
node 15 1 0 2
node 110 1 0 0
node 198 1 0 0
node 215 1 0 0
node 245 1 0 0
node 353 1 0 0
node 393 1 0 0
gene 1 1 13 264695 0 1 264695 1
gene 4 2 13 -287700 0 2 -287700 1
gene 1 3 13 600375 0 3 600375 1
gene 2 4 13 13107 0 4 13107 1
gene 1 5 13 417225 0 5 417225 1
gene 4 6 13 189744 0 6 189744 1
gene 2 7 13 -261009 0 7 -261009 0
gene 4 8 13 -371028 0 8 -371028 1
gene 4 9 13 -53538 0 9 -53538 1
gene 2 10 13 479991 0 10 479991 0
gene 2 11 13 -253068 0 11 -253068 1
gene 3 12 13 -57696 0 12 -57696 1
gene 1 1 14 -231537 0 13 -231537 1
gene 4 2 14 533853 0 14 533853 0
gene 3 3 14 800000 0 15 800000 0
gene 3 4 14 -283851 0 16 -283851 1
gene 2 5 14 -103491 0 17 -103491 1
gene 3 6 14 -279960 0 18 -279960 1
gene 3 7 14 282938 0 19 282938 1
gene 4 8 14 -205689 0 20 -205689 1
gene 4 9 14 -171837 0 21 -171837 1
gene 1 10 14 -206193 0 22 -206193 1
gene 4 11 14 425598 0 23 425598 1
gene 1 12 14 -56190 0 24 -56190 1
gene 4 1 15 254441 0 25 254441 1
gene 3 2 15 374427 0 26 374427 1
gene 3 3 15 -473631 0 27 -473631 1
gene 2 4 15 306183 0 28 306183 1
gene 4 5 15 743100 0 29 743100 1
gene 1 6 15 67122 0 30 67122 1
gene 3 7 15 -66331 0 31 -66331 1
gene 4 8 15 409644 0 32 409644 1
gene 4 9 15 -234561 0 33 -234561 1
gene 3 10 15 -331632 0 34 -331632 1
gene 2 11 15 -399450 0 35 -399450 1
gene 3 12 15 -256032 0 36 -256032 0
gene 4 2 110 -204906 0 328 -204906 1
gene 4 110 14 -262233 0 329 -262233 1
gene 2 14 14 -126444 1 443 -126444 0
gene 3 12 198 -102864 0 606 -102864 1
gene 3 198 15 -203448 0 607 -203448 1
gene 2 14 215 83220 1 672 83220 1
gene 2 215 14 -54909 0 673 -54909 1
gene 1 9 198 39925 0 714 39925 1
gene 3 3 245 -203246 0 760 -203246 1
gene 3 245 14 -45411 0 761 -45411 1
gene 1 13 13 217534 1 1039 217534 1
gene 2 10 353 184708 0 1091 184708 1
gene 2 353 13 698787 0 1092 698787 1
gene 2 7 393 -277589 0 1218 -277589 1
gene 2 393 13 -622323 0 1219 -622323 1
genomeend 78


