/* Organism #97 Fitness: 300.000000 Time: 0 */
/* Position #97*/
#1 x: 24 y: 15
#2 x: 37 y: 31
#3 x: 49 y: 36
#4 x: 66 y: 79
#5 x: 62 y: 60
#6 x: 36 y: 80
genomestart 97
node 1 1 1 3
node 2 3 1 1
node 3 1 1 1
node 4 1 1 1
node 5 2 1 1
node 6 4 1 1
node 7 1 1 1
node 8 1 1 1
node 9 3 1 1
node 10 2 1 1
node 11 1 1 1
node 12 3 1 1
node 13 2 1 1
node 14 1 1 1
node 15 3 0 2
node 16 4 0 2
node 17 2 0 2
node 18 2 0 2
gene 1 1 15 109284 0 1 109284 1
gene 1 2 15 -284835 0 2 -284835 1
gene 4 3 15 -710658 0 3 -710658 1
gene 1 4 15 -123044 0 4 -123044 1
gene 4 5 15 328737 0 5 328737 1
gene 1 6 15 -121402 0 6 -121402 1
gene 1 7 15 229833 0 7 229833 1
gene 2 8 15 -175953 0 8 -175953 1
gene 2 9 15 435789 0 9 435789 1
gene 3 10 15 84639 0 10 84639 1
gene 3 11 15 -800000 0 11 -800000 1
gene 3 12 15 287925 0 12 287925 1
gene 3 13 15 111495 0 13 111495 1
gene 4 14 15 163517 0 14 163517 1
gene 2 1 16 170253 0 15 170253 1
gene 3 2 16 -562064 0 16 -562064 1
gene 4 3 16 -192660 0 17 -192660 1
gene 2 4 16 -603708 0 18 -603708 1
gene 4 5 16 -548829 0 19 -548829 1
gene 2 6 16 -271037 0 20 -271037 1
gene 1 7 16 61902 0 21 61902 1
gene 4 8 16 -300468 0 22 -300468 1
gene 4 9 16 -637567 0 23 -637567 1
gene 2 10 16 -201141 0 24 -201141 1
gene 3 11 16 -103047 0 25 -103047 1
gene 1 12 16 -392262 0 26 -392262 1
gene 3 13 16 -252251 0 27 -252251 1
gene 3 14 16 -5421 0 28 -5421 1
gene 4 1 17 263286 0 29 263286 1
gene 1 2 17 -351537 0 30 -351537 1
gene 2 3 17 -52302 0 31 -52302 1
gene 1 4 17 -800000 0 32 -800000 1
gene 4 5 17 521142 0 33 521142 1
gene 1 6 17 77703 0 34 77703 1
gene 2 7 17 93939 0 35 93939 1
gene 3 8 17 -339207 0 36 -339207 1
gene 1 9 17 -431091 0 37 -431091 1
gene 1 10 17 -49499 0 38 -49499 1
gene 3 11 17 -600199 0 39 -600199 1
gene 2 12 17 408714 0 40 408714 1
gene 4 13 17 168315 0 41 168315 1
gene 4 14 17 641514 0 42 641514 1
gene 4 1 18 -426152 0 43 -426152 1
gene 1 2 18 93912 0 44 93912 1
gene 1 3 18 303660 0 45 303660 1
gene 2 4 18 198720 0 46 198720 1
gene 3 5 18 -295155 0 47 -295155 1
gene 3 6 18 143205 0 48 143205 1
gene 2 7 18 739020 0 49 739020 1
gene 2 8 18 224679 0 50 224679 1
gene 4 9 18 56514 0 51 56514 1
gene 3 10 18 -281331 0 52 -281331 1
gene 3 11 18 -21438 0 53 -21438 1
gene 2 12 18 -158004 0 54 -158004 1
gene 4 13 18 -158427 0 55 -158427 1
gene 1 14 18 14726 0 56 14726 1
genomeend 97


