/* Organism #12 Fitness: 90.000000 Time: 0 */
/* Position #12*/
#1 x: 22 y: 33
#2 x: 47 y: 38
#3 x: 65 y: 34
#4 x: 57 y: 84
#5 x: 35 y: 62
#6 x: 71 y: 63
genomestart 12
trait 1 1.000000 0.000000 0.000000 0.000000 0.000000 0.000000 0.000000 0.000000 trait 2 48067.000000 0.000000 62481.000000 0.000000 0.000000 0.000000 26897.000000 16325.000000 trait 3 3.000000 0.000000 0.000000 0.000000 0.000000 0.000000 0.000000 0.000000 trait 4 0.000000 0.000000 100000.000000 62899.000000 27009.000000 0.000000 14232.000000 73356.000000 node 1 3 1 3
node 2 1 1 1
node 3 4 1 1
node 4 3 1 1
node 5 4 1 1
node 6 3 1 1
node 7 3 1 1
node 8 3 1 1
node 9 1 1 1
node 10 1 1 1
node 11 2 1 1
node 12 2 1 1
node 13 3 0 2
node 14 2 0 2
node 15 1 0 2
node 22 1 0 0
node 48 1 0 0
node 63 1 0 0
node 84 1 0 0
node 190 4 0 0
node 224 1 0 0
node 265 1 0 0
node 328 1 0 0
node 342 1 0 0
node 477 1 0 0
node 585 1 0 0
node 672 1 0 0
node 699 1 0 0
node 766 1 0 0
node 833 1 0 0
node 1058 1 0 0
node 1064 1 0 0
node 1093 1 0 0
node 1184 1 0 0
node 1270 1 0 0
node 1299 1 0 0
node 1332 1 0 0
node 1361 1 0 0
gene 1 1 13 272559 0 1 272559 1
gene 1 2 13 -125133 0 2 -125133 0
gene 3 3 13 -776433 0 3 -776433 0
gene 4 4 13 220992 0 4 220992 1
gene 4 5 13 60786 0 5 60786 1
gene 1 6 13 17112 0 6 17112 0
gene 3 7 13 -394188 0 7 -394188 1
gene 3 8 13 -45581 0 8 -45581 0
gene 1 9 13 -124896 0 9 -124896 1
gene 4 10 13 -257146 0 10 -257146 1
gene 3 11 13 -230878 0 11 -230878 1
gene 1 12 13 605483 0 12 605483 1
gene 2 1 14 -502443 0 13 -502443 1
gene 1 2 14 -195117 0 14 -195117 1
gene 1 3 14 -161727 0 15 -161727 0
gene 2 4 14 557979 0 16 557979 1
gene 2 5 14 262848 0 17 262848 1
gene 3 6 14 514686 0 18 514686 1
gene 4 7 14 242814 0 19 242814 0
gene 4 8 14 -355287 0 20 -355287 1
gene 2 9 14 -198792 0 21 -198792 1
gene 4 10 14 156252 0 22 156252 0
gene 4 11 14 -28760 0 23 -28760 0
gene 3 12 14 65994 0 24 65994 0
gene 2 1 15 -76815 0 25 -76815 1
gene 2 2 15 -190781 0 26 -190781 0
gene 4 3 15 263466 0 27 263466 1
gene 4 4 15 240153 0 28 240153 0
gene 1 5 15 -432492 0 29 -432492 0
gene 4 6 15 -191574 0 30 -191574 1
gene 2 7 15 228144 0 31 228144 1
gene 4 8 15 -674707 0 32 -674707 1
gene 1 9 15 304728 0 33 304728 1
gene 3 10 15 -23208 0 34 -23208 1
gene 3 11 15 37245 0 35 37245 0
gene 2 12 15 733298 0 36 733298 1
gene 2 5 22 -367132 0 50 -367132 1
gene 2 22 14 46449 0 51 46449 1
gene 1 6 48 205416 0 108 205416 1
gene 1 48 13 343773 0 109 343773 1
gene 1 2 63 645059 0 153 645059 1
gene 1 63 13 246297 0 154 246297 1
gene 1 6 84 47514 0 215 47514 1
gene 1 84 14 398703 0 216 398703 1
gene 3 4 22 320595 0 283 320595 1
gene 3 12 190 37024 0 501 37024 1
gene 3 190 14 -67614 0 502 -67614 1
gene 4 13 22 59109 0 570 59109 1
gene 3 190 224 -218946 0 593 -218946 0
gene 3 224 14 79836 0 594 79836 1
gene 3 1 224 412857 0 655 412857 1
gene 1 6 265 384801 0 700 384801 0
gene 1 265 48 174588 0 701 174588 1
gene 4 84 190 419976 0 813 419976 1
gene 3 4 328 -49164 0 869 -49164 1
gene 3 328 22 154305 0 870 154305 1
gene 2 7 342 97758 0 912 97758 1
gene 2 342 15 81123 0 913 81123 1
gene 4 11 265 -531216 0 1175 -531216 1
gene 4 8 477 91800 0 1261 91800 1
gene 4 477 14 -40359 0 1262 -40359 1
gene 1 14 342 -413268 0 1454 -413268 1
gene 1 63 585 203611 0 1549 203611 1
gene 1 585 13 468201 0 1550 468201 1
gene 3 48 15 538245 0 1636 538245 1
gene 1 5 672 596007 0 1789 596007 0
gene 1 672 15 -528273 0 1790 -528273 1
gene 1 12 699 -726066 0 1853 -726066 1
gene 1 699 13 -766482 0 1854 -766482 1
gene 3 11 766 -130047 0 2015 -130047 1
gene 3 766 15 438510 0 2016 438510 1
gene 2 2 833 -106922 0 2191 -106922 1
gene 2 833 15 -79917 0 2192 -79917 1
gene 2 766 766 -133708 1 2255 -133708 1
gene 4 10 1058 -126413 0 2774 -126413 1
gene 4 1058 14 483483 0 2775 483483 1
gene 3 3 1064 5725 0 2788 5725 1
gene 3 1064 13 -577791 0 2789 -577791 1
gene 3 190 1093 -9452 0 2873 -9452 1
gene 3 1093 224 -312366 0 2874 -312366 1
gene 2 766 13 42894 0 2978 42894 1
gene 3 84 84 143064 1 3015 143064 1
gene 3 8 1184 435070 0 3113 435070 1
gene 3 1184 13 150559 0 3114 150559 1
gene 1 6 1270 1 0 3348 0 1
gene 1 1270 265 384801 0 3349 0 1
gene 4 4 1299 1 0 3421 0 1
gene 4 1299 13 220992 0 3422 0 1
gene 1 5 1332 1 0 3503 0 1
gene 1 1332 672 596007 0 3504 0 1
gene 4 4 1361 1 0 3578 0 1
gene 4 1361 15 240153 0 3579 0 1
gene 4 63 224 64997 0 3637 64997 1
genomeend 12


/* Organism #18 Fitness: 110.000000 Time: 0 */
/* Position #18*/
#1 x: 83 y: 15
#2 x: 25 y: 28
#3 x: 53 y: 16
#4 x: 51 y: 63
#5 x: 28 y: 75
#6 x: 62 y: 83
genomestart 18
trait 1 1.000000 0.000000 0.000000 0.000000 0.000000 0.000000 0.000000 0.000000 trait 2 48067.000000 0.000000 62481.000000 0.000000 0.000000 0.000000 26897.000000 16325.000000 trait 3 3.000000 0.000000 0.000000 0.000000 0.000000 0.000000 0.000000 0.000000 trait 4 2.000000 0.000000 18432.000000 0.000000 100000.000000 0.000000 14232.000000 0.000000 node 1 3 1 3
node 2 1 1 1
node 3 4 1 1
node 4 3 1 1
node 5 4 1 1
node 6 3 1 1
node 7 3 1 1
node 8 3 1 1
node 9 1 1 1
node 10 1 1 1
node 11 2 1 1
node 12 2 1 1
node 13 3 0 2
node 14 2 0 2
node 15 1 0 2
node 22 1 0 0
node 48 1 0 0
node 63 1 0 0
node 84 1 0 0
node 190 4 0 0
node 224 1 0 0
node 265 1 0 0
node 328 1 0 0
node 342 1 0 0
node 477 1 0 0
node 585 1 0 0
node 672 1 0 0
node 699 1 0 0
node 766 1 0 0
node 833 1 0 0
node 1058 1 0 0
node 1064 1 0 0
node 1093 1 0 0
node 1149 1 0 0
node 1194 1 0 0
node 1317 1 0 0
node 1339 1 0 0
node 1348 1 0 0
node 1377 1 0 0
gene 1 1 13 36246 0 1 36246 1
gene 1 2 13 293871 0 2 293871 0
gene 3 3 13 -723990 0 3 -723990 0
gene 4 4 13 -177195 0 4 -177195 1
gene 4 5 13 -81171 0 5 -81171 0
gene 1 6 13 -168246 0 6 -168246 0
gene 3 7 13 -27063 0 7 -27063 1
gene 3 8 13 -148715 0 8 -148715 1
gene 1 9 13 -208967 0 9 -208967 1
gene 4 10 13 225029 0 10 225029 0
gene 3 11 13 -273703 0 11 -273703 1
gene 1 12 13 194424 0 12 194424 1
gene 2 1 14 -467058 0 13 -467058 1
gene 1 2 14 276792 0 14 276792 1
gene 1 3 14 -582639 0 15 -582639 0
gene 2 4 14 275931 0 16 275931 1
gene 2 5 14 143013 0 17 143013 1
gene 3 6 14 -61575 0 18 -61575 1
gene 4 7 14 164528 0 19 164528 0
gene 4 8 14 296685 0 20 296685 1
gene 2 9 14 98010 0 21 98010 1
gene 4 10 14 178068 0 22 178068 0
gene 4 11 14 271503 0 23 271503 0
gene 3 12 14 59565 0 24 59565 0
gene 2 1 15 -238551 0 25 -238551 1
gene 2 2 15 -280199 0 26 -280199 0
gene 4 3 15 782976 0 27 782976 1
gene 4 4 15 16104 0 28 16104 1
gene 1 5 15 -145677 0 29 -145677 0
gene 4 6 15 452792 0 30 452792 1
gene 2 7 15 124875 0 31 124875 1
gene 4 8 15 324626 0 32 324626 1
gene 1 9 15 13263 0 33 13263 1
gene 3 10 15 299886 0 34 299886 1
gene 3 11 15 32166 0 35 32166 1
gene 2 12 15 800000 0 36 800000 1
gene 2 5 22 -348190 0 50 -348190 1
gene 2 22 14 -228558 0 51 -228558 1
gene 1 6 48 -174576 0 108 -174576 1
gene 1 48 13 -49983 0 109 -49983 0
gene 1 2 63 102038 0 153 102038 1
gene 1 63 13 -124989 0 154 -124989 0
gene 1 6 84 -800000 0 215 -800000 1
gene 1 84 14 492084 0 216 492084 1
gene 3 4 22 57792 0 283 57792 0
gene 3 12 190 -724673 0 501 -724673 1
gene 3 190 14 78981 0 502 78981 1
gene 4 13 22 51423 0 570 51423 1
gene 3 190 224 -338454 0 593 -338454 0
gene 3 224 14 361908 0 594 361908 1
gene 3 1 224 26610 0 655 26610 1
gene 1 6 265 402015 0 700 402015 1
gene 1 265 48 32385 0 701 32385 1
gene 4 84 190 354513 0 813 354513 0
gene 3 4 328 206259 0 869 206259 1
gene 3 328 22 -283290 0 870 -283290 1
gene 2 7 342 134718 0 912 134718 1
gene 2 342 15 -382398 0 913 -382398 1
gene 4 11 265 -71694 0 1175 -71694 1
gene 4 8 477 -133524 0 1261 -133524 0
gene 4 477 14 -686973 0 1262 -686973 1
gene 1 14 342 52104 0 1454 52104 1
gene 1 63 585 -88773 0 1549 -88773 1
gene 1 585 13 723999 0 1550 723999 1
gene 3 48 15 365952 0 1636 365952 1
gene 1 5 672 350436 0 1789 350436 1
gene 1 672 15 -11985 0 1790 -11985 1
gene 1 12 699 -650310 0 1853 -650310 1
gene 1 699 13 -217923 0 1854 -217923 1
gene 3 11 766 56703 0 2015 56703 1
gene 3 766 15 -506469 0 2016 -506469 1
gene 2 2 833 -277164 0 2191 -277164 1
gene 2 833 15 147171 0 2192 147171 1
gene 2 766 766 -564916 1 2255 -564916 1
gene 4 10 1058 -508224 0 2774 -508224 0
gene 4 1058 14 592983 0 2775 592983 1
gene 3 3 1064 -254465 0 2788 -254465 1
gene 3 1064 13 -202929 0 2789 -202929 1
gene 3 190 1093 164766 0 2873 164766 1
gene 3 1093 224 -262665 0 2874 -262665 1
gene 4 10 1149 226444 0 3020 226444 1
gene 4 1149 1058 1245 0 3021 1245 1
gene 1 9 1194 -240273 0 3140 -240273 1
gene 1 1194 15 -6759 0 3141 -6759 1
gene 1 1149 224 141101 0 3189 141101 1
gene 3 63 342 -166090 0 3250 -166090 1
gene 4 8 1317 1 0 3462 0 1
gene 4 1317 477 -133524 0 3463 0 1
gene 1 12 1339 1 0 3521 0 1
gene 1 1339 699 -650310 0 3522 0 1
gene 1 63 1348 1 0 3546 0 1
gene 1 1348 13 -124989 0 3547 0 1
gene 4 84 1377 1 0 3621 0 1
gene 4 1377 190 354513 0 3622 0 1
genomeend 18


/* Organism #22 Fitness: 110.000000 Time: 0 */
/* Position #22*/
#1 x: 18 y: 31
#2 x: 37 y: 15
#3 x: 18 y: 27
#4 x: 50 y: 61
#5 x: 39 y: 85
#6 x: 36 y: 76
genomestart 22
trait 1 1.000000 0.000000 0.000000 0.000000 0.000000 0.000000 0.000000 0.000000 trait 2 48067.000000 0.000000 62481.000000 0.000000 0.000000 0.000000 26897.000000 16325.000000 trait 3 3.000000 0.000000 0.000000 0.000000 0.000000 0.000000 0.000000 0.000000 trait 4 2.000000 0.000000 18432.000000 0.000000 100000.000000 0.000000 14232.000000 0.000000 node 1 3 1 3
node 2 1 1 1
node 3 4 1 1
node 4 3 1 1
node 5 4 1 1
node 6 3 1 1
node 7 3 1 1
node 8 3 1 1
node 9 1 1 1
node 10 1 1 1
node 11 2 1 1
node 12 2 1 1
node 13 3 0 2
node 14 2 0 2
node 15 1 0 2
node 22 1 0 0
node 48 1 0 0
node 63 1 0 0
node 84 1 0 0
node 190 4 0 0
node 224 1 0 0
node 265 1 0 0
node 328 1 0 0
node 342 1 0 0
node 477 1 0 0
node 585 1 0 0
node 672 1 0 0
node 699 1 0 0
node 766 4 0 0
node 833 1 0 0
node 1058 1 0 0
node 1064 1 0 0
node 1093 1 0 0
node 1149 1 0 0
node 1243 1 0 0
node 1295 1 0 0
node 1373 1 0 0
node 1387 1 0 0
gene 1 1 13 -80916 0 1 -80916 1
gene 1 2 13 139962 0 2 139962 0
gene 3 3 13 -721659 0 3 -721659 0
gene 4 4 13 352215 0 4 352215 1
gene 4 5 13 265377 0 5 265377 0
gene 1 6 13 -522666 0 6 -522666 0
gene 3 7 13 169566 0 7 169566 1
gene 3 8 13 9490 0 8 9490 1
gene 1 9 13 -381098 0 9 -381098 1
gene 4 10 13 -363448 0 10 -363448 1
gene 3 11 13 -328765 0 11 -328765 1
gene 1 12 13 227682 0 12 227682 0
gene 2 1 14 -800000 0 13 -800000 1
gene 1 2 14 255192 0 14 255192 1
gene 1 3 14 158937 0 15 158937 0
gene 2 4 14 111843 0 16 111843 1
gene 2 5 14 -415158 0 17 -415158 1
gene 3 6 14 660684 0 18 660684 0
gene 4 7 14 589199 0 19 589199 0
gene 4 8 14 284205 0 20 284205 1
gene 2 9 14 -79653 0 21 -79653 1
gene 4 10 14 676554 0 22 676554 0
gene 4 11 14 192946 0 23 192946 0
gene 3 12 14 -543234 0 24 -543234 0
gene 2 1 15 -676347 0 25 -676347 1
gene 2 2 15 153163 0 26 153163 0
gene 4 3 15 544602 0 27 544602 1
gene 4 4 15 18558 0 28 18558 1
gene 1 5 15 -400323 0 29 -400323 0
gene 4 6 15 455477 0 30 455477 0
gene 2 7 15 35433 0 31 35433 1
gene 4 8 15 -179104 0 32 -179104 1
gene 1 9 15 -228441 0 33 -228441 1
gene 3 10 15 -154251 0 34 -154251 1
gene 3 11 15 -149295 0 35 -149295 0
gene 2 12 15 421211 0 36 421211 1
gene 2 5 22 331877 0 50 331877 1
gene 2 22 14 6246 0 51 6246 1
gene 1 6 48 334038 0 108 334038 1
gene 1 48 13 -236838 0 109 -236838 0
gene 1 2 63 800000 0 153 800000 0
gene 1 63 13 206004 0 154 206004 1
gene 1 6 84 -536444 0 215 -536444 1
gene 1 84 14 155151 0 216 155151 1
gene 3 4 22 425103 0 283 425103 0
gene 3 12 190 -273314 0 501 -273314 1
gene 3 190 14 -242631 0 502 -242631 1
gene 4 13 22 105477 0 570 105477 1
gene 3 190 224 -228768 0 593 -228768 0
gene 3 224 14 780971 0 594 780971 0
gene 3 1 224 214824 0 655 214824 1
gene 1 6 265 147366 0 700 147366 1
gene 1 265 48 -283749 0 701 -283749 1
gene 4 84 190 -61119 0 813 -61119 1
gene 3 4 328 530778 0 869 530778 1
gene 3 328 22 218811 0 870 218811 1
gene 2 7 342 59865 0 912 59865 1
gene 2 342 15 -312594 0 913 -312594 1
gene 4 11 265 -58383 0 1175 -58383 1
gene 4 8 477 -674418 0 1261 -674418 1
gene 4 477 14 36933 0 1262 36933 1
gene 1 14 342 -504543 0 1454 -504543 1
gene 1 63 585 504172 0 1549 504172 1
gene 1 585 13 800000 0 1550 800000 1
gene 3 48 15 216762 0 1636 216762 1
gene 1 5 672 204183 0 1789 204183 1
gene 1 672 15 446325 0 1790 446325 1
gene 1 12 699 -492294 0 1853 -492294 1
gene 1 699 13 154875 0 1854 154875 1
gene 3 11 766 143724 0 2015 143724 1
gene 3 766 15 -470547 0 2016 -470547 1
gene 2 2 833 -800000 0 2191 -800000 1
gene 2 833 15 -9171 0 2192 -9171 1
gene 2 766 766 -126844 1 2255 -126844 1
gene 4 10 1058 -204006 0 2774 -204006 0
gene 4 1058 14 516003 0 2775 516003 1
gene 3 3 1064 190882 0 2788 190882 1
gene 3 1064 13 195678 0 2789 195678 1
gene 3 190 1093 -86271 0 2873 -86271 1
gene 3 1093 224 394548 0 2874 394548 1
gene 4 10 1149 -262248 0 3020 -262248 1
gene 4 1149 1058 -116040 0 3021 -116040 1
gene 3 6 1243 51637 0 3277 51637 1
gene 3 1243 14 361731 0 3278 361731 1
gene 1 2 1295 71649 0 3411 71649 1
gene 1 1295 63 705671 0 3412 705671 1
gene 1 12 1373 1 0 3611 0 1
gene 1 1373 13 227682 0 3612 0 1
gene 3 224 1387 1 0 3650 0 1
gene 3 1387 14 780971 0 3651 0 1
genomeend 22


/* Organism #24 Fitness: 90.000000 Time: 0 */
/* Position #24*/
#1 x: 75 y: 24
#2 x: 28 y: 37
#3 x: 24 y: 20
#4 x: 53 y: 63
#5 x: 48 y: 84
#6 x: 35 y: 73
genomestart 24
trait 1 1.000000 0.000000 0.000000 0.000000 0.000000 0.000000 0.000000 0.000000 trait 2 48067.000000 0.000000 62481.000000 0.000000 0.000000 0.000000 26897.000000 16325.000000 trait 3 3.000000 0.000000 0.000000 0.000000 0.000000 0.000000 0.000000 0.000000 trait 4 2.000000 0.000000 18432.000000 0.000000 100000.000000 0.000000 14232.000000 0.000000 node 1 3 1 3
node 2 1 1 1
node 3 4 1 1
node 4 3 1 1
node 5 4 1 1
node 6 3 1 1
node 7 3 1 1
node 8 3 1 1
node 9 1 1 1
node 10 1 1 1
node 11 2 1 1
node 12 2 1 1
node 13 4 0 2
node 14 2 0 2
node 15 1 0 2
node 22 1 0 0
node 48 1 0 0
node 63 1 0 0
node 84 1 0 0
node 190 4 0 0
node 224 1 0 0
node 265 1 0 0
node 328 1 0 0
node 342 1 0 0
node 477 1 0 0
node 585 1 0 0
node 672 1 0 0
node 699 1 0 0
node 766 1 0 0
node 833 1 0 0
node 1058 1 0 0
node 1204 1 0 0
node 1255 1 0 0
gene 1 1 13 -201006 0 1 -201006 1
gene 1 2 13 -55893 0 2 -55893 0
gene 3 3 13 283767 0 3 283767 1
gene 4 4 13 15600 0 4 15600 1
gene 4 5 13 -229752 0 5 -229752 0
gene 1 6 13 240906 0 6 240906 0
gene 3 7 13 81429 0 7 81429 1
gene 3 8 13 -144110 0 8 -144110 1
gene 1 9 13 -244475 0 9 -244475 1
gene 4 10 13 149375 0 10 149375 1
gene 3 11 13 -83080 0 11 -83080 1
gene 1 12 13 657518 0 12 657518 1
gene 2 1 14 -800000 0 13 -800000 1
gene 1 2 14 452928 0 14 452928 1
gene 1 3 14 -134964 0 15 -134964 0
gene 2 4 14 372717 0 16 372717 1
gene 2 5 14 -35838 0 17 -35838 1
gene 3 6 14 120228 0 18 120228 1
gene 4 7 14 102023 0 19 102023 0
gene 4 8 14 -611718 0 20 -611718 1
gene 2 9 14 -215838 0 21 -215838 1
gene 4 10 14 641388 0 22 641388 0
gene 4 11 14 -458798 0 23 -458798 0
gene 3 12 14 -269559 0 24 -269559 0
gene 2 1 15 -130032 0 25 -130032 1
gene 2 2 15 -216773 0 26 -216773 0
gene 4 3 15 -10902 0 27 -10902 1
gene 4 4 15 -135729 0 28 -135729 1
gene 1 5 15 -152973 0 29 -152973 0
gene 4 6 15 396101 0 30 396101 0
gene 2 7 15 741117 0 31 741117 1
gene 4 8 15 71180 0 32 71180 1
gene 1 9 15 -150990 0 33 -150990 1
gene 3 10 15 408360 0 34 408360 1
gene 3 11 15 -316482 0 35 -316482 0
gene 2 12 15 800000 0 36 800000 1
gene 2 5 22 -60418 0 50 -60418 1
gene 2 22 14 -262446 0 51 -262446 1
gene 1 6 48 -313533 0 108 -313533 1
gene 1 48 13 40794 0 109 40794 0
gene 1 2 63 52820 0 153 52820 1
gene 1 63 13 280098 0 154 280098 1
gene 1 6 84 -696618 0 215 -696618 1
gene 1 84 14 -290460 0 216 -290460 1
gene 3 4 22 168723 0 283 168723 1
gene 3 12 190 119562 0 501 119562 1
gene 3 190 14 342108 0 502 342108 1
gene 4 13 22 285939 0 570 285939 1
gene 3 190 224 89061 0 593 89061 1
gene 3 224 14 -155253 0 594 -155253 1
gene 3 1 224 500574 0 655 500574 1
gene 1 6 265 -296997 0 700 -296997 1
gene 1 265 48 -210198 0 701 -210198 1
gene 4 84 190 -32406 0 813 -32406 1
gene 3 4 328 -215610 0 869 -215610 1
gene 3 328 22 78135 0 870 78135 1
gene 2 7 342 265200 0 912 265200 1
gene 2 342 15 -493215 0 913 -493215 1
gene 4 11 265 -69162 0 1175 -69162 1
gene 4 8 477 431844 0 1261 431844 1
gene 4 477 14 -95409 0 1262 -95409 1
gene 1 14 342 40431 0 1454 40431 1
gene 1 63 585 -158885 0 1549 -158885 1
gene 1 585 13 -209076 0 1550 -209076 1
gene 3 48 15 162159 0 1636 162159 1
gene 1 5 672 -18693 0 1789 -18693 1
gene 1 672 15 -472581 0 1790 -472581 1
gene 1 12 699 -323169 0 1853 -323169 1
gene 1 699 13 -330885 0 1854 -330885 1
gene 3 11 766 -6363 0 2015 -6363 1
gene 3 766 15 -198672 0 2016 -198672 1
gene 2 2 833 -90822 0 2191 -90822 1
gene 2 833 15 -469263 0 2192 -469263 1
gene 2 766 766 -159436 1 2255 -159436 1
gene 4 10 1058 -51998 0 2774 -51998 1
gene 4 1058 14 707544 0 2775 707544 0
gene 2 342 342 71842 1 2940 71842 1
gene 3 224 48 38574 0 3061 38574 1
gene 4 84 13 198785 0 3120 198785 1
gene 3 328 1204 -113699 0 3167 -113699 1
gene 3 1204 22 57720 0 3168 57720 1
gene 4 7 190 -15815 0 3244 -15815 1
gene 4 1058 1255 94762 0 3309 94762 1
gene 4 1255 14 492426 0 3310 492426 1
gene 4 224 224 82494 1 3392 82494 1
gene 3 10 766 -44602 0 3477 -44602 1
genomeend 24


/* Organism #28 Fitness: 110.000000 Time: 0 */
/* Position #28*/
#1 x: 65 y: 39
#2 x: 32 y: 23
#3 x: 74 y: 17
#4 x: 31 y: 60
#5 x: 82 y: 85
#6 x: 35 y: 75
genomestart 28
trait 1 1.000000 0.000000 0.000000 0.000000 0.000000 0.000000 0.000000 0.000000 trait 2 48067.000000 0.000000 62481.000000 0.000000 0.000000 0.000000 26897.000000 16325.000000 trait 3 3.000000 0.000000 0.000000 0.000000 0.000000 0.000000 0.000000 0.000000 trait 4 2.000000 0.000000 18432.000000 0.000000 100000.000000 0.000000 14232.000000 0.000000 node 1 3 1 3
node 2 1 1 1
node 3 4 1 1
node 4 3 1 1
node 5 4 1 1
node 6 3 1 1
node 7 3 1 1
node 8 3 1 1
node 9 1 1 1
node 10 1 1 1
node 11 2 1 1
node 12 2 1 1
node 13 4 0 2
node 14 2 0 2
node 15 1 0 2
node 22 1 0 0
node 48 1 0 0
node 63 1 0 0
node 84 1 0 0
node 190 4 0 0
node 224 1 0 0
node 265 1 0 0
node 328 1 0 0
node 342 1 0 0
node 477 1 0 0
node 585 1 0 0
node 672 1 0 0
node 699 1 0 0
node 766 1 0 0
node 833 1 0 0
node 1058 1 0 0
node 1204 1 0 0
node 1255 1 0 0
node 1391 1 0 0
gene 1 1 13 -201006 0 1 -201006 1
gene 1 2 13 -55893 0 2 -55893 0
gene 3 3 13 283767 0 3 283767 1
gene 4 4 13 15600 0 4 15600 1
gene 4 5 13 -229752 0 5 -229752 0
gene 1 6 13 240906 0 6 240906 0
gene 3 7 13 81429 0 7 81429 1
gene 3 8 13 -144110 0 8 -144110 1
gene 1 9 13 -244475 0 9 -244475 1
gene 4 10 13 149375 0 10 149375 1
gene 3 11 13 -83080 0 11 -83080 1
gene 1 12 13 657518 0 12 657518 1
gene 2 1 14 -800000 0 13 -800000 1
gene 1 2 14 452928 0 14 452928 1
gene 1 3 14 -134964 0 15 -134964 0
gene 2 4 14 372717 0 16 372717 1
gene 2 5 14 -35838 0 17 -35838 1
gene 3 6 14 120228 0 18 120228 1
gene 4 7 14 102023 0 19 102023 0
gene 4 8 14 -611718 0 20 -611718 1
gene 2 9 14 -215838 0 21 -215838 1
gene 4 10 14 641388 0 22 641388 0
gene 4 11 14 -458798 0 23 -458798 0
gene 3 12 14 -269559 0 24 -269559 0
gene 2 1 15 -130032 0 25 -130032 1
gene 2 2 15 -216773 0 26 -216773 0
gene 4 3 15 -10902 0 27 -10902 1
gene 4 4 15 -135729 0 28 -135729 1
gene 1 5 15 -152973 0 29 -152973 0
gene 4 6 15 396101 0 30 396101 0
gene 2 7 15 741117 0 31 741117 1
gene 4 8 15 71180 0 32 71180 1
gene 1 9 15 -150990 0 33 -150990 1
gene 3 10 15 408360 0 34 408360 1
gene 3 11 15 -316482 0 35 -316482 0
gene 2 12 15 800000 0 36 800000 1
gene 2 5 22 -60418 0 50 -60418 1
gene 2 22 14 -262446 0 51 -262446 1
gene 1 6 48 -313533 0 108 -313533 1
gene 1 48 13 40794 0 109 40794 0
gene 1 2 63 52820 0 153 52820 1
gene 1 63 13 280098 0 154 280098 1
gene 1 6 84 -696618 0 215 -696618 1
gene 1 84 14 -290460 0 216 -290460 1
gene 3 4 22 168723 0 283 168723 1
gene 3 12 190 119562 0 501 119562 1
gene 3 190 14 342108 0 502 342108 1
gene 4 13 22 285939 0 570 285939 1
gene 3 190 224 89061 0 593 89061 1
gene 3 224 14 -155253 0 594 -155253 1
gene 3 1 224 500574 0 655 500574 1
gene 1 6 265 -296997 0 700 -296997 1
gene 1 265 48 -210198 0 701 -210198 1
gene 4 84 190 -32406 0 813 -32406 1
gene 3 4 328 -215610 0 869 -215610 1
gene 3 328 22 78135 0 870 78135 1
gene 2 7 342 265200 0 912 265200 1
gene 2 342 15 -493215 0 913 -493215 1
gene 4 11 265 -69162 0 1175 -69162 1
gene 4 8 477 431844 0 1261 431844 1
gene 4 477 14 -95409 0 1262 -95409 1
gene 1 14 342 40431 0 1454 40431 1
gene 1 63 585 -158885 0 1549 -158885 1
gene 1 585 13 -209076 0 1550 -209076 1
gene 3 48 15 162159 0 1636 162159 1
gene 1 5 672 -18693 0 1789 -18693 1
gene 1 672 15 -472581 0 1790 -472581 1
gene 1 12 699 -323169 0 1853 -323169 1
gene 1 699 13 -330885 0 1854 -330885 1
gene 3 11 766 -6363 0 2015 -6363 1
gene 3 766 15 -198672 0 2016 -198672 1
gene 2 2 833 -90822 0 2191 -90822 1
gene 2 833 15 -469263 0 2192 -469263 1
gene 2 766 766 -159436 1 2255 -159436 1
gene 4 10 1058 -51998 0 2774 -51998 1
gene 4 1058 14 707544 0 2775 707544 0
gene 2 342 342 71842 1 2940 71842 1
gene 3 224 48 38574 0 3061 38574 1
gene 4 84 13 198785 0 3120 198785 1
gene 3 328 1204 -113699 0 3167 -113699 1
gene 3 1204 22 57720 0 3168 57720 1
gene 4 7 190 -15815 0 3244 -15815 1
gene 4 1058 1255 94762 0 3309 94762 1
gene 4 1255 14 492426 0 3310 492426 1
gene 4 224 224 82494 1 3392 82494 0
gene 3 10 766 -44602 0 3477 -44602 1
gene 4 224 1391 1 1 3658 0 1
gene 4 1391 224 82494 0 3659 0 1
genomeend 28


/* Organism #40 Fitness: 170.000000 Time: 0 */
/* Position #40*/
#1 x: 84 y: 29
#2 x: 73 y: 20
#3 x: 49 y: 39
#4 x: 40 y: 82
#5 x: 76 y: 78
#6 x: 27 y: 85
genomestart 40
trait 1 1.000000 0.000000 0.000000 0.000000 0.000000 0.000000 0.000000 0.000000 trait 2 48067.000000 0.000000 62481.000000 0.000000 0.000000 0.000000 26897.000000 16325.000000 trait 3 3.000000 0.000000 0.000000 0.000000 0.000000 0.000000 0.000000 0.000000 trait 4 2.000000 0.000000 18432.000000 0.000000 100000.000000 0.000000 14232.000000 0.000000 node 1 3 1 3
node 2 1 1 1
node 3 4 1 1
node 4 3 1 1
node 5 4 1 1
node 6 3 1 1
node 7 3 1 1
node 8 3 1 1
node 9 1 1 1
node 10 1 1 1
node 11 2 1 1
node 12 2 1 1
node 13 3 0 2
node 14 2 0 2
node 15 1 0 2
node 22 1 0 0
node 48 1 0 0
node 63 1 0 0
node 84 1 0 0
node 190 4 0 0
node 224 1 0 0
node 265 1 0 0
node 328 1 0 0
node 342 1 0 0
node 477 1 0 0
node 585 1 0 0
node 672 1 0 0
node 699 1 0 0
node 766 1 0 0
node 833 1 0 0
node 1058 1 0 0
node 1064 1 0 0
node 1093 1 0 0
node 1148 1 0 0
node 1240 1 0 0
node 1326 1 0 0
node 1354 1 0 0
gene 1 1 13 -487539 0 1 -487539 1
gene 1 2 13 -200101 0 2 -200101 0
gene 3 3 13 -761881 0 3 -761881 1
gene 4 4 13 387633 0 4 387633 1
gene 4 5 13 324276 0 5 324276 0
gene 1 6 13 -325071 0 6 -325071 0
gene 3 7 13 237276 0 7 237276 1
gene 3 8 13 -644536 0 8 -644536 1
gene 1 9 13 321382 0 9 321382 1
gene 4 10 13 13879 0 10 13879 1
gene 3 11 13 220361 0 11 220361 0
gene 1 12 13 359120 0 12 359120 1
gene 2 1 14 130590 0 13 130590 1
gene 1 2 14 -541233 0 14 -541233 1
gene 1 3 14 47621 0 15 47621 0
gene 2 4 14 418660 0 16 418660 1
gene 2 5 14 359371 0 17 359371 1
gene 3 6 14 -54033 0 18 -54033 0
gene 4 7 14 -230718 0 19 -230718 1
gene 4 8 14 291264 0 20 291264 1
gene 2 9 14 -551556 0 21 -551556 1
gene 4 10 14 732541 0 22 732541 0
gene 4 11 14 -73070 0 23 -73070 0
gene 3 12 14 356282 0 24 356282 0
gene 2 1 15 -184771 0 25 -184771 1
gene 2 2 15 -544743 0 26 -544743 1
gene 4 3 15 800000 0 27 800000 1
gene 4 4 15 -16370 0 28 -16370 1
gene 1 5 15 -135643 0 29 -135643 1
gene 4 6 15 74003 0 30 74003 1
gene 2 7 15 -114099 0 31 -114099 1
gene 4 8 15 -458680 0 32 -458680 1
gene 1 9 15 -136502 0 33 -136502 1
gene 3 10 15 -89652 0 34 -89652 1
gene 3 11 15 -445003 0 35 -445003 1
gene 2 12 15 800000 0 36 800000 1
gene 2 5 22 -425198 0 50 -425198 1
gene 2 22 14 329196 0 51 329196 1
gene 1 6 48 -654556 0 108 -654556 1
gene 1 48 13 26074 0 109 26074 0
gene 1 2 63 730784 0 153 730784 1
gene 1 63 13 110419 0 154 110419 0
gene 1 6 84 -712373 0 215 -712373 1
gene 1 84 14 395425 0 216 395425 1
gene 3 4 22 201813 0 283 201813 1
gene 3 12 190 -508737 0 501 -508737 1
gene 3 190 14 197806 0 502 197806 1
gene 4 13 22 150606 0 570 150606 1
gene 3 190 224 -448342 0 593 -448342 1
gene 3 224 14 686472 0 594 686472 1
gene 3 1 224 233854 0 655 233854 1
gene 1 6 265 417435 0 700 417435 1
gene 1 265 48 425214 0 701 425214 1
gene 4 84 190 195901 0 813 195901 1
gene 3 4 328 -138684 0 869 -138684 1
gene 3 328 22 477381 0 870 477381 1
gene 2 7 342 63865 0 912 63865 1
gene 2 342 15 -505207 0 913 -505207 1
gene 4 11 265 -48552 0 1175 -48552 1
gene 4 8 477 -399303 0 1261 -399303 1
gene 4 477 14 -129186 0 1262 -129186 1
gene 1 14 342 -338068 0 1454 -338068 1
gene 1 63 585 130469 0 1549 130469 1
gene 1 585 13 800000 0 1550 800000 1
gene 3 48 15 585717 0 1636 585717 1
gene 1 5 672 465247 0 1789 465247 1
gene 1 672 15 -650616 0 1790 -650616 1
gene 1 12 699 100080 0 1853 100080 1
gene 1 699 13 -307110 0 1854 -307110 1
gene 3 11 766 235077 0 2015 235077 1
gene 3 766 15 -221916 0 2016 -221916 1
gene 2 2 833 308337 0 2191 308337 1
gene 2 833 15 -350833 0 2192 -350833 1
gene 2 766 766 -55524 1 2255 -55524 1
gene 4 10 1058 74873 0 2774 74873 1
gene 4 1058 14 163833 0 2775 163833 1
gene 3 3 1064 316560 0 2788 316560 1
gene 3 1064 13 -174477 0 2789 -174477 1
gene 3 190 1093 159616 0 2873 159616 1
gene 3 1093 224 -283137 0 2874 -283137 1
gene 2 7 63 157662 0 2989 157662 0
gene 3 6 1148 -163034 0 3018 -163034 1
gene 3 1148 14 161997 0 3019 161997 1
gene 3 3 48 336535 0 3221 336535 1
gene 2 7 1240 146866 0 3271 146866 1
gene 2 1240 63 51408 0 3272 51408 1
gene 1 48 48 -182937 1 3405 -182937 1
gene 1 63 1326 31329 0 3485 31329 1
gene 1 1326 13 -66600 0 3486 -66600 1
gene 3 11 1354 -163436 0 3559 -163436 1
gene 3 1354 13 185207 0 3560 185207 1
genomeend 40


/* Organism #41 Fitness: 140.000000 Time: 0 */
/* Position #41*/
#1 x: 84 y: 29
#2 x: 73 y: 20
#3 x: 49 y: 39
#4 x: 40 y: 82
#5 x: 76 y: 78
#6 x: 27 y: 85
genomestart 41
trait 1 1.000000 0.000000 0.000000 0.000000 0.000000 0.000000 0.000000 0.000000 trait 2 48067.000000 0.000000 62481.000000 0.000000 0.000000 0.000000 26897.000000 16325.000000 trait 3 3.000000 0.000000 0.000000 0.000000 0.000000 0.000000 0.000000 0.000000 trait 4 2.000000 0.000000 18432.000000 0.000000 100000.000000 0.000000 14232.000000 0.000000 node 1 3 1 3
node 2 1 1 1
node 3 4 1 1
node 4 3 1 1
node 5 4 1 1
node 6 3 1 1
node 7 3 1 1
node 8 3 1 1
node 9 1 1 1
node 10 1 1 1
node 11 2 1 1
node 12 2 1 1
node 13 3 0 2
node 14 2 0 2
node 15 1 0 2
node 22 1 0 0
node 48 1 0 0
node 63 1 0 0
node 84 1 0 0
node 190 4 0 0
node 224 1 0 0
node 265 1 0 0
node 328 1 0 0
node 342 1 0 0
node 477 1 0 0
node 585 1 0 0
node 672 1 0 0
node 699 1 0 0
node 766 1 0 0
node 833 1 0 0
node 1058 1 0 0
node 1064 1 0 0
node 1093 1 0 0
node 1148 1 0 0
node 1240 1 0 0
node 1326 1 0 0
node 1354 1 0 0
gene 1 1 13 -491448 0 1 -491448 1
gene 1 2 13 -214450 0 2 -214450 0
gene 3 3 13 -685273 0 3 -685273 1
gene 4 4 13 298404 0 4 298404 1
gene 4 5 13 202083 0 5 202083 0
gene 1 6 13 -618108 0 6 -618108 0
gene 3 7 13 348159 0 7 348159 1
gene 3 8 13 -377767 0 8 -377767 1
gene 1 9 13 368899 0 9 368899 1
gene 4 10 13 106819 0 10 106819 1
gene 3 11 13 227588 0 11 227588 0
gene 1 12 13 476351 0 12 476351 1
gene 2 1 14 -141276 0 13 -141276 1
gene 1 2 14 -360597 0 14 -360597 1
gene 1 3 14 -133684 0 15 -133684 0
gene 2 4 14 156646 0 16 156646 1
gene 2 5 14 278977 0 17 278977 1
gene 3 6 14 147843 0 18 147843 0
gene 4 7 14 -119406 0 19 -119406 1
gene 4 8 14 228312 0 20 228312 1
gene 2 9 14 -374568 0 21 -374568 1
gene 4 10 14 790096 0 22 790096 0
gene 4 11 14 5047 0 23 5047 0
gene 3 12 14 213071 0 24 213071 0
gene 2 1 15 -191188 0 25 -191188 1
gene 2 2 15 -365799 0 26 -365799 1
gene 4 3 15 800000 0 27 800000 1
gene 4 4 15 -149234 0 28 -149234 1
gene 1 5 15 -316945 0 29 -316945 1
gene 4 6 15 13151 0 30 13151 1
gene 2 7 15 161418 0 31 161418 1
gene 4 8 15 -229468 0 32 -229468 1
gene 1 9 15 35170 0 33 35170 1
gene 3 10 15 31761 0 34 31761 1
gene 3 11 15 -553384 0 35 -553384 1
gene 2 12 15 800000 0 36 800000 1
gene 2 5 22 -271685 0 50 -271685 1
gene 2 22 14 187782 0 51 187782 1
gene 1 6 48 -366217 0 108 -366217 1
gene 1 48 13 -217154 0 109 -217154 0
gene 1 2 63 454031 0 153 454031 1
gene 1 63 13 83947 0 154 83947 0
gene 1 6 84 -800000 0 215 -800000 1
gene 1 84 14 464251 0 216 464251 1
gene 3 4 22 -19788 0 283 -19788 1
gene 3 12 190 -327663 0 501 -327663 1
gene 3 190 14 105898 0 502 105898 1
gene 4 13 22 196482 0 570 196482 1
gene 3 190 224 -500431 0 593 -500431 1
gene 3 224 14 770895 0 594 770895 1
gene 3 1 224 241489 0 655 241489 1
gene 1 6 265 711741 0 700 711741 1
gene 1 265 48 220350 0 701 220350 1
gene 4 84 190 218572 0 813 218572 1
gene 3 4 328 -331176 0 869 -331176 1
gene 3 328 22 248823 0 870 248823 1
gene 2 7 342 -9536 0 912 -9536 1
gene 2 342 15 -518293 0 913 -518293 1
gene 4 11 265 -198192 0 1175 -198192 1
gene 4 8 477 -232083 0 1261 -232083 1
gene 4 477 14 54282 0 1262 54282 1
gene 1 14 342 -499651 0 1454 -499651 1
gene 1 63 585 -18877 0 1549 -18877 1
gene 1 585 13 800000 0 1550 800000 1
gene 3 48 15 479631 0 1636 479631 1
gene 1 5 672 215605 0 1789 215605 1
gene 1 672 15 -514299 0 1790 -514299 1
gene 1 12 699 176904 0 1853 176904 1
gene 1 699 13 -199233 0 1854 -199233 1
gene 3 11 766 16473 0 2015 16473 1
gene 3 766 15 -78636 0 2016 -78636 1
gene 2 2 833 149772 0 2191 149772 1
gene 2 833 15 -249907 0 2192 -249907 1
gene 2 766 766 -249601 1 2255 -249601 1
gene 4 10 1058 74873 0 2774 74873 1
gene 4 1058 14 370185 0 2775 370185 1
gene 3 3 1064 276357 0 2788 276357 1
gene 3 1064 13 -548412 0 2789 -548412 1
gene 3 190 1093 1 0 2873 1 1
gene 3 1093 224 -283137 0 2874 -283137 1
gene 2 7 63 487238 0 2989 487238 0
gene 3 6 1148 -163034 0 3018 -163034 1
gene 3 1148 14 354684 0 3019 354684 1
gene 3 3 48 208942 0 3221 208942 1
gene 2 7 1240 146866 0 3271 146866 1
gene 2 1240 63 275915 0 3272 275915 1
gene 1 48 48 13678 1 3405 13678 1
gene 1 63 1326 1 0 3485 0 1
gene 1 1326 13 83947 0 3486 0 1
gene 3 11 1354 1 0 3559 0 1
gene 3 1354 13 227588 0 3560 0 1
gene 4 1148 1148 78874 1 3669 78874 1
genomeend 41


/* Organism #45 Fitness: 100.000000 Time: 0 */
/* Position #45*/
#1 x: 57 y: 30
#2 x: 53 y: 32
#3 x: 54 y: 22
#4 x: 37 y: 82
#5 x: 29 y: 72
#6 x: 45 y: 68
genomestart 45
trait 1 1.000000 0.000000 0.000000 0.000000 0.000000 0.000000 0.000000 0.000000 trait 2 48067.000000 0.000000 62481.000000 0.000000 0.000000 0.000000 26897.000000 16325.000000 trait 3 3.000000 0.000000 0.000000 0.000000 0.000000 0.000000 0.000000 0.000000 trait 4 2.000000 0.000000 18432.000000 0.000000 100000.000000 0.000000 14232.000000 0.000000 node 1 3 1 3
node 2 1 1 1
node 3 4 1 1
node 4 3 1 1
node 5 4 1 1
node 6 3 1 1
node 7 3 1 1
node 8 3 1 1
node 9 1 1 1
node 10 1 1 1
node 11 2 1 1
node 12 2 1 1
node 13 3 0 2
node 14 2 0 2
node 15 1 0 2
node 22 1 0 0
node 48 1 0 0
node 63 1 0 0
node 84 1 0 0
node 190 4 0 0
node 224 1 0 0
node 265 1 0 0
node 328 1 0 0
node 342 1 0 0
node 477 1 0 0
node 585 1 0 0
node 672 1 0 0
node 699 1 0 0
node 766 1 0 0
node 833 1 0 0
node 1058 1 0 0
node 1064 1 0 0
node 1093 1 0 0
node 1148 1 0 0
node 1240 1 0 0
node 1326 1 0 0
node 1354 1 0 0
node 1396 1 0 0
gene 1 1 13 -491448 0 1 -491448 1
gene 1 2 13 -214450 0 2 -214450 0
gene 3 3 13 -685273 0 3 -685273 0
gene 4 4 13 298404 0 4 298404 1
gene 4 5 13 202083 0 5 202083 0
gene 1 6 13 -618108 0 6 -618108 0
gene 3 7 13 348159 0 7 348159 1
gene 3 8 13 -377767 0 8 -377767 1
gene 1 9 13 368899 0 9 368899 1
gene 4 10 13 106819 0 10 106819 1
gene 3 11 13 227588 0 11 227588 0
gene 1 12 13 476351 0 12 476351 1
gene 2 1 14 -141276 0 13 -141276 1
gene 1 2 14 -360597 0 14 -360597 1
gene 1 3 14 -133684 0 15 -133684 0
gene 2 4 14 156646 0 16 156646 1
gene 2 5 14 278977 0 17 278977 1
gene 3 6 14 147843 0 18 147843 0
gene 4 7 14 -119406 0 19 -119406 1
gene 4 8 14 228312 0 20 228312 1
gene 2 9 14 -374568 0 21 -374568 1
gene 4 10 14 790096 0 22 790096 0
gene 4 11 14 5047 0 23 5047 0
gene 3 12 14 213071 0 24 213071 0
gene 2 1 15 -191188 0 25 -191188 1
gene 2 2 15 -365799 0 26 -365799 1
gene 4 3 15 800000 0 27 800000 1
gene 4 4 15 -149234 0 28 -149234 1
gene 1 5 15 -316945 0 29 -316945 1
gene 4 6 15 13151 0 30 13151 1
gene 2 7 15 161418 0 31 161418 1
gene 4 8 15 -229468 0 32 -229468 1
gene 1 9 15 35170 0 33 35170 1
gene 3 10 15 31761 0 34 31761 1
gene 3 11 15 -553384 0 35 -553384 1
gene 2 12 15 800000 0 36 800000 1
gene 2 5 22 -271685 0 50 -271685 1
gene 2 22 14 187782 0 51 187782 1
gene 1 6 48 -366217 0 108 -366217 1
gene 1 48 13 -217154 0 109 -217154 0
gene 1 2 63 454031 0 153 454031 1
gene 1 63 13 83947 0 154 83947 0
gene 1 6 84 -800000 0 215 -800000 1
gene 1 84 14 464251 0 216 464251 1
gene 3 4 22 -19788 0 283 -19788 1
gene 3 12 190 -327663 0 501 -327663 1
gene 3 190 14 105898 0 502 105898 1
gene 4 13 22 196482 0 570 196482 1
gene 3 190 224 -500431 0 593 -500431 1
gene 3 224 14 770895 0 594 770895 1
gene 3 1 224 241489 0 655 241489 1
gene 1 6 265 711741 0 700 711741 1
gene 1 265 48 220350 0 701 220350 1
gene 4 84 190 218572 0 813 218572 1
gene 3 4 328 -331176 0 869 -331176 1
gene 3 328 22 248823 0 870 248823 1
gene 2 7 342 -9536 0 912 -9536 1
gene 2 342 15 -518293 0 913 -518293 1
gene 4 11 265 -198192 0 1175 -198192 1
gene 4 8 477 -232083 0 1261 -232083 1
gene 4 477 14 54282 0 1262 54282 1
gene 1 14 342 -499651 0 1454 -499651 1
gene 1 63 585 -18877 0 1549 -18877 1
gene 1 585 13 800000 0 1550 800000 1
gene 3 48 15 479631 0 1636 479631 1
gene 1 5 672 215605 0 1789 215605 1
gene 1 672 15 -514299 0 1790 -514299 1
gene 1 12 699 176904 0 1853 176904 1
gene 1 699 13 -199233 0 1854 -199233 1
gene 3 11 766 16473 0 2015 16473 1
gene 3 766 15 -78636 0 2016 -78636 1
gene 2 2 833 149772 0 2191 149772 1
gene 2 833 15 -249907 0 2192 -249907 1
gene 2 766 766 -249601 1 2255 -249601 1
gene 4 10 1058 74873 0 2774 74873 1
gene 4 1058 14 370185 0 2775 370185 1
gene 3 3 1064 276357 0 2788 276357 1
gene 3 1064 13 -548412 0 2789 -548412 1
gene 3 190 1093 1 0 2873 1 1
gene 3 1093 224 -283137 0 2874 -283137 1
gene 2 7 63 487238 0 2989 487238 0
gene 3 6 1148 -163034 0 3018 -163034 1
gene 3 1148 14 354684 0 3019 354684 1
gene 3 3 48 208942 0 3221 208942 1
gene 2 7 1240 146866 0 3271 146866 1
gene 2 1240 63 275915 0 3272 275915 1
gene 1 48 48 13678 1 3405 13678 1
gene 1 63 1326 1 0 3485 0 1
gene 1 1326 13 83947 0 3486 0 1
gene 3 11 1354 1 0 3559 0 1
gene 3 1354 13 227588 0 3560 0 1
gene 3 3 1396 1 0 3673 0 1
gene 3 1396 13 -685273 0 3674 0 1
genomeend 45


/* Organism #50 Fitness: 140.000000 Time: 0 */
/* Position #50*/
#1 x: 66 y: 40
#2 x: 23 y: 16
#3 x: 56 y: 33
#4 x: 67 y: 73
#5 x: 50 y: 62
#6 x: 63 y: 81
genomestart 50
trait 1 1.000000 0.000000 0.000000 0.000000 0.000000 0.000000 0.000000 0.000000 trait 2 48067.000000 0.000000 62481.000000 0.000000 0.000000 0.000000 26897.000000 16325.000000 trait 3 3.000000 0.000000 0.000000 0.000000 0.000000 0.000000 0.000000 0.000000 trait 4 2.000000 0.000000 18432.000000 0.000000 100000.000000 0.000000 14232.000000 0.000000 node 1 3 1 3
node 2 1 1 1
node 3 4 1 1
node 4 3 1 1
node 5 4 1 1
node 6 3 1 1
node 7 3 1 1
node 8 3 1 1
node 9 1 1 1
node 10 1 1 1
node 11 2 1 1
node 12 2 1 1
node 13 3 0 2
node 14 2 0 2
node 15 1 0 2
node 22 1 0 0
node 48 1 0 0
node 63 1 0 0
node 84 1 0 0
node 190 4 0 0
node 224 1 0 0
node 265 1 0 0
node 328 1 0 0
node 342 1 0 0
node 477 1 0 0
node 585 1 0 0
node 672 1 0 0
node 699 1 0 0
node 766 4 0 0
node 833 1 0 0
node 1058 1 0 0
node 1064 1 0 0
node 1093 1 0 0
node 1149 1 0 0
node 1243 1 0 0
node 1388 1 0 0
gene 1 1 13 -78744 0 1 -78744 1
gene 1 2 13 -104103 0 2 -104103 0
gene 3 3 13 -444810 0 3 -444810 0
gene 4 4 13 169524 0 4 169524 1
gene 4 5 13 -96909 0 5 -96909 0
gene 1 6 13 -302430 0 6 -302430 0
gene 3 7 13 8022 0 7 8022 1
gene 3 8 13 -126258 0 8 -126258 1
gene 1 9 13 -376832 0 9 -376832 1
gene 4 10 13 -16594 0 10 -16594 1
gene 3 11 13 689 0 11 689 1
gene 1 12 13 579581 0 12 579581 1
gene 2 1 14 -762347 0 13 -762347 1
gene 1 2 14 159273 0 14 159273 1
gene 1 3 14 200316 0 15 200316 0
gene 2 4 14 285810 0 16 285810 1
gene 2 5 14 -441018 0 17 -441018 1
gene 3 6 14 800000 0 18 800000 0
gene 4 7 14 86295 0 19 86295 0
gene 4 8 14 -521553 0 20 -521553 1
gene 2 9 14 -188178 0 21 -188178 1
gene 4 10 14 562578 0 22 562578 0
gene 4 11 14 321175 0 23 321175 0
gene 3 12 14 -58275 0 24 -58275 0
gene 2 1 15 -474525 0 25 -474525 1
gene 2 2 15 -352874 0 26 -352874 0
gene 4 3 15 523449 0 27 523449 1
gene 4 4 15 -9084 0 28 -9084 0
gene 1 5 15 -175710 0 29 -175710 0
gene 4 6 15 538604 0 30 538604 0
gene 2 7 15 -532683 0 31 -532683 1
gene 4 8 15 -47899 0 32 -47899 1
gene 1 9 15 -433599 0 33 -433599 1
gene 3 10 15 -56601 0 34 -56601 1
gene 3 11 15 -316692 0 35 -316692 0
gene 2 12 15 470099 0 36 470099 1
gene 2 5 22 22727 0 50 22727 1
gene 2 22 14 -228219 0 51 -228219 1
gene 1 6 48 351711 0 108 351711 1
gene 1 48 13 -124434 0 109 -124434 0
gene 1 2 63 800000 0 153 800000 1
gene 1 63 13 206004 0 154 206004 1
gene 1 6 84 -800000 0 215 -800000 1
gene 1 84 14 71484 0 216 71484 1
gene 3 4 22 359016 0 283 359016 0
gene 3 12 190 -564794 0 501 -564794 1
gene 3 190 14 11481 0 502 11481 1
gene 4 13 22 -133950 0 570 -133950 1
gene 3 190 224 -327837 0 593 -327837 0
gene 3 224 14 759293 0 594 759293 1
gene 3 1 224 732069 0 655 732069 1
gene 1 6 265 82290 0 700 82290 1
gene 1 265 48 -387816 0 701 -387816 1
gene 4 84 190 220764 0 813 220764 1
gene 3 4 328 229758 0 869 229758 1
gene 3 328 22 338058 0 870 338058 1
gene 2 7 342 375129 0 912 375129 1
gene 2 342 15 -362607 0 913 -362607 1
gene 4 11 265 188697 0 1175 188697 1
gene 4 8 477 -284619 0 1261 -284619 1
gene 4 477 14 26553 0 1262 26553 1
gene 1 14 342 166455 0 1454 166455 1
gene 1 63 585 -242499 0 1549 -242499 1
gene 1 585 13 800000 0 1550 800000 1
gene 3 48 15 205353 0 1636 205353 1
gene 1 5 672 -152862 0 1789 -152862 1
gene 1 672 15 453705 0 1790 453705 1
gene 1 12 699 -509313 0 1853 -509313 1
gene 1 699 13 -97596 0 1854 -97596 1
gene 3 11 766 5820 0 2015 5820 1
gene 3 766 15 -534255 0 2016 -534255 1
gene 2 2 833 -700911 0 2191 -700911 1
gene 2 833 15 -33990 0 2192 -33990 1
gene 2 766 766 76655 1 2255 76655 1
gene 4 10 1058 385416 0 2774 385416 0
gene 4 1058 14 -143004 0 2775 -143004 1
gene 3 3 1064 345928 0 2788 345928 1
gene 3 1064 13 188244 0 2789 188244 1
gene 3 190 1093 -179544 0 2873 -179544 1
gene 3 1093 224 102774 0 2874 102774 1
gene 4 10 1149 -80177 0 3020 -80177 1
gene 4 1149 1058 -274773 0 3021 -274773 1
gene 3 6 1243 -283589 0 3277 -283589 1
gene 3 1243 14 510510 0 3278 510510 1
gene 4 7 699 -234927 0 3338 -234927 1
gene 1 22 265 217530 0 3410 217530 1
gene 4 4 1388 1 0 3652 0 1
gene 4 1388 15 -9084 0 3653 0 1
genomeend 50


/* Organism #54 Fitness: 320.000000 Time: 0 */
/* Position #54*/
#1 x: 39 y: 34
#2 x: 15 y: 30
#3 x: 54 y: 32
#4 x: 23 y: 74
#5 x: 36 y: 72
#6 x: 51 y: 78
genomestart 54
trait 1 1.000000 0.000000 0.000000 0.000000 0.000000 0.000000 0.000000 0.000000 trait 2 48067.000000 0.000000 62481.000000 0.000000 0.000000 0.000000 26897.000000 16325.000000 trait 3 3.000000 0.000000 0.000000 0.000000 0.000000 0.000000 0.000000 0.000000 trait 4 2.000000 0.000000 18432.000000 0.000000 100000.000000 0.000000 14232.000000 0.000000 node 1 3 1 3
node 2 1 1 1
node 3 4 1 1
node 4 3 1 1
node 5 4 1 1
node 6 3 1 1
node 7 3 1 1
node 8 3 1 1
node 9 1 1 1
node 10 1 1 1
node 11 2 1 1
node 12 2 1 1
node 13 3 0 2
node 14 2 0 2
node 15 1 0 2
node 22 1 0 0
node 48 1 0 0
node 63 1 0 0
node 84 1 0 0
node 190 4 0 0
node 224 1 0 0
node 265 1 0 0
node 328 1 0 0
node 342 1 0 0
node 477 1 0 0
node 585 1 0 0
node 672 1 0 0
node 699 1 0 0
node 766 4 0 0
node 833 1 0 0
node 1058 1 0 0
node 1064 1 0 0
node 1093 1 0 0
node 1149 1 0 0
node 1243 1 0 0
node 1398 1 0 0
gene 1 1 13 -78744 0 1 -78744 1
gene 1 2 13 -104103 0 2 -104103 0
gene 3 3 13 -444810 0 3 -444810 0
gene 4 4 13 169524 0 4 169524 1
gene 4 5 13 -96909 0 5 -96909 0
gene 1 6 13 -302430 0 6 -302430 0
gene 3 7 13 8022 0 7 8022 1
gene 3 8 13 -126258 0 8 -126258 1
gene 1 9 13 -376832 0 9 -376832 1
gene 4 10 13 -16594 0 10 -16594 1
gene 3 11 13 689 0 11 689 1
gene 1 12 13 579581 0 12 579581 1
gene 2 1 14 -762347 0 13 -762347 1
gene 1 2 14 159273 0 14 159273 1
gene 1 3 14 200316 0 15 200316 0
gene 2 4 14 285810 0 16 285810 1
gene 2 5 14 -441018 0 17 -441018 1
gene 3 6 14 800000 0 18 800000 0
gene 4 7 14 86295 0 19 86295 0
gene 4 8 14 -521553 0 20 -521553 1
gene 2 9 14 -188178 0 21 -188178 1
gene 4 10 14 562578 0 22 562578 0
gene 4 11 14 321175 0 23 321175 0
gene 3 12 14 -58275 0 24 -58275 0
gene 2 1 15 -474525 0 25 -474525 1
gene 2 2 15 -352874 0 26 -352874 0
gene 4 3 15 523449 0 27 523449 1
gene 4 4 15 -9084 0 28 -9084 1
gene 1 5 15 -175710 0 29 -175710 0
gene 4 6 15 538604 0 30 538604 0
gene 2 7 15 -532683 0 31 -532683 1
gene 4 8 15 -47899 0 32 -47899 1
gene 1 9 15 -433599 0 33 -433599 1
gene 3 10 15 -56601 0 34 -56601 1
gene 3 11 15 -316692 0 35 -316692 0
gene 2 12 15 470099 0 36 470099 1
gene 2 5 22 22727 0 50 22727 1
gene 2 22 14 -228219 0 51 -228219 1
gene 1 6 48 351711 0 108 351711 1
gene 1 48 13 -124434 0 109 -124434 0
gene 1 2 63 800000 0 153 800000 1
gene 1 63 13 206004 0 154 206004 1
gene 1 6 84 -800000 0 215 -800000 1
gene 1 84 14 71484 0 216 71484 1
gene 3 4 22 359016 0 283 359016 0
gene 3 12 190 -564794 0 501 -564794 1
gene 3 190 14 11481 0 502 11481 1
gene 4 13 22 -133950 0 570 -133950 1
gene 3 190 224 -327837 0 593 -327837 0
gene 3 224 14 759293 0 594 759293 1
gene 3 1 224 732069 0 655 732069 1
gene 1 6 265 82290 0 700 82290 1
gene 1 265 48 -387816 0 701 -387816 1
gene 4 84 190 220764 0 813 220764 1
gene 3 4 328 229758 0 869 229758 1
gene 3 328 22 338058 0 870 338058 1
gene 2 7 342 375129 0 912 375129 1
gene 2 342 15 -362607 0 913 -362607 0
gene 4 11 265 188697 0 1175 188697 1
gene 4 8 477 -284619 0 1261 -284619 1
gene 4 477 14 26553 0 1262 26553 1
gene 1 14 342 166455 0 1454 166455 1
gene 1 63 585 -242499 0 1549 -242499 1
gene 1 585 13 800000 0 1550 800000 1
gene 3 48 15 205353 0 1636 205353 1
gene 1 5 672 -152862 0 1789 -152862 1
gene 1 672 15 453705 0 1790 453705 1
gene 1 12 699 -509313 0 1853 -509313 1
gene 1 699 13 -97596 0 1854 -97596 1
gene 3 11 766 5820 0 2015 5820 1
gene 3 766 15 -534255 0 2016 -534255 1
gene 2 2 833 -700911 0 2191 -700911 1
gene 2 833 15 -33990 0 2192 -33990 1
gene 2 766 766 76655 1 2255 76655 1
gene 4 10 1058 385416 0 2774 385416 0
gene 4 1058 14 -143004 0 2775 -143004 1
gene 3 3 1064 345928 0 2788 345928 1
gene 3 1064 13 188244 0 2789 188244 1
gene 3 190 1093 -179544 0 2873 -179544 1
gene 3 1093 224 102774 0 2874 102774 1
gene 4 10 1149 -80177 0 3020 -80177 1
gene 4 1149 1058 -274773 0 3021 -274773 1
gene 3 6 1243 -283589 0 3277 -283589 1
gene 3 1243 14 510510 0 3278 510510 1
gene 4 7 699 -234927 0 3338 -234927 1
gene 1 22 265 217530 0 3410 217530 1
gene 2 342 1398 1 0 3681 0 1
gene 2 1398 15 -362607 0 3682 0 1
genomeend 54


/* Organism #60 Fitness: 270.000000 Time: 0 */
/* Position #60*/
#1 x: 69 y: 33
#2 x: 27 y: 37
#3 x: 57 y: 39
#4 x: 65 y: 80
#5 x: 28 y: 75
#6 x: 73 y: 81
genomestart 60
trait 1 1.000000 0.000000 0.000000 0.000000 0.000000 0.000000 0.000000 0.000000 trait 2 48067.000000 0.000000 62481.000000 0.000000 0.000000 0.000000 26897.000000 16325.000000 trait 3 3.000000 0.000000 0.000000 0.000000 0.000000 0.000000 0.000000 0.000000 trait 4 2.000000 0.000000 18432.000000 0.000000 100000.000000 0.000000 14232.000000 0.000000 node 1 3 1 3
node 2 1 1 1
node 3 4 1 1
node 4 3 1 1
node 5 4 1 1
node 6 3 1 1
node 7 3 1 1
node 8 3 1 1
node 9 1 1 1
node 10 1 1 1
node 11 2 1 1
node 12 2 1 1
node 13 3 0 2
node 14 2 0 2
node 15 1 0 2
node 22 1 0 0
node 48 1 0 0
node 63 1 0 0
node 84 1 0 0
node 190 4 0 0
node 224 1 0 0
node 265 1 0 0
node 328 1 0 0
node 342 1 0 0
node 477 1 0 0
node 585 1 0 0
node 672 1 0 0
node 699 1 0 0
node 766 4 0 0
node 833 1 0 0
node 1058 1 0 0
node 1064 1 0 0
node 1093 1 0 0
node 1149 1 0 0
node 1243 1 0 0
node 1295 1 0 0
gene 1 1 13 -143667 0 1 -143667 1
gene 1 2 13 -42966 0 2 -42966 0
gene 3 3 13 -577602 0 3 -577602 0
gene 4 4 13 43545 0 4 43545 1
gene 4 5 13 -120045 0 5 -120045 0
gene 1 6 13 -66591 0 6 -66591 0
gene 3 7 13 457569 0 7 457569 1
gene 3 8 13 -4433 0 8 -4433 1
gene 1 9 13 -510923 0 9 -510923 1
gene 4 10 13 -62961 0 10 -62961 1
gene 3 11 13 -237952 0 11 -237952 1
gene 1 12 13 800000 0 12 800000 1
gene 2 1 14 -694421 0 13 -694421 1
gene 1 2 14 -127782 0 14 -127782 1
gene 1 3 14 162288 0 15 162288 0
gene 2 4 14 233433 0 16 233433 1
gene 2 5 14 -370089 0 17 -370089 1
gene 3 6 14 613965 0 18 613965 0
gene 4 7 14 472751 0 19 472751 0
gene 4 8 14 -180009 0 20 -180009 1
gene 2 9 14 52224 0 21 52224 1
gene 4 10 14 -86247 0 22 -86247 0
gene 4 11 14 353182 0 23 353182 0
gene 3 12 14 -563298 0 24 -563298 0
gene 2 1 15 -611037 0 25 -611037 1
gene 2 2 15 163885 0 26 163885 0
gene 4 3 15 690819 0 27 690819 1
gene 4 4 15 -43539 0 28 -43539 1
gene 1 5 15 -308304 0 29 -308304 0
gene 4 6 15 547604 0 30 547604 0
gene 2 7 15 -397362 0 31 -397362 1
gene 4 8 15 132720 0 32 132720 1
gene 1 9 15 -161436 0 33 -161436 1
gene 3 10 15 188871 0 34 188871 1
gene 3 11 15 97122 0 35 97122 0
gene 2 12 15 -23847 0 36 -23847 1
gene 2 5 22 343514 0 50 343514 1
gene 2 22 14 -84666 0 51 -84666 1
gene 1 6 48 48765 0 108 48765 1
gene 1 48 13 240780 0 109 240780 0
gene 1 2 63 800000 0 153 800000 0
gene 1 63 13 200400 0 154 200400 1
gene 1 6 84 -800000 0 215 -800000 1
gene 1 84 14 -39942 0 216 -39942 1
gene 3 4 22 -167205 0 283 -167205 0
gene 3 12 190 206805 0 501 206805 1
gene 3 190 14 -137265 0 502 -137265 1
gene 4 13 22 284655 0 570 284655 1
gene 3 190 224 -77841 0 593 -77841 0
gene 3 224 14 800000 0 594 800000 1
gene 3 1 224 458811 0 655 458811 1
gene 1 6 265 147366 0 700 147366 1
gene 1 265 48 -315210 0 701 -315210 1
gene 4 84 190 156363 0 813 156363 1
gene 3 4 328 180444 0 869 180444 1
gene 3 328 22 29823 0 870 29823 1
gene 2 7 342 61836 0 912 61836 1
gene 2 342 15 -59940 0 913 -59940 1
gene 4 11 265 356391 0 1175 356391 1
gene 4 8 477 -787305 0 1261 -787305 1
gene 4 477 14 -220800 0 1262 -220800 1
gene 1 14 342 -484251 0 1454 -484251 1
gene 1 63 585 199750 0 1549 199750 1
gene 1 585 13 730109 0 1550 730109 1
gene 3 48 15 473178 0 1636 473178 1
gene 1 5 672 199983 0 1789 199983 1
gene 1 672 15 293049 0 1790 293049 1
gene 1 12 699 22293 0 1853 22293 1
gene 1 699 13 -412779 0 1854 -412779 1
gene 3 11 766 183027 0 2015 183027 1
gene 3 766 15 -468528 0 2016 -468528 1
gene 2 2 833 73242 0 2191 73242 1
gene 2 833 15 -23379 0 2192 -23379 1
gene 2 766 766 146435 1 2255 146435 1
gene 4 10 1058 7629 0 2774 7629 0
gene 4 1058 14 334899 0 2775 334899 1
gene 3 3 1064 44811 0 2788 44811 1
gene 3 1064 13 445077 0 2789 445077 1
gene 3 190 1093 207405 0 2873 207405 1
gene 3 1093 224 367137 0 2874 367137 1
gene 4 10 1149 -550634 0 3020 -550634 1
gene 4 1149 1058 -274773 0 3021 -274773 1
gene 3 6 1243 -97635 0 3277 -97635 1
gene 3 1243 14 763827 0 3278 763827 1
gene 1 2 1295 -176112 0 3411 -176112 1
gene 1 1295 63 800000 0 3412 800000 1
gene 4 833 22 -123707 0 3534 -123707 1
gene 3 8 63 -71693 0 3688 -71693 1
genomeend 60


/* Organism #64 Fitness: 160.000000 Time: 0 */
/* Position #64*/
#1 x: 58 y: 24
#2 x: 71 y: 31
#3 x: 34 y: 30
#4 x: 46 y: 65
#5 x: 60 y: 74
#6 x: 83 y: 83
genomestart 64
trait 1 1.000000 0.000000 0.000000 0.000000 0.000000 0.000000 0.000000 0.000000 trait 2 48067.000000 0.000000 62481.000000 0.000000 0.000000 0.000000 26897.000000 16325.000000 trait 3 3.000000 0.000000 0.000000 0.000000 0.000000 0.000000 0.000000 0.000000 trait 4 2.000000 0.000000 18432.000000 0.000000 100000.000000 0.000000 14232.000000 0.000000 node 1 3 1 3
node 2 1 1 1
node 3 4 1 1
node 4 3 1 1
node 5 4 1 1
node 6 3 1 1
node 7 3 1 1
node 8 3 1 1
node 9 1 1 1
node 10 1 1 1
node 11 2 1 1
node 12 2 1 1
node 13 3 0 2
node 14 2 0 2
node 15 1 0 2
node 22 1 0 0
node 48 1 0 0
node 63 1 0 0
node 84 1 0 0
node 190 4 0 0
node 224 1 0 0
node 265 1 0 0
node 328 1 0 0
node 342 1 0 0
node 477 1 0 0
node 585 1 0 0
node 672 1 0 0
node 699 1 0 0
node 766 4 0 0
node 833 1 0 0
node 1058 1 0 0
node 1064 1 0 0
node 1093 1 0 0
node 1149 1 0 0
node 1243 1 0 0
node 1379 1 0 0
gene 1 1 13 -249291 0 1 -249291 1
gene 1 2 13 -183315 0 2 -183315 0
gene 3 3 13 -721659 0 3 -721659 0
gene 4 4 13 290538 0 4 290538 1
gene 4 5 13 110427 0 5 110427 0
gene 1 6 13 -259842 0 6 -259842 0
gene 3 7 13 220770 0 7 220770 1
gene 3 8 13 73819 0 8 73819 1
gene 1 9 13 -485594 0 9 -485594 1
gene 4 10 13 -175723 0 10 -175723 1
gene 3 11 13 -237952 0 11 -237952 1
gene 1 12 13 785108 0 12 785108 1
gene 2 1 14 -800000 0 13 -800000 1
gene 1 2 14 159273 0 14 159273 1
gene 1 3 14 -77214 0 15 -77214 0
gene 2 4 14 383355 0 16 383355 1
gene 2 5 14 -179913 0 17 -179913 1
gene 3 6 14 613965 0 18 613965 0
gene 4 7 14 314900 0 19 314900 0
gene 4 8 14 -327156 0 20 -327156 1
gene 2 9 14 -16359 0 21 -16359 1
gene 4 10 14 562578 0 22 562578 0
gene 4 11 14 291412 0 23 291412 0
gene 3 12 14 -543234 0 24 -543234 0
gene 2 1 15 -474525 0 25 -474525 1
gene 2 2 15 -79082 0 26 -79082 0
gene 4 3 15 557637 0 27 557637 1
gene 4 4 15 162135 0 28 162135 1
gene 1 5 15 -223506 0 29 -223506 0
gene 4 6 15 428465 0 30 428465 0
gene 2 7 15 -278775 0 31 -278775 1
gene 4 8 15 -214927 0 32 -214927 1
gene 1 9 15 -224868 0 33 -224868 1
gene 3 10 15 125961 0 34 125961 1
gene 3 11 15 -104655 0 35 -104655 0
gene 2 12 15 685601 0 36 685601 1
gene 2 5 22 56933 0 50 56933 1
gene 2 22 14 -84666 0 51 -84666 1
gene 1 6 48 188166 0 108 188166 1
gene 1 48 13 -124434 0 109 -124434 0
gene 1 2 63 800000 0 153 800000 1
gene 1 63 13 206004 0 154 206004 1
gene 1 6 84 -800000 0 215 -800000 1
gene 1 84 14 -83799 0 216 -83799 1
gene 3 4 22 218844 0 283 218844 0
gene 3 12 190 -493808 0 501 -493808 1
gene 3 190 14 6288 0 502 6288 1
gene 4 13 22 35979 0 570 35979 1
gene 3 190 224 -328356 0 593 -328356 0
gene 3 224 14 800000 0 594 800000 1
gene 3 1 224 449481 0 655 449481 1
gene 1 6 265 147366 0 700 147366 1
gene 1 265 48 -387816 0 701 -387816 1
gene 4 84 190 -19737 0 813 -19737 1
gene 3 4 328 235563 0 869 235563 1
gene 3 328 22 192585 0 870 192585 1
gene 2 7 342 167157 0 912 167157 1
gene 2 342 15 -231390 0 913 -231390 1
gene 4 11 265 91374 0 1175 91374 1
gene 4 8 477 -580656 0 1261 -580656 1
gene 4 477 14 36933 0 1262 36933 1
gene 1 14 342 -409524 0 1454 -409524 1
gene 1 63 585 455443 0 1549 455443 1
gene 1 585 13 800000 0 1550 800000 1
gene 3 48 15 473178 0 1636 473178 1
gene 1 5 672 120021 0 1789 120021 1
gene 1 672 15 202389 0 1790 202389 1
gene 1 12 699 -683019 0 1853 -683019 1
gene 1 699 13 -115119 0 1854 -115119 0
gene 3 11 766 370188 0 2015 370188 1
gene 3 766 15 -468528 0 2016 -468528 1
gene 2 2 833 -628356 0 2191 -628356 1
gene 2 833 15 -293568 0 2192 -293568 1
gene 2 766 766 -81802 1 2255 -81802 1
gene 4 10 1058 91065 0 2774 91065 0
gene 4 1058 14 542247 0 2775 542247 1
gene 3 3 1064 219745 0 2788 219745 1
gene 3 1064 13 195678 0 2789 195678 1
gene 3 190 1093 -41043 0 2873 -41043 1
gene 3 1093 224 100560 0 2874 100560 1
gene 4 10 1149 -352997 0 3020 -352997 1
gene 4 1149 1058 -274773 0 3021 -274773 1
gene 3 6 1243 1 0 3277 0 1
gene 3 1243 14 613965 0 3278 0 1
gene 4 7 699 -3636 0 3338 -3636 1
gene 1 22 265 21701 0 3410 21701 1
gene 1 699 1379 1 0 3626 0 1
gene 1 1379 13 -115119 0 3627 0 1
genomeend 64


