/* Organism #6 Fitness: 180.000000 Time: 0 */
/* Position #6*/
#1 x: 54 y: 35
#2 x: 62 y: 26
#3 x: 17 y: 17
#4 x: 57 y: 61
#5 x: 31 y: 79
#6 x: 22 y: 62
genomestart 6
trait 1 1.000000 0.000000 0.000000 0.000000 0.000000 0.000000 0.000000 0.000000 trait 2 2.000000 77552.000000 1041.000000 0.000000 0.000000 0.000000 0.000000 11557.000000 trait 3 3.000000 0.000000 0.000000 0.000000 0.000000 0.000000 0.000000 0.000000 trait 4 4.000000 0.000000 0.000000 0.000000 0.000000 0.000000 0.000000 0.000000 node 1 3 1 3
node 2 4 1 1
node 3 3 1 1
node 4 1 1 1
node 5 2 1 1
node 6 2 1 1
node 7 1 1 1
node 8 2 1 1
node 9 1 1 1
node 10 2 1 1
node 11 1 1 1
node 12 3 1 1
node 13 3 0 2
node 14 3 0 2
node 15 4 0 2
node 34 1 0 0
node 82 1 0 0
node 98 1 0 0
node 129 1 0 0
node 248 1 0 0
node 252 1 0 0
node 319 1 0 0
node 344 1 0 0
node 437 1 0 0
node 467 1 0 0
gene 1 1 13 -245259 0 1 -245259 1
gene 4 2 13 512948 0 2 512948 1
gene 4 3 13 -45953 0 3 -45953 1
gene 1 4 13 -188340 0 4 -188340 1
gene 2 5 13 48105 0 5 48105 0
gene 2 6 13 -174522 0 6 -174522 0
gene 3 7 13 -79561 0 7 -79561 1
gene 2 8 13 -70416 0 8 -70416 0
gene 3 9 13 -356739 0 9 -356739 1
gene 3 10 13 109920 0 10 109920 1
gene 4 11 13 -51628 0 11 -51628 1
gene 3 12 13 -117706 0 12 -117706 0
gene 2 1 14 247683 0 13 247683 1
gene 1 2 14 139770 0 14 139770 1
gene 3 3 14 -98681 0 15 -98681 1
gene 4 4 14 209555 0 16 209555 1
gene 4 5 14 -76702 0 17 -76702 1
gene 2 6 14 -183879 0 18 -183879 0
gene 4 7 14 219105 0 19 219105 0
gene 1 8 14 -75640 0 20 -75640 1
gene 4 9 14 72108 0 21 72108 1
gene 2 10 14 -286193 0 22 -286193 1
gene 2 11 14 52160 0 23 52160 1
gene 2 12 14 117755 0 24 117755 1
gene 3 1 15 -52032 0 25 -52032 1
gene 2 2 15 -76950 0 26 -76950 1
gene 3 3 15 -286041 0 27 -286041 1
gene 3 4 15 -463680 0 28 -463680 1
gene 3 5 15 -319836 0 29 -319836 1
gene 1 6 15 -189463 0 30 -189463 1
gene 2 7 15 -532140 0 31 -532140 1
gene 1 8 15 68484 0 32 68484 1
gene 4 9 15 -290769 0 33 -290769 0
gene 4 10 15 325227 0 34 325227 1
gene 2 11 15 197122 0 35 197122 0
gene 1 12 15 174036 0 36 174036 1
gene 4 9 34 634230 0 79 634230 0
gene 4 34 15 121102 0 80 121102 1
gene 1 7 34 299126 0 147 299126 0
gene 1 7 82 64240 0 205 64240 1
gene 1 82 34 -414859 0 206 -414859 1
gene 4 12 98 161839 0 255 161839 1
gene 4 98 13 -86362 0 256 -86362 1
gene 1 8 129 -321104 0 328 -321104 1
gene 1 129 13 -123315 0 329 -123315 1
gene 1 4 129 -115374 0 449 -115374 0
gene 1 4 248 1 0 653 1 1
gene 1 248 129 -567893 0 654 -567893 0
gene 2 5 252 1 0 665 1 1
gene 2 252 13 242508 0 666 242508 1
gene 2 14 82 97653 0 796 97653 1
gene 2 11 319 1 0 843 1 0
gene 2 319 15 40396 0 844 40396 1
gene 4 9 344 1 0 919 1 1
gene 4 344 34 426489 0 920 426489 1
gene 2 129 98 -28738 0 1072 -28738 1
gene 1 248 437 1 0 1150 0 1
gene 1 437 129 -567893 0 1151 0 1
gene 2 11 467 1 0 1239 0 1
gene 2 467 319 1 0 1240 0 1
genomeend 6


/* Organism #8 Fitness: 190.000000 Time: 0 */
/* Position #8*/
#1 x: 55 y: 15
#2 x: 30 y: 39
#3 x: 61 y: 26
#4 x: 17 y: 68
#5 x: 15 y: 79
#6 x: 50 y: 64
genomestart 8
trait 1 1.000000 0.000000 0.000000 0.000000 0.000000 0.000000 0.000000 0.000000 trait 2 2.000000 77552.000000 1041.000000 0.000000 0.000000 0.000000 0.000000 11557.000000 trait 3 3.000000 0.000000 0.000000 0.000000 0.000000 0.000000 0.000000 0.000000 trait 4 4.000000 0.000000 0.000000 0.000000 0.000000 0.000000 0.000000 0.000000 node 1 3 1 3
node 2 4 1 1
node 3 3 1 1
node 4 1 1 1
node 5 2 1 1
node 6 2 1 1
node 7 1 1 1
node 8 2 1 1
node 9 1 1 1
node 10 2 1 1
node 11 1 1 1
node 12 3 1 1
node 13 3 0 2
node 14 3 0 2
node 15 4 0 2
node 34 1 0 0
node 82 1 0 0
node 98 1 0 0
node 129 1 0 0
node 248 1 0 0
node 252 1 0 0
node 319 1 0 0
node 344 1 0 0
node 437 1 0 0
node 467 1 0 0
gene 1 1 13 -245259 0 1 -245259 1
gene 4 2 13 512948 0 2 512948 1
gene 4 3 13 -45953 0 3 -45953 1
gene 1 4 13 -188340 0 4 -188340 1
gene 2 5 13 48105 0 5 48105 0
gene 2 6 13 -174522 0 6 -174522 0
gene 3 7 13 -79561 0 7 -79561 1
gene 2 8 13 -70416 0 8 -70416 0
gene 3 9 13 -356739 0 9 -356739 1
gene 3 10 13 109920 0 10 109920 1
gene 4 11 13 -51628 0 11 -51628 1
gene 3 12 13 -117706 0 12 -117706 0
gene 2 1 14 247683 0 13 247683 1
gene 1 2 14 139770 0 14 139770 1
gene 3 3 14 -98681 0 15 -98681 1
gene 4 4 14 209555 0 16 209555 1
gene 4 5 14 -76702 0 17 -76702 1
gene 2 6 14 -183879 0 18 -183879 0
gene 4 7 14 219105 0 19 219105 0
gene 1 8 14 -75640 0 20 -75640 1
gene 4 9 14 72108 0 21 72108 1
gene 2 10 14 -286193 0 22 -286193 1
gene 2 11 14 52160 0 23 52160 1
gene 2 12 14 117755 0 24 117755 1
gene 3 1 15 -52032 0 25 -52032 1
gene 2 2 15 -76950 0 26 -76950 1
gene 3 3 15 -286041 0 27 -286041 1
gene 3 4 15 -463680 0 28 -463680 1
gene 3 5 15 -319836 0 29 -319836 1
gene 1 6 15 -189463 0 30 -189463 1
gene 2 7 15 -532140 0 31 -532140 1
gene 1 8 15 68484 0 32 68484 1
gene 4 9 15 -290769 0 33 -290769 0
gene 4 10 15 325227 0 34 325227 1
gene 2 11 15 197122 0 35 197122 0
gene 1 12 15 174036 0 36 174036 1
gene 4 9 34 634230 0 79 634230 0
gene 4 34 15 121102 0 80 121102 1
gene 1 7 34 299126 0 147 299126 0
gene 1 7 82 64240 0 205 64240 1
gene 1 82 34 -414859 0 206 -414859 1
gene 4 12 98 161839 0 255 161839 1
gene 4 98 13 -86362 0 256 -86362 1
gene 1 8 129 -321104 0 328 -321104 1
gene 1 129 13 -123315 0 329 -123315 1
gene 1 4 129 -115374 0 449 -115374 0
gene 1 4 248 1 0 653 1 1
gene 1 248 129 -567893 0 654 -567893 0
gene 2 5 252 1 0 665 1 1
gene 2 252 13 242508 0 666 242508 1
gene 2 14 82 97653 0 796 97653 1
gene 2 11 319 1 0 843 1 0
gene 2 319 15 40396 0 844 40396 1
gene 4 9 344 1 0 919 1 1
gene 4 344 34 426489 0 920 426489 1
gene 2 129 98 -28738 0 1072 -28738 1
gene 1 248 437 1 0 1150 0 1
gene 1 437 129 -567893 0 1151 0 1
gene 2 11 467 1 0 1239 0 1
gene 2 467 319 1 0 1240 0 1
gene 2 1 98 -60585 0 1317 -60585 1
genomeend 8


/* Organism #10 Fitness: 180.000000 Time: 0 */
/* Position #10*/
#1 x: 71 y: 38
#2 x: 82 y: 27
#3 x: 40 y: 40
#4 x: 40 y: 85
#5 x: 37 y: 77
#6 x: 75 y: 61
genomestart 10
trait 1 1.000000 0.000000 0.000000 0.000000 0.000000 0.000000 0.000000 0.000000 trait 2 2.000000 77552.000000 1041.000000 0.000000 0.000000 0.000000 0.000000 11557.000000 trait 3 3.000000 0.000000 0.000000 0.000000 0.000000 0.000000 0.000000 0.000000 trait 4 4.000000 0.000000 0.000000 0.000000 0.000000 0.000000 0.000000 0.000000 node 1 3 1 3
node 2 4 1 1
node 3 3 1 1
node 4 1 1 1
node 5 2 1 1
node 6 2 1 1
node 7 1 1 1
node 8 2 1 1
node 9 1 1 1
node 10 2 1 1
node 11 1 1 1
node 12 3 1 1
node 13 3 0 2
node 14 3 0 2
node 15 4 0 2
node 34 1 0 0
node 82 1 0 0
node 98 1 0 0
node 129 1 0 0
node 248 1 0 0
node 252 1 0 0
node 319 1 0 0
node 344 1 0 0
node 437 1 0 0
node 467 1 0 0
gene 1 1 13 -245259 0 1 -245259 1
gene 4 2 13 512948 0 2 512948 1
gene 4 3 13 -45953 0 3 -45953 1
gene 1 4 13 -188340 0 4 -188340 1
gene 2 5 13 48105 0 5 48105 0
gene 2 6 13 -174522 0 6 -174522 0
gene 3 7 13 -79561 0 7 -79561 1
gene 2 8 13 -70416 0 8 -70416 0
gene 3 9 13 -356739 0 9 -356739 1
gene 3 10 13 109920 0 10 109920 1
gene 4 11 13 -51628 0 11 -51628 1
gene 3 12 13 -117706 0 12 -117706 0
gene 2 1 14 247683 0 13 247683 1
gene 1 2 14 139770 0 14 139770 1
gene 3 3 14 -98681 0 15 -98681 1
gene 4 4 14 209555 0 16 209555 1
gene 4 5 14 -76702 0 17 -76702 1
gene 2 6 14 -183879 0 18 -183879 0
gene 4 7 14 219105 0 19 219105 0
gene 1 8 14 -75640 0 20 -75640 1
gene 4 9 14 72108 0 21 72108 1
gene 2 10 14 -286193 0 22 -286193 1
gene 2 11 14 52160 0 23 52160 1
gene 2 12 14 117755 0 24 117755 1
gene 3 1 15 -52032 0 25 -52032 1
gene 2 2 15 -76950 0 26 -76950 1
gene 3 3 15 -286041 0 27 -286041 1
gene 3 4 15 -463680 0 28 -463680 1
gene 3 5 15 -319836 0 29 -319836 1
gene 1 6 15 -189463 0 30 -189463 1
gene 2 7 15 -532140 0 31 -532140 1
gene 1 8 15 68484 0 32 68484 1
gene 4 9 15 -290769 0 33 -290769 0
gene 4 10 15 325227 0 34 325227 1
gene 2 11 15 197122 0 35 197122 0
gene 1 12 15 174036 0 36 174036 1
gene 4 9 34 634230 0 79 634230 0
gene 4 34 15 121102 0 80 121102 1
gene 1 7 34 299126 0 147 299126 0
gene 1 7 82 64240 0 205 64240 1
gene 1 82 34 -414859 0 206 -414859 1
gene 4 12 98 161839 0 255 161839 1
gene 4 98 13 -86362 0 256 -86362 1
gene 1 8 129 -321104 0 328 -321104 1
gene 1 129 13 -123315 0 329 -123315 1
gene 1 4 129 -115374 0 449 -115374 0
gene 1 4 248 1 0 653 1 1
gene 1 248 129 -567893 0 654 -567893 0
gene 2 5 252 1 0 665 1 1
gene 2 252 13 242508 0 666 242508 1
gene 2 14 82 97653 0 796 97653 1
gene 2 11 319 1 0 843 1 0
gene 2 319 15 40396 0 844 40396 1
gene 4 9 344 1 0 919 1 1
gene 4 344 34 426489 0 920 426489 1
gene 2 129 98 -28738 0 1072 -28738 1
gene 1 248 437 1 0 1150 0 1
gene 1 437 129 -567893 0 1151 0 1
gene 2 11 467 1 0 1239 0 1
gene 2 467 319 1 0 1240 0 1
gene 3 7 98 -15814 0 1318 -15814 1
genomeend 10


/* Organism #15 Fitness: 180.000000 Time: 0 */
/* Position #15*/
#1 x: 49 y: 37
#2 x: 81 y: 17
#3 x: 35 y: 30
#4 x: 45 y: 82
#5 x: 55 y: 77
#6 x: 21 y: 72
genomestart 15
trait 1 1.000000 0.000000 0.000000 0.000000 0.000000 0.000000 0.000000 0.000000 trait 2 2.000000 0.000000 0.000000 0.000000 0.000000 0.000000 0.000000 0.000000 trait 3 3.000000 0.000000 0.000000 0.000000 0.000000 0.000000 0.000000 0.000000 trait 4 4.000000 0.000000 0.000000 0.000000 0.000000 0.000000 0.000000 0.000000 node 1 3 1 3
node 2 3 1 1
node 3 1 1 1
node 4 2 1 1
node 5 1 1 1
node 6 4 1 1
node 7 2 1 1
node 8 3 1 1
node 9 1 1 1
node 10 1 1 1
node 11 1 1 1
node 12 1 1 1
node 13 3 0 2
node 14 3 0 2
node 15 2 0 2
node 27 1 0 0
node 101 1 0 0
node 144 1 0 0
node 204 1 0 0
node 225 1 0 0
node 253 1 0 0
node 279 1 0 0
node 384 1 0 0
node 416 1 0 0
node 473 1 0 0
gene 2 1 13 -209646 0 1 -209646 1
gene 3 2 13 234786 0 2 234786 1
gene 2 3 13 -59832 0 3 -59832 0
gene 4 4 13 -355664 0 4 -355664 0
gene 2 5 13 -572993 0 5 -572993 1
gene 4 6 13 532170 0 6 532170 1
gene 1 7 13 -29937 0 7 -29937 0
gene 2 8 13 207701 0 8 207701 1
gene 3 9 13 583292 0 9 583292 1
gene 4 10 13 155262 0 10 155262 1
gene 3 11 13 164810 0 11 164810 0
gene 2 12 13 -211956 0 12 -211956 1
gene 1 1 14 188688 0 13 188688 1
gene 2 2 14 117985 0 14 117985 1
gene 2 3 14 44124 0 15 44124 0
gene 3 4 14 -118554 0 16 -118554 1
gene 4 5 14 -118557 0 17 -118557 0
gene 3 6 14 -618658 0 18 -618658 1
gene 3 7 14 548614 0 19 548614 1
gene 3 8 14 37452 0 20 37452 1
gene 4 9 14 800000 0 21 800000 1
gene 1 10 14 74957 0 22 74957 1
gene 3 11 14 90924 0 23 90924 1
gene 1 12 14 -42291 0 24 -42291 1
gene 4 1 15 7704 0 25 7704 1
gene 4 2 15 -246412 0 26 -246412 1
gene 3 3 15 141066 0 27 141066 1
gene 3 4 15 269127 0 28 269127 1
gene 2 5 15 588930 0 29 588930 0
gene 3 6 15 566148 0 30 566148 1
gene 2 7 15 -400062 0 31 -400062 1
gene 4 8 15 -22779 0 32 -22779 1
gene 3 9 15 -323074 0 33 -323074 1
gene 1 10 15 209934 0 34 209934 1
gene 3 11 15 75597 0 35 75597 1
gene 4 12 15 -32576 0 36 -32576 0
gene 1 7 27 -320864 0 61 -320864 0
gene 1 27 13 47019 0 62 47019 1
gene 1 1 27 -248070 0 216 -248070 1
gene 1 7 101 -43340 0 261 -43340 1
gene 1 101 27 31662 0 262 31662 1
gene 4 12 144 161704 0 371 161704 1
gene 4 144 15 400063 0 372 400063 1
gene 4 4 204 -118412 0 538 -118412 1
gene 4 204 13 -30671 0 539 -30671 1
gene 2 3 225 193657 0 594 193657 0
gene 2 225 14 226611 0 595 226611 1
gene 3 11 253 18439 0 667 18439 1
gene 3 253 13 171695 0 668 171695 1
gene 2 5 279 233188 0 737 233188 1
gene 2 279 15 -179847 0 738 -179847 1
gene 3 10 225 171696 0 945 171696 1
gene 2 3 384 48091 0 1023 48091 1
gene 2 384 225 49930 0 1024 49930 0
gene 4 5 416 -290873 0 1098 -290873 1
gene 4 416 14 -28713 0 1099 -28713 1
gene 1 9 144 -164701 0 1167 -164701 1
gene 2 384 473 202840 0 1252 202840 1
gene 2 473 225 83928 0 1253 83928 1
genomeend 15


/* Organism #26 Fitness: 270.000000 Time: 0 */
/* Position #26*/
#1 x: 23 y: 25
#2 x: 16 y: 35
#3 x: 28 y: 18
#4 x: 67 y: 80
#5 x: 20 y: 83
#6 x: 16 y: 69
genomestart 26
trait 1 0.000000 57608.000000 78110.000000 0.000000 0.000000 0.000000 0.000000 0.000000 trait 2 2.000000 0.000000 0.000000 0.000000 0.000000 0.000000 0.000000 0.000000 trait 3 3.000000 0.000000 0.000000 0.000000 0.000000 0.000000 0.000000 0.000000 trait 4 4.000000 0.000000 0.000000 0.000000 0.000000 0.000000 0.000000 0.000000 node 1 3 1 3
node 2 3 1 1
node 3 1 1 1
node 4 2 1 1
node 5 4 1 1
node 6 4 1 1
node 7 2 1 1
node 8 3 1 1
node 9 1 1 1
node 10 1 1 1
node 11 1 1 1
node 12 1 1 1
node 13 3 0 2
node 14 3 0 2
node 15 2 0 2
node 27 1 0 0
node 101 1 0 0
node 146 1 0 0
node 186 1 0 0
node 217 1 0 0
node 240 1 0 0
node 286 1 0 0
node 320 1 0 0
node 342 1 0 0
node 374 1 0 0
node 404 1 0 0
node 505 1 0 0
gene 2 1 13 252077 0 1 252077 1
gene 3 2 13 190290 0 2 190290 1
gene 2 3 13 -165793 0 3 -165793 1
gene 4 4 13 -575678 0 4 -575678 1
gene 2 5 13 -225640 0 5 -225640 1
gene 4 6 13 -59250 0 6 -59250 1
gene 1 7 13 -370520 0 7 -370520 0
gene 2 8 13 145648 0 8 145648 0
gene 3 9 13 -396386 0 9 -396386 0
gene 4 10 13 472087 0 10 472087 1
gene 3 11 13 258878 0 11 258878 1
gene 2 12 13 121401 0 12 121401 1
gene 1 1 14 -152559 0 13 -152559 1
gene 2 2 14 195253 0 14 195253 0
gene 2 3 14 -197691 0 15 -197691 1
gene 3 4 14 167818 0 16 167818 1
gene 4 5 14 252850 0 17 252850 1
gene 3 6 14 71651 0 18 71651 1
gene 3 7 14 323366 0 19 323366 1
gene 3 8 14 -112228 0 20 -112228 1
gene 4 9 14 83294 0 21 83294 1
gene 1 10 14 241218 0 22 241218 1
gene 3 11 14 -158990 0 23 -158990 0
gene 1 12 14 39994 0 24 39994 1
gene 4 1 15 -434445 0 25 -434445 1
gene 4 2 15 163344 0 26 163344 1
gene 3 3 15 -213374 0 27 -213374 0
gene 3 4 15 132472 0 28 132472 1
gene 2 5 15 -135810 0 29 -135810 1
gene 3 6 15 -205218 0 30 -205218 1
gene 2 7 15 -181738 0 31 -181738 0
gene 4 8 15 184099 0 32 184099 0
gene 3 9 15 121601 0 33 121601 0
gene 1 10 15 -93392 0 34 -93392 0
gene 3 11 15 -281383 0 35 -281383 1
gene 4 12 15 154236 0 36 154236 0
gene 1 7 27 80711 0 61 80711 0
gene 1 27 13 111251 0 62 111251 1
gene 1 1 27 213559 0 216 213559 1
gene 1 7 101 -7691 0 261 -7691 1
gene 1 101 27 285676 0 262 285676 0
gene 2 8 146 -212096 0 375 -212096 1
gene 2 146 13 -345676 0 376 -345676 1
gene 4 12 186 -202805 0 490 -202805 1
gene 4 186 15 329497 0 491 329497 1
gene 1 10 217 134131 0 572 134131 1
gene 1 217 15 12471 0 573 12471 1
gene 3 3 240 -221363 0 632 -221363 1
gene 3 240 15 -234686 0 633 -234686 1
gene 1 146 27 7692 0 694 7692 1
gene 2 7 286 277897 0 757 277897 1
gene 2 286 15 -209989 0 758 -209989 1
gene 3 9 320 1 0 854 1 1
gene 3 320 13 -229067 0 855 -229067 1
gene 4 8 342 1 0 915 1 1
gene 4 342 15 70630 0 916 70630 1
gene 2 2 374 1 0 994 1 1
gene 2 374 14 375010 0 995 375010 1
gene 1 101 404 1 0 1068 1 1
gene 1 404 27 180007 0 1069 180007 1
gene 4 240 342 36459 0 1263 36459 0
gene 4 240 505 1 0 1340 0 1
gene 4 505 342 36459 0 1341 0 1
genomeend 26


/* Organism #38 Fitness: 230.000000 Time: 0 */
/* Position #38*/
#1 x: 66 y: 26
#2 x: 26 y: 34
#3 x: 82 y: 34
#4 x: 68 y: 62
#5 x: 63 y: 72
#6 x: 80 y: 77
genomestart 38
trait 1 1.000000 0.000000 0.000000 0.000000 0.000000 0.000000 0.000000 0.000000 trait 2 2.000000 0.000000 0.000000 0.000000 0.000000 0.000000 0.000000 0.000000 trait 3 3.000000 0.000000 0.000000 0.000000 0.000000 0.000000 0.000000 0.000000 trait 4 4.000000 0.000000 0.000000 0.000000 0.000000 0.000000 0.000000 0.000000 node 1 3 1 3
node 2 3 1 1
node 3 1 1 1
node 4 2 1 1
node 5 4 1 1
node 6 3 1 1
node 7 2 1 1
node 8 3 1 1
node 9 1 1 1
node 10 1 1 1
node 11 1 1 1
node 12 1 1 1
node 13 3 0 2
node 14 3 0 2
node 15 2 0 2
node 30 1 0 0
node 156 1 0 0
node 183 1 0 0
node 207 1 0 0
node 238 1 0 0
node 310 1 0 0
node 388 1 0 0
node 420 1 0 0
node 463 1 0 0
node 512 1 0 0
gene 2 1 13 357884 0 1 357884 1
gene 2 2 13 606010 0 2 606010 1
gene 2 3 13 -457579 0 3 -457579 0
gene 1 4 13 351763 0 4 351763 1
gene 1 5 13 319683 0 5 319683 0
gene 3 6 13 161207 0 6 161207 1
gene 4 7 13 419385 0 7 419385 1
gene 1 8 13 -213576 0 8 -213576 1
gene 3 9 13 256128 0 9 256128 1
gene 4 10 13 -247236 0 10 -247236 1
gene 4 11 13 -47814 0 11 -47814 1
gene 3 12 13 108589 0 12 108589 1
gene 1 1 14 271182 0 13 271182 1
gene 2 2 14 225978 0 14 225978 0
gene 1 3 14 120651 0 15 120651 1
gene 3 4 14 231606 0 16 231606 1
gene 2 5 14 178629 0 17 178629 1
gene 4 6 14 -232723 0 18 -232723 1
gene 3 7 14 -579230 0 19 -579230 0
gene 3 8 14 252267 0 20 252267 1
gene 1 9 14 -63029 0 21 -63029 1
gene 1 10 14 110541 0 22 110541 1
gene 3 11 14 140053 0 23 140053 1
gene 4 12 14 -425906 0 24 -425906 1
gene 1 1 15 -163038 0 25 -163038 1
gene 2 2 15 107760 0 26 107760 1
gene 2 3 15 173709 0 27 173709 1
gene 3 4 15 189528 0 28 189528 1
gene 2 5 15 51000 0 29 51000 0
gene 2 6 15 332311 0 30 332311 1
gene 3 7 15 -237867 0 31 -237867 0
gene 4 8 15 399325 0 32 399325 1
gene 3 9 15 -37047 0 33 -37047 0
gene 1 10 15 -251409 0 34 -251409 1
gene 2 11 15 66121 0 35 66121 0
gene 2 12 15 305670 0 36 305670 1
gene 2 2 30 614298 0 68 614298 1
gene 2 30 14 337857 0 69 337857 1
gene 4 12 30 257141 0 128 257141 0
gene 4 13 14 -333081 0 154 -333081 1
gene 1 5 156 -116022 0 401 -116022 1
gene 1 156 13 227997 0 402 227997 1
gene 2 11 183 -46931 0 483 -46931 1
gene 2 183 15 -259046 0 484 -259046 1
gene 2 3 207 165880 0 547 165880 1
gene 2 207 13 219909 0 548 219909 1
gene 2 5 238 1 0 628 1 1
gene 2 238 15 -639853 0 629 -639853 1
gene 3 10 183 -107042 0 685 -107042 0
gene 3 9 207 -214782 0 756 -214782 1
gene 4 12 310 200308 0 820 200308 1
gene 4 310 30 29294 0 821 29294 1
gene 3 10 388 1 0 1034 0 1
gene 3 388 183 -107042 0 1035 0 1
gene 3 9 420 1 0 1106 0 1
gene 3 420 15 -37047 0 1107 0 1
gene 4 388 15 -85596 0 1206 -85596 1
gene 3 7 463 1 0 1225 0 1
gene 3 463 14 -579230 0 1226 0 1
gene 3 7 512 1 0 1357 0 1
gene 3 512 15 -237867 0 1358 0 1
genomeend 38


/* Organism #46 Fitness: 180.000000 Time: 0 */
/* Position #46*/
#1 x: 41 y: 29
#2 x: 30 y: 32
#3 x: 57 y: 40
#4 x: 51 y: 66
#5 x: 15 y: 63
#6 x: 52 y: 85
genomestart 46
trait 1 1.000000 0.000000 0.000000 0.000000 0.000000 0.000000 0.000000 0.000000 trait 2 2.000000 0.000000 0.000000 0.000000 0.000000 0.000000 0.000000 0.000000 trait 3 3.000000 0.000000 0.000000 0.000000 0.000000 0.000000 0.000000 0.000000 trait 4 4.000000 0.000000 0.000000 0.000000 0.000000 0.000000 0.000000 0.000000 node 1 3 1 3
node 2 3 1 1
node 3 1 1 1
node 4 2 1 1
node 5 4 1 1
node 6 4 1 1
node 7 2 1 1
node 8 3 1 1
node 9 1 1 1
node 10 1 1 1
node 11 1 1 1
node 12 1 1 1
node 13 3 0 2
node 14 3 0 2
node 15 2 0 2
node 27 1 0 0
node 101 1 0 0
node 146 1 0 0
node 186 1 0 0
node 217 1 0 0
node 240 1 0 0
node 260 1 0 0
node 287 1 0 0
node 311 1 0 0
node 436 1 0 0
node 483 1 0 0
node 516 1 0 0
gene 2 1 13 264958 0 1 264958 1
gene 3 2 13 531795 0 2 531795 0
gene 2 3 13 216114 0 3 216114 1
gene 4 4 13 -369965 0 4 -369965 1
gene 2 5 13 -109431 0 5 -109431 1
gene 4 6 13 171114 0 6 171114 0
gene 1 7 13 34959 0 7 34959 0
gene 2 8 13 -408481 0 8 -408481 0
gene 3 9 13 -212911 0 9 -212911 1
gene 4 10 13 291714 0 10 291714 1
gene 3 11 13 -381207 0 11 -381207 1
gene 2 12 13 364002 0 12 364002 1
gene 1 1 14 -245577 0 13 -245577 1
gene 2 2 14 -82458 0 14 -82458 1
gene 2 3 14 -117266 0 15 -117266 1
gene 3 4 14 -26663 0 16 -26663 1
gene 4 5 14 4143 0 17 4143 1
gene 3 6 14 132965 0 18 132965 1
gene 3 7 14 410980 0 19 410980 1
gene 3 8 14 182760 0 20 182760 1
gene 4 9 14 -206739 0 21 -206739 1
gene 1 10 14 -533415 0 22 -533415 1
gene 3 11 14 -94297 0 23 -94297 1
gene 1 12 14 58827 0 24 58827 1
gene 4 1 15 -600921 0 25 -600921 1
gene 4 2 15 738281 0 26 738281 0
gene 3 3 15 52554 0 27 52554 0
gene 3 4 15 -6099 0 28 -6099 1
gene 2 5 15 -155946 0 29 -155946 1
gene 3 6 15 406988 0 30 406988 1
gene 2 7 15 113118 0 31 113118 1
gene 4 8 15 -181596 0 32 -181596 1
gene 3 9 15 44793 0 33 44793 1
gene 1 10 15 288939 0 34 288939 0
gene 3 11 15 -68512 0 35 -68512 1
gene 4 12 15 -240144 0 36 -240144 0
gene 1 7 27 -309428 0 61 -309428 0
gene 1 27 13 -219176 0 62 -219176 1
gene 1 1 27 -182784 0 216 -182784 1
gene 1 7 101 72796 0 261 72796 0
gene 1 101 27 -252686 0 262 -252686 0
gene 2 8 146 176434 0 375 176434 1
gene 2 146 13 -34027 0 376 -34027 1
gene 4 12 186 198382 0 490 198382 1
gene 4 186 15 -318252 0 491 -318252 1
gene 1 10 217 107157 0 572 107157 1
gene 1 217 15 -591786 0 573 -591786 0
gene 3 3 240 376054 0 632 376054 1
gene 3 240 15 271194 0 633 271194 1
gene 4 6 260 -279867 0 687 -279867 1
gene 4 260 13 495807 0 688 495807 1
gene 1 217 287 133155 0 760 133155 1
gene 1 287 15 -122916 0 761 -122916 1
gene 1 101 311 38124 0 822 38124 1
gene 1 311 27 154879 0 823 154879 1
gene 3 2 436 1 0 1146 0 1
gene 3 436 13 531795 0 1147 0 1
gene 4 2 483 1 0 1283 0 1
gene 4 483 15 738281 0 1284 0 1
gene 1 7 516 1 0 1367 0 1
gene 1 516 101 72796 0 1368 0 1
genomeend 46


/* Organism #54 Fitness: 230.000000 Time: 0 */
/* Position #54*/
#1 x: 32 y: 32
#2 x: 44 y: 16
#3 x: 52 y: 32
#4 x: 25 y: 77
#5 x: 30 y: 85
#6 x: 51 y: 82
genomestart 54
trait 1 1.000000 0.000000 0.000000 0.000000 0.000000 0.000000 0.000000 0.000000 trait 2 2.000000 0.000000 0.000000 0.000000 0.000000 0.000000 0.000000 0.000000 trait 3 3.000000 0.000000 0.000000 0.000000 0.000000 0.000000 0.000000 0.000000 trait 4 4.000000 0.000000 0.000000 0.000000 0.000000 0.000000 0.000000 0.000000 node 1 1 1 3
node 2 2 1 1
node 3 2 1 1
node 4 4 1 1
node 5 1 1 1
node 6 3 1 1
node 7 3 1 1
node 8 3 1 1
node 9 1 1 1
node 10 3 1 1
node 11 3 1 1
node 12 3 1 1
node 13 2 0 2
node 14 2 0 2
node 15 2 0 2
node 35 1 0 0
node 40 1 0 0
node 159 1 0 0
node 179 1 0 0
node 210 1 0 0
node 333 1 0 0
node 411 1 0 0
node 463 1 0 0
gene 1 1 13 437235 0 1 437235 1
gene 1 2 13 572928 0 2 572928 1
gene 2 3 13 -37383 0 3 -37383 1
gene 2 4 13 86610 0 4 86610 1
gene 1 5 13 -300861 0 5 -300861 0
gene 3 6 13 -646929 0 6 -646929 1
gene 4 7 13 235713 0 7 235713 1
gene 1 8 13 49963 0 8 49963 1
gene 3 9 13 440280 0 9 440280 1
gene 3 10 13 17958 0 10 17958 1
gene 4 11 13 -129855 0 11 -129855 1
gene 1 12 13 64320 0 12 64320 1
gene 2 1 14 -247941 0 13 -247941 1
gene 3 2 14 410524 0 14 410524 1
gene 1 3 14 211320 0 15 211320 1
gene 4 4 14 170746 0 16 170746 0
gene 3 5 14 172002 0 17 172002 1
gene 4 6 14 -415731 0 18 -415731 0
gene 3 7 14 128817 0 19 128817 0
gene 1 8 14 161673 0 20 161673 1
gene 1 9 14 316026 0 21 316026 1
gene 1 10 14 -27 0 22 -27 1
gene 3 11 14 105276 0 23 105276 0
gene 4 12 14 342498 0 24 342498 0
gene 1 1 15 -75582 0 25 -75582 1
gene 2 2 15 -35559 0 26 -35559 1
gene 2 3 15 492630 0 27 492630 1
gene 3 4 15 -58181 0 28 -58181 1
gene 2 5 15 -800000 0 29 -800000 1
gene 2 6 15 -447645 0 30 -447645 1
gene 3 7 15 471939 0 31 471939 0
gene 2 8 15 217637 0 32 217637 1
gene 2 9 15 800000 0 33 800000 1
gene 3 10 15 -209543 0 34 -209543 1
gene 1 11 15 -44301 0 35 -44301 1
gene 1 12 15 55032 0 36 55032 1
gene 3 7 35 -390636 0 81 -390636 1
gene 3 35 15 249111 0 82 249111 1
gene 3 11 40 -187161 0 91 -187161 1
gene 3 40 14 -20787 0 92 -20787 0
gene 4 12 159 310890 0 413 310890 1
gene 4 159 14 -286620 0 414 -286620 1
gene 3 40 179 91179 0 470 91179 1
gene 3 179 14 -297162 0 471 -297162 1
gene 4 6 210 176628 0 555 176628 1
gene 4 210 14 393390 0 556 393390 1
gene 2 14 35 106741 0 651 106741 1
gene 4 4 333 206799 0 891 206799 1
gene 4 333 14 303693 0 892 303693 1
gene 1 5 411 145605 0 1086 145605 1
gene 1 411 13 -253440 0 1087 -253440 1
gene 3 7 463 198057 0 1225 198057 1
gene 3 463 14 -247980 0 1226 -247980 1
genomeend 54


/* Organism #55 Fitness: 200.000000 Time: 0 */
/* Position #55*/
#1 x: 32 y: 32
#2 x: 44 y: 16
#3 x: 52 y: 32
#4 x: 25 y: 77
#5 x: 30 y: 85
#6 x: 51 y: 82
genomestart 55
trait 1 1.000000 0.000000 0.000000 0.000000 0.000000 0.000000 0.000000 0.000000 trait 2 2.000000 77552.000000 1041.000000 0.000000 0.000000 0.000000 0.000000 11557.000000 trait 3 3.000000 0.000000 0.000000 0.000000 0.000000 0.000000 0.000000 0.000000 trait 4 4.000000 0.000000 0.000000 0.000000 0.000000 0.000000 0.000000 0.000000 node 1 3 1 3
node 2 4 1 1
node 3 3 1 1
node 4 1 1 1
node 5 2 1 1
node 6 2 1 1
node 7 1 1 1
node 8 2 1 1
node 9 1 1 1
node 10 2 1 1
node 11 1 1 1
node 12 3 1 1
node 13 3 0 2
node 14 3 0 2
node 15 4 0 2
node 34 1 0 0
node 82 1 0 0
node 98 1 0 0
node 129 1 0 0
node 248 1 0 0
node 252 1 0 0
node 397 1 0 0
node 522 1 0 0
gene 1 1 13 -308142 0 1 -308142 1
gene 4 2 13 404024 0 2 404024 1
gene 4 3 13 65875 0 3 65875 1
gene 1 4 13 609759 0 4 609759 1
gene 2 5 13 195333 0 5 195333 0
gene 2 6 13 -31896 0 6 -31896 0
gene 3 7 13 -426382 0 7 -426382 1
gene 2 8 13 -300957 0 8 -300957 0
gene 3 9 13 -385107 0 9 -385107 1
gene 3 10 13 195384 0 10 195384 1
gene 4 11 13 8336 0 11 8336 1
gene 3 12 13 113156 0 12 113156 0
gene 2 1 14 185934 0 13 185934 1
gene 1 2 14 394380 0 14 394380 1
gene 3 3 14 63780 0 15 63780 1
gene 4 4 14 52391 0 16 52391 1
gene 4 5 14 104675 0 17 104675 1
gene 2 6 14 159285 0 18 159285 0
gene 4 7 14 -176376 0 19 -176376 0
gene 1 8 14 -290617 0 20 -290617 1
gene 4 9 14 170580 0 21 170580 1
gene 2 10 14 -20526 0 22 -20526 1
gene 2 11 14 46155 0 23 46155 1
gene 2 12 14 -365599 0 24 -365599 1
gene 3 1 15 -58428 0 25 -58428 1
gene 2 2 15 -82467 0 26 -82467 1
gene 3 3 15 -192048 0 27 -192048 0
gene 3 4 15 425955 0 28 425955 1
gene 3 5 15 203643 0 29 203643 1
gene 1 6 15 -676156 0 30 -676156 1
gene 2 7 15 -586485 0 31 -586485 1
gene 1 8 15 -400377 0 32 -400377 1
gene 4 9 15 -284832 0 33 -284832 0
gene 4 10 15 126378 0 34 126378 1
gene 2 11 15 -14838 0 35 -14838 1
gene 1 12 15 -25803 0 36 -25803 1
gene 4 9 34 -297225 0 79 -297225 1
gene 4 34 15 -109251 0 80 -109251 1
gene 1 7 34 123036 0 147 123036 0
gene 1 7 82 -291471 0 205 -291471 1
gene 1 82 34 -282315 0 206 -282315 1
gene 4 12 98 593992 0 255 593992 1
gene 4 98 13 248192 0 256 248192 1
gene 1 8 129 -222954 0 328 -222954 1
gene 1 129 13 -600603 0 329 -600603 1
gene 1 4 129 199761 0 449 199761 0
gene 1 4 248 -86730 0 653 -86730 1
gene 1 248 129 163989 0 654 163989 1
gene 2 5 252 -509165 0 665 -509165 1
gene 2 252 13 355689 0 666 355689 0
gene 2 14 82 -126381 0 796 -126381 1
gene 2 252 397 1 0 1053 1 1
gene 2 397 13 379995 0 1054 379995 1
gene 4 4 252 9457 0 1117 9457 1
gene 3 3 522 1 0 1380 0 1
gene 3 522 15 -192048 0 1381 0 1
genomeend 55


/* Organism #56 Fitness: 270.000000 Time: 0 */
/* Position #56*/
#1 x: 42 y: 34
#2 x: 21 y: 34
#3 x: 69 y: 32
#4 x: 51 y: 70
#5 x: 47 y: 73
#6 x: 62 y: 75
genomestart 56
trait 1 1.000000 0.000000 0.000000 0.000000 0.000000 0.000000 0.000000 0.000000 trait 2 2.000000 77552.000000 1041.000000 0.000000 0.000000 0.000000 0.000000 11557.000000 trait 3 3.000000 0.000000 0.000000 0.000000 0.000000 0.000000 0.000000 0.000000 trait 4 4.000000 0.000000 0.000000 0.000000 0.000000 0.000000 0.000000 0.000000 node 1 3 1 3
node 2 4 1 1
node 3 3 1 1
node 4 1 1 1
node 5 2 1 1
node 6 2 1 1
node 7 1 1 1
node 8 2 1 1
node 9 1 1 1
node 10 2 1 1
node 11 1 1 1
node 12 3 1 1
node 13 3 0 2
node 14 3 0 2
node 15 4 0 2
node 34 1 0 0
node 82 1 0 0
node 98 1 0 0
node 129 1 0 0
node 248 1 0 0
node 252 1 0 0
node 397 1 0 0
gene 1 1 13 -308142 0 1 -308142 1
gene 4 2 13 404024 0 2 404024 1
gene 4 3 13 65875 0 3 65875 1
gene 1 4 13 609759 0 4 609759 1
gene 2 5 13 195333 0 5 195333 0
gene 2 6 13 -31896 0 6 -31896 0
gene 3 7 13 -426382 0 7 -426382 1
gene 2 8 13 -300957 0 8 -300957 0
gene 3 9 13 -385107 0 9 -385107 1
gene 3 10 13 195384 0 10 195384 1
gene 4 11 13 8336 0 11 8336 1
gene 3 12 13 113156 0 12 113156 0
gene 2 1 14 185934 0 13 185934 1
gene 1 2 14 394380 0 14 394380 1
gene 3 3 14 63780 0 15 63780 1
gene 4 4 14 52391 0 16 52391 1
gene 4 5 14 104675 0 17 104675 1
gene 2 6 14 159285 0 18 159285 0
gene 4 7 14 -176376 0 19 -176376 0
gene 1 8 14 -290617 0 20 -290617 1
gene 4 9 14 170580 0 21 170580 1
gene 2 10 14 -20526 0 22 -20526 1
gene 2 11 14 46155 0 23 46155 1
gene 2 12 14 -365599 0 24 -365599 1
gene 3 1 15 -58428 0 25 -58428 1
gene 2 2 15 -82467 0 26 -82467 1
gene 3 3 15 -192048 0 27 -192048 1
gene 3 4 15 425955 0 28 425955 1
gene 3 5 15 203643 0 29 203643 1
gene 1 6 15 -676156 0 30 -676156 1
gene 2 7 15 -586485 0 31 -586485 1
gene 1 8 15 -400377 0 32 -400377 1
gene 4 9 15 -284832 0 33 -284832 0
gene 4 10 15 126378 0 34 126378 1
gene 2 11 15 -14838 0 35 -14838 1
gene 1 12 15 -25803 0 36 -25803 1
gene 4 9 34 -297225 0 79 -297225 1
gene 4 34 15 -109251 0 80 -109251 1
gene 1 7 34 123036 0 147 123036 0
gene 1 7 82 -291471 0 205 -291471 1
gene 1 82 34 -282315 0 206 -282315 1
gene 4 12 98 593992 0 255 593992 1
gene 4 98 13 248192 0 256 248192 1
gene 1 8 129 -222954 0 328 -222954 1
gene 1 129 13 -600603 0 329 -600603 1
gene 1 4 129 199761 0 449 199761 0
gene 1 4 248 -86730 0 653 -86730 1
gene 1 248 129 163989 0 654 163989 1
gene 2 5 252 -509165 0 665 -509165 1
gene 2 252 13 355689 0 666 355689 0
gene 2 14 82 -126381 0 796 -126381 1
gene 2 252 397 1 0 1053 1 1
gene 2 397 13 379995 0 1054 379995 1
gene 4 4 252 9457 0 1117 9457 1
gene 3 248 397 -34316 0 1382 -34316 1
genomeend 56


/* Organism #60 Fitness: 230.000000 Time: 0 */
/* Position #60*/
#1 x: 16 y: 27
#2 x: 39 y: 37
#3 x: 63 y: 23
#4 x: 27 y: 71
#5 x: 74 y: 74
#6 x: 75 y: 72
genomestart 60
trait 1 1.000000 0.000000 0.000000 0.000000 0.000000 0.000000 0.000000 0.000000 trait 2 2.000000 0.000000 0.000000 0.000000 0.000000 0.000000 0.000000 0.000000 trait 3 3.000000 0.000000 0.000000 0.000000 0.000000 0.000000 0.000000 0.000000 trait 4 4.000000 0.000000 0.000000 0.000000 0.000000 0.000000 0.000000 0.000000 node 1 3 1 3
node 2 3 1 1
node 3 1 1 1
node 4 2 1 1
node 5 4 1 1
node 6 4 1 1
node 7 2 1 1
node 8 3 1 1
node 9 1 1 1
node 10 1 1 1
node 11 1 1 1
node 12 1 1 1
node 13 3 0 2
node 14 3 0 2
node 15 2 0 2
node 27 1 0 0
node 101 1 0 0
node 146 1 0 0
node 186 1 0 0
node 217 1 0 0
node 240 1 0 0
node 260 1 0 0
node 287 1 0 0
node 311 1 0 0
gene 2 1 13 284311 0 1 284311 1
gene 3 2 13 696857 0 2 696857 1
gene 2 3 13 75801 0 3 75801 1
gene 4 4 13 -656597 0 4 -656597 1
gene 2 5 13 -464628 0 5 -464628 1
gene 4 6 13 245898 0 6 245898 0
gene 1 7 13 -98793 0 7 -98793 0
gene 2 8 13 -457906 0 8 -457906 0
gene 3 9 13 -129688 0 9 -129688 1
gene 4 10 13 27969 0 10 27969 1
gene 3 11 13 -497649 0 11 -497649 1
gene 2 12 13 452253 0 12 452253 1
gene 1 1 14 -17820 0 13 -17820 1
gene 2 2 14 339288 0 14 339288 1
gene 2 3 14 -147764 0 15 -147764 1
gene 3 4 14 451792 0 16 451792 1
gene 4 5 14 357738 0 17 357738 1
gene 3 6 14 114884 0 18 114884 1
gene 3 7 14 426283 0 19 426283 1
gene 3 8 14 -49026 0 20 -49026 1
gene 4 9 14 156816 0 21 156816 1
gene 1 10 14 -402348 0 22 -402348 1
gene 3 11 14 32873 0 23 32873 1
gene 1 12 14 -457512 0 24 -457512 1
gene 4 1 15 -796041 0 25 -796041 1
gene 4 2 15 800000 0 26 800000 1
gene 3 3 15 48252 0 27 48252 0
gene 3 4 15 232926 0 28 232926 1
gene 2 5 15 -2250 0 29 -2250 1
gene 3 6 15 281309 0 30 281309 1
gene 2 7 15 24765 0 31 24765 1
gene 4 8 15 -423999 0 32 -423999 1
gene 3 9 15 -179850 0 33 -179850 1
gene 1 10 15 -222723 0 34 -222723 0
gene 3 11 15 -187903 0 35 -187903 1
gene 4 12 15 -235509 0 36 -235509 0
gene 1 7 27 -321923 0 61 -321923 0
gene 1 27 13 -266252 0 62 -266252 1
gene 1 1 27 -380652 0 216 -380652 1
gene 1 7 101 186523 0 261 186523 1
gene 1 101 27 -144137 0 262 -144137 0
gene 2 8 146 279667 0 375 279667 1
gene 2 146 13 -25339 0 376 -25339 1
gene 4 12 186 -232652 0 490 -232652 1
gene 4 186 15 82008 0 491 82008 1
gene 1 10 217 377412 0 572 377412 1
gene 1 217 15 -526953 0 573 -526953 0
gene 3 3 240 -160725 0 632 -160725 1
gene 3 240 15 133527 0 633 133527 1
gene 4 6 260 -486957 0 687 -486957 1
gene 4 260 13 495807 0 688 495807 1
gene 1 217 287 1053 0 760 1053 1
gene 1 287 15 227109 0 761 227109 1
gene 1 101 311 193416 0 822 193416 1
gene 1 311 27 93205 0 823 93205 1
gene 1 8 260 -19277 0 1383 -19277 1
genomeend 60


/* Organism #66 Fitness: 420.000000 Time: 0 */
/* Position #66*/
#1 x: 52 y: 28
#2 x: 84 y: 36
#3 x: 43 y: 24
#4 x: 80 y: 71
#5 x: 59 y: 81
#6 x: 50 y: 79
genomestart 66
trait 1 1.000000 0.000000 0.000000 0.000000 0.000000 0.000000 0.000000 0.000000 trait 2 2.000000 77552.000000 1041.000000 0.000000 0.000000 0.000000 0.000000 11557.000000 trait 3 3.000000 0.000000 0.000000 0.000000 0.000000 0.000000 0.000000 0.000000 trait 4 4.000000 0.000000 0.000000 0.000000 0.000000 0.000000 0.000000 0.000000 node 1 3 1 3
node 2 4 1 1
node 3 3 1 1
node 4 1 1 1
node 5 2 1 1
node 6 2 1 1
node 7 1 1 1
node 8 2 1 1
node 9 1 1 1
node 10 2 1 1
node 11 1 1 1
node 12 3 1 1
node 13 3 0 2
node 14 3 0 2
node 15 4 0 2
node 34 1 0 0
node 82 1 0 0
node 98 1 0 0
node 129 1 0 0
node 248 1 0 0
node 252 1 0 0
node 397 1 0 0
node 507 1 0 0
gene 1 1 13 -61938 0 1 -61938 1
gene 4 2 13 585608 0 2 585608 1
gene 4 3 13 -76856 0 3 -76856 1
gene 1 4 13 800000 0 4 800000 1
gene 2 5 13 428958 0 5 428958 0
gene 2 6 13 225435 0 6 225435 0
gene 3 7 13 -175720 0 7 -175720 1
gene 2 8 13 -437898 0 8 -437898 0
gene 3 9 13 -276960 0 9 -276960 1
gene 3 10 13 -134979 0 10 -134979 1
gene 4 11 13 263375 0 11 263375 1
gene 3 12 13 406922 0 12 406922 0
gene 2 1 14 176835 0 13 176835 1
gene 1 2 14 466347 0 14 466347 1
gene 3 3 14 36642 0 15 36642 1
gene 4 4 14 30299 0 16 30299 1
gene 4 5 14 -153955 0 17 -153955 1
gene 2 6 14 62343 0 18 62343 0
gene 4 7 14 -180825 0 19 -180825 0
gene 1 8 14 -290617 0 20 -290617 1
gene 4 9 14 208326 0 21 208326 1
gene 2 10 14 -169713 0 22 -169713 1
gene 2 11 14 -159774 0 23 -159774 1
gene 2 12 14 -365599 0 24 -365599 1
gene 3 1 15 -60765 0 25 -60765 1
gene 2 2 15 -161421 0 26 -161421 1
gene 3 3 15 14634 0 27 14634 1
gene 3 4 15 260565 0 28 260565 1
gene 3 5 15 -226677 0 29 -226677 0
gene 1 6 15 -653311 0 30 -653311 1
gene 2 7 15 -581097 0 31 -581097 1
gene 1 8 15 -30642 0 32 -30642 1
gene 4 9 15 -533028 0 33 -533028 0
gene 4 10 15 382491 0 34 382491 1
gene 2 11 15 -104763 0 35 -104763 1
gene 1 12 15 -25803 0 36 -25803 1
gene 4 9 34 -266517 0 79 -266517 1
gene 4 34 15 -318957 0 80 -318957 1
gene 1 7 34 193302 0 147 193302 0
gene 1 7 82 -188937 0 205 -188937 1
gene 1 82 34 -356490 0 206 -356490 1
gene 4 12 98 30366 0 255 30366 1
gene 4 98 13 85890 0 256 85890 1
gene 1 8 129 -222954 0 328 -222954 1
gene 1 129 13 -548121 0 329 -548121 1
gene 1 4 129 332085 0 449 332085 0
gene 1 4 248 42312 0 653 42312 1
gene 1 248 129 198924 0 654 198924 1
gene 2 5 252 -244475 0 665 -244475 1
gene 2 252 13 -285333 0 666 -285333 0
gene 2 14 82 -189726 0 796 -189726 1
gene 2 252 397 138922 0 1053 138922 1
gene 2 397 13 313131 0 1054 313131 1
gene 4 4 252 -15903 0 1117 -15903 1
gene 3 5 507 1 0 1345 0 1
gene 3 507 15 -226677 0 1346 0 1
genomeend 66


/* Organism #72 Fitness: 240.000000 Time: 0 */
/* Position #72*/
#1 x: 69 y: 23
#2 x: 79 y: 37
#3 x: 15 y: 15
#4 x: 51 y: 84
#5 x: 69 y: 64
#6 x: 78 y: 77
genomestart 72
trait 1 1.000000 0.000000 0.000000 0.000000 0.000000 0.000000 0.000000 0.000000 trait 2 2.000000 0.000000 0.000000 0.000000 0.000000 0.000000 0.000000 0.000000 trait 3 3.000000 0.000000 0.000000 0.000000 0.000000 0.000000 0.000000 0.000000 trait 4 4.000000 0.000000 0.000000 0.000000 0.000000 0.000000 0.000000 0.000000 node 1 4 1 3
node 2 3 1 1
node 3 1 1 1
node 4 2 1 1
node 5 4 1 1
node 6 4 1 1
node 7 2 1 1
node 8 3 1 1
node 9 1 1 1
node 10 1 1 1
node 11 1 1 1
node 12 1 1 1
node 13 3 0 2
node 14 3 0 2
node 15 2 0 2
node 27 1 0 0
node 101 1 0 0
node 146 1 0 0
node 186 1 0 0
node 217 1 0 0
node 240 1 0 0
node 260 1 0 0
node 287 1 0 0
node 311 1 0 0
node 436 1 0 0
node 483 1 0 0
gene 2 1 13 28921 0 1 28921 1
gene 3 2 13 359076 0 2 359076 0
gene 2 3 13 174396 0 3 174396 1
gene 4 4 13 -278942 0 4 -278942 1
gene 2 5 13 -380889 0 5 -380889 1
gene 4 6 13 12645 0 6 12645 0
gene 1 7 13 49857 0 7 49857 0
gene 2 8 13 -236791 0 8 -236791 0
gene 3 9 13 -333145 0 9 -333145 1
gene 4 10 13 139059 0 10 139059 1
gene 3 11 13 -542910 0 11 -542910 1
gene 2 12 13 382422 0 12 382422 1
gene 1 1 14 -300885 0 13 -300885 1
gene 2 2 14 66099 0 14 66099 1
gene 2 3 14 -112595 0 15 -112595 1
gene 3 4 14 177604 0 16 177604 1
gene 4 5 14 -249543 0 17 -249543 1
gene 3 6 14 -22441 0 18 -22441 1
gene 3 7 14 223984 0 19 223984 1
gene 3 8 14 58461 0 20 58461 1
gene 4 9 14 -246720 0 21 -246720 1
gene 1 10 14 -515925 0 22 -515925 1
gene 3 11 14 -163987 0 23 -163987 1
gene 1 12 14 331536 0 24 331536 1
gene 4 1 15 -800000 0 25 -800000 1
gene 4 2 15 597905 0 26 597905 0
gene 3 3 15 -161637 0 27 -161637 0
gene 3 4 15 272070 0 28 272070 1
gene 2 5 15 38616 0 29 38616 1
gene 3 6 15 188765 0 30 188765 1
gene 2 7 15 -134334 0 31 -134334 1
gene 4 8 15 -387381 0 32 -387381 1
gene 3 9 15 222939 0 33 222939 1
gene 1 10 15 137265 0 34 137265 0
gene 3 11 15 -106723 0 35 -106723 1
gene 4 12 15 -21879 0 36 -21879 0
gene 1 7 27 -358313 0 61 -358313 0
gene 1 27 13 50323 0 62 50323 1
gene 1 1 27 -305457 0 216 -305457 1
gene 1 7 101 230602 0 261 230602 1
gene 1 101 27 -385412 0 262 -385412 0
gene 2 8 146 59680 0 375 59680 1
gene 2 146 13 -106342 0 376 -106342 1
gene 4 12 186 149107 0 490 149107 1
gene 4 186 15 -396426 0 491 -396426 1
gene 1 10 217 -6231 0 572 -6231 1
gene 1 217 15 -563583 0 573 -563583 0
gene 3 3 240 82303 0 632 82303 1
gene 3 240 15 -24066 0 633 -24066 1
gene 4 6 260 270759 0 687 270759 1
gene 4 260 13 215727 0 688 215727 1
gene 1 217 287 -273123 0 760 -273123 1
gene 1 287 15 -275307 0 761 -275307 1
gene 1 101 311 -210759 0 822 -210759 1
gene 1 311 27 154879 0 823 154879 1
gene 3 2 436 1 0 1146 1 1
gene 3 436 13 531795 0 1147 531795 1
gene 4 2 483 1 0 1283 1 1
gene 4 483 15 173616 0 1284 173616 1
genomeend 72


