
/* Species #92 : (Size 7) (AF 257.143) (Age 43)  */


/* Organism #0 Fitness: 660 Error: 0 */

/* Position #0*/
#1 x: 49 y: 68
#2 x: 57 y: 59
#3 x: 46 y: 76
#4 x: 51 y: 73
#5 x: 48 y: 46
#6 x: 46 y: 50
genomestart 0
trait 1 43982 38565 0 100000 0 0 0 99244 
trait 2 2 0 0 0 0 0 0 0 
trait 3 3 0 0 0 0 0 0 0 
trait 4 4 0 0 0 0 0 0 0 
node 1 1 1 3
node 2 4 1 1
node 3 3 1 1
node 4 3 1 1
node 5 3 1 1
node 6 1 1 1
node 7 2 1 1
node 8 4 1 1
node 9 4 1 1
node 10 2 1 1
node 11 4 1 1
node 12 3 1 1
node 13 4 1 1
node 14 3 1 1
node 15 3 1 1
node 16 1 1 1
node 17 3 1 1
node 18 2 0 2
node 19 1 0 2
node 20 1 0 2
node 34 1 0 0
node 71 1 0 0
node 146 1 0 0
node 203 1 0 0
node 236 1 0 0
node 257 1 0 0
node 316 1 0 0
node 378 1 0 0
node 444 1 0 0
node 513 1 0 0
node 554 1 0 0
node 666 1 0 0
node 799 1 0 0
node 899 1 0 0
node 923 1 0 0
node 1006 1 0 0
node 1046 1 0 0
node 1094 1 0 0
node 1168 1 0 0
node 1277 1 0 0
node 1386 3 0 0
node 1423 1 0 0
node 1462 1 0 0
node 1499 1 0 0
node 1702 1 0 0
node 1735 1 0 0
node 1779 1 0 0
node 1886 1 0 0
node 1983 1 0 0
node 2019 1 0 0
node 2088 1 0 0
node 2124 1 0 0
node 2166 1 0 0
node 2235 1 0 0
node 2293 1 0 0
node 2333 1 0 0
node 2366 1 0 0
node 2396 1 0 0
gene 4 1 18 1.62738 0 1 1.62738 1
gene 2 2 18 6.73513 0 2 6.73513 0
gene 2 3 18 -3.9821 0 3 -3.9821 1
gene 3 4 18 0.714396 0 4 0.714396 0
gene 3 5 18 0.482062 0 5 0.482062 1
gene 3 6 18 -8 0 6 -8 0
gene 4 7 18 2.68254 0 7 2.68254 0
gene 3 8 8 -3.47744 0 8 -3.47744 1
gene 1 9 18 -0.207855 0 9 -0.207855 0
gene 2 10 18 -0.43794 0 10 -0.43794 1
gene 4 11 18 -2.68819 0 11 -2.68819 0
gene 1 12 18 3.41438 0 12 3.41438 1
gene 1 13 18 0.202783 0 13 0.202783 1
gene 4 14 18 5.21379 0 14 5.21379 0
gene 1 15 18 4.68049 0 15 4.68049 1
gene 2 16 18 0.163732 0 16 0.163732 1
gene 3 17 18 4.13215 0 17 4.13215 0
gene 1 1 19 2.91585 0 18 2.91585 1
gene 3 2 19 4.68232 0 19 4.68232 1
gene 1 3 19 -2.35108 0 20 -2.35108 0
gene 1 4 19 -1.17308 0 21 -1.17308 1
gene 3 5 19 1.69815 0 22 1.69815 0
gene 2 6 19 1.56231 0 23 1.56231 1
gene 1 7 19 -4.46085 0 24 -4.46085 0
gene 3 8 19 2.40546 0 25 2.40546 1
gene 2 9 19 1.08103 0 26 1.08103 1
gene 4 10 19 -0.588271 0 27 -0.588271 0
gene 1 11 19 0.0881955 0 28 0.0881955 0
gene 2 12 19 -0.626306 0 29 -0.626306 0
gene 3 13 19 -4.67524 0 30 -4.67524 1
gene 3 14 19 -2.31645 0 31 -2.31645 0
gene 2 15 19 4.26116 0 32 4.26116 1
gene 1 16 19 4.32493 0 33 4.32493 1
gene 3 17 19 -5.03738 0 34 -5.03738 0
gene 3 1 20 -1.79931 0 35 -1.79931 1
gene 1 2 20 0.269057 0 36 0.269057 1
gene 2 3 20 -0.981624 0 37 -0.981624 0
gene 2 4 20 -2.54177 0 38 -2.54177 1
gene 4 5 20 1.36325 0 39 1.36325 1
gene 1 6 20 -0.0175732 0 40 -0.0175732 0
gene 1 7 20 -0.142699 0 41 -0.142699 1
gene 3 8 20 -1.13313 0 42 -1.13313 1
gene 4 9 20 7.26087 0 43 7.26087 1
gene 3 10 20 2.39726 0 44 2.39726 1
gene 3 11 20 -1.72814 0 45 -1.72814 0
gene 2 12 20 0.254232 0 46 0.254232 0
gene 4 13 20 -5.6002 0 47 -5.6002 1
gene 4 14 20 -4.45942 0 48 -4.45942 0
gene 3 15 20 2.85142 0 49 2.85142 0
gene 1 16 20 3.53419 0 50 3.53419 1
gene 2 17 20 6.58189 0 51 6.58189 1
gene 1 7 34 -2.208 0 85 -2.208 1
gene 1 34 19 -0.86374 0 86 -0.86374 0
gene 2 8 71 4.00737 0 175 4.00737 1
gene 1 15 71 2.73828 0 240 2.73828 1
gene 2 6 146 -0.948793 0 377 -0.948793 0
gene 2 146 19 -0.597127 0 378 -0.597127 1
gene 2 2 203 -2.43328 0 529 -2.43328 0
gene 2 203 18 1.76919 0 530 1.76919 1
gene 1 2 236 1.92561 0 613 1.92561 1
gene 1 236 19 3.6463 0 614 3.6463 1
gene 4 11 257 1.09225 0 677 1.09225 0
gene 4 257 20 -6.02301 0 678 -6.02301 1
gene 4 2 146 2.99194 0 750 2.99194 0
gene 2 16 316 -2.78901 0 832 -2.78901 0
gene 2 316 18 0.831184 0 833 0.831184 1
gene 1 14 146 -4.44372 0 926 -4.44372 1
gene 3 4 378 1.39888 0 998 1.39888 0
gene 3 378 18 1.98173 0 999 1.98173 0
gene 1 13 444 0.797358 0 1170 0.797358 1
gene 1 444 20 3.7998 0 1171 3.7998 1
gene 2 3 513 -1.53795 0 1338 -1.53795 1
gene 2 513 20 -7.54 0 1339 -7.54 1
gene 4 17 554 2.36645 0 1444 2.36645 0
gene 4 554 18 5.40323 0 1445 5.40323 1
gene 1 3 666 -2.63977 0 1729 -2.63977 1
gene 1 666 19 -2.07172 0 1730 -2.07172 1
gene 3 71 146 5.14582 0 1807 5.14582 1
gene 3 378 799 -2.04837 0 2054 -2.04837 1
gene 3 799 18 3.32758 0 2055 3.32758 1
gene 1 15 899 8 0 2304 8 0
gene 1 899 20 -1.45055 0 2305 -1.45055 1
gene 4 17 923 5.36283 0 2363 5.36283 1
gene 4 923 554 6.56711 0 2364 6.56711 1
gene 2 513 554 1.22136 0 2459 1.22136 1
gene 4 7 1006 -0.433651 0 2556 -0.433651 1
gene 4 1006 18 7.60991 0 2557 7.60991 1
gene 4 14 1046 -1.77822 0 2661 -1.77822 1
gene 4 1046 18 0.897823 0 2662 0.897823 0
gene 4 1046 1094 2.77802 0 2785 2.77802 0
gene 4 1094 18 -0.945105 0 2786 -0.945105 1
gene 1 257 257 -7.04951 1 2874 -7.04951 1
gene 4 14 1168 1.42372 0 2970 1.42372 1
gene 4 1168 20 0.991777 0 2971 0.991777 1
gene 4 378 378 8 1 3063 8 1
gene 3 5 444 -1.0743 0 3165 -1.0743 1
gene 4 2 1277 0.588624 0 3244 0.588624 1
gene 4 1277 146 1.51578 0 3245 1.51578 1
gene 3 236 34 -7.33398 0 3426 -7.33398 1
gene 3 5 1386 -0.403256 0 3521 -0.403256 0
gene 3 1386 19 1.56315 0 3522 1.56315 1
gene 3 5 1423 2.61809 0 3611 2.61809 0
gene 3 1423 1386 -3.65256 0 3612 -3.65256 1
gene 4 11 1462 -2.93019 0 3706 -2.93019 1
gene 4 1462 257 -1.90911 0 3707 -1.90911 1
gene 2 6 1499 0.424723 0 3793 0.424723 1
gene 2 1499 146 -1.9964 0 3794 -1.9964 1
gene 4 34 34 -8 1 3887 -8 0
gene 2 17 799 0.69252 0 3972 0.69252 1
gene 1 13 899 -0.290014 0 4047 -0.290014 1
gene 4 1423 899 -2.46148 0 4145 -2.46148 1
gene 1 799 799 4.03159 1 4232 4.03159 1
gene 3 4 1702 -0.842458 0 4315 -0.842458 1
gene 3 1702 378 -2.86422 0 4316 -2.86422 1
gene 4 34 1735 -1.1541 1 4399 -1.1541 1
gene 4 1735 34 -0.6166 0 4400 -0.6166 1
gene 1 34 1779 3.17982 0 4507 3.17982 1
gene 1 1779 19 -2.81327 0 4508 -2.81327 1
gene 1 1386 799 1.17371 0 4597 1.17371 1
gene 3 444 1168 5.52457 0 4695 5.52457 1
gene 4 10 1886 1.40648 0 4775 1.40648 1
gene 4 1886 19 -2.02667 0 4776 -2.02667 1
gene 1 7 1983 5.08697 0 5028 5.08697 1
gene 1 1983 19 3.29211 0 5029 3.29211 1
gene 3 14 2019 -4.02561 0 5120 -4.02561 1
gene 3 2019 19 -1.56433 0 5121 -1.56433 1
gene 1 6 2088 -1.07538 0 5302 -1.07538 1
gene 1 2088 20 2.02444 0 5303 2.02444 1
gene 1 15 2124 1.05935 0 5395 1.05935 1
gene 1 2124 899 8 0 5396 8 1
gene 1 9 2166 3.32591 0 5499 3.32591 1
gene 1 2166 18 -1.34403 0 5500 -1.34403 1
gene 3 554 1983 -8 0 5589 -8 1
gene 4 1046 2235 -0.143715 0 5668 -0.143715 1
gene 4 2235 1094 -2.86434 0 5669 -2.86434 1
gene 2 1168 1168 8 1 5751 8 1
gene 4 11 2293 -1.69103 0 5825 -1.69103 1
gene 4 2293 18 -2.29592 0 5826 -2.29592 1
gene 2 16 2333 0.735903 0 5923 0.735903 1
gene 2 2333 316 -1.8346 0 5924 -1.8346 1
gene 3 5 2366 2.35923 0 6003 2.35923 1
gene 3 2366 1423 -0.146759 0 6004 -0.146759 1
gene 2 2 2396 1.08093 0 6088 1.08093 1
gene 2 2396 203 -4.68091 0 6089 -4.68091 1
gene 2 2235 2235 81916 1 6277 81916 1
genomeend 0

/* Organism #1 Fitness: 140 Error: 0 */

/* Position #1*/
#1 x: 49 y: 68
#2 x: 57 y: 59
#3 x: 46 y: 76
#4 x: 51 y: 73
#5 x: 48 y: 46
#6 x: 46 y: 50
genomestart 1
trait 1 43982 38565 0 100000 0 0 0 99244 
trait 2 2 0 0 0 0 0 0 0 
trait 3 3 0 0 0 0 0 0 0 
trait 4 4 0 0 0 0 0 0 0 
node 1 1 1 3
node 2 4 1 1
node 3 3 1 1
node 4 3 1 1
node 5 3 1 1
node 6 1 1 1
node 7 2 1 1
node 8 4 1 1
node 9 4 1 1
node 10 2 1 1
node 11 4 1 1
node 12 3 1 1
node 13 4 1 1
node 14 3 1 1
node 15 3 1 1
node 16 1 1 1
node 17 3 1 1
node 18 2 0 2
node 19 1 0 2
node 20 1 0 2
node 34 1 0 0
node 71 1 0 0
node 146 1 0 0
node 203 1 0 0
node 236 1 0 0
node 257 1 0 0
node 316 1 0 0
node 378 1 0 0
node 444 1 0 0
node 513 1 0 0
node 554 1 0 0
node 666 1 0 0
node 799 1 0 0
node 899 1 0 0
node 923 1 0 0
node 1006 1 0 0
node 1046 1 0 0
node 1094 1 0 0
node 1168 1 0 0
node 1277 1 0 0
node 1386 3 0 0
node 1423 1 0 0
node 1462 1 0 0
node 1499 1 0 0
node 1702 1 0 0
node 1735 1 0 0
node 1779 1 0 0
node 1886 1 0 0
node 1983 1 0 0
node 2019 1 0 0
node 2088 1 0 0
node 2124 1 0 0
node 2166 1 0 0
node 2235 1 0 0
node 2293 1 0 0
node 2333 1 0 0
node 2366 1 0 0
node 2396 1 0 0
node 2500 1 0 0
gene 4 1 18 1.62738 0 1 1.62738 1
gene 2 2 18 6.73513 0 2 6.73513 0
gene 2 3 18 -3.9821 0 3 -3.9821 1
gene 3 4 18 0.714396 0 4 0.714396 0
gene 3 5 18 0.482062 0 5 0.482062 1
gene 3 6 18 -8 0 6 -8 0
gene 4 7 18 2.68254 0 7 2.68254 0
gene 3 8 8 -3.47744 0 8 -3.47744 1
gene 1 9 18 -0.207855 0 9 -0.207855 0
gene 2 10 18 -0.43794 0 10 -0.43794 1
gene 4 11 18 -2.68819 0 11 -2.68819 0
gene 1 12 18 3.41438 0 12 3.41438 1
gene 1 13 18 0.202783 0 13 0.202783 1
gene 4 14 18 5.21379 0 14 5.21379 0
gene 1 15 18 4.68049 0 15 4.68049 1
gene 2 16 18 0.163732 0 16 0.163732 1
gene 3 17 18 4.13215 0 17 4.13215 0
gene 1 1 19 2.91585 0 18 2.91585 1
gene 3 2 19 4.68232 0 19 4.68232 1
gene 1 3 19 -2.35108 0 20 -2.35108 0
gene 1 4 19 -1.17308 0 21 -1.17308 0
gene 3 5 19 1.69815 0 22 1.69815 0
gene 2 6 19 1.56231 0 23 1.56231 1
gene 1 7 19 -4.46085 0 24 -4.46085 0
gene 3 8 19 2.40546 0 25 2.40546 1
gene 2 9 19 1.08103 0 26 1.08103 1
gene 4 10 19 -0.588271 0 27 -0.588271 0
gene 1 11 19 0.0881955 0 28 0.0881955 0
gene 2 12 19 -0.626306 0 29 -0.626306 0
gene 3 13 19 -4.67524 0 30 -4.67524 1
gene 3 14 19 -2.31645 0 31 -2.31645 0
gene 2 15 19 4.26116 0 32 4.26116 1
gene 1 16 19 4.32493 0 33 4.32493 1
gene 3 17 19 -5.03738 0 34 -5.03738 0
gene 3 1 20 -1.79931 0 35 -1.79931 1
gene 1 2 20 0.269057 0 36 0.269057 1
gene 2 3 20 -0.981624 0 37 -0.981624 0
gene 2 4 20 -2.54177 0 38 -2.54177 1
gene 4 5 20 1.36325 0 39 1.36325 1
gene 1 6 20 -0.0175732 0 40 -0.0175732 0
gene 1 7 20 -0.142699 0 41 -0.142699 1
gene 3 8 20 -1.13313 0 42 -1.13313 1
gene 4 9 20 7.26087 0 43 7.26087 1
gene 3 10 20 2.39726 0 44 2.39726 1
gene 3 11 20 -1.72814 0 45 -1.72814 0
gene 2 12 20 0.254232 0 46 0.254232 0
gene 4 13 20 -5.6002 0 47 -5.6002 1
gene 4 14 20 -4.45942 0 48 -4.45942 0
gene 3 15 20 2.85142 0 49 2.85142 0
gene 1 16 20 3.53419 0 50 3.53419 1
gene 2 17 20 6.58189 0 51 6.58189 1
gene 1 7 34 -2.208 0 85 -2.208 1
gene 1 34 19 -0.86374 0 86 -0.86374 0
gene 2 8 71 4.00737 0 175 4.00737 1
gene 1 15 71 2.73828 0 240 2.73828 1
gene 2 6 146 -0.948793 0 377 -0.948793 0
gene 2 146 19 -0.597127 0 378 -0.597127 1
gene 2 2 203 -2.43328 0 529 -2.43328 0
gene 2 203 18 1.76919 0 530 1.76919 1
gene 1 2 236 1.92561 0 613 1.92561 1
gene 1 236 19 3.6463 0 614 3.6463 1
gene 4 11 257 1.09225 0 677 1.09225 0
gene 4 257 20 -6.02301 0 678 -6.02301 1
gene 4 2 146 2.99194 0 750 2.99194 0
gene 2 16 316 -2.78901 0 832 -2.78901 0
gene 2 316 18 0.831184 0 833 0.831184 1
gene 1 14 146 -4.44372 0 926 -4.44372 1
gene 3 4 378 1.39888 0 998 1.39888 0
gene 3 378 18 1.98173 0 999 1.98173 0
gene 1 13 444 0.797358 0 1170 0.797358 1
gene 1 444 20 3.7998 0 1171 3.7998 1
gene 2 3 513 -1.53795 0 1338 -1.53795 1
gene 2 513 20 -7.54 0 1339 -7.54 1
gene 4 17 554 2.36645 0 1444 2.36645 0
gene 4 554 18 5.40323 0 1445 5.40323 1
gene 1 3 666 -2.63977 0 1729 -2.63977 1
gene 1 666 19 -2.07172 0 1730 -2.07172 1
gene 3 71 146 5.14582 0 1807 5.14582 1
gene 3 378 799 -2.04837 0 2054 -2.04837 1
gene 3 799 18 3.32758 0 2055 3.32758 1
gene 1 15 899 8 0 2304 8 0
gene 1 899 20 -1.45055 0 2305 -1.45055 1
gene 4 17 923 5.36283 0 2363 5.36283 1
gene 4 923 554 6.56711 0 2364 6.56711 1
gene 2 513 554 1.22136 0 2459 1.22136 1
gene 4 7 1006 -0.433651 0 2556 -0.433651 1
gene 4 1006 18 7.60991 0 2557 7.60991 1
gene 4 14 1046 -1.77822 0 2661 -1.77822 1
gene 4 1046 18 0.897823 0 2662 0.897823 0
gene 4 1046 1094 2.77802 0 2785 2.77802 0
gene 4 1094 18 -0.945105 0 2786 -0.945105 1
gene 1 257 257 -7.04951 1 2874 -7.04951 1
gene 4 14 1168 1.42372 0 2970 1.42372 1
gene 4 1168 20 0.991777 0 2971 0.991777 1
gene 4 378 378 8 1 3063 8 1
gene 3 5 444 -1.0743 0 3165 -1.0743 1
gene 4 2 1277 0.588624 0 3244 0.588624 1
gene 4 1277 146 1.51578 0 3245 1.51578 1
gene 3 236 34 -7.33398 0 3426 -7.33398 1
gene 3 5 1386 -0.403256 0 3521 -0.403256 0
gene 3 1386 19 1.56315 0 3522 1.56315 1
gene 3 5 1423 2.61809 0 3611 2.61809 0
gene 3 1423 1386 -3.65256 0 3612 -3.65256 1
gene 4 11 1462 -2.93019 0 3706 -2.93019 1
gene 4 1462 257 -1.90911 0 3707 -1.90911 1
gene 2 6 1499 0.424723 0 3793 0.424723 1
gene 2 1499 146 -1.9964 0 3794 -1.9964 1
gene 4 34 34 -8 1 3887 -8 0
gene 2 17 799 0.69252 0 3972 0.69252 1
gene 1 13 899 -0.290014 0 4047 -0.290014 1
gene 4 1423 899 -2.46148 0 4145 -2.46148 1
gene 1 799 799 4.03159 1 4232 4.03159 1
gene 3 4 1702 -0.842458 0 4315 -0.842458 1
gene 3 1702 378 -2.86422 0 4316 -2.86422 1
gene 4 34 1735 -1.1541 1 4399 -1.1541 1
gene 4 1735 34 -0.6166 0 4400 -0.6166 1
gene 1 34 1779 3.17982 0 4507 3.17982 1
gene 1 1779 19 -2.81327 0 4508 -2.81327 1
gene 1 1386 799 1.17371 0 4597 1.17371 1
gene 3 444 1168 5.52457 0 4695 5.52457 1
gene 4 10 1886 1.40648 0 4775 1.40648 1
gene 4 1886 19 -2.02667 0 4776 -2.02667 1
gene 1 7 1983 5.08697 0 5028 5.08697 1
gene 1 1983 19 3.29211 0 5029 3.29211 1
gene 3 14 2019 -4.02561 0 5120 -4.02561 1
gene 3 2019 19 -1.56433 0 5121 -1.56433 1
gene 1 6 2088 -1.07538 0 5302 -1.07538 1
gene 1 2088 20 2.02444 0 5303 2.02444 1
gene 1 15 2124 1.05935 0 5395 1.05935 1
gene 1 2124 899 8 0 5396 8 1
gene 1 9 2166 3.32591 0 5499 3.32591 1
gene 1 2166 18 -1.34403 0 5500 -1.34403 1
gene 3 554 1983 -8 0 5589 -8 1
gene 4 1046 2235 -0.143715 0 5668 -0.143715 1
gene 4 2235 1094 -2.86434 0 5669 -2.86434 1
gene 2 1168 1168 8 1 5751 8 1
gene 4 11 2293 -1.69103 0 5825 -1.69103 1
gene 4 2293 18 -2.29592 0 5826 -2.29592 1
gene 2 16 2333 0.735903 0 5923 0.735903 1
gene 2 2333 316 -1.8346 0 5924 -1.8346 1
gene 3 5 2366 2.35923 0 6003 2.35923 1
gene 3 2366 1423 -0.146759 0 6004 -0.146759 1
gene 2 2 2396 1.08093 0 6088 1.08093 1
gene 2 2396 203 -4.68091 0 6089 -4.68091 1
gene 2 2235 2235 81916 1 6277 81916 1
gene 1 4 2500 1 0 6360 0 1
gene 1 2500 19 -1.17308 0 6361 0 1
genomeend 1

/* Organism #2 Fitness: 320 Error: 0 */

/* Position #2*/
#1 x: 84 y: 17
#2 x: 52 y: 38
#3 x: 34 y: 24
#4 x: 18 y: 63
#5 x: 83 y: 69
#6 x: 27 y: 20
genomestart 2
trait 1 43982 38565 0 100000 0 0 0 99244 
trait 2 2 0 0 0 0 0 0 0 
trait 3 3 0 0 0 0 0 0 0 
trait 4 4 0 0 0 0 0 0 0 
node 1 1 1 3
node 2 4 1 1
node 3 3 1 1
node 4 3 1 1
node 5 3 1 1
node 6 1 1 1
node 7 2 1 1
node 8 4 1 1
node 9 4 1 1
node 10 2 1 1
node 11 4 1 1
node 12 3 1 1
node 13 4 1 1
node 14 3 1 1
node 15 3 1 1
node 16 1 1 1
node 17 3 1 1
node 18 2 0 2
node 19 1 0 2
node 20 1 0 2
node 34 1 0 0
node 71 1 0 0
node 146 1 0 0
node 203 1 0 0
node 236 1 0 0
node 257 1 0 0
node 316 1 0 0
node 378 1 0 0
node 444 1 0 0
node 513 1 0 0
node 554 1 0 0
node 666 1 0 0
node 799 1 0 0
node 899 1 0 0
node 923 1 0 0
node 1006 1 0 0
node 1046 1 0 0
node 1094 1 0 0
node 1168 1 0 0
node 1277 1 0 0
node 1386 3 0 0
node 1423 1 0 0
node 1462 1 0 0
node 1499 1 0 0
node 1702 1 0 0
node 1735 1 0 0
node 1779 1 0 0
node 1886 1 0 0
node 1983 1 0 0
node 2019 1 0 0
node 2088 1 0 0
node 2124 1 0 0
node 2166 1 0 0
node 2235 1 0 0
node 2293 1 0 0
node 2333 1 0 0
node 2366 1 0 0
node 2396 1 0 0
gene 4 1 18 1.62738 0 1 1.62738 1
gene 2 2 18 6.73513 0 2 6.73513 0
gene 2 3 18 -3.9821 0 3 -3.9821 1
gene 3 4 18 0.714396 0 4 0.714396 0
gene 3 5 18 0.482062 0 5 0.482062 1
gene 3 6 18 -8 0 6 -8 0
gene 4 7 18 2.68254 0 7 2.68254 0
gene 3 8 8 -3.47744 0 8 -3.47744 1
gene 1 9 18 -0.207855 0 9 -0.207855 0
gene 2 10 18 -0.43794 0 10 -0.43794 1
gene 4 11 18 -2.68819 0 11 -2.68819 0
gene 1 12 18 3.41438 0 12 3.41438 1
gene 1 13 18 0.202783 0 13 0.202783 1
gene 4 14 18 5.21379 0 14 5.21379 0
gene 1 15 18 4.68049 0 15 4.68049 1
gene 2 16 18 0.163732 0 16 0.163732 1
gene 3 17 18 4.13215 0 17 4.13215 0
gene 1 1 19 2.91585 0 18 2.91585 1
gene 3 2 19 4.68232 0 19 4.68232 1
gene 1 3 19 -2.35108 0 20 -2.35108 0
gene 1 4 19 -1.17308 0 21 -1.17308 1
gene 3 5 19 1.69815 0 22 1.69815 0
gene 2 6 19 1.56231 0 23 1.56231 1
gene 1 7 19 -4.46085 0 24 -4.46085 0
gene 3 8 19 2.40546 0 25 2.40546 1
gene 2 9 19 1.08103 0 26 1.08103 1
gene 4 10 19 -0.588271 0 27 -0.588271 0
gene 1 11 19 0.0881955 0 28 0.0881955 0
gene 2 12 19 -0.626306 0 29 -0.626306 0
gene 3 13 19 -4.67524 0 30 -4.67524 1
gene 3 14 19 -2.31645 0 31 -2.31645 0
gene 2 15 19 4.26116 0 32 4.26116 1
gene 1 16 19 4.32493 0 33 4.32493 1
gene 3 17 19 -5.03738 0 34 -5.03738 0
gene 3 1 20 -1.79931 0 35 -1.79931 1
gene 1 2 20 0.269057 0 36 0.269057 1
gene 2 3 20 -0.981624 0 37 -0.981624 0
gene 2 4 20 -2.54177 0 38 -2.54177 1
gene 4 5 20 1.36325 0 39 1.36325 1
gene 1 6 20 -0.0175732 0 40 -0.0175732 0
gene 1 7 20 -0.142699 0 41 -0.142699 1
gene 3 8 20 -1.13313 0 42 -1.13313 1
gene 4 9 20 7.26087 0 43 7.26087 1
gene 3 10 20 2.39726 0 44 2.39726 1
gene 3 11 20 -1.72814 0 45 -1.72814 0
gene 2 12 20 0.254232 0 46 0.254232 0
gene 4 13 20 -5.6002 0 47 -5.6002 1
gene 4 14 20 -4.45942 0 48 -4.45942 0
gene 3 15 20 2.85142 0 49 2.85142 0
gene 1 16 20 3.53419 0 50 3.53419 1
gene 2 17 20 6.58189 0 51 6.58189 1
gene 1 7 34 -2.208 0 85 -2.208 1
gene 1 34 19 -0.86374 0 86 -0.86374 0
gene 2 8 71 4.00737 0 175 4.00737 1
gene 1 15 71 2.73828 0 240 2.73828 1
gene 2 6 146 -0.948793 0 377 -0.948793 0
gene 2 146 19 -0.597127 0 378 -0.597127 1
gene 2 2 203 -2.43328 0 529 -2.43328 0
gene 2 203 18 1.76919 0 530 1.76919 1
gene 1 2 236 1.92561 0 613 1.92561 1
gene 1 236 19 3.6463 0 614 3.6463 1
gene 4 11 257 1.09225 0 677 1.09225 0
gene 4 257 20 -6.02301 0 678 -6.02301 1
gene 4 2 146 2.99194 0 750 2.99194 0
gene 2 16 316 -2.78901 0 832 -2.78901 0
gene 2 316 18 0.831184 0 833 0.831184 1
gene 1 14 146 -4.44372 0 926 -4.44372 1
gene 3 4 378 1.39888 0 998 1.39888 0
gene 3 378 18 1.98173 0 999 1.98173 0
gene 1 13 444 0.797358 0 1170 0.797358 1
gene 1 444 20 3.7998 0 1171 3.7998 1
gene 2 3 513 -1.53795 0 1338 -1.53795 1
gene 2 513 20 -7.54 0 1339 -7.54 1
gene 4 17 554 2.36645 0 1444 2.36645 0
gene 4 554 18 5.40323 0 1445 5.40323 1
gene 1 3 666 -2.63977 0 1729 -2.63977 1
gene 1 666 19 -2.07172 0 1730 -2.07172 1
gene 3 71 146 5.14582 0 1807 5.14582 1
gene 3 378 799 -2.04837 0 2054 -2.04837 1
gene 3 799 18 3.32758 0 2055 3.32758 1
gene 1 15 899 8 0 2304 8 0
gene 1 899 20 -1.45055 0 2305 -1.45055 1
gene 4 17 923 5.36283 0 2363 5.36283 1
gene 4 923 554 6.56711 0 2364 6.56711 1
gene 2 513 554 1.22136 0 2459 1.22136 1
gene 4 7 1006 -0.433651 0 2556 -0.433651 1
gene 4 1006 18 7.60991 0 2557 7.60991 1
gene 4 14 1046 -1.77822 0 2661 -1.77822 1
gene 4 1046 18 0.897823 0 2662 0.897823 0
gene 4 1046 1094 2.77802 0 2785 2.77802 0
gene 4 1094 18 -0.945105 0 2786 -0.945105 1
gene 1 257 257 -7.04951 1 2874 -7.04951 1
gene 4 14 1168 1.42372 0 2970 1.42372 1
gene 4 1168 20 0.991777 0 2971 0.991777 1
gene 4 378 378 8 1 3063 8 1
gene 3 5 444 -1.0743 0 3165 -1.0743 1
gene 4 2 1277 0.588624 0 3244 0.588624 1
gene 4 1277 146 1.51578 0 3245 1.51578 1
gene 3 236 34 -7.33398 0 3426 -7.33398 1
gene 3 5 1386 -0.403256 0 3521 -0.403256 0
gene 3 1386 19 1.56315 0 3522 1.56315 1
gene 3 5 1423 2.61809 0 3611 2.61809 0
gene 3 1423 1386 -3.65256 0 3612 -3.65256 1
gene 4 11 1462 -2.93019 0 3706 -2.93019 1
gene 4 1462 257 -1.90911 0 3707 -1.90911 1
gene 2 6 1499 0.424723 0 3793 0.424723 1
gene 2 1499 146 -1.9964 0 3794 -1.9964 1
gene 4 34 34 -8 1 3887 -8 0
gene 2 17 799 0.69252 0 3972 0.69252 1
gene 1 13 899 -0.290014 0 4047 -0.290014 1
gene 4 1423 899 -2.46148 0 4145 -2.46148 1
gene 1 799 799 4.03159 1 4232 4.03159 1
gene 3 4 1702 -0.842458 0 4315 -0.842458 1
gene 3 1702 378 -2.86422 0 4316 -2.86422 1
gene 4 34 1735 -1.1541 1 4399 -1.1541 1
gene 4 1735 34 -0.6166 0 4400 -0.6166 1
gene 1 34 1779 3.17982 0 4507 3.17982 1
gene 1 1779 19 -2.81327 0 4508 -2.81327 1
gene 1 1386 799 1.17371 0 4597 1.17371 1
gene 3 444 1168 5.52457 0 4695 5.52457 1
gene 4 10 1886 1.40648 0 4775 1.40648 1
gene 4 1886 19 -2.02667 0 4776 -2.02667 1
gene 1 7 1983 5.08697 0 5028 5.08697 1
gene 1 1983 19 3.29211 0 5029 3.29211 1
gene 3 14 2019 -4.02561 0 5120 -4.02561 1
gene 3 2019 19 -1.56433 0 5121 -1.56433 1
gene 1 6 2088 -1.07538 0 5302 -1.07538 1
gene 1 2088 20 2.02444 0 5303 2.02444 1
gene 1 15 2124 1.05935 0 5395 1.05935 1
gene 1 2124 899 8 0 5396 8 1
gene 1 9 2166 3.32591 0 5499 3.32591 1
gene 1 2166 18 -1.34403 0 5500 -1.34403 1
gene 3 554 1983 -8 0 5589 -8 1
gene 4 1046 2235 -0.143715 0 5668 -0.143715 1
gene 4 2235 1094 -2.86434 0 5669 -2.86434 1
gene 2 1168 1168 8 1 5751 8 1
gene 4 11 2293 -1.69103 0 5825 -1.69103 1
gene 4 2293 18 -2.29592 0 5826 -2.29592 1
gene 2 16 2333 0.735903 0 5923 0.735903 1
gene 2 2333 316 -1.8346 0 5924 -1.8346 1
gene 3 5 2366 2.35923 0 6003 2.35923 1
gene 3 2366 1423 -0.146759 0 6004 -0.146759 1
gene 2 2 2396 1.08093 0 6088 1.08093 1
gene 2 2396 203 -4.68091 0 6089 -4.68091 1
gene 2 2235 2235 81916 1 6277 81916 1
gene 3 4 799 -98985 0 6362 -98985 1
genomeend 2

/* Organism #3 Fitness: 220 Error: 0 */

/* Position #3*/
#1 x: 84 y: 17
#2 x: 52 y: 38
#3 x: 34 y: 24
#4 x: 18 y: 63
#5 x: 83 y: 69
#6 x: 27 y: 20
genomestart 3
trait 1 43982 38565 0 100000 0 0 0 99244 
trait 2 2 0 0 0 0 0 0 0 
trait 3 3 0 0 0 0 0 0 0 
trait 4 4 0 0 0 0 0 0 0 
node 1 1 1 3
node 2 4 1 1
node 3 3 1 1
node 4 3 1 1
node 5 3 1 1
node 6 1 1 1
node 7 2 1 1
node 8 4 1 1
node 9 4 1 1
node 10 2 1 1
node 11 4 1 1
node 12 3 1 1
node 13 4 1 1
node 14 3 1 1
node 15 3 1 1
node 16 1 1 1
node 17 3 1 1
node 18 2 0 2
node 19 1 0 2
node 20 1 0 2
node 34 1 0 0
node 71 1 0 0
node 146 1 0 0
node 203 1 0 0
node 236 1 0 0
node 257 1 0 0
node 316 1 0 0
node 378 1 0 0
node 444 1 0 0
node 513 1 0 0
node 554 1 0 0
node 666 1 0 0
node 799 1 0 0
node 899 1 0 0
node 923 1 0 0
node 1006 1 0 0
node 1046 1 0 0
node 1094 1 0 0
node 1168 1 0 0
node 1277 1 0 0
node 1386 3 0 0
node 1423 1 0 0
node 1462 1 0 0
node 1499 1 0 0
node 1702 1 0 0
node 1735 1 0 0
node 1779 1 0 0
node 1886 1 0 0
node 1983 1 0 0
node 2019 1 0 0
node 2088 1 0 0
node 2124 1 0 0
node 2166 1 0 0
node 2235 1 0 0
node 2293 1 0 0
node 2333 1 0 0
node 2366 1 0 0
node 2396 1 0 0
gene 4 1 18 1.62738 0 1 1.62738 1
gene 2 2 18 6.73513 0 2 6.73513 0
gene 2 3 18 -3.9821 0 3 -3.9821 1
gene 3 4 18 0.714396 0 4 0.714396 0
gene 3 5 18 0.482062 0 5 0.482062 1
gene 3 6 18 -8 0 6 -8 0
gene 4 7 18 2.68254 0 7 2.68254 0
gene 3 8 8 -3.47744 0 8 -3.47744 1
gene 1 9 18 -0.207855 0 9 -0.207855 0
gene 2 10 18 -0.43794 0 10 -0.43794 1
gene 4 11 18 -2.68819 0 11 -2.68819 0
gene 1 12 18 3.41438 0 12 3.41438 1
gene 1 13 18 0.202783 0 13 0.202783 1
gene 4 14 18 5.21379 0 14 5.21379 0
gene 1 15 18 4.68049 0 15 4.68049 1
gene 2 16 18 0.163732 0 16 0.163732 1
gene 3 17 18 4.13215 0 17 4.13215 0
gene 1 1 19 2.91585 0 18 2.91585 1
gene 3 2 19 4.68232 0 19 4.68232 1
gene 1 3 19 -2.35108 0 20 -2.35108 0
gene 1 4 19 -1.17308 0 21 -1.17308 1
gene 3 5 19 1.69815 0 22 1.69815 0
gene 2 6 19 1.56231 0 23 1.56231 1
gene 1 7 19 -4.46085 0 24 -4.46085 0
gene 3 8 19 2.40546 0 25 2.40546 1
gene 2 9 19 1.08103 0 26 1.08103 1
gene 4 10 19 -0.588271 0 27 -0.588271 0
gene 1 11 19 0.0881955 0 28 0.0881955 0
gene 2 12 19 -0.626306 0 29 -0.626306 0
gene 3 13 19 -4.67524 0 30 -4.67524 1
gene 3 14 19 -2.31645 0 31 -2.31645 0
gene 2 15 19 4.26116 0 32 4.26116 1
gene 1 16 19 4.32493 0 33 4.32493 1
gene 3 17 19 -5.03738 0 34 -5.03738 0
gene 3 1 20 -1.79931 0 35 -1.79931 1
gene 1 2 20 0.269057 0 36 0.269057 1
gene 2 3 20 -0.981624 0 37 -0.981624 0
gene 2 4 20 -2.54177 0 38 -2.54177 1
gene 4 5 20 1.36325 0 39 1.36325 1
gene 1 6 20 -0.0175732 0 40 -0.0175732 0
gene 1 7 20 -0.142699 0 41 -0.142699 1
gene 3 8 20 -1.13313 0 42 -1.13313 1
gene 4 9 20 7.26087 0 43 7.26087 1
gene 3 10 20 2.39726 0 44 2.39726 1
gene 3 11 20 -1.72814 0 45 -1.72814 0
gene 2 12 20 0.254232 0 46 0.254232 0
gene 4 13 20 -5.6002 0 47 -5.6002 1
gene 4 14 20 -4.45942 0 48 -4.45942 0
gene 3 15 20 2.85142 0 49 2.85142 0
gene 1 16 20 3.53419 0 50 3.53419 1
gene 2 17 20 6.58189 0 51 6.58189 1
gene 1 7 34 -2.208 0 85 -2.208 1
gene 1 34 19 -0.86374 0 86 -0.86374 0
gene 2 8 71 4.00737 0 175 4.00737 1
gene 1 15 71 2.73828 0 240 2.73828 1
gene 2 6 146 -0.948793 0 377 -0.948793 0
gene 2 146 19 -0.597127 0 378 -0.597127 1
gene 2 2 203 -2.43328 0 529 -2.43328 0
gene 2 203 18 1.76919 0 530 1.76919 1
gene 1 2 236 1.92561 0 613 1.92561 1
gene 1 236 19 3.6463 0 614 3.6463 1
gene 4 11 257 1.09225 0 677 1.09225 0
gene 4 257 20 -6.02301 0 678 -6.02301 1
gene 4 2 146 2.99194 0 750 2.99194 0
gene 2 16 316 -2.78901 0 832 -2.78901 0
gene 2 316 18 0.831184 0 833 0.831184 1
gene 1 14 146 -4.44372 0 926 -4.44372 1
gene 3 4 378 1.39888 0 998 1.39888 0
gene 3 378 18 1.98173 0 999 1.98173 0
gene 1 13 444 0.797358 0 1170 0.797358 1
gene 1 444 20 3.7998 0 1171 3.7998 1
gene 2 3 513 -1.53795 0 1338 -1.53795 1
gene 2 513 20 -7.54 0 1339 -7.54 1
gene 4 17 554 2.36645 0 1444 2.36645 0
gene 4 554 18 5.40323 0 1445 5.40323 1
gene 1 3 666 -2.63977 0 1729 -2.63977 1
gene 1 666 19 -2.07172 0 1730 -2.07172 1
gene 3 71 146 5.14582 0 1807 5.14582 1
gene 3 378 799 -2.04837 0 2054 -2.04837 1
gene 3 799 18 3.32758 0 2055 3.32758 1
gene 1 15 899 8 0 2304 8 0
gene 1 899 20 -1.45055 0 2305 -1.45055 1
gene 4 17 923 5.36283 0 2363 5.36283 1
gene 4 923 554 6.56711 0 2364 6.56711 1
gene 2 513 554 1.22136 0 2459 1.22136 1
gene 4 7 1006 -0.433651 0 2556 -0.433651 1
gene 4 1006 18 7.60991 0 2557 7.60991 1
gene 4 14 1046 -1.77822 0 2661 -1.77822 1
gene 4 1046 18 0.897823 0 2662 0.897823 0
gene 4 1046 1094 2.77802 0 2785 2.77802 0
gene 4 1094 18 -0.945105 0 2786 -0.945105 1
gene 1 257 257 -7.04951 1 2874 -7.04951 1
gene 4 14 1168 1.42372 0 2970 1.42372 1
gene 4 1168 20 0.991777 0 2971 0.991777 1
gene 4 378 378 8 1 3063 8 1
gene 3 5 444 -1.0743 0 3165 -1.0743 1
gene 4 2 1277 0.588624 0 3244 0.588624 1
gene 4 1277 146 1.51578 0 3245 1.51578 1
gene 3 236 34 -7.33398 0 3426 -7.33398 1
gene 3 5 1386 -0.403256 0 3521 -0.403256 0
gene 3 1386 19 1.56315 0 3522 1.56315 1
gene 3 5 1423 2.61809 0 3611 2.61809 0
gene 3 1423 1386 -3.65256 0 3612 -3.65256 1
gene 4 11 1462 -2.93019 0 3706 -2.93019 1
gene 4 1462 257 -1.90911 0 3707 -1.90911 1
gene 2 6 1499 0.424723 0 3793 0.424723 1
gene 2 1499 146 -1.9964 0 3794 -1.9964 1
gene 4 34 34 -8 1 3887 -8 0
gene 2 17 799 0.69252 0 3972 0.69252 1
gene 1 13 899 -0.290014 0 4047 -0.290014 1
gene 4 1423 899 -2.46148 0 4145 -2.46148 1
gene 1 799 799 4.03159 1 4232 4.03159 1
gene 3 4 1702 -0.842458 0 4315 -0.842458 1
gene 3 1702 378 -2.86422 0 4316 -2.86422 1
gene 4 34 1735 -1.1541 1 4399 -1.1541 1
gene 4 1735 34 -0.6166 0 4400 -0.6166 1
gene 1 34 1779 3.17982 0 4507 3.17982 1
gene 1 1779 19 -2.81327 0 4508 -2.81327 1
gene 1 1386 799 1.17371 0 4597 1.17371 1
gene 3 444 1168 5.52457 0 4695 5.52457 1
gene 4 10 1886 1.40648 0 4775 1.40648 1
gene 4 1886 19 -2.02667 0 4776 -2.02667 1
gene 1 7 1983 5.08697 0 5028 5.08697 1
gene 1 1983 19 3.29211 0 5029 3.29211 1
gene 3 14 2019 -4.02561 0 5120 -4.02561 1
gene 3 2019 19 -1.56433 0 5121 -1.56433 1
gene 1 6 2088 -1.07538 0 5302 -1.07538 1
gene 1 2088 20 2.02444 0 5303 2.02444 1
gene 1 15 2124 1.05935 0 5395 1.05935 1
gene 1 2124 899 8 0 5396 8 1
gene 1 9 2166 3.32591 0 5499 3.32591 1
gene 1 2166 18 -1.34403 0 5500 -1.34403 1
gene 3 554 1983 -8 0 5589 -8 1
gene 4 1046 2235 -0.143715 0 5668 -0.143715 1
gene 4 2235 1094 -2.86434 0 5669 -2.86434 1
gene 2 1168 1168 8 1 5751 8 1
gene 4 11 2293 -1.69103 0 5825 -1.69103 1
gene 4 2293 18 -2.29592 0 5826 -2.29592 1
gene 2 16 2333 0.735903 0 5923 0.735903 1
gene 2 2333 316 -1.8346 0 5924 -1.8346 1
gene 3 5 2366 2.35923 0 6003 2.35923 1
gene 3 2366 1423 -0.146759 0 6004 -0.146759 1
gene 2 2 2396 1.08093 0 6088 1.08093 1
gene 2 2396 203 -4.68091 0 6089 -4.68091 1
gene 2 2235 2235 81916 1 6277 81916 1
genomeend 3

/* Organism #4 Fitness: 0 Error: 0 */

/* Position #4*/
#1 x: 65 y: 47
#2 x: 63 y: 23
#3 x: 54 y: 23
#4 x: 65 y: 22
#5 x: 61 y: 62
#6 x: 29 y: 23
genomestart 4
trait 1 43982 38565 0 100000 0 0 0 99244 
trait 2 2 0 0 0 0 0 0 0 
trait 3 3 0 0 0 0 0 0 0 
trait 4 4 0 0 0 0 0 0 0 
node 1 1 1 3
node 2 4 1 1
node 3 3 1 1
node 4 3 1 1
node 5 3 1 1
node 6 1 1 1
node 7 2 1 1
node 8 4 1 1
node 9 4 1 1
node 10 2 1 1
node 11 4 1 1
node 12 3 1 1
node 13 4 1 1
node 14 3 1 1
node 15 3 1 1
node 16 1 1 1
node 17 3 1 1
node 18 2 0 2
node 19 1 0 2
node 20 1 0 2
node 34 1 0 0
node 71 1 0 0
node 146 1 0 0
node 203 1 0 0
node 236 1 0 0
node 257 1 0 0
node 316 1 0 0
node 378 1 0 0
node 444 1 0 0
node 513 1 0 0
node 554 1 0 0
node 666 1 0 0
node 799 1 0 0
node 899 1 0 0
node 923 1 0 0
node 1006 1 0 0
node 1046 1 0 0
node 1094 1 0 0
node 1168 1 0 0
node 1277 1 0 0
node 1386 3 0 0
node 1423 1 0 0
node 1462 1 0 0
node 1499 1 0 0
node 1702 1 0 0
node 1735 1 0 0
node 1779 1 0 0
node 1886 1 0 0
node 1983 1 0 0
node 2019 1 0 0
node 2088 1 0 0
node 2124 1 0 0
node 2166 1 0 0
node 2235 1 0 0
node 2293 1 0 0
node 2333 1 0 0
node 2366 1 0 0
node 2396 1 0 0
node 2501 1 0 0
gene 4 1 18 1.62738 0 1 1.62738 1
gene 2 2 18 6.73513 0 2 6.73513 0
gene 2 3 18 -3.9821 0 3 -3.9821 1
gene 3 4 18 0.714396 0 4 0.714396 0
gene 3 5 18 0.482062 0 5 0.482062 1
gene 3 6 18 -8 0 6 -8 0
gene 4 7 18 2.68254 0 7 2.68254 0
gene 3 8 8 -3.47744 0 8 -3.47744 1
gene 1 9 18 -0.207855 0 9 -0.207855 0
gene 2 10 18 -0.43794 0 10 -0.43794 1
gene 4 11 18 -2.68819 0 11 -2.68819 0
gene 1 12 18 3.41438 0 12 3.41438 1
gene 1 13 18 0.202783 0 13 0.202783 1
gene 4 14 18 5.21379 0 14 5.21379 0
gene 1 15 18 4.68049 0 15 4.68049 1
gene 2 16 18 0.163732 0 16 0.163732 1
gene 3 17 18 4.13215 0 17 4.13215 0
gene 1 1 19 2.91585 0 18 2.91585 1
gene 3 2 19 4.68232 0 19 4.68232 1
gene 1 3 19 -2.35108 0 20 -2.35108 0
gene 1 4 19 -1.17308 0 21 -1.17308 1
gene 3 5 19 1.69815 0 22 1.69815 0
gene 2 6 19 1.56231 0 23 1.56231 1
gene 1 7 19 -4.46085 0 24 -4.46085 0
gene 3 8 19 2.40546 0 25 2.40546 1
gene 2 9 19 1.08103 0 26 1.08103 1
gene 4 10 19 -0.588271 0 27 -0.588271 0
gene 1 11 19 0.0881955 0 28 0.0881955 0
gene 2 12 19 -0.626306 0 29 -0.626306 0
gene 3 13 19 -4.67524 0 30 -4.67524 1
gene 3 14 19 -2.31645 0 31 -2.31645 0
gene 2 15 19 4.26116 0 32 4.26116 1
gene 1 16 19 4.32493 0 33 4.32493 1
gene 3 17 19 -5.03738 0 34 -5.03738 0
gene 3 1 20 -1.79931 0 35 -1.79931 1
gene 1 2 20 0.269057 0 36 0.269057 1
gene 2 3 20 -0.981624 0 37 -0.981624 0
gene 2 4 20 -2.54177 0 38 -2.54177 1
gene 4 5 20 1.36325 0 39 1.36325 1
gene 1 6 20 -0.0175732 0 40 -0.0175732 0
gene 1 7 20 -0.142699 0 41 -0.142699 1
gene 3 8 20 -1.13313 0 42 -1.13313 1
gene 4 9 20 7.26087 0 43 7.26087 1
gene 3 10 20 2.39726 0 44 2.39726 1
gene 3 11 20 -1.72814 0 45 -1.72814 0
gene 2 12 20 0.254232 0 46 0.254232 0
gene 4 13 20 -5.6002 0 47 -5.6002 1
gene 4 14 20 -4.45942 0 48 -4.45942 0
gene 3 15 20 2.85142 0 49 2.85142 0
gene 1 16 20 3.53419 0 50 3.53419 1
gene 2 17 20 6.58189 0 51 6.58189 1
gene 1 7 34 -2.208 0 85 -2.208 1
gene 1 34 19 -0.86374 0 86 -0.86374 0
gene 2 8 71 4.00737 0 175 4.00737 1
gene 1 15 71 2.73828 0 240 2.73828 1
gene 2 6 146 -0.948793 0 377 -0.948793 0
gene 2 146 19 -0.597127 0 378 -0.597127 1
gene 2 2 203 -2.43328 0 529 -2.43328 0
gene 2 203 18 1.76919 0 530 1.76919 1
gene 1 2 236 1.92561 0 613 1.92561 1
gene 1 236 19 3.6463 0 614 3.6463 1
gene 4 11 257 1.09225 0 677 1.09225 0
gene 4 257 20 -6.02301 0 678 -6.02301 1
gene 4 2 146 2.99194 0 750 2.99194 0
gene 2 16 316 -2.78901 0 832 -2.78901 0
gene 2 316 18 0.831184 0 833 0.831184 1
gene 1 14 146 -4.44372 0 926 -4.44372 1
gene 3 4 378 1.39888 0 998 1.39888 0
gene 3 378 18 1.98173 0 999 1.98173 0
gene 1 13 444 0.797358 0 1170 0.797358 1
gene 1 444 20 3.7998 0 1171 3.7998 1
gene 2 3 513 -1.53795 0 1338 -1.53795 1
gene 2 513 20 -7.54 0 1339 -7.54 1
gene 4 17 554 2.36645 0 1444 2.36645 0
gene 4 554 18 5.40323 0 1445 5.40323 1
gene 1 3 666 -2.63977 0 1729 -2.63977 1
gene 1 666 19 -2.07172 0 1730 -2.07172 1
gene 3 71 146 5.14582 0 1807 5.14582 1
gene 3 378 799 -2.04837 0 2054 -2.04837 1
gene 3 799 18 3.32758 0 2055 3.32758 1
gene 1 15 899 8 0 2304 8 0
gene 1 899 20 -1.45055 0 2305 -1.45055 1
gene 4 17 923 5.36283 0 2363 5.36283 1
gene 4 923 554 6.56711 0 2364 6.56711 1
gene 2 513 554 1.22136 0 2459 1.22136 1
gene 4 7 1006 -0.433651 0 2556 -0.433651 1
gene 4 1006 18 7.60991 0 2557 7.60991 0
gene 4 14 1046 -1.77822 0 2661 -1.77822 1
gene 4 1046 18 0.897823 0 2662 0.897823 0
gene 4 1046 1094 2.77802 0 2785 2.77802 0
gene 4 1094 18 -0.945105 0 2786 -0.945105 1
gene 1 257 257 -7.04951 1 2874 -7.04951 1
gene 4 14 1168 1.42372 0 2970 1.42372 1
gene 4 1168 20 0.991777 0 2971 0.991777 1
gene 4 378 378 8 1 3063 8 1
gene 3 5 444 -1.0743 0 3165 -1.0743 1
gene 4 2 1277 0.588624 0 3244 0.588624 1
gene 4 1277 146 1.51578 0 3245 1.51578 1
gene 3 236 34 -7.33398 0 3426 -7.33398 1
gene 3 5 1386 -0.403256 0 3521 -0.403256 0
gene 3 1386 19 1.56315 0 3522 1.56315 1
gene 3 5 1423 2.61809 0 3611 2.61809 0
gene 3 1423 1386 -3.65256 0 3612 -3.65256 1
gene 4 11 1462 -2.93019 0 3706 -2.93019 1
gene 4 1462 257 -1.90911 0 3707 -1.90911 1
gene 2 6 1499 0.424723 0 3793 0.424723 1
gene 2 1499 146 -1.9964 0 3794 -1.9964 1
gene 4 34 34 -8 1 3887 -8 0
gene 2 17 799 0.69252 0 3972 0.69252 1
gene 1 13 899 -0.290014 0 4047 -0.290014 1
gene 4 1423 899 -2.46148 0 4145 -2.46148 1
gene 1 799 799 4.03159 1 4232 4.03159 1
gene 3 4 1702 -0.842458 0 4315 -0.842458 1
gene 3 1702 378 -2.86422 0 4316 -2.86422 1
gene 4 34 1735 -1.1541 1 4399 -1.1541 1
gene 4 1735 34 -0.6166 0 4400 -0.6166 1
gene 1 34 1779 3.17982 0 4507 3.17982 1
gene 1 1779 19 -2.81327 0 4508 -2.81327 1
gene 1 1386 799 1.17371 0 4597 1.17371 1
gene 3 444 1168 5.52457 0 4695 5.52457 1
gene 4 10 1886 1.40648 0 4775 1.40648 1
gene 4 1886 19 -2.02667 0 4776 -2.02667 1
gene 1 7 1983 5.08697 0 5028 5.08697 1
gene 1 1983 19 3.29211 0 5029 3.29211 1
gene 3 14 2019 -4.02561 0 5120 -4.02561 1
gene 3 2019 19 -1.56433 0 5121 -1.56433 1
gene 1 6 2088 -1.07538 0 5302 -1.07538 1
gene 1 2088 20 2.02444 0 5303 2.02444 1
gene 1 15 2124 1.05935 0 5395 1.05935 1
gene 1 2124 899 8 0 5396 8 1
gene 1 9 2166 3.32591 0 5499 3.32591 1
gene 1 2166 18 -1.34403 0 5500 -1.34403 1
gene 3 554 1983 -8 0 5589 -8 1
gene 4 1046 2235 -0.143715 0 5668 -0.143715 1
gene 4 2235 1094 -2.86434 0 5669 -2.86434 1
gene 2 1168 1168 8 1 5751 8 1
gene 4 11 2293 -1.69103 0 5825 -1.69103 1
gene 4 2293 18 -2.29592 0 5826 -2.29592 1
gene 2 16 2333 0.735903 0 5923 0.735903 1
gene 2 2333 316 -1.8346 0 5924 -1.8346 1
gene 3 5 2366 2.35923 0 6003 2.35923 1
gene 3 2366 1423 -0.146759 0 6004 -0.146759 1
gene 2 2 2396 1.08093 0 6088 1.08093 1
gene 2 2396 203 -4.68091 0 6089 -4.68091 1
gene 2 2235 2235 81916 1 6277 81916 1
gene 4 1006 2501 1 0 6363 0 1
gene 4 2501 18 7.60991 0 6364 0 1
genomeend 4

/* Organism #5 Fitness: 320 Error: 0 */

/* Position #5*/
#1 x: 65 y: 47
#2 x: 63 y: 23
#3 x: 54 y: 23
#4 x: 65 y: 22
#5 x: 61 y: 62
#6 x: 29 y: 23
genomestart 5
trait 1 43982 38565 0 100000 0 0 0 99244 
trait 2 2 0 0 0 0 0 0 0 
trait 3 3 0 0 0 0 0 0 0 
trait 4 4 0 0 0 0 0 0 0 
node 1 1 1 3
node 2 4 1 1
node 3 3 1 1
node 4 3 1 1
node 5 3 1 1
node 6 1 1 1
node 7 2 1 1
node 8 4 1 1
node 9 4 1 1
node 10 2 1 1
node 11 4 1 1
node 12 3 1 1
node 13 4 1 1
node 14 3 1 1
node 15 3 1 1
node 16 1 1 1
node 17 3 1 1
node 18 2 0 2
node 19 1 0 2
node 20 1 0 2
node 34 1 0 0
node 71 1 0 0
node 146 1 0 0
node 203 1 0 0
node 236 1 0 0
node 257 1 0 0
node 316 1 0 0
node 378 1 0 0
node 444 1 0 0
node 513 1 0 0
node 554 1 0 0
node 666 1 0 0
node 799 1 0 0
node 899 1 0 0
node 923 1 0 0
node 1006 1 0 0
node 1046 1 0 0
node 1094 1 0 0
node 1168 1 0 0
node 1277 1 0 0
node 1386 3 0 0
node 1423 1 0 0
node 1462 1 0 0
node 1499 1 0 0
node 1702 1 0 0
node 1735 1 0 0
node 1779 1 0 0
node 1886 1 0 0
node 1983 1 0 0
node 2019 1 0 0
node 2088 1 0 0
node 2124 1 0 0
node 2166 1 0 0
node 2235 1 0 0
node 2293 1 0 0
node 2333 1 0 0
node 2366 1 0 0
node 2396 1 0 0
node 2502 1 0 0
gene 4 1 18 1.62738 0 1 1.62738 1
gene 2 2 18 6.73513 0 2 6.73513 0
gene 2 3 18 -3.9821 0 3 -3.9821 1
gene 3 4 18 0.714396 0 4 0.714396 0
gene 3 5 18 0.482062 0 5 0.482062 1
gene 3 6 18 -8 0 6 -8 0
gene 4 7 18 2.68254 0 7 2.68254 0
gene 3 8 8 -3.47744 0 8 -3.47744 1
gene 1 9 18 -0.207855 0 9 -0.207855 0
gene 2 10 18 -0.43794 0 10 -0.43794 1
gene 4 11 18 -2.68819 0 11 -2.68819 0
gene 1 12 18 3.41438 0 12 3.41438 1
gene 1 13 18 0.202783 0 13 0.202783 1
gene 4 14 18 5.21379 0 14 5.21379 0
gene 1 15 18 4.68049 0 15 4.68049 1
gene 2 16 18 0.163732 0 16 0.163732 1
gene 3 17 18 4.13215 0 17 4.13215 0
gene 1 1 19 2.91585 0 18 2.91585 1
gene 3 2 19 4.68232 0 19 4.68232 1
gene 1 3 19 -2.35108 0 20 -2.35108 0
gene 1 4 19 -1.17308 0 21 -1.17308 1
gene 3 5 19 1.69815 0 22 1.69815 0
gene 2 6 19 1.56231 0 23 1.56231 1
gene 1 7 19 -4.46085 0 24 -4.46085 0
gene 3 8 19 2.40546 0 25 2.40546 1
gene 2 9 19 1.08103 0 26 1.08103 1
gene 4 10 19 -0.588271 0 27 -0.588271 0
gene 1 11 19 0.0881955 0 28 0.0881955 0
gene 2 12 19 -0.626306 0 29 -0.626306 0
gene 3 13 19 -4.67524 0 30 -4.67524 1
gene 3 14 19 -2.31645 0 31 -2.31645 0
gene 2 15 19 4.26116 0 32 4.26116 1
gene 1 16 19 4.32493 0 33 4.32493 1
gene 3 17 19 -5.03738 0 34 -5.03738 0
gene 3 1 20 -1.79931 0 35 -1.79931 1
gene 1 2 20 0.269057 0 36 0.269057 1
gene 2 3 20 -0.981624 0 37 -0.981624 0
gene 2 4 20 -2.54177 0 38 -2.54177 1
gene 4 5 20 1.36325 0 39 1.36325 1
gene 1 6 20 -0.0175732 0 40 -0.0175732 0
gene 1 7 20 -0.142699 0 41 -0.142699 1
gene 3 8 20 -1.13313 0 42 -1.13313 1
gene 4 9 20 7.26087 0 43 7.26087 1
gene 3 10 20 2.39726 0 44 2.39726 1
gene 3 11 20 -1.72814 0 45 -1.72814 0
gene 2 12 20 0.254232 0 46 0.254232 0
gene 4 13 20 -5.6002 0 47 -5.6002 1
gene 4 14 20 -4.45942 0 48 -4.45942 0
gene 3 15 20 2.85142 0 49 2.85142 0
gene 1 16 20 3.53419 0 50 3.53419 1
gene 2 17 20 6.58189 0 51 6.58189 1
gene 1 7 34 -2.208 0 85 -2.208 1
gene 1 34 19 -0.86374 0 86 -0.86374 0
gene 2 8 71 4.00737 0 175 4.00737 1
gene 1 15 71 2.73828 0 240 2.73828 1
gene 2 6 146 -0.948793 0 377 -0.948793 0
gene 2 146 19 -0.597127 0 378 -0.597127 1
gene 2 2 203 -2.43328 0 529 -2.43328 0
gene 2 203 18 1.76919 0 530 1.76919 1
gene 1 2 236 1.92561 0 613 1.92561 1
gene 1 236 19 3.6463 0 614 3.6463 1
gene 4 11 257 1.09225 0 677 1.09225 0
gene 4 257 20 -6.02301 0 678 -6.02301 1
gene 4 2 146 2.99194 0 750 2.99194 0
gene 2 16 316 -2.78901 0 832 -2.78901 0
gene 2 316 18 0.831184 0 833 0.831184 1
gene 1 14 146 -4.44372 0 926 -4.44372 1
gene 3 4 378 1.39888 0 998 1.39888 0
gene 3 378 18 1.98173 0 999 1.98173 0
gene 1 13 444 0.797358 0 1170 0.797358 1
gene 1 444 20 3.7998 0 1171 3.7998 1
gene 2 3 513 -1.53795 0 1338 -1.53795 1
gene 2 513 20 -7.54 0 1339 -7.54 1
gene 4 17 554 2.36645 0 1444 2.36645 0
gene 4 554 18 5.40323 0 1445 5.40323 1
gene 1 3 666 -2.63977 0 1729 -2.63977 1
gene 1 666 19 -2.07172 0 1730 -2.07172 1
gene 3 71 146 5.14582 0 1807 5.14582 1
gene 3 378 799 -2.04837 0 2054 -2.04837 1
gene 3 799 18 3.32758 0 2055 3.32758 1
gene 1 15 899 8 0 2304 8 0
gene 1 899 20 -1.45055 0 2305 -1.45055 1
gene 4 17 923 5.36283 0 2363 5.36283 1
gene 4 923 554 6.56711 0 2364 6.56711 1
gene 2 513 554 1.22136 0 2459 1.22136 1
gene 4 7 1006 -0.433651 0 2556 -0.433651 1
gene 4 1006 18 7.60991 0 2557 7.60991 1
gene 4 14 1046 -1.77822 0 2661 -1.77822 1
gene 4 1046 18 0.897823 0 2662 0.897823 0
gene 4 1046 1094 2.77802 0 2785 2.77802 0
gene 4 1094 18 -0.945105 0 2786 -0.945105 1
gene 1 257 257 -7.04951 1 2874 -7.04951 1
gene 4 14 1168 1.42372 0 2970 1.42372 1
gene 4 1168 20 0.991777 0 2971 0.991777 1
gene 4 378 378 8 1 3063 8 1
gene 3 5 444 -1.0743 0 3165 -1.0743 1
gene 4 2 1277 0.588624 0 3244 0.588624 1
gene 4 1277 146 1.51578 0 3245 1.51578 1
gene 3 236 34 -7.33398 0 3426 -7.33398 1
gene 3 5 1386 -0.403256 0 3521 -0.403256 0
gene 3 1386 19 1.56315 0 3522 1.56315 1
gene 3 5 1423 2.61809 0 3611 2.61809 0
gene 3 1423 1386 -3.65256 0 3612 -3.65256 1
gene 4 11 1462 -2.93019 0 3706 -2.93019 1
gene 4 1462 257 -1.90911 0 3707 -1.90911 1
gene 2 6 1499 0.424723 0 3793 0.424723 1
gene 2 1499 146 -1.9964 0 3794 -1.9964 1
gene 4 34 34 -8 1 3887 -8 0
gene 2 17 799 0.69252 0 3972 0.69252 1
gene 1 13 899 -0.290014 0 4047 -0.290014 1
gene 4 1423 899 -2.46148 0 4145 -2.46148 1
gene 1 799 799 4.03159 1 4232 4.03159 0
gene 3 4 1702 -0.842458 0 4315 -0.842458 1
gene 3 1702 378 -2.86422 0 4316 -2.86422 1
gene 4 34 1735 -1.1541 1 4399 -1.1541 1
gene 4 1735 34 -0.6166 0 4400 -0.6166 1
gene 1 34 1779 3.17982 0 4507 3.17982 1
gene 1 1779 19 -2.81327 0 4508 -2.81327 1
gene 1 1386 799 1.17371 0 4597 1.17371 1
gene 3 444 1168 5.52457 0 4695 5.52457 1
gene 4 10 1886 1.40648 0 4775 1.40648 1
gene 4 1886 19 -2.02667 0 4776 -2.02667 1
gene 1 7 1983 5.08697 0 5028 5.08697 1
gene 1 1983 19 3.29211 0 5029 3.29211 1
gene 3 14 2019 -4.02561 0 5120 -4.02561 1
gene 3 2019 19 -1.56433 0 5121 -1.56433 1
gene 1 6 2088 -1.07538 0 5302 -1.07538 1
gene 1 2088 20 2.02444 0 5303 2.02444 1
gene 1 15 2124 1.05935 0 5395 1.05935 1
gene 1 2124 899 8 0 5396 8 1
gene 1 9 2166 3.32591 0 5499 3.32591 1
gene 1 2166 18 -1.34403 0 5500 -1.34403 1
gene 3 554 1983 -8 0 5589 -8 1
gene 4 1046 2235 -0.143715 0 5668 -0.143715 1
gene 4 2235 1094 -2.86434 0 5669 -2.86434 1
gene 2 1168 1168 8 1 5751 8 1
gene 4 11 2293 -1.69103 0 5825 -1.69103 1
gene 4 2293 18 -2.29592 0 5826 -2.29592 1
gene 2 16 2333 0.735903 0 5923 0.735903 1
gene 2 2333 316 -1.8346 0 5924 -1.8346 1
gene 3 5 2366 2.35923 0 6003 2.35923 1
gene 3 2366 1423 -0.146759 0 6004 -0.146759 1
gene 2 2 2396 1.08093 0 6088 1.08093 1
gene 2 2396 203 -4.68091 0 6089 -4.68091 1
gene 2 2235 2235 81916 1 6277 81916 1
gene 1 799 2502 1 1 6365 0 1
gene 1 2502 799 4.03159 0 6366 0 1
genomeend 5

/* Organism #6 Fitness: 140 Error: 0 */

/* Position #6*/
#1 x: 67 y: 65
#2 x: 49 y: 31
#3 x: 83 y: 75
#4 x: 60 y: 36
#5 x: 50 y: 24
#6 x: 51 y: 52
genomestart 6
trait 1 43982 38565 0 100000 0 0 0 99244 
trait 2 2 0 0 0 0 0 0 0 
trait 3 3 0 0 0 0 0 0 0 
trait 4 4 0 0 0 0 0 0 0 
node 1 1 1 3
node 2 4 1 1
node 3 3 1 1
node 4 3 1 1
node 5 3 1 1
node 6 1 1 1
node 7 2 1 1
node 8 4 1 1
node 9 4 1 1
node 10 2 1 1
node 11 4 1 1
node 12 3 1 1
node 13 4 1 1
node 14 3 1 1
node 15 3 1 1
node 16 1 1 1
node 17 3 1 1
node 18 2 0 2
node 19 1 0 2
node 20 1 0 2
node 34 1 0 0
node 71 1 0 0
node 146 1 0 0
node 203 1 0 0
node 236 1 0 0
node 257 1 0 0
node 316 1 0 0
node 378 1 0 0
node 444 1 0 0
node 513 1 0 0
node 554 1 0 0
node 666 1 0 0
node 799 1 0 0
node 899 1 0 0
node 923 1 0 0
node 1006 1 0 0
node 1046 1 0 0
node 1094 1 0 0
node 1168 1 0 0
node 1277 1 0 0
node 1386 3 0 0
node 1423 1 0 0
node 1462 1 0 0
node 1499 1 0 0
node 1702 1 0 0
node 1735 1 0 0
node 1779 1 0 0
node 1886 1 0 0
node 1983 1 0 0
node 2019 1 0 0
node 2088 1 0 0
node 2124 1 0 0
node 2166 1 0 0
node 2235 1 0 0
node 2293 1 0 0
node 2333 1 0 0
node 2366 1 0 0
node 2396 1 0 0
gene 4 1 18 1.62738 0 1 1.62738 1
gene 2 2 18 6.73513 0 2 6.73513 0
gene 2 3 18 -3.9821 0 3 -3.9821 1
gene 3 4 18 0.714396 0 4 0.714396 0
gene 3 5 18 0.482062 0 5 0.482062 1
gene 3 6 18 -8 0 6 -8 0
gene 4 7 18 2.68254 0 7 2.68254 0
gene 3 8 8 -3.47744 0 8 -3.47744 1
gene 1 9 18 -0.207855 0 9 -0.207855 0
gene 2 10 18 -0.43794 0 10 -0.43794 1
gene 4 11 18 -2.68819 0 11 -2.68819 0
gene 1 12 18 3.41438 0 12 3.41438 1
gene 1 13 18 0.202783 0 13 0.202783 1
gene 4 14 18 5.21379 0 14 5.21379 0
gene 1 15 18 4.68049 0 15 4.68049 1
gene 2 16 18 0.163732 0 16 0.163732 1
gene 3 17 18 4.13215 0 17 4.13215 0
gene 1 1 19 2.91585 0 18 2.91585 1
gene 3 2 19 4.68232 0 19 4.68232 1
gene 1 3 19 -2.35108 0 20 -2.35108 0
gene 1 4 19 -1.17308 0 21 -1.17308 1
gene 3 5 19 1.69815 0 22 1.69815 0
gene 2 6 19 1.56231 0 23 1.56231 1
gene 1 7 19 -4.46085 0 24 -4.46085 0
gene 3 8 19 2.40546 0 25 2.40546 1
gene 2 9 19 1.08103 0 26 1.08103 1
gene 4 10 19 -0.588271 0 27 -0.588271 0
gene 1 11 19 0.0881955 0 28 0.0881955 0
gene 2 12 19 -0.626306 0 29 -0.626306 0
gene 3 13 19 -4.67524 0 30 -4.67524 1
gene 3 14 19 -2.31645 0 31 -2.31645 0
gene 2 15 19 4.26116 0 32 4.26116 1
gene 1 16 19 4.32493 0 33 4.32493 1
gene 3 17 19 -5.03738 0 34 -5.03738 0
gene 3 1 20 -1.79931 0 35 -1.79931 1
gene 1 2 20 0.269057 0 36 0.269057 1
gene 2 3 20 -0.981624 0 37 -0.981624 0
gene 2 4 20 -2.54177 0 38 -2.54177 1
gene 4 5 20 1.36325 0 39 1.36325 1
gene 1 6 20 -0.0175732 0 40 -0.0175732 0
gene 1 7 20 -0.142699 0 41 -0.142699 1
gene 3 8 20 -1.13313 0 42 -1.13313 1
gene 4 9 20 7.26087 0 43 7.26087 1
gene 3 10 20 2.39726 0 44 2.39726 1
gene 3 11 20 -1.72814 0 45 -1.72814 0
gene 2 12 20 0.254232 0 46 0.254232 0
gene 4 13 20 -5.6002 0 47 -5.6002 1
gene 4 14 20 -4.45942 0 48 -4.45942 0
gene 3 15 20 2.85142 0 49 2.85142 0
gene 1 16 20 3.53419 0 50 3.53419 1
gene 2 17 20 6.58189 0 51 6.58189 1
gene 1 7 34 -2.208 0 85 -2.208 1
gene 1 34 19 -0.86374 0 86 -0.86374 0
gene 2 8 71 4.00737 0 175 4.00737 1
gene 1 15 71 2.73828 0 240 2.73828 1
gene 2 6 146 -0.948793 0 377 -0.948793 0
gene 2 146 19 -0.597127 0 378 -0.597127 1
gene 2 2 203 -2.43328 0 529 -2.43328 0
gene 2 203 18 1.76919 0 530 1.76919 1
gene 1 2 236 1.92561 0 613 1.92561 1
gene 1 236 19 3.6463 0 614 3.6463 1
gene 4 11 257 1.09225 0 677 1.09225 0
gene 4 257 20 -6.02301 0 678 -6.02301 1
gene 4 2 146 2.99194 0 750 2.99194 0
gene 2 16 316 -2.78901 0 832 -2.78901 0
gene 2 316 18 0.831184 0 833 0.831184 1
gene 1 14 146 -4.44372 0 926 -4.44372 1
gene 3 4 378 1.39888 0 998 1.39888 0
gene 3 378 18 1.98173 0 999 1.98173 0
gene 1 13 444 0.797358 0 1170 0.797358 1
gene 1 444 20 3.7998 0 1171 3.7998 1
gene 2 3 513 -1.53795 0 1338 -1.53795 1
gene 2 513 20 -7.54 0 1339 -7.54 1
gene 4 17 554 2.36645 0 1444 2.36645 0
gene 4 554 18 5.40323 0 1445 5.40323 1
gene 1 3 666 -2.63977 0 1729 -2.63977 1
gene 1 666 19 -2.07172 0 1730 -2.07172 1
gene 3 71 146 5.14582 0 1807 5.14582 1
gene 3 378 799 -2.04837 0 2054 -2.04837 1
gene 3 799 18 3.32758 0 2055 3.32758 1
gene 1 15 899 8 0 2304 8 0
gene 1 899 20 -1.45055 0 2305 -1.45055 1
gene 4 17 923 5.36283 0 2363 5.36283 1
gene 4 923 554 6.56711 0 2364 6.56711 1
gene 2 513 554 1.22136 0 2459 1.22136 1
gene 4 7 1006 -0.433651 0 2556 -0.433651 1
gene 4 1006 18 7.60991 0 2557 7.60991 1
gene 4 14 1046 -1.77822 0 2661 -1.77822 1
gene 4 1046 18 0.897823 0 2662 0.897823 0
gene 4 1046 1094 2.77802 0 2785 2.77802 0
gene 4 1094 18 -0.945105 0 2786 -0.945105 1
gene 1 257 257 -7.04951 1 2874 -7.04951 1
gene 4 14 1168 1.42372 0 2970 1.42372 1
gene 4 1168 20 0.991777 0 2971 0.991777 1
gene 4 378 378 8 1 3063 8 1
gene 3 5 444 -1.0743 0 3165 -1.0743 1
gene 4 2 1277 0.588624 0 3244 0.588624 1
gene 4 1277 146 1.51578 0 3245 1.51578 1
gene 3 236 34 -7.33398 0 3426 -7.33398 1
gene 3 5 1386 -0.403256 0 3521 -0.403256 0
gene 3 1386 19 1.56315 0 3522 1.56315 1
gene 3 5 1423 2.61809 0 3611 2.61809 0
gene 3 1423 1386 -3.65256 0 3612 -3.65256 1
gene 4 11 1462 -2.93019 0 3706 -2.93019 1
gene 4 1462 257 -1.90911 0 3707 -1.90911 1
gene 2 6 1499 0.424723 0 3793 0.424723 1
gene 2 1499 146 -1.9964 0 3794 -1.9964 1
gene 4 34 34 -8 1 3887 -8 0
gene 2 17 799 0.69252 0 3972 0.69252 1
gene 1 13 899 -0.290014 0 4047 -0.290014 1
gene 4 1423 899 -2.46148 0 4145 -2.46148 1
gene 1 799 799 4.03159 1 4232 4.03159 1
gene 3 4 1702 -0.842458 0 4315 -0.842458 1
gene 3 1702 378 -2.86422 0 4316 -2.86422 1
gene 4 34 1735 -1.1541 1 4399 -1.1541 1
gene 4 1735 34 -0.6166 0 4400 -0.6166 1
gene 1 34 1779 3.17982 0 4507 3.17982 1
gene 1 1779 19 -2.81327 0 4508 -2.81327 1
gene 1 1386 799 1.17371 0 4597 1.17371 1
gene 3 444 1168 5.52457 0 4695 5.52457 1
gene 4 10 1886 1.40648 0 4775 1.40648 1
gene 4 1886 19 -2.02667 0 4776 -2.02667 1
gene 1 7 1983 5.08697 0 5028 5.08697 1
gene 1 1983 19 3.29211 0 5029 3.29211 1
gene 3 14 2019 -4.02561 0 5120 -4.02561 1
gene 3 2019 19 -1.56433 0 5121 -1.56433 1
gene 1 6 2088 -1.07538 0 5302 -1.07538 1
gene 1 2088 20 2.02444 0 5303 2.02444 1
gene 1 15 2124 1.05935 0 5395 1.05935 1
gene 1 2124 899 8 0 5396 8 1
gene 1 9 2166 3.32591 0 5499 3.32591 1
gene 1 2166 18 -1.34403 0 5500 -1.34403 1
gene 3 554 1983 -8 0 5589 -8 1
gene 4 1046 2235 -0.143715 0 5668 -0.143715 1
gene 4 2235 1094 -2.86434 0 5669 -2.86434 1
gene 2 1168 1168 8 1 5751 8 1
gene 4 11 2293 -1.69103 0 5825 -1.69103 1
gene 4 2293 18 -2.29592 0 5826 -2.29592 1
gene 2 16 2333 0.735903 0 5923 0.735903 1
gene 2 2333 316 -1.8346 0 5924 -1.8346 1
gene 3 5 2366 2.35923 0 6003 2.35923 1
gene 3 2366 1423 -0.146759 0 6004 -0.146759 1
gene 2 2 2396 1.08093 0 6088 1.08093 1
gene 2 2396 203 -4.68091 0 6089 -4.68091 1
gene 2 2235 2235 81916 1 6277 81916 1
gene 3 1 666 27714 0 6367 27714 1
genomeend 6

/* Species #95 : (Size 1) (AF 60) (Age 41)  */


/* Organism #7 Fitness: 60 Error: 0 */

/* Position #7*/
#1 x: 67 y: 65
#2 x: 49 y: 31
#3 x: 83 y: 75
#4 x: 60 y: 36
#5 x: 50 y: 24
#6 x: 51 y: 52
genomestart 7
trait 1 1 0 0 0 0 0 0 0 
trait 2 2 0 64334 0 0 0 57640 0 
trait 3 3 0 0 0 0 0 0 0 
trait 4 4 0 0 0 0 0 0 0 
node 1 1 1 3
node 2 3 1 1
node 3 3 1 1
node 4 4 1 1
node 5 2 1 1
node 6 3 1 1
node 7 1 1 1
node 8 1 1 1
node 9 2 1 1
node 10 1 1 1
node 11 4 1 1
node 12 4 1 1
node 13 2 1 1
node 14 3 1 1
node 15 2 1 1
node 16 1 1 1
node 17 4 1 1
node 18 2 0 2
node 19 4 0 2
node 20 1 0 2
node 63 1 0 0
node 108 1 0 0
node 144 1 0 0
node 171 1 0 0
node 189 1 0 0
node 230 1 0 0
node 280 1 0 0
node 307 1 0 0
node 340 1 0 0
node 372 1 0 0
node 416 1 0 0
node 442 1 0 0
node 480 1 0 0
node 772 1 0 0
node 808 1 0 0
node 882 1 0 0
node 908 1 0 0
node 999 1 0 0
node 1027 1 0 0
node 1080 1 0 0
node 1135 1 0 0
node 1210 1 0 0
node 1405 1 0 0
node 1486 1 0 0
node 1537 1 0 0
node 1586 1 0 0
node 1671 1 0 0
node 1741 1 0 0
node 1855 1 0 0
node 1947 1 0 0
node 1984 1 0 0
node 2020 1 0 0
node 2090 1 0 0
node 2125 1 0 0
node 2294 1 0 0
node 2335 1 0 0
node 2436 1 0 0
node 2503 1 0 0
gene 1 1 18 -0.508389 0 1 -0.508389 1
gene 3 2 18 1.54351 0 2 1.54351 1
gene 3 3 18 -1.90792 0 3 -1.90792 0
gene 3 4 18 5.14537 0 4 5.14537 0
gene 2 5 18 2.31025 0 5 2.31025 0
gene 3 6 18 3.59844 0 6 3.59844 0
gene 1 7 18 -2.62629 0 7 -2.62629 1
gene 3 8 8 -4.85566 0 8 -4.85566 0
gene 2 9 18 1.07958 0 9 1.07958 0
gene 3 10 18 -1.0341 0 10 -1.0341 1
gene 4 11 18 0.381919 0 11 0.381919 1
gene 4 12 18 0.406313 0 12 0.406313 0
gene 4 13 18 -1.49755 0 13 -1.49755 1
gene 1 14 18 -6.08108 0 14 -6.08108 1
gene 2 15 18 -4.75101 0 15 -4.75101 1
gene 4 16 18 -8 0 16 -8 1
gene 2 17 18 -0.324897 0 17 -0.324897 0
gene 1 1 19 6.80148 0 18 6.80148 1
gene 3 2 19 -0.180504 0 19 -0.180504 1
gene 2 3 19 -1.63397 0 20 -1.63397 1
gene 1 4 19 -4.89718 0 21 -4.89718 1
gene 4 5 19 -1.54484 0 22 -1.54484 0
gene 2 6 19 1.25552 0 23 1.25552 0
gene 3 7 19 -3.6008 0 24 -3.6008 1
gene 2 8 19 -4.54729 0 25 -4.54729 0
gene 4 9 19 -3.24991 0 26 -3.24991 0
gene 2 10 19 -2.18782 0 27 -2.18782 1
gene 2 11 19 -2.5331 0 28 -2.5331 1
gene 3 12 19 -1.22184 0 29 -1.22184 0
gene 4 13 19 -1.6149 0 30 -1.6149 1
gene 3 14 19 2.58264 0 31 2.58264 1
gene 4 15 19 -0.377497 0 32 -0.377497 1
gene 2 16 19 -5.99629 0 33 -5.99629 1
gene 4 17 19 -3.53417 0 34 -3.53417 1
gene 3 1 20 -4.89506 0 35 -4.89506 1
gene 2 2 20 -2.99904 0 36 -2.99904 1
gene 4 3 20 8 0 37 8 0
gene 1 4 20 -3.77746 0 38 -3.77746 1
gene 3 5 20 -3.39787 0 39 -3.39787 1
gene 3 6 20 0.723733 0 40 0.723733 0
gene 3 7 20 -8 0 41 -8 0
gene 4 8 20 0.544603 0 42 0.544603 1
gene 1 9 20 -0.723416 0 43 -0.723416 1
gene 1 10 20 -2.23546 0 44 -2.23546 1
gene 2 11 20 -0.773726 0 45 -0.773726 1
gene 1 12 20 -3.33176 0 46 -3.33176 1
gene 3 13 20 2.12896 0 47 2.12896 0
gene 2 14 20 -2.67302 0 48 -2.67302 0
gene 1 15 20 6.13592 0 49 6.13592 0
gene 3 16 20 -1.0515 0 50 -1.0515 1
gene 4 17 20 3.5038 0 51 3.5038 0
gene 2 18 20 3.87286 0 77 3.87286 1
gene 4 5 63 1.11475 0 150 1.11475 0
gene 4 63 19 -1.97209 0 151 -1.97209 1
gene 1 7 63 5.46447 0 205 5.46447 1
gene 2 17 108 -4.73535 0 267 -4.73535 1
gene 2 108 18 -6.83404 0 268 -6.83404 1
gene 4 3 144 2.2125 0 371 2.2125 1
gene 4 144 20 2.91614 0 372 2.91614 1
gene 3 8 171 3.32147 0 447 3.32147 1
gene 2 7 189 1.40557 0 492 1.40557 1
gene 3 189 20 -7.85346 0 493 -7.85346 0
gene 2 5 230 3.69539 0 595 3.69539 1
gene 2 230 18 -6.56454 0 596 -6.56454 1
gene 3 7 280 0.669424 0 735 0.669424 1
gene 3 280 20 -3.67351 0 736 -3.67351 1
gene 2 16 307 -0.948629 0 810 -0.948629 1
gene 2 307 19 1.05045 0 811 1.05045 1
gene 1 15 340 5.13479 0 890 5.13479 1
gene 1 340 20 -0.546964 0 891 -0.546964 1
gene 4 5 372 -1.40476 0 983 -1.40476 0
gene 4 372 63 3.30907 0 984 3.30907 1
gene 4 144 416 -1.38721 0 1086 -1.38721 1
gene 4 416 20 1.69684 0 1087 1.69684 1
gene 3 12 442 -2.70044 0 1160 -2.70044 1
gene 3 442 19 -5.69077 0 1161 -5.69077 1
gene 3 3 480 -2.59494 0 1257 -2.59494 1
gene 3 480 18 0.974423 0 1258 0.974423 1
gene 4 19 372 8 1 1489 8 1
gene 1 480 480 -5.92166 1 1755 -5.92166 1
gene 1 108 480 -0.214454 0 1911 -0.214454 0
gene 1 10 772 3.26001 0 1984 3.26001 0
gene 1 772 20 6.303 0 1985 6.303 1
gene 4 13 808 5.30074 0 2077 5.30074 1
gene 4 808 18 1.7118 0 2078 1.7118 1
gene 2 14 882 5.83015 0 2260 5.83015 1
gene 2 882 20 0.296205 0 2261 0.296205 1
gene 4 19 908 6.10366 1 2326 6.10366 1
gene 4 908 372 2.82214 0 2327 2.82214 1
gene 2 6 999 1.60829 0 2541 1.60829 1
gene 2 999 19 -7.4042 0 2542 -7.4042 1
gene 4 17 1027 -1.60149 0 2614 -1.60149 1
gene 3 1027 20 -0.000948338 0 2615 -0.000948338 1
gene 4 9 1080 8 0 2748 8 1
gene 4 1080 19 -3.92632 0 2749 -3.92632 1
gene 3 6 1135 -4.51688 0 2887 -4.51688 1
gene 3 1135 20 -3.78474 0 2888 -3.78474 1
gene 1 882 372 1.50337 0 2984 1.50337 1
gene 3 10 1210 2.55004 0 3074 2.55004 1
gene 3 1210 18 -3.29909 0 3075 -3.29909 0
gene 1 144 19 4.45066 0 3172 4.45066 1
gene 3 1 1080 4.71609 0 3435 4.71609 1
gene 4 12 1405 2.7518 0 3564 2.7518 1
gene 4 1405 18 3.80856 0 3565 3.80856 0
gene 4 3 1486 -2.07197 0 3762 -2.07197 1
gene 4 1486 20 -1.73509 0 3763 -1.73509 1
gene 4 144 1537 2.76767 0 3890 2.76767 1
gene 4 1537 416 5.3283 0 3891 5.3283 1
gene 3 13 1586 4.58917 0 4016 4.58917 1
gene 3 1586 20 -2.79206 0 4017 -2.79206 1
gene 3 4 1671 -3.55414 0 4235 -3.55414 1
gene 3 1671 18 -1.49603 0 4236 -1.49603 1
gene 1 15 1210 6.27017 0 4320 6.27017 1
gene 3 2 1741 2.12975 0 4414 2.12975 1
gene 3 1741 19 2.06948 0 4415 2.06948 1
gene 2 14 480 -0.423902 0 4605 -0.423902 1
gene 2 9 1855 4.08485 0 4699 4.08485 1
gene 2 1855 18 0.273742 0 4700 0.273742 1
gene 1 108 1741 -8 0 4780 -8 1
gene 1 108 1947 5.18551 0 4937 5.18551 1
gene 1 1947 480 2.55264 0 4938 2.55264 1
gene 2 14 1984 4.01818 0 5032 4.01818 1
gene 2 1984 20 -5.42635 0 5033 -5.42635 1
gene 4 1405 2020 2.87184 0 5123 2.87184 1
gene 4 2020 18 1.21369 0 5124 1.21369 1
gene 3 1984 340 -7.82618 0 5205 -7.82618 1
gene 4 5 2090 7.4472 0 5306 7.4472 1
gene 4 2090 372 -1.76066 0 5307 -1.76066 1
gene 1 10 2125 -1.6624 0 5399 -1.6624 1
gene 1 2125 772 0.984609 0 5400 0.984609 1
gene 3 1 171 0.673829 0 5752 0.673829 1
gene 2 8 2294 -2.39199 0 5827 -2.39199 1
gene 2 2294 19 -8 0 5828 -8 1
gene 3 1210 2335 1.85384 0 5928 1.85384 1
gene 3 2335 18 2.1282 0 5929 2.1282 1
gene 3 6 2436 0.665718 0 6186 0.665718 0
gene 3 2436 18 4.6087 0 6187 4.6087 1
gene 3 6 2503 1 0 6368 0 1
gene 3 2503 2436 0.665718 0 6369 0 1
genomeend 7

/* Species #97 : (Size 4) (AF 135) (Age 41)  */


/* Organism #8 Fitness: 100 Error: 0 */

/* Position #8*/
#1 x: 60 y: 39
#2 x: 41 y: 75
#3 x: 68 y: 85
#4 x: 73 y: 75
#5 x: 66 y: 16
#6 x: 67 y: 73
genomestart 8
trait 1 43982 38565 0 29507 0 0 0 0 
trait 2 2 0 0 0 0 0 0 0 
trait 3 70585 0 0 13487 0 68301 0 0 
trait 4 4 0 0 0 0 0 0 0 
node 1 1 1 3
node 2 4 1 1
node 3 3 1 1
node 4 3 1 1
node 5 3 1 1
node 6 1 1 1
node 7 2 1 1
node 8 4 1 1
node 9 4 1 1
node 10 2 1 1
node 11 4 1 1
node 12 3 1 1
node 13 4 1 1
node 14 3 1 1
node 15 3 1 1
node 16 1 1 1
node 17 3 1 1
node 18 2 0 2
node 19 1 0 2
node 20 1 0 2
node 34 1 0 0
node 71 1 0 0
node 146 1 0 0
node 203 1 0 0
node 236 1 0 0
node 257 1 0 0
node 316 1 0 0
node 378 1 0 0
node 444 1 0 0
node 513 1 0 0
node 554 1 0 0
node 666 1 0 0
node 799 1 0 0
node 899 1 0 0
node 923 1 0 0
node 1006 1 0 0
node 1095 1 0 0
node 1173 1 0 0
node 1203 1 0 0
node 1251 1 0 0
node 1283 1 0 0
node 1365 1 0 0
node 1427 1 0 0
node 1503 1 0 0
node 1599 1 0 0
node 1643 1 0 0
node 1673 1 0 0
node 1985 1 0 0
node 2052 1 0 0
node 2091 1 0 0
node 2128 1 0 0
node 2167 1 0 0
node 2203 1 0 0
node 2336 1 0 0
node 2369 1 0 0
node 2397 1 0 0
node 2439 1 0 0
gene 4 1 18 1.30107 0 1 1.30107 1
gene 2 2 18 -1.86664 0 2 -1.86664 0
gene 2 3 18 -1.29708 0 3 -1.29708 0
gene 3 4 18 -0.238394 0 4 -0.238394 0
gene 3 5 18 -2.96342 0 5 -2.96342 1
gene 3 6 18 -6.90914 0 6 -6.90914 1
gene 4 7 18 1.70404 0 7 1.70404 1
gene 3 8 8 1.86443 0 8 1.86443 1
gene 1 9 18 -4.19289 0 9 -4.19289 1
gene 2 10 18 -2.75287 0 10 -2.75287 1
gene 4 11 18 -8 0 11 -8 1
gene 4 12 18 -1.73074 0 12 -1.73074 1
gene 1 13 18 -0.47675 0 13 -0.47675 1
gene 4 14 18 -3.32613 0 14 -3.32613 1
gene 1 15 18 -5.10616 0 15 -5.10616 1
gene 2 16 18 -1.20757 0 16 -1.20757 0
gene 3 17 18 1.28974 0 17 1.28974 0
gene 1 1 19 -8 0 18 -8 1
gene 3 2 19 -1.45462 0 19 -1.45462 1
gene 1 3 19 -1.542 0 20 -1.542 1
gene 1 4 19 -4.16587 0 21 -4.16587 1
gene 3 5 19 -0.546734 0 22 -0.546734 0
gene 2 6 19 3.76324 0 23 3.76324 1
gene 1 7 19 -1.64679 0 24 -1.64679 1
gene 3 8 19 0.661218 0 25 0.661218 0
gene 2 9 19 -4.37871 0 26 -4.37871 1
gene 4 10 19 0.561899 0 27 0.561899 1
gene 1 11 19 -1.15957 0 28 -1.15957 0
gene 2 12 19 -2.12477 0 29 -2.12477 0
gene 3 13 19 1.2509 0 30 1.2509 1
gene 3 14 19 -0.720266 0 31 -0.720266 1
gene 2 15 19 6.62325 0 32 6.62325 1
gene 1 16 19 0.77734 0 33 0.77734 1
gene 3 17 19 -0.381094 0 34 -0.381094 1
gene 3 1 20 0.958145 0 35 0.958145 1
gene 1 2 20 -6.69956 0 36 -6.69956 1
gene 2 3 20 1.80764 0 37 1.80764 0
gene 2 4 20 2.6969 0 38 2.6969 1
gene 4 5 20 0.44476 0 39 0.44476 0
gene 1 6 20 2.55981 0 40 2.55981 1
gene 1 7 20 3.61887 0 41 3.61887 1
gene 3 8 20 -0.804325 0 42 -0.804325 1
gene 4 9 20 2.93526 0 43 2.93526 1
gene 3 10 20 -2.36094 0 44 -2.36094 0
gene 3 11 20 0.678035 0 45 0.678035 0
gene 2 12 20 1.21809 0 46 1.21809 0
gene 4 13 20 2.29899 0 47 2.29899 1
gene 4 14 20 -0.695372 0 48 -0.695372 1
gene 3 15 20 2.84856 0 49 2.84856 1
gene 1 16 20 5.40782 0 50 5.40782 1
gene 2 17 20 -0.0128735 0 51 -0.0128735 1
gene 1 7 34 4.14314 0 85 4.14314 1
gene 1 34 19 -5.93974 0 86 -5.93974 1
gene 2 8 71 1.65096 0 175 1.65096 0
gene 1 15 71 0.719159 0 240 0.719159 1
gene 2 6 146 -2.32338 0 377 -2.32338 1
gene 2 146 19 -6.65956 0 378 -6.65956 1
gene 2 2 203 -2.12962 0 529 -2.12962 1
gene 2 203 18 3.242 0 530 3.242 0
gene 1 2 236 -2.0766 0 613 -2.0766 1
gene 1 236 19 -0.692363 0 614 -0.692363 0
gene 4 11 257 0.685661 0 677 0.685661 1
gene 4 257 20 -4.13449 0 678 -4.13449 1
gene 4 2 146 -0.412943 0 750 -0.412943 1
gene 2 16 316 -3.83485 0 832 -3.83485 0
gene 2 316 18 -1.61812 0 833 -1.61812 1
gene 1 14 146 0.285023 0 926 0.285023 1
gene 3 4 378 1.90742 0 998 1.90742 1
gene 3 378 18 2.30304 0 999 2.30304 0
gene 1 13 444 0.913653 0 1170 0.913653 1
gene 1 444 20 -4.04004 0 1171 -4.04004 1
gene 2 3 513 -0.0606937 0 1338 -0.0606937 1
gene 2 513 20 -2.36562 0 1339 -2.36562 0
gene 4 17 554 -0.472737 0 1444 -0.472737 0
gene 4 554 18 1.96707 0 1445 1.96707 1
gene 1 3 666 -8 0 1729 -8 1
gene 1 666 19 1.62126 0 1730 1.62126 1
gene 3 71 146 -2.21225 0 1807 -2.21225 1
gene 3 378 799 0.200514 0 2054 0.200514 0
gene 3 799 18 -2.25798 0 2055 -2.25798 1
gene 1 15 899 2.167 0 2304 2.167 1
gene 1 899 20 3.64649 0 2305 3.64649 0
gene 4 17 923 -0.188274 0 2363 -0.188274 1
gene 4 923 554 6.26009 0 2364 6.26009 1
gene 2 513 554 -0.965842 0 2459 -0.965842 1
gene 4 7 1006 -2.74409 0 2556 -2.74409 1
gene 4 1006 18 4.75844 0 2557 4.75844 1
gene 3 10 1095 3.91715 0 2787 3.91715 1
gene 3 1095 20 1.83302 0 2788 1.83302 1
gene 4 923 1173 5.64314 0 2985 5.64314 1
gene 4 1173 554 3.41861 0 2986 3.41861 1
gene 3 11 1203 3.29024 0 3056 3.29024 1
gene 3 1203 20 2.46441 0 3057 2.46441 1
gene 1 899 1251 2.74057 0 3175 2.74057 1
gene 1 1251 20 -1.78185 0 3176 -1.78185 1
gene 2 203 1283 -7.86053 0 3259 -7.86053 1
gene 2 1283 18 -1.69816 0 3260 -1.69816 0
gene 4 5 1365 -2.90153 0 3478 -2.90153 1
gene 4 1365 20 1.13909 0 3479 1.13909 1
gene 2 1283 1427 -4.76736 0 3620 -4.76736 1
gene 2 1427 18 -3.08328 0 3621 -3.08328 1
gene 2 7 316 -2.18042 0 3712 -2.18042 1
gene 2 16 1503 2.11098 0 3802 2.11098 1
gene 2 1503 18 -1.63838 0 3803 -1.63838 1
gene 2 8 1599 -2.94913 0 4045 -2.94913 1
gene 2 1599 71 1.92101 0 4046 1.92101 1
gene 3 378 1643 1.54363 0 4156 1.54363 1
gene 3 1643 799 -3.81611 0 4157 -3.81611 1
gene 1 899 1673 -4.41899 0 4240 -4.41899 1
gene 1 1673 20 -2.10433 0 4241 -2.10433 1
gene 2 899 18 -0.985166 0 4321 -0.985166 1
gene 4 17 1006 -1.06805 0 4417 -1.06805 1
gene 4 17 1427 0.36886 0 4781 0.36886 1
gene 3 11 1673 -7.0459 0 4854 -7.0459 1
gene 3 8 1985 1.33374 0 5034 1.33374 1
gene 3 1985 19 1.14048 0 5035 1.14048 0
gene 2 20 1503 8 0 5125 8 1
gene 1 236 2052 0.333136 0 5212 0.333136 1
gene 1 2052 19 2.02931 0 5213 2.02931 0
gene 1 11 2091 3.0356 0 5308 3.0356 1
gene 1 2091 19 0.35627 0 5309 0.35627 1
gene 1 2052 2128 2.8737 0 5405 2.8737 1
gene 1 2128 19 -0.222408 0 5406 -0.222408 1
gene 3 5 2167 2.25896 0 5504 2.25896 1
gene 3 2167 19 1.69989 0 5505 1.69989 1
gene 3 4 2203 -1.67759 0 5592 -1.67759 1
gene 3 2203 18 1.80907 0 5593 1.80907 1
gene 3 6 899 -8 0 5670 -8 1
gene 4 923 1503 -8 0 5755 -8 1
gene 2 3 2336 1 0 5930 0 1
gene 2 2336 18 -1.29708 0 5931 0 1
gene 3 1985 2369 1 0 6010 0 1
gene 3 2369 19 1.14048 0 6011 0 1
gene 2 513 2397 1 0 6092 0 1
gene 2 2397 20 -2.36562 0 6093 0 1
gene 2 16 2439 1 0 6193 0 1
gene 2 2439 316 -3.83485 0 6194 0 1
gene 3 2 2091 80412 0 6280 80412 1
genomeend 8

/* Organism #9 Fitness: 380 Error: 0 */

/* Position #9*/
#1 x: 60 y: 39
#2 x: 41 y: 75
#3 x: 68 y: 85
#4 x: 73 y: 75
#5 x: 66 y: 16
#6 x: 67 y: 73
genomestart 9
trait 1 43982 38565 0 29507 0 0 0 0 
trait 2 2 0 0 0 0 0 0 0 
trait 3 70585 0 0 13487 0 68301 0 0 
trait 4 4 0 0 0 0 0 0 0 
node 1 1 1 3
node 2 4 1 1
node 3 3 1 1
node 4 3 1 1
node 5 3 1 1
node 6 1 1 1
node 7 2 1 1
node 8 4 1 1
node 9 4 1 1
node 10 2 1 1
node 11 4 1 1
node 12 3 1 1
node 13 4 1 1
node 14 3 1 1
node 15 3 1 1
node 16 1 1 1
node 17 3 1 1
node 18 2 0 2
node 19 1 0 2
node 20 1 0 2
node 34 1 0 0
node 71 1 0 0
node 146 1 0 0
node 203 1 0 0
node 236 1 0 0
node 257 1 0 0
node 316 1 0 0
node 378 1 0 0
node 444 1 0 0
node 513 1 0 0
node 554 1 0 0
node 666 1 0 0
node 799 1 0 0
node 899 1 0 0
node 923 1 0 0
node 1006 1 0 0
node 1095 1 0 0
node 1173 1 0 0
node 1203 1 0 0
node 1251 1 0 0
node 1283 1 0 0
node 1365 1 0 0
node 1427 1 0 0
node 1503 1 0 0
node 1599 1 0 0
node 1643 1 0 0
node 1673 1 0 0
node 1985 1 0 0
node 2052 1 0 0
node 2091 1 0 0
node 2128 1 0 0
node 2167 1 0 0
node 2203 1 0 0
node 2336 1 0 0
node 2369 1 0 0
node 2397 1 0 0
node 2439 1 0 0
gene 4 1 18 1.30107 0 1 1.30107 1
gene 2 2 18 -1.86664 0 2 -1.86664 0
gene 2 3 18 -1.29708 0 3 -1.29708 0
gene 3 4 18 -0.238394 0 4 -0.238394 0
gene 3 5 18 -2.96342 0 5 -2.96342 1
gene 3 6 18 -6.90914 0 6 -6.90914 1
gene 4 7 18 1.70404 0 7 1.70404 1
gene 3 8 8 1.86443 0 8 1.86443 1
gene 1 9 18 -4.19289 0 9 -4.19289 1
gene 2 10 18 -2.75287 0 10 -2.75287 1
gene 4 11 18 -8 0 11 -8 1
gene 4 12 18 -1.73074 0 12 -1.73074 1
gene 1 13 18 -0.47675 0 13 -0.47675 1
gene 4 14 18 -3.32613 0 14 -3.32613 1
gene 1 15 18 -5.10616 0 15 -5.10616 1
gene 2 16 18 -1.20757 0 16 -1.20757 0
gene 3 17 18 1.28974 0 17 1.28974 0
gene 1 1 19 -8 0 18 -8 1
gene 3 2 19 -1.45462 0 19 -1.45462 1
gene 1 3 19 -1.542 0 20 -1.542 1
gene 1 4 19 -4.16587 0 21 -4.16587 1
gene 3 5 19 -0.546734 0 22 -0.546734 0
gene 2 6 19 3.76324 0 23 3.76324 1
gene 1 7 19 -1.64679 0 24 -1.64679 1
gene 3 8 19 0.661218 0 25 0.661218 0
gene 2 9 19 -4.37871 0 26 -4.37871 1
gene 4 10 19 0.561899 0 27 0.561899 1
gene 1 11 19 -1.15957 0 28 -1.15957 0
gene 2 12 19 -2.12477 0 29 -2.12477 0
gene 3 13 19 1.2509 0 30 1.2509 1
gene 3 14 19 -0.720266 0 31 -0.720266 1
gene 2 15 19 6.62325 0 32 6.62325 1
gene 1 16 19 0.77734 0 33 0.77734 1
gene 3 17 19 -0.381094 0 34 -0.381094 1
gene 3 1 20 0.958145 0 35 0.958145 1
gene 1 2 20 -6.69956 0 36 -6.69956 1
gene 2 3 20 1.80764 0 37 1.80764 0
gene 2 4 20 2.6969 0 38 2.6969 1
gene 4 5 20 0.44476 0 39 0.44476 0
gene 1 6 20 2.55981 0 40 2.55981 1
gene 1 7 20 3.61887 0 41 3.61887 1
gene 3 8 20 -0.804325 0 42 -0.804325 1
gene 4 9 20 2.93526 0 43 2.93526 1
gene 3 10 20 -2.36094 0 44 -2.36094 0
gene 3 11 20 0.678035 0 45 0.678035 0
gene 2 12 20 1.21809 0 46 1.21809 0
gene 4 13 20 2.29899 0 47 2.29899 1
gene 4 14 20 -0.695372 0 48 -0.695372 1
gene 3 15 20 2.84856 0 49 2.84856 1
gene 1 16 20 5.40782 0 50 5.40782 1
gene 2 17 20 -0.0128735 0 51 -0.0128735 1
gene 1 7 34 4.14314 0 85 4.14314 1
gene 1 34 19 -5.93974 0 86 -5.93974 1
gene 2 8 71 1.65096 0 175 1.65096 0
gene 1 15 71 0.719159 0 240 0.719159 1
gene 2 6 146 -2.32338 0 377 -2.32338 1
gene 2 146 19 -6.65956 0 378 -6.65956 1
gene 2 2 203 -2.12962 0 529 -2.12962 1
gene 2 203 18 3.242 0 530 3.242 0
gene 1 2 236 -2.0766 0 613 -2.0766 1
gene 1 236 19 -0.692363 0 614 -0.692363 0
gene 4 11 257 0.685661 0 677 0.685661 1
gene 4 257 20 -4.13449 0 678 -4.13449 1
gene 4 2 146 -0.412943 0 750 -0.412943 1
gene 2 16 316 -3.83485 0 832 -3.83485 0
gene 2 316 18 -1.61812 0 833 -1.61812 1
gene 1 14 146 0.285023 0 926 0.285023 1
gene 3 4 378 1.90742 0 998 1.90742 1
gene 3 378 18 2.30304 0 999 2.30304 0
gene 1 13 444 0.913653 0 1170 0.913653 1
gene 1 444 20 -4.04004 0 1171 -4.04004 1
gene 2 3 513 -0.0606937 0 1338 -0.0606937 1
gene 2 513 20 -2.36562 0 1339 -2.36562 0
gene 4 17 554 -0.472737 0 1444 -0.472737 0
gene 4 554 18 1.96707 0 1445 1.96707 1
gene 1 3 666 -8 0 1729 -8 1
gene 1 666 19 1.62126 0 1730 1.62126 1
gene 3 71 146 -2.21225 0 1807 -2.21225 1
gene 3 378 799 0.200514 0 2054 0.200514 0
gene 3 799 18 -2.25798 0 2055 -2.25798 1
gene 1 15 899 2.167 0 2304 2.167 1
gene 1 899 20 3.64649 0 2305 3.64649 0
gene 4 17 923 -0.188274 0 2363 -0.188274 1
gene 4 923 554 6.26009 0 2364 6.26009 1
gene 2 513 554 -0.965842 0 2459 -0.965842 1
gene 4 7 1006 -2.74409 0 2556 -2.74409 1
gene 4 1006 18 4.75844 0 2557 4.75844 1
gene 3 10 1095 3.91715 0 2787 3.91715 1
gene 3 1095 20 1.83302 0 2788 1.83302 1
gene 4 923 1173 5.64314 0 2985 5.64314 1
gene 4 1173 554 3.41861 0 2986 3.41861 1
gene 3 11 1203 3.29024 0 3056 3.29024 1
gene 3 1203 20 2.46441 0 3057 2.46441 1
gene 1 899 1251 2.74057 0 3175 2.74057 1
gene 1 1251 20 -1.78185 0 3176 -1.78185 1
gene 2 203 1283 -7.86053 0 3259 -7.86053 1
gene 2 1283 18 -1.69816 0 3260 -1.69816 0
gene 4 5 1365 -2.90153 0 3478 -2.90153 1
gene 4 1365 20 1.13909 0 3479 1.13909 1
gene 2 1283 1427 -4.76736 0 3620 -4.76736 1
gene 2 1427 18 -3.08328 0 3621 -3.08328 1
gene 2 7 316 -2.18042 0 3712 -2.18042 1
gene 2 16 1503 2.11098 0 3802 2.11098 1
gene 2 1503 18 -1.63838 0 3803 -1.63838 1
gene 2 8 1599 -2.94913 0 4045 -2.94913 1
gene 2 1599 71 1.92101 0 4046 1.92101 1
gene 3 378 1643 1.54363 0 4156 1.54363 1
gene 3 1643 799 -3.81611 0 4157 -3.81611 1
gene 1 899 1673 -4.41899 0 4240 -4.41899 1
gene 1 1673 20 -2.10433 0 4241 -2.10433 1
gene 2 899 18 -0.985166 0 4321 -0.985166 1
gene 4 17 1006 -1.06805 0 4417 -1.06805 1
gene 4 17 1427 0.36886 0 4781 0.36886 1
gene 3 11 1673 -7.0459 0 4854 -7.0459 1
gene 3 8 1985 1.33374 0 5034 1.33374 1
gene 3 1985 19 1.14048 0 5035 1.14048 0
gene 2 20 1503 8 0 5125 8 1
gene 1 236 2052 0.333136 0 5212 0.333136 1
gene 1 2052 19 2.02931 0 5213 2.02931 0
gene 1 11 2091 3.0356 0 5308 3.0356 1
gene 1 2091 19 0.35627 0 5309 0.35627 1
gene 1 2052 2128 2.8737 0 5405 2.8737 1
gene 1 2128 19 -0.222408 0 5406 -0.222408 1
gene 3 5 2167 2.25896 0 5504 2.25896 1
gene 3 2167 19 1.69989 0 5505 1.69989 1
gene 3 4 2203 -1.67759 0 5592 -1.67759 1
gene 3 2203 18 1.80907 0 5593 1.80907 1
gene 3 6 899 -8 0 5670 -8 1
gene 4 923 1503 -8 0 5755 -8 1
gene 2 3 2336 1 0 5930 0 1
gene 2 2336 18 -1.29708 0 5931 0 1
gene 3 1985 2369 1 0 6010 0 1
gene 3 2369 19 1.14048 0 6011 0 1
gene 2 513 2397 1 0 6092 0 1
gene 2 2397 20 -2.36562 0 6093 0 1
gene 2 16 2439 1 0 6193 0 1
gene 2 2439 316 -3.83485 0 6194 0 1
gene 3 2 2091 80412 0 6280 80412 1
gene 3 1427 1427 -67191 1 6370 -67191 1
genomeend 9

/* Organism #10 Fitness: 60 Error: 0 */

/* Position #10*/
#1 x: 37 y: 80
#2 x: 15 y: 17
#3 x: 81 y: 50
#4 x: 19 y: 31
#5 x: 25 y: 55
#6 x: 20 y: 60
genomestart 10
trait 1 43982 38565 0 29507 0 0 0 0 
trait 2 2 0 0 0 0 0 0 0 
trait 3 70585 0 0 13487 0 68301 0 0 
trait 4 4 0 0 0 0 0 0 0 
node 1 1 1 3
node 2 4 1 1
node 3 3 1 1
node 4 3 1 1
node 5 3 1 1
node 6 1 1 1
node 7 2 1 1
node 8 4 1 1
node 9 4 1 1
node 10 2 1 1
node 11 4 1 1
node 12 3 1 1
node 13 4 1 1
node 14 3 1 1
node 15 3 1 1
node 16 1 1 1
node 17 3 1 1
node 18 2 0 2
node 19 1 0 2
node 20 1 0 2
node 34 1 0 0
node 71 1 0 0
node 146 1 0 0
node 203 1 0 0
node 236 1 0 0
node 257 1 0 0
node 316 1 0 0
node 378 1 0 0
node 444 1 0 0
node 513 1 0 0
node 554 1 0 0
node 666 1 0 0
node 799 1 0 0
node 899 1 0 0
node 923 1 0 0
node 1006 1 0 0
node 1095 1 0 0
node 1173 1 0 0
node 1203 1 0 0
node 1251 1 0 0
node 1283 1 0 0
node 1365 1 0 0
node 1427 1 0 0
node 1503 1 0 0
node 1599 1 0 0
node 1643 1 0 0
node 1673 1 0 0
node 1985 1 0 0
node 2052 1 0 0
node 2091 1 0 0
node 2128 1 0 0
node 2167 1 0 0
node 2203 1 0 0
node 2336 1 0 0
node 2369 1 0 0
node 2397 1 0 0
node 2439 1 0 0
node 2504 1 0 0
gene 4 1 18 1.30107 0 1 1.30107 1
gene 2 2 18 -1.86664 0 2 -1.86664 0
gene 2 3 18 -1.29708 0 3 -1.29708 0
gene 3 4 18 -0.238394 0 4 -0.238394 0
gene 3 5 18 -2.96342 0 5 -2.96342 1
gene 3 6 18 -6.90914 0 6 -6.90914 1
gene 4 7 18 1.70404 0 7 1.70404 1
gene 3 8 8 1.86443 0 8 1.86443 1
gene 1 9 18 -4.19289 0 9 -4.19289 1
gene 2 10 18 -2.75287 0 10 -2.75287 1
gene 4 11 18 -8 0 11 -8 1
gene 4 12 18 -1.73074 0 12 -1.73074 1
gene 1 13 18 -0.47675 0 13 -0.47675 1
gene 4 14 18 -3.32613 0 14 -3.32613 1
gene 1 15 18 -5.10616 0 15 -5.10616 1
gene 2 16 18 -1.20757 0 16 -1.20757 0
gene 3 17 18 1.28974 0 17 1.28974 0
gene 1 1 19 -8 0 18 -8 1
gene 3 2 19 -1.45462 0 19 -1.45462 1
gene 1 3 19 -1.542 0 20 -1.542 1
gene 1 4 19 -4.16587 0 21 -4.16587 1
gene 3 5 19 -0.546734 0 22 -0.546734 0
gene 2 6 19 3.76324 0 23 3.76324 1
gene 1 7 19 -1.64679 0 24 -1.64679 0
gene 3 8 19 0.661218 0 25 0.661218 0
gene 2 9 19 -4.37871 0 26 -4.37871 1
gene 4 10 19 0.561899 0 27 0.561899 1
gene 1 11 19 -1.15957 0 28 -1.15957 0
gene 2 12 19 -2.12477 0 29 -2.12477 0
gene 3 13 19 1.2509 0 30 1.2509 1
gene 3 14 19 -0.720266 0 31 -0.720266 1
gene 2 15 19 6.62325 0 32 6.62325 1
gene 1 16 19 0.77734 0 33 0.77734 1
gene 3 17 19 -0.381094 0 34 -0.381094 1
gene 3 1 20 0.958145 0 35 0.958145 1
gene 1 2 20 -6.69956 0 36 -6.69956 1
gene 2 3 20 1.80764 0 37 1.80764 0
gene 2 4 20 2.6969 0 38 2.6969 1
gene 4 5 20 0.44476 0 39 0.44476 0
gene 1 6 20 2.55981 0 40 2.55981 1
gene 1 7 20 3.61887 0 41 3.61887 1
gene 3 8 20 -0.804325 0 42 -0.804325 1
gene 4 9 20 2.93526 0 43 2.93526 1
gene 3 10 20 -2.36094 0 44 -2.36094 0
gene 3 11 20 0.678035 0 45 0.678035 0
gene 2 12 20 1.21809 0 46 1.21809 0
gene 4 13 20 2.29899 0 47 2.29899 1
gene 4 14 20 -0.695372 0 48 -0.695372 1
gene 3 15 20 2.84856 0 49 2.84856 1
gene 1 16 20 5.40782 0 50 5.40782 1
gene 2 17 20 -0.0128735 0 51 -0.0128735 1
gene 1 7 34 4.14314 0 85 4.14314 1
gene 1 34 19 -5.93974 0 86 -5.93974 1
gene 2 8 71 1.65096 0 175 1.65096 0
gene 1 15 71 0.719159 0 240 0.719159 1
gene 2 6 146 -2.32338 0 377 -2.32338 1
gene 2 146 19 -6.65956 0 378 -6.65956 1
gene 2 2 203 -2.12962 0 529 -2.12962 1
gene 2 203 18 3.242 0 530 3.242 0
gene 1 2 236 -2.0766 0 613 -2.0766 1
gene 1 236 19 -0.692363 0 614 -0.692363 0
gene 4 11 257 0.685661 0 677 0.685661 1
gene 4 257 20 -4.13449 0 678 -4.13449 1
gene 4 2 146 -0.412943 0 750 -0.412943 1
gene 2 16 316 -3.83485 0 832 -3.83485 0
gene 2 316 18 -1.61812 0 833 -1.61812 1
gene 1 14 146 0.285023 0 926 0.285023 1
gene 3 4 378 1.90742 0 998 1.90742 1
gene 3 378 18 2.30304 0 999 2.30304 0
gene 1 13 444 0.913653 0 1170 0.913653 1
gene 1 444 20 -4.04004 0 1171 -4.04004 1
gene 2 3 513 -0.0606937 0 1338 -0.0606937 1
gene 2 513 20 -2.36562 0 1339 -2.36562 0
gene 4 17 554 -0.472737 0 1444 -0.472737 0
gene 4 554 18 1.96707 0 1445 1.96707 1
gene 1 3 666 -8 0 1729 -8 1
gene 1 666 19 1.62126 0 1730 1.62126 1
gene 3 71 146 -2.21225 0 1807 -2.21225 1
gene 3 378 799 0.200514 0 2054 0.200514 0
gene 3 799 18 -2.25798 0 2055 -2.25798 1
gene 1 15 899 2.167 0 2304 2.167 1
gene 1 899 20 3.64649 0 2305 3.64649 0
gene 4 17 923 -0.188274 0 2363 -0.188274 1
gene 4 923 554 6.26009 0 2364 6.26009 1
gene 2 513 554 -0.965842 0 2459 -0.965842 1
gene 4 7 1006 -2.74409 0 2556 -2.74409 1
gene 4 1006 18 4.75844 0 2557 4.75844 1
gene 3 10 1095 3.91715 0 2787 3.91715 1
gene 3 1095 20 1.83302 0 2788 1.83302 1
gene 4 923 1173 5.64314 0 2985 5.64314 1
gene 4 1173 554 3.41861 0 2986 3.41861 1
gene 3 11 1203 3.29024 0 3056 3.29024 1
gene 3 1203 20 2.46441 0 3057 2.46441 1
gene 1 899 1251 2.74057 0 3175 2.74057 1
gene 1 1251 20 -1.78185 0 3176 -1.78185 1
gene 2 203 1283 -7.86053 0 3259 -7.86053 1
gene 2 1283 18 -1.69816 0 3260 -1.69816 0
gene 4 5 1365 -2.90153 0 3478 -2.90153 1
gene 4 1365 20 1.13909 0 3479 1.13909 1
gene 2 1283 1427 -4.76736 0 3620 -4.76736 1
gene 2 1427 18 -3.08328 0 3621 -3.08328 1
gene 2 7 316 -2.18042 0 3712 -2.18042 1
gene 2 16 1503 2.11098 0 3802 2.11098 1
gene 2 1503 18 -1.63838 0 3803 -1.63838 1
gene 2 8 1599 -2.94913 0 4045 -2.94913 1
gene 2 1599 71 1.92101 0 4046 1.92101 1
gene 3 378 1643 1.54363 0 4156 1.54363 1
gene 3 1643 799 -3.81611 0 4157 -3.81611 1
gene 1 899 1673 -4.41899 0 4240 -4.41899 1
gene 1 1673 20 -2.10433 0 4241 -2.10433 1
gene 2 899 18 -0.985166 0 4321 -0.985166 1
gene 4 17 1006 -1.06805 0 4417 -1.06805 1
gene 4 17 1427 0.36886 0 4781 0.36886 1
gene 3 11 1673 -7.0459 0 4854 -7.0459 1
gene 3 8 1985 1.33374 0 5034 1.33374 1
gene 3 1985 19 1.14048 0 5035 1.14048 0
gene 2 20 1503 8 0 5125 8 1
gene 1 236 2052 0.333136 0 5212 0.333136 1
gene 1 2052 19 2.02931 0 5213 2.02931 0
gene 1 11 2091 3.0356 0 5308 3.0356 1
gene 1 2091 19 0.35627 0 5309 0.35627 1
gene 1 2052 2128 2.8737 0 5405 2.8737 1
gene 1 2128 19 -0.222408 0 5406 -0.222408 1
gene 3 5 2167 2.25896 0 5504 2.25896 1
gene 3 2167 19 1.69989 0 5505 1.69989 1
gene 3 4 2203 -1.67759 0 5592 -1.67759 1
gene 3 2203 18 1.80907 0 5593 1.80907 1
gene 3 6 899 -8 0 5670 -8 1
gene 4 923 1503 -8 0 5755 -8 1
gene 2 3 2336 1 0 5930 0 1
gene 2 2336 18 -1.29708 0 5931 0 1
gene 3 1985 2369 1 0 6010 0 1
gene 3 2369 19 1.14048 0 6011 0 1
gene 2 513 2397 1 0 6092 0 1
gene 2 2397 20 -2.36562 0 6093 0 1
gene 2 16 2439 1 0 6193 0 1
gene 2 2439 316 -3.83485 0 6194 0 1
gene 3 2 2091 80412 0 6280 80412 1
gene 1 7 2504 1 0 6371 0 1
gene 1 2504 19 -1.64679 0 6372 0 1
genomeend 10

/* Organism #11 Fitness: 0 Error: 0 */

/* Position #11*/
#1 x: 37 y: 80
#2 x: 15 y: 17
#3 x: 81 y: 50
#4 x: 19 y: 31
#5 x: 25 y: 55
#6 x: 20 y: 60
genomestart 11
trait 1 43982 38565 0 29507 0 0 0 0 
trait 2 2 0 0 0 0 0 0 0 
trait 3 70585 0 0 13487 0 68301 0 0 
trait 4 4 0 0 0 0 0 0 0 
node 1 1 1 3
node 2 4 1 1
node 3 3 1 1
node 4 3 1 1
node 5 3 1 1
node 6 1 1 1
node 7 2 1 1
node 8 4 1 1
node 9 4 1 1
node 10 2 1 1
node 11 4 1 1
node 12 3 1 1
node 13 4 1 1
node 14 3 1 1
node 15 3 1 1
node 16 1 1 1
node 17 3 1 1
node 18 2 0 2
node 19 1 0 2
node 20 1 0 2
node 34 1 0 0
node 71 1 0 0
node 146 1 0 0
node 203 1 0 0
node 236 1 0 0
node 257 1 0 0
node 316 1 0 0
node 378 1 0 0
node 444 1 0 0
node 513 1 0 0
node 554 1 0 0
node 666 1 0 0
node 799 1 0 0
node 899 1 0 0
node 923 1 0 0
node 1006 1 0 0
node 1095 1 0 0
node 1173 1 0 0
node 1203 1 0 0
node 1251 1 0 0
node 1283 1 0 0
node 1365 1 0 0
node 1427 1 0 0
node 1503 1 0 0
node 1599 1 0 0
node 1643 1 0 0
node 1673 1 0 0
node 1985 1 0 0
node 2052 1 0 0
node 2091 1 0 0
node 2128 1 0 0
node 2167 1 0 0
node 2203 1 0 0
node 2336 1 0 0
node 2369 1 0 0
node 2397 1 0 0
node 2439 1 0 0
node 2505 1 0 0
gene 4 1 18 1.30107 0 1 1.30107 1
gene 2 2 18 -1.86664 0 2 -1.86664 0
gene 2 3 18 -1.29708 0 3 -1.29708 0
gene 3 4 18 -0.238394 0 4 -0.238394 0
gene 3 5 18 -2.96342 0 5 -2.96342 1
gene 3 6 18 -6.90914 0 6 -6.90914 1
gene 4 7 18 1.70404 0 7 1.70404 1
gene 3 8 8 1.86443 0 8 1.86443 1
gene 1 9 18 -4.19289 0 9 -4.19289 1
gene 2 10 18 -2.75287 0 10 -2.75287 1
gene 4 11 18 -8 0 11 -8 1
gene 4 12 18 -1.73074 0 12 -1.73074 1
gene 1 13 18 -0.47675 0 13 -0.47675 1
gene 4 14 18 -3.32613 0 14 -3.32613 1
gene 1 15 18 -5.10616 0 15 -5.10616 1
gene 2 16 18 -1.20757 0 16 -1.20757 0
gene 3 17 18 1.28974 0 17 1.28974 0
gene 1 1 19 -8 0 18 -8 1
gene 3 2 19 -1.45462 0 19 -1.45462 1
gene 1 3 19 -1.542 0 20 -1.542 1
gene 1 4 19 -4.16587 0 21 -4.16587 1
gene 3 5 19 -0.546734 0 22 -0.546734 0
gene 2 6 19 3.76324 0 23 3.76324 1
gene 1 7 19 -1.64679 0 24 -1.64679 1
gene 3 8 19 0.661218 0 25 0.661218 0
gene 2 9 19 -4.37871 0 26 -4.37871 1
gene 4 10 19 0.561899 0 27 0.561899 1
gene 1 11 19 -1.15957 0 28 -1.15957 0
gene 2 12 19 -2.12477 0 29 -2.12477 0
gene 3 13 19 1.2509 0 30 1.2509 1
gene 3 14 19 -0.720266 0 31 -0.720266 1
gene 2 15 19 6.62325 0 32 6.62325 1
gene 1 16 19 0.77734 0 33 0.77734 1
gene 3 17 19 -0.381094 0 34 -0.381094 1
gene 3 1 20 0.958145 0 35 0.958145 1
gene 1 2 20 -6.69956 0 36 -6.69956 1
gene 2 3 20 1.80764 0 37 1.80764 0
gene 2 4 20 2.6969 0 38 2.6969 1
gene 4 5 20 0.44476 0 39 0.44476 0
gene 1 6 20 2.55981 0 40 2.55981 1
gene 1 7 20 3.61887 0 41 3.61887 1
gene 3 8 20 -0.804325 0 42 -0.804325 1
gene 4 9 20 2.93526 0 43 2.93526 1
gene 3 10 20 -2.36094 0 44 -2.36094 0
gene 3 11 20 0.678035 0 45 0.678035 0
gene 2 12 20 1.21809 0 46 1.21809 0
gene 4 13 20 2.29899 0 47 2.29899 1
gene 4 14 20 -0.695372 0 48 -0.695372 1
gene 3 15 20 2.84856 0 49 2.84856 1
gene 1 16 20 5.40782 0 50 5.40782 1
gene 2 17 20 -0.0128735 0 51 -0.0128735 1
gene 1 7 34 4.14314 0 85 4.14314 1
gene 1 34 19 -5.93974 0 86 -5.93974 1
gene 2 8 71 1.65096 0 175 1.65096 0
gene 1 15 71 0.719159 0 240 0.719159 1
gene 2 6 146 -2.32338 0 377 -2.32338 1
gene 2 146 19 -6.65956 0 378 -6.65956 1
gene 2 2 203 -2.12962 0 529 -2.12962 1
gene 2 203 18 3.242 0 530 3.242 0
gene 1 2 236 -2.0766 0 613 -2.0766 1
gene 1 236 19 -0.692363 0 614 -0.692363 0
gene 4 11 257 0.685661 0 677 0.685661 1
gene 4 257 20 -4.13449 0 678 -4.13449 1
gene 4 2 146 -0.412943 0 750 -0.412943 1
gene 2 16 316 -3.83485 0 832 -3.83485 0
gene 2 316 18 -1.61812 0 833 -1.61812 1
gene 1 14 146 0.285023 0 926 0.285023 1
gene 3 4 378 1.90742 0 998 1.90742 1
gene 3 378 18 2.30304 0 999 2.30304 0
gene 1 13 444 0.913653 0 1170 0.913653 1
gene 1 444 20 -4.04004 0 1171 -4.04004 1
gene 2 3 513 -0.0606937 0 1338 -0.0606937 1
gene 2 513 20 -2.36562 0 1339 -2.36562 0
gene 4 17 554 -0.472737 0 1444 -0.472737 0
gene 4 554 18 1.96707 0 1445 1.96707 1
gene 1 3 666 -8 0 1729 -8 1
gene 1 666 19 1.62126 0 1730 1.62126 1
gene 3 71 146 -2.21225 0 1807 -2.21225 1
gene 3 378 799 0.200514 0 2054 0.200514 0
gene 3 799 18 -2.25798 0 2055 -2.25798 1
gene 1 15 899 2.167 0 2304 2.167 1
gene 1 899 20 3.64649 0 2305 3.64649 0
gene 4 17 923 -0.188274 0 2363 -0.188274 1
gene 4 923 554 6.26009 0 2364 6.26009 1
gene 2 513 554 -0.965842 0 2459 -0.965842 1
gene 4 7 1006 -2.74409 0 2556 -2.74409 1
gene 4 1006 18 4.75844 0 2557 4.75844 1
gene 3 10 1095 3.91715 0 2787 3.91715 1
gene 3 1095 20 1.83302 0 2788 1.83302 1
gene 4 923 1173 5.64314 0 2985 5.64314 1
gene 4 1173 554 3.41861 0 2986 3.41861 1
gene 3 11 1203 3.29024 0 3056 3.29024 1
gene 3 1203 20 2.46441 0 3057 2.46441 1
gene 1 899 1251 2.74057 0 3175 2.74057 1
gene 1 1251 20 -1.78185 0 3176 -1.78185 1
gene 2 203 1283 -7.86053 0 3259 -7.86053 1
gene 2 1283 18 -1.69816 0 3260 -1.69816 0
gene 4 5 1365 -2.90153 0 3478 -2.90153 1
gene 4 1365 20 1.13909 0 3479 1.13909 1
gene 2 1283 1427 -4.76736 0 3620 -4.76736 1
gene 2 1427 18 -3.08328 0 3621 -3.08328 1
gene 2 7 316 -2.18042 0 3712 -2.18042 1
gene 2 16 1503 2.11098 0 3802 2.11098 1
gene 2 1503 18 -1.63838 0 3803 -1.63838 1
gene 2 8 1599 -2.94913 0 4045 -2.94913 1
gene 2 1599 71 1.92101 0 4046 1.92101 1
gene 3 378 1643 1.54363 0 4156 1.54363 1
gene 3 1643 799 -3.81611 0 4157 -3.81611 1
gene 1 899 1673 -4.41899 0 4240 -4.41899 1
gene 1 1673 20 -2.10433 0 4241 -2.10433 1
gene 2 899 18 -0.985166 0 4321 -0.985166 1
gene 4 17 1006 -1.06805 0 4417 -1.06805 1
gene 4 17 1427 0.36886 0 4781 0.36886 1
gene 3 11 1673 -7.0459 0 4854 -7.0459 1
gene 3 8 1985 1.33374 0 5034 1.33374 0
gene 3 1985 19 1.14048 0 5035 1.14048 0
gene 2 20 1503 8 0 5125 8 1
gene 1 236 2052 0.333136 0 5212 0.333136 1
gene 1 2052 19 2.02931 0 5213 2.02931 0
gene 1 11 2091 3.0356 0 5308 3.0356 1
gene 1 2091 19 0.35627 0 5309 0.35627 1
gene 1 2052 2128 2.8737 0 5405 2.8737 1
gene 1 2128 19 -0.222408 0 5406 -0.222408 1
gene 3 5 2167 2.25896 0 5504 2.25896 1
gene 3 2167 19 1.69989 0 5505 1.69989 1
gene 3 4 2203 -1.67759 0 5592 -1.67759 1
gene 3 2203 18 1.80907 0 5593 1.80907 1
gene 3 6 899 -8 0 5670 -8 1
gene 4 923 1503 -8 0 5755 -8 1
gene 2 3 2336 1 0 5930 0 1
gene 2 2336 18 -1.29708 0 5931 0 1
gene 3 1985 2369 1 0 6010 0 1
gene 3 2369 19 1.14048 0 6011 0 1
gene 2 513 2397 1 0 6092 0 1
gene 2 2397 20 -2.36562 0 6093 0 1
gene 2 16 2439 1 0 6193 0 1
gene 2 2439 316 -3.83485 0 6194 0 1
gene 3 2 2091 80412 0 6280 80412 1
gene 3 8 2505 1 0 6373 0 1
gene 3 2505 1985 1.33374 0 6374 0 1
genomeend 11

/* Species #108 : (Size 5) (AF 220) (Age 31)  */


/* Organism #12 Fitness: 40 Error: 0 */

/* Position #12*/
#1 x: 30 y: 56
#2 x: 22 y: 51
#3 x: 51 y: 81
#4 x: 27 y: 41
#5 x: 17 y: 48
#6 x: 49 y: 80
genomestart 12
trait 1 1 0 0 0 0 0 0 0 
trait 2 2 0 0 0 0 0 0 0 
trait 3 3 0 0 0 0 0 0 0 
trait 4 4 0 0 0 0 0 0 0 
node 1 3 1 3
node 2 1 1 1
node 3 4 1 1
node 4 1 1 1
node 5 3 1 1
node 6 3 1 1
node 7 3 1 1
node 8 3 1 1
node 9 4 1 1
node 10 4 1 1
node 11 4 1 1
node 12 2 1 1
node 13 1 1 1
node 14 2 1 1
node 15 3 1 1
node 16 1 1 1
node 17 4 1 1
node 18 4 0 2
node 19 1 0 2
node 20 3 0 2
node 70 1 0 0
node 123 1 0 0
node 199 1 0 0
node 211 1 0 0
node 278 1 0 0
node 331 1 0 0
node 361 1 0 0
node 388 1 0 0
node 453 1 0 0
node 493 1 0 0
node 563 1 0 0
node 634 1 0 0
node 714 1 0 0
node 800 1 0 0
node 945 1 0 0
node 986 1 0 0
node 1119 1 0 0
node 1268 1 0 0
node 1340 1 0 0
node 1367 1 0 0
node 1415 1 0 0
node 1447 1 0 0
node 1581 1 0 0
node 1603 1 0 0
node 1661 1 0 0
node 1751 1 0 0
node 1863 1 0 0
node 1891 1 0 0
node 1958 1 0 0
node 1992 1 0 0
node 2027 1 0 0
node 2095 1 0 0
node 2131 1 0 0
node 2169 1 0 0
node 2238 1 0 0
node 2301 1 0 0
node 2343 1 0 0
node 2371 1 0 0
node 2402 1 0 0
node 2506 1 0 0
gene 3 1 18 -4.67966 0 1 -4.67966 1
gene 3 2 18 -4.75045 0 2 -4.75045 0
gene 1 3 18 3.78407 0 3 3.78407 0
gene 2 4 18 4.13914 0 4 4.13914 0
gene 2 5 18 -3.50484 0 5 -3.50484 1
gene 2 6 18 -2.0224 0 6 -2.0224 1
gene 3 7 18 -6.37453 0 7 -6.37453 1
gene 3 8 8 -0.725249 0 8 -0.725249 0
gene 4 9 18 0.63665 0 9 0.63665 0
gene 4 10 18 -2.30602 0 10 -2.30602 0
gene 2 11 18 3.10093 0 11 3.10093 1
gene 2 12 18 -1.87067 0 12 -1.87067 1
gene 2 13 18 1.36007 0 13 1.36007 1
gene 4 14 18 4.7112 0 14 4.7112 1
gene 4 15 18 0.916565 0 15 0.916565 1
gene 2 16 18 -1.19818 0 16 -1.19818 1
gene 1 17 18 -2.62221 0 17 -2.62221 0
gene 1 1 19 -5.5773 0 18 -5.5773 1
gene 3 2 19 5.98642 0 19 5.98642 1
gene 2 3 19 2.29639 0 20 2.29639 1
gene 4 4 19 -0.386781 0 21 -0.386781 1
gene 1 5 19 4.35664 0 22 4.35664 1
gene 4 6 19 -3.5353 0 23 -3.5353 0
gene 2 7 19 2.09097 0 24 2.09097 1
gene 2 8 19 -5.00115 0 25 -5.00115 1
gene 4 9 19 1.2445 0 26 1.2445 1
gene 4 10 19 -0.265034 0 27 -0.265034 1
gene 1 11 19 -5.6831 0 28 -5.6831 1
gene 1 12 19 3.74271 0 29 3.74271 1
gene 4 13 19 2.20152 0 30 2.20152 1
gene 1 14 19 7.77042 0 31 7.77042 1
gene 4 15 19 -7.24423 0 32 -7.24423 0
gene 1 16 19 0.3784 0 33 0.3784 1
gene 4 17 19 8 0 34 8 0
gene 4 1 20 3.19278 0 35 3.19278 1
gene 1 2 20 1.86729 0 36 1.86729 1
gene 1 3 20 0.343703 0 37 0.343703 0
gene 3 4 20 -4.5993 0 38 -4.5993 0
gene 2 5 20 -1.36672 0 39 -1.36672 1
gene 1 6 20 4.63016 0 40 4.63016 1
gene 4 7 20 1.04268 0 41 1.04268 0
gene 3 8 20 7.17874 0 42 7.17874 1
gene 2 9 20 -5.19109 0 43 -5.19109 0
gene 3 10 20 0.467025 0 44 0.467025 0
gene 2 11 20 3.50234 0 45 3.50234 0
gene 1 12 20 -1.07767 0 46 -1.07767 0
gene 4 13 20 1.41198 0 47 1.41198 0
gene 2 14 20 4.83761 0 48 4.83761 1
gene 2 15 20 8 0 49 8 0
gene 2 16 20 -0.561549 0 50 -0.561549 1
gene 2 17 20 -2.53051 0 51 -2.53051 0
gene 4 20 19 -1.37592 0 76 -1.37592 1
gene 1 6 70 1.22044 0 173 1.22044 1
gene 1 70 20 2.42106 0 174 2.42106 0
gene 1 2 123 2.06043 0 310 2.06043 1
gene 1 123 20 -2.73804 0 311 -2.73804 1
gene 2 15 123 3.53297 0 435 3.53297 0
gene 3 2 199 2.37841 0 515 2.37841 1
gene 3 199 19 -0.135675 0 516 -0.135675 0
gene 3 8 211 2.32293 0 547 2.32293 1
gene 4 6 278 -5.48907 0 728 -5.48907 1
gene 4 278 19 1.09448 0 729 1.09448 0
gene 4 15 331 0.0777004 0 868 0.0777004 0
gene 4 331 19 2.52811 0 869 2.52811 1
gene 2 4 361 6.04 0 950 6.04 1
gene 2 361 18 -2.26095 0 951 -2.26095 1
gene 3 4 388 -2.00884 0 1024 -2.00884 1
gene 3 388 20 7.59066 0 1025 7.59066 1
gene 2 331 18 0.083199 0 1117 0.083199 0
gene 3 2 453 5.60372 0 1192 5.60372 1
gene 3 453 18 1.60901 0 1193 1.60901 1
gene 3 199 493 8 0 1289 8 1
gene 3 493 19 5.11569 0 1290 5.11569 1
gene 3 361 361 6.54297 1 1358 6.54297 1
gene 2 11 563 -4.3563 0 1465 -4.3563 1
gene 2 563 18 -4.67415 0 1466 -4.67415 1
gene 4 2 278 4.08599 0 1551 4.08599 1
gene 4 13 634 -6.77711 0 1651 -6.77711 1
gene 4 634 20 0.29444 0 1652 0.29444 1
gene 3 331 331 -1.29321 1 1768 -1.29321 1
gene 4 17 714 0.60044 0 1845 0.60044 1
gene 4 714 19 3.19173 0 1846 3.19173 1
gene 1 278 18 5.59522 0 1920 5.59522 1
gene 1 634 70 2.16408 0 2010 2.16408 1
gene 3 7 800 -3.66204 0 2056 -3.66204 1
gene 3 800 18 -4.15296 0 2057 -4.15296 1
gene 3 361 945 1.28826 1 2413 1.28826 0
gene 3 945 361 4.37537 0 2414 4.37537 1
gene 1 3 986 -6.36222 0 2506 -6.36222 1
gene 1 986 20 2.03189 0 2507 2.03189 1
gene 3 17 388 8 0 2658 8 1
gene 3 16 70 -8 0 2759 -8 1
gene 4 15 1119 -2.33127 0 2841 -2.33127 0
gene 4 1119 331 -1.82284 0 2842 -1.82284 1
gene 4 7 453 7.52475 0 2943 7.52475 1
gene 4 563 123 -8 0 3031 -8 0
gene 1 278 211 -7.53628 0 3120 -7.53628 1
gene 4 10 1268 -0.45669 0 3217 -0.45669 1
gene 4 1268 18 -0.29573 0 3218 -0.29573 1
gene 2 563 563 -5.1574 1 3316 -5.1574 1
gene 2 17 1340 -1.12294 0 3402 -1.12294 1
gene 2 1340 20 3.31817 0 3403 3.31817 0
gene 4 278 1367 0.765572 0 3482 0.765572 1
gene 4 1367 19 1.63412 0 3483 1.63412 1
gene 1 70 1415 2.1232 0 3588 2.1232 1
gene 1 1415 20 4.51476 0 3589 4.51476 1
gene 2 1340 1447 4.20745 0 3672 4.20745 1
gene 2 1447 20 2.37601 0 3673 2.37601 0
gene 2 70 1340 8 0 3828 8 1
gene 4 800 19 6.29898 0 3910 6.29898 1
gene 4 7 1581 1.24877 0 3999 1.24877 1
gene 4 1581 20 -3.72039 0 4000 -3.72039 1
gene 3 10 1603 -2.31286 0 4058 -2.31286 1
gene 3 1603 20 -2.16978 0 4059 -2.16978 1
gene 4 714 1268 -8 0 4174 -8 1
gene 2 9 1661 -3.06495 0 4202 -3.06495 1
gene 2 1661 20 2.38077 0 4203 2.38077 0
gene 2 11 1751 -1.92985 0 4437 -1.92985 0
gene 2 1751 20 -1.38713 0 4438 -1.38713 1
gene 2 493 986 -6.93783 0 4539 -6.93783 0
gene 2 15 1863 4.64835 0 4719 4.64835 1
gene 2 1863 123 -2.79902 0 4720 -2.79902 1
gene 2 493 1891 -1.56247 0 4793 -1.56247 1
gene 2 1891 986 -7.27096 0 4794 -7.27096 1
gene 4 8 199 1.1044 0 4869 1.1044 1
gene 3 361 1958 2.47925 1 4963 2.47925 1
gene 3 1958 945 0.255397 0 4964 0.255397 1
gene 2 11 1992 1.69562 0 5051 1.69562 0
gene 2 1992 1751 -1.89581 0 5052 -1.89581 1
gene 3 4 2027 -0.77586 0 5142 -0.77586 1
gene 3 2027 20 -8 0 5143 -8 1
gene 3 1268 1340 7.32566 0 5220 7.32566 1
gene 4 563 2095 -1.50806 0 5319 -1.50806 1
gene 4 2095 123 -8 0 5320 -8 1
gene 2 331 2131 -1.49021 0 5413 -1.49021 1
gene 2 2131 18 3.90756 0 5414 3.90756 1
gene 4 15 2169 4.49714 0 5510 4.49714 1
gene 4 2169 19 1.85795 0 5511 1.85795 1
gene 1 1603 1958 -1.74151 0 5602 -1.74151 1
gene 4 15 2238 3.26129 0 5676 3.26129 1
gene 4 2238 1119 0.136906 0 5677 0.136906 1
gene 2 1661 2301 3.12223 0 5841 3.12223 0
gene 2 2301 20 1.79563 0 5842 1.79563 1
gene 2 11 2343 -1.02756 0 5945 -1.02756 1
gene 2 2343 1992 -0.879415 0 5946 -0.879415 1
gene 2 1447 2371 1.02378 0 6018 1.02378 1
gene 2 2371 20 -0.577414 0 6019 -0.577414 1
gene 1 17 2402 1 0 6103 1 1
gene 1 2402 18 -3.71753 0 6104 -3.71753 1
gene 2 986 18 -8 0 6200 -8 1
gene 2 1661 2506 1 0 6375 0 1
gene 2 2506 2301 3.12223 0 6376 0 1
genomeend 12

/* Organism #13 Fitness: 80 Error: 0 */

/* Position #13*/
#1 x: 30 y: 56
#2 x: 22 y: 51
#3 x: 51 y: 81
#4 x: 27 y: 41
#5 x: 17 y: 48
#6 x: 49 y: 80
genomestart 13
trait 1 1 0 0 0 0 0 0 0 
trait 2 2 0 0 0 0 0 0 0 
trait 3 3 0 0 0 0 0 0 0 
trait 4 4 0 0 0 0 0 0 0 
node 1 3 1 3
node 2 1 1 1
node 3 4 1 1
node 4 1 1 1
node 5 3 1 1
node 6 3 1 1
node 7 3 1 1
node 8 3 1 1
node 9 4 1 1
node 10 4 1 1
node 11 4 1 1
node 12 2 1 1
node 13 1 1 1
node 14 2 1 1
node 15 3 1 1
node 16 1 1 1
node 17 4 1 1
node 18 4 0 2
node 19 1 0 2
node 20 3 0 2
node 70 1 0 0
node 123 1 0 0
node 199 1 0 0
node 211 1 0 0
node 278 1 0 0
node 331 1 0 0
node 361 1 0 0
node 388 1 0 0
node 453 1 0 0
node 493 1 0 0
node 563 1 0 0
node 634 1 0 0
node 714 1 0 0
node 800 1 0 0
node 945 1 0 0
node 986 1 0 0
node 1119 1 0 0
node 1268 1 0 0
node 1340 1 0 0
node 1367 1 0 0
node 1415 1 0 0
node 1447 1 0 0
node 1581 1 0 0
node 1603 1 0 0
node 1661 1 0 0
node 1751 1 0 0
node 1863 1 0 0
node 1891 1 0 0
node 1958 1 0 0
node 1992 1 0 0
node 2027 1 0 0
node 2095 1 0 0
node 2131 1 0 0
node 2169 1 0 0
node 2238 1 0 0
node 2301 1 0 0
node 2343 1 0 0
node 2371 1 0 0
node 2402 1 0 0
gene 3 1 18 -4.67966 0 1 -4.67966 1
gene 3 2 18 -4.75045 0 2 -4.75045 0
gene 1 3 18 3.78407 0 3 3.78407 0
gene 2 4 18 4.13914 0 4 4.13914 0
gene 2 5 18 -3.50484 0 5 -3.50484 1
gene 2 6 18 -2.0224 0 6 -2.0224 1
gene 3 7 18 -6.37453 0 7 -6.37453 1
gene 3 8 8 -0.725249 0 8 -0.725249 0
gene 4 9 18 0.63665 0 9 0.63665 0
gene 4 10 18 -2.30602 0 10 -2.30602 0
gene 2 11 18 3.10093 0 11 3.10093 1
gene 2 12 18 -1.87067 0 12 -1.87067 1
gene 2 13 18 1.36007 0 13 1.36007 1
gene 4 14 18 4.7112 0 14 4.7112 1
gene 4 15 18 0.916565 0 15 0.916565 1
gene 2 16 18 -1.19818 0 16 -1.19818 1
gene 1 17 18 -2.62221 0 17 -2.62221 0
gene 1 1 19 -5.5773 0 18 -5.5773 1
gene 3 2 19 5.98642 0 19 5.98642 1
gene 2 3 19 2.29639 0 20 2.29639 1
gene 4 4 19 -0.386781 0 21 -0.386781 1
gene 1 5 19 4.35664 0 22 4.35664 1
gene 4 6 19 -3.5353 0 23 -3.5353 0
gene 2 7 19 2.09097 0 24 2.09097 1
gene 2 8 19 -5.00115 0 25 -5.00115 1
gene 4 9 19 1.2445 0 26 1.2445 1
gene 4 10 19 -0.265034 0 27 -0.265034 1
gene 1 11 19 -5.6831 0 28 -5.6831 1
gene 1 12 19 3.74271 0 29 3.74271 1
gene 4 13 19 2.20152 0 30 2.20152 1
gene 1 14 19 7.77042 0 31 7.77042 1
gene 4 15 19 -7.24423 0 32 -7.24423 0
gene 1 16 19 0.3784 0 33 0.3784 1
gene 4 17 19 8 0 34 8 0
gene 4 1 20 3.19278 0 35 3.19278 1
gene 1 2 20 1.86729 0 36 1.86729 1
gene 1 3 20 0.343703 0 37 0.343703 0
gene 3 4 20 -4.5993 0 38 -4.5993 0
gene 2 5 20 -1.36672 0 39 -1.36672 1
gene 1 6 20 4.63016 0 40 4.63016 1
gene 4 7 20 1.04268 0 41 1.04268 0
gene 3 8 20 7.17874 0 42 7.17874 1
gene 2 9 20 -5.19109 0 43 -5.19109 0
gene 3 10 20 0.467025 0 44 0.467025 0
gene 2 11 20 3.50234 0 45 3.50234 0
gene 1 12 20 -1.07767 0 46 -1.07767 0
gene 4 13 20 1.41198 0 47 1.41198 0
gene 2 14 20 4.83761 0 48 4.83761 1
gene 2 15 20 8 0 49 8 0
gene 2 16 20 -0.561549 0 50 -0.561549 1
gene 2 17 20 -2.53051 0 51 -2.53051 0
gene 4 20 19 -1.37592 0 76 -1.37592 1
gene 1 6 70 1.22044 0 173 1.22044 1
gene 1 70 20 2.42106 0 174 2.42106 0
gene 1 2 123 2.06043 0 310 2.06043 1
gene 1 123 20 -2.73804 0 311 -2.73804 1
gene 2 15 123 3.53297 0 435 3.53297 0
gene 3 2 199 2.37841 0 515 2.37841 1
gene 3 199 19 -0.135675 0 516 -0.135675 0
gene 3 8 211 2.32293 0 547 2.32293 1
gene 4 6 278 -5.48907 0 728 -5.48907 1
gene 4 278 19 1.09448 0 729 1.09448 0
gene 4 15 331 0.0777004 0 868 0.0777004 0
gene 4 331 19 2.52811 0 869 2.52811 1
gene 2 4 361 6.04 0 950 6.04 1
gene 2 361 18 -2.26095 0 951 -2.26095 1
gene 3 4 388 -2.00884 0 1024 -2.00884 1
gene 3 388 20 7.59066 0 1025 7.59066 1
gene 2 331 18 0.083199 0 1117 0.083199 0
gene 3 2 453 5.60372 0 1192 5.60372 1
gene 3 453 18 1.60901 0 1193 1.60901 1
gene 3 199 493 8 0 1289 8 1
gene 3 493 19 5.11569 0 1290 5.11569 1
gene 3 361 361 6.54297 1 1358 6.54297 1
gene 2 11 563 -4.3563 0 1465 -4.3563 1
gene 2 563 18 -4.67415 0 1466 -4.67415 1
gene 4 2 278 4.08599 0 1551 4.08599 1
gene 4 13 634 -6.77711 0 1651 -6.77711 1
gene 4 634 20 0.29444 0 1652 0.29444 1
gene 3 331 331 -1.29321 1 1768 -1.29321 1
gene 4 17 714 0.60044 0 1845 0.60044 1
gene 4 714 19 3.19173 0 1846 3.19173 1
gene 1 278 18 5.59522 0 1920 5.59522 1
gene 1 634 70 2.16408 0 2010 2.16408 1
gene 3 7 800 -3.66204 0 2056 -3.66204 1
gene 3 800 18 -4.15296 0 2057 -4.15296 1
gene 3 361 945 1.28826 1 2413 1.28826 0
gene 3 945 361 4.37537 0 2414 4.37537 1
gene 1 3 986 -6.36222 0 2506 -6.36222 1
gene 1 986 20 2.03189 0 2507 2.03189 1
gene 3 17 388 8 0 2658 8 1
gene 3 16 70 -8 0 2759 -8 1
gene 4 15 1119 -2.33127 0 2841 -2.33127 0
gene 4 1119 331 -1.82284 0 2842 -1.82284 1
gene 4 7 453 7.52475 0 2943 7.52475 1
gene 4 563 123 -8 0 3031 -8 0
gene 1 278 211 -7.53628 0 3120 -7.53628 1
gene 4 10 1268 -0.45669 0 3217 -0.45669 1
gene 4 1268 18 -0.29573 0 3218 -0.29573 1
gene 2 563 563 -5.1574 1 3316 -5.1574 1
gene 2 17 1340 -1.12294 0 3402 -1.12294 1
gene 2 1340 20 3.31817 0 3403 3.31817 0
gene 4 278 1367 0.765572 0 3482 0.765572 1
gene 4 1367 19 1.63412 0 3483 1.63412 1
gene 1 70 1415 2.1232 0 3588 2.1232 1
gene 1 1415 20 4.51476 0 3589 4.51476 1
gene 2 1340 1447 4.20745 0 3672 4.20745 1
gene 2 1447 20 2.37601 0 3673 2.37601 0
gene 2 70 1340 8 0 3828 8 1
gene 4 800 19 6.29898 0 3910 6.29898 1
gene 4 7 1581 1.24877 0 3999 1.24877 1
gene 4 1581 20 -3.72039 0 4000 -3.72039 1
gene 3 10 1603 -2.31286 0 4058 -2.31286 1
gene 3 1603 20 -2.16978 0 4059 -2.16978 1
gene 4 714 1268 -8 0 4174 -8 1
gene 2 9 1661 -3.06495 0 4202 -3.06495 1
gene 2 1661 20 2.38077 0 4203 2.38077 0
gene 2 11 1751 -1.92985 0 4437 -1.92985 0
gene 2 1751 20 -1.38713 0 4438 -1.38713 1
gene 2 493 986 -6.93783 0 4539 -6.93783 0
gene 2 15 1863 4.64835 0 4719 4.64835 1
gene 2 1863 123 -2.79902 0 4720 -2.79902 1
gene 2 493 1891 -1.56247 0 4793 -1.56247 1
gene 2 1891 986 -7.27096 0 4794 -7.27096 1
gene 4 8 199 1.1044 0 4869 1.1044 1
gene 3 361 1958 2.47925 1 4963 2.47925 1
gene 3 1958 945 0.255397 0 4964 0.255397 1
gene 2 11 1992 1.69562 0 5051 1.69562 0
gene 2 1992 1751 -1.89581 0 5052 -1.89581 1
gene 3 4 2027 -0.77586 0 5142 -0.77586 1
gene 3 2027 20 -8 0 5143 -8 1
gene 3 1268 1340 7.32566 0 5220 7.32566 1
gene 4 563 2095 -1.50806 0 5319 -1.50806 1
gene 4 2095 123 -8 0 5320 -8 1
gene 2 331 2131 -1.49021 0 5413 -1.49021 1
gene 2 2131 18 3.90756 0 5414 3.90756 1
gene 4 15 2169 4.49714 0 5510 4.49714 1
gene 4 2169 19 1.85795 0 5511 1.85795 1
gene 1 1603 1958 -1.74151 0 5602 -1.74151 1
gene 4 15 2238 3.26129 0 5676 3.26129 1
gene 4 2238 1119 0.136906 0 5677 0.136906 1
gene 2 1661 2301 3.12223 0 5841 3.12223 1
gene 2 2301 20 1.79563 0 5842 1.79563 1
gene 2 11 2343 -1.02756 0 5945 -1.02756 1
gene 2 2343 1992 -0.879415 0 5946 -0.879415 1
gene 2 1447 2371 1.02378 0 6018 1.02378 1
gene 2 2371 20 -0.577414 0 6019 -0.577414 1
gene 1 17 2402 1 0 6103 1 1
gene 1 2402 18 -3.71753 0 6104 -3.71753 1
gene 2 986 18 -8 0 6200 -8 1
gene 2 1119 123 73570 0 6377 73570 1
genomeend 13

/* Organism #14 Fitness: 360 Error: 0 */

/* Position #14*/
#1 x: 84 y: 74
#2 x: 70 y: 55
#3 x: 26 y: 66
#4 x: 67 y: 19
#5 x: 62 y: 19
#6 x: 66 y: 44
genomestart 14
trait 1 1 0 0 0 0 0 0 0 
trait 2 2 0 0 0 0 0 0 0 
trait 3 3 0 0 0 0 0 0 0 
trait 4 4 0 0 0 0 0 0 0 
node 1 3 1 3
node 2 1 1 1
node 3 4 1 1
node 4 1 1 1
node 5 3 1 1
node 6 3 1 1
node 7 3 1 1
node 8 3 1 1
node 9 4 1 1
node 10 4 1 1
node 11 4 1 1
node 12 2 1 1
node 13 1 1 1
node 14 2 1 1
node 15 3 1 1
node 16 1 1 1
node 17 4 1 1
node 18 4 0 2
node 19 1 0 2
node 20 3 0 2
node 70 1 0 0
node 123 1 0 0
node 199 1 0 0
node 211 1 0 0
node 278 1 0 0
node 331 1 0 0
node 361 1 0 0
node 388 1 0 0
node 453 1 0 0
node 493 1 0 0
node 563 1 0 0
node 634 1 0 0
node 714 1 0 0
node 800 1 0 0
node 945 1 0 0
node 986 1 0 0
node 1119 1 0 0
node 1268 1 0 0
node 1340 1 0 0
node 1367 1 0 0
node 1415 1 0 0
node 1447 1 0 0
node 1581 1 0 0
node 1603 1 0 0
node 1661 1 0 0
node 1751 1 0 0
node 1863 1 0 0
node 1891 1 0 0
node 1958 1 0 0
node 1992 1 0 0
node 2027 1 0 0
node 2095 1 0 0
node 2131 1 0 0
node 2169 1 0 0
node 2238 1 0 0
node 2301 1 0 0
node 2343 1 0 0
node 2371 1 0 0
node 2402 1 0 0
gene 3 1 18 -7.13998 0 1 -7.13998 1
gene 3 2 18 -4.75045 0 2 -4.75045 0
gene 1 3 18 3.60045 0 3 3.60045 0
gene 2 4 18 3.30583 0 4 3.30583 0
gene 2 5 18 -1.49661 0 5 -1.49661 1
gene 2 6 18 -2.03864 0 6 -2.03864 1
gene 3 7 18 -3.61436 0 7 -3.61436 1
gene 3 8 8 1.84843 0 8 1.84843 0
gene 4 9 18 0.62732 0 9 0.62732 0
gene 4 10 18 -5.24336 0 10 -5.24336 0
gene 2 11 18 3.93576 0 11 3.93576 1
gene 2 12 18 -2.27294 0 12 -2.27294 1
gene 2 13 18 -0.823826 0 13 -0.823826 1
gene 4 14 18 1.75993 0 14 1.75993 1
gene 4 15 18 -1.61792 0 15 -1.61792 1
gene 2 16 18 0.153025 0 16 0.153025 1
gene 1 17 18 -2.62221 0 17 -2.62221 0
gene 1 1 19 -3.82324 0 18 -3.82324 1
gene 3 2 19 4.32768 0 19 4.32768 1
gene 2 3 19 0.00480712 0 20 0.00480712 1
gene 4 4 19 0.0182994 0 21 0.0182994 1
gene 1 5 19 3.7857 0 22 3.7857 1
gene 4 6 19 -3.5353 0 23 -3.5353 0
gene 2 7 19 2.09097 0 24 2.09097 1
gene 2 8 19 -2.60683 0 25 -2.60683 1
gene 4 9 19 0.681331 0 26 0.681331 1
gene 4 10 19 1.73508 0 27 1.73508 1
gene 1 11 19 -2.35544 0 28 -2.35544 1
gene 1 12 19 3.74271 0 29 3.74271 1
gene 4 13 19 2.79523 0 30 2.79523 1
gene 1 14 19 8 0 31 8 1
gene 4 15 19 -4.31741 0 32 -4.31741 0
gene 1 16 19 0.3784 0 33 0.3784 1
gene 4 17 19 7.00832 0 34 7.00832 0
gene 4 1 20 0.533291 0 35 0.533291 1
gene 1 2 20 0.196041 0 36 0.196041 1
gene 1 3 20 -0.309867 0 37 -0.309867 0
gene 3 4 20 -6.79093 0 38 -6.79093 0
gene 2 5 20 2.74639 0 39 2.74639 1
gene 1 6 20 2.56827 0 40 2.56827 1
gene 4 7 20 -1.62381 0 41 -1.62381 0
gene 3 8 20 8 0 42 8 1
gene 2 9 20 -6.48145 0 43 -6.48145 0
gene 3 10 20 0.523396 0 44 0.523396 0
gene 2 11 20 -2.91355 0 45 -2.91355 0
gene 1 12 20 -1.07767 0 46 -1.07767 0
gene 4 13 20 1.41198 0 47 1.41198 0
gene 2 14 20 2.20555 0 48 2.20555 1
gene 2 15 20 8 0 49 8 0
gene 2 16 20 -3.19743 0 50 -3.19743 1
gene 2 17 20 -2.80519 0 51 -2.80519 0
gene 4 20 19 -2.76947 0 76 -2.76947 1
gene 1 6 70 2.58654 0 173 2.58654 1
gene 1 70 20 4.8239 0 174 4.8239 0
gene 1 2 123 1.07562 0 310 1.07562 1
gene 1 123 20 -3.09847 0 311 -3.09847 1
gene 2 15 123 4.56953 0 435 4.56953 0
gene 3 2 199 -1.34214 0 515 -1.34214 1
gene 3 199 19 -1.69305 0 516 -1.69305 0
gene 3 8 211 2.42417 0 547 2.42417 1
gene 4 6 278 -7.86175 0 728 -7.86175 1
gene 4 278 19 0.965823 0 729 0.965823 0
gene 4 15 331 0.758677 0 868 0.758677 0
gene 4 331 19 1.83534 0 869 1.83534 1
gene 2 4 361 -1.88303 0 950 -1.88303 1
gene 2 361 18 -5.15818 0 951 -5.15818 1
gene 3 4 388 -1.59719 0 1024 -1.59719 1
gene 3 388 20 7.3398 0 1025 7.3398 1
gene 2 331 18 -0.0666258 0 1117 -0.0666258 0
gene 3 2 453 3.35636 0 1192 3.35636 1
gene 3 453 18 1.60901 0 1193 1.60901 1
gene 3 199 493 8 0 1289 8 1
gene 3 493 19 2.79608 0 1290 2.79608 1
gene 3 361 361 8 1 1358 8 1
gene 2 11 563 -7.05272 0 1465 -7.05272 1
gene 2 563 18 -1.90436 0 1466 -1.90436 1
gene 4 2 278 3.31551 0 1551 3.31551 1
gene 4 13 634 -5.17827 0 1651 -5.17827 1
gene 4 634 20 0.384209 0 1652 0.384209 1
gene 3 331 331 -0.736456 1 1768 -0.736456 1
gene 4 17 714 0.893486 0 1845 0.893486 1
gene 4 714 19 3.19173 0 1846 3.19173 1
gene 1 278 18 7.78353 0 1920 7.78353 1
gene 1 634 70 1.82396 0 2010 1.82396 1
gene 3 7 800 -3.08805 0 2056 -3.08805 1
gene 3 800 18 2.08153 0 2057 2.08153 1
gene 3 361 945 3.19753 1 2413 3.19753 0
gene 3 945 361 2.71982 0 2414 2.71982 1
gene 1 3 986 -8 0 2506 -8 1
gene 1 986 20 -0.0477114 0 2507 -0.0477114 1
gene 3 17 388 -2.87113 0 2658 -2.87113 1
gene 3 16 70 -8 0 2759 -8 1
gene 4 15 1119 -1.6892 0 2841 -1.6892 0
gene 4 1119 331 -2.43866 0 2842 -2.43866 1
gene 4 7 453 0.499791 0 2943 0.499791 1
gene 4 563 123 -5.89182 0 3031 -5.89182 0
gene 1 278 211 -7.84931 0 3120 -7.84931 1
gene 4 10 1268 -0.939409 0 3217 -0.939409 1
gene 4 1268 18 1.63547 0 3218 1.63547 1
gene 2 563 563 1.30971 1 3316 1.30971 1
gene 2 17 1340 0.609352 0 3402 0.609352 1
gene 2 1340 20 0.30511 0 3403 0.30511 0
gene 4 278 1367 0.0758523 0 3482 0.0758523 1
gene 4 1367 19 1.63412 0 3483 1.63412 1
gene 1 70 1415 -2.15816 0 3588 -2.15816 1
gene 1 1415 20 4.02399 0 3589 4.02399 1
gene 2 1340 1447 -1.88821 0 3672 -1.88821 1
gene 2 1447 20 2.37601 0 3673 2.37601 0
gene 2 70 1340 -1.42128 0 3828 -1.42128 1
gene 4 800 19 4.00273 0 3910 4.00273 1
gene 4 7 1581 -1.29396 0 3999 -1.29396 1
gene 4 1581 20 -2.15262 0 4000 -2.15262 1
gene 3 10 1603 2.27917 0 4058 2.27917 1
gene 3 1603 20 -1.27535 0 4059 -1.27535 1
gene 4 714 1268 -6.00549 0 4174 -6.00549 1
gene 2 9 1661 -0.671236 0 4202 -0.671236 1
gene 2 1661 20 0.711538 0 4203 0.711538 0
gene 2 11 1751 -1.16705 0 4437 -1.16705 0
gene 2 1751 20 -1.71521 0 4438 -1.71521 1
gene 2 493 986 -4.49635 0 4539 -4.49635 0
gene 2 15 1863 -2.96328 0 4719 -2.96328 1
gene 2 1863 123 -1.90002 0 4720 -1.90002 1
gene 2 493 1891 -0.789981 0 4793 -0.789981 1
gene 2 1891 986 -6.0238 0 4794 -6.0238 1
gene 4 8 199 1.18285 0 4869 1.18285 1
gene 3 361 1958 2.40536 1 4963 2.40536 1
gene 3 1958 945 2.61933 0 4964 2.61933 1
gene 2 11 1992 1.69562 0 5051 1.69562 0
gene 2 1992 1751 -0.432572 0 5052 -0.432572 1
gene 3 4 2027 -0.0882913 0 5142 -0.0882913 1
gene 3 2027 20 -8 0 5143 -8 1
gene 3 1268 1340 0.307391 0 5220 0.307391 1
gene 4 563 2095 1.22369 0 5319 1.22369 1
gene 4 2095 123 1.8487 0 5320 1.8487 1
