
/* Species #8 : (Size 2) (AF 90) (Age 50)  */


/* Organism #0 Fitness: 140 Error: 0 */

/* Position #0*/
#1 x: 64 y: 55
#2 x: 67 y: 85
#3 x: 82 y: 54
#4 x: 41 y: 77
#5 x: 57 y: 37
#6 x: 51 y: 71
genomestart 0
trait 1 0 0 0 0 0 0 0 0 
trait 2 2 0 0 0 0 0 0 0 
trait 3 3 0 0 0 0 0 0 0 
trait 4 4 0 0 0 0 0 0 0 
node 1 1 1 3
node 2 3 1 1
node 3 3 1 1
node 4 4 1 1
node 5 2 1 1
node 6 3 1 1
node 7 1 1 1
node 8 1 1 1
node 9 2 1 1
node 10 1 1 1
node 11 4 1 1
node 12 4 1 1
node 13 2 1 1
node 14 3 1 1
node 15 2 1 1
node 16 1 1 1
node 17 4 1 1
node 18 2 0 2
node 19 4 0 2
node 20 1 0 2
node 56 1 0 0
node 80 1 0 0
node 107 2 0 0
node 154 1 0 0
node 212 1 0 0
node 243 1 0 0
node 333 1 0 0
node 432 1 0 0
node 467 1 0 0
node 535 1 0 0
node 751 1 0 0
node 787 1 0 0
node 922 1 0 0
node 1099 1 0 0
node 1174 1 0 0
node 1216 1 0 0
node 1254 1 0 0
node 1353 1 0 0
node 1433 1 0 0
node 1472 1 0 0
node 1513 1 0 0
node 1621 1 0 0
node 1689 1 0 0
gene 1 1 18 1.05555 0 1 1.05555 1
gene 2 2 18 5.20573 0 2 5.20573 0
gene 2 3 18 8 0 3 8 0
gene 3 4 18 -7.94336 0 4 -7.94336 1
gene 3 5 18 -1.85421 0 5 -1.85421 0
gene 3 6 18 3.58201 0 6 3.58201 1
gene 1 7 18 0.803492 0 7 0.803492 1
gene 2 8 8 -3.29029 0 8 -3.29029 1
gene 2 9 18 3.02663 0 9 3.02663 1
gene 3 10 18 8 0 10 8 1
gene 4 11 18 3.10266 0 11 3.10266 1
gene 4 12 18 -5.33178 0 12 -5.33178 1
gene 1 13 18 -0.31309 0 13 -0.31309 1
gene 1 14 18 0.228631 0 14 0.228631 1
gene 4 15 18 -3.89054 0 15 -3.89054 1
gene 2 16 18 0.888946 0 16 0.888946 1
gene 2 17 18 -0.479182 0 17 -0.479182 1
gene 1 1 19 4.90604 0 18 4.90604 1
gene 3 2 19 -0.283207 0 19 -0.283207 1
gene 2 3 19 2.68154 0 20 2.68154 1
gene 1 4 19 1.51704 0 21 1.51704 1
gene 4 5 19 2.4186 0 22 2.4186 1
gene 2 6 19 -2.82529 0 23 -2.82529 1
gene 3 7 19 -4.82936 0 24 -4.82936 1
gene 1 8 19 -4.0584 0 25 -4.0584 1
gene 2 9 19 -0.511429 0 26 -0.511429 1
gene 2 10 19 -6.11844 0 27 -6.11844 0
gene 2 11 19 7.69999 0 28 7.69999 0
gene 3 12 19 -5.04303 0 29 -5.04303 0
gene 4 13 19 1.37065 0 30 1.37065 1
gene 3 14 19 -2.89288 0 31 -2.89288 1
gene 4 15 19 3.03114 0 32 3.03114 0
gene 1 16 19 4.68349 0 33 4.68349 1
gene 3 17 19 -5.44137 0 34 -5.44137 1
gene 3 1 20 -4.65686 0 35 -4.65686 1
gene 2 2 20 -6.1925 0 36 -6.1925 1
gene 4 3 20 -3.43846 0 37 -3.43846 1
gene 1 4 20 8 0 38 8 0
gene 3 5 20 3.98836 0 39 3.98836 1
gene 3 6 20 0.960594 0 40 0.960594 1
gene 1 7 20 -3.38689 0 41 -3.38689 0
gene 2 8 20 6.67736 0 42 6.67736 1
gene 2 9 20 -0.335227 0 43 -0.335227 1
gene 3 10 20 6.07541 0 44 6.07541 1
gene 4 11 20 -5.91371 0 45 -5.91371 1
gene 2 12 20 -1.04053 0 46 -1.04053 1
gene 3 13 20 1.73703 0 47 1.73703 0
gene 3 14 20 3.65606 0 48 3.65606 0
gene 1 15 20 8 0 49 8 1
gene 3 16 20 1.45695 0 50 1.45695 1
gene 3 17 20 -6.77542 0 51 -6.77542 1
gene 2 18 20 -2.12777 0 77 -2.12777 1
gene 2 10 56 2.10945 0 135 2.10945 1
gene 2 56 19 7.77312 0 136 7.77312 1
gene 2 11 80 6.82946 0 197 6.82946 1
gene 2 80 19 -1.8526 0 198 -1.8526 1
gene 3 14 107 7.16129 0 265 7.16129 1
gene 3 107 19 3.85133 0 266 3.85133 0
gene 3 5 154 -3.44347 0 401 -3.44347 1
gene 3 154 18 -0.124312 0 402 -0.124312 1
gene 2 56 56 2.17545 1 475 2.17545 0
gene 3 14 212 1.44039 0 549 1.44039 1
gene 3 212 20 -2.4611 0 550 -2.4611 0
gene 3 14 243 3.63239 0 637 3.63239 1
gene 3 243 19 -0.992238 0 638 -0.992238 1
gene 2 56 333 1.23599 1 872 1.23599 1
gene 2 333 56 -4.20596 0 873 -4.20596 1
gene 4 5 56 5.24064 0 963 5.24064 1
gene 1 7 432 2.16642 0 1133 2.16642 1
gene 1 432 20 -3.56369 0 1134 -3.56369 1
gene 3 13 467 -8 0 1227 -8 1
gene 3 467 20 -4.85866 0 1228 -4.85866 1
gene 2 4 56 -1.35578 0 1312 -1.35578 1
gene 2 2 535 -2.98931 0 1394 -2.98931 1
gene 2 535 18 0.907517 0 1395 0.907517 0
gene 2 80 535 -8 0 1495 -8 1
gene 4 11 467 5.69227 0 1592 5.69227 1
gene 4 11 56 8 0 1687 8 1
gene 2 107 432 5.91406 0 1776 5.91406 1
gene 1 467 467 -7.17623 1 1857 -7.17623 0
gene 1 467 751 0.616049 1 1933 0.616049 1
gene 1 751 467 -0.670896 0 1934 -0.670896 0
gene 1 14 787 2.33408 0 2027 2.33408 1
gene 1 787 18 -3.65589 0 2028 -3.65589 1
gene 4 15 922 2.7057 0 2361 2.7057 1
gene 4 922 19 -1.06928 0 2362 -1.06928 1
gene 3 751 751 8 1 2448 8 1
gene 4 4 787 -7.79638 0 2609 -7.79638 1
gene 2 8 243 7.55716 0 2715 7.55716 1
gene 1 4 1099 0.763558 0 2796 0.763558 1
gene 1 1099 20 3.22061 0 2797 3.22061 1
gene 1 19 18 7.74688 0 2895 7.74688 1
gene 3 12 1174 0.641361 0 2987 0.641361 1
gene 3 1174 19 -0.594493 0 2988 -0.594493 1
gene 3 212 1216 -1.5045 0 3087 -1.5045 0
gene 3 1216 20 1.90236 0 3088 1.90236 1
gene 3 212 1254 0.0488852 0 3184 0.0488852 0
gene 3 1254 1216 -4.25718 0 3185 -4.25718 1
gene 1 751 1353 1 0 3450 1 1
gene 1 1353 467 -1.3444 0 3451 -1.3444 1
gene 3 154 1099 -1.83794 0 3544 -1.83794 1
gene 3 212 1433 2.2814 0 3636 2.2814 1
gene 3 1433 1254 0.0488852 0 3637 0.0488852 1
gene 2 535 1472 1 0 3730 1 0
gene 2 1472 18 -2.64095 0 3731 -2.64095 1
gene 3 107 1513 1 0 3832 1 1
gene 3 1513 19 1.56993 0 3833 1.56993 1
gene 4 1353 80 8 0 3921 8 1
gene 3 1099 1099 1.00925 1 4007 1.00925 1
gene 2 3 1621 2.69391 0 4099 2.69391 1
gene 2 1621 18 5.66512 0 4100 5.66512 1
gene 2 18 18 8 1 4199 8 1
gene 2 535 1689 1 0 4280 1 1
gene 2 1689 1472 1 0 4281 1 1
genomeend 0

/* Organism #1 Fitness: 40 Error: 0 */

/* Position #1*/
#1 x: 64 y: 55
#2 x: 67 y: 85
#3 x: 82 y: 54
#4 x: 41 y: 77
#5 x: 57 y: 37
#6 x: 51 y: 71
genomestart 1
trait 1 1 0 0 0 0 0 0 0 
trait 2 2 0 0 0 0 0 0 0 
trait 3 3 0 0 0 0 0 0 0 
trait 4 4 0 0 0 0 0 0 0 
node 1 1 1 3
node 2 3 1 1
node 3 3 1 1
node 4 4 1 1
node 5 2 1 1
node 6 3 1 1
node 7 1 1 1
node 8 1 1 1
node 9 2 1 1
node 10 1 1 1
node 11 4 1 1
node 12 4 1 1
node 13 2 1 1
node 14 3 1 1
node 15 2 1 1
node 16 1 1 1
node 17 4 1 1
node 18 2 0 2
node 19 4 0 2
node 20 1 0 2
node 56 1 0 0
node 80 1 0 0
node 107 2 0 0
node 154 1 0 0
node 212 1 0 0
node 243 1 0 0
node 333 1 0 0
node 432 1 0 0
node 467 1 0 0
node 535 1 0 0
node 751 1 0 0
node 787 1 0 0
node 922 1 0 0
node 1099 1 0 0
node 1174 1 0 0
node 1216 1 0 0
node 1254 1 0 0
node 1353 1 0 0
node 1433 1 0 0
node 1472 1 0 0
node 1513 1 0 0
node 1621 1 0 0
node 1689 1 0 0
gene 1 1 18 0.730006 0 1 0.730006 1
gene 2 2 18 3.60067 0 2 3.60067 0
gene 2 3 18 5.66512 0 3 5.66512 0
gene 3 4 18 -7.22754 0 4 -7.22754 1
gene 3 5 18 -1.77694 0 5 -1.77694 0
gene 3 6 18 2.97447 0 6 2.97447 1
gene 1 7 18 3.58378 0 7 3.58378 1
gene 2 8 8 -4.20077 0 8 -4.20077 1
gene 2 9 18 2.14836 0 9 2.14836 1
gene 3 10 18 8 0 10 8 1
gene 4 11 18 3.75234 0 11 3.75234 1
gene 4 12 18 -7.09206 0 12 -7.09206 1
gene 1 13 18 -2.58801 0 13 -2.58801 1
gene 1 14 18 1.774 0 14 1.774 1
gene 4 15 18 -3.78928 0 15 -3.78928 1
gene 2 16 18 3.47414 0 16 3.47414 1
gene 2 17 18 -1.4757 0 17 -1.4757 1
gene 1 1 19 5.80306 0 18 5.80306 1
gene 3 2 19 1.53153 0 19 1.53153 1
gene 2 3 19 0.416104 0 20 0.416104 1
gene 1 4 19 2.45398 0 21 2.45398 1
gene 4 5 19 2.88592 0 22 2.88592 1
gene 2 6 19 0.121959 0 23 0.121959 1
gene 3 7 19 -4.10409 0 24 -4.10409 1
gene 1 8 19 -2.5264 0 25 -2.5264 1
gene 2 9 19 -2.04444 0 26 -2.04444 1
gene 2 10 19 -8 0 27 -8 0
gene 2 11 19 5.10117 0 28 5.10117 0
gene 3 12 19 -5.50182 0 29 -5.50182 0
gene 4 13 19 -0.890782 0 30 -0.890782 1
gene 3 14 19 -1.88609 0 31 -1.88609 1
gene 4 15 19 3.46045 0 32 3.46045 0
gene 1 16 19 4.95909 0 33 4.95909 1
gene 3 17 19 -6.23451 0 34 -6.23451 1
gene 3 1 20 -1.70371 0 35 -1.70371 1
gene 2 2 20 -3.61133 0 36 -3.61133 1
gene 4 3 20 -0.711097 0 37 -0.711097 1
gene 1 4 20 7.16216 0 38 7.16216 0
gene 3 5 20 1.76303 0 39 1.76303 1
gene 3 6 20 -0.140088 0 40 -0.140088 1
gene 1 7 20 -6.22816 0 41 -6.22816 0
gene 2 8 20 5.95717 0 42 5.95717 1
gene 2 9 20 -3.24487 0 43 -3.24487 1
gene 3 10 20 8 0 44 8 1
gene 4 11 20 -8 0 45 -8 1
gene 2 12 20 -3.79626 0 46 -3.79626 1
gene 3 13 20 -0.151112 0 47 -0.151112 0
gene 3 14 20 3.29536 0 48 3.29536 0
gene 1 15 20 8 0 49 8 1
gene 3 16 20 2.94287 0 50 2.94287 1
gene 3 17 20 -6.5069 0 51 -6.5069 1
gene 2 18 20 -3.3949 0 77 -3.3949 1
gene 2 10 56 0.696383 0 135 0.696383 1
gene 2 56 19 5.80712 0 136 5.80712 1
gene 2 11 80 5.50261 0 197 5.50261 1
gene 2 80 19 -0.711381 0 198 -0.711381 1
gene 3 14 107 4.62729 0 265 4.62729 1
gene 3 107 19 1.56993 0 266 1.56993 0
gene 3 5 154 -1.60545 0 401 -1.60545 1
gene 3 154 18 -1.99459 0 402 -1.99459 1
gene 2 56 56 1.18065 1 475 1.18065 0
gene 3 14 212 3.52791 0 549 3.52791 1
gene 3 212 20 -1.25853 0 550 -1.25853 0
gene 3 14 243 3.21912 0 637 3.21912 1
gene 3 243 19 -0.561287 0 638 -0.561287 1
gene 2 56 333 2.23319 1 872 2.23319 1
gene 2 333 56 -2.25884 0 873 -2.25884 1
gene 4 5 56 7.59074 0 963 7.59074 1
gene 1 7 432 1.18828 0 1133 1.18828 1
gene 1 432 20 -1.64237 0 1134 -1.64237 1
gene 3 13 467 -6.88099 0 1227 -6.88099 1
gene 3 467 20 -4.13314 0 1228 -4.13314 1
gene 2 4 56 -0.253563 0 1312 -0.253563 1
gene 2 2 535 -0.82327 0 1394 -0.82327 1
gene 2 535 18 -1.27815 0 1395 -1.27815 0
gene 2 80 535 -7.20222 0 1495 -7.20222 1
gene 4 11 467 5.66254 0 1592 5.66254 1
gene 4 11 56 8 0 1687 8 1
gene 2 107 432 8 0 1776 8 1
gene 1 467 467 -6.59576 1 1857 -6.59576 0
gene 1 467 751 2.69979 1 1933 2.69979 1
gene 1 751 467 -1.90086 0 1934 -1.90086 0
gene 1 14 787 1.63139 0 2027 1.63139 1
gene 1 787 18 -2.69764 0 2028 -2.69764 1
gene 4 15 922 2.42098 0 2361 2.42098 1
gene 4 922 19 -0.59964 0 2362 -0.59964 1
gene 3 751 751 8 1 2448 8 1
gene 4 4 787 -7.28585 0 2609 -7.28585 1
gene 2 8 243 8 0 2715 8 1
gene 1 4 1099 2.38076 0 2796 2.38076 1
gene 1 1099 20 5.08023 0 2797 5.08023 1
gene 1 19 18 5.07416 0 2895 5.07416 1
gene 3 12 1174 -2.14238 0 2987 -2.14238 1
gene 3 1174 19 2.85018 0 2988 2.85018 1
gene 3 212 1216 1.13691 0 3087 1.13691 0
gene 3 1216 20 1.90236 0 3088 1.90236 1
gene 3 212 1254 0.0488852 0 3184 0.0488852 0
gene 3 1254 1216 -3.1217 0 3185 -3.1217 1
gene 1 751 1353 1 0 3450 0 1
gene 1 1353 467 -1.90086 0 3451 0 1
gene 3 154 1099 -46138 0 3544 -46138 1
gene 3 212 1433 1 0 3636 0 1
gene 3 1433 1254 0.0488852 0 3637 0 1
gene 2 535 1472 1 0 3730 0 0
gene 2 1472 18 -1.27815 0 3731 0 1
gene 3 107 1513 1 0 3832 0 1
gene 3 1513 19 1.56993 0 3833 0 1
gene 4 1353 80 65972 0 3921 65972 1
gene 3 1099 1099 25109 1 4007 25109 1
gene 2 3 1621 1 0 4099 0 1
gene 2 1621 18 5.66512 0 4100 0 1
gene 2 18 18 23536 1 4199 23536 1
gene 2 535 1689 1 0 4280 0 1
gene 2 1689 1472 1 0 4281 0 1
gene 2 9 80 77907 0 4367 77907 1
genomeend 1

/* Species #17 : (Size 2) (AF 210) (Age 50)  */


/* Organism #2 Fitness: 320 Error: 0 */

/* Position #2*/
#1 x: 63 y: 51
#2 x: 78 y: 38
#3 x: 16 y: 77
#4 x: 47 y: 80
#5 x: 56 y: 82
#6 x: 44 y: 65
genomestart 2
trait 1 1 0 0 0 0 0 0 0 
trait 2 2 0 0 0 0 0 0 0 
trait 3 3 9307 8074 99987 0 70006 30926 0 
trait 4 4 0 0 0 0 0 0 0 
node 1 3 1 3
node 2 1 1 1
node 3 4 1 1
node 4 4 1 1
node 5 3 1 1
node 6 3 1 1
node 7 3 1 1
node 8 3 1 1
node 9 4 1 1
node 10 4 1 1
node 11 4 1 1
node 12 2 1 1
node 13 1 1 1
node 14 2 1 1
node 15 3 1 1
node 16 1 1 1
node 17 4 1 1
node 18 4 0 2
node 19 1 0 2
node 20 2 0 2
node 28 1 0 0
node 50 1 0 0
node 78 1 0 0
node 158 1 0 0
node 191 1 0 0
node 218 1 0 0
node 246 1 0 0
node 270 1 0 0
node 298 1 0 0
node 337 1 0 0
node 403 1 0 0
node 434 1 0 0
node 538 1 0 0
node 576 1 0 0
node 650 1 0 0
node 689 1 0 0
node 754 1 0 0
node 789 1 0 0
node 962 1 0 0
node 1003 1 0 0
node 1026 1 0 0
node 1102 1 0 0
node 1139 1 0 0
node 1257 1 0 0
node 1289 1 0 0
node 1328 1 0 0
node 1354 1 0 0
node 1396 1 0 0
node 1550 1 0 0
node 1723 1 0 0
gene 3 1 18 4.07964 0 1 4.07964 1
gene 2 2 18 -0.536607 0 2 -0.536607 1
gene 3 3 18 -3.21393 0 3 -3.21393 1
gene 1 4 18 5.19154 0 4 5.19154 0
gene 3 5 18 -2.90073 0 5 -2.90073 1
gene 4 6 18 -2.93289 0 6 -2.93289 1
gene 3 7 18 -2.24016 0 7 -2.24016 1
gene 3 8 8 -2.30358 0 8 -2.30358 1
gene 1 9 18 0.149288 0 9 0.149288 1
gene 2 10 18 -0.320194 0 10 -0.320194 1
gene 3 11 18 -2.9717 0 11 -2.9717 1
gene 1 12 18 0.626103 0 12 0.626103 1
gene 4 13 18 -0.186898 0 13 -0.186898 1
gene 4 14 18 4.90362 0 14 4.90362 1
gene 1 15 18 3.05318 0 15 3.05318 1
gene 1 16 18 1.59804 0 16 1.59804 1
gene 3 17 18 -0.0556829 0 17 -0.0556829 1
gene 4 1 19 -1.83144 0 18 -1.83144 1
gene 3 2 19 -0.524234 0 19 -0.524234 1
gene 2 3 19 -2.62323 0 20 -2.62323 1
gene 2 4 19 2.57958 0 21 2.57958 0
gene 1 5 19 -2.64783 0 22 -2.64783 1
gene 2 6 19 5.23688 0 23 5.23688 1
gene 2 7 19 0.0604948 0 24 0.0604948 0
gene 3 8 19 0.544497 0 25 0.544497 1
gene 2 9 19 2.2372 0 26 2.2372 1
gene 2 10 19 3.31963 0 27 3.31963 0
gene 1 11 19 -3.61187 0 28 -3.61187 0
gene 2 12 19 0.39606 0 29 0.39606 0
gene 3 13 19 -3.93009 0 30 -3.93009 1
gene 3 14 19 0.46836 0 31 0.46836 1
gene 3 15 19 1.49105 0 32 1.49105 1
gene 3 16 19 5.18439 0 33 5.18439 0
gene 3 17 19 -4.49823 0 34 -4.49823 0
gene 2 1 20 -8 0 35 -8 1
gene 1 2 20 -8 0 36 -8 1
gene 4 3 20 -1.82764 0 37 -1.82764 1
gene 2 4 20 2.71182 0 38 2.71182 1
gene 4 5 20 1.6808 0 39 1.6808 1
gene 1 6 20 -1.36838 0 40 -1.36838 1
gene 1 7 20 -4.62039 0 41 -4.62039 0
gene 3 8 20 0.295914 0 42 0.295914 0
gene 4 9 20 0.0171951 0 43 0.0171951 1
gene 3 10 20 5.36169 0 44 5.36169 1
gene 3 11 20 3.5469 0 45 3.5469 1
gene 4 12 20 5.72684 0 46 5.72684 0
gene 4 13 20 1.12938 0 47 1.12938 0
gene 4 14 20 0.528044 0 48 0.528044 1
gene 3 15 20 -3.753 0 49 -3.753 1
gene 3 16 20 2.76799 0 50 2.76799 1
gene 2 17 20 2.06174 0 51 2.06174 1
gene 1 12 28 -3.38102 0 69 -3.38102 1
gene 1 28 19 -1.95776 0 70 -1.95776 1
gene 1 4 50 -0.487597 0 123 -0.487597 1
gene 1 50 18 2.98201 0 124 2.98201 1
gene 3 15 78 4.48688 0 193 4.48688 1
gene 3 78 19 3.60217 0 194 3.60217 1
gene 4 18 28 8 0 293 8 0
gene 2 9 28 2.07895 0 350 2.07895 1
gene 1 12 158 -1.02725 0 414 -1.02725 1
gene 1 158 18 -5.63492 0 415 -5.63492 1
gene 2 10 191 6.9755 0 496 6.9755 1
gene 2 191 18 -7.20192 0 497 -7.20192 0
gene 1 9 218 -4.5369 0 561 -4.5369 0
gene 1 218 18 -2.24379 0 562 -2.24379 1
gene 3 17 246 1.19877 0 648 1.19877 1
gene 3 246 19 3.08137 0 649 3.08137 1
gene 4 6 270 1.06878 0 707 1.06878 1
gene 4 270 18 1.90852 0 708 1.90852 0
gene 1 9 298 4.7909 0 790 4.7909 1
gene 1 298 218 4.13954 0 791 4.13954 1
gene 4 12 337 2.32941 0 882 2.32941 0
gene 4 337 20 5.57188 0 883 5.57188 1
gene 2 16 158 -8 0 966 -8 1
gene 2 9 403 -1.41055 0 1058 -1.41055 1
gene 2 403 28 3.40385 0 1059 3.40385 1
gene 1 50 434 -0.430674 0 1138 -0.430674 1
gene 1 434 18 0.326054 0 1139 0.326054 1
gene 2 10 28 -0.111802 0 1319 -0.111802 1
gene 4 18 538 -1.35262 0 1403 -1.35262 1
gene 4 538 28 -1.9693 0 1404 -1.9693 1
gene 1 11 576 1.93131 0 1503 1.93131 1
gene 1 576 19 -0.571184 0 1504 -0.571184 1
gene 4 20 20 2.70217 1 1595 2.70217 1
gene 3 16 650 2.6158 0 1695 2.6158 1
gene 3 650 19 3.50916 0 1696 3.50916 1
gene 2 10 689 2.62847 0 1785 2.62847 1
gene 2 689 191 -2.57451 0 1786 -2.57451 1
gene 4 15 218 -1.88612 0 1862 -1.88612 1
gene 2 9 754 -4.16793 0 1939 -4.16793 1
gene 2 754 403 -1.7532 0 1940 -1.7532 1
gene 4 12 789 8 0 2031 8 1
gene 4 789 337 -6.39388 0 2032 -6.39388 1
gene 2 19 50 -2.12294 0 2109 -2.12294 0
gene 3 7 962 0.606093 0 2449 0.606093 1
gene 3 962 18 0.511051 0 2450 0.511051 1
gene 2 19 1003 -4.83378 0 2549 -4.83378 1
gene 2 1003 50 0.344385 0 2550 0.344385 1
gene 4 13 1026 0.795648 0 2612 0.795648 1
gene 4 1026 20 2.02285 0 2613 2.02285 1
gene 2 4 1102 -1.7305 0 2802 -1.7305 1
gene 2 1102 19 0.320394 0 2803 0.320394 1
gene 2 191 1139 0.485683 0 2898 0.485683 1
gene 2 1139 18 0.51252 0 2899 0.51252 1
gene 2 689 1102 0.187912 0 2990 0.187912 1
gene 2 434 270 -1.91392 0 3091 -1.91392 1
gene 1 50 1257 -2.68762 0 3190 -2.68762 1
gene 1 1257 18 1.07094 0 3191 1.07094 1
gene 3 8 1289 -0.323565 0 3279 -0.323565 1
gene 3 1289 20 3.92988 0 3280 3.92988 0
gene 3 15 1328 0.17146 0 3374 0.17146 1
gene 3 1328 78 -0.407494 0 3375 -0.407494 1
gene 1 7 1354 0.0983518 0 3453 0.0983518 1
gene 1 1354 20 -1.58838 0 3454 -1.58838 1
gene 3 1289 1396 -2.52423 0 3545 -2.52423 1
gene 3 1396 20 -1.61724 0 3546 -1.61724 1
gene 3 78 1026 -8 0 3646 -8 1
gene 2 7 1550 2.095 0 3924 2.095 1
gene 2 1550 19 0.349178 0 3925 0.349178 1
gene 4 3 158 2.29457 0 4008 2.29457 1
gene 2 1102 1102 -8 1 4103 -8 1
gene 2 10 1723 1 0 4368 0 1
gene 2 1723 19 3.31963 0 4369 0 1
genomeend 2

/* Organism #3 Fitness: 100 Error: 0 */

/* Position #3*/
#1 x: 63 y: 51
#2 x: 78 y: 38
#3 x: 16 y: 77
#4 x: 47 y: 80
#5 x: 56 y: 82
#6 x: 44 y: 65
genomestart 3
trait 1 1 0 0 0 0 0 0 0 
trait 2 2 0 0 0 0 0 0 0 
trait 3 3 9307 8074 99987 0 70006 30926 0 
trait 4 4 0 0 0 0 0 0 0 
node 1 3 1 3
node 2 1 1 1
node 3 4 1 1
node 4 4 1 1
node 5 3 1 1
node 6 3 1 1
node 7 3 1 1
node 8 3 1 1
node 9 4 1 1
node 10 4 1 1
node 11 4 1 1
node 12 2 1 1
node 13 1 1 1
node 14 2 1 1
node 15 3 1 1
node 16 1 1 1
node 17 4 1 1
node 18 4 0 2
node 19 1 0 2
node 20 2 0 2
node 28 1 0 0
node 50 1 0 0
node 78 1 0 0
node 158 1 0 0
node 191 1 0 0
node 218 1 0 0
node 246 1 0 0
node 270 1 0 0
node 298 1 0 0
node 337 1 0 0
node 403 1 0 0
node 434 1 0 0
node 538 1 0 0
node 576 1 0 0
node 650 1 0 0
node 689 1 0 0
node 754 1 0 0
node 789 1 0 0
node 962 1 0 0
node 1003 1 0 0
node 1026 1 0 0
node 1102 1 0 0
node 1139 1 0 0
node 1257 1 0 0
node 1289 1 0 0
node 1328 1 0 0
node 1354 1 0 0
node 1396 1 0 0
node 1550 1 0 0
node 1724 1 0 0
gene 3 1 18 4.07964 0 1 4.07964 1
gene 2 2 18 -0.536607 0 2 -0.536607 1
gene 3 3 18 -3.21393 0 3 -3.21393 1
gene 1 4 18 5.19154 0 4 5.19154 0
gene 3 5 18 -2.90073 0 5 -2.90073 1
gene 4 6 18 -2.93289 0 6 -2.93289 1
gene 3 7 18 -2.24016 0 7 -2.24016 1
gene 3 8 8 -2.30358 0 8 -2.30358 1
gene 1 9 18 0.149288 0 9 0.149288 1
gene 2 10 18 -0.320194 0 10 -0.320194 1
gene 3 11 18 -2.9717 0 11 -2.9717 1
gene 1 12 18 0.626103 0 12 0.626103 1
gene 4 13 18 -0.186898 0 13 -0.186898 1
gene 4 14 18 4.90362 0 14 4.90362 1
gene 1 15 18 3.05318 0 15 3.05318 1
gene 1 16 18 1.59804 0 16 1.59804 1
gene 3 17 18 -0.0556829 0 17 -0.0556829 1
gene 4 1 19 -1.83144 0 18 -1.83144 1
gene 3 2 19 -0.524234 0 19 -0.524234 1
gene 2 3 19 -2.62323 0 20 -2.62323 1
gene 2 4 19 2.57958 0 21 2.57958 0
gene 1 5 19 -2.64783 0 22 -2.64783 1
gene 2 6 19 5.23688 0 23 5.23688 1
gene 2 7 19 0.0604948 0 24 0.0604948 0
gene 3 8 19 0.544497 0 25 0.544497 1
gene 2 9 19 2.2372 0 26 2.2372 1
gene 2 10 19 3.31963 0 27 3.31963 1
gene 1 11 19 -3.61187 0 28 -3.61187 0
gene 2 12 19 0.39606 0 29 0.39606 0
gene 3 13 19 -3.93009 0 30 -3.93009 1
gene 3 14 19 0.46836 0 31 0.46836 1
gene 3 15 19 1.49105 0 32 1.49105 1
gene 3 16 19 5.18439 0 33 5.18439 0
gene 3 17 19 -4.49823 0 34 -4.49823 0
gene 2 1 20 -8 0 35 -8 1
gene 1 2 20 -8 0 36 -8 1
gene 4 3 20 -1.82764 0 37 -1.82764 1
gene 2 4 20 2.71182 0 38 2.71182 1
gene 4 5 20 1.6808 0 39 1.6808 1
gene 1 6 20 -1.36838 0 40 -1.36838 1
gene 1 7 20 -4.62039 0 41 -4.62039 0
gene 3 8 20 0.295914 0 42 0.295914 0
gene 4 9 20 0.0171951 0 43 0.0171951 1
gene 3 10 20 5.36169 0 44 5.36169 1
gene 3 11 20 3.5469 0 45 3.5469 1
gene 4 12 20 5.72684 0 46 5.72684 0
gene 4 13 20 1.12938 0 47 1.12938 0
gene 4 14 20 0.528044 0 48 0.528044 1
gene 3 15 20 -3.753 0 49 -3.753 1
gene 3 16 20 2.76799 0 50 2.76799 1
gene 2 17 20 2.06174 0 51 2.06174 1
gene 1 12 28 -3.38102 0 69 -3.38102 1
gene 1 28 19 -1.95776 0 70 -1.95776 1
gene 1 4 50 -0.487597 0 123 -0.487597 1
gene 1 50 18 2.98201 0 124 2.98201 1
gene 3 15 78 4.48688 0 193 4.48688 1
gene 3 78 19 3.60217 0 194 3.60217 1
gene 4 18 28 8 0 293 8 0
gene 2 9 28 2.07895 0 350 2.07895 1
gene 1 12 158 -1.02725 0 414 -1.02725 1
gene 1 158 18 -5.63492 0 415 -5.63492 1
gene 2 10 191 6.9755 0 496 6.9755 1
gene 2 191 18 -7.20192 0 497 -7.20192 0
gene 1 9 218 -4.5369 0 561 -4.5369 0
gene 1 218 18 -2.24379 0 562 -2.24379 1
gene 3 17 246 1.19877 0 648 1.19877 1
gene 3 246 19 3.08137 0 649 3.08137 1
gene 4 6 270 1.06878 0 707 1.06878 1
gene 4 270 18 1.90852 0 708 1.90852 0
gene 1 9 298 4.7909 0 790 4.7909 1
gene 1 298 218 4.13954 0 791 4.13954 1
gene 4 12 337 2.32941 0 882 2.32941 0
gene 4 337 20 5.57188 0 883 5.57188 1
gene 2 16 158 -8 0 966 -8 1
gene 2 9 403 -1.41055 0 1058 -1.41055 1
gene 2 403 28 3.40385 0 1059 3.40385 1
gene 1 50 434 -0.430674 0 1138 -0.430674 1
gene 1 434 18 0.326054 0 1139 0.326054 1
gene 2 10 28 -0.111802 0 1319 -0.111802 1
gene 4 18 538 -1.35262 0 1403 -1.35262 1
gene 4 538 28 -1.9693 0 1404 -1.9693 1
gene 1 11 576 1.93131 0 1503 1.93131 1
gene 1 576 19 -0.571184 0 1504 -0.571184 1
gene 4 20 20 2.70217 1 1595 2.70217 1
gene 3 16 650 2.6158 0 1695 2.6158 1
gene 3 650 19 3.50916 0 1696 3.50916 1
gene 2 10 689 2.62847 0 1785 2.62847 1
gene 2 689 191 -2.57451 0 1786 -2.57451 1
gene 4 15 218 -1.88612 0 1862 -1.88612 1
gene 2 9 754 -4.16793 0 1939 -4.16793 1
gene 2 754 403 -1.7532 0 1940 -1.7532 1
gene 4 12 789 8 0 2031 8 1
gene 4 789 337 -6.39388 0 2032 -6.39388 1
gene 2 19 50 -2.12294 0 2109 -2.12294 0
gene 3 7 962 0.606093 0 2449 0.606093 1
gene 3 962 18 0.511051 0 2450 0.511051 1
gene 2 19 1003 -4.83378 0 2549 -4.83378 1
gene 2 1003 50 0.344385 0 2550 0.344385 1
gene 4 13 1026 0.795648 0 2612 0.795648 1
gene 4 1026 20 2.02285 0 2613 2.02285 1
gene 2 4 1102 -1.7305 0 2802 -1.7305 1
gene 2 1102 19 0.320394 0 2803 0.320394 1
gene 2 191 1139 0.485683 0 2898 0.485683 1
gene 2 1139 18 0.51252 0 2899 0.51252 1
gene 2 689 1102 0.187912 0 2990 0.187912 1
gene 2 434 270 -1.91392 0 3091 -1.91392 1
gene 1 50 1257 -2.68762 0 3190 -2.68762 1
gene 1 1257 18 1.07094 0 3191 1.07094 0
gene 3 8 1289 -0.323565 0 3279 -0.323565 1
gene 3 1289 20 3.92988 0 3280 3.92988 0
gene 3 15 1328 0.17146 0 3374 0.17146 1
gene 3 1328 78 -0.407494 0 3375 -0.407494 1
gene 1 7 1354 0.0983518 0 3453 0.0983518 1
gene 1 1354 20 -1.58838 0 3454 -1.58838 1
gene 3 1289 1396 -2.52423 0 3545 -2.52423 1
gene 3 1396 20 -1.61724 0 3546 -1.61724 1
gene 3 78 1026 -8 0 3646 -8 1
gene 2 7 1550 2.095 0 3924 2.095 1
gene 2 1550 19 0.349178 0 3925 0.349178 1
gene 4 3 158 2.29457 0 4008 2.29457 1
gene 2 1102 1102 -8 1 4103 -8 1
gene 1 1257 1724 1 0 4370 0 1
gene 1 1724 18 1.07094 0 4371 0 1
genomeend 3

/* Species #56 : (Size 3) (AF 140) (Age 39)  */


/* Organism #4 Fitness: 80 Error: 0 */

/* Position #4*/
#1 x: 34 y: 19
#2 x: 57 y: 27
#3 x: 65 y: 72
#4 x: 20 y: 44
#5 x: 20 y: 19
#6 x: 71 y: 71
genomestart 4
trait 1 1 0 0 0 0 0 0 0 
trait 2 2 0 0 0 0 0 0 0 
trait 3 3 0 0 0 0 0 0 0 
trait 4 4 0 0 0 0 0 0 0 
node 1 1 1 3
node 2 4 1 1
node 3 3 1 1
node 4 3 1 1
node 5 3 1 1
node 6 1 1 1
node 7 2 1 1
node 8 3 1 1
node 9 4 1 1
node 10 2 1 1
node 11 4 1 1
node 12 3 1 1
node 13 4 1 1
node 14 3 1 1
node 15 3 1 1
node 16 1 1 1
node 17 3 1 1
node 18 2 0 2
node 19 1 0 2
node 20 1 0 2
node 34 1 0 0
node 71 1 0 0
node 168 1 0 0
node 273 1 0 0
node 318 1 0 0
node 429 1 0 0
node 461 1 0 0
node 526 1 0 0
node 568 1 0 0
node 638 1 0 0
node 704 1 0 0
node 768 1 0 0
node 804 1 0 0
node 934 1 0 0
node 973 1 0 0
node 1008 1 0 0
node 1034 1 0 0
node 1109 1 0 0
node 1149 1 0 0
node 1298 1 0 0
node 1334 1 0 0
node 1360 1 0 0
node 1407 1 0 0
node 1481 1 0 0
node 1662 1 0 0
node 1691 1 0 0
gene 4 1 18 2.53406 0 1 2.53406 1
gene 2 2 18 -5.38854 0 2 -5.38854 0
gene 2 3 18 2.32171 0 3 2.32171 1
gene 3 4 18 -7.26707 0 4 -7.26707 1
gene 3 5 18 -4.60369 0 5 -4.60369 1
gene 3 6 18 6.07451 0 6 6.07451 1
gene 4 7 18 -0.966814 0 7 -0.966814 1
gene 2 8 8 -3.07096 0 8 -3.07096 0
gene 3 9 18 1.01917 0 9 1.01917 1
gene 4 10 18 0.230364 0 10 0.230364 1
gene 4 11 18 -1.02123 0 11 -1.02123 0
gene 4 12 18 1.47756 0 12 1.47756 1
gene 1 13 18 1.19735 0 13 1.19735 1
gene 1 14 18 2.42677 0 14 2.42677 1
gene 4 15 18 -2.45677 0 15 -2.45677 1
gene 2 16 18 -8 0 16 -8 1
gene 4 17 18 -2.52233 0 17 -2.52233 1
gene 1 1 19 -6.12537 0 18 -6.12537 1
gene 1 2 19 4.23593 0 19 4.23593 0
gene 1 3 19 -1.00373 0 20 -1.00373 1
gene 1 4 19 5.10895 0 21 5.10895 1
gene 3 5 19 -8 0 22 -8 1
gene 2 6 19 0.338324 0 23 0.338324 1
gene 1 7 19 -5.29852 0 24 -5.29852 0
gene 1 8 19 1.60058 0 25 1.60058 0
gene 2 9 19 -1.7599 0 26 -1.7599 1
gene 4 10 19 8 0 27 8 1
gene 2 11 19 -4.43593 0 28 -4.43593 0
gene 4 12 19 1.68498 0 29 1.68498 0
gene 3 13 19 -3.14046 0 30 -3.14046 0
gene 3 14 19 4.09651 0 31 4.09651 1
gene 2 15 19 2.48102 0 32 2.48102 1
gene 1 16 19 7.28865 0 33 7.28865 1
gene 3 17 19 4.63551 0 34 4.63551 1
gene 3 1 20 -0.655397 0 35 -0.655397 1
gene 4 2 20 -5.54459 0 36 -5.54459 0
gene 2 3 20 0.557912 0 37 0.557912 1
gene 4 4 20 -5.54858 0 38 -5.54858 1
gene 2 5 20 0.230347 0 39 0.230347 0
gene 4 6 20 4.43343 0 40 4.43343 1
gene 1 7 20 -0.1052 0 41 -0.1052 0
gene 2 8 20 -5.0881 0 42 -5.0881 0
gene 2 9 20 4.98219 0 43 4.98219 1
gene 3 10 20 -3.06774 0 44 -3.06774 1
gene 4 11 20 4.55775 0 45 4.55775 1
gene 2 12 20 5.06081 0 46 5.06081 1
gene 1 13 20 1.58161 0 47 1.58161 1
gene 3 14 20 1.28476 0 48 1.28476 1
gene 1 15 20 6.66758 0 49 6.66758 1
gene 2 16 20 -4.91363 0 50 -4.91363 0
gene 3 17 20 4.10851 0 51 4.10851 0
gene 1 7 34 -6.22958 0 85 -6.22958 1
gene 1 34 19 -8 0 86 -8 1
gene 2 8 71 0.61522 0 175 0.61522 0
gene 1 15 71 8 0 240 8 1
gene 3 17 168 0.959507 0 438 0.959507 1
gene 3 168 20 -3.12324 0 439 -3.12324 1
gene 3 6 34 -4.09136 0 619 -4.09136 0
gene 1 16 273 1.13663 0 715 1.13663 1
gene 1 273 20 -2.11006 0 716 -2.11006 1
gene 2 8 318 4.15694 0 837 4.15694 0
gene 2 318 71 1.69123 0 838 1.69123 0
gene 3 168 168 -4.53896 1 928 -4.53896 1
gene 4 14 273 -8 0 1004 -8 0
gene 4 14 429 -2.82748 0 1125 -2.82748 1
gene 4 429 273 -2.46171 0 1126 -2.46171 1
gene 1 8 461 -3.77761 0 1214 -3.77761 0
gene 1 461 19 5.92582 0 1215 5.92582 1
gene 4 429 34 6.48431 0 1296 6.48431 1
gene 2 8 526 4.02644 0 1372 4.02644 1
gene 1 526 461 8 0 1373 8 0
gene 4 12 568 -1.35977 0 1478 -1.35977 1
gene 4 568 19 -1.61267 0 1479 -1.61267 0
gene 2 8 638 -4.61585 0 1659 -4.61585 1
gene 2 638 318 -4.39048 0 1660 -4.39048 1
gene 2 2 704 -3.03441 0 1823 -3.03441 0
gene 2 704 18 -5.05533 0 1824 -5.05533 1
gene 4 2 768 -3.56585 0 1974 -3.56585 1
gene 4 768 20 2.13835 0 1975 2.13835 1
gene 3 13 804 0.359459 0 2067 0.359459 1
gene 3 804 19 5.9665 0 2068 5.9665 1
gene 2 526 20 -1.32564 0 2248 -1.32564 0
gene 1 7 934 -2.07152 0 2388 -2.07152 1
gene 1 934 20 -0.711996 0 2389 -0.711996 1
gene 2 11 973 -3.02258 0 2475 -3.02258 1
gene 2 973 19 -1.02664 0 2476 -1.02664 1
gene 4 11 1008 -0.190245 0 2560 -0.190245 1
gene 4 1008 18 -6.83721 0 2561 -6.83721 1
gene 2 5 1034 0.836315 0 2633 0.836315 0
gene 2 1034 20 3.34042 0 2634 3.34042 1
gene 4 804 804 -4.09665 1 2736 -4.09665 1
gene 4 568 1109 -0.633379 0 2820 -0.633379 0
gene 4 1109 19 0.141022 0 2821 0.141022 1
gene 3 6 1149 -3.01182 0 2921 -3.01182 1
gene 3 1149 34 -4.97558 0 2922 -4.97558 1
gene 1 2 1298 0.489297 0 3298 0.489297 1
gene 1 1298 19 -0.255532 0 3299 -0.255532 1
gene 2 526 1334 -1.32423 0 3388 -1.32423 1
gene 2 1334 20 1.73991 0 3389 1.73991 1
gene 2 5 1360 0.397364 0 3466 0.397364 0
gene 2 1360 1034 -0.801291 0 3467 -0.801291 1
gene 2 318 1407 1.46331 0 3571 1.46331 1
gene 2 1407 71 6.33821 0 3572 6.33821 1
gene 4 12 429 -8 0 3659 -8 1
gene 2 2 1481 0.93295 0 3750 0.93295 1
gene 2 1481 704 -6.28433 0 3751 -6.28433 1
gene 3 318 318 1.23796 1 3939 1.23796 1
gene 2 1149 638 -47545 0 4106 -47545 1
gene 2 5 1662 1 0 4206 0 1
gene 2 1662 1360 0.397364 0 4207 0 1
gene 1 526 1691 1 0 4285 0 1
gene 1 1691 461 8 0 4286 0 1
gene 3 973 973 -75700 1 4372 -75700 1
genomeend 4

/* Organism #5 Fitness: 100 Error: 0 */

/* Position #5*/
#1 x: 34 y: 19
#2 x: 57 y: 27
#3 x: 65 y: 72
#4 x: 20 y: 44
#5 x: 20 y: 19
#6 x: 71 y: 71
genomestart 5
trait 1 1 0 0 0 0 0 0 0 
trait 2 2 0 0 0 0 0 0 0 
trait 3 3 0 0 0 0 0 0 0 
trait 4 4 0 0 0 0 0 0 0 
node 1 1 1 3
node 2 4 1 1
node 3 3 1 1
node 4 3 1 1
node 5 3 1 1
node 6 1 1 1
node 7 2 1 1
node 8 3 1 1
node 9 4 1 1
node 10 2 1 1
node 11 4 1 1
node 12 3 1 1
node 13 4 1 1
node 14 3 1 1
node 15 3 1 1
node 16 1 1 1
node 17 3 1 1
node 18 2 0 2
node 19 1 0 2
node 20 1 0 2
node 34 1 0 0
node 71 1 0 0
node 168 1 0 0
node 273 1 0 0
node 318 1 0 0
node 429 1 0 0
node 461 1 0 0
node 526 1 0 0
node 568 1 0 0
node 638 1 0 0
node 704 1 0 0
node 768 1 0 0
node 804 1 0 0
node 934 1 0 0
node 973 1 0 0
node 1008 1 0 0
node 1034 1 0 0
node 1109 1 0 0
node 1149 1 0 0
node 1298 1 0 0
node 1334 1 0 0
node 1360 1 0 0
node 1407 1 0 0
node 1481 1 0 0
node 1662 1 0 0
node 1691 1 0 0
node 1725 1 0 0
gene 4 1 18 2.53406 0 1 2.53406 1
gene 2 2 18 -5.38854 0 2 -5.38854 0
gene 2 3 18 2.32171 0 3 2.32171 1
gene 3 4 18 -7.26707 0 4 -7.26707 1
gene 3 5 18 -4.60369 0 5 -4.60369 1
gene 3 6 18 6.07451 0 6 6.07451 1
gene 4 7 18 -0.966814 0 7 -0.966814 1
gene 2 8 8 -3.07096 0 8 -3.07096 0
gene 3 9 18 1.01917 0 9 1.01917 1
gene 4 10 18 0.230364 0 10 0.230364 1
gene 4 11 18 -1.02123 0 11 -1.02123 0
gene 4 12 18 1.47756 0 12 1.47756 1
gene 1 13 18 1.19735 0 13 1.19735 1
gene 1 14 18 2.42677 0 14 2.42677 1
gene 4 15 18 -2.45677 0 15 -2.45677 1
gene 2 16 18 -8 0 16 -8 1
gene 4 17 18 -2.52233 0 17 -2.52233 1
gene 1 1 19 -6.12537 0 18 -6.12537 1
gene 1 2 19 4.23593 0 19 4.23593 0
gene 1 3 19 -1.00373 0 20 -1.00373 1
gene 1 4 19 5.10895 0 21 5.10895 1
gene 3 5 19 -8 0 22 -8 1
gene 2 6 19 0.338324 0 23 0.338324 1
gene 1 7 19 -5.29852 0 24 -5.29852 0
gene 1 8 19 1.60058 0 25 1.60058 0
gene 2 9 19 -1.7599 0 26 -1.7599 1
gene 4 10 19 8 0 27 8 1
gene 2 11 19 -4.43593 0 28 -4.43593 0
gene 4 12 19 1.68498 0 29 1.68498 0
gene 3 13 19 -3.14046 0 30 -3.14046 0
gene 3 14 19 4.09651 0 31 4.09651 1
gene 2 15 19 2.48102 0 32 2.48102 1
gene 1 16 19 7.28865 0 33 7.28865 1
gene 3 17 19 4.63551 0 34 4.63551 1
gene 3 1 20 -0.655397 0 35 -0.655397 1
gene 4 2 20 -5.54459 0 36 -5.54459 0
gene 2 3 20 0.557912 0 37 0.557912 1
gene 4 4 20 -5.54858 0 38 -5.54858 1
gene 2 5 20 0.230347 0 39 0.230347 0
gene 4 6 20 4.43343 0 40 4.43343 1
gene 1 7 20 -0.1052 0 41 -0.1052 0
gene 2 8 20 -5.0881 0 42 -5.0881 0
gene 2 9 20 4.98219 0 43 4.98219 1
gene 3 10 20 -3.06774 0 44 -3.06774 1
gene 4 11 20 4.55775 0 45 4.55775 1
gene 2 12 20 5.06081 0 46 5.06081 1
gene 1 13 20 1.58161 0 47 1.58161 1
gene 3 14 20 1.28476 0 48 1.28476 1
gene 1 15 20 6.66758 0 49 6.66758 1
gene 2 16 20 -4.91363 0 50 -4.91363 0
gene 3 17 20 4.10851 0 51 4.10851 0
gene 1 7 34 -6.22958 0 85 -6.22958 1
gene 1 34 19 -8 0 86 -8 1
gene 2 8 71 0.61522 0 175 0.61522 0
gene 1 15 71 8 0 240 8 1
gene 3 17 168 0.959507 0 438 0.959507 1
gene 3 168 20 -3.12324 0 439 -3.12324 1
gene 3 6 34 -4.09136 0 619 -4.09136 0
gene 1 16 273 1.13663 0 715 1.13663 1
gene 1 273 20 -2.11006 0 716 -2.11006 1
gene 2 8 318 4.15694 0 837 4.15694 0
gene 2 318 71 1.69123 0 838 1.69123 0
gene 3 168 168 -4.53896 1 928 -4.53896 1
gene 4 14 273 -8 0 1004 -8 0
gene 4 14 429 -2.82748 0 1125 -2.82748 1
gene 4 429 273 -2.46171 0 1126 -2.46171 1
gene 1 8 461 -3.77761 0 1214 -3.77761 0
gene 1 461 19 5.92582 0 1215 5.92582 1
gene 4 429 34 6.48431 0 1296 6.48431 1
gene 2 8 526 4.02644 0 1372 4.02644 1
gene 1 526 461 8 0 1373 8 0
gene 4 12 568 -1.35977 0 1478 -1.35977 1
gene 4 568 19 -1.61267 0 1479 -1.61267 0
gene 2 8 638 -4.61585 0 1659 -4.61585 1
gene 2 638 318 -4.39048 0 1660 -4.39048 1
gene 2 2 704 -3.03441 0 1823 -3.03441 0
gene 2 704 18 -5.05533 0 1824 -5.05533 1
gene 4 2 768 -3.56585 0 1974 -3.56585 1
gene 4 768 20 2.13835 0 1975 2.13835 1
gene 3 13 804 0.359459 0 2067 0.359459 1
gene 3 804 19 5.9665 0 2068 5.9665 1
gene 2 526 20 -1.32564 0 2248 -1.32564 0
gene 1 7 934 -2.07152 0 2388 -2.07152 1
gene 1 934 20 -0.711996 0 2389 -0.711996 1
gene 2 11 973 -3.02258 0 2475 -3.02258 1
gene 2 973 19 -1.02664 0 2476 -1.02664 1
gene 4 11 1008 -0.190245 0 2560 -0.190245 1
gene 4 1008 18 -6.83721 0 2561 -6.83721 1
gene 2 5 1034 0.836315 0 2633 0.836315 0
gene 2 1034 20 3.34042 0 2634 3.34042 1
gene 4 804 804 -4.09665 1 2736 -4.09665 1
gene 4 568 1109 -0.633379 0 2820 -0.633379 0
gene 4 1109 19 0.141022 0 2821 0.141022 1
gene 3 6 1149 -3.01182 0 2921 -3.01182 1
gene 3 1149 34 -4.97558 0 2922 -4.97558 1
gene 1 2 1298 0.489297 0 3298 0.489297 1
gene 1 1298 19 -0.255532 0 3299 -0.255532 1
gene 2 526 1334 -1.32423 0 3388 -1.32423 1
gene 2 1334 20 1.73991 0 3389 1.73991 1
gene 2 5 1360 0.397364 0 3466 0.397364 0
gene 2 1360 1034 -0.801291 0 3467 -0.801291 1
gene 2 318 1407 1.46331 0 3571 1.46331 1
gene 2 1407 71 6.33821 0 3572 6.33821 0
gene 4 12 429 -8 0 3659 -8 1
gene 2 2 1481 0.93295 0 3750 0.93295 1
gene 2 1481 704 -6.28433 0 3751 -6.28433 1
gene 3 318 318 1.23796 1 3939 1.23796 1
gene 2 1149 638 -47545 0 4106 -47545 1
gene 2 5 1662 1 0 4206 0 1
gene 2 1662 1360 0.397364 0 4207 0 1
gene 1 526 1691 1 0 4285 0 1
gene 1 1691 461 8 0 4286 0 1
gene 2 1407 1725 1 0 4373 0 1
gene 2 1725 71 6.33821 0 4374 0 1
genomeend 5

/* Organism #6 Fitness: 240 Error: 0 */

/* Position #6*/
#1 x: 31 y: 26
#2 x: 28 y: 21
#3 x: 42 y: 40
#4 x: 54 y: 85
#5 x: 19 y: 44
#6 x: 21 y: 65
genomestart 6
trait 1 1 0 0 0 0 0 0 0 
trait 2 2 0 0 0 0 0 0 0 
trait 3 3 0 0 0 0 0 0 0 
trait 4 4 0 0 0 0 0 0 0 
node 1 1 1 3
node 2 4 1 1
node 3 3 1 1
node 4 3 1 1
node 5 3 1 1
node 6 1 1 1
node 7 2 1 1
node 8 3 1 1
node 9 4 1 1
node 10 2 1 1
node 11 4 1 1
node 12 3 1 1
node 13 4 1 1
node 14 3 1 1
node 15 3 1 1
node 16 1 1 1
node 17 3 1 1
node 18 2 0 2
node 19 1 0 2
node 20 1 0 2
node 34 1 0 0
node 71 1 0 0
node 168 1 0 0
node 273 1 0 0
node 318 1 0 0
node 429 1 0 0
node 461 1 0 0
node 526 1 0 0
node 568 1 0 0
node 638 1 0 0
node 704 1 0 0
node 768 1 0 0
node 804 1 0 0
node 934 1 0 0
node 973 1 0 0
node 1008 1 0 0
node 1034 1 0 0
node 1109 1 0 0
node 1149 1 0 0
node 1298 1 0 0
node 1334 1 0 0
node 1360 1 0 0
node 1407 1 0 0
node 1481 1 0 0
node 1662 1 0 0
node 1691 1 0 0
gene 4 1 18 2.53406 0 1 2.53406 1
gene 2 2 18 -5.38854 0 2 -5.38854 0
gene 2 3 18 2.32171 0 3 2.32171 1
gene 3 4 18 -7.26707 0 4 -7.26707 1
gene 3 5 18 -4.60369 0 5 -4.60369 1
gene 3 6 18 6.07451 0 6 6.07451 1
gene 4 7 18 -0.966814 0 7 -0.966814 1
gene 2 8 8 -3.07096 0 8 -3.07096 0
gene 3 9 18 1.01917 0 9 1.01917 1
gene 4 10 18 0.230364 0 10 0.230364 1
gene 4 11 18 -1.02123 0 11 -1.02123 0
gene 4 12 18 1.47756 0 12 1.47756 1
gene 1 13 18 1.19735 0 13 1.19735 1
gene 1 14 18 2.42677 0 14 2.42677 1
gene 4 15 18 -2.45677 0 15 -2.45677 1
gene 2 16 18 -8 0 16 -8 1
gene 4 17 18 -2.52233 0 17 -2.52233 1
gene 1 1 19 -6.12537 0 18 -6.12537 1
gene 1 2 19 4.23593 0 19 4.23593 0
gene 1 3 19 -1.00373 0 20 -1.00373 1
gene 1 4 19 5.10895 0 21 5.10895 1
gene 3 5 19 -8 0 22 -8 1
gene 2 6 19 0.338324 0 23 0.338324 1
gene 1 7 19 -5.29852 0 24 -5.29852 0
gene 1 8 19 1.60058 0 25 1.60058 0
gene 2 9 19 -1.7599 0 26 -1.7599 1
gene 4 10 19 8 0 27 8 1
gene 2 11 19 -4.43593 0 28 -4.43593 0
gene 4 12 19 1.68498 0 29 1.68498 0
gene 3 13 19 -3.14046 0 30 -3.14046 0
gene 3 14 19 4.09651 0 31 4.09651 1
gene 2 15 19 2.48102 0 32 2.48102 1
gene 1 16 19 7.28865 0 33 7.28865 1
gene 3 17 19 4.63551 0 34 4.63551 1
gene 3 1 20 -0.655397 0 35 -0.655397 1
gene 4 2 20 -5.54459 0 36 -5.54459 0
gene 2 3 20 0.557912 0 37 0.557912 1
gene 4 4 20 -5.54858 0 38 -5.54858 1
gene 2 5 20 0.230347 0 39 0.230347 0
gene 4 6 20 4.43343 0 40 4.43343 1
gene 1 7 20 -0.1052 0 41 -0.1052 0
gene 2 8 20 -5.0881 0 42 -5.0881 0
gene 2 9 20 4.98219 0 43 4.98219 1
gene 3 10 20 -3.06774 0 44 -3.06774 1
gene 4 11 20 4.55775 0 45 4.55775 1
gene 2 12 20 5.06081 0 46 5.06081 1
gene 1 13 20 1.58161 0 47 1.58161 1
gene 3 14 20 1.28476 0 48 1.28476 1
gene 1 15 20 6.66758 0 49 6.66758 1
gene 2 16 20 -4.91363 0 50 -4.91363 0
gene 3 17 20 4.10851 0 51 4.10851 0
gene 1 7 34 -6.22958 0 85 -6.22958 1
gene 1 34 19 -8 0 86 -8 1
gene 2 8 71 0.61522 0 175 0.61522 0
gene 1 15 71 8 0 240 8 1
gene 3 17 168 0.959507 0 438 0.959507 1
gene 3 168 20 -3.12324 0 439 -3.12324 1
gene 3 6 34 -4.09136 0 619 -4.09136 0
gene 1 16 273 1.13663 0 715 1.13663 1
gene 1 273 20 -2.11006 0 716 -2.11006 1
gene 2 8 318 4.15694 0 837 4.15694 0
gene 2 318 71 1.69123 0 838 1.69123 0
gene 3 168 168 -4.53896 1 928 -4.53896 1
gene 4 14 273 -8 0 1004 -8 0
gene 4 14 429 -2.82748 0 1125 -2.82748 1
gene 4 429 273 -2.46171 0 1126 -2.46171 1
gene 1 8 461 -3.77761 0 1214 -3.77761 0
gene 1 461 19 5.92582 0 1215 5.92582 1
gene 4 429 34 6.48431 0 1296 6.48431 1
gene 2 8 526 4.02644 0 1372 4.02644 1
gene 1 526 461 8 0 1373 8 0
gene 4 12 568 -1.35977 0 1478 -1.35977 1
gene 4 568 19 -1.61267 0 1479 -1.61267 0
gene 2 8 638 -4.61585 0 1659 -4.61585 1
gene 2 638 318 -4.39048 0 1660 -4.39048 1
gene 2 2 704 -3.03441 0 1823 -3.03441 0
gene 2 704 18 -5.05533 0 1824 -5.05533 1
gene 4 2 768 -3.56585 0 1974 -3.56585 1
gene 4 768 20 2.13835 0 1975 2.13835 1
gene 3 13 804 0.359459 0 2067 0.359459 1
gene 3 804 19 5.9665 0 2068 5.9665 1
gene 2 526 20 -1.32564 0 2248 -1.32564 0
gene 1 7 934 -2.07152 0 2388 -2.07152 1
gene 1 934 20 -0.711996 0 2389 -0.711996 1
gene 2 11 973 -3.02258 0 2475 -3.02258 1
gene 2 973 19 -1.02664 0 2476 -1.02664 1
gene 4 11 1008 -0.190245 0 2560 -0.190245 1
gene 4 1008 18 -6.83721 0 2561 -6.83721 1
gene 2 5 1034 0.836315 0 2633 0.836315 0
gene 2 1034 20 3.34042 0 2634 3.34042 1
gene 4 804 804 -4.09665 1 2736 -4.09665 1
gene 4 568 1109 -0.633379 0 2820 -0.633379 0
gene 4 1109 19 0.141022 0 2821 0.141022 1
gene 3 6 1149 -3.01182 0 2921 -3.01182 1
gene 3 1149 34 -4.97558 0 2922 -4.97558 1
gene 1 2 1298 0.489297 0 3298 0.489297 1
gene 1 1298 19 -0.255532 0 3299 -0.255532 1
gene 2 526 1334 -1.32423 0 3388 -1.32423 1
gene 2 1334 20 1.73991 0 3389 1.73991 1
gene 2 5 1360 0.397364 0 3466 0.397364 0
gene 2 1360 1034 -0.801291 0 3467 -0.801291 1
gene 2 318 1407 1.46331 0 3571 1.46331 1
gene 2 1407 71 6.33821 0 3572 6.33821 1
gene 4 12 429 -8 0 3659 -8 1
gene 2 2 1481 0.93295 0 3750 0.93295 1
gene 2 1481 704 -6.28433 0 3751 -6.28433 1
gene 3 318 318 1.23796 1 3939 1.23796 1
gene 2 1149 638 -47545 0 4106 -47545 1
gene 2 5 1662 1 0 4206 0 1
gene 2 1662 1360 0.397364 0 4207 0 1
gene 1 526 1691 1 0 4285 0 1
gene 1 1691 461 8 0 4286 0 1
gene 3 1149 568 71926 0 4375 71926 1
genomeend 6

/* Species #59 : (Size 3) (AF 153.333) (Age 38)  */


/* Organism #7 Fitness: 80 Error: 0 */

/* Position #7*/
#1 x: 31 y: 26
#2 x: 28 y: 21
#3 x: 42 y: 40
#4 x: 54 y: 85
#5 x: 19 y: 44
#6 x: 21 y: 65
genomestart 7
trait 1 26333 0 0 46132 0 7625 0 0 
trait 2 2 0 0 0 0 0 0 0 
trait 3 0 0 0 0 85854 0 0 0 
trait 4 4 0 0 0 0 0 0 0 
node 1 3 1 3
node 2 3 1 1
node 3 4 1 1
node 4 2 1 1
node 5 3 1 1
node 6 1 1 1
node 7 2 1 1
node 8 2 1 1
node 9 1 1 1
node 10 4 1 1
node 11 3 1 1
node 12 2 1 1
node 13 3 1 1
node 14 1 1 1
node 15 1 1 1
node 16 3 1 1
node 17 4 1 1
node 18 4 0 2
node 19 3 0 2
node 20 4 0 2
node 66 1 0 0
node 92 1 0 0
node 110 1 0 0
node 189 1 0 0
node 272 1 0 0
node 300 1 0 0
node 582 1 0 0
node 738 1 0 0
node 805 1 0 0
node 838 1 0 0
node 878 2 0 0
node 887 1 0 0
node 936 1 0 0
node 977 1 0 0
node 1037 1 0 0
node 1075 1 0 0
node 1111 1 0 0
node 1150 1 0 0
node 1184 1 0 0
node 1299 1 0 0
node 1410 1 0 0
node 1482 1 0 0
node 1523 1 0 0
node 1558 1 0 0
node 1584 1 0 0
node 1625 1 0 0
node 1663 1 0 0
node 1726 1 0 0
gene 1 1 18 -1.46529 0 1 -1.46529 1
gene 3 2 18 1.32887 0 2 1.32887 1
gene 3 3 18 6.38698 0 3 6.38698 1
gene 4 4 18 -3.83809 0 4 -3.83809 1
gene 2 5 18 -1.93847 0 5 -1.93847 1
gene 3 6 18 1.38318 0 6 1.38318 1
gene 2 7 18 -3.26672 0 7 -3.26672 1
gene 3 8 8 -5.24038 0 8 -5.24038 1
gene 4 9 18 -4.58372 0 9 -4.58372 1
gene 4 10 18 2.63287 0 10 2.63287 1
gene 4 11 18 -3.32667 0 11 -3.32667 0
gene 4 12 18 -3.25203 0 12 -3.25203 0
gene 4 13 18 -2.92909 0 13 -2.92909 1
gene 4 14 18 -1.86646 0 14 -1.86646 1
gene 1 15 18 -1.02131 0 15 -1.02131 1
gene 4 16 18 4.83243 0 16 4.83243 1
gene 2 17 18 0.124484 0 17 0.124484 0
gene 1 1 19 -0.337468 0 18 -0.337468 1
gene 3 2 19 -0.123064 0 19 -0.123064 0
gene 4 3 19 1.64451 0 20 1.64451 0
gene 1 4 19 1.94246 0 21 1.94246 1
gene 4 5 19 -0.440789 0 22 -0.440789 1
gene 2 6 19 0.760532 0 23 0.760532 1
gene 3 7 19 -5.77486 0 24 -5.77486 1
gene 2 8 19 0.671704 0 25 0.671704 0
gene 2 9 19 -6.28709 0 26 -6.28709 1
gene 4 10 19 -2.92758 0 27 -2.92758 1
gene 4 11 19 0.170188 0 28 0.170188 1
gene 4 12 19 -0.682282 0 29 -0.682282 1
gene 4 13 19 2.50456 0 30 2.50456 1
gene 3 14 19 -1.67206 0 31 -1.67206 1
gene 3 15 19 -0.840471 0 32 -0.840471 1
gene 2 16 19 -4.31244 0 33 -4.31244 0
gene 4 17 19 3.50193 0 34 3.50193 0
gene 1 1 20 6.10829 0 35 6.10829 1
gene 1 2 20 -2.1755 0 36 -2.1755 1
gene 2 3 20 -3.37499 0 37 -3.37499 0
gene 1 4 20 -1.21462 0 38 -1.21462 1
gene 3 5 20 0.373648 0 39 0.373648 0
gene 3 6 20 -0.696987 0 40 -0.696987 1
gene 4 7 20 3.99943 0 41 3.99943 1
gene 4 8 20 2.37568 0 42 2.37568 1
gene 2 9 20 -1.47976 0 43 -1.47976 0
gene 1 10 20 0.685209 0 44 0.685209 1
gene 2 11 20 -2.36947 0 45 -2.36947 1
gene 4 12 20 1.55267 0 46 1.55267 0
gene 3 13 20 -1.51983 0 47 -1.51983 1
gene 4 14 20 -3.81058 0 48 -3.81058 1
gene 1 15 20 -3.23514 0 49 -3.23514 1
gene 2 16 20 3.34099 0 50 3.34099 1
gene 4 17 20 2.60741 0 51 2.60741 1
gene 3 18 18 -3.77876 1 64 -3.77876 1
gene 4 11 66 -1.0157 0 164 -1.0157 1
gene 4 66 18 -0.821847 0 165 -0.821847 1
gene 3 6 92 -5.52835 0 226 -5.52835 1
gene 3 92 18 1.34649 0 227 1.34649 0
gene 4 12 110 2.57276 0 273 2.57276 1
gene 4 110 18 -2.77401 0 274 -2.77401 0
gene 3 66 92 -1.96899 0 353 -1.96899 1
gene 2 110 110 5.96339 1 421 5.96339 1
gene 4 7 189 0.485394 0 492 0.485394 1
gene 4 189 20 4.83556 0 493 4.83556 1
gene 4 12 272 -0.73941 0 713 -0.73941 1
gene 4 272 20 1.12772 0 714 1.12772 0
gene 4 8 300 2.59173 0 794 2.59173 1
gene 4 300 20 0.923407 0 795 0.923407 1
gene 4 92 92 0.549301 1 952 0.549301 0
gene 4 300 300 -2.05413 1 1032 -2.05413 1
gene 1 300 272 -3.96755 0 1118 -3.96755 1
gene 1 272 19 -2.66435 0 1301 -2.66435 1
gene 1 66 189 -1.5898 0 1378 -1.5898 0
gene 4 19 18 -5.64842 0 1480 -5.64842 1
gene 3 2 582 1.13915 0 1516 1.13915 1
gene 2 582 19 -1.86005 0 1517 -1.86005 0
gene 1 10 300 7.26988 0 1668 7.26988 1
gene 2 189 92 1.2445 0 1749 1.2445 1
gene 4 272 738 0.536437 0 1902 0.536437 0
gene 4 738 20 -2.32944 0 1903 -2.32944 1
gene 3 5 805 -3.60481 0 2070 -3.60481 1
gene 3 805 20 2.2505 0 2071 2.2505 1
gene 2 17 838 2.76122 0 2151 2.76122 1
gene 2 838 18 -5.36599 0 2152 -5.36599 0
gene 4 17 878 -0.319008 0 2251 -0.319008 1
gene 4 878 19 -1.49856 0 2252 -1.49856 1
gene 2 8 887 2.63131 0 2272 2.63131 1
gene 2 887 19 -2.92077 0 2273 -2.92077 1
gene 1 66 936 2.63485 0 2392 2.63485 1
gene 1 936 189 5.92551 0 2393 5.92551 1
gene 4 110 977 0.105702 0 2483 0.105702 0
gene 4 977 18 -0.781357 0 2484 -0.781357 1
gene 4 11 1037 -0.100173 0 2639 -0.100173 1
gene 4 1037 18 1.96017 0 2640 1.96017 1
gene 2 838 1075 -2.88122 0 2737 -2.88122 1
gene 2 1075 18 -0.489284 0 2738 -0.489284 1
gene 2 9 1111 5.01595 0 2824 5.01595 0
gene 2 1111 20 -0.810214 0 2825 -0.810214 1
gene 2 16 1150 2.48532 0 2923 2.48532 1
gene 2 1150 19 -2.99036 0 2924 -2.99036 1
gene 4 110 1184 -1.01953 0 3013 -1.01953 0
gene 4 1184 977 0.959282 0 3014 0.959282 1
gene 4 110 1299 3.2538 0 3300 3.2538 1
gene 4 1299 1184 -3.62973 0 3301 -3.62973 1
gene 2 92 1299 -8 0 3471 -8 1
gene 2 582 1410 -0.641858 0 3577 -0.641858 1
gene 2 1410 19 -3.03702 0 3578 -3.03702 1
gene 3 92 1482 1 0 3753 0 1
gene 3 1482 18 1.34649 0 3754 0 1
gene 4 92 1523 1 1 3857 0 1
gene 4 1523 92 0.549301 0 3858 0 1
gene 4 272 1558 1 0 3942 0 1
gene 4 1558 738 0.536437 0 3943 0 0
gene 2 9 1584 1 0 4012 0 1
gene 2 1584 1111 5.01595 0 4013 0 1
gene 4 3 1625 1 0 4109 0 1
gene 4 1625 19 1.64451 0 4110 0 1
gene 2 3 1663 1 0 4209 0 1
gene 2 1663 20 -3.37499 0 4210 0 1
gene 2 1410 738 21558 0 4287 21558 1
gene 4 1558 1726 1 0 4376 0 1
gene 4 1726 738 0.536437 0 4377 0 1
genomeend 7

/* Organism #8 Fitness: 180 Error: 0 */

/* Position #8*/
#1 x: 75 y: 62
#2 x: 53 y: 34
#3 x: 73 y: 49
#4 x: 36 y: 55
#5 x: 45 y: 29
#6 x: 78 y: 52
genomestart 8
trait 1 26333 0 0 46132 0 7625 0 0 
trait 2 2 0 0 0 0 0 0 0 
trait 3 0 0 0 0 85854 0 0 0 
trait 4 4 0 0 0 0 0 0 0 
node 1 3 1 3
node 2 3 1 1
node 3 4 1 1
node 4 2 1 1
node 5 3 1 1
node 6 1 1 1
node 7 2 1 1
node 8 2 1 1
node 9 1 1 1
node 10 4 1 1
node 11 3 1 1
node 12 2 1 1
node 13 3 1 1
node 14 1 1 1
node 15 1 1 1
node 16 3 1 1
node 17 4 1 1
node 18 4 0 2
node 19 3 0 2
node 20 4 0 2
node 66 1 0 0
node 92 1 0 0
node 110 1 0 0
node 189 1 0 0
node 272 1 0 0
node 300 1 0 0
node 582 1 0 0
node 738 1 0 0
node 805 1 0 0
node 838 1 0 0
node 878 2 0 0
node 887 1 0 0
node 936 1 0 0
node 977 1 0 0
node 1037 1 0 0
node 1075 1 0 0
node 1111 1 0 0
node 1150 1 0 0
node 1184 1 0 0
node 1299 1 0 0
node 1410 1 0 0
node 1482 1 0 0
node 1523 1 0 0
node 1558 1 0 0
node 1584 1 0 0
node 1625 1 0 0
node 1663 1 0 0
gene 1 1 18 -1.46529 0 1 -1.46529 1
gene 3 2 18 1.32887 0 2 1.32887 1
gene 3 3 18 6.38698 0 3 6.38698 1
gene 4 4 18 -3.83809 0 4 -3.83809 1
gene 2 5 18 -1.93847 0 5 -1.93847 1
gene 3 6 18 1.38318 0 6 1.38318 1
gene 2 7 18 -3.26672 0 7 -3.26672 1
gene 3 8 8 -5.24038 0 8 -5.24038 1
gene 4 9 18 -4.58372 0 9 -4.58372 1
gene 4 10 18 2.63287 0 10 2.63287 1
gene 4 11 18 -3.32667 0 11 -3.32667 0
gene 4 12 18 -3.25203 0 12 -3.25203 0
gene 4 13 18 -2.92909 0 13 -2.92909 1
gene 4 14 18 -1.86646 0 14 -1.86646 1
gene 1 15 18 -1.02131 0 15 -1.02131 1
gene 4 16 18 4.83243 0 16 4.83243 1
gene 2 17 18 0.124484 0 17 0.124484 0
gene 1 1 19 -0.337468 0 18 -0.337468 1
gene 3 2 19 -0.123064 0 19 -0.123064 0
gene 4 3 19 1.64451 0 20 1.64451 0
gene 1 4 19 1.94246 0 21 1.94246 1
gene 4 5 19 -0.440789 0 22 -0.440789 1
gene 2 6 19 0.760532 0 23 0.760532 1
gene 3 7 19 -5.77486 0 24 -5.77486 1
gene 2 8 19 0.671704 0 25 0.671704 0
gene 2 9 19 -6.28709 0 26 -6.28709 1
gene 4 10 19 -2.92758 0 27 -2.92758 1
gene 4 11 19 0.170188 0 28 0.170188 1
gene 4 12 19 -0.682282 0 29 -0.682282 1
gene 4 13 19 2.50456 0 30 2.50456 1
gene 3 14 19 -1.67206 0 31 -1.67206 1
gene 3 15 19 -0.840471 0 32 -0.840471 1
gene 2 16 19 -4.31244 0 33 -4.31244 0
gene 4 17 19 3.50193 0 34 3.50193 0
gene 1 1 20 6.10829 0 35 6.10829 1
gene 1 2 20 -2.1755 0 36 -2.1755 1
gene 2 3 20 -3.37499 0 37 -3.37499 0
gene 1 4 20 -1.21462 0 38 -1.21462 1
gene 3 5 20 0.373648 0 39 0.373648 0
gene 3 6 20 -0.696987 0 40 -0.696987 1
gene 4 7 20 3.99943 0 41 3.99943 1
gene 4 8 20 2.37568 0 42 2.37568 1
gene 2 9 20 -1.47976 0 43 -1.47976 0
gene 1 10 20 0.685209 0 44 0.685209 1
gene 2 11 20 -2.36947 0 45 -2.36947 1
gene 4 12 20 1.55267 0 46 1.55267 0
gene 3 13 20 -1.51983 0 47 -1.51983 1
gene 4 14 20 -3.81058 0 48 -3.81058 1
gene 1 15 20 -3.23514 0 49 -3.23514 1
gene 2 16 20 3.34099 0 50 3.34099 1
gene 4 17 20 2.60741 0 51 2.60741 1
gene 3 18 18 -3.77876 1 64 -3.77876 1
gene 4 11 66 -1.0157 0 164 -1.0157 1
gene 4 66 18 -0.821847 0 165 -0.821847 1
gene 3 6 92 -5.52835 0 226 -5.52835 1
gene 3 92 18 1.34649 0 227 1.34649 0
gene 4 12 110 2.57276 0 273 2.57276 1
gene 4 110 18 -2.77401 0 274 -2.77401 0
gene 3 66 92 -1.96899 0 353 -1.96899 1
gene 2 110 110 5.96339 1 421 5.96339 1
gene 4 7 189 0.485394 0 492 0.485394 1
gene 4 189 20 4.83556 0 493 4.83556 1
gene 4 12 272 -0.73941 0 713 -0.73941 1
gene 4 272 20 1.12772 0 714 1.12772 0
gene 4 8 300 2.59173 0 794 2.59173 1
gene 4 300 20 0.923407 0 795 0.923407 1
gene 4 92 92 0.549301 1 952 0.549301 0
gene 4 300 300 -2.05413 1 1032 -2.05413 1
gene 1 300 272 -3.96755 0 1118 -3.96755 1
gene 1 272 19 -2.66435 0 1301 -2.66435 1
gene 1 66 189 -1.5898 0 1378 -1.5898 0
gene 4 19 18 -5.64842 0 1480 -5.64842 1
gene 3 2 582 1.13915 0 1516 1.13915 1
gene 2 582 19 -1.86005 0 1517 -1.86005 0
gene 1 10 300 7.26988 0 1668 7.26988 1
gene 2 189 92 1.2445 0 1749 1.2445 1
gene 4 272 738 0.536437 0 1902 0.536437 0
gene 4 738 20 -2.32944 0 1903 -2.32944 1
gene 3 5 805 -3.60481 0 2070 -3.60481 1
gene 3 805 20 2.2505 0 2071 2.2505 1
gene 2 17 838 2.76122 0 2151 2.76122 1
gene 2 838 18 -5.36599 0 2152 -5.36599 0
gene 4 17 878 -0.319008 0 2251 -0.319008 1
gene 4 878 19 -1.49856 0 2252 -1.49856 1
gene 2 8 887 2.63131 0 2272 2.63131 1
gene 2 887 19 -2.92077 0 2273 -2.92077 1
gene 1 66 936 2.63485 0 2392 2.63485 1
gene 1 936 189 5.92551 0 2393 5.92551 1
gene 4 110 977 0.105702 0 2483 0.105702 0
gene 4 977 18 -0.781357 0 2484 -0.781357 1
gene 4 11 1037 -0.100173 0 2639 -0.100173 1
gene 4 1037 18 1.96017 0 2640 1.96017 1
gene 2 838 1075 -2.88122 0 2737 -2.88122 1
gene 2 1075 18 -0.489284 0 2738 -0.489284 1
gene 2 9 1111 5.01595 0 2824 5.01595 0
gene 2 1111 20 -0.810214 0 2825 -0.810214 1
gene 2 16 1150 2.48532 0 2923 2.48532 1
gene 2 1150 19 -2.99036 0 2924 -2.99036 1
gene 4 110 1184 -1.01953 0 3013 -1.01953 0
gene 4 1184 977 0.959282 0 3014 0.959282 1
gene 4 110 1299 3.2538 0 3300 3.2538 1
gene 4 1299 1184 -3.62973 0 3301 -3.62973 1
gene 2 92 1299 -8 0 3471 -8 1
gene 2 582 1410 -0.641858 0 3577 -0.641858 1
gene 2 1410 19 -3.03702 0 3578 -3.03702 1
gene 3 92 1482 1 0 3753 0 1
gene 3 1482 18 1.34649 0 3754 0 1
gene 4 92 1523 1 1 3857 0 1
gene 4 1523 92 0.549301 0 3858 0 1
gene 4 272 1558 1 0 3942 0 1
gene 4 1558 738 0.536437 0 3943 0 1
gene 2 9 1584 1 0 4012 0 1
gene 2 1584 1111 5.01595 0 4013 0 1
gene 4 3 1625 1 0 4109 0 1
gene 4 1625 19 1.64451 0 4110 0 1
gene 2 3 1663 1 0 4209 0 1
gene 2 1663 20 -3.37499 0 4210 0 1
gene 2 1410 738 21558 0 4287 21558 1
gene 1 1037 977 -2434 0 4378 -2434 1
genomeend 8

/* Organism #9 Fitness: 200 Error: 0 */

/* Position #9*/
#1 x: 75 y: 62
#2 x: 53 y: 34
#3 x: 73 y: 49
#4 x: 36 y: 55
#5 x: 45 y: 29
#6 x: 78 y: 52
genomestart 9
trait 1 26333 0 0 46132 0 7625 0 0 
trait 2 2 0 0 0 0 0 0 0 
trait 3 0 0 0 0 85854 0 0 0 
trait 4 4 0 0 0 0 0 0 0 
node 1 3 1 3
node 2 3 1 1
node 3 4 1 1
node 4 2 1 1
node 5 3 1 1
node 6 1 1 1
node 7 2 1 1
node 8 2 1 1
node 9 1 1 1
node 10 4 1 1
node 11 3 1 1
node 12 2 1 1
node 13 3 1 1
node 14 1 1 1
node 15 1 1 1
node 16 3 1 1
node 17 4 1 1
node 18 4 0 2
node 19 3 0 2
node 20 4 0 2
node 66 1 0 0
node 92 1 0 0
node 110 1 0 0
node 189 1 0 0
node 272 1 0 0
node 300 1 0 0
node 582 1 0 0
node 738 1 0 0
node 805 1 0 0
node 838 1 0 0
node 878 2 0 0
node 887 1 0 0
node 936 1 0 0
node 977 1 0 0
node 1037 1 0 0
node 1075 1 0 0
node 1111 1 0 0
node 1150 1 0 0
node 1184 1 0 0
node 1299 1 0 0
node 1410 1 0 0
node 1482 1 0 0
node 1523 1 0 0
node 1558 1 0 0
node 1584 1 0 0
node 1625 1 0 0
node 1663 1 0 0
gene 1 1 18 1.17182 0 1 1.17182 1
gene 3 2 18 1.58155 0 2 1.58155 1
gene 3 3 18 6.95396 0 3 6.95396 1
gene 4 4 18 -6.4667 0 4 -6.4667 1
gene 2 5 18 -1.93847 0 5 -1.93847 1
gene 3 6 18 2.26142 0 6 2.26142 1
gene 2 7 18 -2.04045 0 7 -2.04045 1
gene 3 8 8 -3.60081 0 8 -3.60081 1
gene 4 9 18 0.184855 0 9 0.184855 1
gene 4 10 18 4.87231 0 10 4.87231 1
gene 4 11 18 -4.63645 0 11 -4.63645 0
gene 4 12 18 -4.82991 0 12 -4.82991 0
gene 4 13 18 -1.39318 0 13 -1.39318 1
gene 4 14 18 -2.16588 0 14 -2.16588 1
gene 1 15 18 0.113755 0 15 0.113755 1
gene 4 16 18 6.96168 0 16 6.96168 1
gene 2 17 18 -2.20188 0 17 -2.20188 0
gene 1 1 19 0.875263 0 18 0.875263 1
gene 3 2 19 2.56255 0 19 2.56255 0
gene 4 3 19 0.94299 0 20 0.94299 0
gene 1 4 19 4.91483 0 21 4.91483 1
gene 4 5 19 -0.440789 0 22 -0.440789 1
gene 2 6 19 -1.23798 0 23 -1.23798 1
gene 3 7 19 -3.61558 0 24 -3.61558 1
gene 2 8 19 -0.564099 0 25 -0.564099 0
gene 2 9 19 -8 0 26 -8 1
gene 4 10 19 -5.75364 0 27 -5.75364 1
gene 4 11 19 -1.75717 0 28 -1.75717 1
gene 4 12 19 -2.15061 0 29 -2.15061 1
gene 4 13 19 4.3118 0 30 4.3118 1
gene 3 14 19 -3.91205 0 31 -3.91205 1
gene 3 15 19 0.130624 0 32 0.130624 1
gene 2 16 19 -4.31244 0 33 -4.31244 0
gene 4 17 19 6.48514 0 34 6.48514 0
gene 1 1 20 7.4067 0 35 7.4067 1
gene 1 2 20 -2.1755 0 36 -2.1755 1
gene 2 3 20 0.737299 0 37 0.737299 0
gene 1 4 20 1.56666 0 38 1.56666 1
gene 3 5 20 -0.357624 0 39 -0.357624 0
gene 3 6 20 -1.5867 0 40 -1.5867 1
gene 4 7 20 3.99943 0 41 3.99943 1
gene 4 8 20 3.44741 0 42 3.44741 1
gene 2 9 20 -1.38297 0 43 -1.38297 0
gene 1 10 20 2.1598 0 44 2.1598 1
gene 2 11 20 0.167667 0 45 0.167667 1
gene 4 12 20 4.0563 0 46 4.0563 0
gene 3 13 20 0.560829 0 47 0.560829 1
gene 4 14 20 -3.81058 0 48 -3.81058 1
gene 1 15 20 -0.226339 0 49 -0.226339 1
gene 2 16 20 3.05076 0 50 3.05076 1
gene 4 17 20 0.485906 0 51 0.485906 1
gene 3 18 18 -1.08709 1 64 -1.08709 1
gene 4 11 66 -1.0157 0 164 -1.0157 1
gene 4 66 18 -1.0699 0 165 -1.0699 1
gene 3 6 92 -7.82973 0 226 -7.82973 1
gene 3 92 18 2.41349 0 227 2.41349 0
gene 4 12 110 1.62598 0 273 1.62598 1
gene 4 110 18 -3.46158 0 274 -3.46158 0
gene 3 66 92 -0.853039 0 353 -0.853039 1
gene 2 110 110 5.96339 1 421 5.96339 1
gene 4 7 189 -0.619902 0 492 -0.619902 1
gene 4 189 20 6.49754 0 493 6.49754 1
gene 4 12 272 1.29537 0 713 1.29537 1
gene 4 272 20 1.12772 0 714 1.12772 0
gene 4 8 300 -0.178156 0 794 -0.178156 1
gene 4 300 20 1.82727 0 795 1.82727 1
gene 4 92 92 -1.1938 1 952 -1.1938 0
gene 4 300 300 -1.51957 1 1032 -1.51957 1
gene 1 300 272 -1.37875 0 1118 -1.37875 1
gene 1 272 19 2.71051 0 1301 2.71051 1
gene 1 66 189 -2.33937 0 1378 -2.33937 0
gene 4 19 18 -7.8878 0 1480 -7.8878 1
gene 3 2 582 4.09488 0 1516 4.09488 1
gene 2 582 19 -1.34154 0 1517 -1.34154 0
gene 1 10 300 -1.76031 0 1668 -1.76031 1
gene 2 189 92 1.51581 0 1749 1.51581 1
gene 4 272 738 -2.16571 0 1902 -2.16571 0
gene 4 738 20 -4.47657 0 1903 -4.47657 1
gene 3 5 805 -3.60481 0 2070 -3.60481 1
gene 3 805 20 1.05936 0 2071 1.05936 1
gene 2 17 838 -0.145799 0 2151 -0.145799 1
gene 2 838 18 -4.37852 0 2152 -4.37852 0
gene 4 17 878 -0.319008 0 2251 -0.319008 1
gene 4 878 19 -1.04854 0 2252 -1.04854 1
gene 2 8 887 3.04611 0 2272 3.04611 1
gene 2 887 19 0.482879 0 2273 0.482879 1
gene 1 66 936 1.71846 0 2392 1.71846 1
gene 1 936 189 5.48597 0 2393 5.48597 1
gene 4 110 977 2.39524 0 2483 2.39524 0
gene 4 977 18 -0.781357 0 2484 -0.781357 1
gene 4 11 1037 0.0988176 0 2639 0.0988176 1
gene 4 1037 18 1.17295 0 2640 1.17295 1
gene 2 838 1075 -2.39981 0 2737 -2.39981 1
gene 2 1075 18 2.34538 0 2738 2.34538 1
gene 2 9 1111 5.71098 0 2824 5.71098 0
gene 2 1111 20 -3.79019 0 2825 -3.79019 1
gene 2 16 1150 2.48532 0 2923 2.48532 1
gene 2 1150 19 -2.79315 0 2924 -2.79315 1
gene 4 110 1184 0.821794 0 3013 0.821794 0
gene 4 1184 977 0.498966 0 3014 0.498966 1
gene 4 110 1299 5.27972 0 3300 5.27972 1
gene 4 1299 1184 -6.13174 0 3301 -6.13174 1
gene 2 92 1299 -5.13523 0 3471 -5.13523 1
gene 2 582 1410 -3.56011 0 3577 -3.56011 1
gene 2 1410 19 -0.764151 0 3578 -0.764151 1
gene 3 92 1482 0.375832 0 3753 0.375832 1
gene 3 1482 18 3.78076 0 3754 3.78076 1
gene 4 92 1523 -1.57263 1 3857 -1.57263 1
gene 4 1523 92 -0.102934 0 3858 -0.102934 1
gene 4 272 1558 -0.905069 0 3942 -0.905069 1
gene 4 1558 738 0.536437 0 3943 0.536437 1
gene 2 9 1584 2.82183 0 4012 2.82183 1
gene 2 1584 1111 3.28985 0 4013 3.28985 1
gene 4 3 1625 -1.01383 0 4109 -1.01383 1
gene 4 1625 19 -0.922389 0 4110 -0.922389 1
gene 2 3 1663 -0.131963 0 4209 -0.131963 1
gene 2 1663 20 -2.11157 0 4210 -2.11157 1
gene 2 1410 738 2.20081 0 4287 2.20081 1
genomeend 9

/* Species #62 : (Size 3) (AF 146.667) (Age 36)  */


/* Organism #10 Fitness: 240 Error: 0 */

/* Position #10*/
#1 x: 27 y: 48
#2 x: 76 y: 70
#3 x: 82 y: 62
#4 x: 51 y: 50
#5 x: 26 y: 24
#6 x: 78 y: 58
genomestart 10
trait 1 1 0 0 0 0 0 0 0 
trait 2 2 0 0 0 0 0 0 0 
trait 3 3 0 0 0 0 0 0 0 
trait 4 4 0 0 0 0 0 0 0 
node 1 1 1 3
node 2 3 1 1
node 3 3 1 1
node 4 4 1 1
node 5 2 1 1
node 6 3 1 1
node 7 1 1 1
node 8 1 1 1
node 9 2 1 1
node 10 1 1 1
node 11 4 1 1
node 12 4 1 1
node 13 2 1 1
node 14 3 1 1
node 15 2 1 1
node 16 1 1 1
node 17 4 1 1
node 18 2 0 2
node 19 4 0 2
node 20 1 0 2
node 63 1 0 0
node 108 1 0 0
node 144 1 0 0
node 171 1 0 0
node 189 1 0 0
node 230 1 0 0
node 280 1 0 0
node 307 1 0 0
node 340 1 0 0
node 372 1 0 0
node 416 1 0 0
node 442 1 0 0
node 480 1 0 0
node 532 1 0 0
node 676 1 0 0
node 740 1 0 0
node 938 1 0 0
node 1009 1 0 0
node 1040 1 0 0
node 1151 1 0 0
node 1185 1 0 0
node 1298 1 0 0
node 1411 1 0 0
node 1445 1 0 0
node 1525 1 0 0
node 1559 1 0 0
node 1586 1 0 0
node 1626 1 0 0
node 1664 1 0 0
gene 1 1 18 0.666544 0 1 0.666544 1
gene 3 2 18 -5.20859 0 2 -5.20859 1
gene 3 3 18 8 0 3 8 0
gene 3 4 18 2.63031 0 4 2.63031 1
gene 2 5 18 1.70439 0 5 1.70439 0
gene 3 6 18 -3.93335 0 6 -3.93335 0
gene 1 7 18 5.59332 0 7 5.59332 1
gene 3 8 8 -4.89017 0 8 -4.89017 0
gene 2 9 18 7.26364 0 9 7.26364 0
gene 3 10 18 -3.63542 0 10 -3.63542 0
gene 4 11 18 -0.701652 0 11 -0.701652 1
gene 4 12 18 8 0 12 8 1
gene 4 13 18 7.58418 0 13 7.58418 1
gene 1 14 18 -1.58931 0 14 -1.58931 1
gene 1 15 18 -6.07301 0 15 -6.07301 1
gene 4 16 18 4.56181 0 16 4.56181 1
gene 2 17 18 -0.308903 0 17 -0.308903 0
gene 1 1 19 4.59481 0 18 4.59481 1
gene 3 2 19 6.5405 0 19 6.5405 0
gene 2 3 19 6.33664 0 20 6.33664 0
gene 1 4 19 1.67773 0 21 1.67773 1
gene 4 5 19 1.23318 0 22 1.23318 0
gene 2 6 19 -2.72553 0 23 -2.72553 1
gene 3 7 19 6.00082 0 24 6.00082 1
gene 2 8 19 -6.70281 0 25 -6.70281 1
gene 4 9 19 -5.72583 0 26 -5.72583 1
gene 2 10 19 -5.19513 0 27 -5.19513 1
gene 2 11 19 6.13236 0 28 6.13236 1
gene 3 12 19 -3.92142 0 29 -3.92142 0
gene 4 13 19 2.87913 0 30 2.87913 0
gene 3 14 19 -0.268668 0 31 -0.268668 1
gene 4 15 19 3.33481 0 32 3.33481 0
gene 2 16 19 -1.87141 0 33 -1.87141 0
gene 4 17 19 -1.73153 0 34 -1.73153 1
gene 3 1 20 -5.25095 0 35 -5.25095 1
gene 2 2 20 -0.0344103 0 36 -0.0344103 0
gene 4 3 20 -3.91037 0 37 -3.91037 1
gene 1 4 20 2.16275 0 38 2.16275 1
gene 3 5 20 -1.59446 0 39 -1.59446 1
gene 3 6 20 2.33015 0 40 2.33015 0
gene 3 7 20 1.42058 0 41 1.42058 0
gene 4 8 20 -0.194101 0 42 -0.194101 1
gene 1 9 20 3.76865 0 43 3.76865 1
gene 1 10 20 1.11752 0 44 1.11752 1
gene 2 11 20 -4.99978 0 45 -4.99978 1
gene 1 12 20 -6.01896 0 46 -6.01896 1
gene 3 13 20 4.61801 0 47 4.61801 0
gene 2 14 20 -4.88568 0 48 -4.88568 1
gene 1 15 20 1.10731 0 49 1.10731 0
gene 3 16 20 8 0 50 8 1
gene 4 17 20 8 0 51 8 1
gene 2 18 20 -7.49719 0 77 -7.49719 1
gene 4 5 63 6.41317 0 150 6.41317 0
gene 4 63 19 -5.95303 0 151 -5.95303 1
gene 1 7 63 8 0 205 8 1
gene 2 17 108 -4.55763 0 267 -4.55763 1
gene 2 108 18 0.318604 0 268 0.318604 1
gene 4 3 144 5.84382 0 371 5.84382 0
gene 4 144 20 -3.92873 0 372 -3.92873 0
gene 3 8 171 -7.46985 0 447 -7.46985 1
gene 3 7 189 7.26561 0 492 7.26561 0
gene 3 189 20 -3.98962 0 493 -3.98962 1
gene 2 5 230 -1.87522 0 595 -1.87522 1
gene 2 230 18 6.35818 0 596 6.35818 1
gene 3 7 280 0.205656 0 735 0.205656 1
gene 3 280 20 -1.13321 0 736 -1.13321 0
gene 2 16 307 -1.27344 0 810 -1.27344 1
gene 2 307 19 5.55585 0 811 5.55585 1
gene 1 15 340 1.08997 0 890 1.08997 1
gene 1 340 20 1.83265 0 891 1.83265 1
gene 4 5 372 -1.24587 0 983 -1.24587 0
gene 4 372 63 7.4265 0 984 7.4265 1
gene 4 144 416 5.58488 0 1086 5.58488 1
gene 4 416 20 -0.0129892 0 1087 -0.0129892 1
gene 3 12 442 -0.922018 0 1160 -0.922018 0
gene 3 442 19 -1.12584 0 1161 -1.12584 1
gene 3 3 480 -3.51917 0 1257 -3.51917 1
gene 3 480 18 1.44638 0 1258 1.44638 1
gene 3 280 532 6.89435 0 1387 6.89435 1
gene 3 532 20 5.10582 0 1388 5.10582 0
gene 2 171 372 -4.25642 0 1490 -4.25642 1
gene 1 307 307 4.93709 1 1674 4.93709 1
gene 2 2 676 -1.74811 0 1750 -1.74811 1
gene 2 676 20 -0.119193 0 1751 -0.119193 1
gene 3 6 740 -3.15794 0 1907 -3.15794 1
gene 3 740 20 -1.79255 0 1908 -1.79255 1
gene 4 340 230 -4.13075 0 2158 -4.13075 1
gene 3 12 938 -3.50192 0 2397 -3.50192 1
gene 3 938 442 0.26136 0 2398 0.26136 1
gene 2 676 676 7.91226 1 2491 7.91226 1
gene 2 3 1009 -1.00969 0 2565 -1.00969 1
gene 2 1009 19 0.445418 0 2566 0.445418 1
gene 2 9 1040 -0.996681 0 2647 -0.996681 0
gene 2 1040 18 -4.53144 0 2648 -4.53144 1
gene 4 3 1151 5.30996 0 2926 5.30996 1
gene 4 1151 144 -1.36469 0 2927 -1.36469 1
gene 3 6 1185 -2.58624 0 3015 -2.58624 0
gene 3 1185 18 -3.01597 0 3016 -3.01597 1
gene 3 108 1040 1.57745 0 3110 1.57745 1
gene 3 2 1298 2.44806 0 3298 2.44806 1
gene 3 1298 19 2.74202 0 3299 2.74202 1
gene 3 10 1411 3.54298 0 3579 3.54298 1
gene 3 1411 18 -6.12687 0 3580 -6.12687 1
gene 4 15 1445 1 0 3666 1 1
gene 4 1445 19 1.5133 0 3667 1.5133 1
gene 3 6 1525 1 0 3861 0 1
gene 3 1525 1185 -2.58624 0 3862 0 1
gene 4 5 1559 1 0 3944 0 1
gene 4 1559 372 -1.24587 0 3945 0 1
gene 3 13 1586 1 0 4016 0 1
gene 3 1586 20 4.61801 0 4017 0 1
gene 3 532 1626 1 0 4112 0 1
gene 3 1626 20 5.10582 0 4113 0 1
gene 2 9 1664 1 0 4212 0 1
gene 2 1664 1040 -0.996681 0 4213 0 1
gene 4 18 18 -30253 1 4379 -30253 1
genomeend 10

/* Organism #11 Fitness: 120 Error: 0 */

/* Position #11*/
#1 x: 27 y: 48
#2 x: 76 y: 70
#3 x: 82 y: 62
#4 x: 51 y: 50
#5 x: 26 y: 24
#6 x: 78 y: 58
genomestart 11
trait 1 1 0 0 0 0 0 0 0 
trait 2 2 0 0 0 0 0 0 0 
trait 3 3 0 0 0 0 0 0 0 
trait 4 4 0 0 0 0 0 0 0 
node 1 1 1 3
node 2 3 1 1
node 3 3 1 1
node 4 4 1 1
node 5 2 1 1
node 6 3 1 1
node 7 1 1 1
node 8 1 1 1
node 9 2 1 1
node 10 1 1 1
node 11 4 1 1
node 12 4 1 1
node 13 2 1 1
node 14 3 1 1
node 15 2 1 1
node 16 1 1 1
node 17 4 1 1
node 18 2 0 2
node 19 4 0 2
node 20 1 0 2
node 63 1 0 0
node 108 1 0 0
node 144 1 0 0
node 171 1 0 0
node 189 1 0 0
node 230 1 0 0
node 280 1 0 0
node 307 1 0 0
node 340 1 0 0
node 372 1 0 0
node 416 1 0 0
node 442 1 0 0
node 480 1 0 0
node 532 1 0 0
node 676 1 0 0
node 740 1 0 0
node 938 1 0 0
node 1009 1 0 0
node 1040 1 0 0
node 1151 1 0 0
node 1185 1 0 0
node 1298 1 0 0
node 1411 1 0 0
node 1445 1 0 0
node 1525 1 0 0
node 1559 1 0 0
node 1586 1 0 0
node 1626 1 0 0
node 1664 1 0 0
node 1727 1 0 0
gene 1 1 18 0.666544 0 1 0.666544 1
gene 3 2 18 -5.20859 0 2 -5.20859 1
gene 3 3 18 8 0 3 8 0
gene 3 4 18 2.63031 0 4 2.63031 1
gene 2 5 18 1.70439 0 5 1.70439 0
gene 3 6 18 -3.93335 0 6 -3.93335 0
gene 1 7 18 5.59332 0 7 5.59332 1
gene 3 8 8 -4.89017 0 8 -4.89017 0
gene 2 9 18 7.26364 0 9 7.26364 0
gene 3 10 18 -3.63542 0 10 -3.63542 0
gene 4 11 18 -0.701652 0 11 -0.701652 1
gene 4 12 18 8 0 12 8 1
gene 4 13 18 7.58418 0 13 7.58418 1
gene 1 14 18 -1.58931 0 14 -1.58931 1
gene 1 15 18 -6.07301 0 15 -6.07301 1
gene 4 16 18 4.56181 0 16 4.56181 1
gene 2 17 18 -0.308903 0 17 -0.308903 0
gene 1 1 19 4.59481 0 18 4.59481 1
gene 3 2 19 6.5405 0 19 6.5405 0
gene 2 3 19 6.33664 0 20 6.33664 0
gene 1 4 19 1.67773 0 21 1.67773 1
gene 4 5 19 1.23318 0 22 1.23318 0
gene 2 6 19 -2.72553 0 23 -2.72553 1
gene 3 7 19 6.00082 0 24 6.00082 1
gene 2 8 19 -6.70281 0 25 -6.70281 1
gene 4 9 19 -5.72583 0 26 -5.72583 1
gene 2 10 19 -5.19513 0 27 -5.19513 1
gene 2 11 19 6.13236 0 28 6.13236 1
gene 3 12 19 -3.92142 0 29 -3.92142 0
gene 4 13 19 2.87913 0 30 2.87913 0
gene 3 14 19 -0.268668 0 31 -0.268668 1
gene 4 15 19 3.33481 0 32 3.33481 0
gene 2 16 19 -1.87141 0 33 -1.87141 0
gene 4 17 19 -1.73153 0 34 -1.73153 1
gene 3 1 20 -5.25095 0 35 -5.25095 1
gene 2 2 20 -0.0344103 0 36 -0.0344103 0
gene 4 3 20 -3.91037 0 37 -3.91037 1
gene 1 4 20 2.16275 0 38 2.16275 1
gene 3 5 20 -1.59446 0 39 -1.59446 1
gene 3 6 20 2.33015 0 40 2.33015 0
gene 3 7 20 1.42058 0 41 1.42058 0
gene 4 8 20 -0.194101 0 42 -0.194101 1
gene 1 9 20 3.76865 0 43 3.76865 1
gene 1 10 20 1.11752 0 44 1.11752 1
gene 2 11 20 -4.99978 0 45 -4.99978 1
gene 1 12 20 -6.01896 0 46 -6.01896 1
gene 3 13 20 4.61801 0 47 4.61801 0
gene 2 14 20 -4.88568 0 48 -4.88568 1
gene 1 15 20 1.10731 0 49 1.10731 0
gene 3 16 20 8 0 50 8 1
gene 4 17 20 8 0 51 8 1
gene 2 18 20 -7.49719 0 77 -7.49719 1
gene 4 5 63 6.41317 0 150 6.41317 0
gene 4 63 19 -5.95303 0 151 -5.95303 1
gene 1 7 63 8 0 205 8 1
gene 2 17 108 -4.55763 0 267 -4.55763 1
gene 2 108 18 0.318604 0 268 0.318604 1
gene 4 3 144 5.84382 0 371 5.84382 0
gene 4 144 20 -3.92873 0 372 -3.92873 0
gene 3 8 171 -7.46985 0 447 -7.46985 1
gene 3 7 189 7.26561 0 492 7.26561 0
gene 3 189 20 -3.98962 0 493 -3.98962 1
gene 2 5 230 -1.87522 0 595 -1.87522 1
gene 2 230 18 6.35818 0 596 6.35818 1
gene 3 7 280 0.205656 0 735 0.205656 1
gene 3 280 20 -1.13321 0 736 -1.13321 0
gene 2 16 307 -1.27344 0 810 -1.27344 1
gene 2 307 19 5.55585 0 811 5.55585 1
gene 1 15 340 1.08997 0 890 1.08997 1
gene 1 340 20 1.83265 0 891 1.83265 1
gene 4 5 372 -1.24587 0 983 -1.24587 0
gene 4 372 63 7.4265 0 984 7.4265 1
gene 4 144 416 5.58488 0 1086 5.58488 1
gene 4 416 20 -0.0129892 0 1087 -0.0129892 1
gene 3 12 442 -0.922018 0 1160 -0.922018 0
gene 3 442 19 -1.12584 0 1161 -1.12584 1
gene 3 3 480 -3.51917 0 1257 -3.51917 1
gene 3 480 18 1.44638 0 1258 1.44638 1
gene 3 280 532 6.89435 0 1387 6.89435 1
gene 3 532 20 5.10582 0 1388 5.10582 0
gene 2 171 372 -4.25642 0 1490 -4.25642 1
gene 1 307 307 4.93709 1 1674 4.93709 1
gene 2 2 676 -1.74811 0 1750 -1.74811 1
gene 2 676 20 -0.119193 0 1751 -0.119193 1
gene 3 6 740 -3.15794 0 1907 -3.15794 1
gene 3 740 20 -1.79255 0 1908 -1.79255 1
gene 4 340 230 -4.13075 0 2158 -4.13075 1
gene 3 12 938 -3.50192 0 2397 -3.50192 0
gene 3 938 442 0.26136 0 2398 0.26136 1
gene 2 676 676 7.91226 1 2491 7.91226 1
gene 2 3 1009 -1.00969 0 2565 -1.00969 1
gene 2 1009 19 0.445418 0 2566 0.445418 1
gene 2 9 1040 -0.996681 0 2647 -0.996681 0
gene 2 1040 18 -4.53144 0 2648 -4.53144 1
gene 4 3 1151 5.30996 0 2926 5.30996 1
gene 4 1151 144 -1.36469 0 2927 -1.36469 1
gene 3 6 1185 -2.58624 0 3015 -2.58624 0
gene 3 1185 18 -3.01597 0 3016 -3.01597 1
gene 3 108 1040 1.57745 0 3110 1.57745 1
gene 3 2 1298 2.44806 0 3298 2.44806 1
gene 3 1298 19 2.74202 0 3299 2.74202 1
gene 3 10 1411 3.54298 0 3579 3.54298 1
gene 3 1411 18 -6.12687 0 3580 -6.12687 1
gene 4 15 1445 1 0 3666 1 1
gene 4 1445 19 1.5133 0 3667 1.5133 1
gene 3 6 1525 1 0 3861 0 1
gene 3 1525 1185 -2.58624 0 3862 0 1
gene 4 5 1559 1 0 3944 0 1
gene 4 1559 372 -1.24587 0 3945 0 1
gene 3 13 1586 1 0 4016 0 1
gene 3 1586 20 4.61801 0 4017 0 1
gene 3 532 1626 1 0 4112 0 1
gene 3 1626 20 5.10582 0 4113 0 1
gene 2 9 1664 1 0 4212 0 1
gene 2 1664 1040 -0.996681 0 4213 0 1
gene 3 12 1727 1 0 4380 0 1
gene 3 1727 938 -3.50192 0 4381 0 1
genomeend 11

/* Organism #12 Fitness: 80 Error: 0 */

/* Position #12*/
#1 x: 84 y: 25
#2 x: 37 y: 48
#3 x: 15 y: 29
#4 x: 33 y: 39
#5 x: 22 y: 31
#6 x: 38 y: 17
genomestart 12
trait 1 1 0 0 0 0 0 0 0 
trait 2 2 0 0 0 0 0 0 0 
trait 3 3 0 0 0 0 0 0 0 
trait 4 4 0 0 0 0 0 0 0 
node 1 1 1 3
node 2 3 1 1
node 3 3 1 1
node 4 4 1 1
node 5 2 1 1
node 6 3 1 1
node 7 1 1 1
node 8 1 1 1
node 9 2 1 1
node 10 1 1 1
node 11 4 1 1
node 12 4 1 1
node 13 2 1 1
node 14 3 1 1
node 15 2 1 1
node 16 1 1 1
node 17 4 1 1
node 18 2 0 2
node 19 4 0 2
node 20 1 0 2
node 63 1 0 0
node 108 1 0 0
node 144 1 0 0
node 171 1 0 0
node 189 1 0 0
node 230 1 0 0
node 280 1 0 0
node 307 1 0 0
node 340 1 0 0
node 372 1 0 0
node 416 1 0 0
node 442 1 0 0
node 480 1 0 0
node 532 1 0 0
node 676 1 0 0
node 740 1 0 0
node 938 1 0 0
node 1009 1 0 0
node 1040 1 0 0
node 1151 1 0 0
node 1185 1 0 0
node 1298 1 0 0
node 1411 1 0 0
node 1445 1 0 0
node 1525 1 0 0
node 1559 1 0 0
node 1586 1 0 0
node 1626 1 0 0
node 1664 1 0 0
node 1728 1 0 0
gene 1 1 18 0.666544 0 1 0.666544 1
gene 3 2 18 -5.20859 0 2 -5.20859 1
gene 3 3 18 8 0 3 8 0
gene 3 4 18 2.63031 0 4 2.63031 1
gene 2 5 18 1.70439 0 5 1.70439 0
gene 3 6 18 -3.93335 0 6 -3.93335 0
gene 1 7 18 5.59332 0 7 5.59332 1
gene 3 8 8 -4.89017 0 8 -4.89017 0
gene 2 9 18 7.26364 0 9 7.26364 0
gene 3 10 18 -3.63542 0 10 -3.63542 0
gene 4 11 18 -0.701652 0 11 -0.701652 1
gene 4 12 18 8 0 12 8 1
gene 4 13 18 7.58418 0 13 7.58418 1
gene 1 14 18 -1.58931 0 14 -1.58931 1
gene 1 15 18 -6.07301 0 15 -6.07301 1
gene 4 16 18 4.56181 0 16 4.56181 1
gene 2 17 18 -0.308903 0 17 -0.308903 0
gene 1 1 19 4.59481 0 18 4.59481 1
gene 3 2 19 6.5405 0 19 6.5405 0
gene 2 3 19 6.33664 0 20 6.33664 0
gene 1 4 19 1.67773 0 21 1.67773 1
gene 4 5 19 1.23318 0 22 1.23318 0
gene 2 6 19 -2.72553 0 23 -2.72553 1
gene 3 7 19 6.00082 0 24 6.00082 1
gene 2 8 19 -6.70281 0 25 -6.70281 1
gene 4 9 19 -5.72583 0 26 -5.72583 1
gene 2 10 19 -5.19513 0 27 -5.19513 1
gene 2 11 19 6.13236 0 28 6.13236 1
gene 3 12 19 -3.92142 0 29 -3.92142 0
gene 4 13 19 2.87913 0 30 2.87913 0
gene 3 14 19 -0.268668 0 31 -0.268668 1
gene 4 15 19 3.33481 0 32 3.33481 0
gene 2 16 19 -1.87141 0 33 -1.87141 0
gene 4 17 19 -1.73153 0 34 -1.73153 1
gene 3 1 20 -5.25095 0 35 -5.25095 1
gene 2 2 20 -0.0344103 0 36 -0.0344103 0
gene 4 3 20 -3.91037 0 37 -3.91037 1
gene 1 4 20 2.16275 0 38 2.16275 1
gene 3 5 20 -1.59446 0 39 -1.59446 1
gene 3 6 20 2.33015 0 40 2.33015 0
gene 3 7 20 1.42058 0 41 1.42058 0
gene 4 8 20 -0.194101 0 42 -0.194101 1
gene 1 9 20 3.76865 0 43 3.76865 1
gene 1 10 20 1.11752 0 44 1.11752 1
gene 2 11 20 -4.99978 0 45 -4.99978 1
gene 1 12 20 -6.01896 0 46 -6.01896 1
gene 3 13 20 4.61801 0 47 4.61801 0
gene 2 14 20 -4.88568 0 48 -4.88568 1
gene 1 15 20 1.10731 0 49 1.10731 0
gene 3 16 20 8 0 50 8 1
gene 4 17 20 8 0 51 8 1
gene 2 18 20 -7.49719 0 77 -7.49719 1
gene 4 5 63 6.41317 0 150 6.41317 0
gene 4 63 19 -5.95303 0 151 -5.95303 1
gene 1 7 63 8 0 205 8 1
gene 2 17 108 -4.55763 0 267 -4.55763 1
gene 2 108 18 0.318604 0 268 0.318604 1
gene 4 3 144 5.84382 0 371 5.84382 0
gene 4 144 20 -3.92873 0 372 -3.92873 0
gene 3 8 171 -7.46985 0 447 -7.46985 1
gene 3 7 189 7.26561 0 492 7.26561 0
gene 3 189 20 -3.98962 0 493 -3.98962 1
gene 2 5 230 -1.87522 0 595 -1.87522 1
gene 2 230 18 6.35818 0 596 6.35818 1
gene 3 7 280 0.205656 0 735 0.205656 1
gene 3 280 20 -1.13321 0 736 -1.13321 0
gene 2 16 307 -1.27344 0 810 -1.27344 1
gene 2 307 19 5.55585 0 811 5.55585 1
gene 1 15 340 1.08997 0 890 1.08997 1
gene 1 340 20 1.83265 0 891 1.83265 0
gene 4 5 372 -1.24587 0 983 -1.24587 0
gene 4 372 63 7.4265 0 984 7.4265 1
gene 4 144 416 5.58488 0 1086 5.58488 1
gene 4 416 20 -0.0129892 0 1087 -0.0129892 1
gene 3 12 442 -0.922018 0 1160 -0.922018 0
gene 3 442 19 -1.12584 0 1161 -1.12584 1
gene 3 3 480 -3.51917 0 1257 -3.51917 1
gene 3 480 18 1.44638 0 1258 1.44638 1
gene 3 280 532 6.89435 0 1387 6.89435 1
gene 3 532 20 5.10582 0 1388 5.10582 0
gene 2 171 372 -4.25642 0 1490 -4.25642 1
gene 1 307 307 4.93709 1 1674 4.93709 1
gene 2 2 676 -1.74811 0 1750 -1.74811 1
gene 2 676 20 -0.119193 0 1751 -0.119193 1
gene 3 6 740 -3.15794 0 1907 -3.15794 1
gene 3 740 20 -1.79255 0 1908 -1.79255 1
gene 4 340 230 -4.13075 0 2158 -4.13075 1
gene 3 12 938 -3.50192 0 2397 -3.50192 1
gene 3 938 442 0.26136 0 2398 0.26136 1
gene 2 676 676 7.91226 1 2491 7.91226 1
gene 2 3 1009 -1.00969 0 2565 -1.00969 1
gene 2 1009 19 0.445418 0 2566 0.445418 1
gene 2 9 1040 -0.996681 0 2647 -0.996681 0
gene 2 1040 18 -4.53144 0 2648 -4.53144 1
gene 4 3 1151 5.30996 0 2926 5.30996 1
gene 4 1151 144 -1.36469 0 2927 -1.36469 1
gene 3 6 1185 -2.58624 0 3015 -2.58624 0
gene 3 1185 18 -3.01597 0 3016 -3.01597 1
gene 3 108 1040 1.57745 0 3110 1.57745 1
gene 3 2 1298 2.44806 0 3298 2.44806 1
gene 3 1298 19 2.74202 0 3299 2.74202 1
gene 3 10 1411 3.54298 0 3579 3.54298 1
gene 3 1411 18 -6.12687 0 3580 -6.12687 1
gene 4 15 1445 1 0 3666 1 1
gene 4 1445 19 1.5133 0 3667 1.5133 1
gene 3 6 1525 1 0 3861 0 1
gene 3 1525 1185 -2.58624 0 3862 0 1
gene 4 5 1559 1 0 3944 0 1
gene 4 1559 372 -1.24587 0 3945 0 1
gene 3 13 1586 1 0 4016 0 1
gene 3 1586 20 4.61801 0 4017 0 1
gene 3 532 1626 1 0 4112 0 1
gene 3 1626 20 5.10582 0 4113 0 1
gene 2 9 1664 1 0 4212 0 1
gene 2 1664 1040 -0.996681 0 4213 0 1
gene 1 340 1728 1 0 4382 0 1
gene 1 1728 20 1.83265 0 4383 0 1
genomeend 12

/* Species #66 : (Size 1) (AF 60) (Age 34)  */


/* Organism #13 Fitness: 60 Error: 0 */

/* Position #13*/
#1 x: 84 y: 25
#2 x: 37 y: 48
#3 x: 15 y: 29
#4 x: 33 y: 39
#5 x: 22 y: 31
#6 x: 38 y: 17
genomestart 13
trait 1 1 0 0 0 0 0 0 0 
trait 2 2 0 0 0 0 0 0 0 
trait 3 3 0 0 0 0 0 0 0 
trait 4 4 0 0 0 0 0 0 0 
node 1 1 1 3
node 2 3 1 1
node 3 3 1 1
node 4 4 1 1
node 5 2 1 1
node 6 3 1 1
node 7 1 1 1
node 8 1 1 1
node 9 2 1 1
node 10 1 1 1
node 11 4 1 1
node 12 4 1 1
node 13 2 1 1
node 14 3 1 1
node 15 2 1 1
node 16 1 1 1
node 17 4 1 1
node 18 2 0 2
node 19 4 0 2
node 20 1 0 2
node 63 1 0 0
node 108 1 0 0
node 144 1 0 0
node 171 1 0 0
node 189 1 0 0
node 230 1 0 0
node 280 1 0 0
node 307 1 0 0
node 340 1 0 0
node 372 1 0 0
node 416 1 0 0
node 442 1 0 0
node 480 1 0 0
node 772 1 0 0
node 808 1 0 0
node 882 1 0 0
node 908 1 0 0
node 999 1 0 0
node 1041 1 0 0
node 1074 1 0 0
node 1115 1 0 0
node 1152 1 0 0
node 1188 1 0 0
node 1226 1 0 0
node 1264 1 0 0
node 1300 1 0 0
node 1337 1 0 0
node 1362 1 0 0
node 1401 1 0 0
node 1484 1 0 0
node 1526 1 0 0
node 1562 1 0 0
node 1590 1 0 0
node 1627 1 0 0
node 1693 1 0 0
gene 1 1 18 2 0 1 2 1
gene 3 2 18 -3 0 2 -3 1
gene 3 3 18 1.15315 0 3 1.15315 1
gene 3 4 18 0.509993 0 4 0.509993 1
gene 2 5 18 -0.260857 0 5 -0.260857 0
gene 3 6 18 2.71705 0 6 2.71705 0
gene 1 7 18 -2.73914 0 7 -2.73914 1
gene 3 8 8 -5.12938 0 8 -5.12938 0
gene 2 9 18 -1.66097 0 9 -1.66097 1
gene 3 10 18 -1.3703 0 10 -1.3703 1
gene 4 11 18 4.3167 0 11 4.3167 1
gene 4 12 18 -0.843479 0 12 -0.843479 1
gene 4 13 18 -0.747516 0 13 -0.747516 1
gene 1 14 18 -2.3257 0 14 -2.3257 1
gene 2 15 18 -0.0641724 0 15 -0.0641724 1
gene 4 16 18 -1.48196 0 16 -1.48196 1
gene 2 17 18 -3.8768 0 17 -3.8768 0
gene 1 1 19 3.72007 0 18 3.72007 1
gene 3 2 19 -0.101334 0 19 -0.101334 1
gene 2 3 19 1.22598 0 20 1.22598 1
gene 1 4 19 -1.69053 0 21 -1.69053 1
gene 4 5 19 -2.15875 0 22 -2.15875 1
gene 2 6 19 1.84128 0 23 1.84128 1
gene 3 7 19 1.35218 0 24 1.35218 1
gene 2 8 19 -6.45096 0 25 -6.45096 1
gene 4 9 19 1.1348 0 26 1.1348 0
gene 2 10 19 -1.07422 0 27 -1.07422 1
gene 2 11 19 -7 0 28 -7 1
gene 3 12 19 0.989884 0 29 0.989884 0
gene 4 13 19 0.626009 0 30 0.626009 0
gene 3 14 19 2.85346 0 31 2.85346 0
gene 4 15 19 -2.1559 0 32 -2.1559 1
gene 2 16 19 3.92065 0 33 3.92065 1
gene 4 17 19 1.41974 0 34 1.41974 1
gene 3 1 20 -2.8423 0 35 -2.8423 1
gene 2 2 20 -0.519537 0 36 -0.519537 1
gene 4 3 20 2.21953 0 37 2.21953 1
gene 1 4 20 1.15991 0 38 1.15991 1
gene 3 5 20 2.23691 0 39 2.23691 1
gene 3 6 20 -1.21627 0 40 -1.21627 1
gene 3 7 20 -2.81934 0 41 -2.81934 0
gene 4 8 20 6.32221 0 42 6.32221 1
gene 1 9 20 -1.87906 0 43 -1.87906 1
gene 1 10 20 0.42704 0 44 0.42704 0
gene 2 11 20 0.529408 0 45 0.529408 1
gene 1 12 20 -0.10727 0 46 -0.10727 1
gene 3 13 20 0 0 47 0 1
gene 2 14 20 -1.76849 0 48 -1.76849 1
gene 1 15 20 2.52213 0 49 2.52213 0
gene 3 16 20 2.22432 0 50 2.22432 1
gene 4 17 20 6.11641 0 51 6.11641 0
gene 2 18 20 -6 0 77 -6 1
gene 4 5 63 4 0 150 4 0
gene 4 63 19 -5.97662 0 151 -5.97662 1
gene 1 7 63 -1.00238 0 205 -1.00238 1
gene 2 17 108 1 0 267 1 1
gene 2 108 18 -6.3957 0 268 -6.3957 1
gene 4 3 144 -1.90541 0 371 -1.90541 1
gene 4 144 20 0.941158 0 372 0.941158 1
gene 3 8 171 8 0 447 8 1
gene 3 7 189 3.14751 0 492 3.14751 0
gene 3 189 20 -2.51183 0 493 -2.51183 1
gene 2 5 230 -8 0 595 -8 0
gene 2 230 18 -2.25122 0 596 -2.25122 0
gene 3 7 280 -2.13542 0 735 -2.13542 1
gene 3 280 20 1.2025 0 736 1.2025 1
gene 2 16 307 2.28572 0 810 2.28572 1
gene 2 307 19 -1.84625 0 811 -1.84625 1
gene 1 15 340 1.36823 0 890 1.36823 1
gene 1 340 20 -1.36071 0 891 -1.36071 0
gene 4 5 372 2.2796 0 983 2.2796 1
gene 4 372 63 1 0 984 1 1
gene 4 144 416 7.3796 0 1086 7.3796 1
gene 4 416 20 1.52646 0 1087 1.52646 1
gene 3 12 442 0.382707 0 1160 0.382707 0
gene 3 442 19 -1.02109 0 1161 -1.02109 1
gene 3 3 480 -0.28935 0 1257 -0.28935 1
gene 3 480 18 5.04532 0 1258 5.04532 1
gene 4 19 372 8 1 1489 8 1
gene 1 480 480 -8 1 1755 -8 1
gene 1 108 480 -8 0 1911 -8 1
gene 1 10 772 -2.39439 0 1984 -2.39439 1
gene 1 772 20 2.80293 0 1985 2.80293 0
gene 4 13 808 1.33688 0 2077 1.33688 1
gene 4 808 18 1.43017 0 2078 1.43017 1
gene 2 14 882 -0.753263 0 2260 -0.753263 1
gene 2 882 20 0.783011 0 2261 0.783011 1
gene 4 19 908 0.212778 1 2326 0.212778 1
gene 4 908 372 2.4466 0 2327 2.4466 1
gene 2 6 999 -0.761759 0 2541 -0.761759 1
gene 2 999 19 -2.05002 0 2542 -2.05002 1
gene 1 7 1041 0.839737 0 2649 0.839737 1
gene 1 1041 63 2.22829 0 2650 2.22829 0
gene 2 6 1074 3.15329 0 2734 3.15329 0
gene 2 1074 19 0 0 2735 0 1
gene 3 12 1115 -1.82789 0 2832 -1.82789 1
gene 3 1115 442 1.55849 0 2833 1.55849 1
gene 1 1041 1152 3.31476 0 2928 3.31476 1
gene 1 1152 63 -2.06687 0 2929 -2.06687 1
gene 2 15 1188 0.885995 0 3021 0.885995 1
gene 2 1188 18 -2.14821 0 3022 -2.14821 1
gene 2 6 1226 2.86735 0 3112 2.86735 1
gene 2 1226 1074 -2.30179 0 3113 -2.30179 1
gene 2 230 1264 3.67962 0 3209 3.67962 0
gene 2 1264 18 -0.60979 0 3210 -0.60979 0
gene 2 5 1300 -1.99735 0 3304 -1.99735 1
gene 2 1300 230 -6.96661 0 3305 -6.96661 1
gene 2 1264 1337 1 0 3395 1 1
gene 2 1337 18 1.09637 0 3396 1.09637 1
gene 4 9 1362 -1.24057 0 3472 -1.24057 1
gene 4 1362 19 1.99108 0 3473 1.99108 1
gene 3 14 1401 1.60683 0 3556 1.60683 0
gene 3 1401 19 2.22078 0 3557 2.22078 1
gene 1 772 1484 1 0 3757 0 0
gene 1 1484 20 2.80293 0 3758 0 1
gene 1 772 1526 1 0 3863 0 1
gene 1 1526 1484 1 0 3864 0 1
gene 1 340 1562 1 0 3951 0 1
gene 1 1562 20 -1.36071 0 3952 0 1
gene 3 6 1590 1 0 4024 0 1
gene 3 1590 18 2.71705 0 4025 0 1
gene 3 7 1627 1 0 4114 0 1
gene 3 1627 189 3.14751 0 4115 0 1
gene 2 14 108 48001 0 4214 48001 1
gene 3 14 1693 1 0 4291 0 1
gene 3 1693 1401 1.60683 0 4292 0 1
gene 1 9 1115 27149 0 4384 27149 1
genomeend 13

/* Species #67 : (Size 1) (AF 240) (Age 33)  */


/* Organism #14 Fitness: 240 Error: 0 */

/* Position #14*/
#1 x: 59 y: 18
#2 x: 16 y: 28
#3 x: 73 y: 26
#4 x: 83 y: 75
#5 x: 18 y: 34
#6 x: 35 y: 75
genomestart 14
trait 1 1 0 0 0 0 0 0 0 
trait 2 2 0 0 0 0 0 0 0 
trait 3 100000 51913 0 0 23996 67005 56782 0 
trait 4 4 0 0 0 0 0 0 0 
node 1 3 1 3
node 2 3 1 1
node 3 4 1 1
node 4 2 1 1
node 5 3 1 1
node 6 1 1 1
node 7 2 1 1
node 8 2 1 1
node 9 1 1 1
node 10 3 1 1
node 11 3 1 1
node 12 2 1 1
node 13 3 1 1
node 14 1 1 1
node 15 1 1 1
node 16 3 1 1
node 17 4 1 1
node 18 4 0 2
node 19 3 0 2
node 20 4 0 2
node 66 1 0 0
node 92 1 0 0
node 117 1 0 0
node 125 1 0 0
node 315 1 0 0
node 351 1 0 0
node 423 1 0 0
node 586 1 0 0
node 710 1 0 0
node 742 4 0 0
node 841 1 0 0
node 911 1 0 0
node 924 1 0 0
node 1043 1 0 0
node 1082 1 0 0
node 1154 1 0 0
node 1354 1 0 0
node 1486 1 0 0
node 1591 1 0 0
node 1630 1 0 0
gene 1 1 18 -0.852382 0 1 -0.852382 1
gene 3 2 18 -3.10908 0 2 -3.10908 0
gene 3 3 18 4.05234 0 3 4.05234 0
gene 4 4 18 3.27252 0 4 3.27252 1
gene 2 5 18 -0.512477 0 5 -0.512477 1
gene 3 6 18 0.682999 0 6 0.682999 1
gene 2 7 18 -4.07456 0 7 -4.07456 1
gene 3 8 8 8 0 8 8 1
gene 4 9 18 1.08516 0 9 1.08516 1
gene 4 10 18 -2.9493 0 10 -2.9493 0
gene 4 11 18 -6.84265 0 11 -6.84265 0
gene 4 12 18 -0.405147 0 12 -0.405147 1
gene 4 13 18 -0.400551 0 13 -0.400551 0
gene 4 14 18 0.805987 0 14 0.805987 0
gene 1 15 18 0.774868 0 15 0.774868 0
gene 4 16 18 3.39782 0 16 3.39782 0
gene 2 17 18 -1.90296 0 17 -1.90296 1
gene 1 1 19 2.60479 0 18 2.60479 1
gene 3 2 19 3.50741 0 19 3.50741 0
gene 4 3 19 1.08882 0 20 1.08882 1
gene 1 4 19 -0.898054 0 21 -0.898054 1
gene 4 5 19 -1.28005 0 22 -1.28005 1
gene 2 6 19 4.02062 0 23 4.02062 1
gene 3 7 19 0.329328 0 24 0.329328 1
gene 2 8 19 -1.57165 0 25 -1.57165 1
gene 2 9 19 2.79823 0 26 2.79823 1
gene 4 10 19 -1.22645 0 27 -1.22645 1
gene 4 11 19 -2.40622 0 28 -2.40622 0
gene 4 12 19 -0.885794 0 29 -0.885794 1
gene 4 13 19 -3.65608 0 30 -3.65608 0
gene 3 14 19 3.69645 0 31 3.69645 1
gene 3 15 19 1.46289 0 32 1.46289 1
gene 2 16 19 2.26087 0 33 2.26087 0
gene 4 17 19 -5.24098 0 34 -5.24098 1
gene 1 1 20 4.1584 0 35 4.1584 1
gene 1 2 20 -1.16017 0 36 -1.16017 1
gene 2 3 20 -0.810371 0 37 -0.810371 1
gene 1 4 20 -1.71978 0 38 -1.71978 1
gene 3 5 20 1.28379 0 39 1.28379 1
gene 3 6 20 -7.63779 0 40 -7.63779 1
gene 4 7 20 -0.64214 0 41 -0.64214 0
gene 4 8 20 -0.0865384 0 42 -0.0865384 1
gene 2 9 20 -1.72482 0 43 -1.72482 1
gene 1 10 20 6.67802 0 44 6.67802 1
gene 2 11 20 0.968978 0 45 0.968978 1
gene 4 12 20 -3.15436 0 46 -3.15436 0
gene 3 13 20 4.98546 0 47 4.98546 1
gene 4 14 20 0.822225 0 48 0.822225 1
gene 1 15 20 0.49243 0 49 0.49243 1
gene 2 16 20 -5.42266 0 50 -5.42266 1
gene 4 17 20 -5.33271 0 51 -5.33271 1
gene 3 18 18 3.54525 1 64 3.54525 1
gene 4 11 66 3.12919 0 164 3.12919 1
gene 4 66 18 0.879904 0 165 0.879904 1
gene 3 6 92 -3.87864 0 226 -3.87864 1
gene 3 92 18 2.20451 0 227 2.20451 1
gene 3 2 117 0.922441 0 296 0.922441 1
gene 3 117 18 3.5954 0 297 3.5954 1
gene 3 3 125 -4.08206 0 321 -4.08206 1
gene 3 125 18 -0.971209 0 322 -0.971209 1
gene 2 15 92 0.481154 0 461 0.481154 1
gene 4 4 92 -2.01803 0 611 -2.01803 1
gene 4 13 315 8 0 829 8 1
gene 4 315 18 -2.29152 0 830 -2.29152 1
gene 3 2 351 -3.04954 0 924 -3.04954 1
gene 3 351 19 3.51628 0 925 3.51628 1
gene 3 92 423 -0.244218 0 1104 -0.244218 1
gene 3 423 18 -4.3435 0 1105 -4.3435 1
gene 2 1 117 -2.17793 0 1267 -2.17793 1
gene 4 13 66 1.53385 0 1336 1.53385 1
gene 3 351 351 0.454051 1 1438 0.454051 1
gene 4 315 586 4.22267 0 1529 4.22267 1
gene 4 586 18 -3.92663 0 1530 -3.92663 1
gene 3 6 315 8 0 1681 8 1
gene 4 6 125 0.714205 0 1758 0.714205 0
gene 3 6 710 -2.77824 0 1835 -2.77824 1
gene 3 710 315 4.22816 0 1836 4.22816 1
gene 4 10 742 0.569517 0 1912 0.569517 1
gene 4 742 18 -0.238028 0 1913 -0.238028 1
gene 1 8 92 -4.67246 0 1988 -4.67246 1
gene 4 13 841 8 0 2159 8 1
gene 4 841 19 -1.73227 0 2160 -1.73227 1
gene 4 12 911 -0.684539 0 2332 -0.684539 1
gene 4 911 20 1.35452 0 2333 1.35452 1
gene 4 16 924 8 0 2366 8 1
gene 4 924 18 -0.516723 0 2367 -0.516723 1
gene 1 315 351 -3.20332 0 2496 -3.20332 1
gene 1 710 710 -1.0255 1 2567 -1.0255 1
gene 4 6 1043 -0.41099 0 2653 -0.41099 1
gene 4 1043 125 4.30181 0 2654 4.30181 1
gene 1 15 1082 1.31278 0 2753 1.31278 1
gene 1 1082 18 4.43415 0 2754 4.43415 1
gene 4 125 92 -0.54607 0 2834 -0.54607 1
gene 4 11 1154 6.49634 0 2933 6.49634 1
gene 4 1154 19 2.51989 0 2934 2.51989 1
gene 1 5 1082 0.11823 0 3025 0.11823 1
gene 4 7 125 2.55993 0 3311 2.55993 1
gene 4 7 1354 -0.789609 0 3453 -0.789609 1
gene 4 1354 20 -1.21592 0 3454 -1.21592 1
gene 2 3 1486 2.51574 0 3762 2.51574 1
gene 2 1486 20 2.60057 0 3763 2.60057 1
gene 2 16 1591 1.48355 0 4027 1.48355 1
gene 2 1591 19 -0.515963 0 4028 -0.515963 1
gene 4 14 1630 -0.206871 0 4120 -0.206871 1
gene 4 1630 18 1.97906 0 4121 1.97906 1
genomeend 14

/* Species #72 : (Size 3) (AF 433.333) (Age 32)  */


/* Organism #15 Fitness: 160 Error: 0 */

/* Position #15*/
#1 x: 59 y: 18
#2 x: 16 y: 28
#3 x: 73 y: 26
#4 x: 83 y: 75
#5 x: 18 y: 34
#6 x: 35 y: 75
genomestart 15
trait 1 0 0 0 0 0 397 19178 0 
trait 2 2 0 0 0 0 0 0 0 
trait 3 3 0 0 0 0 0 0 0 
trait 4 4 0 0 0 0 0 0 0 
node 1 3 1 3
node 2 1 1 1
node 3 4 1 1
node 4 4 1 1
node 5 3 1 1
node 6 3 1 1
node 7 3 1 1
node 8 3 1 1
node 9 4 1 1
node 10 4 1 1
node 11 4 1 1
node 12 2 1 1
node 13 1 1 1
node 14 2 1 1
node 15 3 1 1
node 16 1 1 1
node 17 4 1 1
node 18 4 0 2
node 19 1 0 2
node 20 3 0 2
node 70 1 0 0
node 123 1 0 0
node 199 1 0 0
node 211 1 0 0
node 278 1 0 0
node 331 1 0 0
node 361 1 0 0
node 388 1 0 0
node 453 1 0 0
node 493 1 0 0
node 563 1 0 0
node 595 1 0 0
node 629 1 0 0
node 842 1 0 0
node 942 1 0 0
node 984 1 0 0
node 1044 1 0 0
node 1084 1 0 0
node 1117 1 0 0
node 1156 1 0 0
node 1229 1 0 0
node 1412 1 0 0
node 1490 1 0 0
node 1529 1 0 0
node 1563 1 0 0
node 1631 1 0 0
gene 3 1 18 -7.70796 0 1 -7.70796 1
gene 3 2 18 1.16475 0 2 1.16475 0
gene 1 3 18 -8 0 3 -8 1
gene 2 4 18 1.84699 0 4 1.84699 0
gene 2 5 18 7.53507 0 5 7.53507 1
gene 2 6 18 0.815811 0 6 0.815811 1
gene 3 7 18 0.701741 0 7 0.701741 0
gene 3 8 8 -2.18578 0 8 -2.18578 0
gene 4 9 18 -5.42019 0 9 -5.42019 1
gene 4 10 18 -3.86299 0 10 -3.86299 1
gene 2 11 18 -8 0 11 -8 1
gene 2 12 18 -3.31823 0 12 -3.31823 1
gene 2 13 18 7.50894 0 13 7.50894 0
gene 4 14 18 0.773061 0 14 0.773061 1
gene 4 15 18 1.07097 0 15 1.07097 1
gene 2 16 18 3.84241 0 16 3.84241 1
gene 1 17 18 0.399745 0 17 0.399745 1
gene 1 1 19 -7.90923 0 18 -7.90923 1
gene 3 2 19 4.69318 0 19 4.69318 0
gene 1 3 19 -0.768798 0 20 -0.768798 0
gene 4 4 19 -2.86573 0 21 -2.86573 1
gene 1 5 19 -5.53159 0 22 -5.53159 0
gene 4 6 19 6.17556 0 23 6.17556 0
gene 2 7 19 1.22256 0 24 1.22256 1
gene 2 8 19 -6.44723 0 25 -6.44723 1
gene 4 9 19 -3.37232 0 26 -3.37232 1
gene 4 10 19 -1.75707 0 27 -1.75707 1
gene 1 11 19 5.79617 0 28 5.79617 1
gene 1 12 19 -2.83449 0 29 -2.83449 1
gene 4 13 19 -3.6988 0 30 -3.6988 1
gene 1 14 19 -3.20486 0 31 -3.20486 1
gene 4 15 19 -2.17168 0 32 -2.17168 0
gene 1 16 19 -0.527367 0 33 -0.527367 1
gene 4 17 19 5.33331 0 34 5.33331 1
gene 4 1 20 -0.551384 0 35 -0.551384 1
gene 1 2 20 -6.94955 0 36 -6.94955 1
gene 1 3 20 -4.58977 0 37 -4.58977 1
gene 3 4 20 -0.617098 0 38 -0.617098 0
gene 2 5 20 -3.18298 0 39 -3.18298 1
gene 1 6 20 2.7809 0 40 2.7809 0
gene 4 7 20 -4.59748 0 41 -4.59748 1
gene 3 8 20 4.20532 0 42 4.20532 1
gene 2 9 20 4.92933 0 43 4.92933 0
gene 3 10 20 6.61506 0 44 6.61506 0
gene 2 11 20 -0.556567 0 45 -0.556567 0
gene 1 12 20 -8 0 46 -8 0
gene 4 13 20 -2.97512 0 47 -2.97512 1
gene 2 14 20 -5.75406 0 48 -5.75406 1
gene 2 15 20 5.26445 0 49 5.26445 1
gene 2 16 20 -5.61159 0 50 -5.61159 1
gene 2 17 20 4.23394 0 51 4.23394 1
gene 4 20 19 -5.41121 0 76 -5.41121 1
gene 1 6 70 2.58353 0 173 2.58353 1
gene 1 70 20 2.63265 0 174 2.63265 1
gene 1 2 123 8 0 310 8 1
gene 1 123 20 -3.05776 0 311 -3.05776 1
gene 2 15 123 5.60544 0 435 5.60544 1
gene 3 2 199 -0.657694 0 515 -0.657694 1
gene 3 199 19 -4.92444 0 516 -4.92444 0
gene 3 8 211 -3.82815 0 547 -3.82815 1
gene 4 6 278 -2.31192 0 728 -2.31192 1
gene 4 278 19 0.674842 0 729 0.674842 1
gene 4 15 331 2.25434 0 868 2.25434 0
gene 4 331 19 -0.460974 0 869 -0.460974 1
gene 2 4 361 6.26468 0 950 6.26468 1
gene 2 361 18 -2.48142 0 951 -2.48142 0
gene 3 4 388 -3.83652 0 1024 -3.83652 1
gene 3 388 20 2.57265 0 1025 2.57265 1
gene 2 331 18 -2.77986 0 1117 -2.77986 1
gene 3 2 453 -3.42787 0 1192 -3.42787 1
gene 3 453 18 1.13291 0 1193 1.13291 1
gene 1 199 493 -6.89736 0 1289 -6.89736 1
gene 3 493 19 -1.86726 0 1290 -1.86726 0
gene 3 361 361 1.71817 1 1358 1.71817 1
gene 2 11 563 3.46683 0 1465 3.46683 1
gene 2 563 18 2.3077 0 1466 2.3077 0
gene 3 493 595 0.851033 0 1552 0.851033 1
gene 3 595 19 4.82716 0 1553 4.82716 0
gene 4 15 629 -1.16211 0 1638 -1.16211 0
gene 4 629 18 0.126704 0 1639 0.126704 1
gene 3 18 388 -2.0414 0 1765 -2.0414 1
gene 2 18 629 3.13376 1 1914 3.13376 1
gene 2 629 629 2.52141 1 2005 2.52141 1
gene 1 5 842 6.82231 0 2162 6.82231 1
gene 1 842 19 -4.9002 0 2163 -4.9002 1
gene 2 18 493 -0.872571 0 2334 -0.872571 1
gene 2 361 942 1.54245 0 2407 1.54245 1
gene 2 942 18 -2.62536 0 2408 -2.62536 1
gene 3 361 984 -1.43728 1 2501 -1.43728 1
gene 3 984 361 -3.34713 0 2502 -3.34713 1
gene 4 15 1044 1.04243 0 2656 1.04243 1
gene 4 1044 629 -0.43546 0 2657 -0.43546 1
gene 2 13 1084 0.255511 0 2757 0.255511 1
gene 2 1084 18 -2.17124 0 2758 -2.17124 1
gene 1 3 1117 2.15789 0 2837 2.15789 1
gene 1 1117 19 -8 0 2838 -8 1
gene 2 11 1156 -2.12287 0 2938 -2.12287 1
gene 2 1156 20 -2.41849 0 2939 -2.41849 1
gene 3 2 1229 1 0 3118 1 1
gene 3 1229 19 -1.94776 0 3119 -1.94776 1
gene 1 5 1044 -0.0520464 0 3313 -0.0520464 1
gene 4 15 1412 1 0 3581 1 1
gene 4 1412 331 -5.56743 0 3582 -5.56743 1
gene 3 1084 1084 -8 1 3671 -8 1
gene 2 9 1490 2.2117 0 3771 2.2117 1
gene 2 1490 20 1.54615 0 3772 1.54615 1
gene 2 563 1529 1.27932 0 3869 1.27932 1
gene 2 1529 18 0.838454 0 3870 0.838454 1
gene 3 10 1563 4.22969 0 3953 4.22969 1
gene 3 1563 20 4.93811 0 3954 4.93811 1
gene 3 7 1631 2.99223 0 4123 2.99223 1
gene 3 1631 18 2.75052 0 4124 2.75052 1
gene 4 1412 1412 28541 1 4296 28541 1
gene 1 1156 1044 81046 0 4385 81046 1
genomeend 15

/* Organism #16 Fitness: 880 Error: 0 */

/* Position #16*/
#1 x: 58 y: 21
#2 x: 80 y: 44
#3 x: 77 y: 35
#4 x: 65 y: 58
#5 x: 52 y: 16
#6 x: 75 y: 18
genomestart 16
trait 1 0 0 0 0 0 397 19178 0 
trait 2 2 0 0 0 0 0 0 0 
trait 3 3 0 0 0 0 0 0 0 
trait 4 4 0 0 0 0 0 0 0 
node 1 3 1 3
node 2 1 1 1
node 3 4 1 1
node 4 4 1 1
node 5 3 1 1
node 6 3 1 1
node 7 3 1 1
node 8 3 1 1
node 9 4 1 1
node 10 4 1 1
node 11 4 1 1
node 12 2 1 1
node 13 1 1 1
node 14 2 1 1
node 15 3 1 1
node 16 1 1 1
node 17 4 1 1
node 18 4 0 2
node 19 1 0 2
node 20 3 0 2
node 70 1 0 0
node 123 1 0 0
node 199 1 0 0
node 211 1 0 0
node 278 1 0 0
node 331 1 0 0
node 361 1 0 0
node 388 1 0 0
node 453 1 0 0
node 493 1 0 0
node 563 1 0 0
node 595 1 0 0
node 629 1 0 0
node 842 1 0 0
node 942 1 0 0
node 984 1 0 0
node 1044 1 0 0
node 1084 1 0 0
node 1117 1 0 0
node 1156 1 0 0
node 1229 1 0 0
node 1412 1 0 0
node 1490 1 0 0
node 1529 1 0 0
node 1563 1 0 0
node 1631 1 0 0
node 1729 1 0 0
gene 3 1 18 -7.70796 0 1 -7.70796 1
gene 3 2 18 1.16475 0 2 1.16475 0
gene 1 3 18 -8 0 3 -8 1
gene 2 4 18 1.84699 0 4 1.84699 0
gene 2 5 18 7.53507 0 5 7.53507 1
gene 2 6 18 0.815811 0 6 0.815811 1
gene 3 7 18 0.701741 0 7 0.701741 0
gene 3 8 8 -2.18578 0 8 -2.18578 0
gene 4 9 18 -5.42019 0 9 -5.42019 1
gene 4 10 18 -3.86299 0 10 -3.86299 1
gene 2 11 18 -8 0 11 -8 1
gene 2 12 18 -3.31823 0 12 -3.31823 1
gene 2 13 18 7.50894 0 13 7.50894 0
gene 4 14 18 0.773061 0 14 0.773061 1
gene 4 15 18 1.07097 0 15 1.07097 1
gene 2 16 18 3.84241 0 16 3.84241 1
gene 1 17 18 0.399745 0 17 0.399745 1
gene 1 1 19 -7.90923 0 18 -7.90923 1
gene 3 2 19 4.69318 0 19 4.69318 0
gene 1 3 19 -0.768798 0 20 -0.768798 0
gene 4 4 19 -2.86573 0 21 -2.86573 1
gene 1 5 19 -5.53159 0 22 -5.53159 0
gene 4 6 19 6.17556 0 23 6.17556 0
gene 2 7 19 1.22256 0 24 1.22256 1
gene 2 8 19 -6.44723 0 25 -6.44723 1
gene 4 9 19 -3.37232 0 26 -3.37232 1
gene 4 10 19 -1.75707 0 27 -1.75707 1
gene 1 11 19 5.79617 0 28 5.79617 1
gene 1 12 19 -2.83449 0 29 -2.83449 1
gene 4 13 19 -3.6988 0 30 -3.6988 1
gene 1 14 19 -3.20486 0 31 -3.20486 1
gene 4 15 19 -2.17168 0 32 -2.17168 0
gene 1 16 19 -0.527367 0 33 -0.527367 1
gene 4 17 19 5.33331 0 34 5.33331 1
gene 4 1 20 -0.551384 0 35 -0.551384 1
gene 1 2 20 -6.94955 0 36 -6.94955 1
gene 1 3 20 -4.58977 0 37 -4.58977 1
gene 3 4 20 -0.617098 0 38 -0.617098 0
gene 2 5 20 -3.18298 0 39 -3.18298 1
gene 1 6 20 2.7809 0 40 2.7809 0
gene 4 7 20 -4.59748 0 41 -4.59748 1
gene 3 8 20 4.20532 0 42 4.20532 1
gene 2 9 20 4.92933 0 43 4.92933 0
gene 3 10 20 6.61506 0 44 6.61506 0
gene 2 11 20 -0.556567 0 45 -0.556567 0
gene 1 12 20 -8 0 46 -8 0
gene 4 13 20 -2.97512 0 47 -2.97512 1
gene 2 14 20 -5.75406 0 48 -5.75406 1
gene 2 15 20 5.26445 0 49 5.26445 1
gene 2 16 20 -5.61159 0 50 -5.61159 1
gene 2 17 20 4.23394 0 51 4.23394 1
gene 4 20 19 -5.41121 0 76 -5.41121 1
gene 1 6 70 2.58353 0 173 2.58353 1
gene 1 70 20 2.63265 0 174 2.63265 1
gene 1 2 123 8 0 310 8 1
gene 1 123 20 -3.05776 0 311 -3.05776 1
gene 2 15 123 5.60544 0 435 5.60544 1
gene 3 2 199 -0.657694 0 515 -0.657694 1
gene 3 199 19 -4.92444 0 516 -4.92444 0
gene 3 8 211 -3.82815 0 547 -3.82815 1
gene 4 6 278 -2.31192 0 728 -2.31192 1
gene 4 278 19 0.674842 0 729 0.674842 1
gene 4 15 331 2.25434 0 868 2.25434 0
gene 4 331 19 -0.460974 0 869 -0.460974 1
gene 2 4 361 6.26468 0 950 6.26468 0
gene 2 361 18 -2.48142 0 951 -2.48142 0
gene 3 4 388 -3.83652 0 1024 -3.83652 1
gene 3 388 20 2.57265 0 1025 2.57265 1
gene 2 331 18 -2.77986 0 1117 -2.77986 1
gene 3 2 453 -3.42787 0 1192 -3.42787 1
gene 3 453 18 1.13291 0 1193 1.13291 1
gene 1 199 493 -6.89736 0 1289 -6.89736 1
gene 3 493 19 -1.86726 0 1290 -1.86726 0
gene 3 361 361 1.71817 1 1358 1.71817 1
gene 2 11 563 3.46683 0 1465 3.46683 1
gene 2 563 18 2.3077 0 1466 2.3077 0
gene 3 493 595 0.851033 0 1552 0.851033 1
gene 3 595 19 4.82716 0 1553 4.82716 0
gene 4 15 629 -1.16211 0 1638 -1.16211 0
gene 4 629 18 0.126704 0 1639 0.126704 1
gene 3 18 388 -2.0414 0 1765 -2.0414 1
gene 2 18 629 3.13376 1 1914 3.13376 1
gene 2 629 629 2.52141 1 2005 2.52141 1
gene 1 5 842 6.82231 0 2162 6.82231 1
gene 1 842 19 -4.9002 0 2163 -4.9002 1
gene 2 18 493 -0.872571 0 2334 -0.872571 1
gene 2 361 942 1.54245 0 2407 1.54245 1
gene 2 942 18 -2.62536 0 2408 -2.62536 1
gene 3 361 984 -1.43728 1 2501 -1.43728 1
gene 3 984 361 -3.34713 0 2502 -3.34713 1
gene 4 15 1044 1.04243 0 2656 1.04243 1
gene 4 1044 629 -0.43546 0 2657 -0.43546 1
gene 2 13 1084 0.255511 0 2757 0.255511 1
gene 2 1084 18 -2.17124 0 2758 -2.17124 1
gene 1 3 1117 2.15789 0 2837 2.15789 1
gene 1 1117 19 -8 0 2838 -8 1
gene 2 11 1156 -2.12287 0 2938 -2.12287 1
gene 2 1156 20 -2.41849 0 2939 -2.41849 1
gene 3 2 1229 1 0 3118 1 1
gene 3 1229 19 -1.94776 0 3119 -1.94776 1
gene 1 5 1044 -0.0520464 0 3313 -0.0520464 1
gene 4 15 1412 1 0 3581 1 1
gene 4 1412 331 -5.56743 0 3582 -5.56743 1
gene 3 1084 1084 -8 1 3671 -8 1
gene 2 9 1490 2.2117 0 3771 2.2117 1
gene 2 1490 20 1.54615 0 3772 1.54615 1
gene 2 563 1529 1.27932 0 3869 1.27932 1
gene 2 1529 18 0.838454 0 3870 0.838454 1
gene 3 10 1563 4.22969 0 3953 4.22969 1
gene 3 1563 20 4.93811 0 3954 4.93811 1
gene 3 7 1631 2.99223 0 4123 2.99223 1
gene 3 1631 18 2.75052 0 4124 2.75052 1
gene 4 1412 1412 28541 1 4296 28541 1
gene 2 4 1729 1 0 4386 0 1
gene 2 1729 361 6.26468 0 4387 0 1
genomeend 16

/* Organism #17 Fitness: 260 Error: 0 */

/* Position #17*/
#1 x: 58 y: 21
#2 x: 80 y: 44
#3 x: 77 y: 35
#4 x: 65 y: 58
#5 x: 52 y: 16
#6 x: 75 y: 18
genomestart 17
trait 1 0 0 0 0 0 397 19178 0 
trait 2 2 0 0 0 0 0 0 0 
trait 3 3 0 0 0 0 0 0 0 
trait 4 4 0 0 0 0 0 0 0 
node 1 3 1 3
node 2 1 1 1
node 3 4 1 1
node 4 4 1 1
node 5 3 1 1
node 6 3 1 1
node 7 3 1 1
node 8 3 1 1
node 9 4 1 1
node 10 4 1 1
node 11 4 1 1
node 12 2 1 1
node 13 1 1 1
node 14 2 1 1
node 15 3 1 1
node 16 1 1 1
node 17 4 1 1
node 18 4 0 2
node 19 1 0 2
node 20 3 0 2
node 70 1 0 0
node 123 1 0 0
node 199 1 0 0
node 211 1 0 0
node 278 1 0 0
node 331 1 0 0
node 361 1 0 0
node 388 1 0 0
node 453 1 0 0
node 493 1 0 0
node 563 1 0 0
node 595 1 0 0
node 629 1 0 0
node 842 1 0 0
node 942 1 0 0
node 984 1 0 0
node 1044 1 0 0
node 1084 1 0 0
node 1117 1 0 0
node 1156 1 0 0
node 1229 1 0 0
node 1412 1 0 0
node 1490 1 0 0
node 1529 1 0 0
node 1563 1 0 0
node 1631 1 0 0
gene 3 1 18 -7.70796 0 1 -7.70796 1
gene 3 2 18 1.16475 0 2 1.16475 0
gene 1 3 18 -8 0 3 -8 1
gene 2 4 18 1.84699 0 4 1.84699 0
gene 2 5 18 7.53507 0 5 7.53507 1
gene 2 6 18 0.815811 0 6 0.815811 1
gene 3 7 18 0.701741 0 7 0.701741 0
gene 3 8 8 -2.18578 0 8 -2.18578 0
gene 4 9 18 -5.42019 0 9 -5.42019 1
gene 4 10 18 -3.86299 0 10 -3.86299 1
gene 2 11 18 -8 0 11 -8 1
gene 2 12 18 -3.31823 0 12 -3.31823 1
gene 2 13 18 7.50894 0 13 7.50894 0
gene 4 14 18 0.773061 0 14 0.773061 1
gene 4 15 18 1.07097 0 15 1.07097 1
gene 2 16 18 3.84241 0 16 3.84241 1
gene 1 17 18 0.399745 0 17 0.399745 1
gene 1 1 19 -7.90923 0 18 -7.90923 1
gene 3 2 19 4.69318 0 19 4.69318 0
gene 1 3 19 -0.768798 0 20 -0.768798 0
gene 4 4 19 -2.86573 0 21 -2.86573 1
gene 1 5 19 -5.53159 0 22 -5.53159 0
gene 4 6 19 6.17556 0 23 6.17556 0
gene 2 7 19 1.22256 0 24 1.22256 1
gene 2 8 19 -6.44723 0 25 -6.44723 1
gene 4 9 19 -3.37232 0 26 -3.37232 1
gene 4 10 19 -1.75707 0 27 -1.75707 1
gene 1 11 19 5.79617 0 28 5.79617 1
gene 1 12 19 -2.83449 0 29 -2.83449 1
gene 4 13 19 -3.6988 0 30 -3.6988 1
gene 1 14 19 -3.20486 0 31 -3.20486 1
gene 4 15 19 -2.17168 0 32 -2.17168 0
gene 1 16 19 -0.527367 0 33 -0.527367 1
gene 4 17 19 5.33331 0 34 5.33331 1
gene 4 1 20 -0.551384 0 35 -0.551384 1
gene 1 2 20 -6.94955 0 36 -6.94955 1
gene 1 3 20 -4.58977 0 37 -4.58977 1
gene 3 4 20 -0.617098 0 38 -0.617098 0
gene 2 5 20 -3.18298 0 39 -3.18298 1
gene 1 6 20 2.7809 0 40 2.7809 0
gene 4 7 20 -4.59748 0 41 -4.59748 1
gene 3 8 20 4.20532 0 42 4.20532 1
gene 2 9 20 4.92933 0 43 4.92933 0
gene 3 10 20 6.61506 0 44 6.61506 0
gene 2 11 20 -0.556567 0 45 -0.556567 0
gene 1 12 20 -8 0 46 -8 0
gene 4 13 20 -2.97512 0 47 -2.97512 1
gene 2 14 20 -5.75406 0 48 -5.75406 1
gene 2 15 20 5.26445 0 49 5.26445 1
gene 2 16 20 -5.61159 0 50 -5.61159 1
gene 2 17 20 4.23394 0 51 4.23394 1
gene 4 20 19 -5.41121 0 76 -5.41121 1
gene 1 6 70 2.58353 0 173 2.58353 1
gene 1 70 20 2.63265 0 174 2.63265 1
gene 1 2 123 8 0 310 8 1
gene 1 123 20 -3.05776 0 311 -3.05776 1
gene 2 15 123 5.60544 0 435 5.60544 1
gene 3 2 199 -0.657694 0 515 -0.657694 1
gene 3 199 19 -4.92444 0 516 -4.92444 0
gene 3 8 211 -3.82815 0 547 -3.82815 1
gene 4 6 278 -2.31192 0 728 -2.31192 1
gene 4 278 19 0.674842 0 729 0.674842 1
gene 4 15 331 2.25434 0 868 2.25434 0
gene 4 331 19 -0.460974 0 869 -0.460974 1
gene 2 4 361 6.26468 0 950 6.26468 1
gene 2 361 18 -2.48142 0 951 -2.48142 0
gene 3 4 388 -3.83652 0 1024 -3.83652 1
gene 3 388 20 2.57265 0 1025 2.57265 1
gene 2 331 18 -2.77986 0 1117 -2.77986 1
gene 3 2 453 -3.42787 0 1192 -3.42787 1
gene 3 453 18 1.13291 0 1193 1.13291 1
gene 1 199 493 -6.89736 0 1289 -6.89736 1
gene 3 493 19 -1.86726 0 1290 -1.86726 0
gene 3 361 361 1.71817 1 1358 1.71817 1
gene 2 11 563 3.46683 0 1465 3.46683 1
gene 2 563 18 2.3077 0 1466 2.3077 0
gene 3 493 595 0.851033 0 1552 0.851033 1
gene 3 595 19 4.82716 0 1553 4.82716 0
gene 4 15 629 -1.16211 0 1638 -1.16211 0
gene 4 629 18 0.126704 0 1639 0.126704 1
gene 3 18 388 -2.0414 0 1765 -2.0414 1
gene 2 18 629 3.13376 1 1914 3.13376 1
gene 2 629 629 2.52141 1 2005 2.52141 1
gene 1 5 842 6.82231 0 2162 6.82231 1
gene 1 842 19 -4.9002 0 2163 -4.9002 1
gene 2 18 493 -0.872571 0 2334 -0.872571 1
gene 2 361 942 1.54245 0 2407 1.54245 1
gene 2 942 18 -2.62536 0 2408 -2.62536 1
gene 3 361 984 -1.43728 1 2501 -1.43728 1
gene 3 984 361 -3.34713 0 2502 -3.34713 1
gene 4 15 1044 1.04243 0 2656 1.04243 1
gene 4 1044 629 -0.43546 0 2657 -0.43546 1
gene 2 13 1084 0.255511 0 2757 0.255511 1
gene 2 1084 18 -2.17124 0 2758 -2.17124 1
gene 1 3 1117 2.15789 0 2837 2.15789 1
gene 1 1117 19 -8 0 2838 -8 1
gene 2 11 1156 -2.12287 0 2938 -2.12287 1
gene 2 1156 20 -2.41849 0 2939 -2.41849 1
gene 3 2 1229 1 0 3118 1 1
gene 3 1229 19 -1.94776 0 3119 -1.94776 1
gene 1 5 1044 -0.0520464 0 3313 -0.0520464 1
gene 4 15 1412 1 0 3581 1 1
gene 4 1412 331 -5.56743 0 3582 -5.56743 1
gene 3 1084 1084 -8 1 3671 -8 1
gene 2 9 1490 2.2117 0 3771 2.2117 1
gene 2 1490 20 1.54615 0 3772 1.54615 1
gene 2 563 1529 1.27932 0 3869 1.27932 1
gene 2 1529 18 0.838454 0 3870 0.838454 1
gene 3 10 1563 4.22969 0 3953 4.22969 1
gene 3 1563 20 4.93811 0 3954 4.93811 1
gene 3 7 1631 2.99223 0 4123 2.99223 1
gene 3 1631 18 2.75052 0 4124 2.75052 1
gene 4 1412 1412 28541 1 4296 28541 1
gene 4 14 388 40641 0 4388 40641 1
genomeend 17

/* Species #83 : (Size 2) (AF 200) (Age 27)  */


/* Organism #18 Fitness: 280 Error: 0 */

/* Position #18*/
#1 x: 66 y: 34
#2 x: 47 y: 33
#3 x: 50 y: 46
#4 x: 71 y: 80
#5 x: 48 y: 48
#6 x: 82 y: 76
genomestart 18
trait 1 46364 0 30393 0 0 34684 9514 0 
trait 2 0 539 0 0 0 30577 0 33635 
trait 3 3 0 0 0 0 0 0 0 
trait 4 4 0 0 0 0 0 0 0 
node 1 3 1 3
node 2 1 1 1
node 3 4 1 1
node 4 4 1 1
node 5 3 1 1
node 6 3 1 1
node 7 3 1 1
node 8 3 1 1
node 9 4 1 1
node 10 4 1 1
node 11 4 1 1
node 12 2 1 1
node 13 1 1 1
node 14 2 1 1
node 15 3 1 1
node 16 1 1 1
node 17 4 1 1
node 18 4 0 2
node 19 1 0 2
node 20 3 0 2
node 70 1 0 0
node 123 1 0 0
node 199 1 0 0
node 211 1 0 0
node 278 1 0 0
node 331 1 0 0
node 361 1 0 0
node 388 1 0 0
node 453 1 0 0
node 493 1 0 0
node 563 1 0 0
node 634 1 0 0
node 735 1 0 0
node 810 1 0 0
node 815 1 0 0
node 870 1 0 0
node 954 1 0 0
node 1016 1 0 0
node 1052 1 0 0
node 1124 1 0 0
node 1239 1 0 0
node 1274 1 0 0
node 1309 1 0 0
node 1343 1 0 0
node 1417 1 0 0
node 1453 1 0 0
node 1567 1 0 0
node 1593 1 0 0
node 1696 1 0 0
node 1730 1 0 0
gene 3 1 18 -2.58892 0 1 -2.58892 1
gene 3 2 18 -0.438173 0 2 -0.438173 0
gene 3 3 18 1.33466 0 3 1.33466 1
gene 2 4 18 -0.315865 0 4 -0.315865 0
gene 1 5 18 3.51924 0 5 3.51924 1
gene 4 6 18 -2.41015 0 6 -2.41015 0
gene 3 7 18 0.485655 0 7 0.485655 0
gene 3 8 8 -0.0572868 0 8 -0.0572868 0
gene 4 9 18 1.58579 0 9 1.58579 0
gene 4 10 18 1.58595 0 10 1.58595 1
gene 3 11 18 -5.04414 0 11 -5.04414 1
gene 1 12 18 -6.66759 0 12 -6.66759 1
gene 2 13 18 -4.31179 0 13 -4.31179 1
gene 4 14 18 8 0 14 8 1
gene 2 15 18 2.68202 0 15 2.68202 1
gene 2 16 18 5.17018 0 16 5.17018 1
gene 1 17 18 -5.47554 0 17 -5.47554 0
gene 4 1 19 -2.96029 0 18 -2.96029 1
gene 3 2 19 0.0849177 0 19 0.0849177 1
gene 4 3 19 -2.68063 0 20 -2.68063 0
gene 4 4 19 -2.56063 0 21 -2.56063 1
gene 1 5 19 -2.23321 0 22 -2.23321 0
gene 4 6 19 -2.01378 0 23 -2.01378 0
gene 2 7 19 3.27487 0 24 3.27487 1
gene 3 8 19 6.23751 0 25 6.23751 0
gene 2 9 19 -0.743034 0 26 -0.743034 1
gene 4 10 19 -1.67075 0 27 -1.67075 1
gene 1 11 19 -1.63577 0 28 -1.63577 1
gene 1 12 19 -0.536603 0 29 -0.536603 0
gene 4 13 19 -5.939 0 30 -5.939 1
gene 2 14 19 3.22269 0 31 3.22269 1
gene 4 15 19 5.8874 0 32 5.8874 0
gene 3 16 19 -2.10703 0 33 -2.10703 1
gene 2 17 19 0.608825 0 34 0.608825 1
gene 2 1 20 -1.26303 0 35 -1.26303 1
gene 1 2 20 -1.67031 0 36 -1.67031 1
gene 4 3 20 -4.91976 0 37 -4.91976 1
gene 3 4 20 -6.69354 0 38 -6.69354 0
gene 2 5 20 3.47463 0 39 3.47463 0
gene 1 6 20 3.24446 0 40 3.24446 1
gene 4 7 20 -1.69944 0 41 -1.69944 1
gene 1 8 20 3.03139 0 42 3.03139 0
gene 1 9 20 -1.14154 0 43 -1.14154 1
gene 4 10 20 -1.63475 0 44 -1.63475 0
gene 2 11 20 3.74497 0 45 3.74497 1
gene 2 12 20 1.69126 0 46 1.69126 0
gene 3 13 20 -0.998476 0 47 -0.998476 1
gene 2 14 20 -1.52332 0 48 -1.52332 1
gene 2 15 20 -0.845063 0 49 -0.845063 1
gene 4 16 20 -2.36442 0 50 -2.36442 1
gene 2 17 20 2.99798 0 51 2.99798 0
gene 4 20 19 0.108585 0 76 0.108585 1
gene 1 6 70 -1.37924 0 173 -1.37924 0
gene 1 70 20 -0.626228 0 174 -0.626228 1
gene 1 2 123 -1.8471 0 310 -1.8471 1
gene 1 123 20 3.07379 0 311 3.07379 1
gene 2 15 123 2.36753 0 435 2.36753 1
gene 3 2 199 5.04312 0 515 5.04312 0
gene 3 199 19 3.60419 0 516 3.60419 0
gene 3 8 211 2.59044 0 547 2.59044 1
gene 4 6 278 -1.73516 0 728 -1.73516 0
gene 4 278 19 7.2961 0 729 7.2961 0
gene 4 15 331 -2.8551 0 868 -2.8551 1
gene 4 331 19 0.946375 0 869 0.946375 1
gene 2 4 361 7.03467 0 950 7.03467 1
gene 2 361 18 2.58809 0 951 2.58809 1
gene 3 4 388 7.18109 0 1024 7.18109 0
gene 3 388 20 -1.36032 0 1025 -1.36032 1
gene 2 331 18 -0.0378264 0 1117 -0.0378264 1
gene 3 2 453 -4.78107 0 1192 -4.78107 1
gene 3 453 18 4.14096 0 1193 4.14096 1
