/* Organism #32 Fitness: -25.000000 Time: 0 */
/* Position #32*/
#1 x: 67 y: 24
#2 x: 15 y: 25
#3 x: 31 y: 38
#4 x: 24 y: 80
#5 x: 50 y: 62
#6 x: 16 y: 65
genomestart 32
node 1 2 1 3
node 2 4 1 1
node 3 1 1 1
node 4 3 1 1
node 5 3 1 1
node 6 2 1 1
node 7 2 1 1
node 8 4 1 1
node 9 3 1 1
node 10 1 1 1
node 11 3 1 1
node 12 3 1 1
node 13 4 0 2
node 14 1 0 2
node 15 2 0 2
gene 1 1 13 240711 0 1 240711 1
gene 3 2 13 -284649 0 2 -284649 1
gene 2 3 13 -282165 0 3 -282165 1
gene 4 4 13 -250569 0 4 -250569 1
gene 4 5 13 15066 0 5 15066 1
gene 1 6 13 182121 0 6 182121 1
gene 4 7 13 -546474 0 7 -546474 1
gene 2 8 13 248854 0 8 248854 1
gene 2 9 13 -106419 0 9 -106419 1
gene 4 10 13 -267474 0 10 -267474 1
gene 3 11 13 -24186 0 11 -24186 1
gene 3 12 13 668454 0 12 668454 1
gene 3 1 14 285054 0 13 285054 1
gene 4 2 14 -23373 0 14 -23373 1
gene 4 3 14 620836 0 15 620836 1
gene 2 4 14 147645 0 16 147645 1
gene 2 5 14 -645033 0 17 -645033 1
gene 3 6 14 -267339 0 18 -267339 1
gene 3 7 14 236682 0 19 236682 1
gene 4 8 14 194352 0 20 194352 1
gene 3 9 14 800000 0 21 800000 1
gene 4 10 14 -268653 0 22 -268653 1
gene 1 11 14 -136390 0 23 -136390 1
gene 3 12 14 -28283 0 24 -28283 1
gene 3 1 15 12978 0 25 12978 1
gene 4 2 15 123354 0 26 123354 1
gene 3 3 15 -161082 0 27 -161082 1
gene 3 4 15 -262020 0 28 -262020 1
gene 2 5 15 -333384 0 29 -333384 1
gene 2 6 15 215301 0 30 215301 1
gene 3 7 15 -42462 0 31 -42462 1
gene 2 8 15 -216675 0 32 -216675 1
gene 2 9 15 215949 0 33 215949 1
gene 4 10 15 382059 0 34 382059 1
gene 4 11 15 -20176 0 35 -20176 1
gene 3 12 15 68505 0 36 68505 1
genomeend 32


/* Organism #49 Fitness: 65.000000 Time: 0 */
/* Position #49*/
#1 x: 17 y: 16
#2 x: 49 y: 30
#3 x: 27 y: 36
#4 x: 75 y: 76
#5 x: 74 y: 71
#6 x: 40 y: 84
genomestart 49
node 1 2 1 3
node 2 4 1 1
node 3 1 1 1
node 4 3 1 1
node 5 3 1 1
node 6 2 1 1
node 7 2 1 1
node 8 4 1 1
node 9 3 1 1
node 10 1 1 1
node 11 3 1 1
node 12 3 1 1
node 13 4 0 2
node 14 1 0 2
node 15 2 0 2
gene 1 1 13 -68952 0 1 -68952 1
gene 3 2 13 -395661 0 2 -395661 1
gene 2 3 13 281469 0 3 281469 1
gene 4 4 13 -425061 0 4 -425061 1
gene 4 5 13 232332 0 5 232332 1
gene 1 6 13 101928 0 6 101928 1
gene 4 7 13 -481194 0 7 -481194 1
gene 2 8 13 82399 0 8 82399 1
gene 2 9 13 395947 0 9 395947 1
gene 4 10 13 -190473 0 10 -190473 1
gene 3 11 13 149088 0 11 149088 1
gene 3 12 13 36906 0 12 36906 1
gene 3 1 14 -209805 0 13 -209805 1
gene 4 2 14 -250956 0 14 -250956 1
gene 4 3 14 271498 0 15 271498 1
gene 2 4 14 -109569 0 16 -109569 1
gene 2 5 14 -151008 0 17 -151008 1
gene 3 6 14 -186135 0 18 -186135 1
gene 3 7 14 343218 0 19 343218 1
gene 4 8 14 -13836 0 20 -13836 1
gene 3 9 14 800000 0 21 800000 1
gene 4 10 14 -572199 0 22 -572199 1
gene 1 11 14 -513085 0 23 -513085 1
gene 3 12 14 215566 0 24 215566 1
gene 3 1 15 503685 0 25 503685 1
gene 4 2 15 -609756 0 26 -609756 1
gene 3 3 15 -117225 0 27 -117225 1
gene 3 4 15 -134649 0 28 -134649 1
gene 2 5 15 -393894 0 29 -393894 1
gene 2 6 15 204915 0 30 204915 1
gene 3 7 15 27441 0 31 27441 1
gene 2 8 15 26238 0 32 26238 1
gene 2 9 15 6972 0 33 6972 1
gene 4 10 15 116097 0 34 116097 1
gene 4 11 15 -106870 0 35 -106870 1
gene 3 12 15 183111 0 36 183111 1
gene 4 13 15 173795 0 181 173795 1
genomeend 49


/* Organism #51 Fitness: -75.000000 Time: 0 */
/* Position #51*/
#1 x: 76 y: 38
#2 x: 25 y: 23
#3 x: 24 y: 16
#4 x: 66 y: 67
#5 x: 64 y: 63
#6 x: 42 y: 81
genomestart 51
node 1 2 1 3
node 2 4 1 1
node 3 1 1 1
node 4 3 1 1
node 5 3 1 1
node 6 2 1 1
node 7 2 1 1
node 8 4 1 1
node 9 3 1 1
node 10 1 1 1
node 11 3 1 1
node 12 3 1 1
node 13 4 0 2
node 14 1 0 2
node 15 2 0 2
gene 1 1 13 348342 0 1 348342 1
gene 3 2 13 -302490 0 2 -302490 1
gene 2 3 13 447270 0 3 447270 1
gene 4 4 13 -67389 0 4 -67389 1
gene 4 5 13 217101 0 5 217101 1
gene 1 6 13 137037 0 6 137037 1
gene 4 7 13 -800000 0 7 -800000 1
gene 2 8 13 19537 0 8 19537 1
gene 2 9 13 800000 0 9 800000 1
gene 4 10 13 -502635 0 10 -502635 1
gene 3 11 13 362031 0 11 362031 1
gene 3 12 13 19290 0 12 19290 1
gene 3 1 14 -53256 0 13 -53256 1
gene 4 2 14 -245043 0 14 -245043 1
gene 4 3 14 -239826 0 15 -239826 1
gene 2 4 14 360783 0 16 360783 1
gene 2 5 14 -800000 0 17 -800000 1
gene 3 6 14 -205119 0 18 -205119 1
gene 3 7 14 350466 0 19 350466 1
gene 4 8 14 -30765 0 20 -30765 1
gene 3 9 14 606926 0 21 606926 1
gene 4 10 14 -437574 0 22 -437574 1
gene 1 11 14 -228790 0 23 -228790 1
gene 3 12 14 -277704 0 24 -277704 1
gene 3 1 15 524388 0 25 524388 1
gene 4 2 15 -346239 0 26 -346239 1
gene 4 3 15 -152223 0 27 -152223 1
gene 3 4 15 -242079 0 28 -242079 1
gene 2 5 15 -252099 0 29 -252099 1
gene 2 6 15 861 0 30 861 1
gene 3 7 15 -246216 0 31 -246216 1
gene 2 8 15 8484 0 32 8484 1
gene 2 9 15 -119487 0 33 -119487 1
gene 4 10 15 61719 0 34 61719 1
gene 4 11 15 -124321 0 35 -124321 1
gene 3 12 15 390456 0 36 390456 1
genomeend 51


/* Organism #53 Fitness: -75.000000 Time: 0 */
/* Position #53*/
#1 x: 28 y: 20
#2 x: 29 y: 36
#3 x: 29 y: 28
#4 x: 55 y: 63
#5 x: 33 y: 62
#6 x: 74 y: 65
genomestart 53
node 1 2 1 3
node 2 4 1 1
node 3 1 1 1
node 4 3 1 1
node 5 3 1 1
node 6 2 1 1
node 7 2 1 1
node 8 4 1 1
node 9 3 1 1
node 10 1 1 1
node 11 3 1 1
node 12 3 1 1
node 13 4 0 2
node 14 1 0 2
node 15 2 0 2
gene 1 1 13 -120369 0 1 -120369 1
gene 3 2 13 -438567 0 2 -438567 1
gene 2 3 13 376521 0 3 376521 1
gene 4 4 13 -800000 0 4 -800000 1
gene 4 5 13 423729 0 5 423729 1
gene 1 6 13 -306423 0 6 -306423 1
gene 4 7 13 -663177 0 7 -663177 1
gene 2 8 13 92128 0 8 92128 1
gene 2 9 13 436126 0 9 436126 1
gene 4 10 13 -338451 0 10 -338451 1
gene 3 11 13 360486 0 11 360486 1
gene 3 12 13 219729 0 12 219729 1
gene 3 1 14 -221664 0 13 -221664 1
gene 4 2 14 -52536 0 14 -52536 1
gene 4 3 14 342859 0 15 342859 1
gene 2 4 14 -394176 0 16 -394176 1
gene 2 5 14 10044 0 17 10044 1
gene 3 6 14 -137952 0 18 -137952 1
gene 3 7 14 303957 0 19 303957 1
gene 4 8 14 299193 0 20 299193 1
gene 3 9 14 800000 0 21 800000 1
gene 4 10 14 -544065 0 22 -544065 1
gene 1 11 14 -255562 0 23 -255562 1
gene 3 12 14 -412463 0 24 -412463 1
gene 3 1 15 326163 0 25 326163 1
gene 4 2 15 -453750 0 26 -453750 1
gene 3 3 15 -28569 0 27 -28569 1
gene 3 4 15 82047 0 28 82047 1
gene 2 5 15 -701505 0 29 -701505 1
gene 2 6 15 172971 0 30 172971 1
gene 3 7 15 44100 0 31 44100 1
gene 2 8 15 -37500 0 32 -37500 1
gene 2 9 15 45729 0 33 45729 1
gene 4 10 15 413343 0 34 413343 1
gene 4 11 15 283326 0 35 283326 1
gene 3 12 15 130761 0 36 130761 1
genomeend 53


/* Organism #55 Fitness: -74.000000 Time: 0 */
/* Position #55*/
#1 x: 39 y: 31
#2 x: 67 y: 31
#3 x: 28 y: 25
#4 x: 18 y: 69
#5 x: 26 y: 70
#6 x: 63 y: 61
genomestart 55
node 1 2 1 3
node 2 4 1 1
node 3 1 1 1
node 4 3 1 1
node 5 3 1 1
node 6 2 1 1
node 7 2 1 1
node 8 4 1 1
node 9 3 1 1
node 10 1 1 1
node 11 3 1 1
node 12 3 1 1
node 13 4 0 2
node 14 1 0 2
node 15 2 0 2
gene 1 1 13 17271 0 1 17271 1
gene 3 2 13 -283227 0 2 -283227 1
gene 2 3 13 356748 0 3 356748 1
gene 4 4 13 -98859 0 4 -98859 1
gene 4 5 13 469797 0 5 469797 1
gene 1 6 13 -302865 0 6 -302865 1
gene 4 7 13 -450642 0 7 -450642 1
gene 2 8 13 248797 0 8 248797 1
gene 2 9 13 626650 0 9 626650 1
gene 4 10 13 -263670 0 10 -263670 1
gene 3 11 13 325632 0 11 325632 1
gene 3 12 13 525171 0 12 525171 1
gene 3 1 14 216657 0 13 216657 1
gene 4 2 14 204864 0 14 204864 1
gene 4 3 14 383512 0 15 383512 1
gene 2 4 14 -319548 0 16 -319548 1
gene 2 5 14 -602733 0 17 -602733 1
gene 3 6 14 -517413 0 18 -517413 1
gene 3 7 14 114909 0 19 114909 1
gene 4 8 14 175293 0 20 175293 1
gene 3 9 14 800000 0 21 800000 1
gene 4 10 14 -563469 0 22 -563469 1
gene 1 11 14 -586816 0 23 -586816 1
gene 3 12 14 -177101 0 24 -177101 1
gene 3 1 15 537207 0 25 537207 1
gene 4 2 15 -597849 0 26 -597849 1
gene 3 3 15 398163 0 27 398163 1
gene 3 4 15 -261375 0 28 -261375 1
gene 2 5 15 -577665 0 29 -577665 1
gene 2 6 15 84015 0 30 84015 1
gene 3 7 15 -149430 0 31 -149430 1
gene 2 8 15 26238 0 32 26238 1
gene 2 9 15 -115014 0 33 -115014 1
gene 4 10 15 164031 0 34 164031 1
gene 4 11 15 183134 0 35 183134 1
gene 3 12 15 42981 0 36 42981 1
genomeend 55


/* Organism #57 Fitness: -66.000000 Time: 0 */
/* Position #57*/
#1 x: 62 y: 27
#2 x: 76 y: 35
#3 x: 25 y: 25
#4 x: 32 y: 67
#5 x: 74 y: 82
#6 x: 66 y: 63
genomestart 57
node 1 2 1 3
node 2 4 1 1
node 3 1 1 1
node 4 3 1 1
node 5 3 1 1
node 6 2 1 1
node 7 2 1 1
node 8 4 1 1
node 9 3 1 1
node 10 1 1 1
node 11 3 1 1
node 12 3 1 1
node 13 4 0 2
node 14 1 0 2
node 15 2 0 2
gene 1 1 13 -510696 0 1 -510696 1
gene 3 2 13 -536931 0 2 -536931 1
gene 2 3 13 -197205 0 3 -197205 1
gene 4 4 13 -438402 0 4 -438402 1
gene 4 5 13 274701 0 5 274701 1
gene 1 6 13 243795 0 6 243795 1
gene 4 7 13 -208962 0 7 -208962 1
gene 2 8 13 -40784 0 8 -40784 1
gene 2 9 13 329410 0 9 329410 1
gene 4 10 13 59016 0 10 59016 1
gene 3 11 13 -14484 0 11 -14484 1
gene 3 12 13 62754 0 12 62754 1
gene 3 1 14 187902 0 13 187902 1
gene 4 2 14 -18603 0 14 -18603 1
gene 4 3 14 183508 0 15 183508 1
gene 2 4 14 105720 0 16 105720 1
gene 2 5 14 188235 0 17 188235 1
gene 3 6 14 -287757 0 18 -287757 1
gene 3 7 14 215088 0 19 215088 1
gene 4 8 14 317805 0 20 317805 1
gene 3 9 14 516386 0 21 516386 1
gene 4 10 14 -786921 0 22 -786921 1
gene 1 11 14 -462283 0 23 -462283 1
gene 3 12 14 6678 0 24 6678 1
gene 3 1 15 -236493 0 25 -236493 1
gene 4 2 15 -363867 0 26 -363867 1
gene 3 3 15 -37188 0 27 -37188 1
gene 3 4 15 14799 0 28 14799 1
gene 2 5 15 -404484 0 29 -404484 1
gene 2 6 15 -59166 0 30 -59166 1
gene 3 7 15 268662 0 31 268662 1
gene 2 8 15 585273 0 32 585273 1
gene 2 9 15 -399003 0 33 -399003 1
gene 4 10 15 -195321 0 34 -195321 1
gene 4 11 15 251663 0 35 251663 1
gene 3 12 15 -34182 0 36 -34182 1
genomeend 57


/* Organism #59 Fitness: -64.000000 Time: 0 */
/* Position #59*/
#1 x: 65 y: 23
#2 x: 51 y: 19
#3 x: 60 y: 40
#4 x: 31 y: 82
#5 x: 27 y: 62
#6 x: 44 y: 70
genomestart 59
node 1 2 1 3
node 2 4 1 1
node 3 1 1 1
node 4 3 1 1
node 5 3 1 1
node 6 2 1 1
node 7 2 1 1
node 8 4 1 1
node 9 3 1 1
node 10 1 1 1
node 11 3 1 1
node 12 2 1 1
node 13 4 0 2
node 14 1 0 2
node 15 2 0 2
gene 1 1 13 -24000 0 1 -24000 1
gene 3 2 13 -400299 0 2 -400299 1
gene 2 3 13 452868 0 3 452868 1
gene 4 4 13 -459108 0 4 -459108 1
gene 4 5 13 620649 0 5 620649 1
gene 1 6 13 144438 0 6 144438 1
gene 4 7 13 -451143 0 7 -451143 1
gene 2 8 13 83269 0 8 83269 1
gene 2 9 13 -126243 0 9 -126243 1
gene 4 10 13 237063 0 10 237063 1
gene 3 11 13 -70548 0 11 -70548 1
gene 3 12 13 232812 0 12 232812 1
gene 3 1 14 -294774 0 13 -294774 1
gene 4 2 14 -16797 0 14 -16797 1
gene 4 3 14 241243 0 15 241243 1
gene 2 4 14 141054 0 16 141054 1
gene 2 5 14 -40398 0 17 -40398 1
gene 3 6 14 18789 0 18 18789 1
gene 3 7 14 -130131 0 19 -130131 1
gene 4 8 14 -109239 0 20 -109239 1
gene 3 9 14 740147 0 21 740147 1
gene 4 10 14 -468252 0 22 -468252 1
gene 1 11 14 -138994 0 23 -138994 1
gene 3 12 14 146623 0 24 146623 1
gene 3 1 15 436044 0 25 436044 1
gene 4 2 15 -295479 0 26 -295479 1
gene 3 3 15 -335940 0 27 -335940 1
gene 3 4 15 26247 0 28 26247 1
gene 2 5 15 -785925 0 29 -785925 1
gene 2 6 15 248577 0 30 248577 1
gene 3 7 15 -125736 0 31 -125736 1
gene 2 8 15 17607 0 32 17607 1
gene 2 9 15 -102048 0 33 -102048 1
gene 4 10 15 250197 0 34 250197 1
gene 4 11 15 150305 0 35 150305 1
gene 3 12 15 360945 0 36 360945 1
genomeend 59


/* Organism #61 Fitness: -66.000000 Time: 0 */
/* Position #61*/
#1 x: 62 y: 15
#2 x: 32 y: 38
#3 x: 71 y: 33
#4 x: 47 y: 65
#5 x: 42 y: 77
#6 x: 68 y: 68
genomestart 61
node 1 2 1 3
node 2 4 1 1
node 3 1 1 1
node 4 3 1 1
node 5 3 1 1
node 6 2 1 1
node 7 2 1 1
node 8 4 1 1
node 9 3 1 1
node 10 3 1 1
node 11 3 1 1
node 12 3 1 1
node 13 4 0 2
node 14 1 0 2
node 15 2 0 2
gene 1 1 13 64587 0 1 64587 1
gene 3 2 13 122001 0 2 122001 1
gene 2 3 13 396744 0 3 396744 1
gene 4 4 13 -105828 0 4 -105828 1
gene 4 5 13 380415 0 5 380415 1
gene 1 6 13 106956 0 6 106956 1
gene 4 7 13 -146223 0 7 -146223 1
gene 2 8 13 90306 0 8 90306 1
gene 2 9 13 480691 0 9 480691 1
gene 4 10 13 -11340 0 10 -11340 1
gene 3 11 13 -29610 0 11 -29610 1
gene 3 12 13 366579 0 12 366579 1
gene 3 1 14 -91515 0 13 -91515 1
gene 4 2 14 83031 0 14 83031 1
gene 4 3 14 86539 0 15 86539 1
gene 2 4 14 -290115 0 16 -290115 1
gene 2 5 14 -516165 0 17 -516165 1
gene 3 6 14 -338847 0 18 -338847 1
gene 3 7 14 28527 0 19 28527 1
gene 4 8 14 336183 0 20 336183 1
gene 3 9 14 585917 0 21 585917 1
gene 4 10 14 143346 0 22 143346 1
gene 1 11 14 -407677 0 23 -407677 1
gene 3 12 14 -386420 0 24 -386420 1
gene 3 1 15 220977 0 25 220977 1
gene 4 2 15 -336201 0 26 -336201 1
gene 3 3 15 128904 0 27 128904 1
gene 3 4 15 3501 0 28 3501 1
gene 2 5 15 -800000 0 29 -800000 1
gene 2 6 15 373473 0 30 373473 1
gene 3 7 15 229626 0 31 229626 1
gene 2 8 15 -132477 0 32 -132477 1
gene 2 9 15 -196056 0 33 -196056 1
gene 4 10 15 123447 0 34 123447 1
gene 4 11 15 183410 0 35 183410 1
gene 3 12 15 104403 0 36 104403 1
genomeend 61


/* Organism #63 Fitness: -66.000000 Time: 0 */
/* Position #63*/
#1 x: 32 y: 22
#2 x: 26 y: 29
#3 x: 20 y: 29
#4 x: 63 y: 64
#5 x: 71 y: 85
#6 x: 19 y: 65
genomestart 63
node 1 2 1 3
node 2 4 1 1
node 3 1 1 1
node 4 3 1 1
node 5 3 1 1
node 6 2 1 1
node 7 2 1 1
node 8 4 1 1
node 9 3 1 1
node 10 3 1 1
node 11 3 1 1
node 12 3 1 1
node 13 4 0 2
node 14 1 0 2
node 15 2 0 2
gene 1 1 13 -476787 0 1 -476787 1
gene 3 2 13 -298896 0 2 -298896 1
gene 2 3 13 545796 0 3 545796 1
gene 4 4 13 -642510 0 4 -642510 1
gene 4 5 13 80865 0 5 80865 1
gene 1 6 13 277602 0 6 277602 1
gene 4 7 13 -701847 0 7 -701847 1
gene 2 8 13 -104766 0 8 -104766 1
gene 2 9 13 596212 0 9 596212 1
gene 4 10 13 -135210 0 10 -135210 1
gene 3 11 13 -68799 0 11 -68799 1
gene 3 12 13 -108507 0 12 -108507 1
gene 3 1 14 336570 0 13 336570 1
gene 4 2 14 -251925 0 14 -251925 1
gene 4 3 14 -60285 0 15 -60285 1
gene 2 4 14 136281 0 16 136281 1
gene 2 5 14 39558 0 17 39558 1
gene 3 6 14 -271917 0 18 -271917 1
gene 3 7 14 35667 0 19 35667 1
gene 4 8 14 68079 0 20 68079 1
gene 3 9 14 800000 0 21 800000 1
gene 4 10 14 -46599 0 22 -46599 1
gene 1 11 14 -361642 0 23 -361642 1
gene 3 12 14 -277862 0 24 -277862 1
gene 3 1 15 61443 0 25 61443 1
gene 4 2 15 -216045 0 26 -216045 1
gene 3 3 15 106191 0 27 106191 1
gene 3 4 15 314457 0 28 314457 1
gene 2 5 15 -800000 0 29 -800000 1
gene 2 6 15 -123567 0 30 -123567 1
gene 3 7 15 -111480 0 31 -111480 1
gene 2 8 15 413301 0 32 413301 1
gene 2 9 15 220698 0 33 220698 1
gene 4 10 15 -172359 0 34 -172359 1
gene 4 11 15 573224 0 35 573224 1
gene 3 12 15 -84402 0 36 -84402 1
genomeend 63


/* Organism #64 Fitness: 107.000000 Time: 0 */
/* Position #64*/
#1 x: 58 y: 16
#2 x: 58 y: 24
#3 x: 15 y: 22
#4 x: 43 y: 71
#5 x: 37 y: 63
#6 x: 59 y: 84
genomestart 64
node 1 2 1 3
node 2 4 1 1
node 3 1 1 1
node 4 3 1 1
node 5 3 1 1
node 6 2 1 1
node 7 2 1 1
node 8 4 1 1
node 9 3 1 1
node 10 1 1 1
node 11 3 1 1
node 12 3 1 1
node 13 4 0 2
node 14 1 0 2
node 15 2 0 2
gene 1 1 13 -105537 0 1 -105537 1
gene 3 2 13 -171399 0 2 -171399 1
gene 2 3 13 363951 0 3 363951 1
gene 4 4 13 -337146 0 4 -337146 1
gene 4 5 13 -17964 0 5 -17964 1
gene 1 6 13 -250860 0 6 -250860 1
gene 4 7 13 -406146 0 7 -406146 1
gene 2 8 13 -146588 0 8 -146588 1
gene 2 9 13 377212 0 9 377212 1
gene 4 10 13 -63279 0 10 -63279 1
gene 3 11 13 181935 0 11 181935 1
gene 3 12 13 297354 0 12 297354 1
gene 3 1 14 232566 0 13 232566 1
gene 4 2 14 -37497 0 14 -37497 1
gene 4 3 14 524194 0 15 524194 1
gene 2 4 14 -96906 0 16 -96906 1
gene 2 5 14 -331242 0 17 -331242 1
gene 3 6 14 -267339 0 18 -267339 1
gene 3 7 14 67986 0 19 67986 1
gene 4 8 14 60855 0 20 60855 1
gene 3 9 14 179454 0 21 179454 1
gene 4 10 14 -491832 0 22 -491832 1
gene 1 11 14 207807 0 23 207807 1
gene 3 12 14 -302216 0 24 -302216 1
gene 3 1 15 139332 0 25 139332 1
gene 4 2 15 -66648 0 26 -66648 1
gene 3 3 15 330186 0 27 330186 1
gene 3 4 15 135075 0 28 135075 1
gene 2 5 15 -610032 0 29 -610032 1
gene 2 6 15 -33273 0 30 -33273 1
gene 3 7 15 1998 0 31 1998 1
gene 2 8 15 -47490 0 32 -47490 1
gene 2 9 15 -115014 0 33 -115014 1
gene 4 10 15 252612 0 34 252612 1
gene 4 11 15 57431 0 35 57431 1
gene 3 12 15 -180819 0 36 -180819 1
gene 4 13 15 98847 0 181 98847 1
genomeend 64


