/* Organism #1 Fitness: 260.000000 Time: 0 */
/* Position #1*/
#1 x: 24 y: 23
#2 x: 54 y: 16
#3 x: 65 y: 15
#4 x: 19 y: 67
#5 x: 56 y: 63
#6 x: 39 y: 70
genomestart 1
trait 1 43007.000000 16300.000000 6994.000000 28041.000000 57524.000000 37112.000000 87908.000000 80535.000000 trait 2 2.000000 0.000000 0.000000 0.000000 0.000000 0.000000 0.000000 0.000000 trait 3 0.000000 0.000000 0.000000 51304.000000 0.000000 13538.000000 70969.000000 30146.000000 trait 4 4.000000 0.000000 0.000000 36940.000000 0.000000 0.000000 43316.000000 37957.000000 node 1 4 1 3
node 2 4 1 1
node 3 1 1 1
node 4 1 1 1
node 5 1 1 1
node 6 2 1 1
node 7 4 1 1
node 8 4 1 1
node 9 2 1 1
node 10 1 1 1
node 11 2 1 1
node 12 4 1 1
node 13 2 0 2
node 14 1 0 2
node 15 3 0 2
node 121 1 0 0
node 235 1 0 0
node 384 1 0 0
node 420 1 0 0
node 433 1 0 0
node 461 1 0 0
node 500 1 0 0
node 516 1 0 0
node 697 3 0 0
node 1018 1 0 0
node 1130 1 0 0
node 1323 3 0 0
node 1393 1 0 0
node 1479 1 0 0
node 1531 4 0 0
node 1683 1 0 0
node 1735 1 0 0
node 1875 3 0 0
node 2034 1 0 0
node 2142 1 0 0
node 2172 1 0 0
node 2206 1 0 0
node 2313 1 0 0
node 2332 1 0 0
node 2368 1 0 0
node 2412 1 0 0
node 2430 1 0 0
node 2481 1 0 0
node 2494 1 0 0
node 2768 1 0 0
node 2783 1 0 0
node 2799 1 0 0
node 2880 1 0 0
node 2911 1 0 0
node 2957 1 0 0
gene 2 1 13 -32313 0 1 -32313 1
gene 3 2 13 800000 0 2 800000 1
gene 2 3 13 -375987 0 3 -375987 1
gene 3 4 13 485043 0 4 485043 1
gene 2 5 13 -336387 0 5 -336387 1
gene 4 6 13 -800000 0 6 -800000 1
gene 3 7 13 389633 0 7 389633 1
gene 2 8 13 99822 0 8 99822 0
gene 3 9 13 -421133 0 9 -421133 1
gene 2 10 13 371376 0 10 371376 0
gene 2 11 13 323370 0 11 323370 0
gene 4 12 13 320304 0 12 320304 1
gene 2 1 14 564749 0 13 564749 1
gene 2 2 14 -520125 0 14 -520125 1
gene 4 3 14 -535458 0 15 -535458 1
gene 4 4 14 -27570 0 16 -27570 0
gene 4 5 14 -169287 0 17 -169287 1
gene 3 6 14 -122895 0 18 -122895 0
gene 2 7 14 172491 0 19 172491 1
gene 1 8 14 -364290 0 20 -364290 0
gene 3 9 14 -800000 0 21 -800000 1
gene 1 10 14 119793 0 22 119793 1
gene 1 11 14 -706610 0 23 -706610 1
gene 4 12 14 284529 0 24 284529 0
gene 3 1 15 -640158 0 25 -640158 1
gene 3 2 15 28959 0 26 28959 1
gene 3 3 15 -413975 0 27 -413975 0
gene 3 4 15 543785 0 28 543785 1
gene 3 5 15 -345027 0 29 -345027 1
gene 1 6 15 -8184 0 30 -8184 1
gene 3 7 15 -369126 0 31 -369126 0
gene 3 8 15 407129 0 32 407129 0
gene 3 9 15 -460926 0 33 -460926 0
gene 3 10 15 181767 0 34 181767 0
gene 2 11 15 84822 0 35 84822 1
gene 4 12 15 190426 0 36 190426 0
gene 4 15 15 -113094 1 174 -113094 0
gene 3 8 121 -279444 0 329 -279444 0
gene 3 121 15 -143748 0 330 -143748 1
gene 2 5 121 292176 0 438 292176 1
gene 2 7 121 388122 0 483 388122 0
gene 4 4 235 -674301 0 666 -674301 1
gene 4 235 14 196359 0 667 196359 1
gene 1 1 235 -98790 0 753 -98790 1
gene 1 9 235 10860 0 1108 10860 1
gene 3 10 384 -800000 0 1126 -800000 1
gene 3 384 15 800000 0 1127 800000 0
gene 2 14 14 -608391 1 1197 -608391 0
gene 3 7 420 -544325 0 1239 -544325 0
gene 3 420 15 588834 0 1240 588834 0
gene 3 2 433 591746 0 1284 591746 0
gene 3 433 13 416181 0 1285 416181 1
gene 4 3 461 249675 0 1352 249675 1
gene 4 461 14 -471708 0 1353 -471708 1
gene 4 15 500 -290817 1 1453 -290817 1
gene 4 500 15 -17061 0 1454 -17061 1
gene 1 8 516 119010 0 1500 119010 0
gene 1 516 14 473309 0 1501 473309 1
gene 1 384 121 -102756 0 1548 -102756 1
gene 2 8 461 -20829 0 1965 -20829 1
gene 3 3 697 -162063 0 2038 -162063 0
gene 3 697 15 -590507 0 2039 -590507 1
gene 2 1 500 -461991 0 2133 -461991 1
gene 1 3 433 -247617 0 2628 -247617 1
gene 1 516 516 -147120 1 2664 -147120 1
gene 3 8 1018 -389922 0 2997 -389922 1
gene 3 1018 121 202371 0 2998 202371 0
gene 3 15 433 180858 0 3156 180858 1
gene 1 10 1130 23770 0 3329 23770 1
gene 1 1130 14 -163173 0 3330 -163173 1
gene 3 500 697 -467103 0 3371 -467103 1
gene 2 3 516 75533 0 3603 75533 1
gene 2 9 1323 -800000 0 3885 -800000 0
gene 2 1323 14 447585 0 3886 447585 0
gene 2 121 420 -464820 0 3959 -464820 0
gene 2 8 1393 -278106 0 4093 -278106 0
gene 2 1393 13 401433 0 4094 401433 1
gene 1 11 1479 31689 0 4325 31689 1
gene 1 1479 14 -679223 0 4326 -679223 1
gene 4 12 1531 408183 0 4477 408183 1
gene 4 1531 15 177189 0 4478 177189 1
gene 3 1393 433 6360 0 4734 6360 1
gene 2 1323 1683 156960 0 4950 156960 1
gene 2 1683 14 -419387 0 4951 -419387 1
gene 3 6 1735 402933 0 5103 402933 1
gene 3 1735 14 -510785 0 5104 -510785 1
gene 1 5 516 -133050 0 5346 -133050 1
gene 1 516 433 -214809 0 5443 -214809 1
gene 3 2 1875 3642 0 5505 3642 1
gene 3 1875 433 755958 0 5506 755958 1
gene 1 1683 461 255882 0 5687 255882 1
gene 1 516 121 -723099 0 5877 -723099 1
gene 3 3 2034 -488724 0 5939 -488724 1
gene 3 2034 697 -587681 0 5940 -587681 1
gene 3 5 1479 236874 0 6157 236874 1
gene 3 7 2142 800000 0 6248 800000 1
gene 3 2142 420 604899 0 6249 604899 1
gene 3 420 2172 -477303 0 6332 -477303 1
gene 3 2172 15 579692 0 6333 579692 1
gene 2 1735 1735 457733 1 6388 457733 1
gene 2 8 2206 -519038 0 6436 -519038 0
gene 2 2206 1393 265386 0 6437 265386 1
gene 2 121 2313 546759 0 6747 546759 0
gene 2 2313 420 272505 0 6748 272505 0
gene 2 9 2332 -508416 0 6797 -508416 1
gene 2 2332 1323 -129048 0 6798 -129048 1
gene 4 1323 2034 -539562 0 6848 -539562 1
gene 2 7 2368 472338 0 6897 472338 1
gene 2 2368 121 542301 0 6898 542301 1
gene 3 8 2412 -28737 0 7028 -28737 1
gene 3 2412 15 -205620 0 7029 -205620 1
gene 2 8 2430 45993 0 7088 45993 1
gene 2 2430 2206 -215754 0 7089 -215754 1
gene 2 121 2481 -543216 0 7252 -543216 1
gene 2 2481 2313 -170109 0 7253 -170109 1
gene 3 9 2494 276633 0 7292 276633 1
gene 3 2494 15 52554 0 7293 52554 1
gene 2 1479 384 67995 0 7389 67995 1
gene 2 121 2142 -689199 0 7445 -689199 1
gene 2 6 433 -156609 0 7711 -156609 1
gene 2 14 2768 -214026 1 8077 -214026 1
gene 2 2768 14 -10923 0 8078 -10923 1
gene 2 10 2783 -525507 0 8123 -525507 1
gene 2 2783 13 -800000 0 8124 -800000 1
gene 2 11 2799 -22863 0 8166 -22863 1
gene 2 2799 13 -30324 0 8167 -30324 1
gene 4 12 2880 -39330 0 8396 -39330 1
gene 4 2880 14 452910 0 8397 452910 1
gene 1 8 2911 1 0 8505 1 1
gene 1 2911 516 173511 0 8506 173511 1
gene 2 1531 1531 -21202 1 8599 -21202 1
gene 2 2313 2957 1 0 8640 0 1
gene 2 2957 420 272505 0 8641 0 1
gene 4 2172 500 -1891 0 8695 -1891 1
genomeend 1


/* Organism #6 Fitness: 230.000000 Time: 0 */
/* Position #6*/
#1 x: 32 y: 40
#2 x: 17 y: 29
#3 x: 76 y: 39
#4 x: 49 y: 67
#5 x: 69 y: 79
#6 x: 29 y: 63
genomestart 6
trait 1 43007.000000 16300.000000 6994.000000 28041.000000 57524.000000 37112.000000 87908.000000 80535.000000 trait 2 2.000000 0.000000 0.000000 0.000000 0.000000 0.000000 0.000000 0.000000 trait 3 0.000000 0.000000 0.000000 51304.000000 0.000000 13538.000000 70969.000000 30146.000000 trait 4 4.000000 0.000000 0.000000 36940.000000 0.000000 0.000000 43316.000000 37957.000000 node 1 4 1 3
node 2 4 1 1
node 3 1 1 1
node 4 1 1 1
node 5 1 1 1
node 6 2 1 1
node 7 4 1 1
node 8 4 1 1
node 9 2 1 1
node 10 1 1 1
node 11 2 1 1
node 12 4 1 1
node 13 2 0 2
node 14 1 0 2
node 15 3 0 2
node 121 1 0 0
node 235 1 0 0
node 384 1 0 0
node 420 1 0 0
node 433 1 0 0
node 461 1 0 0
node 500 1 0 0
node 516 1 0 0
node 697 3 0 0
node 1018 1 0 0
node 1130 1 0 0
node 1323 3 0 0
node 1393 1 0 0
node 1479 1 0 0
node 1531 4 0 0
node 1683 1 0 0
node 1735 1 0 0
node 1875 3 0 0
node 2034 1 0 0
node 2142 1 0 0
node 2172 1 0 0
node 2206 1 0 0
node 2313 1 0 0
node 2332 1 0 0
node 2368 1 0 0
node 2412 1 0 0
node 2430 1 0 0
node 2481 1 0 0
node 2494 1 0 0
node 2981 1 0 0
gene 2 1 13 612161 0 1 612161 1
gene 3 2 13 800000 0 2 800000 1
gene 2 3 13 168036 0 3 168036 1
gene 3 4 13 62229 0 4 62229 1
gene 2 5 13 -52467 0 5 -52467 1
gene 4 6 13 -117411 0 6 -117411 1
gene 3 7 13 233829 0 7 233829 1
gene 2 8 13 -71625 0 8 -71625 0
gene 3 9 13 -323786 0 9 -323786 1
gene 2 10 13 78192 0 10 78192 1
gene 2 11 13 -486405 0 11 -486405 1
gene 4 12 13 218589 0 12 218589 1
gene 2 1 14 800000 0 13 800000 1
gene 2 2 14 386121 0 14 386121 1
gene 4 3 14 -361245 0 15 -361245 1
gene 4 4 14 -190269 0 16 -190269 0
gene 4 5 14 431352 0 17 431352 1
gene 3 6 14 296409 0 18 296409 0
gene 2 7 14 -120651 0 19 -120651 1
gene 1 8 14 -102477 0 20 -102477 0
gene 3 9 14 -354393 0 21 -354393 1
gene 1 10 14 607608 0 22 607608 1
gene 1 11 14 -282147 0 23 -282147 1
gene 4 12 14 -316971 0 24 -316971 1
gene 3 1 15 149628 0 25 149628 1
gene 3 2 15 399603 0 26 399603 1
gene 3 3 15 321906 0 27 321906 0
gene 3 4 15 330510 0 28 330510 1
gene 3 5 15 -156375 0 29 -156375 1
gene 1 6 15 -79014 0 30 -79014 1
gene 3 7 15 52467 0 31 52467 0
gene 3 8 15 120039 0 32 120039 0
gene 3 9 15 800000 0 33 800000 0
gene 3 10 15 -360363 0 34 -360363 0
gene 2 11 15 79644 0 35 79644 1
gene 4 12 15 -439151 0 36 -439151 0
gene 4 15 15 -190596 1 174 -190596 0
gene 3 8 121 -11949 0 329 -11949 0
gene 3 121 15 -7440 0 330 -7440 1
gene 2 5 121 -800000 0 438 -800000 1
gene 2 7 121 528873 0 483 528873 0
gene 4 4 235 542028 0 666 542028 1
gene 4 235 14 -89577 0 667 -89577 1
gene 1 1 235 541320 0 753 541320 1
gene 1 9 235 178899 0 1108 178899 1
gene 3 10 384 -30762 0 1126 -30762 1
gene 3 384 15 180223 0 1127 180223 0
gene 2 14 14 274197 1 1197 274197 1
gene 3 7 420 -56427 0 1239 -56427 0
gene 3 420 15 -185871 0 1240 -185871 0
gene 3 2 433 18267 0 1284 18267 0
gene 3 433 13 462459 0 1285 462459 1
gene 4 3 461 -126345 0 1352 -126345 1
gene 4 461 14 -307278 0 1353 -307278 1
gene 4 15 500 -315915 1 1453 -315915 1
gene 4 500 15 800000 0 1454 800000 1
gene 1 8 516 -28902 0 1500 -28902 1
gene 1 516 14 -4870 0 1501 -4870 1
gene 1 384 121 -592011 0 1548 -592011 1
gene 2 8 461 -179286 0 1965 -179286 1
gene 3 3 697 -800000 0 2038 -800000 0
gene 3 697 15 338532 0 2039 338532 1
gene 2 1 500 125634 0 2133 125634 1
gene 1 3 433 -392829 0 2628 -392829 1
gene 1 516 516 254772 1 2664 254772 1
gene 3 8 1018 351072 0 2997 351072 1
gene 3 1018 121 90774 0 2998 90774 0
gene 3 15 433 -99555 0 3156 -99555 1
gene 1 10 1130 -13346 0 3329 -13346 1
gene 1 1130 14 310554 0 3330 310554 1
gene 3 500 697 -144372 0 3371 -144372 1
gene 2 3 516 153795 0 3603 153795 1
gene 2 9 1323 581310 0 3885 581310 0
gene 2 1323 14 -78675 0 3886 -78675 0
gene 2 121 420 129804 0 3959 129804 0
gene 2 8 1393 513417 0 4093 513417 0
gene 2 1393 13 426273 0 4094 426273 1
gene 1 11 1479 -800000 0 4325 -800000 1
gene 1 1479 14 218082 0 4326 218082 1
gene 4 12 1531 -104481 0 4477 -104481 1
gene 4 1531 15 366435 0 4478 366435 1
gene 3 1393 433 -455082 0 4734 -455082 1
gene 2 1323 1683 676371 0 4950 676371 0
gene 2 1683 14 -800000 0 4951 -800000 1
gene 3 6 1735 22065 0 5103 22065 1
gene 3 1735 14 -185256 0 5104 -185256 1
gene 1 5 516 384405 0 5346 384405 1
gene 1 516 433 99240 0 5443 99240 1
gene 3 2 1875 -52887 0 5505 -52887 1
gene 3 1875 433 -134943 0 5506 -134943 1
gene 1 1683 461 -134571 0 5687 -134571 1
gene 1 516 121 8601 0 5877 8601 1
gene 3 3 2034 146076 0 5939 146076 1
gene 3 2034 697 -502680 0 5940 -502680 1
gene 3 5 1479 -228507 0 6157 -228507 1
gene 3 7 2142 174087 0 6248 174087 1
gene 3 2142 420 -131001 0 6249 -131001 1
gene 3 420 2172 494700 0 6332 494700 1
gene 3 2172 15 -177279 0 6333 -177279 1
gene 2 1735 1735 58557 1 6388 58557 1
gene 2 8 2206 -115155 0 6436 -115155 0
gene 2 2206 1393 310551 0 6437 310551 1
gene 2 121 2313 246768 0 6747 246768 0
gene 2 2313 420 162984 0 6748 162984 1
gene 2 9 2332 127989 0 6797 127989 1
gene 2 2332 1323 -265149 0 6798 -265149 1
gene 4 1323 2034 2073 0 6848 2073 1
gene 2 7 2368 -410502 0 6897 -410502 1
gene 2 2368 121 715601 0 6898 715601 1
gene 3 8 2412 -360684 0 7028 -360684 1
gene 3 2412 15 -338010 0 7029 -338010 1
gene 2 8 2430 -217152 0 7088 -217152 1
gene 2 2430 2206 -130209 0 7089 -130209 1
gene 2 121 2481 -69312 0 7252 -69312 1
gene 2 2481 2313 -59659 0 7253 -59659 1
gene 3 9 2494 620886 0 7292 620886 1
gene 3 2494 15 -178356 0 7293 -178356 1
gene 2 1479 384 -209784 0 7389 -209784 1
gene 2 121 2142 274380 0 7445 274380 1
gene 2 6 433 -342303 0 7711 -342303 1
gene 2 13 2494 89136 1 8204 89136 1
gene 2 2430 2430 -68268 1 8276 -68268 1
gene 2 1323 384 139721 0 8584 139721 1
gene 2 1323 2981 1 0 8700 0 1
gene 2 2981 1683 676371 0 8701 0 1
gene 3 1531 2368 81981 0 8736 81981 1
genomeend 6


/* Organism #8 Fitness: 240.000000 Time: 0 */
/* Position #8*/
#1 x: 84 y: 39
#2 x: 49 y: 24
#3 x: 44 y: 39
#4 x: 45 y: 71
#5 x: 74 y: 77
#6 x: 75 y: 73
genomestart 8
trait 1 43007.000000 16300.000000 6994.000000 28041.000000 57524.000000 37112.000000 87908.000000 80535.000000 trait 2 2.000000 0.000000 0.000000 0.000000 0.000000 0.000000 0.000000 0.000000 trait 3 0.000000 83419.000000 0.000000 65858.000000 0.000000 0.000000 100000.000000 41343.000000 trait 4 4.000000 0.000000 0.000000 36940.000000 0.000000 0.000000 43316.000000 37957.000000 node 1 4 1 3
node 2 4 1 1
node 3 1 1 1
node 4 1 1 1
node 5 1 1 1
node 6 2 1 1
node 7 4 1 1
node 8 4 1 1
node 9 2 1 1
node 10 1 1 1
node 11 2 1 1
node 12 4 1 1
node 13 2 0 2
node 14 1 0 2
node 15 3 0 2
node 121 1 0 0
node 235 1 0 0
node 384 1 0 0
node 420 1 0 0
node 433 1 0 0
node 461 1 0 0
node 500 1 0 0
node 516 1 0 0
node 697 3 0 0
node 1018 1 0 0
node 1130 1 0 0
node 1323 3 0 0
node 1393 1 0 0
node 1479 1 0 0
node 1531 3 0 0
node 1683 1 0 0
node 1735 1 0 0
node 1875 1 0 0
node 2034 1 0 0
node 2142 1 0 0
node 2172 1 0 0
node 2206 1 0 0
node 2313 1 0 0
node 2332 1 0 0
node 2368 1 0 0
node 2491 1 0 0
node 2512 1 0 0
node 2530 1 0 0
node 2547 1 0 0
node 2692 1 0 0
node 2786 1 0 0
node 2912 1 0 0
gene 2 1 13 88365 0 1 88365 1
gene 3 2 13 -800000 0 2 -800000 1
gene 2 3 13 -142161 0 3 -142161 1
gene 3 4 13 129899 0 4 129899 1
gene 2 5 13 281043 0 5 281043 0
gene 4 6 13 -240525 0 6 -240525 1
gene 3 7 13 17259 0 7 17259 1
gene 2 8 13 219015 0 8 219015 0
gene 3 9 13 -245301 0 9 -245301 1
gene 2 10 13 -114507 0 10 -114507 0
gene 2 11 13 116691 0 11 116691 1
gene 4 12 13 -96597 0 12 -96597 1
gene 2 1 14 -171090 0 13 -171090 1
gene 2 2 14 29553 0 14 29553 1
gene 4 3 14 -346995 0 15 -346995 0
gene 4 4 14 87912 0 16 87912 0
gene 4 5 14 474741 0 17 474741 1
gene 3 6 14 -78561 0 18 -78561 0
gene 2 7 14 -674223 0 19 -674223 1
gene 1 8 14 171987 0 20 171987 0
gene 3 9 14 271116 0 21 271116 1
gene 1 10 14 -174549 0 22 -174549 1
gene 1 11 14 -13785 0 23 -13785 1
gene 4 12 14 -4176 0 24 -4176 1
gene 3 1 15 -38670 0 25 -38670 1
gene 3 2 15 -200964 0 26 -200964 1
gene 3 3 15 233472 0 27 233472 0
gene 3 4 15 186927 0 28 186927 1
gene 3 5 15 -4947 0 29 -4947 1
gene 1 6 15 -402507 0 30 -402507 1
gene 3 7 15 -800000 0 31 -800000 1
gene 3 8 15 -337905 0 32 -337905 1
gene 3 9 15 -108282 0 33 -108282 1
gene 3 10 15 294909 0 34 294909 0
gene 2 11 15 -259890 0 35 -259890 1
gene 4 12 15 -279486 0 36 -279486 0
gene 4 15 15 492975 1 174 492975 0
gene 3 8 121 800000 0 329 800000 0
gene 3 121 15 -46236 0 330 -46236 1
gene 2 5 121 -269187 0 438 -269187 1
gene 2 7 121 34509 0 483 34509 0
gene 4 4 235 -195213 0 666 -195213 1
gene 4 235 14 -800000 0 667 -800000 1
gene 1 1 235 426579 0 753 426579 1
gene 3 9 235 -604223 0 1108 -604223 1
gene 3 10 384 -268982 0 1126 -268982 1
gene 3 384 15 82455 0 1127 82455 1
gene 2 14 14 259299 1 1197 259299 1
gene 3 7 420 20898 0 1239 20898 0
gene 3 420 15 253770 0 1240 253770 0
gene 3 2 433 388140 0 1284 388140 1
gene 3 433 13 -32793 0 1285 -32793 1
gene 4 3 461 -62202 0 1352 -62202 1
gene 4 461 14 357402 0 1353 357402 1
gene 4 15 500 139314 1 1453 139314 1
gene 4 500 15 290649 0 1454 290649 0
gene 1 8 516 94080 0 1500 94080 1
gene 1 516 14 689859 0 1501 689859 1
gene 1 384 121 -554273 0 1548 -554273 1
gene 2 8 461 -267480 0 1965 -267480 1
gene 3 3 697 480855 0 2038 480855 1
gene 3 697 15 295854 0 2039 295854 1
gene 2 1 500 -229359 0 2133 -229359 1
gene 1 3 433 -272847 0 2628 -272847 1
gene 1 516 516 617928 1 2664 617928 1
gene 3 8 1018 399762 0 2997 399762 1
gene 3 1018 121 246278 0 2998 246278 0
gene 3 15 433 65730 0 3156 65730 1
gene 1 10 1130 -714042 0 3329 -714042 1
gene 1 1130 14 203511 0 3330 203511 1
gene 3 500 697 255246 0 3371 255246 1
gene 2 3 516 91707 0 3603 91707 1
gene 2 9 1323 -677084 0 3885 -677084 0
gene 2 1323 14 114246 0 3886 114246 0
gene 2 121 420 -303279 0 3959 -303279 1
gene 2 8 1393 -261207 0 4093 -261207 1
gene 2 1393 13 -222807 0 4094 -222807 1
gene 1 11 1479 123033 0 4325 123033 1
gene 1 1479 14 340050 0 4326 340050 1
gene 4 12 1531 31125 0 4477 31125 1
gene 4 1531 15 -160200 0 4478 -160200 1
gene 3 1393 433 -532014 0 4734 -532014 1
gene 2 1323 1683 -800000 0 4950 -800000 1
gene 2 1683 14 659654 0 4951 659654 1
gene 3 6 1735 216243 0 5103 216243 1
gene 3 1735 14 -29358 0 5104 -29358 1
gene 1 5 516 185085 0 5346 185085 1
gene 1 516 433 -800000 0 5443 -800000 1
gene 3 2 1875 249843 0 5505 249843 1
gene 3 1875 433 -19050 0 5506 -19050 1
gene 1 1683 461 -250884 0 5687 -250884 1
gene 1 516 121 28401 0 5877 28401 1
gene 3 3 2034 444150 0 5939 444150 1
gene 3 2034 697 89535 0 5940 89535 1
gene 3 5 1479 629958 0 6157 629958 1
gene 3 7 2142 196119 0 6248 196119 1
gene 3 2142 420 240915 0 6249 240915 1
gene 3 420 2172 295839 0 6332 295839 1
gene 3 2172 15 -59181 0 6333 -59181 1
gene 2 1735 1735 -435270 1 6388 -435270 1
gene 2 8 2206 -597785 0 6436 -597785 1
gene 2 2206 1393 -323994 0 6437 -323994 1
gene 2 121 2313 -417042 0 6747 -417042 1
gene 2 2313 420 -94749 0 6748 -94749 1
gene 2 9 2332 -311400 0 6797 -311400 1
gene 2 2332 1323 2478 0 6798 2478 1
gene 4 1323 2034 -15888 0 6848 -15888 1
gene 2 7 2368 796391 0 6897 796391 1
gene 2 2368 121 -36585 0 6898 -36585 1
gene 2 384 1531 167514 0 7018 167514 1
gene 2 2142 1018 -128799 0 7205 -128799 1
gene 3 2206 2034 -200415 0 7245 -200415 1
gene 2 7 2491 34524 0 7283 34524 1
gene 2 2491 2368 267216 0 7284 267216 1
gene 2 5 2512 444474 0 7337 444474 1
gene 2 2512 13 17862 0 7338 17862 1
gene 2 10 2530 285786 0 7387 285786 1
gene 2 2530 13 -632118 0 7388 -632118 1
gene 3 9 2547 56370 0 7440 56370 1
gene 3 2547 13 155268 0 7441 155268 1
gene 2 2530 1479 -202650 0 7594 -202650 1
gene 1 1479 2692 -109398 0 7856 -109398 1
gene 1 2692 14 -71901 0 7857 -71901 1
gene 3 4 1130 -131769 0 7980 -131769 1
gene 4 3 2786 -296514 0 8132 -296514 1
gene 4 2786 14 -39273 0 8133 -39273 1
gene 4 2547 1735 220874 0 8311 220874 1
gene 3 2692 461 231717 0 8358 231717 1
gene 4 500 2912 1 0 8507 1 1
gene 4 2912 15 -269592 0 8508 -269592 1
gene 3 1531 1479 -7137 0 8654 -7137 1
gene 1 2034 15 85015 0 8702 85015 1
gene 4 420 420 63872 1 8739 63872 1
genomeend 8


/* Organism #10 Fitness: 210.000000 Time: 0 */
/* Position #10*/
#1 x: 84 y: 35
#2 x: 36 y: 38
#3 x: 28 y: 16
#4 x: 63 y: 73
#5 x: 62 y: 69
#6 x: 54 y: 64
genomestart 10
trait 1 43007.000000 16300.000000 6994.000000 28041.000000 57524.000000 37112.000000 87908.000000 80535.000000 trait 2 2.000000 0.000000 0.000000 0.000000 0.000000 0.000000 0.000000 0.000000 trait 3 0.000000 83419.000000 0.000000 65858.000000 0.000000 0.000000 100000.000000 41343.000000 trait 4 4.000000 0.000000 0.000000 36940.000000 0.000000 0.000000 43316.000000 37957.000000 node 1 4 1 3
node 2 4 1 1
node 3 1 1 1
node 4 1 1 1
node 5 1 1 1
node 6 2 1 1
node 7 4 1 1
node 8 4 1 1
node 9 2 1 1
node 10 1 1 1
node 11 2 1 1
node 12 4 1 1
node 13 2 0 2
node 14 1 0 2
node 15 3 0 2
node 121 1 0 0
node 235 1 0 0
node 384 1 0 0
node 420 1 0 0
node 433 1 0 0
node 461 1 0 0
node 500 1 0 0
node 516 1 0 0
node 697 3 0 0
node 1018 1 0 0
node 1130 1 0 0
node 1323 3 0 0
node 1393 1 0 0
node 1479 1 0 0
node 1531 3 0 0
node 1683 1 0 0
node 1735 1 0 0
node 1875 1 0 0
node 2034 1 0 0
node 2142 1 0 0
node 2172 1 0 0
node 2206 1 0 0
node 2313 1 0 0
node 2332 1 0 0
node 2368 1 0 0
node 2491 1 0 0
node 2512 1 0 0
node 2530 1 0 0
node 2547 1 0 0
node 2692 1 0 0
node 2786 1 0 0
node 2912 1 0 0
gene 2 1 13 88365 0 1 88365 1
gene 3 2 13 -800000 0 2 -800000 1
gene 2 3 13 -142161 0 3 -142161 1
gene 3 4 13 129899 0 4 129899 1
gene 2 5 13 281043 0 5 281043 0
gene 4 6 13 -240525 0 6 -240525 1
gene 3 7 13 17259 0 7 17259 1
gene 2 8 13 219015 0 8 219015 0
gene 3 9 13 -245301 0 9 -245301 1
gene 2 10 13 -114507 0 10 -114507 0
gene 2 11 13 116691 0 11 116691 1
gene 4 12 13 -96597 0 12 -96597 1
gene 2 1 14 -171090 0 13 -171090 1
gene 2 2 14 29553 0 14 29553 1
gene 4 3 14 -346995 0 15 -346995 0
gene 4 4 14 87912 0 16 87912 0
gene 4 5 14 474741 0 17 474741 1
gene 3 6 14 -78561 0 18 -78561 0
gene 2 7 14 -674223 0 19 -674223 1
gene 1 8 14 171987 0 20 171987 0
gene 3 9 14 271116 0 21 271116 1
gene 1 10 14 -174549 0 22 -174549 1
gene 1 11 14 -13785 0 23 -13785 1
gene 4 12 14 -4176 0 24 -4176 1
gene 3 1 15 -38670 0 25 -38670 1
gene 3 2 15 -200964 0 26 -200964 1
gene 3 3 15 233472 0 27 233472 0
gene 3 4 15 186927 0 28 186927 1
gene 3 5 15 -4947 0 29 -4947 1
gene 1 6 15 -402507 0 30 -402507 1
gene 3 7 15 -800000 0 31 -800000 1
gene 3 8 15 -337905 0 32 -337905 1
gene 3 9 15 -108282 0 33 -108282 1
gene 3 10 15 294909 0 34 294909 0
gene 2 11 15 -259890 0 35 -259890 1
gene 4 12 15 -279486 0 36 -279486 0
gene 4 15 15 492975 1 174 492975 0
gene 3 8 121 800000 0 329 800000 0
gene 3 121 15 -46236 0 330 -46236 1
gene 2 5 121 -269187 0 438 -269187 1
gene 2 7 121 34509 0 483 34509 0
gene 4 4 235 -195213 0 666 -195213 1
gene 4 235 14 -800000 0 667 -800000 1
gene 1 1 235 426579 0 753 426579 1
gene 3 9 235 -604223 0 1108 -604223 1
gene 3 10 384 -268982 0 1126 -268982 1
gene 3 384 15 82455 0 1127 82455 1
gene 2 14 14 259299 1 1197 259299 1
gene 3 7 420 20898 0 1239 20898 0
gene 3 420 15 253770 0 1240 253770 0
gene 3 2 433 388140 0 1284 388140 1
gene 3 433 13 -32793 0 1285 -32793 1
gene 4 3 461 -62202 0 1352 -62202 1
gene 4 461 14 357402 0 1353 357402 1
gene 4 15 500 139314 1 1453 139314 1
gene 4 500 15 290649 0 1454 290649 0
gene 1 8 516 94080 0 1500 94080 1
gene 1 516 14 689859 0 1501 689859 1
gene 1 384 121 -554273 0 1548 -554273 1
gene 2 8 461 -267480 0 1965 -267480 1
gene 3 3 697 480855 0 2038 480855 1
gene 3 697 15 295854 0 2039 295854 1
gene 2 1 500 -229359 0 2133 -229359 1
gene 1 3 433 -272847 0 2628 -272847 1
gene 1 516 516 617928 1 2664 617928 1
gene 3 8 1018 399762 0 2997 399762 1
gene 3 1018 121 246278 0 2998 246278 0
gene 3 15 433 65730 0 3156 65730 1
gene 1 10 1130 -714042 0 3329 -714042 1
gene 1 1130 14 203511 0 3330 203511 1
gene 3 500 697 255246 0 3371 255246 1
gene 2 3 516 91707 0 3603 91707 1
gene 2 9 1323 -677084 0 3885 -677084 0
gene 2 1323 14 114246 0 3886 114246 0
gene 2 121 420 -303279 0 3959 -303279 1
gene 2 8 1393 -261207 0 4093 -261207 1
gene 2 1393 13 -222807 0 4094 -222807 1
gene 1 11 1479 123033 0 4325 123033 1
gene 1 1479 14 340050 0 4326 340050 1
gene 4 12 1531 31125 0 4477 31125 1
gene 4 1531 15 -160200 0 4478 -160200 1
gene 3 1393 433 -532014 0 4734 -532014 1
gene 2 1323 1683 -800000 0 4950 -800000 1
gene 2 1683 14 659654 0 4951 659654 1
gene 3 6 1735 216243 0 5103 216243 1
gene 3 1735 14 -29358 0 5104 -29358 1
gene 1 5 516 185085 0 5346 185085 1
gene 1 516 433 -800000 0 5443 -800000 1
gene 3 2 1875 249843 0 5505 249843 1
gene 3 1875 433 -19050 0 5506 -19050 1
gene 1 1683 461 -250884 0 5687 -250884 1
gene 1 516 121 28401 0 5877 28401 1
gene 3 3 2034 444150 0 5939 444150 1
gene 3 2034 697 89535 0 5940 89535 1
gene 3 5 1479 629958 0 6157 629958 1
gene 3 7 2142 196119 0 6248 196119 1
gene 3 2142 420 240915 0 6249 240915 1
gene 3 420 2172 295839 0 6332 295839 1
gene 3 2172 15 -59181 0 6333 -59181 1
gene 2 1735 1735 -435270 1 6388 -435270 1
gene 2 8 2206 -597785 0 6436 -597785 1
gene 2 2206 1393 -323994 0 6437 -323994 1
gene 2 121 2313 -417042 0 6747 -417042 1
gene 2 2313 420 -94749 0 6748 -94749 1
gene 2 9 2332 -311400 0 6797 -311400 1
gene 2 2332 1323 2478 0 6798 2478 1
gene 4 1323 2034 -15888 0 6848 -15888 1
gene 2 7 2368 796391 0 6897 796391 1
gene 2 2368 121 -36585 0 6898 -36585 1
gene 2 384 1531 167514 0 7018 167514 1
gene 2 2142 1018 -128799 0 7205 -128799 1
gene 3 2206 2034 -200415 0 7245 -200415 1
gene 2 7 2491 34524 0 7283 34524 1
gene 2 2491 2368 267216 0 7284 267216 1
gene 2 5 2512 444474 0 7337 444474 1
gene 2 2512 13 17862 0 7338 17862 1
gene 2 10 2530 285786 0 7387 285786 1
gene 2 2530 13 -632118 0 7388 -632118 1
gene 3 9 2547 56370 0 7440 56370 1
gene 3 2547 13 155268 0 7441 155268 1
gene 2 2530 1479 -202650 0 7594 -202650 1
gene 1 1479 2692 -109398 0 7856 -109398 1
gene 1 2692 14 -71901 0 7857 -71901 1
gene 3 4 1130 -131769 0 7980 -131769 1
gene 4 3 2786 -296514 0 8132 -296514 1
gene 4 2786 14 -39273 0 8133 -39273 1
gene 4 2547 1735 220874 0 8311 220874 1
gene 3 2692 461 231717 0 8358 231717 1
gene 4 500 2912 1 0 8507 1 1
gene 4 2912 15 -269592 0 8508 -269592 1
gene 3 1531 1479 -7137 0 8654 -7137 1
gene 1 2034 15 85015 0 8702 85015 1
gene 3 1393 516 -18510 0 8742 -18510 1
genomeend 10


/* Organism #14 Fitness: 210.000000 Time: 0 */
/* Position #14*/
#1 x: 65 y: 34
#2 x: 42 y: 30
#3 x: 55 y: 40
#4 x: 17 y: 83
#5 x: 47 y: 70
#6 x: 27 y: 67
genomestart 14
trait 1 43007.000000 0.000000 0.000000 0.000000 0.000000 0.000000 87908.000000 0.000000 trait 2 0.000000 94809.000000 34350.000000 0.000000 0.000000 0.000000 0.000000 0.000000 trait 3 0.000000 45285.000000 0.000000 51304.000000 0.000000 0.000000 70969.000000 30146.000000 trait 4 4.000000 0.000000 0.000000 36940.000000 0.000000 0.000000 43316.000000 37957.000000 node 1 4 1 3
node 2 4 1 1
node 3 1 1 1
node 4 1 1 1
node 5 1 1 1
node 6 2 1 1
node 7 4 1 1
node 8 4 1 1
node 9 2 1 1
node 10 4 1 1
node 11 2 1 1
node 12 4 1 1
node 13 2 0 2
node 14 1 0 2
node 15 3 0 2
node 121 1 0 0
node 235 1 0 0
node 384 1 0 0
node 420 1 0 0
node 433 1 0 0
node 461 1 0 0
node 500 1 0 0
node 516 1 0 0
node 697 1 0 0
node 1018 1 0 0
node 1130 1 0 0
node 1323 3 0 0
node 1393 3 0 0
node 1479 1 0 0
node 1531 4 0 0
node 1683 1 0 0
node 1735 1 0 0
node 1875 1 0 0
node 1975 1 0 0
node 2022 1 0 0
node 2179 1 0 0
node 2295 1 0 0
node 2545 1 0 0
node 2573 1 0 0
node 2682 1 0 0
node 2702 1 0 0
node 2966 1 0 0
node 2982 1 0 0
gene 2 1 13 426273 0 1 426273 1
gene 3 2 13 -125496 0 2 -125496 1
gene 2 3 13 285210 0 3 285210 1
gene 3 4 13 -301863 0 4 -301863 1
gene 2 5 13 720018 0 5 720018 1
gene 4 6 13 71400 0 6 71400 1
gene 3 7 13 -684396 0 7 -684396 1
gene 2 8 13 -606960 0 8 -606960 1
gene 3 9 13 -3585 0 9 -3585 1
gene 2 10 13 118134 0 10 118134 1
gene 2 11 13 453813 0 11 453813 1
gene 4 12 13 -115007 0 12 -115007 1
gene 2 1 14 707054 0 13 707054 1
gene 2 2 14 -800000 0 14 -800000 1
gene 4 3 14 -525636 0 15 -525636 1
gene 4 4 14 -311484 0 16 -311484 1
gene 4 5 14 648 0 17 648 0
gene 3 6 14 615597 0 18 615597 1
gene 2 7 14 -377957 0 19 -377957 1
gene 1 8 14 -105117 0 20 -105117 0
gene 3 9 14 193782 0 21 193782 1
gene 1 10 14 40806 0 22 40806 1
gene 1 11 14 179244 0 23 179244 1
gene 4 12 14 78156 0 24 78156 1
gene 3 1 15 267576 0 25 267576 1
gene 3 2 15 -358299 0 26 -358299 1
gene 3 3 15 -458076 0 27 -458076 1
gene 3 4 15 659234 0 28 659234 1
gene 3 5 15 24420 0 29 24420 1
gene 1 6 15 323211 0 30 323211 0
gene 3 7 15 662082 0 31 662082 0
gene 3 8 15 -581433 0 32 -581433 1
gene 3 9 15 781026 0 33 781026 1
gene 3 10 15 -800000 0 34 -800000 0
gene 2 11 15 -796598 0 35 -796598 1
gene 4 12 15 492774 0 36 492774 1
gene 4 15 15 128322 1 174 128322 0
gene 3 8 121 171045 0 329 171045 0
gene 3 121 15 760971 0 330 760971 1
gene 2 5 121 -46089 0 438 -46089 1
gene 2 7 121 -469485 0 483 -469485 1
gene 4 4 235 460143 0 666 460143 1
gene 4 235 14 -776997 0 667 -776997 1
gene 1 1 235 602919 0 753 602919 1
gene 1 9 235 99498 0 1108 99498 0
gene 3 10 384 -287901 0 1126 -287901 1
gene 3 384 15 -780458 0 1127 -780458 0
gene 2 14 14 74460 1 1197 74460 0
gene 3 7 420 409443 0 1239 409443 1
gene 3 420 15 154209 0 1240 154209 1
gene 3 2 433 -226419 0 1284 -226419 0
gene 3 433 13 112158 0 1285 112158 1
gene 4 3 461 -701823 0 1352 -701823 1
gene 4 461 14 -73323 0 1353 -73323 1
gene 4 15 500 245910 1 1453 245910 1
gene 4 500 15 -746702 0 1454 -746702 0
gene 1 8 516 588743 0 1500 588743 1
gene 1 516 14 -346158 0 1501 -346158 0
gene 4 384 121 349647 0 1548 349647 1
gene 2 8 461 -791388 0 1965 -791388 0
gene 3 3 697 494811 0 2038 494811 1
gene 2 697 15 -92466 0 2039 -92466 1
gene 2 1 500 -149607 0 2133 -149607 1
gene 1 3 433 -421182 0 2628 -421182 1
gene 1 516 516 -128793 1 2664 -128793 1
gene 3 8 1018 -241536 0 2997 -241536 1
gene 3 1018 121 269625 0 2998 269625 1
gene 3 15 433 -365259 0 3156 -365259 1
gene 1 10 1130 144969 0 3329 144969 1
gene 1 1130 14 366279 0 3330 366279 1
gene 3 500 697 -565053 0 3371 -565053 1
gene 2 3 516 203634 0 3603 203634 1
gene 2 9 1323 9441 0 3885 9441 1
gene 2 1323 14 -324045 0 3886 -324045 0
gene 2 121 420 352077 0 3959 352077 1
gene 2 8 1393 -459170 0 4093 -459170 1
gene 2 1393 13 -132588 0 4094 -132588 1
gene 1 11 1479 365085 0 4325 365085 1
gene 1 1479 14 438573 0 4326 438573 1
gene 4 12 1531 567924 0 4477 567924 1
gene 4 1531 15 758328 0 4478 758328 0
gene 3 1393 433 121839 0 4734 121839 1
gene 2 1323 1683 -239688 0 4950 -239688 1
gene 2 1683 14 -800000 0 4951 -800000 1
gene 3 6 1735 339747 0 5103 339747 1
gene 3 1735 14 295170 0 5104 295170 1
gene 1 5 516 800000 0 5346 800000 1
gene 1 516 433 800000 0 5443 800000 1
gene 3 2 1875 -58481 0 5505 -58481 1
gene 3 1875 433 -205005 0 5506 -205005 1
gene 1 1683 461 -253638 0 5687 -253638 1
gene 1 6 1975 -153897 0 5780 -153897 0
gene 1 1975 15 267747 0 5781 267747 1
gene 4 1531 2022 -75825 0 5905 -75825 1
gene 4 2022 15 -550023 0 5906 -550023 0
gene 3 121 1875 -18924 0 5987 -18924 1
gene 1 1683 1393 305628 0 6232 305628 1
gene 4 500 2179 66762 0 6351 66762 1
gene 4 2179 15 790503 0 6352 790503 1
gene 3 12 2179 161466 0 6539 161466 1
gene 1 1975 1975 -287370 1 6578 -287370 1
gene 2 14 2295 723143 1 6699 723143 1
gene 2 2295 14 183708 0 6700 183708 1
gene 4 4 433 194637 0 7064 194637 1
gene 1 516 2545 -43737 0 7435 -43737 1
gene 1 2545 14 -800000 0 7436 -800000 1
gene 2 8 2573 381156 0 7531 381156 1
gene 2 2573 461 297516 0 7532 297516 1
gene 1 9 2682 -64392 0 7830 -64392 1
gene 1 2682 235 -433143 0 7831 -433143 1
gene 4 2022 2702 40869 0 7879 40869 1
gene 4 2702 15 249723 0 7880 249723 1
gene 1 1875 1875 39114 1 7987 39114 1
gene 4 697 697 33396 1 8264 33396 1
gene 1 6 2966 109159 0 8664 109159 1
gene 1 2966 1975 -160530 0 8665 -160530 1
gene 4 5 2982 1 0 8705 1 1
gene 4 2982 14 -40518 0 8706 -40518 1
genomeend 14


/* Organism #22 Fitness: 290.000000 Time: 0 */
/* Position #22*/
#1 x: 22 y: 38
#2 x: 84 y: 30
#3 x: 50 y: 20
#4 x: 63 y: 61
#5 x: 21 y: 61
#6 x: 21 y: 81
genomestart 22
trait 1 100000.000000 16300.000000 0.000000 0.000000 45600.000000 0.000000 0.000000 0.000000 trait 2 2.000000 0.000000 0.000000 0.000000 83586.000000 0.000000 76024.000000 27694.000000 trait 3 0.000000 0.000000 0.000000 0.000000 0.000000 13538.000000 70969.000000 0.000000 trait 4 0.000000 0.000000 11440.000000 97211.000000 0.000000 18241.000000 2888.000000 100000.000000 node 1 4 1 3
node 2 4 1 1
node 3 1 1 1
node 4 1 1 1
node 5 1 1 1
node 6 2 1 1
node 7 4 1 1
node 8 4 1 1
node 9 2 1 1
node 10 1 1 1
node 11 1 1 1
node 12 4 1 1
node 13 2 0 2
node 14 1 0 2
node 15 3 0 2
node 121 1 0 0
node 235 1 0 0
node 384 1 0 0
node 420 1 0 0
node 433 1 0 0
node 461 1 0 0
node 500 1 0 0
node 516 1 0 0
node 697 1 0 0
node 1018 2 0 0
node 1130 1 0 0
node 1323 1 0 0
node 1393 1 0 0
node 1479 1 0 0
node 1531 1 0 0
node 1732 1 0 0
node 1844 1 0 0
node 2023 1 0 0
node 2035 1 0 0
node 2054 1 0 0
node 2076 1 0 0
node 2174 1 0 0
node 2292 1 0 0
node 2306 1 0 0
node 2374 1 0 0
node 2502 1 0 0
node 2593 1 0 0
node 2610 1 0 0
node 2742 1 0 0
node 2763 1 0 0
node 2986 1 0 0
node 2996 1 0 0
gene 2 1 13 704885 0 1 704885 1
gene 3 2 13 800000 0 2 800000 1
gene 2 3 13 -223416 0 3 -223416 1
gene 3 4 13 102315 0 4 102315 1
gene 2 5 13 -204297 0 5 -204297 1
gene 4 6 13 800000 0 6 800000 1
gene 3 7 13 -37008 0 7 -37008 1
gene 2 8 13 461358 0 8 461358 0
gene 3 9 13 86466 0 9 86466 1
gene 2 10 13 800000 0 10 800000 1
gene 2 11 13 164319 0 11 164319 0
gene 4 12 13 566336 0 12 566336 0
gene 4 1 14 -2394 0 13 -2394 1
gene 2 2 14 -300774 0 14 -300774 0
gene 4 3 14 303606 0 15 303606 1
gene 4 4 14 -539007 0 16 -539007 0
gene 4 5 14 -328719 0 17 -328719 1
gene 3 6 14 -800000 0 18 -800000 1
gene 2 7 14 733401 0 19 733401 1
gene 1 8 14 -418815 0 20 -418815 1
gene 2 9 14 -263175 0 21 -263175 0
gene 1 10 14 -214248 0 22 -214248 0
gene 1 11 14 -121668 0 23 -121668 0
gene 4 12 14 -800000 0 24 -800000 1
gene 3 1 15 -364830 0 25 -364830 1
gene 3 2 15 74706 0 26 74706 1
gene 3 3 15 -405618 0 27 -405618 0
gene 3 4 15 259632 0 28 259632 1
gene 3 5 15 -22215 0 29 -22215 1
gene 1 6 15 41925 0 30 41925 1
gene 3 7 15 723428 0 31 723428 0
gene 3 8 15 507963 0 32 507963 1
gene 3 9 15 -574121 0 33 -574121 1
gene 3 10 15 149790 0 34 149790 0
gene 2 11 15 -23850 0 35 -23850 1
gene 4 12 15 -318900 0 36 -318900 0
gene 4 15 15 563193 1 174 563193 0
gene 3 8 121 276594 0 329 276594 0
gene 3 121 15 -22947 0 330 -22947 1
gene 2 5 121 -82542 0 438 -82542 1
gene 2 7 121 -532497 0 483 -532497 1
gene 4 4 235 128328 0 666 128328 1
gene 4 235 14 -719540 0 667 -719540 1
gene 1 1 235 410745 0 753 410745 1
gene 1 9 235 704057 0 1108 704057 1
gene 3 10 384 371100 0 1126 371100 1
gene 3 384 15 -465714 0 1127 -465714 0
gene 2 14 14 196050 1 1197 196050 0
gene 3 7 420 -331959 0 1239 -331959 1
gene 3 420 15 614762 0 1240 614762 1
gene 3 2 433 -35313 0 1284 -35313 1
gene 3 433 13 208852 0 1285 208852 1
gene 4 3 461 336603 0 1352 336603 1
gene 4 461 14 -13173 0 1353 -13173 0
gene 4 15 500 -29589 1 1453 -29589 0
gene 4 500 15 345081 0 1454 345081 1
gene 1 8 516 135657 0 1500 135657 1
gene 1 516 14 -27402 0 1501 -27402 1
gene 1 384 121 -657948 0 1548 -657948 0
gene 2 8 461 -154860 0 1965 -154860 1
gene 3 3 697 -77718 0 2038 -77718 1
gene 3 697 15 261846 0 2039 261846 1
gene 2 1 500 15315 0 2133 15315 1
gene 1 3 433 715803 0 2628 715803 1
gene 1 516 516 105348 1 2664 105348 1
gene 3 8 1018 -371907 0 2997 -371907 1
gene 3 1018 121 26693 0 2998 26693 1
gene 3 15 433 -5613 0 3156 -5613 1
gene 1 10 1130 -390765 0 3329 -390765 1
gene 1 1130 14 800000 0 3330 800000 1
gene 3 500 697 -140301 0 3371 -140301 1
gene 2 3 516 -417549 0 3603 -417549 1
gene 2 9 1323 -55191 0 3885 -55191 1
gene 2 1323 14 -570849 0 3886 -570849 1
gene 2 121 420 -179556 0 3959 -179556 1
gene 2 8 1393 -531999 0 4093 -531999 0
gene 2 1393 13 -255930 0 4094 -255930 0
gene 1 11 1479 12873 0 4325 12873 1
gene 4 1479 14 -105063 0 4326 -105063 1
gene 4 12 1531 -25703 0 4477 -25703 1
gene 4 1531 15 -128985 0 4478 -128985 1
gene 2 1323 420 -410970 0 4676 -410970 1
gene 3 500 1479 1365 0 4897 1365 1
gene 4 461 461 -245007 1 4980 -245007 1
gene 2 121 1732 184473 0 5095 184473 1
gene 1 1732 420 -129759 0 5096 -129759 1
gene 1 384 500 800000 0 5133 800000 1
gene 2 15 14 -537159 0 5180 -537159 0
gene 4 6 1130 376241 0 5368 376241 1
gene 3 10 1844 229110 0 5409 229110 1
gene 3 1844 384 -68373 0 5410 -68373 0
gene 2 2 2023 124224 0 5908 124224 1
gene 1 2023 14 151980 0 5909 151980 1
gene 2 1393 2035 105744 0 5942 105744 0
gene 2 2035 13 -93210 0 5943 -93210 1
gene 4 461 2054 -800000 0 5995 -800000 1
gene 4 2054 14 -493915 0 5996 -493915 1
gene 4 461 2076 -426195 0 6055 -426195 1
gene 4 2076 2054 16353 0 6056 16353 1
gene 2 11 2174 -238929 0 6336 -238929 1
gene 2 2174 13 -202618 0 6337 -202618 1
gene 2 1393 2292 371382 0 6690 371382 1
gene 2 2292 2035 -232542 0 6691 -232542 1
gene 4 12 2306 -413019 0 6730 -413019 1
gene 4 2306 13 -131232 0 6731 -131232 0
gene 2 15 2374 -254829 0 6914 -254829 1
gene 2 2374 14 120390 0 6915 120390 1
gene 4 500 2502 -449169 0 7309 -449169 1
gene 4 2502 15 139047 0 7310 139047 1
gene 4 15 461 547680 0 7483 547680 1
gene 3 433 433 148107 1 7529 148107 1
gene 1 384 2593 -469242 0 7577 -469242 1
gene 1 2593 121 368079 0 7578 368079 1
gene 2 14 2610 -140628 1 7624 -140628 0
gene 2 2610 14 49218 0 7625 49218 1
gene 4 2306 420 -108457 0 7889 -108457 1
gene 2 1018 384 -285294 0 7964 -285294 1
gene 4 2306 2742 -205845 0 8009 -205845 1
gene 4 2742 13 -281118 0 8010 -281118 1
gene 4 15 2763 -40008 1 8064 -40008 1
gene 4 2763 500 199254 0 8065 199254 1
gene 3 8 2502 -354219 0 8110 -354219 1
gene 1 1844 2502 20244 0 8442 20244 1
gene 3 1844 2986 1 0 8719 0 1
gene 3 2986 384 -68373 0 8720 0 1
gene 2 8 2996 1 0 8753 0 1
gene 2 2996 1393 -531999 0 8754 0 1
genomeend 22


/* Organism #40 Fitness: 260.000000 Time: 0 */
/* Position #40*/
#1 x: 36 y: 31
#2 x: 21 y: 15
#3 x: 52 y: 25
#4 x: 56 y: 74
#5 x: 53 y: 62
#6 x: 54 y: 69
genomestart 40
trait 1 43007.000000 16300.000000 6994.000000 28041.000000 57524.000000 37112.000000 87908.000000 80535.000000 trait 2 2.000000 0.000000 0.000000 0.000000 0.000000 0.000000 0.000000 0.000000 trait 3 0.000000 83419.000000 0.000000 65858.000000 0.000000 0.000000 100000.000000 41343.000000 trait 4 4.000000 0.000000 0.000000 36940.000000 0.000000 0.000000 43316.000000 37957.000000 node 1 4 1 3
node 2 4 1 1
node 3 1 1 1
node 4 1 1 1
node 5 1 1 1
node 6 2 1 1
node 7 4 1 1
node 8 4 1 1
node 9 2 1 1
node 10 1 1 1
node 11 2 1 1
node 12 4 1 1
node 13 2 0 2
node 14 1 0 2
node 15 3 0 2
node 121 1 0 0
node 235 1 0 0
node 384 1 0 0
node 420 1 0 0
node 433 1 0 0
node 461 1 0 0
node 500 1 0 0
node 516 1 0 0
node 697 3 0 0
node 1018 1 0 0
node 1130 1 0 0
node 1323 3 0 0
node 1393 1 0 0
node 1479 1 0 0
node 1531 3 0 0
node 1683 1 0 0
node 1735 1 0 0
node 1875 1 0 0
node 2034 1 0 0
node 2142 1 0 0
node 2172 1 0 0
node 2206 1 0 0
node 2313 1 0 0
node 2332 1 0 0
node 2368 1 0 0
node 2491 1 0 0
node 2512 1 0 0
node 2530 1 0 0
node 2547 1 0 0
node 2692 1 0 0
node 2786 1 0 0
node 2912 1 0 0
node 2940 1 0 0
gene 2 1 13 163329 0 1 163329 1
gene 3 2 13 -800000 0 2 -800000 1
gene 2 3 13 -273327 0 3 -273327 1
gene 3 4 13 -119364 0 4 -119364 1
gene 2 5 13 -599853 0 5 -599853 0
gene 4 6 13 -269142 0 6 -269142 1
gene 3 7 13 -223365 0 7 -223365 1
gene 2 8 13 -268914 0 8 -268914 0
gene 3 9 13 -132507 0 9 -132507 1
gene 2 10 13 -48795 0 10 -48795 0
gene 2 11 13 394401 0 11 394401 1
gene 4 12 13 -5994 0 12 -5994 1
gene 2 1 14 478224 0 13 478224 1
gene 2 2 14 -75240 0 14 -75240 1
gene 4 3 14 -603612 0 15 -603612 0
gene 4 4 14 -87081 0 16 -87081 0
gene 4 5 14 277296 0 17 277296 1
gene 3 6 14 96516 0 18 96516 0
gene 2 7 14 65043 0 19 65043 1
gene 1 8 14 575586 0 20 575586 0
gene 3 9 14 -230706 0 21 -230706 1
gene 1 10 14 -205896 0 22 -205896 1
gene 1 11 14 206520 0 23 206520 1
gene 4 12 14 -238956 0 24 -238956 1
gene 3 1 15 340020 0 25 340020 1
gene 3 2 15 -72705 0 26 -72705 1
gene 3 3 15 721416 0 27 721416 0
gene 3 4 15 61032 0 28 61032 1
gene 3 5 15 108120 0 29 108120 1
gene 1 6 15 20523 0 30 20523 1
gene 3 7 15 -800000 0 31 -800000 1
gene 3 8 15 -511002 0 32 -511002 1
gene 3 9 15 3546 0 33 3546 1
gene 3 10 15 19194 0 34 19194 0
gene 2 11 15 -424440 0 35 -424440 1
gene 4 12 15 -198747 0 36 -198747 0
gene 4 15 15 533100 1 174 533100 0
gene 3 8 121 557546 0 329 557546 0
gene 3 121 15 -456546 0 330 -456546 1
gene 2 5 121 184866 0 438 184866 1
gene 2 7 121 255003 0 483 255003 0
gene 4 4 235 456771 0 666 456771 1
gene 4 235 14 -437516 0 667 -437516 1
gene 1 1 235 757974 0 753 757974 1
gene 3 9 235 -800000 0 1108 -800000 1
gene 3 10 384 -192494 0 1126 -192494 1
gene 3 384 15 97083 0 1127 97083 1
gene 2 14 14 -140370 1 1197 -140370 1
gene 3 7 420 242346 0 1239 242346 0
gene 3 420 15 418536 0 1240 418536 0
gene 3 2 433 -413730 0 1284 -413730 1
gene 3 433 13 58980 0 1285 58980 1
gene 4 3 461 137676 0 1352 137676 1
gene 4 461 14 -5871 0 1353 -5871 1
gene 4 15 500 179883 1 1453 179883 1
gene 4 500 15 303819 0 1454 303819 0
gene 1 8 516 180438 0 1500 180438 1
gene 1 516 14 800000 0 1501 800000 1
gene 1 384 121 117795 0 1548 117795 1
gene 2 8 461 375867 0 1965 375867 1
gene 3 3 697 -485949 0 2038 -485949 1
gene 3 697 15 727365 0 2039 727365 1
gene 2 1 500 -289629 0 2133 -289629 1
gene 1 3 433 488592 0 2628 488592 1
gene 1 516 516 59520 1 2664 59520 1
gene 3 8 1018 800000 0 2997 800000 1
gene 3 1018 121 19287 0 2998 19287 0
gene 3 15 433 -277356 0 3156 -277356 1
gene 1 10 1130 -287817 0 3329 -287817 1
gene 1 1130 14 -702483 0 3330 -702483 1
gene 3 500 697 745146 0 3371 745146 1
gene 2 3 516 360864 0 3603 360864 1
gene 2 9 1323 -800000 0 3885 -800000 0
gene 2 1323 14 176994 0 3886 176994 0
gene 2 121 420 -83841 0 3959 -83841 1
gene 2 8 1393 -259587 0 4093 -259587 1
gene 2 1393 13 -171792 0 4094 -171792 1
gene 1 11 1479 30093 0 4325 30093 1
gene 1 1479 14 355638 0 4326 355638 0
gene 4 12 1531 142677 0 4477 142677 1
gene 4 1531 15 244551 0 4478 244551 1
gene 3 1393 433 -683247 0 4734 -683247 1
gene 2 1323 1683 -800000 0 4950 -800000 1
gene 2 1683 14 -169935 0 4951 -169935 1
gene 3 6 1735 -166845 0 5103 -166845 1
gene 3 1735 14 652971 0 5104 652971 1
gene 1 5 516 135981 0 5346 135981 1
gene 1 516 433 -573083 0 5443 -573083 1
gene 3 2 1875 208161 0 5505 208161 1
gene 3 1875 433 248301 0 5506 248301 1
gene 1 1683 461 175038 0 5687 175038 1
gene 1 516 121 416898 0 5877 416898 1
gene 3 3 2034 267801 0 5939 267801 1
gene 3 2034 697 589203 0 5940 589203 1
gene 3 5 1479 615726 0 6157 615726 1
gene 3 7 2142 -366759 0 6248 -366759 1
gene 3 2142 420 45018 0 6249 45018 1
gene 3 420 2172 -800000 0 6332 -800000 1
gene 3 2172 15 -296214 0 6333 -296214 1
gene 2 1735 1735 -296682 1 6388 -296682 1
gene 2 8 2206 -641684 0 6436 -641684 1
gene 2 2206 1393 424107 0 6437 424107 1
gene 2 121 2313 -262710 0 6747 -262710 1
gene 2 2313 420 -474156 0 6748 -474156 1
gene 2 9 2332 -319164 0 6797 -319164 1
gene 2 2332 1323 107496 0 6798 107496 1
gene 4 1323 2034 168006 0 6848 168006 1
gene 2 7 2368 198744 0 6897 198744 1
gene 2 2368 121 149619 0 6898 149619 1
gene 2 384 1531 234456 0 7018 234456 1
gene 2 2142 1018 -259038 0 7205 -259038 1
gene 3 2206 2034 -81840 0 7245 -81840 1
gene 2 7 2491 71910 0 7283 71910 1
gene 2 2491 2368 58561 0 7284 58561 1
gene 2 5 2512 286938 0 7337 286938 1
gene 2 2512 13 -268842 0 7338 -268842 1
gene 2 10 2530 152925 0 7387 152925 1
gene 2 2530 13 -89247 0 7388 -89247 1
gene 3 9 2547 -194499 0 7440 -194499 1
gene 3 2547 13 232920 0 7441 232920 1
gene 2 2530 1479 -54930 0 7594 -54930 1
gene 1 1479 2692 -322368 0 7856 -322368 1
gene 1 2692 14 -83775 0 7857 -83775 1
gene 3 4 1130 231323 0 7980 231323 1
gene 4 3 2786 -270471 0 8132 -270471 1
gene 4 2786 14 249840 0 8133 249840 1
gene 4 2547 1735 -195762 0 8311 -195762 1
gene 3 2692 461 599949 0 8358 599949 1
gene 4 500 2912 -190589 0 8507 -190589 1
gene 4 2912 15 -120048 0 8508 -120048 1
gene 1 1479 2940 124792 0 8585 124792 1
gene 1 2940 14 231657 0 8586 231657 1
gene 4 500 2491 3356 0 8771 3356 1
genomeend 40


/* Organism #50 Fitness: 240.000000 Time: 0 */
/* Position #50*/
#1 x: 57 y: 28
#2 x: 51 y: 37
#3 x: 73 y: 28
#4 x: 37 y: 70
#5 x: 84 y: 66
#6 x: 47 y: 71
genomestart 50
trait 1 71503.000000 52572.000000 0.000000 48265.000000 0.000000 0.000000 100000.000000 393.000000 trait 2 2.000000 0.000000 0.000000 0.000000 0.000000 0.000000 0.000000 0.000000 trait 3 0.000000 0.000000 0.000000 51304.000000 0.000000 13538.000000 70969.000000 30146.000000 trait 4 4.000000 0.000000 0.000000 36940.000000 0.000000 0.000000 43316.000000 37957.000000 node 1 4 1 3
node 2 4 1 1
node 3 1 1 1
node 4 2 1 1
node 5 1 1 1
node 6 2 1 1
node 7 4 1 1
node 8 4 1 1
node 9 2 1 1
node 10 1 1 1
node 11 2 1 1
node 12 4 1 1
node 13 2 0 2
node 14 1 0 2
node 15 3 0 2
node 121 1 0 0
node 235 1 0 0
node 384 1 0 0
node 420 1 0 0
node 433 1 0 0
node 461 1 0 0
node 500 1 0 0
node 516 1 0 0
node 697 1 0 0
node 1018 1 0 0
node 1130 1 0 0
node 1323 3 0 0
node 1393 1 0 0
node 1479 1 0 0
node 1531 4 0 0
node 1683 1 0 0
node 1735 1 0 0
node 1875 1 0 0
node 1975 1 0 0
node 2022 1 0 0
node 2179 1 0 0
node 2295 1 0 0
node 2794 1 0 0
gene 2 1 13 95268 0 1 95268 1
gene 3 2 13 -393009 0 2 -393009 1
gene 2 3 13 -75084 0 3 -75084 1
gene 3 4 13 263742 0 4 263742 1
gene 2 5 13 -800000 0 5 -800000 1
gene 4 6 13 84609 0 6 84609 1
gene 3 7 13 284766 0 7 284766 1
gene 2 8 13 -32538 0 8 -32538 0
gene 3 9 13 534015 0 9 534015 1
gene 2 10 13 198267 0 10 198267 1
gene 2 11 13 -132432 0 11 -132432 1
gene 4 12 13 -250863 0 12 -250863 1
gene 2 1 14 562532 0 13 562532 1
gene 2 2 14 76572 0 14 76572 1
gene 4 3 14 500343 0 15 500343 1
gene 4 4 14 800000 0 16 800000 0
gene 4 5 14 270135 0 17 270135 1
gene 3 6 14 -35942 0 18 -35942 0
gene 2 7 14 -443357 0 19 -443357 1
gene 1 8 14 -208713 0 20 -208713 0
gene 3 9 14 226509 0 21 226509 1
gene 1 10 14 -568965 0 22 -568965 1
gene 1 11 14 -377486 0 23 -377486 1
gene 4 12 14 -139962 0 24 -139962 1
gene 3 1 15 -507372 0 25 -507372 1
gene 3 2 15 -291096 0 26 -291096 1
gene 3 3 15 -50472 0 27 -50472 0
gene 3 4 15 85221 0 28 85221 1
gene 3 5 15 -227112 0 29 -227112 1
gene 1 6 15 -586506 0 30 -586506 0
gene 3 7 15 481054 0 31 481054 0
gene 3 8 15 -659258 0 32 -659258 1
gene 3 9 15 24228 0 33 24228 1
gene 3 10 15 524724 0 34 524724 0
gene 2 11 15 301689 0 35 301689 1
gene 4 12 15 -238695 0 36 -238695 0
gene 4 15 15 667665 1 174 667665 0
gene 3 8 121 -167910 0 329 -167910 0
gene 3 121 15 -213798 0 330 -213798 1
gene 2 5 121 -353460 0 438 -353460 1
gene 2 7 121 -725073 0 483 -725073 1
gene 4 4 235 -108141 0 666 -108141 1
gene 4 235 14 74908 0 667 74908 1
gene 1 1 235 444651 0 753 444651 1
gene 1 9 235 15672 0 1108 15672 1
gene 3 10 384 -226560 0 1126 -226560 1
gene 3 384 15 -368568 0 1127 -368568 0
gene 2 14 14 155088 1 1197 155088 0
gene 3 7 420 -124734 0 1239 -124734 1
gene 3 420 15 164514 0 1240 164514 1
gene 3 2 433 71934 0 1284 71934 0
gene 3 433 13 -571629 0 1285 -571629 1
gene 4 3 461 200400 0 1352 200400 1
gene 4 461 14 -271182 0 1353 -271182 1
gene 4 15 500 -22506 1 1453 -22506 1
gene 4 500 15 -800000 0 1454 -800000 0
gene 1 8 516 -118146 0 1500 -118146 1
gene 1 516 14 -403242 0 1501 -403242 1
gene 1 384 121 44664 0 1548 44664 1
gene 2 8 461 -368397 0 1965 -368397 1
gene 3 3 697 754548 0 2038 754548 1
gene 2 697 15 -126804 0 2039 -126804 1
gene 2 1 500 95928 0 2133 95928 1
gene 1 3 433 140619 0 2628 140619 1
gene 1 516 516 -408681 1 2664 -408681 1
gene 3 8 1018 -552633 0 2997 -552633 1
gene 3 1018 121 -82473 0 2998 -82473 0
gene 3 15 433 181515 0 3156 181515 1
gene 1 10 1130 189951 0 3329 189951 1
gene 1 1130 14 115905 0 3330 115905 1
gene 3 500 697 -83334 0 3371 -83334 1
gene 2 3 516 64426 0 3603 64426 1
gene 2 9 1323 223734 0 3885 223734 1
gene 2 1323 14 -267423 0 3886 -267423 0
gene 4 121 420 -6660 0 3959 -6660 1
gene 2 8 1393 324552 0 4093 324552 1
gene 2 1393 13 523065 0 4094 523065 0
gene 1 11 1479 26919 0 4325 26919 1
gene 1 1479 14 407775 0 4326 407775 1
gene 4 12 1531 145446 0 4477 145446 1
gene 4 1531 15 303606 0 4478 303606 0
gene 3 1393 433 28071 0 4734 28071 1
gene 2 1323 1683 -168774 0 4950 -168774 1
gene 2 1683 14 203166 0 4951 203166 1
gene 3 6 1735 -234171 0 5103 -234171 1
gene 3 1735 14 346797 0 5104 346797 0
gene 1 5 516 -52692 0 5346 -52692 1
gene 1 516 433 -531021 0 5443 -531021 1
gene 3 2 1875 -798144 0 5505 -798144 1
gene 3 1875 433 -413940 0 5506 -413940 1
gene 1 1683 461 -800000 0 5687 -800000 1
gene 1 6 1975 601455 0 5780 601455 1
gene 1 1975 15 85170 0 5781 85170 1
gene 4 1531 2022 -561942 0 5905 -561942 1
gene 4 2022 15 -789639 0 5906 -789639 1
gene 3 121 1875 387792 0 5987 387792 1
gene 1 1683 1393 -202146 0 6232 -202146 1
gene 4 500 2179 -86454 0 6351 -86454 1
gene 4 2179 15 13701 0 6352 13701 1
gene 3 12 2179 517662 0 6539 517662 1
gene 1 1975 1975 -297891 1 6578 -297891 1
gene 2 14 2295 -118362 1 6699 -118362 1
gene 2 2295 14 -79941 0 6700 -79941 1
gene 4 4 433 584571 0 7064 584571 1
gene 3 12 235 -33678 0 7098 -33678 1
gene 1 384 384 -52989 1 7242 -52989 1
gene 2 500 500 68124 1 7740 68124 1
gene 2 1393 2794 61974 0 8152 61974 1
gene 2 2794 13 -355356 0 8153 -355356 1
gene 1 1323 1531 -209478 0 8182 -209478 1
gene 4 235 697 -39488 0 8782 -39488 1
genomeend 50


/* Organism #60 Fitness: 250.000000 Time: 0 */
/* Position #60*/
#1 x: 41 y: 21
#2 x: 16 y: 39
#3 x: 22 y: 35
#4 x: 16 y: 66
#5 x: 36 y: 60
#6 x: 53 y: 61
genomestart 60
trait 1 43007.000000 16300.000000 6994.000000 28041.000000 57524.000000 37112.000000 87908.000000 80535.000000 trait 2 2.000000 0.000000 0.000000 95786.000000 0.000000 63671.000000 50358.000000 0.000000 trait 3 0.000000 0.000000 0.000000 51304.000000 0.000000 13538.000000 70969.000000 30146.000000 trait 4 4.000000 0.000000 0.000000 36940.000000 0.000000 0.000000 43316.000000 37957.000000 node 1 4 1 3
node 2 4 1 1
node 3 1 1 1
node 4 1 1 1
node 5 1 1 1
node 6 2 1 1
node 7 4 1 1
node 8 4 1 1
node 9 2 1 1
node 10 1 1 1
node 11 2 1 1
node 12 4 1 1
node 13 2 0 2
node 14 1 0 2
node 15 3 0 2
node 121 1 0 0
node 235 1 0 0
node 384 1 0 0
node 420 1 0 0
node 433 1 0 0
node 461 1 0 0
node 500 1 0 0
node 516 1 0 0
node 697 3 0 0
node 1018 1 0 0
node 1130 1 0 0
node 1323 3 0 0
node 1393 1 0 0
node 1479 1 0 0
node 1531 4 0 0
node 1683 1 0 0
node 1735 1 0 0
node 1875 1 0 0
node 2034 1 0 0
node 2142 1 0 0
node 2172 1 0 0
node 2206 1 0 0
node 2313 1 0 0
node 2332 1 0 0
node 2368 1 0 0
node 2491 1 0 0
node 2512 1 0 0
node 2530 1 0 0
node 2547 1 0 0
node 2692 1 0 0
node 2786 1 0 0
node 2915 1 0 0
node 2973 1 0 0
node 2983 1 0 0
gene 2 1 13 -347724 0 1 -347724 1
gene 3 2 13 -795302 0 2 -795302 1
gene 2 3 13 525693 0 3 525693 1
gene 3 4 13 -387945 0 4 -387945 1
gene 2 5 13 -433002 0 5 -433002 0
gene 4 6 13 -2553 0 6 -2553 1
gene 3 7 13 -133353 0 7 -133353 1
gene 2 8 13 462195 0 8 462195 0
gene 3 9 13 -319476 0 9 -319476 1
gene 2 10 13 130677 0 10 130677 0
gene 2 11 13 188199 0 11 188199 1
gene 4 12 13 -257259 0 12 -257259 1
gene 2 1 14 -290976 0 13 -290976 1
gene 2 2 14 21933 0 14 21933 1
gene 4 3 14 47037 0 15 47037 0
gene 4 4 14 124413 0 16 124413 0
gene 4 5 14 -793593 0 17 -793593 1
gene 3 6 14 240075 0 18 240075 0
gene 2 7 14 728537 0 19 728537 1
gene 1 8 14 -369582 0 20 -369582 0
gene 3 9 14 -398976 0 21 -398976 1
gene 1 10 14 23952 0 22 23952 1
gene 1 11 14 147675 0 23 147675 1
gene 4 12 14 420444 0 24 420444 1
gene 3 1 15 10182 0 25 10182 1
gene 3 2 15 -96516 0 26 -96516 1
gene 3 3 15 -267753 0 27 -267753 0
gene 3 4 15 -74706 0 28 -74706 1
gene 3 5 15 -175278 0 29 -175278 1
gene 1 6 15 -738405 0 30 -738405 1
gene 3 7 15 109452 0 31 109452 1
gene 3 8 15 -89793 0 32 -89793 1
gene 3 9 15 246936 0 33 246936 1
gene 3 10 15 49566 0 34 49566 0
gene 2 11 15 -40248 0 35 -40248 1
gene 4 12 15 108744 0 36 108744 0
gene 4 15 15 -125850 1 174 -125850 0
gene 3 8 121 -83580 0 329 -83580 0
gene 3 121 15 -102798 0 330 -102798 1
gene 2 5 121 710441 0 438 710441 1
gene 2 7 121 -515484 0 483 -515484 0
gene 4 4 235 -141261 0 666 -141261 1
gene 4 235 14 223041 0 667 223041 1
gene 1 1 235 -274527 0 753 -274527 1
gene 3 9 235 -267504 0 1108 -267504 1
gene 3 10 384 -373457 0 1126 -373457 1
gene 3 384 15 -84000 0 1127 -84000 1
gene 2 14 14 300612 1 1197 300612 1
gene 3 7 420 133236 0 1239 133236 0
gene 3 420 15 -259626 0 1240 -259626 0
gene 3 2 433 165234 0 1284 165234 1
gene 3 433 13 -243837 0 1285 -243837 1
gene 4 3 461 38556 0 1352 38556 1
gene 4 461 14 -499353 0 1353 -499353 1
gene 4 15 500 70023 1 1453 70023 1
gene 4 500 15 -82350 0 1454 -82350 1
gene 1 8 516 113676 0 1500 113676 1
gene 1 516 14 -46710 0 1501 -46710 1
gene 1 384 121 219051 0 1548 219051 1
gene 2 8 461 -74211 0 1965 -74211 1
gene 3 3 697 514274 0 2038 514274 1
gene 3 697 15 231816 0 2039 231816 1
gene 2 1 500 653136 0 2133 653136 1
gene 1 3 433 -426990 0 2628 -426990 1
gene 1 516 516 139335 1 2664 139335 1
gene 3 8 1018 72645 0 2997 72645 1
gene 3 1018 121 -290931 0 2998 -290931 0
gene 3 15 433 140187 0 3156 140187 1
gene 1 10 1130 -63567 0 3329 -63567 1
gene 1 1130 14 9282 0 3330 9282 1
gene 3 500 697 -46236 0 3371 -46236 1
gene 2 3 516 138591 0 3603 138591 0
gene 2 9 1323 421035 0 3885 421035 0
gene 2 1323 14 -10407 0 3886 -10407 0
gene 2 121 420 638874 0 3959 638874 1
gene 2 8 1393 210663 0 4093 210663 1
gene 2 1393 13 -123723 0 4094 -123723 1
gene 1 11 1479 -249480 0 4325 -249480 1
gene 1 1479 14 710145 0 4326 710145 1
gene 4 12 1531 178071 0 4477 178071 1
gene 4 1531 15 -302568 0 4478 -302568 1
gene 3 1393 433 67383 0 4734 67383 1
gene 2 1323 1683 -10476 0 4950 -10476 1
gene 2 1683 14 -751458 0 4951 -751458 1
gene 3 6 1735 434007 0 5103 434007 1
gene 3 1735 14 -526227 0 5104 -526227 1
gene 1 5 516 -5358 0 5346 -5358 1
gene 1 516 433 -481872 0 5443 -481872 1
gene 3 2 1875 -208359 0 5505 -208359 0
gene 3 1875 433 -241503 0 5506 -241503 1
gene 1 1683 461 -396912 0 5687 -396912 1
gene 1 516 121 -226296 0 5877 -226296 0
gene 3 3 2034 -34653 0 5939 -34653 1
gene 3 2034 697 3597 0 5940 3597 1
gene 3 5 1479 -175086 0 6157 -175086 1
gene 3 7 2142 286971 0 6248 286971 1
gene 3 2142 420 141120 0 6249 141120 1
gene 3 420 2172 -47877 0 6332 -47877 1
gene 3 2172 15 115779 0 6333 115779 1
gene 2 1735 1735 61959 1 6388 61959 1
gene 2 8 2206 -439878 0 6436 -439878 1
gene 2 2206 1393 -180024 0 6437 -180024 1
gene 2 121 2313 187980 0 6747 187980 1
gene 2 2313 420 524327 0 6748 524327 1
gene 2 9 2332 19824 0 6797 19824 1
gene 2 2332 1323 317979 0 6798 317979 1
gene 4 1323 2034 -85692 0 6848 -85692 1
gene 2 7 2368 432750 0 6897 432750 1
gene 2 2368 121 -264261 0 6898 -264261 1
gene 2 384 1531 586356 0 7018 586356 1
gene 2 2142 1018 168795 0 7205 168795 1
gene 3 2206 2034 346005 0 7245 346005 1
gene 2 7 2491 -158247 0 7283 -158247 1
gene 2 2491 2368 70053 0 7284 70053 1
gene 2 5 2512 -46509 0 7337 -46509 1
gene 2 2512 13 -304248 0 7338 -304248 1
gene 2 10 2530 -281451 0 7387 -281451 1
gene 2 2530 13 365622 0 7388 365622 1
gene 3 9 2547 395310 0 7440 395310 1
gene 3 2547 13 218118 0 7441 218118 1
gene 2 2530 1479 139548 0 7594 139548 1
gene 1 1479 2692 -259362 0 7856 -259362 1
gene 1 2692 14 160413 0 7857 160413 1
gene 3 4 1130 -709473 0 7980 -709473 1
gene 4 3 2786 -357993 0 8132 -357993 1
gene 4 2786 14 337191 0 8133 337191 1
gene 3 384 384 253929 1 8429 253929 1
gene 2 3 2915 -222020 0 8516 -222020 1
gene 2 2915 516 -214710 0 8517 -214710 1
gene 4 433 433 14183 1 8562 14183 1
gene 1 516 2973 163173 0 8678 163173 1
gene 1 2973 121 -164637 0 8679 -164637 1
gene 3 2 2983 86014 0 8707 86014 1
gene 3 2983 1875 2919 0 8708 2919 1
genomeend 60


/* Organism #72 Fitness: 480.000000 Time: 0 */
/* Position #72*/
#1 x: 40 y: 39
#2 x: 39 y: 16
#3 x: 51 y: 25
#4 x: 48 y: 70
#5 x: 29 y: 70
#6 x: 24 y: 78
genomestart 72
trait 1 19736.000000 16300.000000 6994.000000 0.000000 57524.000000 20547.000000 87908.000000 80535.000000 trait 2 2.000000 0.000000 90545.000000 0.000000 0.000000 95294.000000 0.000000 0.000000 trait 3 0.000000 0.000000 0.000000 51304.000000 0.000000 13538.000000 70969.000000 30146.000000 trait 4 4.000000 0.000000 0.000000 36940.000000 0.000000 45239.000000 43316.000000 37957.000000 node 1 4 1 3
node 2 4 1 1
node 3 1 1 1
node 4 1 1 1
node 5 1 1 1
node 6 2 1 1
node 7 4 1 1
node 8 4 1 1
node 9 2 1 1
node 10 1 1 1
node 11 2 1 1
node 12 4 1 1
node 13 2 0 2
node 14 1 0 2
node 15 3 0 2
node 121 1 0 0
node 235 1 0 0
node 384 2 0 0
node 420 1 0 0
node 433 1 0 0
node 461 1 0 0
node 500 1 0 0
node 516 1 0 0
node 697 3 0 0
node 1018 1 0 0
node 1130 1 0 0
node 1323 3 0 0
node 1393 1 0 0
node 1479 1 0 0
node 1531 4 0 0
node 1683 1 0 0
node 1735 1 0 0
node 1875 4 0 0
node 2034 1 0 0
node 2142 1 0 0
node 2172 1 0 0
node 2206 1 0 0
node 2313 1 0 0
node 2332 1 0 0
node 2368 1 0 0
node 2491 1 0 0
node 2512 1 0 0
node 2530 1 0 0
node 2547 1 0 0
node 2692 1 0 0
node 2752 1 0 0
node 2781 1 0 0
node 2814 1 0 0
node 2929 1 0 0
gene 2 1 13 -483540 0 1 -483540 1
gene 3 2 13 -114618 0 2 -114618 1
gene 2 3 13 -800000 0 3 -800000 1
gene 3 4 13 800000 0 4 800000 1
gene 2 5 13 49797 0 5 49797 0
gene 4 6 13 55317 0 6 55317 1
gene 3 7 13 -291563 0 7 -291563 1
gene 2 8 13 53961 0 8 53961 0
gene 3 9 13 -78282 0 9 -78282 0
gene 2 10 13 267969 0 10 267969 0
gene 2 11 13 49089 0 11 49089 1
gene 4 12 13 134559 0 12 134559 1
gene 2 1 14 554154 0 13 554154 1
gene 2 2 14 50770 0 14 50770 1
gene 4 3 14 -444993 0 15 -444993 1
gene 4 4 14 -244422 0 16 -244422 0
gene 4 5 14 -394458 0 17 -394458 1
gene 3 6 14 385621 0 18 385621 0
gene 2 7 14 -194867 0 19 -194867 1
gene 1 8 14 688611 0 20 688611 0
gene 3 9 14 717202 0 21 717202 1
gene 1 10 14 -299967 0 22 -299967 1
gene 1 11 14 -800000 0 23 -800000 1
gene 4 12 14 722903 0 24 722903 1
gene 3 1 15 113928 0 25 113928 1
gene 3 2 15 -800000 0 26 -800000 1
gene 3 3 15 -564 0 27 -564 0
gene 3 4 15 -562949 0 28 -562949 1
gene 3 5 15 -77886 0 29 -77886 1
gene 1 6 15 -492036 0 30 -492036 1
gene 3 7 15 -56334 0 31 -56334 1
gene 3 8 15 -341862 0 32 -341862 1
gene 3 9 15 74235 0 33 74235 1
gene 3 10 15 800000 0 34 800000 0
gene 2 11 15 219504 0 35 219504 1
gene 4 12 15 -518021 0 36 -518021 0
gene 4 15 15 715369 1 174 715369 1
gene 3 8 121 151188 0 329 151188 0
gene 3 121 15 -134490 0 330 -134490 1
gene 2 5 121 -619440 0 438 -619440 1
gene 2 7 121 -54480 0 483 -54480 0
gene 4 4 235 460596 0 666 460596 1
gene 4 235 14 -210780 0 667 -210780 1
gene 1 1 235 -707756 0 753 -707756 1
gene 3 9 235 490794 0 1108 490794 1
gene 3 10 384 -800000 0 1126 -800000 1
gene 3 384 15 -175847 0 1127 -175847 0
gene 2 14 14 348177 1 1197 348177 1
gene 3 7 420 192696 0 1239 192696 0
gene 3 420 15 514452 0 1240 514452 0
gene 3 2 433 298689 0 1284 298689 0
gene 3 433 13 358962 0 1285 358962 0
gene 4 3 461 -407202 0 1352 -407202 1
gene 4 461 14 788172 0 1353 788172 1
gene 4 15 500 709963 1 1453 709963 1
gene 4 500 15 240192 0 1454 240192 0
gene 1 8 516 -236166 0 1500 -236166 1
gene 1 516 14 -458682 0 1501 -458682 1
gene 1 384 121 -145563 0 1548 -145563 1
gene 2 8 461 -279546 0 1965 -279546 1
gene 3 3 697 542940 0 2038 542940 0
gene 3 697 15 21606 0 2039 21606 1
gene 2 1 500 -90906 0 2133 -90906 1
gene 1 3 433 120726 0 2628 120726 1
gene 1 516 516 -28701 1 2664 -28701 1
gene 3 8 1018 -23781 0 2997 -23781 1
gene 3 1018 121 135573 0 2998 135573 0
gene 3 15 433 -32754 0 3156 -32754 1
gene 1 10 1130 -800000 0 3329 -800000 1
gene 1 1130 14 281616 0 3330 281616 1
gene 3 500 697 24351 0 3371 24351 1
gene 2 3 516 -97422 0 3603 -97422 1
gene 2 9 1323 -8685 0 3885 -8685 0
gene 2 1323 14 -247680 0 3886 -247680 1
gene 2 121 420 -403815 0 3959 -403815 0
gene 2 8 1393 -85674 0 4093 -85674 0
gene 2 1393 13 223734 0 4094 223734 1
gene 1 11 1479 453267 0 4325 453267 1
gene 1 1479 14 756893 0 4326 756893 0
gene 4 12 1531 374310 0 4477 374310 1
gene 4 1531 15 -380442 0 4478 -380442 1
gene 3 1393 433 681411 0 4734 681411 1
gene 2 1323 1683 273395 0 4950 273395 1
gene 2 1683 14 -502929 0 4951 -502929 1
gene 3 6 1735 377349 0 5103 377349 1
gene 3 1735 14 242559 0 5104 242559 1
gene 1 5 516 -722589 0 5346 -722589 1
gene 1 516 433 -174501 0 5443 -174501 1
gene 3 2 1875 448854 0 5505 448854 1
gene 3 1875 433 534419 0 5506 534419 1
gene 1 1683 461 326978 0 5687 326978 1
gene 1 516 121 -201666 0 5877 -201666 1
gene 3 3 2034 -81327 0 5939 -81327 1
gene 3 2034 697 413301 0 5940 413301 1
gene 3 5 1479 54945 0 6157 54945 1
gene 3 7 2142 38778 0 6248 38778 1
gene 3 2142 420 -209394 0 6249 -209394 1
gene 3 420 2172 -317359 0 6332 -317359 1
gene 3 2172 15 -489255 0 6333 -489255 1
gene 2 1735 1735 -524372 1 6388 -524372 0
gene 2 8 2206 220605 0 6436 220605 1
gene 2 2206 1393 736620 0 6437 736620 1
gene 2 121 2313 -191013 0 6747 -191013 1
gene 2 2313 420 124689 0 6748 124689 1
gene 2 9 2332 -303480 0 6797 -303480 1
gene 2 2332 1323 -4449 0 6798 -4449 1
gene 4 1323 2034 -202455 0 6848 -202455 1
gene 2 7 2368 205209 0 6897 205209 0
gene 2 2368 121 58548 0 6898 58548 1
gene 2 384 1531 -22287 0 7018 -22287 1
gene 2 2142 1018 23472 0 7205 23472 1
gene 3 2206 2034 -157917 0 7245 -157917 1
gene 2 7 2491 233472 0 7283 233472 1
gene 2 2491 2368 -728802 0 7284 -728802 1
gene 2 5 2512 480495 0 7337 480495 1
gene 2 2512 13 551334 0 7338 551334 1
gene 2 10 2530 -325629 0 7387 -325629 1
gene 2 2530 13 192483 0 7388 192483 1
gene 3 9 2547 -184194 0 7440 -184194 1
gene 3 2547 13 -101361 0 7441 -101361 1
gene 2 2530 1479 157848 0 7594 157848 1
gene 1 1479 2692 179769 0 7856 179769 1
gene 1 2692 14 655146 0 7857 655146 1
gene 3 4 1130 39606 0 7980 39606 1
gene 4 500 2752 337278 0 8035 337278 1
gene 4 2752 15 -309042 0 8036 -309042 1
gene 2 2692 2332 -53475 0 8070 -53475 1
gene 3 9 2781 -23409 0 8116 -23409 1
gene 3 2781 13 -800000 0 8117 -800000 1
gene 3 420 2332 68412 0 8160 68412 1
gene 3 433 2814 583698 0 8210 583698 1
gene 3 2814 13 288774 0 8211 288774 1
gene 2 1735 2929 -337523 1 8551 -337523 1
gene 2 2929 1735 246321 0 8552 246321 1
gene 3 1 1130 -225345 0 8596 -225345 1
genomeend 72


/* Organism #78 Fitness: 230.000000 Time: 0 */
/* Position #78*/
#1 x: 53 y: 32
#2 x: 32 y: 30
#3 x: 43 y: 24
#4 x: 21 y: 75
#5 x: 51 y: 84
#6 x: 19 y: 83
genomestart 78
trait 1 71503.000000 52572.000000 0.000000 48265.000000 0.000000 0.000000 100000.000000 393.000000 trait 2 2.000000 0.000000 0.000000 0.000000 0.000000 0.000000 0.000000 0.000000 trait 3 0.000000 0.000000 0.000000 51304.000000 0.000000 13538.000000 70969.000000 30146.000000 trait 4 4.000000 0.000000 0.000000 36940.000000 0.000000 0.000000 43316.000000 37957.000000 node 1 4 1 3
node 2 4 1 1
node 3 1 1 1
node 4 2 1 1
node 5 1 1 1
node 6 2 1 1
node 7 4 1 1
node 8 4 1 1
node 9 2 1 1
node 10 1 1 1
node 11 2 1 1
node 12 4 1 1
node 13 2 0 2
node 14 1 0 2
node 15 3 0 2
node 121 1 0 0
node 235 1 0 0
node 384 1 0 0
node 420 1 0 0
node 433 1 0 0
node 461 1 0 0
node 500 1 0 0
node 516 1 0 0
node 697 1 0 0
node 1018 1 0 0
node 1130 1 0 0
node 1323 3 0 0
node 1393 1 0 0
node 1479 1 0 0
node 1531 4 0 0
node 1683 1 0 0
node 1735 1 0 0
node 1875 1 0 0
node 1975 1 0 0
node 2022 1 0 0
node 2179 1 0 0
node 2295 1 0 0
node 2794 1 0 0
gene 2 1 13 83802 0 1 83802 1
gene 3 2 13 -38688 0 2 -38688 1
gene 2 3 13 -29784 0 3 -29784 1
gene 3 4 13 38631 0 4 38631 1
gene 2 5 13 -800000 0 5 -800000 1
gene 4 6 13 -11034 0 6 -11034 1
gene 3 7 13 102894 0 7 102894 1
gene 2 8 13 48915 0 8 48915 0
gene 3 9 13 487494 0 9 487494 1
gene 2 10 13 24483 0 10 24483 1
gene 2 11 13 -331086 0 11 -331086 1
gene 4 12 13 -250863 0 12 -250863 1
gene 2 1 14 729470 0 13 729470 1
gene 2 2 14 189618 0 14 189618 1
gene 4 3 14 313719 0 15 313719 1
gene 4 4 14 800000 0 16 800000 0
gene 4 5 14 497133 0 17 497133 1
gene 3 6 14 -262595 0 18 -262595 0
gene 2 7 14 -525473 0 19 -525473 1
gene 1 8 14 -496350 0 20 -496350 0
gene 3 9 14 -268914 0 21 -268914 1
gene 1 10 14 -759552 0 22 -759552 1
gene 1 11 14 -244244 0 23 -244244 1
gene 4 12 14 226869 0 24 226869 1
gene 3 1 15 -208989 0 25 -208989 1
gene 3 2 15 -427308 0 26 -427308 1
gene 3 3 15 -173466 0 27 -173466 0
gene 3 4 15 82464 0 28 82464 1
gene 3 5 15 -227112 0 29 -227112 1
gene 1 6 15 -351837 0 30 -351837 0
gene 3 7 15 -26313 0 31 -26313 0
gene 3 8 15 -800000 0 32 -800000 1
gene 3 9 15 -130014 0 33 -130014 1
gene 3 10 15 441690 0 34 441690 0
gene 2 11 15 516585 0 35 516585 1
gene 4 12 15 -420084 0 36 -420084 0
gene 4 15 15 395622 1 174 395622 0
gene 3 8 121 -425607 0 329 -425607 0
gene 3 121 15 -213798 0 330 -213798 1
gene 2 5 121 -320691 0 438 -320691 1
gene 2 7 121 -549099 0 483 -549099 1
gene 4 4 235 -125022 0 666 -125022 1
gene 4 235 14 256528 0 667 256528 1
gene 1 1 235 275034 0 753 275034 1
gene 1 9 235 232035 0 1108 232035 1
gene 3 10 384 -105591 0 1126 -105591 1
gene 3 384 15 160677 0 1127 160677 0
gene 2 14 14 -10344 1 1197 -10344 0
gene 3 7 420 88161 0 1239 88161 1
gene 3 420 15 189048 0 1240 189048 1
gene 3 2 433 -228057 0 1284 -228057 0
gene 3 433 13 -246330 0 1285 -246330 1
gene 4 3 461 -98424 0 1352 -98424 1
gene 4 461 14 -271182 0 1353 -271182 1
gene 4 15 500 115326 1 1453 115326 1
gene 4 500 15 -585848 0 1454 -585848 0
gene 1 8 516 32526 0 1500 32526 1
gene 1 516 14 -430041 0 1501 -430041 1
gene 1 384 121 -165561 0 1548 -165561 1
gene 2 8 461 -68451 0 1965 -68451 1
gene 3 3 697 567012 0 2038 567012 1
gene 2 697 15 -370224 0 2039 -370224 1
gene 2 1 500 95928 0 2133 95928 1
gene 1 3 433 340686 0 2628 340686 1
gene 1 516 516 -546273 1 2664 -546273 1
gene 3 8 1018 -624255 0 2997 -624255 1
gene 3 1018 121 181410 0 2998 181410 0
gene 3 15 433 216249 0 3156 216249 1
gene 1 10 1130 419208 0 3329 419208 1
gene 1 1130 14 278229 0 3330 278229 1
gene 3 500 697 -83334 0 3371 -83334 1
gene 2 3 516 185923 0 3603 185923 1
gene 2 9 1323 166032 0 3885 166032 1
gene 2 1323 14 -320772 0 3886 -320772 0
gene 4 121 420 -48747 0 3959 -48747 1
gene 2 8 1393 -171516 0 4093 -171516 1
gene 2 1393 13 800000 0 4094 800000 0
gene 1 11 1479 -129384 0 4325 -129384 1
gene 1 1479 14 276927 0 4326 276927 1
gene 4 12 1531 -24111 0 4477 -24111 1
gene 4 1531 15 65727 0 4478 65727 0
gene 3 1393 433 -172560 0 4734 -172560 1
gene 2 1323 1683 18531 0 4950 18531 1
gene 2 1683 14 191730 0 4951 191730 1
gene 3 6 1735 -401001 0 5103 -401001 1
gene 3 1735 14 602892 0 5104 602892 0
gene 1 5 516 -180024 0 5346 -180024 1
gene 1 516 433 -531021 0 5443 -531021 1
gene 3 2 1875 -800000 0 5505 -800000 1
gene 3 1875 433 -145044 0 5506 -145044 1
gene 1 1683 461 -800000 0 5687 -800000 1
gene 1 6 1975 767166 0 5780 767166 1
gene 1 1975 15 177093 0 5781 177093 1
gene 4 1531 2022 -561942 0 5905 -561942 1
gene 4 2022 15 -800000 0 5906 -800000 1
gene 3 121 1875 387792 0 5987 387792 1
gene 1 1683 1393 -246258 0 6232 -246258 1
gene 4 500 2179 -260283 0 6351 -260283 1
gene 4 2179 15 161121 0 6352 161121 1
gene 3 12 2179 788022 0 6539 788022 1
gene 1 1975 1975 -152403 1 6578 -152403 1
gene 2 14 2295 -105261 1 6699 -105261 1
gene 2 2295 14 -62064 0 6700 -62064 1
gene 4 4 433 755733 0 7064 755733 1
gene 3 12 235 84855 0 7098 84855 1
gene 1 384 384 -52989 1 7242 -52989 1
gene 2 500 500 134553 1 7740 134553 1
gene 2 1393 2794 -169287 0 8152 -169287 1
gene 2 2794 13 -477933 0 8153 -477933 1
gene 1 1323 1531 -30873 0 8182 -30873 1
genomeend 78


