/* Organism #39 Fitness: -26.000000 Time: 0 */
/* Position #39*/
#1 x: 18 y: 20
#2 x: 51 y: 18
#3 x: 68 y: 20
#4 x: 31 y: 77
#5 x: 60 y: 67
#6 x: 56 y: 80
genomestart 39
node 1 2 1 3
node 2 4 1 1
node 3 1 1 1
node 4 3 1 1
node 5 3 1 1
node 6 2 1 1
node 7 2 1 1
node 8 4 1 1
node 9 3 1 1
node 10 1 1 1
node 11 3 1 1
node 12 3 1 1
node 13 4 0 2
node 14 1 0 2
node 15 2 0 2
gene 1 1 13 -171759 0 1 -171759 1
gene 3 2 13 -525459 0 2 -525459 1
gene 2 3 13 -182355 0 3 -182355 1
gene 4 4 13 93279 0 4 93279 1
gene 4 5 13 417180 0 5 417180 1
gene 1 6 13 -233043 0 6 -233043 1
gene 4 7 13 -800000 0 7 -800000 1
gene 2 8 13 211275 0 8 211275 1
gene 2 9 13 -86568 0 9 -86568 1
gene 4 10 13 -157422 0 10 -157422 1
gene 3 11 13 685851 0 11 685851 1
gene 3 12 13 155421 0 12 155421 1
gene 3 1 14 25422 0 13 25422 1
gene 4 2 14 -144981 0 14 -144981 1
gene 4 3 14 -87939 0 15 -87939 1
gene 2 4 14 -431067 0 16 -431067 1
gene 2 5 14 -560268 0 17 -560268 1
gene 3 6 14 -132900 0 18 -132900 1
gene 3 7 14 352182 0 19 352182 1
gene 4 8 14 484050 0 20 484050 1
gene 3 9 14 -60159 0 21 -60159 1
gene 4 10 14 255207 0 22 255207 1
gene 1 11 14 422718 0 23 422718 1
gene 3 12 14 92269 0 24 92269 1
gene 3 1 15 800000 0 25 800000 1
gene 4 2 15 405150 0 26 405150 1
gene 3 3 15 -673152 0 27 -673152 1
gene 3 4 15 -107415 0 28 -107415 1
gene 2 5 15 -465774 0 29 -465774 1
gene 2 6 15 415593 0 30 415593 1
gene 3 7 15 -521676 0 31 -521676 1
gene 2 8 15 -454083 0 32 -454083 1
gene 2 9 15 338358 0 33 338358 1
gene 4 10 15 -53736 0 34 -53736 1
gene 4 11 15 -338793 0 35 -338793 1
gene 3 12 15 -353175 0 36 -353175 1
gene 4 13 15 -238152 0 181 -238152 1
genomeend 39


/* Organism #43 Fitness: 495.000000 Time: 0 */
/* Position #43*/
#1 x: 22 y: 25
#2 x: 83 y: 39
#3 x: 84 y: 28
#4 x: 48 y: 63
#5 x: 32 y: 85
#6 x: 36 y: 72
genomestart 43
node 1 2 1 3
node 2 4 1 1
node 3 1 1 1
node 4 3 1 1
node 5 3 1 1
node 6 2 1 1
node 7 2 1 1
node 8 4 1 1
node 9 3 1 1
node 10 1 1 1
node 11 3 1 1
node 12 3 1 1
node 13 4 0 2
node 14 1 0 2
node 15 2 0 2
gene 1 1 13 79353 0 1 79353 1
gene 3 2 13 -515370 0 2 -515370 1
gene 2 3 13 -287739 0 3 -287739 1
gene 4 4 13 38829 0 4 38829 1
gene 4 5 13 242160 0 5 242160 1
gene 1 6 13 -531501 0 6 -531501 1
gene 4 7 13 -625884 0 7 -625884 1
gene 2 8 13 232845 0 8 232845 1
gene 2 9 13 -61860 0 9 -61860 1
gene 4 10 13 -165678 0 10 -165678 1
gene 3 11 13 515487 0 11 515487 1
gene 3 12 13 81780 0 12 81780 1
gene 3 1 14 75051 0 13 75051 1
gene 4 2 14 -389559 0 14 -389559 1
gene 4 3 14 -31284 0 15 -31284 1
gene 2 4 14 -149925 0 16 -149925 1
gene 2 5 14 -691146 0 17 -691146 1
gene 3 6 14 -150390 0 18 -150390 1
gene 3 7 14 286488 0 19 286488 1
gene 4 8 14 532398 0 20 532398 1
gene 3 9 14 11391 0 21 11391 1
gene 4 10 14 114804 0 22 114804 1
gene 1 11 14 331776 0 23 331776 1
gene 3 12 14 -16367 0 24 -16367 1
gene 3 1 15 800000 0 25 800000 1
gene 4 2 15 532458 0 26 532458 1
gene 3 3 15 -527901 0 27 -527901 1
gene 3 4 15 -47214 0 28 -47214 1
gene 2 5 15 -188877 0 29 -188877 1
gene 2 6 15 198153 0 30 198153 1
gene 3 7 15 -232515 0 31 -232515 1
gene 2 8 15 -212550 0 32 -212550 1
gene 2 9 15 338358 0 33 338358 1
gene 4 10 15 196158 0 34 196158 1
gene 4 11 15 -242775 0 35 -242775 1
gene 3 12 15 -637176 0 36 -637176 1
gene 4 13 15 -238152 0 181 -238152 1
gene 2 14 15 -37774 0 206 0 1
genomeend 43


/* Organism #48 Fitness: -24.000000 Time: 0 */
/* Position #48*/
#1 x: 35 y: 36
#2 x: 17 y: 38
#3 x: 47 y: 36
#4 x: 50 y: 65
#5 x: 16 y: 84
#6 x: 48 y: 69
genomestart 48
node 1 2 1 3
node 2 4 1 1
node 3 1 1 1
node 4 3 1 1
node 5 3 1 1
node 6 2 1 1
node 7 2 1 1
node 8 4 1 1
node 9 3 1 1
node 10 1 1 1
node 11 3 1 1
node 12 3 1 1
node 13 4 0 2
node 14 1 0 2
node 15 2 0 2
gene 1 1 13 219723 0 1 219723 1
gene 3 2 13 -53976 0 2 -53976 1
gene 2 3 13 -155805 0 3 -155805 1
gene 4 4 13 -227907 0 4 -227907 1
gene 4 5 13 -167874 0 5 -167874 1
gene 1 6 13 -115806 0 6 -115806 1
gene 4 7 13 -457980 0 7 -457980 1
gene 2 8 13 -380484 0 8 -380484 1
gene 2 9 13 -65183 0 9 -65183 1
gene 4 10 13 203631 0 10 203631 1
gene 3 11 13 111894 0 11 111894 1
gene 3 12 13 658050 0 12 658050 1
gene 3 1 14 -800000 0 13 -800000 1
gene 4 2 14 -142959 0 14 -142959 1
gene 4 3 14 38934 0 15 38934 1
gene 2 4 14 -258147 0 16 -258147 1
gene 2 5 14 -351567 0 17 -351567 1
gene 3 6 14 182736 0 18 182736 1
gene 3 7 14 508116 0 19 508116 1
gene 4 8 14 208731 0 20 208731 1
gene 3 9 14 404850 0 21 404850 1
gene 4 10 14 238515 0 22 238515 1
gene 1 11 14 -432906 0 23 -432906 1
gene 3 12 14 105574 0 24 105574 1
gene 3 1 15 -101226 0 25 -101226 1
gene 4 2 15 800000 0 26 800000 1
gene 3 3 15 121629 0 27 121629 1
gene 3 4 15 -33399 0 28 -33399 1
gene 2 5 15 -128796 0 29 -128796 1
gene 2 6 15 -160407 0 30 -160407 1
gene 3 7 15 -26445 0 31 -26445 1
gene 2 8 15 -35505 0 32 -35505 1
gene 2 9 15 -21066 0 33 -21066 1
gene 4 10 15 -220491 0 34 -220491 1
gene 4 11 15 -399768 0 35 -399768 1
gene 3 12 15 -76491 0 36 -76491 1
gene 1 13 15 122784 0 181 122784 1
genomeend 48


/* Organism #50 Fitness: 77.000000 Time: 0 */
/* Position #50*/
#1 x: 83 y: 27
#2 x: 71 y: 38
#3 x: 30 y: 23
#4 x: 55 y: 74
#5 x: 27 y: 73
#6 x: 49 y: 85
genomestart 50
node 1 2 1 3
node 2 4 1 1
node 3 1 1 1
node 4 3 1 1
node 5 3 1 1
node 6 2 1 1
node 7 2 1 1
node 8 4 1 1
node 9 3 1 1
node 10 1 1 1
node 11 3 1 1
node 12 3 1 1
node 13 4 0 2
node 14 1 0 2
node 15 2 0 2
gene 1 1 13 -363708 0 1 -363708 1
gene 3 2 13 -246867 0 2 -246867 1
gene 2 3 13 123282 0 3 123282 1
gene 4 4 13 -278667 0 4 -278667 1
gene 4 5 13 -402105 0 5 -402105 1
gene 1 6 13 -627702 0 6 -627702 1
gene 4 7 13 -440982 0 7 -440982 1
gene 2 8 13 -34800 0 8 -34800 1
gene 2 9 13 256681 0 9 256681 1
gene 4 10 13 254748 0 10 254748 1
gene 3 11 13 -401019 0 11 -401019 1
gene 3 12 13 291201 0 12 291201 1
gene 3 1 14 -199611 0 13 -199611 1
gene 4 2 14 207495 0 14 207495 1
gene 4 3 14 -238200 0 15 -238200 1
gene 2 4 14 -206340 0 16 -206340 1
gene 2 5 14 -800000 0 17 -800000 1
gene 3 6 14 224250 0 18 224250 1
gene 3 7 14 -81843 0 19 -81843 1
gene 4 8 14 -207444 0 20 -207444 1
gene 3 9 14 47958 0 21 47958 1
gene 4 10 14 106071 0 22 106071 1
gene 1 11 14 18588 0 23 18588 1
gene 3 12 14 -152255 0 24 -152255 1
gene 3 1 15 417336 0 25 417336 1
gene 4 2 15 -284241 0 26 -284241 1
gene 3 3 15 800000 0 27 800000 1
gene 3 4 15 319368 0 28 319368 1
gene 2 5 15 24642 0 29 24642 1
gene 2 6 15 -215007 0 30 -215007 1
gene 3 7 15 63261 0 31 63261 1
gene 2 8 15 63834 0 32 63834 1
gene 2 9 15 -329307 0 33 -329307 1
gene 4 10 15 -113625 0 34 -113625 1
gene 4 11 15 -56484 0 35 -56484 1
gene 3 12 15 -572691 0 36 -572691 1
gene 4 13 15 -267636 0 181 -267636 1
genomeend 50


/* Organism #51 Fitness: -7.000000 Time: 0 */
/* Position #51*/
#1 x: 83 y: 27
#2 x: 71 y: 38
#3 x: 30 y: 23
#4 x: 55 y: 74
#5 x: 27 y: 73
#6 x: 49 y: 85
genomestart 51
node 1 2 1 3
node 2 4 1 1
node 3 1 1 1
node 4 3 1 1
node 5 3 1 1
node 6 2 1 1
node 7 2 1 1
node 8 4 1 1
node 9 3 1 1
node 10 1 1 1
node 11 3 1 1
node 12 3 1 1
node 13 4 0 2
node 14 1 0 2
node 15 2 0 2
gene 1 1 13 -721137 0 1 -721137 1
gene 3 2 13 -129546 0 2 -129546 1
gene 2 3 13 159795 0 3 159795 1
gene 4 4 13 536388 0 4 536388 1
gene 4 5 13 -461133 0 5 -461133 1
gene 1 6 13 -164166 0 6 -164166 1
gene 4 7 13 -176622 0 7 -176622 1
gene 2 8 13 379197 0 8 379197 1
gene 2 9 13 92335 0 9 92335 1
gene 4 10 13 490563 0 10 490563 1
gene 3 11 13 -413232 0 11 -413232 1
gene 3 12 13 662490 0 12 662490 1
gene 3 1 14 -165381 0 13 -165381 1
gene 4 2 14 93366 0 14 93366 1
gene 4 3 14 -32364 0 15 -32364 1
gene 2 4 14 412476 0 16 412476 1
gene 2 5 14 -391839 0 17 -391839 1
gene 3 6 14 164391 0 18 164391 1
gene 3 7 14 800000 0 19 800000 1
gene 4 8 14 81813 0 20 81813 1
gene 3 9 14 424302 0 21 424302 1
gene 4 10 14 206217 0 22 206217 1
gene 1 11 14 -458577 0 23 -458577 1
gene 3 12 14 5131 0 24 5131 1
gene 3 1 15 15849 0 25 15849 1
gene 4 2 15 97644 0 26 97644 1
gene 3 3 15 800000 0 27 800000 1
gene 3 4 15 152289 0 28 152289 1
gene 2 5 15 -170946 0 29 -170946 1
gene 2 6 15 -17031 0 30 -17031 1
gene 3 7 15 260247 0 31 260247 1
gene 2 8 15 385737 0 32 385737 1
gene 2 9 15 -42333 0 33 -42333 1
gene 4 10 15 -194085 0 34 -194085 1
gene 3 11 15 -247296 0 35 -247296 1
gene 3 12 15 227517 0 36 227517 1
gene 4 13 15 11358 0 181 11358 1
genomeend 51


/* Organism #52 Fitness: 77.000000 Time: 0 */
/* Position #52*/
#1 x: 38 y: 33
#2 x: 25 y: 27
#3 x: 74 y: 26
#4 x: 39 y: 73
#5 x: 73 y: 80
#6 x: 27 y: 78
genomestart 52
node 1 2 1 3
node 2 4 1 1
node 3 1 1 1
node 4 3 1 1
node 5 3 1 1
node 6 2 1 1
node 7 2 1 1
node 8 4 1 1
node 9 3 1 1
node 10 1 1 1
node 11 3 1 1
node 12 3 1 1
node 13 4 0 2
node 14 1 0 2
node 15 2 0 2
gene 1 1 13 -222816 0 1 -222816 1
gene 3 2 13 -343551 0 2 -343551 1
gene 2 3 13 296124 0 3 296124 1
gene 4 4 13 500319 0 4 500319 1
gene 4 5 13 -387273 0 5 -387273 1
gene 1 6 13 -507372 0 6 -507372 1
gene 4 7 13 -436485 0 7 -436485 1
gene 2 8 13 787107 0 8 787107 1
gene 2 9 13 -3674 0 9 -3674 1
gene 4 10 13 478959 0 10 478959 1
gene 3 11 13 -399057 0 11 -399057 1
gene 3 12 13 242298 0 12 242298 1
gene 3 1 14 66915 0 13 66915 1
gene 4 2 14 155613 0 14 155613 1
gene 4 3 14 5295 0 15 5295 1
gene 2 4 14 493656 0 16 493656 1
gene 2 5 14 -420579 0 17 -420579 1
gene 3 6 14 533307 0 18 533307 1
gene 3 7 14 561561 0 19 561561 1
gene 4 8 14 -466632 0 20 -466632 1
gene 3 9 14 800000 0 21 800000 1
gene 4 10 14 535110 0 22 535110 1
gene 1 11 14 -68205 0 23 -68205 1
gene 3 12 14 -470573 0 24 -470573 1
gene 3 1 15 546429 0 25 546429 1
gene 4 2 15 444864 0 26 444864 1
gene 3 3 15 624509 0 27 624509 1
gene 3 4 15 374046 0 28 374046 1
gene 2 5 15 -257199 0 29 -257199 1
gene 2 6 15 19500 0 30 19500 1
gene 3 7 15 260247 0 31 260247 1
gene 2 8 15 -200733 0 32 -200733 1
gene 2 9 15 68916 0 33 68916 1
gene 4 10 15 -487182 0 34 -487182 1
gene 4 11 15 -166662 0 35 -166662 1
gene 3 12 15 -545874 0 36 -545874 1
gene 4 13 15 -526716 0 181 -526716 1
genomeend 52


/* Organism #54 Fitness: -23.000000 Time: 0 */
/* Position #54*/
#1 x: 47 y: 16
#2 x: 73 y: 26
#3 x: 74 y: 36
#4 x: 68 y: 69
#5 x: 20 y: 67
#6 x: 20 y: 62
genomestart 54
node 1 2 1 3
node 2 4 1 1
node 3 1 1 1
node 4 3 1 1
node 5 3 1 1
node 6 2 1 1
node 7 2 1 1
node 8 4 1 1
node 9 3 1 1
node 10 1 1 1
node 11 3 1 1
node 12 3 1 1
node 13 4 0 2
node 14 1 0 2
node 15 2 0 2
gene 1 1 13 -156510 0 1 -156510 1
gene 3 2 13 -70752 0 2 -70752 1
gene 2 3 13 -63288 0 3 -63288 1
gene 4 4 13 -138246 0 4 -138246 1
gene 4 5 13 -19539 0 5 -19539 1
gene 1 6 13 -358002 0 6 -358002 1
gene 4 7 13 -377010 0 7 -377010 1
gene 2 8 13 549219 0 8 549219 1
gene 2 9 13 -176618 0 9 -176618 1
gene 4 10 13 498897 0 10 498897 1
gene 3 11 13 -284805 0 11 -284805 1
gene 3 12 13 249279 0 12 249279 1
gene 3 1 14 19794 0 13 19794 1
gene 4 2 14 269172 0 14 269172 1
gene 4 3 14 -93486 0 15 -93486 1
gene 2 4 14 513702 0 16 513702 1
gene 2 5 14 -614994 0 17 -614994 1
gene 3 6 14 327585 0 18 327585 1
gene 3 7 14 781662 0 19 781662 1
gene 4 8 14 65940 0 20 65940 1
gene 3 9 14 668313 0 21 668313 1
gene 4 10 14 356553 0 22 356553 1
gene 1 11 14 -140925 0 23 -140925 1
gene 3 12 14 -290798 0 24 -290798 1
gene 3 1 15 271041 0 25 271041 1
gene 4 2 15 -8736 0 26 -8736 1
gene 3 3 15 538589 0 27 538589 1
gene 3 4 15 56835 0 28 56835 1
gene 2 5 15 -498780 0 29 -498780 1
gene 2 6 15 70800 0 30 70800 1
gene 3 7 15 190353 0 31 190353 1
gene 2 8 15 555342 0 32 555342 1
gene 2 9 15 70116 0 33 70116 1
gene 4 10 15 96219 0 34 96219 1
gene 4 11 15 -352707 0 35 -352707 1
gene 3 12 15 -525609 0 36 -525609 1
gene 4 13 15 -267636 0 181 -267636 1
genomeend 54


/* Organism #56 Fitness: -22.000000 Time: 0 */
/* Position #56*/
#1 x: 22 y: 37
#2 x: 27 y: 18
#3 x: 23 y: 28
#4 x: 18 y: 60
#5 x: 54 y: 70
#6 x: 35 y: 70
genomestart 56
node 1 2 1 3
node 2 4 1 1
node 3 1 1 1
node 4 3 1 1
node 5 3 1 1
node 6 2 1 1
node 7 2 1 1
node 8 4 1 1
node 9 3 1 1
node 10 1 1 1
node 11 3 1 1
node 12 3 1 1
node 13 4 0 2
node 14 1 0 2
node 15 2 0 2
gene 1 1 13 -436350 0 1 -436350 1
gene 3 2 13 -23538 0 2 -23538 1
gene 2 3 13 36873 0 3 36873 1
gene 4 4 13 473121 0 4 473121 1
gene 4 5 13 21153 0 5 21153 1
gene 1 6 13 93666 0 6 93666 1
gene 4 7 13 -244617 0 7 -244617 1
gene 2 8 13 442692 0 8 442692 1
gene 2 9 13 214777 0 9 214777 1
gene 4 10 13 277749 0 10 277749 1
gene 3 11 13 44004 0 11 44004 1
gene 3 12 13 582897 0 12 582897 1
gene 3 1 14 252117 0 13 252117 1
gene 4 2 14 113901 0 14 113901 1
gene 4 3 14 -174201 0 15 -174201 1
gene 2 4 14 -46614 0 16 -46614 1
gene 2 5 14 -800000 0 17 -800000 1
gene 3 6 14 -144336 0 18 -144336 1
gene 3 7 14 575412 0 19 575412 1
gene 4 8 14 -207444 0 20 -207444 1
gene 3 9 14 481560 0 21 481560 1
gene 4 10 14 162660 0 22 162660 1
gene 1 11 14 -349611 0 23 -349611 1
gene 3 12 14 172425 0 24 172425 1
gene 3 1 15 518487 0 25 518487 1
gene 4 2 15 496041 0 26 496041 1
gene 3 3 15 -67452 0 27 -67452 1
gene 3 4 15 -77535 0 28 -77535 1
gene 2 5 15 -163155 0 29 -163155 1
gene 2 6 15 98847 0 30 98847 1
gene 3 7 15 422589 0 31 422589 1
gene 2 8 15 283629 0 32 283629 1
gene 2 9 15 268677 0 33 268677 1
gene 4 10 15 -194085 0 34 -194085 1
gene 4 11 15 148629 0 35 148629 1
gene 3 12 15 -336150 0 36 -336150 1
gene 4 13 15 -242145 0 181 -242145 1
genomeend 56


/* Organism #58 Fitness: -23.000000 Time: 0 */
/* Position #58*/
#1 x: 82 y: 18
#2 x: 61 y: 33
#3 x: 67 y: 31
#4 x: 57 y: 85
#5 x: 62 y: 65
#6 x: 22 y: 67
genomestart 58
node 1 2 1 3
node 2 4 1 1
node 3 1 1 1
node 4 3 1 1
node 5 3 1 1
node 6 2 1 1
node 7 2 1 1
node 8 4 1 1
node 9 3 1 1
node 10 1 1 1
node 11 3 1 1
node 12 3 1 1
node 13 4 0 2
node 14 1 0 2
node 15 2 0 2
gene 1 1 13 264762 0 1 264762 1
gene 3 2 13 -313404 0 2 -313404 1
gene 2 3 13 -365328 0 3 -365328 1
gene 4 4 13 2799 0 4 2799 1
gene 4 5 13 -224493 0 5 -224493 1
gene 1 6 13 -561705 0 6 -561705 1
gene 4 7 13 -788042 0 7 -788042 1
gene 2 8 13 148470 0 8 148470 1
gene 2 9 13 -286920 0 9 -286920 1
gene 4 10 13 -186981 0 10 -186981 1
gene 3 11 13 398643 0 11 398643 1
gene 3 12 13 460551 0 12 460551 1
gene 3 1 14 705735 0 13 705735 1
gene 4 2 14 -326007 0 14 -326007 1
gene 4 3 14 -78906 0 15 -78906 1
gene 2 4 14 195441 0 16 195441 1
gene 2 5 14 -800000 0 17 -800000 1
gene 3 6 14 115863 0 18 115863 1
gene 3 7 14 -237108 0 19 -237108 1
gene 4 8 14 -257601 0 20 -257601 1
gene 3 9 14 5046 0 21 5046 1
gene 4 10 14 -154596 0 22 -154596 1
gene 1 11 14 -125979 0 23 -125979 1
gene 3 12 14 598579 0 24 598579 1
gene 3 1 15 234594 0 25 234594 1
gene 4 2 15 -199005 0 26 -199005 1
gene 3 3 15 284301 0 27 284301 1
gene 3 4 15 -341172 0 28 -341172 1
gene 2 5 15 206970 0 29 206970 1
gene 2 6 15 -23910 0 30 -23910 1
gene 3 7 15 -215874 0 31 -215874 1
gene 2 8 15 -110493 0 32 -110493 1
gene 2 9 15 530835 0 33 530835 1
gene 4 10 15 53199 0 34 53199 1
gene 4 11 15 60069 0 35 60069 1
gene 3 12 15 -247446 0 36 -247446 1
gene 4 13 15 206784 0 181 206784 1
genomeend 58


/* Organism #60 Fitness: -23.000000 Time: 0 */
/* Position #60*/
#1 x: 69 y: 35
#2 x: 24 y: 29
#3 x: 36 y: 18
#4 x: 60 y: 74
#5 x: 27 y: 76
#6 x: 76 y: 81
genomestart 60
node 1 2 1 3
node 2 4 1 1
node 3 1 1 1
node 4 3 1 1
node 5 3 1 1
node 6 2 1 1
node 7 2 1 1
node 8 4 1 1
node 9 3 1 1
node 10 1 1 1
node 11 3 1 1
node 12 3 1 1
node 13 4 0 2
node 14 1 0 2
node 15 2 0 2
gene 1 1 13 472317 0 1 472317 1
gene 3 2 13 -183051 0 2 -183051 1
gene 2 3 13 -615345 0 3 -615345 1
gene 4 4 13 163143 0 4 163143 1
gene 4 5 13 -105246 0 5 -105246 1
gene 1 6 13 49095 0 6 49095 1
gene 4 7 13 -218586 0 7 -218586 1
gene 2 8 13 295710 0 8 295710 1
gene 4 9 13 -251169 0 9 -251169 1
gene 4 10 13 45561 0 10 45561 1
gene 3 11 13 181122 0 11 181122 1
gene 3 12 13 414618 0 12 414618 1
gene 3 1 14 207132 0 13 207132 1
gene 4 2 14 -120615 0 14 -120615 1
gene 4 3 14 -215064 0 15 -215064 1
gene 2 4 14 178125 0 16 178125 1
gene 2 5 14 -638526 0 17 -638526 1
gene 3 6 14 -122406 0 18 -122406 1
gene 3 7 14 -292812 0 19 -292812 1
gene 4 8 14 391140 0 20 391140 1
gene 3 9 14 -649857 0 21 -649857 1
gene 4 10 14 -120288 0 22 -120288 1
gene 1 11 14 -118815 0 23 -118815 1
gene 3 12 14 -386117 0 24 -386117 1
gene 3 1 15 716099 0 25 716099 1
gene 4 2 15 -211509 0 26 -211509 1
gene 3 3 15 -38439 0 27 -38439 1
gene 3 4 15 -274680 0 28 -274680 1
gene 2 5 15 47493 0 29 47493 1
gene 2 6 15 369813 0 30 369813 1
gene 3 7 15 -451554 0 31 -451554 1
gene 2 8 15 -110037 0 32 -110037 1
gene 2 9 15 724674 0 33 724674 1
gene 4 10 15 3174 0 34 3174 1
gene 4 11 15 443619 0 35 443619 1
gene 3 12 15 -236076 0 36 -236076 1
gene 4 13 15 -336672 0 181 -336672 1
genomeend 60


/* Organism #62 Fitness: -4.000000 Time: 0 */
/* Position #62*/
#1 x: 45 y: 39
#2 x: 29 y: 39
#3 x: 72 y: 22
#4 x: 82 y: 81
#5 x: 52 y: 81
#6 x: 83 y: 75
genomestart 62
node 1 2 1 3
node 2 4 1 1
node 3 1 1 1
node 4 3 1 1
node 5 3 1 1
node 6 2 1 1
node 7 2 1 1
node 8 4 1 1
node 9 3 1 1
node 10 1 1 1
node 11 3 1 1
node 12 3 1 1
node 13 4 0 2
node 14 1 0 2
node 15 2 0 2
gene 1 1 13 -36348 0 1 -36348 1
gene 3 2 13 -735747 0 2 -735747 1
gene 2 3 13 -655038 0 3 -655038 1
gene 4 4 13 580095 0 4 580095 1
gene 4 5 13 -130989 0 5 -130989 1
gene 1 6 13 124422 0 6 124422 1
gene 4 7 13 -274887 0 7 -274887 1
gene 2 8 13 -326514 0 8 -326514 1
gene 2 9 13 -119181 0 9 -119181 1
gene 4 10 13 -100437 0 10 -100437 1
gene 3 11 13 287640 0 11 287640 1
gene 3 12 13 456426 0 12 456426 1
gene 3 1 14 567471 0 13 567471 1
gene 4 2 14 164613 0 14 164613 1
gene 4 3 14 20991 0 15 20991 1
gene 2 4 14 308814 0 16 308814 1
gene 2 5 14 -552519 0 17 -552519 1
gene 3 6 14 -53571 0 18 -53571 1
gene 3 7 14 23937 0 19 23937 1
gene 4 8 14 430413 0 20 430413 1
gene 3 9 14 -621108 0 21 -621108 1
gene 1 10 14 60315 0 22 60315 1
gene 1 11 14 253296 0 23 253296 1
gene 3 12 14 -31823 0 24 -31823 1
gene 3 1 15 800000 0 25 800000 1
gene 4 2 15 204708 0 26 204708 1
gene 3 3 15 -310089 0 27 -310089 1
gene 3 4 15 -313992 0 28 -313992 1
gene 2 5 15 278793 0 29 278793 1
gene 2 6 15 -101070 0 30 -101070 1
gene 3 7 15 -103155 0 31 -103155 1
gene 2 8 15 -212550 0 32 -212550 1
gene 2 9 15 724674 0 33 724674 1
gene 4 10 15 -278052 0 34 -278052 1
gene 4 11 15 -34746 0 35 -34746 1
gene 3 12 15 65370 0 36 65370 1
gene 4 13 15 -624705 0 181 -624705 1
genomeend 62


