/* Organism #71 Fitness: 172.000000 Time: 0 */
/* Position #71*/
#1 x: 52 y: 36
#2 x: 85 y: 38
#3 x: 34 y: 23
#4 x: 65 y: 77
#5 x: 67 y: 67
#6 x: 18 y: 80
genomestart 71
node 1 3 1 3
node 2 2 1 1
node 3 4 1 1
node 4 2 1 1
node 5 4 1 1
node 6 4 1 1
node 7 4 1 1
node 8 1 1 1
node 9 2 1 1
node 10 2 1 1
node 11 1 1 1
node 12 3 1 1
node 13 4 0 2
node 14 4 0 2
node 15 3 0 2
node 16 4 0 2
gene 1 1 13 96123 0 1 96123 1
gene 3 2 13 156381 0 2 156381 1
gene 1 3 13 -250602 0 3 -250602 1
gene 1 4 13 -596790 0 4 -596790 1
gene 3 5 13 -91947 0 5 -91947 1
gene 3 6 13 -234555 0 6 -234555 1
gene 4 7 13 -153414 0 7 -153414 1
gene 1 8 13 -291000 0 8 -291000 1
gene 3 9 13 -391476 0 9 -391476 1
gene 1 10 13 507636 0 10 507636 1
gene 3 11 13 732174 0 11 732174 1
gene 2 12 13 -417339 0 12 -417339 1
gene 1 1 14 -220977 0 13 -220977 1
gene 2 2 14 136650 0 14 136650 1
gene 4 3 14 169611 0 15 169611 1
gene 4 4 14 -22344 0 16 -22344 1
gene 4 5 14 662817 0 17 662817 1
gene 3 6 14 -68283 0 18 -68283 1
gene 3 7 14 179141 0 19 179141 1
gene 3 8 14 -137106 0 20 -137106 1
gene 3 9 14 -314769 0 21 -314769 1
gene 3 10 14 426420 0 22 426420 1
gene 2 11 14 22055 0 23 22055 1
gene 1 12 14 -475974 0 24 -475974 1
gene 1 1 15 800000 0 25 800000 1
gene 4 2 15 -85427 0 26 -85427 1
gene 3 3 15 -295827 0 27 -295827 1
gene 1 4 15 -800000 0 28 -800000 1
gene 4 5 15 329286 0 29 329286 1
gene 2 6 15 92295 0 30 92295 1
gene 3 7 15 511755 0 31 511755 1
gene 3 8 15 -220425 0 32 -220425 1
gene 1 9 15 -523767 0 33 -523767 1
gene 3 10 15 -234414 0 34 -234414 1
gene 3 11 15 -393549 0 35 -393549 1
gene 3 12 15 731718 0 36 731718 1
gene 1 1 16 790913 0 37 790913 1
gene 3 2 16 220053 0 38 220053 1
gene 3 3 16 380463 0 39 380463 1
gene 4 4 16 800000 0 40 800000 1
gene 3 5 16 -226386 0 41 -226386 1
gene 2 6 16 366270 0 42 366270 1
gene 4 7 16 440298 0 43 440298 1
gene 3 8 16 -4020 0 44 -4020 1
gene 1 9 16 68904 0 45 68904 1
gene 4 10 16 582132 0 46 582132 1
gene 3 11 16 17997 0 47 17997 1
gene 3 12 16 30420 0 48 30420 1
gene 3 15 14 596835 0 129 596835 1
gene 1 16 14 -527726 0 191 -527726 1
gene 4 15 16 167433 0 255 167433 1
genomeend 71


