/* Organism #6 Fitness: 170.000000 Time: 0 */
/* Position #6*/
#1 x: 43 y: 20
#2 x: 32 y: 29
#3 x: 21 y: 19
#4 x: 33 y: 67
#5 x: 75 y: 65
#6 x: 30 y: 80
genomestart 6
trait 1 1.000000 0.000000 0.000000 0.000000 0.000000 0.000000 0.000000 0.000000 trait 2 48067.000000 0.000000 62481.000000 0.000000 0.000000 0.000000 26897.000000 16325.000000 trait 3 3.000000 0.000000 0.000000 0.000000 0.000000 0.000000 0.000000 0.000000 trait 4 2.000000 0.000000 0.000000 0.000000 100000.000000 0.000000 0.000000 0.000000 node 1 3 1 3
node 2 1 1 1
node 3 4 1 1
node 4 3 1 1
node 5 4 1 1
node 6 3 1 1
node 7 3 1 1
node 8 3 1 1
node 9 1 1 1
node 10 1 1 1
node 11 4 1 1
node 12 2 1 1
node 13 3 0 2
node 14 2 0 2
node 15 1 0 2
node 22 1 0 0
node 48 1 0 0
node 63 1 0 0
node 84 1 0 0
node 190 4 0 0
node 224 1 0 0
node 265 1 0 0
node 328 1 0 0
node 342 1 0 0
node 477 1 0 0
node 585 1 0 0
node 672 1 0 0
node 699 1 0 0
node 766 1 0 0
node 833 1 0 0
node 1028 1 0 0
gene 1 1 13 -189042 0 1 -189042 1
gene 1 2 13 -176058 0 2 -176058 0
gene 3 3 13 -388206 0 3 -388206 1
gene 4 4 13 215513 0 4 215513 1
gene 4 5 13 -800000 0 5 -800000 0
gene 1 6 13 -558056 0 6 -558056 0
gene 3 7 13 -68661 0 7 -68661 1
gene 3 8 13 -57752 0 8 -57752 1
gene 1 9 13 -264551 0 9 -264551 1
gene 4 10 13 -87832 0 10 -87832 1
gene 3 11 13 -13894 0 11 -13894 1
gene 1 12 13 800000 0 12 800000 1
gene 2 1 14 -242061 0 13 -242061 1
gene 1 2 14 33147 0 14 33147 1
gene 1 3 14 -60729 0 15 -60729 0
gene 2 4 14 215982 0 16 215982 1
gene 2 5 14 -38115 0 17 -38115 1
gene 3 6 14 -68721 0 18 -68721 1
gene 4 7 14 59633 0 19 59633 0
gene 4 8 14 -357751 0 20 -357751 1
gene 2 9 14 -222840 0 21 -222840 0
gene 4 10 14 248445 0 22 248445 1
gene 4 11 14 15376 0 23 15376 0
gene 3 12 14 80004 0 24 80004 0
gene 2 1 15 -6186 0 25 -6186 1
gene 2 2 15 -235259 0 26 -235259 0
gene 4 3 15 366564 0 27 366564 1
gene 4 4 15 92472 0 28 92472 1
gene 1 5 15 -52014 0 29 -52014 0
gene 4 6 15 219413 0 30 219413 0
gene 2 7 15 -800000 0 31 -800000 1
gene 4 8 15 -50890 0 32 -50890 1
gene 1 9 15 -418376 0 33 -418376 1
gene 3 10 15 232791 0 34 232791 1
gene 3 11 15 127812 0 35 127812 0
gene 2 12 15 643232 0 36 643232 1
gene 2 5 22 168587 0 50 168587 1
gene 2 22 14 -104061 0 51 -104061 1
gene 1 6 48 -800000 0 108 -800000 1
gene 1 48 13 -106029 0 109 -106029 0
gene 1 2 63 209774 0 153 209774 1
gene 1 63 13 69963 0 154 69963 1
gene 1 6 84 -500199 0 215 -500199 1
gene 1 84 14 224571 0 216 224571 1
gene 3 4 22 146082 0 283 146082 1
gene 3 12 190 -185333 0 501 -185333 1
gene 3 190 14 5256 0 502 5256 1
gene 4 13 22 -224913 0 570 -224913 1
gene 3 190 224 -70329 0 593 -70329 1
gene 3 224 14 183114 0 594 183114 1
gene 3 1 224 157011 0 655 157011 1
gene 1 6 265 259131 0 700 259131 1
gene 1 265 48 32385 0 701 32385 1
gene 4 84 190 168129 0 813 168129 1
gene 3 4 328 -196920 0 869 -196920 1
gene 3 328 22 -94470 0 870 -94470 1
gene 2 7 342 452538 0 912 452538 1
gene 2 342 15 -424455 0 913 -424455 1
gene 4 11 265 -163389 0 1175 -163389 1
gene 4 8 477 -23949 0 1261 -23949 1
gene 4 477 14 554715 0 1262 554715 1
gene 1 14 342 -358560 0 1454 -358560 1
gene 1 63 585 401728 0 1549 401728 1
gene 1 585 13 421245 0 1550 421245 1
gene 3 48 15 279810 0 1636 279810 1
gene 1 5 672 -31515 0 1789 -31515 1
gene 1 672 15 -9861 0 1790 -9861 1
gene 1 12 699 -262113 0 1853 -262113 1
gene 1 699 13 -115845 0 1854 -115845 1
gene 3 11 766 399171 0 2015 399171 1
gene 3 766 15 -186279 0 2016 -186279 1
gene 2 2 833 109252 0 2191 109252 1
gene 2 833 15 -136449 0 2192 -136449 1
gene 2 766 766 -312088 1 2255 -312088 1
gene 2 9 1028 1 0 2694 0 1
gene 2 1028 14 -222840 0 2695 0 1
gene 2 13 13 96216 1 2708 96216 1
gene 2 48 48 91682 1 2782 91682 1
genomeend 6


/* Organism #8 Fitness: 260.000000 Time: 0 */
/* Position #8*/
#1 x: 67 y: 39
#2 x: 52 y: 34
#3 x: 32 y: 31
#4 x: 40 y: 73
#5 x: 68 y: 79
#6 x: 69 y: 79
genomestart 8
trait 1 1.000000 0.000000 0.000000 0.000000 0.000000 0.000000 0.000000 0.000000 trait 2 48067.000000 0.000000 62481.000000 0.000000 0.000000 0.000000 26897.000000 16325.000000 trait 3 3.000000 0.000000 0.000000 0.000000 0.000000 0.000000 0.000000 0.000000 trait 4 2.000000 0.000000 0.000000 0.000000 100000.000000 0.000000 0.000000 0.000000 node 1 3 1 3
node 2 1 1 1
node 3 4 1 1
node 4 3 1 1
node 5 4 1 1
node 6 3 1 1
node 7 3 1 1
node 8 3 1 1
node 9 1 1 1
node 10 1 1 1
node 11 4 1 1
node 12 2 1 1
node 13 3 0 2
node 14 2 0 2
node 15 1 0 2
node 22 1 0 0
node 48 1 0 0
node 63 1 0 0
node 84 1 0 0
node 190 4 0 0
node 224 1 0 0
node 265 1 0 0
node 328 1 0 0
node 342 1 0 0
node 477 1 0 0
node 585 1 0 0
node 672 1 0 0
node 699 1 0 0
node 766 1 0 0
node 833 1 0 0
node 1028 1 0 0
node 1063 1 0 0
gene 1 1 13 -189042 0 1 -189042 1
gene 1 2 13 -176058 0 2 -176058 0
gene 3 3 13 -388206 0 3 -388206 1
gene 4 4 13 215513 0 4 215513 1
gene 4 5 13 -800000 0 5 -800000 0
gene 1 6 13 -558056 0 6 -558056 0
gene 3 7 13 -68661 0 7 -68661 1
gene 3 8 13 -57752 0 8 -57752 1
gene 1 9 13 -264551 0 9 -264551 1
gene 4 10 13 -87832 0 10 -87832 1
gene 3 11 13 -13894 0 11 -13894 1
gene 1 12 13 800000 0 12 800000 1
gene 2 1 14 -242061 0 13 -242061 1
gene 1 2 14 33147 0 14 33147 1
gene 1 3 14 -60729 0 15 -60729 0
gene 2 4 14 215982 0 16 215982 1
gene 2 5 14 -38115 0 17 -38115 1
gene 3 6 14 -68721 0 18 -68721 1
gene 4 7 14 59633 0 19 59633 0
gene 4 8 14 -357751 0 20 -357751 1
gene 2 9 14 -222840 0 21 -222840 0
gene 4 10 14 248445 0 22 248445 1
gene 4 11 14 15376 0 23 15376 0
gene 3 12 14 80004 0 24 80004 0
gene 2 1 15 -6186 0 25 -6186 1
gene 2 2 15 -235259 0 26 -235259 0
gene 4 3 15 366564 0 27 366564 1
gene 4 4 15 92472 0 28 92472 1
gene 1 5 15 -52014 0 29 -52014 0
gene 4 6 15 219413 0 30 219413 0
gene 2 7 15 -800000 0 31 -800000 1
gene 4 8 15 -50890 0 32 -50890 1
gene 1 9 15 -418376 0 33 -418376 1
gene 3 10 15 232791 0 34 232791 1
gene 3 11 15 127812 0 35 127812 0
gene 2 12 15 643232 0 36 643232 1
gene 2 5 22 168587 0 50 168587 1
gene 2 22 14 -104061 0 51 -104061 1
gene 1 6 48 -800000 0 108 -800000 1
gene 1 48 13 -106029 0 109 -106029 0
gene 1 2 63 209774 0 153 209774 1
gene 1 63 13 69963 0 154 69963 1
gene 1 6 84 -500199 0 215 -500199 1
gene 1 84 14 224571 0 216 224571 1
gene 3 4 22 146082 0 283 146082 1
gene 3 12 190 -185333 0 501 -185333 1
gene 3 190 14 5256 0 502 5256 1
gene 4 13 22 -224913 0 570 -224913 1
gene 3 190 224 -70329 0 593 -70329 1
gene 3 224 14 183114 0 594 183114 1
gene 3 1 224 157011 0 655 157011 1
gene 1 6 265 259131 0 700 259131 1
gene 1 265 48 32385 0 701 32385 1
gene 4 84 190 168129 0 813 168129 1
gene 3 4 328 -196920 0 869 -196920 1
gene 3 328 22 -94470 0 870 -94470 1
gene 2 7 342 452538 0 912 452538 1
gene 2 342 15 -424455 0 913 -424455 1
gene 4 11 265 -163389 0 1175 -163389 1
gene 4 8 477 -23949 0 1261 -23949 1
gene 4 477 14 554715 0 1262 554715 1
gene 1 14 342 -358560 0 1454 -358560 1
gene 1 63 585 401728 0 1549 401728 1
gene 1 585 13 421245 0 1550 421245 1
gene 3 48 15 279810 0 1636 279810 0
gene 1 5 672 -31515 0 1789 -31515 1
gene 1 672 15 -9861 0 1790 -9861 1
gene 1 12 699 -262113 0 1853 -262113 1
gene 1 699 13 -115845 0 1854 -115845 1
gene 3 11 766 399171 0 2015 399171 1
gene 3 766 15 -186279 0 2016 -186279 1
gene 2 2 833 109252 0 2191 109252 1
gene 2 833 15 -136449 0 2192 -136449 1
gene 2 766 766 -312088 1 2255 -312088 1
gene 2 9 1028 1 0 2694 0 1
gene 2 1028 14 -222840 0 2695 0 1
gene 2 13 13 96216 1 2708 96216 1
gene 3 48 1063 1 0 2785 0 1
gene 3 1063 15 279810 0 2786 0 1
genomeend 8


/* Organism #10 Fitness: 200.000000 Time: 0 */
/* Position #10*/
#1 x: 25 y: 25
#2 x: 15 y: 17
#3 x: 34 y: 38
#4 x: 62 y: 83
#5 x: 66 y: 63
#6 x: 56 y: 79
genomestart 10
trait 1 1.000000 0.000000 0.000000 0.000000 0.000000 0.000000 0.000000 0.000000 trait 2 48067.000000 0.000000 62481.000000 0.000000 0.000000 0.000000 26897.000000 16325.000000 trait 3 3.000000 0.000000 0.000000 0.000000 0.000000 0.000000 0.000000 0.000000 trait 4 2.000000 0.000000 0.000000 0.000000 100000.000000 0.000000 0.000000 0.000000 node 1 3 1 3
node 2 1 1 1
node 3 4 1 1
node 4 3 1 1
node 5 4 1 1
node 6 3 1 1
node 7 3 1 1
node 8 3 1 1
node 9 1 1 1
node 10 1 1 1
node 11 4 1 1
node 12 2 1 1
node 13 3 0 2
node 14 2 0 2
node 15 1 0 2
node 22 1 0 0
node 48 1 0 0
node 63 1 0 0
node 84 1 0 0
node 190 4 0 0
node 224 1 0 0
node 265 1 0 0
node 328 1 0 0
node 342 1 0 0
node 477 1 0 0
node 585 1 0 0
node 672 1 0 0
node 699 1 0 0
node 766 1 0 0
node 833 1 0 0
node 1028 1 0 0
gene 1 1 13 -189042 0 1 -189042 1
gene 1 2 13 -176058 0 2 -176058 0
gene 3 3 13 -388206 0 3 -388206 1
gene 4 4 13 215513 0 4 215513 1
gene 4 5 13 -800000 0 5 -800000 0
gene 1 6 13 -558056 0 6 -558056 0
gene 3 7 13 -68661 0 7 -68661 1
gene 3 8 13 -57752 0 8 -57752 1
gene 1 9 13 -264551 0 9 -264551 1
gene 4 10 13 -87832 0 10 -87832 1
gene 3 11 13 -13894 0 11 -13894 1
gene 1 12 13 800000 0 12 800000 1
gene 2 1 14 -242061 0 13 -242061 1
gene 1 2 14 33147 0 14 33147 1
gene 1 3 14 -60729 0 15 -60729 0
gene 2 4 14 215982 0 16 215982 1
gene 2 5 14 -38115 0 17 -38115 1
gene 3 6 14 -68721 0 18 -68721 1
gene 4 7 14 59633 0 19 59633 0
gene 4 8 14 -357751 0 20 -357751 1
gene 2 9 14 -222840 0 21 -222840 0
gene 4 10 14 248445 0 22 248445 1
gene 4 11 14 15376 0 23 15376 0
gene 3 12 14 80004 0 24 80004 0
gene 2 1 15 -6186 0 25 -6186 1
gene 2 2 15 -235259 0 26 -235259 0
gene 4 3 15 366564 0 27 366564 1
gene 4 4 15 92472 0 28 92472 1
gene 1 5 15 -52014 0 29 -52014 0
gene 4 6 15 219413 0 30 219413 0
gene 2 7 15 -800000 0 31 -800000 1
gene 4 8 15 -50890 0 32 -50890 1
gene 1 9 15 -418376 0 33 -418376 1
gene 3 10 15 232791 0 34 232791 1
gene 3 11 15 127812 0 35 127812 0
gene 2 12 15 643232 0 36 643232 1
gene 2 5 22 168587 0 50 168587 1
gene 2 22 14 -104061 0 51 -104061 1
gene 1 6 48 -800000 0 108 -800000 1
gene 1 48 13 -106029 0 109 -106029 0
gene 1 2 63 209774 0 153 209774 1
gene 1 63 13 69963 0 154 69963 1
gene 1 6 84 -500199 0 215 -500199 1
gene 1 84 14 224571 0 216 224571 1
gene 3 4 22 146082 0 283 146082 1
gene 3 12 190 -185333 0 501 -185333 1
gene 3 190 14 5256 0 502 5256 1
gene 4 13 22 -224913 0 570 -224913 1
gene 3 190 224 -70329 0 593 -70329 1
gene 3 224 14 183114 0 594 183114 1
gene 3 1 224 157011 0 655 157011 1
gene 1 6 265 259131 0 700 259131 1
gene 1 265 48 32385 0 701 32385 1
gene 4 84 190 168129 0 813 168129 1
gene 3 4 328 -196920 0 869 -196920 1
gene 3 328 22 -94470 0 870 -94470 1
gene 2 7 342 452538 0 912 452538 1
gene 2 342 15 -424455 0 913 -424455 1
gene 4 11 265 -163389 0 1175 -163389 1
gene 4 8 477 -23949 0 1261 -23949 1
gene 4 477 14 554715 0 1262 554715 1
gene 1 14 342 -358560 0 1454 -358560 1
gene 1 63 585 401728 0 1549 401728 1
gene 1 585 13 421245 0 1550 421245 1
gene 3 48 15 279810 0 1636 279810 1
gene 1 5 672 -31515 0 1789 -31515 1
gene 1 672 15 -9861 0 1790 -9861 1
gene 1 12 699 -262113 0 1853 -262113 1
gene 1 699 13 -115845 0 1854 -115845 1
gene 3 11 766 399171 0 2015 399171 1
gene 3 766 15 -186279 0 2016 -186279 1
gene 2 2 833 109252 0 2191 109252 1
gene 2 833 15 -136449 0 2192 -136449 1
gene 2 766 766 -312088 1 2255 -312088 1
gene 2 9 1028 1 0 2694 0 1
gene 2 1028 14 -222840 0 2695 0 1
gene 2 13 13 96216 1 2708 96216 1
gene 2 7 585 -47010 0 2787 -47010 1
genomeend 10


/* Organism #12 Fitness: 140.000000 Time: 0 */
/* Position #12*/
#1 x: 43 y: 18
#2 x: 78 y: 33
#3 x: 68 y: 35
#4 x: 39 y: 63
#5 x: 67 y: 61
#6 x: 71 y: 74
genomestart 12
trait 1 1.000000 0.000000 0.000000 0.000000 0.000000 0.000000 0.000000 0.000000 trait 2 48067.000000 0.000000 62481.000000 0.000000 0.000000 0.000000 26897.000000 16325.000000 trait 3 3.000000 0.000000 0.000000 0.000000 0.000000 0.000000 0.000000 0.000000 trait 4 2.000000 0.000000 0.000000 0.000000 100000.000000 0.000000 0.000000 0.000000 node 1 3 1 3
node 2 1 1 1
node 3 4 1 1
node 4 3 1 1
node 5 4 1 1
node 6 3 1 1
node 7 3 1 1
node 8 3 1 1
node 9 1 1 1
node 10 1 1 1
node 11 4 1 1
node 12 2 1 1
node 13 3 0 2
node 14 2 0 2
node 15 1 0 2
node 22 1 0 0
node 48 1 0 0
node 63 1 0 0
node 84 1 0 0
node 190 4 0 0
node 224 1 0 0
node 265 1 0 0
node 328 1 0 0
node 342 1 0 0
node 477 1 0 0
node 585 1 0 0
node 672 1 0 0
node 699 1 0 0
node 766 1 0 0
node 833 1 0 0
node 1028 1 0 0
node 1062 1 0 0
gene 1 1 13 -189042 0 1 -189042 1
gene 1 2 13 -176058 0 2 -176058 0
gene 3 3 13 -388206 0 3 -388206 1
gene 4 4 13 215513 0 4 215513 1
gene 4 5 13 -800000 0 5 -800000 0
gene 1 6 13 -558056 0 6 -558056 0
gene 3 7 13 -68661 0 7 -68661 1
gene 3 8 13 -57752 0 8 -57752 1
gene 1 9 13 -264551 0 9 -264551 1
gene 4 10 13 -87832 0 10 -87832 1
gene 3 11 13 -13894 0 11 -13894 1
gene 1 12 13 800000 0 12 800000 1
gene 2 1 14 -242061 0 13 -242061 1
gene 1 2 14 33147 0 14 33147 1
gene 1 3 14 -60729 0 15 -60729 0
gene 2 4 14 215982 0 16 215982 1
gene 2 5 14 -38115 0 17 -38115 1
gene 3 6 14 -68721 0 18 -68721 1
gene 4 7 14 59633 0 19 59633 0
gene 4 8 14 -357751 0 20 -357751 1
gene 2 9 14 -222840 0 21 -222840 0
gene 4 10 14 248445 0 22 248445 1
gene 4 11 14 15376 0 23 15376 0
gene 3 12 14 80004 0 24 80004 0
gene 2 1 15 -6186 0 25 -6186 1
gene 2 2 15 -235259 0 26 -235259 0
gene 4 3 15 366564 0 27 366564 1
gene 4 4 15 92472 0 28 92472 1
gene 1 5 15 -52014 0 29 -52014 0
gene 4 6 15 219413 0 30 219413 0
gene 2 7 15 -800000 0 31 -800000 1
gene 4 8 15 -50890 0 32 -50890 1
gene 1 9 15 -418376 0 33 -418376 1
gene 3 10 15 232791 0 34 232791 1
gene 3 11 15 127812 0 35 127812 0
gene 2 12 15 643232 0 36 643232 1
gene 2 5 22 168587 0 50 168587 1
gene 2 22 14 -104061 0 51 -104061 1
gene 1 6 48 -800000 0 108 -800000 1
gene 1 48 13 -106029 0 109 -106029 0
gene 1 2 63 209774 0 153 209774 1
gene 1 63 13 69963 0 154 69963 1
gene 1 6 84 -500199 0 215 -500199 1
gene 1 84 14 224571 0 216 224571 1
gene 3 4 22 146082 0 283 146082 1
gene 3 12 190 -185333 0 501 -185333 1
gene 3 190 14 5256 0 502 5256 1
gene 4 13 22 -224913 0 570 -224913 1
gene 3 190 224 -70329 0 593 -70329 1
gene 3 224 14 183114 0 594 183114 1
gene 3 1 224 157011 0 655 157011 1
gene 1 6 265 259131 0 700 259131 1
gene 1 265 48 32385 0 701 32385 1
gene 4 84 190 168129 0 813 168129 1
gene 3 4 328 -196920 0 869 -196920 1
gene 3 328 22 -94470 0 870 -94470 1
gene 2 7 342 452538 0 912 452538 1
gene 2 342 15 -424455 0 913 -424455 1
gene 4 11 265 -163389 0 1175 -163389 1
gene 4 8 477 -23949 0 1261 -23949 1
gene 4 477 14 554715 0 1262 554715 1
gene 1 14 342 -358560 0 1454 -358560 1
gene 1 63 585 401728 0 1549 401728 1
gene 1 585 13 421245 0 1550 421245 1
gene 3 48 15 279810 0 1636 279810 1
gene 1 5 672 -31515 0 1789 -31515 1
gene 1 672 15 -9861 0 1790 -9861 1
gene 1 12 699 -262113 0 1853 -262113 1
gene 1 699 13 -115845 0 1854 -115845 1
gene 3 11 766 399171 0 2015 399171 1
gene 3 766 15 -186279 0 2016 -186279 1
gene 2 2 833 109252 0 2191 109252 0
gene 2 833 15 -136449 0 2192 -136449 1
gene 2 766 766 -312088 1 2255 -312088 1
gene 2 9 1028 1 0 2694 0 1
gene 2 1028 14 -222840 0 2695 0 1
gene 2 13 13 96216 1 2708 96216 1
gene 2 2 1062 1 0 2783 0 1
gene 2 1062 833 109252 0 2784 0 1
genomeend 12


/* Organism #17 Fitness: 170.000000 Time: 0 */
/* Position #17*/
#1 x: 49 y: 18
#2 x: 72 y: 21
#3 x: 45 y: 23
#4 x: 21 y: 68
#5 x: 76 y: 82
#6 x: 32 y: 84
genomestart 17
trait 1 1.000000 0.000000 0.000000 0.000000 0.000000 0.000000 0.000000 0.000000 trait 2 2.000000 0.000000 84955.000000 0.000000 0.000000 0.000000 0.000000 0.000000 trait 3 3.000000 0.000000 0.000000 0.000000 0.000000 0.000000 0.000000 0.000000 trait 4 4.000000 0.000000 0.000000 0.000000 0.000000 0.000000 0.000000 0.000000 node 1 3 1 3
node 2 1 1 1
node 3 4 1 1
node 4 3 1 1
node 5 4 1 1
node 6 3 1 1
node 7 3 1 1
node 8 3 1 1
node 9 1 1 1
node 10 1 1 1
node 11 4 1 1
node 12 2 1 1
node 13 3 0 2
node 14 2 0 2
node 15 4 0 2
node 22 1 0 0
node 48 1 0 0
node 63 1 0 0
node 84 1 0 0
node 190 1 0 0
node 263 1 0 0
node 282 1 0 0
node 316 1 0 0
node 353 1 0 0
node 395 1 0 0
node 422 1 0 0
node 482 1 0 0
node 510 1 0 0
node 530 1 0 0
node 597 1 0 0
node 656 1 0 0
node 664 1 0 0
node 764 1 0 0
node 788 1 0 0
node 819 1 0 0
node 848 1 0 0
node 934 1 0 0
node 966 1 0 0
node 998 1 0 0
node 1034 1 0 0
node 1067 1 0 0
gene 1 1 13 -316734 0 1 -316734 1
gene 1 2 13 619631 0 2 619631 0
gene 3 3 13 -607923 0 3 -607923 1
gene 4 4 13 312412 0 4 312412 1
gene 4 5 13 260574 0 5 260574 0
gene 3 6 13 87803 0 6 87803 0
gene 3 7 13 332371 0 7 332371 1
gene 3 8 13 -472476 0 8 -472476 1
gene 1 9 13 800000 0 9 800000 0
gene 4 10 13 283054 0 10 283054 1
gene 3 11 13 -250146 0 11 -250146 1
gene 2 12 13 201460 0 12 201460 0
gene 2 1 14 235728 0 13 235728 1
gene 1 2 14 260487 0 14 260487 1
gene 1 3 14 -52898 0 15 -52898 0
gene 2 4 14 -391989 0 16 -391989 1
gene 2 5 14 -666676 0 17 -666676 0
gene 3 6 14 138722 0 18 138722 1
gene 4 7 14 -293355 0 19 -293355 0
gene 4 8 14 484920 0 20 484920 1
gene 2 9 14 241870 0 21 241870 1
gene 4 10 14 -221082 0 22 -221082 1
gene 4 11 14 447945 0 23 447945 0
gene 3 12 14 -800000 0 24 -800000 1
gene 2 1 15 539734 0 25 539734 1
gene 2 2 15 175967 0 26 175967 1
gene 4 3 15 -325970 0 27 -325970 1
gene 4 4 15 232408 0 28 232408 1
gene 3 5 15 -304689 0 29 -304689 0
gene 4 6 15 47016 0 30 47016 1
gene 2 7 15 140251 0 31 140251 1
gene 4 8 15 448732 0 32 448732 1
gene 1 9 15 -549776 0 33 -549776 1
gene 3 10 15 -16158 0 34 -16158 1
gene 3 11 15 530597 0 35 530597 1
gene 2 12 15 -130853 0 36 -130853 1
gene 2 5 22 -477839 0 50 -477839 0
gene 2 22 14 -334527 0 51 -334527 0
gene 1 6 48 -89339 0 108 -89339 0
gene 1 48 13 -662916 0 109 -662916 0
gene 1 2 63 553827 0 153 553827 1
gene 1 63 13 -516339 0 154 -516339 1
gene 1 6 84 -77615 0 215 -77615 1
gene 1 84 14 145602 0 216 145602 1
gene 3 4 22 -346327 0 283 -346327 1
gene 3 12 190 -6147 0 501 -6147 0
gene 3 190 14 -306054 0 502 -306054 0
gene 3 84 84 -462170 1 567 -462170 1
gene 1 3 22 -211869 0 598 -211869 1
gene 4 6 263 298893 0 695 298893 1
gene 4 263 15 174042 0 696 174042 1
gene 2 5 282 -281316 0 749 -281316 1
gene 2 282 14 278975 0 750 278975 0
gene 2 9 316 -438483 0 839 -438483 1
gene 2 316 14 -449447 0 840 -449447 1
gene 2 9 353 800000 0 939 800000 1
gene 2 353 316 -251108 0 940 -251108 0
gene 1 3 395 -236546 0 1047 -236546 1
gene 1 395 14 382471 0 1048 382471 1
gene 4 7 422 278163 0 1121 278163 0
gene 4 422 14 80769 0 1122 80769 1
gene 3 190 482 -28131 0 1276 -28131 1
gene 3 482 14 -65913 0 1277 -65913 1
gene 1 48 510 -143747 0 1349 -143747 0
gene 1 510 13 -294543 0 1350 -294543 0
gene 4 11 530 -12681 0 1406 -12681 1
gene 4 530 14 254229 0 1407 254229 1
gene 2 353 597 195537 0 1582 195537 1
gene 2 597 316 -450498 0 1583 -450498 1
gene 1 9 656 -248391 0 1741 -248391 1
gene 1 656 13 -38619 0 1742 -38619 1
gene 3 6 664 -225878 0 1762 -225878 1
gene 3 664 13 -287886 0 1763 -287886 0
gene 3 664 764 1 0 2009 0 1
gene 3 764 13 -21486 0 2010 0 1
gene 3 12 788 1 0 2078 0 1
gene 3 788 190 179955 0 2079 179955 1
gene 2 22 819 -86229 0 2153 -86229 1
gene 2 819 14 -318315 0 2154 0 1
gene 1 6 848 -36038 0 2233 -36038 1
gene 1 848 48 -89339 0 2234 0 1
gene 1 48 934 1 0 2457 0 1
gene 1 934 510 -143747 0 2458 0 1
gene 2 282 966 1 0 2537 0 1
gene 2 966 14 278975 0 2538 0 1
gene 2 12 998 1 0 2623 0 1
gene 2 998 13 201460 0 2624 0 1
gene 2 5 1034 1 0 2709 0 1
gene 2 1034 14 -666676 0 2710 0 1
gene 1 510 1067 1 0 2795 0 1
gene 1 1067 13 -294543 0 2796 0 1
genomeend 17


/* Organism #24 Fitness: 120.000000 Time: 0 */
/* Position #24*/
#1 x: 24 y: 15
#2 x: 53 y: 32
#3 x: 37 y: 32
#4 x: 60 y: 72
#5 x: 32 y: 84
#6 x: 23 y: 80
genomestart 24
trait 1 1.000000 0.000000 0.000000 0.000000 0.000000 0.000000 0.000000 0.000000 trait 2 48067.000000 0.000000 20003.000000 0.000000 0.000000 0.000000 26897.000000 16325.000000 trait 3 3.000000 0.000000 0.000000 0.000000 0.000000 0.000000 0.000000 0.000000 trait 4 2.000000 0.000000 0.000000 0.000000 17527.000000 0.000000 16932.000000 0.000000 node 1 3 1 3
node 2 1 1 1
node 3 4 1 1
node 4 3 1 1
node 5 4 1 1
node 6 3 1 1
node 7 2 1 1
node 8 3 1 1
node 9 1 1 1
node 10 1 1 1
node 11 4 1 1
node 12 2 1 1
node 13 3 0 2
node 14 2 0 2
node 15 4 0 2
node 22 1 0 0
node 48 1 0 0
node 63 1 0 0
node 84 1 0 0
node 190 1 0 0
node 263 1 0 0
node 282 1 0 0
node 316 1 0 0
node 353 1 0 0
node 395 1 0 0
node 422 1 0 0
node 482 1 0 0
node 510 1 0 0
node 568 1 0 0
node 614 1 0 0
node 811 1 0 0
node 831 1 0 0
node 928 1 0 0
node 940 1 0 0
node 1017 1 0 0
node 1050 1 0 0
gene 1 1 13 -265845 0 1 -265845 1
gene 1 2 13 -229437 0 2 -229437 0
gene 3 3 13 -205389 0 3 -205389 1
gene 4 4 13 -402207 0 4 -402207 1
gene 4 5 13 -281661 0 5 -281661 0
gene 1 6 13 85569 0 6 85569 0
gene 3 7 13 -491661 0 7 -491661 1
gene 3 8 13 674415 0 8 674415 0
gene 1 9 13 247794 0 9 247794 1
gene 4 10 13 374861 0 10 374861 1
gene 3 11 13 -795497 0 11 -795497 0
gene 2 12 13 -342581 0 12 -342581 1
gene 2 1 14 264444 0 13 264444 1
gene 3 2 14 -222825 0 14 -222825 1
gene 1 3 14 -226122 0 15 -226122 1
gene 2 4 14 689265 0 16 689265 1
gene 2 5 14 -534382 0 17 -534382 1
gene 3 6 14 -130614 0 18 -130614 1
gene 4 7 14 -28644 0 19 -28644 0
gene 4 8 14 -47427 0 20 -47427 0
gene 3 9 14 -6531 0 21 -6531 0
gene 4 10 14 -225945 0 22 -225945 1
gene 4 11 14 119628 0 23 119628 1
gene 3 12 14 -136331 0 24 -136331 1
gene 2 1 15 323985 0 25 323985 1
gene 2 2 15 7181 0 26 7181 1
gene 4 3 15 356769 0 27 356769 1
gene 4 4 15 -125058 0 28 -125058 1
gene 3 5 15 82905 0 29 82905 0
gene 4 6 15 -224262 0 30 -224262 0
gene 2 7 15 -111255 0 31 -111255 1
gene 4 8 15 6852 0 32 6852 1
gene 1 9 15 -800000 0 33 -800000 1
gene 3 10 15 -10064 0 34 -10064 1
gene 3 11 15 -79551 0 35 -79551 1
gene 2 12 15 160656 0 36 160656 0
gene 2 5 22 -559431 0 50 -559431 1
gene 2 22 14 -124343 0 51 -124343 1
gene 1 6 48 73302 0 108 73302 1
gene 1 48 13 -118959 0 109 -118959 0
gene 1 2 63 -159612 0 153 -159612 1
gene 1 63 13 219166 0 154 219166 1
gene 1 6 84 39210 0 215 39210 1
gene 1 84 14 660665 0 216 660665 1
gene 3 4 22 -392793 0 283 -392793 0
gene 3 12 190 -529815 0 501 -529815 0
gene 3 190 14 -735421 0 502 -735421 0
gene 3 84 84 -157331 1 567 -157331 1
gene 1 3 22 52198 0 598 52198 1
gene 4 6 263 -471768 0 695 -471768 1
gene 4 263 15 -29292 0 696 -29292 1
gene 2 5 282 -262977 0 749 -262977 1
gene 2 282 14 437055 0 750 437055 1
gene 2 9 316 71037 0 839 71037 0
gene 2 316 14 -391494 0 840 -391494 1
gene 2 9 353 -474872 0 939 -474872 1
gene 2 353 316 -111039 0 940 -111039 1
gene 1 3 395 -164043 0 1047 -164043 1
gene 1 395 14 -292623 0 1048 -292623 1
gene 4 7 422 322095 0 1121 322095 1
gene 4 422 14 -587394 0 1122 -587394 1
gene 3 190 482 -250086 0 1276 -250086 1
gene 3 482 14 -23760 0 1277 -23760 0
gene 1 48 510 54723 0 1349 54723 1
gene 1 510 13 284598 0 1350 284598 1
gene 3 13 22 19281 0 1410 19281 1
gene 3 11 568 111739 0 1507 111739 1
gene 3 568 13 672627 0 1508 672627 1
gene 3 8 614 286548 0 1632 286548 0
gene 3 614 13 125160 0 1633 125160 0
gene 3 190 190 -443205 1 1753 -443205 1
gene 2 12 811 1 0 2133 1 1
gene 2 811 15 -100824 0 2134 -100824 1
gene 3 12 831 -180539 0 2184 -180539 1
gene 3 831 190 -27753 0 2185 -27753 1
gene 3 282 395 -68218 0 2247 -68218 1
gene 3 482 928 1 0 2444 0 0
gene 3 928 14 -23760 0 2445 0 1
gene 3 614 940 1 0 2475 0 1
gene 3 940 13 125160 0 2476 0 1
gene 3 482 1017 1 0 2669 0 1
gene 3 1017 928 1 0 2670 0 1
gene 3 8 1050 1 0 2752 0 1
gene 3 1050 614 286548 0 2753 0 1
gene 4 568 568 -60962 1 2805 -60962 1
genomeend 24


/* Organism #40 Fitness: 150.000000 Time: 0 */
/* Position #40*/
#1 x: 49 y: 39
#2 x: 21 y: 26
#3 x: 26 y: 17
#4 x: 31 y: 85
#5 x: 82 y: 64
#6 x: 73 y: 82
genomestart 40
trait 1 1.000000 0.000000 0.000000 0.000000 0.000000 0.000000 0.000000 0.000000 trait 2 48067.000000 0.000000 62481.000000 0.000000 0.000000 0.000000 26897.000000 16325.000000 trait 3 3.000000 0.000000 0.000000 0.000000 0.000000 0.000000 0.000000 0.000000 trait 4 2.000000 0.000000 18432.000000 0.000000 100000.000000 0.000000 14232.000000 0.000000 node 1 3 1 3
node 2 1 1 1
node 3 4 1 1
node 4 3 1 1
node 5 4 1 1
node 6 3 1 1
node 7 3 1 1
node 8 3 1 1
node 9 1 1 1
node 10 1 1 1
node 11 2 1 1
node 12 2 1 1
node 13 3 0 2
node 14 2 0 2
node 15 1 0 2
node 22 1 0 0
node 48 1 0 0
node 63 1 0 0
node 84 1 0 0
node 190 4 0 0
node 224 1 0 0
node 265 1 0 0
node 328 1 0 0
node 342 1 0 0
node 477 1 0 0
node 585 1 0 0
node 672 1 0 0
node 699 1 0 0
node 766 1 0 0
node 833 1 0 0
node 1058 1 0 0
gene 1 1 13 36246 0 1 36246 1
gene 1 2 13 -225402 0 2 -225402 0
gene 3 3 13 -605811 0 3 -605811 1
gene 4 4 13 118839 0 4 118839 1
gene 4 5 13 294 0 5 294 0
gene 1 6 13 -135921 0 6 -135921 0
gene 3 7 13 -68661 0 7 -68661 1
gene 3 8 13 -85343 0 8 -85343 1
gene 1 9 13 -4796 0 9 -4796 1
gene 4 10 13 -58834 0 10 -58834 1
gene 3 11 13 8144 0 11 8144 1
gene 1 12 13 800000 0 12 800000 1
gene 2 1 14 -536904 0 13 -536904 1
gene 1 2 14 34629 0 14 34629 1
gene 1 3 14 -168426 0 15 -168426 0
gene 2 4 14 297204 0 16 297204 1
gene 2 5 14 173847 0 17 173847 1
gene 3 6 14 211914 0 18 211914 1
gene 4 7 14 164528 0 19 164528 0
gene 4 8 14 -62256 0 20 -62256 1
gene 2 9 14 -28377 0 21 -28377 1
gene 4 10 14 370191 0 22 370191 0
gene 4 11 14 -76724 0 23 -76724 0
gene 3 12 14 -138963 0 24 -138963 0
gene 2 1 15 -122610 0 25 -122610 1
gene 2 2 15 -244682 0 26 -244682 0
gene 4 3 15 570981 0 27 570981 1
gene 4 4 15 92472 0 28 92472 1
gene 1 5 15 -260664 0 29 -260664 0
gene 4 6 15 416651 0 30 416651 0
gene 2 7 15 244728 0 31 244728 1
gene 4 8 15 -125374 0 32 -125374 1
gene 1 9 15 28182 0 33 28182 1
gene 3 10 15 241737 0 34 241737 1
gene 3 11 15 82341 0 35 82341 0
gene 2 12 15 800000 0 36 800000 1
gene 2 5 22 -102190 0 50 -102190 1
gene 2 22 14 -228558 0 51 -228558 1
gene 1 6 48 -245724 0 108 -245724 1
gene 1 48 13 129615 0 109 129615 0
gene 1 2 63 137627 0 153 137627 1
gene 1 63 13 180336 0 154 180336 1
gene 1 6 84 -719781 0 215 -719781 1
gene 1 84 14 492084 0 216 492084 1
gene 3 4 22 177039 0 283 177039 1
gene 3 12 190 -185333 0 501 -185333 1
gene 3 190 14 207567 0 502 207567 1
gene 4 13 22 -140739 0 570 -140739 1
gene 3 190 224 -166221 0 593 -166221 1
gene 3 224 14 286068 0 594 286068 1
gene 3 1 224 300123 0 655 300123 1
gene 1 6 265 295722 0 700 295722 1
gene 1 265 48 32385 0 701 32385 1
gene 4 84 190 367587 0 813 367587 1
gene 3 4 328 85935 0 869 85935 1
gene 3 328 22 137856 0 870 137856 1
gene 2 7 342 329364 0 912 329364 1
gene 2 342 15 -533334 0 913 -533334 1
gene 4 11 265 -273768 0 1175 -273768 1
gene 4 8 477 -133524 0 1261 -133524 1
gene 4 477 14 -215565 0 1262 -215565 1
gene 1 14 342 -190593 0 1454 -190593 1
gene 1 63 585 401728 0 1549 401728 1
gene 1 585 13 647250 0 1550 647250 1
gene 3 48 15 279810 0 1636 279810 1
gene 1 5 672 286923 0 1789 286923 1
gene 1 672 15 -123375 0 1790 -123375 1
gene 1 12 699 -507348 0 1853 -507348 1
gene 1 699 13 -332064 0 1854 -332064 1
gene 3 11 766 275445 0 2015 275445 1
gene 3 766 15 -416076 0 2016 -416076 1
gene 2 2 833 -106922 0 2191 -106922 1
gene 2 833 15 -135864 0 2192 -135864 1
gene 2 766 766 -312088 1 2255 -312088 1
gene 4 10 1058 1 0 2774 0 1
gene 4 1058 14 370191 0 2775 0 1
genomeend 40


/* Organism #41 Fitness: 150.000000 Time: 0 */
/* Position #41*/
#1 x: 49 y: 39
#2 x: 21 y: 26
#3 x: 26 y: 17
#4 x: 31 y: 85
#5 x: 82 y: 64
#6 x: 73 y: 82
genomestart 41
trait 1 1.000000 0.000000 0.000000 0.000000 0.000000 0.000000 0.000000 0.000000 trait 2 48067.000000 0.000000 62481.000000 0.000000 0.000000 0.000000 26897.000000 16325.000000 trait 3 3.000000 0.000000 0.000000 0.000000 0.000000 0.000000 0.000000 0.000000 trait 4 2.000000 0.000000 18432.000000 0.000000 100000.000000 0.000000 14232.000000 0.000000 node 1 3 1 3
node 2 1 1 1
node 3 4 1 1
node 4 3 1 1
node 5 4 1 1
node 6 3 1 1
node 7 3 1 1
node 8 3 1 1
node 9 1 1 1
node 10 1 1 1
node 11 2 1 1
node 12 2 1 1
node 13 3 0 2
node 14 2 0 2
node 15 1 0 2
node 22 1 0 0
node 48 1 0 0
node 63 1 0 0
node 84 1 0 0
node 190 4 0 0
node 224 1 0 0
node 265 1 0 0
node 328 1 0 0
node 342 1 0 0
node 477 1 0 0
node 585 1 0 0
node 672 1 0 0
node 699 1 0 0
node 766 1 0 0
node 833 1 0 0
node 1058 1 0 0
node 1064 1 0 0
gene 1 1 13 36246 0 1 36246 1
gene 1 2 13 -225402 0 2 -225402 0
gene 3 3 13 -605811 0 3 -605811 0
gene 4 4 13 118839 0 4 118839 1
gene 4 5 13 294 0 5 294 0
gene 1 6 13 -135921 0 6 -135921 0
gene 3 7 13 -68661 0 7 -68661 1
gene 3 8 13 -85343 0 8 -85343 1
gene 1 9 13 -4796 0 9 -4796 1
gene 4 10 13 -58834 0 10 -58834 1
gene 3 11 13 8144 0 11 8144 1
gene 1 12 13 800000 0 12 800000 1
gene 2 1 14 -536904 0 13 -536904 1
gene 1 2 14 34629 0 14 34629 1
gene 1 3 14 -168426 0 15 -168426 0
gene 2 4 14 297204 0 16 297204 1
gene 2 5 14 173847 0 17 173847 1
gene 3 6 14 211914 0 18 211914 1
gene 4 7 14 164528 0 19 164528 0
gene 4 8 14 -62256 0 20 -62256 1
gene 2 9 14 -28377 0 21 -28377 1
gene 4 10 14 370191 0 22 370191 0
gene 4 11 14 -76724 0 23 -76724 0
gene 3 12 14 -138963 0 24 -138963 0
gene 2 1 15 -122610 0 25 -122610 1
gene 2 2 15 -244682 0 26 -244682 0
gene 4 3 15 570981 0 27 570981 1
gene 4 4 15 92472 0 28 92472 1
gene 1 5 15 -260664 0 29 -260664 0
gene 4 6 15 416651 0 30 416651 0
gene 2 7 15 244728 0 31 244728 1
gene 4 8 15 -125374 0 32 -125374 1
gene 1 9 15 28182 0 33 28182 1
gene 3 10 15 241737 0 34 241737 1
gene 3 11 15 82341 0 35 82341 0
gene 2 12 15 800000 0 36 800000 1
gene 2 5 22 -102190 0 50 -102190 1
gene 2 22 14 -228558 0 51 -228558 1
gene 1 6 48 -245724 0 108 -245724 1
gene 1 48 13 129615 0 109 129615 0
gene 1 2 63 137627 0 153 137627 1
gene 1 63 13 180336 0 154 180336 1
gene 1 6 84 -719781 0 215 -719781 1
gene 1 84 14 492084 0 216 492084 1
gene 3 4 22 177039 0 283 177039 1
gene 3 12 190 -185333 0 501 -185333 1
gene 3 190 14 207567 0 502 207567 1
gene 4 13 22 -140739 0 570 -140739 1
gene 3 190 224 -166221 0 593 -166221 1
gene 3 224 14 286068 0 594 286068 1
gene 3 1 224 300123 0 655 300123 1
gene 1 6 265 295722 0 700 295722 1
gene 1 265 48 32385 0 701 32385 1
gene 4 84 190 367587 0 813 367587 1
gene 3 4 328 85935 0 869 85935 1
gene 3 328 22 137856 0 870 137856 1
gene 2 7 342 329364 0 912 329364 1
gene 2 342 15 -533334 0 913 -533334 1
gene 4 11 265 -273768 0 1175 -273768 1
gene 4 8 477 -133524 0 1261 -133524 1
gene 4 477 14 -215565 0 1262 -215565 1
gene 1 14 342 -190593 0 1454 -190593 1
gene 1 63 585 401728 0 1549 401728 1
gene 1 585 13 647250 0 1550 647250 1
gene 3 48 15 279810 0 1636 279810 1
gene 1 5 672 286923 0 1789 286923 1
gene 1 672 15 -123375 0 1790 -123375 1
gene 1 12 699 -507348 0 1853 -507348 1
gene 1 699 13 -332064 0 1854 -332064 1
gene 3 11 766 275445 0 2015 275445 1
gene 3 766 15 -416076 0 2016 -416076 1
gene 2 2 833 -106922 0 2191 -106922 1
gene 2 833 15 -135864 0 2192 -135864 1
gene 2 766 766 -312088 1 2255 -312088 1
gene 4 10 1058 1 0 2774 0 1
gene 4 1058 14 370191 0 2775 0 1
gene 3 3 1064 1 0 2788 0 1
gene 3 1064 13 -605811 0 2789 0 1
genomeend 41


/* Organism #46 Fitness: 200.000000 Time: 0 */
/* Position #46*/
#1 x: 49 y: 39
#2 x: 76 y: 32
#3 x: 42 y: 40
#4 x: 43 y: 79
#5 x: 26 y: 60
#6 x: 33 y: 85
genomestart 46
trait 1 1.000000 0.000000 0.000000 0.000000 0.000000 0.000000 0.000000 0.000000 trait 2 48067.000000 0.000000 62481.000000 0.000000 0.000000 0.000000 26897.000000 16325.000000 trait 3 3.000000 0.000000 0.000000 0.000000 0.000000 0.000000 0.000000 0.000000 trait 4 2.000000 0.000000 0.000000 0.000000 100000.000000 0.000000 0.000000 0.000000 node 1 3 1 3
node 2 1 1 1
node 3 4 1 1
node 4 3 1 1
node 5 4 1 1
node 6 3 1 1
node 7 3 1 1
node 8 3 1 1
node 9 1 1 1
node 10 1 1 1
node 11 4 1 1
node 12 2 1 1
node 13 3 0 2
node 14 2 0 2
node 15 1 0 2
node 22 1 0 0
node 48 1 0 0
node 63 1 0 0
node 84 1 0 0
node 190 4 0 0
node 224 1 0 0
node 265 1 0 0
node 328 1 0 0
node 342 1 0 0
node 477 1 0 0
node 585 1 0 0
node 672 1 0 0
node 699 1 0 0
node 766 1 0 0
node 833 1 0 0
gene 1 1 13 -189042 0 1 -189042 1
gene 1 2 13 -176058 0 2 -176058 0
gene 3 3 13 -388206 0 3 -388206 1
gene 4 4 13 215513 0 4 215513 1
gene 4 5 13 -800000 0 5 -800000 0
gene 1 6 13 -558056 0 6 -558056 0
gene 3 7 13 -68661 0 7 -68661 1
gene 3 8 13 -57752 0 8 -57752 1
gene 1 9 13 -264551 0 9 -264551 1
gene 4 10 13 -87832 0 10 -87832 1
gene 3 11 13 -13894 0 11 -13894 1
gene 1 12 13 800000 0 12 800000 1
gene 2 1 14 -242061 0 13 -242061 1
gene 1 2 14 33147 0 14 33147 1
gene 1 3 14 -60729 0 15 -60729 0
gene 2 4 14 215982 0 16 215982 1
gene 2 5 14 -38115 0 17 -38115 1
gene 3 6 14 -68721 0 18 -68721 1
gene 4 7 14 59633 0 19 59633 0
gene 4 8 14 -357751 0 20 -357751 1
gene 2 9 14 -222840 0 21 -222840 1
gene 4 10 14 248445 0 22 248445 1
gene 4 11 14 15376 0 23 15376 0
gene 3 12 14 80004 0 24 80004 0
gene 2 1 15 -6186 0 25 -6186 1
gene 2 2 15 -235259 0 26 -235259 0
gene 4 3 15 366564 0 27 366564 1
gene 4 4 15 92472 0 28 92472 1
gene 1 5 15 -52014 0 29 -52014 0
gene 4 6 15 219413 0 30 219413 0
gene 2 7 15 -800000 0 31 -800000 1
gene 4 8 15 -50890 0 32 -50890 1
gene 1 9 15 -418376 0 33 -418376 1
gene 3 10 15 232791 0 34 232791 1
gene 3 11 15 127812 0 35 127812 0
gene 2 12 15 643232 0 36 643232 1
gene 2 5 22 168587 0 50 168587 1
gene 2 22 14 -104061 0 51 -104061 1
gene 1 6 48 -800000 0 108 -800000 1
gene 1 48 13 -106029 0 109 -106029 0
gene 1 2 63 209774 0 153 209774 1
gene 1 63 13 69963 0 154 69963 1
gene 1 6 84 -500199 0 215 -500199 1
gene 1 84 14 224571 0 216 224571 1
gene 3 4 22 146082 0 283 146082 1
gene 3 12 190 -185333 0 501 -185333 1
gene 3 190 14 5256 0 502 5256 1
gene 4 13 22 -224913 0 570 -224913 1
gene 3 190 224 -70329 0 593 -70329 1
gene 3 224 14 183114 0 594 183114 1
gene 3 1 224 157011 0 655 157011 1
gene 1 6 265 259131 0 700 259131 1
gene 1 265 48 32385 0 701 32385 1
gene 4 84 190 168129 0 813 168129 1
gene 3 4 328 -196920 0 869 -196920 1
gene 3 328 22 -94470 0 870 -94470 1
gene 2 7 342 452538 0 912 452538 1
gene 2 342 15 -424455 0 913 -424455 1
gene 4 11 265 -163389 0 1175 -163389 1
gene 4 8 477 -23949 0 1261 -23949 1
gene 4 477 14 554715 0 1262 554715 1
gene 1 14 342 -358560 0 1454 -358560 1
gene 1 63 585 401728 0 1549 401728 1
gene 1 585 13 421245 0 1550 421245 1
gene 3 48 15 279810 0 1636 279810 1
gene 1 5 672 -31515 0 1789 -31515 1
gene 1 672 15 -9861 0 1790 -9861 1
gene 1 12 699 -262113 0 1853 -262113 1
gene 1 699 13 -115845 0 1854 -115845 1
gene 3 11 766 399171 0 2015 399171 1
gene 3 766 15 -186279 0 2016 -186279 1
gene 2 2 833 109252 0 2191 109252 1
gene 2 833 15 -136449 0 2192 -136449 1
gene 2 766 766 -312088 1 2255 -312088 1
gene 3 7 63 53187 0 2707 53187 1
genomeend 46


/* Organism #48 Fitness: 160.000000 Time: 0 */
/* Position #48*/
#1 x: 32 y: 31
#2 x: 80 y: 40
#3 x: 73 y: 26
#4 x: 46 y: 82
#5 x: 52 y: 73
#6 x: 77 y: 62
genomestart 48
trait 1 1.000000 0.000000 0.000000 0.000000 0.000000 0.000000 0.000000 0.000000 trait 2 48067.000000 0.000000 62481.000000 0.000000 0.000000 0.000000 26897.000000 16325.000000 trait 3 3.000000 0.000000 0.000000 0.000000 0.000000 0.000000 0.000000 0.000000 trait 4 2.000000 0.000000 0.000000 0.000000 100000.000000 0.000000 0.000000 0.000000 node 1 3 1 3
node 2 1 1 1
node 3 4 1 1
node 4 3 1 1
node 5 4 1 1
node 6 3 1 1
node 7 3 1 1
node 8 3 1 1
node 9 1 1 1
node 10 1 1 1
node 11 4 1 1
node 12 2 1 1
node 13 3 0 2
node 14 2 0 2
node 15 1 0 2
node 22 1 0 0
node 48 1 0 0
node 63 1 0 0
node 84 1 0 0
node 190 4 0 0
node 224 1 0 0
node 265 1 0 0
node 328 1 0 0
node 342 1 0 0
node 477 1 0 0
node 585 1 0 0
node 672 1 0 0
node 699 1 0 0
node 766 1 0 0
node 833 1 0 0
gene 1 1 13 -186480 0 1 -186480 1
gene 1 2 13 -32784 0 2 -32784 0
gene 3 3 13 -252510 0 3 -252510 1
gene 4 4 13 473063 0 4 473063 1
gene 4 5 13 -506366 0 5 -506366 0
gene 1 6 13 -308663 0 6 -308663 0
gene 3 7 13 144003 0 7 144003 1
gene 3 8 13 -166370 0 8 -166370 1
gene 1 9 13 -317192 0 9 -317192 1
gene 4 10 13 119657 0 10 119657 1
gene 3 11 13 -241774 0 11 -241774 1
gene 1 12 13 566882 0 12 566882 1
gene 2 1 14 -401874 0 13 -401874 1
gene 1 2 14 -250479 0 14 -250479 1
gene 1 3 14 -153795 0 15 -153795 0
gene 2 4 14 293124 0 16 293124 1
gene 2 5 14 174960 0 17 174960 1
gene 3 6 14 203691 0 18 203691 1
gene 4 7 14 245339 0 19 245339 0
gene 4 8 14 -516850 0 20 -516850 1
gene 2 9 14 -381885 0 21 -381885 1
gene 4 10 14 309210 0 22 309210 1
gene 4 11 14 -237335 0 23 -237335 0
gene 3 12 14 -165801 0 24 -165801 0
gene 2 1 15 254034 0 25 254034 1
gene 2 2 15 -217418 0 26 -217418 0
gene 4 3 15 247725 0 27 247725 1
gene 4 4 15 201414 0 28 201414 1
gene 1 5 15 -145707 0 29 -145707 0
gene 4 6 15 -25342 0 30 -25342 0
gene 2 7 15 -800000 0 31 -800000 1
gene 4 8 15 -227338 0 32 -227338 1
gene 1 9 15 -530402 0 33 -530402 1
gene 3 10 15 162036 0 34 162036 1
gene 3 11 15 312639 0 35 312639 0
gene 2 12 15 378416 0 36 378416 1
gene 2 5 22 14693 0 50 14693 1
gene 2 22 14 -108771 0 51 -108771 1
gene 1 6 48 -800000 0 108 -800000 1
gene 1 48 13 33717 0 109 33717 0
gene 1 2 63 195500 0 153 195500 1
gene 1 63 13 -34341 0 154 -34341 1
gene 1 6 84 -473295 0 215 -473295 1
gene 1 84 14 79527 0 216 79527 1
gene 3 4 22 183564 0 283 183564 1
gene 3 12 190 -330833 0 501 -330833 1
gene 3 190 14 107190 0 502 107190 1
gene 4 13 22 -449979 0 570 -449979 1
gene 3 190 224 121155 0 593 121155 1
gene 3 224 14 107676 0 594 107676 1
gene 3 1 224 131304 0 655 131304 1
gene 1 6 265 260634 0 700 260634 1
gene 1 265 48 173655 0 701 173655 1
gene 4 84 190 -76944 0 813 -76944 1
gene 3 4 328 -95217 0 869 -95217 1
gene 3 328 22 114660 0 870 114660 1
gene 2 7 342 500538 0 912 500538 1
gene 2 342 15 -538110 0 913 -538110 1
gene 4 11 265 -238224 0 1175 -238224 1
gene 4 8 477 -279465 0 1261 -279465 1
gene 4 477 14 548790 0 1262 548790 1
gene 1 14 342 -71313 0 1454 -71313 1
gene 1 63 585 300796 0 1549 300796 1
gene 1 585 13 374190 0 1550 374190 1
gene 3 48 15 4416 0 1636 4416 1
gene 1 5 672 -175938 0 1789 -175938 1
gene 1 672 15 -9861 0 1790 -9861 1
gene 1 12 699 -216147 0 1853 -216147 1
gene 1 699 13 -185793 0 1854 -185793 1
gene 3 11 766 254700 0 2015 254700 1
gene 3 766 15 -210981 0 2016 -210981 1
gene 2 2 833 296176 0 2191 296176 1
gene 2 833 15 -436308 0 2192 -436308 1
gene 2 766 766 -312088 1 2255 -312088 1
gene 3 7 63 341523 0 2707 341523 1
genomeend 48


/* Organism #49 Fitness: 160.000000 Time: 0 */
/* Position #49*/
#1 x: 32 y: 31
#2 x: 80 y: 40
#3 x: 73 y: 26
#4 x: 46 y: 82
#5 x: 52 y: 73
#6 x: 77 y: 62
genomestart 49
trait 1 1.000000 0.000000 0.000000 0.000000 0.000000 0.000000 0.000000 0.000000 trait 2 48067.000000 0.000000 62481.000000 0.000000 0.000000 0.000000 26897.000000 16325.000000 trait 3 3.000000 0.000000 0.000000 0.000000 0.000000 0.000000 0.000000 0.000000 trait 4 2.000000 0.000000 0.000000 0.000000 100000.000000 0.000000 0.000000 0.000000 node 1 3 1 3
node 2 1 1 1
node 3 4 1 1
node 4 3 1 1
node 5 4 1 1
node 6 3 1 1
node 7 3 1 1
node 8 3 1 1
node 9 1 1 1
node 10 1 1 1
node 11 4 1 1
node 12 2 1 1
node 13 3 0 2
node 14 2 0 2
node 15 1 0 2
node 22 1 0 0
node 48 1 0 0
node 63 1 0 0
node 84 1 0 0
node 190 4 0 0
node 224 1 0 0
node 265 1 0 0
node 328 1 0 0
node 342 1 0 0
node 477 1 0 0
node 585 1 0 0
node 672 1 0 0
node 699 1 0 0
node 766 1 0 0
node 833 1 0 0
gene 1 1 13 -189042 0 1 -189042 1
gene 1 2 13 -176058 0 2 -176058 0
gene 3 3 13 -388206 0 3 -388206 1
gene 4 4 13 215513 0 4 215513 1
gene 4 5 13 -800000 0 5 -800000 0
gene 1 6 13 -558056 0 6 -558056 0
gene 3 7 13 -68661 0 7 -68661 1
gene 3 8 13 -57752 0 8 -57752 1
gene 1 9 13 -264551 0 9 -264551 1
gene 4 10 13 -87832 0 10 -87832 1
gene 3 11 13 -13894 0 11 -13894 1
gene 1 12 13 800000 0 12 800000 1
gene 2 1 14 -242061 0 13 -242061 1
gene 1 2 14 33147 0 14 33147 1
gene 1 3 14 -60729 0 15 -60729 0
gene 2 4 14 215982 0 16 215982 1
gene 2 5 14 -38115 0 17 -38115 1
gene 3 6 14 -68721 0 18 -68721 1
gene 4 7 14 59633 0 19 59633 0
gene 4 8 14 -357751 0 20 -357751 1
gene 2 9 14 -222840 0 21 -222840 1
gene 4 10 14 248445 0 22 248445 1
gene 4 11 14 15376 0 23 15376 0
gene 3 12 14 80004 0 24 80004 0
gene 2 1 15 -6186 0 25 -6186 1
gene 2 2 15 -235259 0 26 -235259 0
gene 4 3 15 366564 0 27 366564 1
gene 4 4 15 92472 0 28 92472 1
gene 1 5 15 -52014 0 29 -52014 0
gene 4 6 15 219413 0 30 219413 0
gene 2 7 15 -800000 0 31 -800000 1
gene 4 8 15 -50890 0 32 -50890 1
gene 1 9 15 -418376 0 33 -418376 1
gene 3 10 15 232791 0 34 232791 1
gene 3 11 15 127812 0 35 127812 0
gene 2 12 15 643232 0 36 643232 1
gene 2 5 22 168587 0 50 168587 1
gene 2 22 14 -104061 0 51 -104061 1
gene 1 6 48 -800000 0 108 -800000 1
gene 1 48 13 -106029 0 109 -106029 0
gene 1 2 63 209774 0 153 209774 1
gene 1 63 13 69963 0 154 69963 1
gene 1 6 84 -500199 0 215 -500199 1
gene 1 84 14 224571 0 216 224571 1
gene 3 4 22 146082 0 283 146082 1
gene 3 12 190 -185333 0 501 -185333 1
gene 3 190 14 5256 0 502 5256 1
gene 4 13 22 -224913 0 570 -224913 1
gene 3 190 224 -70329 0 593 -70329 1
gene 3 224 14 183114 0 594 183114 1
gene 3 1 224 157011 0 655 157011 1
gene 1 6 265 259131 0 700 259131 1
gene 1 265 48 32385 0 701 32385 1
gene 4 84 190 168129 0 813 168129 1
gene 3 4 328 -196920 0 869 -196920 1
gene 3 328 22 -94470 0 870 -94470 1
gene 2 7 342 452538 0 912 452538 1
gene 2 342 15 -424455 0 913 -424455 1
gene 4 11 265 -163389 0 1175 -163389 1
gene 4 8 477 -23949 0 1261 -23949 1
gene 4 477 14 554715 0 1262 554715 1
gene 1 14 342 -358560 0 1454 -358560 1
gene 1 63 585 401728 0 1549 401728 1
gene 1 585 13 421245 0 1550 421245 1
gene 3 48 15 279810 0 1636 279810 1
gene 1 5 672 -31515 0 1789 -31515 1
gene 1 672 15 -9861 0 1790 -9861 1
gene 1 12 699 -262113 0 1853 -262113 1
gene 1 699 13 -115845 0 1854 -115845 1
gene 3 11 766 399171 0 2015 399171 1
gene 3 766 15 -186279 0 2016 -186279 1
gene 2 2 833 109252 0 2191 109252 1
gene 2 833 15 -136449 0 2192 -136449 1
gene 2 766 766 -312088 1 2255 -312088 1
gene 3 7 63 53187 0 2707 53187 1
gene 4 84 699 95914 0 2831 95914 1
genomeend 49


/* Organism #75 Fitness: 160.000000 Time: 0 */
/* Position #75*/
#1 x: 32 y: 20
#2 x: 60 y: 23
#3 x: 52 y: 15
#4 x: 78 y: 77
#5 x: 63 y: 80
#6 x: 25 y: 75
genomestart 75
trait 1 1.000000 0.000000 0.000000 0.000000 0.000000 0.000000 0.000000 0.000000 trait 2 48067.000000 0.000000 62481.000000 0.000000 0.000000 0.000000 26897.000000 16325.000000 trait 3 3.000000 0.000000 0.000000 0.000000 0.000000 0.000000 0.000000 0.000000 trait 4 2.000000 0.000000 18432.000000 0.000000 100000.000000 0.000000 14232.000000 0.000000 node 1 3 1 3
node 2 1 1 1
node 3 4 1 1
node 4 3 1 1
node 5 4 1 1
node 6 3 1 1
node 7 3 1 1
node 8 3 1 1
node 9 1 1 1
node 10 1 1 1
node 11 2 1 1
node 12 2 1 1
node 13 3 0 2
node 14 2 0 2
node 15 1 0 2
node 22 1 0 0
node 48 1 0 0
node 63 1 0 0
node 84 1 0 0
node 190 4 0 0
node 224 1 0 0
node 265 1 0 0
node 328 1 0 0
node 342 1 0 0
node 477 1 0 0
node 585 1 0 0
node 672 1 0 0
node 699 1 0 0
node 766 1 0 0
node 833 1 0 0
node 1058 1 0 0
gene 1 1 13 -600 0 1 -600 1
gene 1 2 13 -361365 0 2 -361365 0
gene 3 3 13 -663108 0 3 -663108 1
gene 4 4 13 3024 0 4 3024 1
gene 4 5 13 239307 0 5 239307 0
gene 1 6 13 -335904 0 6 -335904 0
gene 3 7 13 -291693 0 7 -291693 1
gene 3 8 13 -79187 0 8 -79187 1
gene 1 9 13 -56933 0 9 -56933 1
gene 4 10 13 -276523 0 10 -276523 1
gene 3 11 13 42362 0 11 42362 1
gene 1 12 13 614648 0 12 614648 1
gene 2 1 14 -800000 0 13 -800000 1
gene 1 2 14 243579 0 14 243579 1
gene 1 3 14 -424617 0 15 -424617 0
gene 2 4 14 307710 0 16 307710 1
gene 2 5 14 42891 0 17 42891 1
gene 3 6 14 74154 0 18 74154 1
gene 4 7 14 285542 0 19 285542 0
gene 4 8 14 -96162 0 20 -96162 1
gene 2 9 14 -203436 0 21 -203436 1
gene 4 10 14 595092 0 22 595092 0
gene 4 11 14 -173531 0 23 -173531 0
gene 3 12 14 -77022 0 24 -77022 0
gene 2 1 15 -91998 0 25 -91998 1
gene 2 2 15 -129290 0 26 -129290 0
gene 4 3 15 283359 0 27 283359 1
gene 4 4 15 -11619 0 28 -11619 1
gene 1 5 15 2679 0 29 2679 0
gene 4 6 15 627647 0 30 627647 0
gene 2 7 15 447192 0 31 447192 1
gene 4 8 15 -365749 0 32 -365749 1
gene 1 9 15 -120066 0 33 -120066 1
gene 3 10 15 537204 0 34 537204 1
gene 3 11 15 -168753 0 35 -168753 0
gene 2 12 15 703511 0 36 703511 1
gene 2 5 22 111707 0 50 111707 1
gene 2 22 14 -147549 0 51 -147549 1
gene 1 6 48 -422907 0 108 -422907 1
gene 1 48 13 -12840 0 109 -12840 0
gene 1 2 63 180359 0 153 180359 1
gene 1 63 13 103824 0 154 103824 1
gene 1 6 84 -751080 0 215 -751080 1
gene 1 84 14 540804 0 216 540804 1
gene 3 4 22 374388 0 283 374388 1
gene 3 12 190 -170066 0 501 -170066 1
gene 3 190 14 140217 0 502 140217 1
gene 4 13 22 151086 0 570 151086 1
gene 3 190 224 -115812 0 593 -115812 1
gene 3 224 14 381915 0 594 381915 1
gene 3 1 224 296340 0 655 296340 1
gene 1 6 265 94683 0 700 94683 1
gene 1 265 48 50688 0 701 50688 1
gene 4 84 190 410643 0 813 410643 1
gene 3 4 328 -212511 0 869 -212511 1
gene 3 328 22 241668 0 870 241668 1
gene 2 7 342 513819 0 912 513819 1
gene 2 342 15 -604533 0 913 -604533 1
gene 4 11 265 -407973 0 1175 -407973 1
gene 4 8 477 67929 0 1261 67929 1
gene 4 477 14 12942 0 1262 12942 1
gene 1 14 342 109881 0 1454 109881 1
gene 1 63 585 401728 0 1549 401728 1
gene 1 585 13 780288 0 1550 780288 1
gene 3 48 15 443463 0 1636 443463 1
gene 1 5 672 -150522 0 1789 -150522 1
gene 1 672 15 -363228 0 1790 -363228 1
gene 1 12 699 -324591 0 1853 -324591 1
gene 1 699 13 76938 0 1854 76938 1
gene 3 11 766 -10950 0 2015 -10950 1
gene 3 766 15 -533730 0 2016 -533730 1
gene 2 2 833 -267875 0 2191 -267875 1
gene 2 833 15 -253974 0 2192 -253974 1
gene 2 766 766 -420646 1 2255 -420646 1
gene 4 10 1058 -23468 0 2774 -23468 1
gene 4 1058 14 370191 0 2775 370191 1
genomeend 75


