/* Organism #4 Fitness: 100.000000 Time: 0 */
/* Position #4*/
#1 x: 30 y: 28
#2 x: 26 y: 34
#3 x: 71 y: 17
#4 x: 29 y: 64
#5 x: 69 y: 85
#6 x: 25 y: 79
genomestart 4
node 1 1 1 3
node 2 2 1 1
node 3 1 1 1
node 4 4 1 1
node 5 3 1 1
node 6 1 1 1
node 7 3 1 1
node 8 1 1 1
node 9 4 1 1
node 10 2 1 1
node 11 2 1 1
node 12 4 1 1
node 13 2 0 2
node 14 4 0 2
node 15 1 0 2
gene 3 1 13 172332 0 1 172332 1
gene 4 2 13 264279 0 2 264279 1
gene 4 3 13 529280 0 3 529280 1
gene 4 4 13 -603300 0 4 -603300 1
gene 4 5 13 -317862 0 5 -317862 1
gene 4 6 13 -783521 0 6 -783521 1
gene 3 7 13 19668 0 7 19668 1
gene 3 8 13 -188241 0 8 -188241 1
gene 2 9 13 77016 0 9 77016 1
gene 1 10 13 -128643 0 10 -128643 1
gene 4 11 13 406971 0 11 406971 1
gene 2 12 13 242277 0 12 242277 1
gene 3 1 14 212823 0 13 212823 1
gene 2 2 14 -98058 0 14 -98058 1
gene 4 3 14 61615 0 15 61615 1
gene 1 4 14 -154140 0 16 -154140 1
gene 3 5 14 -257658 0 17 -257658 1
gene 3 6 14 -229347 0 18 -229347 1
gene 2 7 14 -116292 0 19 -116292 1
gene 4 8 14 -30078 0 20 -30078 1
gene 1 9 14 -19242 0 21 -19242 1
gene 3 10 14 -52074 0 22 -52074 1
gene 2 11 14 279828 0 23 279828 1
gene 1 12 14 -37215 0 24 -37215 1
gene 3 1 15 -472937 0 25 -472937 1
gene 2 2 15 -715448 0 26 -715448 1
gene 2 3 15 233022 0 27 233022 1
gene 1 4 15 -769757 0 28 -769757 1
gene 2 5 15 -84381 0 29 -84381 1
gene 1 6 15 200547 0 30 200547 1
gene 1 7 15 -376323 0 31 -376323 1
gene 3 8 15 -800000 0 32 -800000 1
gene 2 9 15 289074 0 33 289074 1
gene 2 10 15 58605 0 34 58605 1
gene 2 11 15 -266100 0 35 -266100 1
gene 4 12 15 232038 0 36 232038 1
gene 4 15 13 -154885 0 112 -154885 1
genomeend 4


/* Organism #5 Fitness: 100.000000 Time: 0 */
/* Position #5*/
#1 x: 30 y: 28
#2 x: 26 y: 34
#3 x: 71 y: 17
#4 x: 29 y: 64
#5 x: 69 y: 85
#6 x: 25 y: 79
genomestart 5
node 1 1 1 3
node 2 2 1 1
node 3 1 1 1
node 4 4 1 1
node 5 3 1 1
node 6 1 1 1
node 7 3 1 1
node 8 1 1 1
node 9 4 1 1
node 10 2 1 1
node 11 2 1 1
node 12 4 1 1
node 13 2 0 2
node 14 4 0 2
node 15 1 0 2
gene 3 1 13 274890 0 1 274890 1
gene 4 2 13 465333 0 2 465333 1
gene 4 3 13 775787 0 3 775787 1
gene 4 4 13 -207000 0 4 -207000 1
gene 4 5 13 -450417 0 5 -450417 1
gene 4 6 13 -800000 0 6 -800000 1
gene 3 7 13 85929 0 7 85929 1
gene 3 8 13 4305 0 8 4305 1
gene 2 9 13 46227 0 9 46227 1
gene 1 10 13 -192984 0 10 -192984 1
gene 4 11 13 294486 0 11 294486 1
gene 2 12 13 -12996 0 12 -12996 1
gene 3 1 14 48426 0 13 48426 1
gene 2 2 14 -125184 0 14 -125184 1
gene 4 3 14 513214 0 15 513214 1
gene 1 4 14 4209 0 16 4209 1
gene 3 5 14 -14751 0 17 -14751 1
gene 3 6 14 -2187 0 18 -2187 1
gene 2 7 14 -54669 0 19 -54669 1
gene 4 8 14 -311511 0 20 -311511 1
gene 1 9 14 96312 0 21 96312 1
gene 3 10 14 -431151 0 22 -431151 1
gene 2 11 14 279075 0 23 279075 1
gene 1 12 14 -93396 0 24 -93396 1
gene 3 1 15 -800000 0 25 -800000 1
gene 2 2 15 -800000 0 26 -800000 1
gene 2 3 15 -161967 0 27 -161967 1
gene 1 4 15 -702422 0 28 -702422 1
gene 2 5 15 -437988 0 29 -437988 1
gene 1 6 15 412101 0 30 412101 1
gene 1 7 15 -307857 0 31 -307857 1
gene 3 8 15 -606518 0 32 -606518 1
gene 2 9 15 88221 0 33 88221 1
gene 2 10 15 -9675 0 34 -9675 1
gene 2 11 15 245967 0 35 245967 1
gene 4 12 15 3804 0 36 3804 1
gene 4 15 13 -384844 0 112 -384844 1
genomeend 5


/* Organism #36 Fitness: 180.000000 Time: 0 */
/* Position #36*/
#1 x: 42 y: 27
#2 x: 72 y: 32
#3 x: 27 y: 37
#4 x: 22 y: 84
#5 x: 36 y: 76
#6 x: 33 y: 79
genomestart 36
node 1 1 1 3
node 2 2 1 1
node 3 1 1 1
node 4 4 1 1
node 5 3 1 1
node 6 1 1 1
node 7 3 1 1
node 8 1 1 1
node 9 4 1 1
node 10 2 1 1
node 11 1 1 1
node 12 4 1 1
node 13 2 0 2
node 14 4 0 2
node 15 1 0 2
gene 3 1 13 -246108 0 1 -246108 1
gene 4 2 13 724920 0 2 724920 1
gene 4 3 13 735495 0 3 735495 1
gene 4 4 13 684713 0 4 684713 1
gene 4 5 13 -229197 0 5 -229197 1
gene 4 6 13 222282 0 6 222282 1
gene 3 7 13 -506532 0 7 -506532 1
gene 3 8 13 372009 0 8 372009 1
gene 2 9 13 133835 0 9 133835 1
gene 1 10 13 419802 0 10 419802 1
gene 4 11 13 63630 0 11 63630 1
gene 2 12 13 446622 0 12 446622 1
gene 3 1 14 112398 0 13 112398 1
gene 2 2 14 -101085 0 14 -101085 1
gene 4 3 14 800000 0 15 800000 1
gene 1 4 14 -536051 0 16 -536051 1
gene 3 5 14 -518181 0 17 -518181 1
gene 2 6 14 219591 0 18 219591 1
gene 2 7 14 425769 0 19 425769 1
gene 4 8 14 -91965 0 20 -91965 1
gene 1 9 14 165363 0 21 165363 1
gene 3 10 14 -147537 0 22 -147537 1
gene 2 11 14 119163 0 23 119163 1
gene 1 12 14 773218 0 24 773218 1
gene 3 1 15 517939 0 25 517939 1
gene 2 2 15 745926 0 26 745926 1
gene 2 3 15 103117 0 27 103117 1
gene 1 4 15 -241833 0 28 -241833 1
gene 2 5 15 -40509 0 29 -40509 1
gene 1 6 15 121980 0 30 121980 1
gene 1 7 15 324486 0 31 324486 1
gene 3 8 15 1818 0 32 1818 1
gene 2 9 15 1674 0 33 1674 1
gene 2 10 15 312486 0 34 312486 1
gene 2 11 15 48843 0 35 48843 1
gene 4 12 15 -275475 0 36 -275475 1
genomeend 36


/* Organism #37 Fitness: 140.000000 Time: 0 */
/* Position #37*/
#1 x: 42 y: 27
#2 x: 72 y: 32
#3 x: 27 y: 37
#4 x: 22 y: 84
#5 x: 36 y: 76
#6 x: 33 y: 79
genomestart 37
node 1 1 1 3
node 2 2 1 1
node 3 1 1 1
node 4 4 1 1
node 5 3 1 1
node 6 1 1 1
node 7 3 1 1
node 8 1 1 1
node 9 4 1 1
node 10 2 1 1
node 11 1 1 1
node 12 4 1 1
node 13 2 0 2
node 14 4 0 2
node 15 1 0 2
gene 3 1 13 -246108 0 1 -246108 1
gene 4 2 13 448956 0 2 448956 1
gene 4 3 13 790482 0 3 790482 1
gene 4 4 13 800000 0 4 800000 1
gene 4 5 13 -66645 0 5 -66645 1
gene 4 6 13 207267 0 6 207267 1
gene 3 7 13 -367914 0 7 -367914 1
gene 3 8 13 211242 0 8 211242 1
gene 2 9 13 234194 0 9 234194 1
gene 1 10 13 373326 0 10 373326 1
gene 4 11 13 73878 0 11 73878 1
gene 2 12 13 477537 0 12 477537 1
gene 3 1 14 130530 0 13 130530 1
gene 2 2 14 -332991 0 14 -332991 1
gene 4 3 14 623175 0 15 623175 1
gene 1 4 14 -536051 0 16 -536051 1
gene 3 5 14 -246813 0 17 -246813 1
gene 2 6 14 186153 0 18 186153 1
gene 2 7 14 425769 0 19 425769 1
gene 4 8 14 -91965 0 20 -91965 1
gene 1 9 14 182346 0 21 182346 1
gene 3 10 14 204090 0 22 204090 1
gene 2 11 14 140886 0 23 140886 1
gene 1 12 14 619663 0 24 619663 1
gene 3 1 15 233746 0 25 233746 1
gene 2 2 15 457755 0 26 457755 1
gene 2 3 15 182026 0 27 182026 1
gene 1 4 15 -262320 0 28 -262320 1
gene 2 5 15 -371535 0 29 -371535 1
gene 1 6 15 46353 0 30 46353 1
gene 1 7 15 106788 0 31 106788 1
gene 3 8 15 -157074 0 32 -157074 1
gene 2 9 15 -259098 0 33 -259098 1
gene 2 10 15 333336 0 34 333336 1
gene 2 11 15 330810 0 35 330810 1
gene 4 12 15 212598 0 36 212598 1
gene 2 14 13 -6162 0 162 -6162 1
genomeend 37


/* Organism #52 Fitness: 140.000000 Time: 0 */
/* Position #52*/
#1 x: 44 y: 34
#2 x: 31 y: 29
#3 x: 67 y: 24
#4 x: 58 y: 71
#5 x: 74 y: 82
#6 x: 37 y: 76
genomestart 52
node 1 1 1 3
node 2 2 1 1
node 3 1 1 1
node 4 4 1 1
node 5 3 1 1
node 6 1 1 1
node 7 3 1 1
node 8 1 1 1
node 9 4 1 1
node 10 2 1 1
node 11 2 1 1
node 12 4 1 1
node 13 2 0 2
node 14 4 0 2
node 15 1 0 2
gene 3 1 13 -233073 0 1 -233073 1
gene 4 2 13 76992 0 2 76992 1
gene 4 3 13 461772 0 3 461772 1
gene 4 4 13 87828 0 4 87828 1
gene 4 5 13 -361494 0 5 -361494 1
gene 4 6 13 -109527 0 6 -109527 1
gene 3 7 13 -51318 0 7 -51318 1
gene 3 8 13 -717117 0 8 -717117 1
gene 2 9 13 613616 0 9 613616 1
gene 1 10 13 -169143 0 10 -169143 1
gene 4 11 13 -219441 0 11 -219441 1
gene 2 12 13 -26508 0 12 -26508 1
gene 3 1 14 -95940 0 13 -95940 1
gene 2 2 14 -35145 0 14 -35145 1
gene 4 3 14 686608 0 15 686608 1
gene 1 4 14 684606 0 16 684606 1
gene 3 5 14 -306243 0 17 -306243 1
gene 3 6 14 -150180 0 18 -150180 1
gene 2 7 14 -40311 0 19 -40311 1
gene 4 8 14 -153711 0 20 -153711 1
gene 1 9 14 296697 0 21 296697 1
gene 3 10 14 507084 0 22 507084 1
gene 2 11 14 7062 0 23 7062 1
gene 1 12 14 -158313 0 24 -158313 1
gene 3 1 15 -599678 0 25 -599678 1
gene 2 2 15 167814 0 26 167814 1
gene 2 3 15 -42065 0 27 -42065 1
gene 1 4 15 -295623 0 28 -295623 1
gene 2 5 15 42630 0 29 42630 1
gene 1 6 15 162036 0 30 162036 1
gene 1 7 15 -532935 0 31 -532935 1
gene 3 8 15 -206244 0 32 -206244 1
gene 2 9 15 94569 0 33 94569 1
gene 2 10 15 251661 0 34 251661 1
gene 2 11 15 686625 0 35 686625 1
gene 4 12 15 -144300 0 36 -144300 1
gene 1 15 13 -165807 0 136 -165807 1
genomeend 52


/* Organism #53 Fitness: 180.000000 Time: 0 */
/* Position #53*/
#1 x: 44 y: 34
#2 x: 31 y: 29
#3 x: 67 y: 24
#4 x: 58 y: 71
#5 x: 74 y: 82
#6 x: 37 y: 76
genomestart 53
node 1 1 1 3
node 2 2 1 1
node 3 1 1 1
node 4 4 1 1
node 5 3 1 1
node 6 1 1 1
node 7 3 1 1
node 8 1 1 1
node 9 4 1 1
node 10 2 1 1
node 11 2 1 1
node 12 4 1 1
node 13 2 0 2
node 14 4 0 2
node 15 1 0 2
gene 3 1 13 88605 0 1 88605 1
gene 4 2 13 48372 0 2 48372 1
gene 4 3 13 187353 0 3 187353 1
gene 4 4 13 177069 0 4 177069 1
gene 4 5 13 -775743 0 5 -775743 1
gene 4 6 13 -284709 0 6 -284709 1
gene 3 7 13 93186 0 7 93186 1
gene 3 8 13 -524880 0 8 -524880 1
gene 2 9 13 778256 0 9 778256 1
gene 1 10 13 -364941 0 10 -364941 1
gene 4 11 13 -15588 0 11 -15588 1
gene 2 12 13 120987 0 12 120987 1
gene 3 1 14 404178 0 13 404178 1
gene 2 2 14 -251952 0 14 -251952 1
gene 4 3 14 485119 0 15 485119 1
gene 1 4 14 401733 0 16 401733 1
gene 3 5 14 -569292 0 17 -569292 1
gene 3 6 14 -267345 0 18 -267345 1
gene 2 7 14 -127332 0 19 -127332 1
gene 4 8 14 -133380 0 20 -133380 1
gene 1 9 14 -158775 0 21 -158775 1
gene 3 10 14 568221 0 22 568221 1
gene 2 11 14 -254295 0 23 -254295 1
gene 1 12 14 -516450 0 24 -516450 1
gene 3 1 15 -532067 0 25 -532067 1
gene 2 2 15 145857 0 26 145857 1
gene 2 3 15 132952 0 27 132952 1
gene 1 4 15 -45714 0 28 -45714 1
gene 2 5 15 -154284 0 29 -154284 1
gene 1 6 15 169284 0 30 169284 1
gene 1 7 15 -640818 0 31 -640818 1
gene 3 8 15 -270540 0 32 -270540 1
gene 2 9 15 306378 0 33 306378 1
gene 2 10 15 547248 0 34 547248 1
gene 2 11 15 770298 0 35 770298 1
gene 4 12 15 -144300 0 36 -144300 1
gene 1 15 13 112335 0 136 112335 1
genomeend 53


/* Organism #68 Fitness: 160.000000 Time: 0 */
/* Position #68*/
#1 x: 20 y: 40
#2 x: 78 y: 15
#3 x: 62 y: 33
#4 x: 38 y: 79
#5 x: 35 y: 82
#6 x: 81 y: 74
genomestart 68
node 1 1 1 3
node 2 2 1 1
node 3 1 1 1
node 4 4 1 1
node 5 3 1 1
node 6 1 1 1
node 7 3 1 1
node 8 1 1 1
node 9 4 1 1
node 10 2 1 1
node 11 2 1 1
node 12 4 1 1
node 13 2 0 2
node 14 4 0 2
node 15 1 0 2
gene 3 1 13 -213669 0 1 -213669 1
gene 4 2 13 -366633 0 2 -366633 1
gene 4 3 13 -61419 0 3 -61419 1
gene 4 4 13 -347331 0 4 -347331 1
gene 4 5 13 -160374 0 5 -160374 1
gene 4 6 13 -695507 0 6 -695507 1
gene 3 7 13 25542 0 7 25542 1
gene 3 8 13 285639 0 8 285639 1
gene 2 9 13 -312630 0 9 -312630 1
gene 1 10 13 -383697 0 10 -383697 1
gene 4 11 13 205083 0 11 205083 1
gene 2 12 13 -110916 0 12 -110916 1
gene 3 1 14 674607 0 13 674607 1
gene 2 2 14 43218 0 14 43218 1
gene 4 3 14 299130 0 15 299130 1
gene 1 4 14 -211383 0 16 -211383 1
gene 3 5 14 268854 0 17 268854 1
gene 3 6 14 -71424 0 18 -71424 1
gene 2 7 14 800000 0 19 800000 1
gene 4 8 14 -470061 0 20 -470061 1
gene 1 9 14 115189 0 21 115189 1
gene 3 10 14 -795470 0 22 -795470 1
gene 2 11 14 -126105 0 23 -126105 1
gene 1 12 14 800000 0 24 800000 1
gene 3 1 15 -320910 0 25 -320910 1
gene 2 2 15 -51708 0 26 -51708 1
gene 2 3 15 -106364 0 27 -106364 1
gene 1 4 15 -779576 0 28 -779576 1
gene 2 5 15 152964 0 29 152964 1
gene 1 6 15 -340452 0 30 -340452 1
gene 1 7 15 414474 0 31 414474 1
gene 3 8 15 203325 0 32 203325 1
gene 2 9 15 800000 0 33 800000 1
gene 2 10 15 18777 0 34 18777 1
gene 2 11 15 -282093 0 35 -282093 1
gene 4 12 15 -439947 0 36 -439947 1
genomeend 68


/* Organism #69 Fitness: 180.000000 Time: 0 */
/* Position #69*/
#1 x: 20 y: 40
#2 x: 78 y: 15
#3 x: 62 y: 33
#4 x: 38 y: 79
#5 x: 35 y: 82
#6 x: 81 y: 74
genomestart 69
node 1 1 1 3
node 2 2 1 1
node 3 1 1 1
node 4 4 1 1
node 5 3 1 1
node 6 1 1 1
node 7 3 1 1
node 8 1 1 1
node 9 4 1 1
node 10 2 1 1
node 11 2 1 1
node 12 4 1 1
node 13 2 0 2
node 14 4 0 2
node 15 1 0 2
gene 3 1 13 -203187 0 1 -203187 1
gene 4 2 13 -282600 0 2 -282600 1
gene 4 3 13 -77973 0 3 -77973 1
gene 4 4 13 -274014 0 4 -274014 1
gene 4 5 13 -86172 0 5 -86172 1
gene 4 6 13 -638405 0 6 -638405 1
gene 3 7 13 -245913 0 7 -245913 1
gene 3 8 13 408183 0 8 408183 1
gene 2 9 13 -350394 0 9 -350394 1
gene 1 10 13 -653661 0 10 -653661 1
gene 4 11 13 186036 0 11 186036 1
gene 2 12 13 -256491 0 12 -256491 1
gene 3 1 14 800000 0 13 800000 1
gene 2 2 14 91488 0 14 91488 1
gene 4 3 14 499014 0 15 499014 1
gene 1 4 14 -266775 0 16 -266775 1
gene 3 5 14 289035 0 17 289035 1
gene 3 6 14 116157 0 18 116157 1
gene 2 7 14 800000 0 19 800000 1
gene 4 8 14 -228612 0 20 -228612 1
gene 1 9 14 240319 0 21 240319 1
gene 3 10 14 -800000 0 22 -800000 1
gene 2 11 14 9543 0 23 9543 1
gene 1 12 14 797582 0 24 797582 1
gene 3 1 15 -175689 0 25 -175689 1
gene 2 2 15 -199923 0 26 -199923 1
gene 2 3 15 -203954 0 27 -203954 1
gene 1 4 15 -738728 0 28 -738728 1
gene 2 5 15 122031 0 29 122031 1
gene 1 6 15 -340452 0 30 -340452 1
gene 1 7 15 467301 0 31 467301 1
gene 3 8 15 263595 0 32 263595 1
gene 2 9 15 227076 0 33 227076 1
gene 2 10 15 147618 0 34 147618 1
gene 2 11 15 -74949 0 35 -74949 1
gene 4 12 15 -491067 0 36 -491067 1
genomeend 69


/* Organism #84 Fitness: 160.000000 Time: 0 */
/* Position #84*/
#1 x: 78 y: 34
#2 x: 53 y: 28
#3 x: 23 y: 38
#4 x: 83 y: 77
#5 x: 32 y: 67
#6 x: 70 y: 69
genomestart 84
node 1 1 1 3
node 2 2 1 1
node 3 1 1 1
node 4 4 1 1
node 5 3 1 1
node 6 1 1 1
node 7 3 1 1
node 8 1 1 1
node 9 4 1 1
node 10 2 1 1
node 11 2 1 1
node 12 4 1 1
node 13 2 0 2
node 14 4 0 2
node 15 1 0 2
gene 3 1 13 128577 0 1 128577 1
gene 4 2 13 -66864 0 2 -66864 1
gene 4 3 13 776979 0 3 776979 1
gene 4 4 13 -83394 0 4 -83394 1
gene 4 5 13 -429465 0 5 -429465 1
gene 4 6 13 -552251 0 6 -552251 1
gene 3 7 13 -1455 0 7 -1455 1
gene 3 8 13 356751 0 8 356751 1
gene 2 9 13 221472 0 9 221472 1
gene 1 10 13 -108432 0 10 -108432 1
gene 4 11 13 340182 0 11 340182 1
gene 2 12 13 145521 0 12 145521 1
gene 3 1 14 196806 0 13 196806 1
gene 2 2 14 -70572 0 14 -70572 1
gene 4 3 14 28419 0 15 28419 1
gene 1 4 14 166062 0 16 166062 1
gene 3 5 14 137367 0 17 137367 1
gene 3 6 14 664158 0 18 664158 1
gene 2 7 14 -60411 0 19 -60411 1
gene 4 8 14 -12063 0 20 -12063 1
gene 1 9 14 -251577 0 21 -251577 1
gene 3 10 14 -284820 0 22 -284820 1
gene 2 11 14 233880 0 23 233880 1
gene 1 12 14 320811 0 24 320811 1
gene 3 1 15 -88755 0 25 -88755 1
gene 2 2 15 244179 0 26 244179 1
gene 2 3 15 -214017 0 27 -214017 1
gene 1 4 15 -513972 0 28 -513972 1
gene 2 5 15 -237516 0 29 -237516 1
gene 1 6 15 -135846 0 30 -135846 1
gene 1 7 15 130845 0 31 130845 1
gene 3 8 15 -273150 0 32 -273150 1
gene 2 9 15 47670 0 33 47670 1
gene 2 10 15 233592 0 34 233592 1
gene 2 11 15 274074 0 35 274074 1
gene 4 12 15 179856 0 36 179856 1
gene 4 15 13 -144141 0 112 -144141 1
genomeend 84


/* Organism #85 Fitness: 140.000000 Time: 0 */
/* Position #85*/
#1 x: 78 y: 34
#2 x: 53 y: 28
#3 x: 23 y: 38
#4 x: 83 y: 77
#5 x: 32 y: 67
#6 x: 70 y: 69
genomestart 85
node 1 1 1 3
node 2 2 1 1
node 3 1 1 1
node 4 4 1 1
node 5 3 1 1
node 6 1 1 1
node 7 3 1 1
node 8 1 1 1
node 9 4 1 1
node 10 2 1 1
node 11 2 1 1
node 12 4 1 1
node 13 2 0 2
node 14 4 0 2
node 15 1 0 2
gene 3 1 13 78369 0 1 78369 1
gene 4 2 13 205332 0 2 205332 1
gene 4 3 13 776979 0 3 776979 1
gene 4 4 13 -404448 0 4 -404448 1
gene 4 5 13 -268710 0 5 -268710 1
gene 4 6 13 -800000 0 6 -800000 1
gene 3 7 13 198315 0 7 198315 1
gene 3 8 13 180252 0 8 180252 1
gene 2 9 13 271659 0 9 271659 1
gene 1 10 13 -149868 0 10 -149868 1
gene 4 11 13 487308 0 11 487308 1
gene 2 12 13 287889 0 12 287889 1
gene 3 1 14 -233460 0 13 -233460 1
gene 2 2 14 447456 0 14 447456 1
gene 4 3 14 402301 0 15 402301 1
gene 1 4 14 371157 0 16 371157 1
gene 3 5 14 86478 0 17 86478 1
gene 3 6 14 593784 0 18 593784 1
gene 2 7 14 -349908 0 19 -349908 1
gene 4 8 14 -227148 0 20 -227148 1
gene 1 9 14 -156903 0 21 -156903 1
gene 3 10 14 247347 0 22 247347 1
gene 2 11 14 -62952 0 23 -62952 1
gene 1 12 14 498828 0 24 498828 1
gene 3 1 15 -216360 0 25 -216360 1
gene 2 2 15 80418 0 26 80418 1
gene 2 3 15 41913 0 27 41913 1
gene 1 4 15 -594906 0 28 -594906 1
gene 2 5 15 -95922 0 29 -95922 1
gene 1 6 15 125034 0 30 125034 1
gene 1 7 15 250881 0 31 250881 1
gene 3 8 15 -371544 0 32 -371544 1
gene 2 9 15 -255126 0 33 -255126 1
gene 2 10 15 226437 0 34 226437 1
gene 2 11 15 332133 0 35 332133 1
gene 4 12 15 -185799 0 36 -185799 1
gene 4 15 13 26784 0 112 26784 1
genomeend 85


/* Organism #100 Fitness: 120.000000 Time: 0 */
/* Position #100*/
#1 x: 19 y: 16
#2 x: 59 y: 37
#3 x: 72 y: 25
#4 x: 37 y: 73
#5 x: 21 y: 74
#6 x: 23 y: 73
genomestart 100
node 1 1 1 3
node 2 2 1 1
node 3 1 1 1
node 4 4 1 1
node 5 3 1 1
node 6 1 1 1
node 7 1 1 1
node 8 1 1 1
node 9 4 1 1
node 10 2 1 1
node 11 2 1 1
node 12 4 1 1
node 13 2 0 2
node 14 4 0 2
node 15 1 0 2
gene 3 1 13 -44505 0 1 -44505 1
gene 4 2 13 51210 0 2 51210 1
gene 4 3 13 -109191 0 3 -109191 1
gene 4 4 13 462846 0 4 462846 1
gene 4 5 13 -177552 0 5 -177552 1
gene 4 6 13 -800000 0 6 -800000 1
gene 3 7 13 201732 0 7 201732 1
gene 3 8 13 -9615 0 8 -9615 1
gene 2 9 13 78396 0 9 78396 1
gene 1 10 13 684546 0 10 684546 1
gene 4 11 13 58767 0 11 58767 1
gene 2 12 13 241068 0 12 241068 1
gene 3 1 14 205005 0 13 205005 1
gene 2 2 14 -517382 0 14 -517382 1
gene 4 3 14 212398 0 15 212398 1
gene 1 4 14 -485460 0 16 -485460 1
gene 3 5 14 422749 0 17 422749 1
gene 3 6 14 4764 0 18 4764 1
gene 2 7 14 401162 0 19 401162 1
gene 4 8 14 -322995 0 20 -322995 1
gene 1 9 14 -144141 0 21 -144141 1
gene 3 10 14 -781068 0 22 -781068 1
gene 2 11 14 433814 0 23 433814 1
gene 1 12 14 753809 0 24 753809 1
gene 3 1 15 204000 0 25 204000 1
gene 2 2 15 62376 0 26 62376 1
gene 2 3 15 438502 0 27 438502 1
gene 1 4 15 -775256 0 28 -775256 1
gene 2 5 15 195621 0 29 195621 1
gene 1 6 15 274710 0 30 274710 1
gene 1 7 15 163608 0 31 163608 1
gene 3 8 15 -231468 0 32 -231468 1
gene 2 9 15 -181998 0 33 -181998 1
gene 2 10 15 -112752 0 34 -112752 1
gene 2 11 15 1803 0 35 1803 1
gene 4 12 15 -446406 0 36 -446406 1
gene 2 13 13 -18463 1 166 -18463 1
genomeend 100


/* Organism #101 Fitness: 120.000000 Time: 0 */
/* Position #101*/
#1 x: 19 y: 16
#2 x: 59 y: 37
#3 x: 72 y: 25
#4 x: 37 y: 73
#5 x: 21 y: 74
#6 x: 23 y: 73
genomestart 101
node 1 1 1 3
node 2 2 1 1
node 3 1 1 1
node 4 4 1 1
node 5 3 1 1
node 6 1 1 1
node 7 3 1 1
node 8 1 1 1
node 9 4 1 1
node 10 2 1 1
node 11 2 1 1
node 12 4 1 1
node 13 2 0 2
node 14 4 0 2
node 15 1 0 2
gene 3 1 13 369333 0 1 369333 1
gene 4 2 13 420288 0 2 420288 1
gene 4 3 13 86082 0 3 86082 1
gene 4 4 13 32001 0 4 32001 1
gene 4 5 13 -112611 0 5 -112611 1
gene 4 6 13 -650156 0 6 -650156 1
gene 3 7 13 11628 0 7 11628 1
gene 3 8 13 -104538 0 8 -104538 1
gene 2 9 13 342252 0 9 342252 1
gene 1 10 13 259809 0 10 259809 1
gene 4 11 13 183621 0 11 183621 1
gene 2 12 13 268065 0 12 268065 1
gene 3 1 14 262026 0 13 262026 1
gene 2 2 14 192540 0 14 192540 1
gene 4 3 14 187915 0 15 187915 1
gene 1 4 14 -430299 0 16 -430299 1
gene 3 5 14 -251196 0 17 -251196 1
gene 3 6 14 298413 0 18 298413 1
gene 2 7 14 -222747 0 19 -222747 1
gene 4 8 14 -165831 0 20 -165831 1
gene 1 9 14 -379401 0 21 -379401 1
gene 3 10 14 -269913 0 22 -269913 1
gene 2 11 14 325140 0 23 325140 1
gene 1 12 14 -175116 0 24 -175116 1
gene 3 1 15 -202596 0 25 -202596 1
gene 2 2 15 -800000 0 26 -800000 1
gene 2 3 15 284493 0 27 284493 1
gene 1 4 15 -627665 0 28 -627665 1
gene 2 5 15 -482244 0 29 -482244 1
gene 1 6 15 336708 0 30 336708 1
gene 1 7 15 -307857 0 31 -307857 1
gene 3 8 15 -800000 0 32 -800000 1
gene 2 9 15 350190 0 33 350190 1
gene 2 10 15 -103908 0 34 -103908 1
gene 2 11 15 140667 0 35 140667 1
gene 4 12 15 54795 0 36 54795 1
gene 4 15 13 68243 0 112 68243 1
genomeend 101


/* Organism #116 Fitness: 120.000000 Time: 0 */
/* Position #116*/
#1 x: 77 y: 22
#2 x: 85 y: 15
#3 x: 71 y: 21
#4 x: 26 y: 67
#5 x: 78 y: 75
#6 x: 78 y: 70
genomestart 116
node 1 1 1 3
node 2 2 1 1
node 3 1 1 1
node 4 4 1 1
node 5 3 1 1
node 6 1 1 1
node 7 1 1 1
node 8 1 1 1
node 9 4 1 1
node 10 2 1 1
node 11 2 1 1
node 12 4 1 1
node 13 2 0 2
node 14 4 0 2
node 15 1 0 2
gene 3 1 13 -424293 0 1 -424293 1
gene 4 2 13 -11643 0 2 -11643 1
gene 4 3 13 -263097 0 3 -263097 1
gene 4 4 13 -2610 0 4 -2610 1
gene 4 5 13 -800000 0 5 -800000 1
gene 4 6 13 -524300 0 6 -524300 1
gene 3 7 13 -160032 0 7 -160032 1
gene 3 8 13 174516 0 8 174516 1
gene 2 9 13 -51402 0 9 -51402 1
gene 1 10 13 313593 0 10 313593 1
gene 4 11 13 173601 0 11 173601 1
gene 2 12 13 35631 0 12 35631 1
gene 3 1 14 480222 0 13 480222 1
gene 2 2 14 -686351 0 14 -686351 1
gene 4 3 14 168069 0 15 168069 1
gene 1 4 14 -128796 0 16 -128796 1
gene 3 5 14 452515 0 17 452515 1
gene 3 6 14 -166689 0 18 -166689 1
gene 2 7 14 112151 0 19 112151 1
gene 4 8 14 -218031 0 20 -218031 1
gene 1 9 14 57453 0 21 57453 1
gene 3 10 14 -744890 0 22 -744890 1
gene 2 11 14 744434 0 23 744434 1
gene 1 12 14 562109 0 24 562109 1
gene 3 1 15 -800000 0 25 -800000 1
gene 2 2 15 -256071 0 26 -256071 1
gene 2 3 15 70288 0 27 70288 1
gene 1 4 15 -554738 0 28 -554738 1
gene 2 5 15 17268 0 29 17268 1
gene 1 6 15 236679 0 30 236679 1
gene 1 7 15 382080 0 31 382080 1
gene 3 8 15 -475485 0 32 -475485 1
gene 2 9 15 472038 0 33 472038 1
gene 2 10 15 254811 0 34 254811 1
gene 2 11 15 275472 0 35 275472 1
gene 4 12 15 -352788 0 36 -352788 1
genomeend 116


/* Organism #132 Fitness: 120.000000 Time: 0 */
/* Position #132*/
#1 x: 84 y: 29
#2 x: 74 y: 27
#3 x: 72 y: 36
#4 x: 72 y: 63
#5 x: 33 y: 65
#6 x: 40 y: 62
genomestart 132
node 1 1 1 3
node 2 2 1 1
node 3 1 1 1
node 4 4 1 1
node 5 3 1 1
node 6 1 1 1
node 7 3 1 1
node 8 1 1 1
node 9 4 1 1
node 10 2 1 1
node 11 2 1 1
node 12 4 1 1
node 13 2 0 2
node 14 4 0 2
node 15 1 0 2
gene 3 1 13 -276528 0 1 -276528 1
gene 4 2 13 -377787 0 2 -377787 1
gene 4 3 13 -116757 0 3 -116757 1
gene 4 4 13 -294069 0 4 -294069 1
gene 4 5 13 -800000 0 5 -800000 1
gene 4 6 13 -96432 0 6 -96432 1
gene 3 7 13 321570 0 7 321570 1
gene 3 8 13 -86451 0 8 -86451 1
gene 2 9 13 275220 0 9 275220 1
gene 1 10 13 -150132 0 10 -150132 1
gene 4 11 13 264420 0 11 264420 1
gene 2 12 13 351894 0 12 351894 1
gene 3 1 14 -104223 0 13 -104223 1
gene 2 2 14 49311 0 14 49311 1
gene 4 3 14 518533 0 15 518533 1
gene 1 4 14 687678 0 16 687678 1
gene 3 5 14 -320598 0 17 -320598 1
gene 3 6 14 205341 0 18 205341 1
gene 2 7 14 -320874 0 19 -320874 1
gene 4 8 14 -79020 0 20 -79020 1
gene 1 9 14 10191 0 21 10191 1
gene 3 10 14 337266 0 22 337266 1
gene 2 11 14 88506 0 23 88506 1
gene 1 12 14 -376113 0 24 -376113 1
gene 3 1 15 -645659 0 25 -645659 1
gene 2 2 15 -96147 0 26 -96147 1
gene 2 3 15 71350 0 27 71350 1
gene 1 4 15 -341088 0 28 -341088 1
gene 2 5 15 -131358 0 29 -131358 1
gene 1 6 15 155094 0 30 155094 1
gene 1 7 15 -744264 0 31 -744264 1
gene 3 8 15 -76983 0 32 -76983 1
gene 2 9 15 440772 0 33 440772 1
gene 2 10 15 692499 0 34 692499 1
gene 2 11 15 686625 0 35 686625 1
gene 4 12 15 -144300 0 36 -144300 1
gene 1 15 13 -87438 0 136 -87438 1
genomeend 132


/* Organism #148 Fitness: 100.000000 Time: 0 */
/* Position #148*/
#1 x: 39 y: 36
#2 x: 77 y: 27
#3 x: 84 y: 20
#4 x: 16 y: 65
#5 x: 44 y: 76
#6 x: 29 y: 63
genomestart 148
node 1 1 1 3
node 2 2 1 1
node 3 1 1 1
node 4 4 1 1
node 5 3 1 1
node 6 1 1 1
node 7 3 1 1
node 8 1 1 1
node 9 4 1 1
node 10 2 1 1
node 11 2 1 1
node 12 4 1 1
node 13 2 0 2
node 14 4 0 2
node 15 1 0 2
gene 3 1 13 -391857 0 1 -391857 1
gene 4 2 13 100632 0 2 100632 1
gene 4 3 13 370971 0 3 370971 1
gene 4 4 13 -147195 0 4 -147195 1
gene 4 5 13 -800000 0 5 -800000 1
gene 4 6 13 -437186 0 6 -437186 1
gene 3 7 13 -101991 0 7 -101991 1
gene 3 8 13 342408 0 8 342408 1
gene 2 9 13 -251676 0 9 -251676 1
gene 1 10 13 -14742 0 10 -14742 1
gene 4 11 13 -204960 0 11 -204960 1
gene 2 12 13 200781 0 12 200781 1
gene 3 1 14 233949 0 13 233949 1
gene 2 2 14 397794 0 14 397794 1
gene 4 3 14 -255315 0 15 -255315 1
gene 1 4 14 33705 0 16 33705 1
gene 3 5 14 -50715 0 17 -50715 1
gene 3 6 14 346767 0 18 346767 1
gene 2 7 14 730421 0 19 730421 1
gene 4 8 14 -207441 0 20 -207441 1
gene 1 9 14 14362 0 21 14362 1
gene 3 10 14 -693461 0 22 -693461 1
gene 2 11 14 251517 0 23 251517 1
gene 1 12 14 223217 0 24 223217 1
gene 3 1 15 -184395 0 25 -184395 1
gene 2 2 15 -391272 0 26 -391272 1
gene 2 3 15 -284075 0 27 -284075 1
gene 1 4 15 -721925 0 28 -721925 1
gene 2 5 15 81498 0 29 81498 1
gene 1 6 15 159609 0 30 159609 1
gene 1 7 15 69546 0 31 69546 1
gene 3 8 15 -800000 0 32 -800000 1
gene 2 9 15 -483825 0 33 -483825 1
gene 2 10 15 43725 0 34 43725 1
gene 2 11 15 -231399 0 35 -231399 1
gene 4 12 15 -299436 0 36 -299436 1
genomeend 148


