/* Organism #1 Fitness: 140.000000 Time: 0 */
/* Position #1*/
#1 x: 40 y: 31
#2 x: 57 y: 36
#3 x: 47 y: 23
#4 x: 32 y: 70
#5 x: 22 y: 83
#6 x: 60 y: 65
genomestart 1
trait 1 25030.000000 0.000000 0.000000 0.000000 28080.000000 0.000000 0.000000 0.000000 trait 2 0.000000 9751.000000 64713.000000 0.000000 0.000000 91042.000000 100000.000000 25558.000000 trait 3 3.000000 0.000000 25972.000000 0.000000 0.000000 78029.000000 0.000000 0.000000 trait 4 93467.000000 0.000000 0.000000 0.000000 49360.000000 0.000000 7697.000000 0.000000 node 1 3 1 3
node 2 3 1 1
node 3 3 1 1
node 4 2 1 1
node 5 3 1 1
node 6 2 1 1
node 7 1 1 1
node 8 1 1 1
node 9 3 1 1
node 10 1 1 1
node 11 2 1 1
node 12 2 1 1
node 13 4 0 2
node 14 1 0 2
node 15 2 0 2
node 25 1 0 0
node 82 3 0 0
node 170 1 0 0
node 261 1 0 0
node 311 1 0 0
node 499 1 0 0
node 510 1 0 0
node 538 1 0 0
node 612 1 0 0
node 623 1 0 0
node 700 1 0 0
node 1134 1 0 0
node 1210 1 0 0
node 1220 1 0 0
node 1344 1 0 0
node 1454 1 0 0
node 1603 1 0 0
node 1614 1 0 0
node 1633 1 0 0
node 1697 1 0 0
node 1783 1 0 0
node 1854 1 0 0
gene 3 1 13 -110034 0 1 -110034 1
gene 3 2 13 -97803 0 2 -97803 0
gene 3 3 13 800000 0 3 800000 1
gene 2 4 13 709499 0 4 709499 1
gene 4 5 13 -38835 0 5 -38835 1
gene 3 6 13 -627164 0 6 -627164 1
gene 4 7 13 574419 0 7 574419 1
gene 2 8 13 71090 0 8 71090 1
gene 1 9 13 -95055 0 9 -95055 1
gene 1 10 13 -334985 0 10 -334985 1
gene 1 11 13 513956 0 11 513956 1
gene 2 12 13 -37197 0 12 -37197 1
gene 3 1 14 -181071 0 13 -181071 1
gene 3 2 14 141558 0 14 141558 0
gene 4 3 14 -549105 0 15 -549105 0
gene 4 4 14 187959 0 16 187959 1
gene 2 5 14 -689504 0 17 -689504 0
gene 2 6 14 -685686 0 18 -685686 0
gene 4 7 14 184026 0 19 184026 0
gene 1 8 14 357222 0 20 357222 1
gene 1 9 14 42693 0 21 42693 1
gene 2 10 14 569615 0 22 569615 1
gene 1 11 14 -71019 0 23 -71019 0
gene 2 12 14 555414 0 24 555414 0
gene 4 1 15 652905 0 25 652905 1
gene 3 2 15 -78019 0 26 -78019 0
gene 4 3 15 -216060 0 27 -216060 0
gene 3 4 15 52515 0 28 52515 1
gene 3 5 15 171813 0 29 171813 1
gene 3 6 15 714782 0 30 714782 1
gene 3 7 15 732743 0 31 732743 1
gene 3 8 15 -327132 0 32 -327132 1
gene 4 9 15 253638 0 33 253638 1
gene 1 10 15 -103368 0 34 -103368 1
gene 4 11 15 426951 0 35 426951 1
gene 2 12 15 524703 0 36 524703 1
gene 1 11 25 133841 0 61 133841 1
gene 1 25 14 -684879 0 62 -684879 0
gene 1 6 82 -57198 0 224 -57198 0
gene 2 82 14 -201348 0 225 -201348 0
gene 1 8 25 -373083 0 355 -373083 1
gene 4 13 15 -337788 0 468 -337788 1
gene 2 82 170 497259 0 506 497259 1
gene 2 170 14 -660417 0 507 -660417 1
gene 2 13 13 -598131 1 563 -598131 1
gene 4 3 25 480720 0 600 480720 1
gene 4 12 25 667028 0 644 667028 1
gene 3 5 25 426834 0 701 426834 1
gene 1 2 261 800000 0 793 800000 1
gene 1 261 13 156861 0 794 156861 1
gene 2 2 311 590703 0 939 590703 0
gene 3 311 14 342306 0 940 342306 0
gene 3 3 311 458313 0 1098 458313 1
gene 3 2 499 800000 0 1513 800000 1
gene 3 499 15 55818 0 1514 55818 1
gene 2 5 510 -102606 0 1553 -102606 1
gene 2 510 14 18582 0 1554 18582 0
gene 3 311 538 -167768 0 1631 -167768 0
gene 3 538 14 544905 0 1632 544905 1
gene 4 3 612 -782094 0 1835 -782094 1
gene 4 612 14 -286884 0 1836 -286884 1
gene 4 3 623 687662 0 1874 687662 1
gene 4 623 15 -196005 0 1875 -196005 1
gene 4 170 13 90309 0 1931 90309 1
gene 4 538 538 255048 1 1978 255048 0
gene 4 538 700 -380172 1 2098 -380172 1
gene 4 700 538 -56355 0 2099 -56355 1
gene 4 170 538 -800000 0 2150 -800000 1
gene 1 261 510 289029 0 2194 289029 1
gene 4 25 499 440187 0 2387 440187 1
gene 1 5 170 -526059 0 2622 -526059 1
gene 2 25 510 278427 0 3061 278427 1
gene 2 700 700 -800000 1 3103 -800000 1
gene 2 700 13 376938 0 3304 376938 1
gene 2 2 1134 -288159 0 3363 -288159 1
gene 2 1134 311 262557 0 3364 262557 1
gene 1 6 1210 -377325 0 3588 -377325 1
gene 1 1210 82 665640 0 3589 665640 1
gene 2 510 1220 -440268 0 3624 -440268 1
gene 2 1220 14 339531 0 3625 339531 1
gene 1 25 1344 -282114 0 3977 -282114 0
gene 1 1344 14 -166524 0 3978 -166524 1
gene 3 311 1454 -77541 0 4283 -77541 1
gene 3 1454 538 -36963 0 4284 -36963 1
gene 4 1134 1210 221661 0 4329 221661 1
gene 3 623 14 171630 0 4477 171630 1
gene 3 623 623 -304080 1 4524 -304080 0
gene 3 623 1603 -110553 1 4710 -110553 1
gene 3 1603 623 81234 0 4711 81234 1
gene 4 7 1614 -138111 0 4752 -138111 1
gene 4 1614 14 15429 0 4753 15429 1
gene 1 25 1633 -481824 0 4807 -481824 1
gene 1 1633 1344 -243108 0 4808 -243108 0
gene 1 1633 1697 -149295 0 5001 -149295 1
gene 1 1697 1344 -183537 0 5002 -183537 1
gene 3 612 82 -181698 0 5026 -181698 1
gene 4 1614 1344 251664 0 5155 251664 1
gene 1 7 538 281483 0 5198 281483 1
gene 2 623 261 -270375 0 5230 -270375 0
gene 2 12 1783 -66762 0 5274 -66762 1
gene 2 1783 14 24582 0 5275 24582 1
gene 1 1633 1134 22386 0 5432 22386 1
gene 2 623 1854 -110922 0 5479 -110922 1
gene 2 1854 261 24410 0 5480 24410 1
gene 1 5 1614 9801 0 5602 9801 1
gene 1 1614 1614 34609 1 5644 34609 1
genomeend 1


/* Organism #2 Fitness: 160.000000 Time: 0 */
/* Position #2*/
#1 x: 76 y: 15
#2 x: 60 y: 39
#3 x: 67 y: 38
#4 x: 74 y: 85
#5 x: 32 y: 62
#6 x: 20 y: 80
genomestart 2
trait 1 25030.000000 0.000000 0.000000 0.000000 28080.000000 0.000000 0.000000 0.000000 trait 2 0.000000 9751.000000 64713.000000 0.000000 0.000000 91042.000000 100000.000000 25558.000000 trait 3 3.000000 0.000000 25972.000000 0.000000 0.000000 78029.000000 0.000000 0.000000 trait 4 93467.000000 0.000000 0.000000 0.000000 49360.000000 0.000000 7697.000000 0.000000 node 1 3 1 3
node 2 3 1 1
node 3 3 1 1
node 4 2 1 1
node 5 3 1 1
node 6 2 1 1
node 7 1 1 1
node 8 1 1 1
node 9 3 1 1
node 10 1 1 1
node 11 2 1 1
node 12 2 1 1
node 13 4 0 2
node 14 1 0 2
node 15 2 0 2
node 25 1 0 0
node 82 3 0 0
node 170 1 0 0
node 261 1 0 0
node 311 1 0 0
node 499 1 0 0
node 510 1 0 0
node 538 1 0 0
node 612 1 0 0
node 623 1 0 0
node 700 1 0 0
node 1134 1 0 0
node 1210 1 0 0
node 1220 1 0 0
node 1344 1 0 0
node 1454 1 0 0
node 1603 1 0 0
node 1614 1 0 0
node 1633 1 0 0
node 1697 1 0 0
node 1783 1 0 0
node 1854 1 0 0
node 1916 1 0 0
gene 3 1 13 -174702 0 1 -174702 1
gene 3 2 13 -222150 0 2 -222150 0
gene 3 3 13 633026 0 3 633026 1
gene 2 4 13 800000 0 4 800000 1
gene 4 5 13 76803 0 5 76803 1
gene 3 6 13 -665555 0 6 -665555 1
gene 4 7 13 549471 0 7 549471 1
gene 2 8 13 226949 0 8 226949 1
gene 1 9 13 139302 0 9 139302 1
gene 1 10 13 -544139 0 10 -544139 1
gene 1 11 13 364238 0 11 364238 1
gene 2 12 13 28812 0 12 28812 1
gene 3 1 14 -186105 0 13 -186105 1
gene 3 2 14 121953 0 14 121953 0
gene 4 3 14 -712902 0 15 -712902 0
gene 4 4 14 282366 0 16 282366 1
gene 2 5 14 -620471 0 17 -620471 0
gene 2 6 14 -592992 0 18 -592992 0
gene 4 7 14 69117 0 19 69117 0
gene 1 8 14 83184 0 20 83184 1
gene 1 9 14 -144942 0 21 -144942 1
gene 2 10 14 800000 0 22 800000 1
gene 1 11 14 -262866 0 23 -262866 0
gene 2 12 14 337707 0 24 337707 0
gene 4 1 15 374631 0 25 374631 1
gene 3 2 15 118811 0 26 118811 0
gene 4 3 15 68424 0 27 68424 0
gene 3 4 15 -114243 0 28 -114243 1
gene 3 5 15 67206 0 29 67206 1
gene 3 6 15 800000 0 30 800000 1
gene 3 7 15 661019 0 31 661019 1
gene 3 8 15 -212868 0 32 -212868 1
gene 4 9 15 -36330 0 33 -36330 1
gene 1 10 15 -82278 0 34 -82278 1
gene 4 11 15 692472 0 35 692472 1
gene 2 12 15 279843 0 36 279843 1
gene 1 11 25 166145 0 61 166145 1
gene 1 25 14 -397083 0 62 -397083 0
gene 1 6 82 24189 0 224 24189 0
gene 2 82 14 -10419 0 225 -10419 0
gene 1 8 25 -79479 0 355 -79479 1
gene 4 13 15 -623079 0 468 -623079 1
gene 2 82 170 270858 0 506 270858 1
gene 2 170 14 -389340 0 507 -389340 1
gene 2 13 13 -466698 1 563 -466698 1
gene 4 3 25 259491 0 600 259491 0
gene 4 12 25 800000 0 644 800000 1
gene 3 5 25 235326 0 701 235326 1
gene 1 2 261 620667 0 793 620667 1
gene 1 261 13 416730 0 794 416730 1
gene 2 2 311 521424 0 939 521424 0
gene 3 311 14 121188 0 940 121188 0
gene 3 3 311 311385 0 1098 311385 1
gene 3 2 499 800000 0 1513 800000 1
gene 3 499 15 224382 0 1514 224382 1
gene 2 5 510 -327837 0 1553 -327837 1
gene 2 510 14 143781 0 1554 143781 0
gene 3 311 538 -298517 0 1631 -298517 0
gene 3 538 14 424257 0 1632 424257 1
gene 4 3 612 -530517 0 1835 -530517 1
gene 4 612 14 -253575 0 1836 -253575 1
gene 4 3 623 558020 0 1874 558020 1
gene 4 623 15 -432006 0 1875 -432006 1
gene 4 170 13 200178 0 1931 200178 1
gene 4 538 538 276270 1 1978 276270 0
gene 4 538 700 -333255 1 2098 -333255 1
gene 4 700 538 -33585 0 2099 -33585 1
gene 4 170 538 -800000 0 2150 -800000 1
gene 1 261 510 150771 0 2194 150771 1
gene 4 25 499 468171 0 2387 468171 1
gene 1 5 170 -530658 0 2622 -530658 1
gene 2 25 510 124440 0 3061 124440 1
gene 2 700 700 -800000 1 3103 -800000 1
gene 2 700 13 164565 0 3304 164565 1
gene 2 2 1134 -245700 0 3363 -245700 1
gene 2 1134 311 429693 0 3364 429693 1
gene 1 6 1210 -146766 0 3588 -146766 1
gene 1 1210 82 525243 0 3589 525243 1
gene 2 510 1220 -231384 0 3624 -231384 1
gene 2 1220 14 413007 0 3625 413007 1
gene 1 25 1344 -469257 0 3977 -469257 0
gene 1 1344 14 -313737 0 3978 -313737 1
gene 3 311 1454 -268437 0 4283 -268437 1
gene 3 1454 538 84603 0 4284 84603 1
gene 4 1134 1210 347907 0 4329 347907 1
gene 3 623 14 -731205 0 4477 -731205 1
gene 3 623 623 -13449 1 4524 -13449 0
gene 3 623 1603 -172872 1 4710 -172872 1
gene 3 1603 623 -211170 0 4711 -211170 1
gene 4 7 1614 90685 0 4752 90685 1
gene 4 1614 14 15429 0 4753 15429 1
gene 1 25 1633 -246498 0 4807 -246498 1
gene 1 1633 1344 -243108 0 4808 -243108 0
gene 1 1633 1697 43968 0 5001 43968 1
gene 1 1697 1344 -183537 0 5002 -183537 1
gene 3 612 82 22308 0 5026 22308 1
gene 4 1614 1344 -9026 0 5155 -9026 1
gene 1 7 538 136877 0 5198 136877 1
gene 2 623 261 -270375 0 5230 -270375 0
gene 2 12 1783 -66762 0 5274 -66762 1
gene 2 1783 14 3456 0 5275 3456 1
gene 1 1633 1134 22386 0 5432 22386 1
gene 2 623 1854 -292602 0 5479 -292602 1
gene 2 1854 261 -119128 0 5480 -119128 1
gene 1 5 1614 9801 0 5602 9801 1
gene 1 1614 1614 34609 1 5644 34609 1
gene 4 3 1916 1 0 5689 0 1
gene 4 1916 25 259491 0 5690 0 1
genomeend 2


/* Organism #30 Fitness: 240.000000 Time: 0 */
/* Position #30*/
#1 x: 32 y: 34
#2 x: 17 y: 32
#3 x: 58 y: 19
#4 x: 38 y: 80
#5 x: 16 y: 77
#6 x: 33 y: 66
genomestart 30
trait 1 67437.000000 0.000000 0.000000 0.000000 0.000000 12157.000000 44225.000000 0.000000 trait 2 0.000000 9751.000000 0.000000 0.000000 0.000000 0.000000 96900.000000 25558.000000 trait 3 50217.000000 0.000000 23916.000000 0.000000 0.000000 78029.000000 0.000000 37252.000000 trait 4 93467.000000 0.000000 0.000000 81320.000000 49360.000000 0.000000 7697.000000 72106.000000 node 1 3 1 3
node 2 3 1 1
node 3 3 1 1
node 4 2 1 1
node 5 3 1 1
node 6 1 1 1
node 7 1 1 1
node 8 1 1 1
node 9 3 1 1
node 10 1 1 1
node 11 2 1 1
node 12 2 1 1
node 13 4 0 2
node 14 1 0 2
node 15 2 0 2
node 25 1 0 0
node 82 1 0 0
node 170 4 0 0
node 261 1 0 0
node 311 1 0 0
node 499 1 0 0
node 510 1 0 0
node 538 2 0 0
node 612 1 0 0
node 623 1 0 0
node 700 1 0 0
node 1216 1 0 0
node 1276 1 0 0
node 1425 1 0 0
node 1574 1 0 0
node 1625 1 0 0
node 1636 1 0 0
node 1668 1 0 0
node 1808 1 0 0
node 1928 1 0 0
gene 3 1 13 404268 0 1 404268 1
gene 1 2 13 -404391 0 2 -404391 0
gene 3 3 13 -53724 0 3 -53724 1
gene 2 4 13 192756 0 4 192756 1
gene 4 5 13 -82227 0 5 -82227 1
gene 3 6 13 -360422 0 6 -360422 1
gene 4 7 13 -151053 0 7 -151053 1
gene 2 8 13 -203862 0 8 -203862 1
gene 1 9 13 -800000 0 9 -800000 0
gene 1 10 13 290295 0 10 290295 1
gene 1 11 13 800000 0 11 800000 1
gene 2 12 13 223029 0 12 223029 1
gene 3 1 14 -456933 0 13 -456933 1
gene 3 2 14 269760 0 14 269760 0
gene 4 3 14 -24219 0 15 -24219 0
gene 4 4 14 250407 0 16 250407 1
gene 2 5 14 -659999 0 17 -659999 0
gene 2 6 14 -773301 0 18 -773301 0
gene 4 7 14 -35553 0 19 -35553 1
gene 1 8 14 -290841 0 20 -290841 1
gene 1 9 14 -342558 0 21 -342558 1
gene 2 10 14 338511 0 22 338511 1
gene 1 11 14 -60309 0 23 -60309 0
gene 2 12 14 -26016 0 24 -26016 0
gene 4 1 15 74604 0 25 74604 1
gene 3 2 15 -87864 0 26 -87864 0
gene 4 3 15 135321 0 27 135321 0
gene 3 4 15 475638 0 28 475638 1
gene 3 5 15 -184029 0 29 -184029 1
gene 3 6 15 568332 0 30 568332 1
gene 3 7 15 150969 0 31 150969 0
gene 3 8 15 -141075 0 32 -141075 1
gene 4 9 15 -432417 0 33 -432417 1
gene 1 10 15 -139077 0 34 -139077 1
gene 4 11 15 -600815 0 35 -600815 1
gene 2 12 15 -241602 0 36 -241602 0
gene 1 11 25 -189591 0 61 -189591 0
gene 1 25 14 370368 0 62 370368 0
gene 1 6 82 -250989 0 224 -250989 1
gene 2 82 14 408231 0 225 408231 0
gene 1 8 25 41328 0 355 41328 1
gene 4 13 15 -321143 0 468 -321143 1
gene 2 82 170 -74061 0 506 -74061 1
gene 2 170 14 182526 0 507 182526 1
gene 2 13 13 -304313 1 563 -304313 1
gene 1 3 25 264594 0 600 264594 1
gene 4 12 25 -217086 0 644 -217086 1
gene 3 5 25 -601391 0 701 -601391 1
gene 3 2 261 -786179 0 793 -786179 1
gene 1 261 13 -339231 0 794 -339231 0
gene 2 2 311 184224 0 939 184224 1
gene 3 311 14 468165 0 940 468165 0
gene 3 3 311 -62451 0 1098 -62451 1
gene 3 2 499 -28839 0 1513 -28839 1
gene 3 499 15 556449 0 1514 556449 0
gene 2 5 510 -541401 0 1553 -541401 1
gene 2 510 14 117246 0 1554 117246 1
gene 3 311 538 -73062 0 1631 -73062 1
gene 3 538 14 -9171 0 1632 -9171 1
gene 4 3 612 23289 0 1835 23289 1
gene 4 612 14 286554 0 1836 286554 1
gene 4 3 623 -230732 0 1874 -230732 1
gene 4 623 15 220895 0 1875 220895 1
gene 4 170 13 -83421 0 1931 -83421 1
gene 4 538 538 -753129 1 1978 -753129 0
gene 4 538 700 -348861 1 2098 -348861 1
gene 4 700 538 190392 0 2099 190392 1
gene 4 170 538 301722 0 2150 301722 1
gene 1 261 510 634556 0 2194 634556 1
gene 4 25 499 785079 0 2387 785079 1
gene 1 5 170 -375579 0 2622 -375579 1
gene 2 25 510 -62454 0 3061 -62454 1
gene 2 700 700 386037 1 3103 386037 0
gene 1 170 170 -372600 1 3316 -372600 1
gene 2 311 15 272238 0 3413 272238 1
gene 4 700 499 -385935 0 3560 -385935 1
gene 1 11 1216 186474 0 3603 186474 1
gene 1 1216 25 74982 0 3604 74982 1
gene 4 14 623 -276972 0 3763 -276972 1
gene 3 499 1276 -667053 0 3782 -667053 1
gene 3 1276 15 289953 0 3783 289953 1
gene 2 510 15 -278400 0 3838 -278400 1
gene 1 9 1425 720578 0 4198 720578 1
gene 1 1425 13 -42822 0 4199 -42822 1
gene 4 13 14 167976 0 4418 167976 1
gene 4 12 170 -109320 0 4525 -109320 1
gene 2 700 1574 -169134 1 4636 -169134 1
gene 2 1574 700 110988 0 4637 110988 1
gene 2 12 1625 156711 0 4779 156711 1
gene 2 1625 14 51087 0 4780 51087 1
gene 1 261 1636 672834 0 4817 672834 1
gene 1 1636 13 312582 0 4818 312582 1
gene 2 12 1668 89679 0 4916 89679 1
gene 2 1668 15 205350 0 4917 205350 1
gene 3 1636 538 -217092 0 5184 -217092 1
gene 3 7 1808 -108987 0 5347 -108987 1
gene 3 1808 15 -800000 0 5348 -800000 1
gene 4 510 1625 95434 0 5503 95434 1
gene 1 1636 15 301175 0 5529 301175 1
gene 3 11 261 73280 0 5672 73280 1
gene 1 25 1928 1 0 5715 0 1
gene 1 1928 14 370368 0 5716 0 1
genomeend 30


/* Organism #53 Fitness: 220.000000 Time: 0 */
/* Position #53*/
#1 x: 44 y: 34
#2 x: 52 y: 19
#3 x: 38 y: 17
#4 x: 42 y: 60
#5 x: 85 y: 85
#6 x: 48 y: 71
genomestart 53
trait 1 1.000000 0.000000 0.000000 0.000000 0.000000 0.000000 0.000000 0.000000 trait 2 0.000000 9751.000000 0.000000 0.000000 0.000000 0.000000 96900.000000 25558.000000 trait 3 50217.000000 0.000000 23916.000000 0.000000 0.000000 78029.000000 0.000000 37252.000000 trait 4 93467.000000 0.000000 0.000000 81320.000000 49360.000000 0.000000 7697.000000 72106.000000 node 1 3 1 3
node 2 3 1 1
node 3 3 1 1
node 4 2 1 1
node 5 3 1 1
node 6 1 1 1
node 7 1 1 1
node 8 1 1 1
node 9 3 1 1
node 10 1 1 1
node 11 2 1 1
node 12 2 1 1
node 13 4 0 2
node 14 1 0 2
node 15 2 0 2
node 25 1 0 0
node 82 1 0 0
node 170 4 0 0
node 261 1 0 0
node 311 1 0 0
node 499 1 0 0
node 510 1 0 0
node 538 2 0 0
node 612 1 0 0
node 623 1 0 0
node 700 1 0 0
node 1216 1 0 0
node 1276 1 0 0
node 1425 1 0 0
node 1574 1 0 0
node 1625 1 0 0
node 1636 1 0 0
node 1668 1 0 0
node 1808 1 0 0
node 1850 1 0 0
gene 3 1 13 800000 0 1 800000 1
gene 1 2 13 -207261 0 2 -207261 0
gene 3 3 13 558216 0 3 558216 1
gene 2 4 13 21318 0 4 21318 1
gene 4 5 13 764963 0 5 764963 1
gene 3 6 13 -631445 0 6 -631445 1
gene 4 7 13 -115233 0 7 -115233 1
gene 2 8 13 -800000 0 8 -800000 1
gene 1 9 13 441213 0 9 441213 0
gene 1 10 13 -111849 0 10 -111849 1
gene 1 11 13 167267 0 11 167267 1
gene 2 12 13 -9843 0 12 -9843 1
gene 3 1 14 108525 0 13 108525 1
gene 3 2 14 426072 0 14 426072 0
gene 4 3 14 194994 0 15 194994 0
gene 4 4 14 292920 0 16 292920 1
gene 2 5 14 -588392 0 17 -588392 0
gene 2 6 14 -618084 0 18 -618084 0
gene 4 7 14 -90939 0 19 -90939 1
gene 1 8 14 -79095 0 20 -79095 1
gene 1 9 14 388956 0 21 388956 1
gene 2 10 14 33381 0 22 33381 1
gene 1 11 14 -362265 0 23 -362265 0
gene 2 12 14 -800000 0 24 -800000 0
gene 4 1 15 -290642 0 25 -290642 1
gene 3 2 15 -465351 0 26 -465351 0
gene 4 3 15 277182 0 27 277182 0
gene 3 4 15 -68865 0 28 -68865 1
gene 3 5 15 149280 0 29 149280 1
gene 3 6 15 265263 0 30 265263 1
gene 3 7 15 -800000 0 31 -800000 0
gene 3 8 15 -581184 0 32 -581184 1
gene 4 9 15 -378429 0 33 -378429 1
gene 1 10 15 -269340 0 34 -269340 1
gene 4 11 15 -541589 0 35 -541589 1
gene 2 12 15 85407 0 36 85407 0
gene 1 11 25 44676 0 61 44676 0
gene 1 25 14 800000 0 62 800000 1
gene 1 6 82 -136353 0 224 -136353 1
gene 2 82 14 -341535 0 225 -341535 0
gene 1 8 25 -185163 0 355 -185163 1
gene 4 13 15 262869 0 468 262869 1
gene 2 82 170 -195030 0 506 -195030 1
gene 2 170 14 -281727 0 507 -281727 1
gene 2 13 13 -244095 1 563 -244095 1
gene 1 3 25 -350484 0 600 -350484 1
gene 4 12 25 -331989 0 644 -331989 1
gene 3 5 25 212238 0 701 212238 1
gene 1 2 261 -712154 0 793 -712154 1
gene 1 261 13 263823 0 794 263823 0
gene 2 2 311 212808 0 939 212808 1
gene 3 311 14 -185466 0 940 -185466 0
gene 3 3 311 270270 0 1098 270270 1
gene 3 2 499 -360396 0 1513 -360396 1
gene 3 499 15 -150543 0 1514 -150543 0
gene 2 5 510 115305 0 1553 115305 1
gene 2 510 14 -46344 0 1554 -46344 1
gene 3 311 538 -493742 0 1631 -493742 1
gene 3 538 14 -200103 0 1632 -200103 1
gene 4 3 612 236670 0 1835 236670 1
gene 4 612 14 533561 0 1836 533561 1
gene 4 3 623 -694214 0 1874 -694214 1
gene 4 623 15 -282171 0 1875 -282171 1
gene 4 170 13 108816 0 1931 108816 1
gene 4 538 538 -184602 1 1978 -184602 0
gene 4 538 700 -258066 1 2098 -258066 1
gene 4 700 538 321231 0 2099 321231 1
gene 4 170 538 32526 0 2150 32526 1
gene 1 261 510 610712 0 2194 610712 1
gene 4 25 499 -170016 0 2387 -170016 1
gene 1 5 170 -572334 0 2622 -572334 1
gene 2 25 510 46359 0 3061 46359 1
gene 2 700 700 -800000 1 3103 -800000 0
gene 1 170 170 -43254 1 3316 -43254 1
gene 2 311 15 -71256 0 3413 -71256 1
gene 4 700 499 -19206 0 3560 -19206 1
gene 1 11 1216 -228117 0 3603 -228117 1
gene 1 1216 25 227787 0 3604 227787 1
gene 4 14 623 220173 0 3763 220173 1
gene 3 499 1276 -398076 0 3782 -398076 1
gene 3 1276 15 -260364 0 3783 -260364 1
gene 2 510 15 -257538 0 3838 -257538 1
gene 1 9 1425 129546 0 4198 129546 1
gene 1 1425 13 -298689 0 4199 -298689 1
gene 4 13 14 -90378 0 4418 -90378 1
gene 4 12 170 164322 0 4525 164322 1
gene 2 700 1574 -77241 1 4636 -77241 1
gene 2 1574 700 -235662 0 4637 -235662 1
gene 2 12 1625 139314 0 4779 139314 1
gene 2 1625 14 -777696 0 4780 -777696 1
gene 1 261 1636 61272 0 4817 61272 1
gene 1 1636 13 -123543 0 4818 -123543 1
gene 4 12 1668 -181332 0 4916 -181332 1
gene 2 1668 15 -216417 0 4917 -216417 1
gene 3 1636 538 -230806 0 5184 -230806 1
gene 3 7 1808 41655 0 5347 41655 1
gene 3 1808 15 50208 0 5348 50208 0
gene 3 1808 1850 79669 0 5471 79669 1
gene 3 1850 15 -130853 0 5472 -130853 1
gene 1 538 1668 474246 0 5516 474246 1
gene 3 25 1574 -129748 0 5561 -129748 1
genomeend 53


/* Organism #54 Fitness: 160.000000 Time: 0 */
/* Position #54*/
#1 x: 44 y: 34
#2 x: 72 y: 20
#3 x: 63 y: 23
#4 x: 48 y: 72
#5 x: 23 y: 84
#6 x: 33 y: 63
genomestart 54
trait 1 1.000000 0.000000 0.000000 0.000000 0.000000 0.000000 0.000000 0.000000 trait 2 0.000000 9751.000000 0.000000 0.000000 0.000000 0.000000 96900.000000 25558.000000 trait 3 50217.000000 0.000000 23916.000000 0.000000 0.000000 78029.000000 0.000000 37252.000000 trait 4 93467.000000 0.000000 0.000000 81320.000000 49360.000000 0.000000 7697.000000 72106.000000 node 1 3 1 3
node 2 3 1 1
node 3 3 1 1
node 4 1 1 1
node 5 3 1 1
node 6 1 1 1
node 7 1 1 1
node 8 1 1 1
node 9 3 1 1
node 10 1 1 1
node 11 2 1 1
node 12 2 1 1
node 13 4 0 2
node 14 1 0 2
node 15 2 0 2
node 25 1 0 0
node 82 1 0 0
node 170 4 0 0
node 261 1 0 0
node 311 1 0 0
node 499 1 0 0
node 510 1 0 0
node 538 2 0 0
node 612 1 0 0
node 623 1 0 0
node 700 1 0 0
node 1216 1 0 0
node 1276 1 0 0
node 1425 1 0 0
node 1574 1 0 0
node 1625 1 0 0
node 1636 1 0 0
node 1668 1 0 0
node 1808 1 0 0
node 1850 1 0 0
gene 3 1 13 561477 0 1 561477 1
gene 1 2 13 -133626 0 2 -133626 0
gene 3 3 13 -335694 0 3 -335694 1
gene 2 4 13 -72930 0 4 -72930 1
gene 4 5 13 590849 0 5 590849 1
gene 3 6 13 385524 0 6 385524 1
gene 4 7 13 -508527 0 7 -508527 1
gene 2 8 13 -769388 0 8 -769388 1
gene 1 9 13 323013 0 9 323013 0
gene 1 10 13 360963 0 10 360963 1
gene 1 11 13 702377 0 11 702377 1
gene 2 12 13 -800000 0 12 -800000 1
gene 3 1 14 -56913 0 13 -56913 1
gene 3 2 14 -101376 0 14 -101376 0
gene 4 3 14 -538350 0 15 -538350 0
gene 4 4 14 -646410 0 16 -646410 1
gene 2 5 14 167196 0 17 167196 0
gene 2 6 14 -333510 0 18 -333510 0
gene 4 7 14 52038 0 19 52038 1
gene 1 8 14 -421284 0 20 -421284 1
gene 1 9 14 445251 0 21 445251 1
gene 2 10 14 800000 0 22 800000 1
gene 1 11 14 -302163 0 23 -302163 0
gene 2 12 14 164835 0 24 164835 0
gene 4 1 15 -591635 0 25 -591635 1
gene 3 2 15 433218 0 26 433218 0
gene 4 3 15 -74250 0 27 -74250 0
gene 3 4 15 -515490 0 28 -515490 1
gene 3 5 15 133998 0 29 133998 1
gene 3 6 15 106254 0 30 106254 1
gene 3 7 15 -800000 0 31 -800000 0
gene 3 8 15 327885 0 32 327885 1
gene 4 9 15 -456273 0 33 -456273 1
gene 1 10 15 115410 0 34 115410 1
gene 4 11 15 -572612 0 35 -572612 1
gene 2 12 15 209799 0 36 209799 0
gene 1 11 25 317484 0 61 317484 0
gene 1 25 14 800000 0 62 800000 1
gene 1 6 82 -610137 0 224 -610137 1
gene 2 82 14 681 0 225 681 0
gene 1 8 25 302793 0 355 302793 1
gene 4 13 15 -567305 0 468 -567305 1
gene 2 82 170 11898 0 506 11898 1
gene 2 170 14 639834 0 507 639834 1
gene 2 13 13 16057 1 563 16057 1
gene 1 3 25 275862 0 600 275862 1
gene 4 12 25 309342 0 644 309342 1
gene 3 5 25 -783923 0 701 -783923 1
gene 1 2 261 -461546 0 793 -461546 1
gene 1 261 13 424545 0 794 424545 0
gene 2 2 311 81930 0 939 81930 1
gene 3 311 14 97962 0 940 97962 0
gene 3 3 311 10695 0 1098 10695 1
gene 3 2 499 650187 0 1513 650187 1
gene 3 499 15 -419973 0 1514 -419973 0
gene 2 5 510 -392127 0 1553 -392127 1
gene 2 510 14 -210786 0 1554 -210786 1
gene 3 311 538 -465015 0 1631 -465015 1
gene 3 538 14 96036 0 1632 96036 1
gene 4 3 612 800000 0 1835 800000 1
gene 4 612 14 368237 0 1836 368237 1
gene 4 3 623 -271949 0 1874 -271949 1
gene 4 623 15 320426 0 1875 320426 1
gene 4 170 13 319836 0 1931 319836 1
gene 4 538 538 -536469 1 1978 -536469 0
gene 4 538 700 236751 1 2098 236751 1
gene 4 700 538 716952 0 2099 716952 1
gene 4 170 538 15330 0 2150 15330 1
gene 1 261 510 354662 0 2194 354662 1
gene 4 25 499 -42924 0 2387 -42924 1
gene 1 5 170 -121764 0 2622 -121764 1
gene 2 25 510 321345 0 3061 321345 1
gene 2 700 700 -190169 1 3103 -190169 0
gene 1 170 170 -800000 1 3316 -800000 1
gene 2 311 15 141993 0 3413 141993 1
gene 4 700 499 -163974 0 3560 -163974 1
gene 1 11 1216 168537 0 3603 168537 1
gene 1 1216 25 -459171 0 3604 -459171 1
gene 4 14 623 -283962 0 3763 -283962 1
gene 3 499 1276 -733644 0 3782 -733644 1
gene 3 1276 15 301389 0 3783 301389 1
gene 2 510 15 -211011 0 3838 -211011 1
gene 1 9 1425 108213 0 4198 108213 1
gene 1 1425 13 138090 0 4199 138090 1
gene 4 13 14 -257682 0 4418 -257682 1
gene 4 12 170 -19790 0 4525 -19790 1
gene 2 700 1574 -285117 1 4636 -285117 1
gene 2 1574 700 35067 0 4637 35067 1
gene 2 12 1625 -249362 0 4779 -249362 1
gene 2 1625 14 -530886 0 4780 -530886 1
gene 1 261 1636 -426867 0 4817 -426867 1
gene 1 1636 13 298011 0 4818 298011 1
gene 2 12 1668 -279609 0 4916 -279609 1
gene 2 1668 15 7866 0 4917 7866 1
gene 3 1636 538 -207301 0 5184 -207301 1
gene 3 7 1808 -206955 0 5347 -206955 1
gene 3 1808 15 1992 0 5348 1992 0
gene 3 1808 1850 244101 0 5471 244101 1
gene 3 1850 15 117210 0 5472 117210 1
gene 1 538 1668 -484117 0 5516 -484117 1
gene 3 25 1574 -82104 0 5561 -82104 1
genomeend 54


/* Organism #56 Fitness: 180.000000 Time: 0 */
/* Position #56*/
#1 x: 76 y: 30
#2 x: 42 y: 23
#3 x: 83 y: 37
#4 x: 47 y: 66
#5 x: 81 y: 60
#6 x: 75 y: 74
genomestart 56
trait 1 67437.000000 0.000000 0.000000 0.000000 0.000000 12157.000000 44225.000000 0.000000 trait 2 0.000000 9751.000000 0.000000 0.000000 0.000000 0.000000 96900.000000 25558.000000 trait 3 50217.000000 0.000000 23916.000000 0.000000 0.000000 78029.000000 0.000000 37252.000000 trait 4 93467.000000 0.000000 0.000000 81320.000000 49360.000000 0.000000 7697.000000 72106.000000 node 1 3 1 3
node 2 3 1 1
node 3 3 1 1
node 4 3 1 1
node 5 3 1 1
node 6 1 1 1
node 7 1 1 1
node 8 1 1 1
node 9 3 1 1
node 10 1 1 1
node 11 2 1 1
node 12 2 1 1
node 13 4 0 2
node 14 1 0 2
node 15 2 0 2
node 25 1 0 0
node 82 1 0 0
node 170 4 0 0
node 261 1 0 0
node 311 1 0 0
node 499 1 0 0
node 510 1 0 0
node 538 2 0 0
node 612 1 0 0
node 623 1 0 0
node 700 1 0 0
node 1216 1 0 0
node 1276 1 0 0
node 1425 1 0 0
node 1574 1 0 0
node 1625 1 0 0
node 1636 1 0 0
node 1668 1 0 0
node 1808 1 0 0
gene 3 1 13 46218 0 1 46218 1
gene 1 2 13 -618252 0 2 -618252 0
gene 3 3 13 -49038 0 3 -49038 1
gene 2 4 13 517209 0 4 517209 1
gene 4 5 13 284481 0 5 284481 1
gene 3 6 13 -402608 0 6 -402608 1
gene 4 7 13 -487104 0 7 -487104 1
gene 2 8 13 -420297 0 8 -420297 1
gene 1 9 13 -539672 0 9 -539672 0
gene 1 10 13 225141 0 10 225141 1
gene 1 11 13 772847 0 11 772847 1
gene 2 12 13 129120 0 12 129120 1
gene 3 1 14 -473343 0 13 -473343 1
gene 3 2 14 128565 0 14 128565 0
gene 4 3 14 88713 0 15 88713 0
gene 4 4 14 26943 0 16 26943 1
gene 2 5 14 -537542 0 17 -537542 0
gene 2 6 14 -800000 0 18 -800000 0
gene 4 7 14 -9126 0 19 -9126 1
gene 1 8 14 -397029 0 20 -397029 1
gene 1 9 14 -769440 0 21 -769440 1
gene 2 10 14 326922 0 22 326922 1
gene 1 11 14 -74388 0 23 -74388 0
gene 2 12 14 42861 0 24 42861 0
gene 4 1 15 312657 0 25 312657 1
gene 3 2 15 -119472 0 26 -119472 0
gene 4 3 15 413841 0 27 413841 0
gene 3 4 15 107373 0 28 107373 1
gene 3 5 15 -547305 0 29 -547305 1
gene 3 6 15 633408 0 30 633408 1
gene 3 7 15 -89130 0 31 -89130 0
gene 3 8 15 26442 0 32 26442 1
gene 4 9 15 -800000 0 33 -800000 1
gene 1 10 15 361596 0 34 361596 1
gene 4 11 15 -482015 0 35 -482015 1
gene 2 12 15 251136 0 36 251136 0
gene 1 11 25 -187194 0 61 -187194 0
gene 1 25 14 647877 0 62 647877 1
gene 1 6 82 -289491 0 224 -289491 1
gene 2 82 14 167823 0 225 167823 0
gene 1 8 25 -50790 0 355 -50790 1
gene 4 13 15 -632714 0 468 -632714 1
gene 2 82 170 -146142 0 506 -146142 1
gene 2 170 14 552942 0 507 552942 1
gene 2 13 13 -25178 1 563 -25178 1
gene 1 3 25 688668 0 600 688668 1
gene 4 12 25 215211 0 644 215211 1
gene 3 5 25 -800000 0 701 -800000 1
gene 3 2 261 -324737 0 793 -324737 1
gene 1 261 13 85614 0 794 85614 0
gene 2 2 311 -103467 0 939 -103467 1
gene 3 311 14 629007 0 940 629007 0
gene 3 3 311 -198156 0 1098 -198156 1
gene 3 2 499 -498618 0 1513 -498618 1
gene 3 499 15 380718 0 1514 380718 0
gene 2 5 510 -575523 0 1553 -575523 1
gene 2 510 14 -155859 0 1554 -155859 1
gene 3 311 538 -185757 0 1631 -185757 1
gene 3 538 14 193305 0 1632 193305 1
gene 4 3 612 349983 0 1835 349983 1
gene 4 612 14 232995 0 1836 232995 1
gene 4 3 623 -369218 0 1874 -369218 1
gene 4 623 15 -31138 0 1875 -31138 1
gene 4 170 13 -75504 0 1931 -75504 1
gene 4 538 538 -800000 1 1978 -800000 0
gene 4 538 700 -387177 1 2098 -387177 1
gene 4 700 538 714585 0 2099 714585 1
gene 4 170 538 108744 0 2150 108744 1
gene 1 261 510 242408 0 2194 242408 1
gene 4 25 499 800000 0 2387 800000 1
gene 1 5 170 -697479 0 2622 -697479 1
gene 2 25 510 -53964 0 3061 -53964 1
gene 2 700 700 298710 1 3103 298710 0
gene 1 170 170 -282180 1 3316 -282180 1
gene 2 311 15 390174 0 3413 390174 1
gene 4 700 499 -800000 0 3560 -800000 1
gene 1 11 1216 136812 0 3603 136812 1
gene 1 1216 25 233691 0 3604 233691 1
gene 4 14 623 -547749 0 3763 -547749 1
gene 3 499 1276 -484470 0 3782 -484470 1
gene 3 1276 15 435801 0 3783 435801 1
gene 2 510 15 -485346 0 3838 -485346 1
gene 1 9 1425 800000 0 4198 800000 1
gene 1 1425 13 58254 0 4199 58254 1
gene 4 13 14 92337 0 4418 92337 1
gene 4 12 170 77556 0 4525 77556 1
gene 2 700 1574 106011 1 4636 106011 1
gene 2 1574 700 110988 0 4637 110988 1
gene 2 12 1625 156711 0 4779 156711 1
gene 2 1625 14 -125634 0 4780 -125634 1
gene 1 261 1636 560010 0 4817 560010 1
gene 1 1636 13 146751 0 4818 146751 1
gene 2 12 1668 352182 0 4916 352182 1
gene 2 1668 15 205350 0 4917 205350 1
gene 3 1636 538 -91149 0 5184 -91149 1
gene 3 7 1808 68205 0 5347 68205 1
gene 3 1808 15 -264477 0 5348 -264477 1
gene 4 510 1625 -73040 0 5503 -73040 1
gene 1 1636 15 446270 0 5529 446270 1
genomeend 56


/* Organism #57 Fitness: 160.000000 Time: 0 */
/* Position #57*/
#1 x: 76 y: 30
#2 x: 42 y: 23
#3 x: 83 y: 37
#4 x: 47 y: 66
#5 x: 81 y: 60
#6 x: 75 y: 74
genomestart 57
trait 1 1.000000 0.000000 0.000000 0.000000 0.000000 0.000000 0.000000 0.000000 trait 2 0.000000 9751.000000 0.000000 0.000000 0.000000 0.000000 96900.000000 25558.000000 trait 3 50217.000000 0.000000 23916.000000 0.000000 0.000000 78029.000000 0.000000 37252.000000 trait 4 93467.000000 0.000000 0.000000 81320.000000 49360.000000 0.000000 7697.000000 72106.000000 node 1 3 1 3
node 2 3 1 1
node 3 3 1 1
node 4 2 1 1
node 5 3 1 1
node 6 1 1 1
node 7 1 1 1
node 8 1 1 1
node 9 3 1 1
node 10 1 1 1
node 11 2 1 1
node 12 2 1 1
node 13 4 0 2
node 14 1 0 2
node 15 2 0 2
node 25 1 0 0
node 82 1 0 0
node 170 4 0 0
node 261 1 0 0
node 311 1 0 0
node 499 1 0 0
node 510 1 0 0
node 538 2 0 0
node 612 1 0 0
node 623 1 0 0
node 700 1 0 0
node 1216 1 0 0
node 1276 1 0 0
node 1425 1 0 0
node 1574 1 0 0
node 1625 1 0 0
node 1636 1 0 0
node 1668 1 0 0
node 1808 1 0 0
node 1936 1 0 0
gene 3 1 13 136740 0 1 136740 1
gene 1 2 13 146622 0 2 146622 0
gene 3 3 13 176406 0 3 176406 1
gene 2 4 13 -30030 0 4 -30030 1
gene 4 5 13 767276 0 5 767276 1
gene 3 6 13 -357692 0 6 -357692 1
gene 4 7 13 -127626 0 7 -127626 1
gene 2 8 13 328887 0 8 328887 1
gene 1 9 13 -722891 0 9 -722891 0
gene 1 10 13 -449976 0 10 -449976 1
gene 1 11 13 622265 0 11 622265 1
gene 2 12 13 259065 0 12 259065 1
gene 3 1 14 -526710 0 13 -526710 1
gene 3 2 14 302055 0 14 302055 0
gene 4 3 14 -251826 0 15 -251826 0
gene 4 4 14 -52101 0 16 -52101 1
gene 2 5 14 -230550 0 17 -230550 0
gene 2 6 14 -800000 0 18 -800000 0
gene 4 7 14 -247920 0 19 -247920 1
gene 1 8 14 -52605 0 20 -52605 1
gene 1 9 14 -93150 0 21 -93150 1
gene 2 10 14 -384939 0 22 -384939 1
gene 1 11 14 -345081 0 23 -345081 0
gene 2 12 14 -800000 0 24 -800000 0
gene 4 1 15 -12075 0 25 -12075 1
gene 3 2 15 -475935 0 26 -475935 0
gene 4 3 15 -159129 0 27 -159129 0
gene 3 4 15 9063 0 28 9063 1
gene 3 5 15 302112 0 29 302112 1
gene 3 6 15 758600 0 30 758600 1
gene 3 7 15 142902 0 31 142902 0
gene 3 8 15 -280986 0 32 -280986 1
gene 4 9 15 -609849 0 33 -609849 1
gene 1 10 15 -276108 0 34 -276108 1
gene 4 11 15 -492527 0 35 -492527 1
gene 2 12 15 -121116 0 36 -121116 0
gene 1 11 25 12692 0 61 12692 0
gene 1 25 14 -277113 0 62 -277113 1
gene 1 6 82 -288006 0 224 -288006 1
gene 2 82 14 391557 0 225 391557 0
gene 1 8 25 397389 0 355 397389 1
gene 4 13 15 -507944 0 468 -507944 1
gene 2 82 170 -280269 0 506 -280269 1
gene 2 170 14 -125466 0 507 -125466 1
gene 2 13 13 428955 1 563 428955 1
gene 1 3 25 -800000 0 600 -800000 1
gene 4 12 25 -2945 0 644 -2945 1
gene 3 5 25 -572495 0 701 -572495 1
gene 1 2 261 -242600 0 793 -242600 1
gene 1 261 13 602727 0 794 602727 0
gene 2 2 311 -253437 0 939 -253437 1
gene 3 311 14 740172 0 940 740172 0
gene 3 3 311 774689 0 1098 774689 1
gene 3 2 499 -299172 0 1513 -299172 1
gene 3 499 15 285915 0 1514 285915 0
gene 2 5 510 -403257 0 1553 -403257 1
gene 2 510 14 -29751 0 1554 -29751 1
gene 3 311 538 -424466 0 1631 -424466 1
gene 3 538 14 -325944 0 1632 -325944 1
gene 4 3 612 85584 0 1835 85584 1
gene 4 612 14 453917 0 1836 453917 1
gene 4 3 623 11551 0 1874 11551 0
gene 4 623 15 219749 0 1875 219749 1
gene 4 170 13 -708729 0 1931 -708729 1
gene 4 538 538 -192465 1 1978 -192465 0
gene 4 538 700 529893 1 2098 529893 1
gene 4 700 538 -150810 0 2099 -150810 1
gene 4 170 538 -295482 0 2150 -295482 1
gene 1 261 510 -397407 0 2194 -397407 1
gene 4 25 499 -69615 0 2387 -69615 1
gene 1 5 170 -317925 0 2622 -317925 1
gene 2 25 510 498576 0 3061 498576 1
gene 2 700 700 -299811 1 3103 -299811 0
gene 1 170 170 -149274 1 3316 -149274 1
gene 2 311 15 238758 0 3413 238758 1
gene 4 700 499 156840 0 3560 156840 1
gene 1 11 1216 8562 0 3603 8562 1
gene 1 1216 25 -238326 0 3604 -238326 1
gene 4 14 623 -202014 0 3763 -202014 1
gene 3 499 1276 91980 0 3782 91980 1
gene 3 1276 15 -604269 0 3783 -604269 1
gene 2 510 15 -280233 0 3838 -280233 1
gene 1 9 1425 178560 0 4198 178560 1
gene 1 1425 13 -256008 0 4199 -256008 1
gene 4 13 14 -548082 0 4418 -548082 1
gene 4 12 170 230274 0 4525 230274 1
gene 2 700 1574 -35844 1 4636 -35844 1
gene 2 1574 700 415308 0 4637 415308 1
gene 2 12 1625 -60864 0 4779 -60864 1
gene 2 1625 14 -301992 0 4780 -301992 1
gene 1 261 1636 -128652 0 4817 -128652 1
gene 1 1636 13 -104190 0 4818 -104190 1
gene 2 12 1668 -149358 0 4916 -149358 1
gene 2 1668 15 8352 0 4917 8352 1
gene 3 1636 538 5310 0 5184 5310 1
gene 3 7 1808 -261207 0 5347 -261207 1
gene 3 1808 15 411723 0 5348 411723 1
gene 4 3 1936 1 0 5735 0 1
gene 4 1936 623 11551 0 5736 0 1
genomeend 57


/* Organism #62 Fitness: 200.000000 Time: 0 */
/* Position #62*/
#1 x: 71 y: 20
#2 x: 36 y: 35
#3 x: 82 y: 22
#4 x: 25 y: 84
#5 x: 76 y: 63
#6 x: 76 y: 78
genomestart 62
trait 1 1.000000 0.000000 0.000000 0.000000 0.000000 0.000000 0.000000 0.000000 trait 2 0.000000 41995.000000 0.000000 0.000000 0.000000 4712.000000 100000.000000 0.000000 trait 3 3.000000 0.000000 0.000000 83554.000000 0.000000 0.000000 0.000000 0.000000 trait 4 4.000000 0.000000 0.000000 0.000000 98273.000000 63100.000000 0.000000 0.000000 node 1 2 1 3
node 2 2 1 1
node 3 3 1 1
node 4 1 1 1
node 5 1 1 1
node 6 3 1 1
node 7 1 1 1
node 8 1 1 1
node 9 3 1 1
node 10 1 1 1
node 11 1 1 1
node 12 1 1 1
node 13 3 0 2
node 14 4 0 2
node 15 3 0 2
node 21 4 0 0
node 37 1 0 0
node 50 1 0 0
node 63 2 0 0
node 74 2 0 0
node 197 1 0 0
node 459 1 0 0
node 526 1 0 0
node 555 1 0 0
node 573 1 0 0
node 592 1 0 0
node 670 1 0 0
node 825 1 0 0
node 895 1 0 0
node 913 1 0 0
node 927 1 0 0
node 1124 1 0 0
node 1139 1 0 0
node 1152 1 0 0
node 1207 1 0 0
node 1246 1 0 0
node 1288 1 0 0
node 1349 1 0 0
node 1409 1 0 0
node 1469 1 0 0
node 1482 1 0 0
node 1685 1 0 0
node 1818 1 0 0
node 1852 1 0 0
gene 3 1 13 -171849 0 1 -171849 1
gene 4 2 13 -143178 0 2 -143178 0
gene 3 3 13 16644 0 3 16644 1
gene 2 4 13 132270 0 4 132270 1
gene 1 5 13 -287970 0 5 -287970 1
gene 3 6 13 -407484 0 6 -407484 1
gene 1 7 13 -206124 0 7 -206124 1
gene 2 8 13 103968 0 8 103968 1
gene 2 9 13 -800000 0 9 -800000 0
gene 4 10 13 656927 0 10 656927 1
gene 2 11 13 476325 0 11 476325 0
gene 4 12 13 -41802 0 12 -41802 0
gene 4 1 14 143205 0 13 143205 1
gene 3 2 14 93138 0 14 93138 1
gene 2 3 14 -585372 0 15 -585372 1
gene 3 4 14 -378414 0 16 -378414 1
gene 2 5 14 -465251 0 17 -465251 0
gene 4 6 14 -594617 0 18 -594617 0
gene 1 7 14 -446907 0 19 -446907 1
gene 1 8 14 -202062 0 20 -202062 0
gene 1 9 14 -37050 0 21 -37050 0
gene 3 10 14 -299631 0 22 -299631 1
gene 2 11 14 -650585 0 23 -650585 0
gene 2 12 14 547998 0 24 547998 0
gene 3 1 15 -651617 0 25 -651617 1
gene 4 2 15 764511 0 26 764511 0
gene 2 3 15 -528312 0 27 -528312 1
gene 2 4 15 -647403 0 28 -647403 1
gene 1 5 15 -697668 0 29 -697668 0
gene 1 6 15 349524 0 30 349524 1
gene 4 7 15 -176997 0 31 -176997 1
gene 1 8 15 193584 0 32 193584 1
gene 4 9 15 320049 0 33 320049 0
gene 2 10 15 -366251 0 34 -366251 0
gene 3 11 15 741365 0 35 741365 0
gene 2 12 15 -643014 0 36 -643014 1
gene 2 12 21 51342 0 50 51342 1
gene 2 21 14 -141447 0 51 -141447 0
gene 4 2 37 191886 0 92 191886 0
gene 4 37 13 11763 0 93 11763 0
gene 4 2 50 534711 0 130 534711 1
gene 4 50 37 -53427 0 131 -53427 1
gene 1 11 63 309612 0 166 309612 1
gene 1 63 14 -194460 0 167 -194460 1
gene 2 5 74 694134 0 204 694134 1
gene 2 74 14 538308 0 205 538308 0
gene 4 5 37 138420 0 419 138420 1
gene 3 6 21 384228 0 547 384228 1
gene 4 2 197 -125808 0 591 -125808 1
gene 4 197 15 257865 0 592 257865 1
gene 3 14 50 -241178 0 781 -241178 0
gene 4 9 74 -98889 0 1104 -98889 1
gene 2 9 459 -455076 0 1406 -455076 1
gene 2 459 13 144821 0 1407 144821 1
gene 1 9 526 -33858 0 1593 -33858 0
gene 1 526 14 250548 0 1594 250548 1
gene 2 74 555 -2211 0 1680 -2211 0
gene 2 555 14 -748655 0 1681 -748655 1
gene 1 5 573 -7905 0 1732 -7905 1
gene 1 573 15 -113136 0 1733 -113136 0
gene 1 573 592 -406676 0 1786 -406676 1
gene 1 592 15 -498081 0 1787 -498081 1
gene 2 21 670 -310956 0 2012 -310956 0
gene 2 670 14 -262365 0 2013 -262365 0
gene 4 63 50 -167691 0 2239 -167691 1
gene 3 74 74 -354972 1 2345 -354972 0
gene 1 8 825 472203 0 2466 472203 0
gene 1 825 14 10875 0 2467 10875 1
gene 2 10 895 200364 0 2679 200364 1
gene 2 895 15 554942 0 2680 554942 1
gene 2 74 913 -519039 0 2725 -519039 1
gene 2 913 555 -359349 0 2726 -359349 1
gene 4 11 927 -127803 0 2769 -127803 1
gene 2 927 13 271611 0 2770 271611 1
gene 1 555 197 -687146 0 2872 -687146 1
gene 2 459 459 -628701 1 3224 -628701 1
gene 3 11 1124 538497 0 3336 538497 1
gene 3 1124 15 101106 0 3337 101106 0
gene 4 670 1139 173634 0 3378 173634 1
gene 2 1139 14 -527195 0 3379 -527195 1
gene 1 8 1152 69513 0 3420 69513 0
gene 1 1152 825 189843 0 3421 189843 1
gene 1 895 895 -498609 1 3523 -498609 1
gene 1 8 1207 -239271 0 3577 -239271 1
gene 1 1207 1152 -44793 0 3578 -44793 1
gene 3 1124 1246 -635388 0 3704 -635388 1
gene 3 1246 15 222336 0 3705 222336 1
gene 4 9 1288 -163899 0 3815 -163899 1
gene 4 1288 15 -433533 0 3816 -433533 1
gene 4 6 1349 150951 0 3992 150951 1
gene 4 1349 14 347832 0 3993 347832 1
gene 2 21 1409 -95529 0 4158 -95529 1
gene 2 1409 670 597834 0 4159 597834 1
gene 1 9 1469 185478 0 4326 185478 1
gene 1 1469 526 96384 0 4327 96384 1
gene 3 14 1482 45255 0 4367 45255 1
gene 3 1482 50 800000 0 4368 800000 1
gene 1 3 1139 -305163 0 4409 -305163 1
gene 1 459 913 -495933 0 4476 -495933 1
gene 4 555 74 111369 1 4523 111369 1
gene 3 74 1685 -523329 1 4969 -523329 1
gene 3 1685 74 52125 0 4970 52125 1
gene 4 12 1818 -139647 0 5369 -139647 1
gene 4 1818 13 -56616 0 5370 -56616 1
gene 1 4 1124 613848 0 5428 613848 1
gene 4 37 1852 413062 0 5475 413062 1
gene 4 1852 13 397059 0 5476 397059 1
genomeend 62


/* Organism #70 Fitness: 260.000000 Time: 0 */
/* Position #70*/
#1 x: 80 y: 28
#2 x: 28 y: 32
#3 x: 55 y: 27
#4 x: 28 y: 77
#5 x: 74 y: 80
#6 x: 57 y: 82
genomestart 70
trait 1 0.000000 0.000000 0.000000 0.000000 0.000000 0.000000 22486.000000 0.000000 trait 2 0.000000 41995.000000 0.000000 0.000000 0.000000 4712.000000 100000.000000 0.000000 trait 3 3.000000 0.000000 0.000000 83554.000000 0.000000 0.000000 0.000000 0.000000 trait 4 4.000000 0.000000 0.000000 0.000000 0.000000 0.000000 0.000000 0.000000 node 1 2 1 3
node 2 2 1 1
node 3 3 1 1
node 4 1 1 1
node 5 1 1 1
node 6 3 1 1
node 7 1 1 1
node 8 1 1 1
node 9 3 1 1
node 10 1 1 1
node 11 1 1 1
node 12 1 1 1
node 13 3 0 2
node 14 2 0 2
node 15 3 0 2
node 21 4 0 0
node 37 1 0 0
node 50 1 0 0
node 63 1 0 0
node 74 2 0 0
node 197 1 0 0
node 459 1 0 0
node 526 1 0 0
node 555 1 0 0
node 573 1 0 0
node 592 1 0 0
node 670 1 0 0
node 825 1 0 0
node 895 1 0 0
node 913 1 0 0
node 927 1 0 0
node 1124 1 0 0
node 1139 1 0 0
node 1152 1 0 0
node 1207 1 0 0
node 1246 1 0 0
node 1288 1 0 0
node 1349 1 0 0
node 1417 1 0 0
node 1524 1 0 0
node 1542 1 0 0
node 1621 1 0 0
node 1676 1 0 0
node 1687 1 0 0
node 1866 1 0 0
gene 3 1 13 91578 0 1 91578 1
gene 4 2 13 -59337 0 2 -59337 0
gene 3 3 13 41430 0 3 41430 1
gene 2 4 13 -800000 0 4 -800000 0
gene 1 5 13 140067 0 5 140067 1
gene 2 6 13 -302355 0 6 -302355 1
gene 1 7 13 621738 0 7 621738 1
gene 2 8 13 -800000 0 8 -800000 1
gene 2 9 13 -791048 0 9 -791048 0
gene 4 10 13 -615248 0 10 -615248 1
gene 2 11 13 507498 0 11 507498 0
gene 4 12 13 -423308 0 12 -423308 1
gene 4 1 14 -78192 0 13 -78192 1
gene 3 2 14 -229416 0 14 -229416 1
gene 2 3 14 -319698 0 15 -319698 0
gene 3 4 14 669950 0 16 669950 1
gene 2 5 14 -793463 0 17 -793463 0
gene 4 6 14 24 0 18 24 0
gene 1 7 14 -300384 0 19 -300384 1
gene 1 8 14 -143514 0 20 -143514 0
gene 1 9 14 -273717 0 21 -273717 0
gene 3 10 14 303810 0 22 303810 1
gene 2 11 14 135102 0 23 135102 0
gene 2 12 14 328913 0 24 328913 0
gene 3 1 15 531566 0 25 531566 1
gene 4 2 15 -26748 0 26 -26748 0
gene 2 3 15 103419 0 27 103419 1
gene 2 4 15 800000 0 28 800000 1
gene 1 5 15 -147093 0 29 -147093 0
gene 1 6 15 -129981 0 30 -129981 1
gene 4 7 15 -126894 0 31 -126894 1
gene 1 8 15 265722 0 32 265722 0
gene 4 9 15 26835 0 33 26835 0
gene 2 10 15 282264 0 34 282264 0
gene 3 11 15 69711 0 35 69711 0
gene 2 12 15 -174612 0 36 -174612 1
gene 2 12 21 765 0 50 765 1
gene 2 21 14 -252006 0 51 -252006 0
gene 4 2 37 20298 0 92 20298 0
gene 4 37 13 -152925 0 93 -152925 1
gene 4 2 50 -567861 0 130 -567861 1
gene 4 50 37 -7206 0 131 -7206 1
gene 1 11 63 -728763 0 166 -728763 1
gene 1 63 14 -23871 0 167 -23871 1
gene 2 5 74 -348003 0 204 -348003 1
gene 2 74 14 -186942 0 205 -186942 0
gene 4 5 37 225558 0 419 225558 1
gene 3 6 21 -800000 0 547 -800000 1
gene 4 2 197 213609 0 591 213609 1
gene 4 197 15 -104796 0 592 -104796 1
gene 3 14 50 554322 0 781 554322 1
gene 4 9 74 -113199 0 1104 -113199 1
gene 2 9 459 270471 0 1406 270471 1
gene 1 459 13 -597785 0 1407 -597785 1
gene 1 9 526 685259 0 1593 685259 1
gene 1 526 14 288138 0 1594 288138 0
gene 2 74 555 -512843 0 1680 -512843 0
gene 4 555 14 628323 0 1681 628323 0
gene 1 5 573 8394 0 1732 8394 1
gene 1 573 15 260481 0 1733 260481 0
gene 1 573 592 -800000 0 1786 -800000 1
gene 1 592 15 426675 0 1787 426675 1
gene 2 21 670 -274596 0 2012 -274596 1
gene 2 670 14 513396 0 2013 513396 0
gene 4 63 50 710351 0 2239 710351 1
gene 3 74 74 565928 1 2345 565928 1
gene 1 8 825 -115575 0 2466 -115575 0
gene 1 825 14 -226515 0 2467 -226515 1
gene 2 10 895 310118 0 2679 310118 1
gene 2 895 15 -195237 0 2680 -195237 1
gene 2 74 913 -108240 0 2725 -108240 1
gene 2 913 555 -636828 0 2726 -636828 1
gene 2 11 927 206796 0 2769 206796 1
gene 2 927 13 -53556 0 2770 -53556 1
gene 1 555 197 -72336 0 2872 -72336 1
gene 2 459 459 -60969 1 3224 -60969 1
gene 3 11 1124 83082 0 3336 83082 0
gene 3 1124 15 800000 0 3337 800000 0
gene 2 670 1139 -519276 0 3378 -519276 1
gene 2 1139 14 681068 0 3379 681068 1
gene 1 8 1152 -220383 0 3420 -220383 0
gene 1 1152 825 410856 0 3421 410856 1
gene 1 895 895 -687432 1 3523 -687432 1
gene 1 8 1207 639780 0 3577 639780 1
gene 1 1207 1152 45829 0 3578 45829 1
gene 3 1124 1246 -16740 0 3704 -16740 1
gene 3 1246 15 -133695 0 3705 -133695 1
gene 4 9 1288 205272 0 3815 205272 1
gene 4 1288 15 -58095 0 3816 -58095 1
gene 4 6 1349 -433650 0 3992 -433650 0
gene 3 1349 14 260601 0 3993 260601 1
gene 2 555 1417 -20784 0 4178 -20784 1
gene 2 1417 14 208431 0 4179 208431 1
gene 1 8 1524 -754878 0 4491 -754878 1
gene 1 1524 15 93417 0 4492 93417 1
gene 2 3 1542 -4203 0 4543 -4203 1
gene 2 1542 14 -246687 0 4544 -246687 1
gene 1 1288 197 -333269 0 4594 -333269 1
gene 3 8 63 -392658 0 4729 -392658 1
gene 3 11 1621 -6732 0 4768 -6732 1
gene 3 1621 1124 91170 0 4769 91170 1
gene 4 6 1676 224685 0 4939 224685 1
gene 4 1676 1349 234729 0 4940 234729 1
gene 1 526 1687 346059 0 4973 346059 1
gene 1 1687 14 271404 0 4974 271404 1
gene 2 14 37 -114054 0 5239 -114054 1
gene 2 4 1866 83778 0 5523 83778 1
gene 2 1866 13 -15525 0 5524 -15525 1
gene 2 825 670 177237 0 5637 177237 1
gene 1 1542 1542 -39041 1 5661 -39041 1
genomeend 70


/* Organism #71 Fitness: 200.000000 Time: 0 */
/* Position #71*/
#1 x: 80 y: 28
#2 x: 28 y: 32
#3 x: 55 y: 27
#4 x: 28 y: 77
#5 x: 74 y: 80
#6 x: 57 y: 82
genomestart 71
trait 1 1.000000 95983.000000 0.000000 0.000000 0.000000 0.000000 0.000000 0.000000 trait 2 0.000000 41995.000000 0.000000 0.000000 0.000000 4712.000000 100000.000000 0.000000 trait 3 3.000000 0.000000 0.000000 83554.000000 0.000000 0.000000 0.000000 0.000000 trait 4 4.000000 0.000000 0.000000 0.000000 0.000000 0.000000 0.000000 0.000000 node 1 2 1 3
node 2 2 1 1
node 3 3 1 1
node 4 1 1 1
node 5 1 1 1
node 6 3 1 1
node 7 1 1 1
node 8 1 1 1
node 9 1 1 1
node 10 1 1 1
node 11 1 1 1
node 12 1 1 1
node 13 3 0 2
node 14 2 0 2
node 15 3 0 2
node 21 4 0 0
node 37 1 0 0
node 50 1 0 0
node 63 1 0 0
node 74 2 0 0
node 197 1 0 0
node 459 1 0 0
node 526 1 0 0
node 555 1 0 0
node 573 1 0 0
node 592 1 0 0
node 670 1 0 0
node 825 1 0 0
node 895 1 0 0
node 913 1 0 0
node 927 1 0 0
node 1124 1 0 0
node 1139 3 0 0
node 1152 1 0 0
node 1207 1 0 0
node 1246 1 0 0
node 1288 1 0 0
node 1349 1 0 0
node 1417 1 0 0
node 1612 1 0 0
node 1630 1 0 0
node 1718 1 0 0
node 1793 1 0 0
node 1839 1 0 0
node 1879 1 0 0
node 1908 1 0 0
gene 3 1 13 543225 0 1 543225 1
gene 4 2 13 162222 0 2 162222 0
gene 3 3 13 -127176 0 3 -127176 1
gene 2 4 13 -123150 0 4 -123150 1
gene 1 5 13 3774 0 5 3774 1
gene 2 6 13 -74334 0 6 -74334 1
gene 1 7 13 771216 0 7 771216 1
gene 2 8 13 -80838 0 8 -80838 1
gene 2 9 13 -61641 0 9 -61641 0
gene 4 10 13 -462918 0 10 -462918 1
gene 2 11 13 -452373 0 11 -452373 0
gene 1 12 13 198693 0 12 198693 0
gene 4 1 14 177831 0 13 177831 1
gene 3 2 14 595899 0 14 595899 1
gene 2 3 14 94689 0 15 94689 1
gene 3 4 14 228561 0 16 228561 1
gene 2 5 14 3780 0 17 3780 0
gene 4 6 14 234534 0 18 234534 0
gene 1 7 14 247359 0 19 247359 1
gene 1 8 14 -5931 0 20 -5931 0
gene 1 9 14 -6849 0 21 -6849 0
gene 3 10 14 -238992 0 22 -238992 1
gene 2 11 14 148848 0 23 148848 0
gene 2 12 14 279390 0 24 279390 0
gene 3 1 15 161052 0 25 161052 1
gene 4 2 15 320091 0 26 320091 0
gene 2 3 15 157026 0 27 157026 1
gene 2 4 15 -635958 0 28 -635958 1
gene 1 5 15 111609 0 29 111609 0
gene 1 6 15 -230154 0 30 -230154 1
gene 4 7 15 339837 0 31 339837 1
gene 1 8 15 -9870 0 32 -9870 1
gene 4 9 15 -313902 0 33 -313902 0
gene 4 10 15 -21795 0 34 -21795 0
gene 3 11 15 198489 0 35 198489 0
gene 2 12 15 -322158 0 36 -322158 1
gene 2 12 21 -192093 0 50 -192093 1
gene 2 21 14 413913 0 51 413913 0
gene 4 2 37 -345498 0 92 -345498 0
gene 4 37 13 -131355 0 93 -131355 1
gene 4 2 50 -21222 0 130 -21222 1
gene 4 50 37 91989 0 131 91989 1
gene 1 11 63 -140814 0 166 -140814 1
gene 1 63 14 1860 0 167 1860 1
gene 2 5 74 201225 0 204 201225 1
gene 2 74 14 154587 0 205 154587 0
gene 4 5 37 235752 0 419 235752 1
gene 3 6 21 -76359 0 547 -76359 1
gene 4 2 197 800000 0 591 800000 1
gene 4 197 15 -92553 0 592 -92553 1
gene 3 14 50 -447894 0 781 -447894 1
gene 4 9 74 469113 0 1104 469113 1
gene 2 9 459 800000 0 1406 800000 1
gene 2 459 13 58482 0 1407 58482 1
gene 1 9 526 348261 0 1593 348261 1
gene 1 526 14 -58173 0 1594 -58173 1
gene 2 74 555 -770045 0 1680 -770045 0
gene 2 555 14 -248304 0 1681 -248304 0
gene 1 5 573 -256764 0 1732 -256764 0
gene 1 573 15 35706 0 1733 35706 0
gene 1 573 592 -195978 0 1786 -195978 1
gene 1 592 15 -277242 0 1787 -277242 1
gene 2 21 670 -773589 0 2012 -773589 0
gene 2 670 14 -49860 0 2013 -49860 0
gene 4 63 50 -27447 0 2239 -27447 0
gene 3 74 74 -557910 1 2345 -557910 1
gene 1 8 825 370839 0 2466 370839 0
gene 1 825 14 173655 0 2467 173655 1
gene 2 10 895 -107196 0 2679 -107196 1
gene 2 895 15 -164679 0 2680 -164679 1
gene 2 74 913 -178230 0 2725 -178230 0
gene 2 913 555 -97392 0 2726 -97392 1
gene 2 11 927 -207900 0 2769 -207900 1
gene 2 927 13 180168 0 2770 180168 1
gene 1 555 197 72339 0 2872 72339 1
gene 2 459 459 563868 1 3224 563868 1
gene 3 11 1124 100914 0 3336 100914 1
gene 3 1124 15 98787 0 3337 98787 0
gene 2 670 1139 235959 0 3378 235959 1
gene 2 1139 14 -11082 0 3379 -11082 1
gene 1 8 1152 800000 0 3420 800000 0
gene 1 1152 825 195321 0 3421 195321 1
gene 1 895 895 -142344 1 3523 -142344 1
gene 1 8 1207 673992 0 3577 673992 1
gene 1 1207 1152 55272 0 3578 55272 1
gene 3 1124 1246 -43218 0 3704 -43218 1
gene 4 1246 15 -94770 0 3705 -94770 1
gene 4 9 1288 -300879 0 3815 -300879 1
gene 4 1288 15 117915 0 3816 117915 1
gene 4 6 1349 -515982 0 3992 -515982 1
gene 4 1349 14 -135924 0 3993 -135924 1
gene 2 555 1417 498030 0 4178 498030 0
gene 2 1417 14 -197388 0 4179 -197388 1
gene 3 10 459 -108384 0 4512 -108384 1
gene 4 526 459 -267936 0 4655 -267936 1
gene 2 21 1612 -293598 0 4747 -293598 1
gene 2 1612 670 167700 0 4748 167700 0
gene 4 12 1630 -395964 0 4801 -395964 1
gene 4 1630 13 360402 0 4802 360402 1
gene 2 1612 1718 -127581 0 5065 -127581 1
gene 2 1718 670 -131685 0 5066 -131685 1
gene 2 555 1793 -214872 0 5302 -214872 1
gene 2 1793 1417 226710 0 5303 226710 1
gene 4 63 1839 -113333 0 5440 -113333 1
gene 4 1839 50 -20223 0 5441 -20223 1
gene 2 63 670 207305 0 5494 207305 1
gene 1 63 1612 167445 0 5525 167445 1
gene 1 5 1879 -135419 0 5567 -135419 1
gene 1 1879 573 396504 0 5568 396504 1
gene 2 74 1908 -243194 0 5668 -243194 1
gene 2 1908 913 704364 0 5669 704364 1
genomeend 71


/* Organism #72 Fitness: 160.000000 Time: 0 */
/* Position #72*/
#1 x: 30 y: 32
#2 x: 54 y: 31
#3 x: 52 y: 27
#4 x: 24 y: 61
#5 x: 21 y: 77
#6 x: 64 y: 81
genomestart 72
trait 1 1.000000 0.000000 0.000000 0.000000 0.000000 0.000000 0.000000 0.000000 trait 2 0.000000 41995.000000 0.000000 0.000000 0.000000 4712.000000 100000.000000 0.000000 trait 3 3.000000 0.000000 0.000000 83554.000000 0.000000 0.000000 0.000000 0.000000 trait 4 4.000000 0.000000 0.000000 0.000000 0.000000 0.000000 0.000000 0.000000 node 1 2 1 3
node 2 2 1 1
node 3 3 1 1
node 4 1 1 1
node 5 1 1 1
node 6 3 1 1
node 7 1 1 1
node 8 1 1 1
node 9 3 1 1
node 10 1 1 1
node 11 1 1 1
node 12 1 1 1
node 13 3 0 2
node 14 2 0 2
node 15 3 0 2
node 21 4 0 0
node 37 1 0 0
node 50 1 0 0
node 63 1 0 0
node 74 2 0 0
node 197 1 0 0
node 459 1 0 0
node 526 1 0 0
node 555 1 0 0
node 573 1 0 0
node 592 1 0 0
node 670 1 0 0
node 825 1 0 0
node 895 1 0 0
node 913 1 0 0
node 927 1 0 0
node 1124 1 0 0
node 1139 1 0 0
node 1152 1 0 0
node 1207 1 0 0
node 1246 2 0 0
node 1288 1 0 0
node 1349 1 0 0
node 1417 1 0 0
node 1589 1 0 0
node 1703 1 0 0
node 1751 1 0 0
node 1842 1 0 0
node 1912 1 0 0
gene 3 1 13 457680 0 1 457680 1
gene 4 2 13 132189 0 2 132189 0
gene 3 3 13 -737474 0 3 -737474 1
gene 2 4 13 -51534 0 4 -51534 1
gene 1 5 13 -490965 0 5 -490965 1
gene 2 6 13 -794552 0 6 -794552 1
gene 1 7 13 -226209 0 7 -226209 1
gene 2 8 13 189789 0 8 189789 0
gene 2 9 13 -800000 0 9 -800000 0
gene 4 10 13 -288939 0 10 -288939 1
gene 2 11 13 -734795 0 11 -734795 0
gene 4 12 13 -800000 0 12 -800000 1
gene 4 1 14 -81042 0 13 -81042 1
gene 3 2 14 -285297 0 14 -285297 1
gene 2 3 14 77934 0 15 77934 1
gene 3 4 14 -112032 0 16 -112032 1
gene 2 5 14 752352 0 17 752352 0
gene 4 6 14 -189459 0 18 -189459 0
gene 1 7 14 -800000 0 19 -800000 1
gene 1 8 14 658347 0 20 658347 0
gene 1 9 14 -13914 0 21 -13914 0
gene 3 10 14 56394 0 22 56394 1
gene 2 11 14 211698 0 23 211698 0
gene 2 12 14 71597 0 24 71597 0
gene 3 1 15 155079 0 25 155079 1
gene 4 2 15 -800000 0 26 -800000 0
gene 2 3 15 -800000 0 27 -800000 1
gene 2 4 15 -238881 0 28 -238881 1
gene 1 5 15 -120207 0 29 -120207 0
gene 1 6 15 -555983 0 30 -555983 1
gene 4 7 15 -230961 0 31 -230961 1
gene 1 8 15 129243 0 32 129243 1
gene 4 9 15 -147867 0 33 -147867 0
gene 2 10 15 -527727 0 34 -527727 0
gene 3 11 15 -4029 0 35 -4029 0
gene 2 12 15 553478 0 36 553478 1
gene 2 12 21 788285 0 50 788285 1
gene 2 21 14 -476475 0 51 -476475 0
gene 4 2 37 -196458 0 92 -196458 0
gene 4 37 13 104607 0 93 104607 1
gene 4 2 50 8832 0 130 8832 1
gene 4 50 37 503780 0 131 503780 1
gene 1 11 63 -376540 0 166 -376540 1
gene 1 63 14 -141120 0 167 -141120 1
gene 2 5 74 704798 0 204 704798 1
gene 2 74 14 360471 0 205 360471 0
gene 4 5 37 -113403 0 419 -113403 1
gene 3 6 21 -712083 0 547 -712083 1
gene 4 2 197 -245289 0 591 -245289 1
gene 4 197 15 656958 0 592 656958 1
gene 3 14 50 235431 0 781 235431 1
gene 4 9 74 -531390 0 1104 -531390 1
gene 2 9 459 -145095 0 1406 -145095 1
gene 2 459 13 -327084 0 1407 -327084 1
gene 1 9 526 177558 0 1593 177558 0
gene 1 526 14 -232794 0 1594 -232794 1
gene 2 74 555 54093 0 1680 54093 0
gene 4 555 14 -93660 0 1681 -93660 0
gene 1 5 573 32658 0 1732 32658 1
gene 1 573 15 -417384 0 1733 -417384 0
gene 1 573 592 472428 0 1786 472428 1
gene 1 592 15 -240171 0 1787 -240171 1
gene 2 21 670 74121 0 2012 74121 1
gene 2 670 14 -366732 0 2013 -366732 0
gene 4 63 50 183380 0 2239 183380 1
gene 3 74 74 71442 1 2345 71442 0
gene 1 8 825 101133 0 2466 101133 0
gene 1 825 14 157236 0 2467 157236 1
gene 2 10 895 -457482 0 2679 -457482 0
gene 2 895 15 175152 0 2680 175152 1
gene 2 74 913 195186 0 2725 195186 1
gene 2 913 555 -291471 0 2726 -291471 1
gene 2 11 927 -800000 0 2769 -800000 1
gene 2 927 13 228972 0 2770 228972 1
gene 1 555 197 -260631 0 2872 -260631 1
gene 2 459 459 346719 1 3224 346719 1
gene 3 11 1124 45462 0 3336 45462 1
gene 3 1124 15 -4089 0 3337 -4089 0
gene 2 670 1139 -280077 0 3378 -280077 1
gene 2 1139 14 -527678 0 3379 -527678 1
gene 1 8 1152 -354189 0 3420 -354189 0
gene 1 1152 825 190583 0 3421 190583 1
gene 1 895 895 543540 1 3523 543540 1
gene 1 8 1207 -570459 0 3577 -570459 1
gene 1 1207 1152 123615 0 3578 123615 1
gene 3 1124 1246 291246 0 3704 291246 1
gene 3 1246 15 195042 0 3705 195042 1
gene 4 9 1288 12195 0 3815 12195 1
gene 4 1288 15 -437211 0 3816 -437211 1
gene 4 6 1349 -207303 0 3992 -207303 1
gene 4 1349 14 118008 0 3993 118008 1
gene 2 555 1417 225456 0 4178 225456 1
gene 2 1417 14 -333474 0 4179 -333474 1
gene 1 1207 1139 -251766 0 4375 -251766 0
gene 1 1207 1589 50112 0 4680 50112 1
gene 1 1589 1139 458330 0 4681 458330 1
gene 1 1207 1207 -384833 1 4724 -384833 1
gene 2 10 1703 -719358 0 5027 -719358 1
gene 2 1703 895 -187635 0 5028 -187635 1
gene 2 8 1751 -5312 0 5156 -5312 1
gene 2 1751 13 -14031 0 5157 -14031 1
gene 3 1288 459 4032 0 5199 4032 1
gene 3 1152 1288 233652 0 5382 233652 1
gene 1 9 1842 146695 0 5448 146695 1
gene 1 1842 526 -393198 0 5449 -393198 1
gene 4 4 197 -187681 0 5584 -187681 1
gene 3 74 1912 -249848 1 5679 -249848 1
gene 3 1912 74 74961 0 5680 74961 1
genomeend 72


/* Organism #79 Fitness: 140.000000 Time: 0 */
/* Position #79*/
#1 x: 51 y: 16
#2 x: 81 y: 16
#3 x: 37 y: 19
#4 x: 38 y: 66
#5 x: 24 y: 68
#6 x: 82 y: 77
genomestart 79
trait 1 0.000000 0.000000 0.000000 0.000000 0.000000 0.000000 0.000000 0.000000 trait 2 2.000000 0.000000 0.000000 3198.000000 0.000000 0.000000 0.000000 25005.000000 trait 3 0.000000 0.000000 0.000000 0.000000 85674.000000 0.000000 0.000000 42444.000000 trait 4 4.000000 0.000000 0.000000 0.000000 0.000000 0.000000 34570.000000 0.000000 node 1 1 1 3
node 2 2 1 1
node 3 3 1 1
node 4 1 1 1
node 5 1 1 1
node 6 1 1 1
node 7 3 1 1
node 8 2 1 1
node 9 4 1 1
node 10 2 1 1
node 11 4 1 1
node 12 1 1 1
node 13 1 0 2
node 14 4 0 2
node 15 1 0 2
node 53 3 0 0
node 91 1 0 0
node 187 1 0 0
node 309 1 0 0
node 322 1 0 0
node 351 1 0 0
node 387 1 0 0
node 407 1 0 0
node 474 1 0 0
node 573 1 0 0
node 605 1 0 0
node 671 1 0 0
node 769 1 0 0
node 824 1 0 0
node 919 1 0 0
node 1079 4 0 0
node 1243 1 0 0
node 1434 1 0 0
node 1445 1 0 0
node 1658 1 0 0
node 1777 1 0 0
gene 1 1 13 -525087 0 1 -525087 1
gene 2 2 13 486012 0 2 486012 1
gene 4 3 13 -389448 0 3 -389448 1
gene 1 4 13 479646 0 4 479646 0
gene 3 5 13 800000 0 5 800000 0
gene 2 6 13 289731 0 6 289731 1
gene 4 7 13 -290724 0 7 -290724 1
gene 1 8 13 150921 0 8 150921 1
gene 4 9 13 -558533 0 9 -558533 1
gene 1 10 13 71670 0 10 71670 1
gene 3 11 13 359190 0 11 359190 1
gene 2 12 13 294561 0 12 294561 1
gene 3 1 14 6612 0 13 6612 1
gene 3 2 14 -47592 0 14 -47592 1
gene 3 3 14 -292646 0 15 -292646 0
gene 4 4 14 -235524 0 16 -235524 1
gene 3 5 14 -294096 0 17 -294096 1
gene 1 6 14 136587 0 18 136587 1
gene 2 7 14 -141732 0 19 -141732 0
gene 3 8 14 -250635 0 20 -250635 1
gene 1 9 14 92931 0 21 92931 1
gene 1 10 14 -800000 0 22 -800000 0
gene 4 11 14 287079 0 23 287079 1
gene 3 12 14 -292062 0 24 -292062 0
gene 3 1 15 518169 0 25 518169 1
gene 3 2 15 760994 0 26 760994 0
gene 4 3 15 -9060 0 27 -9060 1
gene 1 4 15 143769 0 28 143769 0
gene 2 5 15 -272358 0 29 -272358 0
gene 3 6 15 -498207 0 30 -498207 1
gene 1 7 15 -209406 0 31 -209406 0
gene 3 8 15 -240216 0 32 -240216 1
gene 1 9 15 -206604 0 33 -206604 1
gene 3 10 15 69108 0 34 69108 0
gene 3 11 15 128955 0 35 128955 1
gene 2 12 15 408858 0 36 408858 1
gene 2 12 53 -124611 0 138 -124611 0
gene 1 53 14 187698 0 139 187698 0
gene 2 53 91 -243543 0 249 -243543 1
gene 2 91 14 28572 0 250 28572 1
gene 3 10 53 -107478 0 295 -107478 1
gene 3 3 187 -108561 0 556 -108561 0
gene 3 187 14 538056 0 557 538056 1
gene 3 10 91 219012 0 832 219012 1
gene 2 7 309 690771 0 933 690771 0
gene 2 309 14 410376 0 934 410376 1
gene 3 2 322 -288726 0 977 -288726 0
gene 3 322 15 647439 0 978 647439 1
gene 4 13 91 5553 0 1021 5553 1
gene 1 10 351 202830 0 1064 202830 1
gene 1 351 14 -371838 0 1065 -371838 1
gene 3 8 53 -18549 0 1114 -18549 0
gene 3 3 387 503958 0 1168 503958 1
gene 3 387 187 -7962 0 1169 -7962 1
gene 3 2 407 -762627 0 1228 -762627 0
gene 3 407 322 -68010 0 1229 -68010 1
gene 2 91 309 346488 0 1375 346488 1
gene 1 7 474 320337 0 1444 320337 1
gene 1 474 15 -85371 0 1445 -85371 1
gene 2 53 407 231365 0 1569 231365 1
gene 2 5 573 280545 0 1732 280545 1
gene 2 573 15 -137001 0 1733 -137001 1
gene 3 8 605 696878 0 1820 696878 1
gene 3 605 53 -193455 0 1821 -193455 1
gene 1 4 671 -469176 0 2014 -469176 1
gene 4 671 13 77865 0 2015 77865 1
gene 1 11 91 -515949 0 2071 -515949 1
gene 2 9 605 273690 0 2162 273690 1
gene 2 12 769 -4530 0 2310 -4530 1
gene 2 769 53 -4914 0 2311 -4914 1
gene 3 1 53 467523 0 2355 467523 1
gene 1 4 824 -554991 0 2463 -554991 0
gene 1 824 15 216390 0 2464 216390 0
gene 4 769 769 -278886 1 2610 -278886 1
gene 3 10 919 -368940 0 2745 -368940 1
gene 3 919 15 -179973 0 2746 -179973 1
gene 1 9 91 -280818 0 2955 -280818 1
gene 4 351 474 63633 0 2992 63633 1
gene 3 2 1079 27717 0 3212 27717 1
gene 3 1079 407 74715 0 3213 74715 1
gene 2 769 605 176196 0 3665 176196 0
gene 2 769 1243 179775 0 3698 179775 1
gene 2 1243 605 -274554 0 3699 -274554 1
gene 3 5 1434 -168858 0 4227 -168858 1
gene 3 1434 13 296055 0 4228 296055 1
gene 1 4 1445 -80775 0 4258 -80775 1
gene 1 1445 824 -13338 0 4259 -13338 1
gene 3 1243 919 112410 0 4395 112410 1
gene 2 322 573 85785 0 4425 85785 1
gene 3 11 351 275592 0 4563 275592 1
gene 4 474 474 207351 1 4713 207351 1
gene 2 7 1658 644736 0 4880 644736 1
gene 2 1658 309 -183795 0 4881 -183795 1
gene 4 12 1079 158434 0 4925 158434 1
gene 1 824 1777 40485 0 5253 40485 1
gene 1 1777 15 -694470 0 5254 -694470 1
gene 3 351 769 196923 0 5423 196923 1
genomeend 79


