/* Organism #67 Fitness: 155.000000 Time: 0 */
/* Position #67*/
#1 x: 62 y: 21
#2 x: 47 y: 35
#3 x: 26 y: 35
#4 x: 36 y: 81
#5 x: 18 y: 82
#6 x: 47 y: 61
genomestart 67
node 1 2 1 3
node 2 1 1 1
node 3 3 1 1
node 4 3 1 1
node 5 3 1 1
node 6 1 1 1
node 7 1 1 1
node 8 4 1 1
node 9 2 1 1
node 10 4 1 1
node 11 4 1 1
node 12 3 1 1
node 13 1 0 2
node 14 2 0 2
node 15 1 0 2
node 16 1 0 2
gene 2 1 13 44160 0 1 44160 1
gene 4 2 13 351420 0 2 351420 1
gene 2 3 13 328116 0 3 328116 1
gene 2 4 13 -656222 0 4 -656222 1
gene 3 5 13 -446265 0 5 -446265 1
gene 1 6 13 -560436 0 6 -560436 1
gene 3 7 13 -82056 0 7 -82056 1
gene 1 8 13 800000 0 8 800000 1
gene 4 9 13 180462 0 9 180462 1
gene 3 10 13 499968 0 10 499968 1
gene 4 11 13 -272943 0 11 -272943 1
gene 3 12 13 459810 0 12 459810 1
gene 1 1 14 423123 0 13 423123 1
gene 2 2 14 -239307 0 14 -239307 1
gene 1 3 14 -249063 0 15 -249063 1
gene 2 4 14 -150546 0 16 -150546 1
gene 1 5 14 232752 0 17 232752 1
gene 2 6 14 335385 0 18 335385 1
gene 2 7 14 232377 0 19 232377 1
gene 2 8 14 -330948 0 20 -330948 1
gene 2 9 14 -303081 0 21 -303081 1
gene 3 10 14 667647 0 22 667647 1
gene 3 11 14 800000 0 23 800000 1
gene 3 12 14 -71835 0 24 -71835 1
gene 2 1 15 -154995 0 25 -154995 1
gene 2 2 15 164292 0 26 164292 1
gene 2 3 15 311484 0 27 311484 1
gene 1 4 15 -188673 0 28 -188673 1
gene 4 5 15 180993 0 29 180993 1
gene 4 6 15 -467076 0 30 -467076 1
gene 2 7 15 -464466 0 31 -464466 1
gene 2 8 15 608289 0 32 608289 1
gene 4 9 15 120657 0 33 120657 1
gene 1 10 15 540618 0 34 540618 1
gene 4 11 15 251487 0 35 251487 1
gene 1 12 15 -19491 0 36 -19491 1
gene 1 1 16 766818 0 37 766818 1
gene 4 2 16 -674265 0 38 -674265 1
gene 4 3 16 211215 0 39 211215 1
gene 1 4 16 596652 0 40 596652 1
gene 3 5 16 -45243 0 41 -45243 1
gene 1 6 16 -478116 0 42 -478116 1
gene 4 7 16 192459 0 43 192459 1
gene 4 8 16 412080 0 44 412080 1
gene 3 9 16 78714 0 45 78714 1
gene 3 10 16 219288 0 46 219288 1
gene 2 11 16 278118 0 47 278118 1
gene 4 12 16 -237996 0 48 -237996 1
gene 2 16 15 -29043 0 72 -29043 1
gene 3 13 14 -800000 0 137 -800000 1
gene 4 14 16 -297972 0 167 -297972 1
gene 4 13 16 75831 0 202 75831 1
gene 3 16 16 436362 1 215 436362 1
genomeend 67


