/* Organism #2 Fitness: 180.000000 Time: 0 */
/* Position #2*/
#1 x: 31 y: 25
#2 x: 63 y: 22
#3 x: 70 y: 34
#4 x: 61 y: 63
#5 x: 22 y: 72
#6 x: 18 y: 70
genomestart 2
node 1 1 1 3
node 2 2 1 1
node 3 1 1 1
node 4 4 1 1
node 5 3 1 1
node 6 1 1 1
node 7 3 1 1
node 8 1 1 1
node 9 4 1 1
node 10 2 1 1
node 11 2 1 1
node 12 4 1 1
node 13 2 0 2
node 14 4 0 2
node 15 1 0 2
gene 3 1 13 94437 0 1 94437 1
gene 4 2 13 -433563 0 2 -433563 1
gene 4 3 13 120036 0 3 120036 1
gene 4 4 13 -348621 0 4 -348621 1
gene 4 5 13 13404 0 5 13404 1
gene 4 6 13 -638405 0 6 -638405 1
gene 3 7 13 -227583 0 7 -227583 1
gene 3 8 13 225372 0 8 225372 1
gene 2 9 13 -363195 0 9 -363195 1
gene 1 10 13 -362799 0 10 -362799 1
gene 4 11 13 -3792 0 11 -3792 1
gene 2 12 13 -538632 0 12 -538632 1
gene 3 1 14 601484 0 13 601484 1
gene 2 2 14 -76215 0 14 -76215 1
gene 4 3 14 569160 0 15 569160 1
gene 1 4 14 31713 0 16 31713 1
gene 3 5 14 534708 0 17 534708 1
gene 3 6 14 26121 0 18 26121 1
gene 2 7 14 698156 0 19 698156 1
gene 4 8 14 -228612 0 20 -228612 1
gene 1 9 14 240319 0 21 240319 1
gene 3 10 14 -800000 0 22 -800000 1
gene 2 11 14 -91752 0 23 -91752 1
gene 1 12 14 554324 0 24 554324 1
gene 3 1 15 -361731 0 25 -361731 1
gene 2 2 15 -251277 0 26 -251277 1
gene 2 3 15 -404864 0 27 -404864 1
gene 1 4 15 -464942 0 28 -464942 1
gene 2 5 15 -70356 0 29 -70356 1
gene 1 6 15 -349563 0 30 -349563 1
gene 1 7 15 475893 0 31 475893 1
gene 3 8 15 466512 0 32 466512 1
gene 2 9 15 428658 0 33 428658 1
gene 2 10 15 149820 0 34 149820 1
gene 2 11 15 -317319 0 35 -317319 1
gene 4 12 15 -728559 0 36 -728559 1
genomeend 2


/* Organism #18 Fitness: 180.000000 Time: 0 */
/* Position #18*/
#1 x: 73 y: 20
#2 x: 28 y: 24
#3 x: 63 y: 28
#4 x: 85 y: 71
#5 x: 57 y: 80
#6 x: 65 y: 68
genomestart 18
node 1 1 1 3
node 2 2 1 1
node 3 1 1 1
node 4 4 1 1
node 5 1 1 1
node 6 1 1 1
node 7 1 1 1
node 8 1 1 1
node 9 4 1 1
node 10 2 1 1
node 11 2 1 1
node 12 4 1 1
node 13 2 0 2
node 14 4 0 2
node 15 1 0 2
gene 3 1 13 -529773 0 1 -529773 1
gene 4 2 13 90096 0 2 90096 1
gene 4 3 13 63159 0 3 63159 1
gene 4 4 13 298446 0 4 298446 1
gene 4 5 13 -28305 0 5 -28305 1
gene 4 6 13 -800000 0 6 -800000 1
gene 3 7 13 119259 0 7 119259 1
gene 3 8 13 -87459 0 8 -87459 1
gene 2 9 13 74718 0 9 74718 1
gene 1 10 13 720272 0 10 720272 1
gene 4 11 13 50145 0 11 50145 1
gene 2 12 13 -170052 0 12 -170052 1
gene 3 1 14 422538 0 13 422538 1
gene 2 2 14 -573719 0 14 -573719 1
gene 4 3 14 -17295 0 15 -17295 1
gene 1 4 14 451119 0 16 451119 1
gene 3 5 14 252250 0 17 252250 1
gene 3 6 14 -100389 0 18 -100389 1
gene 2 7 14 463658 0 19 463658 1
gene 4 8 14 -682629 0 20 -682629 1
gene 1 9 14 -561015 0 21 -561015 1
gene 3 10 14 -626571 0 22 -626571 1
gene 2 11 14 520424 0 23 520424 1
gene 1 12 14 121299 0 24 121299 1
gene 3 1 15 97380 0 25 97380 1
gene 2 2 15 -269394 0 26 -269394 1
gene 2 3 15 392299 0 27 392299 1
gene 1 4 15 109869 0 28 109869 1
gene 2 5 15 -5937 0 29 -5937 1
gene 1 6 15 441405 0 30 441405 1
gene 1 7 15 16137 0 31 16137 1
gene 3 8 15 -347877 0 32 -347877 1
gene 2 9 15 -286686 0 33 -286686 1
gene 2 10 15 228825 0 34 228825 1
gene 2 11 15 -235314 0 35 -235314 1
gene 4 12 15 -22971 0 36 -22971 1
gene 2 13 13 -216192 1 166 -216192 1
genomeend 18


/* Organism #19 Fitness: 160.000000 Time: 0 */
/* Position #19*/
#1 x: 73 y: 20
#2 x: 28 y: 24
#3 x: 63 y: 28
#4 x: 85 y: 71
#5 x: 57 y: 80
#6 x: 65 y: 68
genomestart 19
node 1 1 1 3
node 2 2 1 1
node 3 1 1 1
node 4 4 1 1
node 5 3 1 1
node 6 1 1 1
node 7 1 1 1
node 8 1 1 1
node 9 4 1 1
node 10 2 1 1
node 11 2 1 1
node 12 4 1 1
node 13 2 0 2
node 14 4 0 2
node 15 1 0 2
gene 3 1 13 -27567 0 1 -27567 1
gene 4 2 13 96957 0 2 96957 1
gene 4 3 13 -247602 0 3 -247602 1
gene 4 4 13 706833 0 4 706833 1
gene 4 5 13 -372951 0 5 -372951 1
gene 4 6 13 75813 0 6 75813 1
gene 3 7 13 200421 0 7 200421 1
gene 3 8 13 186918 0 8 186918 1
gene 2 9 13 -165864 0 9 -165864 1
gene 1 10 13 407178 0 10 407178 1
gene 4 11 13 266418 0 11 266418 1
gene 2 12 13 103791 0 12 103791 1
gene 3 1 14 272733 0 13 272733 1
gene 2 2 14 -667919 0 14 -667919 1
gene 4 3 14 175438 0 15 175438 1
gene 1 4 14 -276591 0 16 -276591 1
gene 3 5 14 200263 0 17 200263 1
gene 3 6 14 227226 0 18 227226 1
gene 2 7 14 143981 0 19 143981 1
gene 4 8 14 179742 0 20 179742 1
gene 1 9 14 79098 0 21 79098 1
gene 3 10 14 -800000 0 22 -800000 1
gene 2 11 14 433814 0 23 433814 1
gene 1 12 14 800000 0 24 800000 1
gene 3 1 15 135162 0 25 135162 1
gene 2 2 15 1515 0 26 1515 1
gene 2 3 15 284719 0 27 284719 1
gene 1 4 15 -563132 0 28 -563132 1
gene 2 5 15 426828 0 29 426828 1
gene 1 6 15 473775 0 30 473775 1
gene 1 7 15 165108 0 31 165108 1
gene 3 8 15 -252156 0 32 -252156 1
gene 2 9 15 -94662 0 33 -94662 1
gene 2 10 15 -367440 0 34 -367440 1
gene 2 11 15 -240756 0 35 -240756 1
gene 4 12 15 -582783 0 36 -582783 1
gene 2 13 13 211295 1 166 211295 1
genomeend 19


/* Organism #23 Fitness: 180.000000 Time: 0 */
/* Position #23*/
#1 x: 30 y: 22
#2 x: 36 y: 28
#3 x: 71 y: 40
#4 x: 73 y: 67
#5 x: 50 y: 73
#6 x: 21 y: 66
genomestart 23
node 1 1 1 3
node 2 2 1 1
node 3 1 1 1
node 4 4 1 1
node 5 3 1 1
node 6 1 1 1
node 7 1 1 1
node 8 1 1 1
node 9 4 1 1
node 10 2 1 1
node 11 2 1 1
node 12 4 1 1
node 13 2 0 2
node 14 4 0 2
node 15 1 0 2
gene 3 1 13 163326 0 1 163326 1
gene 4 2 13 -104481 0 2 -104481 1
gene 4 3 13 -16071 0 3 -16071 1
gene 4 4 13 600114 0 4 600114 1
gene 4 5 13 -385725 0 5 -385725 1
gene 4 6 13 66204 0 6 66204 1
gene 3 7 13 307269 0 7 307269 1
gene 3 8 13 117456 0 8 117456 1
gene 2 9 13 55335 0 9 55335 1
gene 1 10 13 569538 0 10 569538 1
gene 4 11 13 144228 0 11 144228 1
gene 2 12 13 240837 0 12 240837 1
gene 3 1 14 18939 0 13 18939 1
gene 2 2 14 -605702 0 14 -605702 1
gene 4 3 14 20122 0 15 20122 1
gene 1 4 14 -527832 0 16 -527832 1
gene 3 5 14 222385 0 17 222385 1
gene 3 6 14 413310 0 18 413310 1
gene 2 7 14 -37435 0 19 -37435 1
gene 4 8 14 165222 0 20 165222 1
gene 1 9 14 280716 0 21 280716 1
gene 3 10 14 -800000 0 22 -800000 1
gene 2 11 14 323225 0 23 323225 1
gene 1 12 14 800000 0 24 800000 1
gene 3 1 15 -147516 0 25 -147516 1
gene 2 2 15 -174504 0 26 -174504 1
gene 2 3 15 468556 0 27 468556 1
gene 1 4 15 -421379 0 28 -421379 1
gene 2 5 15 307296 0 29 307296 1
gene 1 6 15 744372 0 30 744372 1
gene 1 7 15 165108 0 31 165108 1
gene 3 8 15 -99894 0 32 -99894 1
gene 2 9 15 -94662 0 33 -94662 1
gene 2 10 15 -367440 0 34 -367440 1
gene 2 11 15 -334761 0 35 -334761 1
gene 4 12 15 -540174 0 36 -540174 1
gene 2 13 13 211295 1 166 211295 1
genomeend 23


/* Organism #38 Fitness: 160.000000 Time: 0 */
/* Position #38*/
#1 x: 17 y: 39
#2 x: 29 y: 38
#3 x: 48 y: 32
#4 x: 22 y: 81
#5 x: 62 y: 60
#6 x: 16 y: 71
genomestart 38
node 1 1 1 3
node 2 2 1 1
node 3 1 1 1
node 4 4 1 1
node 5 3 1 1
node 6 1 1 1
node 7 3 1 1
node 8 1 1 1
node 9 4 1 1
node 10 2 1 1
node 11 2 1 1
node 12 4 1 1
node 13 2 0 2
node 14 4 0 2
node 15 1 0 2
gene 3 1 13 407688 0 1 407688 1
gene 4 2 13 -81417 0 2 -81417 1
gene 4 3 13 87483 0 3 87483 1
gene 4 4 13 116313 0 4 116313 1
gene 4 5 13 -86079 0 5 -86079 1
gene 4 6 13 -675995 0 6 -675995 1
gene 3 7 13 -266007 0 7 -266007 1
gene 3 8 13 -125127 0 8 -125127 1
gene 2 9 13 329502 0 9 329502 1
gene 1 10 13 432834 0 10 432834 1
gene 4 11 13 241761 0 11 241761 1
gene 2 12 13 500433 0 12 500433 1
gene 3 1 14 -118890 0 13 -118890 1
gene 2 2 14 -57819 0 14 -57819 1
gene 4 3 14 -115227 0 15 -115227 1
gene 1 4 14 -134814 0 16 -134814 1
gene 3 5 14 -171117 0 17 -171117 1
gene 3 6 14 -166227 0 18 -166227 1
gene 2 7 14 77721 0 19 77721 1
gene 4 8 14 -595809 0 20 -595809 1
gene 1 9 14 -518706 0 21 -518706 1
gene 3 10 14 -318102 0 22 -318102 1
gene 2 11 14 -51945 0 23 -51945 1
gene 1 12 14 -444567 0 24 -444567 1
gene 3 1 15 -596388 0 25 -596388 1
gene 2 2 15 442593 0 26 442593 1
gene 2 3 15 276984 0 27 276984 1
gene 1 4 15 162141 0 28 162141 1
gene 2 5 15 -447078 0 29 -447078 1
gene 1 6 15 232371 0 30 232371 1
gene 1 7 15 -605043 0 31 -605043 1
gene 3 8 15 -677120 0 32 -677120 1
gene 2 9 15 734865 0 33 734865 1
gene 2 10 15 -284895 0 34 -284895 1
gene 2 11 15 29985 0 35 29985 1
gene 4 12 15 -467271 0 36 -467271 1
gene 4 15 13 -337333 0 112 -337333 1
genomeend 38


/* Organism #48 Fitness: 200.000000 Time: 0 */
/* Position #48*/
#1 x: 69 y: 29
#2 x: 52 y: 16
#3 x: 80 y: 16
#4 x: 54 y: 80
#5 x: 49 y: 62
#6 x: 38 y: 74
genomestart 48
node 1 1 1 3
node 2 2 1 1
node 3 1 1 1
node 4 4 1 1
node 5 3 1 1
node 6 1 1 1
node 7 3 1 1
node 8 1 1 1
node 9 4 1 1
node 10 2 1 1
node 11 2 1 1
node 12 4 1 1
node 13 2 0 2
node 14 4 0 2
node 15 1 0 2
gene 3 1 13 109158 0 1 109158 1
gene 4 2 13 79764 0 2 79764 1
gene 4 3 13 -22656 0 3 -22656 1
gene 4 4 13 66171 0 4 66171 1
gene 4 5 13 87633 0 5 87633 1
gene 4 6 13 377583 0 6 377583 1
gene 3 7 13 261066 0 7 261066 1
gene 3 8 13 201423 0 8 201423 1
gene 2 9 13 489977 0 9 489977 1
gene 1 10 13 -715374 0 10 -715374 1
gene 4 11 13 307230 0 11 307230 1
gene 2 12 13 -259617 0 12 -259617 1
gene 3 1 14 -535887 0 13 -535887 1
gene 2 2 14 105864 0 14 105864 1
gene 4 3 14 -288018 0 15 -288018 1
gene 1 4 14 -106692 0 16 -106692 1
gene 3 5 14 49461 0 17 49461 1
gene 2 6 14 102675 0 18 102675 1
gene 2 7 14 562239 0 19 562239 1
gene 4 8 14 -775454 0 20 -775454 1
gene 1 9 14 -115488 0 21 -115488 1
gene 3 10 14 400002 0 22 400002 1
gene 2 11 14 102165 0 23 102165 1
gene 1 12 14 293614 0 24 293614 1
gene 3 1 15 10389 0 25 10389 1
gene 2 2 15 556146 0 26 556146 1
gene 2 3 15 223752 0 27 223752 1
gene 1 4 15 -272328 0 28 -272328 1
gene 2 5 15 310287 0 29 310287 1
gene 1 6 15 -422358 0 30 -422358 1
gene 1 7 15 -52656 0 31 -52656 1
gene 3 8 15 242589 0 32 242589 1
gene 2 9 15 428343 0 33 428343 1
gene 2 10 15 114303 0 34 114303 1
gene 2 11 15 -479472 0 35 -479472 1
gene 4 12 15 -476517 0 36 -476517 1
genomeend 48


/* Organism #49 Fitness: 200.000000 Time: 0 */
/* Position #49*/
#1 x: 69 y: 29
#2 x: 52 y: 16
#3 x: 80 y: 16
#4 x: 54 y: 80
#5 x: 49 y: 62
#6 x: 38 y: 74
genomestart 49
node 1 1 1 3
node 2 2 1 1
node 3 1 1 1
node 4 4 1 1
node 5 3 1 1
node 6 1 1 1
node 7 3 1 1
node 8 2 1 1
node 9 4 1 1
node 10 2 1 1
node 11 2 1 1
node 12 4 1 1
node 13 2 0 2
node 14 4 0 2
node 15 1 0 2
gene 3 1 13 -56097 0 1 -56097 1
gene 4 2 13 314058 0 2 314058 1
gene 4 3 13 -10416 0 3 -10416 1
gene 4 4 13 339978 0 4 339978 1
gene 4 5 13 -13689 0 5 -13689 1
gene 4 6 13 466545 0 6 466545 1
gene 3 7 13 373971 0 7 373971 1
gene 3 8 13 -56025 0 8 -56025 1
gene 2 9 13 64653 0 9 64653 1
gene 1 10 13 -533220 0 10 -533220 1
gene 4 11 13 185808 0 11 185808 1
gene 2 12 13 -94641 0 12 -94641 1
gene 3 1 14 -535887 0 13 -535887 1
gene 2 2 14 -129441 0 14 -129441 1
gene 4 3 14 -465114 0 15 -465114 1
gene 1 4 14 33348 0 16 33348 1
gene 3 5 14 -181287 0 17 -181287 1
gene 2 6 14 263538 0 18 263538 1
gene 2 7 14 581907 0 19 581907 1
gene 4 8 14 -690746 0 20 -690746 1
gene 1 9 14 -258771 0 21 -258771 1
gene 3 10 14 400002 0 22 400002 1
gene 2 11 14 240240 0 23 240240 1
gene 1 12 14 138115 0 24 138115 1
gene 3 1 15 131409 0 25 131409 1
gene 2 2 15 486780 0 26 486780 1
gene 2 3 15 84882 0 27 84882 1
gene 1 4 15 -367062 0 28 -367062 1
gene 2 5 15 573960 0 29 573960 1
gene 1 6 15 -76203 0 30 -76203 1
gene 1 7 15 -222819 0 31 -222819 1
gene 3 8 15 248205 0 32 248205 1
gene 2 9 15 428343 0 33 428343 1
gene 2 10 15 -246894 0 34 -246894 1
gene 2 11 15 -680880 0 35 -680880 1
gene 4 12 15 -476517 0 36 -476517 1
genomeend 49


/* Organism #66 Fitness: 220.000000 Time: 0 */
/* Position #66*/
#1 x: 84 y: 15
#2 x: 23 y: 24
#3 x: 48 y: 20
#4 x: 29 y: 78
#5 x: 75 y: 82
#6 x: 79 y: 60
genomestart 66
node 1 1 1 3
node 2 2 1 1
node 3 1 1 1
node 4 4 1 1
node 5 3 1 1
node 6 1 1 1
node 7 3 1 1
node 8 1 1 1
node 9 4 1 1
node 10 2 1 1
node 11 2 1 1
node 12 4 1 1
node 13 2 0 2
node 14 4 0 2
node 15 1 0 2
gene 2 1 13 538770 0 1 538770 1
gene 4 2 13 62538 0 2 62538 1
gene 4 3 13 445131 0 3 445131 1
gene 4 4 13 -364806 0 4 -364806 1
gene 4 5 13 -494208 0 5 -494208 1
gene 4 6 13 277665 0 6 277665 1
gene 3 7 13 206619 0 7 206619 1
gene 3 8 13 -773054 0 8 -773054 1
gene 2 9 13 679823 0 9 679823 1
gene 1 10 13 -310209 0 10 -310209 1
gene 4 11 13 598956 0 11 598956 1
gene 2 12 13 -349194 0 12 -349194 1
gene 3 1 14 -366519 0 13 -366519 1
gene 2 2 14 171381 0 14 171381 1
gene 4 3 14 47112 0 15 47112 1
gene 1 4 14 -102426 0 16 -102426 1
gene 3 5 14 -50538 0 17 -50538 1
gene 2 6 14 756144 0 18 756144 1
gene 2 7 14 501186 0 19 501186 1
gene 4 8 14 -545534 0 20 -545534 1
gene 1 9 14 -22479 0 21 -22479 1
gene 3 10 14 32466 0 22 32466 1
gene 2 11 14 35784 0 23 35784 1
gene 1 12 14 341503 0 24 341503 1
gene 3 1 15 15636 0 25 15636 1
gene 2 2 15 210093 0 26 210093 1
gene 2 3 15 277254 0 27 277254 1
gene 1 4 15 -11640 0 28 -11640 1
gene 2 5 15 138732 0 29 138732 1
gene 1 6 15 98550 0 30 98550 1
gene 1 7 15 -35349 0 31 -35349 1
gene 3 8 15 -92460 0 32 -92460 1
gene 2 9 15 548799 0 33 548799 1
gene 2 10 15 -95190 0 34 -95190 1
gene 2 11 15 -428184 0 35 -428184 1
gene 4 12 15 -448194 0 36 -448194 1
genomeend 66


/* Organism #86 Fitness: 160.000000 Time: 0 */
/* Position #86*/
#1 x: 24 y: 31
#2 x: 77 y: 36
#3 x: 45 y: 17
#4 x: 70 y: 75
#5 x: 80 y: 83
#6 x: 81 y: 83
genomestart 86
node 1 1 1 3
node 2 2 1 1
node 3 1 1 1
node 4 4 1 1
node 5 3 1 1
node 6 1 1 1
node 7 3 1 1
node 8 1 1 1
node 9 4 1 1
node 10 2 1 1
node 11 2 1 1
node 12 4 1 1
node 13 2 0 2
node 14 4 0 2
node 15 1 0 2
gene 3 1 13 -92874 0 1 -92874 1
gene 4 2 13 -192657 0 2 -192657 1
gene 4 3 13 519696 0 3 519696 1
gene 4 4 13 -197790 0 4 -197790 1
gene 4 5 13 -800000 0 5 -800000 1
gene 4 6 13 287595 0 6 287595 1
gene 3 7 13 -408057 0 7 -408057 1
gene 3 8 13 80199 0 8 80199 1
gene 2 9 13 -128013 0 9 -128013 1
gene 1 10 13 -102231 0 10 -102231 1
gene 4 11 13 -270612 0 11 -270612 1
gene 2 12 13 315495 0 12 315495 1
gene 3 1 14 267441 0 13 267441 1
gene 2 2 14 205623 0 14 205623 1
gene 4 3 14 -427185 0 15 -427185 1
gene 1 4 14 130662 0 16 130662 1
gene 3 5 14 -462630 0 17 -462630 1
gene 3 6 14 182742 0 18 182742 1
gene 2 7 14 655766 0 19 655766 1
gene 4 8 14 -627531 0 20 -627531 1
gene 1 9 14 -40565 0 21 -40565 1
gene 3 10 14 -782771 0 22 -782771 1
gene 2 11 14 146217 0 23 146217 1
gene 1 12 14 12263 0 24 12263 1
gene 3 1 15 125736 0 25 125736 1
gene 2 2 15 -391272 0 26 -391272 1
gene 2 3 15 -151943 0 27 -151943 1
gene 1 4 15 177765 0 28 177765 1
gene 2 5 15 142266 0 29 142266 1
gene 1 6 15 148491 0 30 148491 1
gene 1 7 15 -270858 0 31 -270858 1
gene 3 8 15 -183837 0 32 -183837 1
gene 2 9 15 -597747 0 33 -597747 1
gene 2 10 15 100173 0 34 100173 1
gene 2 11 15 -191097 0 35 -191097 1
gene 4 12 15 -144039 0 36 -144039 1
genomeend 86


/* Organism #87 Fitness: 140.000000 Time: 0 */
/* Position #87*/
#1 x: 24 y: 31
#2 x: 77 y: 36
#3 x: 45 y: 17
#4 x: 70 y: 75
#5 x: 80 y: 83
#6 x: 81 y: 83
genomestart 87
node 1 1 1 3
node 2 2 1 1
node 3 1 1 1
node 4 4 1 1
node 5 3 1 1
node 6 1 1 1
node 7 3 1 1
node 8 1 1 1
node 9 4 1 1
node 10 2 1 1
node 11 2 1 1
node 12 4 1 1
node 13 2 0 2
node 14 4 0 2
node 15 1 0 2
gene 3 1 13 -318300 0 1 -318300 1
gene 4 2 13 -38004 0 2 -38004 1
gene 4 3 13 800000 0 3 800000 1
gene 4 4 13 -481287 0 4 -481287 1
gene 4 5 13 -800000 0 5 -800000 1
gene 4 6 13 451338 0 6 451338 1
gene 3 7 13 -69411 0 7 -69411 1
gene 3 8 13 268995 0 8 268995 1
gene 2 9 13 -223551 0 9 -223551 1
gene 1 10 13 -185247 0 10 -185247 1
gene 4 11 13 -341052 0 11 -341052 1
gene 2 12 13 311673 0 12 311673 1
gene 3 1 14 110271 0 13 110271 1
gene 2 2 14 303051 0 14 303051 1
gene 4 3 14 -104328 0 15 -104328 1
gene 1 4 14 272343 0 16 272343 1
gene 3 5 14 -104625 0 17 -104625 1
gene 3 6 14 -138696 0 18 -138696 1
gene 2 7 14 800000 0 19 800000 1
gene 4 8 14 -695466 0 20 -695466 1
gene 1 9 14 -83654 0 21 -83654 1
gene 3 10 14 -800000 0 22 -800000 1
gene 2 11 14 -121659 0 23 -121659 1
gene 1 12 14 60860 0 24 60860 1
gene 3 1 15 -106575 0 25 -106575 1
gene 2 2 15 -657450 0 26 -657450 1
gene 2 3 15 -171839 0 27 -171839 1
gene 1 4 15 -372762 0 28 -372762 1
gene 2 5 15 28401 0 29 28401 1
gene 1 6 15 -64413 0 30 -64413 1
gene 1 7 15 449001 0 31 449001 1
gene 3 8 15 121785 0 32 121785 1
gene 2 9 15 -409107 0 33 -409107 1
gene 2 10 15 127914 0 34 127914 1
gene 2 11 15 -199716 0 35 -199716 1
gene 4 12 15 247899 0 36 247899 1
genomeend 87


/* Organism #128 Fitness: 240.000000 Time: 0 */
/* Position #128*/
#1 x: 24 y: 23
#2 x: 49 y: 17
#3 x: 46 y: 40
#4 x: 28 y: 64
#5 x: 60 y: 73
#6 x: 43 y: 70
genomestart 128
node 1 1 1 3
node 2 2 1 1
node 3 1 1 1
node 4 4 1 1
node 5 3 1 1
node 6 1 1 1
node 7 3 1 1
node 8 1 1 1
node 9 4 1 1
node 10 2 1 1
node 11 2 1 1
node 12 4 1 1
node 13 2 0 2
node 14 4 0 2
node 15 1 0 2
gene 3 1 13 -103458 0 1 -103458 1
gene 4 2 13 132090 0 2 132090 1
gene 4 3 13 302832 0 3 302832 1
gene 4 4 13 -385275 0 4 -385275 1
gene 4 5 13 130845 0 5 130845 1
gene 4 6 13 142695 0 6 142695 1
gene 3 7 13 -348363 0 7 -348363 1
gene 3 8 13 -440943 0 8 -440943 1
gene 2 9 13 293514 0 9 293514 1
gene 1 10 13 240903 0 10 240903 1
gene 4 11 13 220575 0 11 220575 1
gene 2 12 13 268065 0 12 268065 1
gene 3 1 14 -20241 0 13 -20241 1
gene 2 2 14 81270 0 14 81270 1
gene 4 3 14 -22404 0 15 -22404 1
gene 1 4 14 -636735 0 16 -636735 1
gene 3 5 14 -198330 0 17 -198330 1
gene 3 6 14 -223260 0 18 -223260 1
gene 2 7 14 -107415 0 19 -107415 1
gene 4 8 14 -191478 0 20 -191478 1
gene 1 9 14 -59775 0 21 -59775 1
gene 3 10 14 96933 0 22 96933 1
gene 2 11 14 -318435 0 23 -318435 1
gene 1 12 14 177573 0 24 177573 1
gene 3 1 15 -179691 0 25 -179691 1
gene 2 2 15 85683 0 26 85683 1
gene 2 3 15 337668 0 27 337668 1
gene 1 4 15 493074 0 28 493074 1
gene 2 5 15 -724527 0 29 -724527 1
gene 1 6 15 -95181 0 30 -95181 1
gene 1 7 15 -188043 0 31 -188043 1
gene 3 8 15 54699 0 32 54699 1
gene 2 9 15 704115 0 33 704115 1
gene 2 10 15 -380859 0 34 -380859 1
gene 2 11 15 6897 0 35 6897 1
gene 4 12 15 -113796 0 36 -113796 1
gene 4 15 13 -381835 0 112 -381835 1
genomeend 128


/* Organism #133 Fitness: 120.000000 Time: 0 */
/* Position #133*/
#1 x: 16 y: 25
#2 x: 73 y: 37
#3 x: 83 y: 31
#4 x: 37 y: 60
#5 x: 53 y: 66
#6 x: 68 y: 70
genomestart 133
node 1 1 1 3
node 2 2 1 1
node 3 1 1 1
node 4 4 1 1
node 5 3 1 1
node 6 1 1 1
node 7 3 1 1
node 8 1 1 1
node 9 4 1 1
node 10 2 1 1
node 11 2 1 1
node 12 4 1 1
node 13 2 0 2
node 14 4 0 2
node 15 1 0 2
gene 3 1 13 246471 0 1 246471 1
gene 4 2 13 95613 0 2 95613 1
gene 4 3 13 -119451 0 3 -119451 1
gene 4 4 13 57456 0 4 57456 1
gene 4 5 13 167280 0 5 167280 1
gene 4 6 13 -66027 0 6 -66027 1
gene 3 7 13 423942 0 7 423942 1
gene 3 8 13 147123 0 8 147123 1
gene 2 9 13 391523 0 9 391523 1
gene 1 10 13 -602193 0 10 -602193 1
gene 4 11 13 -264423 0 11 -264423 1
gene 2 12 13 32712 0 12 32712 1
gene 3 1 14 -678516 0 13 -678516 1
gene 2 2 14 -26892 0 14 -26892 1
gene 4 3 14 -532275 0 15 -532275 1
gene 1 4 14 19488 0 16 19488 1
gene 3 5 14 148239 0 17 148239 1
gene 2 6 14 -220107 0 18 -220107 1
gene 2 7 14 31122 0 19 31122 1
gene 4 8 14 -544331 0 20 -544331 1
gene 1 9 14 -26196 0 21 -26196 1
gene 3 10 14 676914 0 22 676914 1
gene 2 11 14 -87756 0 23 -87756 1
gene 1 12 14 428101 0 24 428101 1
gene 3 1 15 -14211 0 25 -14211 1
gene 2 2 15 556146 0 26 556146 1
gene 2 3 15 235839 0 27 235839 1
gene 1 4 15 -330243 0 28 -330243 1
gene 2 5 15 34743 0 29 34743 1
gene 1 6 15 232470 0 30 232470 1
gene 1 7 15 -190455 0 31 -190455 1
gene 3 8 15 232851 0 32 232851 1
gene 2 9 15 187185 0 33 187185 1
gene 2 10 15 265956 0 34 265956 1
gene 2 11 15 -415170 0 35 -415170 1
gene 4 12 15 -539937 0 36 -539937 1
genomeend 133


/* Organism #144 Fitness: 120.000000 Time: 0 */
/* Position #144*/
#1 x: 75 y: 26
#2 x: 51 y: 40
#3 x: 41 y: 36
#4 x: 75 y: 73
#5 x: 35 y: 82
#6 x: 59 y: 74
genomestart 144
node 1 1 1 3
node 2 2 1 1
node 3 1 1 1
node 4 4 1 1
node 5 3 1 1
node 6 1 1 1
node 7 3 1 1
node 8 1 1 1
node 9 4 1 1
node 10 2 1 1
node 11 2 1 1
node 12 2 1 1
node 13 2 0 2
node 14 4 0 2
node 15 1 0 2
gene 3 1 13 538770 0 1 538770 1
gene 4 2 13 157548 0 2 157548 1
gene 4 3 13 539895 0 3 539895 1
gene 4 4 13 -631794 0 4 -631794 1
gene 4 5 13 -671649 0 5 -671649 1
gene 4 6 13 26184 0 6 26184 1
gene 3 7 13 206619 0 7 206619 1
gene 3 8 13 -800000 0 8 -800000 1
gene 2 9 13 246783 0 9 246783 1
gene 1 10 13 -118845 0 10 -118845 1
gene 4 11 13 646278 0 11 646278 1
gene 2 12 13 -391932 0 12 -391932 1
gene 3 1 14 33288 0 13 33288 1
gene 2 2 14 184926 0 14 184926 1
gene 4 3 14 -148203 0 15 -148203 1
gene 1 4 14 -23019 0 16 -23019 1
gene 3 5 14 -288051 0 17 -288051 1
gene 2 6 14 628233 0 18 628233 1
gene 2 7 14 -51150 0 19 -51150 1
gene 4 8 14 -415586 0 20 -415586 1
gene 1 9 14 -2055 0 21 -2055 1
gene 3 10 14 90756 0 22 90756 1
gene 2 11 14 -215868 0 23 -215868 1
gene 1 12 14 105181 0 24 105181 1
gene 3 1 15 -137712 0 25 -137712 1
gene 2 2 15 489234 0 26 489234 1
gene 2 3 15 338832 0 27 338832 1
gene 1 4 15 -65679 0 28 -65679 1
gene 2 5 15 168306 0 29 168306 1
gene 1 6 15 -53646 0 30 -53646 1
gene 1 7 15 -103854 0 31 -103854 1
gene 3 8 15 -106482 0 32 -106482 1
gene 2 9 15 -285552 0 33 -285552 1
gene 2 10 15 -122889 0 34 -122889 1
gene 2 11 15 -428184 0 35 -428184 1
gene 4 12 15 -448194 0 36 -448194 1
genomeend 144


