/* Organism #89 Fitness: 161.000000 Time: 0 */
/* Position #89*/
#1 x: 68 y: 19
#2 x: 21 y: 36
#3 x: 54 y: 18
#4 x: 63 y: 79
#5 x: 34 y: 69
#6 x: 78 y: 73
genomestart 89
node 1 3 1 3
node 2 3 1 1
node 3 2 1 1
node 4 2 1 1
node 5 1 1 1
node 6 2 1 1
node 7 1 1 1
node 8 2 1 1
node 9 2 1 1
node 10 2 1 1
node 11 2 1 1
node 12 4 1 1
node 13 3 0 2
node 14 3 0 2
node 15 3 0 2
node 16 2 0 2
gene 1 1 13 -351984 0 1 -351984 1
gene 2 2 13 137226 0 2 137226 1
gene 4 3 13 411423 0 3 411423 1
gene 3 4 13 -711240 0 4 -711240 1
gene 3 5 13 -312819 0 5 -312819 1
gene 1 6 13 132963 0 6 132963 1
gene 3 7 13 655478 0 7 655478 1
gene 1 8 13 151257 0 8 151257 1
gene 3 9 13 -145701 0 9 -145701 1
gene 3 10 13 -458118 0 10 -458118 1
gene 2 11 13 702047 0 11 702047 1
gene 4 12 13 -268896 0 12 -268896 1
gene 2 1 14 -234048 0 13 -234048 1
gene 1 2 14 158118 0 14 158118 1
gene 4 3 14 -337827 0 15 -337827 1
gene 1 4 14 42681 0 16 42681 1
gene 3 5 14 293505 0 17 293505 1
gene 3 6 14 -261147 0 18 -261147 1
gene 4 7 14 74847 0 19 74847 1
gene 1 8 14 668162 0 20 668162 1
gene 1 9 14 160911 0 21 160911 1
gene 4 10 14 276693 0 22 276693 1
gene 3 11 14 -799677 0 23 -799677 1
gene 4 12 14 276120 0 24 276120 1
gene 3 1 15 -71010 0 25 -71010 1
gene 3 2 15 603491 0 26 603491 1
gene 2 3 15 -150903 0 27 -150903 1
gene 4 4 15 64950 0 28 64950 1
gene 2 5 15 350997 0 29 350997 1
gene 1 6 15 800000 0 30 800000 1
gene 3 7 15 -747069 0 31 -747069 1
gene 2 8 15 658023 0 32 658023 1
gene 3 9 15 50436 0 33 50436 1
gene 4 10 15 632634 0 34 632634 1
gene 2 11 15 -466133 0 35 -466133 1
gene 3 12 15 225666 0 36 225666 1
gene 3 1 16 -10629 0 37 -10629 1
gene 4 2 16 282192 0 38 282192 1
gene 4 3 16 -800000 0 39 -800000 1
gene 1 4 16 51840 0 40 51840 1
gene 1 5 16 -144777 0 41 -144777 1
gene 4 6 16 179940 0 42 179940 1
gene 4 7 16 -800000 0 43 -800000 1
gene 2 8 16 -161760 0 44 -161760 1
gene 2 9 16 -56712 0 45 -56712 1
gene 3 10 16 -440031 0 46 -440031 1
gene 2 11 16 289338 0 47 289338 1
gene 3 12 16 -280634 0 48 -280634 1
gene 3 16 13 109599 0 415 109599 1
gene 3 15 16 -250710 0 420 -250710 1
gene 2 13 14 588258 0 468 588258 1
gene 1 15 15 -34335 1 520 -34335 1
gene 4 15 14 -223146 0 583 -223146 1
genomeend 89


