/* Organism #0 Fitness: 180.000000 Time: 0 */
/* Position #0*/
#1 x: 58 y: 18
#2 x: 51 y: 21
#3 x: 17 y: 17
#4 x: 81 y: 78
#5 x: 38 y: 83
#6 x: 62 y: 85
genomestart 0
node 1 3 1 3
node 2 3 1 1
node 3 2 1 1
node 4 2 1 1
node 5 4 1 1
node 6 3 1 1
node 7 1 1 1
node 8 3 1 1
node 9 1 1 1
node 10 4 1 1
node 11 1 1 1
node 12 3 1 1
node 13 2 0 2
node 14 3 0 2
node 15 4 0 2
node 16 1 0 0
gene 4 1 13 281343 0 1 281343 1
gene 2 2 13 393312 0 2 393312 1
gene 2 3 13 -3018 0 3 -3018 1
gene 2 4 13 -204168 0 4 -204168 1
gene 4 5 13 238989 0 5 238989 1
gene 3 6 13 320073 0 6 320073 0
gene 4 7 13 -74568 0 7 -74568 1
gene 1 8 13 -348663 0 8 -348663 1
gene 4 9 13 -89592 0 9 -89592 1
gene 4 10 13 673913 0 10 673913 1
gene 1 11 13 -360006 0 11 -360006 1
gene 2 12 13 -444375 0 12 -444375 1
gene 4 1 14 -474837 0 13 -474837 1
gene 4 2 14 234714 0 14 234714 1
gene 1 3 14 54345 0 15 54345 1
gene 1 4 14 530598 0 16 530598 1
gene 4 5 14 151941 0 17 151941 1
gene 1 6 14 -411651 0 18 -411651 1
gene 3 7 14 -289692 0 19 -289692 1
gene 1 8 14 -201798 0 20 -201798 1
gene 3 9 14 -426195 0 21 -426195 1
gene 3 10 14 110932 0 22 110932 1
gene 3 11 14 308142 0 23 308142 1
gene 4 12 14 -176765 0 24 -176765 1
gene 2 1 15 673367 0 25 673367 1
gene 3 2 15 -226002 0 26 -226002 1
gene 1 3 15 -169548 0 27 -169548 1
gene 3 4 15 -219207 0 28 -219207 1
gene 4 5 15 -114642 0 29 -114642 1
gene 4 6 15 -390378 0 30 -390378 1
gene 4 7 15 -318347 0 31 -318347 1
gene 3 8 15 77289 0 32 77289 1
gene 2 9 15 107820 0 33 107820 1
gene 1 10 15 -640122 0 34 -640122 1
gene 4 11 15 -9903 0 35 -9903 1
gene 3 12 15 -474111 0 36 -474111 1
gene 3 6 16 -147348 0 51 -147348 1
gene 3 16 13 261195 0 52 261195 1
genomeend 0


/* Organism #16 Fitness: 170.000000 Time: 0 */
/* Position #16*/
#1 x: 84 y: 28
#2 x: 82 y: 21
#3 x: 20 y: 18
#4 x: 54 y: 79
#5 x: 76 y: 62
#6 x: 71 y: 71
genomestart 16
node 1 3 1 3
node 2 3 1 1
node 3 2 1 1
node 4 2 1 1
node 5 4 1 1
node 6 3 1 1
node 7 1 1 1
node 8 2 1 1
node 9 1 1 1
node 10 4 1 1
node 11 1 1 1
node 12 3 1 1
node 13 2 0 2
node 14 3 0 2
node 15 4 0 2
node 16 1 0 0
gene 4 1 13 -173661 0 1 -173661 1
gene 2 2 13 567399 0 2 567399 1
gene 2 3 13 -86037 0 3 -86037 1
gene 2 4 13 -133968 0 4 -133968 1
gene 4 5 13 741832 0 5 741832 1
gene 3 6 13 377019 0 6 377019 0
gene 4 7 13 315051 0 7 315051 1
gene 1 8 13 -118806 0 8 -118806 1
gene 4 9 13 135798 0 9 135798 1
gene 4 10 13 -274050 0 10 -274050 1
gene 1 11 13 -164319 0 11 -164319 1
gene 2 12 13 115038 0 12 115038 1
gene 4 1 14 454014 0 13 454014 1
gene 4 2 14 -548778 0 14 -548778 1
gene 1 3 14 108024 0 15 108024 1
gene 1 4 14 397098 0 16 397098 1
gene 4 5 14 -4902 0 17 -4902 1
gene 1 6 14 -486609 0 18 -486609 1
gene 3 7 14 319500 0 19 319500 1
gene 1 8 14 -184212 0 20 -184212 1
gene 3 9 14 131097 0 21 131097 1
gene 3 10 14 -800000 0 22 -800000 1
gene 3 11 14 -75024 0 23 -75024 1
gene 4 12 14 143772 0 24 143772 1
gene 2 1 15 82910 0 25 82910 1
gene 3 2 15 494847 0 26 494847 1
gene 1 3 15 -504816 0 27 -504816 1
gene 3 4 15 206142 0 28 206142 1
gene 4 5 15 -517184 0 29 -517184 1
gene 4 6 15 -125611 0 30 -125611 1
gene 4 7 15 258699 0 31 258699 1
gene 3 8 15 -300171 0 32 -300171 1
gene 2 9 15 24435 0 33 24435 1
gene 1 10 15 -800000 0 34 -800000 1
gene 4 11 15 208155 0 35 208155 1
gene 3 12 15 -323235 0 36 -323235 1
gene 3 6 16 -177255 0 51 -177255 1
gene 3 16 13 283035 0 52 283035 1
genomeend 16


/* Organism #65 Fitness: 150.000000 Time: 0 */
/* Position #65*/
#1 x: 25 y: 19
#2 x: 15 y: 29
#3 x: 84 y: 16
#4 x: 76 y: 61
#5 x: 37 y: 61
#6 x: 17 y: 78
genomestart 65
node 1 3 1 3
node 2 3 1 1
node 3 2 1 1
node 4 2 1 1
node 5 4 1 1
node 6 3 1 1
node 7 1 1 1
node 8 1 1 1
node 9 1 1 1
node 10 4 1 1
node 11 2 1 1
node 12 3 1 1
node 13 2 0 2
node 14 3 0 2
node 15 3 0 2
gene 1 1 13 -16230 0 1 -16230 1
gene 2 2 13 121887 0 2 121887 1
gene 2 3 13 -612105 0 3 -612105 1
gene 4 4 13 -661209 0 4 -661209 1
gene 4 5 13 -800000 0 5 -800000 1
gene 1 6 13 -103933 0 6 -103933 1
gene 2 7 13 -654449 0 7 -654449 1
gene 2 8 13 -80718 0 8 -80718 1
gene 4 9 13 41997 0 9 41997 1
gene 3 10 13 -216462 0 10 -216462 1
gene 3 11 13 75 0 11 75 1
gene 2 12 13 45591 0 12 45591 1
gene 2 1 14 465645 0 13 465645 1
gene 3 2 14 635291 0 14 635291 1
gene 2 3 14 389130 0 15 389130 1
gene 2 4 14 -610476 0 16 -610476 1
gene 2 5 14 376605 0 17 376605 1
gene 1 6 14 136854 0 18 136854 1
gene 3 7 14 174630 0 19 174630 1
gene 3 8 14 383181 0 20 383181 1
gene 3 9 14 694131 0 21 694131 1
gene 1 10 14 -575592 0 22 -575592 1
gene 4 11 14 -179689 0 23 -179689 1
gene 4 12 14 -260052 0 24 -260052 1
gene 1 1 15 767285 0 25 767285 1
gene 2 2 15 -45685 0 26 -45685 1
gene 3 3 15 -181587 0 27 -181587 1
gene 1 4 15 -10819 0 28 -10819 1
gene 4 5 15 52800 0 29 52800 1
gene 4 6 15 -174312 0 30 -174312 1
gene 4 7 15 -115008 0 31 -115008 1
gene 3 8 15 -800000 0 32 -800000 1
gene 2 9 15 -35826 0 33 -35826 1
gene 1 10 15 209388 0 34 209388 1
gene 4 11 15 -93672 0 35 -93672 1
gene 1 12 15 194865 0 36 194865 1
genomeend 65


/* Organism #80 Fitness: 190.000000 Time: 0 */
/* Position #80*/
#1 x: 34 y: 27
#2 x: 61 y: 24
#3 x: 23 y: 28
#4 x: 68 y: 81
#5 x: 17 y: 63
#6 x: 20 y: 75
genomestart 80
node 1 3 1 3
node 2 3 1 1
node 3 2 1 1
node 4 2 1 1
node 5 4 1 1
node 6 3 1 1
node 7 1 1 1
node 8 1 1 1
node 9 1 1 1
node 10 4 1 1
node 11 1 1 1
node 12 2 1 1
node 13 2 0 2
node 14 3 0 2
node 15 4 0 2
gene 1 1 13 725433 0 1 725433 1
gene 2 2 13 216227 0 2 216227 1
gene 2 3 13 -378414 0 3 -378414 1
gene 4 4 13 -86703 0 4 -86703 1
gene 4 5 13 -800000 0 5 -800000 1
gene 1 6 13 747365 0 6 747365 1
gene 2 7 13 -46515 0 7 -46515 1
gene 2 8 13 85419 0 8 85419 1
gene 4 9 13 90120 0 9 90120 1
gene 3 10 13 330807 0 10 330807 1
gene 3 11 13 -193011 0 11 -193011 1
gene 2 12 13 -681917 0 12 -681917 1
gene 2 1 14 135860 0 13 135860 1
gene 3 2 14 -22307 0 14 -22307 1
gene 2 3 14 268005 0 15 268005 1
gene 2 4 14 -3556 0 16 -3556 1
gene 2 5 14 -273410 0 17 -273410 1
gene 1 6 14 641522 0 18 641522 1
gene 3 7 14 275088 0 19 275088 1
gene 3 8 14 724475 0 20 724475 1
gene 3 9 14 47301 0 21 47301 1
gene 1 10 14 -187560 0 22 -187560 1
gene 4 11 14 448983 0 23 448983 1
gene 4 12 14 -65799 0 24 -65799 1
gene 1 1 15 -202657 0 25 -202657 1
gene 2 2 15 207977 0 26 207977 1
gene 3 3 15 453419 0 27 453419 1
gene 1 4 15 -357444 0 28 -357444 1
gene 4 5 15 -182013 0 29 -182013 1
gene 4 6 15 177798 0 30 177798 1
gene 4 7 15 257388 0 31 257388 1
gene 3 8 15 97122 0 32 97122 1
gene 2 9 15 -138417 0 33 -138417 1
gene 1 10 15 -672327 0 34 -672327 1
gene 4 11 15 95922 0 35 95922 1
gene 1 12 15 798125 0 36 798125 1
gene 1 13 15 80496 0 91 80496 1
genomeend 80


/* Organism #96 Fitness: 320.000000 Time: 0 */
/* Position #96*/
#1 x: 78 y: 40
#2 x: 83 y: 24
#3 x: 33 y: 38
#4 x: 41 y: 79
#5 x: 37 y: 64
#6 x: 85 y: 73
genomestart 96
node 1 3 1 3
node 2 3 1 1
node 3 1 1 1
node 4 4 1 1
node 5 2 1 1
node 6 2 1 1
node 7 4 1 1
node 8 2 1 1
node 9 4 1 1
node 10 2 1 1
node 11 3 1 1
node 12 1 1 1
node 13 1 0 2
node 14 1 0 2
node 15 4 0 2
gene 1 1 13 -252285 0 1 -252285 1
gene 3 2 13 -62571 0 2 -62571 1
gene 1 3 13 -58929 0 3 -58929 1
gene 4 4 13 169038 0 4 169038 1
gene 2 5 13 -518993 0 5 -518993 1
gene 2 6 13 800000 0 6 800000 1
gene 3 7 13 -24426 0 7 -24426 1
gene 4 8 13 -109614 0 8 -109614 1
gene 3 9 13 -181335 0 9 -181335 1
gene 4 10 13 -343533 0 10 -343533 1
gene 1 11 13 394965 0 11 394965 1
gene 1 12 13 -421755 0 12 -421755 1
gene 1 1 14 -197508 0 13 -197508 1
gene 1 2 14 -591281 0 14 -591281 1
gene 3 3 14 348657 0 15 348657 1
gene 1 4 14 -232527 0 16 -232527 1
gene 2 5 14 -1713 0 17 -1713 1
gene 2 6 14 764304 0 18 764304 1
gene 1 7 14 -238665 0 19 -238665 1
gene 3 8 14 -171426 0 20 -171426 1
gene 3 9 14 800000 0 21 800000 1
gene 2 10 14 -343929 0 22 -343929 1
gene 2 11 14 409440 0 23 409440 1
gene 4 12 14 213354 0 24 213354 1
gene 4 1 15 268005 0 25 268005 1
gene 1 2 15 -226329 0 26 -226329 1
gene 3 3 15 436326 0 27 436326 1
gene 1 4 15 269838 0 28 269838 1
gene 3 5 15 35991 0 29 35991 1
gene 4 6 15 -707892 0 30 -707892 1
gene 3 7 15 -29403 0 31 -29403 1
gene 4 8 15 416454 0 32 416454 1
gene 1 9 15 248619 0 33 248619 1
gene 2 10 15 -45810 0 34 -45810 1
gene 2 11 15 -381093 0 35 -381093 1
gene 1 12 15 224304 0 36 224304 1
genomeend 96


/* Organism #97 Fitness: 230.000000 Time: 0 */
/* Position #97*/
#1 x: 78 y: 40
#2 x: 83 y: 24
#3 x: 33 y: 38
#4 x: 41 y: 79
#5 x: 37 y: 64
#6 x: 85 y: 73
genomestart 97
node 1 4 1 3
node 2 4 1 1
node 3 2 1 1
node 4 2 1 1
node 5 3 1 1
node 6 4 1 1
node 7 2 1 1
node 8 3 1 1
node 9 4 1 1
node 10 2 1 1
node 11 2 1 1
node 12 1 1 1
node 13 4 0 2
node 14 4 0 2
node 15 2 0 2
gene 1 1 13 92181 0 1 92181 1
gene 1 2 13 -460082 0 2 -460082 1
gene 1 3 13 -194172 0 3 -194172 1
gene 4 4 13 -188325 0 4 -188325 1
gene 2 5 13 270192 0 5 270192 1
gene 4 6 13 33996 0 6 33996 1
gene 2 7 13 -218817 0 7 -218817 1
gene 2 8 13 -286728 0 8 -286728 1
gene 3 9 13 473841 0 9 473841 1
gene 3 10 13 432 0 10 432 1
gene 1 11 13 585290 0 11 585290 1
gene 1 12 13 280062 0 12 280062 1
gene 1 1 14 101835 0 13 101835 1
gene 4 2 14 175812 0 14 175812 1
gene 1 3 14 481017 0 15 481017 1
gene 3 4 14 463082 0 16 463082 1
gene 2 5 14 -139494 0 17 -139494 1
gene 2 6 14 385565 0 18 385565 1
gene 2 7 14 109716 0 19 109716 1
gene 4 8 14 -133164 0 20 -133164 1
gene 3 9 14 80925 0 21 80925 1
gene 2 10 14 -283572 0 22 -283572 1
gene 2 11 14 145902 0 23 145902 1
gene 1 12 14 -418685 0 24 -418685 1
gene 4 1 15 46584 0 25 46584 1
gene 2 2 15 -210849 0 26 -210849 1
gene 2 3 15 252180 0 27 252180 1
gene 3 4 15 88593 0 28 88593 1
gene 4 5 15 -327540 0 29 -327540 1
gene 4 6 15 -321276 0 30 -321276 1
gene 4 7 15 574127 0 31 574127 1
gene 2 8 15 -156378 0 32 -156378 1
gene 4 9 15 224823 0 33 224823 1
gene 2 10 15 731301 0 34 731301 1
gene 4 11 15 -240225 0 35 -240225 1
gene 1 12 15 300282 0 36 300282 1
gene 2 15 13 114273 0 78 114273 1
gene 2 13 14 292692 0 105 292692 1
genomeend 97


/* Organism #128 Fitness: 450.000000 Time: 0 */
/* Position #128*/
#1 x: 59 y: 21
#2 x: 49 y: 19
#3 x: 36 y: 29
#4 x: 22 y: 69
#5 x: 47 y: 75
#6 x: 44 y: 82
genomestart 128
node 1 3 1 3
node 2 3 1 1
node 3 2 1 1
node 4 2 1 1
node 5 4 1 1
node 6 3 1 1
node 7 1 1 1
node 8 1 1 1
node 9 1 1 1
node 10 4 1 1
node 11 2 1 1
node 12 3 1 1
node 13 2 0 2
node 14 3 0 2
node 15 4 0 2
gene 1 1 13 -166002 0 1 -166002 1
gene 2 2 13 246695 0 2 246695 1
gene 2 3 13 103377 0 3 103377 1
gene 4 4 13 200577 0 4 200577 1
gene 4 5 13 141021 0 5 141021 1
gene 1 6 13 -117345 0 6 -117345 1
gene 2 7 13 -771107 0 7 -771107 1
gene 3 8 13 234561 0 8 234561 1
gene 4 9 13 257616 0 9 257616 1
gene 3 10 13 -75594 0 10 -75594 1
gene 3 11 13 427359 0 11 427359 1
gene 2 12 13 -427593 0 12 -427593 1
gene 2 1 14 183384 0 13 183384 1
gene 3 2 14 250344 0 14 250344 1
gene 2 3 14 355194 0 15 355194 1
gene 2 4 14 213363 0 16 213363 1
gene 2 5 14 407853 0 17 407853 1
gene 1 6 14 700227 0 18 700227 1
gene 3 7 14 287007 0 19 287007 1
gene 3 8 14 57474 0 20 57474 1
gene 3 9 14 497853 0 21 497853 1
gene 1 10 14 149439 0 22 149439 1
gene 4 11 14 261110 0 23 261110 1
gene 4 12 14 178824 0 24 178824 1
gene 1 1 15 184571 0 25 184571 1
gene 2 2 15 -174765 0 26 -174765 1
gene 3 3 15 -40380 0 27 -40380 1
gene 1 4 15 370082 0 28 370082 1
gene 4 5 15 190569 0 29 190569 1
gene 4 6 15 -247587 0 30 -247587 1
gene 4 7 15 -191088 0 31 -191088 1
gene 3 8 15 167178 0 32 167178 1
gene 2 9 15 -281880 0 33 -281880 1
gene 1 10 15 -417114 0 34 -417114 1
gene 4 11 15 -388881 0 35 -388881 1
gene 1 12 15 -10267 0 36 -10267 1
genomeend 128


/* Organism #129 Fitness: 530.000000 Time: 0 */
/* Position #129*/
#1 x: 59 y: 21
#2 x: 49 y: 19
#3 x: 36 y: 29
#4 x: 22 y: 69
#5 x: 47 y: 75
#6 x: 44 y: 82
genomestart 129
node 1 3 1 3
node 2 3 1 1
node 3 2 1 1
node 4 2 1 1
node 5 4 1 1
node 6 3 1 1
node 7 1 1 1
node 8 1 1 1
node 9 1 1 1
node 10 4 1 1
node 11 2 1 1
node 12 3 1 1
node 13 2 0 2
node 14 3 0 2
node 15 4 0 2
gene 1 1 13 -60255 0 1 -60255 1
gene 2 2 13 274446 0 2 274446 1
gene 2 3 13 320967 0 3 320967 1
gene 4 4 13 46899 0 4 46899 1
gene 4 5 13 -67191 0 5 -67191 1
gene 1 6 13 -220653 0 6 -220653 1
gene 2 7 13 -517934 0 7 -517934 1
gene 3 8 13 -303516 0 8 -303516 1
gene 4 9 13 -160647 0 9 -160647 1
gene 3 10 13 -2661 0 10 -2661 1
gene 3 11 13 441453 0 11 441453 1
gene 2 12 13 -178224 0 12 -178224 1
gene 2 1 14 83223 0 13 83223 1
gene 3 2 14 -165111 0 14 -165111 1
gene 2 3 14 -177846 0 15 -177846 1
gene 2 4 14 -128130 0 16 -128130 1
gene 2 5 14 -166590 0 17 -166590 1
gene 1 6 14 583995 0 18 583995 1
gene 3 7 14 536235 0 19 536235 1
gene 3 8 14 -353028 0 20 -353028 1
gene 3 9 14 671322 0 21 671322 1
gene 1 10 14 -338361 0 22 -338361 1
gene 4 11 14 55718 0 23 55718 1
gene 4 12 14 197784 0 24 197784 1
gene 1 1 15 -167317 0 25 -167317 1
gene 2 2 15 -40713 0 26 -40713 1
gene 3 3 15 -39483 0 27 -39483 1
gene 1 4 15 518627 0 28 518627 1
gene 4 5 15 276933 0 29 276933 1
gene 4 6 15 -510705 0 30 -510705 1
gene 4 7 15 -7740 0 31 -7740 1
gene 3 8 15 -579894 0 32 -579894 1
gene 2 9 15 178581 0 33 178581 1
gene 1 10 15 -376824 0 34 -376824 1
gene 4 11 15 151581 0 35 151581 1
gene 1 12 15 -232774 0 36 -232774 1
genomeend 129


/* Organism #135 Fitness: 150.000000 Time: 0 */
/* Position #135*/
#1 x: 41 y: 22
#2 x: 17 y: 17
#3 x: 41 y: 39
#4 x: 15 y: 78
#5 x: 44 y: 60
#6 x: 20 y: 78
genomestart 135
node 1 3 1 3
node 2 3 1 1
node 3 2 1 1
node 4 2 1 1
node 5 4 1 1
node 6 3 1 1
node 7 1 1 1
node 8 1 1 1
node 9 1 1 1
node 10 4 1 1
node 11 2 1 1
node 12 3 1 1
node 13 2 0 2
node 14 3 0 2
node 15 3 0 2
gene 1 1 13 -219423 0 1 -219423 1
gene 2 2 13 5223 0 2 5223 1
gene 2 3 13 -650160 0 3 -650160 1
gene 4 4 13 -551181 0 4 -551181 1
gene 4 5 13 -740376 0 5 -740376 1
gene 1 6 13 -13594 0 6 -13594 1
gene 2 7 13 -742289 0 7 -742289 1
gene 2 8 13 116337 0 8 116337 1
gene 4 9 13 72585 0 9 72585 1
gene 3 10 13 96384 0 10 96384 1
gene 3 11 13 -290664 0 11 -290664 1
gene 2 12 13 63405 0 12 63405 1
gene 2 1 14 383583 0 13 383583 1
gene 3 2 14 800000 0 14 800000 1
gene 2 3 14 -76755 0 15 -76755 1
gene 2 4 14 -515493 0 16 -515493 1
gene 2 5 14 277368 0 17 277368 1
gene 1 6 14 585324 0 18 585324 1
gene 3 7 14 352980 0 19 352980 1
gene 3 8 14 141705 0 20 141705 1
gene 3 9 14 800000 0 21 800000 1
gene 1 10 14 -350388 0 22 -350388 1
gene 4 11 14 -532906 0 23 -532906 1
gene 4 12 14 -277539 0 24 -277539 1
gene 1 1 15 504839 0 25 504839 1
gene 2 2 15 -535015 0 26 -535015 1
gene 3 3 15 -293820 0 27 -293820 1
gene 1 4 15 71267 0 28 71267 1
gene 4 5 15 -298842 0 29 -298842 1
gene 4 6 15 109341 0 30 109341 1
gene 4 7 15 -193740 0 31 -193740 1
gene 3 8 15 -752958 0 32 -752958 1
gene 2 9 15 9453 0 33 9453 1
gene 1 10 15 246387 0 34 246387 1
gene 4 11 15 157317 0 35 157317 1
gene 1 12 15 -808 0 36 -808 1
genomeend 135


/* Organism #137 Fitness: 150.000000 Time: 0 */
/* Position #137*/
#1 x: 72 y: 21
#2 x: 72 y: 39
#3 x: 23 y: 20
#4 x: 65 y: 76
#5 x: 40 y: 71
#6 x: 66 y: 75
genomestart 137
node 1 3 1 3
node 2 3 1 1
node 3 2 1 1
node 4 2 1 1
node 5 4 1 1
node 6 3 1 1
node 7 1 1 1
node 8 1 1 1
node 9 1 1 1
node 10 4 1 1
node 11 2 1 1
node 12 3 1 1
node 13 2 0 2
node 14 3 0 2
node 15 3 0 2
gene 1 1 13 94626 0 1 94626 1
gene 2 2 13 -11505 0 2 -11505 1
gene 2 3 13 -465144 0 3 -465144 1
gene 4 4 13 233121 0 4 233121 1
gene 4 5 13 -800000 0 5 -800000 1
gene 1 6 13 -33709 0 6 -33709 1
gene 2 7 13 -800000 0 7 -800000 1
gene 2 8 13 24027 0 8 24027 1
gene 4 9 13 35025 0 9 35025 1
gene 3 10 13 -156570 0 10 -156570 1
gene 3 11 13 -100770 0 11 -100770 1
gene 2 12 13 -22386 0 12 -22386 1
gene 2 1 14 -57801 0 13 -57801 1
gene 3 2 14 298386 0 14 298386 1
gene 2 3 14 82230 0 15 82230 1
gene 2 4 14 -326523 0 16 -326523 1
gene 2 5 14 443919 0 17 443919 1
gene 1 6 14 35883 0 18 35883 1
gene 3 7 14 135567 0 19 135567 1
gene 3 8 14 176595 0 20 176595 1
gene 3 9 14 800000 0 21 800000 1
gene 1 10 14 -425307 0 22 -425307 1
gene 4 11 14 -234259 0 23 -234259 1
gene 4 12 14 -205875 0 24 -205875 1
gene 1 1 15 -192576 0 25 -192576 1
gene 2 2 15 227196 0 26 227196 1
gene 3 3 15 -32388 0 27 -32388 1
gene 1 4 15 332375 0 28 332375 1
gene 4 5 15 283395 0 29 283395 1
gene 4 6 15 101598 0 30 101598 1
gene 4 7 15 68523 0 31 68523 1
gene 3 8 15 -800000 0 32 -800000 1
gene 2 9 15 -27561 0 33 -27561 1
gene 1 10 15 -90966 0 34 -90966 1
gene 4 11 15 -150738 0 35 -150738 1
gene 1 12 15 99902 0 36 99902 1
genomeend 137


/* Organism #139 Fitness: 220.000000 Time: 0 */
/* Position #139*/
#1 x: 23 y: 20
#2 x: 34 y: 20
#3 x: 47 y: 34
#4 x: 65 y: 73
#5 x: 18 y: 71
#6 x: 16 y: 75
genomestart 139
node 1 3 1 3
node 2 3 1 1
node 3 2 1 1
node 4 2 1 1
node 5 4 1 1
node 6 3 1 1
node 7 1 1 1
node 8 1 1 1
node 9 1 1 1
node 10 4 1 1
node 11 2 1 1
node 12 3 1 1
node 13 2 0 2
node 14 3 0 2
node 15 4 0 2
gene 1 1 13 171210 0 1 171210 1
gene 2 2 13 669845 0 2 669845 1
gene 2 3 13 -233967 0 3 -233967 1
gene 4 4 13 -768939 0 4 -768939 1
gene 4 5 13 295278 0 5 295278 1
gene 1 6 13 -468166 0 6 -468166 1
gene 2 7 13 -721016 0 7 -721016 1
gene 2 8 13 252243 0 8 252243 1
gene 4 9 13 328248 0 9 328248 1
gene 3 10 13 -714534 0 10 -714534 1
gene 3 11 13 800000 0 11 800000 1
gene 2 12 13 213273 0 12 213273 1
gene 2 1 14 -101049 0 13 -101049 1
gene 3 2 14 88200 0 14 88200 1
gene 2 3 14 -407913 0 15 -407913 1
gene 2 4 14 -169815 0 16 -169815 1
gene 2 5 14 -555321 0 17 -555321 1
gene 1 6 14 297594 0 18 297594 1
gene 3 7 14 -262182 0 19 -262182 1
gene 3 8 14 800000 0 20 800000 1
gene 3 9 14 552708 0 21 552708 1
gene 1 10 14 -129975 0 22 -129975 1
gene 4 11 14 320456 0 23 320456 1
gene 4 12 14 -720656 0 24 -720656 1
gene 1 1 15 675938 0 25 675938 1
gene 2 2 15 -671143 0 26 -671143 1
gene 3 3 15 -428861 0 27 -428861 1
gene 1 4 15 327587 0 28 327587 1
gene 4 5 15 161961 0 29 161961 1
gene 4 6 15 9465 0 30 9465 1
gene 4 7 15 136350 0 31 136350 1
gene 3 8 15 -601284 0 32 -601284 1
gene 2 9 15 477840 0 33 477840 1
gene 1 10 15 -47364 0 34 -47364 1
gene 4 11 15 233238 0 35 233238 1
gene 1 12 15 396983 0 36 396983 1
genomeend 139


/* Organism #141 Fitness: 180.000000 Time: 0 */
/* Position #141*/
#1 x: 72 y: 21
#2 x: 26 y: 28
#3 x: 78 y: 15
#4 x: 68 y: 70
#5 x: 27 y: 79
#6 x: 27 y: 84
genomestart 141
node 1 3 1 3
node 2 3 1 1
node 3 2 1 1
node 4 2 1 1
node 5 4 1 1
node 6 3 1 1
node 7 1 1 1
node 8 1 1 1
node 9 1 1 1
node 10 4 1 1
node 11 2 1 1
node 12 3 1 1
node 13 2 0 2
node 14 3 0 2
node 15 4 0 2
gene 1 1 13 -621 0 1 -621 1
gene 2 2 13 -497823 0 2 -497823 1
gene 2 3 13 -122439 0 3 -122439 1
gene 4 4 13 -800000 0 4 -800000 1
gene 4 5 13 -221529 0 5 -221529 1
gene 1 6 13 415769 0 6 415769 1
gene 2 7 13 -800000 0 7 -800000 1
gene 2 8 13 -266808 0 8 -266808 1
gene 4 9 13 393291 0 9 393291 1
gene 3 10 13 -256881 0 10 -256881 1
gene 3 11 13 -5469 0 11 -5469 1
gene 2 12 13 -560880 0 12 -560880 1
gene 2 1 14 -289206 0 13 -289206 1
gene 3 2 14 711705 0 14 711705 1
gene 2 3 14 -227979 0 15 -227979 1
gene 2 4 14 50892 0 16 50892 1
gene 2 5 14 -57024 0 17 -57024 1
gene 1 6 14 208605 0 18 208605 1
gene 3 7 14 659403 0 19 659403 1
gene 3 8 14 291755 0 20 291755 1
gene 3 9 14 -146868 0 21 -146868 1
gene 1 10 14 44838 0 22 44838 1
gene 4 11 14 630128 0 23 630128 1
gene 4 12 14 293337 0 24 293337 1
gene 1 1 15 469940 0 25 469940 1
gene 2 2 15 -386893 0 26 -386893 1
gene 3 3 15 -211145 0 27 -211145 1
gene 1 4 15 301307 0 28 301307 1
gene 4 5 15 514632 0 29 514632 1
gene 4 6 15 -348810 0 30 -348810 1
gene 4 7 15 -103920 0 31 -103920 1
gene 3 8 15 -541671 0 32 -541671 1
gene 2 9 15 800000 0 33 800000 1
gene 1 10 15 527046 0 34 527046 1
gene 4 11 15 203007 0 35 203007 1
gene 1 12 15 414470 0 36 414470 1
genomeend 141


/* Organism #143 Fitness: 230.000000 Time: 0 */
/* Position #143*/
#1 x: 71 y: 25
#2 x: 60 y: 31
#3 x: 49 y: 19
#4 x: 34 y: 80
#5 x: 84 y: 80
#6 x: 17 y: 68
genomestart 143
node 1 3 1 3
node 2 3 1 1
node 3 1 1 1
node 4 4 1 1
node 5 2 1 1
node 6 2 1 1
node 7 4 1 1
node 8 2 1 1
node 9 4 1 1
node 10 2 1 1
node 11 3 1 1
node 12 1 1 1
node 13 1 0 2
node 14 1 0 2
node 15 4 0 2
gene 1 1 13 487650 0 1 487650 1
gene 3 2 13 800000 0 2 800000 1
gene 1 3 13 110697 0 3 110697 1
gene 4 4 13 -483612 0 4 -483612 1
gene 2 5 13 -263238 0 5 -263238 1
gene 2 6 13 170653 0 6 170653 1
gene 3 7 13 629298 0 7 629298 1
gene 4 8 13 3660 0 8 3660 1
gene 3 9 13 340062 0 9 340062 1
gene 4 10 13 -646500 0 10 -646500 1
gene 1 11 13 428277 0 11 428277 1
gene 1 12 13 217794 0 12 217794 1
gene 1 1 14 -756710 0 13 -756710 1
gene 1 2 14 -724100 0 14 -724100 1
gene 3 3 14 455631 0 15 455631 1
gene 1 4 14 -371784 0 16 -371784 1
gene 2 5 14 -414090 0 17 -414090 1
gene 2 6 14 383190 0 18 383190 1
gene 1 7 14 -107997 0 19 -107997 1
gene 3 8 14 -458241 0 20 -458241 1
gene 3 9 14 473639 0 21 473639 1
gene 2 10 14 -351879 0 22 -351879 1
gene 2 11 14 -4293 0 23 -4293 1
gene 4 12 14 -154773 0 24 -154773 1
gene 4 1 15 -6291 0 25 -6291 1
gene 1 2 15 450141 0 26 450141 1
gene 3 3 15 -252828 0 27 -252828 1
gene 1 4 15 297504 0 28 297504 1
gene 3 5 15 65397 0 29 65397 1
gene 4 6 15 -163215 0 30 -163215 1
gene 3 7 15 195717 0 31 195717 1
gene 4 8 15 89124 0 32 89124 1
gene 1 9 15 -295587 0 33 -295587 1
gene 2 10 15 265107 0 34 265107 1
gene 2 11 15 -638040 0 35 -638040 1
gene 1 12 15 25257 0 36 25257 1
genomeend 143


