/* Organism #12 Fitness: 240.000000 Time: 0 */
/* Position #12*/
#1 x: 43 y: 28
#2 x: 17 y: 18
#3 x: 20 y: 39
#4 x: 79 y: 84
#5 x: 44 y: 68
#6 x: 18 y: 66
genomestart 12
trait 1 43007.000000 16300.000000 0.000000 0.000000 0.000000 0.000000 87908.000000 0.000000 trait 2 2.000000 0.000000 0.000000 0.000000 0.000000 0.000000 0.000000 0.000000 trait 3 0.000000 0.000000 0.000000 0.000000 0.000000 13538.000000 70969.000000 0.000000 trait 4 4.000000 0.000000 0.000000 0.000000 0.000000 0.000000 0.000000 0.000000 node 1 4 1 3
node 2 4 1 1
node 3 1 1 1
node 4 1 1 1
node 5 1 1 1
node 6 2 1 1
node 7 4 1 1
node 8 4 1 1
node 9 2 1 1
node 10 1 1 1
node 11 2 1 1
node 12 4 1 1
node 13 2 0 2
node 14 1 0 2
node 15 3 0 2
node 121 1 0 0
node 235 1 0 0
node 384 1 0 0
node 420 1 0 0
node 433 1 0 0
node 461 1 0 0
node 500 1 0 0
node 516 1 0 0
gene 2 1 13 -256503 0 1 -256503 1
gene 3 2 13 -88686 0 2 -88686 0
gene 2 3 13 -274614 0 3 -274614 1
gene 3 4 13 553719 0 4 553719 1
gene 2 5 13 -800000 0 5 -800000 1
gene 4 6 13 389901 0 6 389901 1
gene 3 7 13 652541 0 7 652541 1
gene 2 8 13 -61050 0 8 -61050 1
gene 3 9 13 618447 0 9 618447 1
gene 2 10 13 424454 0 10 424454 1
gene 2 11 13 51234 0 11 51234 1
gene 4 12 13 510108 0 12 510108 1
gene 2 1 14 -610665 0 13 -610665 1
gene 2 2 14 -264927 0 14 -264927 1
gene 4 3 14 -712611 0 15 -712611 0
gene 4 4 14 128694 0 16 128694 0
gene 4 5 14 -105012 0 17 -105012 1
gene 3 6 14 441938 0 18 441938 1
gene 2 7 14 154860 0 19 154860 1
gene 1 8 14 -665910 0 20 -665910 0
gene 2 9 14 630732 0 21 630732 1
gene 1 10 14 -103245 0 22 -103245 1
gene 1 11 14 298485 0 23 298485 1
gene 4 12 14 -790727 0 24 -790727 1
gene 3 1 15 179733 0 25 179733 1
gene 3 2 15 74070 0 26 74070 1
gene 3 3 15 399867 0 27 399867 1
gene 1 4 15 -351006 0 28 -351006 1
gene 3 5 15 -364917 0 29 -364917 1
gene 1 6 15 -407121 0 30 -407121 1
gene 3 7 15 -800000 0 31 -800000 0
gene 3 8 15 774087 0 32 774087 0
gene 3 9 15 98403 0 33 98403 1
gene 3 10 15 565200 0 34 565200 0
gene 2 11 15 -200586 0 35 -200586 1
gene 4 12 15 183813 0 36 183813 1
gene 4 15 15 -494490 1 174 -494490 0
gene 3 8 121 464385 0 329 464385 1
gene 3 121 15 -234840 0 330 -234840 1
gene 2 5 121 411411 0 438 411411 1
gene 2 7 121 169050 0 483 169050 1
gene 4 4 235 -288558 0 666 -288558 1
gene 4 235 14 -134502 0 667 -134502 1
gene 1 1 235 -223872 0 753 -223872 1
gene 1 9 235 -17376 0 1108 -17376 1
gene 3 10 384 191904 0 1126 191904 1
gene 3 384 15 265947 0 1127 265947 0
gene 2 14 14 -641775 1 1197 -641775 1
gene 3 7 420 172353 0 1239 172353 1
gene 3 420 15 292113 0 1240 292113 1
gene 3 2 433 -138732 0 1284 -138732 1
gene 3 433 13 -563271 0 1285 -563271 1
gene 4 3 461 -463611 0 1352 -463611 1
gene 4 461 14 155352 0 1353 155352 1
gene 4 15 500 75819 1 1453 75819 1
gene 4 500 15 -177513 0 1454 -177513 1
gene 1 8 516 -172758 0 1500 -172758 1
gene 1 516 14 28647 0 1501 28647 1
gene 1 384 121 272709 0 1548 272709 1
gene 2 8 461 -300000 0 1965 -300000 1
gene 4 1 516 82116 0 2212 82116 1
gene 3 461 384 -4809 0 2303 -4809 1
genomeend 12


/* Organism #16 Fitness: 330.000000 Time: 0 */
/* Position #16*/
#1 x: 68 y: 28
#2 x: 42 y: 39
#3 x: 65 y: 37
#4 x: 68 y: 68
#5 x: 48 y: 65
#6 x: 51 y: 62
genomestart 16
trait 1 1.000000 0.000000 0.000000 0.000000 0.000000 0.000000 0.000000 0.000000 trait 2 2.000000 0.000000 0.000000 0.000000 0.000000 0.000000 0.000000 0.000000 trait 3 24073.000000 0.000000 0.000000 0.000000 44304.000000 84965.000000 0.000000 0.000000 trait 4 30267.000000 0.000000 0.000000 0.000000 12691.000000 0.000000 36386.000000 0.000000 node 1 1 1 3
node 2 3 1 1
node 3 3 1 1
node 4 2 1 1
node 5 4 1 1
node 6 1 1 1
node 7 3 1 1
node 8 3 1 1
node 9 1 1 1
node 10 2 1 1
node 11 4 1 1
node 12 2 1 1
node 13 3 0 2
node 14 4 0 2
node 15 3 0 2
node 21 4 0 0
node 92 1 0 0
node 122 1 0 0
node 148 1 0 0
node 287 1 0 0
node 387 1 0 0
node 403 1 0 0
node 417 1 0 0
node 489 1 0 0
node 504 1 0 0
node 573 1 0 0
node 664 1 0 0
node 761 1 0 0
gene 4 1 13 -800000 0 1 -800000 1
gene 3 2 13 76185 0 2 76185 1
gene 3 3 13 31800 0 3 31800 1
gene 3 4 13 572841 0 4 572841 1
gene 4 5 13 800000 0 5 800000 0
gene 1 6 13 -117138 0 6 -117138 1
gene 1 7 13 623274 0 7 623274 1
gene 2 8 13 -120252 0 8 -120252 1
gene 1 9 13 153447 0 9 153447 0
gene 2 10 13 -457212 0 10 -457212 1
gene 1 11 13 -574609 0 11 -574609 1
gene 3 12 13 72764 0 12 72764 0
gene 3 1 14 475275 0 13 475275 1
gene 4 2 14 -690752 0 14 -690752 1
gene 4 3 14 -568136 0 15 -568136 1
gene 1 4 14 800000 0 16 800000 1
gene 2 5 14 135953 0 17 135953 1
gene 4 6 14 -238344 0 18 -238344 1
gene 2 7 14 800000 0 19 800000 1
gene 1 8 14 423633 0 20 423633 1
gene 1 9 14 133359 0 21 133359 1
gene 4 10 14 -498087 0 22 -498087 0
gene 4 11 14 -489060 0 23 -489060 1
gene 3 12 14 -383385 0 24 -383385 1
gene 2 1 15 -193818 0 25 -193818 1
gene 4 2 15 -665291 0 26 -665291 1
gene 1 3 15 -467178 0 27 -467178 1
gene 3 4 15 768147 0 28 768147 1
gene 2 5 15 -270921 0 29 -270921 1
gene 3 6 15 137634 0 30 137634 0
gene 4 7 15 -677105 0 31 -677105 1
gene 4 8 15 -132732 0 32 -132732 1
gene 4 9 15 271089 0 33 271089 0
gene 2 10 15 -168933 0 34 -168933 0
gene 2 11 15 512793 0 35 512793 0
gene 2 12 15 103686 0 36 103686 1
gene 1 9 21 318627 0 49 318627 1
gene 1 21 13 388929 0 50 388929 0
gene 3 6 92 317303 0 235 317303 1
gene 3 92 15 81636 0 236 81636 1
gene 4 5 122 105462 0 332 105462 1
gene 4 122 13 700251 0 333 700251 1
gene 2 11 148 11742 0 403 11742 0
gene 2 148 15 -28443 0 404 -28443 1
gene 3 9 148 2472 0 557 2472 1
gene 2 92 122 -800000 0 768 -800000 1
gene 2 10 287 -229359 0 834 -229359 1
gene 2 287 15 -775023 0 835 -775023 1
gene 3 21 287 -70677 0 900 -70677 1
gene 2 3 287 -34992 0 1053 -34992 0
gene 3 1 122 -404079 0 1085 -404079 1
gene 2 11 387 -19194 0 1138 -19194 1
gene 2 387 148 167853 0 1139 167853 1
gene 3 12 403 -205503 0 1185 -205503 1
gene 3 403 13 106098 0 1186 106098 0
gene 4 10 417 339405 0 1231 339405 1
gene 4 417 14 -198984 0 1232 -198984 1
gene 2 3 489 142401 0 1426 142401 1
gene 2 489 287 -255888 0 1427 -255888 1
gene 4 9 504 191181 0 1465 191181 1
gene 4 504 15 -33318 0 1466 -33318 1
gene 3 403 573 388980 0 1680 388980 0
gene 3 573 13 298059 0 1681 298059 1
gene 3 403 664 57517 0 1944 57517 1
gene 3 664 573 100686 0 1945 100686 1
gene 3 403 403 -264720 1 2179 -264720 1
gene 1 21 761 -65585 0 2220 -65585 1
gene 1 761 13 400791 0 2221 400791 1
gene 3 403 21 -51690 0 2307 -51690 1
genomeend 16


/* Organism #26 Fitness: 180.000000 Time: 0 */
/* Position #26*/
#1 x: 68 y: 24
#2 x: 79 y: 28
#3 x: 81 y: 32
#4 x: 26 y: 71
#5 x: 36 y: 75
#6 x: 34 y: 73
genomestart 26
trait 1 22150.000000 51403.000000 0.000000 15645.000000 38844.000000 0.000000 0.000000 83395.000000 trait 2 0.000000 0.000000 73134.000000 0.000000 0.000000 0.000000 0.000000 0.000000 trait 3 3.000000 0.000000 0.000000 0.000000 0.000000 0.000000 0.000000 0.000000 trait 4 0.000000 0.000000 0.000000 100000.000000 0.000000 100000.000000 45212.000000 96029.000000 node 1 2 1 3
node 2 3 1 1
node 3 2 1 1
node 4 1 1 1
node 5 1 1 1
node 6 1 1 1
node 7 2 1 1
node 8 3 1 1
node 9 1 1 1
node 10 1 1 1
node 11 3 1 1
node 12 3 1 1
node 13 3 0 2
node 14 4 0 2
node 15 2 0 2
node 57 1 0 0
node 125 1 0 0
node 170 1 0 0
node 493 1 0 0
node 618 1 0 0
gene 3 1 13 273978 0 1 273978 1
gene 2 2 13 244383 0 2 244383 1
gene 1 3 13 -112374 0 3 -112374 0
gene 2 4 13 78192 0 4 78192 1
gene 4 5 13 54441 0 5 54441 1
gene 1 6 13 -401148 0 6 -401148 1
gene 1 7 13 -30165 0 7 -30165 1
gene 4 8 13 800000 0 8 800000 1
gene 3 9 13 -507410 0 9 -507410 1
gene 2 10 13 377244 0 10 377244 1
gene 1 11 13 268115 0 11 268115 1
gene 2 12 13 -228962 0 12 -228962 1
gene 2 1 14 486285 0 13 486285 1
gene 1 2 14 -253980 0 14 -253980 1
gene 1 3 14 -374301 0 15 -374301 1
gene 4 4 14 452652 0 16 452652 1
gene 3 5 14 1941 0 17 1941 1
gene 3 6 14 434395 0 18 434395 1
gene 1 7 14 332217 0 19 332217 0
gene 4 8 14 545433 0 20 545433 0
gene 1 9 14 -429681 0 21 -429681 1
gene 3 10 14 -130953 0 22 -130953 1
gene 4 11 14 -143319 0 23 -143319 1
gene 3 12 14 -174966 0 24 -174966 0
gene 1 1 15 339387 0 25 339387 1
gene 2 2 15 115029 0 26 115029 1
gene 2 3 15 719943 0 27 719943 1
gene 4 4 15 -229008 0 28 -229008 1
gene 4 5 15 320196 0 29 320196 1
gene 4 6 15 192630 0 30 192630 1
gene 1 7 15 800000 0 31 800000 1
gene 1 8 15 85131 0 32 85131 1
gene 3 9 15 148386 0 33 148386 1
gene 3 10 15 270585 0 34 270585 1
gene 2 11 15 800000 0 35 800000 1
gene 1 12 15 101247 0 36 101247 0
gene 1 12 57 -85404 0 144 -85404 1
gene 1 57 15 174633 0 145 174633 1
gene 1 3 125 413658 0 339 413658 1
gene 1 125 13 568008 0 340 568008 1
gene 1 7 170 686424 0 461 686424 1
gene 1 170 14 -264858 0 462 -264858 1
gene 2 57 57 -800000 1 565 -800000 1
gene 2 14 14 105672 1 759 105672 1
gene 4 125 14 3588 0 798 3588 1
gene 3 170 125 461463 0 1081 461463 1
gene 4 13 57 470322 0 1182 470322 1
gene 3 12 493 121119 0 1435 121119 1
gene 3 493 14 441201 0 1436 441201 1
gene 3 8 125 362586 0 1638 362586 1
gene 2 2 170 83967 0 1665 83967 1
gene 3 14 15 427902 0 1712 427902 1
gene 3 15 170 212475 1 1758 212475 1
gene 4 8 618 160338 0 1811 160338 1
gene 4 618 14 301944 0 1812 301944 1
gene 3 14 13 -64830 0 1935 -64830 1
gene 3 14 57 -133445 0 2284 -133445 1
genomeend 26


/* Organism #32 Fitness: 180.000000 Time: 0 */
/* Position #32*/
#1 x: 61 y: 22
#2 x: 62 y: 34
#3 x: 23 y: 25
#4 x: 38 y: 83
#5 x: 70 y: 79
#6 x: 27 y: 74
genomestart 32
trait 1 1.000000 0.000000 0.000000 0.000000 0.000000 0.000000 0.000000 0.000000 trait 2 0.000000 0.000000 73134.000000 0.000000 0.000000 0.000000 0.000000 0.000000 trait 3 3.000000 0.000000 0.000000 0.000000 0.000000 0.000000 0.000000 0.000000 trait 4 0.000000 0.000000 0.000000 35101.000000 40023.000000 100000.000000 45212.000000 96029.000000 node 1 2 1 3
node 2 3 1 1
node 3 2 1 1
node 4 1 1 1
node 5 1 1 1
node 6 1 1 1
node 7 2 1 1
node 8 3 1 1
node 9 1 1 1
node 10 1 1 1
node 11 3 1 1
node 12 4 1 1
node 13 3 0 2
node 14 4 0 2
node 15 2 0 2
node 57 1 0 0
node 125 1 0 0
node 170 1 0 0
node 493 1 0 0
node 586 1 0 0
node 703 1 0 0
node 792 1 0 0
gene 2 1 13 217827 0 1 217827 1
gene 2 2 13 -404313 0 2 -404313 1
gene 1 3 13 133437 0 3 133437 0
gene 2 4 13 339954 0 4 339954 1
gene 4 5 13 795284 0 5 795284 1
gene 1 6 13 218823 0 6 218823 1
gene 1 7 13 -800000 0 7 -800000 1
gene 4 8 13 -74764 0 8 -74764 1
gene 3 9 13 -85761 0 9 -85761 1
gene 2 10 13 561291 0 10 561291 1
gene 1 11 13 -212355 0 11 -212355 1
gene 2 12 13 -210999 0 12 -210999 1
gene 4 1 14 -58620 0 13 -58620 1
gene 1 2 14 -252557 0 14 -252557 1
gene 1 3 14 200484 0 15 200484 1
gene 4 4 14 6558 0 16 6558 1
gene 3 5 14 -532362 0 17 -532362 1
gene 3 6 14 -343829 0 18 -343829 0
gene 1 7 14 -800000 0 19 -800000 0
gene 4 8 14 -232914 0 20 -232914 1
gene 1 9 14 89468 0 21 89468 1
gene 3 10 14 -497405 0 22 -497405 1
gene 4 11 14 -280185 0 23 -280185 1
gene 3 12 14 800000 0 24 800000 0
gene 1 1 15 -164679 0 25 -164679 1
gene 2 2 15 127212 0 26 127212 1
gene 2 3 15 -89430 0 27 -89430 1
gene 4 4 15 -530112 0 28 -530112 1
gene 4 5 15 153939 0 29 153939 1
gene 4 6 15 517797 0 30 517797 1
gene 1 7 15 -116649 0 31 -116649 1
gene 1 8 15 -126885 0 32 -126885 1
gene 3 9 15 -535422 0 33 -535422 1
gene 3 10 15 -13047 0 34 -13047 1
gene 2 11 15 36186 0 35 36186 1
gene 1 12 15 800000 0 36 800000 0
gene 1 12 57 -9837 0 144 -9837 1
gene 1 57 15 -476885 0 145 -476885 1
gene 1 3 125 32634 0 339 32634 1
gene 1 125 13 -280794 0 340 -280794 1
gene 1 7 170 -111885 0 461 -111885 1
gene 1 170 14 -4536 0 462 -4536 1
gene 2 57 57 282981 1 565 282981 1
gene 2 14 14 406434 1 759 406434 1
gene 3 125 14 -198453 0 798 -198453 1
gene 3 170 125 -88743 0 1081 -88743 0
gene 4 13 57 -331680 0 1182 -331680 1
gene 3 12 493 263514 0 1435 263514 1
gene 3 493 14 -75117 0 1436 -75117 1
gene 1 15 125 485730 1 1585 485730 1
gene 3 6 586 -322973 0 1716 -322973 0
gene 3 586 14 332199 0 1717 332199 1
gene 3 8 493 -18700 0 1765 -18700 1
gene 4 15 14 231144 0 1814 231144 1
gene 3 6 703 -65976 0 2051 -65976 1
gene 3 703 586 -71865 0 2052 -71865 1
gene 4 1 703 -61876 0 2291 -61876 1
gene 3 170 792 1 0 2319 0 1
gene 3 792 125 -88743 0 2320 0 1
genomeend 32


/* Organism #44 Fitness: 180.000000 Time: 0 */
/* Position #44*/
#1 x: 44 y: 35
#2 x: 82 y: 20
#3 x: 57 y: 31
#4 x: 69 y: 69
#5 x: 53 y: 64
#6 x: 60 y: 71
genomestart 44
trait 1 1.000000 69464.000000 0.000000 0.000000 0.000000 0.000000 0.000000 0.000000 trait 2 2.000000 0.000000 0.000000 0.000000 0.000000 0.000000 0.000000 0.000000 trait 3 3.000000 0.000000 0.000000 0.000000 0.000000 0.000000 0.000000 0.000000 trait 4 4.000000 0.000000 0.000000 0.000000 0.000000 0.000000 0.000000 0.000000 node 1 3 1 3
node 2 1 1 1
node 3 3 1 1
node 4 1 1 1
node 5 4 1 1
node 6 4 1 1
node 7 2 1 1
node 8 2 1 1
node 9 3 1 1
node 10 1 1 1
node 11 4 1 1
node 12 2 1 1
node 13 3 0 2
node 14 1 0 2
node 15 4 0 2
node 160 3 0 0
node 243 1 0 0
node 300 1 0 0
node 324 1 0 0
node 517 1 0 0
node 578 1 0 0
node 607 1 0 0
node 685 1 0 0
gene 1 1 13 -280929 0 1 -280929 1
gene 4 2 13 800000 0 2 800000 1
gene 3 3 13 434565 0 3 434565 1
gene 3 4 13 -135324 0 4 -135324 0
gene 3 5 13 -168621 0 5 -168621 0
gene 4 6 13 -472755 0 6 -472755 0
gene 4 7 13 444975 0 7 444975 1
gene 1 8 13 96309 0 8 96309 1
gene 1 9 13 16845 0 9 16845 1
gene 1 10 13 -248580 0 10 -248580 1
gene 2 11 13 -800000 0 11 -800000 1
gene 1 12 13 -346296 0 12 -346296 1
gene 2 1 14 800000 0 13 800000 1
gene 4 2 14 660359 0 14 660359 1
gene 3 3 14 458964 0 15 458964 1
gene 3 4 14 -800000 0 16 -800000 1
gene 3 5 14 182253 0 17 182253 1
gene 3 6 14 157620 0 18 157620 1
gene 2 7 14 299485 0 19 299485 1
gene 1 8 14 -558128 0 20 -558128 0
gene 1 9 14 -61542 0 21 -61542 1
gene 4 10 14 229506 0 22 229506 1
gene 1 11 14 -505543 0 23 -505543 0
gene 2 12 14 -175371 0 24 -175371 1
gene 4 1 15 -100581 0 25 -100581 1
gene 3 2 15 7386 0 26 7386 1
gene 4 3 15 -5517 0 27 -5517 0
gene 1 4 15 425772 0 28 425772 1
gene 3 5 15 -321756 0 29 -321756 1
gene 1 6 15 374127 0 30 374127 1
gene 4 7 15 -800000 0 31 -800000 1
gene 3 8 15 336969 0 32 336969 1
gene 2 9 15 -362271 0 33 -362271 1
gene 4 10 15 -800000 0 34 -800000 1
gene 1 11 15 -262989 0 35 -262989 0
gene 4 12 15 -279011 0 36 -279011 1
gene 2 15 15 -414402 1 138 -414402 1
gene 1 15 13 -218652 0 163 -218652 1
gene 1 14 15 -16956 0 252 -16956 1
gene 4 10 160 275238 0 436 275238 1
gene 4 160 15 476640 0 437 476640 1
gene 2 5 243 30471 0 690 30471 1
gene 2 243 13 33657 0 691 33657 1
gene 3 4 300 -445137 0 865 -445137 1
gene 3 300 13 204336 0 866 204336 1
gene 2 160 243 -94521 0 901 -94521 1
gene 4 6 324 607530 0 940 607530 1
gene 4 324 13 556259 0 941 556259 1
gene 2 12 243 179346 0 986 179346 1
gene 1 11 517 509268 0 1503 509268 1
gene 1 517 15 152715 0 1504 152715 1
gene 4 3 578 -284727 0 1694 -284727 1
gene 4 578 15 553286 0 1695 553286 1
gene 1 8 607 389400 0 1780 389400 1
gene 1 607 14 -159408 0 1781 -159408 1
gene 2 4 160 -105642 0 1955 -105642 1
gene 1 11 685 -471402 0 2000 -471402 1
gene 1 685 14 466931 0 2001 466931 1
gene 3 243 517 165999 0 2130 165999 1
gene 2 578 607 -182685 0 2185 -182685 1
genomeend 44


/* Organism #45 Fitness: 250.000000 Time: 0 */
/* Position #45*/
#1 x: 44 y: 35
#2 x: 82 y: 20
#3 x: 57 y: 31
#4 x: 69 y: 69
#5 x: 53 y: 64
#6 x: 60 y: 71
genomestart 45
trait 1 1.000000 69464.000000 0.000000 0.000000 0.000000 0.000000 0.000000 0.000000 trait 2 2.000000 0.000000 0.000000 0.000000 0.000000 0.000000 0.000000 0.000000 trait 3 3.000000 0.000000 0.000000 0.000000 0.000000 0.000000 0.000000 0.000000 trait 4 4.000000 0.000000 0.000000 0.000000 0.000000 0.000000 0.000000 0.000000 node 1 3 1 3
node 2 1 1 1
node 3 3 1 1
node 4 1 1 1
node 5 4 1 1
node 6 4 1 1
node 7 2 1 1
node 8 2 1 1
node 9 3 1 1
node 10 1 1 1
node 11 4 1 1
node 12 2 1 1
node 13 3 0 2
node 14 1 0 2
node 15 4 0 2
node 160 3 0 0
node 243 1 0 0
node 300 1 0 0
node 324 1 0 0
node 517 1 0 0
node 578 1 0 0
node 607 1 0 0
node 685 1 0 0
node 795 1 0 0
gene 1 1 13 -114411 0 1 -114411 1
gene 4 2 13 800000 0 2 800000 1
gene 3 3 13 655944 0 3 655944 1
gene 3 4 13 -43878 0 4 -43878 0
gene 3 5 13 -370506 0 5 -370506 0
gene 4 6 13 -504735 0 6 -504735 0
gene 4 7 13 283809 0 7 283809 1
gene 1 8 13 155154 0 8 155154 1
gene 1 9 13 -235236 0 9 -235236 1
gene 1 10 13 -323574 0 10 -323574 1
gene 2 11 13 -680394 0 11 -680394 1
gene 1 12 13 -153870 0 12 -153870 1
gene 2 1 14 637514 0 13 637514 1
gene 4 2 14 739007 0 14 739007 1
gene 3 3 14 224979 0 15 224979 1
gene 3 4 14 -597699 0 16 -597699 1
gene 3 5 14 150090 0 17 150090 1
gene 3 6 14 178515 0 18 178515 1
gene 2 7 14 138073 0 19 138073 1
gene 1 8 14 -576044 0 20 -576044 0
gene 1 9 14 37947 0 21 37947 1
gene 4 10 14 169758 0 22 169758 1
gene 1 11 14 -291553 0 23 -291553 0
gene 2 12 14 -27231 0 24 -27231 1
gene 4 1 15 53934 0 25 53934 1
gene 3 2 15 139338 0 26 139338 1
gene 4 3 15 -2970 0 27 -2970 0
gene 1 4 15 411900 0 28 411900 1
gene 3 5 15 -331707 0 29 -331707 1
gene 1 6 15 415677 0 30 415677 1
gene 4 7 15 -755264 0 31 -755264 1
gene 3 8 15 330156 0 32 330156 1
gene 2 9 15 -156663 0 33 -156663 0
gene 4 10 15 -663636 0 34 -663636 1
gene 1 11 15 -151527 0 35 -151527 0
gene 4 12 15 -571505 0 36 -571505 1
gene 2 15 15 -118845 1 138 -118845 1
gene 1 15 13 32619 0 163 32619 1
gene 1 14 15 -285729 0 252 -285729 1
gene 4 10 160 90738 0 436 90738 1
gene 4 160 15 225585 0 437 225585 1
gene 2 5 243 -257337 0 690 -257337 1
gene 2 243 13 267534 0 691 267534 1
gene 3 4 300 -198681 0 865 -198681 1
gene 3 300 13 388362 0 866 388362 1
gene 2 160 243 148299 0 901 148299 1
gene 4 6 324 388080 0 940 388080 1
gene 4 324 13 357821 0 941 357821 1
gene 2 12 243 299382 0 986 299382 1
gene 1 11 517 414324 0 1503 414324 1
gene 1 517 15 152715 0 1504 152715 1
gene 4 3 578 -56229 0 1694 -56229 1
gene 4 578 15 553286 0 1695 553286 1
gene 1 8 607 172626 0 1780 172626 1
gene 1 607 14 -654281 0 1781 -654281 1
gene 2 4 160 -105642 0 1955 -105642 1
gene 1 11 685 -270762 0 2000 -270762 1
gene 1 685 14 466931 0 2001 466931 1
gene 3 243 517 247071 0 2130 247071 1
gene 2 578 607 14585 0 2185 14585 1
gene 2 9 795 1 0 2331 0 1
gene 2 795 15 -156663 0 2332 0 1
genomeend 45


/* Organism #46 Fitness: 230.000000 Time: 0 */
/* Position #46*/
#1 x: 56 y: 34
#2 x: 18 y: 16
#3 x: 19 y: 33
#4 x: 16 y: 72
#5 x: 55 y: 61
#6 x: 45 y: 83
genomestart 46
trait 1 1.000000 0.000000 0.000000 0.000000 0.000000 0.000000 0.000000 0.000000 trait 2 2.000000 22667.000000 51869.000000 0.000000 0.000000 95905.000000 0.000000 0.000000 trait 3 3.000000 0.000000 0.000000 0.000000 0.000000 0.000000 0.000000 0.000000 trait 4 37885.000000 0.000000 0.000000 0.000000 0.000000 0.000000 60658.000000 86708.000000 node 1 3 1 3
node 2 2 1 1
node 3 2 1 1
node 4 1 1 1
node 5 4 1 1
node 6 4 1 1
node 7 3 1 1
node 8 2 1 1
node 9 3 1 1
node 10 1 1 1
node 11 4 1 1
node 12 2 1 1
node 13 3 0 2
node 14 1 0 2
node 15 4 0 2
node 201 1 0 0
node 261 1 0 0
node 333 1 0 0
node 724 1 0 0
gene 1 1 13 101700 0 1 101700 1
gene 4 2 13 165747 0 2 165747 1
gene 3 3 13 21003 0 3 21003 1
gene 3 4 13 333876 0 4 333876 1
gene 2 5 13 573443 0 5 573443 1
gene 4 6 13 4896 0 6 4896 1
gene 4 7 13 493101 0 7 493101 1
gene 1 8 13 302592 0 8 302592 0
gene 1 9 13 186702 0 9 186702 1
gene 1 10 13 638703 0 10 638703 1
gene 2 11 13 -576713 0 11 -576713 1
gene 1 12 13 553112 0 12 553112 1
gene 2 1 14 -572481 0 13 -572481 1
gene 4 2 14 -186756 0 14 -186756 1
gene 3 3 14 213880 0 15 213880 1
gene 3 4 14 -144333 0 16 -144333 1
gene 1 5 14 -115425 0 17 -115425 1
gene 3 6 14 48117 0 18 48117 1
gene 2 7 14 145923 0 19 145923 1
gene 1 8 14 -152073 0 20 -152073 1
gene 1 9 14 -800000 0 21 -800000 1
gene 1 10 14 -413514 0 22 -413514 1
gene 1 11 14 -589923 0 23 -589923 1
gene 2 12 14 -250569 0 24 -250569 0
gene 4 1 15 42543 0 25 42543 1
gene 3 2 15 -595160 0 26 -595160 1
gene 4 3 15 -555731 0 27 -555731 1
gene 1 4 15 651438 0 28 651438 1
gene 3 5 15 93840 0 29 93840 1
gene 1 6 15 -22932 0 30 -22932 1
gene 4 7 15 -185601 0 31 -185601 1
gene 3 8 15 178248 0 32 178248 1
gene 2 9 15 -198126 0 33 -198126 1
gene 4 10 15 -213591 0 34 -213591 1
gene 1 11 15 -144972 0 35 -144972 1
gene 4 12 15 7416 0 36 7416 0
gene 2 15 15 -183207 1 138 -183207 1
gene 1 15 13 -136791 0 163 -136791 1
gene 1 14 15 224445 0 252 224445 1
gene 4 14 13 -202416 0 342 -202416 1
gene 1 8 201 -159852 0 554 -159852 1
gene 4 201 13 -321843 0 555 -321843 1
gene 3 14 201 -566370 0 597 -566370 1
gene 4 12 261 -800000 0 740 -800000 1
gene 4 261 15 -237120 0 741 -237120 0
gene 2 12 333 -239361 0 963 -239361 1
gene 2 333 14 433452 0 964 433452 1
gene 3 11 201 -168307 0 1450 -168307 1
gene 2 333 201 -324687 0 1766 -324687 1
gene 1 261 333 -254751 0 2015 -254751 1
gene 4 261 724 34470 0 2110 34470 1
gene 4 724 15 -263706 0 2111 -263706 1
gene 4 2 201 88752 0 2206 88752 1
gene 4 6 201 -83182 0 2333 -83182 1
genomeend 46


/* Organism #58 Fitness: 230.000000 Time: 0 */
/* Position #58*/
#1 x: 25 y: 22
#2 x: 40 y: 27
#3 x: 63 y: 18
#4 x: 28 y: 81
#5 x: 46 y: 64
#6 x: 63 y: 78
genomestart 58
trait 1 1.000000 69464.000000 0.000000 0.000000 0.000000 0.000000 0.000000 0.000000 trait 2 2.000000 0.000000 0.000000 0.000000 0.000000 0.000000 0.000000 0.000000 trait 3 3.000000 0.000000 0.000000 0.000000 0.000000 0.000000 0.000000 0.000000 trait 4 4.000000 0.000000 0.000000 0.000000 0.000000 0.000000 0.000000 0.000000 node 1 3 1 3
node 2 1 1 1
node 3 3 1 1
node 4 1 1 1
node 5 4 1 1
node 6 4 1 1
node 7 2 1 1
node 8 2 1 1
node 9 3 1 1
node 10 1 1 1
node 11 4 1 1
node 12 2 1 1
node 13 3 0 2
node 14 1 0 2
node 15 4 0 2
node 160 3 0 0
node 243 1 0 0
node 300 1 0 0
node 324 1 0 0
node 517 1 0 0
node 578 1 0 0
node 607 1 0 0
node 800 1 0 0
gene 1 1 13 -141846 0 1 -141846 1
gene 4 2 13 800000 0 2 800000 1
gene 3 3 13 162735 0 3 162735 1
gene 3 4 13 250284 0 4 250284 0
gene 3 5 13 -395934 0 5 -395934 0
gene 4 6 13 -409029 0 6 -409029 0
gene 4 7 13 -41091 0 7 -41091 1
gene 1 8 13 -317886 0 8 -317886 1
gene 1 9 13 -306573 0 9 -306573 1
gene 1 10 13 153936 0 10 153936 1
gene 2 11 13 -786945 0 11 -786945 0
gene 1 12 13 -413283 0 12 -413283 1
gene 2 1 14 800000 0 13 800000 1
gene 4 2 14 248195 0 14 248195 1
gene 3 3 14 158244 0 15 158244 1
gene 3 4 14 -800000 0 16 -800000 1
gene 3 5 14 -738267 0 17 -738267 1
gene 3 6 14 -196461 0 18 -196461 1
gene 2 7 14 -168885 0 19 -168885 1
gene 1 8 14 580156 0 20 580156 0
gene 1 9 14 -12138 0 21 -12138 1
gene 4 10 14 -12603 0 22 -12603 1
gene 1 11 14 -28365 0 23 -28365 1
gene 2 12 14 -212973 0 24 -212973 1
gene 4 1 15 -188151 0 25 -188151 1
gene 3 2 15 490173 0 26 490173 1
gene 4 3 15 -436978 0 27 -436978 0
gene 1 4 15 -209565 0 28 -209565 1
gene 3 5 15 -392145 0 29 -392145 1
gene 1 6 15 800000 0 30 800000 1
gene 4 7 15 -461892 0 31 -461892 1
gene 3 8 15 215778 0 32 215778 1
gene 2 9 15 -194304 0 33 -194304 1
gene 4 10 15 -323559 0 34 -323559 1
gene 1 11 15 52626 0 35 52626 0
gene 4 12 15 -546089 0 36 -546089 1
gene 2 15 15 -400509 1 138 -400509 1
gene 1 15 13 -800000 0 163 -800000 1
gene 1 14 15 -433212 0 252 -433212 1
gene 4 10 160 -393792 0 436 -393792 1
gene 4 160 15 371076 0 437 371076 1
gene 2 5 243 162888 0 690 162888 1
gene 2 243 13 345117 0 691 345117 1
gene 3 4 300 82311 0 865 82311 1
gene 3 300 13 -8679 0 866 -8679 1
gene 2 160 243 600141 0 901 600141 1
gene 4 6 324 -635412 0 940 -635412 1
gene 4 324 13 -318138 0 941 -318138 1
gene 2 12 243 -218697 0 986 -218697 1
gene 1 11 517 -356304 0 1503 -356304 1
gene 1 517 15 -241308 0 1504 -241308 1
gene 4 3 578 -451932 0 1694 -451932 1
gene 4 578 15 370127 0 1695 370127 1
gene 1 8 607 174963 0 1780 174963 1
gene 1 607 14 -589622 0 1781 -589622 1
gene 2 9 607 -229128 0 2230 -229128 1
gene 2 11 800 1 0 2346 0 1
gene 2 800 13 -786945 0 2347 0 1
genomeend 58


/* Organism #60 Fitness: 340.000000 Time: 0 */
/* Position #60*/
#1 x: 83 y: 20
#2 x: 49 y: 32
#3 x: 66 y: 36
#4 x: 15 y: 64
#5 x: 84 y: 69
#6 x: 65 y: 73
genomestart 60
trait 1 43007.000000 16300.000000 0.000000 0.000000 0.000000 0.000000 87908.000000 0.000000 trait 2 2.000000 0.000000 0.000000 0.000000 0.000000 0.000000 0.000000 0.000000 trait 3 0.000000 0.000000 0.000000 0.000000 0.000000 13538.000000 70969.000000 0.000000 trait 4 4.000000 0.000000 0.000000 0.000000 0.000000 0.000000 0.000000 0.000000 node 1 4 1 3
node 2 4 1 1
node 3 1 1 1
node 4 1 1 1
node 5 1 1 1
node 6 2 1 1
node 7 4 1 1
node 8 4 1 1
node 9 2 1 1
node 10 1 1 1
node 11 2 1 1
node 12 4 1 1
node 13 2 0 2
node 14 1 0 2
node 15 3 0 2
node 121 1 0 0
node 235 1 0 0
node 384 1 0 0
node 420 1 0 0
node 433 1 0 0
node 461 1 0 0
node 500 1 0 0
node 516 2 0 0
node 611 1 0 0
node 671 1 0 0
node 684 1 0 0
node 802 1 0 0
gene 2 1 13 449685 0 1 449685 1
gene 3 2 13 -276771 0 2 -276771 0
gene 2 3 13 46539 0 3 46539 1
gene 3 4 13 712949 0 4 712949 1
gene 2 5 13 165000 0 5 165000 1
gene 4 6 13 584466 0 6 584466 1
gene 3 7 13 338996 0 7 338996 1
gene 2 8 13 -550647 0 8 -550647 1
gene 3 9 13 241518 0 9 241518 1
gene 2 10 13 800000 0 10 800000 1
gene 2 11 13 516705 0 11 516705 1
gene 4 12 13 -17913 0 12 -17913 1
gene 2 1 14 307473 0 13 307473 1
gene 2 2 14 100251 0 14 100251 1
gene 4 3 14 -187620 0 15 -187620 0
gene 4 4 14 106641 0 16 106641 0
gene 4 5 14 -228114 0 17 -228114 1
gene 3 6 14 311930 0 18 311930 1
gene 2 7 14 800000 0 19 800000 0
gene 1 8 14 -520770 0 20 -520770 1
gene 2 9 14 95226 0 21 95226 1
gene 1 10 14 -8772 0 22 -8772 1
gene 1 11 14 34515 0 23 34515 1
gene 4 12 14 -169905 0 24 -169905 1
gene 3 1 15 322593 0 25 322593 1
gene 3 2 15 383322 0 26 383322 1
gene 3 3 15 -461973 0 27 -461973 1
gene 1 4 15 800000 0 28 800000 1
gene 3 5 15 -258369 0 29 -258369 1
gene 1 6 15 -277548 0 30 -277548 1
gene 3 7 15 -40428 0 31 -40428 0
gene 3 8 15 597198 0 32 597198 0
gene 3 9 15 -99231 0 33 -99231 1
gene 3 10 15 479532 0 34 479532 0
gene 2 11 15 551271 0 35 551271 1
gene 4 12 15 337365 0 36 337365 0
gene 4 15 15 -17634 1 174 -17634 1
gene 3 8 121 -180945 0 329 -180945 1
gene 3 121 15 56928 0 330 56928 1
gene 2 5 121 -55554 0 438 -55554 1
gene 2 7 121 744141 0 483 744141 1
gene 4 4 235 560610 0 666 560610 1
gene 4 235 14 -229152 0 667 -229152 1
gene 3 1 235 -21963 0 753 -21963 1
gene 1 9 235 479877 0 1108 479877 1
gene 3 10 384 -229395 0 1126 -229395 1
gene 3 384 15 387642 0 1127 387642 1
gene 2 14 14 -365508 1 1197 -365508 1
gene 3 7 420 -73428 0 1239 -73428 1
gene 3 420 15 -367713 0 1240 -367713 1
gene 3 2 433 -14553 0 1284 -14553 1
gene 3 433 13 -193701 0 1285 -193701 1
gene 4 3 461 800000 0 1352 800000 0
gene 4 461 14 -23124 0 1353 -23124 1
gene 4 15 500 -491097 1 1453 -491097 1
gene 4 500 15 -169305 0 1454 -169305 1
gene 1 8 516 -42977 0 1500 -42977 1
gene 1 516 14 54516 0 1501 54516 1
gene 1 384 121 182850 0 1548 182850 1
gene 3 384 611 -394056 0 1791 -394056 1
gene 3 611 15 219912 0 1792 219912 1
gene 4 3 671 -90497 0 1960 -90497 1
gene 4 671 461 -187497 0 1961 -187497 1
gene 2 7 684 -31004 0 1997 -31004 1
gene 2 684 14 488445 0 1998 488445 1
gene 1 684 516 8588 0 2167 8588 1
gene 4 12 802 1 0 2350 0 1
gene 4 802 15 337365 0 2351 0 1
genomeend 60


/* Organism #77 Fitness: 190.000000 Time: 0 */
/* Position #77*/
#1 x: 65 y: 38
#2 x: 69 y: 17
#3 x: 81 y: 15
#4 x: 60 y: 62
#5 x: 72 y: 67
#6 x: 29 y: 77
genomestart 77
trait 1 1.000000 69464.000000 0.000000 0.000000 0.000000 0.000000 0.000000 0.000000 trait 2 2.000000 0.000000 0.000000 0.000000 0.000000 0.000000 0.000000 0.000000 trait 3 3.000000 0.000000 0.000000 0.000000 0.000000 0.000000 0.000000 0.000000 trait 4 4.000000 0.000000 0.000000 0.000000 0.000000 0.000000 0.000000 0.000000 node 1 3 1 3
node 2 1 1 1
node 3 3 1 1
node 4 1 1 1
node 5 4 1 1
node 6 4 1 1
node 7 2 1 1
node 8 2 1 1
node 9 3 1 1
node 10 1 1 1
node 11 4 1 1
node 12 2 1 1
node 13 3 0 2
node 14 1 0 2
node 15 4 0 2
node 160 3 0 0
node 243 1 0 0
node 300 1 0 0
node 324 1 0 0
node 517 1 0 0
node 578 1 0 0
node 607 1 0 0
gene 1 1 13 -135291 0 1 -135291 1
gene 4 2 13 800000 0 2 800000 1
gene 3 3 13 202941 0 3 202941 1
gene 3 4 13 244251 0 4 244251 0
gene 3 5 13 -228324 0 5 -228324 0
gene 4 6 13 -35316 0 6 -35316 0
gene 4 7 13 -41091 0 7 -41091 1
gene 1 8 13 -65424 0 8 -65424 1
gene 1 9 13 -443784 0 9 -443784 1
gene 1 10 13 153936 0 10 153936 1
gene 2 11 13 -735999 0 11 -735999 1
gene 1 12 13 -447522 0 12 -447522 1
gene 2 1 14 800000 0 13 800000 1
gene 4 2 14 476747 0 14 476747 1
gene 3 3 14 135927 0 15 135927 1
gene 3 4 14 -125097 0 16 -125097 1
gene 3 5 14 -505995 0 17 -505995 1
gene 3 6 14 -94371 0 18 -94371 1
gene 2 7 14 -224091 0 19 -224091 1
gene 1 8 14 338275 0 20 338275 0
gene 1 9 14 -12138 0 21 -12138 1
gene 4 10 14 -178437 0 22 -178437 1
gene 1 11 14 250389 0 23 250389 1
gene 2 12 14 -357291 0 24 -357291 1
gene 4 1 15 -82665 0 25 -82665 1
gene 3 2 15 612471 0 26 612471 1
gene 4 3 15 -216790 0 27 -216790 0
gene 1 4 15 210858 0 28 210858 1
gene 3 5 15 -353877 0 29 -353877 1
gene 1 6 15 -20472 0 30 -20472 1
gene 4 7 15 -475728 0 31 -475728 1
gene 3 8 15 313389 0 32 313389 1
gene 2 9 15 -67209 0 33 -67209 1
gene 4 10 15 -297918 0 34 -297918 1
gene 1 11 15 -459 0 35 -459 0
gene 4 12 15 -426878 0 36 -426878 1
gene 2 15 15 -611397 1 138 -611397 1
gene 1 15 13 -800000 0 163 -800000 1
gene 1 14 15 165399 0 252 165399 1
gene 4 10 160 -411753 0 436 -411753 1
gene 4 160 15 304791 0 437 304791 1
gene 2 5 243 -102222 0 690 -102222 1
gene 2 243 13 345117 0 691 345117 1
gene 3 4 300 106644 0 865 106644 1
gene 3 300 13 -8679 0 866 -8679 1
gene 2 160 243 -53595 0 901 -53595 1
gene 4 6 324 -259593 0 940 -259593 1
gene 4 324 13 -470727 0 941 -470727 1
gene 2 12 243 -186123 0 986 -186123 1
gene 1 11 517 -221448 0 1503 -221448 1
gene 1 517 15 -131319 0 1504 -131319 1
gene 4 3 578 -35685 0 1694 -35685 1
gene 4 578 15 485891 0 1695 485891 1
gene 1 8 607 174963 0 1780 174963 1
gene 1 607 14 -647810 0 1781 -647810 1
gene 2 9 607 1788 0 2230 1788 1
genomeend 77


/* Organism #79 Fitness: 240.000000 Time: 0 */
/* Position #79*/
#1 x: 71 y: 23
#2 x: 29 y: 25
#3 x: 48 y: 21
#4 x: 63 y: 77
#5 x: 64 y: 66
#6 x: 32 y: 67
genomestart 79
trait 1 1.000000 0.000000 0.000000 0.000000 0.000000 0.000000 0.000000 0.000000 trait 2 0.000000 0.000000 73134.000000 0.000000 0.000000 0.000000 0.000000 0.000000 trait 3 3.000000 0.000000 0.000000 0.000000 0.000000 0.000000 0.000000 0.000000 trait 4 51134.000000 0.000000 0.000000 38189.000000 40023.000000 55034.000000 45212.000000 100000.000000 node 1 2 1 3
node 2 3 1 1
node 3 2 1 1
node 4 1 1 1
node 5 1 1 1
node 6 1 1 1
node 7 2 1 1
node 8 3 1 1
node 9 1 1 1
node 10 1 1 1
node 11 3 1 1
node 12 4 1 1
node 13 3 0 2
node 14 4 0 2
node 15 2 0 2
node 57 1 0 0
node 125 1 0 0
node 170 1 0 0
node 493 1 0 0
node 586 1 0 0
node 703 1 0 0
gene 2 1 13 139323 0 1 139323 1
gene 2 2 13 -415278 0 2 -415278 1
gene 1 3 13 422517 0 3 422517 0
gene 2 4 13 25779 0 4 25779 1
gene 4 5 13 800000 0 5 800000 1
gene 1 6 13 192738 0 6 192738 1
gene 1 7 13 -655358 0 7 -655358 1
gene 4 8 13 -168268 0 8 -168268 1
gene 3 9 13 97008 0 9 97008 1
gene 2 10 13 654090 0 10 654090 1
gene 1 11 13 -160227 0 11 -160227 1
gene 2 12 13 -547458 0 12 -547458 1
gene 4 1 14 267360 0 13 267360 1
gene 1 2 14 -279023 0 14 -279023 1
gene 1 3 14 2733 0 15 2733 1
gene 4 4 14 -480984 0 16 -480984 1
gene 3 5 14 -124722 0 17 -124722 1
gene 3 6 14 -46187 0 18 -46187 0
gene 1 7 14 -484520 0 19 -484520 0
gene 4 8 14 -470412 0 20 -470412 1
gene 1 9 14 -155893 0 21 -155893 1
gene 3 10 14 -313421 0 22 -313421 1
gene 4 11 14 51948 0 23 51948 1
gene 3 12 14 794033 0 24 794033 0
gene 1 1 15 -208503 0 25 -208503 1
gene 2 2 15 -166071 0 26 -166071 1
gene 2 3 15 -278139 0 27 -278139 1
gene 4 4 15 -489555 0 28 -489555 1
gene 4 5 15 -242460 0 29 -242460 1
gene 4 6 15 512205 0 30 512205 1
gene 1 7 15 382854 0 31 382854 1
gene 1 8 15 -451092 0 32 -451092 1
gene 4 9 15 -356784 0 33 -356784 1
gene 3 10 15 -159780 0 34 -159780 1
gene 2 11 15 -98694 0 35 -98694 1
gene 1 12 15 592802 0 36 592802 0
gene 1 12 57 105231 0 144 105231 1
gene 1 57 15 -469541 0 145 -469541 1
gene 1 3 125 201540 0 339 201540 1
gene 1 125 13 -111969 0 340 -111969 1
gene 1 7 170 -243558 0 461 -243558 1
gene 1 170 14 224499 0 462 224499 1
gene 2 57 57 636360 1 565 636360 1
gene 2 14 14 392580 1 759 392580 1
gene 3 125 14 260379 0 798 260379 1
gene 3 170 125 -88743 0 1081 -88743 1
gene 4 13 57 -141585 0 1182 -141585 1
gene 3 12 493 210135 0 1435 210135 1
gene 3 493 14 -44613 0 1436 -44613 1
gene 1 15 125 800000 1 1585 800000 1
gene 3 6 586 295473 0 1716 295473 0
gene 4 586 14 369219 0 1717 369219 1
gene 3 8 493 191322 0 1765 191322 1
gene 4 15 14 -148410 0 1814 -148410 1
gene 3 6 703 -201342 0 2051 -201342 1
gene 3 703 586 253491 0 2052 253491 1
genomeend 79


