/* Organism #79 Fitness: 150.000000 Time: 0 */
/* Position #79*/
#1 x: 16 y: 25
#2 x: 36 y: 28
#3 x: 80 y: 21
#4 x: 26 y: 85
#5 x: 79 y: 70
#6 x: 54 y: 81
genomestart 79
node 1 4 1 3
node 2 4 1 1
node 3 4 1 1
node 4 4 1 1
node 5 2 1 1
node 6 2 1 1
node 7 2 1 1
node 8 3 1 1
node 9 3 1 1
node 10 3 1 1
node 11 1 1 1
node 12 3 1 1
node 13 3 0 2
node 14 1 0 2
node 15 3 0 2
node 16 4 0 2
gene 2 1 13 137892 0 1 137892 1
gene 1 2 13 -392766 0 2 -392766 1
gene 2 3 13 -495003 0 3 -495003 1
gene 4 4 13 -182745 0 4 -182745 1
gene 4 5 13 -214851 0 5 -214851 1
gene 4 6 13 -61872 0 6 -61872 1
gene 4 7 13 -604954 0 7 -604954 1
gene 1 8 13 -525304 0 8 -525304 1
gene 4 9 13 -725850 0 9 -725850 1
gene 2 10 13 241008 0 10 241008 1
gene 4 11 13 27120 0 11 27120 1
gene 1 12 13 55917 0 12 55917 1
gene 1 1 14 174225 0 13 174225 1
gene 4 2 14 -300519 0 14 -300519 1
gene 1 3 14 -216699 0 15 -216699 1
gene 1 4 14 524676 0 16 524676 1
gene 4 5 14 -165282 0 17 -165282 1
gene 3 6 14 -155010 0 18 -155010 1
gene 4 7 14 143498 0 19 143498 1
gene 1 8 14 -115860 0 20 -115860 1
gene 2 9 14 392586 0 21 392586 1
gene 3 10 14 22305 0 22 22305 1
gene 2 11 14 40557 0 23 40557 1
gene 3 12 14 168516 0 24 168516 1
gene 2 1 15 209028 0 25 209028 1
gene 2 2 15 297897 0 26 297897 1
gene 4 3 15 110666 0 27 110666 1
gene 2 4 15 -354147 0 28 -354147 1
gene 3 5 15 -143717 0 29 -143717 1
gene 1 6 15 685419 0 30 685419 1
gene 3 7 15 223446 0 31 223446 1
gene 1 8 15 -23301 0 32 -23301 1
gene 2 9 15 -10887 0 33 -10887 1
gene 1 10 15 296658 0 34 296658 1
gene 2 11 15 -800000 0 35 -800000 1
gene 1 12 15 11334 0 36 11334 1
gene 1 1 16 -69147 0 37 -69147 1
gene 1 2 16 -77445 0 38 -77445 1
gene 4 3 16 106944 0 39 106944 1
gene 2 4 16 -3234 0 40 -3234 1
gene 1 5 16 60819 0 41 60819 1
gene 2 6 16 -322068 0 42 -322068 1
gene 4 7 16 -532866 0 43 -532866 1
gene 4 8 16 114270 0 44 114270 1
gene 2 9 16 -164649 0 45 -164649 1
gene 2 10 16 111936 0 46 111936 1
gene 2 11 16 -79953 0 47 -79953 1
gene 2 12 16 2385 0 48 2385 1
gene 4 16 16 -65661 1 181 -65661 1
gene 1 15 13 19692 0 220 19692 1
genomeend 79


