/* Organism #97 Fitness: 155.000000 Time: 0 */
/* Position #97*/
#1 x: 83 y: 36
#2 x: 83 y: 21
#3 x: 69 y: 17
#4 x: 27 y: 84
#5 x: 64 y: 63
#6 x: 21 y: 63
genomestart 97
node 1 3 1 3
node 2 4 1 1
node 3 4 1 1
node 4 2 1 1
node 5 3 1 1
node 6 3 1 1
node 7 1 1 1
node 8 1 1 1
node 9 4 1 1
node 10 2 1 1
node 11 1 1 1
node 12 1 1 1
node 13 3 1 1
node 14 3 1 1
node 15 4 0 2
node 16 1 0 2
node 17 1 0 2
node 18 3 0 2
gene 1 1 15 -644700 0 1 -644700 1
gene 4 2 15 19653 0 2 19653 1
gene 3 3 15 -32859 0 3 -32859 1
gene 4 4 15 404472 0 4 404472 1
gene 3 5 15 623351 0 5 623351 1
gene 3 6 15 800000 0 6 800000 1
gene 3 7 15 275490 0 7 275490 1
gene 3 8 15 -1210 0 8 -1210 1
gene 4 9 15 523698 0 9 523698 1
gene 3 10 15 -441306 0 10 -441306 1
gene 2 11 15 66465 0 11 66465 1
gene 1 12 15 -530724 0 12 -530724 1
gene 3 13 15 226788 0 13 226788 1
gene 1 14 15 353796 0 14 353796 1
gene 3 1 16 -205098 0 15 -205098 1
gene 2 2 16 -570171 0 16 -570171 1
gene 2 3 16 381558 0 17 381558 1
gene 3 4 16 -252888 0 18 -252888 1
gene 4 5 16 87048 0 19 87048 1
gene 3 6 16 800000 0 20 800000 1
gene 1 7 16 50268 0 21 50268 1
gene 2 8 16 309711 0 22 309711 1
gene 4 9 16 468081 0 23 468081 1
gene 4 10 16 -161343 0 24 -161343 1
gene 2 11 16 503877 0 25 503877 1
gene 2 12 16 -362121 0 26 -362121 1
gene 4 13 16 -132222 0 27 -132222 1
gene 4 14 16 -265656 0 28 -265656 1
gene 4 1 17 -144417 0 29 -144417 1
gene 2 2 17 -35667 0 30 -35667 1
gene 3 3 17 91842 0 31 91842 1
gene 3 4 17 286536 0 32 286536 1
gene 4 5 17 14655 0 33 14655 1
gene 2 6 17 59280 0 34 59280 1
gene 1 7 17 31290 0 35 31290 1
gene 1 8 17 -341961 0 36 -341961 1
gene 1 9 17 223761 0 37 223761 1
gene 3 10 17 -482091 0 38 -482091 1
gene 2 11 17 -340167 0 39 -340167 1
gene 3 12 17 -800000 0 40 -800000 1
gene 3 13 17 72471 0 41 72471 1
gene 4 14 17 -526173 0 42 -526173 1
gene 2 1 18 163857 0 43 163857 1
gene 1 2 18 48315 0 44 48315 1
gene 3 3 18 165231 0 45 165231 1
gene 3 4 18 -540639 0 46 -540639 1
gene 1 5 18 -312150 0 47 -312150 1
gene 4 6 18 -269073 0 48 -269073 1
gene 3 7 18 -522642 0 49 -522642 1
gene 1 8 18 632904 0 50 632904 1
gene 1 9 18 -405909 0 51 -405909 1
gene 2 10 18 261207 0 52 261207 1
gene 4 11 18 576633 0 53 576633 1
gene 1 12 18 565667 0 54 565667 1
gene 3 13 18 -105858 0 55 -105858 1
gene 3 14 18 163368 0 56 163368 1
gene 3 16 15 -228177 0 348 -228177 1
genomeend 97


