/* Organism #2 Fitness: 420.000000 Time: 0 */
/* Position #2*/
#1 x: 74 y: 21
#2 x: 47 y: 29
#3 x: 74 y: 40
#4 x: 78 y: 78
#5 x: 66 y: 80
#6 x: 69 y: 65
genomestart 2
trait 1 16780.000000 0.000000 0.000000 88582.000000 88737.000000 0.000000 0.000000 32087.000000 trait 2 69856.000000 68916.000000 0.000000 0.000000 70248.000000 0.000000 0.000000 0.000000 trait 3 3.000000 0.000000 0.000000 0.000000 0.000000 0.000000 0.000000 0.000000 trait 4 0.000000 57040.000000 0.000000 57778.000000 13389.000000 0.000000 0.000000 0.000000 node 1 4 1 3
node 2 2 1 1
node 3 4 1 1
node 4 2 1 1
node 5 4 1 1
node 6 3 1 1
node 7 2 1 1
node 8 2 1 1
node 9 4 1 1
node 10 1 1 1
node 11 1 1 1
node 12 4 1 1
node 13 3 0 2
node 14 1 0 2
node 15 4 0 2
node 95 1 0 0
node 283 1 0 0
node 296 1 0 0
node 505 1 0 0
node 523 1 0 0
node 536 1 0 0
node 629 1 0 0
node 659 1 0 0
node 673 1 0 0
node 683 1 0 0
node 722 1 0 0
node 824 1 0 0
node 866 1 0 0
node 937 1 0 0
node 1092 1 0 0
node 1106 1 0 0
node 1138 1 0 0
node 1223 1 0 0
node 1253 1 0 0
node 1281 1 0 0
node 1328 1 0 0
gene 4 1 13 126999 0 1 126999 1
gene 4 2 13 -800000 0 2 -800000 1
gene 4 3 13 89457 0 3 89457 1
gene 1 4 13 -26034 0 4 -26034 1
gene 1 5 13 115578 0 5 115578 1
gene 4 6 13 -179787 0 6 -179787 0
gene 1 7 13 -800000 0 7 -800000 1
gene 3 8 13 -273321 0 8 -273321 0
gene 2 9 13 245553 0 9 245553 0
gene 2 10 13 616158 0 10 616158 0
gene 1 11 13 311610 0 11 311610 1
gene 4 12 13 269295 0 12 269295 1
gene 1 1 14 -75297 0 13 -75297 1
gene 1 2 14 -46353 0 14 -46353 1
gene 3 3 14 -141885 0 15 -141885 1
gene 4 4 14 -413469 0 16 -413469 1
gene 4 5 14 -59946 0 17 -59946 1
gene 1 6 14 527337 0 18 527337 1
gene 1 7 14 267141 0 19 267141 1
gene 2 8 14 86925 0 20 86925 1
gene 3 9 14 233475 0 21 233475 0
gene 1 10 14 -48855 0 22 -48855 0
gene 1 11 14 347847 0 23 347847 1
gene 3 12 14 97464 0 24 97464 0
gene 1 1 15 312636 0 25 312636 1
gene 2 2 15 -24318 0 26 -24318 1
gene 2 3 15 401046 0 27 401046 0
gene 3 4 15 379764 0 28 379764 1
gene 3 5 15 -506031 0 29 -506031 1
gene 1 6 15 319044 0 30 319044 1
gene 4 7 15 -42843 0 31 -42843 1
gene 2 8 15 140286 0 32 140286 1
gene 3 9 15 356570 0 33 356570 1
gene 1 10 15 -138633 0 34 -138633 0
gene 3 11 15 321647 0 35 321647 0
gene 1 12 15 -621267 0 36 -621267 1
gene 4 15 14 538833 0 73 538833 0
gene 3 11 95 -208743 0 260 -208743 1
gene 3 95 15 181134 0 261 181134 1
gene 3 15 13 -70356 0 599 -70356 1
gene 2 13 14 375090 0 640 375090 0
gene 4 3 95 -642596 0 741 -642596 1
gene 4 12 283 -39060 0 841 -39060 1
gene 4 283 14 56643 0 842 56643 0
gene 4 6 296 -232218 0 883 -232218 0
gene 4 296 13 40527 0 884 40527 1
gene 1 2 296 -172509 0 1225 -172509 1
gene 3 283 283 499787 1 1313 499787 1
gene 2 9 505 533183 0 1500 533183 1
gene 2 505 13 -134871 0 1501 -134871 0
gene 1 296 296 -711231 1 1535 -711231 1
gene 1 10 523 -783845 0 1567 -783845 1
gene 1 523 14 -677889 0 1568 -677889 1
gene 2 9 536 -511206 0 1608 -511206 1
gene 2 536 505 685452 0 1609 685452 0
gene 3 523 523 -266832 1 1659 -266832 0
gene 2 4 283 -184626 0 1763 -184626 0
gene 2 3 629 255270 0 1894 255270 1
gene 2 629 15 475548 0 1895 475548 1
gene 4 536 14 -96759 0 1940 -96759 1
gene 3 523 659 110460 1 1984 110460 1
gene 3 659 523 7824 0 1985 7824 1
gene 3 9 673 -516855 0 2027 -516855 1
gene 3 673 14 -36213 0 2028 -36213 1
gene 2 13 683 -155727 0 2061 -155727 1
gene 2 683 14 646029 0 2062 646029 1
gene 1 95 95 -6126 1 2116 -6126 1
gene 4 283 722 -694125 0 2174 -694125 1
gene 4 722 14 300591 0 2175 300591 1
gene 2 10 824 622390 0 2475 622390 0
gene 2 824 13 245751 0 2476 245751 1
gene 3 296 722 545919 0 2512 545919 1
gene 1 8 659 -273006 0 2556 -273006 1
gene 1 536 866 -255408 0 2604 -255408 1
gene 2 866 505 160317 0 2605 160317 1
gene 4 12 505 219960 0 2740 219960 1
gene 1 10 937 -530544 0 2823 -530544 1
gene 1 937 15 -473882 0 2824 -473882 1
gene 4 505 505 203778 1 2951 203778 1
gene 4 5 95 158769 0 3087 158769 0
gene 2 505 1092 -165480 0 3262 -165480 1
gene 2 1092 13 193740 0 3263 193740 1
gene 4 15 1106 52341 0 3306 52341 1
gene 4 1106 14 407142 0 3307 407142 1
gene 2 673 673 -210747 1 3346 -210747 1
gene 2 4 1138 -286941 0 3404 -286941 1
gene 2 1138 283 750045 0 3405 750045 1
gene 1 937 523 241031 0 3455 241031 1
gene 4 6 1223 -174704 0 3660 -174704 1
gene 4 1223 296 -686262 0 3661 -686262 1
gene 3 8 1253 -147728 0 3740 -147728 1
gene 3 1253 13 105306 0 3741 105306 1
gene 2 10 1281 -106082 0 3827 -106082 1
gene 2 1281 824 800000 0 3828 800000 1
gene 1 629 629 23934 1 3921 23934 1
gene 4 5 1328 1 0 3967 0 1
gene 4 1328 95 158769 0 3968 0 1
genomeend 2


/* Organism #28 Fitness: 420.000000 Time: 0 */
/* Position #28*/
#1 x: 41 y: 29
#2 x: 82 y: 25
#3 x: 45 y: 23
#4 x: 17 y: 68
#5 x: 38 y: 68
#6 x: 67 y: 63
genomestart 28
trait 1 0.000000 0.000000 0.000000 0.000000 0.000000 75641.000000 0.000000 0.000000 trait 2 2.000000 0.000000 0.000000 0.000000 0.000000 0.000000 0.000000 0.000000 trait 3 3.000000 0.000000 0.000000 0.000000 0.000000 0.000000 0.000000 0.000000 trait 4 4.000000 0.000000 0.000000 0.000000 0.000000 0.000000 0.000000 0.000000 node 1 4 1 3
node 2 2 1 1
node 3 4 1 1
node 4 2 1 1
node 5 4 1 1
node 6 3 1 1
node 7 2 1 1
node 8 1 1 1
node 9 4 1 1
node 10 1 1 1
node 11 1 1 1
node 12 4 1 1
node 13 3 0 2
node 14 1 0 2
node 15 4 0 2
node 71 1 0 0
node 289 1 0 0
node 317 1 0 0
node 368 1 0 0
node 381 1 0 0
node 394 1 0 0
node 473 1 0 0
node 490 1 0 0
node 568 1 0 0
node 647 1 0 0
node 686 1 0 0
node 704 1 0 0
node 760 1 0 0
node 834 1 0 0
node 877 1 0 0
node 886 1 0 0
node 948 1 0 0
node 996 1 0 0
node 1018 1 0 0
node 1030 1 0 0
node 1107 1 0 0
node 1283 1 0 0
gene 4 1 13 227370 0 1 227370 1
gene 3 2 13 275940 0 2 275940 1
gene 2 3 13 -534345 0 3 -534345 0
gene 4 4 13 -703184 0 4 -703184 1
gene 2 5 13 282531 0 5 282531 0
gene 3 6 13 -344496 0 6 -344496 1
gene 1 7 13 -443217 0 7 -443217 0
gene 1 8 13 -535890 0 8 -535890 1
gene 1 9 13 -127260 0 9 -127260 1
gene 2 10 13 -800000 0 10 -800000 1
gene 3 11 13 -233310 0 11 -233310 1
gene 3 12 13 94542 0 12 94542 1
gene 1 1 14 477948 0 13 477948 1
gene 1 2 14 364161 0 14 364161 0
gene 3 3 14 -59403 0 15 -59403 0
gene 1 4 14 275568 0 16 275568 0
gene 1 5 14 181881 0 17 181881 1
gene 1 6 14 231390 0 18 231390 1
gene 1 7 14 -351762 0 19 -351762 1
gene 2 8 14 -24198 0 20 -24198 1
gene 2 9 14 -722864 0 21 -722864 1
gene 1 10 14 -67293 0 22 -67293 0
gene 3 11 14 437208 0 23 437208 1
gene 2 12 14 -800000 0 24 -800000 0
gene 3 1 15 540666 0 25 540666 1
gene 2 2 15 146919 0 26 146919 1
gene 4 3 15 -599111 0 27 -599111 0
gene 2 4 15 420987 0 28 420987 0
gene 2 5 15 -617703 0 29 -617703 1
gene 1 6 15 720942 0 30 720942 1
gene 4 7 15 13233 0 31 13233 0
gene 2 8 15 250995 0 32 250995 0
gene 2 9 15 -37461 0 33 -37461 1
gene 1 10 15 -72570 0 34 -72570 1
gene 3 11 15 -137820 0 35 -137820 1
gene 1 12 15 -131835 0 36 -131835 1
gene 4 3 71 -18846 0 201 -18846 0
gene 3 71 14 394587 0 202 394587 0
gene 1 13 13 -475452 1 248 -475452 1
gene 2 13 15 211443 0 413 211443 1
gene 4 10 71 -440862 0 454 -440862 1
gene 1 7 71 222246 0 542 222246 0
gene 4 8 71 -105567 0 717 -105567 1
gene 4 71 71 281574 1 769 281574 0
gene 4 3 289 -195539 0 858 -195539 0
gene 4 289 15 705270 0 859 705270 1
gene 3 289 14 -187197 0 897 -187197 1
gene 4 3 317 224601 0 942 224601 0
gene 4 317 289 -177024 0 943 -177024 1
gene 2 8 368 1308 0 1081 1308 1
gene 2 368 15 -40062 0 1082 -40062 1
gene 1 2 381 191403 0 1117 191403 1
gene 2 381 14 270828 0 1118 270828 1
gene 4 3 394 800000 0 1159 800000 0
gene 4 394 71 89841 0 1160 89841 1
gene 4 1 394 -137052 0 1362 -137052 1
gene 2 3 473 -754263 0 1405 -754263 1
gene 2 473 13 -511500 0 1406 -511500 1
gene 1 10 490 599517 0 1456 599517 1
gene 1 490 14 174918 0 1457 174918 1
gene 3 13 289 236571 0 1591 236571 1
gene 4 71 568 -445389 1 1699 -445389 1
gene 4 568 71 -219966 0 1700 -219966 0
gene 3 568 15 -746211 0 1754 -746211 1
gene 3 289 394 -482835 0 1809 -482835 0
gene 4 568 647 -33618 0 1948 -33618 1
gene 4 647 71 -514581 0 1949 -514581 1
gene 1 7 686 -395319 0 2069 -395319 1
gene 1 686 71 -298293 0 2070 -298293 1
gene 3 71 704 150798 0 2122 150798 1
gene 3 704 14 -196746 0 2123 -196746 1
gene 3 289 760 527766 0 2296 527766 1
gene 3 760 394 411543 0 2297 411543 1
gene 4 368 394 159969 0 2326 159969 1
gene 2 10 289 -543282 0 2376 -543282 1
gene 4 3 834 -425136 0 2518 -425136 1
gene 4 834 317 -40044 0 2519 -40044 1
gene 2 12 877 -800000 0 2634 -800000 1
gene 2 877 14 -734661 0 2635 -734661 1
gene 2 4 886 -114428 0 2665 -114428 1
gene 2 886 15 -408 0 2666 -408 1
gene 2 5 948 151497 0 2855 151497 0
gene 2 948 13 -233961 0 2856 -233961 1
gene 2 877 877 127176 1 2903 127176 1
gene 1 7 996 204066 0 2996 204066 1
gene 1 996 13 201369 0 2997 201369 1
gene 3 7 1018 221181 0 3054 221181 1
gene 4 1018 15 -404232 0 3055 -404232 1
gene 1 4 1030 -74919 0 3100 -74919 1
gene 1 1030 14 472521 0 3101 472521 1
gene 3 568 568 28296 1 3154 28296 1
gene 2 5 1107 108504 0 3308 108504 1
gene 2 1107 948 25194 0 3309 25194 1
gene 4 686 686 223746 1 3352 223746 1
gene 3 996 490 278831 0 3408 278831 1
gene 3 996 996 -99645 1 3624 -99645 1
gene 3 381 381 -261887 1 3767 -261887 1
gene 4 3 1283 22758 0 3832 22758 1
gene 4 1283 394 539448 0 3833 539448 1
gene 2 6 760 64569 0 3958 64569 1
genomeend 28


/* Organism #32 Fitness: 360.000000 Time: 0 */
/* Position #32*/
#1 x: 75 y: 26
#2 x: 31 y: 21
#3 x: 29 y: 40
#4 x: 25 y: 63
#5 x: 21 y: 75
#6 x: 21 y: 62
genomestart 32
trait 1 1.000000 0.000000 0.000000 0.000000 0.000000 0.000000 0.000000 0.000000 trait 2 2.000000 0.000000 0.000000 0.000000 0.000000 0.000000 0.000000 0.000000 trait 3 3.000000 0.000000 0.000000 0.000000 0.000000 0.000000 0.000000 0.000000 trait 4 4.000000 0.000000 0.000000 0.000000 0.000000 0.000000 0.000000 0.000000 node 1 4 1 3
node 2 2 1 1
node 3 4 1 1
node 4 2 1 1
node 5 4 1 1
node 6 3 1 1
node 7 2 1 1
node 8 1 1 1
node 9 4 1 1
node 10 1 1 1
node 11 1 1 1
node 12 4 1 1
node 13 3 0 2
node 14 1 0 2
node 15 4 0 2
node 71 1 0 0
node 289 1 0 0
node 317 1 0 0
node 368 1 0 0
node 381 1 0 0
node 394 1 0 0
node 473 1 0 0
node 490 1 0 0
node 568 1 0 0
node 647 1 0 0
node 686 1 0 0
node 704 1 0 0
node 760 1 0 0
node 834 1 0 0
node 877 1 0 0
node 886 1 0 0
node 948 1 0 0
node 996 1 0 0
node 1018 1 0 0
node 1030 1 0 0
node 1107 1 0 0
node 1283 1 0 0
node 1318 1 0 0
node 1334 1 0 0
gene 4 1 13 321597 0 1 321597 1
gene 3 2 13 -88434 0 2 -88434 1
gene 2 3 13 -600174 0 3 -600174 0
gene 4 4 13 -800000 0 4 -800000 1
gene 2 5 13 406428 0 5 406428 0
gene 3 6 13 -51042 0 6 -51042 1
gene 1 7 13 -169518 0 7 -169518 0
gene 1 8 13 -574809 0 8 -574809 1
gene 1 9 13 -403668 0 9 -403668 1
gene 2 10 13 -520554 0 10 -520554 1
gene 3 11 13 104985 0 11 104985 1
gene 3 12 13 153348 0 12 153348 1
gene 1 1 14 210174 0 13 210174 1
gene 1 2 14 -194286 0 14 -194286 0
gene 3 3 14 -143586 0 15 -143586 0
gene 1 4 14 160023 0 16 160023 0
gene 1 5 14 -233160 0 17 -233160 1
gene 1 6 14 189804 0 18 189804 1
gene 1 7 14 -473646 0 19 -473646 1
gene 2 8 14 272082 0 20 272082 1
gene 2 9 14 -503885 0 21 -503885 1
gene 1 10 14 66846 0 22 66846 0
gene 3 11 14 -31533 0 23 -31533 1
gene 2 12 14 -527057 0 24 -527057 0
gene 3 1 15 390429 0 25 390429 1
gene 2 2 15 146892 0 26 146892 1
gene 4 3 15 -488042 0 27 -488042 0
gene 2 4 15 349998 0 28 349998 0
gene 2 5 15 -398319 0 29 -398319 1
gene 1 6 15 544806 0 30 544806 1
gene 4 7 15 269538 0 31 269538 0
gene 2 8 15 343584 0 32 343584 0
gene 2 9 15 -482745 0 33 -482745 1
gene 1 10 15 373719 0 34 373719 1
gene 3 11 15 -119235 0 35 -119235 1
gene 1 12 15 -359544 0 36 -359544 1
gene 4 3 71 -178809 0 201 -178809 0
gene 3 71 14 -41715 0 202 -41715 0
gene 1 13 13 508212 1 248 508212 1
gene 2 13 15 -563829 0 413 -563829 1
gene 4 10 71 -748266 0 454 -748266 1
gene 1 7 71 130578 0 542 130578 0
gene 4 8 71 355173 0 717 355173 1
gene 4 71 71 478542 1 769 478542 0
gene 4 3 289 -655484 0 858 -655484 0
gene 4 289 15 520626 0 859 520626 1
gene 3 289 14 -397341 0 897 -397341 1
gene 4 3 317 -292449 0 942 -292449 0
gene 4 317 289 -490134 0 943 -490134 1
gene 2 8 368 20385 0 1081 20385 0
gene 2 368 15 174111 0 1082 174111 1
gene 1 2 381 184851 0 1117 184851 1
gene 2 381 14 -329079 0 1118 -329079 1
gene 4 3 394 787011 0 1159 787011 0
gene 4 394 71 -259203 0 1160 -259203 1
gene 4 1 394 263106 0 1362 263106 1
gene 2 3 473 -680832 0 1405 -680832 1
gene 2 473 13 -70053 0 1406 -70053 1
gene 1 10 490 495873 0 1456 495873 1
gene 1 490 14 93687 0 1457 93687 1
gene 3 13 289 -141771 0 1591 -141771 1
gene 4 71 568 -272841 1 1699 -272841 1
gene 4 568 71 -800000 0 1700 -800000 0
gene 3 568 15 -105231 0 1754 -105231 1
gene 3 289 394 -208620 0 1809 -208620 0
gene 4 568 647 -213438 0 1948 -213438 1
gene 4 647 71 -281652 0 1949 -281652 1
gene 1 7 686 233979 0 2069 233979 1
gene 1 686 71 -125193 0 2070 -125193 1
gene 3 71 704 -689001 0 2122 -689001 1
gene 3 704 14 56982 0 2123 56982 1
gene 3 289 760 477093 0 2296 477093 1
gene 3 760 394 47208 0 2297 47208 1
gene 4 368 394 320877 0 2326 320877 1
gene 2 10 289 102020 0 2376 102020 1
gene 4 3 834 -233442 0 2518 -233442 1
gene 4 834 317 195042 0 2519 195042 1
gene 2 12 877 -800000 0 2634 -800000 1
gene 2 877 14 -800000 0 2635 -800000 1
gene 2 4 886 60919 0 2665 60919 1
gene 2 886 15 -282081 0 2666 -282081 1
gene 2 5 948 66651 0 2855 66651 0
gene 2 948 13 -114726 0 2856 -114726 1
gene 2 877 877 -67602 1 2903 -67602 1
gene 1 7 996 -276089 0 2996 -276089 1
gene 1 996 13 -36201 0 2997 -36201 1
gene 3 7 1018 -135312 0 3054 -135312 1
gene 4 1018 15 -408609 0 3055 -408609 1
gene 1 4 1030 -344682 0 3100 -344682 1
gene 1 1030 14 -213582 0 3101 -213582 1
gene 3 568 568 800000 1 3154 800000 1
gene 2 5 1107 368742 0 3308 368742 1
gene 2 1107 948 172603 0 3309 172603 1
gene 4 686 686 50421 1 3352 50421 1
gene 3 996 490 265002 0 3408 265002 1
gene 3 996 996 -125045 1 3624 -125045 1
gene 3 381 381 -328406 1 3767 -328406 1
gene 4 3 1283 -267870 0 3832 -267870 0
gene 4 1283 394 685155 0 3833 685155 1
gene 2 8 1318 1 0 3932 0 1
gene 2 1318 368 20385 0 3933 0 1
gene 4 3 1334 1 0 3987 0 1
gene 4 1334 1283 -267870 0 3988 0 1
genomeend 32


/* Organism #33 Fitness: 360.000000 Time: 0 */
/* Position #33*/
#1 x: 75 y: 26
#2 x: 31 y: 21
#3 x: 29 y: 40
#4 x: 25 y: 63
#5 x: 21 y: 75
#6 x: 21 y: 62
genomestart 33
trait 1 1.000000 0.000000 0.000000 0.000000 0.000000 0.000000 0.000000 0.000000 trait 2 2.000000 0.000000 0.000000 0.000000 0.000000 0.000000 0.000000 0.000000 trait 3 3.000000 0.000000 0.000000 0.000000 0.000000 0.000000 0.000000 0.000000 trait 4 73910.000000 58593.000000 0.000000 0.000000 0.000000 0.000000 0.000000 0.000000 node 1 4 1 3
node 2 2 1 1
node 3 4 1 1
node 4 2 1 1
node 5 4 1 1
node 6 3 1 1
node 7 2 1 1
node 8 1 1 1
node 9 4 1 1
node 10 1 1 1
node 11 1 1 1
node 12 4 1 1
node 13 3 0 2
node 14 1 0 2
node 15 4 0 2
node 71 1 0 0
node 289 1 0 0
node 317 1 0 0
node 368 4 0 0
node 381 3 0 0
node 394 1 0 0
node 405 1 0 0
node 439 2 0 0
node 665 1 0 0
node 706 1 0 0
node 739 1 0 0
node 804 1 0 0
node 860 1 0 0
node 881 1 0 0
node 1026 1 0 0
node 1056 1 0 0
node 1123 1 0 0
node 1140 1 0 0
node 1335 1 0 0
gene 4 1 13 29136 0 1 29136 1
gene 3 2 13 185814 0 2 185814 1
gene 2 3 13 -142149 0 3 -142149 1
gene 4 4 13 -774740 0 4 -774740 1
gene 2 5 13 511230 0 5 511230 1
gene 3 6 13 45546 0 6 45546 1
gene 1 7 13 -92892 0 7 -92892 1
gene 1 8 13 -201492 0 8 -201492 1
gene 1 9 13 19083 0 9 19083 1
gene 2 10 13 -465467 0 10 -465467 0
gene 3 11 13 491565 0 11 491565 1
gene 3 12 13 338559 0 12 338559 1
gene 1 1 14 534959 0 13 534959 1
gene 1 2 14 471147 0 14 471147 0
gene 3 3 14 9801 0 15 9801 0
gene 1 4 14 -565026 0 16 -565026 1
gene 1 5 14 266070 0 17 266070 1
gene 1 6 14 -259746 0 18 -259746 1
gene 1 7 14 -800000 0 19 -800000 1
gene 2 8 14 800000 0 20 800000 1
gene 2 9 14 157702 0 21 157702 1
gene 1 10 14 355905 0 22 355905 1
gene 3 11 14 -11307 0 23 -11307 0
gene 2 12 14 343830 0 24 343830 1
gene 3 1 15 -363191 0 25 -363191 1
gene 2 2 15 -79905 0 26 -79905 0
gene 4 3 15 -755139 0 27 -755139 0
gene 2 4 15 -416226 0 28 -416226 1
gene 2 5 15 -118770 0 29 -118770 1
gene 1 6 15 151284 0 30 151284 1
gene 4 7 15 -604251 0 31 -604251 0
gene 2 8 15 165132 0 32 165132 0
gene 2 9 15 -135840 0 33 -135840 1
gene 1 10 15 -227904 0 34 -227904 1
gene 3 11 15 138822 0 35 138822 0
gene 1 12 15 -236607 0 36 -236607 1
gene 4 3 71 159099 0 201 159099 0
gene 3 71 14 -631673 0 202 -631673 1
gene 1 13 13 -53250 1 248 -53250 1
gene 2 13 15 -180870 0 413 -180870 1
gene 4 10 71 109236 0 454 109236 1
gene 1 7 71 681489 0 542 681489 1
gene 4 8 71 -277113 0 717 -277113 1
gene 4 71 71 386931 1 769 386931 1
gene 4 3 289 -102696 0 858 -102696 0
gene 4 289 15 -476721 0 859 -476721 1
gene 3 289 14 164364 0 897 164364 0
gene 4 3 317 -145791 0 942 -145791 1
gene 4 317 289 -800000 0 943 -800000 1
gene 2 8 368 -74091 0 1081 -74091 1
gene 2 368 15 -291582 0 1082 -291582 1
gene 1 2 381 60174 0 1117 60174 1
gene 1 381 14 -413910 0 1118 -413910 1
gene 4 3 394 -86853 0 1159 -86853 0
gene 4 394 71 -268977 0 1160 -268977 1
gene 3 11 405 -800000 0 1197 -800000 0
gene 3 405 14 -69327 0 1198 -69327 1
gene 4 14 405 -283146 1 1256 -283146 0
gene 4 3 439 -143694 0 1305 -143694 1
gene 4 439 394 -60636 0 1306 -60636 1
gene 4 14 381 344889 1 1807 344889 0
gene 4 6 381 249258 0 1838 249258 0
gene 4 6 665 -83244 0 2003 -83244 1
gene 4 665 381 379197 0 2004 379197 1
gene 4 14 706 10362 1 2128 10362 1
gene 4 706 381 -302568 0 2129 -302568 1
gene 1 12 289 198426 0 2180 198426 1
gene 2 10 739 -587040 0 2229 -587040 1
gene 2 739 13 -376059 0 2230 -376059 0
gene 4 405 381 -57885 0 2321 -57885 1
gene 3 665 665 457095 1 2364 457095 1
gene 4 14 804 257857 1 2425 257857 1
gene 4 804 405 156 0 2426 156 1
gene 3 3 706 -21777 0 2537 -21777 1
gene 3 289 860 154140 0 2588 154140 1
gene 3 860 14 290211 0 2589 290211 1
gene 3 11 881 -49650 0 2650 -49650 1
gene 3 881 15 142110 0 2651 142110 1
gene 2 5 439 -31266 0 2695 -31266 1
gene 1 289 739 -255840 0 2846 -255840 1
gene 3 665 804 25059 0 2893 25059 1
gene 2 706 13 107292 0 3029 107292 0
gene 2 2 1026 -89859 0 3079 -89859 1
gene 2 1026 15 -192441 0 3080 -192441 1
gene 2 706 1056 421533 0 3166 421533 1
gene 2 1056 13 -131673 0 3167 -131673 1
gene 3 368 368 119340 1 3310 119340 1
gene 3 11 1123 -99867 0 3355 -99867 1
gene 3 1123 405 556551 0 3356 556551 1
gene 2 739 1140 -140748 0 3409 -140748 1
gene 2 1140 13 -148002 0 3410 -148002 1
gene 2 10 1056 117950 0 3590 117950 1
gene 4 394 13 -48789 0 3770 -48789 1
gene 3 739 381 -229761 0 3836 -229761 1
gene 3 1 394 -63651 0 3959 -63651 1
gene 4 7 1335 1 0 3989 0 1
gene 4 1335 15 -604251 0 3990 0 1
genomeend 33


/* Organism #48 Fitness: 380.000000 Time: 0 */
/* Position #48*/
#1 x: 31 y: 24
#2 x: 41 y: 18
#3 x: 36 y: 39
#4 x: 30 y: 81
#5 x: 52 y: 72
#6 x: 39 y: 64
genomestart 48
trait 1 1.000000 0.000000 0.000000 0.000000 0.000000 0.000000 0.000000 0.000000 trait 2 2.000000 0.000000 0.000000 0.000000 0.000000 0.000000 0.000000 0.000000 trait 3 0.000000 0.000000 0.000000 0.000000 1282.000000 0.000000 28673.000000 0.000000 trait 4 87559.000000 3245.000000 71329.000000 0.000000 83640.000000 0.000000 17990.000000 29965.000000 node 1 4 1 3
node 2 2 1 1
node 3 2 1 1
node 4 2 1 1
node 5 1 1 1
node 6 1 1 1
node 7 3 1 1
node 8 1 1 1
node 9 1 1 1
node 10 4 1 1
node 11 4 1 1
node 12 1 1 1
node 13 3 0 2
node 14 1 0 2
node 15 2 0 2
node 92 1 0 0
node 121 1 0 0
node 183 1 0 0
node 238 1 0 0
node 293 1 0 0
node 409 2 0 0
node 471 1 0 0
node 524 1 0 0
node 617 1 0 0
node 634 1 0 0
node 652 1 0 0
node 701 1 0 0
node 737 1 0 0
node 839 1 0 0
node 868 1 0 0
node 995 1 0 0
node 1041 1 0 0
node 1113 1 0 0
node 1132 1 0 0
node 1182 1 0 0
node 1200 1 0 0
gene 4 1 13 -278538 0 1 -278538 1
gene 1 2 13 -646667 0 2 -646667 0
gene 2 3 13 -282387 0 3 -282387 1
gene 1 4 13 -121926 0 4 -121926 0
gene 1 5 13 -336240 0 5 -336240 0
gene 2 6 13 -749921 0 6 -749921 0
gene 3 7 13 -800000 0 7 -800000 1
gene 4 8 13 -318726 0 8 -318726 1
gene 3 9 13 -390384 0 9 -390384 1
gene 3 10 13 -800000 0 10 -800000 1
gene 1 11 13 -256908 0 11 -256908 1
gene 2 12 13 382500 0 12 382500 1
gene 1 1 14 374694 0 13 374694 1
gene 2 2 14 -191730 0 14 -191730 1
gene 1 3 14 159342 0 15 159342 1
gene 3 4 14 -69078 0 16 -69078 1
gene 4 5 14 613863 0 17 613863 1
gene 2 6 14 397878 0 18 397878 0
gene 2 7 14 -800000 0 19 -800000 0
gene 3 8 14 -608241 0 20 -608241 0
gene 2 9 14 800000 0 21 800000 0
gene 1 10 14 405069 0 22 405069 1
gene 3 11 14 -22506 0 23 -22506 0
gene 2 12 14 -329943 0 24 -329943 1
gene 3 1 15 18351 0 25 18351 1
gene 4 2 15 242661 0 26 242661 1
gene 3 3 15 285424 0 27 285424 1
gene 4 4 15 -30708 0 28 -30708 1
gene 3 5 15 -360330 0 29 -360330 0
gene 1 6 15 -206910 0 30 -206910 1
gene 2 7 15 214500 0 31 214500 0
gene 1 8 15 253035 0 32 253035 1
gene 4 9 15 -207174 0 33 -207174 1
gene 2 10 15 -41127 0 34 -41127 1
gene 4 11 15 20745 0 35 20745 0
gene 1 12 15 -187764 0 36 -187764 0
gene 3 14 15 117699 0 66 117699 1
gene 3 14 13 -452148 0 95 -452148 0
gene 3 8 92 132576 0 253 132576 1
gene 3 92 14 24639 0 254 24639 0
gene 2 92 92 464784 1 305 464784 1
gene 1 4 121 -28581 0 333 -28581 1
gene 1 121 13 33522 0 334 33522 1
gene 1 5 183 13111 0 512 13111 1
gene 1 183 13 -114438 0 513 -114438 1
gene 1 2 238 -145581 0 693 -145581 0
gene 1 238 13 -225036 0 694 -225036 1
gene 1 13 13 -297951 1 827 -297951 1
gene 2 7 293 -421905 0 869 -421905 1
gene 2 293 15 20688 0 870 20688 0
gene 3 15 13 800000 0 1133 800000 1
gene 2 9 409 -324318 0 1210 -324318 0
gene 2 409 14 38958 0 1211 38958 0
gene 2 92 121 201723 0 1278 201723 0
gene 2 409 293 2748 0 1355 2748 1
gene 1 12 471 354429 0 1399 354429 1
gene 1 471 15 73185 0 1400 73185 1
gene 3 11 524 251790 0 1569 251790 1
gene 3 524 14 565283 0 1570 565283 1
gene 4 6 471 54039 0 1663 54039 1
gene 4 409 15 417759 0 1765 417759 1
gene 1 5 617 11109 0 1859 11109 1
gene 1 617 15 649394 0 1860 649394 1
gene 1 2 634 238551 0 1910 238551 1
gene 1 634 238 -800000 0 1911 -800000 1
gene 2 92 652 193602 0 1968 193602 1
gene 1 652 121 -541449 0 1969 -541449 1
gene 2 6 701 -146898 0 2113 -146898 1
gene 2 701 13 -470310 0 2114 -470310 1
gene 3 92 737 268608 0 2224 268608 1
gene 3 737 14 84048 0 2225 84048 1
gene 3 14 839 425640 0 2530 425640 1
gene 3 839 13 102084 0 2531 102084 1
gene 2 293 868 -408051 0 2610 -408051 1
gene 2 868 15 -224145 0 2611 -224145 1
gene 4 11 238 229842 0 2902 229842 1
gene 2 11 701 -216186 0 2952 -216186 1
gene 2 9 995 91905 0 2994 91905 1
gene 2 995 409 -411984 0 2995 -411984 0
gene 2 409 1041 -294111 0 3129 -294111 1
gene 2 1041 14 25401 0 3130 25401 1
gene 3 471 409 597279 0 3254 597279 1
gene 4 701 1041 -146601 0 3304 -146601 1
gene 2 6 1113 199734 0 3327 199734 1
gene 2 1113 14 39267 0 3328 39267 1
gene 2 7 1132 -345423 0 3387 -345423 1
gene 2 1132 14 -269361 0 3388 -269361 1
gene 4 11 1182 40902 0 3539 40902 1
gene 4 1182 15 -209217 0 3540 -209217 1
gene 2 995 1200 -79002 0 3594 -79002 1
gene 2 1200 409 177426 0 3595 177426 1
gene 2 10 524 104418 0 3632 104418 1
gene 2 9 737 131406 0 3785 131406 1
genomeend 48


/* Organism #50 Fitness: 300.000000 Time: 0 */
/* Position #50*/
#1 x: 37 y: 16
#2 x: 32 y: 25
#3 x: 56 y: 15
#4 x: 66 y: 63
#5 x: 57 y: 61
#6 x: 45 y: 60
genomestart 50
trait 1 63898.000000 20255.000000 68922.000000 0.000000 0.000000 0.000000 0.000000 0.000000 trait 2 2.000000 0.000000 0.000000 0.000000 0.000000 0.000000 0.000000 0.000000 trait 3 3.000000 0.000000 0.000000 0.000000 0.000000 0.000000 0.000000 0.000000 trait 4 100000.000000 100000.000000 0.000000 100000.000000 57496.000000 17924.000000 0.000000 69348.000000 node 1 4 1 3
node 2 2 1 1
node 3 4 1 1
node 4 2 1 1
node 5 4 1 1
node 6 3 1 1
node 7 2 1 1
node 8 4 1 1
node 9 4 1 1
node 10 1 1 1
node 11 1 1 1
node 12 4 1 1
node 13 3 0 2
node 14 1 0 2
node 15 4 0 2
node 71 1 0 0
node 289 1 0 0
node 317 1 0 0
node 368 1 0 0
node 381 1 0 0
node 394 1 0 0
node 405 1 0 0
node 439 1 0 0
node 579 1 0 0
node 708 1 0 0
node 786 1 0 0
node 844 4 0 0
node 986 1 0 0
node 1130 1 0 0
node 1184 1 0 0
node 1252 1 0 0
node 1338 1 0 0
gene 4 1 13 537744 0 1 537744 1
gene 3 2 13 -288150 0 2 -288150 1
gene 2 3 13 -33378 0 3 -33378 1
gene 4 4 13 40752 0 4 40752 1
gene 2 5 13 -664217 0 5 -664217 1
gene 3 6 13 487029 0 6 487029 1
gene 1 7 13 -190059 0 7 -190059 1
gene 1 8 13 158037 0 8 158037 1
gene 1 9 13 612204 0 9 612204 1
gene 2 10 13 104292 0 10 104292 1
gene 3 11 13 167820 0 11 167820 1
gene 3 12 13 -191727 0 12 -191727 1
gene 1 1 14 -55353 0 13 -55353 1
gene 3 2 14 173223 0 14 173223 0
gene 3 3 14 -551106 0 15 -551106 0
gene 1 4 14 -87414 0 16 -87414 1
gene 1 5 14 204144 0 17 204144 1
gene 1 6 14 158808 0 18 158808 0
gene 1 7 14 36927 0 19 36927 1
gene 1 8 14 144003 0 20 144003 1
gene 2 9 14 215850 0 21 215850 0
gene 1 10 14 -540005 0 22 -540005 1
gene 3 11 14 79311 0 23 79311 0
gene 2 12 14 800000 0 24 800000 1
gene 3 1 15 167943 0 25 167943 1
gene 2 2 15 -263532 0 26 -263532 0
gene 1 3 15 -452142 0 27 -452142 0
gene 2 4 15 67812 0 28 67812 1
gene 2 5 15 171822 0 29 171822 1
gene 1 6 15 -69969 0 30 -69969 1
gene 4 7 15 -581042 0 31 -581042 0
gene 2 8 15 239409 0 32 239409 0
gene 2 9 15 720330 0 33 720330 0
gene 3 10 15 -52414 0 34 -52414 1
gene 1 11 15 -579692 0 35 -579692 1
gene 1 12 15 -188196 0 36 -188196 1
gene 4 3 71 465570 0 201 465570 0
gene 3 71 14 318033 0 202 318033 1
gene 1 13 13 -434772 1 248 -434772 1
gene 2 13 15 -235668 0 413 -235668 1
gene 4 10 71 -14247 0 454 -14247 1
gene 2 7 71 65268 0 542 65268 1
gene 4 8 71 552144 0 717 552144 1
gene 4 71 71 300903 1 769 300903 1
gene 4 3 289 273309 0 858 273309 0
gene 4 289 15 -652974 0 859 -652974 1
gene 3 289 14 141348 0 897 141348 1
gene 4 3 317 -221022 0 942 -221022 0
gene 4 317 289 384060 0 943 384060 1
gene 2 8 368 38568 0 1081 38568 1
gene 2 368 15 7602 0 1082 7602 1
gene 1 2 381 371913 0 1117 371913 1
gene 1 381 14 334224 0 1118 334224 1
gene 4 3 394 234696 0 1159 234696 0
gene 4 394 71 787029 0 1160 787029 1
gene 3 11 405 -330255 0 1197 -330255 1
gene 3 405 14 -270672 0 1198 -270672 1
gene 4 14 405 -423084 1 1256 -423084 0
gene 4 3 439 -597993 0 1305 -597993 1
gene 4 439 394 -433164 0 1306 -433164 1
gene 4 3 579 -648738 0 1730 -648738 1
gene 4 579 317 459039 0 1731 459039 1
gene 4 439 381 800000 0 2084 800000 1
gene 2 2 708 325095 0 2133 325095 0
gene 2 708 15 -339192 0 2134 -339192 1
gene 1 317 13 406380 0 2298 406380 1
gene 4 7 786 302826 0 2373 302826 1
gene 4 786 15 114270 0 2374 114270 1
gene 2 9 844 -220380 0 2542 -220380 1
gene 2 844 15 289467 0 2543 289467 1
gene 3 708 13 54213 0 2924 54213 0
gene 1 6 986 -125445 0 2965 -125445 1
gene 1 986 14 127953 0 2966 127953 1
gene 3 786 786 179175 1 3126 179175 1
gene 1 786 289 -30060 0 3253 -30060 1
gene 2 9 1130 185545 0 3377 185545 1
gene 2 1130 14 171978 0 3378 171978 1
gene 3 3 1130 196482 0 3461 196482 1
gene 2 844 844 -282486 1 3513 -282486 1
gene 2 2 1184 -264194 0 3546 -264194 1
gene 2 1184 708 -83232 0 3547 -83232 1
gene 4 9 708 -38306 0 3600 -38306 1
gene 2 381 1130 -57441 0 3683 -57441 1
gene 3 708 1252 -245975 0 3738 -245975 1
gene 3 1252 13 -186780 0 3739 -186780 1
gene 4 14 1338 1 1 4003 0 1
gene 4 1338 405 -423084 0 4004 0 1
genomeend 50


/* Organism #54 Fitness: 320.000000 Time: 0 */
/* Position #54*/
#1 x: 15 y: 30
#2 x: 34 y: 16
#3 x: 34 y: 37
#4 x: 44 y: 67
#5 x: 19 y: 83
#6 x: 40 y: 85
genomestart 54
trait 1 1.000000 0.000000 0.000000 0.000000 0.000000 0.000000 0.000000 0.000000 trait 2 2.000000 0.000000 0.000000 0.000000 0.000000 0.000000 0.000000 0.000000 trait 3 3.000000 0.000000 0.000000 0.000000 0.000000 0.000000 0.000000 0.000000 trait 4 4.000000 0.000000 0.000000 0.000000 0.000000 0.000000 0.000000 77950.000000 node 1 4 1 3
node 2 4 1 1
node 3 4 1 1
node 4 2 1 1
node 5 4 1 1
node 6 3 1 1
node 7 2 1 1
node 8 1 1 1
node 9 4 1 1
node 10 1 1 1
node 11 1 1 1
node 12 4 1 1
node 13 3 0 2
node 14 1 0 2
node 15 4 0 2
node 71 1 0 0
node 289 1 0 0
node 317 1 0 0
node 368 1 0 0
node 381 1 0 0
node 394 1 0 0
node 473 1 0 0
node 490 1 0 0
node 568 1 0 0
node 647 1 0 0
node 686 1 0 0
node 704 1 0 0
node 760 1 0 0
node 834 1 0 0
node 877 1 0 0
node 886 1 0 0
node 948 1 0 0
node 996 1 0 0
node 1018 1 0 0
node 1030 1 0 0
node 1107 1 0 0
node 1188 1 0 0
node 1266 1 0 0
node 1340 1 0 0
gene 4 1 13 10089 0 1 10089 1
gene 3 2 13 -490377 0 2 -490377 1
gene 2 3 13 243069 0 3 243069 0
gene 4 4 13 -121608 0 4 -121608 1
gene 2 5 13 -35163 0 5 -35163 0
gene 3 6 13 147282 0 6 147282 1
gene 1 7 13 -49767 0 7 -49767 0
gene 1 8 13 359358 0 8 359358 1
gene 1 9 13 612195 0 9 612195 1
gene 2 10 13 -284517 0 10 -284517 1
gene 3 11 13 -124365 0 11 -124365 1
gene 3 12 13 171333 0 12 171333 1
gene 1 1 14 334782 0 13 334782 1
gene 1 2 14 -194028 0 14 -194028 0
gene 3 3 14 -357723 0 15 -357723 0
gene 1 4 14 -85833 0 16 -85833 0
gene 1 5 14 -110565 0 17 -110565 1
gene 1 6 14 -269340 0 18 -269340 1
gene 1 7 14 33504 0 19 33504 1
gene 2 8 14 219102 0 20 219102 1
gene 2 9 14 258732 0 21 258732 0
gene 1 10 14 505935 0 22 505935 0
gene 3 11 14 190647 0 23 190647 1
gene 2 12 14 294336 0 24 294336 0
gene 3 1 15 -263916 0 25 -263916 1
gene 2 2 15 -210426 0 26 -210426 1
gene 4 3 15 -800000 0 27 -800000 0
gene 2 4 15 800000 0 28 800000 0
gene 2 5 15 -231783 0 29 -231783 1
gene 1 6 15 -362061 0 30 -362061 1
gene 4 7 15 175164 0 31 175164 0
gene 2 8 15 317685 0 32 317685 0
gene 2 9 15 176739 0 33 176739 1
gene 1 10 15 10848 0 34 10848 1
gene 3 11 15 -91881 0 35 -91881 1
gene 1 12 15 -203487 0 36 -203487 1
gene 4 3 71 -59238 0 201 -59238 0
gene 3 71 14 14868 0 202 14868 0
gene 1 13 13 -60432 1 248 -60432 1
gene 2 13 15 262206 0 413 262206 1
gene 4 10 71 112530 0 454 112530 1
gene 1 7 71 460557 0 542 460557 0
gene 4 8 71 386529 0 717 386529 1
gene 4 71 71 800000 1 769 800000 0
gene 4 3 289 282922 0 858 282922 0
gene 4 289 15 99708 0 859 99708 0
gene 3 289 14 161595 0 897 161595 1
gene 4 3 317 -268044 0 942 -268044 0
gene 4 317 289 87609 0 943 87609 1
gene 2 8 368 -72042 0 1081 -72042 1
gene 2 368 15 102855 0 1082 102855 1
gene 1 2 381 -184452 0 1117 -184452 1
gene 2 381 14 191442 0 1118 191442 1
gene 4 3 394 -523641 0 1159 -523641 1
gene 4 394 71 -135369 0 1160 -135369 1
gene 4 1 394 172896 0 1362 172896 1
gene 2 3 473 114177 0 1405 114177 1
gene 2 473 13 -495044 0 1406 -495044 1
gene 1 10 490 -250014 0 1456 -250014 1
gene 1 490 14 138438 0 1457 138438 1
gene 3 13 289 119838 0 1591 119838 1
gene 4 71 568 -191634 1 1699 -191634 1
gene 4 568 71 329910 0 1700 329910 0
gene 3 568 15 -174843 0 1754 -174843 1
gene 3 289 394 292989 0 1809 292989 0
gene 4 568 647 -36246 0 1948 -36246 1
gene 4 647 71 -195132 0 1949 -195132 1
gene 1 7 686 106116 0 2069 106116 1
gene 1 686 71 -330429 0 2070 -330429 1
gene 3 71 704 -800000 0 2122 -800000 1
gene 3 704 14 191757 0 2123 191757 1
gene 3 289 760 58110 0 2296 58110 0
gene 3 760 394 219555 0 2297 219555 1
gene 4 368 394 800000 0 2326 800000 1
gene 2 10 289 571074 0 2376 571074 1
gene 4 3 834 274902 0 2518 274902 1
gene 4 834 317 164175 0 2519 164175 1
gene 2 12 877 -257400 0 2634 -257400 1
gene 2 877 14 581058 0 2635 581058 1
gene 2 4 886 128214 0 2665 128214 1
gene 2 886 15 -305739 0 2666 -305739 1
gene 2 5 948 -140552 0 2855 -140552 0
gene 2 948 13 -10455 0 2856 -10455 1
gene 2 877 877 -530172 1 2903 -530172 1
gene 1 7 996 -207030 0 2996 -207030 1
gene 1 996 13 632184 0 2997 632184 1
gene 3 7 1018 -25977 0 3054 -25977 1
gene 4 1018 15 -180786 0 3055 -180786 1
gene 1 4 1030 -682176 0 3100 -682176 1
gene 1 1030 14 437802 0 3101 437802 1
gene 3 568 568 -232818 1 3154 -232818 1
gene 2 5 1107 -216447 0 3308 -216447 1
gene 2 1107 948 54375 0 3309 54375 1
gene 4 686 686 265797 1 3352 265797 1
gene 3 996 490 98502 0 3408 98502 1
gene 2 9 1188 -484140 0 3558 -484140 1
gene 2 1188 14 -737225 0 3559 -737225 1
gene 3 289 1266 -128903 0 3782 -128903 1
gene 3 1266 760 150066 0 3783 150066 1
gene 4 289 1340 1 0 4008 0 1
gene 4 1340 15 99708 0 4009 0 1
genomeend 54


/* Organism #58 Fitness: 480.000000 Time: 0 */
/* Position #58*/
#1 x: 33 y: 16
#2 x: 81 y: 28
#3 x: 49 y: 19
#4 x: 31 y: 82
#5 x: 54 y: 64
#6 x: 33 y: 67
genomestart 58
trait 1 16780.000000 0.000000 0.000000 88582.000000 88737.000000 0.000000 0.000000 32087.000000 trait 2 2.000000 0.000000 0.000000 0.000000 0.000000 0.000000 0.000000 0.000000 trait 3 3.000000 0.000000 0.000000 0.000000 0.000000 0.000000 0.000000 0.000000 trait 4 0.000000 57040.000000 0.000000 57778.000000 13389.000000 0.000000 0.000000 0.000000 node 1 4 1 3
node 2 2 1 1
node 3 4 1 1
node 4 2 1 1
node 5 4 1 1
node 6 2 1 1
node 7 2 1 1
node 8 2 1 1
node 9 4 1 1
node 10 1 1 1
node 11 1 1 1
node 12 4 1 1
node 13 3 0 2
node 14 1 0 2
node 15 4 0 2
node 95 1 0 0
node 283 1 0 0
node 296 1 0 0
node 505 1 0 0
node 523 4 0 0
node 536 1 0 0
node 629 1 0 0
node 659 1 0 0
node 673 1 0 0
node 683 1 0 0
node 722 1 0 0
node 824 1 0 0
node 866 1 0 0
node 923 1 0 0
node 1010 1 0 0
node 1112 1 0 0
node 1132 1 0 0
node 1152 1 0 0
node 1171 1 0 0
node 1220 1 0 0
node 1237 1 0 0
gene 4 1 13 -392823 0 1 -392823 1
gene 4 2 13 -614312 0 2 -614312 1
gene 4 3 13 -98928 0 3 -98928 1
gene 1 4 13 -656463 0 4 -656463 0
gene 1 5 13 527862 0 5 527862 1
gene 4 6 13 -306459 0 6 -306459 0
gene 1 7 13 -133275 0 7 -133275 1
gene 3 8 13 -690474 0 8 -690474 1
gene 2 9 13 110463 0 9 110463 0
gene 2 10 13 76716 0 10 76716 0
gene 1 11 13 214083 0 11 214083 1
gene 4 12 13 633390 0 12 633390 1
gene 1 1 14 285213 0 13 285213 1
gene 1 2 14 -242319 0 14 -242319 1
gene 3 3 14 297978 0 15 297978 1
gene 4 4 14 -572945 0 16 -572945 1
gene 4 5 14 -251202 0 17 -251202 1
gene 1 6 14 -270930 0 18 -270930 1
gene 1 7 14 -366144 0 19 -366144 0
gene 2 8 14 401118 0 20 401118 0
gene 3 9 14 -76923 0 21 -76923 0
gene 1 10 14 733644 0 22 733644 0
gene 1 11 14 671093 0 23 671093 1
gene 4 12 14 -629493 0 24 -629493 0
gene 1 1 15 686715 0 25 686715 1
gene 2 2 15 -178758 0 26 -178758 1
gene 2 3 15 423498 0 27 423498 0
gene 2 4 15 -321300 0 28 -321300 1
gene 3 5 15 -35895 0 29 -35895 0
gene 1 6 15 682233 0 30 682233 1
gene 4 7 15 -92163 0 31 -92163 1
gene 2 8 15 121689 0 32 121689 1
gene 3 9 15 800000 0 33 800000 0
gene 1 10 15 224931 0 34 224931 1
gene 3 11 15 168114 0 35 168114 0
gene 1 12 15 -245682 0 36 -245682 1
gene 4 15 14 497970 0 73 497970 1
gene 3 11 95 -521328 0 260 -521328 1
gene 3 95 15 -508773 0 261 -508773 1
gene 3 15 13 174570 0 599 174570 1
gene 2 13 14 49956 0 640 49956 0
gene 4 3 95 -527984 0 741 -527984 1
gene 4 12 283 203832 0 841 203832 1
gene 4 283 14 221436 0 842 221436 0
gene 4 6 296 415500 0 883 415500 1
gene 4 296 13 74043 0 884 74043 1
gene 1 2 296 -207930 0 1225 -207930 1
gene 3 283 283 -744098 1 1313 -744098 1
gene 3 9 505 -79611 0 1500 -79611 1
gene 2 505 13 -800000 0 1501 -800000 0
gene 1 296 296 757157 1 1535 757157 1
gene 1 10 523 464961 0 1567 464961 1
gene 1 523 14 -483668 0 1568 -483668 1
gene 2 9 536 -141561 0 1608 -141561 1
gene 2 536 505 -460485 0 1609 -460485 0
gene 3 523 523 -236514 1 1659 -236514 0
gene 2 4 283 87342 0 1763 87342 1
gene 2 3 629 -332781 0 1894 -332781 1
gene 2 629 15 -566604 0 1895 -566604 1
gene 4 536 14 -95271 0 1940 -95271 1
gene 3 523 659 -196722 1 1984 -196722 1
gene 3 659 523 54606 0 1985 54606 1
gene 3 9 673 219207 0 2027 219207 0
gene 3 673 14 302301 0 2028 302301 0
gene 2 13 683 -171579 0 2061 -171579 1
gene 2 683 14 -209904 0 2062 -209904 1
gene 1 95 95 -747608 1 2116 -747608 1
gene 4 283 722 -800000 0 2174 -800000 1
gene 4 722 14 435597 0 2175 435597 1
gene 2 10 824 137901 0 2475 137901 1
gene 2 824 13 52368 0 2476 52368 1
gene 3 296 722 -530316 0 2512 -530316 1
gene 1 8 659 -497841 0 2556 -497841 1
gene 2 536 866 -167172 0 2604 -167172 1
gene 2 866 505 113010 0 2605 113010 1
gene 4 12 505 -485790 0 2740 -485790 1
gene 3 9 923 86427 0 2782 86427 1
gene 3 923 15 612758 0 2783 612758 1
gene 3 5 1010 -211455 0 3031 -211455 1
gene 3 1010 15 -42363 0 3032 -42363 1
gene 3 659 95 -227775 0 3184 -227775 1
gene 3 923 13 141210 0 3220 141210 1
gene 1 4 1112 -34614 0 3324 -34614 1
gene 1 1112 13 249687 0 3325 249687 1
gene 1 7 1132 240576 0 3387 240576 1
gene 1 1132 14 -800000 0 3388 -800000 1
gene 3 673 1152 -141615 0 3441 -141615 1
gene 3 1152 14 330495 0 3442 330495 1
gene 2 8 1171 -235763 0 3498 -235763 1
gene 2 1171 14 39615 0 3499 39615 1
gene 3 9 1220 256891 0 3653 256891 1
gene 3 1220 673 -134634 0 3654 -134634 1
gene 2 505 1237 154465 0 3701 154465 1
gene 2 1237 13 293496 0 3702 293496 1
gene 3 1010 1112 -135748 0 3880 -135748 1
genomeend 58


/* Organism #60 Fitness: 300.000000 Time: 0 */
/* Position #60*/
#1 x: 16 y: 27
#2 x: 70 y: 26
#3 x: 23 y: 34
#4 x: 83 y: 82
#5 x: 25 y: 65
#6 x: 47 y: 61
genomestart 60
trait 1 1.000000 0.000000 0.000000 0.000000 0.000000 0.000000 0.000000 0.000000 trait 2 2.000000 0.000000 0.000000 0.000000 0.000000 0.000000 0.000000 0.000000 trait 3 3.000000 0.000000 0.000000 0.000000 0.000000 0.000000 0.000000 0.000000 trait 4 4.000000 0.000000 0.000000 0.000000 0.000000 0.000000 0.000000 0.000000 node 1 4 1 3
node 2 2 1 1
node 3 4 1 1
node 4 2 1 1
node 5 4 1 1
node 6 3 1 1
node 7 2 1 1
node 8 1 1 1
node 9 4 1 1
node 10 1 1 1
node 11 1 1 1
node 12 4 1 1
node 13 3 0 2
node 14 1 0 2
node 15 4 0 2
node 71 1 0 0
node 289 1 0 0
node 317 1 0 0
node 368 1 0 0
node 381 1 0 0
node 394 1 0 0
node 473 1 0 0
node 490 1 0 0
node 568 1 0 0
node 647 1 0 0
node 686 1 0 0
node 704 1 0 0
node 760 1 0 0
node 834 1 0 0
node 877 1 0 0
node 886 1 0 0
node 948 1 0 0
node 996 1 0 0
node 1018 1 0 0
node 1030 1 0 0
node 1107 1 0 0
node 1188 1 0 0
node 1240 1 0 0
node 1316 1 0 0
gene 4 1 13 -692667 0 1 -692667 1
gene 3 2 13 -310467 0 2 -310467 1
gene 2 3 13 665484 0 3 665484 0
gene 4 4 13 -800000 0 4 -800000 1
gene 2 5 13 -135690 0 5 -135690 0
gene 3 6 13 -453123 0 6 -453123 1
gene 1 7 13 -152931 0 7 -152931 0
gene 1 8 13 -122394 0 8 -122394 1
gene 1 9 13 82896 0 9 82896 1
gene 2 10 13 -149265 0 10 -149265 1
gene 3 11 13 50682 0 11 50682 1
gene 3 12 13 211431 0 12 211431 1
gene 1 1 14 153114 0 13 153114 1
gene 1 2 14 -2586 0 14 -2586 0
gene 3 3 14 -151932 0 15 -151932 0
gene 1 4 14 385179 0 16 385179 0
gene 1 5 14 433065 0 17 433065 1
gene 1 6 14 351790 0 18 351790 1
gene 1 7 14 -261318 0 19 -261318 1
gene 2 8 14 120621 0 20 120621 1
gene 2 9 14 -758636 0 21 -758636 0
gene 1 10 14 616755 0 22 616755 0
gene 3 11 14 -535547 0 23 -535547 1
gene 2 12 14 99150 0 24 99150 0
gene 3 1 15 676641 0 25 676641 1
gene 2 2 15 268119 0 26 268119 1
gene 4 3 15 -781973 0 27 -781973 0
gene 2 4 15 -256767 0 28 -256767 0
gene 2 5 15 -764130 0 29 -764130 1
gene 1 6 15 58311 0 30 58311 1
gene 4 7 15 -800000 0 31 -800000 0
gene 2 8 15 -378246 0 32 -378246 0
gene 2 9 15 264330 0 33 264330 1
gene 1 10 15 -754341 0 34 -754341 1
gene 3 11 15 -138561 0 35 -138561 1
gene 1 12 15 493227 0 36 493227 1
gene 4 3 71 15411 0 201 15411 0
gene 3 71 14 -78786 0 202 -78786 0
gene 1 13 13 -62784 1 248 -62784 1
gene 2 13 15 163227 0 413 163227 1
gene 4 10 71 -139269 0 454 -139269 1
gene 1 7 71 704666 0 542 704666 0
gene 4 8 71 -374586 0 717 -374586 1
gene 4 71 71 265950 1 769 265950 0
gene 4 3 289 -166932 0 858 -166932 0
gene 4 289 15 -800000 0 859 -800000 1
gene 3 289 14 -238917 0 897 -238917 1
gene 4 3 317 -175005 0 942 -175005 0
gene 4 317 289 43476 0 943 43476 1
gene 2 8 368 179415 0 1081 179415 1
gene 2 368 15 258849 0 1082 258849 1
gene 1 2 381 -165123 0 1117 -165123 1
gene 2 381 14 627066 0 1118 627066 1
gene 4 3 394 -800000 0 1159 -800000 1
gene 4 394 71 -87546 0 1160 -87546 1
gene 4 1 394 251409 0 1362 251409 1
gene 2 3 473 -135627 0 1405 -135627 1
gene 2 473 13 38169 0 1406 38169 1
gene 1 10 490 274299 0 1456 274299 0
gene 1 490 14 343314 0 1457 343314 1
gene 3 13 289 694715 0 1591 694715 1
gene 4 71 568 -48210 1 1699 -48210 1
gene 4 568 71 452793 0 1700 452793 0
gene 3 568 15 -26478 0 1754 -26478 1
gene 3 289 394 -116535 0 1809 -116535 0
gene 4 568 647 -169632 0 1948 -169632 1
gene 4 647 71 -345462 0 1949 -345462 1
gene 1 7 686 2697 0 2069 2697 1
gene 1 686 71 263955 0 2070 263955 1
gene 3 71 704 76494 0 2122 76494 1
gene 3 704 14 -674979 0 2123 -674979 1
gene 3 289 760 -214287 0 2296 -214287 1
gene 3 760 394 -20322 0 2297 -20322 1
gene 4 368 394 -82476 0 2326 -82476 1
gene 2 10 289 -200936 0 2376 -200936 1
gene 4 3 834 126261 0 2518 126261 1
gene 4 834 317 -221100 0 2519 -221100 1
gene 2 12 877 -385734 0 2634 -385734 1
gene 2 877 14 -271803 0 2635 -271803 1
gene 2 4 886 24372 0 2665 24372 1
gene 2 886 15 488769 0 2666 488769 1
gene 2 5 948 -298569 0 2855 -298569 0
gene 2 948 13 95451 0 2856 95451 1
gene 2 877 877 -174690 1 2903 -174690 1
gene 1 7 996 -292452 0 2996 -292452 1
gene 1 996 13 48588 0 2997 48588 1
gene 3 7 1018 -103004 0 3054 -103004 1
gene 4 1018 15 124425 0 3055 124425 1
gene 1 4 1030 523248 0 3100 523248 1
gene 1 1030 14 134916 0 3101 134916 1
gene 3 568 568 -226692 1 3154 -226692 1
gene 2 5 1107 -153618 0 3308 -153618 1
gene 2 1107 948 18474 0 3309 18474 1
gene 4 686 686 37425 1 3352 37425 1
gene 3 996 490 -248910 0 3408 -248910 1
gene 2 9 1188 -112077 0 3558 -112077 0
gene 2 1188 14 -547017 0 3559 -547017 1
gene 4 381 71 362652 0 3665 362652 1
gene 1 10 1240 -80732 0 3707 -80732 1
gene 1 1240 490 -176022 0 3708 -176022 1
gene 3 1107 1030 -125668 0 3763 -125668 1
gene 2 9 1316 170137 0 3922 170137 1
gene 2 1316 1188 -40047 0 3923 -40047 1
genomeend 60


/* Organism #64 Fitness: 440.000000 Time: 0 */
/* Position #64*/
#1 x: 71 y: 28
#2 x: 18 y: 21
#3 x: 15 y: 39
#4 x: 71 y: 85
#5 x: 77 y: 85
#6 x: 72 y: 63
genomestart 64
trait 1 1.000000 0.000000 0.000000 0.000000 0.000000 0.000000 0.000000 0.000000 trait 2 0.000000 0.000000 50868.000000 0.000000 0.000000 0.000000 0.000000 0.000000 trait 3 3.000000 0.000000 0.000000 0.000000 0.000000 0.000000 0.000000 0.000000 trait 4 4.000000 0.000000 0.000000 0.000000 0.000000 0.000000 0.000000 0.000000 node 1 4 1 3
node 2 2 1 1
node 3 4 1 1
node 4 2 1 1
node 5 4 1 1
node 6 3 1 1
node 7 2 1 1
node 8 1 1 1
node 9 4 1 1
node 10 1 1 1
node 11 1 1 1
node 12 4 1 1
node 13 4 0 2
node 14 1 0 2
node 15 4 0 2
node 71 1 0 0
node 289 1 0 0
node 317 1 0 0
node 368 1 0 0
node 381 1 0 0
node 394 1 0 0
node 473 1 0 0
node 490 1 0 0
node 568 1 0 0
node 647 3 0 0
node 686 1 0 0
node 704 1 0 0
node 760 1 0 0
node 834 1 0 0
node 877 1 0 0
node 886 1 0 0
node 948 1 0 0
node 996 1 0 0
node 1018 1 0 0
node 1030 1 0 0
node 1107 1 0 0
node 1318 1 0 0
gene 4 1 13 222576 0 1 222576 1
gene 3 2 13 81906 0 2 81906 1
gene 2 3 13 192174 0 3 192174 0
gene 4 4 13 -277497 0 4 -277497 1
gene 2 5 13 -153603 0 5 -153603 0
gene 3 6 13 -233241 0 6 -233241 1
gene 1 7 13 425067 0 7 425067 0
gene 1 8 13 236673 0 8 236673 1
gene 1 9 13 -331563 0 9 -331563 1
gene 2 10 13 84201 0 10 84201 1
gene 3 11 13 241044 0 11 241044 1
gene 3 12 13 -212346 0 12 -212346 1
gene 1 1 14 634913 0 13 634913 1
gene 1 2 14 654246 0 14 654246 0
gene 3 3 14 202077 0 15 202077 0
gene 1 4 14 164691 0 16 164691 0
gene 1 5 14 -243132 0 17 -243132 1
gene 1 6 14 96232 0 18 96232 1
gene 1 7 14 346209 0 19 346209 1
gene 2 8 14 605475 0 20 605475 1
gene 2 9 14 -361392 0 21 -361392 1
gene 1 10 14 518631 0 22 518631 0
gene 3 11 14 -242520 0 23 -242520 1
gene 2 12 14 -724013 0 24 -724013 0
gene 3 1 15 536544 0 25 536544 1
gene 2 2 15 -469431 0 26 -469431 1
gene 4 3 15 -602198 0 27 -602198 0
gene 2 4 15 258258 0 28 258258 0
gene 2 5 15 207366 0 29 207366 1
gene 1 6 15 72381 0 30 72381 1
gene 4 7 15 18597 0 31 18597 0
gene 2 8 15 60696 0 32 60696 0
gene 2 9 15 -39348 0 33 -39348 1
gene 1 10 15 -94341 0 34 -94341 1
gene 3 11 15 -203736 0 35 -203736 1
gene 1 12 15 -236730 0 36 -236730 1
gene 4 3 71 239052 0 201 239052 0
gene 3 71 14 -293997 0 202 -293997 0
gene 1 13 13 339810 1 248 339810 1
gene 2 13 15 -656748 0 413 -656748 1
gene 4 10 71 -63909 0 454 -63909 1
gene 1 7 71 800000 0 542 800000 0
gene 4 8 71 -87261 0 717 -87261 1
gene 4 71 71 -100110 1 769 -100110 0
gene 4 3 289 -27477 0 858 -27477 0
gene 4 289 15 -456564 0 859 -456564 1
gene 3 289 14 -196071 0 897 -196071 1
gene 4 3 317 139038 0 942 139038 0
gene 4 317 289 20112 0 943 20112 1
gene 2 8 368 41016 0 1081 41016 0
gene 2 368 15 -46887 0 1082 -46887 1
gene 1 2 381 -331827 0 1117 -331827 1
gene 2 381 14 -35583 0 1118 -35583 1
gene 4 3 394 -441666 0 1159 -441666 1
gene 4 394 71 -323508 0 1160 -323508 1
gene 4 1 394 -547617 0 1362 -547617 1
gene 2 3 473 -79935 0 1405 -79935 1
gene 2 473 13 -760728 0 1406 -760728 1
gene 1 10 490 279393 0 1456 279393 1
gene 1 490 14 558435 0 1457 558435 1
gene 3 13 289 -253140 0 1591 -253140 1
gene 4 71 568 800000 1 1699 800000 1
gene 4 568 71 -288828 0 1700 -288828 0
gene 3 568 15 128202 0 1754 128202 1
gene 3 289 394 -169794 0 1809 -169794 0
gene 4 568 647 -332916 0 1948 -332916 1
gene 4 647 71 -379188 0 1949 -379188 1
gene 1 7 686 155946 0 2069 155946 1
gene 1 686 71 339093 0 2070 339093 1
gene 3 71 704 -433953 0 2122 -433953 1
gene 3 704 14 -276237 0 2123 -276237 1
gene 3 289 760 -292392 0 2296 -292392 1
gene 3 760 394 -311418 0 2297 -311418 1
gene 4 368 394 777377 0 2326 777377 1
gene 2 10 289 189399 0 2376 189399 1
gene 4 3 834 118302 0 2518 118302 1
gene 4 834 317 -260553 0 2519 -260553 1
gene 2 12 877 -26025 0 2634 -26025 1
gene 2 877 14 -117939 0 2635 -117939 1
gene 2 4 886 387675 0 2665 387675 1
gene 2 886 15 -244914 0 2666 -244914 1
gene 2 5 948 94515 0 2855 94515 0
gene 2 948 13 -209934 0 2856 -209934 1
gene 2 877 877 101292 1 2903 101292 1
gene 1 7 996 146190 0 2996 146190 1
gene 1 996 13 -65454 0 2997 -65454 1
gene 3 7 1018 -63504 0 3054 -63504 1
gene 4 1018 15 -348465 0 3055 -348465 1
gene 1 4 1030 -281718 0 3100 -281718 1
gene 1 1030 14 71397 0 3101 71397 1
gene 3 568 568 -87117 1 3154 -87117 1
gene 2 5 1107 -235878 0 3308 -235878 1
gene 2 1107 948 65982 0 3309 65982 1
gene 4 686 686 -712218 1 3352 -712218 1
gene 3 996 490 555293 0 3408 555293 1
gene 3 834 381 241257 0 3586 241257 1
gene 4 12 473 -275877 0 3891 -275877 1
gene 2 8 1318 -116672 0 3932 -116672 1
gene 2 1318 368 -16530 0 3933 -16530 1
genomeend 64


/* Organism #70 Fitness: 320.000000 Time: 0 */
/* Position #70*/
#1 x: 47 y: 24
#2 x: 41 y: 36
#3 x: 29 y: 19
#4 x: 82 y: 73
#5 x: 23 y: 61
#6 x: 51 y: 60
genomestart 70
trait 1 1.000000 0.000000 0.000000 0.000000 0.000000 0.000000 0.000000 0.000000 trait 2 2.000000 0.000000 0.000000 0.000000 0.000000 0.000000 0.000000 0.000000 trait 3 3.000000 0.000000 0.000000 0.000000 0.000000 0.000000 0.000000 0.000000 trait 4 87559.000000 0.000000 0.000000 0.000000 0.000000 0.000000 48508.000000 17450.000000 node 1 4 1 3
node 2 2 1 1
node 3 2 1 1
node 4 2 1 1
node 5 1 1 1
node 6 1 1 1
node 7 3 1 1
node 8 1 1 1
node 9 1 1 1
node 10 4 1 1
node 11 4 1 1
node 12 1 1 1
node 13 3 0 2
node 14 1 0 2
node 15 2 0 2
node 92 1 0 0
node 121 1 0 0
node 183 1 0 0
node 238 1 0 0
node 293 1 0 0
node 409 2 0 0
node 471 1 0 0
node 524 1 0 0
node 617 1 0 0
node 634 1 0 0
node 652 1 0 0
node 701 1 0 0
node 737 1 0 0
node 839 1 0 0
node 868 2 0 0
node 995 1 0 0
node 1041 1 0 0
node 1113 1 0 0
node 1132 1 0 0
node 1182 1 0 0
node 1200 1 0 0
node 1270 1 0 0
gene 4 1 13 142311 0 1 142311 1
gene 1 2 13 -130482 0 2 -130482 0
gene 2 3 13 563115 0 3 563115 1
gene 1 4 13 142617 0 4 142617 0
gene 1 5 13 -216 0 5 -216 0
gene 2 6 13 147789 0 6 147789 0
gene 3 7 13 -702131 0 7 -702131 1
gene 4 8 13 -4776 0 8 -4776 1
gene 3 9 13 198153 0 9 198153 1
gene 3 10 13 181095 0 10 181095 1
gene 1 11 13 -267744 0 11 -267744 1
gene 2 12 13 -30459 0 12 -30459 1
gene 1 1 14 627654 0 13 627654 1
gene 2 2 14 -234996 0 14 -234996 1
gene 1 3 14 231804 0 15 231804 1
gene 3 4 14 -326760 0 16 -326760 1
gene 4 5 14 558429 0 17 558429 1
gene 2 6 14 298080 0 18 298080 0
gene 2 7 14 -424461 0 19 -424461 0
gene 3 8 14 492879 0 20 492879 0
gene 2 9 14 -337269 0 21 -337269 0
gene 1 10 14 67203 0 22 67203 1
gene 3 11 14 298398 0 23 298398 0
gene 2 12 14 -67455 0 24 -67455 1
gene 3 1 15 -426252 0 25 -426252 1
gene 4 2 15 92493 0 26 92493 1
gene 3 3 15 -22169 0 27 -22169 1
gene 4 4 15 550509 0 28 550509 1
gene 3 5 15 -458685 0 29 -458685 0
gene 1 6 15 140787 0 30 140787 1
gene 2 7 15 -128493 0 31 -128493 0
gene 1 8 15 293967 0 32 293967 1
gene 4 9 15 112428 0 33 112428 1
gene 2 10 15 733044 0 34 733044 1
gene 4 11 15 258822 0 35 258822 0
gene 1 12 15 406485 0 36 406485 0
gene 3 14 15 78567 0 66 78567 1
gene 3 14 13 -448215 0 95 -448215 0
gene 3 8 92 -125514 0 253 -125514 1
gene 3 92 14 72933 0 254 72933 0
gene 2 92 92 376964 1 305 376964 1
gene 1 4 121 -128337 0 333 -128337 1
gene 1 121 13 -245868 0 334 -245868 1
gene 1 5 183 12021 0 512 12021 1
gene 1 183 13 446295 0 513 446295 1
gene 1 2 238 117060 0 693 117060 0
gene 1 238 13 507663 0 694 507663 1
gene 1 13 13 160677 1 827 160677 1
gene 2 7 293 19944 0 869 19944 1
gene 2 293 15 -800000 0 870 -800000 0
gene 3 15 13 332450 0 1133 332450 1
gene 2 9 409 -482766 0 1210 -482766 0
gene 2 409 14 144105 0 1211 144105 0
gene 2 92 121 649464 0 1278 649464 0
gene 2 409 293 132228 0 1355 132228 0
gene 1 12 471 -344874 0 1399 -344874 1
gene 1 471 15 45942 0 1400 45942 1
gene 3 11 524 -251988 0 1569 -251988 1
gene 3 524 14 -93723 0 1570 -93723 1
gene 4 6 471 -371727 0 1663 -371727 1
gene 4 409 15 309216 0 1765 309216 1
gene 1 5 617 424893 0 1859 424893 1
gene 1 617 15 236349 0 1860 236349 1
gene 1 2 634 -252207 0 1910 -252207 1
gene 1 634 238 -357669 0 1911 -357669 1
gene 2 92 652 -266073 0 1968 -266073 1
gene 2 652 121 769386 0 1969 769386 1
gene 2 6 701 141519 0 2113 141519 1
gene 2 701 13 -275553 0 2114 -275553 1
gene 3 92 737 -647541 0 2224 -647541 1
gene 3 737 14 468033 0 2225 468033 1
gene 3 14 839 237588 0 2530 237588 1
gene 3 839 13 -500301 0 2531 -500301 1
gene 2 293 868 -756918 0 2610 -756918 1
gene 2 868 15 700698 0 2611 700698 1
gene 4 11 238 -161439 0 2902 -161439 1
gene 2 11 701 137441 0 2952 137441 1
gene 2 9 995 238435 0 2994 238435 1
gene 2 995 409 510963 0 2995 510963 0
gene 2 409 1041 -366789 0 3129 -366789 1
gene 2 1041 14 -265551 0 3130 -265551 1
gene 3 471 409 -116526 0 3254 -116526 1
gene 4 701 1041 -676500 0 3304 -676500 1
gene 2 6 1113 487398 0 3327 487398 1
gene 2 1113 14 38790 0 3328 38790 1
gene 2 7 1132 115327 0 3387 115327 1
gene 2 1132 14 -8460 0 3388 -8460 1
gene 4 11 1182 425284 0 3539 425284 1
gene 4 1182 15 73137 0 3540 73137 1
gene 2 995 1200 361053 0 3594 361053 1
gene 2 1200 409 -428718 0 3595 -428718 1
gene 2 409 1270 -225713 0 3798 -225713 1
gene 2 1270 293 -153246 0 3799 -153246 1
gene 4 1132 1132 173763 1 3917 173763 1
genomeend 70


