/* Organism #65 Fitness: 170.000000 Time: 0 */
/* Position #65*/
#1 x: 63 y: 17
#2 x: 20 y: 22
#3 x: 84 y: 16
#4 x: 34 y: 81
#5 x: 60 y: 81
#6 x: 31 y: 72
genomestart 65
node 1 3 1 3
node 2 2 1 1
node 3 3 1 1
node 4 4 1 1
node 5 3 1 1
node 6 2 1 1
node 7 2 1 1
node 8 3 1 1
node 9 2 1 1
node 10 1 1 1
node 11 3 1 1
node 12 3 1 1
node 13 3 0 2
node 14 1 0 2
node 15 2 0 2
node 16 2 0 2
node 19 1 0 0
gene 3 1 13 121425 0 1 121425 1
gene 1 2 13 291282 0 2 291282 1
gene 1 3 13 -436710 0 3 -436710 1
gene 2 4 13 -391842 0 4 -391842 1
gene 1 5 13 321525 0 5 321525 1
gene 1 6 13 -400701 0 6 -400701 1
gene 4 7 13 -262182 0 7 -262182 1
gene 4 8 13 -116364 0 8 -116364 1
gene 2 9 13 30270 0 9 30270 1
gene 2 10 13 218970 0 10 218970 1
gene 2 11 13 -392247 0 11 -392247 1
gene 4 12 13 -113028 0 12 -113028 1
gene 3 1 14 -616158 0 13 -616158 1
gene 1 2 14 -73803 0 14 -73803 1
gene 3 3 14 -6804 0 15 -6804 1
gene 1 4 14 38565 0 16 38565 1
gene 4 5 14 -302976 0 17 -302976 1
gene 4 6 14 406784 0 18 406784 1
gene 1 7 14 264036 0 19 264036 1
gene 4 8 14 51804 0 20 51804 1
gene 3 9 14 439575 0 21 439575 1
gene 2 10 14 -166446 0 22 -166446 1
gene 3 11 14 -719124 0 23 -719124 1
gene 1 12 14 -496359 0 24 -496359 1
gene 4 1 15 154332 0 25 154332 1
gene 3 2 15 295419 0 26 295419 1
gene 2 3 15 -87144 0 27 -87144 1
gene 4 4 15 54357 0 28 54357 1
gene 1 5 15 259614 0 29 259614 1
gene 1 6 15 -405159 0 30 -405159 1
gene 2 7 15 388173 0 31 388173 1
gene 2 8 15 -90804 0 32 -90804 1
gene 2 9 15 75684 0 33 75684 0
gene 2 10 15 463857 0 34 463857 1
gene 1 11 15 22635 0 35 22635 1
gene 3 12 15 -72399 0 36 -72399 1
gene 1 1 16 -236049 0 37 -236049 1
gene 2 2 16 777738 0 38 777738 1
gene 4 3 16 208032 0 39 208032 1
gene 3 4 16 544272 0 40 544272 1
gene 2 5 16 49644 0 41 49644 1
gene 1 6 16 4836 0 42 4836 1
gene 3 7 16 79677 0 43 79677 1
gene 2 8 16 -548649 0 44 -548649 1
gene 4 9 16 -420597 0 45 -420597 1
gene 4 10 16 -530073 0 46 -530073 1
gene 1 11 16 -73098 0 47 -73098 1
gene 4 12 16 -82194 0 48 -82194 1
gene 1 16 15 -143535 0 70 -143535 1
gene 4 13 15 -75018 0 82 -75018 1
gene 2 9 19 590661 0 98 590661 1
gene 2 19 15 -529695 0 99 -529695 1
gene 2 14 16 -237900 0 116 -237900 1
gene 3 16 16 260274 1 146 260274 1
gene 2 7 19 40854 0 177 40854 1
gene 1 4 19 607710 0 307 607710 1
gene 2 19 19 -253524 1 317 -253524 1
gene 3 15 15 -167253 1 351 -167253 1
gene 3 14 14 -143889 1 365 -143889 1
gene 2 13 13 -250044 1 431 -250044 1
gene 4 3 19 440853 0 462 440853 1
gene 1 14 13 434107 0 489 434107 1
gene 2 16 14 89081 1 515 89081 1
gene 3 5 19 -487965 0 518 -487965 1
gene 1 8 19 292989 0 522 292989 1
genomeend 65


