/* Organism #79 Fitness: 150.000000 Time: 0 */
/* Position #79*/
#1 x: 79 y: 16
#2 x: 65 y: 22
#3 x: 84 y: 38
#4 x: 15 y: 72
#5 x: 60 y: 72
#6 x: 26 y: 81
genomestart 79
node 1 4 1 3
node 2 2 1 1
node 3 1 1 1
node 4 1 1 1
node 5 4 1 1
node 6 2 1 1
node 7 4 1 1
node 8 4 1 1
node 9 4 1 1
node 10 1 1 1
node 11 4 1 1
node 12 2 1 1
node 13 4 0 2
node 14 2 0 2
node 15 4 0 2
node 16 3 0 2
gene 3 1 13 142655 0 1 142655 1
gene 3 2 13 147045 0 2 147045 1
gene 4 3 13 8496 0 3 8496 1
gene 2 4 13 -569787 0 4 -569787 1
gene 2 5 13 -474462 0 5 -474462 1
gene 1 6 13 -5349 0 6 -5349 1
gene 3 7 13 -170505 0 7 -170505 1
gene 1 8 13 632109 0 8 632109 1
gene 1 9 13 106929 0 9 106929 1
gene 1 10 13 -412437 0 10 -412437 1
gene 4 11 13 -169515 0 11 -169515 1
gene 4 12 13 -157494 0 12 -157494 1
gene 2 1 14 188763 0 13 188763 1
gene 2 2 14 144399 0 14 144399 1
gene 2 3 14 -288375 0 15 -288375 1
gene 4 4 14 112191 0 16 112191 1
gene 4 5 14 173523 0 17 173523 1
gene 4 6 14 -218261 0 18 -218261 1
gene 2 7 14 54150 0 19 54150 1
gene 3 8 14 -26889 0 20 -26889 1
gene 1 9 14 -179841 0 21 -179841 1
gene 4 10 14 130878 0 22 130878 1
gene 4 11 14 -273260 0 23 -273260 1
gene 2 12 14 29919 0 24 29919 1
gene 3 1 15 -215763 0 25 -215763 1
gene 2 2 15 -310041 0 26 -310041 1
gene 4 3 15 -51066 0 27 -51066 1
gene 4 4 15 -62220 0 28 -62220 1
gene 2 5 15 232647 0 29 232647 1
gene 1 6 15 -218730 0 30 -218730 1
gene 1 7 15 -314127 0 31 -314127 1
gene 4 8 15 -768 0 32 -768 1
gene 2 9 15 43932 0 33 43932 1
gene 3 10 15 447731 0 34 447731 1
gene 2 11 15 -63573 0 35 -63573 1
gene 3 12 15 209352 0 36 209352 1
gene 1 1 16 35610 0 37 35610 1
gene 3 2 16 -63396 0 38 -63396 1
gene 3 3 16 -181364 0 39 -181364 1
gene 1 4 16 -565197 0 40 -565197 1
gene 4 5 16 -262710 0 41 -262710 1
gene 3 6 16 -576995 0 42 -576995 1
gene 4 7 16 601448 0 43 601448 1
gene 3 8 16 -456822 0 44 -456822 1
gene 3 9 16 804 0 45 804 1
gene 1 10 16 -765087 0 46 -765087 1
gene 2 11 16 203145 0 47 203145 1
gene 2 12 16 138693 0 48 138693 1
gene 1 15 16 -590196 0 94 -590196 1
gene 3 13 16 -369048 0 163 -369048 1
gene 4 14 13 -203178 0 191 -203178 1
gene 3 15 13 -141156 0 301 -141156 1
gene 2 14 16 -613479 0 350 -613479 1
gene 1 13 13 307758 1 432 307758 1
gene 4 15 14 -101971 0 566 -101971 1
genomeend 79


