/* Organism #85 Fitness: 161.000000 Time: 0 */
/* Position #85*/
#1 x: 80 y: 34
#2 x: 75 y: 30
#3 x: 17 y: 28
#4 x: 16 y: 63
#5 x: 52 y: 84
#6 x: 54 y: 70
genomestart 85
node 1 3 1 3
node 2 1 1 1
node 3 4 1 1
node 4 1 1 1
node 5 1 1 1
node 6 2 1 1
node 7 3 1 1
node 8 2 1 1
node 9 3 1 1
node 10 3 1 1
node 11 1 1 1
node 12 3 1 1
node 13 1 0 2
node 14 3 0 2
node 15 4 0 2
node 16 2 0 2
gene 3 1 13 -55527 0 1 -55527 1
gene 2 2 13 -214704 0 2 -214704 1
gene 2 3 13 -320573 0 3 -320573 1
gene 3 4 13 -296823 0 4 -296823 1
gene 2 5 13 -169731 0 5 -169731 1
gene 1 6 13 32199 0 6 32199 1
gene 4 7 13 424152 0 7 424152 1
gene 4 8 13 633921 0 8 633921 1
gene 2 9 13 128358 0 9 128358 1
gene 3 10 13 -391773 0 10 -391773 1
gene 3 11 13 -91860 0 11 -91860 1
gene 2 12 13 315522 0 12 315522 1
gene 4 1 14 -19143 0 13 -19143 1
gene 4 2 14 405159 0 14 405159 1
gene 2 3 14 -133230 0 15 -133230 1
gene 4 4 14 259293 0 16 259293 1
gene 2 5 14 -358845 0 17 -358845 1
gene 4 6 14 77208 0 18 77208 1
gene 1 7 14 -398775 0 19 -398775 1
gene 3 8 14 614987 0 20 614987 1
gene 1 9 14 -55767 0 21 -55767 1
gene 3 10 14 260085 0 22 260085 1
gene 2 11 14 -176016 0 23 -176016 1
gene 4 12 14 759473 0 24 759473 1
gene 3 1 15 180120 0 25 180120 1
gene 1 2 15 304650 0 26 304650 1
gene 1 3 15 174678 0 27 174678 1
gene 1 4 15 -116436 0 28 -116436 1
gene 1 5 15 -800000 0 29 -800000 1
gene 3 6 15 -491649 0 30 -491649 1
gene 2 7 15 619481 0 31 619481 1
gene 3 8 15 256842 0 32 256842 1
gene 1 9 15 74130 0 33 74130 1
gene 2 10 15 105255 0 34 105255 1
gene 3 11 15 176232 0 35 176232 1
gene 3 12 15 -800000 0 36 -800000 1
gene 2 1 16 -246291 0 37 -246291 1
gene 3 2 16 286677 0 38 286677 1
gene 3 3 16 181467 0 39 181467 1
gene 4 4 16 -502275 0 40 -502275 1
gene 2 5 16 -156069 0 41 -156069 1
gene 4 6 16 425640 0 42 425640 1
gene 4 7 16 187458 0 43 187458 1
gene 4 8 16 -215376 0 44 -215376 1
gene 4 9 16 -388425 0 45 -388425 1
gene 2 10 16 -177564 0 46 -177564 1
gene 1 11 16 261018 0 47 261018 1
gene 2 12 16 103953 0 48 103953 1
gene 3 14 14 57477 1 267 57477 1
gene 4 15 15 281838 1 318 281838 1
gene 4 14 15 49386 0 399 49386 1
gene 2 15 16 -147525 0 428 -147525 1
gene 2 13 13 384462 1 459 384462 1
gene 2 13 14 784392 0 525 784392 1
genomeend 85


