/* Organism #33 Fitness: -63.000000 Time: 0 */
/* Position #33*/
#1 x: 34 y: 36
#2 x: 20 y: 23
#3 x: 76 y: 35
#4 x: 55 y: 71
#5 x: 63 y: 81
#6 x: 21 y: 64
genomestart 33
node 1 2 1 3
node 2 4 1 1
node 3 1 1 1
node 4 3 1 1
node 5 3 1 1
node 6 2 1 1
node 7 2 1 1
node 8 4 1 1
node 9 3 1 1
node 10 1 1 1
node 11 3 1 1
node 12 3 1 1
node 13 4 0 2
node 14 1 0 2
node 15 2 0 2
gene 1 1 13 427947 0 1 427947 1
gene 3 2 13 58944 0 2 58944 1
gene 2 3 13 587421 0 3 587421 1
gene 4 4 13 -47904 0 4 -47904 1
gene 4 5 13 43590 0 5 43590 1
gene 1 6 13 71061 0 6 71061 1
gene 4 7 13 -227844 0 7 -227844 1
gene 2 8 13 -578034 0 8 -578034 1
gene 2 9 13 269478 0 9 269478 1
gene 4 10 13 -127968 0 10 -127968 1
gene 3 11 13 378912 0 11 378912 1
gene 3 12 13 -429198 0 12 -429198 1
gene 3 1 14 203547 0 13 203547 1
gene 4 2 14 -357960 0 14 -357960 1
gene 4 3 14 -193275 0 15 -193275 1
gene 2 4 14 465438 0 16 465438 1
gene 2 5 14 525008 0 17 525008 1
gene 3 6 14 267264 0 18 267264 1
gene 3 7 14 286722 0 19 286722 1
gene 4 8 14 210855 0 20 210855 1
gene 3 9 14 557040 0 21 557040 1
gene 4 10 14 -146466 0 22 -146466 1
gene 1 11 14 202665 0 23 202665 1
gene 3 12 14 800000 0 24 800000 1
gene 3 1 15 -218595 0 25 -218595 1
gene 4 2 15 78522 0 26 78522 1
gene 3 3 15 207129 0 27 207129 1
gene 3 4 15 9999 0 28 9999 1
gene 1 5 15 -187917 0 29 -187917 1
gene 2 6 15 268233 0 30 268233 1
gene 3 7 15 317004 0 31 317004 1
gene 2 8 15 800000 0 32 800000 1
gene 2 9 15 -321174 0 33 -321174 1
gene 4 10 15 249639 0 34 249639 1
gene 4 11 15 68091 0 35 68091 1
gene 3 12 15 193860 0 36 193860 1
genomeend 33


/* Organism #48 Fitness: -64.000000 Time: 0 */
/* Position #48*/
#1 x: 63 y: 27
#2 x: 58 y: 31
#3 x: 58 y: 16
#4 x: 53 y: 61
#5 x: 37 y: 79
#6 x: 78 y: 78
genomestart 48
node 1 2 1 3
node 2 4 1 1
node 3 1 1 1
node 4 3 1 1
node 5 3 1 1
node 6 2 1 1
node 7 2 1 1
node 8 4 1 1
node 9 3 1 1
node 10 1 1 1
node 11 3 1 1
node 12 3 1 1
node 13 4 0 2
node 14 1 0 2
node 15 2 0 2
gene 1 1 13 274512 0 1 274512 1
gene 3 2 13 340305 0 2 340305 1
gene 2 3 13 -275985 0 3 -275985 1
gene 4 4 13 165345 0 4 165345 1
gene 4 5 13 -522258 0 5 -522258 1
gene 1 6 13 690384 0 6 690384 1
gene 4 7 13 487209 0 7 487209 1
gene 2 8 13 214998 0 8 214998 1
gene 2 9 13 156042 0 9 156042 1
gene 4 10 13 142680 0 10 142680 1
gene 3 11 13 -128607 0 11 -128607 1
gene 3 12 13 -33540 0 12 -33540 1
gene 3 1 14 333171 0 13 333171 1
gene 1 2 14 -16854 0 14 -16854 1
gene 4 3 14 -26040 0 15 -26040 1
gene 2 4 14 23313 0 16 23313 1
gene 2 5 14 298677 0 17 298677 1
gene 3 6 14 -245319 0 18 -245319 1
gene 3 7 14 271194 0 19 271194 1
gene 4 8 14 50361 0 20 50361 1
gene 3 9 14 475326 0 21 475326 1
gene 4 10 14 263199 0 22 263199 1
gene 1 11 14 -800000 0 23 -800000 1
gene 3 12 14 800000 0 24 800000 1
gene 3 1 15 -600759 0 25 -600759 1
gene 4 2 15 -254727 0 26 -254727 1
gene 3 3 15 -483945 0 27 -483945 1
gene 3 4 15 -728979 0 28 -728979 1
gene 1 5 15 -32868 0 29 -32868 1
gene 2 6 15 -15564 0 30 -15564 1
gene 3 7 15 -458841 0 31 -458841 1
gene 2 8 15 305598 0 32 305598 1
gene 2 9 15 -35679 0 33 -35679 1
gene 4 10 15 -703986 0 34 -703986 1
gene 4 11 15 117267 0 35 117267 1
gene 3 12 15 -643296 0 36 -643296 1
genomeend 48


/* Organism #65 Fitness: -97.000000 Time: 0 */
/* Position #65*/
#1 x: 53 y: 18
#2 x: 50 y: 27
#3 x: 71 y: 22
#4 x: 76 y: 82
#5 x: 84 y: 69
#6 x: 29 y: 83
genomestart 65
node 1 2 1 3
node 2 4 1 1
node 3 1 1 1
node 4 3 1 1
node 5 3 1 1
node 6 2 1 1
node 7 2 1 1
node 8 4 1 1
node 9 3 1 1
node 10 1 1 1
node 11 3 1 1
node 12 3 1 1
node 13 4 0 2
node 14 3 0 2
node 15 2 0 2
gene 1 1 13 104841 0 1 104841 1
gene 3 2 13 547266 0 2 547266 1
gene 2 3 13 -316803 0 3 -316803 1
gene 4 4 13 528885 0 4 528885 1
gene 4 5 13 -765555 0 5 -765555 1
gene 1 6 13 666474 0 6 666474 1
gene 4 7 13 -128709 0 7 -128709 1
gene 2 8 13 -215571 0 8 -215571 1
gene 2 9 13 -104475 0 9 -104475 1
gene 4 10 13 18060 0 10 18060 1
gene 3 11 13 -261738 0 11 -261738 1
gene 3 12 13 75591 0 12 75591 1
gene 3 1 14 455760 0 13 455760 1
gene 4 2 14 -180645 0 14 -180645 1
gene 4 3 14 -332535 0 15 -332535 1
gene 2 4 14 206985 0 16 206985 1
gene 2 5 14 207201 0 17 207201 1
gene 3 6 14 74508 0 18 74508 1
gene 3 7 14 -66060 0 19 -66060 1
gene 4 8 14 -466296 0 20 -466296 1
gene 3 9 14 117999 0 21 117999 1
gene 4 10 14 160536 0 22 160536 1
gene 1 11 14 -725850 0 23 -725850 1
gene 3 12 14 800000 0 24 800000 1
gene 3 1 15 233262 0 25 233262 1
gene 4 2 15 1275 0 26 1275 1
gene 3 3 15 -459015 0 27 -459015 1
gene 3 4 15 39360 0 28 39360 1
gene 1 5 15 -207801 0 29 -207801 1
gene 2 6 15 -279873 0 30 -279873 1
gene 3 7 15 -350985 0 31 -350985 1
gene 2 8 15 358167 0 32 358167 1
gene 2 9 15 -12 0 33 -12 1
gene 4 10 15 -471165 0 34 -471165 1
gene 4 11 15 -235008 0 35 -235008 1
gene 3 12 15 -279348 0 36 -279348 1
genomeend 65


/* Organism #66 Fitness: 65.000000 Time: 0 */
/* Position #66*/
#1 x: 15 y: 21
#2 x: 26 y: 20
#3 x: 61 y: 17
#4 x: 80 y: 65
#5 x: 38 y: 76
#6 x: 85 y: 74
genomestart 66
node 1 2 1 3
node 2 4 1 1
node 3 1 1 1
node 4 3 1 1
node 5 3 1 1
node 6 2 1 1
node 7 2 1 1
node 8 4 1 1
node 9 3 1 1
node 10 1 1 1
node 11 3 1 1
node 12 3 1 1
node 13 4 0 2
node 14 1 0 2
node 15 2 0 2
gene 1 1 13 420309 0 1 420309 1
gene 3 2 13 292797 0 2 292797 1
gene 2 3 13 -70971 0 3 -70971 1
gene 4 4 13 242883 0 4 242883 1
gene 4 5 13 -538419 0 5 -538419 1
gene 1 6 13 180342 0 6 180342 1
gene 4 7 13 201663 0 7 201663 1
gene 2 8 13 -253860 0 8 -253860 1
gene 2 9 13 -255132 0 9 -255132 1
gene 4 10 13 -18174 0 10 -18174 1
gene 3 11 13 -321486 0 11 -321486 1
gene 3 12 13 367275 0 12 367275 1
gene 3 1 14 214818 0 13 214818 1
gene 4 2 14 -486045 0 14 -486045 1
gene 4 3 14 -41157 0 15 -41157 1
gene 2 4 14 -237834 0 16 -237834 1
gene 2 5 14 183876 0 17 183876 1
gene 3 6 14 -182283 0 18 -182283 1
gene 3 7 14 83850 0 19 83850 1
gene 4 8 14 231750 0 20 231750 1
gene 3 9 14 18228 0 21 18228 1
gene 4 10 14 380502 0 22 380502 1
gene 1 11 14 -685038 0 23 -685038 1
gene 3 12 14 374093 0 24 374093 1
gene 3 1 15 -273765 0 25 -273765 1
gene 4 2 15 280854 0 26 280854 1
gene 3 3 15 -293298 0 27 -293298 1
gene 3 4 15 -161433 0 28 -161433 1
gene 1 5 15 -332562 0 29 -332562 1
gene 2 6 15 -131127 0 30 -131127 1
gene 3 7 15 -592482 0 31 -592482 1
gene 2 8 15 614868 0 32 614868 1
gene 2 9 15 -298566 0 33 -298566 1
gene 4 10 15 -529281 0 34 -529281 1
gene 4 11 15 104679 0 35 104679 1
gene 3 12 15 -619425 0 36 -619425 1
genomeend 66


/* Organism #67 Fitness: 26.000000 Time: 0 */
/* Position #67*/
#1 x: 15 y: 21
#2 x: 26 y: 20
#3 x: 61 y: 17
#4 x: 80 y: 65
#5 x: 38 y: 76
#6 x: 85 y: 74
genomestart 67
node 1 2 1 3
node 2 4 1 1
node 3 1 1 1
node 4 3 1 1
node 5 3 1 1
node 6 2 1 1
node 7 2 1 1
node 8 4 1 1
node 9 3 1 1
node 10 1 1 1
node 11 3 1 1
node 12 3 1 1
node 13 4 0 2
node 14 1 0 2
node 15 2 0 2
gene 1 1 13 489273 0 1 489273 1
gene 3 2 13 707496 0 2 707496 1
gene 2 3 13 177909 0 3 177909 1
gene 4 4 13 301782 0 4 301782 1
gene 4 5 13 -770604 0 5 -770604 1
gene 1 6 13 410211 0 6 410211 1
gene 4 7 13 623511 0 7 623511 1
gene 2 8 13 -235626 0 8 -235626 1
gene 2 9 13 -121047 0 9 -121047 1
gene 4 10 13 66177 0 10 66177 1
gene 3 11 13 -231597 0 11 -231597 1
gene 3 12 13 288948 0 12 288948 1
gene 3 1 14 290274 0 13 290274 1
gene 4 2 14 -452463 0 14 -452463 1
gene 4 3 14 153921 0 15 153921 1
gene 2 4 14 29844 0 16 29844 1
gene 2 5 14 800000 0 17 800000 1
gene 3 6 14 -240297 0 18 -240297 1
gene 3 7 14 268425 0 19 268425 1
gene 4 8 14 -298173 0 20 -298173 1
gene 3 9 14 265995 0 21 265995 1
gene 4 10 14 335454 0 22 335454 1
gene 1 11 14 -415317 0 23 -415317 1
gene 3 12 14 567797 0 24 567797 1
gene 3 1 15 -282417 0 25 -282417 1
gene 4 2 15 146001 0 26 146001 1
gene 3 3 15 84042 0 27 84042 1
gene 3 4 15 -592299 0 28 -592299 1
gene 1 5 15 -297555 0 29 -297555 1
gene 2 6 15 -43425 0 30 -43425 1
gene 3 7 15 -486858 0 31 -486858 1
gene 2 8 15 -274548 0 32 -274548 1
gene 2 9 15 -298566 0 33 -298566 1
gene 4 10 15 68277 0 34 68277 1
gene 4 11 15 -102633 0 35 -102633 1
gene 3 12 15 -99714 0 36 -99714 1
genomeend 67


/* Organism #69 Fitness: -97.000000 Time: 0 */
/* Position #69*/
#1 x: 83 y: 35
#2 x: 62 y: 27
#3 x: 51 y: 18
#4 x: 61 y: 83
#5 x: 61 y: 62
#6 x: 51 y: 60
genomestart 69
node 1 2 1 3
node 2 4 1 1
node 3 1 1 1
node 4 3 1 1
node 5 3 1 1
node 6 2 1 1
node 7 2 1 1
node 8 4 1 1
node 9 3 1 1
node 10 1 1 1
node 11 3 1 1
node 12 3 1 1
node 13 4 0 2
node 14 1 0 2
node 15 2 0 2
gene 1 1 13 800000 0 1 800000 1
gene 3 2 13 361545 0 2 361545 1
gene 2 3 13 536775 0 3 536775 1
gene 4 4 13 -134418 0 4 -134418 1
gene 4 5 13 -296253 0 5 -296253 1
gene 1 6 13 -10311 0 6 -10311 1
gene 4 7 13 -232209 0 7 -232209 1
gene 2 8 13 -371220 0 8 -371220 1
gene 2 9 13 363081 0 9 363081 1
gene 4 10 13 -305463 0 10 -305463 1
gene 3 11 13 510168 0 11 510168 1
gene 3 12 13 -420462 0 12 -420462 1
gene 3 1 14 372963 0 13 372963 1
gene 4 2 14 -414612 0 14 -414612 1
gene 4 3 14 -381543 0 15 -381543 1
gene 2 4 14 379197 0 16 379197 1
gene 2 5 14 502610 0 17 502610 1
gene 3 6 14 183309 0 18 183309 1
gene 3 7 14 466101 0 19 466101 1
gene 4 8 14 -250818 0 20 -250818 1
gene 3 9 14 492969 0 21 492969 1
gene 4 10 14 -389268 0 22 -389268 1
gene 1 11 14 -143136 0 23 -143136 1
gene 3 12 14 731372 0 24 731372 1
gene 3 1 15 -305190 0 25 -305190 1
gene 4 2 15 51423 0 26 51423 1
gene 3 3 15 223497 0 27 223497 1
gene 3 4 15 568803 0 28 568803 1
gene 1 5 15 218226 0 29 218226 1
gene 2 6 15 498138 0 30 498138 1
gene 3 7 15 381909 0 31 381909 1
gene 2 8 15 -135432 0 32 -135432 1
gene 2 9 15 -44025 0 33 -44025 1
gene 4 10 15 141582 0 34 141582 1
gene 4 11 15 89001 0 35 89001 1
gene 3 12 15 273855 0 36 273855 1
genomeend 69


/* Organism #71 Fitness: -95.000000 Time: 0 */
/* Position #71*/
#1 x: 26 y: 38
#2 x: 56 y: 27
#3 x: 65 y: 34
#4 x: 42 y: 85
#5 x: 61 y: 61
#6 x: 57 y: 74
genomestart 71
node 1 2 1 3
node 2 4 1 1
node 3 1 1 1
node 4 3 1 1
node 5 3 1 1
node 6 2 1 1
node 7 2 1 1
node 8 4 1 1
node 9 3 1 1
node 10 1 1 1
node 11 3 1 1
node 12 3 1 1
node 13 4 0 2
node 14 1 0 2
node 15 2 0 2
gene 1 1 13 753990 0 1 753990 1
gene 3 2 13 225378 0 2 225378 1
gene 2 3 13 362748 0 3 362748 1
gene 4 4 13 272463 0 4 272463 1
gene 4 5 13 -268929 0 5 -268929 1
gene 1 6 13 -102240 0 6 -102240 1
gene 4 7 13 239865 0 7 239865 1
gene 2 8 13 -47571 0 8 -47571 1
gene 2 9 13 387657 0 9 387657 1
gene 4 10 13 -412266 0 10 -412266 1
gene 3 11 13 339762 0 11 339762 1
gene 3 12 13 -214947 0 12 -214947 1
gene 3 1 14 103635 0 13 103635 1
gene 4 2 14 -452484 0 14 -452484 1
gene 4 3 14 -330414 0 15 -330414 1
gene 2 4 14 252927 0 16 252927 1
gene 2 5 14 260525 0 17 260525 1
gene 3 6 14 267264 0 18 267264 1
gene 3 7 14 209997 0 19 209997 1
gene 4 8 14 164166 0 20 164166 1
gene 3 9 14 742032 0 21 742032 1
gene 4 10 14 -87888 0 22 -87888 1
gene 1 11 14 -353163 0 23 -353163 1
gene 3 12 14 800000 0 24 800000 1
gene 3 1 15 -397815 0 25 -397815 1
gene 4 2 15 78522 0 26 78522 1
gene 3 3 15 10296 0 27 10296 1
gene 3 4 15 -257538 0 28 -257538 1
gene 1 5 15 -246147 0 29 -246147 1
gene 2 6 15 317676 0 30 317676 1
gene 3 7 15 425115 0 31 425115 1
gene 2 8 15 609986 0 32 609986 1
gene 2 9 15 169968 0 33 169968 1
gene 4 10 15 -160737 0 34 -160737 1
gene 4 11 15 281964 0 35 281964 1
gene 3 12 15 492459 0 36 492459 1
genomeend 71


/* Organism #73 Fitness: -96.000000 Time: 0 */
/* Position #73*/
#1 x: 51 y: 39
#2 x: 37 y: 32
#3 x: 39 y: 39
#4 x: 16 y: 81
#5 x: 56 y: 60
#6 x: 18 y: 62
genomestart 73
node 1 2 1 3
node 2 4 1 1
node 3 1 1 1
node 4 3 1 1
node 5 3 1 1
node 6 2 1 1
node 7 2 1 1
node 8 4 1 1
node 9 3 1 1
node 10 1 1 1
node 11 3 1 1
node 12 3 1 1
node 13 4 0 2
node 14 1 0 2
node 15 2 0 2
gene 1 1 13 220065 0 1 220065 1
gene 3 2 13 164610 0 2 164610 1
gene 2 3 13 296007 0 3 296007 1
gene 4 4 13 -130923 0 4 -130923 1
gene 4 5 13 124182 0 5 124182 1
gene 1 6 13 58695 0 6 58695 1
gene 4 7 13 -245808 0 7 -245808 1
gene 2 8 13 -321219 0 8 -321219 1
gene 2 9 13 86736 0 9 86736 1
gene 4 10 13 243417 0 10 243417 1
gene 3 11 13 181992 0 11 181992 1
gene 3 12 13 -214947 0 12 -214947 1
gene 3 1 14 368901 0 13 368901 1
gene 4 2 14 -579915 0 14 -579915 1
gene 4 3 14 -106296 0 15 -106296 1
gene 2 4 14 297981 0 16 297981 1
gene 2 5 14 -3531 0 17 -3531 1
gene 3 6 14 407688 0 18 407688 1
gene 3 7 14 161790 0 19 161790 1
gene 4 8 14 -151509 0 20 -151509 1
gene 3 9 14 488241 0 21 488241 1
gene 4 10 14 21591 0 22 21591 1
gene 1 11 14 42156 0 23 42156 1
gene 3 12 14 671297 0 24 671297 1
gene 3 1 15 21216 0 25 21216 1
gene 4 2 15 78522 0 26 78522 1
gene 3 3 15 72081 0 27 72081 1
gene 3 4 15 -185703 0 28 -185703 1
gene 1 5 15 -244593 0 29 -244593 1
gene 2 6 15 204519 0 30 204519 1
gene 3 7 15 193374 0 31 193374 1
gene 2 8 15 782552 0 32 782552 1
gene 2 9 15 -401172 0 33 -401172 1
gene 4 10 15 -226668 0 34 -226668 1
gene 4 11 15 -131754 0 35 -131754 1
gene 3 12 15 261735 0 36 261735 1
genomeend 73


/* Organism #75 Fitness: -96.000000 Time: 0 */
/* Position #75*/
#1 x: 51 y: 27
#2 x: 82 y: 24
#3 x: 80 y: 25
#4 x: 68 y: 64
#5 x: 37 y: 62
#6 x: 32 y: 72
genomestart 75
node 1 2 1 3
node 2 4 1 1
node 3 1 1 1
node 4 3 1 1
node 5 3 1 1
node 6 2 1 1
node 7 2 1 1
node 8 4 1 1
node 9 3 1 1
node 10 1 1 1
node 11 3 1 1
node 12 3 1 1
node 13 4 0 2
node 14 1 0 2
node 15 2 0 2
gene 1 1 13 400341 0 1 400341 1
gene 3 2 13 93549 0 2 93549 1
gene 2 3 13 330477 0 3 330477 1
gene 4 4 13 341079 0 4 341079 1
gene 4 5 13 294987 0 5 294987 1
gene 1 6 13 -20511 0 6 -20511 1
gene 4 7 13 238101 0 7 238101 1
gene 2 8 13 -321219 0 8 -321219 1
gene 2 9 13 137622 0 9 137622 1
gene 4 10 13 -351222 0 10 -351222 1
gene 3 11 13 -142155 0 11 -142155 1
gene 3 12 13 -64833 0 12 -64833 1
gene 3 1 14 342792 0 13 342792 1
gene 4 2 14 -189141 0 14 -189141 1
gene 4 3 14 -163167 0 15 -163167 1
gene 2 4 14 505335 0 16 505335 1
gene 2 5 14 228917 0 17 228917 1
gene 3 6 14 555678 0 18 555678 1
gene 3 7 14 343287 0 19 343287 1
gene 4 8 14 247530 0 20 247530 1
gene 3 9 14 800000 0 21 800000 1
gene 4 10 14 -15597 0 22 -15597 1
gene 1 11 14 -265149 0 23 -265149 1
gene 3 12 14 800000 0 24 800000 1
gene 3 1 15 -459117 0 25 -459117 1
gene 4 2 15 726 0 26 726 1
gene 3 3 15 174843 0 27 174843 1
gene 3 4 15 3369 0 28 3369 1
gene 1 5 15 164337 0 29 164337 1
gene 2 6 15 266811 0 30 266811 1
gene 3 7 15 309201 0 31 309201 1
gene 2 8 15 620315 0 32 620315 1
gene 2 9 15 -377013 0 33 -377013 1
gene 4 10 15 -174078 0 34 -174078 1
gene 4 11 15 312993 0 35 312993 1
gene 3 12 15 238923 0 36 238923 1
genomeend 75


/* Organism #77 Fitness: -94.000000 Time: 0 */
/* Position #77*/
#1 x: 46 y: 18
#2 x: 58 y: 38
#3 x: 24 y: 31
#4 x: 17 y: 68
#5 x: 83 y: 65
#6 x: 60 y: 62
genomestart 77
node 1 2 1 3
node 2 4 1 1
node 3 1 1 1
node 4 3 1 1
node 5 3 1 1
node 6 2 1 1
node 7 2 1 1
node 8 4 1 1
node 9 3 1 1
node 10 1 1 1
node 11 3 1 1
node 12 3 1 1
node 13 4 0 2
node 14 1 0 2
node 15 2 0 2
gene 1 1 13 443811 0 1 443811 1
gene 3 2 13 319683 0 2 319683 1
gene 2 3 13 34986 0 3 34986 1
gene 4 4 13 154071 0 4 154071 1
gene 4 5 13 -15012 0 5 -15012 1
gene 1 6 13 278790 0 6 278790 1
gene 4 7 13 -203160 0 7 -203160 1
gene 2 8 13 -242835 0 8 -242835 1
gene 2 9 13 392898 0 9 392898 1
gene 4 10 13 -355896 0 10 -355896 1
gene 3 11 13 602343 0 11 602343 1
gene 3 12 13 -415221 0 12 -415221 1
gene 3 1 14 94923 0 13 94923 1
gene 4 2 14 -546042 0 14 -546042 1
gene 4 3 14 -442896 0 15 -442896 1
gene 2 4 14 570018 0 16 570018 1
gene 2 5 14 290690 0 17 290690 1
gene 3 6 14 323466 0 18 323466 1
gene 3 7 14 301569 0 19 301569 1
gene 4 8 14 288624 0 20 288624 1
gene 3 9 14 623484 0 21 623484 1
gene 4 10 14 -97203 0 22 -97203 1
gene 1 11 14 -260556 0 23 -260556 1
gene 3 12 14 -273456 0 24 -273456 1
gene 3 1 15 -253002 0 25 -253002 1
gene 4 2 15 48528 0 26 48528 1
gene 3 3 15 281382 0 27 281382 1
gene 3 4 15 291444 0 28 291444 1
gene 1 5 15 -57684 0 29 -57684 1
gene 2 6 15 660762 0 30 660762 1
gene 3 7 15 116172 0 31 116172 1
gene 2 8 15 800000 0 32 800000 1
gene 2 9 15 -420336 0 33 -420336 1
gene 4 10 15 221049 0 34 221049 1
gene 4 11 15 301980 0 35 301980 1
gene 3 12 15 131340 0 36 131340 1
genomeend 77


/* Organism #79 Fitness: -96.000000 Time: 0 */
/* Position #79*/
#1 x: 46 y: 39
#2 x: 41 y: 26
#3 x: 28 y: 21
#4 x: 71 y: 75
#5 x: 82 y: 65
#6 x: 50 y: 64
genomestart 79
node 1 2 1 3
node 2 4 1 1
node 3 1 1 1
node 4 3 1 1
node 5 3 1 1
node 6 2 1 1
node 7 2 1 1
node 8 4 1 1
node 9 3 1 1
node 10 1 1 1
node 11 3 1 1
node 12 2 1 1
node 13 4 0 2
node 14 1 0 2
node 15 2 0 2
gene 1 1 13 -428643 0 1 -428643 1
gene 3 2 13 -660747 0 2 -660747 1
gene 2 3 13 -440913 0 3 -440913 1
gene 4 4 13 663333 0 4 663333 1
gene 4 5 13 -135384 0 5 -135384 1
gene 1 6 13 406698 0 6 406698 1
gene 4 7 13 186111 0 7 186111 1
gene 2 8 13 -422622 0 8 -422622 1
gene 2 9 13 -256908 0 9 -256908 1
gene 4 10 13 -230766 0 10 -230766 1
gene 3 11 13 209226 0 11 209226 1
gene 3 12 13 -26034 0 12 -26034 1
gene 3 1 14 571281 0 13 571281 1
gene 4 2 14 349014 0 14 349014 1
gene 4 3 14 57996 0 15 57996 1
gene 2 4 14 -240228 0 16 -240228 1
gene 2 5 14 96651 0 17 96651 1
gene 3 6 14 -150567 0 18 -150567 1
gene 3 7 14 477813 0 19 477813 1
gene 4 8 14 -474915 0 20 -474915 1
gene 3 9 14 -196401 0 21 -196401 1
gene 4 10 14 123018 0 22 123018 1
gene 1 11 14 -800000 0 23 -800000 1
gene 3 12 14 23334 0 24 23334 1
gene 3 1 15 355374 0 25 355374 1
gene 4 2 15 320373 0 26 320373 1
gene 3 3 15 -98169 0 27 -98169 1
gene 3 4 15 133605 0 28 133605 1
gene 1 5 15 259935 0 29 259935 1
gene 2 6 15 -61230 0 30 -61230 1
gene 3 7 15 -163167 0 31 -163167 1
gene 2 8 15 367113 0 32 367113 1
gene 2 9 15 -386916 0 33 -386916 1
gene 4 10 15 -136545 0 34 -136545 1
gene 4 11 15 -272727 0 35 -272727 1
gene 3 12 15 264774 0 36 264774 1
genomeend 79


