/* Organism #3 Fitness: 200.000000 Time: 0 */
/* Position #3*/
#1 x: 42 y: 20
#2 x: 56 y: 31
#3 x: 42 y: 18
#4 x: 68 y: 61
#5 x: 43 y: 80
#6 x: 32 y: 84
genomestart 3
trait 1 0.000000 7275.000000 0.000000 50272.000000 43221.000000 75826.000000 35019.000000 90962.000000 trait 2 2.000000 0.000000 0.000000 0.000000 0.000000 0.000000 0.000000 0.000000 trait 3 0.000000 0.000000 0.000000 0.000000 52930.000000 0.000000 0.000000 0.000000 trait 4 29360.000000 22224.000000 0.000000 42712.000000 0.000000 98914.000000 43000.000000 39544.000000 node 1 3 1 3
node 2 3 1 1
node 3 1 1 1
node 4 2 1 1
node 5 4 1 1
node 6 3 1 1
node 7 2 1 1
node 8 3 1 1
node 9 1 1 1
node 10 1 1 1
node 11 1 1 1
node 12 1 1 1
node 13 3 0 2
node 14 3 0 2
node 15 2 0 2
node 30 1 0 0
node 156 1 0 0
node 183 1 0 0
node 207 1 0 0
node 238 1 0 0
node 310 1 0 0
node 388 1 0 0
node 419 1 0 0
node 455 1 0 0
node 591 1 0 0
node 612 1 0 0
node 646 1 0 0
node 695 1 0 0
node 758 1 0 0
node 873 1 0 0
node 934 1 0 0
node 1136 1 0 0
node 1191 1 0 0
node 1225 1 0 0
node 1350 1 0 0
node 1420 1 0 0
node 1454 1 0 0
node 1488 1 0 0
node 1550 1 0 0
node 1591 1 0 0
node 1626 2 0 0
node 1821 1 0 0
node 1868 2 0 0
node 1975 1 0 0
node 2010 1 0 0
node 2051 1 0 0
node 2192 1 0 0
node 2223 1 0 0
node 2280 1 0 0
node 2365 1 0 0
node 2390 1 0 0
node 2447 1 0 0
node 2570 1 0 0
node 2753 1 0 0
node 2783 1 0 0
node 2922 1 0 0
node 3065 1 0 0
node 3096 1 0 0
node 3185 1 0 0
node 3206 1 0 0
node 3236 1 0 0
node 3278 1 0 0
node 3303 1 0 0
node 3403 1 0 0
node 3528 1 0 0
node 3611 1 0 0
node 3652 1 0 0
node 3816 3 0 0
node 3850 1 0 0
node 4020 1 0 0
node 4056 1 0 0
node 4084 1 0 0
node 4114 1 0 0
node 4165 1 0 0
node 4273 1 0 0
node 4305 1 0 0
node 4345 1 0 0
node 4471 1 0 0
node 4502 1 0 0
node 4531 1 0 0
node 4609 1 0 0
node 4649 1 0 0
node 4684 1 0 0
node 4718 1 0 0
node 4752 1 0 0
node 4789 1 0 0
node 4889 1 0 0
node 4923 1 0 0
node 4959 1 0 0
node 5182 1 0 0
node 5213 1 0 0
node 5249 1 0 0
node 5388 1 0 0
node 5421 1 0 0
node 5451 1 0 0
node 5495 1 0 0
node 5620 1 0 0
node 5653 1 0 0
node 5685 1 0 0
node 5721 1 0 0
node 5757 1 0 0
node 5951 1 0 0
node 6039 1 0 0
node 6197 1 0 0
node 6231 1 0 0
node 6301 1 0 0
node 6339 1 0 0
node 6380 1 0 0
node 6404 1 0 0
node 6460 1 0 0
node 6497 1 0 0
node 6528 1 0 0
node 6560 1 0 0
node 6687 1 0 0
node 6781 1 0 0
node 6860 1 0 0
node 6969 1 0 0
node 7028 1 0 0
node 7164 1 0 0
node 7331 1 0 0
node 7401 1 0 0
node 7437 1 0 0
gene 2 1 13 -514422 0 1 -514422 1
gene 2 2 13 271506 0 2 271506 0
gene 2 3 13 -504918 0 3 -504918 1
gene 2 4 13 431925 0 4 431925 1
gene 1 5 13 -680856 0 5 -680856 0
gene 3 6 13 -97360 0 6 -97360 1
gene 4 7 13 119307 0 7 119307 1
gene 3 8 13 36975 0 8 36975 1
gene 3 9 13 -319566 0 9 -319566 1
gene 4 10 13 -800000 0 10 -800000 1
gene 4 11 13 344046 0 11 344046 0
gene 3 12 13 376083 0 12 376083 1
gene 1 1 14 11259 0 13 11259 1
gene 2 2 14 -255168 0 14 -255168 0
gene 1 3 14 -502871 0 15 -502871 1
gene 3 4 14 -342822 0 16 -342822 1
gene 2 5 14 -158820 0 17 -158820 1
gene 4 6 14 341538 0 18 341538 1
gene 3 7 14 -3334 0 19 -3334 1
gene 3 8 14 -659811 0 20 -659811 1
gene 1 9 14 800000 0 21 800000 1
gene 1 10 14 166695 0 22 166695 1
gene 3 11 14 45795 0 23 45795 1
gene 4 12 14 -110913 0 24 -110913 1
gene 1 1 15 47034 0 25 47034 1
gene 2 2 15 -458592 0 26 -458592 1
gene 2 3 15 23667 0 27 23667 1
gene 3 4 15 59505 0 28 59505 0
gene 2 5 15 -19044 0 29 -19044 1
gene 2 6 15 798936 0 30 798936 1
gene 3 7 15 -147663 0 31 -147663 1
gene 4 8 15 -296925 0 32 -296925 1
gene 3 9 15 -101079 0 33 -101079 0
gene 1 10 15 -20889 0 34 -20889 1
gene 2 11 15 -607261 0 35 -607261 1
gene 2 12 15 -800000 0 36 -800000 1
gene 2 2 30 -350115 0 68 -350115 1
gene 2 30 14 40296 0 69 40296 1
gene 4 12 30 5274 0 128 5274 1
gene 4 13 14 -113880 0 154 -113880 1
gene 1 5 156 719780 0 401 719780 1
gene 1 156 13 -653015 0 402 -653015 0
gene 2 11 183 229809 0 483 229809 1
gene 2 183 15 224451 0 484 224451 1
gene 2 3 207 582 0 547 582 1
gene 2 207 13 -406935 0 548 -406935 1
gene 2 5 238 175091 0 628 175091 1
gene 2 238 15 -692337 0 629 -692337 1
gene 3 10 183 499800 0 685 499800 0
gene 3 9 207 228462 0 756 228462 1
gene 4 12 310 -98096 0 820 -98096 1
gene 4 310 30 207354 0 821 207354 0
gene 3 10 388 -363282 0 1034 -363282 0
gene 3 388 183 376893 0 1035 376893 1
gene 3 7 419 102738 0 1104 102738 1
gene 3 419 15 800000 0 1105 800000 1
gene 1 9 455 26736 0 1202 26736 1
gene 1 455 14 -172995 0 1203 -172995 1
gene 1 455 455 -800000 1 1275 -800000 1
gene 3 419 591 -50655 0 1555 -50655 1
gene 3 591 15 315252 0 1556 315252 0
gene 3 7 612 592545 0 1605 592545 1
gene 3 612 14 300855 0 1606 300855 0
gene 3 4 646 -171570 0 1691 -171570 1
gene 3 646 14 -74895 0 1692 -74895 1
gene 1 6 388 554649 0 1763 554649 1
gene 1 455 695 64956 1 1828 64956 1
gene 1 695 455 350775 0 1829 350775 0
gene 1 695 758 -614337 0 1982 -614337 1
gene 1 758 455 -511589 0 1983 -511589 0
gene 2 183 873 213825 0 2264 213825 1
gene 2 873 15 -388599 0 2265 -388599 1
gene 1 310 388 695965 0 2353 695965 1
gene 1 10 934 290766 0 2417 290766 0
gene 1 934 14 96015 0 2418 96015 1
gene 2 9 388 -198264 0 2756 -198264 1
gene 2 9 1136 679752 0 2936 679752 1
gene 2 1136 388 147615 0 2937 147615 1
gene 1 934 1191 7248 0 3070 7248 1
gene 1 1191 14 -657882 0 3071 -657882 1
gene 2 3 1225 477369 0 3155 477369 1
gene 2 1225 207 669935 0 3156 669935 1
gene 1 873 873 -213864 1 3296 -213864 1
gene 1 591 455 658952 0 3392 658952 0
gene 2 1136 1350 -379112 0 3472 -379112 1
gene 2 1350 388 433696 0 3473 433696 1
gene 2 238 238 -172959 1 3569 -172959 0
gene 3 10 1420 178794 0 3648 178794 1
gene 4 1420 388 -3777 0 3649 -3777 1
gene 3 4 1454 -76464 0 3731 -76464 1
gene 3 1454 15 176829 0 3732 176829 0
gene 3 612 1488 -322842 0 3812 -322842 1
gene 3 1488 14 -196797 0 3813 -196797 1
gene 3 388 1550 514197 0 3976 514197 1
gene 3 1550 183 -738801 0 3977 -738801 1
gene 3 1420 1591 -268227 0 4076 -268227 1
gene 3 1591 388 -363474 0 4077 -363474 1
gene 4 310 1626 -675908 0 4165 -675908 1
gene 4 1626 30 51059 0 4166 51059 0
gene 4 1550 419 -15542 0 4260 -15542 1
gene 1 455 1821 -800000 0 4650 -800000 1
gene 1 1821 14 -499251 0 4651 -499251 1
gene 1 5 1868 -800000 0 4778 -800000 0
gene 1 1868 156 142803 0 4779 142803 1
gene 1 183 183 278327 1 4880 278327 1
gene 4 1550 1550 -372117 1 4949 -372117 1
gene 3 1454 1975 -283276 0 5033 -283276 1
gene 3 1975 15 -663231 0 5034 -663231 1
gene 1 156 2010 383707 0 5118 383707 1
gene 1 2010 13 560721 0 5119 560721 1
gene 3 1550 2051 -799567 0 5219 -799567 1
gene 3 2051 183 229749 0 5220 229749 0
gene 3 612 612 -299571 1 5310 -299571 1
gene 1 183 2192 463053 1 5568 463053 0
gene 1 2192 183 103598 0 5569 103598 1
gene 1 310 2223 -397755 0 5641 -397755 1
gene 1 2223 388 -442962 0 5642 -442962 1
gene 3 419 2280 -600069 0 5793 -600069 1
gene 3 2280 591 -445775 0 5794 -445775 1
gene 3 591 2365 428988 0 6011 428988 1
gene 3 2365 15 342369 0 6012 342369 0
gene 4 1626 2390 284757 0 6075 284757 1
gene 4 2390 30 -597480 0 6076 -597480 0
gene 2 1136 2447 -270273 0 6225 -270273 1
gene 2 2447 1350 409290 0 6226 409290 1
gene 4 11 2570 368890 0 6534 368890 0
gene 4 2570 13 -121572 0 6535 -121572 0
gene 3 7 2753 -384471 0 6991 -384471 1
gene 3 2753 612 -316398 0 6992 -316398 1
gene 1 183 2783 -380880 1 7072 -380880 1
gene 1 2783 183 71423 0 7073 71423 1
gene 1 758 1591 -800000 0 7387 -800000 1
gene 1 2192 2922 537861 0 7438 537861 1
gene 1 2922 183 95364 0 7439 95364 1
gene 2 1454 1454 227004 1 7652 227004 1
gene 4 7 2192 -154653 0 7731 -154653 0
gene 1 2223 3065 739452 0 7809 739452 1
gene 1 3065 388 -392193 0 7810 -392193 1
gene 3 9 3096 -15360 0 7884 -15360 0
gene 3 3096 15 349478 0 7885 349478 0
gene 3 1136 1821 -350541 0 7970 -350541 0
gene 1 10 3185 -322681 0 8106 -322681 1
gene 1 3185 934 328944 0 8107 328944 1
gene 3 3096 3206 -338253 0 8161 -338253 1
gene 3 3206 15 207165 0 8162 207165 0
gene 4 6 3236 -186957 0 8245 -186957 1
gene 4 3236 14 46287 0 8246 46287 1
gene 2 1136 3278 -306309 0 8347 -306309 1
gene 2 3278 388 -21018 0 8348 -21018 1
gene 1 758 3303 64791 0 8414 64791 1
gene 1 3303 455 800000 0 8415 800000 1
gene 3 8 2447 305295 0 8513 305295 1
gene 1 591 591 -667057 1 8588 -667057 1
gene 3 12 3403 -411438 0 8670 -411438 1
gene 1 3403 13 -99537 0 8671 -99537 1
gene 4 7 3528 800000 0 8979 800000 1
gene 4 3528 2192 -749710 0 8980 -749710 0
gene 3 3096 612 -331365 0 9082 -331365 1
gene 3 612 3611 -89283 1 9204 -89283 1
gene 3 3611 612 128436 0 9205 128436 1
gene 4 1550 3652 -74442 1 9292 -74442 1
gene 4 3652 1550 515225 0 9293 515225 1
gene 1 2280 1454 -645936 0 9594 -645936 1
gene 1 183 3816 417585 1 9727 417585 1
gene 1 3816 2783 153552 0 9728 153552 0
gene 2 238 3850 108564 1 9814 108564 1
gene 2 3850 238 -28380 0 9815 -28380 1
gene 3 646 2365 -393327 0 9895 -393327 1
gene 4 2922 2922 425700 1 10151 425700 1
gene 4 11 4020 -9945 0 10235 -9945 1
gene 4 4020 2570 647547 0 10236 647547 1
gene 2 5 4056 228144 0 10320 228144 1
gene 2 4056 238 -144897 0 10321 -144897 1
gene 2 2 4084 456894 0 10394 456894 1
gene 2 4084 13 200979 0 10395 200979 1
gene 3 1975 4114 57033 0 10472 57033 1
gene 3 4114 15 -771968 0 10473 -771968 1
gene 4 7 4165 108261 0 10605 108261 1
gene 4 4165 13 -131070 0 10606 -131070 1
gene 1 2783 2570 -207978 0 10685 -207978 0
gene 1 2783 4273 -18075 0 10874 -18075 1
gene 1 4273 183 754068 0 10875 754068 1
gene 2 2447 4305 316425 0 10952 316425 1
gene 2 4305 1350 -750363 0 10953 -750363 1
gene 4 2570 4345 -563994 0 11049 -563994 1
gene 4 4345 13 -388704 0 11050 -388704 1
gene 4 156 15 323379 0 11135 323379 1
gene 1 3065 4471 547235 0 11369 547235 1
gene 1 4471 388 -32877 0 11370 -32877 1
gene 3 2365 4502 96234 0 11439 96234 1
gene 3 4502 15 222219 0 11440 222219 1
gene 1 591 4531 490599 0 11513 490599 1
gene 1 4531 455 -692391 0 11514 -692391 1
gene 2 238 4609 30486 0 11693 30486 1
gene 2 4609 15 510789 0 11694 510789 1
gene 2 2 4649 800000 0 11787 800000 0
gene 2 4649 15 800000 0 11788 800000 1
gene 3 7 4684 -145908 0 11871 -145908 1
gene 3 4684 419 -279678 0 11872 -279678 1
gene 2 873 4718 800000 0 11956 800000 1
gene 2 4718 15 -361041 0 11957 -361041 1
gene 2 183 4752 707655 0 12043 707655 1
gene 2 4752 873 210432 0 12044 210432 1
gene 2 3 4789 111806 0 12139 111806 0
gene 2 4789 207 252489 0 12140 252489 1
gene 1 455 4889 -689345 1 12394 -689345 1
gene 1 4889 695 -601401 0 12395 -601401 1
gene 3 9 4923 14253 0 12475 14253 1
gene 3 4923 3096 -644448 0 12476 -644448 1
gene 4 2390 4959 346467 0 12563 346467 1
gene 4 4959 30 -526431 0 12564 -526431 1
gene 2 646 4114 64776 0 12746 64776 1
gene 1 873 1975 506805 0 13072 506805 1
gene 1 2783 5182 136338 0 13143 136338 1
gene 1 5182 2570 20964 0 13144 20964 1
gene 4 3528 5213 -403641 0 13231 -403641 1
gene 4 5213 2192 -42162 0 13232 -42162 1
gene 3 8 5249 -274416 0 13323 -274416 1
gene 3 5249 14 -334653 0 13324 -334653 1
gene 2 310 183 204294 0 13578 204294 1
gene 2 3 5388 800000 0 13649 800000 0
gene 2 5388 1225 126126 0 13650 126126 1
gene 4 2390 5421 13299 0 13728 13299 1
gene 4 5421 30 -179289 0 13729 -179289 1
gene 3 1454 5451 694145 0 13805 694145 1
gene 3 5451 15 -238845 0 13806 -238845 1
gene 1 5 5495 -183528 0 13911 -183528 0
gene 1 5495 1868 751182 0 13912 751182 0
gene 2 5 2390 -698562 0 13988 -698562 1
gene 1 873 5620 -389412 1 14222 -389412 1
gene 1 5620 873 -494397 0 14223 -494397 1
gene 3 1136 5653 -72279 0 14306 -72279 0
gene 3 5653 1821 771870 0 14307 771870 1
gene 2 5 5685 -155934 0 14376 -155934 1
gene 2 5685 2390 -294792 0 14377 -294792 1
gene 2 3 5721 -76833 0 14466 -76833 1
gene 2 5721 5388 114045 0 14467 114045 0
gene 4 12 5757 -646503 0 14550 -646503 1
gene 4 5757 14 270387 0 14551 270387 1
gene 2 3236 1591 103839 0 14870 103839 1
gene 2 183 4305 -195930 1 14958 -195930 1
gene 3 3206 5951 15738 0 15049 15738 0
gene 3 5951 15 -22812 0 15050 -22812 1
gene 3 4502 6039 -24156 0 15254 -24156 1
gene 3 6039 15 520155 0 15255 520155 1
gene 1 5495 6197 -223527 0 15639 -223527 1
gene 1 6197 1868 28593 0 15640 28593 0
gene 3 591 6231 -22140 0 15728 -22140 1
gene 3 6231 15 116910 0 15729 116910 1
gene 2 3 6301 -50030 0 15898 -50030 1
gene 2 6301 4789 800000 0 15899 800000 1
gene 2 2 6339 429066 0 15986 429066 1
gene 2 6339 4649 -404562 0 15987 -404562 1
gene 4 7 6380 -44298 0 16093 -44298 1
gene 4 6380 2192 -525171 0 16094 -525171 1
gene 1 5 6404 -266619 0 16156 -266619 1
gene 1 6404 5495 -593358 0 16157 -593358 1
gene 4 12 4345 7518 0 16229 7518 1
gene 2 2 6460 -30750 0 16302 -30750 1
gene 2 6460 6339 -288114 0 16303 -288114 1
gene 3 1136 6497 75963 0 16393 75963 1
gene 3 6497 5653 83040 0 16394 83040 1
gene 4 8 6528 -539552 0 16468 -539552 1
gene 4 6528 15 -534492 0 16469 -534492 1
gene 3 9 6560 -13365 0 16550 -13365 1
gene 3 6560 15 -285327 0 16551 -285327 1
gene 2 5951 4959 260164 0 16811 260164 1
gene 2 2 6687 27619 0 16868 27619 1
gene 2 6687 14 163704 0 16869 163704 1
gene 1 1821 6781 206868 0 17101 206868 1
gene 1 6781 14 284298 0 17102 284298 1
gene 1 6197 6860 394437 0 17299 394437 1
gene 1 6860 1868 -292338 0 17300 -292338 1
gene 1 3816 6969 -111008 0 17575 -111008 1
gene 1 6969 2783 -304251 0 17576 -304251 1
gene 1 2783 7028 250918 0 17712 250918 1
gene 1 7028 4273 -415605 0 17713 -415605 1
gene 4 5685 6497 -137467 0 17825 -137467 1
gene 1 183 7164 -18959 1 18083 -18959 1
gene 1 7164 2192 -20325 0 18084 -20325 1
gene 3 934 873 -209207 0 18144 -209207 1
gene 2 3236 3236 56567 1 18231 56567 1
gene 4 6969 4114 -55858 0 18387 -55858 1
gene 4 6969 7331 -261251 0 18500 -261251 1
gene 4 7331 4114 -125178 0 18501 -125178 1
gene 2 5721 7401 -130238 0 18674 -130238 1
gene 2 7401 5388 298875 0 18675 298875 1
gene 3 3206 7437 131913 0 18767 131913 1
gene 3 7437 5951 156225 0 18768 156225 1
genomeend 3


/* Organism #14 Fitness: 190.000000 Time: 0 */
/* Position #14*/
#1 x: 15 y: 35
#2 x: 71 y: 29
#3 x: 28 y: 28
#4 x: 63 y: 75
#5 x: 40 y: 68
#6 x: 78 y: 74
genomestart 14
trait 1 0.000000 32719.000000 5801.000000 0.000000 0.000000 0.000000 0.000000 90962.000000 trait 2 2.000000 0.000000 0.000000 0.000000 0.000000 0.000000 0.000000 0.000000 trait 3 0.000000 0.000000 0.000000 0.000000 52930.000000 0.000000 0.000000 0.000000 trait 4 2.000000 22224.000000 0.000000 97763.000000 0.000000 0.000000 43000.000000 0.000000 node 1 3 1 3
node 2 3 1 1
node 3 1 1 1
node 4 2 1 1
node 5 4 1 1
node 6 3 1 1
node 7 2 1 1
node 8 3 1 1
node 9 1 1 1
node 10 1 1 1
node 11 1 1 1
node 12 1 1 1
node 13 3 0 2
node 14 3 0 2
node 15 2 0 2
node 30 1 0 0
node 156 1 0 0
node 183 1 0 0
node 207 1 0 0
node 238 1 0 0
node 310 1 0 0
node 388 1 0 0
node 419 1 0 0
node 455 1 0 0
node 591 1 0 0
node 612 1 0 0
node 646 1 0 0
node 695 1 0 0
node 758 1 0 0
node 873 1 0 0
node 934 1 0 0
node 1136 1 0 0
node 1191 1 0 0
node 1225 1 0 0
node 1350 1 0 0
node 1420 1 0 0
node 1454 1 0 0
node 1488 1 0 0
node 1550 1 0 0
node 1591 1 0 0
node 1626 2 0 0
node 1821 1 0 0
node 1868 2 0 0
node 1975 1 0 0
node 2010 1 0 0
node 2051 1 0 0
node 2192 1 0 0
node 2223 1 0 0
node 2280 1 0 0
node 2365 1 0 0
node 2390 1 0 0
node 2447 1 0 0
node 2570 1 0 0
node 2753 1 0 0
node 2783 1 0 0
node 2922 1 0 0
node 3065 1 0 0
node 3096 1 0 0
node 3185 1 0 0
node 3206 1 0 0
node 3236 1 0 0
node 3278 1 0 0
node 3303 1 0 0
node 3403 1 0 0
node 3528 1 0 0
node 3611 1 0 0
node 3652 1 0 0
node 3816 3 0 0
node 3850 1 0 0
node 4020 1 0 0
node 4056 1 0 0
node 4084 1 0 0
node 4114 1 0 0
node 4165 1 0 0
node 4273 1 0 0
node 4305 1 0 0
node 4345 1 0 0
node 4471 1 0 0
node 4502 1 0 0
node 4531 1 0 0
node 4609 1 0 0
node 4649 1 0 0
node 4684 1 0 0
node 4718 1 0 0
node 4752 1 0 0
node 4789 1 0 0
node 4889 1 0 0
node 4923 1 0 0
node 4959 1 0 0
node 5182 1 0 0
node 5213 1 0 0
node 5249 1 0 0
node 5388 1 0 0
node 5421 1 0 0
node 5451 1 0 0
node 5495 1 0 0
node 5620 1 0 0
node 5653 1 0 0
node 5685 1 0 0
node 5721 1 0 0
node 5757 1 0 0
node 5951 1 0 0
node 6039 1 0 0
node 6197 1 0 0
node 6231 1 0 0
node 6301 1 0 0
node 6339 1 0 0
node 6380 1 0 0
node 6404 1 0 0
node 6460 1 0 0
node 6497 1 0 0
node 6528 1 0 0
node 6560 1 0 0
node 6687 1 0 0
node 6781 1 0 0
node 6860 1 0 0
node 6969 1 0 0
node 7006 1 0 0
node 7064 1 0 0
node 7147 1 0 0
node 7214 1 0 0
node 7382 1 0 0
node 7421 1 0 0
node 7454 1 0 0
gene 2 1 13 -348654 0 1 -348654 1
gene 2 2 13 -98649 0 2 -98649 0
gene 2 3 13 -15948 0 3 -15948 1
gene 2 4 13 276885 0 4 276885 1
gene 1 5 13 -218589 0 5 -218589 0
gene 3 6 13 433844 0 6 433844 1
gene 4 7 13 374567 0 7 374567 0
gene 1 8 13 161724 0 8 161724 1
gene 3 9 13 -281424 0 9 -281424 0
gene 4 10 13 -427183 0 10 -427183 1
gene 4 11 13 -50670 0 11 -50670 1
gene 3 12 13 -151488 0 12 -151488 0
gene 1 1 14 -560952 0 13 -560952 1
gene 2 2 14 800000 0 14 800000 0
gene 1 3 14 -800000 0 15 -800000 1
gene 3 4 14 485403 0 16 485403 1
gene 2 5 14 119532 0 17 119532 1
gene 4 6 14 -104253 0 18 -104253 1
gene 3 7 14 -156520 0 19 -156520 0
gene 3 8 14 435750 0 20 435750 1
gene 1 9 14 800000 0 21 800000 1
gene 1 10 14 -222630 0 22 -222630 1
gene 3 11 14 286533 0 23 286533 1
gene 4 12 14 -20232 0 24 -20232 0
gene 1 1 15 -211542 0 25 -211542 1
gene 2 2 15 -167700 0 26 -167700 1
gene 2 3 15 -95844 0 27 -95844 1
gene 3 4 15 -696058 0 28 -696058 1
gene 2 5 15 329742 0 29 329742 1
gene 2 6 15 -545988 0 30 -545988 1
gene 3 7 15 114189 0 31 114189 1
gene 4 8 15 -413274 0 32 -413274 0
gene 3 9 15 221331 0 33 221331 1
gene 1 10 15 240102 0 34 240102 1
gene 2 11 15 339776 0 35 339776 1
gene 2 12 15 -304068 0 36 -304068 1
gene 2 2 30 -276390 0 68 -276390 1
gene 2 30 14 758218 0 69 758218 1
gene 4 12 30 599123 0 128 599123 1
gene 4 13 14 616665 0 154 616665 1
gene 1 5 156 488244 0 401 488244 1
gene 1 156 13 -800000 0 402 -800000 0
gene 2 11 183 129261 0 483 129261 1
gene 2 183 15 66018 0 484 66018 1
gene 2 3 207 -55968 0 547 -55968 1
gene 2 207 13 555303 0 548 555303 1
gene 2 5 238 800000 0 628 800000 0
gene 2 238 15 -593508 0 629 -593508 0
gene 3 10 183 -24504 0 685 -24504 0
gene 3 9 207 437871 0 756 437871 1
gene 4 12 310 416179 0 820 416179 1
gene 4 310 30 -169869 0 821 -169869 0
gene 3 10 388 -800000 0 1034 -800000 0
gene 3 388 183 254622 0 1035 254622 1
gene 3 7 419 -117261 0 1104 -117261 0
gene 3 419 15 -187998 0 1105 -187998 1
gene 1 9 455 67428 0 1202 67428 1
gene 1 455 14 686742 0 1203 686742 1
gene 1 455 455 -800000 1 1275 -800000 1
gene 3 419 591 180688 0 1555 180688 1
gene 3 591 15 214362 0 1556 214362 0
gene 3 7 612 -42462 0 1605 -42462 0
gene 3 612 14 -85431 0 1606 -85431 0
gene 3 4 646 -119862 0 1691 -119862 1
gene 3 646 14 -300267 0 1692 -300267 1
gene 1 6 388 383190 0 1763 383190 1
gene 1 455 695 60939 1 1828 60939 1
gene 1 695 455 -266286 0 1829 -266286 0
gene 1 695 758 -148566 0 1982 -148566 1
gene 1 758 455 -533452 0 1983 -533452 0
gene 2 183 873 -342231 0 2264 -342231 1
gene 2 873 15 50889 0 2265 50889 1
gene 1 310 388 447451 0 2353 447451 1
gene 1 10 934 -90741 0 2417 -90741 0
gene 1 934 14 227874 0 2418 227874 1
gene 2 9 388 -621603 0 2756 -621603 1
gene 2 9 1136 627309 0 2936 627309 1
gene 2 1136 388 73047 0 2937 73047 1
gene 1 934 1191 152531 0 3070 152531 1
gene 1 1191 14 -397845 0 3071 -397845 1
gene 2 3 1225 162312 0 3155 162312 1
gene 2 1225 207 784683 0 3156 784683 1
gene 1 873 873 -88893 1 3296 -88893 0
gene 1 591 455 351162 0 3392 351162 0
gene 2 1136 1350 155526 0 3472 155526 1
gene 2 1350 388 -161688 0 3473 -161688 1
gene 2 238 238 -98943 1 3569 -98943 1
gene 3 10 1420 609501 0 3648 609501 1
gene 4 1420 388 -321858 0 3649 -321858 0
gene 3 4 1454 44007 0 3731 44007 1
gene 3 1454 15 -272415 0 3732 -272415 1
gene 3 612 1488 -316512 0 3812 -316512 1
gene 3 1488 14 -641538 0 3813 -641538 1
gene 3 388 1550 -739329 0 3976 -739329 1
gene 3 1550 183 -296295 0 3977 -296295 1
gene 3 1420 1591 400320 0 4076 400320 1
gene 3 1591 388 -241566 0 4077 -241566 1
gene 4 310 1626 289026 0 4165 289026 1
gene 4 1626 30 -177831 0 4166 -177831 0
gene 4 1550 419 -173714 0 4260 -173714 1
gene 1 455 1821 -14147 0 4650 -14147 1
gene 1 1821 14 517536 0 4651 517536 0
gene 1 5 1868 281263 0 4778 281263 0
gene 1 1868 156 91884 0 4779 91884 0
gene 1 183 183 101624 1 4880 101624 1
gene 4 1550 1550 -800000 1 4949 -800000 1
gene 3 1454 1975 -243793 0 5033 -243793 1
gene 3 1975 15 -293247 0 5034 -293247 0
gene 1 156 2010 -272484 0 5118 -272484 1
gene 1 2010 13 273240 0 5119 273240 1
gene 3 1550 2051 -119131 0 5219 -119131 1
gene 3 2051 183 -353406 0 5220 -353406 1
gene 3 612 612 -800000 1 5310 -800000 1
gene 1 183 2192 692052 1 5568 692052 1
gene 1 2192 183 472499 0 5569 472499 0
gene 1 310 2223 -502743 0 5641 -502743 1
gene 1 2223 388 -150753 0 5642 -150753 1
gene 3 419 2280 -93240 0 5793 -93240 1
gene 3 2280 591 66898 0 5794 66898 1
gene 3 591 2365 -82794 0 6011 -82794 1
gene 3 2365 15 426171 0 6012 426171 0
gene 4 1626 2390 123465 0 6075 123465 1
gene 4 2390 30 800000 0 6076 800000 0
gene 2 1136 2447 -60690 0 6225 -60690 1
gene 2 2447 1350 -140643 0 6226 -140643 0
gene 4 11 2570 -30537 0 6534 -30537 0
gene 4 2570 13 169310 0 6535 169310 0
gene 3 7 2753 30501 0 6991 30501 1
gene 3 2753 612 400906 0 6992 400906 1
gene 1 183 2783 -193035 1 7072 -193035 1
gene 1 2783 183 -317245 0 7073 -317245 1
gene 1 758 1591 -800000 0 7387 -800000 1
gene 1 2192 2922 -556068 0 7438 -556068 0
gene 1 2922 183 38532 0 7439 38532 1
gene 2 1454 1454 -49455 1 7652 -49455 1
gene 4 7 2192 354528 0 7731 354528 1
gene 1 2223 3065 -247137 0 7809 -247137 1
gene 1 3065 388 55089 0 7810 55089 0
gene 3 9 3096 136176 0 7884 136176 0
gene 3 3096 15 75164 0 7885 75164 0
gene 3 1136 1821 550553 0 7970 550553 0
gene 1 10 3185 52290 0 8106 52290 1
gene 1 3185 934 202722 0 8107 202722 1
gene 3 3096 3206 -334545 0 8161 -334545 1
gene 3 3206 15 -195153 0 8162 -195153 1
gene 4 6 3236 -178041 0 8245 -178041 1
gene 4 3236 14 -217074 0 8246 -217074 1
gene 2 1136 3278 544633 0 8347 544633 1
gene 2 3278 388 -31920 0 8348 -31920 1
gene 1 758 3303 155367 0 8414 155367 1
gene 1 3303 455 220623 0 8415 220623 1
gene 3 8 2447 -100446 0 8513 -100446 1
gene 1 591 591 -523901 1 8588 -523901 1
gene 3 12 3403 44922 0 8670 44922 1
gene 1 3403 13 127707 0 8671 127707 1
gene 4 7 3528 -265503 0 8979 -265503 1
gene 4 3528 2192 -66918 0 8980 -66918 0
gene 3 3096 612 616149 0 9082 616149 1
gene 3 612 3611 -353745 1 9204 -353745 1
gene 3 3611 612 -86058 0 9205 -86058 1
gene 4 1550 3652 -103797 1 9292 -103797 1
gene 4 3652 1550 -547906 0 9293 -547906 1
gene 1 2280 1454 -516741 0 9594 -516741 1
gene 1 183 3816 -25008 1 9727 -25008 1
gene 1 3816 2783 -131166 0 9728 -131166 0
gene 2 238 3850 11496 1 9814 11496 1
gene 2 3850 238 148515 0 9815 148515 1
gene 3 646 2365 98094 0 9895 98094 1
gene 4 2922 2922 -283944 1 10151 -283944 1
gene 4 11 4020 800000 0 10235 800000 1
gene 4 4020 2570 -631860 0 10236 -631860 1
gene 2 5 4056 -177237 0 10320 -177237 0
gene 2 4056 238 272004 0 10321 272004 1
gene 2 2 4084 453876 0 10394 453876 0
gene 2 4084 13 359640 0 10395 359640 1
gene 3 1975 4114 542440 0 10472 542440 1
gene 3 4114 15 -800000 0 10473 -800000 1
gene 4 7 4165 698700 0 10605 698700 0
gene 4 4165 13 298365 0 10606 298365 1
gene 1 2783 2570 -1506 0 10685 -1506 1
gene 1 2783 4273 336303 0 10874 336303 1
gene 1 4273 183 156831 0 10875 156831 1
gene 2 2447 4305 34677 0 10952 34677 1
gene 2 4305 1350 -312717 0 10953 -312717 1
gene 4 2570 4345 254253 0 11049 254253 1
gene 4 4345 13 -269436 0 11050 -269436 1
gene 4 156 15 134403 0 11135 134403 1
gene 1 3065 4471 694689 0 11369 694689 1
gene 1 4471 388 245940 0 11370 245940 1
gene 3 2365 4502 121983 0 11439 121983 1
gene 3 4502 15 46776 0 11440 46776 0
gene 1 591 4531 -482658 0 11513 -482658 1
gene 1 4531 455 -357036 0 11514 -357036 1
gene 2 238 4609 183186 0 11693 183186 1
gene 2 4609 15 800000 0 11694 800000 1
gene 2 2 4649 786975 0 11787 786975 0
gene 2 4649 15 280431 0 11788 280431 1
gene 3 7 4684 318146 0 11871 318146 1
gene 3 4684 419 111634 0 11872 111634 1
gene 2 873 4718 411606 0 11956 411606 1
gene 2 4718 15 -271209 0 11957 -271209 0
gene 2 183 4752 486507 0 12043 486507 1
gene 2 4752 873 44439 0 12044 44439 1
gene 2 3 4789 -85218 0 12139 -85218 1
gene 2 4789 207 47955 0 12140 47955 1
gene 1 455 4889 -19560 1 12394 -19560 1
gene 1 4889 695 644001 0 12395 644001 1
gene 3 9 4923 759291 0 12475 759291 1
gene 3 4923 3096 37386 0 12476 37386 1
gene 4 2390 4959 62553 0 12563 62553 1
gene 4 4959 30 213453 0 12564 213453 1
gene 2 646 4114 37224 0 12746 37224 1
gene 1 873 1975 -18651 0 13072 -18651 1
gene 1 2783 5182 -398652 0 13143 -398652 1
gene 1 5182 2570 -789930 0 13144 -789930 1
gene 4 3528 5213 -60750 0 13231 -60750 1
gene 4 5213 2192 319302 0 13232 319302 1
gene 3 8 5249 -356898 0 13323 -356898 1
gene 3 5249 14 -482940 0 13324 -482940 1
gene 2 310 183 172872 0 13578 172872 1
gene 2 3 5388 -197856 0 13649 -197856 0
gene 2 5388 1225 227151 0 13650 227151 1
gene 4 2390 5421 198660 0 13728 198660 1
gene 4 5421 30 494568 0 13729 494568 1
gene 3 1454 5451 800000 0 13805 800000 1
gene 3 5451 15 94272 0 13806 94272 1
gene 1 5 5495 83289 0 13911 83289 0
gene 1 5495 1868 288546 0 13912 288546 0
gene 2 5 2390 -51924 0 13988 -51924 0
gene 1 873 5620 397842 1 14222 397842 1
gene 1 5620 873 355065 0 14223 355065 0
gene 3 1136 5653 -471234 0 14306 -471234 0
gene 3 5653 1821 214872 0 14307 214872 1
gene 2 5 5685 -286302 0 14376 -286302 1
gene 2 5685 2390 402075 0 14377 402075 1
gene 2 3 5721 533979 0 14466 533979 1
gene 2 5721 5388 158667 0 14467 158667 1
gene 4 12 5757 378354 0 14550 378354 1
gene 4 5757 14 -98514 0 14551 -98514 1
gene 2 3236 1591 -22311 0 14870 -22311 1
gene 2 183 4305 -800000 1 14958 -800000 1
gene 3 3206 5951 -84042 0 15049 -84042 1
gene 3 5951 15 265074 0 15050 265074 1
gene 3 4502 6039 132330 0 15254 132330 1
gene 3 6039 15 -6489 0 15255 -6489 1
gene 1 5495 6197 -132600 0 15639 -132600 1
gene 1 6197 1868 277581 0 15640 277581 0
gene 3 591 6231 372255 0 15728 372255 0
gene 3 6231 15 228474 0 15729 228474 1
gene 2 3 6301 -21663 0 15898 -21663 1
gene 2 6301 4789 453918 0 15899 453918 1
gene 2 2 6339 -156627 0 15986 -156627 0
gene 2 6339 4649 29781 0 15987 29781 0
gene 4 7 6380 164637 0 16093 164637 1
gene 4 6380 2192 -62532 0 16094 -62532 1
gene 1 5 6404 -108141 0 16156 -108141 1
gene 1 6404 5495 -552720 0 16157 -552720 1
gene 4 12 4345 165126 0 16229 165126 0
gene 2 2 6460 243165 0 16302 243165 1
gene 2 6460 6339 337024 0 16303 337024 1
gene 3 1136 6497 -20064 0 16393 -20064 1
gene 3 6497 5653 -185130 0 16394 -185130 1
gene 4 8 6528 -206279 0 16468 -206279 1
gene 4 6528 15 -50400 0 16469 -50400 1
gene 3 9 6560 -20505 0 16550 -20505 0
gene 3 6560 15 133401 0 16551 133401 1
gene 2 5951 4959 36198 0 16811 36198 1
gene 2 2 6687 -81366 0 16868 -81366 1
gene 2 6687 14 233628 0 16869 233628 1
gene 1 1821 6781 -7344 0 17101 -7344 1
gene 1 6781 14 -436557 0 17102 -436557 1
gene 1 6197 6860 -125315 0 17299 -125315 1
gene 1 6860 1868 -464526 0 17300 -464526 1
gene 1 3816 6969 121245 0 17575 121245 1
gene 1 6969 2783 -288543 0 17576 -288543 1
gene 2 5 7006 365419 0 17662 365419 1
gene 2 7006 4056 -332553 0 17663 -332553 1
gene 4 2051 2365 156404 0 17737 156404 1
gene 3 9 7064 -217259 0 17812 -217259 1
gene 3 7064 6560 -230307 0 17813 -230307 1
gene 3 2922 3403 -187809 0 17895 -187809 1
gene 1 5620 7147 -95984 0 18035 -95984 1
gene 1 7147 873 399792 0 18036 399792 1
gene 4 12 7214 236596 0 18210 236596 1
gene 4 7214 4345 581082 0 18211 581082 1
gene 4 3403 3403 -87909 1 18545 -87909 1
gene 3 591 7382 1 0 18627 0 1
gene 3 7382 6231 372255 0 18628 0 1
gene 2 6339 7421 1 0 18721 0 1
gene 2 7421 4649 29781 0 18722 0 1
gene 4 7 7454 1 0 18806 0 1
gene 4 7454 4165 698700 0 18807 0 1
gene 4 7006 2783 -20838 0 18882 -20838 1
genomeend 14


/* Organism #32 Fitness: 310.000000 Time: 0 */
/* Position #32*/
#1 x: 26 y: 21
#2 x: 19 y: 37
#3 x: 19 y: 29
#4 x: 60 y: 82
#5 x: 34 y: 68
#6 x: 30 y: 79
genomestart 32
trait 1 0.000000 32719.000000 5801.000000 0.000000 0.000000 0.000000 0.000000 90962.000000 trait 2 2.000000 0.000000 0.000000 0.000000 0.000000 0.000000 0.000000 0.000000 trait 3 15639.000000 0.000000 89688.000000 99782.000000 52930.000000 92181.000000 0.000000 0.000000 trait 4 2.000000 93794.000000 0.000000 97763.000000 0.000000 0.000000 43000.000000 0.000000 node 1 3 1 3
node 2 3 1 1
node 3 1 1 1
node 4 2 1 1
node 5 4 1 1
node 6 3 1 1
node 7 2 1 1
node 8 3 1 1
node 9 1 1 1
node 10 1 1 1
node 11 1 1 1
node 12 1 1 1
node 13 3 0 2
node 14 3 0 2
node 15 2 0 2
node 30 1 0 0
node 156 1 0 0
node 183 1 0 0
node 207 1 0 0
node 238 1 0 0
node 310 1 0 0
node 388 1 0 0
node 419 1 0 0
node 455 1 0 0
node 591 1 0 0
node 612 1 0 0
node 646 1 0 0
node 695 1 0 0
node 758 1 0 0
node 873 1 0 0
node 934 1 0 0
node 1136 1 0 0
node 1191 1 0 0
node 1225 1 0 0
node 1350 1 0 0
node 1420 1 0 0
node 1454 1 0 0
node 1488 1 0 0
node 1550 1 0 0
node 1591 1 0 0
node 1626 2 0 0
node 1821 1 0 0
node 1868 2 0 0
node 1975 1 0 0
node 2010 1 0 0
node 2051 1 0 0
node 2192 1 0 0
node 2223 1 0 0
node 2280 1 0 0
node 2365 1 0 0
node 2390 1 0 0
node 2447 1 0 0
node 2570 1 0 0
node 2753 1 0 0
node 2783 1 0 0
node 2922 1 0 0
node 3065 1 0 0
node 3096 1 0 0
node 3185 1 0 0
node 3206 1 0 0
node 3236 1 0 0
node 3278 1 0 0
node 3303 1 0 0
node 3403 1 0 0
node 3528 1 0 0
node 3611 1 0 0
node 3652 1 0 0
node 3816 3 0 0
node 3850 1 0 0
node 4020 1 0 0
node 4056 1 0 0
node 4084 1 0 0
node 4114 1 0 0
node 4165 1 0 0
node 4273 1 0 0
node 4305 1 0 0
node 4345 1 0 0
node 4471 1 0 0
node 4502 1 0 0
node 4531 1 0 0
node 4609 1 0 0
node 4649 1 0 0
node 4684 1 0 0
node 4718 1 0 0
node 4752 1 0 0
node 4789 1 0 0
node 4889 1 0 0
node 4923 1 0 0
node 4959 1 0 0
node 5182 1 0 0
node 5213 1 0 0
node 5249 1 0 0
node 5388 1 0 0
node 5421 1 0 0
node 5451 1 0 0
node 5495 1 0 0
node 5620 1 0 0
node 5653 1 0 0
node 5685 1 0 0
node 5721 1 0 0
node 5757 1 0 0
node 5951 1 0 0
node 6039 1 0 0
node 6197 1 0 0
node 6231 1 0 0
node 6301 1 0 0
node 6339 1 0 0
node 6380 1 0 0
node 6404 1 0 0
node 6460 1 0 0
node 6497 1 0 0
node 6528 1 0 0
node 6560 1 0 0
node 6687 1 0 0
node 6728 1 0 0
node 6764 1 0 0
node 6902 1 0 0
node 7019 1 0 0
node 7104 1 0 0
node 7129 1 0 0
node 7254 1 0 0
node 7323 1 0 0
node 7362 1 0 0
node 7432 1 0 0
node 7474 1 0 0
gene 2 1 13 94458 0 1 94458 1
gene 2 2 13 -229962 0 2 -229962 0
gene 2 3 13 81781 0 3 81781 1
gene 2 4 13 709841 0 4 709841 1
gene 1 5 13 -441624 0 5 -441624 0
gene 3 6 13 -410620 0 6 -410620 1
gene 4 7 13 -796908 0 7 -796908 0
gene 1 8 13 301066 0 8 301066 1
gene 3 9 13 -296955 0 9 -296955 0
gene 4 10 13 -22690 0 10 -22690 1
gene 4 11 13 216939 0 11 216939 0
gene 3 12 13 -131847 0 12 -131847 0
gene 1 1 14 -33937 0 13 -33937 1
gene 2 2 14 557207 0 14 557207 0
gene 1 3 14 -456319 0 15 -456319 1
gene 3 4 14 -114213 0 16 -114213 1
gene 2 5 14 -290916 0 17 -290916 1
gene 4 6 14 -76476 0 18 -76476 1
gene 3 7 14 -47794 0 19 -47794 0
gene 3 8 14 148362 0 20 148362 1
gene 1 9 14 800000 0 21 800000 1
gene 1 10 14 -158826 0 22 -158826 1
gene 3 11 14 702072 0 23 702072 1
gene 4 12 14 -8493 0 24 -8493 0
gene 1 1 15 -406057 0 25 -406057 1
gene 2 2 15 -407355 0 26 -407355 1
gene 2 3 15 -422202 0 27 -422202 1
gene 3 4 15 340035 0 28 340035 0
gene 2 5 15 31590 0 29 31590 1
gene 2 6 15 552359 0 30 552359 1
gene 3 7 15 -291423 0 31 -291423 1
gene 4 8 15 -766434 0 32 -766434 0
gene 3 9 15 107604 0 33 107604 1
gene 1 10 15 800000 0 34 800000 1
gene 2 11 15 484992 0 35 484992 1
gene 2 12 15 -279899 0 36 -279899 1
gene 2 2 30 -364320 0 68 -364320 1
gene 2 30 14 364127 0 69 364127 1
gene 4 12 30 -389596 0 128 -389596 0
gene 4 13 14 -458574 0 154 -458574 1
gene 1 5 156 710586 0 401 710586 1
gene 1 156 13 -190608 0 402 -190608 0
gene 2 11 183 -239875 0 483 -239875 1
gene 2 183 15 454830 0 484 454830 1
gene 2 3 207 147984 0 547 147984 1
gene 2 207 13 39819 0 548 39819 1
gene 2 5 238 138459 0 628 138459 1
gene 2 238 15 -487263 0 629 -487263 0
gene 3 10 183 -141873 0 685 -141873 0
gene 3 9 207 44005 0 756 44005 1
gene 4 12 310 630992 0 820 630992 1
gene 4 310 30 -108957 0 821 -108957 1
gene 3 10 388 -38797 0 1034 -38797 1
gene 3 388 183 391727 0 1035 391727 1
gene 3 7 419 603576 0 1104 603576 0
gene 3 419 15 357834 0 1105 357834 1
gene 1 9 455 -148374 0 1202 -148374 1
gene 1 455 14 202185 0 1203 202185 1
gene 1 455 455 -670781 1 1275 -670781 1
gene 3 419 591 25066 0 1555 25066 1
gene 3 591 15 800000 0 1556 800000 0
gene 3 7 612 -145455 0 1605 -145455 0
gene 3 612 14 -308216 0 1606 -308216 0
gene 3 4 646 154008 0 1691 154008 1
gene 3 646 14 -178800 0 1692 -178800 1
gene 4 6 388 -109005 0 1763 -109005 1
gene 1 455 695 127467 1 1828 127467 1
gene 1 695 455 -800000 0 1829 -800000 0
gene 1 695 758 758871 0 1982 758871 1
gene 1 758 455 -183187 0 1983 -183187 0
gene 2 183 873 362360 0 2264 362360 1
gene 2 873 15 -232476 0 2265 -232476 1
gene 1 310 388 98511 0 2353 98511 1
gene 1 10 934 -770714 0 2417 -770714 0
gene 1 934 14 -439632 0 2418 -439632 1
gene 2 9 388 91758 0 2756 91758 1
gene 2 9 1136 252945 0 2936 252945 1
gene 2 1136 388 516756 0 2937 516756 1
gene 1 934 1191 -312202 0 3070 -312202 1
gene 1 1191 14 800000 0 3071 800000 1
gene 2 3 1225 122088 0 3155 122088 1
gene 2 1225 207 42684 0 3156 42684 1
gene 1 873 873 293267 1 3296 293267 1
gene 1 591 455 506416 0 3392 506416 1
gene 2 1136 1350 30673 0 3472 30673 1
gene 2 1350 388 -482460 0 3473 -482460 1
gene 2 238 238 675305 1 3569 675305 0
gene 3 10 1420 71886 0 3648 71886 1
gene 3 1420 388 -526276 0 3649 -526276 0
gene 3 4 1454 17544 0 3731 17544 1
gene 3 1454 15 287868 0 3732 287868 1
gene 3 612 1488 -530355 0 3812 -530355 1
gene 3 1488 14 301056 0 3813 301056 1
gene 3 388 1550 -391764 0 3976 -391764 1
gene 3 1550 183 440841 0 3977 440841 1
gene 3 1420 1591 411546 0 4076 411546 1
gene 3 1591 388 -295710 0 4077 -295710 1
gene 4 310 1626 -132504 0 4165 -132504 1
gene 4 1626 30 22523 0 4166 22523 1
gene 4 1550 419 -636002 0 4260 -636002 1
gene 1 455 1821 -73212 0 4650 -73212 1
gene 1 1821 14 776801 0 4651 776801 1
gene 1 5 1868 -76433 0 4778 -76433 0
gene 1 1868 156 361926 0 4779 361926 1
gene 1 183 183 -300331 1 4880 -300331 1
gene 4 1550 1550 310343 1 4949 310343 1
gene 3 1454 1975 -177934 0 5033 -177934 1
gene 3 1975 15 -800000 0 5034 -800000 1
gene 1 156 2010 331851 0 5118 331851 1
gene 1 2010 13 431595 0 5119 431595 1
gene 3 1550 2051 -533762 0 5219 -533762 1
gene 3 2051 183 -207599 0 5220 -207599 0
gene 3 612 612 15747 1 5310 15747 1
gene 1 183 2192 730340 1 5568 730340 1
gene 1 2192 183 -607240 0 5569 -607240 1
gene 1 310 2223 -463791 0 5641 -463791 1
gene 1 2223 388 334710 0 5642 334710 1
gene 3 419 2280 556836 0 5793 556836 1
gene 3 2280 591 61122 0 5794 61122 1
gene 3 591 2365 -531318 0 6011 -531318 1
gene 3 2365 15 348120 0 6012 348120 1
gene 4 1626 2390 453447 0 6075 453447 1
gene 4 2390 30 275442 0 6076 275442 1
gene 2 1136 2447 -202279 0 6225 -202279 1
gene 2 2447 1350 -353604 0 6226 -353604 1
gene 4 11 2570 -545571 0 6534 -545571 0
gene 4 2570 13 -110766 0 6535 -110766 0
gene 3 7 2753 20445 0 6991 20445 1
gene 3 2753 612 413751 0 6992 413751 1
gene 1 183 2783 -384315 1 7072 -384315 1
gene 1 2783 183 -750047 0 7073 -750047 1
gene 1 758 1591 445658 0 7387 445658 1
gene 1 2192 2922 768113 0 7438 768113 0
gene 1 2922 183 40559 0 7439 40559 1
gene 2 1454 1454 -406740 1 7652 -406740 1
gene 4 7 2192 401430 0 7731 401430 0
gene 1 2223 3065 -61113 0 7809 -61113 1
gene 1 3065 388 -611832 0 7810 -611832 1
gene 3 9 3096 204275 0 7884 204275 0
gene 3 3096 15 483390 0 7885 483390 0
gene 3 1136 1821 349011 0 7970 349011 0
gene 1 10 3185 -604589 0 8106 -604589 1
gene 1 3185 934 -96120 0 8107 -96120 1
gene 3 3096 3206 -167145 0 8161 -167145 1
gene 3 3206 15 226354 0 8162 226354 0
gene 4 6 3236 -173085 0 8245 -173085 1
gene 4 3236 14 -800000 0 8246 -800000 1
gene 2 1136 3278 58293 0 8347 58293 0
gene 2 3278 388 499931 0 8348 499931 1
gene 1 758 3303 -261159 0 8414 -261159 0
gene 1 3303 455 702048 0 8415 702048 1
gene 3 8 2447 118572 0 8513 118572 1
gene 1 591 591 -800000 1 8588 -800000 1
gene 3 12 3403 136344 0 8670 136344 1
gene 1 3403 13 216192 0 8671 216192 1
gene 4 7 3528 -632442 0 8979 -632442 1
gene 4 3528 2192 -800000 0 8980 -800000 0
gene 3 3096 612 -216958 0 9082 -216958 1
gene 3 612 3611 363273 1 9204 363273 1
gene 3 3611 612 182097 0 9205 182097 1
gene 4 1550 3652 315228 1 9292 315228 1
gene 4 3652 1550 -26299 0 9293 -26299 1
gene 1 2280 1454 377094 0 9594 377094 1
gene 1 183 3816 358044 1 9727 358044 1
gene 1 3816 2783 106044 0 9728 106044 1
gene 2 238 3850 -282336 1 9814 -282336 1
gene 2 3850 238 -323937 0 9815 -323937 1
gene 3 646 2365 -734471 0 9895 -734471 1
gene 4 2922 2922 -302518 1 10151 -302518 1
gene 4 11 4020 -14469 0 10235 -14469 1
gene 4 4020 2570 543984 0 10236 543984 1
gene 2 5 4056 -649812 0 10320 -649812 0
gene 2 4056 238 352362 0 10321 352362 1
gene 2 2 4084 -233259 0 10394 -233259 0
gene 2 4084 13 -29304 0 10395 -29304 1
gene 3 1975 4114 368502 0 10472 368502 1
gene 3 4114 15 133311 0 10473 133311 1
gene 4 7 4165 137556 0 10605 137556 1
gene 4 4165 13 -800000 0 10606 -800000 1
gene 1 2783 2570 501618 0 10685 501618 0
gene 1 2783 4273 -800000 0 10874 -800000 1
gene 1 4273 183 59721 0 10875 59721 1
gene 2 2447 4305 -82152 0 10952 -82152 1
gene 2 4305 1350 385407 0 10953 385407 1
gene 4 2570 4345 -110691 0 11049 -110691 1
gene 4 4345 13 -434075 0 11050 -434075 1
gene 4 156 15 -36462 0 11135 -36462 1
gene 1 3065 4471 800000 0 11369 800000 1
gene 1 4471 388 -390816 0 11370 -390816 1
gene 3 2365 4502 -279605 0 11439 -279605 1
gene 3 4502 15 35241 0 11440 35241 0
gene 1 591 4531 -468276 0 11513 -468276 1
gene 1 4531 455 285216 0 11514 285216 1
gene 2 238 4609 -498870 0 11693 -498870 1
gene 2 4609 15 751857 0 11694 751857 1
gene 2 2 4649 461769 0 11787 461769 0
gene 2 4649 15 -359472 0 11788 -359472 1
gene 3 7 4684 59916 0 11871 59916 1
gene 3 4684 419 279121 0 11872 279121 1
gene 2 873 4718 450876 0 11956 450876 1
gene 2 4718 15 -325953 0 11957 -325953 0
gene 2 183 4752 -529080 0 12043 -529080 1
gene 2 4752 873 154356 0 12044 154356 1
gene 2 3 4789 54416 0 12139 54416 1
gene 2 4789 207 -541536 0 12140 -541536 0
gene 1 455 4889 -852 1 12394 -852 1
gene 1 4889 695 -100629 0 12395 -100629 0
gene 3 9 4923 -385878 0 12475 -385878 1
gene 3 4923 3096 -86505 0 12476 -86505 1
gene 4 2390 4959 171660 0 12563 171660 1
gene 4 4959 30 20250 0 12564 20250 1
gene 2 646 4114 -286119 0 12746 -286119 1
gene 1 873 1975 60198 0 13072 60198 1
gene 1 2783 5182 347982 0 13143 347982 1
gene 1 5182 2570 58389 0 13144 58389 1
gene 4 3528 5213 541278 0 13231 541278 1
gene 4 5213 2192 -225477 0 13232 -225477 1
gene 3 8 5249 86247 0 13323 86247 1
gene 3 5249 14 -151242 0 13324 -151242 1
gene 2 310 183 62814 0 13578 62814 1
gene 2 3 5388 -800000 0 13649 -800000 0
gene 2 5388 1225 -475437 0 13650 -475437 1
gene 4 2390 5421 -223191 0 13728 -223191 1
gene 4 5421 30 152211 0 13729 152211 1
gene 3 1454 5451 374736 0 13805 374736 1
gene 3 5451 15 -583737 0 13806 -583737 1
gene 1 5 5495 -61161 0 13911 -61161 0
gene 1 5495 1868 -494565 0 13912 -494565 0
gene 2 5 2390 237984 0 13988 237984 1
gene 1 873 5620 -118671 1 14222 -118671 1
gene 1 5620 873 92166 0 14223 92166 1
gene 3 1136 5653 -30144 0 14306 -30144 0
gene 3 5653 1821 -208527 0 14307 -208527 1
gene 2 5 5685 517503 0 14376 517503 1
gene 2 5685 2390 -76491 0 14377 -76491 1
gene 2 3 5721 71754 0 14466 71754 1
gene 2 5721 5388 -174999 0 14467 -174999 1
gene 4 12 5757 214569 0 14550 214569 1
gene 4 5757 14 -286845 0 14551 -286845 1
gene 2 3236 1591 39024 0 14870 39024 1
gene 2 183 4305 -700734 1 14958 -700734 1
gene 3 3206 5951 -28959 0 15049 -28959 1
gene 3 5951 15 -84660 0 15050 -84660 1
gene 3 4502 6039 88515 0 15254 88515 1
gene 3 6039 15 411132 0 15255 411132 1
gene 1 5495 6197 224679 0 15639 224679 0
gene 1 6197 1868 -262584 0 15640 -262584 1
gene 3 591 6231 -294303 0 15728 -294303 1
gene 3 6231 15 233883 0 15729 233883 1
gene 2 3 6301 -288294 0 15898 -288294 1
gene 2 6301 4789 200130 0 15899 200130 1
gene 2 2 6339 413826 0 15986 413826 1
gene 2 6339 4649 263142 0 15987 263142 1
gene 4 7 6380 183876 0 16093 183876 1
gene 4 6380 2192 49507 0 16094 49507 1
gene 1 5 6404 129378 0 16156 129378 1
gene 1 6404 5495 -68214 0 16157 -68214 1
gene 4 12 4345 191748 0 16229 191748 1
gene 2 2 6460 261723 0 16302 261723 1
gene 2 6460 6339 161808 0 16303 161808 1
gene 3 1136 6497 427449 0 16393 427449 1
gene 3 6497 5653 -221562 0 16394 -221562 1
gene 4 8 6528 -48773 0 16468 -48773 1
gene 4 6528 15 361863 0 16469 361863 1
gene 3 9 6560 27741 0 16550 27741 1
gene 3 6560 15 -82101 0 16551 -82101 1
gene 2 5951 4959 -68612 0 16811 -68612 1
gene 2 2 6687 120381 0 16868 120381 1
gene 2 6687 14 -64875 0 16869 -64875 0
gene 1 4889 6728 55290 0 16969 55290 1
gene 1 6728 695 277053 0 16970 277053 1
gene 2 6687 6764 -14337 0 17059 -14337 1
gene 2 6764 14 -491877 0 17060 -491877 1
gene 1 2223 4718 91830 0 17322 91830 1
gene 2 1136 6902 -190968 0 17404 -190968 1
gene 2 6902 3278 11634 0 17405 11634 0
gene 3 238 4531 -50076 0 17491 -50076 1
gene 1 5495 7019 -199830 0 17692 -199830 1
gene 1 7019 6197 7170 0 17693 7170 1
gene 2 6902 7104 439903 0 17923 439903 1
gene 2 7104 3278 -451008 0 17924 -451008 1
gene 2 5 7129 1 0 17987 1 1
gene 2 7129 4056 -309402 0 17988 -309402 1
gene 1 7104 6404 -69186 0 18058 -69186 1
gene 2 3403 3611 275565 0 18137 275565 1
gene 1 3403 7254 261931 0 18306 261931 1
gene 1 7254 13 40482 0 18307 40482 1
gene 2 4789 7323 -163742 0 18482 -163742 1
gene 2 7323 207 -800000 0 18483 -800000 1
gene 1 758 7362 1 0 18573 1 1
gene 1 7362 3303 -253026 0 18574 -253026 1
gene 2 1454 7432 24916 1 18752 24916 1
gene 2 7432 1454 -673596 0 18753 -673596 1
gene 1 7019 7474 1 0 18851 1 1
gene 1 7474 6197 362535 0 18852 362535 1
genomeend 32


/* Organism #40 Fitness: 220.000000 Time: 0 */
/* Position #40*/
#1 x: 76 y: 34
#2 x: 22 y: 36
#3 x: 52 y: 19
#4 x: 19 y: 77
#5 x: 62 y: 80
#6 x: 36 y: 62
genomestart 40
trait 1 0.000000 7275.000000 0.000000 50272.000000 43221.000000 75826.000000 35019.000000 90962.000000 trait 2 2.000000 0.000000 0.000000 0.000000 0.000000 0.000000 0.000000 0.000000 trait 3 0.000000 0.000000 0.000000 0.000000 52930.000000 0.000000 0.000000 0.000000 trait 4 29360.000000 22224.000000 0.000000 42712.000000 0.000000 98914.000000 43000.000000 39544.000000 node 1 3 1 3
node 2 3 1 1
node 3 1 1 1
node 4 2 1 1
node 5 4 1 1
node 6 3 1 1
node 7 2 1 1
node 8 3 1 1
node 9 1 1 1
node 10 1 1 1
node 11 1 1 1
node 12 1 1 1
node 13 3 0 2
node 14 3 0 2
node 15 2 0 2
node 30 1 0 0
node 156 1 0 0
node 183 1 0 0
node 207 1 0 0
node 238 1 0 0
node 310 1 0 0
node 388 1 0 0
node 419 1 0 0
node 455 1 0 0
node 591 1 0 0
node 612 1 0 0
node 646 1 0 0
node 695 1 0 0
node 758 1 0 0
node 873 1 0 0
node 934 1 0 0
node 1136 1 0 0
node 1191 1 0 0
node 1225 1 0 0
node 1350 1 0 0
node 1420 1 0 0
node 1454 1 0 0
node 1488 1 0 0
node 1550 1 0 0
node 1591 1 0 0
node 1626 2 0 0
node 1821 1 0 0
node 1868 2 0 0
node 1975 1 0 0
node 2010 1 0 0
node 2051 1 0 0
node 2192 1 0 0
node 2223 1 0 0
node 2280 1 0 0
node 2365 1 0 0
node 2390 1 0 0
node 2447 1 0 0
node 2570 1 0 0
node 2753 1 0 0
node 2783 1 0 0
node 2922 1 0 0
node 3065 1 0 0
node 3096 1 0 0
node 3185 1 0 0
node 3206 1 0 0
node 3236 1 0 0
node 3278 1 0 0
node 3303 1 0 0
node 3403 1 0 0
node 3528 1 0 0
node 3611 1 0 0
node 3652 1 0 0
node 3816 3 0 0
node 3850 1 0 0
node 4020 1 0 0
node 4056 1 0 0
node 4084 1 0 0
node 4114 1 0 0
node 4165 1 0 0
node 4273 1 0 0
node 4305 1 0 0
node 4345 1 0 0
node 4471 1 0 0
node 4502 1 0 0
node 4531 1 0 0
node 4609 1 0 0
node 4649 1 0 0
node 4684 1 0 0
node 4718 1 0 0
node 4752 1 0 0
node 4789 1 0 0
node 4889 1 0 0
node 4923 1 0 0
node 4959 1 0 0
node 5182 1 0 0
node 5213 1 0 0
node 5249 1 0 0
node 5388 1 0 0
node 5421 1 0 0
node 5451 1 0 0
node 5495 1 0 0
node 5620 1 0 0
node 5653 1 0 0
node 5685 1 0 0
node 5721 1 0 0
node 5757 1 0 0
node 5951 1 0 0
node 6039 1 0 0
node 6197 1 0 0
node 6231 1 0 0
node 6301 1 0 0
node 6339 1 0 0
node 6380 1 0 0
node 6404 1 0 0
node 6460 1 0 0
node 6497 1 0 0
node 6528 1 0 0
node 6560 1 0 0
node 6687 1 0 0
node 6781 1 0 0
node 6860 1 0 0
node 6969 1 0 0
node 7028 1 0 0
node 7164 1 0 0
node 7331 1 0 0
node 7402 1 0 0
node 7496 1 0 0
gene 2 1 13 -422760 0 1 -422760 1
gene 2 2 13 197928 0 2 197928 0
gene 2 3 13 -245559 0 3 -245559 1
gene 2 4 13 471978 0 4 471978 1
gene 1 5 13 -605520 0 5 -605520 1
gene 3 6 13 187199 0 6 187199 1
gene 4 7 13 374433 0 7 374433 0
gene 3 8 13 -94179 0 8 -94179 1
gene 3 9 13 -240447 0 9 -240447 1
gene 4 10 13 -800000 0 10 -800000 1
gene 4 11 13 277713 0 11 277713 1
gene 3 12 13 136545 0 12 136545 1
gene 1 1 14 -281142 0 13 -281142 1
gene 2 2 14 -344931 0 14 -344931 0
gene 1 3 14 -666269 0 15 -666269 1
gene 3 4 14 -150861 0 16 -150861 1
gene 2 5 14 138189 0 17 138189 1
gene 4 6 14 74457 0 18 74457 1
gene 3 7 14 91655 0 19 91655 0
gene 3 8 14 -482907 0 20 -482907 1
gene 1 9 14 800000 0 21 800000 1
gene 1 10 14 294954 0 22 294954 1
gene 3 11 14 187200 0 23 187200 1
gene 4 12 14 -212043 0 24 -212043 0
gene 1 1 15 -223020 0 25 -223020 1
gene 2 2 15 -313683 0 26 -313683 1
gene 2 3 15 -185964 0 27 -185964 1
gene 3 4 15 -185451 0 28 -185451 1
gene 2 5 15 -230841 0 29 -230841 1
gene 2 6 15 527883 0 30 527883 1
gene 3 7 15 -431277 0 31 -431277 1
gene 4 8 15 -106683 0 32 -106683 0
gene 3 9 15 -52950 0 33 -52950 0
gene 1 10 15 132615 0 34 132615 1
gene 2 11 15 -604090 0 35 -604090 1
gene 2 12 15 -526962 0 36 -526962 1
gene 2 2 30 -369615 0 68 -369615 1
gene 2 30 14 299118 0 69 299118 1
gene 4 12 30 -164274 0 128 -164274 1
gene 4 13 14 -131520 0 154 -131520 1
gene 1 5 156 431060 0 401 431060 1
gene 1 156 13 -536729 0 402 -536729 1
gene 2 11 183 485088 0 483 485088 1
gene 2 183 15 425520 0 484 425520 1
gene 2 3 207 261417 0 547 261417 1
gene 2 207 13 -124692 0 548 -124692 1
gene 2 5 238 45173 0 628 45173 0
gene 2 238 15 -570027 0 629 -570027 0
gene 3 10 183 373737 0 685 373737 0
gene 3 9 207 263586 0 756 263586 1
gene 4 12 310 177457 0 820 177457 1
gene 4 310 30 87060 0 821 87060 0
gene 3 10 388 -230583 0 1034 -230583 0
gene 3 388 183 223548 0 1035 223548 1
gene 3 7 419 175221 0 1104 175221 1
gene 3 419 15 650091 0 1105 650091 1
gene 1 9 455 74487 0 1202 74487 1
gene 1 455 14 -336756 0 1203 -336756 1
gene 1 455 455 -800000 1 1275 -800000 1
gene 3 419 591 178341 0 1555 178341 1
gene 3 591 15 72774 0 1556 72774 0
gene 3 7 612 406194 0 1605 406194 0
gene 3 612 14 230967 0 1606 230967 0
gene 3 4 646 -223203 0 1691 -223203 1
gene 3 646 14 -96546 0 1692 -96546 1
gene 1 6 388 296916 0 1763 296916 1
gene 1 455 695 109893 1 1828 109893 1
gene 1 695 455 222909 0 1829 222909 0
gene 1 695 758 -451560 0 1982 -451560 1
gene 1 758 455 -800000 0 1983 -800000 0
gene 2 183 873 343980 0 2264 343980 1
gene 2 873 15 -170988 0 2265 -170988 1
gene 1 310 388 459871 0 2353 459871 1
gene 1 10 934 210147 0 2417 210147 1
gene 1 934 14 107598 0 2418 107598 1
gene 2 9 388 -28596 0 2756 -28596 1
gene 2 9 1136 656865 0 2936 656865 1
gene 2 1136 388 -152160 0 2937 -152160 1
gene 1 934 1191 153045 0 3070 153045 1
gene 1 1191 14 -488547 0 3071 -488547 1
gene 2 3 1225 212388 0 3155 212388 1
gene 2 1225 207 800000 0 3156 800000 1
gene 1 873 873 -432462 1 3296 -432462 0
gene 1 591 455 800000 0 3392 800000 1
gene 2 1136 1350 -310280 0 3472 -310280 1
gene 2 1350 388 404989 0 3473 404989 1
gene 2 238 238 -270861 1 3569 -270861 0
gene 3 10 1420 132918 0 3648 132918 1
gene 4 1420 388 19455 0 3649 19455 0
gene 3 4 1454 96867 0 3731 96867 1
gene 3 1454 15 -88668 0 3732 -88668 0
gene 3 612 1488 -223713 0 3812 -223713 1
gene 3 1488 14 37353 0 3813 37353 1
gene 3 388 1550 263106 0 3976 263106 1
gene 3 1550 183 -734511 0 3977 -734511 1
gene 3 1420 1591 -342549 0 4076 -342549 1
gene 3 1591 388 -343575 0 4077 -343575 1
gene 4 310 1626 -800000 0 4165 -800000 1
gene 4 1626 30 -157327 0 4166 -157327 0
gene 4 1550 419 -187658 0 4260 -187658 1
gene 1 455 1821 -700037 0 4650 -700037 1
gene 1 1821 14 -650865 0 4651 -650865 0
gene 1 5 1868 -617174 0 4778 -617174 0
gene 1 1868 156 -84216 0 4779 -84216 1
gene 1 183 183 145100 1 4880 145100 1
gene 4 1550 1550 -650748 1 4949 -650748 1
gene 3 1454 1975 -125482 0 5033 -125482 1
gene 3 1975 15 -424887 0 5034 -424887 1
gene 1 156 2010 257407 0 5118 257407 1
gene 1 2010 13 580311 0 5119 580311 1
gene 3 1550 2051 -519712 0 5219 -519712 1
gene 3 2051 183 328056 0 5220 328056 1
gene 3 612 612 -90282 1 5310 -90282 1
gene 1 183 2192 271839 1 5568 271839 1
gene 1 2192 183 75170 0 5569 75170 0
gene 1 310 2223 -633720 0 5641 -633720 1
gene 1 2223 388 -343623 0 5642 -343623 1
gene 3 419 2280 -544935 0 5793 -544935 1
gene 3 2280 591 -167201 0 5794 -167201 1
gene 3 591 2365 297399 0 6011 297399 1
gene 3 2365 15 47577 0 6012 47577 0
gene 4 1626 2390 103347 0 6075 103347 1
gene 4 2390 30 -298383 0 6076 -298383 0
gene 2 1136 2447 -82092 0 6225 -82092 1
gene 2 2447 1350 147669 0 6226 147669 1
gene 4 11 2570 567148 0 6534 567148 1
gene 4 2570 13 135198 0 6535 135198 0
gene 3 7 2753 -349755 0 6991 -349755 1
gene 3 2753 612 -147315 0 6992 -147315 1
gene 1 183 2783 -128031 1 7072 -128031 1
gene 1 2783 183 11957 0 7073 11957 1
gene 1 758 1591 -800000 0 7387 -800000 1
gene 1 2192 2922 293193 0 7438 293193 1
gene 1 2922 183 129966 0 7439 129966 1
gene 2 1454 1454 263286 1 7652 263286 1
gene 4 7 2192 -309120 0 7731 -309120 0
gene 1 2223 3065 546132 0 7809 546132 1
gene 1 3065 388 -408015 0 7810 -408015 1
gene 3 9 3096 29076 0 7884 29076 0
gene 3 3096 15 545813 0 7885 545813 0
gene 3 1136 1821 -280767 0 7970 -280767 0
gene 1 10 3185 -369109 0 8106 -369109 1
gene 1 3185 934 339927 0 8107 339927 1
gene 3 3096 3206 -370170 0 8161 -370170 1
gene 3 3206 15 82530 0 8162 82530 1
gene 4 6 3236 -113274 0 8245 -113274 1
gene 4 3236 14 -71778 0 8246 -71778 1
gene 2 1136 3278 -89133 0 8347 -89133 1
gene 2 3278 388 148326 0 8348 148326 1
gene 1 758 3303 -88947 0 8414 -88947 1
gene 1 3303 455 742211 0 8415 742211 1
gene 3 8 2447 301953 0 8513 301953 1
gene 1 591 591 -722038 1 8588 -722038 1
gene 3 12 3403 -333396 0 8670 -333396 1
gene 1 3403 13 -220938 0 8671 -220938 1
gene 4 7 3528 673797 0 8979 673797 1
gene 4 3528 2192 -727738 0 8980 -727738 0
gene 3 3096 612 -63441 0 9082 -63441 1
gene 3 612 3611 -90132 1 9204 -90132 1
gene 3 3611 612 110133 0 9205 110133 1
gene 4 1550 3652 -112707 1 9292 -112707 1
gene 4 3652 1550 237119 0 9293 237119 1
gene 1 2280 1454 -662238 0 9594 -662238 1
gene 1 183 3816 269685 1 9727 269685 1
gene 1 3816 2783 326559 0 9728 326559 0
gene 2 238 3850 -95097 1 9814 -95097 1
gene 2 3850 238 89223 0 9815 89223 1
gene 3 646 2365 -192690 0 9895 -192690 1
gene 4 2922 2922 138369 1 10151 138369 1
gene 4 11 4020 239553 0 10235 239553 1
gene 4 4020 2570 681402 0 10236 681402 1
gene 2 5 4056 41295 0 10320 41295 1
gene 2 4056 238 -376302 0 10321 -376302 1
gene 2 2 4084 234618 0 10394 234618 0
gene 2 4084 13 -59130 0 10395 -59130 1
gene 3 1975 4114 69675 0 10472 69675 1
gene 3 4114 15 -800000 0 10473 -800000 1
gene 4 7 4165 -134283 0 10605 -134283 1
gene 4 4165 13 111051 0 10606 111051 1
gene 1 2783 2570 -233685 0 10685 -233685 1
gene 1 2783 4273 166278 0 10874 166278 1
gene 1 4273 183 531060 0 10875 531060 1
gene 2 2447 4305 339615 0 10952 339615 1
gene 2 4305 1350 -651984 0 10953 -651984 1
gene 4 2570 4345 -619662 0 11049 -619662 1
gene 4 4345 13 -471771 0 11050 -471771 1
gene 4 156 15 67869 0 11135 67869 1
gene 1 3065 4471 686663 0 11369 686663 1
gene 1 4471 388 -43854 0 11370 -43854 1
gene 3 2365 4502 266448 0 11439 266448 1
gene 3 4502 15 416631 0 11440 416631 1
gene 1 591 4531 302460 0 11513 302460 1
gene 1 4531 455 -416724 0 11514 -416724 1
gene 2 238 4609 204315 0 11693 204315 1
gene 2 4609 15 553959 0 11694 553959 1
gene 2 2 4649 800000 0 11787 800000 0
gene 2 4649 15 742677 0 11788 742677 1
gene 3 7 4684 -265623 0 11871 -265623 1
gene 3 4684 419 -247983 0 11872 -247983 1
gene 2 873 4718 548397 0 11956 548397 1
gene 2 4718 15 -149592 0 11957 -149592 1
gene 2 183 4752 640203 0 12043 640203 1
gene 2 4752 873 213405 0 12044 213405 1
gene 2 3 4789 368870 0 12139 368870 0
gene 2 4789 207 116142 0 12140 116142 1
gene 1 455 4889 -800000 1 12394 -800000 1
gene 1 4889 695 -417060 0 12395 -417060 1
gene 3 9 4923 -273279 0 12475 -273279 1
gene 3 4923 3096 -733371 0 12476 -733371 1
gene 4 2390 4959 80958 0 12563 80958 1
gene 4 4959 30 -411828 0 12564 -411828 1
gene 2 646 4114 -32316 0 12746 -32316 1
gene 1 873 1975 498423 0 13072 498423 1
gene 1 2783 5182 312528 0 13143 312528 1
gene 1 5182 2570 199803 0 13144 199803 1
gene 4 3528 5213 -243693 0 13231 -243693 1
gene 4 5213 2192 235206 0 13232 235206 1
gene 3 8 5249 -362301 0 13323 -362301 1
gene 3 5249 14 -455049 0 13324 -455049 1
gene 2 310 183 56145 0 13578 56145 1
gene 2 3 5388 669270 0 13649 669270 0
gene 2 5388 1225 245436 0 13650 245436 1
gene 4 2390 5421 271134 0 13728 271134 1
gene 4 5421 30 30111 0 13729 30111 1
gene 3 1454 5451 800000 0 13805 800000 1
gene 3 5451 15 -270633 0 13806 -270633 1
gene 1 5 5495 30363 0 13911 30363 1
gene 1 5495 1868 613230 0 13912 613230 0
gene 2 5 2390 -736485 0 13988 -736485 0
gene 1 873 5620 -636504 1 14222 -636504 1
gene 1 5620 873 -479772 0 14223 -479772 1
gene 3 1136 5653 64572 0 14306 64572 0
gene 3 5653 1821 650454 0 14307 650454 1
gene 2 5 5685 -34419 0 14376 -34419 1
gene 2 5685 2390 -49200 0 14377 -49200 1
gene 2 3 5721 -76833 0 14466 -76833 1
gene 2 5721 5388 201036 0 14467 201036 1
gene 4 12 5757 -646503 0 14550 -646503 1
gene 4 5757 14 270387 0 14551 270387 1
gene 2 3236 1591 144327 0 14870 144327 1
gene 2 183 4305 -195930 1 14958 -195930 1
gene 3 3206 5951 -230691 0 15049 -230691 1
gene 3 5951 15 554808 0 15050 554808 1
gene 3 4502 6039 -24156 0 15254 -24156 1
gene 3 6039 15 520155 0 15255 520155 1
gene 1 5495 6197 83139 0 15639 83139 1
gene 1 6197 1868 28593 0 15640 28593 0
gene 3 591 6231 243801 0 15728 243801 1
gene 3 6231 15 224259 0 15729 224259 1
gene 2 3 6301 -271802 0 15898 -271802 1
gene 2 6301 4789 800000 0 15899 800000 1
gene 2 2 6339 241257 0 15986 241257 1
gene 2 6339 4649 -404562 0 15987 -404562 1
gene 4 7 6380 180759 0 16093 180759 1
gene 4 6380 2192 -525171 0 16094 -525171 1
gene 1 5 6404 -111846 0 16156 -111846 1
gene 1 6404 5495 -314106 0 16157 -314106 1
gene 4 12 4345 7518 0 16229 7518 1
gene 2 2 6460 -30750 0 16302 -30750 1
gene 2 6460 6339 197350 0 16303 197350 1
gene 3 1136 6497 75963 0 16393 75963 1
gene 3 6497 5653 800000 0 16394 800000 1
gene 4 8 6528 -539552 0 16468 -539552 1
gene 4 6528 15 -649908 0 16469 -649908 1
gene 3 9 6560 44763 0 16550 44763 1
gene 3 6560 15 -331338 0 16551 -331338 1
gene 2 5951 4959 224554 0 16811 224554 1
gene 2 2 6687 25738 0 16868 25738 1
gene 2 6687 14 -13182 0 16869 -13182 1
gene 1 1821 6781 90366 0 17101 90366 1
gene 1 6781 14 30411 0 17102 30411 1
gene 1 6197 6860 394437 0 17299 394437 1
gene 1 6860 1868 -292338 0 17300 -292338 1
gene 1 3816 6969 -89090 0 17575 -89090 1
gene 1 6969 2783 -180873 0 17576 -180873 1
gene 1 2783 7028 250918 0 17712 250918 1
gene 1 7028 4273 -212895 0 17713 -212895 1
gene 4 5685 6497 -137467 0 17825 -137467 1
gene 1 183 7164 171325 1 18083 171325 1
gene 1 7164 2192 -20325 0 18084 -20325 1
gene 3 934 873 -22028 0 18144 -22028 1
gene 2 3236 3236 56567 1 18231 56567 1
gene 4 6969 4114 -55858 0 18387 -55858 1
gene 4 6969 7331 -26510 0 18500 -26510 1
gene 4 7331 4114 -224391 0 18501 -224391 0
gene 4 7331 7402 1 0 18676 0 1
gene 4 7402 4114 -224391 0 18677 0 1
gene 3 3065 3065 -40969 1 18769 -40969 1
gene 2 238 7496 1 0 18911 0 1
gene 2 7496 15 -570027 0 18912 0 1
genomeend 40


/* Organism #42 Fitness: 490.000000 Time: 0 */
/* Position #42*/
#1 x: 32 y: 32
#2 x: 17 y: 33
#3 x: 27 y: 31
#4 x: 28 y: 78
#5 x: 16 y: 81
#6 x: 31 y: 64
genomestart 42
trait 1 0.000000 29508.000000 0.000000 0.000000 0.000000 0.000000 0.000000 81925.000000 trait 2 0.000000 2069.000000 0.000000 63982.000000 60212.000000 39453.000000 0.000000 81032.000000 trait 3 0.000000 0.000000 0.000000 0.000000 52930.000000 0.000000 0.000000 0.000000 trait 4 4.000000 0.000000 0.000000 100000.000000 0.000000 0.000000 44904.000000 0.000000 node 1 1 1 3
node 2 3 1 1
node 3 1 1 1
node 4 2 1 1
node 5 4 1 1
node 6 3 1 1
node 7 2 1 1
node 8 3 1 1
node 9 1 1 1
node 10 1 1 1
node 11 1 1 1
node 12 1 1 1
node 13 3 0 2
node 14 3 0 2
node 15 2 0 2
node 30 1 0 0
node 156 1 0 0
node 183 1 0 0
node 207 1 0 0
node 238 1 0 0
node 310 1 0 0
node 388 1 0 0
node 419 1 0 0
node 455 1 0 0
node 591 1 0 0
node 612 1 0 0
node 646 1 0 0
node 695 1 0 0
node 758 1 0 0
node 873 1 0 0
node 934 1 0 0
node 1136 1 0 0
node 1191 1 0 0
node 1225 1 0 0
node 1350 1 0 0
node 1420 1 0 0
node 1454 1 0 0
node 1488 1 0 0
node 1550 1 0 0
node 1591 1 0 0
node 1626 2 0 0
node 1821 1 0 0
node 1868 2 0 0
node 1975 1 0 0
node 2010 1 0 0
node 2051 1 0 0
node 2192 1 0 0
node 2223 1 0 0
node 2280 1 0 0
node 2365 1 0 0
node 2390 1 0 0
node 2447 1 0 0
node 2570 1 0 0
node 2753 1 0 0
node 2783 1 0 0
node 2922 1 0 0
node 3065 1 0 0
node 3096 1 0 0
node 3185 1 0 0
node 3206 1 0 0
node 3236 1 0 0
node 3278 1 0 0
node 3303 1 0 0
node 3403 1 0 0
node 3528 1 0 0
node 3611 1 0 0
node 3652 1 0 0
node 3816 3 0 0
node 3850 1 0 0
node 4020 1 0 0
node 4056 1 0 0
node 4084 1 0 0
node 4114 1 0 0
node 4165 1 0 0
node 4273 1 0 0
node 4305 1 0 0
node 4345 1 0 0
node 4471 1 0 0
node 4502 1 0 0
node 4531 1 0 0
node 4609 4 0 0
node 4649 1 0 0
node 4684 1 0 0
node 4718 1 0 0
node 4752 1 0 0
node 4789 1 0 0
node 4889 1 0 0
node 4923 1 0 0
node 4959 1 0 0
node 5182 1 0 0
node 5213 1 0 0
node 5249 1 0 0
node 5388 1 0 0
node 5421 1 0 0
node 5451 1 0 0
node 5495 1 0 0
node 5620 1 0 0
node 5653 1 0 0
node 5685 1 0 0
node 5721 1 0 0
node 5757 1 0 0
node 6001 1 0 0
node 6034 1 0 0
node 6064 1 0 0
node 6096 1 0 0
node 6131 1 0 0
node 6348 1 0 0
node 6580 1 0 0
node 6617 1 0 0
node 6748 1 0 0
node 6858 1 0 0
node 6944 1 0 0
node 7066 1 0 0
node 7243 1 0 0
node 7294 1 0 0
node 7413 1 0 0
node 7498 1 0 0
gene 2 1 13 -110373 0 1 -110373 1
gene 2 2 13 545031 0 2 545031 0
gene 2 3 13 -554782 0 3 -554782 1
gene 2 4 13 766872 0 4 766872 1
gene 1 5 13 50835 0 5 50835 1
gene 3 6 13 -264915 0 6 -264915 1
gene 4 7 13 267309 0 7 267309 0
gene 1 8 13 -270783 0 8 -270783 1
gene 3 9 13 231087 0 9 231087 1
gene 4 10 13 -206125 0 10 -206125 1
gene 4 11 13 -347887 0 11 -347887 0
gene 3 12 13 -347007 0 12 -347007 0
gene 1 1 14 -518986 0 13 -518986 1
gene 2 2 14 248093 0 14 248093 0
gene 1 3 14 -593463 0 15 -593463 1
gene 3 4 14 -362465 0 16 -362465 1
gene 2 5 14 -222448 0 17 -222448 1
gene 4 6 14 368907 0 18 368907 0
gene 3 7 14 -656116 0 19 -656116 0
gene 3 8 14 285741 0 20 285741 1
gene 1 9 14 193680 0 21 193680 1
gene 1 10 14 800000 0 22 800000 1
gene 3 11 14 290778 0 23 290778 1
gene 4 12 14 -113498 0 24 -113498 0
gene 1 1 15 14573 0 25 14573 1
gene 2 2 15 517859 0 26 517859 0
gene 2 3 15 357714 0 27 357714 1
gene 3 4 15 -393322 0 28 -393322 1
gene 2 5 15 33174 0 29 33174 0
gene 2 6 15 -760794 0 30 -760794 1
gene 3 7 15 -86246 0 31 -86246 1
gene 4 8 15 -631652 0 32 -631652 0
gene 3 9 15 29175 0 33 29175 1
gene 1 10 15 346321 0 34 346321 1
gene 2 11 15 125445 0 35 125445 1
gene 2 12 15 530106 0 36 530106 1
gene 2 2 30 123378 0 68 123378 1
gene 2 30 14 387858 0 69 387858 1
gene 4 12 30 -168846 0 128 -168846 1
gene 4 13 14 72276 0 154 72276 1
gene 1 5 156 -3513 0 401 -3513 1
gene 1 156 13 -316356 0 402 -316356 1
gene 2 11 183 141246 0 483 141246 1
gene 2 183 15 433419 0 484 433419 0
gene 2 3 207 92001 0 547 92001 1
gene 2 207 13 -407785 0 548 -407785 0
gene 2 5 238 69417 0 628 69417 0
gene 2 238 15 685285 0 629 685285 0
gene 3 10 183 -456768 0 685 -456768 0
gene 3 9 207 -60774 0 756 -60774 1
gene 4 12 310 -600372 0 820 -600372 1
gene 4 310 30 611113 0 821 611113 0
gene 3 10 388 1407 0 1034 1407 0
gene 3 388 183 -244344 0 1035 -244344 1
gene 3 7 419 235057 0 1104 235057 0
gene 3 419 15 -52347 0 1105 -52347 1
gene 1 9 455 -97584 0 1202 -97584 1
gene 1 455 14 319509 0 1203 319509 0
gene 1 455 455 592166 1 1275 592166 1
gene 3 419 591 -327976 0 1555 -327976 1
gene 3 591 15 -143481 0 1556 -143481 1
gene 3 7 612 398376 0 1605 398376 0
gene 3 612 14 36060 0 1606 36060 0
gene 3 4 646 446517 0 1691 446517 1
gene 3 646 14 -72690 0 1692 -72690 1
gene 4 6 388 800000 0 1763 800000 1
gene 1 455 695 -333003 1 1828 -333003 0
gene 1 695 455 -235773 0 1829 -235773 0
gene 1 695 758 182104 0 1982 182104 1
gene 1 758 455 -476752 0 1983 -476752 1
gene 2 183 873 333625 0 2264 333625 0
gene 2 873 15 542979 0 2265 542979 1
gene 1 310 388 -154431 0 2353 -154431 1
gene 1 10 934 -99409 0 2417 -99409 1
gene 1 934 14 113047 0 2418 113047 1
gene 2 9 388 25965 0 2756 25965 1
gene 2 9 1136 660429 0 2936 660429 1
gene 2 1136 388 504814 0 2937 504814 0
gene 1 934 1191 -289149 0 3070 -289149 1
gene 1 1191 14 568635 0 3071 568635 1
gene 2 3 1225 -214236 0 3155 -214236 0
gene 2 1225 207 -38847 0 3156 -38847 0
gene 1 873 873 -189504 1 3296 -189504 1
gene 1 591 455 80052 0 3392 80052 1
gene 2 1136 1350 770198 0 3472 770198 1
gene 2 1350 388 457258 0 3473 457258 1
gene 2 238 238 -333522 1 3569 -333522 1
gene 3 10 1420 -80925 0 3648 -80925 1
gene 3 1420 388 458829 0 3649 458829 1
gene 3 4 1454 -245748 0 3731 -245748 1
gene 3 1454 15 372629 0 3732 372629 0
gene 3 612 1488 -528999 0 3812 -528999 1
gene 3 1488 14 166665 0 3813 166665 1
gene 3 388 1550 74262 0 3976 74262 1
gene 3 1550 183 34497 0 3977 34497 1
gene 3 1420 1591 289872 0 4076 289872 0
gene 3 1591 388 -62073 0 4077 -62073 1
gene 4 310 1626 -50076 0 4165 -50076 1
gene 4 1626 30 -122154 0 4166 -122154 0
gene 4 1550 419 -132423 0 4260 -132423 1
gene 1 455 1821 84154 0 4650 84154 1
gene 1 1821 14 84027 0 4651 84027 1
gene 1 5 1868 -218076 0 4778 -218076 0
gene 1 1868 156 -18543 0 4779 -18543 1
gene 1 183 183 -65661 1 4880 -65661 1
gene 4 1550 1550 729856 1 4949 729856 1
gene 3 1454 1975 -726229 0 5033 -726229 1
gene 3 1975 15 -549771 0 5034 -549771 1
gene 1 156 2010 338815 0 5118 338815 1
gene 1 2010 13 -52806 0 5119 -52806 1
gene 3 1550 2051 -18813 0 5219 -18813 1
gene 3 2051 183 -76023 0 5220 -76023 1
gene 3 612 612 -66207 1 5310 -66207 0
gene 1 183 2192 -167724 1 5568 -167724 1
gene 1 2192 183 239467 0 5569 239467 1
gene 1 310 2223 -268005 0 5641 -268005 1
gene 1 2223 388 308859 0 5642 308859 1
gene 3 419 2280 -138387 0 5793 -138387 0
gene 3 2280 591 -80490 0 5794 -80490 1
gene 3 591 2365 416505 0 6011 416505 1
gene 3 2365 15 -17529 0 6012 -17529 0
gene 4 1626 2390 546903 0 6075 546903 1
gene 4 2390 30 537679 0 6076 537679 1
gene 2 1136 2447 496047 0 6225 496047 1
gene 2 2447 1350 -273669 0 6226 -273669 1
gene 4 11 2570 292682 0 6534 292682 1
gene 4 2570 13 57678 0 6535 57678 0
gene 3 7 2753 237666 0 6991 237666 1
gene 3 2753 612 78807 0 6992 78807 1
gene 1 183 2783 197310 1 7072 197310 0
gene 1 2783 183 -5345 0 7073 -5345 0
gene 1 758 1591 16314 0 7387 16314 1
gene 1 2192 2922 684081 0 7438 684081 0
gene 1 2922 183 -33861 0 7439 -33861 1
gene 2 1454 1454 42822 1 7652 42822 1
gene 4 7 2192 -792068 0 7731 -792068 0
gene 1 2223 3065 -162666 0 7809 -162666 1
gene 1 3065 388 485259 0 7810 485259 1
gene 3 9 3096 191511 0 7884 191511 1
gene 4 3096 15 59497 0 7885 59497 0
gene 3 1136 1821 -501673 0 7970 -501673 0
gene 1 10 3185 186897 0 8106 186897 1
gene 1 3185 934 -421137 0 8107 -421137 1
gene 3 3096 3206 630606 0 8161 630606 1
gene 3 3206 15 -310200 0 8162 -310200 1
gene 4 6 3236 -72549 0 8245 -72549 1
gene 4 3236 14 272599 0 8246 272599 1
gene 2 1136 3278 343387 0 8347 343387 1
gene 2 3278 388 103323 0 8348 103323 1
gene 1 758 3303 11910 0 8414 11910 1
gene 1 3303 455 111015 0 8415 111015 1
gene 3 8 2447 220299 0 8513 220299 1
gene 1 591 591 102197 1 8588 102197 0
gene 3 12 3403 540753 0 8670 540753 1
gene 1 3403 13 234197 0 8671 234197 1
gene 4 7 3528 -321654 0 8979 -321654 1
gene 4 3528 2192 -110574 0 8980 -110574 0
gene 3 3096 612 216450 0 9082 216450 1
gene 3 612 3611 234306 1 9204 234306 1
gene 3 3611 612 713014 0 9205 713014 1
gene 4 1550 3652 -140209 1 9292 -140209 1
gene 4 3652 1550 800000 0 9293 800000 1
gene 1 2280 1454 184611 0 9594 184611 1
gene 1 183 3816 -591260 1 9727 -591260 1
gene 1 3816 2783 -367929 0 9728 -367929 1
gene 2 238 3850 574865 1 9814 574865 1
gene 2 3850 238 -800000 0 9815 -800000 1
gene 3 646 2365 581379 0 9895 581379 1
gene 4 2922 2922 -719081 1 10151 -719081 1
gene 4 11 4020 28972 0 10235 28972 1
gene 4 4020 2570 276603 0 10236 276603 1
gene 2 5 4056 318526 0 10320 318526 1
gene 2 4056 238 83502 0 10321 83502 0
gene 2 2 4084 352140 0 10394 352140 1
gene 2 4084 13 115025 0 10395 115025 1
gene 3 1975 4114 85493 0 10472 85493 1
gene 3 4114 15 -54451 0 10473 -54451 1
gene 4 7 4165 178473 0 10605 178473 1
gene 4 4165 13 -11571 0 10606 -11571 1
gene 1 2783 2570 34234 0 10685 34234 0
gene 1 2783 4273 -399672 0 10874 -399672 1
gene 1 4273 183 -134958 0 10875 -134958 1
gene 2 2447 4305 -762737 0 10952 -762737 1
gene 2 4305 1350 535317 0 10953 535317 1
gene 4 2570 4345 -800000 0 11049 -800000 1
gene 4 4345 13 605953 0 11050 605953 1
gene 4 156 15 -272412 0 11135 -272412 1
gene 1 3065 4471 -522111 0 11369 -522111 1
gene 1 4471 388 -533871 0 11370 -533871 1
gene 3 2365 4502 -290175 0 11439 -290175 1
gene 3 4502 15 366204 0 11440 366204 1
gene 1 591 4531 -373879 0 11513 -373879 1
gene 1 4531 455 293082 0 11514 293082 1
gene 2 238 4609 378702 0 11693 378702 1
gene 2 4609 15 -424311 0 11694 -424311 1
gene 2 2 4649 652734 0 11787 652734 1
gene 2 4649 15 -46900 0 11788 -46900 1
gene 3 7 4684 -430233 0 11871 -430233 1
gene 3 4684 419 -460340 0 11872 -460340 1
gene 2 873 4718 204783 0 11956 204783 1
gene 2 4718 15 309255 0 11957 309255 1
gene 2 183 4752 -43635 0 12043 -43635 1
gene 2 4752 873 -134592 0 12044 -134592 1
gene 2 3 4789 -134913 0 12139 -134913 1
gene 2 4789 207 -205938 0 12140 -205938 1
gene 1 455 4889 -9288 1 12394 -9288 1
gene 1 4889 695 -49525 0 12395 -49525 1
gene 3 9 4923 -112459 0 12475 -112459 1
gene 3 4923 3096 -108689 0 12476 -108689 1
gene 4 2390 4959 341220 0 12563 341220 1
gene 4 4959 30 278121 0 12564 278121 1
gene 2 646 4114 -800000 0 12746 -800000 1
gene 1 873 1975 -148347 0 13072 -148347 1
gene 1 2783 5182 282825 0 13143 282825 1
gene 1 5182 2570 -169808 0 13144 -169808 1
gene 4 3528 5213 379579 0 13231 379579 1
gene 4 5213 2192 -70971 0 13232 -70971 1
gene 3 8 5249 178968 0 13323 178968 1
gene 3 5249 14 -261012 0 13324 -261012 1
gene 2 310 183 -263244 0 13578 -263244 1
gene 2 3 5388 -150033 0 13649 -150033 0
gene 2 5388 1225 403800 0 13650 403800 1
gene 4 2390 5421 -292653 0 13728 -292653 1
gene 4 5421 30 11437 0 13729 11437 1
gene 3 1454 5451 -708081 0 13805 -708081 1
gene 3 5451 15 177957 0 13806 177957 1
gene 1 5 5495 78016 0 13911 78016 0
gene 1 5495 1868 -129444 0 13912 -129444 1
gene 2 5 2390 -466125 0 13988 -466125 0
gene 1 873 5620 173403 1 14222 173403 0
gene 1 5620 873 165082 0 14223 165082 1
gene 3 1136 5653 -573619 0 14306 -573619 1
gene 3 5653 1821 282597 0 14307 282597 1
gene 2 5 5685 -509866 0 14376 -509866 1
gene 2 5685 2390 329286 0 14377 329286 1
gene 2 3 5721 -311988 0 14466 -311988 1
gene 2 5721 5388 625248 0 14467 625248 1
gene 4 12 5757 365287 0 14550 365287 1
gene 4 5757 14 223257 0 14551 223257 1
gene 4 2192 2192 -230086 1 14644 -230086 1
gene 2 4471 3611 43646 0 14731 43646 1
gene 2 3652 183 -342483 0 14980 -342483 0
gene 3 3611 1550 410058 0 15006 410058 1
gene 2 3652 6001 -330668 0 15168 -330668 1
gene 2 6001 183 59253 0 15169 59253 1
gene 4 7 6034 69316 0 15242 69316 1
gene 4 6034 2192 101137 0 15243 101137 1
gene 1 873 6064 587603 1 15310 587603 1
gene 1 6064 5620 -83434 0 15311 -83434 1
gene 1 455 6096 204882 0 15387 204882 1
gene 1 6096 14 141213 0 15388 141213 1
gene 2 207 6131 290787 0 15472 290787 1
gene 2 6131 13 222909 0 15473 222909 1
gene 1 5620 238 -24428 0 15552 -24428 1
gene 1 6 3096 -481818 0 15654 -481818 1
gene 4 2192 1454 263058 0 15745 263058 0
gene 3 1420 6348 138759 0 16013 138759 1
gene 3 6348 1591 -386298 0 16014 -386298 1
gene 2 4020 4889 -278478 0 16278 -278478 1
gene 2 934 4084 -606162 0 16345 -606162 1
gene 1 4609 2390 -252283 0 16538 -252283 1
gene 1 310 6580 -53288 0 16600 -53288 1
gene 1 6580 2223 800000 0 16601 800000 1
gene 3 419 6617 279450 0 16690 279450 1
gene 3 6617 2280 329161 0 16691 329161 1
gene 4 11 5653 179532 0 16783 179532 1
gene 2 4056 6748 -190719 0 17017 -190719 1
gene 2 6748 238 -92952 0 17018 -92952 1
gene 2 4889 4889 99303 1 17091 99303 1
gene 4 2192 6858 22677 0 17295 22677 1
gene 4 6858 1454 -178086 0 17296 -178086 1
gene 1 5 6944 -223694 0 17513 -223694 1
gene 1 6944 5495 136326 0 17514 136326 1
gene 2 3206 5685 -189108 0 17669 -189108 1
gene 2 2447 6617 228126 0 17743 228126 1
gene 3 1420 7066 296836 0 17816 296836 1
gene 3 7066 1591 -371884 0 17817 -371884 1
gene 1 2192 7243 1 0 18279 0 1
gene 1 7243 2922 684081 0 18280 0 1
gene 1 591 7294 1 1 18415 0 1
gene 1 7294 591 102197 0 18416 0 1
gene 2 4684 695 7135 0 18611 7135 1
gene 4 8 7413 1 0 18705 0 1
gene 4 7413 15 -631652 0 18706 0 1
gene 4 3278 1350 -24987 0 18800 -24987 1
gene 2 1225 7498 1 0 18915 0 1
gene 2 7498 207 -38847 0 18916 0 1
genomeend 42


/* Organism #43 Fitness: 240.000000 Time: 0 */
/* Position #43*/
#1 x: 32 y: 32
#2 x: 17 y: 33
#3 x: 27 y: 31
#4 x: 28 y: 78
#5 x: 16 y: 81
#6 x: 31 y: 64
genomestart 43
trait 1 0.000000 29508.000000 0.000000 0.000000 0.000000 0.000000 0.000000 81925.000000 trait 2 0.000000 2069.000000 0.000000 63982.000000 60212.000000 39453.000000 0.000000 81032.000000 trait 3 0.000000 0.000000 0.000000 0.000000 52930.000000 0.000000 0.000000 0.000000 trait 4 4.000000 0.000000 0.000000 100000.000000 0.000000 0.000000 44904.000000 0.000000 node 1 1 1 3
node 2 3 1 1
node 3 1 1 1
node 4 2 1 1
node 5 4 1 1
node 6 3 1 1
node 7 2 1 1
node 8 3 1 1
node 9 1 1 1
node 10 1 1 1
node 11 1 1 1
node 12 1 1 1
node 13 3 0 2
node 14 3 0 2
node 15 2 0 2
node 30 1 0 0
node 156 1 0 0
node 183 1 0 0
node 207 1 0 0
node 238 1 0 0
node 310 1 0 0
node 388 1 0 0
node 419 1 0 0
node 455 1 0 0
node 591 1 0 0
node 612 1 0 0
node 646 1 0 0
node 695 1 0 0
node 758 1 0 0
node 873 1 0 0
node 934 1 0 0
node 1136 1 0 0
node 1191 1 0 0
node 1225 1 0 0
node 1350 1 0 0
node 1420 1 0 0
node 1454 1 0 0
node 1488 1 0 0
node 1550 1 0 0
node 1591 1 0 0
node 1626 2 0 0
node 1821 1 0 0
node 1868 2 0 0
node 1975 1 0 0
node 2010 1 0 0
node 2051 1 0 0
node 2192 1 0 0
node 2223 1 0 0
node 2280 1 0 0
node 2365 1 0 0
node 2390 1 0 0
node 2447 1 0 0
node 2570 1 0 0
node 2753 1 0 0
node 2783 1 0 0
node 2922 1 0 0
node 3065 1 0 0
node 3096 1 0 0
node 3185 1 0 0
node 3206 1 0 0
node 3236 1 0 0
node 3278 1 0 0
node 3303 1 0 0
node 3403 1 0 0
node 3528 1 0 0
node 3611 1 0 0
node 3652 1 0 0
node 3816 3 0 0
node 3850 1 0 0
node 4020 1 0 0
node 4056 1 0 0
node 4084 1 0 0
node 4114 1 0 0
node 4165 1 0 0
node 4273 1 0 0
node 4305 1 0 0
node 4345 1 0 0
node 4471 1 0 0
node 4502 1 0 0
node 4531 1 0 0
node 4609 4 0 0
node 4649 1 0 0
node 4684 1 0 0
node 4718 1 0 0
node 4752 1 0 0
node 4789 1 0 0
node 4889 1 0 0
node 4923 1 0 0
node 4959 1 0 0
node 5182 1 0 0
node 5213 1 0 0
node 5249 1 0 0
node 5388 1 0 0
node 5421 1 0 0
node 5451 1 0 0
node 5495 1 0 0
node 5620 1 0 0
node 5653 1 0 0
node 5685 1 0 0
node 5721 1 0 0
node 5757 1 0 0
node 6001 1 0 0
node 6034 1 0 0
node 6064 1 0 0
node 6096 1 0 0
node 6131 1 0 0
node 6348 1 0 0
node 6580 1 0 0
node 6617 1 0 0
node 6748 1 0 0
node 6858 1 0 0
node 6944 1 0 0
node 7066 1 0 0
node 7243 1 0 0
node 7294 1 0 0
node 7413 1 0 0
node 7452 1 0 0
node 7499 1 0 0
gene 2 1 13 -110373 0 1 -110373 1
gene 2 2 13 545031 0 2 545031 0
gene 2 3 13 -554782 0 3 -554782 1
gene 2 4 13 766872 0 4 766872 1
gene 1 5 13 50835 0 5 50835 1
gene 3 6 13 -264915 0 6 -264915 1
gene 4 7 13 267309 0 7 267309 1
gene 1 8 13 -270783 0 8 -270783 1
gene 3 9 13 231087 0 9 231087 1
gene 4 10 13 -206125 0 10 -206125 1
gene 4 11 13 -347887 0 11 -347887 0
gene 3 12 13 -347007 0 12 -347007 0
gene 1 1 14 -518986 0 13 -518986 1
gene 2 2 14 248093 0 14 248093 0
gene 1 3 14 -593463 0 15 -593463 1
gene 3 4 14 -362465 0 16 -362465 1
gene 2 5 14 -222448 0 17 -222448 1
gene 4 6 14 368907 0 18 368907 0
gene 3 7 14 -656116 0 19 -656116 0
gene 3 8 14 285741 0 20 285741 1
gene 1 9 14 193680 0 21 193680 1
gene 1 10 14 800000 0 22 800000 1
gene 3 11 14 290778 0 23 290778 1
gene 4 12 14 -113498 0 24 -113498 1
gene 1 1 15 14573 0 25 14573 1
gene 2 2 15 517859 0 26 517859 0
gene 2 3 15 357714 0 27 357714 1
gene 3 4 15 -393322 0 28 -393322 1
gene 2 5 15 33174 0 29 33174 1
gene 2 6 15 -760794 0 30 -760794 1
gene 3 7 15 -86246 0 31 -86246 1
gene 4 8 15 -631652 0 32 -631652 0
gene 3 9 15 29175 0 33 29175 1
gene 1 10 15 346321 0 34 346321 1
gene 2 11 15 125445 0 35 125445 1
gene 2 12 15 530106 0 36 530106 1
gene 2 2 30 123378 0 68 123378 1
gene 2 30 14 387858 0 69 387858 1
gene 4 12 30 -168846 0 128 -168846 1
gene 4 13 14 72276 0 154 72276 1
gene 1 5 156 -3513 0 401 -3513 1
gene 1 156 13 -316356 0 402 -316356 1
gene 2 11 183 141246 0 483 141246 1
gene 2 183 15 433419 0 484 433419 1
gene 2 3 207 92001 0 547 92001 1
gene 2 207 13 -407785 0 548 -407785 0
gene 2 5 238 69417 0 628 69417 0
gene 2 238 15 685285 0 629 685285 0
gene 3 10 183 -456768 0 685 -456768 1
gene 3 9 207 -60774 0 756 -60774 1
gene 4 12 310 -600372 0 820 -600372 1
gene 4 310 30 611113 0 821 611113 0
gene 3 10 388 1407 0 1034 1407 0
gene 3 388 183 -244344 0 1035 -244344 1
gene 3 7 419 235057 0 1104 235057 0
gene 3 419 15 -52347 0 1105 -52347 1
gene 1 9 455 -97584 0 1202 -97584 1
gene 1 455 14 319509 0 1203 319509 1
gene 1 455 455 592166 1 1275 592166 1
gene 3 419 591 -327976 0 1555 -327976 1
gene 3 591 15 -143481 0 1556 -143481 1
gene 3 7 612 398376 0 1605 398376 0
gene 3 612 14 36060 0 1606 36060 0
gene 3 4 646 446517 0 1691 446517 1
gene 3 646 14 -72690 0 1692 -72690 1
gene 4 6 388 800000 0 1763 800000 1
gene 1 455 695 -333003 1 1828 -333003 1
gene 1 695 455 -235773 0 1829 -235773 0
gene 1 695 758 182104 0 1982 182104 1
gene 1 758 455 -476752 0 1983 -476752 1
gene 2 183 873 333625 0 2264 333625 1
gene 2 873 15 542979 0 2265 542979 1
gene 1 310 388 -154431 0 2353 -154431 1
gene 1 10 934 -99409 0 2417 -99409 1
gene 1 934 14 113047 0 2418 113047 1
gene 2 9 388 25965 0 2756 25965 1
gene 2 9 1136 660429 0 2936 660429 1
gene 2 1136 388 504814 0 2937 504814 1
gene 1 934 1191 -289149 0 3070 -289149 1
gene 1 1191 14 568635 0 3071 568635 1
gene 2 3 1225 -214236 0 3155 -214236 0
gene 2 1225 207 -38847 0 3156 -38847 1
gene 1 873 873 -189504 1 3296 -189504 1
gene 1 591 455 80052 0 3392 80052 1
gene 2 1136 1350 770198 0 3472 770198 1
gene 2 1350 388 457258 0 3473 457258 1
gene 2 238 238 -333522 1 3569 -333522 1
gene 3 10 1420 -80925 0 3648 -80925 1
gene 3 1420 388 458829 0 3649 458829 1
gene 3 4 1454 -245748 0 3731 -245748 1
gene 3 1454 15 372629 0 3732 372629 0
gene 3 612 1488 -528999 0 3812 -528999 1
gene 3 1488 14 166665 0 3813 166665 1
gene 3 388 1550 74262 0 3976 74262 1
gene 3 1550 183 34497 0 3977 34497 1
gene 3 1420 1591 289872 0 4076 289872 0
gene 3 1591 388 -62073 0 4077 -62073 1
gene 4 310 1626 -50076 0 4165 -50076 1
gene 4 1626 30 -122154 0 4166 -122154 0
gene 4 1550 419 -132423 0 4260 -132423 1
gene 1 455 1821 84154 0 4650 84154 1
gene 1 1821 14 84027 0 4651 84027 1
gene 1 5 1868 -218076 0 4778 -218076 0
gene 1 1868 156 -18543 0 4779 -18543 1
gene 1 183 183 -65661 1 4880 -65661 1
gene 4 1550 1550 729856 1 4949 729856 1
gene 3 1454 1975 -726229 0 5033 -726229 1
gene 3 1975 15 -549771 0 5034 -549771 1
gene 1 156 2010 338815 0 5118 338815 1
gene 1 2010 13 -52806 0 5119 -52806 1
gene 3 1550 2051 -18813 0 5219 -18813 1
gene 3 2051 183 -76023 0 5220 -76023 1
gene 3 612 612 -66207 1 5310 -66207 0
gene 1 183 2192 -167724 1 5568 -167724 1
gene 1 2192 183 239467 0 5569 239467 1
gene 1 310 2223 -268005 0 5641 -268005 1
gene 1 2223 388 308859 0 5642 308859 1
gene 3 419 2280 -138387 0 5793 -138387 0
gene 3 2280 591 -80490 0 5794 -80490 1
gene 3 591 2365 416505 0 6011 416505 1
gene 3 2365 15 -17529 0 6012 -17529 0
gene 4 1626 2390 546903 0 6075 546903 1
gene 4 2390 30 537679 0 6076 537679 1
gene 2 1136 2447 496047 0 6225 496047 1
gene 2 2447 1350 -273669 0 6226 -273669 1
gene 4 11 2570 292682 0 6534 292682 1
gene 4 2570 13 57678 0 6535 57678 0
gene 3 7 2753 237666 0 6991 237666 1
gene 3 2753 612 78807 0 6992 78807 1
gene 1 183 2783 197310 1 7072 197310 0
gene 1 2783 183 -5345 0 7073 -5345 0
gene 1 758 1591 16314 0 7387 16314 1
gene 1 2192 2922 684081 0 7438 684081 0
gene 1 2922 183 -33861 0 7439 -33861 1
gene 2 1454 1454 42822 1 7652 42822 1
gene 4 7 2192 -792068 0 7731 -792068 0
gene 1 2223 3065 -162666 0 7809 -162666 1
gene 1 3065 388 485259 0 7810 485259 1
gene 3 9 3096 191511 0 7884 191511 1
gene 4 3096 15 59497 0 7885 59497 0
gene 3 1136 1821 -501673 0 7970 -501673 0
gene 1 10 3185 186897 0 8106 186897 1
gene 1 3185 934 -421137 0 8107 -421137 1
gene 3 3096 3206 630606 0 8161 630606 1
gene 3 3206 15 -310200 0 8162 -310200 1
gene 4 6 3236 -72549 0 8245 -72549 1
gene 4 3236 14 272599 0 8246 272599 1
gene 2 1136 3278 343387 0 8347 343387 1
gene 2 3278 388 103323 0 8348 103323 1
gene 1 758 3303 11910 0 8414 11910 1
gene 1 3303 455 111015 0 8415 111015 1
gene 3 8 2447 220299 0 8513 220299 1
gene 1 591 591 102197 1 8588 102197 1
gene 3 12 3403 540753 0 8670 540753 1
gene 1 3403 13 234197 0 8671 234197 1
gene 4 7 3528 -321654 0 8979 -321654 1
gene 4 3528 2192 -110574 0 8980 -110574 0
gene 3 3096 612 216450 0 9082 216450 1
gene 3 612 3611 234306 1 9204 234306 1
gene 3 3611 612 713014 0 9205 713014 1
gene 4 1550 3652 -140209 1 9292 -140209 1
gene 4 3652 1550 800000 0 9293 800000 1
gene 1 2280 1454 184611 0 9594 184611 1
gene 1 183 3816 -591260 1 9727 -591260 1
gene 1 3816 2783 -367929 0 9728 -367929 1
gene 2 238 3850 574865 1 9814 574865 1
gene 2 3850 238 -800000 0 9815 -800000 1
gene 3 646 2365 581379 0 9895 581379 0
gene 4 2922 2922 -719081 1 10151 -719081 1
gene 4 11 4020 28972 0 10235 28972 1
gene 4 4020 2570 276603 0 10236 276603 1
gene 2 5 4056 318526 0 10320 318526 1
gene 2 4056 238 83502 0 10321 83502 0
gene 2 2 4084 352140 0 10394 352140 1
gene 2 4084 13 115025 0 10395 115025 1
gene 3 1975 4114 85493 0 10472 85493 1
gene 3 4114 15 -54451 0 10473 -54451 1
gene 4 7 4165 178473 0 10605 178473 0
gene 4 4165 13 -11571 0 10606 -11571 1
gene 1 2783 2570 34234 0 10685 34234 0
gene 1 2783 4273 -399672 0 10874 -399672 1
gene 1 4273 183 -134958 0 10875 -134958 1
gene 2 2447 4305 -762737 0 10952 -762737 1
gene 2 4305 1350 535317 0 10953 535317 1
gene 4 2570 4345 -800000 0 11049 -800000 1
gene 4 4345 13 605953 0 11050 605953 1
gene 4 156 15 -272412 0 11135 -272412 1
gene 1 3065 4471 -522111 0 11369 -522111 1
gene 1 4471 388 -533871 0 11370 -533871 1
gene 3 2365 4502 -290175 0 11439 -290175 1
gene 3 4502 15 366204 0 11440 366204 1
gene 1 591 4531 -373879 0 11513 -373879 1
gene 1 4531 455 293082 0 11514 293082 1
gene 2 238 4609 378702 0 11693 378702 1
gene 2 4609 15 -424311 0 11694 -424311 1
gene 2 2 4649 652734 0 11787 652734 1
gene 2 4649 15 -46900 0 11788 -46900 1
gene 3 7 4684 -430233 0 11871 -430233 1
gene 3 4684 419 -460340 0 11872 -460340 1
gene 2 873 4718 204783 0 11956 204783 1
gene 2 4718 15 309255 0 11957 309255 1
gene 2 183 4752 -43635 0 12043 -43635 1
gene 2 4752 873 -134592 0 12044 -134592 1
gene 2 3 4789 -134913 0 12139 -134913 1
gene 2 4789 207 -205938 0 12140 -205938 1
gene 1 455 4889 -9288 1 12394 -9288 1
gene 1 4889 695 -49525 0 12395 -49525 1
gene 3 9 4923 -112459 0 12475 -112459 1
gene 3 4923 3096 -108689 0 12476 -108689 1
gene 4 2390 4959 341220 0 12563 341220 1
gene 4 4959 30 278121 0 12564 278121 1
gene 2 646 4114 -800000 0 12746 -800000 1
gene 1 873 1975 -148347 0 13072 -148347 1
gene 1 2783 5182 282825 0 13143 282825 1
gene 1 5182 2570 -169808 0 13144 -169808 1
gene 4 3528 5213 379579 0 13231 379579 1
gene 4 5213 2192 -70971 0 13232 -70971 1
gene 3 8 5249 178968 0 13323 178968 1
gene 3 5249 14 -261012 0 13324 -261012 1
gene 2 310 183 -263244 0 13578 -263244 1
gene 2 3 5388 -150033 0 13649 -150033 0
gene 2 5388 1225 403800 0 13650 403800 1
gene 4 2390 5421 -292653 0 13728 -292653 1
gene 4 5421 30 11437 0 13729 11437 1
gene 3 1454 5451 -708081 0 13805 -708081 1
gene 3 5451 15 177957 0 13806 177957 1
gene 1 5 5495 78016 0 13911 78016 1
gene 1 5495 1868 -129444 0 13912 -129444 1
gene 2 5 2390 -466125 0 13988 -466125 1
gene 1 873 5620 173403 1 14222 173403 1
gene 1 5620 873 165082 0 14223 165082 1
gene 3 1136 5653 -573619 0 14306 -573619 1
gene 3 5653 1821 282597 0 14307 282597 1
gene 2 5 5685 -509866 0 14376 -509866 1
gene 2 5685 2390 329286 0 14377 329286 1
gene 2 3 5721 -311988 0 14466 -311988 1
gene 2 5721 5388 625248 0 14467 625248 1
gene 4 12 5757 365287 0 14550 365287 1
gene 4 5757 14 223257 0 14551 223257 1
gene 4 2192 2192 -230086 1 14644 -230086 1
gene 2 4471 3611 43646 0 14731 43646 1
gene 2 3652 183 -342483 0 14980 -342483 1
gene 3 3611 1550 410058 0 15006 410058 1
gene 2 3652 6001 -330668 0 15168 -330668 1
gene 2 6001 183 59253 0 15169 59253 1
gene 4 7 6034 69316 0 15242 69316 1
gene 4 6034 2192 101137 0 15243 101137 1
gene 1 873 6064 587603 1 15310 587603 1
gene 1 6064 5620 -83434 0 15311 -83434 1
gene 1 455 6096 204882 0 15387 204882 1
gene 1 6096 14 141213 0 15388 141213 1
gene 2 207 6131 290787 0 15472 290787 1
gene 2 6131 13 222909 0 15473 222909 1
gene 1 5620 238 -24428 0 15552 -24428 1
gene 1 6 3096 -481818 0 15654 -481818 1
gene 4 2192 1454 263058 0 15745 263058 0
gene 3 1420 6348 138759 0 16013 138759 1
gene 3 6348 1591 -386298 0 16014 -386298 1
gene 2 4020 4889 -278478 0 16278 -278478 1
gene 2 934 4084 -606162 0 16345 -606162 1
gene 1 4609 2390 -252283 0 16538 -252283 1
gene 1 310 6580 -53288 0 16600 -53288 1
gene 1 6580 2223 800000 0 16601 800000 1
gene 3 419 6617 279450 0 16690 279450 1
gene 3 6617 2280 329161 0 16691 329161 1
gene 4 11 5653 179532 0 16783 179532 1
gene 2 4056 6748 -190719 0 17017 -190719 1
gene 2 6748 238 -92952 0 17018 -92952 1
gene 2 4889 4889 99303 1 17091 99303 1
gene 4 2192 6858 22677 0 17295 22677 1
gene 4 6858 1454 -178086 0 17296 -178086 1
gene 1 5 6944 -223694 0 17513 -223694 1
gene 1 6944 5495 136326 0 17514 136326 1
gene 2 3206 5685 -189108 0 17669 -189108 1
gene 2 2447 6617 228126 0 17743 228126 1
gene 3 1420 7066 296836 0 17816 296836 1
gene 3 7066 1591 -371884 0 17817 -371884 1
gene 1 2192 7243 1 0 18279 0 1
gene 1 7243 2922 684081 0 18280 0 1
gene 1 591 7294 1 1 18415 0 1
gene 1 7294 591 102197 0 18416 0 1
gene 2 4684 695 7135 0 18611 7135 1
gene 4 8 7413 1 0 18705 0 1
gene 4 7413 15 -631652 0 18706 0 1
gene 3 646 7452 1 0 18801 0 1
gene 3 7452 2365 581379 0 18802 0 1
gene 4 7 7499 1 0 18917 0 1
gene 4 7499 4165 178473 0 18918 0 1
genomeend 43


/* Organism #46 Fitness: 270.000000 Time: 0 */
/* Position #46*/
#1 x: 27 y: 28
#2 x: 46 y: 31
#3 x: 18 y: 29
#4 x: 69 y: 80
#5 x: 27 y: 78
#6 x: 61 y: 62
genomestart 46
trait 1 0.000000 64758.000000 0.000000 6295.000000 16291.000000 62623.000000 0.000000 0.000000 trait 2 0.000000 2069.000000 0.000000 0.000000 0.000000 39453.000000 0.000000 81032.000000 trait 3 0.000000 0.000000 0.000000 0.000000 52930.000000 0.000000 0.000000 0.000000 trait 4 4.000000 0.000000 0.000000 100000.000000 0.000000 0.000000 44904.000000 0.000000 node 1 3 1 3
node 2 3 1 1
node 3 1 1 1
node 4 2 1 1
node 5 4 1 1
node 6 3 1 1
node 7 2 1 1
node 8 3 1 1
node 9 1 1 1
node 10 1 1 1
node 11 1 1 1
node 12 1 1 1
node 13 3 0 2
node 14 3 0 2
node 15 2 0 2
node 30 1 0 0
node 156 1 0 0
node 183 1 0 0
node 207 1 0 0
node 238 1 0 0
node 310 1 0 0
node 388 1 0 0
node 419 1 0 0
node 455 1 0 0
node 591 1 0 0
node 612 1 0 0
node 646 1 0 0
node 695 1 0 0
node 758 1 0 0
node 873 1 0 0
node 934 1 0 0
node 1136 1 0 0
node 1191 1 0 0
node 1225 1 0 0
node 1350 1 0 0
node 1420 1 0 0
node 1454 1 0 0
node 1488 1 0 0
node 1550 1 0 0
node 1591 1 0 0
node 1626 2 0 0
node 1821 1 0 0
node 1868 2 0 0
node 1975 1 0 0
node 2010 1 0 0
node 2051 1 0 0
node 2192 1 0 0
node 2223 1 0 0
node 2280 1 0 0
node 2365 1 0 0
node 2390 1 0 0
node 2447 1 0 0
node 2570 1 0 0
node 2753 1 0 0
node 2783 1 0 0
node 2922 1 0 0
node 3065 1 0 0
node 3096 1 0 0
node 3185 1 0 0
node 3206 1 0 0
node 3236 1 0 0
node 3278 1 0 0
node 3303 1 0 0
node 3403 1 0 0
node 3528 1 0 0
node 3611 1 0 0
node 3652 1 0 0
node 3816 3 0 0
node 3850 1 0 0
node 4020 1 0 0
node 4056 1 0 0
node 4084 1 0 0
node 4114 1 0 0
node 4165 1 0 0
node 4273 1 0 0
node 4305 1 0 0
node 4345 1 0 0
node 4471 1 0 0
node 4502 1 0 0
node 4531 1 0 0
node 4609 4 0 0
node 4649 1 0 0
node 4684 1 0 0
node 4718 1 0 0
node 4752 1 0 0
node 4789 1 0 0
node 4889 1 0 0
node 4923 1 0 0
node 4959 1 0 0
node 5182 1 0 0
node 5213 1 0 0
node 5249 1 0 0
node 5388 1 0 0
node 5421 1 0 0
node 5451 1 0 0
node 5495 1 0 0
node 5620 1 0 0
node 5653 1 0 0
node 5685 1 0 0
node 5721 1 0 0
node 5757 1 0 0
node 6001 1 0 0
node 6034 1 0 0
node 6064 1 0 0
node 6096 1 0 0
node 6131 1 0 0
node 6348 1 0 0
node 6535 1 0 0
node 6638 1 0 0
node 6772 1 0 0
node 6801 1 0 0
node 6949 1 0 0
node 6989 1 0 0
node 7055 1 0 0
node 7084 1 0 0
node 7168 1 0 0
node 7225 1 0 0
node 7310 1 0 0
node 7388 1 0 0
node 7500 1 0 0
gene 2 1 13 51870 0 1 51870 1
gene 2 2 13 800000 0 2 800000 0
gene 2 3 13 -619461 0 3 -619461 1
gene 2 4 13 800000 0 4 800000 1
gene 1 5 13 370257 0 5 370257 1
gene 3 6 13 239832 0 6 239832 0
gene 4 7 13 189006 0 7 189006 0
gene 1 8 13 -97374 0 8 -97374 1
gene 3 9 13 -142734 0 9 -142734 1
gene 4 10 13 -35742 0 10 -35742 1
gene 4 11 13 346260 0 11 346260 0
gene 3 12 13 -230256 0 12 -230256 0
gene 1 1 14 -124524 0 13 -124524 1
gene 2 2 14 -259230 0 14 -259230 0
gene 1 3 14 -261057 0 15 -261057 1
gene 3 4 14 -385872 0 16 -385872 1
gene 2 5 14 381099 0 17 381099 1
gene 4 6 14 14748 0 18 14748 1
gene 3 7 14 -471528 0 19 -471528 0
gene 3 8 14 337007 0 20 337007 1
gene 1 9 14 398307 0 21 398307 1
gene 1 10 14 69216 0 22 69216 1
gene 3 11 14 183621 0 23 183621 1
gene 4 12 14 -53301 0 24 -53301 0
gene 1 1 15 329082 0 25 329082 1
gene 2 2 15 -365030 0 26 -365030 0
gene 2 3 15 -137154 0 27 -137154 0
gene 3 4 15 800000 0 28 800000 1
gene 2 5 15 -54219 0 29 -54219 0
gene 2 6 15 -96780 0 30 -96780 1
gene 3 7 15 172020 0 31 172020 1
gene 4 8 15 -800000 0 32 -800000 1
gene 3 9 15 -111072 0 33 -111072 1
gene 1 10 15 184656 0 34 184656 1
gene 2 11 15 -10173 0 35 -10173 1
gene 2 12 15 452052 0 36 452052 1
gene 2 2 30 -753354 0 68 -753354 1
gene 2 30 14 -635709 0 69 -635709 1
gene 4 12 30 76941 0 128 76941 1
gene 4 13 14 -727905 0 154 -727905 1
gene 1 5 156 -105810 0 401 -105810 1
gene 1 156 13 158340 0 402 158340 1
gene 2 11 183 -800000 0 483 -800000 1
gene 2 183 15 800000 0 484 800000 0
gene 2 3 207 -95997 0 547 -95997 0
gene 2 207 13 198759 0 548 198759 0
gene 2 5 238 -117204 0 628 -117204 0
gene 2 238 15 -77940 0 629 -77940 0
gene 3 10 183 36909 0 685 36909 1
gene 3 9 207 243789 0 756 243789 1
gene 4 12 310 42507 0 820 42507 1
gene 4 310 30 -187941 0 821 -187941 1
gene 3 10 388 -466251 0 1034 -466251 1
gene 3 388 183 -247746 0 1035 -247746 1
gene 3 7 419 169371 0 1104 169371 0
gene 3 419 15 -423723 0 1105 -423723 1
gene 1 9 455 -468309 0 1202 -468309 1
gene 1 455 14 -672882 0 1203 -672882 0
gene 1 455 455 -99258 1 1275 -99258 1
gene 3 419 591 420630 0 1555 420630 1
gene 3 591 15 267642 0 1556 267642 1
gene 3 7 612 446571 0 1605 446571 1
gene 3 612 14 -200997 0 1606 -200997 1
gene 3 4 646 -96684 0 1691 -96684 1
gene 3 646 14 -800000 0 1692 -800000 1
gene 4 6 388 542754 0 1763 542754 1
gene 1 455 695 -309078 1 1828 -309078 0
gene 1 695 455 342792 0 1829 342792 0
gene 1 695 758 -63684 0 1982 -63684 1
gene 1 758 455 -381879 0 1983 -381879 1
gene 2 183 873 -200292 0 2264 -200292 0
gene 2 873 15 86208 0 2265 86208 0
gene 1 310 388 -73785 0 2353 -73785 1
gene 1 10 934 342759 0 2417 342759 1
gene 1 934 14 -80931 0 2418 -80931 1
gene 2 9 388 240711 0 2756 240711 1
gene 2 9 1136 480054 0 2936 480054 1
gene 2 1136 388 -44214 0 2937 -44214 1
gene 1 934 1191 68775 0 3070 68775 1
gene 1 1191 14 620882 0 3071 620882 1
gene 2 3 1225 379806 0 3155 379806 0
gene 2 1225 207 -18138 0 3156 -18138 1
gene 1 873 873 -99000 1 3296 -99000 1
gene 1 591 455 362520 0 3392 362520 0
gene 2 1136 1350 -259407 0 3472 -259407 1
gene 2 1350 388 800000 0 3473 800000 1
gene 2 238 238 -579912 1 3569 -579912 0
gene 3 10 1420 448806 0 3648 448806 1
gene 3 1420 388 657372 0 3649 657372 1
gene 3 4 1454 434157 0 3731 434157 1
gene 3 1454 15 -703632 0 3732 -703632 0
gene 3 612 1488 214185 0 3812 214185 1
gene 3 1488 14 737813 0 3813 737813 1
gene 3 388 1550 -703938 0 3976 -703938 0
gene 3 1550 183 206913 0 3977 206913 1
gene 3 1420 1591 -285942 0 4076 -285942 0
gene 3 1591 388 -137535 0 4077 -137535 1
gene 4 310 1626 144402 0 4165 144402 1
gene 4 1626 30 94482 0 4166 94482 1
gene 4 1550 419 77700 0 4260 77700 1
gene 1 455 1821 -800000 0 4650 -800000 1
gene 1 1821 14 471504 0 4651 471504 1
gene 1 5 1868 368733 0 4778 368733 0
gene 1 1868 156 -271671 0 4779 -271671 0
gene 1 183 183 -199851 1 4880 -199851 1
gene 4 1550 1550 14649 1 4949 14649 1
gene 3 1454 1975 -157983 0 5033 -157983 1
gene 3 1975 15 -137157 0 5034 -137157 0
gene 1 156 2010 -515532 0 5118 -515532 1
gene 1 2010 13 -139539 0 5119 -139539 1
gene 3 1550 2051 564890 0 5219 564890 1
gene 3 2051 183 -706847 0 5220 -706847 1
gene 3 612 612 65955 1 5310 65955 1
gene 1 183 2192 -297942 1 5568 -297942 1
gene 1 2192 183 268653 0 5569 268653 1
gene 1 310 2223 -327270 0 5641 -327270 1
gene 1 2223 388 650405 0 5642 650405 0
gene 3 419 2280 -53451 0 5793 -53451 1
gene 3 2280 591 139770 0 5794 139770 1
gene 3 591 2365 -226386 0 6011 -226386 1
gene 3 2365 15 271287 0 6012 271287 0
gene 4 1626 2390 237042 0 6075 237042 1
gene 4 2390 30 -190146 0 6076 -190146 0
gene 2 1136 2447 61723 0 6225 61723 1
gene 2 2447 1350 -26313 0 6226 -26313 0
gene 4 11 2570 48264 0 6534 48264 0
gene 4 2570 13 -394884 0 6535 -394884 1
gene 3 7 2753 88962 0 6991 88962 1
gene 3 2753 612 -64995 0 6992 -64995 1
gene 1 183 2783 43557 1 7072 43557 0
gene 1 2783 183 444399 0 7073 444399 1
gene 1 758 1591 -85122 0 7387 -85122 1
gene 1 2192 2922 800000 0 7438 800000 1
gene 1 2922 183 -307893 0 7439 -307893 1
gene 2 1454 1454 239541 1 7652 239541 1
gene 4 7 2192 -149784 0 7731 -149784 1
gene 1 2223 3065 -752786 0 7809 -752786 1
gene 1 3065 388 -800000 0 7810 -800000 1
gene 3 9 3096 -91158 0 7884 -91158 1
gene 4 3096 15 291150 0 7885 291150 0
gene 3 1136 1821 622101 0 7970 622101 0
gene 1 10 3185 -18564 0 8106 -18564 1
gene 1 3185 934 59082 0 8107 59082 1
gene 3 3096 3206 -220554 0 8161 -220554 1
gene 3 3206 15 328692 0 8162 328692 1
gene 4 6 3236 -434733 0 8245 -434733 1
gene 4 3236 14 165978 0 8246 165978 1
gene 2 1136 3278 -601431 0 8347 -601431 1
gene 2 3278 388 -175875 0 8348 -175875 0
gene 1 758 3303 -242394 0 8414 -242394 1
gene 1 3303 455 167190 0 8415 167190 1
gene 3 8 2447 -94854 0 8513 -94854 1
gene 1 591 591 -180621 1 8588 -180621 1
gene 3 12 3403 -190727 0 8670 -190727 1
gene 1 3403 13 -440943 0 8671 -440943 1
gene 4 7 3528 -556251 0 8979 -556251 1
gene 4 3528 2192 92481 0 8980 92481 1
gene 3 3096 612 17181 0 9082 17181 1
gene 3 612 3611 289107 1 9204 289107 1
gene 3 3611 612 740829 0 9205 740829 1
gene 4 1550 3652 -153453 1 9292 -153453 1
gene 4 3652 1550 279699 0 9293 279699 1
gene 1 2280 1454 -131325 0 9594 -131325 1
gene 1 183 3816 -4350 1 9727 -4350 1
gene 1 3816 2783 523859 0 9728 523859 1
gene 2 238 3850 -41196 1 9814 -41196 1
gene 2 3850 238 -606551 0 9815 -606551 1
gene 3 646 2365 274451 0 9895 274451 1
gene 4 2922 2922 -497918 1 10151 -497918 0
gene 4 11 4020 128589 0 10235 128589 1
gene 4 4020 2570 351912 0 10236 351912 1
gene 2 5 4056 -90189 0 10320 -90189 1
gene 2 4056 238 -229077 0 10321 -229077 1
gene 2 2 4084 -192054 0 10394 -192054 1
gene 2 4084 13 792285 0 10395 792285 1
gene 3 1975 4114 92490 0 10472 92490 1
gene 3 4114 15 -687711 0 10473 -687711 1
gene 4 7 4165 -547956 0 10605 -547956 1
gene 4 4165 13 172650 0 10606 172650 1
gene 1 2783 2570 -162747 0 10685 -162747 0
gene 1 2783 4273 -235524 0 10874 -235524 1
gene 1 4273 183 -172349 0 10875 -172349 1
gene 2 2447 4305 -15708 0 10952 -15708 1
gene 2 4305 1350 61950 0 10953 61950 1
gene 4 2570 4345 -485589 0 11049 -485589 1
gene 4 4345 13 52278 0 11050 52278 1
gene 4 156 15 288660 0 11135 288660 1
gene 1 3065 4471 -141624 0 11369 -141624 1
gene 1 4471 388 169470 0 11370 169470 1
gene 3 2365 4502 198963 0 11439 198963 1
gene 3 4502 15 -548043 0 11440 -548043 1
gene 1 591 4531 -561840 0 11513 -561840 1
gene 1 4531 455 -263115 0 11514 -263115 1
gene 2 238 4609 800000 0 11693 800000 0
gene 2 4609 15 501561 0 11694 501561 1
gene 2 2 4649 -242109 0 11787 -242109 1
gene 2 4649 15 -170013 0 11788 -170013 1
gene 3 7 4684 -749781 0 11871 -749781 1
gene 3 4684 419 288282 0 11872 288282 1
gene 2 873 4718 32760 0 11956 32760 1
gene 2 4718 15 -339249 0 11957 -339249 1
gene 2 183 4752 -139434 0 12043 -139434 1
gene 2 4752 873 -154695 0 12044 -154695 1
gene 2 3 4789 -104151 0 12139 -104151 0
gene 2 4789 207 433722 0 12140 433722 1
gene 1 455 4889 -153249 1 12394 -153249 1
gene 1 4889 695 190203 0 12395 190203 1
gene 3 9 4923 -800000 0 12475 -800000 1
gene 3 4923 3096 532263 0 12476 532263 1
gene 4 2390 4959 524646 0 12563 524646 1
gene 4 4959 30 200562 0 12564 200562 1
gene 2 646 4114 87342 0 12746 87342 1
gene 1 873 1975 -499422 0 13072 -499422 1
gene 1 2783 5182 -206799 0 13143 -206799 1
gene 1 5182 2570 -655005 0 13144 -655005 1
gene 4 3528 5213 -348246 0 13231 -348246 1
gene 4 5213 2192 548487 0 13232 548487 1
gene 3 8 5249 163659 0 13323 163659 1
gene 3 5249 14 -83535 0 13324 -83535 1
gene 2 310 183 -462441 0 13578 -462441 1
gene 2 3 5388 -280299 0 13649 -280299 0
gene 2 5388 1225 -77622 0 13650 -77622 1
gene 4 2390 5421 251436 0 13728 251436 1
gene 4 5421 30 -510516 0 13729 -510516 1
gene 3 1454 5451 -100296 0 13805 -100296 1
gene 3 5451 15 134775 0 13806 134775 1
gene 1 5 5495 -246621 0 13911 -246621 1
gene 1 5495 1868 -530439 0 13912 -530439 1
gene 2 5 2390 -51318 0 13988 -51318 0
gene 1 873 5620 460938 1 14222 460938 0
gene 1 5620 873 63483 0 14223 63483 1
gene 3 1136 5653 11985 0 14306 11985 1
gene 3 5653 1821 641448 0 14307 641448 1
gene 2 5 5685 446808 0 14376 446808 1
gene 2 5685 2390 -207663 0 14377 -207663 1
gene 2 3 5721 137217 0 14466 137217 1
gene 2 5721 5388 11544 0 14467 11544 1
gene 4 12 5757 217659 0 14550 217659 1
gene 4 5757 14 599334 0 14551 599334 1
gene 4 2192 2192 -157713 1 14644 -157713 1
gene 2 4471 3611 -180678 0 14731 -180678 1
gene 2 3652 183 -170514 0 14980 -170514 0
gene 3 3611 1550 -6429 0 15006 -6429 1
gene 2 3652 6001 -145965 0 15168 -145965 1
gene 2 6001 183 211218 0 15169 211218 1
gene 4 7 6034 164676 0 15242 164676 0
gene 4 6034 2192 -6834 0 15243 -6834 1
gene 1 873 6064 800000 1 15310 800000 0
gene 1 6064 5620 701557 0 15311 701557 1
gene 1 455 6096 310686 0 15387 310686 1
gene 1 6096 14 -34629 0 15388 -34629 0
gene 2 207 6131 -497688 0 15472 -497688 1
gene 2 6131 13 -107070 0 15473 -107070 1
gene 1 5620 238 149451 0 15552 149451 1
gene 1 6 3096 52050 0 15654 52050 1
gene 4 2192 1454 -425997 0 15745 -425997 1
gene 3 1420 6348 -158352 0 16013 -158352 1
gene 3 6348 1591 -175521 0 16014 -175521 1
gene 2 4020 4889 138342 0 16278 138342 1
gene 2 934 4084 170694 0 16345 170694 1
gene 1 873 6535 80616 1 16491 80616 1
gene 1 6535 6064 122442 0 16492 122442 1
gene 2 3 6638 -95360 0 16740 -95360 1
gene 2 6638 4789 208683 0 16741 208683 1
gene 2 1420 591 35598 0 16808 35598 1
gene 4 310 3403 -86383 0 16895 -86383 1
gene 3 6096 1454 112761 0 17000 112761 1
gene 2 3 6772 -44511 0 17076 -44511 1
gene 2 6772 15 -272280 0 17077 -272280 1
gene 3 388 6801 -103418 0 17154 -103418 1
gene 3 6801 1550 103971 0 17155 103971 1
gene 2 4649 4649 385946 1 17379 385946 1
gene 2 873 6949 120984 0 17524 120984 1
gene 2 6949 15 -207036 0 17525 -207036 1
gene 2 238 6989 -140262 0 17622 -140262 1
gene 2 6989 4609 69996 0 17623 69996 1
gene 1 4684 6772 -264957 0 17718 -264957 1
gene 1 1868 7055 113883 0 17787 113883 1
gene 1 7055 156 -167346 0 17788 -167346 1
gene 4 7 7084 -79224 0 17871 -79224 1
gene 4 7084 6034 225702 0 17872 225702 1
gene 1 6096 3403 126024 0 17942 126024 1
gene 1 6096 7168 -142200 0 18095 -142200 1
gene 1 7168 14 -235572 0 18096 -235572 1
gene 4 4305 2192 360501 0 18162 360501 1
gene 2 2 7225 -431717 0 18238 -431717 1
gene 2 7225 15 151191 0 18239 151191 1
gene 2 3278 7310 -511208 0 18454 -511208 1
gene 2 7310 388 -431892 0 18455 -431892 1
gene 3 4165 4959 -86798 0 18548 -86798 1
gene 3 6 7388 101305 0 18639 101305 1
gene 3 7388 13 150684 0 18640 150684 1
gene 4 2922 7500 1 1 18920 0 1
gene 4 7500 2922 -497918 0 18921 0 1
genomeend 46


/* Organism #48 Fitness: 220.000000 Time: 0 */
/* Position #48*/
#1 x: 56 y: 27
#2 x: 24 y: 36
#3 x: 21 y: 19
#4 x: 69 y: 64
#5 x: 39 y: 64
#6 x: 24 y: 60
genomestart 48
trait 1 0.000000 64758.000000 0.000000 6295.000000 16291.000000 62623.000000 0.000000 0.000000 trait 2 0.000000 2069.000000 0.000000 0.000000 0.000000 39453.000000 0.000000 81032.000000 trait 3 0.000000 0.000000 0.000000 0.000000 52930.000000 0.000000 0.000000 0.000000 trait 4 4.000000 0.000000 0.000000 100000.000000 0.000000 0.000000 44904.000000 0.000000 node 1 3 1 3
node 2 3 1 1
node 3 1 1 1
node 4 2 1 1
node 5 4 1 1
node 6 3 1 1
node 7 2 1 1
node 8 3 1 1
node 9 1 1 1
node 10 1 1 1
node 11 1 1 1
node 12 1 1 1
node 13 3 0 2
node 14 3 0 2
node 15 2 0 2
node 30 1 0 0
node 156 1 0 0
node 183 1 0 0
node 207 1 0 0
node 238 1 0 0
node 310 1 0 0
node 388 1 0 0
node 419 1 0 0
node 455 1 0 0
node 591 1 0 0
node 612 1 0 0
node 646 1 0 0
node 695 1 0 0
node 758 1 0 0
node 873 1 0 0
node 934 1 0 0
node 1136 1 0 0
node 1191 1 0 0
node 1225 1 0 0
node 1350 1 0 0
node 1420 1 0 0
node 1454 1 0 0
node 1488 1 0 0
node 1550 1 0 0
node 1591 1 0 0
node 1626 2 0 0
node 1821 1 0 0
node 1868 2 0 0
node 1975 1 0 0
node 2010 1 0 0
node 2051 1 0 0
node 2192 1 0 0
node 2223 1 0 0
node 2280 1 0 0
node 2365 1 0 0
node 2390 1 0 0
node 2447 1 0 0
node 2570 1 0 0
node 2753 1 0 0
node 2783 1 0 0
node 2922 1 0 0
node 3065 1 0 0
node 3096 1 0 0
node 3185 1 0 0
node 3206 1 0 0
node 3236 1 0 0
node 3278 1 0 0
node 3303 1 0 0
node 3403 1 0 0
node 3528 1 0 0
node 3611 1 0 0
node 3652 1 0 0
node 3816 3 0 0
node 3850 1 0 0
node 4020 1 0 0
node 4056 1 0 0
node 4084 1 0 0
node 4114 1 0 0
node 4165 1 0 0
node 4273 1 0 0
node 4305 1 0 0
node 4345 1 0 0
node 4471 1 0 0
node 4502 1 0 0
node 4531 1 0 0
node 4609 4 0 0
node 4649 1 0 0
node 4684 1 0 0
node 4718 1 0 0
node 4752 1 0 0
node 4789 1 0 0
node 4889 1 0 0
node 4923 1 0 0
node 4959 1 0 0
node 5182 1 0 0
node 5213 1 0 0
node 5249 1 0 0
node 5388 1 0 0
node 5421 1 0 0
node 5451 1 0 0
node 5495 1 0 0
node 5620 1 0 0
node 5653 1 0 0
node 5685 1 0 0
node 5721 1 0 0
node 5757 1 0 0
node 6001 1 0 0
node 6034 1 0 0
node 6064 1 0 0
node 6096 1 0 0
node 6131 1 0 0
node 6348 1 0 0
node 6535 1 0 0
node 6638 1 0 0
node 6772 1 0 0
node 6801 1 0 0
node 6949 1 0 0
node 6989 1 0 0
node 7055 1 0 0
node 7084 1 0 0
node 7168 1 0 0
node 7225 1 0 0
node 7310 1 0 0
node 7388 1 0 0
gene 2 1 13 51870 0 1 51870 1
gene 2 2 13 800000 0 2 800000 0
gene 2 3 13 -619461 0 3 -619461 1
gene 2 4 13 800000 0 4 800000 1
gene 1 5 13 370257 0 5 370257 1
gene 3 6 13 239832 0 6 239832 0
gene 4 7 13 189006 0 7 189006 0
gene 1 8 13 -97374 0 8 -97374 1
gene 3 9 13 -142734 0 9 -142734 1
gene 4 10 13 -35742 0 10 -35742 1
gene 4 11 13 346260 0 11 346260 0
gene 3 12 13 -230256 0 12 -230256 0
gene 1 1 14 -124524 0 13 -124524 1
gene 2 2 14 -259230 0 14 -259230 0
gene 1 3 14 -261057 0 15 -261057 1
gene 3 4 14 -385872 0 16 -385872 1
gene 2 5 14 381099 0 17 381099 1
gene 4 6 14 14748 0 18 14748 1
gene 3 7 14 -471528 0 19 -471528 0
gene 3 8 14 337007 0 20 337007 1
gene 1 9 14 398307 0 21 398307 1
gene 1 10 14 69216 0 22 69216 1
gene 3 11 14 183621 0 23 183621 1
gene 4 12 14 -53301 0 24 -53301 0
gene 1 1 15 329082 0 25 329082 1
gene 2 2 15 -365030 0 26 -365030 0
gene 2 3 15 -137154 0 27 -137154 0
gene 3 4 15 800000 0 28 800000 1
gene 2 5 15 -54219 0 29 -54219 0
gene 2 6 15 -96780 0 30 -96780 1
gene 3 7 15 172020 0 31 172020 1
gene 4 8 15 -800000 0 32 -800000 1
gene 3 9 15 -111072 0 33 -111072 1
gene 1 10 15 184656 0 34 184656 1
gene 2 11 15 -10173 0 35 -10173 1
gene 2 12 15 452052 0 36 452052 1
gene 2 2 30 -753354 0 68 -753354 1
gene 2 30 14 -635709 0 69 -635709 1
gene 4 12 30 76941 0 128 76941 1
gene 4 13 14 -727905 0 154 -727905 1
gene 1 5 156 -105810 0 401 -105810 1
gene 1 156 13 158340 0 402 158340 1
gene 2 11 183 -800000 0 483 -800000 1
gene 2 183 15 800000 0 484 800000 0
gene 2 3 207 -95997 0 547 -95997 0
gene 2 207 13 198759 0 548 198759 0
gene 2 5 238 -117204 0 628 -117204 0
gene 2 238 15 -77940 0 629 -77940 0
gene 3 10 183 36909 0 685 36909 1
gene 3 9 207 243789 0 756 243789 1
gene 4 12 310 42507 0 820 42507 1
gene 4 310 30 -187941 0 821 -187941 1
gene 3 10 388 -466251 0 1034 -466251 1
gene 3 388 183 -247746 0 1035 -247746 1
gene 3 7 419 169371 0 1104 169371 0
gene 3 419 15 -423723 0 1105 -423723 1
gene 1 9 455 -468309 0 1202 -468309 1
gene 1 455 14 -672882 0 1203 -672882 0
gene 1 455 455 -99258 1 1275 -99258 1
gene 3 419 591 420630 0 1555 420630 1
