/* Organism #91 Fitness: 167.000000 Time: 0 */
/* Position #91*/
#1 x: 67 y: 19
#2 x: 20 y: 39
#3 x: 55 y: 20
#4 x: 45 y: 85
#5 x: 56 y: 78
#6 x: 32 y: 72
genomestart 91
node 1 3 1 3
node 2 2 1 1
node 3 1 1 1
node 4 2 1 1
node 5 1 1 1
node 6 2 1 1
node 7 3 1 1
node 8 3 1 1
node 9 3 1 1
node 10 1 1 1
node 11 3 1 1
node 12 1 1 1
node 13 3 1 1
node 14 3 1 1
node 15 1 0 2
node 16 2 0 2
node 17 3 0 2
node 18 1 0 2
gene 2 1 15 -49245 0 1 -49245 1
gene 4 2 15 -203157 0 2 -203157 1
gene 1 3 15 -208772 0 3 -208772 1
gene 1 4 15 108674 0 4 108674 1
gene 4 5 15 -51342 0 5 -51342 1
gene 4 6 15 -263365 0 6 -263365 1
gene 1 7 15 -84209 0 7 -84209 1
gene 4 8 15 -122940 0 8 -122940 1
gene 2 9 15 -156010 0 9 -156010 1
gene 2 10 15 18902 0 10 18902 1
gene 2 11 15 269688 0 11 269688 1
gene 3 12 15 65781 0 12 65781 1
gene 3 13 15 474459 0 13 474459 1
gene 1 14 15 -374987 0 14 -374987 1
gene 2 1 16 226923 0 15 226923 1
gene 3 2 16 248902 0 16 248902 1
gene 4 3 16 -104767 0 17 -104767 1
gene 1 4 16 143346 0 18 143346 1
gene 4 5 16 -136089 0 19 -136089 1
gene 3 6 16 -147783 0 20 -147783 1
gene 4 7 16 201549 0 21 201549 1
gene 2 8 16 -106218 0 22 -106218 1
gene 1 9 16 -292088 0 23 -292088 1
gene 4 10 16 431291 0 24 431291 1
gene 3 11 16 100868 0 25 100868 1
gene 1 12 16 -17848 0 26 -17848 1
gene 4 13 16 -71815 0 27 -71815 1
gene 1 14 16 165170 0 28 165170 1
gene 2 1 17 -100098 0 29 -100098 1
gene 4 2 17 59760 0 30 59760 1
gene 1 3 17 -72906 0 31 -72906 1
gene 2 4 17 109701 0 32 109701 1
gene 4 5 17 -304027 0 33 -304027 1
gene 1 6 17 -82922 0 34 -82922 1
gene 2 7 17 -380381 0 35 -380381 1
gene 4 8 17 -372612 0 36 -372612 1
gene 4 9 17 -187844 0 37 -187844 1
gene 3 10 17 78755 0 38 78755 1
gene 2 11 17 89326 0 39 89326 1
gene 3 12 17 -20985 0 40 -20985 1
gene 1 13 17 181022 0 41 181022 1
gene 4 14 17 -76822 0 42 -76822 1
gene 4 1 18 -210247 0 43 -210247 1
gene 1 2 18 72684 0 44 72684 1
gene 3 3 18 35368 0 45 35368 1
gene 2 4 18 -101849 0 46 -101849 1
gene 3 5 18 41021 0 47 41021 1
gene 3 6 18 -302406 0 48 -302406 1
gene 1 7 18 133092 0 49 133092 1
gene 1 8 18 165368 0 50 165368 1
gene 2 9 18 -195270 0 51 -195270 1
gene 4 10 18 -251571 0 52 -251571 1
gene 4 11 18 77817 0 53 77817 1
gene 2 12 18 -244814 0 54 -244814 1
gene 1 13 18 13733 0 55 13733 1
gene 3 14 18 -289836 0 56 -289836 1
genomeend 91


