/* Organism #1 Fitness: 166.000000 Time: 0 */
/* Position #1*/
#1 x: 55 y: 21
#2 x: 18 y: 17
#3 x: 70 y: 29
#4 x: 80 y: 71
#5 x: 48 y: 70
#6 x: 67 y: 81
genomestart 1
node 1 4 1 3
node 2 3 1 1
node 3 2 1 1
node 4 1 1 1
node 5 1 1 1
node 6 1 1 1
node 7 2 1 1
node 8 3 1 1
node 9 2 1 1
node 10 2 1 1
node 11 3 1 1
node 12 2 1 1
node 13 4 0 2
node 14 2 0 2
node 15 4 0 2
node 16 2 0 2
node 37 1 0 0
gene 4 1 13 -134655 0 1 -134655 1
gene 3 2 13 169695 0 2 169695 1
gene 4 3 13 87948 0 3 87948 1
gene 2 4 13 307509 0 4 307509 1
gene 1 5 13 -91374 0 5 -91374 1
gene 2 6 13 280929 0 6 280929 1
gene 3 7 13 494979 0 7 494979 1
gene 1 8 13 -425001 0 8 -425001 1
gene 2 9 13 644285 0 9 644285 1
gene 2 10 13 30570 0 10 30570 1
gene 2 11 13 -465129 0 11 -465129 1
gene 1 12 13 345654 0 12 345654 1
gene 3 1 14 -371715 0 13 -371715 1
gene 2 2 14 -570459 0 14 -570459 1
gene 1 3 14 -511782 0 15 -511782 1
gene 2 4 14 -25533 0 16 -25533 1
gene 1 5 14 -52296 0 17 -52296 1
gene 3 6 14 287964 0 18 287964 1
gene 2 7 14 52059 0 19 52059 1
gene 1 8 14 120840 0 20 120840 1
gene 1 9 14 368115 0 21 368115 1
gene 2 10 14 154809 0 22 154809 1
gene 1 11 14 -366288 0 23 -366288 1
gene 4 12 14 493017 0 24 493017 1
gene 4 1 15 128904 0 25 128904 1
gene 1 2 15 13068 0 26 13068 1
gene 3 3 15 -525540 0 27 -525540 1
gene 2 4 15 637986 0 28 637986 1
gene 2 5 15 -122700 0 29 -122700 1
gene 1 6 15 -65559 0 30 -65559 0
gene 1 7 15 2547 0 31 2547 1
gene 1 8 15 65283 0 32 65283 1
gene 3 9 15 -241152 0 33 -241152 1
gene 4 10 15 -22050 0 34 -22050 1
gene 2 11 15 35826 0 35 35826 1
gene 3 12 15 -268572 0 36 -268572 1
gene 3 1 16 224073 0 37 224073 1
gene 1 2 16 213267 0 38 213267 1
gene 2 3 16 800000 0 39 800000 1
gene 2 4 16 215487 0 40 215487 1
gene 4 5 16 189057 0 41 189057 1
gene 2 6 16 -283794 0 42 -283794 1
gene 3 7 16 -800000 0 43 -800000 1
gene 1 8 16 -737907 0 44 -737907 1
gene 1 9 16 495867 0 45 495867 1
gene 2 10 16 205224 0 46 205224 1
gene 4 11 16 -213333 0 47 -213333 1
gene 1 12 16 151557 0 48 151557 1
gene 1 15 16 -302076 0 147 -302076 1
gene 2 16 13 -68121 0 340 -68121 1
gene 2 16 14 -123996 0 457 -123996 1
gene 3 13 14 104421 0 507 104421 1
gene 4 15 14 -18324 0 549 -18324 1
gene 1 6 37 27648 0 550 27648 1
gene 1 37 15 -104448 0 551 -104448 1
gene 4 4 37 108858 0 576 108858 1
genomeend 1


/* Organism #4 Fitness: 158.000000 Time: 0 */
/* Position #4*/
#1 x: 55 y: 36
#2 x: 83 y: 33
#3 x: 62 y: 23
#4 x: 31 y: 76
#5 x: 84 y: 74
#6 x: 26 y: 72
genomestart 4
node 1 3 1 3
node 2 4 1 1
node 3 4 1 1
node 4 2 1 1
node 5 3 1 1
node 6 1 1 1
node 7 1 1 1
node 8 1 1 1
node 9 4 1 1
node 10 1 1 1
node 11 1 1 1
node 12 4 1 1
node 13 2 0 2
node 14 4 0 2
node 15 3 0 2
node 16 2 0 2
gene 3 1 13 800000 0 1 800000 1
gene 4 2 13 39711 0 2 39711 1
gene 4 3 13 389001 0 3 389001 1
gene 1 4 13 800000 0 4 800000 1
gene 1 5 13 212348 0 5 212348 1
gene 3 6 13 292008 0 6 292008 1
gene 2 7 13 432128 0 7 432128 1
gene 2 8 13 123426 0 8 123426 1
gene 4 9 13 800000 0 9 800000 1
gene 3 10 13 522306 0 10 522306 1
gene 1 11 13 -513197 0 11 -513197 1
gene 4 12 13 207489 0 12 207489 1
gene 2 1 14 -245514 0 13 -245514 1
gene 2 2 14 343209 0 14 343209 1
gene 4 3 14 131496 0 15 131496 1
gene 4 4 14 -800000 0 16 -800000 1
gene 4 5 14 -414656 0 17 -414656 1
gene 3 6 14 -236652 0 18 -236652 1
gene 2 7 14 -218883 0 19 -218883 1
gene 4 8 14 -83925 0 20 -83925 1
gene 3 9 14 -294478 0 21 -294478 1
gene 3 10 14 -800000 0 22 -800000 1
gene 2 11 14 -512700 0 23 -512700 1
gene 3 12 14 -119078 0 24 -119078 1
gene 3 1 15 -278724 0 25 -278724 1
gene 2 2 15 243477 0 26 243477 1
gene 1 3 15 114345 0 27 114345 1
gene 2 4 15 -258756 0 28 -258756 1
gene 2 5 15 -453900 0 29 -453900 1
gene 1 6 15 -188331 0 30 -188331 1
gene 3 7 15 431547 0 31 431547 1
gene 4 8 15 348513 0 32 348513 1
gene 1 9 15 651482 0 33 651482 1
gene 1 10 15 315543 0 34 315543 1
gene 2 11 15 -343338 0 35 -343338 1
gene 2 12 15 274458 0 36 274458 1
gene 2 1 16 497085 0 37 497085 1
gene 2 2 16 -241089 0 38 -241089 1
gene 1 3 16 433599 0 39 433599 1
gene 2 4 16 -557709 0 40 -557709 1
gene 1 5 16 192585 0 41 192585 1
gene 4 6 16 287646 0 42 287646 1
gene 2 7 16 614202 0 43 614202 1
gene 4 8 16 -55608 0 44 -55608 1
gene 1 9 16 -3033 0 45 -3033 1
gene 3 10 16 199281 0 46 199281 1
gene 2 11 16 284544 0 47 284544 1
gene 1 12 16 -241905 0 48 -241905 1
gene 3 15 15 203298 1 62 203298 1
gene 1 16 13 -240009 0 153 -240009 1
gene 4 13 14 -658071 0 244 -658071 1
gene 2 15 14 246681 0 456 246681 1
genomeend 4


/* Organism #10 Fitness: 154.000000 Time: 0 */
/* Position #10*/
#1 x: 58 y: 25
#2 x: 26 y: 35
#3 x: 80 y: 18
#4 x: 42 y: 62
#5 x: 28 y: 81
#6 x: 57 y: 67
genomestart 10
node 1 2 1 3
node 2 2 1 1
node 3 2 1 1
node 4 4 1 1
node 5 1 1 1
node 6 2 1 1
node 7 3 1 1
node 8 3 1 1
node 9 1 1 1
node 10 4 1 1
node 11 3 1 1
node 12 2 1 1
node 13 4 0 2
node 14 2 0 2
node 15 2 0 2
node 16 4 0 2
gene 2 1 13 192977 0 1 192977 1
gene 3 2 13 -393786 0 2 -393786 1
gene 2 3 13 615131 0 3 615131 1
gene 3 4 13 -661644 0 4 -661644 1
gene 4 5 13 -632165 0 5 -632165 1
gene 1 6 13 229275 0 6 229275 1
gene 4 7 13 363384 0 7 363384 1
gene 1 8 13 16887 0 8 16887 1
gene 1 9 13 543444 0 9 543444 1
gene 4 10 13 426879 0 10 426879 1
gene 1 11 13 -800000 0 11 -800000 1
gene 3 12 13 -56610 0 12 -56610 1
gene 2 1 14 -324789 0 13 -324789 1
gene 1 2 14 -800000 0 14 -800000 1
gene 4 3 14 644994 0 15 644994 1
gene 2 4 14 -93753 0 16 -93753 1
gene 3 5 14 -525996 0 17 -525996 1
gene 3 6 14 -185241 0 18 -185241 1
gene 1 7 14 800000 0 19 800000 1
gene 2 8 14 3822 0 20 3822 1
gene 3 9 14 -241527 0 21 -241527 1
gene 1 10 14 198884 0 22 198884 1
gene 3 11 14 -800000 0 23 -800000 1
gene 2 12 14 27681 0 24 27681 1
gene 4 1 15 -247362 0 25 -247362 1
gene 4 2 15 229884 0 26 229884 1
gene 1 3 15 713082 0 27 713082 1
gene 2 4 15 -110763 0 28 -110763 1
gene 2 5 15 755309 0 29 755309 1
gene 2 6 15 -227271 0 30 -227271 1
gene 3 7 15 -336306 0 31 -336306 1
gene 2 8 15 554117 0 32 554117 1
gene 4 9 15 -558047 0 33 -558047 1
gene 4 10 15 -486510 0 34 -486510 1
gene 1 11 15 -289356 0 35 -289356 1
gene 2 12 15 -240693 0 36 -240693 1
gene 3 1 16 -51297 0 37 -51297 1
gene 3 2 16 408573 0 38 408573 1
gene 2 3 16 197913 0 39 197913 1
gene 4 4 16 -436506 0 40 -436506 1
gene 3 5 16 -800000 0 41 -800000 1
gene 1 6 16 785424 0 42 785424 1
gene 4 7 16 -216417 0 43 -216417 1
gene 4 8 16 249483 0 44 249483 1
gene 4 9 16 -218100 0 45 -218100 1
gene 1 10 16 -111837 0 46 -111837 1
gene 2 11 16 -147744 0 47 -147744 1
gene 3 12 16 -192738 0 48 -192738 1
gene 1 16 16 -279810 1 133 -279810 1
gene 2 15 13 560859 0 196 560859 1
gene 4 14 15 41193 0 207 41193 1
gene 3 14 14 75576 1 290 75576 1
gene 3 16 13 357540 0 297 357540 1
gene 4 14 13 289905 0 347 289905 1
gene 2 14 16 93531 0 405 93531 1
gene 4 15 16 -800000 0 451 -800000 1
genomeend 10


/* Organism #17 Fitness: 164.000000 Time: 0 */
/* Position #17*/
#1 x: 72 y: 30
#2 x: 64 y: 33
#3 x: 73 y: 35
#4 x: 55 y: 67
#5 x: 48 y: 82
#6 x: 19 y: 75
genomestart 17
node 1 2 1 3
node 2 4 1 1
node 3 1 1 1
node 4 3 1 1
node 5 1 1 1
node 6 2 1 1
node 7 4 1 1
node 8 3 1 1
node 9 1 1 1
node 10 3 1 1
node 11 3 1 1
node 12 3 1 1
node 13 3 0 2
node 14 2 0 2
node 15 2 0 2
node 16 3 0 2
gene 2 1 13 86406 0 1 86406 1
gene 3 2 13 -127860 0 2 -127860 1
gene 3 3 13 -350634 0 3 -350634 1
gene 3 4 13 -579122 0 4 -579122 1
gene 4 5 13 -474633 0 5 -474633 1
gene 2 6 13 -219321 0 6 -219321 1
gene 2 7 13 -74946 0 7 -74946 1
gene 1 8 13 20565 0 8 20565 1
gene 2 9 13 -24282 0 9 -24282 1
gene 4 10 13 800000 0 10 800000 1
gene 1 11 13 -57066 0 11 -57066 1
gene 3 12 13 2925 0 12 2925 1
gene 1 1 14 455944 0 13 455944 1
gene 1 2 14 156846 0 14 156846 1
gene 4 3 14 -230721 0 15 -230721 1
gene 1 4 14 -638583 0 16 -638583 1
gene 3 5 14 37038 0 17 37038 1
gene 4 6 14 478605 0 18 478605 1
gene 1 7 14 287508 0 19 287508 1
gene 3 8 14 8661 0 20 8661 1
gene 4 9 14 211947 0 21 211947 1
gene 1 10 14 740961 0 22 740961 1
gene 4 11 14 486 0 23 486 1
gene 3 12 14 435921 0 24 435921 1
gene 1 1 15 424587 0 25 424587 1
gene 4 2 15 -270861 0 26 -270861 1
gene 4 3 15 35136 0 27 35136 1
gene 3 4 15 211716 0 28 211716 1
gene 2 5 15 -138876 0 29 -138876 1
gene 4 6 15 800000 0 30 800000 1
gene 3 7 15 296061 0 31 296061 1
gene 2 8 15 346830 0 32 346830 1
gene 3 9 15 483171 0 33 483171 1
gene 2 10 15 -223207 0 34 -223207 1
gene 4 11 15 75786 0 35 75786 1
gene 2 12 15 -641406 0 36 -641406 1
gene 4 1 16 -480177 0 37 -480177 1
gene 4 2 16 -768575 0 38 -768575 1
gene 2 3 16 -175896 0 39 -175896 1
gene 2 4 16 450486 0 40 450486 1
gene 1 5 16 -424263 0 41 -424263 1
gene 4 6 16 -199344 0 42 -199344 1
gene 1 7 16 -299790 0 43 -299790 1
gene 4 8 16 323814 0 44 323814 1
gene 2 9 16 -288815 0 45 -288815 1
gene 1 10 16 -226389 0 46 -226389 1
gene 3 11 16 -773916 0 47 -773916 1
gene 1 12 16 -31773 0 48 -31773 1
gene 1 16 13 211680 0 86 211680 1
gene 2 15 16 -298572 0 90 -298572 1
gene 4 13 14 -496260 0 117 -496260 1
gene 3 15 13 89829 0 262 89829 1
gene 3 15 15 91350 1 285 91350 1
gene 1 16 15 702531 1 289 702531 1
gene 3 15 14 -164985 0 348 -164985 1
gene 3 16 16 -9172 1 583 -9172 1
genomeend 17


/* Organism #22 Fitness: 175.000000 Time: 0 */
/* Position #22*/
#1 x: 72 y: 26
#2 x: 77 y: 28
#3 x: 70 y: 36
#4 x: 83 y: 75
#5 x: 24 y: 79
#6 x: 75 y: 76
genomestart 22
node 1 4 1 3
node 2 3 1 1
node 3 2 1 1
node 4 1 1 1
node 5 1 1 1
node 6 2 1 1
node 7 4 1 1
node 8 1 1 1
node 9 3 1 1
node 10 2 1 1
node 11 3 1 1
node 12 2 1 1
node 13 4 0 2
node 14 2 0 2
node 15 4 0 2
node 16 4 0 2
node 26 1 0 0
gene 4 1 13 448872 0 1 448872 1
gene 3 2 13 532829 0 2 532829 1
gene 3 3 13 -800000 0 3 -800000 0
gene 2 4 13 -434640 0 4 -434640 1
gene 1 5 13 -1944 0 5 -1944 1
gene 2 6 13 -295980 0 6 -295980 1
gene 2 7 13 -508797 0 7 -508797 1
gene 1 8 13 -281751 0 8 -281751 1
gene 2 9 13 -800000 0 9 -800000 1
gene 2 10 13 -764249 0 10 -764249 1
gene 2 11 13 139584 0 11 139584 1
gene 4 12 13 -537117 0 12 -537117 1
gene 3 1 14 505839 0 13 505839 1
gene 2 2 14 594033 0 14 594033 1
gene 1 3 14 -350850 0 15 -350850 1
gene 4 4 14 -130689 0 16 -130689 1
gene 1 5 14 48855 0 17 48855 1
gene 1 6 14 -168075 0 18 -168075 1
gene 2 7 14 -730170 0 19 -730170 1
gene 1 8 14 111810 0 20 111810 1
gene 1 9 14 800000 0 21 800000 1
gene 2 10 14 87324 0 22 87324 1
gene 1 11 14 -247362 0 23 -247362 1
gene 4 12 14 -37830 0 24 -37830 1
gene 4 1 15 -53163 0 25 -53163 1
gene 1 2 15 -13569 0 26 -13569 1
gene 3 3 15 -451083 0 27 -451083 1
gene 2 4 15 797301 0 28 797301 1
gene 2 5 15 -286761 0 29 -286761 1
gene 4 6 15 179562 0 30 179562 1
gene 1 7 15 -385491 0 31 -385491 1
gene 1 8 15 112302 0 32 112302 1
gene 3 9 15 94110 0 33 94110 1
gene 4 10 15 -146364 0 34 -146364 1
gene 2 11 15 190371 0 35 190371 1
gene 4 12 15 321402 0 36 321402 1
gene 3 1 16 -169416 0 37 -169416 1
gene 1 2 16 -788511 0 38 -788511 1
gene 2 3 16 399720 0 39 399720 1
gene 3 4 16 -26772 0 40 -26772 1
gene 4 5 16 223392 0 41 223392 1
gene 2 6 16 480270 0 42 480270 1
gene 2 7 16 -136335 0 43 -136335 1
gene 1 8 16 -217227 0 44 -217227 1
gene 1 9 16 183057 0 45 183057 1
gene 2 10 16 159252 0 46 159252 1
gene 1 11 16 -83481 0 47 -83481 1
gene 1 12 16 623001 0 48 623001 1
gene 4 15 16 -429027 0 147 -429027 1
gene 1 15 14 -718377 0 200 -718377 1
gene 3 3 26 182280 0 350 182280 1
gene 3 26 13 -237564 0 351 -237564 1
gene 1 16 14 -244206 0 359 -244206 1
gene 4 14 26 -250248 0 370 -250248 1
gene 4 5 26 -199269 0 403 -199269 1
gene 2 15 13 -247197 0 443 -247197 1
gene 1 12 26 -339558 0 498 -339558 1
genomeend 22


/* Organism #24 Fitness: 156.000000 Time: 0 */
/* Position #24*/
#1 x: 25 y: 34
#2 x: 17 y: 39
#3 x: 66 y: 26
#4 x: 23 y: 77
#5 x: 82 y: 78
#6 x: 85 y: 79
genomestart 24
node 1 1 1 3
node 2 4 1 1
node 3 2 1 1
node 4 1 1 1
node 5 4 1 1
node 6 3 1 1
node 7 2 1 1
node 8 4 1 1
node 9 4 1 1
node 10 2 1 1
node 11 3 1 1
node 12 4 1 1
node 13 3 0 2
node 14 3 0 2
node 15 4 0 2
node 16 1 0 2
node 36 1 0 0
gene 4 1 13 -13356 0 1 -13356 1
gene 4 2 13 102096 0 2 102096 1
gene 2 3 13 -250044 0 3 -250044 1
gene 2 4 13 602472 0 4 602472 1
gene 4 5 13 -603369 0 5 -603369 1
gene 1 6 13 -380418 0 6 -380418 1
gene 3 7 13 473511 0 7 473511 1
gene 4 8 13 178344 0 8 178344 1
gene 1 9 13 -141978 0 9 -141978 1
gene 2 10 13 679901 0 10 679901 1
gene 1 11 13 669054 0 11 669054 1
gene 1 12 13 1818 0 12 1818 1
gene 2 1 14 193137 0 13 193137 1
gene 2 2 14 81660 0 14 81660 1
gene 1 3 14 -84780 0 15 -84780 1
gene 2 4 14 -766056 0 16 -766056 1
gene 1 5 14 -345201 0 17 -345201 1
gene 1 6 14 -65508 0 18 -65508 1
gene 4 7 14 -169314 0 19 -169314 1
gene 1 8 14 60180 0 20 60180 1
gene 1 9 14 -558831 0 21 -558831 1
gene 2 10 14 -531882 0 22 -531882 1
gene 1 11 14 -306963 0 23 -306963 1
gene 2 12 14 -711225 0 24 -711225 1
gene 2 1 15 652803 0 25 652803 1
gene 4 2 15 -455097 0 26 -455097 1
gene 3 3 15 -71946 0 27 -71946 1
gene 2 4 15 -253659 0 28 -253659 1
gene 2 5 15 -55614 0 29 -55614 1
gene 1 6 15 -53736 0 30 -53736 1
gene 1 7 15 -626615 0 31 -626615 1
gene 1 8 15 -564408 0 32 -564408 1
gene 2 9 15 273750 0 33 273750 1
gene 4 10 15 -294984 0 34 -294984 1
gene 4 11 15 -421740 0 35 -421740 1
gene 1 12 15 -250539 0 36 -250539 1
gene 3 1 16 -40167 0 37 -40167 1
gene 3 2 16 603342 0 38 603342 1
gene 2 3 16 -154221 0 39 -154221 1
gene 4 4 16 554208 0 40 554208 1
gene 4 5 16 17964 0 41 17964 1
gene 3 6 16 -596790 0 42 -596790 1
gene 2 7 16 -502458 0 43 -502458 1
gene 1 8 16 -84186 0 44 -84186 1
gene 2 9 16 189483 0 45 189483 1
gene 4 10 16 761367 0 46 761367 1
gene 1 11 16 -486246 0 47 -486246 1
gene 1 12 16 -502452 0 48 -502452 1
gene 3 15 13 -220164 0 152 -220164 1
gene 4 14 15 -141276 0 213 -141276 0
gene 2 14 13 -626058 0 286 -626058 1
gene 4 16 13 -234243 0 299 -234243 1
gene 4 15 16 221733 0 487 221733 1
gene 4 14 36 215014 0 540 215014 1
gene 4 36 15 306741 0 541 306741 1
gene 3 8 36 18743 0 545 18743 1
gene 2 4 36 -264937 0 558 -264937 1
gene 3 36 13 -59444 0 579 -59444 1
genomeend 24


/* Organism #27 Fitness: 154.000000 Time: 0 */
/* Position #27*/
#1 x: 53 y: 18
#2 x: 43 y: 33
#3 x: 74 y: 29
#4 x: 22 y: 60
#5 x: 59 y: 60
#6 x: 69 y: 79
genomestart 27
node 1 1 1 3
node 2 2 1 1
node 3 2 1 1
node 4 3 1 1
node 5 1 1 1
node 6 1 1 1
node 7 4 1 1
node 8 4 1 1
node 9 4 1 1
node 10 4 1 1
node 11 4 1 1
node 12 2 1 1
node 13 1 0 2
node 14 4 0 2
node 15 1 0 2
node 16 4 0 2
gene 4 1 13 329409 0 1 329409 1
gene 3 2 13 -92439 0 2 -92439 1
gene 3 3 13 63159 0 3 63159 1
gene 4 4 13 -173895 0 4 -173895 1
gene 1 5 13 800000 0 5 800000 1
gene 2 6 13 324387 0 6 324387 1
gene 3 7 13 -410598 0 7 -410598 1
gene 1 8 13 -79056 0 8 -79056 1
gene 3 9 13 726282 0 9 726282 1
gene 2 10 13 210930 0 10 210930 1
gene 1 11 13 -92967 0 11 -92967 1
gene 2 12 13 576168 0 12 576168 1
gene 2 1 14 -241170 0 13 -241170 1
gene 2 2 14 -632552 0 14 -632552 1
gene 1 3 14 -265233 0 15 -265233 1
gene 4 4 14 142228 0 16 142228 1
gene 1 5 14 -423102 0 17 -423102 1
gene 1 6 14 5245 0 18 5245 1
gene 2 7 14 320354 0 19 320354 1
gene 1 8 14 -569579 0 20 -569579 1
gene 1 9 14 -209097 0 21 -209097 1
gene 4 10 14 -29229 0 22 -29229 1
gene 1 11 14 -731053 0 23 -731053 1
gene 2 12 14 -190857 0 24 -190857 1
gene 4 1 15 -670463 0 25 -670463 1
gene 3 2 15 -545382 0 26 -545382 1
gene 4 3 15 -68049 0 27 -68049 1
gene 2 4 15 -248193 0 28 -248193 1
gene 2 5 15 61404 0 29 61404 1
gene 3 6 15 -800000 0 30 -800000 1
gene 1 7 15 508553 0 31 508553 1
gene 1 8 15 -722765 0 32 -722765 1
gene 2 9 15 -511068 0 33 -511068 1
gene 4 10 15 -800000 0 34 -800000 1
gene 4 11 15 787754 0 35 787754 1
gene 2 12 15 -612924 0 36 -612924 1
gene 2 1 16 -485382 0 37 -485382 1
gene 4 2 16 -356045 0 38 -356045 1
gene 2 3 16 -276075 0 39 -276075 1
gene 4 4 16 -678350 0 40 -678350 1
gene 4 5 16 -314982 0 41 -314982 1
gene 3 6 16 470412 0 42 470412 1
gene 2 7 16 170220 0 43 170220 1
gene 1 8 16 -67881 0 44 -67881 1
gene 3 9 16 -586872 0 45 -586872 1
gene 4 10 16 -525774 0 46 -525774 1
gene 2 11 16 -157683 0 47 -157683 1
gene 1 12 16 -19029 0 48 -19029 1
gene 1 16 13 143673 0 145 143673 1
gene 3 16 16 609456 1 217 609456 1
gene 3 14 15 -182238 0 258 -182238 1
gene 1 14 14 -57324 1 389 -57324 1
gene 2 13 13 86088 1 445 86088 1
gene 1 16 15 33423 0 480 33423 1
genomeend 27


/* Organism #38 Fitness: 175.000000 Time: 0 */
/* Position #38*/
#1 x: 24 y: 27
#2 x: 52 y: 33
#3 x: 55 y: 32
#4 x: 81 y: 80
#5 x: 44 y: 70
#6 x: 60 y: 73
genomestart 38
node 1 2 1 3
node 2 4 1 1
node 3 3 1 1
node 4 4 1 1
node 5 1 1 1
node 6 2 1 1
node 7 4 1 1
node 8 3 1 1
node 9 1 1 1
node 10 1 1 1
node 11 3 1 1
node 12 3 1 1
node 13 3 0 2
node 14 2 0 2
node 15 2 0 2
node 16 1 0 2
node 31 1 0 0
gene 2 1 13 800000 0 1 800000 1
gene 3 2 13 273852 0 2 273852 1
gene 3 3 13 715779 0 3 715779 1
gene 3 4 13 244496 0 4 244496 1
gene 3 5 13 -187626 0 5 -187626 1
gene 2 6 13 -49779 0 6 -49779 1
gene 2 7 13 27321 0 7 27321 1
gene 1 8 13 -84071 0 8 -84071 1
gene 2 9 13 133755 0 9 133755 1
gene 4 10 13 -97509 0 10 -97509 1
gene 2 11 13 319410 0 11 319410 1
gene 3 12 13 232593 0 12 232593 1
gene 1 1 14 215982 0 13 215982 1
gene 1 2 14 -106075 0 14 -106075 1
gene 4 3 14 15027 0 15 15027 1
gene 1 4 14 537042 0 16 537042 1
gene 1 5 14 328902 0 17 328902 1
gene 4 6 14 470571 0 18 470571 1
gene 1 7 14 -40359 0 19 -40359 1
gene 3 8 14 656883 0 20 656883 1
gene 4 9 14 441587 0 21 441587 1
gene 1 10 14 -386370 0 22 -386370 1
gene 4 11 14 -429483 0 23 -429483 1
gene 3 12 14 425364 0 24 425364 1
gene 1 1 15 -800000 0 25 -800000 1
gene 4 2 15 -140526 0 26 -140526 1
gene 4 3 15 -427583 0 27 -427583 1
gene 3 4 15 679299 0 28 679299 1
gene 2 5 15 -800000 0 29 -800000 1
gene 4 6 15 133467 0 30 133467 1
gene 3 7 15 602907 0 31 602907 1
gene 2 8 15 -137550 0 32 -137550 1
gene 3 9 15 187545 0 33 187545 1
gene 2 10 15 -68019 0 34 -68019 1
gene 2 11 15 -622421 0 35 -622421 1
gene 2 12 15 -247419 0 36 -247419 1
gene 4 1 16 450366 0 37 450366 1
gene 4 2 16 -442167 0 38 -442167 1
gene 2 3 16 52161 0 39 52161 1
gene 2 4 16 -69543 0 40 -69543 1
gene 1 5 16 446079 0 41 446079 1
gene 4 6 16 101691 0 42 101691 1
gene 1 7 16 324516 0 43 324516 1
gene 4 8 16 231726 0 44 231726 1
gene 2 9 16 -253143 0 45 -253143 1
gene 1 10 16 415613 0 46 415613 1
gene 3 11 16 -204624 0 47 -204624 1
gene 1 12 16 -280599 0 48 -280599 1
gene 1 16 13 47898 0 86 47898 1
gene 2 15 16 -49434 0 90 -49434 1
gene 2 13 14 -276747 0 117 -276747 0
gene 3 15 13 -63729 0 262 -63729 1
gene 3 15 15 -418542 1 285 -418542 1
gene 1 16 15 -221904 1 289 -221904 1
gene 2 13 13 -245199 1 361 -245199 1
gene 2 13 31 246663 0 408 246663 1
gene 2 31 14 -228564 0 409 -228564 1
gene 1 2 31 267528 0 414 267528 1
genomeend 38


/* Organism #39 Fitness: 160.000000 Time: 0 */
/* Position #39*/
#1 x: 24 y: 27
#2 x: 52 y: 33
#3 x: 55 y: 32
#4 x: 81 y: 80
#5 x: 44 y: 70
#6 x: 60 y: 73
genomestart 39
node 1 1 1 3
node 2 1 1 1
node 3 2 1 1
node 4 1 1 1
node 5 4 1 1
node 6 3 1 1
node 7 4 1 1
node 8 4 1 1
node 9 4 1 1
node 10 3 1 1
node 11 3 1 1
node 12 1 1 1
node 13 2 0 2
node 14 3 0 2
node 15 1 0 2
node 16 3 0 2
node 32 1 0 0
gene 4 1 13 533430 0 1 533430 1
gene 3 2 13 -8715 0 2 -8715 1
gene 2 3 13 -225531 0 3 -225531 1
gene 2 4 13 44583 0 4 44583 1
gene 3 5 13 -332219 0 5 -332219 1
gene 1 6 13 40440 0 6 40440 1
gene 3 7 13 39285 0 7 39285 1
gene 4 8 13 58839 0 8 58839 1
gene 1 9 13 268650 0 9 268650 1
gene 2 10 13 628407 0 10 628407 1
gene 1 11 13 -29139 0 11 -29139 1
gene 1 12 13 425205 0 12 425205 1
gene 2 1 14 305373 0 13 305373 1
gene 2 2 14 86307 0 14 86307 1
gene 1 3 14 -512463 0 15 -512463 1
gene 2 4 14 -323190 0 16 -323190 1
gene 2 5 14 198177 0 17 198177 1
gene 1 6 14 383865 0 18 383865 1
gene 4 7 14 -130461 0 19 -130461 1
gene 1 8 14 95571 0 20 95571 1
gene 1 9 14 307157 0 21 307157 1
gene 2 10 14 51936 0 22 51936 1
gene 1 11 14 -647313 0 23 -647313 1
gene 2 12 14 502223 0 24 502223 1
gene 2 1 15 -130461 0 25 -130461 1
gene 4 2 15 400866 0 26 400866 1
gene 3 3 15 -800000 0 27 -800000 1
gene 2 4 15 -327300 0 28 -327300 1
gene 2 5 15 96585 0 29 96585 1
gene 1 6 15 -395657 0 30 -395657 1
gene 3 7 15 -527883 0 31 -527883 1
gene 1 8 15 -78819 0 32 -78819 1
gene 2 9 15 161643 0 33 161643 1
gene 4 10 15 360183 0 34 360183 1
gene 4 11 15 82800 0 35 82800 1
gene 2 12 15 770499 0 36 770499 1
gene 3 1 16 64833 0 37 64833 1
gene 3 2 16 -80373 0 38 -80373 1
gene 2 3 16 172971 0 39 172971 1
gene 2 4 16 -55098 0 40 -55098 1
gene 4 5 16 -544718 0 41 -544718 1
gene 3 6 16 455922 0 42 455922 1
gene 4 7 16 -510938 0 43 -510938 1
gene 1 8 16 82467 0 44 82467 1
gene 1 9 16 -213771 0 45 -213771 1
gene 4 10 16 -690432 0 46 -690432 1
gene 1 11 16 121848 0 47 121848 1
gene 1 12 16 -294333 0 48 -294333 1
gene 1 13 14 26715 0 101 26715 1
gene 4 14 14 -302583 1 138 -302583 0
gene 2 14 16 712098 0 377 712098 1
gene 4 14 32 201537 1 419 201537 1
gene 3 32 14 -299457 0 420 -299457 1
gene 4 15 16 433230 0 487 433230 1
gene 2 13 15 68967 0 495 68967 1
gene 1 12 32 -82602 0 501 -82602 1
gene 3 9 32 -163185 0 509 -163185 1
genomeend 39


/* Organism #40 Fitness: 155.000000 Time: 0 */
/* Position #40*/
#1 x: 34 y: 23
#2 x: 24 y: 38
#3 x: 19 y: 35
#4 x: 74 y: 85
#5 x: 25 y: 71
#6 x: 73 y: 72
genomestart 40
node 1 3 1 3
node 2 2 1 1
node 3 1 1 1
node 4 3 1 1
node 5 1 1 1
node 6 2 1 1
node 7 3 1 1
node 8 4 1 1
node 9 2 1 1
node 10 3 1 1
node 11 3 1 1
node 12 1 1 1
node 13 1 0 2
node 14 2 0 2
node 15 3 0 2
node 16 4 0 2
gene 1 1 13 318617 0 1 318617 1
gene 3 2 13 -800000 0 2 -800000 1
gene 1 3 13 421848 0 3 421848 1
gene 4 4 13 120447 0 4 120447 1
gene 2 5 13 -724697 0 5 -724697 1
gene 2 6 13 -169038 0 6 -169038 1
gene 3 7 13 662895 0 7 662895 1
gene 1 8 13 153165 0 8 153165 1
gene 4 9 13 465915 0 9 465915 1
gene 3 10 13 -17457 0 10 -17457 1
gene 1 11 13 -112008 0 11 -112008 1
gene 2 12 13 168531 0 12 168531 1
gene 2 1 14 261021 0 13 261021 1
gene 2 2 14 -258441 0 14 -258441 1
gene 3 3 14 31374 0 15 31374 1
gene 3 4 14 -43415 0 16 -43415 1
gene 1 5 14 21558 0 17 21558 1
gene 3 6 14 -457362 0 18 -457362 1
gene 3 7 14 800000 0 19 800000 1
gene 3 8 14 401400 0 20 401400 1
gene 1 9 14 -128433 0 21 -128433 1
gene 2 10 14 273689 0 22 273689 1
gene 4 11 14 303345 0 23 303345 1
gene 1 12 14 125820 0 24 125820 1
gene 3 1 15 356877 0 25 356877 1
gene 2 2 15 -201186 0 26 -201186 1
gene 1 3 15 -232611 0 27 -232611 1
gene 1 4 15 547274 0 28 547274 1
gene 2 5 15 794246 0 29 794246 1
gene 3 6 15 173935 0 30 173935 1
gene 4 7 15 -135552 0 31 -135552 1
gene 4 8 15 622173 0 32 622173 1
gene 4 9 15 356754 0 33 356754 1
gene 3 10 15 -800000 0 34 -800000 1
gene 4 11 15 -191781 0 35 -191781 1
gene 2 12 15 -78291 0 36 -78291 1
gene 2 1 16 -106515 0 37 -106515 1
gene 4 2 16 520838 0 38 520838 1
gene 1 3 16 148368 0 39 148368 1
gene 4 4 16 -621402 0 40 -621402 1
gene 4 5 16 -6963 0 41 -6963 1
gene 2 6 16 383103 0 42 383103 1
gene 4 7 16 -281274 0 43 -281274 1
gene 4 8 16 90027 0 44 90027 1
gene 3 9 16 -86334 0 45 -86334 1
gene 4 10 16 -369528 0 46 -369528 1
gene 1 11 16 -293124 0 47 -293124 1
gene 3 12 16 -387033 0 48 -387033 1
gene 3 16 13 -418596 0 205 -418596 1
gene 1 14 13 437451 0 264 437451 1
gene 1 14 16 -112485 0 372 -112485 1
gene 2 16 15 -310206 0 397 -310206 1
gene 4 13 15 269808 0 489 269808 1
gene 2 16 16 19107 1 514 19107 1
genomeend 40


/* Organism #54 Fitness: 175.000000 Time: 0 */
/* Position #54*/
#1 x: 35 y: 40
#2 x: 49 y: 21
#3 x: 24 y: 17
#4 x: 55 y: 68
#5 x: 78 y: 84
#6 x: 56 y: 80
genomestart 54
node 1 1 1 3
node 2 4 1 1
node 3 3 1 1
node 4 4 1 1
node 5 3 1 1
node 6 2 1 1
node 7 4 1 1
node 8 3 1 1
node 9 4 1 1
node 10 1 1 1
node 11 2 1 1
node 12 1 1 1
node 13 2 0 2
node 14 3 0 2
node 15 4 0 2
node 16 2 0 2
gene 1 1 13 -219472 0 1 -219472 1
gene 2 2 13 -163965 0 2 -163965 1
gene 2 3 13 137976 0 3 137976 1
gene 1 4 13 -756039 0 4 -756039 1
gene 1 5 13 -436047 0 5 -436047 1
gene 2 6 13 -141726 0 6 -141726 1
gene 4 7 13 -488727 0 7 -488727 1
gene 2 8 13 -200871 0 8 -200871 1
gene 4 9 13 294678 0 9 294678 1
gene 4 10 13 -175488 0 10 -175488 1
gene 3 11 13 -433296 0 11 -433296 1
gene 1 12 13 -10509 0 12 -10509 1
gene 3 1 14 -715848 0 13 -715848 1
gene 2 2 14 -5496 0 14 -5496 1
gene 1 3 14 -624102 0 15 -624102 1
gene 4 4 14 -414657 0 16 -414657 1
gene 1 5 14 -76290 0 17 -76290 1
gene 2 6 14 -721037 0 18 -721037 1
gene 4 7 14 213246 0 19 213246 1
gene 3 8 14 -352254 0 20 -352254 1
gene 1 9 14 715026 0 21 715026 1
gene 3 10 14 -234894 0 22 -234894 1
gene 1 11 14 94278 0 23 94278 1
gene 4 12 14 -739857 0 24 -739857 1
gene 4 1 15 -800000 0 25 -800000 1
gene 1 2 15 -116325 0 26 -116325 1
gene 1 3 15 262677 0 27 262677 1
gene 3 4 15 -293019 0 28 -293019 1
gene 2 5 15 304590 0 29 304590 1
gene 2 6 15 107730 0 30 107730 1
gene 1 7 15 -272409 0 31 -272409 1
gene 4 8 15 800000 0 32 800000 1
gene 1 9 15 -326679 0 33 -326679 1
gene 1 10 15 363513 0 34 363513 1
gene 4 11 15 -256086 0 35 -256086 1
gene 2 12 15 332316 0 36 332316 1
gene 3 1 16 -152412 0 37 -152412 1
gene 2 2 16 -16137 0 38 -16137 1
gene 4 3 16 311307 0 39 311307 1
gene 1 4 16 -191403 0 40 -191403 1
gene 4 5 16 188829 0 41 188829 1
gene 4 6 16 -95052 0 42 -95052 1
gene 1 7 16 63003 0 43 63003 1
gene 4 8 16 207294 0 44 207294 1
gene 4 9 16 -62856 0 45 -62856 1
gene 3 10 16 243942 0 46 243942 1
gene 4 11 16 -72249 0 47 -72249 1
gene 3 12 16 -71283 0 48 -71283 1
gene 2 16 15 -128112 0 129 -128112 1
gene 2 13 14 -375072 0 265 -375072 1
gene 3 15 13 663648 0 277 663648 1
gene 2 15 14 139152 0 320 139152 1
gene 2 16 14 -412464 0 323 -412464 1
genomeend 54


/* Organism #62 Fitness: 154.000000 Time: 0 */
/* Position #62*/
#1 x: 39 y: 24
#2 x: 45 y: 31
#3 x: 21 y: 28
#4 x: 55 y: 71
#5 x: 41 y: 63
#6 x: 74 y: 83
genomestart 62
node 1 2 1 3
node 2 4 1 1
node 3 3 1 1
node 4 3 1 1
node 5 1 1 1
node 6 2 1 1
node 7 4 1 1
node 8 3 1 1
node 9 1 1 1
node 10 4 1 1
node 11 3 1 1
node 12 3 1 1
node 13 4 0 2
node 14 2 0 2
node 15 2 0 2
node 16 3 0 2
gene 2 1 13 -324245 0 1 -324245 1
gene 3 2 13 271125 0 2 271125 1
gene 2 3 13 -72390 0 3 -72390 1
gene 2 4 13 363306 0 4 363306 1
gene 4 5 13 -453603 0 5 -453603 1
gene 1 6 13 -251682 0 6 -251682 1
gene 2 7 13 331851 0 7 331851 1
gene 1 8 13 362352 0 8 362352 1
gene 4 9 13 11562 0 9 11562 1
gene 4 10 13 -348585 0 10 -348585 1
gene 1 11 13 -178506 0 11 -178506 1
gene 1 12 13 270681 0 12 270681 1
gene 2 1 14 -548748 0 13 -548748 1
gene 1 2 14 17862 0 14 17862 1
gene 4 3 14 510312 0 15 510312 1
gene 2 4 14 800000 0 16 800000 1
gene 2 5 14 -93279 0 17 -93279 1
gene 4 6 14 248828 0 18 248828 1
gene 1 7 14 578219 0 19 578219 1
gene 2 8 14 -77901 0 20 -77901 1
gene 3 9 14 151149 0 21 151149 1
gene 1 10 14 -104877 0 22 -104877 1
gene 3 11 14 -530591 0 23 -530591 1
gene 2 12 14 -162123 0 24 -162123 1
gene 4 1 15 -800000 0 25 -800000 1
gene 4 2 15 -661731 0 26 -661731 1
gene 1 3 15 -176256 0 27 -176256 1
gene 2 4 15 -592845 0 28 -592845 1
gene 2 5 15 6033 0 29 6033 1
gene 2 6 15 -39372 0 30 -39372 1
gene 3 7 15 39240 0 31 39240 1
gene 2 8 15 -25401 0 32 -25401 1
gene 4 9 15 376431 0 33 376431 1
gene 4 10 15 341151 0 34 341151 1
gene 2 11 15 800000 0 35 800000 1
gene 1 12 15 -744062 0 36 -744062 1
gene 3 1 16 667961 0 37 667961 1
gene 3 2 16 110790 0 38 110790 1
gene 2 3 16 -663119 0 39 -663119 1
gene 4 4 16 431757 0 40 431757 1
gene 3 5 16 312207 0 41 312207 1
gene 1 6 16 746108 0 42 746108 1
gene 4 7 16 346206 0 43 346206 1
gene 4 8 16 -56697 0 44 -56697 1
gene 4 9 16 168060 0 45 168060 1
gene 1 10 16 -117381 0 46 -117381 1
gene 2 11 16 317100 0 47 317100 1
gene 3 12 16 -110754 0 48 -110754 1
gene 4 14 14 -198540 1 104 -198540 1
gene 2 14 16 -160131 0 172 -160131 1
gene 2 13 13 -275115 1 177 -275115 1
gene 3 14 13 393177 0 393 393177 1
gene 3 16 13 -206805 0 430 -206805 1
gene 3 16 15 -287559 0 515 -287559 1
genomeend 62


/* Organism #69 Fitness: 211.000000 Time: 0 */
/* Position #69*/
#1 x: 26 y: 38
#2 x: 46 y: 36
#3 x: 75 y: 37
#4 x: 79 y: 77
#5 x: 60 y: 64
#6 x: 44 y: 73
genomestart 69
node 1 1 1 3
node 2 1 1 1
node 3 2 1 1
node 4 1 1 1
node 5 1 1 1
node 6 3 1 1
node 7 4 1 1
node 8 4 1 1
node 9 4 1 1
node 10 4 1 1
node 11 3 1 1
node 12 1 1 1
node 13 2 0 2
node 14 3 0 2
node 15 2 0 2
node 16 3 0 2
node 32 1 0 0
gene 1 1 13 -153324 0 1 -153324 1
gene 3 2 13 517302 0 2 517302 1
gene 2 3 13 -113913 0 3 -113913 1
gene 2 4 13 267825 0 4 267825 1
gene 3 5 13 -295038 0 5 -295038 1
gene 1 6 13 -555711 0 6 -555711 1
gene 3 7 13 -77709 0 7 -77709 1
gene 4 8 13 -522947 0 8 -522947 1
gene 1 9 13 234432 0 9 234432 1
gene 2 10 13 -487362 0 10 -487362 1
gene 1 11 13 176784 0 11 176784 1
gene 1 12 13 66627 0 12 66627 1
gene 2 1 14 166485 0 13 166485 1
gene 2 2 14 -69720 0 14 -69720 1
gene 1 3 14 119154 0 15 119154 1
gene 2 4 14 1032 0 16 1032 1
gene 2 5 14 71904 0 17 71904 1
gene 1 6 14 273885 0 18 273885 1
gene 4 7 14 605736 0 19 605736 1
gene 1 8 14 413304 0 20 413304 1
gene 1 9 14 85140 0 21 85140 1
gene 2 10 14 -523794 0 22 -523794 1
gene 1 11 14 730986 0 23 730986 1
gene 4 12 14 -163332 0 24 -163332 1
gene 2 1 15 -130431 0 25 -130431 1
gene 4 2 15 105063 0 26 105063 1
gene 3 3 15 -251406 0 27 -251406 1
gene 2 4 15 337446 0 28 337446 1
gene 2 5 15 -481836 0 29 -481836 1
gene 1 6 15 -354636 0 30 -354636 1
gene 1 7 15 -800000 0 31 -800000 1
gene 1 8 15 622149 0 32 622149 1
gene 2 9 15 347706 0 33 347706 1
gene 4 10 15 29040 0 34 29040 1
gene 4 11 15 -533438 0 35 -533438 1
gene 2 12 15 -776574 0 36 -776574 1
gene 3 1 16 87819 0 37 87819 1
gene 3 2 16 739583 0 38 739583 1
gene 2 3 16 133014 0 39 133014 1
gene 2 4 16 513726 0 40 513726 1
gene 4 5 16 -76407 0 41 -76407 1
gene 3 6 16 97404 0 42 97404 1
gene 4 7 16 736611 0 43 736611 1
gene 1 8 16 -137847 0 44 -137847 1
gene 1 9 16 -32169 0 45 -32169 1
gene 4 10 16 140862 0 46 140862 1
gene 1 11 16 -322335 0 47 -322335 1
gene 1 12 16 -674190 0 48 -674190 1
gene 1 13 14 291054 0 101 291054 1
gene 4 14 14 185040 1 138 185040 0
gene 2 14 16 -197784 0 377 -197784 1
gene 4 14 32 -298347 1 419 -298347 1
gene 4 32 14 -284808 0 420 -284808 1
gene 3 6 32 -515457 0 449 -515457 1
gene 3 32 16 -83571 0 537 -83571 1
gene 4 2 32 292713 0 554 292713 1
gene 1 10 32 338013 0 556 338013 1
genomeend 69


